// Numpy array shape [64, 16]
// Min -4.570625
// Max 3.0254734
// Number of zeros 0

#ifndef INP_LAYER_WEIGHT_H_
#define INP_LAYER_WEIGHT_H_

#ifndef __SYNTHESIS__
model_default_t inp_layer_weight[1024];
#else
model_default_t inp_layer_weight[1024] = {-0.039726775139570236, -0.118953637778759, 0.026586031541228294, 0.11138885468244553, 0.00011209825606783852, 0.03238827362656593, 
0.15482687950134277, 0.004011980723589659, 0.014873667620122433, -0.00022969662677496672, 0.020622506737709045, -0.10971491038799286, 0.04110085964202881, 
0.0013865416403859854, 0.08885026723146439, 0.056695036590099335, 0.008879449218511581, 0.03822532296180725, -0.13959389925003052, -0.005006700288504362, 
-0.05739126726984978, -0.07805181294679642, 0.1117398664355278, 0.08129478991031647, -0.2094443142414093, 0.08715875446796417, -0.043615277856588364, 
0.0029264846816658974, -0.0981886237859726, 0.14911815524101257, -0.07423344254493713, 0.0022391073871403933, 0.015943611040711403, 0.0790482610464096, 
0.011798255145549774, -0.08861660212278366, 0.014240829274058342, -0.0028154682368040085, 0.040408018976449966, -0.04045737534761429, 0.06611209362745285, 
0.0775323435664177, 0.055877309292554855, -0.06915893405675888, -0.0988783910870552, -0.0012375976657494903, -0.14012619853019714, -0.1273040771484375, 
-0.0633341521024704, 0.08952310681343079, 0.052897632122039795, 0.050454240292310715, 0.045834362506866455, 0.021782193332910538, 0.0013655144721269608, 
-0.042037561535835266, -0.10049642622470856, -0.0441286601126194, 0.1344647854566574, -0.01045858021825552, 0.1223955750465393, -0.0030036787502467632, 
0.10121753066778183, 0.08998865634202957, 0.010455240495502949, 0.10385509580373764, 0.028160134330391884, 0.07616957277059555, -0.0005379177164286375, 
-0.0029575589578598738, 0.09842681139707565, -0.008192204870283604, 0.014495976269245148, -0.005108173470944166, 0.11962443590164185, -0.003449823008850217, 
0.11919421702623367, 0.006082789972424507, -0.13971960544586182, -0.020790711045265198, -0.127527117729187, -0.04159451648592949, -0.08284137398004532, 
0.004628621973097324, -0.056209832429885864, -0.08138015121221542, -0.06723344326019287, -0.0808015763759613, 0.11737433075904846, -0.05506008863449097, 
0.014622461050748825, -0.0037541056517511606, 0.05041571334004402, -0.01627248339354992, -0.12497401982545853, 0.005791202653199434, -0.10393848270177841, 
0.016781717538833618, 0.013713300228118896, 0.09867458045482635, 0.002726882928982377, 0.0011554749216884375, 0.009562341496348381, 0.05913509055972099, 
0.048468831926584244, -0.049299921840429306, 0.0018002460710704327, -0.014373395591974258, 0.13475309312343597, 0.12888740003108978, -0.1411241888999939, 
0.0824364647269249, -0.04542343690991402, -0.14689695835113525, -0.0683465227484703, 0.06672748923301697, -0.07159119844436646, -0.0185096338391304, 
0.0031634808983653784, 0.13721054792404175, -0.059467121958732605, -0.07836713641881943, -0.11894900351762772, 0.16368581354618073, 0.06506092846393585, 
-0.02116621471941471, -0.0450536347925663, -0.048333968967199326, -0.03704887628555298, -0.05708305165171623, 0.08822469413280487, 0.07791949063539505, 
0.0010354502592235804, 0.0009548132657073438, 0.140983447432518, -0.0026678023859858513, -0.021870244294404984, 0.0014654293190687895, -0.11637289077043533, 
0.2683658003807068, -0.103630930185318, -0.009962474927306175, -0.07194940000772476, -0.09177030622959137, 0.2041006088256836, -0.0256959218531847, 
0.16778531670570374, 0.002654224168509245, 0.056560177356004715, 0.1407141238451004, -0.010524600744247437, 0.15898922085762024, -0.20237597823143005, 
-0.08703329414129257, 0.02356969751417637, -0.0037797775585204363, -0.04539185389876366, 0.11101000756025314, -0.22784045338630676, 0.024230726063251495, 
0.03178245201706886, 0.0647939071059227, 0.020948240533471107, -0.14349497854709625, -0.010352848097682, -0.00303344102576375, -0.17309539020061493, 
-0.07242037355899811, -0.09983474761247635, 0.020242871716618538, -0.04615351930260658, 0.059269919991493225, 0.06888817250728607, 0.1908496916294098, 
0.04380042850971222, -0.2044476419687271, -0.05449064448475838, 0.06600195914506912, 0.120528444647789, -0.05956468731164932, -0.07343976199626923, 
0.19258049130439758, -0.006766556296497583, -0.0985751524567604, 0.09727377444505692, -0.07201464474201202, 0.04325921833515167, -0.20559701323509216, 
-0.17735262215137482, 0.00532856909558177, -0.0427180640399456, -0.0993671864271164, 0.03803975135087967, 0.1294291615486145, -0.06711861491203308, 
0.13757114112377167, 0.0021657554898411036, -0.016313357278704643, -0.12037031352519989, 0.015341597609221935, 0.05747957527637482, 0.04706444591283798, 
0.27637508511543274, 0.05187210068106651, -0.14445257186889648, 0.014957069419324398, -0.2774340510368347, 0.039436835795640945, 0.30533066391944885, 
-0.1383921056985855, -0.10777819901704788, -0.08479483425617218, 0.16134478151798248, 0.14987434446811676, 0.14362016320228577, 0.02813774347305298, 
-0.1967831403017044, 0.32554948329925537, 0.15771359205245972, 0.019429029896855354, -0.2833375930786133, 0.22968341410160065, 0.13885074853897095, 
0.013435633853077888, -0.1540316939353943, 0.3033968210220337, -0.15252992510795593, -0.10954025387763977, -0.060922395437955856, -0.05012943968176842, 
-0.05702408030629158, 0.030368268489837646, 0.13551177084445953, -0.20028355717658997, 0.08032898604869843, -0.08697371184825897, -0.18260377645492554, 
-0.1333826780319214, 0.01970541663467884, -0.10414188355207443, 0.0963444635272026, -0.17920832335948944, -0.02317938767373562, 0.004975132178515196, 
0.260834276676178, -0.22016076743602753, 0.04842640459537506, -0.14243058860301971, -0.20759324729442596, 0.12504589557647705, -0.268359512090683, 
0.29049941897392273, 0.43201369047164917, -0.12157639861106873, 0.10255113989114761, -0.09426604956388474, -0.937860906124115, 0.0188430305570364, 
0.34384551644325256, -0.048383086919784546, -0.7715942859649658, 0.8782688975334167, 0.5989795327186584, -0.2722132205963135, 0.4043391942977905, 
0.16149631142616272, -0.20920594036579132, -0.0329294353723526, 0.5846917033195496, 0.6283708810806274, 0.19602647423744202, -0.19692885875701904, 
-0.3349519670009613, 0.536618709564209, 0.14802256226539612, -0.3835543692111969, 0.3912194073200226, -0.3924083709716797, -0.5364689826965332, 
-0.012883116491138935, -0.4678126871585846, -0.08720575273036957, -0.4873177111148834, 0.38264548778533936, 0.1115211546421051, -0.5679262280464172, 
-0.173225536942482, -0.06362824887037277, -0.17398016154766083, -0.005619958508759737, 0.9250537157058716, 0.6704132556915283, -0.850450873374939, 
-0.13589714467525482, -0.710503339767456, -0.1653946340084076, 0.023519758135080338, 0.6357890963554382, -0.7631529569625854, 0.45424169301986694, 
-0.3437758982181549, -0.13887131214141846, 0.44041281938552856, 0.2272869050502777, 0.3102464973926544, 0.41554442048072815, -0.028824996203184128, 
0.22553250193595886, -0.38926735520362854, -0.1358526349067688, -0.2088526040315628, -0.4982890188694, 0.6177569627761841, -0.43780317902565, 
0.34498631954193115, 0.5628788471221924, 0.507308304309845, -0.4845440685749054, -0.32397985458374023, -0.05954483896493912, 0.3049296438694, 
0.1605520099401474, -0.23953278362751007, 0.3110402524471283, 0.0003567571984604001, -0.35589396953582764, -0.4102861285209656, 0.027454668655991554, 
-0.2876538634300232, -0.17597980797290802, 0.3863517642021179, 0.04338065907359123, -0.35770440101623535, -0.20329278707504272, -0.27785924077033997, 
0.3281872272491455, 0.10554824769496918, -0.29355791211128235, -0.08290091902017593, 0.0525156706571579, -0.16540542244911194, 0.3678362965583801, 
0.39393317699432373, 0.3042043149471283, 0.059787508100271225, 0.21132448315620422, 0.15659314393997192, -0.0028707189485430717, -0.13570788502693176, 
0.32970425486564636, -0.18575604259967804, 0.04565417394042015, 0.10109840333461761, 0.19657599925994873, -0.26058831810951233, -0.35374027490615845, 
0.24301081895828247, 0.1407402902841568, 0.19870500266551971, 0.4026782512664795, 0.29263848066329956, -0.2680404782295227, 0.4130723476409912, 
-0.48441970348358154, 0.07029251754283905, -0.11710136383771896, -0.44119399785995483, -0.09019523113965988, -0.012115024961531162, -0.443884938955307, 
0.3182295262813568, -0.24816258251667023, 0.27104073762893677, 0.1826339215040207, -0.14537541568279266, -0.025463275611400604, -0.4443919062614441, 
0.39512330293655396, -0.28439080715179443, -0.03082887828350067, 0.06432680040597916, 0.3983830213546753, 0.3211263418197632, -0.28475436568260193, 
-0.9687345027923584, -0.11804686486721039, 0.3618414103984833, -0.15472358465194702, -0.37880203127861023, 0.9032699465751648, 0.4593021869659424, 
-0.0380491204559803, 0.3649426996707916, 0.2008064240217209, -0.4189116954803467, 0.143621563911438, 0.7445603013038635, 0.6139122247695923, 
0.07094531506299973, -0.6074255108833313, -0.2865086793899536, 0.538202702999115, -0.1085544228553772, -0.3083828389644623, 0.3702918589115143, 
-0.4923703670501709, -0.34521612524986267, -0.3680868446826935, -0.33875811100006104, 0.2700888514518738, -0.525455892086029, 0.6085012555122375, 
0.07893546670675278, -0.6409280300140381, -0.1750594526529312, 0.06059621647000313, -0.2480160892009735, -0.25682759284973145, 0.8912860751152039, 
0.903374195098877, -0.6759210824966431, -0.15578307211399078, -0.6628895998001099, -0.3097294569015503, 0.16428233683109283, 0.7543888688087463, 
-1.0780482292175293, 0.7974095344543457, -0.31992217898368835, -0.20240852236747742, 0.5352185964584351, 0.3275330364704132, 0.1438758224248886, 
0.502845823764801, -0.2124151736497879, 0.1446806937456131, -0.7342413067817688, -0.23707787692546844, -0.09227962791919708, -0.25644737482070923, 
0.3670715093612671, -0.4409217834472656, 0.46035653352737427, 0.41180744767189026, 0.5450876951217651, -0.38044142723083496, -0.1786525398492813, 
0.05015286058187485, -0.20149116218090057, 0.19563134014606476, -0.07009448856115341, -0.25940579175949097, 0.09103250503540039, 0.19618171453475952, 
-0.1713232845067978, 0.17323243618011475, -0.13779966533184052, -0.0014827267732471228, 0.2405850738286972, -0.36800217628479004, 0.14707915484905243, 
-0.057481490075588226, 0.046348895877599716, -0.07141932845115662, 0.15410266816616058, -0.15303945541381836, 0.08153750002384186, 0.06819114834070206, 
0.05816938728094101, -0.36894506216049194, 0.008326803334057331, -0.15630598366260529, -0.0643906220793724, -0.007109773810952902, -0.27944430708885193, 
-0.10897314548492432, 0.20566879212856293, -0.16060319542884827, 0.12460099160671234, 0.1675034463405609, -0.2874436676502228, -0.20284734666347504, 
0.028807274997234344, 0.23790524899959564, -0.2430538386106491, 0.16344405710697174, -0.181467667222023, 0.18888096511363983, -0.12269572168588638, 
0.06636542081832886, 0.06255079805850983, -0.04037843272089958, -0.0017120465636253357, -0.1900874376296997, -0.18643426895141602, 0.34044596552848816, 
0.030825383961200714, -0.22416743636131287, -0.16285456717014313, -0.01356174610555172, -0.23568980395793915, 0.16749227046966553, 0.1713779866695404, 
-0.06596152484416962, 0.15015800297260284, -0.16193430125713348, -0.07687009125947952, 0.07091023027896881, -0.08437737077474594, -0.11656264215707779, 
0.026576418429613113, -0.13411962985992432, -0.09215002506971359, -0.07936935871839523, -0.01864205114543438, -0.17339734733104706, -0.027996409684419632, 
0.09968455880880356, -0.09108030050992966, -0.06060914322733879, 0.10245142877101898, -0.017080707475543022, 0.09426863491535187, -0.09147214889526367, 
-0.08671782910823822, 0.05495259910821915, -0.26453468203544617, 0.2328045666217804, 0.037321120500564575, 0.16427414119243622, -0.08691107481718063, 
-0.11622485518455505, -0.3602553904056549, -0.25093385577201843, 0.27446112036705017, 0.04307955875992775, -0.22777949273586273, 0.23459100723266602, 
-0.23966991901397705, 0.024168025702238083, -0.16131548583507538, -0.08945975452661514, 0.24085640907287598, -0.29784026741981506, 0.054523758590221405, 
0.2132100909948349, 0.19212853908538818, 0.12503278255462646, -0.10592155158519745, -0.00289300549775362, 0.17853252589702606, -0.12066548317670822, 
-0.027017025277018547, -0.06734790652990341, -0.22707952558994293, 0.1434810906648636, -0.17553754150867462, -0.19330087304115295, 0.018917266279459, 
-0.31012633442878723, 0.12539461255073547, 0.15162716805934906, 0.36412760615348816, -0.12764108180999756, -0.08485137671232224, 0.11154936999082565, 
0.006860015913844109, -0.031830042600631714, -0.2470274418592453, 0.016755694523453712, -0.11271242797374725, -0.2152101695537567, -0.1618717759847641, 
-0.09700342267751694, 0.002592779230326414, 0.10381895303726196, 0.08399712294340134, 0.07738225162029266, -0.2055429369211197, 0.2270023226737976, 
-0.1977120339870453, 0.07528085261583328, -0.0977158397436142, 0.03163706883788109, -0.0617111437022686, 0.1091621071100235, 0.16306103765964508, 
-0.057942286133766174, -0.03399210423231125, -0.19820545613765717, 0.0470304898917675, 0.1011701300740242, 0.22274714708328247, -0.21696315705776215, 
-0.02234063483774662, 0.12633468210697174, 0.04875718802213669, 0.15275289118289948, 0.14499208331108093, 0.17580844461917877, -0.04981644079089165, 
0.3227083384990692, -0.16777467727661133, 0.18154647946357727, 0.20834459364414215, -0.2357880026102066, -0.0008268535020761192, -0.253500372171402, 
-0.12694688141345978, 0.11564642935991287, 0.07534622400999069, 0.07644469290971756, 0.05571141839027405, -0.17870061099529266, 0.1670980304479599, 
-0.12359973043203354, 0.20099909603595734, -0.032336656004190445, -0.10772261023521423, -0.0074491421692073345, -0.01786752976477146, -0.2359040379524231, 
0.04688552767038345, 0.22838588058948517, 0.12993529438972473, -0.09843605756759644, -0.2123684585094452, -0.07464182376861572, 0.22567534446716309, 
0.08637089282274246, 0.0024903742596507072, 0.08221164345741272, -0.2461540251970291, -0.1253650039434433, -0.04870704934000969, -0.058338314294815063, 
0.09600499272346497, 0.05865350365638733, -0.031165147200226784, 0.21766223013401031, -0.12663641571998596, -0.17994734644889832, -0.033427514135837555, 
-0.04976334422826767, -0.0034072401467710733, -0.14597336947917938, 0.009808764792978764, 0.15026766061782837, -0.0031022587791085243, 0.06829822063446045, 
-0.10002554208040237, -0.07110071927309036, 0.06272712349891663, 0.004213461186736822, 0.11327465623617172, 0.1197475716471672, 0.06803005933761597, 
0.29512399435043335, 0.1617204248905182, -0.061023108661174774, 0.14087840914726257, -0.03497638925909996, -0.0591510571539402, -0.20213817059993744, 
-0.03043065220117569, 0.21204064786434174, 0.07847731560468674, 0.0027041451539844275, -0.14060980081558228, -0.264608770608902, -0.09351100027561188, 
-0.12205604463815689, 0.1284250169992447, -0.04940849915146828, -0.18272104859352112, -0.23852361738681793, -0.20912642776966095, 0.006252011749893427, 
0.13550235331058502, 0.06978778541088104, -0.24874652922153473, 0.20862415432929993, -0.05421775206923485, 0.049499642103910446, -0.0279297586530447, 
0.07266324758529663, -0.07821483910083771, -0.18141651153564453, 0.07986500859260559, 0.22150491178035736, -0.0995001494884491, -0.21260371804237366, 
-0.21163514256477356, 0.1371738314628601, -0.11833756417036057, -0.31388571858406067, -0.017734326422214508, -0.19993476569652557, 0.22577811777591705, 
0.13394851982593536, -0.0990670919418335, 0.2102149873971939, 0.007018446922302246, 0.04567170888185501, 0.1498056948184967, 0.2613052725791931, 
0.1641826629638672, -0.06787560135126114, 0.007170327473431826, 0.11532937735319138, 0.161716490983963, -0.011147450655698776, -0.18807125091552734, 
0.090439073741436, -0.030049405992031097, 0.08140687644481659, -0.16547156870365143, -0.0397660993039608, -0.18444113433361053, -0.03623614087700844, 
0.0021819965913891792, -0.2200773060321808, 0.03877532482147217, 0.016686979681253433, -0.08615173399448395, 0.27737024426460266, 0.01636112853884697, 
0.0788760632276535, -0.1496703326702118, 0.13049092888832092, 0.32734447717666626, -0.1147569939494133, 0.16416364908218384, -0.13577741384506226, 
-0.04886040464043617, 0.09229462593793869, -0.11538050323724747, 0.13955378532409668, 0.16235855221748352, 0.19794023036956787, 0.2423233687877655, 
-0.006806590128690004, 0.10488151758909225, 0.15190389752388, -0.021095534786581993, -0.15074807405471802, 0.29766470193862915, 0.16870856285095215, 
0.14442676305770874, 0.06552749127149582, -0.037810977548360825, -0.18410730361938477, 0.21613407135009766, 0.1934649646282196, -0.182965949177742, 
-0.28007155656814575, 0.30254748463630676, 0.15566258132457733, -0.2276933789253235, 0.16214348375797272, -0.24757611751556396, -0.0747985765337944, 
-0.28155601024627686, 0.3277800679206848, -0.10917287319898605, 0.11315427720546722, -0.18847185373306274, 0.13722920417785645, -1.1295678615570068, 
0.1323959082365036, -1.7472140789031982, -0.3148821294307709, 1.333135724067688, -0.3341505527496338, -0.012897763401269913, -0.024351364001631737, 
-1.0965510606765747, -1.020634651184082, -0.8684356808662415, 1.6367210149765015, -0.6657453179359436, -2.0246315002441406, 0.43904009461402893, 
-0.06106424331665039, 1.50431227684021, 0.18583324551582336, -0.323080450296402, -2.2257349491119385, -0.5188958644866943, 0.1635066419839859, 
-0.5255752205848694, 1.068516492843628, -0.5945175290107727, 1.3992341756820679, -0.7469409108161926, -2.8767542839050293, -0.3711407482624054, 
-0.658212423324585, 0.9074036478996277, -0.3607517182826996, -1.6458766460418701, 0.39337554574012756, 1.0225635766983032, -1.2984768152236938, 
-1.709864616394043, 0.7667213082313538, 0.7801941633224487, -0.26980873942375183, -0.44556882977485657, 0.9566938877105713, -0.7764914035797119, 
-0.16650390625, -1.3222349882125854, -1.2613646984100342, 0.21539318561553955, 0.39770033955574036, -0.13109712302684784, 0.12765692174434662, 
-1.0192023515701294, 0.5196905732154846, -0.4822814464569092, 0.04970124736428261, 0.20669236779212952, 0.6932876706123352, -0.8273603320121765, 
0.21885615587234497, -0.5314198732376099, 0.43113842606544495, -0.11691098660230637, -0.9221097230911255, 1.1545792818069458, 0.5097419619560242, 
-2.4559285640716553, -2.455618381500244, -1.0730273723602295, 0.14210812747478485, -4.570624828338623, -0.012583431787788868, 1.2601072788238525, 
-3.332258939743042, -0.6707507967948914, 0.19307522475719452, -1.221787452697754, 1.1169697046279907, 1.2889771461486816, -1.088118553161621, 
0.8089901804924011, -2.234288215637207, -1.321211814880371, 2.1605889797210693, -1.5988683700561523, -2.494873523712158, 1.5897186994552612, 
-1.0877565145492554, 1.6431190967559814, -0.9169747829437256, -1.5684229135513306, -0.5649826526641846, -1.7702745199203491, 2.626206159591675, 
0.7391417026519775, -2.0770442485809326, -2.175109386444092, 3.0254733562469482, -0.38266855478286743, -0.45917725563049316, 1.9824347496032715, 
-1.2492616176605225, -2.204890727996826, -0.9001516699790955, -2.8589165210723877, 0.28945204615592957, -2.0737287998199463, 1.2903183698654175, 
-2.1729133129119873, -0.4958457052707672, 1.7116398811340332, -1.9044073820114136, 1.3528711795806885, 2.4017231464385986, 3.002779006958008, 
0.7052049040794373, -1.374428391456604, 2.1202478408813477, -1.9909350872039795, -1.8539198637008667, -3.0266287326812744, -1.5885415077209473, 
-0.833045244216919, -1.9702194929122925, 1.4816585779190063, 1.270708680152893, 0.6538873910903931, -0.8931966423988342, 2.0119338035583496, 
0.9663577079772949, -0.11534012854099274, 0.16782432794570923, -0.10109429061412811, -0.30298852920532227, -0.053177591413259506, -0.07700569182634354, 
0.16807237267494202, 0.06733958423137665, 0.12448205798864365, -0.12095668166875839, -0.18407689034938812, -0.36161884665489197, 0.11573575437068939, 
0.11418400704860687, -0.11477350443601608, 0.017195845022797585, -0.17087559401988983, 0.17213255167007446, 0.21826909482479095, 0.09668374061584473, 
-0.04881631210446358, 0.06323004513978958, 0.12175265699625015, 0.0016306528123095632, -0.1936378926038742, -0.06628748029470444, -0.28218865394592285, 
0.16222116351127625, 0.03894547000527382, -0.1809532642364502, 0.01717902347445488, 0.11599725484848022, -0.08785905689001083, 0.024170884862542152, 
0.1405920386314392, -0.15161703526973724, 0.03719425946474075, 0.03408743813633919, -0.12884148955345154, -0.16813351213932037, 0.01437106542289257, 
0.053995002061128616, -0.03606376796960831, 0.061021775007247925, -0.22162719070911407, 0.05503464490175247, -0.04754412919282913, 0.32034581899642944, 
0.1382724791765213, 0.043554678559303284, 0.11071796715259552, 0.20035980641841888, 0.16247285902500153, -0.2122594714164734, -0.2422829568386078, 
0.2618963420391083, 0.13385336101055145, 0.19495552778244019, 0.019864199683070183, 0.37814995646476746, 0.08473777770996094, -0.30766040086746216, 
0.10605238378047943, 0.17514127492904663, -0.078931525349617, 0.11740673333406448, -0.03773687034845352, -0.1511697769165039, 0.17968766391277313, 
0.039806388318538666, -0.16155944764614105, 0.036768246442079544, 0.15680521726608276, 0.08179182559251785, -0.16651879251003265, -0.21362346410751343, 
-0.04767667502164841, -0.13891777396202087, 0.10602808743715286, -0.016926836222410202, 0.2084161937236786, -0.06443405151367188, 0.038584478199481964, 
-0.18360573053359985, 0.046635255217552185, -0.004102443344891071, 0.16084161400794983, 0.14557713270187378, -0.1690196543931961, -0.020410580560564995, 
0.03291705995798111, -0.23592710494995117, -0.15514260530471802, 0.13899953663349152, -0.13926483690738678, -0.10521767288446426, -0.19414323568344116, 
0.2710633873939514, 0.027908362448215485, -0.021668095141649246, -0.14209654927253723, 0.16867069900035858, -0.21482840180397034, 0.00720994733273983, 
0.13463860750198364, -0.05148155614733696, -0.02686728909611702, 0.00496979895979166, -0.03932890295982361, -0.22971653938293457, 0.13079111278057098, 
0.03277741000056267, 0.19430503249168396, -0.24002046883106232, -0.2009812295436859, -0.22095602750778198, -0.19367578625679016, 0.08265689015388489, 
-0.18468472361564636, 0.05020630359649658, -0.24604584276676178, -0.12475085258483887, -0.08680641651153564, 0.2228398323059082, 0.08679212629795074, 
0.0672742947936058, 0.1644652783870697, 0.13135845959186554};

#endif

#endif
