// Numpy array shape [64, 16]
// Min -16.913122
// Max 20.29976
// Number of zeros 0

#ifndef INP_LAYER_WEIGHT_H_
#define INP_LAYER_WEIGHT_H_

#ifndef __SYNTHESIS__
model_default_t inp_layer_weight[1024];
#else
model_default_t inp_layer_weight[1024] = {-0.02463647723197937, -0.02752816490828991, 0.006499310489743948, -0.00440972950309515, -0.0005568710039369762, -0.0003566939558368176, 
-0.0012639149790629745, -0.0012700962834060192, -0.0008847250719554722, -0.009454263374209404, -0.005735674407333136, 0.0075005218386650085, -0.030271708965301514, 
0.005211073439568281, 0.008066442795097828, 0.016423149034380913, -0.023744313046336174, -0.002413617679849267, -0.005406005773693323, -0.012829664163291454, 
-0.013911117799580097, -0.008200520649552345, 0.014312549494206905, -0.013924970291554928, -0.018984511494636536, 0.011218449100852013, -0.0017675490817055106, 
-0.005656820256263018, -0.03268466889858246, 0.008966183289885521, 0.01712256669998169, -0.0014298553578555584, 0.016317952424287796, 0.0012817750684916973, 
0.017947256565093994, 0.006067775189876556, -0.004586969036608934, 0.0018291829619556665, 0.0031355752144008875, 0.025995174422860146, -0.0028543875087052584, 
0.017866045236587524, 0.004621529020369053, -0.026943262666463852, 0.006155759561806917, 0.028453752398490906, -0.004933560732752085, -0.02665533311665058, 
-0.03183213248848915, -0.002878359518945217, 0.005190137308090925, 0.004021516069769859, 0.006268796510994434, 0.0035620364360511303, -0.0034353805240243673, 
-0.004950841888785362, 0.05023540183901787, -0.004588738549500704, -0.015397450886666775, 0.13519585132598877, 0.011898964643478394, -0.0007423542556352913, 
-0.003712323261424899, 0.056979965418577194, 0.0227789506316185, 0.00824414100497961, 0.00668750936165452, 0.03957059979438782, 0.0013809138908982277, 
0.017958810552954674, 0.015504183247685432, 0.004123023245483637, 0.009328268468379974, -0.005780157633125782, 0.01067168079316616, 0.007776095997542143, 
0.07997498661279678, 0.007895837537944317, -0.09096474945545197, -0.0010372441029176116, 0.044726304709911346, -0.009418372064828873, -0.015112846158444881, 
-0.03383354842662811, -0.006270718295127153, 0.004285555332899094, -0.004152142442762852, -0.027927974238991737, -0.006167215760797262, 0.004859780427068472, 
-0.05149131640791893, 0.0055037555284798145, -0.008833670057356358, -0.006013204343616962, 0.0037399933207780123, 0.001404857262969017, -0.00275448989123106, 
-0.006492685526609421, 0.004000435117632151, -0.0010326611809432507, -0.0013584253611043096, -0.002954227617010474, -0.0013969504507258534, -0.02728513814508915, 
0.01687084510922432, -0.001155381673015654, 0.005297597032040358, -0.0026905378326773643, 0.00972716324031353, 0.014543866738677025, 0.0010728515917435288, 
0.014550833962857723, -0.05558523163199425, -0.0628453716635704, -0.0023363635409623384, -0.018653523176908493, -0.04193820431828499, -0.010600849986076355, 
-0.0003773409698624164, -0.020372455939650536, 0.0068990751169621944, -0.01688048243522644, 0.040173448622226715, -0.04447595402598381, 0.05505891144275665, 
0.0035118565429002047, 0.0022762545850127935, -0.012943939305841923, 0.0015140631003305316, -0.025553330779075623, 0.008461277931928635, 0.009800192900002003, 
-0.0010769541841000319, -0.0036743944510817528, 0.03147502243518829, -0.0012063737958669662, 0.010265739634633064, 0.0028703119605779648, -0.03118428960442543, 
0.008736364543437958, -0.0840168222784996, 0.004256399814039469, 0.008446049876511097, 0.009364689700305462, -0.047689471393823624, -0.0017832067096605897, 
-4.923018059344031e-05, -0.02964436635375023, 0.028151685371994972, 0.025728516280651093, 0.017630942165851593, 0.01911458745598793, 0.00040468850056640804, 
0.009968265891075134, 0.0664597749710083, -0.010419082827866077, 0.0032273351680487394, 0.003457152284681797, 0.014318432658910751, 0.0007663716096431017, 
-0.010245428420603275, 0.007176115643233061, 0.004316235892474651, -0.013293206691741943, 6.940983439562842e-05, 0.0024569767992943525, -0.009731906466186047, 
0.000675852585118264, -0.0009942947654053569, -0.01586698368191719, -0.006311324425041676, -0.007655117195099592, -0.03981490805745125, -0.0007033738656900823, 
0.016669999808073044, -0.03050258196890354, -0.02727857232093811, 0.032918237149715424, 0.01574946753680706, 0.001172657823190093, -0.021734407171607018, 
0.011513089761137962, 0.0010440420592203736, -0.007127557415515184, 0.029294481500983238, -0.016248110681772232, -0.01829754188656807, -0.02226615697145462, 
0.02316650189459324, 0.003513570176437497, 0.006315209437161684, -0.011487281881272793, -0.015233881771564484, 0.3382520079612732, -0.006275068502873182, 
0.19416554272174835, 0.006273619830608368, -0.0027332818135619164, 0.05295730382204056, 0.01585187204182148, 0.0016827300423756242, 0.0255882628262043, 
0.2556631565093994, -0.012674452736973763, -0.09306305646896362, 0.030546048656105995, -0.030173614621162415, -0.08824733644723892, 0.37300077080726624, 
-0.12256618589162827, -0.04215522110462189, -0.23793527483940125, 0.04483909532427788, 0.018259204924106598, 0.022507891058921814, -0.06555201858282089, 
-0.34237146377563477, 0.3687581419944763, 0.23419608175754547, 0.03810719773173332, -0.015540814958512783, 0.4208798408508301, 0.2511352300643921, 
0.0047919475473463535, -0.014640295878052711, 0.022321099415421486, 0.07599667459726334, 0.025531187653541565, -0.009547808207571507, -0.0009253706666640937, 
-0.0598091222345829, -0.06611411273479462, -0.0032233791425824165, -0.0033605466596782207, -0.03628860041499138, 0.022049488499760628, -0.11083082854747772, 
-0.013988328166306019, 0.026300206780433655, -0.0282704196870327, 0.5217337608337402, 0.0031210307497531176, 0.022356629371643066, -0.02285541035234928, 
0.3396022617816925, -0.07405184209346771, -0.016264457255601883, -0.04238016530871391, -0.1756851077079773, 0.10095693171024323, -0.027844760566949844, 
0.6530148386955261, 0.7072792649269104, -0.1253313273191452, 0.14420704543590546, 0.03384644538164139, -14.662583351135254, -3.223756790161133, 
1.26240873336792, -4.528212070465088, -0.918839156627655, 1.5029165744781494, 3.7015936374664307, -0.7645668983459473, 1.1022933721542358, 
3.2418413162231445, -6.865886211395264, 0.22546511888504028, 3.910499095916748, 2.1559290885925293, 2.594757318496704, -13.075387954711914, 
-0.36057811975479126, 6.049889087677002, -0.4543764889240265, -1.7385283708572388, 2.1426496505737305, -8.951885223388672, -3.917400598526001, 
-2.6835291385650635, -2.098278045654297, -1.0382120609283447, -1.2137280702590942, 1.683691382408142, 0.9568493962287903, -2.0357344150543213, 
4.0223469734191895, -0.3544256091117859, -3.2540364265441895, 0.852615237236023, 19.375730514526367, 4.966911315917969, -1.5534759759902954, 
-0.7466908097267151, -13.467886924743652, -3.7140936851501465, -0.2654857337474823, 1.7160890102386475, -16.913122177124023, 19.206132888793945, 
-0.7057387232780457, 0.4529629349708557, 3.9015731811523438, 1.6464483737945557, 2.8221888542175293, 12.935527801513672, -8.334657669067383, 
2.838496685028076, 0.8604574799537659, -0.7294492125511169, 0.4133066236972809, -1.1308726072311401, 5.09818172454834, -12.896930694580078, 
7.675025463104248, 2.3414969444274902, 5.511359691619873, -10.963302612304688, -7.27094841003418, 2.4549319744110107, 1.2222912311553955, 
0.6599482297897339, -0.14589956402778625, 0.8801491856575012, 0.02622288651764393, -0.1198653131723404, -0.4507952630519867, 0.04753493145108223, 
-0.2629120945930481, -0.2461131513118744, 0.9546037912368774, -0.049089837819337845, -0.6285285353660583, -0.2933878004550934, -0.5054022073745728, 
1.281495213508606, 0.7239564061164856, -0.8066285252571106, -0.25158917903900146, 0.007795977406203747, -0.3781905770301819, 0.6710691452026367, 
0.6658439636230469, 0.19445335865020752, -0.21783776581287384, 0.6125277280807495, 0.52093505859375, -0.0034055898431688547, -0.3041192293167114, 
0.5848482251167297, 0.13169002532958984, 0.023483267053961754, 0.3823786973953247, 0.09730157256126404, -1.3020427227020264, -0.5575829148292542, 
0.10587180405855179, 0.0011667634826153517, 1.0115795135498047, 0.446168452501297, 0.23381371796131134, -0.14100639522075653, 1.721022367477417, 
-1.4922683238983154, -0.026670686900615692, -0.1578187197446823, -0.39894017577171326, -0.13780087232589722, 0.020100612193346024, -1.0959302186965942, 
1.076150894165039, -0.10536334663629532, 0.6949104070663452, -0.030542610213160515, -0.1751762479543686, -0.12594109773635864, -0.5442765355110168, 
1.4512006044387817, -0.7832522392272949, 0.24267169833183289, 0.22443841397762299, 1.1784852743148804, 0.4782833755016327, -0.46856406331062317, 
-13.907255172729492, -2.6035051345825195, 1.4846827983856201, -4.676392555236816, 1.1714898347854614, 1.3260263204574585, 3.654783010482788, 
0.4509560763835907, 1.0910491943359375, 3.340043306350708, -6.676620006561279, 0.40882977843284607, 4.210313320159912, 2.2180702686309814, 
2.606740713119507, -12.984687805175781, -0.6255109310150146, 6.238930702209473, -0.6110763549804688, -1.3827729225158691, 2.081141233444214, 
-9.668829917907715, -4.015968322753906, -2.5960357189178467, -1.8840583562850952, -0.8883056044578552, -0.9014824032783508, 1.8153249025344849, 
0.9316644668579102, -2.242990255355835, 3.6200382709503174, -2.228034257888794, -3.173828601837158, 0.3814462721347809, 19.599754333496094, 
5.680397033691406, -1.3046504259109497, -0.8795071244239807, -13.506543159484863, -3.199092149734497, -0.3355661928653717, 1.7604258060455322, 
-16.677837371826172, 20.299760818481445, -0.7424154877662659, 0.4966479241847992, 4.130153656005859, 1.7132949829101562, 2.365894317626953, 
13.170255661010742, -8.435093879699707, 2.4207708835601807, 0.22917741537094116, -0.7973397374153137, 1.2197246551513672, -0.8621564507484436, 
5.092184543609619, -12.13461685180664, 8.096124649047852, 2.1163814067840576, 4.772781848907471, -10.316650390625, -7.080746173858643, 
2.6634204387664795, -0.17900338768959045, 0.2101326584815979, -0.06910577416419983, -0.2956366539001465, 0.047387972474098206, 0.06578919291496277, 
-0.2839052677154541, 0.032317545264959335, -0.16377989947795868, 0.06506121903657913, 0.2751849591732025, -0.058469563722610474, 0.14883020520210266, 
-0.05523615702986717, 0.17069700360298157, -0.05779234692454338, -0.05805138871073723, -0.10497488081455231, -0.06122109666466713, 0.09364305436611176, 
-0.10250862687826157, -0.5046919584274292, -0.0910935178399086, -0.3024129569530487, 0.07421548664569855, 0.053073421120643616, -0.32237425446510315, 
-0.06870647519826889, 0.04073422774672508, -0.10417085886001587, 0.4804331362247467, 0.018783479928970337, -0.276089072227478, -0.17294491827487946, 
0.0013006090885028243, 0.2866367995738983, -0.16031228005886078, 0.007660366129130125, 0.029620101675391197, 0.2064765989780426, 0.012072324752807617, 
0.02405608259141445, 0.048327431082725525, -0.08364696055650711, 0.06616191565990448, -0.15528042614459991, -0.14881879091262817, 0.22113776206970215, 
-0.07278317213058472, -0.2543655037879944, -0.1858498603105545, -0.04404376447200775, -0.12866346538066864, 0.1448814570903778, 0.18094061315059662, 
-0.09420233219861984, 0.09283845126628876, -0.14028526842594147, -0.10172700136899948, 0.29303011298179626, -0.0008058703388087451, -0.14345481991767883, 
0.03643188998103142, -0.04373849555850029, -0.13201893866062164, 0.21186800301074982, -0.09133169800043106, 0.17541466653347015, -0.048767805099487305, 
-0.04091675952076912, -0.2763266861438751, 0.10406957566738129, 0.1584993302822113, 0.15621578693389893, -0.030428510159254074, -0.1659110188484192, 
0.22855262458324432, 0.020658191293478012, -0.1726965457201004, 0.5336858630180359, 0.12106316536664963, 0.21454721689224243, -0.04985226318240166, 
-0.07957198470830917, -0.019250530749559402, -0.37519368529319763, 0.3707171380519867, 0.2726629972457886, -0.27972957491874695, 0.3301180601119995, 
0.3326980173587799, -0.11962736397981644, -0.14517416059970856, -0.0008714966243132949, 0.3776564300060272, 0.00635527865961194, 0.3915694057941437, 
0.12657462060451508, 0.3342844843864441, 0.07339738309383392, -0.02497834712266922, 0.016780326142907143, 0.03555642440915108, 0.027860969305038452, 
0.04979580268263817, -0.07037350535392761, -0.40249162912368774, 0.3768470287322998, 0.16597533226013184, -0.4011315405368805, 0.04554521664977074, 
-0.10499414056539536, 0.3833563029766083, 0.09050529450178146, 0.22833266854286194, -0.00030260029598139226, 0.19292303919792175, 0.22845697402954102, 
0.051011376082897186, -0.041700329631567, -0.0008829235448502004, -0.23600776493549347, 0.08209475129842758, -0.42560824751853943, -0.0926913395524025, 
-0.25069233775138855, 0.18923413753509521, 0.3210229277610779, 0.02492627315223217, -0.029239725321531296, 0.4406032860279083, 0.12863558530807495, 
-0.17424286901950836, 0.012754466384649277, 0.03205845132470131, 0.08782938122749329, -0.03799953684210777, 0.12625117599964142, 0.10302644222974777, 
-0.12189608067274094, -0.13022470474243164, -0.13367679715156555, 0.211341992020607, -0.08760713785886765, 0.5494601726531982, -0.2583429217338562, 
-0.04443848878145218, 0.02586686611175537, -0.06804151087999344, 0.17153547704219818, 0.2231617569923401, 0.03231077268719673, -0.14885078370571136, 
0.39411312341690063, -0.04949353635311127, -0.1306806355714798, 0.1761571764945984, -0.24688173830509186, 0.009513957425951958, -0.05010304972529411, 
-0.13440179824829102, -0.014493655413389206, 0.14662089943885803, 0.1091233640909195, 0.1403176635503769, -0.18544194102287292, 0.1635863482952118, 
-0.5403865575790405, 0.18540515005588531, 0.026030728593468666, -0.33130165934562683, 0.19232119619846344, -0.03855303302407265, -0.2727207541465759, 
0.1203494518995285, 0.20607629418373108, 0.32709553837776184, -0.009382917545735836, -0.16703596711158752, -0.037645984441041946, 0.45673054456710815, 
0.059037890285253525, -0.06059642508625984, 0.028083225712180138, -0.06711141765117645, -0.4290126860141754, -0.06401077657938004, 0.1618935763835907, 
0.6301869750022888, -0.20239987969398499, -0.22574716806411743, 0.16223455965518951, -0.12130537629127502, -0.19415663182735443, -0.03365215286612511, 
-0.12994122505187988, 0.002526484429836273, 0.009163343347609043, -0.13508374989032745, 0.006645764224231243, 0.03177410736680031, 0.026557279750704765, 
-0.06270585209131241, -0.01565955951809883, 0.08158016204833984, -0.007848143577575684, -0.0002036449732258916, 0.1468372941017151, 0.26488807797431946, 
0.22337201237678528, 0.03728586435317993, 0.07723955810070038, -0.028888627886772156, 0.03749798983335495, -0.09992338716983795, -0.035284727811813354, 
-0.20081646740436554, 0.2977153956890106, 0.047084663063287735, -0.07270707190036774, -0.08031120151281357, -0.22935225069522858, -0.050570446997880936, 
0.0018166500376537442, 0.07401212304830551, 0.05152706429362297, -0.1468716412782669, -0.15407028794288635, 0.0037847524508833885, -0.004564702045172453, 
0.08133738487958908, -0.05077175796031952, -0.2664221227169037, 0.006928677204996347, -0.03131948038935661, 0.03581685572862625, -0.020299667492508888, 
0.005478875245898962, 0.030331144109368324, -0.06365366280078888, 0.18095001578330994, 0.2586236298084259, -0.024050232023000717, -0.017704792320728302, 
-0.0628507137298584, 0.0323147289454937, -0.021371882408857346, -0.08743633329868317, 0.06372740864753723, -0.10357099026441574, 0.22567760944366455, 
0.12305676192045212, 0.09124913811683655, 0.08434811234474182, 0.05455853417515755, 0.011075525544583797, 0.28674888610839844, 0.3834272623062134, 
0.08888062834739685, 0.007502970285713673, -0.019541451707482338, 0.06730719655752182, 0.04991519823670387, -0.03439507260918617, -0.16982810199260712, 
0.09410466253757477, 0.004844531416893005, 0.0423719584941864, -0.5578320622444153, -0.07720227539539337, -0.1756851226091385, -0.17431169748306274, 
-0.10702063888311386, -0.4147530794143677, 0.37164533138275146, 0.055067382752895355, -0.6127192974090576, 0.22847731411457062, -0.16435781121253967, 
-0.24934923648834229, -0.3379623293876648, 0.12899628281593323, 0.19604913890361786, -0.464901864528656, 0.06945063173770905, -0.21286994218826294, 
-0.2550749182701111, 0.008476086892187595, 0.05015590041875839, 0.031946130096912384, 0.17934171855449677, 0.262488454580307, 0.054238952696323395, 
-0.019986027851700783, 0.2585287392139435, 0.03597769886255264, 0.2119021862745285, -0.03302474319934845, 0.2792319357395172, 0.2071942239999771, 
-0.2273292988538742, 0.13372981548309326, -0.15571825206279755, -0.5157977938652039, 0.05380542203783989, 0.20200933516025543, -0.19841183722019196, 
-0.23752285540103912, 0.10237427055835724, 0.39615193009376526, -0.08559271693229675, 0.16254368424415588, -0.14137904345989227, -0.10994447767734528, 
-0.3592195510864258, 0.2629763185977936, -0.5445384979248047, 0.08499286323785782, 0.24039164185523987, 0.057253044098615646, -0.09905808418989182, 
0.5510432720184326, -1.618455171585083, 0.7246256470680237, 4.3769683837890625, 1.171819806098938, -0.05208809673786163, 9.013090133666992, 
-0.45292481780052185, 0.17583197355270386, -0.36580973863601685, 1.3452764749526978, -0.36947694420814514, -1.945083498954773, 0.3152109980583191, 
-0.2718361020088196, 0.18574531376361847, -0.1414482146501541, -0.33931103348731995, -0.5965344905853271, 0.4109790623188019, 2.1970057487487793, 
0.8402902483940125, 1.6075953245162964, 1.3405258655548096, 0.0072672707028687, 0.937926173210144, -0.06777502596378326, 0.7991387248039246, 
-0.3336189389228821, 0.6782500743865967, -3.868847370147705, 1.7393625974655151, 2.1149585247039795, 0.0570765845477581, -0.34444117546081543, 
-0.7379728555679321, 6.155517101287842, -0.9980425238609314, 1.5740623474121094, -1.2672420740127563, 0.4251851737499237, -0.17433324456214905, 
-1.0116413831710815, -0.9160540699958801, -1.746146321296692, -0.08730658888816833, -1.1679542064666748, -1.9097086191177368, 0.7984691858291626, 
-1.8239561319351196, 0.2932901978492737, 0.0017431967426091433, 1.330694317817688, 1.9096935987472534, 1.6328636407852173, -1.1238107681274414, 
0.07711666822433472, -0.9338744282722473, -0.8235300183296204, -1.2031506299972534, -0.09024813771247864, -0.18748442828655243, 1.750177025794983, 
-2.6071457862854004, -3.1021134853363037, -1.6092894077301025, -1.579240083694458, -7.3951873779296875, 1.6665335893630981, 1.2591527700424194, 
-6.653902053833008, 0.025881482288241386, 1.6631758213043213, -1.7876337766647339, -1.1865603923797607, 2.0792222023010254, 0.01694188453257084, 
-0.2112892121076584, -1.4530614614486694, 0.17201857268810272, 3.12860369682312, -1.0249207019805908, -1.663987159729004, 1.7894588708877563, 
1.3815914392471313, 2.4879233837127686, -1.4818012714385986, 0.6064898371696472, -1.3946971893310547, 0.6775972247123718, 1.5669457912445068, 
1.5096559524536133, -3.3335113525390625, 0.19648747146129608, 7.822476863861084, -1.3556537628173828, 1.8500170707702637, 1.088554859161377, 
-1.1386069059371948, -1.496749758720398, 4.521450519561768, -1.349217414855957, 1.094236135482788, -2.004275321960449, 1.3603090047836304, 
-1.0393372774124146, -0.7373270392417908, 2.7337968349456787, -0.7778477072715759, 0.19717086851596832, 2.0225112438201904, 1.2717006206512451, 
1.6625086069107056, -0.5967450141906738, 2.220576047897339, -2.8390696048736572, -0.9996181726455688, -2.656912326812744, -0.27802565693855286, 
-0.04502446949481964, -1.5495814085006714, -0.3781591057777405, -0.6227021217346191, 1.626240849494934, -0.32559627294540405, -2.8066189289093018, 
0.3219599723815918, -0.0811513289809227, 0.14870305359363556, -0.2038276493549347, -0.26786962151527405, -0.06885549426078796, -0.061284445226192474, 
0.05806879326701164, -0.008352025412023067, 0.11823224276304245, -0.04231874272227287, -0.16323904693126678, -0.049726296216249466, 0.19598731398582458, 
0.11971364915370941, -0.0027858882676810026, 0.055424969643354416, -0.481239914894104, 0.3469926714897156, 0.09387920796871185, 0.16155008971691132, 
-0.15006889402866364, -0.0565401129424572, 0.04052794352173805, -0.11882360279560089, -0.02278752438724041, -0.06075528264045715, -0.30598875880241394, 
0.2719024121761322, -0.0736900046467781, -0.13431648910045624, 0.36817261576652527, -0.023399842903017998, -0.06470689922571182, 0.13450250029563904, 
0.12705093622207642, -0.1120510920882225, 0.1580704301595688, -0.01654399000108242, 0.03597855567932129, -0.0375918410718441, 0.09451273083686829, 
0.0014858606737107038, -0.0517202690243721, 0.01171785593032837, -0.051411159336566925, 0.15274685621261597, -0.03133993595838547, 0.24178446829319, 
0.033230025321245193, 0.025879818946123123, 0.07879909127950668, 0.09189265966415405, 0.21054422855377197, -0.24905617535114288, -0.16424550116062164, 
0.21401464939117432, 0.07869185507297516, 0.19546788930892944, 0.034807492047548294, 0.4995889663696289, 0.07474973052740097, -0.3062673807144165, 
0.14253708720207214, 0.27837035059928894, -0.15621303021907806, 0.0022385227493941784, 0.6258520483970642, -0.2645653486251831, 0.18814623355865479, 
-0.017163779586553574, -0.025741050019860268, 0.07783979177474976, 0.1785067617893219, 0.10415877401828766, -0.24282188713550568, -0.31033656001091003, 
-0.15326204895973206, -0.07633601129055023, 0.2763965129852295, -0.21766677498817444, 0.5258813500404358, -0.09628107398748398, 0.016047652810811996, 
-0.2684439420700073, -0.07691933959722519, -0.009929505176842213, 0.21338234841823578, -0.021019188687205315, -0.28924819827079773, 0.033109720796346664, 
0.14131028950214386, -0.5775653719902039, -0.17915678024291992, 0.11253014206886292, -0.1410132348537445, 0.0899420976638794, -0.21479432284832, 
0.14524628221988678, 0.09992542862892151, 0.01878339610993862, -0.07404409348964691, 0.1523078978061676, -0.22658109664916992, -0.41994190216064453, 
0.1314229816198349, 0.01690010540187359, -0.2702938914299011, 0.21297524869441986, -0.08145690709352493, -0.2744441628456116, 0.2073201984167099, 
0.013430817984044552, 0.3776096701622009, -0.14358830451965332, -0.16055110096931458, -0.1701705902814865, 0.0068374150432646275, 0.05533577874302864, 
-0.23933173716068268, 0.007034021429717541, -0.06829625368118286, -0.4371681809425354, -0.09837959706783295, 0.46649354696273804, 0.5763232111930847, 
-0.21055234968662262, -0.03652600198984146, 0.07954618334770203};

#endif

#endif
