// Numpy array shape [64, 16]
// Min -3.2487543
// Max 2.5902717
// Number of zeros 0

#ifndef INP_LAYER_WEIGHT_H_
#define INP_LAYER_WEIGHT_H_

#ifndef __SYNTHESIS__
model_default_t inp_layer_weight[1024];
#else
model_default_t inp_layer_weight[1024] = {-0.04022447392344475, -0.12153619527816772, 0.03920246288180351, 0.10877878963947296, -0.0005549748311750591, 0.00021300837397575378, 
0.1502283662557602, -0.0003471829986665398, 0.035885557532310486, 0.02036764658987522, 0.01075561810284853, -0.1562270224094391, 0.08322827517986298, 
-0.010297279804944992, 0.083837129175663, 0.046856872737407684, 0.05053938180208206, 0.056562818586826324, -0.09912684559822083, -0.025836490094661713, 
-0.06428031623363495, -0.09121181815862656, 0.10474517196416855, 0.09065353125333786, -0.17747105658054352, 0.10256020724773407, -0.06710418313741684, 
0.006507811602205038, -0.08035563677549362, 0.14219921827316284, -0.025304637849330902, -0.0002661910839378834, 0.004513654857873917, 0.06035007908940315, 
0.004781596828252077, -0.0791386216878891, 0.008449123241007328, -0.0032456449698656797, 0.061804160475730896, -0.05455958470702171, 0.08758776634931564, 
0.069092757999897, 0.05212017893791199, -0.10161547362804413, -0.12858018279075623, 0.010191282257437706, -0.10009990632534027, -0.15697410702705383, 
-0.10435163229703903, 0.08452862501144409, 0.07124197483062744, 0.05750976502895355, 0.06536471843719482, 0.05642784386873245, -0.0009546669898554683, 
-0.01192112360149622, -0.11057056486606598, -0.03882220387458801, 0.14339037239551544, -0.04232123866677284, 0.21889911592006683, -0.01087365485727787, 
0.09022100269794464, 0.09574731439352036, 0.016432417556643486, 0.1199415773153305, 0.018617210909724236, 0.06708068400621414, -0.0008548768819309771, 
0.005372048821300268, 0.12465564161539078, -0.004726293031126261, 0.06285684555768967, -0.03494514152407646, 0.1480010598897934, -0.07155223190784454, 
0.12702231109142303, 0.04302770644426346, -0.18743248283863068, -0.012520529329776764, -0.16131947934627533, -0.057291775941848755, -0.07895367592573166, 
0.03205684944987297, -0.07647924870252609, -0.09579392522573471, -0.04675203934311867, -0.09265056252479553, 0.13469435274600983, -0.05167004093527794, 
0.055996160954236984, -0.029126321896910667, 0.03357848897576332, -0.0030393165070563555, -0.1504489630460739, 1.945352050825022e-05, -0.029522931203246117, 
0.017291761934757233, 0.0032248927745968103, 0.12269724160432816, -0.00577515410259366, 0.0031828992068767548, -0.004513991996645927, 0.06679745763540268, 
0.044382963329553604, -0.0396183505654335, 0.01321142166852951, -0.018631475046277046, 0.15486788749694824, 0.13009198009967804, -0.10875269025564194, 
0.06812407076358795, 0.0027406879235059023, -0.16618365049362183, -0.1029525175690651, 0.06490658223628998, -0.06872235983610153, -0.077300526201725, 
0.00539361359551549, 0.1128784567117691, -0.0636429563164711, -0.06756062060594559, -0.1356610506772995, 0.1848931759595871, 0.0863569900393486, 
-0.024554191157221794, -0.04625561460852623, -0.05370955914258957, -0.02430805191397667, -0.03243042901158333, 0.1251632422208786, 0.07006072252988815, 
-0.003827548585832119, -0.00536342291161418, 0.14531314373016357, -0.00042154680704697967, -0.045479416847229004, 0.0024758786894381046, -0.11273323744535446, 
0.2424643188714981, -0.12746858596801758, -0.021883642300963402, -0.08064118027687073, -0.07397875934839249, 0.22222213447093964, -0.03655913844704628, 
0.15992964804172516, -0.01683003269135952, 0.0984310731291771, 0.14988890290260315, 0.013600085861980915, 0.17728222906589508, -0.15817606449127197, 
-0.09461823850870132, 0.034287694841623306, -0.09320631623268127, -0.010526476427912712, 0.10640256106853485, -0.145554780960083, 7.05397833371535e-05, 
0.011378584429621696, 0.09516558051109314, 0.02773345448076725, -0.0872018039226532, -0.004356107208877802, -0.0038992492482066154, -0.19157560169696808, 
-0.03913384675979614, -0.10225177556276321, 0.011065560393035412, -0.049264293164014816, 0.05170385539531708, 0.09138230234384537, 0.21512538194656372, 
0.04032856971025467, -0.19608071446418762, -0.023247629404067993, 0.07271096855401993, 0.052027393132448196, -0.03333635255694389, -0.05293687805533409, 
0.1044776663184166, -0.0032265454065054655, -0.07030092179775238, 0.1041090115904808, -0.041769206523895264, 0.030160732567310333, -0.21959570050239563, 
-0.238753542304039, 0.0021774666383862495, -0.02452469989657402, -0.12160709500312805, 0.03861840441823006, 0.12322099506855011, -0.08993180841207504, 
0.07684437185525894, -0.01230140496045351, 0.008585442788898945, -0.07369838654994965, 0.02676982246339321, 0.03217504173517227, 0.04386020824313164, 
0.2133864313364029, 0.12922357022762299, -0.12823395431041718, 0.008940458297729492, -0.24694204330444336, 0.017446240410208702, 0.263548344373703, 
-0.18361487984657288, -0.14121100306510925, -0.15965302288532257, 0.08825945854187012, 0.13311459124088287, 0.16883940994739532, 0.051730308681726456, 
-0.24524150788784027, 0.3281550109386444, 0.19254109263420105, 0.1570121794939041, -0.19991488754749298, 0.23646673560142517, 0.3155636191368103, 
0.0008088858448900282, -0.04784756526350975, 0.2889571189880371, -0.17450280487537384, -0.07763024419546127, -0.02412790060043335, -0.01748615875840187, 
-0.052447568625211716, -0.01911156438291073, 0.11656837165355682, -0.10017849504947662, 0.0811505913734436, -0.07515662163496017, -0.18100203573703766, 
-0.12702733278274536, 0.03320940583944321, -0.12729527056217194, 0.21462473273277283, -0.16458144783973694, -0.012877735309302807, 0.0024805329740047455, 
0.2453303039073944, -0.24721677601337433, 0.04993872717022896, -0.14654897153377533, -0.15432626008987427, 0.11626457422971725, -0.21189670264720917, 
0.23451033234596252, 0.2953284978866577, -0.12210720777511597, 0.11118706315755844, -0.08212650567293167, -1.0731916427612305, -0.06376335024833679, 
-0.12805983424186707, -0.3964577317237854, -0.8164780139923096, 0.02501087822020054, 0.5909364223480225, -0.30921560525894165, 0.5515180826187134, 
0.34958624839782715, -0.004301801789551973, 0.2973579168319702, 0.2633945941925049, 0.5088074207305908, 0.12492890655994415, -0.22772316634655, 
0.15840749442577362, 0.069292813539505, 0.5590377449989319, -0.49201831221580505, -0.134917750954628, -0.4682307541370392, -0.6743369102478027, 
0.12288292497396469, -0.46697717905044556, -0.14240944385528564, 0.09242957085371017, 0.40532103180885315, 0.2677028179168701, -0.6267403364181519, 
0.16121551394462585, -0.2941385805606842, -0.23647256195545197, -0.10240664333105087, 0.7036371827125549, 0.3641739785671234, -0.7677781581878662, 
-0.23897290229797363, -0.8356972932815552, -0.17685602605342865, -0.23363952338695526, 0.5015233755111694, -0.7969452738761902, 0.3058788776397705, 
-0.20000886917114258, -0.3838735520839691, 0.515816867351532, 0.49134671688079834, 0.3228731155395508, 0.25292354822158813, 0.31844523549079895, 
0.5087245106697083, -0.4388428032398224, -0.2964269816875458, 0.1752394586801529, -0.3222343921661377, 0.4067542254924774, -0.43603524565696716, 
0.19329044222831726, 0.49127253890037537, 0.3566955626010895, -0.23950934410095215, -0.23401731252670288, -0.22633542120456696, 0.37609851360321045, 
0.19800591468811035, -0.166087806224823, 0.3157331049442291, 0.016031764447689056, -0.018759971484541893, -0.35484492778778076, 0.047707151621580124, 
-0.3877330720424652, -0.21845798194408417, 0.42112937569618225, 0.11316315829753876, -0.37007591128349304, -0.3423037827014923, -0.2342761605978012, 
0.35498520731925964, 0.10381607711315155, -0.31864091753959656, -0.2313811331987381, 0.12031278014183044, -0.30421245098114014, 0.3626033365726471, 
0.4140916168689728, 0.3238019049167633, 0.015890702605247498, 0.2644927203655243, 0.22183604538440704, 0.046745698899030685, -0.22498151659965515, 
0.33642250299453735, -0.0015408196486532688, 0.0026662203017622232, 0.3178217113018036, 0.16322354972362518, -0.23974372446537018, -0.25902312994003296, 
0.19559457898139954, 0.1501057893037796, 0.23772762715816498, 0.3912838399410248, 0.32475629448890686, -0.15289318561553955, 0.4602348208427429, 
-0.44855374097824097, 0.07694573700428009, -0.10261822491884232, -0.31023162603378296, -0.11510427296161652, 0.09643999487161636, -0.4580889642238617, 
0.3819428086280823, -0.20116841793060303, 0.3150816857814789, 0.1255183219909668, -0.13022762537002563, 0.010251901112496853, -0.3392714858055115, 
0.47205808758735657, -0.24644917249679565, -0.12312150746583939, -0.0867273285984993, 0.42087358236312866, 0.35943111777305603, -0.2680191099643707, 
-1.103035569190979, -0.2039656937122345, -0.12242928147315979, -0.48226964473724365, -0.3953040838241577, 0.042379774153232574, 0.4342708885669708, 
-0.06191997230052948, 0.5243722796440125, 0.41078969836235046, -0.22966159880161285, 0.4639129638671875, 0.4040985703468323, 0.49754294753074646, 
-0.019566159695386887, -0.6412066221237183, 0.2104002833366394, 0.057139039039611816, 0.3314228057861328, -0.40995892882347107, -0.14633527398109436, 
-0.5654968619346619, -0.5209961533546448, -0.26078930497169495, -0.3511130213737488, 0.19516748189926147, 0.037599049508571625, 0.6127303838729858, 
0.22811858355998993, -0.7031789422035217, 0.19710907340049744, -0.21561096608638763, -0.339672714471817, -0.35863426327705383, 0.6624041199684143, 
0.6022486686706543, -0.5911298394203186, -0.26682087779045105, -0.7839337587356567, -0.35846224427223206, -0.11004006117582321, 0.5878952741622925, 
-1.1250503063201904, 0.6472643613815308, -0.1791820526123047, -0.4589643180370331, 0.6067286729812622, 0.591681182384491, 0.10085730999708176, 
0.33093729615211487, 0.11208166927099228, 0.4121880829334259, -0.7759343385696411, -0.4052920639514923, 0.2921110987663269, -0.04546630382537842, 
0.15216176211833954, -0.44169527292251587, 0.274690717458725, 0.32302019000053406, 0.4140785038471222, -0.14106492698192596, -0.15262341499328613, 
-0.12360547482967377, -0.14168758690357208, 0.2585805356502533, -0.1509561985731125, -0.2934713065624237, 0.1014266237616539, 0.17079322040081024, 
-0.2137226015329361, 0.1433601677417755, -0.09521905332803726, -0.022677607834339142, 0.2818891406059265, -0.3502287268638611, 0.04635981470346451, 
-0.04560131952166557, -0.030599895864725113, -0.05232086777687073, 0.15908972918987274, -0.18991747498512268, 0.0078016649931669235, 0.0914735421538353, 
-0.03311384841799736, -0.32024845480918884, -0.004898006096482277, -0.13984166085720062, 0.07031118869781494, -0.0004261521389707923, -0.21385972201824188, 
-0.04559464752674103, 0.2005741000175476, -0.11847906559705734, 0.2970309555530548, 0.024228231981396675, -0.17724370956420898, -0.23218001425266266, 
0.007529675494879484, 0.2388378381729126, -0.18251854181289673, 0.16582727432250977, -0.07937734574079514, 0.24901919066905975, -0.09350386261940002, 
0.017301542684435844, 0.10695682466030121, -0.054379936307668686, 0.01095826830714941, -0.30708566308021545, -0.20008733868598938, 0.3513822853565216, 
0.11582063138484955, -0.2564906179904938, -0.08243845403194427, -0.049228452146053314, -0.18139028549194336, 0.09348107129335403, 0.17149178683757782, 
0.012529638595879078, 0.13380366563796997, -0.11892223358154297, -0.1520274132490158, 0.13303762674331665, -0.05488200485706329, -0.11414635181427002, 
0.007145301438868046, -0.12555760145187378, -0.10885854065418243, -0.028128866106271744, -0.024559386074543, -0.18220366537570953, -0.024040138348937035, 
0.003761513624340296, -0.15702782571315765, -0.02770172618329525, 0.1458033323287964, -0.12334393709897995, 0.15223544836044312, -0.09635451436042786, 
-0.022369258105754852, 0.17002630233764648, -0.10104870051145554, 0.2436865121126175, -0.0805467814207077, 0.20905451476573944, -0.1678754985332489, 
0.17652128636837006, -0.2483968734741211, -0.2323136329650879, 0.24342499673366547, 0.12631452083587646, -0.35948026180267334, 0.23759663105010986, 
-0.28932985663414, 0.055959757417440414, -0.07807786762714386, -0.05884205922484398, 0.1285032033920288, -0.014584822580218315, 0.06275077164173126, 
0.1306326687335968, 0.19965188205242157, 0.15758337080478668, -0.1352185606956482, -0.16770422458648682, 0.21651895344257355, -0.030971786007285118, 
-0.08694255352020264, 0.04484903812408447, -0.1560528427362442, 0.20401448011398315, -0.2879222631454468, -0.246876060962677, 0.04848753660917282, 
-0.14973986148834229, 0.20113003253936768, 0.16644297540187836, 0.20563358068466187, -0.008023831993341446, 0.035039808601140976, 0.16615359485149384, 
-0.001107021002098918, -0.31856775283813477, -0.23750358819961548, 0.12637373805046082, -0.060788679867982864, -0.05723831057548523, -0.05316667631268501, 
-0.31923460960388184, -0.006036627106368542, 0.19642974436283112, 0.117027647793293, 0.10619236528873444, -0.07110341638326645, 0.2359839677810669, 
-0.16290847957134247, -0.030424686148762703, -0.08423831313848495, 0.10952506214380264, 0.025065908208489418, 0.08662532269954681, 0.1890043467283249, 
-0.1452912986278534, 0.033236294984817505, -0.09400646388530731, 0.14228413999080658, 0.1495705395936966, 0.028418077155947685, -0.187209814786911, 
-0.040470946580171585, 0.29269787669181824, 0.031096220016479492, 0.18090589344501495, 0.2011844515800476, 0.05341396480798721, -0.025455057621002197, 
0.30818983912467957, -0.1670849472284317, 0.24711646139621735, 0.23945489525794983, -0.2134266048669815, 0.01563793607056141, -0.08015571534633636, 
-0.1397593766450882, 0.18978627026081085, 0.07790552079677582, 0.1459461897611618, 0.08639947324991226, -0.16267330944538116, 0.15304137766361237, 
-0.07835571467876434, 0.24117209017276764, -0.09073194861412048, -0.106861911714077, 0.032463595271110535, -0.13440684974193573, -0.07902755588293076, 
-0.03556936979293823, 0.04898684099316597, 0.1671721488237381, -0.0870598554611206, -0.11293929815292358, -0.07801841199398041, 0.27189648151397705, 
0.15261594951152802, 0.025596361607313156, 0.008914832025766373, -0.2333623170852661, -0.1645541936159134, -0.011727074161171913, -0.08672411739826202, 
0.003651620587334037, 0.09039296954870224, -0.10536745190620422, 0.21738021075725555, -0.14220306277275085, -0.173430398106575, -0.007890067994594574, 
-0.06069487705826759, 0.030818693339824677, -0.027962958440184593, 0.0043083904311060905, 0.07973123341798782, -0.0734386146068573, 0.1213371530175209, 
-0.10054879635572433, -0.1208810806274414, 0.13044866919517517, 0.012276707217097282, 0.11264435201883316, 0.14762578904628754, 0.10414775460958481, 
0.2704896628856659, 0.25453072786331177, -0.106224924325943, 0.1357930600643158, -0.0844557136297226, -0.0725877434015274, -0.17381758987903595, 
0.05327415466308594, 0.22758983075618744, 0.061860669404268265, -0.11086063086986542, -0.14002637565135956, -0.2788708806037903, -0.022269774228334427, 
-0.011145047843456268, -0.06842020899057388, -0.05286262556910515, -0.1998051553964615, -0.21769122779369354, -0.01947164721786976, 0.03438495099544525, 
0.11831609159708023, 0.07263204455375671, -0.24796387553215027, 0.23465679585933685, -0.04447585344314575, 0.05449742078781128, -0.08371339738368988, 
0.06325098872184753, -0.10903996229171753, -0.1415245682001114, 0.11428716033697128, 0.19167134165763855, -0.19666436314582825, -0.17404209077358246, 
-0.22676236927509308, 0.19903242588043213, -0.05727550387382507, -0.36240354180336, 0.011117221787571907, -0.1976262927055359, 0.1893872320652008, 
0.10490863025188446, -0.13123933970928192, 0.18801259994506836, -0.04841016232967377, 0.06738637387752533, 0.1359127312898636, 0.1799052506685257, 
0.27706632018089294, -0.2578437030315399, 0.02754085138440132, 0.07325759530067444, 0.22833825647830963, -0.07968796044588089, -0.10776247829198837, 
0.12095781415700912, -0.1726824790239334, 0.08629056066274643, -0.12352051585912704, 0.050913434475660324, -0.12701880931854248, -0.20123039186000824, 
-0.04874948412179947, -0.1832665055990219, 0.07307660579681396, 0.12352794408798218, -0.219500333070755, 0.19059136509895325, 0.05150645598769188, 
0.048352789133787155, -0.1720772087574005, 0.12727874517440796, 0.18117189407348633, -0.18042674660682678, 0.2691001296043396, -0.20663131773471832, 
-0.05074012279510498, -0.007530206814408302, -0.021560149267315865, 0.10893376171588898, 0.18278086185455322, 0.23761318624019623, 0.22076113522052765, 
0.05053473636507988, 0.09279289096593857, 0.09896457195281982, -0.015111570246517658, -0.14238125085830688, 0.22367064654827118, 0.21101918816566467, 
0.016060620546340942, 0.18307648599147797, 0.02098996378481388, -0.17376352846622467, 0.23113617300987244, 0.23046930134296417, -0.0692032054066658, 
-0.2509027421474457, 0.18419578671455383, 0.21618498861789703, -0.17156845331192017, 0.20038028061389923, -0.1507081240415573, -0.15905632078647614, 
-0.23850604891777039, 0.2586287260055542, -0.18973182141780853, 0.10336774587631226, -0.19395628571510315, 0.1620909869670868, -0.9090895056724548, 
0.23775765299797058, -1.3012477159500122, 0.7548105120658875, 0.06448305398225784, -0.217853382229805, -0.8118222951889038, 0.9745240211486816, 
0.4686734080314636, -0.12847506999969482, -0.49253755807876587, -1.4946157932281494, -1.1327582597732544, -1.2665507793426514, -0.8911005258560181, 
0.4839429259300232, 0.23052118718624115, 0.6064766049385071, -0.7302154302597046, -0.8829451203346252, 1.489180088043213, 1.2370024919509888, 
-0.29412463307380676, -0.24196204543113708, 0.821296215057373, -0.08212368935346603, -0.6411553621292114, -0.24213726818561554, -0.5593546628952026, 
-0.6498479843139648, -0.7375046610832214, 2.445401430130005, -1.5865862369537354, 0.5982253551483154, 0.7730039954185486, -0.8995996713638306, 
-0.8407105803489685, 1.1469203233718872, 0.2233416736125946, -0.7288209795951843, -0.9006344676017761, -1.1629595756530762, -0.6632762551307678, 
-0.9389947652816772, -1.4529632329940796, -0.24371638894081116, -1.4980071783065796, -0.9685250520706177, -1.0845035314559937, -0.32804596424102783, 
-1.93641996383667, -1.097414493560791, -0.29238128662109375, 0.027133645489811897, -1.3353055715560913, 1.3634742498397827, -1.0299631357192993, 
-0.10208355635404587, -0.9914325475692749, -0.7503901124000549, 0.180414080619812, -0.5856984257698059, -0.38650253415107727, 0.14410406351089478, 
-1.4131536483764648, -1.402529001235962, -1.2550973892211914, -0.45718318223953247, -3.182152509689331, 2.5902717113494873, 0.040051668882369995, 
-1.6545873880386353, 1.024943232536316, 1.5861256122589111, -0.5822200775146484, 1.0795183181762695, -0.7961809635162354, -0.8451390266418457, 
-0.5344946980476379, -1.9051650762557983, 1.4567081928253174, 1.802809476852417, 1.0796066522598267, -1.563538908958435, 1.5065653324127197, 
-1.4673117399215698, -0.9981565475463867, -1.0853822231292725, 0.20157507061958313, -0.7698464393615723, -0.40547195076942444, 1.2711243629455566, 
-0.3733726739883423, -1.4336179494857788, 1.2554397583007812, -3.2487542629241943, -0.04198090732097626, 0.7618487477302551, 1.708347201347351, 
-1.121274709701538, -1.330051064491272, -0.02361563965678215, -2.0483977794647217, 0.03709035366773605, -1.0901623964309692, -0.568321943283081, 
-1.6835604906082153, -0.8120547533035278, 1.8548601865768433, -1.7365331649780273, 0.0755528062582016, 1.7402596473693848, -0.2699076235294342, 
-0.11706811934709549, 0.4170818030834198, 0.6073630452156067, -1.7856286764144897, -0.9564288258552551, -2.183896780014038, 1.61220383644104, 
-0.41043639183044434, -1.1128336191177368, -0.7753341197967529, -0.7219642996788025, 1.6777831315994263, 0.3424394130706787, -0.6460666656494141, 
1.3162137269973755, -0.03230427950620651, 0.22166061401367188, -0.1503865271806717, -0.3016914129257202, -0.06271787732839584, -0.12833786010742188, 
0.15287098288536072, 0.0455317385494709, 0.12942437827587128, -0.13186198472976685, -0.12314285337924957, -0.3128003776073456, 0.03263622522354126, 
0.1404029279947281, -0.1947506219148636, 0.04323365166783333, -0.1648796796798706, 0.09749071300029755, 0.170984148979187, 0.12800510227680206, 
-0.1378907412290573, 0.10918324440717697, 0.14349518716335297, 0.01983998343348503, -0.12078647315502167, -0.08566495031118393, -0.2075396627187729, 
0.23267970979213715, 0.04948638752102852, -0.1267465054988861, 0.16731758415699005, -0.008619120344519615, 0.0342668816447258, 0.02014247700572014, 
0.0885491892695427, -0.1382085531949997, 0.13391141593456268, 0.010479064658284187, -0.04762164130806923, -0.11100592464208603, 0.03749584034085274, 
0.01994113065302372, 0.029532505199313164, 0.05144750699400902, -0.14501507580280304, -0.04433022439479828, -0.02888079173862934, 0.35839471220970154, 
0.2552882134914398, 0.005816716700792313, 0.1858210414648056, 0.19851438701152802, 0.22995758056640625, -0.26994532346725464, -0.22328396141529083, 
0.26876184344291687, 0.1469431221485138, 0.2438642829656601, -0.031325675547122955, 0.4162147045135498, 0.09692976623773575, -0.3138999044895172, 
0.09935005754232407, 0.13881193101406097, -0.049050942063331604, 0.13995227217674255, 0.10248773545026779, -0.14869782328605652, 0.2153289020061493, 
-0.06599640101194382, -0.14049102365970612, 0.10958075523376465, 0.2491951435804367, 0.06582256406545639, -0.1455906182527542, -0.3110446035861969, 
0.025603652000427246, -0.02779957838356495, 0.21012964844703674, 0.029809124767780304, 0.009822888299822807, -0.032811425626277924, 0.0332978330552578, 
-0.015810079872608185, 0.018586548045277596, 0.019733283668756485, 0.21263544261455536, 0.01586843840777874, -0.15163174271583557, -0.03850841522216797, 
0.029009293764829636, -0.17248207330703735, -0.11371226608753204, 0.15717165172100067, -0.12672017514705658, 0.06783834099769592, -0.20759989321231842, 
0.33889147639274597, 0.033376727253198624, 0.057716548442840576, -0.11676692962646484, 0.17469118535518646, -0.22871485352516174, 0.04646807536482811, 
0.16978788375854492, -0.10260388255119324, -0.02901889942586422, 0.052815522998571396, -0.1533368080854416, -0.06849628686904907, 0.05123286694288254, 
-0.14478911459445953, 0.22358521819114685, -0.22160430252552032, -0.10453750938177109, -0.2170104831457138, -0.15212947130203247, 0.15732036530971527, 
-0.1570197492837906, -0.01445872150361538, -0.222481831908226, -0.1691560596227646, -0.04011635482311249, 0.18216262757778168, -0.010521969757974148, 
0.10702532529830933, 0.08021320402622223, 0.13718804717063904};

#endif

#endif
