// Numpy array shape [16, 16]
// Min -1.4964186
// Max 1.228772
// Number of zeros 0

#ifndef INP_LAYER_WEIGHT_H_
#define INP_LAYER_WEIGHT_H_

#ifndef __SYNTHESIS__
model_default_t inp_layer_weight[256];
#else
model_default_t inp_layer_weight[256] = {-0.23820894956588745, -0.11813465505838394, 0.2382287234067917, 0.0491926334798336, -0.08230473846197128, 0.06743719428777695, 
0.31023672223091125, 0.29553478956222534, 0.19210968911647797, 0.17776837944984436, 0.1907513290643692, -0.261433869600296, -0.42174434661865234, 
0.15616513788700104, 0.0077924286015331745, 0.015248923562467098, -0.1354263722896576, 0.11052574217319489, 0.08377397060394287, 0.0749526247382164, 
-0.04757934808731079, 0.037930652499198914, 0.16621918976306915, 0.07716255635023117, 0.36487534642219543, -0.16395512223243713, 0.3291807174682617, 
-0.1373521387577057, 0.2881341278553009, 0.2586992084980011, -0.04278939962387085, 0.20990321040153503, 0.044227566570043564, -0.19548828899860382, 
0.5060531497001648, 0.533783495426178, -0.24975909292697906, -0.047320783138275146, 0.06520473212003708, -0.4090263247489929, -0.23650529980659485, 
-0.5311923027038574, 0.16982680559158325, 0.5002114772796631, -0.43245479464530945, -0.2889939844608307, -0.07539963722229004, -0.029452554881572723, 
-0.20503118634223938, -0.0427594818174839, 0.11285332590341568, 0.6512630581855774, -0.14090858399868011, 0.1090131625533104, -0.7435649037361145, 
-0.31382322311401367, 0.46290409564971924, -0.2590944766998291, 0.7913674712181091, 0.1729242205619812, -0.6606765389442444, -0.5003396272659302, 
-0.12731876969337463, -0.19747577607631683, -0.20544205605983734, -0.031664468348026276, 0.025952588766813278, 0.34905365109443665, -0.5171912908554077, 
-0.05306641757488251, 0.046957388520240784, -0.33610284328460693, 0.07710285484790802, -0.36747094988822937, 0.32506197690963745, 0.14644621312618256, 
-0.016927570104599, 0.12207268923521042, 0.21232418715953827, 0.032056182622909546, 0.31319892406463623, -0.05730847269296646, -0.044117242097854614, 
0.10346771776676178, 0.21460185945034027, 0.009478537365794182, -0.08159183710813522, 0.1685873568058014, -0.20895935595035553, 0.005158070009201765, 
-0.08416832238435745, -0.011491255834698677, 0.006082439795136452, 0.0009866402251645923, 0.0679050013422966, 0.4259634017944336, -0.14464889466762543, 
0.034719452261924744, -0.10466375201940536, 0.03267276659607887, 0.09413855522871017, -0.1588582694530487, -0.03266790509223938, 0.04619366303086281, 
-0.11085113137960434, -0.17134273052215576, -0.050089262425899506, 0.1738126277923584, 0.19285327196121216, 0.1011144295334816, -0.03147511184215546, 
-0.3500926196575165, -0.03448132798075676, 0.17526735365390778, 0.18987861275672913, -0.14493431150913239, 0.2865683138370514, 0.2003834843635559, 
-0.28569844365119934, 0.10345201194286346, -0.18384088575839996, -0.11747965961694717, 0.25000691413879395, -0.16926144063472748, 0.041998278349637985, 
-0.05991913378238678, 0.02352076582610607, 0.005171189550310373, -0.12091042846441269, -0.14639578759670258, 0.02472785674035549, -0.08962439745664597, 
-0.3023315966129303, 0.1309584081172943, -0.1125936359167099, -0.11570198833942413, 0.060391053557395935, 0.009881766512989998, 0.08119586855173111, 
-0.1749710589647293, -0.08911312371492386, 0.15409310162067413, -0.18025720119476318, 0.03326312452554703, 0.0723273828625679, 0.20096071064472198, 
-0.21476322412490845, 0.15514874458312988, -0.12379210442304611, -0.04703935980796814, 0.17042315006256104, 0.062462132424116135, -0.11514049023389816, 
0.12592069804668427, 0.18802502751350403, -0.2229086458683014, 0.03370634838938713, -0.065705306828022, -0.05997171252965927, 0.19577184319496155, 
-0.17046600580215454, -0.16594085097312927, 0.035969797521829605, 0.13228029012680054, -0.13542844355106354, -0.1446090191602707, 0.2566080689430237, 
0.25052884221076965, -0.09528772532939911, 0.04134535416960716, 0.10125179588794708, -0.1674838811159134, 0.20141443610191345, 0.18744753301143646, 
0.05256103351712227, -0.06757909804582596, 0.1920676827430725, 0.18885305523872375, 0.22631821036338806, 0.0763060450553894, 0.004341860767453909, 
0.19156348705291748, 0.27708107233047485, -0.32272017002105713, -0.06392872333526611, 0.10086741298437119, -0.14293256402015686, 0.09297657012939453, 
-0.04273613542318344, -0.048043109476566315, -0.2590799331665039, -0.07476503401994705, -0.23077178001403809, 0.17109479010105133, -0.031759317964315414, 
-0.004258701112121344, -0.08171427994966507, 0.0627247542142868, 0.3266529142856598, 0.24268977344036102, -0.169290691614151, -0.15999245643615723, 
-0.0634184256196022, 0.14512112736701965, -0.0913759171962738, -0.03963431343436241, 0.11199144273996353, -0.01393878273665905, -0.06585969030857086, 
-0.1820511519908905, -0.07281488925218582, 0.1740456521511078, -0.027706163004040718, 0.09351734071969986, 0.061231326311826706, -0.16573713719844818, 
-0.06705515831708908, 0.07795057445764542, -0.014269303530454636, -0.36771276593208313, 0.004223243333399296, -0.15518267452716827, -0.09634800255298615, 
-0.004860362969338894, -0.4333169460296631, 1.2287720441818237, -0.45366984605789185, -0.6847714185714722, 0.4373891055583954, -1.1149935722351074, 
0.35126522183418274, 0.16561359167099, 0.10965762287378311, -0.09396003186702728, -0.14703620970249176, -0.4580090343952179, -0.44900810718536377, 
-0.05918382108211517, -1.4964185953140259, 0.1678590327501297, -0.24284885823726654, 0.07893223315477371, -0.10255281627178192, 0.14931683242321014, 
0.3902934491634369, 0.20452584326267242, -0.36574310064315796, 0.28532278537750244, 0.6349790692329407, 0.348305881023407, -0.1695709228515625, 
-0.5921493768692017, 0.17633691430091858, -0.20343555510044098, 0.12447470426559448, -0.015390006825327873};

#endif

#endif
