-0.006000686436891556, -0.028857486322522163, -0.008590087294578552, -0.0011995991226285696, 0.0009495907579548657, 8.987131150206551e-05, -0.006361686158925295, -0.005840578116476536, 0.012605523690581322, -0.003286599414423108, -0.005152970086783171, 0.0015554785495623946, -0.010162418708205223, 0.005477043800055981, 0.0365070179104805, 0.00807549711316824, 0.00825683306902647, -0.002559422515332699, 0.028134116902947426, 0.010285411961376667, -0.009368138387799263, -0.010066954419016838, -0.013358999975025654, 0.0034798881970345974, -0.04211550951004028, -0.003276076167821884, 0.005381714086979628, -0.0006316705257631838, 0.0190063938498497, 0.001930166850797832, 0.0007456432213075459, 0.002811677288264036, -9.705129195936024e-05, 0.0035828477703034878, -0.011887568980455399, 0.01970512419939041, 0.0059310998767614365, 0.004614531062543392, -0.010704719461500645, 0.006049362476915121, -0.004048218484967947, 0.004981332924216986, 0.0024919980205595493, -0.017805710434913635, -0.005854493472725153, 0.009607941843569279, -0.0012134828139096498, -0.006265643052756786, -0.002078855177387595, 0.02179897204041481, -0.006133193150162697, 0.006023777648806572, -0.016189904883503914, 0.006882199551910162, 0.003861998673528433, -0.006071197334676981, -0.0022024118807166815, -0.0014669697266072035, 0.009121343493461609, -0.059172291308641434, 0.03725140169262886, -0.0038031137082725763, 0.0004793434636667371, -0.0012706893030554056, 0.0009169749682769179, -0.006744728423655033, -0.0026385709643363953, 0.004801209084689617, -0.00024313927860930562, 0.0022058759350329638, 0.03127055987715721, -0.00021955082775093615, 0.005791164468973875, -0.013364626094698906, 0.0222750473767519, 0.0051947650499641895, 0.015484758652746677, 0.018411321565508842, -0.06182684749364853, -0.007758398074656725, 0.017611617222428322, 0.001348885358311236, -0.0063676489517092705, 0.0009333532652817667, 0.013966057449579239, -0.0027017334941774607, -0.012902084738016129, -0.005056967027485371, 0.04091550409793854, -0.021687999367713928, -0.010838805697858334, 0.0025130952708423138, 0.02295508421957493, -0.005045558325946331, -0.003524689469486475, 0.0012881923466920853, 0.0037833936512470245, 0.01281482633203268, -0.005759565159678459, 0.018393399193882942, -0.005419070832431316, -0.003998537547886372, 0.03175775706768036, -0.00013085738464724272, 0.014350445941090584, 0.011213216930627823, 0.0035697792191058397, -0.01556431595236063, -0.002965329447761178, -0.0035572221968322992, 0.005164266563951969, -0.007479851134121418, -0.01184341311454773, -0.03484053909778595, 0.004233479965478182, -0.01606838032603264, 0.017830505967140198, 7.46566875022836e-05, 0.003951711114495993, 0.026865407824516296, -0.013353302143514156, 0.01922120340168476, -0.005738443695008755, -0.021245012059807777, 0.0035611698403954506, -0.013981363736093044, -0.010538138449192047, 0.007231090217828751, -0.0037766695022583008, -0.00813377182930708, -0.00943528302013874, 0.010479317046701908, -0.0007440972840413451, 0.0037628873251378536, 0.030470222234725952, 0.006584762129932642, -0.0034037823788821697, -0.009743300266563892, -0.011402466334402561, 0.015158998779952526, -0.012105896137654781, 0.007951917126774788, -0.00990880373865366, -0.008351843804121017, -0.01232702936977148, -0.015920445322990417, -0.01700366474688053, 0.0013925242237746716, 0.0009646870894357562, 0.02166632004082203, -0.015708085149526596, 0.018248919397592545, -0.03316447138786316, -0.020286882296204567, -0.01415262557566166, -0.0002693832793738693, 0.008037472143769264, -0.00011706100485753268, -0.001867757411673665, 0.0005071419873274863, -0.012820687144994736, 0.010633349418640137, 0.013009326532483101, -0.00827352236956358, 0.006481255404651165, -0.004258692264556885, 0.03853806480765343, -0.0033101558219641447, -0.009160137735307217, 0.0029787318781018257, 9.158429020317271e-05, -0.014306195080280304, -0.0010069620329886675, -0.01589818298816681, 0.014505274593830109, -0.012073363177478313, 0.004071948118507862, 0.02417055144906044, 0.0007926778635010123, 0.014856389723718166, -0.005812241230159998, -0.012328959070146084, -0.003236949210986495, 0.008651243522763252, 0.01304355077445507, 0.008862168528139591, 0.007513047195971012, 0.02761981636285782, -0.017965644598007202, 0.006141954567283392, -0.008194522000849247, -0.008881167508661747, 0.01525371614843607, 0.17883500456809998, -0.00731399841606617, 0.025152409449219704, 0.003755176207050681, -0.007162712048739195, 0.011570642702281475, 0.00754072330892086, 0.038525428622961044, 0.0010062274523079395, 0.14998549222946167, 0.21333858370780945, -0.0686149001121521, 0.011046412400901318, -0.23994062840938568, 0.002668226370587945, 0.23399727046489716, 0.025267982855439186, -0.18370144069194794, -0.01992213726043701, 0.007914898917078972, -0.012355315499007702, -0.0027644175570458174, 0.007193649187684059, -0.08592462539672852, 0.23191408812999725, 0.03291488066315651, 0.009628982283174992, 0.0391969233751297, 0.022377783432602882, 0.015896281227469444, -0.002579836407676339, -0.009511969983577728, 0.05036459490656853, 0.0013782110763713717, -0.003215762320905924, 0.008839893154799938, 0.005386467091739178, -0.2135666459798813, -0.063400037586689, -0.007940092124044895, -0.017501626163721085, -0.04531501978635788, -0.027667665854096413, -0.022981079295277596, -0.02708566188812256, 0.05811396986246109, -0.00676942802965641, 0.043764349073171616, -0.10774324834346771, -0.00873450469225645, 0.03826028108596802, 0.11992738395929337, -0.040918704122304916, -0.009886803105473518, -0.09527446329593658, -0.015675820410251617, 0.012485898099839687, -0.027503110468387604, 0.790549099445343, 0.45318013429641724, -0.08302874118089676, 0.06881456077098846, 0.017098737880587578, -10.263163566589355, 3.1661908626556396, 1.3396050930023193, -14.468188285827637, -1.2447553873062134, -1.3182048797607422, 4.766153335571289, -1.1594059467315674, 6.3847455978393555, 0.9270070791244507, -9.617058753967285, -8.649382591247559, 10.163765907287598, 5.316678047180176, 5.542665004730225, 0.1328207552433014, 4.191532135009766, 2.5010721683502197, 6.579254627227783, -0.7013217806816101, -0.5289422869682312, -13.480979919433594, -17.258081436157227, 1.4913816452026367, -1.3390251398086548, -0.672067403793335, -1.1635246276855469, 0.05229603126645088, 4.507862567901611, -3.737809658050537, 2.5130693912506104, -0.809299886226654, -10.519712448120117, -0.17889894545078278, -1.2484480142593384, 2.5609970092773438, -1.2989954948425293, -2.7591183185577393, -1.1281968355178833, -19.18112564086914, -10.122793197631836, 2.218083381652832, -22.030052185058594, 5.351861476898193, -0.7327136397361755, 0.260669082403183, 2.1604726314544678, -1.1799240112304688, 0.7422478795051575, 13.195897102355957, -2.357262134552002, 4.87991189956665, -0.013655954971909523, -1.4213231801986694, 2.1798830032348633, -0.8799174427986145, 8.189949989318848, -13.086747169494629, 9.557806015014648, 0.9761593341827393, 3.5396270751953125, -8.283777236938477, -12.138790130615234, 1.7385112047195435, 0.4940588176250458, 0.9125922322273254, -0.26110386848449707, 1.0747705698013306, 0.01606903411448002, -0.02499227784574032, -0.6160745024681091, 0.040726810693740845, -0.33658698201179504, -0.23017193377017975, 1.4292060136795044, 0.918097972869873, -1.7424219846725464, -0.49391409754753113, -0.5800467729568481, 1.2478173971176147, 0.8404843807220459, -0.526036262512207, -0.7924619317054749, -0.047746267169713974, -0.21528640389442444, 1.3148455619812012, 1.1787137985229492, 0.25465717911720276, -0.1527261883020401, 1.1379801034927368, 0.26560840010643005, 0.034925177693367004, -0.5874575972557068, 0.8207108378410339, 0.06331130117177963, 0.0034213007893413305, 0.29902225732803345, 0.16596907377243042, -0.19927139580249786, -0.3280945122241974, 0.18500618636608124, 0.06252457946538925, -0.09480016678571701, 0.7488758563995361, 2.5795669555664062, -0.2683938443660736, 0.8407261967658997, -0.6318645477294922, -0.03599117696285248, -0.21053341031074524, -0.4299669861793518, -0.1913914829492569, 0.24349787831306458, -1.104949712753296, 0.2533237636089325, -0.432831346988678, 0.9366762638092041, -0.29213473200798035, -0.06270453333854675, -0.0635637640953064, -0.792956531047821, 2.203256368637085, -0.6005798578262329, 0.3650985658168793, 0.17357370257377625, 0.8984420895576477, 1.536157488822937, -0.2721813917160034, -10.479781150817871, 1.171013593673706, 1.6404814720153809, -16.58570671081543, 0.28502246737480164, -1.3674954175949097, 4.814857482910156, -0.42349714040756226, 6.352482318878174, 0.9721230864524841, -11.044189453125, -8.65532398223877, 10.692708969116211, 5.444411754608154, 5.886194705963135, -0.38537147641181946, 2.968170166015625, 2.672365188598633, 6.930779457092285, -0.5511486530303955, -0.6098354458808899, -13.771713256835938, -17.792329788208008, 1.2458091974258423, -1.1397892236709595, -0.8963483572006226, -1.103542447090149, -1.2094124555587769, 4.816818714141846, -4.587583541870117, 0.9428580403327942, -0.3602840304374695, -10.465149879455566, -1.1659175157546997, -1.1927080154418945, 2.8577961921691895, -1.1313897371292114, -2.589473009109497, -0.9838146567344666, -20.027790069580078, -11.220643997192383, 2.44435715675354, -22.578956604003906, 5.98884916305542, -0.7303184866905212, 0.45773014426231384, 2.3194591999053955, -0.8912522196769714, -1.7445027828216553, 13.60611343383789, -3.5759530067443848, 4.966466426849365, -0.8165221214294434, -1.4873112440109253, 2.6617066860198975, -0.4837798476219177, 8.26436996459961, -14.077566146850586, 10.248927116394043, 0.25221821665763855, 1.9272295236587524, -9.91394329071045, -13.604583740234375, 1.9643990993499756, -0.06175512075424194, 0.2641202509403229, -0.1680975705385208, -0.24490199983119965, 0.0013966308906674385, 0.11413606256246567, -0.22313320636749268, 0.012570716440677643, -0.13913674652576447, 0.063332699239254, 0.3957563638687134, -0.42892175912857056, -0.01192149892449379, -0.1019120141863823, 0.001337632187642157, 0.053635671734809875, 0.03881676122546196, -0.20024654269218445, -0.010722172446548939, -0.012542927637696266, -0.010376225225627422, -0.4364962875843048, 0.029444392770528793, -0.25477275252342224, 0.45864832401275635, 0.15485899150371552, -0.0006277326610870659, -0.08624864369630814, 0.1386866718530655, -0.15123987197875977, 0.22740161418914795, -0.0075669134967029095, -0.09931636601686478, -0.2469957023859024, 0.028994092717766762, 0.2922959625720978, -0.17293526232242584, 0.09988290816545486, 0.009688661433756351, 0.32198792695999146, 0.006995090749114752, -0.04953178018331528, 0.16903924942016602, -0.051497675478458405, 0.03817468136548996, -0.22515146434307098, -0.17822599411010742, 0.18126007914543152, 0.10139618068933487, -0.3077620565891266, -0.1865662932395935, -0.04536844789981842, -0.1393650770187378, 0.1074720174074173, 0.12325843423604965, -0.0949656218290329, 0.09428282082080841, -0.016899697482585907, -0.1649889200925827, 0.09015914052724838, 0.020480751991271973, -0.03968573361635208, 0.05419175699353218, -0.1666802316904068, 0.22848111391067505, -0.09707199782133102, 0.04608549177646637, -0.07868710905313492, 0.001816988573409617, -0.0029644626192748547, 0.0841093361377716, 0.1183614507317543, -0.19708672165870667, -0.1893625408411026, 0.037057165056467056, -0.17865240573883057, -0.09335985779762268, -0.0629771426320076, -0.17699816823005676, 0.5836542248725891, 0.15727216005325317, 0.13513727486133575, 0.08298993855714798, 0.008652505464851856, -0.3651059567928314, -0.3725413680076599, 0.15888944268226624, 0.5753225088119507, -0.028136346489191055, 0.07234148681163788, 0.07978835701942444, 0.03759707883000374, -0.16425032913684845, 0.05473422631621361, -0.035594526678323746, 0.022016674280166626, 0.40408825874328613, 0.027305906638503075, 0.24782344698905945, 0.04525701701641083, -0.014669164083898067, -0.10528885573148727, 0.23598021268844604, -0.3341861069202423, -0.33195993304252625, 0.06788143515586853, -0.1740972250699997, 0.15107464790344238, 0.12247107923030853, 0.0016341331647709012, -0.07742778956890106, -0.18101359903812408, 0.006685947999358177, 0.12332429736852646, 0.0810050517320633, -0.057235706597566605, 0.34811219573020935, 0.4511620104312897, -0.025467485189437866, -0.867542028427124, -0.16651445627212524, 0.05612703412771225, -0.06646015495061874, -0.7670917510986328, -0.4362201690673828, -0.14621610939502716, 0.07409211248159409, -0.13210169970989227, -0.04610398784279823, 0.34247851371765137, -0.3278026282787323, 0.3563786447048187, -0.19021663069725037, -0.018947673961520195, -0.22500506043434143, 0.013561585918068886, 0.2595198452472687, 0.16766144335269928, 0.3515605628490448, 0.083899587392807, 0.007974451407790184, -0.011839347891509533, 0.14416317641735077, -0.4443058371543884, 0.4223029911518097, -0.24341416358947754, -0.11395059525966644, 0.29529500007629395, 0.2273550182580948, 0.1786695420742035, 0.42483949661254883, -0.12016954272985458, -0.31117209792137146, 0.2577483654022217, -0.209181547164917, 0.0736660361289978, 0.3169868588447571, -0.11269938200712204, 0.5672582983970642, -0.02807386964559555, -0.0981464833021164, 0.33047446608543396, 0.2370479553937912, 0.09745941311120987, 0.09046229720115662, -0.14564982056617737, 0.20617122948169708, -0.08822625130414963, 0.15830926597118378, 0.10784810781478882, -0.017633622512221336, 0.1644641011953354, 0.011693223379552364, -0.33197858929634094, 0.12000612914562225, 0.053527768701314926, 0.49156084656715393, -0.13946112990379333, -0.2998976409435272, 0.028154980391263962, -0.07659845054149628, -0.13707134127616882, 0.10874806344509125, 0.18637345731258392, -0.22084692120552063, -0.28519806265830994, 0.13022972643375397, 0.37419700622558594, 0.6213589906692505, -0.32658079266548157, 0.0632084459066391, 0.28757813572883606, -0.10524359345436096, -0.09391174465417862, 0.013168839737772942, -0.04807591438293457, 0.0020915837958455086, 0.0010048290714621544, -0.10884583741426468, -0.01056666113436222, 0.03152358531951904, 0.027920780703425407, -0.14712683856487274, 0.016855012625455856, 0.02612404152750969, -0.0668875128030777, 0.10748450458049774, 0.24445761740207672, 0.21590809524059296, 0.03280467912554741, 0.13657550513744354, 0.029902229085564613, -0.015725132077932358, 0.023179039359092712, 0.012934500351548195, -0.08985933661460876, -0.16078625619411469, 0.38687366247177124, 0.07322210818529129, 0.0057692499831318855, -0.012426408007740974, -0.11070626229047775, 0.05038873851299286, -0.008254815824329853, -0.04301521182060242, -0.08690507709980011, -0.008596252650022507, -0.1955031007528305, 0.06093071028590202, 0.0025812583044171333, -0.10924102365970612, 0.042343828827142715, -0.19907814264297485, 0.030195914208889008, 0.002347921719774604, -0.04107780009508133, -0.07300159335136414, 0.060830820351839066, 0.013557422906160355, -0.012910347431898117, 0.1655818223953247, 0.19810283184051514, -0.058239828795194626, -0.06251052767038345, -0.03091229312121868, -0.007169209420681, 0.003908212296664715, -0.0795276015996933, 0.055060774087905884, -0.09874361008405685, 0.184377059340477, 0.2518596947193146, -0.24676819145679474, 0.2004014253616333, 0.07027629017829895, -0.014457296580076218, 0.07766354829072952, 0.33927059173583984, 0.33819639682769775, -0.12316129356622696, -0.0030167950317263603, -0.07484276592731476, 0.07442949712276459, 0.09787948429584503, -0.20024235546588898, 0.12394745647907257, -0.16065438091754913, 0.12086930125951767, -0.04341985657811165, 0.03335956484079361, 0.07250100374221802, -0.24497853219509125, -0.2060765027999878, -0.21810516715049744, 0.1272028237581253, -0.2884101867675781, -0.13845199346542358, 0.13684184849262238, 0.09783811867237091, -0.1444590985774994, -0.46133655309677124, 0.09489244222640991, -0.01119912788271904, -0.06317354738712311, 0.19772978127002716, -0.2551726698875427, 0.12155470252037048, -0.023996682837605476, 0.05694746971130371, 0.18583624064922333, -0.16985467076301575, 0.22921133041381836, 0.17992150783538818, 0.027251621708273888, -0.0913420170545578, 0.16425423324108124, 0.06499185413122177, -0.0838586837053299, 0.426207572221756, 0.1341913938522339, 0.3440723121166229, 0.13130083680152893, -0.11939939111471176, -0.6108487248420715, 0.046516306698322296, 0.33482229709625244, 0.009846935048699379, -0.21436099708080292, 0.16875825822353363, 0.07842351496219635, -0.020975386723876, 0.11289921402931213, -0.10172075033187866, -0.2079848200082779, -0.21692606806755066, 0.17262813448905945, -0.18394118547439575, 0.1172301173210144, -0.19070401787757874, 0.46026721596717834, -0.3889341950416565, -1.9857113361358643, -1.6499178409576416, -2.0108020305633545, 2.969008684158325, 1.6034071445465088, -0.23027682304382324, 6.922469139099121, -0.8401004672050476, -0.4341576397418976, -2.4854423999786377, 2.127333402633667, -0.6588695645332336, -1.038712501525879, -1.1533468961715698, 0.9781132340431213, 0.7137132287025452, 0.4491412341594696, -0.8667253255844116, -1.611634612083435, 2.0553202629089355, 1.029632806777954, -1.410618543624878, 0.6293649077415466, 0.8803724646568298, -0.20204301178455353, 1.8884906768798828, -8.6571626663208, -0.6665591597557068, -0.28134921193122864, -10.106621742248535, 8.223498344421387, 0.5213241577148438, 1.0701571702957153, 2.0329668521881104, -0.39758792519569397, -0.061826467514038086, 5.641110897064209, 0.3378068208694458, -0.06706773489713669, -4.416295051574707, -1.4226953983306885, -0.9815712571144104, -1.2628225088119507, -1.730802297592163, -0.9657060503959656, -1.4752516746520996, -0.33788973093032837, -4.054572105407715, -0.6202770471572876, -8.15509033203125, -0.7721897959709167, 1.6027746200561523, 0.6070742011070251, -1.88564133644104, 0.6476287245750427, -1.1273928880691528, -1.5659815073013306, -1.170038104057312, 1.5585225820541382, -7.297189712524414, -3.2072737216949463, -1.550262451171875, 0.22565482556819916, -1.6700100898742676, 0.09716355800628662, -2.151186227798462, 3.849768877029419, -9.174488067626953, 4.203249454498291, 0.5035281181335449, -4.197427272796631, 0.3697590231895447, 1.3124110698699951, 1.1448733806610107, 4.8769659996032715, 0.3386656641960144, -1.0434719324111938, -0.8971632122993469, -0.9434446096420288, 1.9895426034927368, 2.157050371170044, -1.4837441444396973, -3.0852110385894775, 2.552563190460205, 4.903858184814453, 1.6472930908203125, -1.898931622505188, -1.4298750162124634, 2.545004367828369, 1.068188190460205, 4.9279961585998535, -0.21271786093711853, 0.21782250702381134, 7.688850402832031, -1.3397557735443115, -0.4898630380630493, 3.5332515239715576, 2.9969615936279297, -1.723631501197815, -1.4310988187789917, 2.138751983642578, -2.660858392715454, 2.716599702835083, 0.6333275437355042, -1.4213175773620605, -0.5486370921134949, -1.6517893075942993, 2.3832778930664062, -1.99180269241333, 0.27674582600593567, 2.632265567779541, 7.696627616882324, -0.4991927146911621, 4.920840263366699, 1.2762765884399414, -1.0476139783859253, -1.0807478427886963, -3.710606813430786, 2.2787702083587646, -0.6447580456733704, 0.7496877908706665, -1.300600290298462, 1.6538928747177124, 7.13875150680542, 2.494457244873047, 0.21291162073612213, -0.8810684084892273, 0.1329180747270584, 0.23008888959884644, -0.08518943190574646, -0.3312132656574249, 0.002081092679873109, -0.18373553454875946, 0.1337914615869522, -0.056876290589571, 0.03155728057026863, -0.06855479627847672, -0.006572204641997814, -0.5422951579093933, 0.02380433864891529, 0.08693799376487732, -0.06169815734028816, 0.21640507876873016, -0.4084201157093048, 0.13508282601833344, 0.2099873274564743, 0.06940679252147675, -0.14998461306095123, -0.051568031311035156, 0.18775655329227448, -0.013896504417061806, 0.3829113245010376, 0.022302784025669098, -0.07914970815181732, 0.05636579543352127, 0.028194382786750793, -0.14714154601097107, -0.041698891669511795, 0.02762765623629093, 0.1390530914068222, -0.08919957280158997, -0.004657310899347067, -0.03033292107284069, 0.16285449266433716, -0.07977045327425003, 0.09233707934617996, -0.01072909589856863, 0.2493041604757309, 0.04409971088171005, 0.16571110486984253, 0.12515434622764587, -0.16274301707744598, 0.1259775161743164, -0.03242790699005127, 0.11825893074274063, 0.04604722186923027, 0.04468456655740738, 0.012023785151541233, 0.2092909812927246, 0.296294629573822, -0.2659115493297577, -0.17779354751110077, 0.2586520314216614, 0.15652059018611908, 0.39674246311187744, 0.025084305554628372, 0.2611675560474396, -0.03972666338086128, -0.18691518902778625, 0.2019752562046051, 0.16429071128368378, -0.21568302810192108, 0.38654381036758423, -0.17280042171478271, -0.029819758608937263, 0.1923789530992508, -0.05463988706469536, -0.3022119104862213, 0.018899759277701378, 0.4872848391532898, 0.11666208505630493, 0.012175909243524075, -0.0812733918428421, -0.016249068081378937, 0.04072742909193039, 0.1950865089893341, -0.5651912093162537, 0.4099785387516022, -0.09679099917411804, -0.06658196449279785, -0.006979275960475206, 0.21303150057792664, 0.029254503548145294, 0.44516295194625854, -0.17788392305374146, -0.4369201362133026, -0.09340249001979828, -0.009850854054093361, -0.3404683470726013, -0.06111931428313255, 0.26893648505210876, 0.42651718854904175, 0.11239542812108994, -0.154150128364563, 0.498902291059494, 0.17895683646202087, -0.013012776151299477, -0.09847424179315567, 0.20990148186683655, -0.1802341639995575, 0.047027066349983215, 0.08967342972755432, 0.0839572474360466, 0.06086039915680885, 0.16922128200531006, -0.012891500256955624, -0.3338572680950165, 0.18538589775562286, -0.15767118334770203, 0.5530717968940735, -0.2924000322818756, -0.265043705701828, -0.1286587119102478, -0.49446865916252136, -0.1520158052444458, -0.07218963652849197, 0.168290913105011, -0.23195378482341766, -0.2885608375072479, 0.08342822641134262, 0.6449239253997803, 0.6064693331718445, -0.3172208368778229, 0.25246021151542664, 0.20075011253356934