-0.03491496667265892, -0.09091440588235855, 0.05192152038216591, 0.056794773787260056, -0.0003095188003499061, -0.0005116555257700384, 0.11582693457603455, 0.0027233988512307405, 0.013127261772751808, 0.003811693750321865, 0.03009812720119953, -0.09361447393894196, 0.03919987753033638, -0.007579111959785223, 0.08368051797151566, 0.04837210476398468, 0.023102685809135437, 0.038265641778707504, -0.09412404894828796, -0.014521999284625053, -0.03696954995393753, -0.04890510067343712, 0.04452165588736534, 0.08343912661075592, -0.16506429016590118, 0.0566529855132103, -0.02102206088602543, 0.008677786216139793, -0.0814589336514473, 0.1361445039510727, -0.015094170346856117, -0.0014044136041775346, 0.014178215526044369, 0.04562690481543541, -0.002302615437656641, -0.07249399274587631, 0.005086220800876617, 0.006347367540001869, 0.036909569054841995, -0.015387245453894138, 0.04123999550938606, 0.04449690133333206, 0.01943364180624485, -0.035532962530851364, -0.09259434789419174, 0.003103116527199745, -0.1254025548696518, -0.11513032019138336, -0.07451347261667252, 0.07739581912755966, 0.03323446959257126, 0.047110140323638916, 0.05728621035814285, 0.04780694097280502, 0.001211516442708671, -0.005474541801959276, -0.08247855305671692, -0.021525701507925987, 0.11050038039684296, -0.04118797555565834, 0.16565556824207306, 0.007684835232794285, 0.06536347419023514, 0.062056463211774826, 0.015020021237432957, 0.08469666540622711, 0.041026122868061066, 0.03644948452711105, -0.00017099844990298152, 0.0037751856725662947, 0.1009846106171608, -0.004484513774514198, 0.03781194984912872, -0.030362125486135483, 0.1306573748588562, -0.054552800953388214, 0.08579853177070618, 0.01998301036655903, -0.16116464138031006, -0.01150865200906992, -0.0997949093580246, -0.03875800594687462, -0.07901035249233246, 0.025750072672963142, -0.026828492060303688, -0.051230527460575104, -0.02041790820658207, -0.09028530865907669, 0.12660516798496246, -0.028799138963222504, 0.020060565322637558, -0.005157014820724726, 0.04549017921090126, -0.0037331285420805216, -0.12168792635202408, 0.00014648611249867827, -0.021125519648194313, 0.01565415784716606, 0.014913368038833141, 0.09200231730937958, 2.8600137738976628e-05, 0.00466782134026289, -0.0015656242612749338, 0.028991861268877983, 0.022355400025844574, -0.03461340069770813, 0.012999510392546654, 0.004937691614031792, 0.13352617621421814, 0.08091965317726135, -0.13188956677913666, 0.07019682973623276, -0.04975999519228935, -0.12177331745624542, -0.038641057908535004, 0.06304560601711273, -0.07172050327062607, -0.04837004467844963, 0.007286854553967714, 0.06934724003076553, -0.024179525673389435, -0.04456577077507973, -0.08011753112077713, 0.1199747696518898, 0.06299430131912231, -0.015425319783389568, -0.024409910663962364, -0.03159244358539581, -0.030553631484508514, -0.028674306347966194, 0.08291220664978027, 0.04879290983080864, 0.00052472366951406, 0.003357654670253396, 0.12132105976343155, -0.0013701408170163631, -0.037030044943094254, -0.00731208361685276, -0.0777849331498146, 0.15447495877742767, -0.08357614278793335, -0.014364523813128471, -0.07081077247858047, -0.051905445754528046, 0.11328651756048203, -0.02113708294928074, 0.13747061789035797, 0.003732804674655199, 0.07364813983440399, 0.09062756597995758, -0.0018395744264125824, 0.15233692526817322, -0.15133404731750488, -0.060462187975645065, 0.022286638617515564, -0.025997288525104523, -0.034634582698345184, 0.07288800925016403, -0.0827627182006836, -0.0033218127209693193, 0.012212672270834446, 0.05717109888792038, 0.010613413527607918, -0.09676782041788101, 0.0047689625062048435, 0.0026388647966086864, -0.1793712079524994, -0.03290809690952301, -0.08012700825929642, -0.0032797683961689472, -0.03459760919213295, 0.0036972793750464916, 0.06639210879802704, 0.11648838967084885, 0.05738645792007446, -0.14964225888252258, -0.026719987392425537, 0.041697096079587936, 0.03166854381561279, -0.03714457526803017, -0.049287449568510056, 0.10797794908285141, -0.005111094564199448, -0.06469374895095825, 0.055046796798706055, -0.03376825153827667, 0.01978394389152527, -0.18581804633140564, -0.16945789754390717, 0.014847880229353905, -0.016960522159934044, -0.09671342372894287, 0.008962326683104038, 0.14767473936080933, -0.11696425080299377, 0.1172039657831192, 0.0005987502518109977, 0.010073542594909668, -0.10900338739156723, 0.005947406403720379, 0.0507294125854969, 0.07174336165189743, 0.21598733961582184, 0.15901347994804382, -0.1507868468761444, 0.023784948512911797, -0.25684669613838196, 0.018595533445477486, 0.33105799555778503, -0.16649213433265686, -0.14506825804710388, -0.12856531143188477, 0.08124306052923203, 0.12329442799091339, 0.07466153055429459, 0.03354037553071976, -0.30096811056137085, 0.3132234215736389, 0.12100990116596222, 0.12348636239767075, -0.19741074740886688, 0.22669661045074463, 0.3092435598373413, -0.00035995602956973016, -0.04665279760956764, 0.20816564559936523, -0.06251688301563263, -0.08152361959218979, -0.03072243742644787, -0.04916464909911156, -0.21440115571022034, -0.032850008457899094, 0.09268908202648163, -0.06809584051370621, 0.04092796891927719, 0.016897933557629585, -0.1274271160364151, -0.1845652163028717, 0.022108742967247963, -0.15849263966083527, 0.17106083035469055, -0.1525784134864807, -0.049741942435503006, -0.01475130021572113, 0.21874898672103882, -0.3261917233467102, 0.031225552782416344, -0.17505238950252533, -0.1347939819097519, 0.06190304085612297, -0.14913176000118256, 0.3308531641960144, 0.38179177045822144, -0.120689257979393, 0.08492883294820786, -0.07880000025033951, -0.8697686195373535, -0.040816985070705414, 0.0174839049577713, -0.26189520955085754, -1.0215142965316772, -0.13598927855491638, 0.9219157099723816, -0.5834121704101562, 1.0169034004211426, 0.4324724078178406, 0.22413446009159088, -0.12525294721126556, -0.035879239439964294, 0.40082719922065735, -0.21476946771144867, 0.2871268391609192, 0.5145019888877869, 0.06624408066272736, 0.5064295530319214, -0.6918021440505981, -0.16020363569259644, -0.9898011684417725, -0.9922281503677368, 0.4919622242450714, -0.36666667461395264, 0.038539376109838486, 0.4020336866378784, 0.41664350032806396, -0.16925741732120514, -0.576988697052002, 0.5117872357368469, -0.18771402537822723, -0.6871250867843628, -0.4290694296360016, -0.023021090775728226, 0.3840555250644684, -0.8932186365127563, -0.7223568558692932, -1.2118549346923828, -0.6405766606330872, -0.15192550420761108, 0.4080788493156433, -0.48013782501220703, 0.592778205871582, -0.04048024117946625, -0.16144929826259613, 0.8515027761459351, 0.3818833827972412, 0.5787807703018188, 0.1489924192428589, 0.31969988346099854, 0.8499277234077454, -0.059831403195858, -0.48638927936553955, 0.33390840888023376, -0.6848879456520081, 0.32024118304252625, -0.5672960877418518, 0.9360924959182739, 0.3787026107311249, 0.2524687945842743, 0.015478832647204399, 0.3102198541164398, -0.6280547976493835, 0.3160014748573303, 0.21902240812778473, -0.20853327214717865, 0.3715974986553192, 0.0013073052978143096, -0.07442502677440643, -0.43627995252609253, 0.0670449435710907, -0.3660036027431488, -0.29973307251930237, 0.4828647971153259, 0.27559828758239746, -0.4950592517852783, -0.30775487422943115, -0.2802562415599823, 0.33886605501174927, 0.24468064308166504, -0.3357786536216736, -0.23596055805683136, 0.04530947655439377, -0.3668130338191986, 0.42009758949279785, 0.422000914812088, 0.25622186064720154, -0.06458575278520584, 0.3173283338546753, 0.2873767912387848, 0.12846902012825012, -0.3253301680088043, 0.35542210936546326, 0.21477194130420685, 0.001198040903545916, 0.36533573269844055, 0.090106301009655, -0.20043253898620605, -0.349534273147583, 0.19249460101127625, 0.15088555216789246, -0.015034941956400871, 0.38170114159584045, 0.383427232503891, -0.24446475505828857, 0.42874735593795776, -0.35035666823387146, 0.11151954531669617, -0.18582963943481445, -0.38842329382896423, -0.1818516105413437, 0.15999171137809753, -0.4979668855667114, 0.4245627224445343, -0.31929197907447815, 0.3035869002342224, -0.009477023035287857, -0.09411890059709549, -0.044576577842235565, -0.5723116993904114, 0.4890378415584564, -0.3210712969303131, 0.04065718874335289, 0.11725086718797684, 0.410399854183197, 0.3809041678905487, -0.3303386867046356, -0.8942974805831909, -0.18277613818645477, 0.02666175737977028, -0.3611239194869995, -0.6450604200363159, -0.10107344388961792, 0.7604802846908569, -0.3564373552799225, 0.9597834348678589, 0.4906732141971588, 0.0019776911940425634, 0.06806720793247223, 0.13762643933296204, 0.40169787406921387, -0.35581347346305847, -0.14816336333751678, 0.5571995973587036, 0.06944240629673004, 0.24708595871925354, -0.6067567467689514, -0.17858493328094482, -1.0546729564666748, -0.8277094960212708, 0.10968388617038727, -0.2549496591091156, 0.38621950149536133, 0.3654427230358124, 0.6401156187057495, -0.2035636156797409, -0.6478282809257507, 0.5322044491767883, -0.13835735619068146, -0.7825146317481995, -0.6450727581977844, -0.04189945384860039, 0.6016998291015625, -0.7136808037757874, -0.7237882614135742, -1.1606526374816895, -0.7999446392059326, -0.01711445488035679, 0.4872070848941803, -0.8088319301605225, 0.9203810095787048, -0.012161092832684517, -0.2349223643541336, 0.9347295165061951, 0.48716023564338684, 0.3967391848564148, 0.23306775093078613, 0.12798501551151276, 0.7565793395042419, -0.40619853138923645, -0.5903496146202087, 0.4300461411476135, -0.41389307379722595, 0.09467782080173492, -0.5680428147315979, 1.0249947309494019, 0.21916310489177704, 0.31400808691978455, 0.10966277122497559, 0.3934076726436615, -0.5332831144332886, -0.13051383197307587, 0.22607925534248352, -0.11447498947381973, -0.25380656123161316, 0.07569491118192673, 0.2025485783815384, -0.2158418893814087, 0.14416509866714478, -0.10565761476755142, -0.011755636893212795, 0.29411834478378296, -0.3394809365272522, 0.09485895931720734, -0.038640473037958145, 0.00325186550617218, -0.044430527836084366, 0.13322746753692627, -0.18045112490653992, 0.06189471483230591, 0.06863243132829666, -0.06124717742204666, -0.3630741238594055, 0.01141302939504385, -0.1498463898897171, 0.10958218574523926, 0.001349249272607267, -0.18889537453651428, -0.02288101427257061, 0.19543664157390594, -0.16813474893569946, 0.2720280587673187, 0.005795575678348541, -0.20721247792243958, -0.22947363555431366, -0.007697208318859339, 0.254635214805603, -0.20301507413387299, 0.14479534327983856, -0.10839053988456726, 0.25094953179359436, -0.08811987191438675, 0.03521595150232315, 0.10804708302021027, -0.04813338816165924, 0.032353393733501434, -0.2573278546333313, -0.2094154953956604, 0.34397947788238525, 0.14135023951530457, -0.26404836773872375, -0.10774429142475128, -0.027744634076952934, -0.18102172017097473, 0.11122613400220871, 0.17974483966827393, -0.04837421327829361, 0.13342824578285217, -0.11053282767534256, -0.12490885704755783, 0.0008520399569533765, -0.026369288563728333, -0.06079142168164253, 0.002823948161676526, -0.1630229353904724, -0.017123151570558548, -0.05513257905840874, -0.004179029725492001, -0.10827211290597916, -0.025699270889163017, 0.001354725449346006, -0.08833924680948257, -0.0580415353178978, 0.06481178104877472, -0.0769130140542984, 0.2288503795862198, -0.2147422581911087, -0.11182190477848053, 0.1377383917570114, -0.1442050039768219, 0.3256247937679291, 0.047282662242650986, 0.15686336159706116, -0.04935973137617111, -0.008053199388086796, -0.22996212542057037, -0.24810691177845, 0.3134315311908722, 0.13244007527828217, -0.15990719199180603, 0.2013799250125885, -0.1469770073890686, 0.11928961426019669, -0.11242291331291199, -0.0019374178955331445, 0.03468069061636925, -0.03589647263288498, 0.1577450931072235, 0.12724190950393677, 0.189382866024971, 0.15427802503108978, -0.0678153783082962, -0.20987790822982788, 0.08119110018014908, -0.05044424906373024, -0.06299547106027603, 0.05348721891641617, -0.12484760582447052, 0.2142201066017151, -0.16466689109802246, -0.16128118336200714, 0.032159194350242615, -0.2974661588668823, 0.08140243589878082, 0.18964463472366333, 0.27486392855644226, -0.1285240203142166, 0.12251604348421097, 0.27632325887680054, -0.06252972036600113, -0.2920565605163574, -0.19197623431682587, 0.16643531620502472, -0.023448675870895386, -0.29570651054382324, -0.2297295182943344, -0.12523043155670166, 0.12041584402322769, 0.1129409521818161, 0.09283660352230072, 0.06882818788290024, -0.08367621898651123, 0.21013236045837402, -0.1748516857624054, 0.06825524568557739, -0.04485853388905525, 0.15244582295417786, 0.07318195700645447, 0.21034479141235352, 0.17508213222026825, -0.13333424925804138, 0.09839759021997452, -0.08241253346204758, 0.14445313811302185, 0.12434227764606476, 0.1404639184474945, -0.16444379091262817, 0.03993915393948555, 0.28063398599624634, 0.0051016476936638355, 0.07998625189065933, 0.13301753997802734, 0.08736937493085861, -0.00583430053666234, 0.21516910195350647, -0.18333682417869568, 0.22434818744659424, 0.28306037187576294, -0.24885283410549164, 0.06114977225661278, -0.11447394639253616, -0.056685127317905426, 0.09232323616743088, 0.14999504387378693, 0.19044767320156097, 0.013987039215862751, -0.1557391881942749, 0.18194580078125, -0.19214606285095215, 0.16526362299919128, -0.0082769226282835, -0.16731047630310059, 0.027748940512537956, -0.022847570478916168, -0.09724151343107224, 0.06175880506634712, 0.1577005386352539, 0.18639349937438965, -0.04609719663858414, -0.15237952768802643, -0.006112249102443457, 0.26364660263061523, 0.1700725257396698, 0.027664728462696075, 0.03982216492295265, -0.1958194226026535, -0.1715432107448578, 0.037442054599523544, -0.09194238483905792, 0.050067149102687836, 0.052719101309776306, -0.09944988042116165, 0.27886325120925903, -0.12653392553329468, -0.18143732845783234, -0.03844123333692551, -0.045166902244091034, 0.003947486635297537, -0.08305488526821136, 0.0033884423319250345, 0.09095387905836105, -0.02239261567592621, 0.18676817417144775, -0.10266470909118652, -0.09937448799610138, 0.06926357746124268, -0.01609712839126587, 0.10212608426809311, 0.1816064417362213, 0.15749499201774597, 0.3080998957157135, 0.21061575412750244, -0.08276909589767456, 0.11395491659641266, -0.043582189828157425, -0.03889220207929611, -0.1402517408132553, -0.044969961047172546, 0.29408782720565796, 0.09878426790237427, -0.09216046333312988, -0.08854059875011444, -0.2511468231678009, -0.010573839768767357, -0.018574383109807968, -0.05344969779253006, -0.07668972760438919, -0.16267846524715424, -0.2250792235136032, -0.185658261179924, 0.07112748920917511, 0.08205239474773407, 0.053790464997291565, -0.2536490857601166, 0.21317975223064423, -0.040666744112968445, 0.04832560196518898, -0.02361493930220604, 0.11544637382030487, -0.05244842544198036, -0.15918205678462982, 0.07949653267860413, 0.23793856799602509, -0.11635484546422958, -0.2013922482728958, -0.19674451649188995, 0.1783512830734253, -0.07594411075115204, -0.34578225016593933, 0.020871350541710854, -0.15398472547531128, 0.21983739733695984, 0.09657308459281921, -0.14045025408267975, 0.2260405719280243, 0.019577166065573692, 0.03243773803114891, 0.17718687653541565, 0.21401146054267883, 0.22181406617164612, -0.1397823542356491, 0.007578958757221699, 0.039031706750392914, 0.1385309249162674, 0.0041031669825315475, -0.2695823609828949, 0.10734246671199799, -0.11791808158159256, 0.14573925733566284, -0.13974571228027344, 0.028850387781858444, -0.1298394352197647, -0.1007438451051712, -0.10008861869573593, -0.26767122745513916, 0.09323464334011078, 0.10044386982917786, -0.2558238208293915, 0.15572495758533478, 0.039814915508031845, 0.04141533374786377, -0.11237828433513641, 0.08886267244815826, 0.2502238154411316, -0.2550290822982788, 0.18688146770000458, -0.1896921545267105, -0.0223183985799551, -0.013541631400585175, 0.0010935908649116755, 0.0379137359559536, 0.10381845384836197, 0.20161062479019165, 0.2571425139904022, 0.0052121770568192005, 0.1802230030298233, 0.06540919095277786, -0.04280984401702881, -0.07159137725830078, 0.2433670312166214, 0.1773541271686554, 0.1421569138765335, 0.11318881809711456, 0.003999273758381605, -0.27851763367652893, 0.2012547105550766, 0.21782438457012177, -0.12222455441951752, -0.30990922451019287, 0.22011034190654755, 0.13701553642749786, -0.14258377254009247, 0.13283047080039978, -0.2307063341140747, -0.1445898711681366, -0.2227824628353119, 0.20350264012813568, -0.25431495904922485, 0.08290060609579086, -0.19944772124290466, 0.1435614377260208, -0.08315365016460419, 0.41735920310020447, -0.7908702492713928, 0.051907364279031754, 0.7393056154251099, 0.59042888879776, -0.31214720010757446, 1.0556120872497559, 0.1757877916097641, -0.43117842078208923, -0.06517000496387482, 0.5583615303039551, -0.5384415984153748, -0.9296756386756897, -0.40376517176628113, 0.43468767404556274, 0.9597132802009583, 0.28557175397872925, -0.8756012320518494, -1.0362926721572876, 1.4437053203582764, 1.3607178926467896, -0.06806233525276184, 0.06324660032987595, 0.4555065929889679, 0.8040395379066467, 0.20587383210659027, -0.6524152755737305, -0.3237569332122803, 0.24933461844921112, -1.8155628442764282, 1.854280948638916, 0.05760790780186653, 1.3915845155715942, 1.0275400876998901, -0.5522871613502502, -0.5351418256759644, 2.158799648284912, 0.1603371500968933, 0.6420493721961975, -0.9037761688232422, -0.8678910732269287, -0.21744176745414734, -1.1174958944320679, -1.0432238578796387, -0.6670518517494202, -1.344897985458374, 0.18546351790428162, -0.4084572196006775, -0.48136982321739197, -1.5472139120101929, -0.3249205946922302, 0.5759406685829163, 0.7138940691947937, -0.9527632594108582, 0.8308725953102112, -0.855807900428772, 0.36274203658103943, -1.134492039680481, 0.4783444106578827, -0.5466520190238953, -0.36605677008628845, 0.19938689470291138, 0.28037190437316895, -2.020653486251831, -1.7100317478179932, -1.560502052307129, -0.20268508791923523, -4.2426981925964355, 2.786757469177246, 0.317874014377594, -2.5969009399414062, 0.8668404817581177, 1.0986703634262085, -0.9253698587417603, 1.206472396850586, 0.38971078395843506, -0.5936300158500671, -0.5887279510498047, -1.8812758922576904, 0.0671936497092247, 1.737775444984436, -1.281285285949707, -1.7656843662261963, 1.6458735466003418, 1.2007689476013184, -0.5417702198028564, -1.2069913148880005, -0.9025213718414307, -0.6018219590187073, -0.6031357049942017, 1.2480244636535645, -0.09264705330133438, -1.6877377033233643, 0.7814133763313293, -2.338423013687134, -0.995806097984314, 1.6902860403060913, 1.6684445142745972, -1.4056743383407593, -1.5452358722686768, 0.7433837056159973, -1.9639610052108765, 0.26838845014572144, -1.250196099281311, -1.109865665435791, -1.6565569639205933, -1.0806063413619995, 1.5566798448562622, -1.748605728149414, 0.25057876110076904, 1.8552879095077515, 2.047163724899292, -0.17126578092575073, 0.7000935673713684, 1.2179639339447021, -2.1741132736206055, -1.047137975692749, -2.415248155593872, 1.4249770641326904, -0.4854380786418915, -1.205323576927185, -0.945863664150238, 0.5637750029563904, 1.798827886581421, -0.40620937943458557, -1.4816099405288696, -0.39967143535614014, -0.011392664164304733, 0.21056057512760162, -0.11024639010429382, -0.2761607766151428, -0.061312831938266754, -0.1491103619337082, 0.1254224330186844, 0.0483274944126606, 0.11857032775878906, -0.13066981732845306, -0.11419058591127396, -0.3664863407611847, 0.06753966957330704, 0.1655774861574173, -0.14928150177001953, 0.07238869369029999, -0.20418241620063782, 0.10832866281270981, 0.2281075417995453, 0.1458130180835724, -0.17455533146858215, 0.04583670198917389, 0.14800740778446198, 0.028910841792821884, -0.007373041473329067, -0.06997472047805786, -0.19250981509685516, 0.24198727309703827, 0.040236424654722214, -0.1612900048494339, 0.16001735627651215, 0.0006409611087292433, 0.001358510460704565, 0.012274887412786484, 0.05379415675997734, -0.11006651073694229, 0.11035501956939697, -0.027029598131775856, -0.0394100546836853, -0.12006871402263641, 0.06791720539331436, 0.04899682104587555, 0.038312774151563644, 0.07701406627893448, -0.16938675940036774, 0.010965932160615921, -0.053385671228170395, 0.2782611846923828, 0.2256699800491333, 0.016927102580666542, 0.14959503710269928, 0.175537571310997, 0.250081866979599, -0.2762746512889862, -0.19315630197525024, 0.2131197154521942, 0.13591641187667847, 0.25783321261405945, 0.0036725711543112993, 0.29907798767089844, 0.1064121276140213, -0.24417831003665924, 0.11239007115364075, 0.13021031022071838, -0.07150398194789886, 0.10772748291492462, 0.0881168469786644, -0.17175434529781342, 0.2020086944103241, 0.03394397720694542, -0.11145634204149246, 0.16074739396572113, 0.29403024911880493, 0.17908400297164917, -0.155856192111969, -0.29306384921073914, 0.08438313752412796, -0.022842271253466606, 0.20595891773700714, 0.005945619195699692, 0.12374110519886017, -0.012719604186713696, 0.10276169329881668, -0.02766737900674343, -0.003983141388744116, -0.07796768099069595, 0.14789913594722748, 0.055364981293678284, -0.12776429951190948, -0.12925250828266144, 0.014478920958936214, -0.19743436574935913, -0.08259516209363937, 0.12372350692749023, -0.07719249278306961, 0.02928525023162365, -0.11992071568965912, 0.24499200284481049, 0.10268393903970718, 0.09517238289117813, -0.183363139629364, 0.19499655067920685, -0.19929514825344086, -0.06346813589334488, 0.09918743371963501, -0.029082145541906357, -0.08791202306747437, 0.04074440523982048, -0.04539503902196884, -0.09251406043767929, 0.14024928212165833, -0.0411638543009758, 0.25021401047706604, -0.18917326629161835, -0.1378125101327896, -0.15332306921482086, -0.15759164094924927, 0.1686890870332718, -0.15879493951797485, 0.015275318175554276, -0.19551415741443634, -0.17293380200862885, 0.0017767661483958364, 0.18322983384132385, 0.038978468626737595, 0.06286878883838654, 0.09172341972589493, 0.19420364499092102