-0.04797729477286339, 0.09621498733758926, -0.022941360250115395, -0.11987689137458801, 0.10262604057788849, 0.013665474951267242, -0.07590266317129135, 0.14691004157066345, 0.05443894863128662, 0.027838606387376785, -0.023394031450152397, 0.029554659500718117, -0.003205152926966548, -0.06720617413520813, 0.10494731366634369, -0.005894651636481285, 0.08488161116838455, -0.11082981526851654, -0.04594051092863083, 0.08287136256694794, 0.03284033387899399, -0.05971359834074974, 0.06050620228052139, 0.10555966198444366, -0.1239498108625412, -0.007456723600625992, -0.07072394341230392, 0.12038508802652359, 0.06246327981352806, 0.06059679761528969, 0.0742781013250351, 0.06217445060610771, -0.03308277949690819, -0.16992971301078796, -0.05288335308432579, -0.07945770770311356, -0.11272566020488739, 0.1030578538775444, 0.009253060445189476, 0.08461873978376389, 0.1125701442360878, 0.05308902636170387, 0.006971198599785566, -0.07155893743038177, 0.1273699700832367, -0.08926893025636673, 0.07519210129976273, -0.026770301163196564, -0.09175041317939758, 0.11375608295202255, -0.048830680549144745, -0.08833550661802292, 0.05975430831313133, 0.14117610454559326, 0.08679056167602539, -0.05877406895160675, -0.027642671018838882, -0.005356333218514919, 0.03439400717616081, -0.004635141231119633, 0.01393041294068098, 0.059395454823970795, -0.12487354129552841, -0.16390317678451538, -0.05467589199542999, 0.14151795208454132, -0.03492797911167145, -0.06343384832143784, 0.015247801318764687, 0.012092060409486294, -0.09564503282308578, 0.07321576029062271, 0.043911539018154144, -0.0953412875533104, 0.13021163642406464, 0.040264587849378586, 0.009924301877617836, -0.07780905812978745, 0.19507789611816406, 0.06438335031270981, 0.05478895828127861, 0.0640600249171257, -0.04308808222413063, -0.07517219334840775, -0.12239993363618851, -0.02534421719610691, 0.017070932313799858, -0.0726955235004425, 0.13742738962173462, -0.02744736149907112, 0.06749477237462997, -0.03451006859540939, -0.10812202841043472, -0.001286728074774146, -0.005249736364930868, 0.10819045454263687, -0.02535792626440525, -0.03771282359957695, -0.11573730409145355, -0.008018669672310352, -0.06691451370716095, 0.024684958159923553, -0.011290553025901318, -0.07119657099246979, -0.07739439606666565, 0.06863643229007721, 0.1415121704339981, 0.07373015582561493, 0.04971323534846306, -0.11727426946163177, -0.10175880789756775, -0.09371411800384521, -0.0004268502234481275, 0.1502135694026947, -0.02662842348217964, -0.08981142193078995, 0.05724726989865303, 0.07283280789852142, 0.09288736432790756, -0.11097300797700882, 0.1444418728351593, 0.11611887812614441, -0.09583438187837601, -0.005807003006339073, 0.03409154340624809, 0.08557134866714478, 0.040284413844347, -0.11906231939792633, 0.05763900652527809, -0.03774576261639595, -0.01719730719923973, -0.08143912255764008, -0.07135023176670074, 0.21900945901870728, -0.08096146583557129, -0.13835376501083374, 0.0808643028140068, 0.12037922441959381, 0.09798121452331543, -0.0035839946940541267, 0.019844431430101395, -0.08563991636037827, -0.07413973659276962, -0.15106095373630524, 0.0954405665397644, 0.08768018335103989, 0.02798360027372837, -0.02273566648364067, -0.0832257941365242, 0.04386981949210167, -0.008583476766943932, -0.021267114207148552, 0.03486825153231621, -0.0804060772061348, 0.010900548659265041, 0.06053834408521652, -0.022999539971351624, -0.06927396357059479, -0.022934606298804283, 0.0798008143901825, 0.021832093596458435, -0.08968105167150497, -0.04434645548462868, -0.12345559149980545, 0.15653467178344727, 0.10292071849107742, 0.030427640303969383, -0.07967512309551239, -0.13983993232250214, -0.01573294959962368, 0.02105928584933281, -0.03556247800588608, -0.06562195718288422, 0.09411326050758362, 0.02864893153309822, -0.01806296780705452, 0.10735875368118286, 0.107845239341259, 0.019276952371001244, -0.13052068650722504, -0.008776526898145676, 0.02688371017575264, -0.13397210836410522, 0.11535310000181198, -0.04045819863677025, -0.03246936574578285, -0.10870262235403061, 0.003119412576779723, -0.04961906000971794, 0.05564951151609421, 0.08952604979276657, -0.04964732378721237, 0.03751619905233383, -0.021542547270655632, 0.12446069717407227, 0.0007770986994728446, 0.06789585202932358, -0.11667687445878983, 0.14456667006015778, 0.036327704787254333, -0.05977078899741173, 0.04846315085887909, 0.06227957084774971, 0.12734176218509674, -0.013032151386141777, -0.048623133450746536, -0.02421264536678791, -0.02249727211892605, 0.18174080550670624, -0.08733373880386353, -0.041908878833055496, 0.025464486330747604, 0.10444645583629608, 0.14057333767414093, -0.11178889125585556, 0.062243878841400146, 0.04847778007388115, 0.1681329607963562, -0.1491289883852005, 0.029737725853919983, 0.12612919509410858, -0.08922737836837769, -0.035519856959581375, -0.04221684858202934, 0.08842524141073227, -0.07634929567575455, 0.02879951521754265, -0.0729404166340828, -0.12872691452503204, 0.028112536296248436, 0.06383930891752243, -0.02631923370063305, -0.0204251017421484, 0.12183195352554321, 0.003274728311225772, -0.09264997392892838, -0.04250771552324295, 0.017666297033429146, -0.009712501429021358, 0.1647917926311493, 0.034790124744176865, 0.0140034519135952, 0.055320337414741516, -0.015365950763225555, 0.15994060039520264, -0.03260967135429382, 0.056855347007513046, 0.009089779108762741, 0.0003358556714374572, -0.06256959587335587, 0.04396770894527435, -0.053221508860588074, -0.044928230345249176, 0.054831646382808685, -0.07867103815078735, -0.060252003371715546, 0.04742760211229324, 0.07030784338712692, 0.08945854753255844, 0.09870343655347824, -0.0717250183224678, 0.05332955718040466, -0.10515313595533371, -0.06583420932292938, 0.02809055894613266, 0.11601093411445618, 0.12783822417259216, -0.10384075343608856, -0.12393490225076675, 0.11680816859006882, 0.04965091869235039, -0.010740288533270359, -0.07493572682142258, 0.018350839614868164, 0.13899724185466766, -0.0067912195809185505, -0.00041961256647482514, -0.0927324891090393, -0.10354033857584, -0.10609252750873566, 0.12525366246700287, 0.10403849184513092, -0.1306169331073761, 0.0390021838247776, 0.11472915858030319, -0.09545829147100449, -0.12257805466651917, 0.03070569969713688, 0.013414050452411175, 0.050709452480077744, -0.11484652012586594, -0.07364093512296677, 0.09880883246660233, 0.11635374277830124, -0.043572798371315, -0.004018437582999468, -0.029772846028208733, -0.06253469735383987, -0.09926696866750717, 0.09875710308551788, 0.06946412473917007, -0.09733536094427109, 0.04891902208328247, -0.05717405676841736, -0.13055211305618286, -0.13511672616004944, -0.05091201886534691, 0.12118606269359589, -0.013059565797448158, -0.05086858943104744, -0.032410379499197006, -0.1090421974658966, -0.09693634510040283, -0.0230204239487648, 0.11120390892028809, -0.08947905153036118, -0.14280076324939728, 0.02350577339529991, -0.0034483985509723425, 0.15044772624969482