// Numpy array shape [5, 64]
// Min -0.36524045
// Max 0.42031544
// Number of zeros 0

#ifndef OUT_LAYER_1_WEIGHT_H_
#define OUT_LAYER_1_WEIGHT_H_

#ifndef __SYNTHESIS__
model_default_t out_layer_1_weight[320];
#else
model_default_t out_layer_1_weight[320] = {-0.16483715176582336, 0.047543615102767944, 0.18030104041099548, -0.2703131437301636, 0.1842811554670334, 0.17604976892471313, 
-0.19729627668857574, 0.06279360502958298, 0.17175064980983734, -0.05977104976773262, -0.0832982137799263, 0.1400241106748581, -0.11109033972024918, 
0.11962895840406418, -0.012935173697769642, 0.053455524146556854, 0.08571247011423111, -0.2290244996547699, 0.09173364192247391, -0.009491145610809326, 
-0.1153751015663147, -0.056914959102869034, 0.26590070128440857, 0.2144877314567566, -0.1751672327518463, -0.0808895155787468, -0.1837460845708847, 
0.32549944519996643, 0.19638124108314514, 0.02140956185758114, 0.19074490666389465, 0.17242121696472168, -0.08433450013399124, -0.30545490980148315, 
-0.0469803512096405, -0.1423426866531372, -0.19848217070102692, 0.13732393085956573, 0.0838671550154686, 0.19745540618896484, 0.08238536864519119, 
0.10527358949184418, -0.028049340471625328, -0.12261199951171875, 0.19380620121955872, -0.06428295373916626, -0.004789194092154503, -0.1485636681318283, 
0.32031410932540894, -0.07219353318214417, -0.061032578349113464, -0.09303874522447586, 0.09775347262620926, 0.10005151480436325, 0.16041670739650726, 
-0.14810246229171753, 0.015742095187306404, -0.12930788099765778, 0.15873634815216064, 0.08696950972080231, 0.030966518446803093, 0.1093272864818573, 
-0.16142910718917847, -0.2357281744480133, -0.06298410892486572, 0.2474873960018158, 0.010734167881309986, -0.11904610693454742, -0.08436452597379684, 
0.0026663760654628277, 0.020300602540373802, 0.18525907397270203, -0.01587495394051075, -0.2814866900444031, 0.18821483850479126, 0.24409349262714386, 
0.24832534790039062, -0.35671159625053406, -0.05156173184514046, 0.31266874074935913, 0.10050086677074432, 0.05008402839303017, -0.0006984029314480722, 
-0.08183478564023972, -0.18703454732894897, 0.20991435647010803, 0.23212195932865143, -0.3101879954338074, -0.11588773131370544, 0.18083184957504272, 
0.20398570597171783, -0.07153408974409103, -0.20806722342967987, -0.13923637568950653, 0.0957341343164444, -0.03650129586458206, -0.02760901115834713, 
0.24161195755004883, -0.2568696141242981, -0.044865645468235016, -0.21649977564811707, -0.015431804582476616, 0.139384925365448, 0.006672664545476437, 
-0.09462876617908478, 0.15004993975162506, 0.24988453090190887, 0.03667068108916283, -0.028389155864715576, -0.2452966272830963, -0.17146563529968262, 
-0.05570930615067482, -0.015774892643094063, 0.33077213168144226, -0.07164257764816284, -0.014685251750051975, 0.09134351462125778, 0.1235479861497879, 
0.06861554831266403, -0.22571998834609985, 0.18729783594608307, 0.24811123311519623, -0.2554556429386139, -0.03288646787405014, 0.11506656557321548, 
0.17282959818840027, 0.05859115347266197, -0.1727665513753891, 0.0010972591117024422, -0.01159523893147707, -0.10806412994861603, -0.13440437614917755, 
-0.00932625774294138, 0.37939587235450745, -0.19309431314468384, -0.1828901320695877, 0.09300661832094193, 0.1924135535955429, 0.15956945717334747, 
-0.07419989258050919, 0.012041565962135792, 0.04468611627817154, -0.11694652587175369, -0.20239248871803284, 0.10372751951217651, 0.11979451775550842, 
0.07554411143064499, -0.18023739755153656, -0.10505420714616776, 0.10140634328126907, 0.09820149838924408, -0.07967095077037811, -0.1020740419626236, 
-0.11569736152887344, 0.11825200170278549, 0.14471817016601562, -0.01634560525417328, -0.14561013877391815, -0.16283409297466278, 0.19386479258537292, 
0.10996389389038086, -0.1912807673215866, -0.05011837184429169, -0.13096675276756287, 0.18215301632881165, 0.16970457136631012, 0.05564329773187637, 
-0.1929132342338562, -0.017270037904381752, -0.10146377980709076, 0.17480050027370453, 0.015398292802274227, -0.3652404546737671, 0.13590221107006073, 
0.23680444061756134, 0.006716945208609104, -0.03589257225394249, 0.2722551226615906, -0.09468987584114075, -0.07205408066511154, -0.10090483725070953, 
0.0982832983136177, -0.292319118976593, 0.2833644449710846, -0.016236860305070877, -0.1829373985528946, -0.171950101852417, 0.2166997641324997, 
-0.11875659227371216, 0.19806347787380219, 0.13857997953891754, 0.0014458771329373121, -0.1288507580757141, -0.12865757942199707, 0.2874545753002167, 
-0.0822468027472496, 0.03594793751835823, -0.008687945082783699, 0.29386529326438904, -0.11204783618450165, -0.1269354373216629, 0.1504203975200653, 
0.1208566352725029, 0.15063251554965973, -0.1089470237493515, 0.1669437289237976, 0.03464546427130699, -0.2707057297229767, 0.27930697798728943, 
-0.18054670095443726, -0.11531513929367065, 0.023015260696411133, 0.17334024608135223, 0.20250044763088226, -0.13836243748664856, -0.06135575845837593, 
-0.10114303231239319, 0.4203154444694519, -0.06427325308322906, -0.1716720461845398, -0.0032769558019936085, -0.10263277590274811, 0.023786095902323723, 
-0.10847456008195877, 0.24889037013053894, -0.08397506922483444, 0.06894411146640778, -0.04595685377717018, -0.18019942939281464, 0.0023386820685118437, 
0.06703990697860718, -0.16334863007068634, 0.012553280219435692, 0.17127089202404022, 0.05355467274785042, -0.22119709849357605, -0.1390414983034134, 
0.22954511642456055, 0.04763466864824295, 0.10975715517997742, 0.0052527692168951035, 0.07229150831699371, 0.013638241216540337, -0.052443958818912506, 
0.2220451533794403, -0.05279180034995079, 0.057182133197784424, 0.02595958486199379, 0.1443890780210495, -0.22554370760917664, 0.08540228009223938, 
-0.04118949547410011, -0.11566638201475143, 0.02345924638211727, -0.02123505063354969, -0.2189822793006897, -0.04964432865381241, 0.1739116758108139, 
0.20254749059677124, 0.10707256197929382, -0.0155752869322896, 0.08607292175292969, -0.21215642988681793, -0.09491977095603943, 0.05013261362910271, 
0.15705540776252747, 0.12065223604440689, -0.20135878026485443, -0.3590642511844635, 0.2565791606903076, -0.10873965919017792, 0.11597296595573425, 
-0.11570367217063904, -0.08692435920238495, 0.3274723291397095, 0.06935884058475494, -0.03636638820171356, -0.2990219295024872, 0.18297547101974487, 
-0.1623978316783905, 0.17591877281665802, 0.12984178960323334, -0.21879591047763824, 0.06129549816250801, 0.11613667756319046, -0.18992111086845398, 
-0.15841519832611084, 0.09905820339918137, 0.1603790819644928, -0.051650285720825195, -0.1463022232055664, -0.14813463389873505, 0.2005273997783661, 
0.23824533820152283, -0.09525816142559052, -0.0215501319617033, 0.034268274903297424, -0.08896639198064804, -0.23361563682556152, 0.20825709402561188, 
0.17159739136695862, -0.16908302903175354, -0.05460764467716217, -0.019766565412282944, -0.12243145704269409, -0.14972880482673645, -0.14067202806472778, 
0.23539620637893677, -0.0653751939535141, -0.055700186640024185, -0.07824378460645676, -0.09555655717849731, -0.1335982233285904, -0.06623180955648422, 
0.18756024539470673, -0.056766659021377563, -0.23511268198490143, 0.06483811140060425, -0.004996411968022585, 0.2172643542289734};

#endif

#endif
