// Numpy array shape [5, 16]
// Min -0.42642486
// Max 0.5011486
// Number of zeros 0

#ifndef OUT_LAYER_1_WEIGHT_H_
#define OUT_LAYER_1_WEIGHT_H_

#ifndef __SYNTHESIS__
model_default_t out_layer_1_weight[80];
#else
model_default_t out_layer_1_weight[80] = {-0.42642486095428467, 0.044308651238679886, 0.4287630617618561, -0.11834928393363953, -0.15925128757953644, -0.1810493767261505, 
-0.1928054839372635, 0.040218234062194824, 0.446478933095932, -0.26306572556495667, 0.09949321299791336, -0.28221189975738525, -0.054724592715501785, 
-0.035617098212242126, 0.18985812366008759, 0.1983160674571991, 0.37715381383895874, -0.11527451127767563, -0.11877996474504471, 0.1471089869737625, 
-0.1651318073272705, 0.11518663913011551, 0.1936328262090683, 0.03387259319424629, -0.1821364313364029, -0.017126375809311867, -0.1761346161365509, 
0.040204983204603195, -0.33981630206108093, -0.10499279201030731, -0.11317695677280426, 0.22790773212909698, -0.4184821844100952, -0.02023066207766533, 
0.144551619887352, -0.18123573064804077, 0.09748781472444534, -0.021714188158512115, 0.123289555311203, 0.2650066912174225, -0.06145162507891655, 
0.07960816472768784, -0.38914522528648376, -0.14325125515460968, 0.2873726487159729, 0.20545907318592072, 0.2472354769706726, -0.26952388882637024, 
0.18808014690876007, -0.2566380202770233, -0.267010897397995, -0.02766609378159046, 0.0352155975997448, 0.4448128938674927, -0.3022984564304352, 
-0.11074750125408173, -0.2751438319683075, 0.05672132968902588, 0.24729619920253754, 0.3224370777606964, -0.15562687814235687, 0.025297798216342926, 
0.11879341304302216, 0.5011485815048218, 0.41854873299598694, -0.2367483526468277, -0.029752500355243683, -0.05101781710982323, -0.3164561092853546, 
0.15676285326480865, 0.22391444444656372, -0.06580887734889984, 0.32288962602615356, -0.22901341319084167, -0.26363641023635864, 0.31266847252845764, 
0.19221773743629456, 0.1639404296875, -0.09429511427879333, -0.38769394159317017};

#endif

#endif
