-0.060346778482198715, 0.05349917709827423, -0.015172932296991348, -0.09990015625953674, 0.10996194183826447, 0.05867258459329605, -0.07616648077964783, 0.14256590604782104, 0.0018642175709828734, 0.025871509686112404, -0.04903975874185562, 0.03339578956365585, 0.048565324395895004, -0.02348949946463108, 0.038062673062086105, -0.029558686539530754, 0.08017616719007492, -0.13321219384670258, -0.02286098152399063, 0.10270888358354568, 0.040154699236154556, -0.09629363566637039, 0.07458296418190002, 0.10695178061723709, -0.11649077385663986, 0.015080655924975872, -0.05473538488149643, 0.10738449543714523, 0.07070355117321014, 0.0336301252245903, 0.12001869082450867, 0.11495278030633926, -0.09715332090854645, -0.17910265922546387, -0.0598265565931797, -0.013980796560645103, -0.10979248583316803, 0.06910838931798935, -0.050540417432785034, 0.09050652384757996, 0.10277344286441803, 0.02405431494116783, 0.014170065522193909, -0.022929219529032707, 0.11758965998888016, -0.04788368195295334, 0.07279358804225922, 4.48603714175988e-05, -0.1494894027709961, 0.12073031812906265, -0.003937402740120888, -0.07561925053596497, 0.04126184433698654, 0.08493442088365555, 0.11163009703159332, -0.03901924565434456, -0.024165719747543335, -0.029518766328692436, 0.041559092700481415, -0.005033496767282486, -0.027543654665350914, 0.07707879692316055, -0.13528960943222046, -0.15677334368228912, -0.035110216587781906, 0.1115381196141243, -0.018969455733895302, -0.04876633733510971, 0.018543008714914322, 0.007809230592101812, -0.1076105535030365, 0.06219594553112984, 0.08735819160938263, -0.10093877464532852, 0.10641136765480042, 0.04447652027010918, 0.00027690103161148727, -0.03984394669532776, 0.15667173266410828, 0.04853891208767891, 0.06707637012004852, 0.04917007312178612, -0.024639593437314034, -0.09427720308303833, -0.11431960761547089, -0.038977570831775665, 0.047182027250528336, -0.11977069079875946, 0.1405552476644516, 0.009786905720829964, 0.08468586951494217, -0.007945521734654903, -0.11575528234243393, -0.03041251190006733, -0.013889512047171593, 0.07504691183567047, 0.020037584006786346, -0.03296617791056633, -0.12183859944343567, -0.01869627833366394, -0.06956443935632706, -0.07134787738323212, 0.08017395436763763, -0.06978576630353928, -0.06217808648943901, 0.07120585441589355, 0.09572657942771912, 0.10015317797660828, 0.04099157825112343, -0.0856657400727272, -0.07869302481412888, -0.08852799981832504, 0.007651611231267452, 0.14309197664260864, -0.054726824164390564, -0.046217553317546844, 0.023200713098049164, 0.09008574485778809, 0.06755578517913818, -0.11309424042701721, 0.14956799149513245, 0.20601429045200348, -0.14623045921325684, -0.06372654438018799, 0.04398937523365021, 0.08136844635009766, 0.05851444602012634, -0.16101056337356567, 0.05432451516389847, 0.004846252501010895, 0.01658221334218979, -0.021718954667448997, -0.09048251062631607, 0.08050848543643951, 0.026890520006418228, -0.1364511400461197, 0.03262397646903992, 0.13800255954265594, 0.11719052493572235, 0.012257310561835766, 0.024571217596530914, -0.07518857717514038, -0.11978268623352051, -0.12073352932929993, 0.10984831303358078, 0.10626250505447388, 0.08413819968700409, -0.08188469707965851, -0.08414329588413239, 0.03359542787075043, 0.05034063383936882, -0.008137799799442291, -0.04703834652900696, -0.041811130940914154, -0.010196461342275143, 0.10813640803098679, -0.0509888231754303, -0.013526768423616886, -0.09077677130699158, 0.06718271225690842, -0.004252875689417124, -0.0829528197646141, -0.04066421836614609, -0.09112846851348877, 0.14032679796218872, 0.11151951551437378, 0.029800180345773697, -0.11498615890741348, -0.11794742941856384, 0.00960229430347681, -0.05177350342273712, -0.07654222846031189, -0.022883456200361252, 0.07623115926980972, 0.1264476478099823, 0.010079513303935528, 0.06574658304452896, 0.13187584280967712, 0.03499363362789154, -0.15923987329006195, -0.02057613432407379, 0.08855346590280533, -0.1163591668009758, 0.003137903520837426, 0.030506672337651253, -0.10138173401355743, -0.10468535125255585, 0.06411494314670563, -0.1280992329120636, 0.1418481022119522, 0.1307147890329361, -0.026531044393777847, -0.006389101035892963, -0.03490889444947243, 0.12755005061626434, -0.06677351146936417, 0.07592979073524475, -0.031555041670799255, 0.06702753156423569, 0.10554791241884232, -0.13603855669498444, -0.033987026661634445, 0.15657854080200195, 0.15770572423934937, 0.002780031180009246, -0.023288249969482422, -0.01960107870399952, -0.030938325449824333, 0.14173507690429688, -0.06514739990234375, -0.03770153596997261, -0.01793009042739868, 0.16053256392478943, 0.13236960768699646, -0.10984862595796585, 0.10040508210659027, 0.06536644697189331, 0.08919893950223923, -0.09751541912555695, 0.011382360942661762, 0.08643519133329391, -0.08685995638370514, 0.006807961501181126, -0.026948899030685425, 0.06729399412870407, -0.11855233460664749, -0.007821397855877876, -0.026282912120223045, -0.09966880083084106, 0.02182874083518982, 0.0899553969502449, -0.036448463797569275, -0.02091229148209095, 0.045259032398462296, 0.04375999793410301, -0.11521459370851517, -0.07025229185819626, 0.06317393481731415, 0.01628097891807556, 0.1533685028553009, 0.019330991432070732, 0.04537922516465187, 0.036260757595300674, -0.014597104862332344, 0.16385705769062042, -0.07486607879400253, 0.07228169590234756, 0.013880690559744835, 0.046706926077604294, -0.09209264069795609, 0.11190636456012726, -0.03208836540579796, -0.10682787001132965, 0.023824622854590416, -0.058055538684129715, -0.09340688586235046, 0.08673453330993652, 0.07069312036037445, 0.109921894967556, 0.060123033821582794, -0.04527652636170387, 0.04238561540842056, -0.10396923124790192, -0.10093577206134796, 0.05862104520201683, 0.11649810522794724, 0.11216773837804794, -0.11429042369127274, -0.12976141273975372, 0.14408959448337555, 0.06132122129201889, -0.05348529294133186, -0.039161358028650284, 0.029740942642092705, 0.10723694413900375, 0.01646084524691105, 0.031039640307426453, -0.07161378860473633, -0.13607731461524963, -0.14828383922576904, 0.12733449041843414, 0.14618289470672607, -0.18139539659023285, 0.044260043650865555, 0.12416764348745346, -0.0662677064538002, -0.1081843227148056, 0.03717459365725517, 0.017373204231262207, -0.0108259879052639, -0.09028061479330063, -0.1127910166978836, 0.15630751848220825, 0.10013949126005173, -0.06168040633201599, -0.03478189557790756, -0.01956756040453911, 0.014969275332987309, -0.12104537338018417, 0.04014886915683746, 0.08902834355831146, -0.11200336366891861, 0.03965975344181061, -0.0703321173787117, -0.13397909700870514, -0.08205021917819977, -0.0686408132314682, 0.10001888126134872, -0.0473494678735733, -0.03653375804424286, -0.05327759310603142, -0.1021590307354927, -0.08236709237098694, 0.010418727062642574, 0.08366824686527252, -0.04441278055310249, -0.14446580410003662, 0.007053508888930082, 0.00823612604290247, 0.09267720580101013