1.0555181503295898, 2.687208414077759, 1.0864527225494385, -1.246622920036316, 3.7061922550201416, -0.5967358946800232, -1.269133448600769, 0.8059303760528564, -2.8049511909484863, 1.8064115047454834, -1.9586102962493896, -1.1308403015136719, -1.8677400350570679, -5.246941089630127, -0.9572124481201172, -2.0241503715515137, 0.199360191822052, -3.847088575363159, -3.5540266036987305, 1.4150681495666504, -0.881339430809021, 1.8319456577301025, 4.3151068687438965, -2.0971384048461914, -3.736260175704956, -1.7730528116226196, -1.7292439937591553, -0.9857661724090576, 0.2802358865737915, -0.3527817130088806, -1.6414086818695068, -2.576892137527466, -0.34433668851852417, 2.009140968322754, -4.0800909996032715, 0.023664196953177452, 1.7275959253311157, 0.09319192171096802, -0.26143139600753784, 2.577131748199463, 0.9590284824371338, -1.4221158027648926, 4.285289764404297, -1.6295487880706787, 0.8034260869026184, 2.72078013420105, -1.7181960344314575, 1.2043310403823853, -3.743489980697632, -1.7966620922088623, 2.5876364707946777, -0.46391546726226807, 1.1087292432785034, 0.09978161752223969, 0.4774796664714813, 1.2963900566101074, -1.073720097541809, 0.9475203156471252, 0.30236223340034485, -2.3285000324249268, 1.7597565650939941, 3.005801200866699, -1.795789122581482, -1.3082828521728516