-5.873826503753662, 0.2749939560890198, -1.9667854309082031, -1.6184207201004028, 0.6472404599189758, -0.5964776873588562, 1.0343836545944214, -1.3752104043960571, -2.1846516132354736, -0.8955181241035461, -3.7168917655944824, -0.06126793846487999, 0.7377057075500488, 0.5515732765197754, -2.4852349758148193, -1.21820068359375, 2.30241322517395, -0.9346771240234375, 2.7758474349975586, 1.2230479717254639, -1.348482370376587, 1.2856324911117554, -0.7037774324417114, 0.2085825651884079, 0.7526006698608398, 2.3126184940338135, 0.8863028883934021, -1.5926796197891235, 0.017209038138389587, -0.2430979162454605, 0.028093023225665092, -0.02378956228494644, -0.8698674440383911, 2.3955183029174805, -1.0173380374908447, 1.479753851890564, -3.2317450046539307, -3.761963129043579, 0.9686850309371948, -2.684541702270508, -2.4716684818267822, 1.823089838027954, 1.5469694137573242, -2.3350913524627686, 2.309626817703247, -0.49941736459732056, 3.2712154388427734, -1.7883598804473877, -4.2991251945495605, -0.12794539332389832, 2.456714153289795, 0.28999483585357666, -0.5951250791549683, 0.9768396615982056, 1.4175024032592773, 2.5581018924713135, 1.610992670059204, -2.62688946723938, 0.15311475098133087, -7.518719673156738, 2.31244158744812, -1.3307175636291504, -2.6360039710998535, -1.424700379371643