// Numpy array shape [64]
// Min -0.120127924
// Max 0.1825687
// Number of zeros 0

#ifndef OUT_LAYER_0_BIAS_H_
#define OUT_LAYER_0_BIAS_H_

#ifndef __SYNTHESIS__
top_norm_bias_t out_layer_0_bias[64];
#else
top_norm_bias_t out_layer_0_bias[64] = {0.17030923068523407, 0.005994953215122223, 0.15525418519973755, 0.5460869669914246, 1.5264098644256592, -0.9418637752532959, 
-0.026863738894462585, -1.4995982646942139, 1.4944626092910767, 1.1608766317367554, -1.2310290336608887, -0.15818263590335846, -0.37722113728523254, 
-0.9900845885276794, 0.6735571622848511, -1.010341763496399, 0.3997889757156372, -1.1404228210449219, 0.5625011324882507, 0.19102376699447632, 
-0.14167240262031555, -0.003644176758825779, 0.37187454104423523, 1.9861185550689697, -2.1832613945007324, 1.0428478717803955, -0.7069092392921448, 
1.4082568883895874, 0.8675861358642578, -0.33000069856643677, 0.3673569858074188, 0.3872339129447937, -1.7976405620574951, 0.4067978262901306, 
-0.393901526927948, -0.29645466804504395, 0.8342354893684387, -2.050334930419922, 0.1663018763065338, -0.5101497769355774, 0.42214342951774597, 
-0.8623195886611938, 1.3567248582839966, -0.038898762315511703, -0.46358662843704224, 1.0426722764968872, -1.6246426105499268, -0.317767858505249, 
-0.17577317357063293, -0.04809122532606125, 1.1379163265228271, 2.731959104537964, 0.29393893480300903, -1.1811527013778687, -0.9640737771987915, 
1.1140708923339844, 0.9435429573059082, -0.3794389069080353, 0.9553906917572021, 0.5519191026687622, -1.142119288444519, -0.349810391664505, 
-0.07904501259326935, 0.5403608083724976};

#endif

#endif
