// Numpy array shape [64]
// Min -0.16419534
// Max 0.13893867
// Number of zeros 0

#ifndef OUT_LAYER_0_BIAS_H_
#define OUT_LAYER_0_BIAS_H_

#ifndef __SYNTHESIS__
top_norm_bias_t out_layer_0_bias[64];
#else
top_norm_bias_t out_layer_0_bias[64] = {1.757390022277832, -1.3570196628570557, 0.9054763317108154, 3.075166940689087, 0.025424238294363022, -0.1773056834936142, 
0.36929911375045776, 3.553220748901367, -0.22270242869853973, -0.4023340940475464, 1.3778200149536133, 1.3189520835876465, -0.4126092791557312, 
2.3884146213531494, 0.49752527475357056, -3.3125436305999756, 0.07257749885320663, 0.8398528695106506, 0.23694756627082825, -1.1896469593048096, 
-0.06264271587133408, -0.4724414348602295, 0.16385461390018463, 0.2617292106151581, 0.4218195676803589, -0.018461592495441437, -0.8125361204147339, 
1.6032534837722778, -0.8466600775718689, 0.39056283235549927, -1.3375476598739624, 1.2968180179595947, -1.0634220838546753, 0.07468149811029434, 
0.4303608536720276, -0.3378884196281433, -0.7019628882408142, 0.17044006288051605, -0.8585953116416931, 1.651871681213379, 0.9727786183357239, 
-2.7207906246185303, 1.4225332736968994, -0.028396811336278915, -0.9433262944221497, 3.9443390369415283, 0.1705290973186493, 1.3128488063812256, 
-2.383373498916626, 0.3298013210296631, -0.6395134925842285, -0.7898854613304138, 1.21548593044281, 1.3651599884033203, -2.551530122756958, 
-1.073194980621338, 2.8142898082733154, 0.13945525884628296, -0.6247738599777222, -0.6796748638153076, -2.613569498062134, -0.9088531732559204, 
1.8437886238098145, 0.13040578365325928};

#endif

#endif
