// Numpy array shape [5, 64]
// Min -0.5211337
// Max 0.33985087
// Number of zeros 0

#ifndef OUT_LAYER_1_WEIGHT_H_
#define OUT_LAYER_1_WEIGHT_H_

#ifndef __SYNTHESIS__
top_mlp_weight_t out_layer_1_weight[320];
#else
top_mlp_weight_t out_layer_1_weight[320] = {-0.08655646443367004, 0.07443257421255112, -0.01745409332215786, -0.22178983688354492, 0.20027494430541992, 0.03367815166711807, 
-0.09067131578922272, 0.16143923997879028, 0.011333233676850796, 0.06239984929561615, -0.14314168691635132, -0.024913445115089417, 0.17674420773983002, 
-0.01717831753194332, 0.08954304456710815, -0.0901152566075325, 0.10130125284194946, -0.08937391638755798, -0.07135757058858871, 0.1537078619003296, 
-0.0021802911069244146, -0.1081724613904953, 0.0136958546936512, 0.302481472492218, -0.1588403880596161, -0.030551666393876076, -0.13551345467567444, 
0.2003912627696991, 0.21622073650360107, 0.00561833381652832, 0.13697147369384766, 0.14536415040493011, -0.11858018487691879, -0.2956337034702301, 
0.1023067906498909, -0.015397557057440281, -0.079165518283844, 0.0503409169614315, -0.22116607427597046, 0.19536587595939636, 0.25270479917526245, 
-0.10499956458806992, -0.037779562175273895, -0.08816845715045929, 0.24484731256961823, -0.05872103571891785, 0.10231796652078629, -0.1399141550064087, 
-0.06581784039735794, 0.17009027302265167, 0.020931625738739967, -0.15683887898921967, 0.06380102038383484, 0.13898371160030365, 0.11077865213155746, 
0.17470066249370575, 0.1666262149810791, -0.3583447337150574, -0.057066310197114944, 0.18236292898654938, 0.03548627719283104, 0.13908651471138, 
-0.19886638224124908, -0.25149720907211304, -0.058450911194086075, 0.18428027629852295, -0.11549777537584305, -0.1058311015367508, 0.02931739017367363, 
0.07340634614229202, 0.10560061037540436, 0.17831231653690338, -0.04142822325229645, -0.36008211970329285, 0.2732125520706177, 0.1761430948972702, 
0.07421692460775375, -0.34806039929389954, 0.25048643350601196, 0.2147223800420761, 0.12166503816843033, 0.04372905194759369, 0.00463719479739666, 
-0.10523203015327454, -0.24785003066062927, 0.2036798745393753, 0.29391515254974365, -0.5211337208747864, 0.03651038184762001, 0.22067666053771973, 
0.13921666145324707, 0.04754738137125969, -0.22787438333034515, -0.03077898733317852, 0.0017458812799304724, 0.08266250789165497, 0.09506213665008545, 
0.09185884147882462, -0.39954912662506104, 0.06898117065429688, -0.01214398629963398, -0.0842786431312561, 0.19803185760974884, -0.2655221223831177, 
0.03290843963623047, 0.07524710893630981, 0.11916245520114899, 0.06287576258182526, 0.11606413125991821, -0.14322525262832642, -0.14443957805633545, 
-0.049655720591545105, 0.060536939650774, 0.1735248565673828, -0.11359242349863052, -0.041836414486169815, 0.12545780837535858, 0.18882207572460175, 
-0.023806549608707428, -0.2206101417541504, 0.21004407107830048, 0.24453310668468475, -0.36034733057022095, 0.10201331973075867, -0.021268902346491814, 
0.08785596489906311, 0.09808255732059479, -0.2819472551345825, 0.168127179145813, -0.06267541646957397, -0.17479734122753143, -0.21414288878440857, 
0.15897084772586823, 0.3242689073085785, -0.2005012333393097, -0.2422146499156952, 0.08000439405441284, 0.20715133845806122, 0.18059402704238892, 
-0.05640532821416855, 0.05211467668414116, -0.04219849035143852, -0.2132902890443802, -0.15764984488487244, 0.1928383708000183, 0.2010692059993744, 
0.11584635078907013, -0.08794158697128296, -0.2551233768463135, 0.01069143321365118, 0.20665231347084045, -0.09073839336633682, -0.1621054708957672, 
-0.06353848427534103, 0.04952375590801239, 0.06798466295003891, 0.031147845089435577, -0.025235451757907867, -0.1820768564939499, 0.1494860053062439, 
-0.01442535500973463, -0.059820033609867096, -0.06114533171057701, -0.1780521720647812, 0.20883552730083466, 0.16145846247673035, 0.09031368792057037, 
-0.19753627479076385, -0.2061118334531784, 0.1209607720375061, -0.05249286815524101, -0.06741303950548172, -0.03008565679192543, 0.12402430176734924, 
0.05832718685269356, -0.01307165902107954, 0.11386223137378693, 0.15432728826999664, 0.002961884019896388, -0.16716110706329346, -0.08678437769412994, 
0.06384395807981491, -0.14236757159233093, -0.023628005757927895, 0.20860545337200165, -0.22748571634292603, -0.09230303764343262, 0.22383515536785126, 
-0.15748761594295502, 0.1276272088289261, 0.16434651613235474, -0.039125535637140274, -0.054197218269109726, -0.09956490248441696, 0.21599836647510529, 
-0.14112280309200287, 0.1190270185470581, -0.051481761038303375, 0.15410906076431274, 0.08140026032924652, -0.2184051126241684, 0.010895702987909317, 
0.19229735434055328, 0.21958082914352417, -0.03378329798579216, 0.13649123907089233, 0.08201427012681961, -0.33427509665489197, 0.33985087275505066, 
-0.18182814121246338, -0.08111756294965744, 0.03206583112478256, 0.21444754302501678, 0.16498689353466034, -0.1879604607820511, 0.10637591034173965, 
0.11664853990077972, 0.08434649556875229, -0.2219669371843338, 0.06199058145284653, -0.09844391793012619, -0.1366938352584839, 0.17220750451087952, 
0.011037714779376984, 0.2122005671262741, -0.12714628875255585, 0.04777715355157852, -0.1767570823431015, -0.026285164058208466, 0.05019362270832062, 
0.08454621583223343, -0.1459495574235916, -0.01948886178433895, 0.1898929476737976, 0.032783567905426025, -0.18141840398311615, -0.10730321705341339, 
0.08462987095117569, 0.06672819703817368, 0.2519514262676239, 0.00021294649923220277, 0.013908647932112217, 0.01788022369146347, -0.03128644451498985, 
0.22743269801139832, -0.1494549661874771, 0.11465151607990265, 0.05491548776626587, 0.10699243098497391, -0.17962117493152618, 0.24291732907295227, 
0.025598743930459023, -0.2246529757976532, -0.00595201225951314, -0.1575312465429306, -0.10754851996898651, 0.08756440132856369, 0.06754197180271149, 
0.1438749134540558, 0.07748556137084961, -0.14003263413906097, 0.025807281956076622, -0.06424985080957413, -0.10029669106006622, 0.134243443608284, 
0.16918323934078217, 0.0592387393116951, -0.17807279527187347, -0.17892977595329285, 0.21767264604568481, -0.04507237300276756, -0.1808905452489853, 
0.11108431220054626, 0.12438677996397018, 0.19807219505310059, 0.07292027026414871, 0.06201106309890747, -0.11938720941543579, -0.22958242893218994, 
-0.13472393155097961, 0.14798948168754578, 0.1767987757921219, -0.3625425398349762, 0.21262463927268982, 0.08560077846050262, -0.10971800982952118, 
-0.1487245261669159, 0.10782182216644287, 0.07717488706111908, -0.0704016238451004, -0.1632760763168335, -0.17046691477298737, 0.21063444018363953, 
0.25500813126564026, -0.06804533302783966, -0.09607324004173279, -0.03836585581302643, 0.1749822050333023, -0.21499691903591156, -0.013020649552345276, 
0.1631791889667511, -0.2073463648557663, 0.057400938123464584, -0.08541155606508255, -0.1247715875506401, -0.02303439937531948, -0.1094764769077301, 
0.24795015156269073, -0.26938095688819885, 0.03082745335996151, 0.021113289520144463, -0.005252533126622438, -0.2844350337982178, -0.10740409791469574, 
0.26113361120224, -0.043834660202264786, -0.2422018051147461, 0.08947411179542542, 0.0632830262184143, 0.06474495679140091};

#endif

#endif
