// Numpy array shape [64]
// Min -0.1506659
// Max 0.16212669
// Number of zeros 0

#ifndef TRANSFORMERS_1_SELF_ATTENTION_OUT_BIAS_H_
#define TRANSFORMERS_1_SELF_ATTENTION_OUT_BIAS_H_

#ifndef __SYNTHESIS__
SA_dense_bias_t transformers_1_self_attention_out_bias[64];
#else
SA_dense_bias_t transformers_1_self_attention_out_bias[64] = {0.09846516698598862, -0.1044202521443367, 0.04275134950876236, -0.09817470610141754, 0.10203584283590317, -0.10547931492328644, 
-0.15066589415073395, -0.1313261240720749, -0.02760985866189003, -0.06014954671263695, 0.022224975749850273, 0.11829809099435806, 0.05378277227282524, 
0.13334885239601135, -0.03716086596250534, -0.013816348277032375, 0.0869903564453125, 0.06494902074337006, -0.06537112593650818, 0.09077344834804535, 
-0.05137874558568001, 0.03401009738445282, -0.0683276504278183, 0.085734061896801, 0.04432785138487816, -0.00030332719325087965, 0.04115934669971466, 
-0.02164478972554207, -0.09834492951631546, -0.08822792023420334, -0.028184693306684494, 0.007617417722940445, -0.02958366461098194, -0.07332191616296768, 
0.15114425122737885, 0.09272950142621994, 0.08972637355327606, 0.051487650722265244, 0.010071116499602795, 0.10597015172243118, -0.08169470727443695, 
0.04919252172112465, -0.055763740092515945, 0.1286371350288391, -0.1190793588757515, 0.04449378326535225, 0.04196484386920929, -0.07319352775812149, 
-0.09184315800666809, 0.006455235183238983, -0.06528536975383759, 0.054876890033483505, -0.017109159380197525, 0.08005939424037933, 0.16212669014930725, 
-0.0022297955583781004, -0.06388483196496964, 0.10771838575601578, 0.032432641834020615, 0.03140973299741745, 0.008866753429174423, 0.012802505865693092, 
0.018159866333007812, -0.06515000760555267};

#endif

#endif
