// Numpy array shape [64, 64]
// Min -0.8925798
// Max 0.9186557
// Number of zeros 0

#ifndef TRANSFORMERS_0_SELF_ATTENTION_Q_WEIGHT_H_
#define TRANSFORMERS_0_SELF_ATTENTION_Q_WEIGHT_H_

#ifndef __SYNTHESIS__
SA_Q_weight_t transformers_0_self_attention_q_weight[4096];
#else
SA_Q_weight_t transformers_0_self_attention_q_weight[4096] = {-0.24459555745124817, -0.1386428326368332, -0.08738986402750015, 0.07515795528888702, 0.10771986097097397, -0.0045542470179498196, 
0.12676158547401428, -0.009462972171604633, -0.15244512259960175, -0.04880816489458084, 0.1949298232793808, 0.011545903980731964, -0.01023066695779562, 
-0.072186678647995, -0.1978510320186615, 0.20529934763908386, 0.14212113618850708, 0.0428764708340168, -0.036290284246206284, -0.15195539593696594, 
-0.015291919000446796, -0.16235412657260895, 0.21007566154003143, 0.08800410479307175, -0.13468478620052338, -0.05910089612007141, 0.08341224491596222, 
0.04183024540543556, -0.08949548751115799, -0.17657719552516937, -0.08559023588895798, 0.11202263832092285, -0.019799433648586273, 0.020239900797605515, 
0.06585705280303955, 0.04805938899517059, -0.02697533555328846, 0.0331776887178421, -0.029652170836925507, 0.044497646391391754, 0.06120433658361435, 
-0.02176584303379059, 0.17586994171142578, -0.01256976742297411, -0.11306442320346832, 0.09176445007324219, 0.06578178703784943, -0.046793341636657715, 
-0.07809939980506897, -0.05168869346380234, -0.2019135057926178, -0.09831198304891586, -0.010028083808720112, 0.10874685645103455, 0.03280716761946678, 
-0.04255225136876106, 0.06970274448394775, -0.048839129507541656, -0.009708407334983349, 2.4557557480875403e-05, -0.12374807894229889, -0.09929917752742767, 
0.10045469552278519, -0.0038841641508042812, -0.19760067760944366, 0.1949652135372162, 0.43286845088005066, -0.2052992731332779, -0.3513621985912323, 
-0.4530213475227356, -0.23491539061069489, -0.10115457326173782, 0.2213084101676941, 0.460744708776474, 0.18456682562828064, 0.21381260454654694, 
0.05339234694838524, -0.29540032148361206, -0.24326451122760773, -0.34681496024131775, -0.08787084370851517, 0.18867933750152588, -0.13927073776721954, 
-0.45526719093322754, 0.3222998380661011, -0.20519676804542542, 0.06536068767309189, -0.33206984400749207, -0.05055280774831772, 0.06343270093202591, 
0.43452244997024536, -0.045726221054792404, 0.20034638047218323, 0.1552601158618927, -0.2786903977394104, -0.03404519334435463, -0.047752734273672104, 
-0.10140982270240784, 0.07792998850345612, 0.18712183833122253, -0.012974487617611885, -0.39032992720603943, 0.037898313254117966, -0.05381740257143974, 
0.05482875928282738, -0.07385719567537308, 0.42306602001190186, -0.005374674219638109, 0.17908978462219238, -0.09411542117595673, 0.11745643615722656, 
-0.5870979428291321, -0.028419747948646545, -0.00580538809299469, -0.03367114067077637, 0.025980105623602867, 0.21947790682315826, -0.03549398109316826, 
0.05154614895582199, -0.16477473080158234, -0.21971763670444489, -0.0006197394104674459, 0.02791120484471321, 0.31830644607543945, 0.05899050459265709, 
-0.14403636753559113, 0.09012611210346222, -0.23420463502407074, 0.1751435101032257, -0.1919090747833252, -0.35201072692871094, 0.10345684736967087, 
0.25239306688308716, 0.25132179260253906, 0.04714088886976242, 0.2100130319595337, -0.1982392519712448, -0.39106079936027527, -0.25905486941337585, 
-0.12451425194740295, 0.04953816160559654, 0.12964734435081482, 0.1640101820230484, 0.3483586013317108, -0.07848019152879715, -0.3339390158653259, 
0.2325461059808731, 0.29132217168807983, -0.35885247588157654, 0.2977789640426636, -0.09955590963363647, 0.2457626312971115, 0.1397506594657898, 
-0.17387522757053375, -0.24403350055217743, -0.10913519561290741, -0.32638663053512573, -0.2586342990398407, 0.250154048204422, 0.17286941409111023, 
-0.02153869904577732, 0.07316753268241882, -0.16216744482517242, -0.15706627070903778, -0.11250041425228119, 0.25864773988723755, 0.16244609653949738, 
0.10559650510549545, -0.014624319039285183, 0.07625270634889603, -0.19393979012966156, 0.0026910719461739063, -0.1313544064760208, -0.06442806124687195, 
0.13048875331878662, 0.25003334879875183, -0.07229503989219666, 0.01022667158395052, 0.16232924163341522, -0.00812846515327692, 0.04692946746945381, 
-0.12883862853050232, -0.06276156008243561, -0.0018704289104789495, 0.10197807103395462, 0.021564599126577377, 0.036766622215509415, -0.4054446220397949, 
0.06118406355381012, -0.10740295052528381, -0.0807618796825409, 0.14605644345283508, 0.007064784411340952, -0.0518861785531044, -0.33849066495895386, 
0.05536125600337982, 0.2945847511291504, 0.013538694009184837, 0.12127853184938431, 0.059213779866695404, -0.08962585777044296, -0.16688261926174164, 
0.48152151703834534, 0.021085258573293686, -0.03683570399880409, -0.13336791098117828, -0.2188335806131363, 0.2828670144081116, 0.03966693952679634, 
-0.20320077240467072, -0.062440160661935806, -0.21816283464431763, 0.0503392331302166, -0.4615447223186493, -0.11188673228025436, -0.01868191361427307, 
-0.4488069415092468, -0.20765624940395355, 0.24724158644676208, -0.10709802061319351, -0.06542882323265076, -0.26417219638824463, -0.2619306743144989, 
0.13317236304283142, 0.11327221989631653, 0.10353823751211166, 0.037343814969062805, 0.17201773822307587, -0.004024889320135117, -0.0683448538184166, 
0.10446755588054657, 0.022947950288653374, 0.09300316870212555, 0.012621728703379631, 0.12391401082277298, -0.03184577450156212, -0.0014411102747544646, 
0.045447833836078644, -0.13014566898345947, -0.16271816194057465, -0.14220860600471497, 0.029185405001044273, -0.06075660139322281, 0.0756443589925766, 
-0.05680907145142555, 0.0361437164247036, 0.04500849172472954, 0.050920359790325165, 0.09857556968927383, -0.07949340343475342, 0.1365700364112854, 
-0.08595071732997894, -0.01794622279703617, -0.16201245784759521, 0.08301117271184921, -0.07976850122213364, 0.2518468499183655, -0.16128499805927277, 
0.11280086636543274, -0.16696761548519135, 0.1220729649066925, -0.08123602718114853, 0.6355376243591309, 0.6827740669250488, -0.01827116683125496, 
-0.4184933006763458, 0.48536935448646545, 0.9186556935310364, -0.0091777378693223, -0.19293351471424103, -0.7276343107223511, 0.02200441248714924, 
-0.09772409498691559, -0.46080631017684937, -0.670845091342926, -0.49369120597839355, 0.6828355193138123, -0.6670063138008118, -0.41148218512535095, 
-0.340241402387619, -0.48663508892059326, 0.2543414831161499, 0.04367430508136749, -0.25406476855278015, 0.7541800737380981, -0.6459513306617737, 
-0.8766679763793945, 0.8049468398094177, -0.03348596766591072, -0.05220581218600273, -0.18770194053649902, -0.2265220731496811, -0.03290994465351105, 
0.2793799936771393, -0.14595745503902435, -0.045227762311697006, -0.14426369965076447, 0.05727620795369148, -0.26844409108161926, -0.1341487467288971, 
-0.03592248633503914, 0.03598059341311455, 0.14636646211147308, 0.3318922221660614, 0.10650695860385895, 0.07288913428783417, 0.5377717018127441, 
0.046027738600969315, -0.08476175367832184, 0.12944753468036652, 0.031341541558504105, 0.2043568640947342, 0.028409015387296677, 0.013188286684453487, 
-0.014596501365303993, -0.2785719633102417, -0.14469894766807556, 0.49475839734077454, -0.565203845500946, 0.3679274320602417, -0.04683832451701164, 
-0.12191428244113922, -0.0028345833998173475, 0.08540072292089462, 0.05495421588420868, -0.018101688474416733, -0.0019070906564593315, 0.18936413526535034, 
-0.09295579791069031, 0.020369725301861763, 0.14203067123889923, -0.09242244064807892, 0.0359644889831543, -0.04186972975730896, 0.03590736538171768, 
0.022883333265781403, -0.0030192278791218996, 0.06827745586633682, 0.0825275182723999, -0.14677585661411285, -0.008058363571763039, -0.2585429251194, 
0.01883186586201191, 0.23532159626483917, -0.23021627962589264, -0.19800756871700287, -0.0708165168762207, -0.17357848584651947, 0.05072741582989693, 
-0.28914788365364075, -0.13307085633277893, 0.15031497180461884, 0.019434623420238495, -0.1667087823152542, -0.011031636036932468, -0.1121763288974762, 
-0.02312709204852581, 0.03641838952898979, -0.009408058598637581, -0.0031310291960835457, -0.05489104241132736, 0.0194863248616457, -0.009605233557522297, 
-0.030488716438412666, 0.018716877326369286, 0.024824513122439384, 0.02536912076175213, 0.2518230676651001, 0.04707741364836693, 0.004943758714944124, 
-0.2000453621149063, 0.015944214537739754, -0.25374698638916016, 0.06523151695728302, -0.014129132963716984, 0.05324262008070946, 0.186674103140831, 
0.012421738356351852, -0.017287546768784523, -0.006140363868325949, -0.050211817026138306, -0.14316190779209137, 0.05187757685780525, 0.02449946105480194, 
0.19202999770641327, -0.26357007026672363, -0.03043195605278015, 0.2470104694366455, 0.18240384757518768, 0.2069483995437622, 0.08185026794672012, 
0.030661752447485924, -0.02112456224858761, -0.18976718187332153, -0.19937165081501007, -0.07485545426607132, 0.04544457048177719, 0.11678516119718552, 
0.23166126012802124, 0.24019929766654968, 0.10333762317895889, -0.2606840431690216, -0.02225118689239025, 0.2481701672077179, -0.3281517028808594, 
0.1965608149766922, -0.12545838952064514, 0.34018486738204956, 0.23696653544902802, -0.13619951903820038, -0.2896035313606262, -0.09803416579961777, 
-0.10292273759841919, -0.15636137127876282, 0.2641529142856598, 0.15941855311393738, 0.022334907203912735, 0.08547424525022507, -0.08711250126361847, 
-0.14727896451950073, -0.07444440573453903, 0.21549859642982483, -0.06550508737564087, -0.00890129990875721, -0.10734632611274719, 0.00549600413069129, 
-0.19195494055747986, -0.0849611833691597, 0.01636206917464733, 0.012223238125443459, -0.0053693014197051525, 0.2599891722202301, -0.012786725535988808, 
0.02526329644024372, 0.2303871363401413, -0.12778742611408234, -0.026636961847543716, 0.11105265468358994, 0.04394851252436638, 0.0055269356817007065, 
0.13568317890167236, 0.10431432723999023, -0.008189499378204346, -0.3863317370414734, 0.03995831310749054, 0.10302746295928955, -0.1284351795911789, 
0.22369679808616638, -0.31451115012168884, -0.28211167454719543, -0.4986731708049774, 0.24521960318088531, 0.4117666482925415, 0.28243082761764526, 
0.19449040293693542, 0.28212088346481323, -0.6000084280967712, -0.3609854578971863, 0.3331972360610962, -0.07915689796209335, -0.04481182619929314, 
0.07067098468542099, 0.017627401277422905, 0.6190527677536011, -0.2889283001422882, -0.19848574697971344, 0.3242025077342987, 0.32062533497810364, 
-0.33332619071006775, -0.3084479868412018, 0.2637402415275574, 0.2665102481842041, -0.40177032351493835, -0.5699173808097839, 0.1681886613368988, 
-0.4501500725746155, -0.34758636355400085, -0.5577757358551025, 0.11683674156665802, 0.06792473793029785, -0.06668758392333984, -0.012485876679420471, 
0.10747877508401871, -0.07657532393932343, -0.005686901044100523, -0.04007205367088318, 0.04168688505887985, -0.026015160605311394, 0.03355087712407112, 
0.03919205442070961, 0.007415784988552332, -0.004164198413491249, -0.003461873857304454, 0.04592542722821236, 0.014756657183170319, 0.06582433730363846, 
-0.06642691791057587, -0.0756792426109314, -0.28621453046798706, -0.09655005484819412, 0.03238227963447571, 0.09584769606590271, -0.08589483052492142, 
-0.1356559693813324, 0.04351247474551201, -0.025730440393090248, -0.05744686722755432, -0.08523625135421753, 0.04010915011167526, -0.13631567358970642, 
0.23754560947418213, -0.03362938016653061, 0.1445474475622177, -0.11344017833471298, -0.04938996210694313, 0.12065468728542328, 0.135112926363945, 
0.26110199093818665, 0.06457185745239258, -0.06034673750400543, 0.07646569609642029, -0.14702509343624115, -0.23548078536987305, -0.3234299123287201, 
0.13425004482269287, 0.264698326587677, 0.1929870992898941, 0.12916532158851624, 0.19075629115104675, -0.22390535473823547, 0.19331258535385132, 
0.4245084524154663, -0.25151658058166504, 0.37139391899108887, -0.00641254847869277, 0.29657721519470215, 0.35431596636772156, -0.08875026553869247, 
-0.395119309425354, 0.09120434522628784, -0.2599996030330658, -0.020383000373840332, 0.3006798326969147, -0.08229853957891464, -0.04993164911866188, 
0.042332906275987625, -0.0031508440151810646, -0.013983760960400105, -0.06999390572309494, 0.19896100461483002, 0.0987003743648529, -0.020765395835042, 
0.026573702692985535, 0.008152940310537815, -0.1562480926513672, -0.11360540241003036, 0.006808047648519278, 0.03938227519392967, -0.11140597611665726, 
0.21135978400707245, 0.05746602639555931, 0.07400472462177277, 0.0492822490632534, -0.08202724903821945, -0.006251038983464241, -0.13350659608840942, 
-0.032455675303936005, 0.05976616591215134, 0.10171052068471909, -0.035723745822906494, 0.06895115226507187, -0.2847745418548584, -0.09834080189466476, 
0.09526170790195465, 0.061073482036590576, 0.2685086131095886, 0.15772134065628052, 0.03246130049228668, 0.3124116361141205, -0.3165532946586609, 
-0.25952205061912537, -0.22082971036434174, 0.17544963955879211, 0.087159663438797, 0.09874061495065689, 0.17792384326457977, 0.2630887031555176, 
0.27147382497787476, -0.07024616748094559, -0.29970210790634155, -0.2745400369167328, -0.3820684254169464, -0.19350986182689667, 0.13957703113555908, 
-0.31724613904953003, -0.4312609136104584, 0.3379461169242859, -0.3352237641811371, -0.3166935443878174, -0.3679974675178528, -0.13494466245174408, 
0.2178058922290802, 0.22176197171211243, -0.11908262968063354, 0.3249947726726532, 0.061720483005046844, -0.49283692240715027, 0.11479280889034271, 
-0.07648603618144989, -0.057473015040159225, 0.11986810714006424, 0.2354927510023117, -0.08021022379398346, -0.09015647321939468, 0.0707307904958725, 
0.07904841750860214, -0.06005053222179413, -0.18572108447551727, 0.10754682868719101, 0.008542725816369057, 0.016143478453159332, 0.03594173863530159, 
-0.08582373708486557, -0.2740718722343445, -0.09490285068750381, -0.056896232068538666, 0.13419102132320404, -0.0691768005490303, 0.22792045772075653, 
0.14204581081867218, -0.1297273337841034, -0.11201517283916473, -0.3473057150840759, -0.013569936156272888, 0.10531194508075714, 0.3054344058036804, 
-0.01498901005834341, 0.17903688549995422, -0.19136348366737366, -0.06162106618285179, -0.0014865410048514605, 0.13443736732006073, -0.016016926616430283, 
-0.09911316633224487, 0.026376448571681976, -0.172870472073555, -0.04161682724952698, -0.11659004539251328, 0.14647649228572845, 0.1098208799958229, 
0.37375733256340027, 0.13448569178581238, 0.11428195238113403, -0.11871865391731262, -0.18824076652526855, -0.07497004419565201, -0.025466088205575943, 
0.2009018212556839, -0.03647731989622116, -0.3865010142326355, 0.21950501203536987, -0.3678051233291626, -0.02068403549492359, -0.34545257687568665, 
-0.1286485642194748, 0.13281872868537903, 0.36681637167930603, -0.044040754437446594, 0.2635043263435364, 0.0675649419426918, -0.19353891909122467, 
-0.06865434348583221, -0.11673709005117416, -0.05637504532933235, 0.29687005281448364, 0.18464097380638123, 0.0968252494931221, -0.3147950768470764, 
-0.0763961672782898, -0.011239562183618546, -0.04829854890704155, -0.0778932049870491, 0.28289541602134705, 0.0094901192933321, 0.051827944815158844, 
0.010905567556619644, -0.06902182102203369, -0.2888756990432739, 0.08731658011674881, -0.018714044243097305, -0.2855871319770813, -0.0668669268488884, 
0.17636390030384064, -0.06954799592494965, -0.08153034746646881, -0.09405890107154846, -0.14915157854557037, -0.10597140341997147, 0.0765552744269371, 
0.25734540820121765, -0.05169016122817993, -0.18088984489440918, 0.23782142996788025, -0.33212557435035706, 0.11192648857831955, 0.27163150906562805, 
0.25371846556663513, -0.06010331213474274, -0.3769473135471344, -0.1311192661523819, -0.21011094748973846, -0.2517094314098358, 0.375236451625824, 
0.2264179140329361, -0.4188239574432373, 0.041106775403022766, 0.08433865010738373, 0.05609378218650818, 0.13250604271888733, -0.32772335410118103, 
0.14820489287376404, 0.27847665548324585, 0.08964113891124725, -0.0799676850438118, 0.0059068771079182625, 0.27972671389579773, -0.04411114379763603, 
0.005187794100493193, 0.3388548195362091, 0.08426554501056671, 0.08270546793937683, 0.2362162470817566, -0.039804719388484955, 0.43907493352890015, 
-0.07246416807174683, -0.06667326390743256, -0.009644927456974983, -0.05016779899597168, 0.12824109196662903, 0.14290465414524078, 0.09482243657112122, 
-0.12156327813863754, 0.022997071966528893, -0.047398827970027924, 0.01906113140285015, -0.04805024713277817, 0.14812727272510529, -0.09060561656951904, 
-0.01087364461272955, -0.009719356894493103, -0.003035149071365595, -0.2608603239059448, -0.0690353587269783, -0.09885690361261368, 0.02522909827530384, 
0.07652708888053894, 0.15240511298179626, -0.06443174183368683, -0.227732852101326, -0.036985184997320175, -0.03525000810623169, 0.14317359030246735, 
-0.06403297930955887, 0.26593905687332153, -0.04163162410259247, 0.10142326354980469, 0.021072231233119965, -0.10596413165330887, 0.050192683935165405, 
0.11017773300409317, 0.18831925094127655, -0.03184562548995018, -0.1832612156867981, -0.16896234452724457, 0.02195267751812935, 0.06838835030794144, 
0.16379012167453766, 0.03992277756333351, -0.19087716937065125, -0.03329673781991005, 0.05178925022482872, -0.13595221936702728, -0.04251891374588013, 
-0.13978731632232666, 0.0028445166535675526, 0.1801915019750595, 0.045647233724594116, -0.03551536053419113, -0.06118878722190857, 0.2795944809913635, 
0.038793064653873444, -0.1587265431880951, 0.3127546012401581, 0.23696421086788177, -0.07083901017904282, 0.019375240430235863, -0.043115198612213135, 
0.1687556803226471, -0.10579541325569153, 0.043210819363594055, -0.12772753834724426, 0.02861924096941948, -0.08381696045398712, 0.03818536177277565, 
0.07446873188018799, -0.1031903401017189, 0.04243412986397743, 0.10607974976301193, 0.07427489757537842, -0.0015719638904556632, -0.08350881189107895, 
-0.023015964776277542, -0.008879881352186203, 0.1465362012386322, 0.0753636583685875, -0.1780877262353897, -0.010821153409779072, -0.11173542588949203, 
0.13544709980487823, -0.014283700846135616, -0.020915653556585312, 0.13246199488639832, -0.10810299962759018, 0.06282278895378113, -0.017310665920376778, 
-0.09219948202371597, -0.0963553935289383, 0.1519405096769333, 0.08576042950153351, 0.0812641903758049, -0.07441286742687225, -0.005284109152853489, 
0.12012888491153717, 0.22158819437026978, 0.16276700794696808, 0.05717804655432701, -0.2592153251171112, 0.20894135534763336, -0.4413568377494812, 
-0.42810672521591187, 0.31250935792922974, 0.14320385456085205, -0.6652409434318542, -0.5171507000923157, 0.057038888335227966, 0.21200846135616302, 
0.46288004517555237, -0.09420453011989594, 0.15713471174240112, 0.198805034160614, 0.1330787092447281, 0.46085983514785767, -0.46651673316955566, 
0.6355271339416504, 0.029575936496257782, 0.22085510194301605, 0.6027889847755432, 0.08255819976329803, -0.445282906293869, 0.2917909026145935, 
-0.41881874203681946, 0.5230714082717896, 0.5528534054756165, -0.4882952868938446, 0.10104869306087494, 0.16801726818084717, 0.07134295254945755, 
0.10484185814857483, 0.0027556840796023607, -0.12240365147590637, 0.043137647211551666, -0.10871396213769913, -0.14316843450069427, -0.04701843112707138, 
-0.01650659181177616, -0.02310505136847496, 0.10542173683643341, 0.03233535960316658, -0.028703171759843826, 0.07711882889270782, 0.006067478563636541, 
-0.014200026169419289, -0.08823627233505249, 0.0582306906580925, 0.0030146350618451834, -0.11889377981424332, 0.021673250943422318, -0.15052279829978943, 
0.09001124650239944, 0.05069791525602341, 0.01920323446393013, -0.010991312563419342, -0.09710647910833359, 0.006812892388552427, -0.05992741510272026, 
0.05541098862886429, 0.14831668138504028, -0.15758155286312103, -0.0030083535239100456, 0.014582929201424122, -0.11900896579027176, 0.22329677641391754, 
-0.1503663957118988, -0.06666287779808044, -0.009424028918147087, -0.12942539155483246, -0.34235790371894836, -0.26841095089912415, 0.05886497721076012, 
0.18128317594528198, 0.14517256617546082, -0.0012083331821486354, 0.14875788986682892, -0.06805931776762009, 0.08868876099586487, 0.2487635612487793, 
-0.16616465151309967, 0.37690597772598267, 0.09192032366991043, 0.2244909107685089, 0.3744748830795288, -0.05242517217993736, -0.1520206779241562, 
-0.051621608436107635, -0.06276768445968628, 0.031554970890283585, 0.17753726243972778, -0.14922676980495453, 0.11466291546821594, 0.069523885846138, 
-0.07207585126161575, -0.13107332587242126, 0.030849743634462357, 0.17408111691474915, 0.059076715260744095, -0.1406477987766266, -0.04831954464316368, 
-0.05773666128516197, -0.24756623804569244, 0.060082435607910156, -0.0019297720864415169, 0.09580327570438385, 0.13722895085811615, 0.30411583185195923, 
0.004042855929583311, -0.020991576835513115, 0.17624607682228088, -0.02745671570301056, -0.1827412098646164, 0.038867030292749405, -0.12836144864559174, 
0.0811953991651535, -0.028545377776026726, 0.059394463896751404, -0.0016810314264148474, -0.05673497915267944, -0.18208134174346924, 0.20009110867977142, 
-0.2475469708442688, 0.26273488998413086, 0.0022297196555882692, 0.24313005805015564, 0.14672131836414337, -0.14641763269901276, -0.1897733211517334, 
-0.1419370025396347, -0.005970770493149757, -0.06481786072254181, 0.20181626081466675, 0.3496337831020355, 0.26936498284339905, 0.08977576345205307, 
-0.12424720078706741, -0.17470212280750275, -0.17334207892417908, 0.0316990464925766, 0.010119604878127575, 0.12571938335895538, -0.012236548587679863, 
-0.08972539007663727, 0.07836614549160004, -0.09930974990129471, 0.0560760498046875, -0.10769741982221603, -0.016423311084508896, -0.05204867199063301, 
0.2158472090959549, -0.05269406735897064, 0.23330365121364594, 0.0011426567798480392, -0.10613469779491425, -0.0809374451637268, -0.09321337193250656, 
0.03975186124444008, 0.06386660784482956, 0.17889957129955292, -0.1589875966310501, -0.30801165103912354, 0.06010763347148895, 0.09399563074111938, 
-0.05154572054743767, -0.0505816712975502, 0.22508856654167175, -0.07233073562383652, -0.06685691326856613, -0.03938337042927742, 0.06594021618366241, 
-0.31394505500793457, -0.007140748668462038, 0.0526946485042572, -0.053978174924850464, 0.07638300955295563, 0.010446951724588871, 0.006850592326372862, 
0.02309570647776127, 0.08116230368614197, -0.2002665102481842, 0.004006367176771164, 0.03581602871417999, 0.36343076825141907, 0.06811270862817764, 
-0.13444417715072632, 0.058078497648239136, -0.22068241238594055, -0.12079092115163803, -0.21885544061660767, -0.31029951572418213, 0.03160477429628372, 
0.3798784017562866, 0.2552656829357147, 0.36947527527809143, 0.29587048292160034, -0.3547942638397217, -0.3410683870315552, 0.3311287760734558, 
0.2742394804954529, 0.06128380820155144, 0.06506076455116272, -0.09629084169864655, 0.46830108761787415, -0.1532164365053177, -0.3567819893360138, 
-0.1295994222164154, -0.01308594923466444, 0.012977510690689087, -0.4227592349052429, -0.03743867948651314, -0.017906809225678444, -0.3547493815422058, 
-0.23451438546180725, -0.016315465793013573, -0.21774770319461823, 0.006790501531213522, -0.5706143975257874, -0.1110982596874237, 0.2494329810142517, 
-0.050408024340867996, -0.03791218623518944, -0.053499698638916016, 0.06452120840549469, 0.08590918034315109, 0.007500323001295328, 0.03428635001182556, 
-0.09436123818159103, 0.07701293379068375, -0.01482841931283474, -0.034804318100214005, 0.09548461437225342, 0.14107395708560944, 0.0157551821321249, 
0.06622129678726196, 0.21874608099460602, -0.07920946180820465, 0.10093747079372406, 0.01060785073786974, 0.020224925130605698, -0.10530582070350647, 
0.0014297625748440623, 0.12827160954475403, 0.10996776819229126, 0.09253746271133423, 0.06915975362062454, 0.02114732377231121, -0.04250185936689377, 
0.12304306775331497, -0.0919959619641304, 0.030221808701753616, 0.15745237469673157, 0.06468711793422699, 0.08279741555452347, -0.08756287395954132, 
0.17813467979431152, -0.07205755263566971, 0.2600502371788025, -0.1488189995288849, -0.15439185500144958, 0.16792553663253784, -0.2064545750617981, 
-0.5165920853614807, -0.425778865814209, 0.05475164204835892, 0.28793323040008545, 0.481290340423584, 0.0433770976960659, 0.07711043953895569, 
0.1056656539440155, 0.2214028686285019, 0.4653666913509369, -0.48634564876556396, 0.6194033622741699, 0.16073141992092133, 0.250914990901947, 
0.5396618843078613, -0.06878076493740082, -0.2893601953983307, 0.08693451434373856, -0.2452268898487091, 0.2601670026779175, 0.28900814056396484, 
-0.15080808103084564, -0.10246463865041733, 0.03712322190403938, 0.026692260056734085, -0.12380281835794449, 0.0668400302529335, 0.15159663558006287, 
-0.08149876445531845, -0.05062486231327057, -0.0024885402526706457, 0.11496396362781525, -0.1357911080121994, -0.1180468499660492, 0.10298417508602142, 
-0.01965429075062275, -0.05894564092159271, 0.3639708459377289, -0.07090311497449875, 0.029847094789147377, -0.022008873522281647, 0.0118413046002388, 
-0.21242883801460266, -0.11559521406888962, 0.03150832653045654, 0.03262600302696228, 0.037072982639074326, -0.03481405973434448, -0.14147378504276276, 
-0.3154672682285309, -0.0011954597430303693, -0.03900637477636337, -0.14204642176628113, 0.35636240243911743, 0.02045576274394989, 0.021732669323682785, 
0.03025336191058159, 0.008616307750344276, -0.06834442168474197, 0.19714803993701935, -0.03062928467988968, 0.06980417668819427, -0.0053931958973407745, 
-0.0037284218706190586, -0.3212072253227234, -0.11219904571771622, -0.017136279493570328, -0.02249664068222046, 0.16613848507404327, 0.051102668046951294, 
-0.018611110746860504, -0.05696648359298706, -0.049012910574674606, 0.20273545384407043, -0.13644011318683624, 0.16792014241218567, -0.09588677436113358, 
0.19579006731510162, 0.055874053388834, 0.10537738353013992, -0.1057184487581253, 0.10918890684843063, 0.034980978816747665, -0.04883195459842682, 
0.09166461229324341, 0.0812835618853569, 0.04145333170890808, -0.14427927136421204, -0.008477373979985714, 0.01828671805560589, -0.09609809517860413, 
0.2120874971151352, -0.10662870854139328, -0.05572022870182991, -0.043368276208639145, -0.06760761141777039, -0.1925964206457138, -0.06641674786806107, 
0.01721363328397274, 0.05338653177022934, -0.08539751172065735, 0.15800154209136963, 0.05826766788959503, 0.03610353544354439, 0.18837326765060425, 
0.056041207164525986, 0.06776327639818192, 0.052117202430963516, -0.08506989479064941, -0.06991445273160934, 0.053117021918296814, -0.036634765565395355, 
0.1112496480345726, -0.07999648153781891, -0.10536706447601318, 0.09383264929056168, 0.019089294597506523, 0.04616602882742882, 0.04225490987300873, 
-0.002556182909756899, 0.19267509877681732, 0.22201848030090332, -0.16236543655395508, 0.05060281231999397, -0.28747135400772095, -0.18431858718395233, 
0.3057400584220886, -0.024046439677476883, -0.5121753811836243, -0.36588042974472046, 0.03895491361618042, 0.17859087884426117, 0.26394957304000854, 
-0.1896258294582367, 0.17525024712085724, -0.011810692958533764, 0.13856515288352966, 0.37675225734710693, -0.31842249631881714, 0.5538228154182434, 
0.02484850399196148, 0.07742277532815933, 0.47112542390823364, 0.16680672764778137, -0.2850321829319, 0.23919451236724854, -0.24362428486347198, 
0.43566033244132996, 0.4643344283103943, -0.2048516422510147, 0.04378758370876312, 0.17841482162475586, -0.11157898604869843, -0.27968934178352356, 
-0.0841934084892273, 0.18252715468406677, -0.13808421790599823, -0.07475131750106812, -0.10343118757009506, 0.12479742616415024, -0.3819948434829712, 
0.08275210857391357, -0.05375294014811516, -0.059446919709444046, 0.06233464553952217, 0.2857793867588043, -1.589090607012622e-05, -0.051994599401950836, 
-0.0015774600906297565, 0.1094401404261589, -0.02985626459121704, 0.0010986964916810393, 0.02870803326368332, 0.1824030876159668, 0.10219501703977585, 
-0.021796755492687225, -0.1138487160205841, -0.3198716938495636, -0.0486331433057785, 0.03654880076646805, -0.23492547869682312, 0.2758476436138153, 
0.06343615800142288, -0.09278362989425659, 0.051235806196928024, 0.07270308583974838, 0.048898231238126755, 0.19956375658512115, -0.09157495200634003, 
-0.2607693374156952, 0.024492818862199783, -0.12159499526023865, -0.3685425817966461, -0.17161042988300323, 0.029600532725453377, 0.0810990035533905, 
0.35432711243629456, 0.009318482130765915, 0.023314695805311203, -0.08395333588123322, 0.13558746874332428, 0.3119363486766815, -0.17044253647327423, 
0.2980053722858429, 0.12127181142568588, 0.37304869294166565, 0.2621676027774811, -0.11839015036821365, -0.3119892179965973, 0.0035574380308389664, 
-0.26013919711112976, 0.1321125626564026, 0.1730748414993286, -0.28433355689048767, -0.08371391892433167, 0.005753961857408285, 0.0464504212141037, 
-0.00581402238458395, -0.0882594957947731, 0.1332528442144394, 0.052441831678152084, 0.02244214341044426, 0.13500283658504486, -0.09288184344768524, 
0.018443536013364792, -0.07359639555215836, 0.030174486339092255, -0.11129962652921677, 0.0006043389439582825, 0.15558871626853943, 0.053918760269880295, 
-0.014848039485514164, 0.0669616162776947, -0.08028210699558258, -0.024789411574602127, 0.06661783158779144, -0.059640854597091675, -0.07016506046056747, 
-0.029318273067474365, 0.06184083968400955, 0.08993273973464966, -0.09723448753356934, 0.06390364468097687, 0.11365127563476562, -0.016414130106568336, 
0.07264513522386551, -0.2057591676712036, 0.025377674028277397, -0.02431471087038517, -0.22012647986412048, 0.0030818565282970667, -0.11906175315380096, 
-0.03641835227608681, -0.04416404664516449, -0.1199757307767868, 0.2494502067565918, 0.3718402087688446, 0.24683821201324463, 0.10544975847005844, 
-0.30944135785102844, -0.35242173075675964, -0.02991839125752449, -0.20948505401611328, 0.08986788988113403, -0.19135349988937378, -0.3555562496185303, 
0.34374213218688965, -0.2672937512397766, 0.04302992299199104, -0.2717992663383484, -0.3444173336029053, 0.08007556945085526, 0.272611141204834, 
-0.07793199270963669, 0.14844436943531036, -0.22040201723575592, -0.28675928711891174, 0.16074463725090027, 0.12476173788309097, -0.07802696526050568, 
0.17141136527061462, 0.0323215052485466, 0.06178576126694679, -0.3515010178089142, -0.036294590681791306, -0.020346220582723618, 0.011415958404541016, 
0.005558164324611425, 0.25672295689582825, -0.07044845074415207, -0.02647242322564125, 0.08255575597286224, 0.03634265065193176, -0.28398507833480835, 
-0.03435560315847397, 0.07603321224451065, -0.07937091588973999, 0.08027476817369461, 0.11123096942901611, -0.019983086735010147, 0.0992702767252922, 
-0.022880729287862778, -0.006050790660083294, 0.05898725613951683, -0.019132593646645546, 0.32027381658554077, 0.0476900190114975, -0.22972315549850464, 
0.05177074298262596, -0.37484225630760193, -0.14309722185134888, 0.24632412195205688, 0.15974514186382294, -0.2935190200805664, -0.05619509890675545, 
-0.3780997097492218, -0.11422844231128693, 0.014450198970735073, 0.12968632578849792, 0.3026321232318878, 0.37999892234802246, 0.3057107627391815, 
-0.0063315993174910545, -0.38587528467178345, -0.48256203532218933, -0.05832761526107788, -0.024276433512568474, 0.2517740726470947, -0.10825840383768082, 
-0.5139527320861816, 0.49325674772262573, -0.33339110016822815, 0.10964105278253555, -0.35189661383628845, -0.23708918690681458, -0.02906903810799122, 
0.3201594948768616, 0.06198877841234207, 0.3362516164779663, -0.02580154873430729, -0.4356536865234375, -0.027455948293209076, 0.08856702595949173, 
-0.14805777370929718, 0.16958829760551453, 0.1877250373363495, -0.028801897540688515, -0.47571903467178345, -0.016978222876787186, -0.033104173839092255, 
0.15779906511306763, -0.11958654969930649, 0.4666525721549988, -0.040331147611141205, 0.08174622058868408, 0.1044933944940567, -0.08938747644424438, 
-0.5635027289390564, -0.030368885025382042, 0.07626009732484818, -0.2264249473810196, -0.09980615228414536, 0.18164384365081787, 0.07724866271018982, 
-0.12594319880008698, -0.14518903195858002, -0.21965976059436798, -0.03129526600241661, -0.02322079986333847, 0.4216681718826294, 0.12576662003993988, 
-0.01170741394162178, 0.11195588856935501, -0.3636796176433563, -0.23661844432353973, 0.09339911490678787, 0.17946012318134308, -0.20704345405101776, 
-0.09913980960845947, -0.4482648968696594, -0.12420298159122467, -0.06612668931484222, 0.12975825369358063, 0.3638330399990082, 0.3655865788459778, 
0.288480281829834, 0.054586607962846756, -0.2631068825721741, -0.275943785905838, -0.3080452084541321, -0.02674626000225544, 0.14937734603881836, 
-0.13416452705860138, -0.2788134813308716, 0.26528868079185486, -0.42882928252220154, 0.0782836303114891, -0.37496230006217957, -0.28571900725364685, 
0.019256645813584328, 0.2929956614971161, 0.05729192495346069, 0.3342466652393341, 0.18362398445606232, -0.2124258428812027, 0.08910194784402847, 
0.09230895340442657, 0.0754721388220787, 0.04048246890306473, 0.12871620059013367, 0.004906708374619484, -0.4021243453025818, -0.016630472615361214, 
0.06782590597867966, 0.04176178202033043, -0.033636633306741714, 0.27298545837402344, 0.15791349112987518, 0.1364767849445343, -0.03966234624385834, 
0.03675132244825363, -0.40389272570610046, -0.100244902074337, -0.09502943605184555, -0.00490816542878747, -0.12883010506629944, 0.2544606328010559, 
0.06360955536365509, -0.09094684571027756, -0.13928276300430298, -0.2906179428100586, -0.015568169765174389, 0.07810575515031815, 0.2126690000295639, 
0.09668243676424026, -0.01609530672430992, 0.08839575946331024, -0.33925315737724304, 0.06257454305887222, 0.0009939918527379632, 0.10682880133390427, 
0.10492751002311707, 0.03189553692936897, 0.05647997930645943, 0.10287860035896301, 0.2617962658405304, 0.06286516040563583, -0.03534218296408653, 
-0.07925865799188614, 0.05214438587427139, 0.01319532934576273, 0.04279487207531929, 0.10819720476865768, -0.07143357396125793, -0.03939438238739967, 
0.06816772371530533, -0.05597459524869919, -0.07223448902368546, -0.04847829043865204, 0.06616801768541336, 0.13562549650669098, -0.06889607012271881, 
0.044302523136138916, -0.034507423639297485, -0.0976225957274437, -0.12519174814224243, 0.09821414202451706, 0.035684868693351746, 0.09688728302717209, 
-0.023171043023467064, -0.06023845076560974, 0.035912271589040756, 0.027219584211707115, 0.009923545643687248, -0.056552160531282425, -0.10577582567930222, 
-0.04609958454966545, -0.1777036190032959, 0.08031845092773438, -0.05066247656941414, -0.12054996937513351, 0.034153155982494354, -0.09745413810014725, 
-0.041246507316827774, -0.015970328822731972, -0.07205622643232346, 0.0022911757696419954, -0.017528198659420013, 0.10087669640779495, -0.025670913979411125, 
-0.083696149289608, -0.0802425742149353, 0.1430949866771698, 0.0033960696309804916, -0.09793782234191895, -0.027853982523083687, 0.07216933369636536, 
-0.011996976099908352, 0.13016477227210999, -0.07650399953126907, 0.05506833642721176, 0.1608845442533493, 0.0006139007746241987, 0.04424520209431648, 
-0.06369238346815109, -0.12620225548744202, 0.025826958939433098, -0.20516496896743774, 0.07267703115940094, 0.02157401107251644, -0.09588033705949783, 
0.029370127245783806, 0.5573830008506775, 0.4008999168872833, 0.04677901417016983, -0.2745353877544403, -0.3824206590652466, -0.05382362753152847, 
-0.11127206683158875, -0.006251641549170017, -0.2670653760433197, -0.32535186409950256, 0.503577709197998, -0.4613560438156128, -0.0350361093878746, 
-0.2638680636882782, -0.27202948927879333, 0.009395773522555828, 0.3092857599258423, -0.099965900182724, 0.26331576704978943, -0.24094314873218536, 
-0.32182127237319946, 0.19006292521953583, 0.08823376893997192, -0.139720156788826, 0.0972796231508255, 0.16811047494411469, -0.039432592689991, 
-0.1537429690361023, 0.09464988112449646, -0.12272092700004578, -0.060558971017599106, 0.01558654010295868, 0.284420371055603, -0.04425971582531929, 
-0.005960691720247269, -0.0918445736169815, 0.04054226353764534, -0.25563815236091614, -0.018381180241703987, 0.043802421540021896, -0.07978839427232742, 
-0.054350242018699646, 0.062022194266319275, -0.10039739310741425, 0.06274547427892685, -0.2136731743812561, -0.09512636810541153, -0.02323986031115055, 
0.12278587371110916, 0.14600929617881775, -0.016415171325206757, -0.2547895610332489, 0.25314679741859436, -0.2988465428352356, -0.056119926273822784, 
0.09811998158693314, 0.20830705761909485, -0.15160079300403595, -0.14748942852020264, -0.30767178535461426, 0.1062609925866127, -0.11177527904510498, 
-0.025507504120469093, 0.2933623194694519, 0.44894716143608093, 0.1889086365699768, 0.017101550474762917, -0.24726849794387817, -0.21021848917007446, 
-0.023057101294398308, 0.008513395674526691, 0.16570885479450226, -0.1452939808368683, -0.24255351722240448, 0.238087460398674, -0.3625231683254242, 
0.09016678482294083, -0.26763442158699036, -0.3685707449913025, -0.07305889576673508, 0.3772421181201935, -0.08823300898075104, 0.248094379901886, 
-0.1116320937871933, -0.2854790687561035, 0.03542523831129074, -0.08050455152988434, 0.01056732703000307, 0.08471432328224182, 0.1479918211698532, 
-0.08488663285970688, -0.41706371307373047, 0.03301079571247101, 0.027980616316199303, 0.0021765867713838816, 0.08855480700731277, 0.35962340235710144, 
-0.06314244866371155, 0.060120951384305954, 0.12704968452453613, 0.05413360521197319, -0.3695736527442932, -0.08415956050157547, 0.09710747748613358, 
-0.007804153487086296, -0.03990522772073746, 0.15694846212863922, -0.0008546831668354571, -0.02385297790169716, -0.10654246062040329, -0.1016370952129364, 
-0.005387493874877691, -0.030151240527629852, 0.39284011721611023, 0.10276014357805252, -0.012611644342541695, 0.05401762202382088, -0.3649136424064636, 
-0.004581380635499954, 0.33922162652015686, 0.3848402798175812, -0.1658744215965271, -0.3532939553260803, -0.4914432764053345, -0.23948781192302704, 
-0.22844012081623077, 0.23168058693408966, 0.33800336718559265, 0.20030027627944946, 0.16475102305412292, -0.0022706366144120693, -0.13080261647701263, 
-0.17958377301692963, -0.2641405463218689, -0.02403404749929905, 0.28456911444664, -0.10475440323352814, -0.3997316062450409, 0.23224963247776031, 
-0.03542300686240196, 0.018075808882713318, -0.32926517724990845, -0.028723672032356262, 0.2704063355922699, 0.3885142505168915, 0.16851027309894562, 
0.25876614451408386, 0.3368668258190155, -0.22630108892917633, -0.24258294701576233, 0.007104069460183382, 0.055880989879369736, 0.16244156658649445, 
0.21615415811538696, -0.11486313492059708, -0.35186952352523804, 0.09198179841041565, -0.05874982103705406, -0.0973711758852005, -0.04552984610199928, 
0.4499629735946655, 0.005380244925618172, 0.10406387597322464, 0.0428580678999424, 0.13755321502685547, -0.6389721632003784, -0.024198250845074654, 
0.11668328195810318, -0.10198426246643066, 0.02325630746781826, 0.2449008971452713, 0.12953472137451172, 0.027872908860445023, -0.0412282757461071, 
-0.21938438713550568, -0.04666241258382797, 0.04618322476744652, 0.45711132884025574, -0.07110576331615448, -0.09957106411457062, 0.24796004593372345, 
-0.3432163894176483, 0.1407487541437149, -0.17978309094905853, -0.4266217350959778, 0.34482890367507935, 0.26856955885887146, 0.5113704204559326, 
0.13652002811431885, 0.1605842411518097, -0.23432910442352295, -0.49560150504112244, -0.2006942331790924, -0.18501447141170502, -0.1107122153043747, 
0.3438577353954315, 0.14657892286777496, 0.36958205699920654, 0.07964025437831879, -0.4302947223186493, 0.15758848190307617, 0.34753769636154175, 
-0.3518669307231903, 0.10698476433753967, -0.08182235062122345, 0.2751503586769104, 0.15446767210960388, -0.16436752676963806, -0.4055884778499603, 
0.02265825681388378, -0.19647246599197388, -0.33424562215805054, 0.323316752910614, 0.20985911786556244, -0.019659610465168953, 0.15396526455879211, 
-0.17544110119342804, -0.04974878206849098, -0.0249783992767334, 0.25282272696495056, -0.03176381066441536, -0.08328677713871002, 0.04485215246677399, 
0.005155939143151045, -0.22412212193012238, 0.053273726254701614, -0.03551023080945015, 0.09971100836992264, 0.037113238126039505, 0.5605500936508179, 
-0.02545422501862049, 0.08522334694862366, -0.04606851562857628, 0.07424268126487732, -0.27789193391799927, -0.14691877365112305, -0.08603793382644653, 
0.021374601870775223, 0.2261866331100464, 0.032384343445301056, 0.03604705259203911, -0.3788299858570099, 0.0006188495899550617, -0.03494664654135704, 
-0.13893887400627136, 0.2223728448152542, -0.109632208943367, 0.09109260141849518, -0.035454459488391876, -0.13148221373558044, -0.08723626285791397, 
-0.2481411099433899, 0.06229890510439873, -0.017583508044481277, 0.0653471052646637, 0.2212912142276764, 0.28200942277908325, 0.1729934960603714, 
-0.09706121683120728, -0.19222263991832733, -0.3225252330303192, 0.11874896287918091, 0.05602795630693436, 0.16953417658805847, -0.06969502568244934, 
-0.3404521048069, 0.4028768837451935, -0.3620811700820923, 0.09864382445812225, -0.18731184303760529, -0.20427484810352325, -0.0973082184791565, 
0.1864226758480072, -0.08961936831474304, 0.0764748677611351, -0.09090905636548996, -0.3430396020412445, 0.07446959614753723, -0.12302267551422119, 
0.009569058194756508, 0.03772598132491112, 0.10081075876951218, 0.10109853744506836, -0.32013189792633057, -0.06696955859661102, 0.05659692734479904, 
0.12099076807498932, -0.03862990811467171, 0.33613672852516174, 0.12678252160549164, -0.010114596225321293, 0.05307561159133911, -0.07989928871393204, 
-0.24085387587547302, -0.034389033913612366, 0.13305027782917023, -0.23364299535751343, -0.007224890869110823, 0.02832057885825634, -0.06758453696966171, 
0.0503971241414547, -0.05316779762506485, -0.2236975133419037, 0.0900067389011383, 0.010721354745328426, 0.15071751177310944, -0.028223183006048203, 
-0.14911958575248718, 0.22966483235359192, -0.4021743834018707, 0.07176659256219864, -0.14360199868679047, -0.27519363164901733, 0.020063862204551697, 
0.4018905460834503, 0.18463170528411865, 0.2853684425354004, 0.17171534895896912, -0.12162283807992935, -0.22724682092666626, 0.41667234897613525, 
0.1599331945180893, 0.037383072078228, -0.06248418241739273, -0.2852407991886139, 0.16247592866420746, -0.11314941942691803, -0.16639703512191772, 
-0.17388859391212463, 0.022212887182831764, 0.06710226088762283, -0.43133544921875, -0.15439224243164062, -0.12591320276260376, -0.4048033356666565, 
-0.14891818165779114, 0.10304923355579376, -0.009245919063687325, 0.17118112742900848, -0.21920925378799438, -0.2534467577934265, 0.2969697117805481, 
0.045362941920757294, 0.1110365018248558, -0.04352188855409622, 0.1295466423034668, -0.010326853021979332, -0.0656115934252739, -0.08379856497049332, 
0.04321788251399994, -0.0685468390583992, 0.03452768176794052, 0.05586793273687363, 0.0746435672044754, 0.05086962506175041, 0.0128224091604352, 
0.06490310281515121, 0.052376944571733475, -0.006706621032208204, -0.07721799612045288, -0.1311078816652298, 0.045268092304468155, -0.040665894746780396, 
0.07830670475959778, -0.012862822972238064, -0.10062424093484879, 0.1491033136844635, 0.02691788226366043, -0.07222945988178253, -0.05813545733690262, 
-0.06787971407175064, -0.12344583868980408, 0.08317136764526367, -0.13205794990062714, -0.4810675382614136, 0.10443895310163498, -0.17658631503582, 
0.0582970455288887, 0.15878957509994507, -0.12941458821296692, -0.26572611927986145, -0.011216088198125362, -0.26142117381095886, 0.2415229082107544, 
0.16739709675312042, -0.5522068738937378, 0.07585354894399643, 0.1682157963514328, 0.07192295044660568, 0.08794227987527847, -0.10707498341798782, 
0.37739652395248413, 0.4199691414833069, 0.08166056871414185, -0.5119801163673401, -0.18072518706321716, 0.5447906851768494, 0.2682104706764221, 
-0.10937310755252838, -0.43344953656196594, 0.3318837881088257, -0.3506474494934082, -0.429648220539093, -0.11444094032049179, 0.4818410277366638, 
-0.2777037024497986, 0.04742062836885452, 0.1263614296913147, 0.1140335351228714, 0.0887230858206749, -0.040469635277986526, -0.06475129723548889, 
-0.007674541790038347, 0.016289066523313522, -0.12386023998260498, 0.04639942944049835, 0.15854845941066742, -0.05283603072166443, -0.006605396047234535, 
0.07020057737827301, 0.02888292819261551, -0.14240753650665283, 0.09688994288444519, 0.001272883964702487, -0.32419830560684204, 0.04483476281166077, 
-0.10230200737714767, -0.15079046785831451, -0.0743614211678505, 0.021043509244918823, 0.1282496601343155, 0.009549282491207123, -0.051374588161706924, 
0.13494811952114105, -0.10170751065015793, -0.34616029262542725, 0.253722220659256, -0.1265096664428711, -0.1482660472393036, -0.24119621515274048, 
-0.3464156985282898, 0.028382830321788788, 0.39220255613327026, 0.1689871847629547, 0.35068827867507935, 0.1551143079996109, -0.15010301768779755, 
-0.17820782959461212, 0.4738715589046478, 0.08130891621112823, -0.00024375047360081226, -0.04074709117412567, -0.30394479632377625, 0.2750524580478668, 
-0.17172570526599884, -0.35448503494262695, 0.08189249783754349, 0.01805501990020275, 0.0901213139295578, -0.41840484738349915, -0.013083716854453087, 
-0.11285728961229324, -0.31497350335121155, -0.1825900822877884, -0.0017943880520761013, -0.1300804615020752, 0.03404655680060387, -0.4690641164779663, 
-0.2310107797384262, 0.271385133266449, -0.0031237690709531307, 0.007599453441798687, 0.07436337321996689, 0.008822590112686157, 0.09043718874454498, 
0.09800777584314346, -0.07693836092948914, 0.03722650557756424, -0.018156124278903008, -0.12513749301433563, -0.02821534126996994, -0.022962750867009163, 
0.023828579112887383, -0.030490953475236893, 0.026055533438920975, 0.007930463179945946, 0.10278896987438202, -0.07448779791593552, 0.10818029940128326, 
0.04368095472455025, -0.09364958107471466, -0.03480679169297218, 0.054138004779815674, 0.11557543277740479, 0.038605351001024246, 0.03244403377175331, 
0.11636064201593399, -0.06320280581712723, -0.08691675961017609, -0.04369617626070976, 0.1652749478816986, 0.13836486637592316, -0.10084082186222076, 
-0.07034356892108917, -0.1873222291469574, 0.1569148749113083, -0.026090772822499275, 0.0584639273583889, -0.07491444051265717, -0.08022534847259521, 
0.10412535071372986, 0.0047570476308465, 0.05322372540831566, -0.0029834958259016275, -0.11119082570075989, 0.13465404510498047, -0.05234188586473465, 
0.1234339252114296, 0.05041976645588875, -0.01100166141986847, -0.07083243131637573, -0.17210319638252258, 0.09710323065519333, -0.11470083892345428, 
0.05127060413360596, 0.08579055219888687, -0.08146592229604721, 0.008590362034738064, 0.07064241170883179, 0.1792239397764206, 0.06003113463521004, 
0.06219250336289406, -0.006431183777749538, 0.03920657932758331, -0.022870156913995743, 0.13767585158348083, 0.008422366343438625, -0.07700939476490021, 
0.19789084792137146, 0.043298251926898956, 0.16442708671092987, -0.10823310911655426, 0.15487799048423767, -0.012288752011954784, 0.106950543820858, 
0.11025718599557877, 0.22596339881420135, -0.18773426115512848, -0.22225095331668854, -0.12654440104961395, -0.04934043809771538, 0.0419435054063797, 
-0.1281086802482605, -0.08874329924583435, -0.12788595259189606, -0.15887081623077393, 0.10591904819011688, 0.14386312663555145, 0.11426469683647156, 
0.02485271729528904, -0.2001573145389557, 0.0049413638189435005, 0.2495816946029663, -0.17026713490486145, 0.2046470046043396, -0.19830290973186493, 
0.10838262736797333, -0.2331058382987976, -0.2051708996295929, 0.20807182788848877, 0.026878247037529945, 0.32137802243232727, 0.04023474454879761, 
0.15219607949256897, -0.1684187799692154, -0.4033070504665375, -0.3432806730270386, -0.14271730184555054, 0.06457643955945969, 0.33464837074279785, 
0.38976216316223145, 0.19154025614261627, 0.10009264945983887, -0.25963613390922546, 0.19252029061317444, 0.3228868842124939, -0.37074679136276245, 
0.34642496705055237, 0.07183514535427094, 0.3304864168167114, 0.25607550144195557, -0.09582851827144623, -0.35024163126945496, -0.03016609326004982, 
-0.22592656314373016, -0.14220067858695984, 0.490622878074646, 0.1603921502828598, -0.028273368254303932, 0.16652394831180573, -0.019431598484516144, 
0.027107050642371178, 0.12060955166816711, 0.31731170415878296, -0.11401001363992691, 0.06003282219171524, -0.05028385668992996, -0.016975848004221916, 
-0.3042276203632355, -0.17269326746463776, 0.0814332440495491, 0.06018195301294327, -0.06642217934131622, 0.5740323662757874, -0.045911919325590134, 
-0.09459028393030167, -0.017774570733308792, -0.011177422478795052, -0.231441929936409, -0.08522577583789825, -0.10919325798749924, -0.002045028144493699, 
0.31041616201400757, 0.01699060946702957, -0.0240581464022398, -0.31786444783210754, 0.07675252109766006, -0.03359774500131607, -0.040129318833351135, 
0.45657241344451904, -0.024231063202023506, -0.034314192831516266, -0.056794170290231705, -0.005788516718894243, 0.07548826187849045, 0.06484722346067429, 
0.07525674998760223, 0.0708373412489891, 0.06298017501831055, -0.17605887353420258, -0.1640869826078415, -0.044402603060007095, 0.02631882205605507, 
0.20447294414043427, 0.2786191701889038, -0.047751352190971375, -0.10434998571872711, -0.21170590817928314, 0.01872890815138817, 0.18944761157035828, 
-0.2798307538032532, 0.15074844658374786, 0.04173598811030388, 0.2420315146446228, 0.1517803966999054, 0.07660439610481262, -0.16350886225700378, 
0.02158242091536522, -0.16611747443675995, 0.0017936833901330829, 0.11159741133451462, 0.04821150749921799, 0.08954934775829315, 0.06590090692043304, 
-0.1667676419019699, -0.1309843510389328, 0.12261508405208588, 0.20789536833763123, 0.12144297361373901, -0.11923494935035706, -0.027139481157064438, 
0.031742729246616364, -0.14881961047649384, 0.059339627623558044, -0.03222326561808586, 0.02242482453584671, 0.047291871160268784, 0.1749906986951828, 
-0.05608918517827988, 0.07067261636257172, 0.16035039722919464, -0.048903077840805054, 0.028883663937449455, -0.1177864670753479, -0.14111144840717316, 
-0.013698713853955269, -0.035495929419994354, 0.09598135203123093, -0.11436455696821213, -0.24957983195781708, 0.0382523238658905, 0.13617965579032898, 
-0.03136741369962692, 0.3327189087867737, -0.1537490040063858, 0.025896701961755753, -0.010618546977639198, 0.03544607758522034, -0.18411941826343536, 
0.16021835803985596, -0.4932139217853546, -0.6030155420303345, 0.03858005627989769, 0.26558351516723633, -0.408368855714798, -0.5597552061080933, 
0.05045213922858238, 0.24601218104362488, 0.4362811744213104, -0.07362766563892365, 0.4304363429546356, 0.39309442043304443, 0.40232017636299133, 
0.44222429394721985, -0.5439106822013855, 0.6216540932655334, 0.31985506415367126, 0.21849589049816132, 0.37974777817726135, -0.10814540088176727, 
-0.06449490785598755, 0.09211303293704987, -0.4796678125858307, 0.3946116864681244, 0.5872154235839844, -0.5807324051856995, -0.12520016729831696, 
0.010060341097414494, 0.1337711662054062, 0.09531060606241226, -0.07495792210102081, 0.10361062735319138, -0.017223713919520378, -0.001074839849025011, 
-0.10062799602746964, 0.05272822082042694, 0.16943812370300293, -0.1597556322813034, -0.045819006860256195, -0.04300834611058235, 0.07351798564195633, 
0.002293138997629285, 0.08971375972032547, 0.03310354799032211, -0.2326255589723587, 0.02371792308986187, -0.14184467494487762, -0.08077266067266464, 
-0.02375747449696064, 0.1635664999485016, 0.20484575629234314, -0.052334245294332504, -0.09959670156240463, -0.007281323429197073, -0.14125867187976837, 
-0.18685223162174225, 0.35724249482154846, -0.09878835082054138, -0.38159194588661194, -0.02303924225270748, -0.3371528089046478, 0.4481848180294037, 
0.03025338053703308, 0.3370805084705353, -0.7726194262504578, -0.4264717698097229, -0.12334539741277695, 0.12220951914787292, -0.5394105315208435, 
-0.8925797939300537, -0.004824816714972258, 0.399289071559906, 0.7215659618377686, 0.19189558923244476, 0.1384459286928177, 0.4492160975933075, 
0.7505912184715271, 0.5789101123809814, -0.8842830061912537, 0.7297112345695496, 0.7561638951301575, 0.5156816840171814, 0.31402888894081116, 
-0.4058324694633484, -0.04277677834033966, -0.11002442240715027, -0.7869417071342468, 0.29595550894737244, 0.8723277449607849, -0.8406115174293518, 
-0.022434048354625702, -0.06830628961324692, 0.0424942821264267, -0.14079727232456207, -0.0036737232003360987, 0.31243792176246643, -0.13192705810070038, 
-0.025537041947245598, -0.06616001576185226, -0.011246753856539726, -0.016711492091417313, -0.03414829075336456, 0.004405283369123936, 0.040507685393095016, 
0.09737095236778259, 0.26438936591148376, -0.004610404372215271, 0.05650784820318222, -0.31740817427635193, -0.03814881294965744, -0.3830590546131134, 
-0.22267058491706848, -0.000730588857550174, 0.23529334366321564, 0.46153417229652405, -0.01635899767279625, 0.07360079139471054, -0.3178604245185852, 
-0.06596045196056366, -0.53963303565979, 0.3665933609008789, 0.042052656412124634, -0.1016385406255722, 0.09667687863111496, 0.3679240047931671, 
-0.15729877352714539, -0.2752442955970764, -0.31013575196266174, -0.14084860682487488, -0.23518967628479004, 0.21643850207328796, 0.44464927911758423, 
-0.3147834241390228, -0.1292259842157364, -0.013442791067063808, -0.03014964982867241, 0.13671211898326874, -0.44734394550323486, 0.16482730209827423, 
0.2770933508872986, 0.043004073202610016, 0.08240284770727158, 0.02151075378060341, 0.21878524124622345, 0.11242508143186569, -0.034546442329883575, 
0.4467902183532715, 0.30963560938835144, 0.008694373071193695, 0.21886147558689117, 0.08135692775249481, 0.4728052318096161, 0.07400106638669968, 
-0.195408433675766, -0.029360879212617874, 0.0038548752199858427, -0.03678469359874725, -0.03962453454732895, 0.11500389873981476, -0.05568021908402443, 
-0.02408144623041153, -0.01616761088371277, -0.05599061772227287, 0.12479230016469955, 0.22286471724510193, 0.0029698337893933058, 0.027654599398374557, 
0.01615140028297901, 0.09294454008340836, -0.13800150156021118, 0.04777931794524193, 0.03873777389526367, 0.14198239147663116, -0.0010893241269513965, 
0.1960698515176773, 0.01486082375049591, -0.03221926838159561, 0.0562489777803421, 0.055512551218271255, 0.13874393701553345, -0.044323280453681946, 
0.12207933515310287, -0.03967858850955963, 0.013081351295113564, -0.11565428972244263, -0.0007469875272363424, -0.01303156092762947, -0.20963385701179504, 
-0.2334088385105133, -0.023005453869700432, 0.1630711406469345, -0.15704010426998138, 0.18057046830654144, 0.1429436355829239, -0.16025172173976898, 
0.09982354938983917, 0.5481470823287964, 0.2588088810443878, 0.079366035759449, -0.051105935126543045, -0.19989913702011108, 0.0865890309214592, 
-0.16039897501468658, -0.16606557369232178, -0.004340123850852251, -0.23204103112220764, 0.15120460093021393, -0.4472704529762268, -0.0706510990858078, 
-0.2315080314874649, -0.3874646723270416, -0.25284889340400696, 0.3263770043849945, -0.24459458887577057, 0.03765898570418358, -0.23119217157363892, 
-0.21019451320171356, 0.13994581997394562, 0.029821662232279778, 0.06846189498901367, 0.08813650906085968, -0.015019232407212257, -0.05657535791397095, 
0.04094831645488739, -0.029534338042140007, 0.006961317267268896, -0.08596423268318176, 0.01343568880110979, 0.015400814823806286, 0.03388066217303276, 
-0.14129261672496796, -0.1079167053103447, -0.08215822279453278, -0.07306402176618576, -0.05248318240046501, 0.02656174823641777, -0.12167064100503922, 
0.09075185656547546, -0.08750927448272705, -0.009609469212591648, -0.01124331634491682, -0.03803123161196709, -0.0002061066188616678, 0.03057873249053955, 
0.03932575136423111, 0.039575960487127304, 0.11589479446411133, -0.022991854697465897, 0.1004561260342598, -0.09655962884426117, -0.1057441234588623, 
-0.06480549275875092, -0.16320139169692993, -0.07414370030164719, 0.25704726576805115, 0.017409423366189003, 0.03968919813632965, 0.1302064061164856, 
-0.03692840412259102, 0.01438190508633852, 0.2893788814544678, 0.03055381029844284, -0.09350807219743729, -0.036307476460933685, -0.11498592793941498, 
0.2560602128505707, 0.09334607422351837, 0.00968578364700079, -0.0375644825398922, 0.008396521210670471, 0.16888302564620972, -0.20827093720436096, 
0.11137523502111435, -0.15176385641098022, -0.35548514127731323, -0.12695060670375824, 0.05094311013817787, -0.14402322471141815, 0.02918980084359646, 
-0.23511375486850739, -0.03625449538230896, 0.22205306589603424, 0.036441899836063385, 0.11952409148216248, 0.11510631442070007, -0.035640519112348557, 
-0.01334460824728012, 0.018530111759901047, -0.08276849240064621, 0.08952168375253677, -0.04922366514801979, -0.04929264634847641, 0.23783555626869202, 
0.030188383534550667, 0.06539464741945267, -0.012666045688092709, 0.06465227156877518, -0.021054258570075035, 0.1257927566766739, 0.03357187286019325, 
-0.07568646967411041, 0.004842061549425125, -0.05568983033299446, 0.07932306826114655, -0.14072170853614807, -0.008045007474720478, 0.026996221393346786, 
0.10056216269731522, 0.011885317973792553, -0.05856569856405258, 0.04402279108762741, -0.05721130967140198, 0.13009697198867798, -0.18217140436172485, 
0.17250840365886688, -0.08098570257425308, -0.15647639334201813, -0.0587417297065258, 0.0534784309566021, 0.2266809493303299, 0.17355410754680634, 
0.03359801322221756, -0.16099320352077484, -0.203185573220253, -0.1051020622253418, -0.051665086299180984, 0.039067696779966354, 0.13784706592559814, 
0.08529082685709, -0.03379403054714203, -0.16401231288909912, -0.24330289661884308, 0.07157635688781738, 0.01805804669857025, -0.20087334513664246, 
-0.054707158356904984, -0.060453806072473526, 0.15224038064479828, 0.04044022783637047, 0.05378256365656853, -0.18653970956802368, 0.039724234491586685, 
-0.13859280943870544, -0.15171080827713013, 0.15314987301826477, 0.18078136444091797, -0.057469382882118225, -0.01869381032884121, -0.12538911402225494, 
-0.18678832054138184, -0.020512491464614868, 0.10392378270626068, 0.07019262760877609, 0.07599783688783646, -0.1281280666589737, -0.12980827689170837, 
-0.21737608313560486, 0.010732371360063553, -0.17816072702407837, 0.11405375599861145, 0.09096464514732361, 0.3840222656726837, -0.052172888070344925, 
0.11587923765182495, 0.2065606564283371, 0.04363429546356201, 0.008738931268453598, 0.030379775911569595, 0.08039394021034241, 0.037454746663570404, 
0.11555610597133636, -0.15183600783348083, -0.054649073630571365, -0.18521051108837128, -0.09317631274461746, 0.16725417971611023, -0.19944433867931366, 
0.26640212535858154, 0.04896905645728111, -0.19104482233524323, -0.3841345012187958, -0.07672104239463806, 0.3946335017681122, 0.14466285705566406, 
0.2921014726161957, 0.2953394949436188, -0.3318021297454834, -0.27203622460365295, 0.39076295495033264, 0.26585453748703003, -0.06590314209461212, 
-0.1576470285654068, -0.20587219297885895, 0.18111710250377655, -0.13063371181488037, -0.18317864835262299, -0.12479497492313385, -0.13444006443023682, 
0.22343571484088898, -0.5097671151161194, -0.0164194218814373, -0.12499382346868515, -0.4617781937122345, -0.15377746522426605, 0.10596358776092529, 
-0.06962934881448746, 0.18377374112606049, -0.40273240208625793, -0.2018149197101593, 0.3301043212413788, 0.07799188792705536, 0.08969121426343918, 
0.07035505026578903, -0.029240181669592857, 0.0724714994430542, -0.03711225464940071, 0.09631361812353134, 0.05367925018072128, -0.02821797877550125, 
-0.12153135985136032, -0.08925376832485199, -0.01900177076458931, 0.03363487496972084, -0.1644027680158615, -0.04296961426734924, 0.169390469789505, 
0.06921179592609406, -0.007467742543667555, -0.01362766232341528, -0.08536709100008011, 0.061231184750795364, -0.03642009198665619, 0.05398834869265556, 
-0.032967545092105865, 0.0582292377948761, 0.017269086092710495, -0.08333498239517212, -0.041498277336359024, -0.03838348761200905, -0.045715272426605225, 
-0.048140741884708405, -0.07105734199285507, 0.0584353469312191, 0.00975755974650383, 0.13730083405971527, 0.16285191476345062, -0.15059886872768402, 
0.024920539930462837, -0.16655857861042023, -0.1309032440185547, 0.2302609235048294, -0.052027471363544464, -0.5423902869224548, -0.3280419111251831, 
0.11237233132123947, 0.24055832624435425, 0.3543378710746765, -0.25251516699790955, 0.02040291018784046, 0.14236128330230713, 0.06047201156616211, 
0.1701110154390335, -0.28147420287132263, 0.5755358934402466, -0.09771236032247543, 0.10843885689973831, 0.5011675953865051, 0.14102014899253845, 
-0.29152700304985046, 0.20241065323352814, -0.2772535979747772, 0.19894175231456757, 0.29975536465644836, -0.18671676516532898, 0.0256697665899992, 
0.038882967084646225, -0.00968897808343172, -0.024973971769213676, -0.03356218710541725, 0.120680071413517, -0.046643003821372986, 0.009758597239851952, 
-0.08180177956819534, -0.08436883240938187, -0.018595488741993904, -0.030333422124385834, -0.021386470645666122, 0.17234934866428375, -0.02010979875922203, 
-0.001126050017774105, 0.057904213666915894, 0.04139401763677597, 0.09904923290014267, -0.04227812588214874, -0.0012472663074731827, 0.0009205160895362496, 
0.059113163501024246, 0.0336012989282608, 0.16875582933425903, 0.041769277304410934, -0.1348479986190796, 0.021173052489757538, 0.05355193838477135, 
0.11389437317848206, -0.2035416066646576, 0.09191974997520447, -0.03732795640826225, 0.2675837576389313, 0.27367863059043884, -0.08786372095346451, 
-0.4076492190361023, -0.1914786696434021, -0.10679543763399124, -0.01858573779463768, 0.1878964751958847, 0.25442764163017273, -0.22917133569717407, 
-0.05472657084465027, -0.001962382812052965, -0.09485484659671783, -0.04695819318294525, -0.4531973898410797, -0.11314603686332703, 0.34362858533859253, 
-0.05088179185986519, -0.14957568049430847, 0.1036708652973175, 0.33769890666007996, 0.03069855272769928, -0.23199966549873352, 0.30703094601631165, 
0.2805340588092804, 0.1709822118282318, 0.058763567358255386, 0.061274174600839615, 0.3543439507484436, -0.12004482746124268, -0.3005537688732147, 
-0.0722305178642273, 0.029925797134637833, 0.12410374730825424, -0.027257317677140236, 0.12200145423412323, -0.2379661649465561, -0.06884565949440002, 
-0.1043342798948288, -0.06475736945867538, -0.03428893908858299, 0.12420159578323364, 0.10354343056678772, 0.08995034545660019, 0.10247626900672913, 
-0.12093253433704376, -0.17702090740203857, -0.0653802752494812, -0.0012279159855097532, -0.08013354241847992, 0.05937892571091652, 0.13801130652427673, 
0.07227105647325516, 0.036795344203710556, -0.05244546756148338, -0.19512127339839935, -0.029945535585284233, -0.0459577813744545, 0.2583191990852356, 
0.0624796524643898, 0.023156942799687386, -0.07282771915197372, -0.033617693930864334, 0.07077424228191376, -0.034347567707300186, 0.16027185320854187, 
0.1362207978963852, -0.024808069691061974, 0.035927172750234604, 0.1226852685213089, 0.28060007095336914, -0.00017899861268233508, 0.015008850023150444, 
-0.07323229312896729, 0.022343559190630913, 0.04687606170773506, -0.044101614505052567, -0.07109258323907852, -0.16890665888786316, -0.06988458335399628, 
-0.03935030847787857, -0.04003285616636276, 0.12250743061304092, -0.022068290039896965, 0.13110026717185974, 0.15478675067424774, -0.057483356446027756, 
-0.09656273573637009, 0.02023286372423172, -0.028826430439949036, -0.21774083375930786, 0.0029963573906570673, -0.04809078946709633, 0.007512068375945091, 
-0.05800900235772133, -0.12454187870025635, 0.1272212564945221, -0.026302406564354897, 0.10369330644607544, 0.053388454020023346, -0.0013951994478702545, 
0.09747421741485596, 0.198837548494339, -0.15376076102256775, -0.08437782526016235, 0.026620473712682724, 0.03822159022092819, -0.03012366220355034, 
0.1183466836810112, 0.17232759296894073, 0.04032529145479202, -0.01885417103767395, 0.07052502781152725, 0.04873194545507431, -0.21849898993968964, 
0.028116323053836823, -0.14215022325515747, 0.02437755838036537, -0.09705206006765366, 0.11692285537719727, -0.06706360727548599, 0.01646455191075802, 
0.045346856117248535, -0.07490430772304535, 0.07482004165649414, -0.02555723674595356, -0.03646507486701012, 0.0684535875916481, 0.25191062688827515, 
0.4811043441295624, -0.15496571362018585, -0.4001128077507019, -0.3437712788581848, -0.11404012143611908, -0.1543784737586975, 0.21897268295288086, 
0.38971132040023804, -0.1653870791196823, -0.013401977717876434, -0.07379025965929031, -0.028025921434164047, -0.07054897397756577, -0.3671329617500305, 
0.03467812389135361, 0.32261642813682556, -0.22394496202468872, -0.13643500208854675, 0.2338247001171112, 0.2841190993785858, -0.0434725396335125, 
-0.08949682861566544, 0.15386997163295746, 0.2540450394153595, 0.060310836881399155, 0.10870089381933212, 0.11513419449329376, 0.2928878664970398, 
-0.07283515483140945, -0.12179744243621826, -0.05259425938129425, 0.03182492405176163, 0.14518029987812042, 0.06063668057322502, 0.00837373360991478, 
-0.21996484696865082, 0.01666271686553955, -0.0608893446624279, -0.00037663860712200403, -0.03130539134144783, 0.08706199377775192, 0.001283660065382719, 
0.15939825773239136, -0.04024572670459747, -0.08413583040237427, -0.33186784386634827, 0.0798705518245697, -0.07494224607944489, 0.11849626898765564, 
-0.05411048233509064, 0.1686020791530609, 0.048090286552906036, -0.012761171907186508, -0.16415855288505554, -0.17839714884757996, 0.03687605261802673, 
-0.04133521392941475, 0.2982379198074341, -0.10605940967798233, 0.1926647275686264, -0.18376336991786957, -0.00041491148294880986, 0.14813615381717682, 
-0.08931396156549454, 0.0882410779595375, -0.1263473629951477, 0.015917867422103882, 0.1472197026014328, 0.05688423290848732, 0.19411389529705048, 
0.06241297721862793, 0.04828598350286484, -0.17826128005981445, -0.04196757450699806, 0.15437278151512146, 0.037681449204683304, 0.06042778119444847, 
-0.13232460618019104, -0.10482227802276611, -0.05447838455438614, -0.10424336045980453, 0.007364362478256226, -0.08236319571733475, 0.09739910811185837, 
0.01872730441391468, 0.02426309324800968, -0.006865676026791334, -0.0440668947994709, -0.1734110713005066, -0.00983064528554678, 0.11521875113248825, 
-0.031097296625375748, -0.016939297318458557, -0.008267372846603394, 0.0951831191778183, 0.013838567771017551, 0.03125559538602829, -0.010942810215055943, 
0.004905973095446825, -0.010592159815132618, 0.030225388705730438, -0.015438455156981945, -0.01713765412569046, 0.053431011736392975, -0.0618826262652874, 
-0.1408519446849823, -0.193840891122818, 0.21566151082515717, 0.14067617058753967, 0.031444087624549866, 0.12240362912416458, 0.1512581706047058, 
-0.04404914379119873, -0.09070244431495667, 0.01175310555845499, -0.10261104255914688, -0.17131297290325165, -0.1853579580783844, 0.03989177569746971, 
0.026504982262849808, -0.005946035962551832, -0.11297180503606796, -0.0875590369105339, 0.16679537296295166, -0.13370218873023987, -0.08542884886264801, 
0.10062523186206818, 0.08256474137306213, 0.04885218292474747, -0.1535934954881668, 0.04318688064813614, -0.05928734317421913, -0.11442351341247559, 
-0.34999051690101624, 0.11666372418403625, -0.010846367105841637, 0.09975369274616241, 0.19188517332077026, 0.19147633016109467, -0.09818609058856964, 
-0.03385476395487785, 0.032748207449913025, 0.13965584337711334, -0.052732184529304504, -0.05220133811235428, -0.041820790618658066, 0.2735638916492462, 
-0.026352932676672935, -0.20105327665805817, -0.28328466415405273, -0.10808169841766357, 0.12597721815109253, 0.12539489567279816, 0.22582565248012543, 
-0.014588096179068089, 0.10696560144424438, -0.0778595581650734, 0.014837912283837795, 0.07117065787315369, -0.05882657319307327, 0.22214920818805695, 
0.08995785564184189, -0.09096484631299973, -0.2241787314414978, -0.00686934869736433, 0.023177463561296463, -0.2900969982147217, 0.12458151578903198, 
0.04551136866211891, -0.15409623086452484, -0.022609028965234756, 0.19123432040214539, 0.10796144604682922, -0.15053418278694153, 0.22644096612930298, 
-0.016521504148840904, -0.2040514200925827, 0.08233103156089783, 0.15259109437465668, -0.08516446501016617, -0.2017306238412857, -0.1983029544353485, 
0.0703379288315773, 0.00990128330886364, -0.1645859181880951, 0.17894472181797028, -0.24907942116260529, -0.22991639375686646, 0.1664404273033142, 
-0.14938116073608398, 0.1707000583410263, 0.024356000125408173, -0.032715458422899246, 0.05712804198265076, -0.04904726520180702, 0.14185930788516998, 
-0.27288538217544556, -0.15644901990890503, 0.19710178673267365, -0.1918114870786667, -0.5757172703742981, -0.27481549978256226, 0.028775790706276894, 
0.10398055613040924, 0.34532928466796875, -0.17023885250091553, 0.13722647726535797, -0.10785876959562302, 0.04902685061097145, 0.3631271421909332, 
-0.18416236340999603, 0.45142486691474915, 0.10345055907964706, 0.3150208294391632, 0.4626927971839905, 0.13336996734142303, -0.23364734649658203, 
0.19255661964416504, -0.1376461237668991, 0.26928234100341797, 0.25489604473114014, -0.08489681035280228, -0.02949596382677555, 0.05320383608341217, 
-0.09573372453451157, -0.03367072716355324, -0.03902696073055267, 0.16823574900627136, -0.09413754194974899, 0.0759071335196495, 0.08145783096551895, 
0.12488182634115219, -0.1079922541975975, 0.0374148003757, -0.05351325497031212, -0.023937828838825226, 0.06632691621780396, 0.2776743769645691, 
0.04318508878350258, 0.10721854120492935, 0.06312943994998932, -0.06128522381186485, -0.02017901837825775, 0.00499667227268219, -0.11106935888528824, 
-0.02548513188958168, 0.14080356061458588, -0.05891621112823486, -0.007953643798828125, -0.011854233220219612, 0.04539612680673599, 0.1763862520456314, 
-0.1371772736310959, 0.13147850334644318, -0.07658390700817108, -0.09222236275672913, 0.13373978435993195, 0.07578945904970169, 0.035041820257902145, 
-0.07574141770601273, -0.018371470272541046, 0.15499034523963928, -0.01995622180402279, 0.0054968539625406265, -0.21373574435710907, 0.12783139944076538, 
0.07157213985919952, 0.07730714231729507, -0.014964116737246513, -0.05010601878166199, -0.22225956618785858, 0.05094131454825401, 0.016157250851392746, 
-0.031065884977579117, -0.19025284051895142, 0.09618058800697327, 0.011570094153285027, 0.028634030371904373, -0.01869051344692707, -0.014502530917525291, 
-0.09121644496917725, 0.02277522347867489, 0.05092911794781685, -0.08071489632129669, -0.016918208450078964, 0.03791708126664162, 0.11247453093528748, 
-0.08261656761169434, 0.016875995323061943, 0.018307358026504517, -0.0994599461555481, 0.05036909878253937, -0.1563756763935089, -0.039484601467847824, 
-0.09635138511657715, -0.03242829069495201, -0.1072210893034935, 0.05422690138220787, -0.23306193947792053, 0.07294674217700958, 0.02592645026743412, 
-0.07874204963445663, 0.04892124980688095, 0.04747985675930977, -0.04966824874281883, 0.08907892554998398, 0.03553116321563721, -0.05818742513656616, 
-0.12620683014392853, 0.0003302902332507074, 0.13279327750205994, 0.005929396953433752, 0.024600185453891754, 0.030850155279040337, -0.027866199612617493, 
0.1501307189464569, -0.1497536450624466, 0.16369186341762543, 0.04014729708433151, -0.16175542771816254, -0.11430429667234421, 0.06493775546550751, 
0.19751125574111938, 0.13792186975479126, 0.35263919830322266, 0.18616792559623718, -0.21823209524154663, -0.29358649253845215, 0.15717953443527222, 
0.07915987819433212, 0.1625605672597885, 0.056796081364154816, -0.007529651280492544, 0.06091994419693947, -0.2643163204193115, -0.3848012089729309, 
-0.12251608073711395, 0.040936216711997986, -0.035113267600536346, -0.28398776054382324, -0.08957695960998535, 0.17931416630744934, -0.04888341948390007, 
0.030169641599059105, -0.05254172161221504, -0.21635153889656067, 0.030103284865617752, -0.3084101974964142, -0.02294081076979637, 0.320524126291275, 
-0.010286410339176655, 0.05152921378612518, 0.03185054659843445, 0.04575764760375023, 0.06152356043457985, -0.00034183028037659824, -0.0028570902068167925, 
0.028263946995139122, -0.051128849387168884, -0.0005408634315244853, -0.08946776390075684, 0.03723471611738205, 0.041971251368522644, -0.04924187809228897, 
-0.06643407046794891, 0.19748398661613464, -0.010634012520313263, -0.1700328141450882, 0.23179104924201965, -0.07486077398061752, -0.009853133000433445, 
0.01260427013039589, -0.11497722566127777, -0.20744310319423676, -0.0005003258702345192, -0.11575765162706375, 0.012713857926428318, 0.010123061947524548, 
-0.04948405548930168, 0.24392789602279663, -0.19301427900791168, 0.20869895815849304, 0.03319970890879631, 0.2760913670063019, 0.40656670928001404, 
-0.2558063268661499, -0.07542620599269867, -0.5098016858100891, -0.02589591033756733, -0.1403960883617401, 0.09135270118713379, 0.3454839289188385, 
0.31920096278190613, 0.24932190775871277, 0.009608269669115543, -0.3921838104724884, -0.4038948118686676, -0.20010468363761902, -0.19870254397392273, 
0.26030677556991577, -0.2826325595378876, -0.41725781559944153, 0.5191875696182251, -0.43628403544425964, 0.0574573278427124, -0.39176124334335327, 
-0.3586132824420929, 0.24295619130134583, 0.3516717851161957, 0.10710255801677704, 0.4556516706943512, 0.11535491794347763, -0.47375166416168213, 
0.0013259961269795895, 0.07746642827987671, 0.0400366447865963, 0.31010162830352783, 0.08309813588857651, 0.022295329719781876, -0.33828336000442505, 
0.024651335552334785, 0.02581719309091568, 0.07764330506324768, 0.06080884486436844, 0.543509304523468, -0.01493874192237854, -0.004049581475555897, 
0.007768919691443443, -0.10563579946756363, -0.6770491003990173, 0.007892937399446964, -0.10879545658826828, -0.05136159807443619, -0.09401746839284897, 
0.32753732800483704, 0.10816413909196854, 0.023684855550527573, -0.22887960076332092, -0.1661945879459381, 0.1371205598115921, -0.08334449678659439, 
0.5007744431495667, 0.0366949699819088, -0.1301010549068451, 0.21124158799648285, -0.3207988440990448, 0.043489448726177216, 0.05513778701424599, 
0.0058616530150175095, 0.05251988768577576, -0.2278808057308197, 0.01730523444712162, 0.09875691682100296, 0.10924284160137177, 0.15132257342338562, 
-0.03196730092167854, -0.2323310822248459, 0.1253717690706253, -0.05746341869235039, -0.09133803844451904, -0.12095511704683304, 0.022901760414242744, 
-0.14862464368343353, 0.004111229442059994, -0.012843262404203415, -0.08405449241399765, -0.015138015151023865, 0.11158184707164764, 0.07963824272155762, 
-0.05695940554141998, 0.02841418981552124, -0.017998460680246353, 0.016796855255961418, -0.07044944912195206, 0.020344030112028122, -0.040247976779937744, 
0.0803314670920372, -0.028768572956323624, -0.08860792964696884, 0.10127420723438263, -0.08301710337400436, -0.09132937341928482, -0.20497536659240723, 
0.10224023461341858, -0.19196589291095734, -0.019302329048514366, -0.02390243485569954, 0.009725169278681278, 0.07652975618839264, -0.07515982538461685, 
-0.2503288984298706, 0.10167373716831207, 0.07151816040277481, -0.04052035138010979, 0.047832466661930084, 0.02924325503408909, -0.002730304840952158, 
-0.03710588067770004, -0.09571541845798492, 0.05771176889538765, 0.1219792291522026, -0.1192789077758789, 0.09948515892028809, -0.053875282406806946, 
0.005270997993648052, 0.17763148248195648, -0.1197623759508133, 0.07967998087406158, -0.17265380918979645, 0.18671520054340363, -0.0690237432718277, 
0.36594724655151367, 0.36641502380371094, -0.32408472895622253, -0.41551220417022705, -0.5592019557952881, -0.3165490925312042, -0.40482133626937866, 
0.28779342770576477, 0.38095200061798096, -0.12827624380588531, -0.10848037898540497, 0.1801440268754959, -0.16837310791015625, 0.16431580483913422, 
-0.47421738505363464, 0.1254783272743225, 0.2508836090564728, -0.26787248253822327, -0.359781950712204, 0.463238924741745, -0.042734790593385696, 
-0.0037012251559644938, -0.2330845445394516, 0.12383551895618439, 0.1849069446325302, 0.251853346824646, 0.050927888602018356, 0.22674936056137085, 
0.3719432055950165, -0.37306830286979675, -0.34807252883911133, -0.012374553829431534, -0.07649178802967072, 0.33902719616889954, 0.2443562000989914, 
0.020061466842889786, -0.45527419447898865, 0.056745875626802444, 0.008280015550553799, 0.03232448920607567, -0.09886066615581512, 0.5142458081245422, 
0.06434430927038193, 0.2634336054325104, 0.015860488638281822, 0.05472197011113167, -0.45241859555244446, 0.0066814967431128025, -0.020125608891248703, 
-0.09705578535795212, -0.10252293199300766, 0.4508163034915924, 0.19315823912620544, -0.08354009687900543, -0.2637525796890259, -0.31511589884757996, 
0.026824092492461205, 0.058769188821315765, 0.6859773397445679, -0.042139507830142975, -0.03299352526664734, 0.021617311984300613, -0.36909839510917664, 
0.008817609399557114, 0.20423255860805511, 0.4440474212169647, -0.07609827071428299, -0.48470717668533325, -0.35220906138420105, -0.13804271817207336, 
-0.08807053416967392, 0.15094761550426483, 0.3929253816604614, -0.2499406486749649, -0.1517469733953476, 0.05608236789703369, -0.030477292835712433, 
0.053085096180438995, -0.3993343710899353, -0.09627429395914078, 0.29660764336586, -0.023008406162261963, -0.1735975593328476, 0.0885830745100975, 
0.3495637774467468, 0.0940830260515213, -0.19211812317371368, 0.35813456773757935, 0.2845621109008789, 0.0220317505300045, 0.15484245121479034, 
-0.09558179974555969, 0.4711783826351166, -0.05248255655169487, -0.200988307595253, 0.06259489804506302, -0.1276768296957016, 0.08669456094503403, 
0.11381640285253525, -0.08027775585651398, -0.12454362213611603, -0.17674529552459717, -0.016386695206165314, -0.019492674618959427, -0.08075182884931564, 
0.026757696643471718, -0.03224734961986542, -0.14626763761043549, -0.055907782167196274, -0.03771037608385086, -0.20826105773448944, 0.04227588325738907, 
0.011126972734928131, 0.07329656183719635, 0.027767008170485497, 0.13813310861587524, 0.0042647141963243484, 0.11644437164068222, -0.047790709882974625, 
-0.08793869614601135, 0.10804334282875061, 0.07004541903734207, 0.21047739684581757, 0.02539260871708393, 0.05074385181069374, -0.07277210801839828, 
-0.058691464364528656, 0.08560846000909805, -0.2505170404911041, -0.10703261196613312, 0.1474718302488327, 0.06239554286003113, 0.19213071465492249, 
0.036427583545446396, 0.024399874731898308, -0.030017679557204247, -0.2885389029979706, -0.10801462084054947, -0.08434586971998215, 0.10640297085046768, 
0.2898823320865631, 0.15619134902954102, 0.2652489244937897, 0.06303529441356659, -0.2883632183074951, 0.12876322865486145, 0.37312108278274536, 
-0.2582198977470398, 0.1612267643213272, 0.0536947101354599, 0.1417088359594345, 0.12443453818559647, -0.12206783890724182, -0.3373218774795532, 
-0.17447493970394135, -0.3199254870414734, -0.18562321364879608, 0.3535807430744171, 0.20237542688846588, -0.0901675745844841, 0.12980638444423676, 
-0.23185724020004272, -0.09568348526954651, -0.14130383729934692, 0.2891126871109009, 0.13904070854187012, 0.002392167691141367, -0.1042291671037674, 
-0.15469270944595337, -0.429156631231308, 0.06519385427236557, 0.013972530141472816, 0.09317820519208908, 0.06071774661540985, 0.36688292026519775, 
-0.01329529657959938, 0.030223796144127846, 0.14445766806602478, -0.0006264696712605655, -0.23896650969982147, -0.0855482667684555, 0.06219420209527016, 
0.0850517600774765, 0.18560102581977844, -0.1413326859474182, -0.04378392919898033, -0.2923409640789032, 0.01966576837003231, 0.20116792619228363, 
-0.14770402014255524, 0.20746678113937378, -0.05504687875509262, -0.27526506781578064, -0.46524208784103394, -0.0331403985619545, 0.48775020241737366, 
0.07679587602615356, 0.19249460101127625, 0.3396187424659729, -0.18631227314472198, -0.32932358980178833, 0.4640016257762909, 0.045977793633937836, 
-0.023180192336440086, 0.0718320831656456, -0.1566733717918396, 0.39504578709602356, -0.008270617574453354, -0.17451904714107513, -0.15279026329517365, 
0.0022385278716683388, 0.1788632720708847, -0.3525499403476715, -0.06108782812952995, -0.13208067417144775, -0.3407348692417145, -0.1575319468975067, 
0.14009875059127808, -0.11963430047035217, 0.11890173703432083, -0.5649136900901794, -0.18006524443626404, 0.3381524682044983, -0.04493255913257599, 
0.05211278051137924, -0.10509666055440903, 0.09093280136585236, -0.02775482088327408, 0.12589605152606964, -0.029941774904727936, -0.06478095799684525, 
0.022609233856201172, -0.0066016726195812225, -0.019229015335440636, 0.09928452968597412, 0.06268425285816193, 0.04626764729619026, -0.12958084046840668, 
0.15927772223949432, -0.044870734214782715, 0.019568730145692825, -0.10021793097257614, -0.07463210076093674, 0.06734014302492142, -0.09476745873689651, 
-0.06185184791684151, 0.009089984931051731, -0.0013311529764905572, -0.1322077363729477, -0.08263760805130005, -0.2379152923822403, 0.0468590222299099, 
-0.09511953592300415, 0.17217175662517548, 0.14612042903900146, 0.18284521996974945, -0.16906826198101044, 0.17880956828594208, 0.1594696193933487, 
-0.17917975783348083, 0.0813603550195694, 0.11240056902170181, 0.14444157481193542, -0.023910557851195335, -0.0529475063085556, -0.3747880458831787, 
0.005328044295310974, -0.04729046672582626, 0.03993882238864899, 0.15795333683490753, -0.12947386503219604, -0.060651298612356186, -0.05115402489900589, 
-0.004410062450915575, 0.033180080354213715, -0.056979116052389145, 0.17533883452415466, -0.14768503606319427, 0.04209918901324272, 0.22641614079475403, 
-0.03142556548118591, -0.22669172286987305, 0.02911056950688362, -0.02899361588060856, 0.10011503100395203, -0.0025927384849637747, -0.06929420679807663, 
-0.05351449176669121, -0.09968899190425873, -0.039965879172086716, 0.05851583182811737, -0.034031473100185394, 0.02076592482626438, -0.039620500057935715, 
-0.004534787032753229, 0.06085492670536041, -0.10938151180744171, -0.11199533194303513, 0.08447995036840439, 0.032718442380428314, 0.0818350613117218, 
0.07796204835176468, 0.026004744693636894, 0.0013576644705608487, 0.0026327455416321754, 0.04322004318237305, 0.09851245582103729, 0.08264721184968948, 
-0.04555639624595642, -0.06250060349702835, 0.09053108841180801, 0.08260292559862137, -0.027032624930143356, -0.07533062249422073, -0.09857296943664551, 
-0.11168806999921799, 0.12012219429016113, -0.24521404504776, 0.13144023716449738, 0.02962140366435051, -0.3397780954837799, -0.3173319101333618, 
0.015747880563139915, 0.49675253033638, 0.21609126031398773, 0.14796790480613708, 0.21741825342178345, -0.2817748188972473, -0.29910939931869507, 
0.3261496424674988, -0.02388712950050831, -0.08470097929239273, 0.17232535779476166, -0.1503579020500183, 0.341440349817276, 0.06989704072475433, 
-0.15603280067443848, 0.05591791495680809, -0.019366756081581116, 0.1419358104467392, -0.21900565922260284, 0.010235701687633991, 0.11985601484775543, 
-0.2753651738166809, -0.3137269616127014, -0.12336770445108414, -0.20264433324337006, -0.006088961381465197, -0.5286500453948975, -0.08644823729991913, 
0.2859917879104614, 0.1318771243095398, -0.04799972102046013, 0.03319188579916954, -0.0867089107632637, -0.0945243090391159, 0.16894373297691345, 
-0.03728771582245827, 0.1105346530675888, 0.0569721981883049, 0.0186032485216856, -0.037146471440792084, -0.053091514855623245, 0.13432304561138153, 
-0.006010119337588549, 0.015112320892512798, 0.09026305377483368, 0.020499074831604958, 0.009723816066980362, -0.15086092054843903, -0.0386291928589344, 
-0.13968798518180847, 0.07560084760189056, -0.11752242594957352, -0.09384696185588837, 0.16087044775485992, -0.04333154857158661, 0.0006478080176748335, 
-0.24844983220100403, -0.006146801635622978, -0.0865614265203476, 0.04534764587879181, 0.13938742876052856, -0.09485362470149994, 0.26007217168807983, 
0.4870700538158417, -0.47329628467559814, -0.2620939314365387, -0.4898689389228821, 0.020448479801416397, -0.08185018599033356, 0.0672244131565094, 
0.45723167061805725, 0.23327414691448212, 0.510737419128418, 0.09017579257488251, -0.447876513004303, -0.4068313241004944, -0.4101448059082031, 
-0.1913454532623291, 0.17721742391586304, -0.4416449964046478, -0.5173220634460449, 0.6262668967247009, -0.5191835761070251, -0.10355650633573532, 
-0.3967691957950592, -0.13552291691303253, 0.1556493639945984, 0.4564642012119293, 0.06259765475988388, 0.41858187317848206, 0.223702535033226, 
-0.6558088660240173, 0.04853479191660881, 0.0004072155279573053, -0.08866802603006363, 0.3614136278629303, 0.36647990345954895, 0.0016231231857091188, 
-0.4415193498134613, -0.14180630445480347, -0.027767984196543694, -0.03679270297288895, -0.035532280802726746, 0.45743808150291443, -0.014250388368964195, 
0.18017929792404175, -0.005156560335308313, -0.02568819187581539, -0.4903758764266968, -0.1250203251838684, -0.13261307775974274, -0.12969718873500824, 
0.04402357339859009, 0.246561661362648, 0.11867182701826096, -0.0062671019695699215, -0.30204081535339355, -0.16412222385406494, -0.07403326034545898, 
0.031122254207730293, 0.47680822014808655, 0.010710759088397026, -0.13137894868850708, 0.2688697278499603, -0.5852584838867188, -0.08754561841487885, 
-0.1409486085176468, -0.09940461069345474, -0.15588001906871796, 0.16723278164863586, -0.04006340354681015, 0.23280732333660126, 0.2150949239730835, 
-0.0505131259560585, -0.09804943948984146, 0.5602557063102722, 0.35458287596702576, 0.03227725252509117, -0.3193480968475342, -0.34446102380752563, 
0.18753011524677277, -0.22611385583877563, -0.13239875435829163, -0.2433858960866928, -0.3953041136264801, 0.20920875668525696, -0.3691129684448242, 
-0.03180079534649849, -0.30027204751968384, -0.44183921813964844, -0.08907561749219894, 0.1761549860239029, -0.13104963302612305, 0.22054234147071838, 
-0.3405654728412628, -0.4003908634185791, 0.19073466956615448, -0.06612516939640045, -0.03871483355760574, -0.03559930995106697, -0.04843565821647644, 
-0.12559226155281067, 0.022203518077731133, 0.057351913303136826, -0.05853625014424324, -0.009475667960941792, 0.13253110647201538, 0.18886631727218628, 
0.08290179073810577, -0.14892593026161194, 0.017602020874619484, 0.0018484760075807571, -0.1330263465642929, -0.08929313719272614, 0.0571524053812027, 
0.16440929472446442, -0.07237697392702103, 0.05372939258813858, 0.06427541375160217, -0.12544755637645721, 0.11293603479862213, -0.15376673638820648, 
0.020596785470843315, 0.004040790721774101, 0.08346030861139297, -0.1042567566037178, 0.006760409101843834, 0.04954862222075462, -0.09324266761541367, 
-0.148254856467247, 0.23599642515182495, 0.2244950383901596, -0.24055448174476624, -0.2910448908805847, -0.4767194092273712, -0.005306736566126347, 
-0.20328722894191742, 0.22727176547050476, 0.4952488839626312, 0.255494087934494, 0.23582731187343597, 0.11010987311601639, -0.32488498091697693, 
-0.24978384375572205, -0.2762521207332611, 0.12181930989027023, 0.36486950516700745, -0.04488234966993332, -0.2369115948677063, 0.2624287009239197, 
-0.08389915525913239, -0.0629802867770195, -0.44661256670951843, -0.19981971383094788, 0.17173431813716888, 0.4446212351322174, 0.18718338012695312, 
0.2394062578678131, 0.2313230037689209, -0.2349044680595398, -0.17903640866279602, 0.04731734097003937, -0.06547977030277252, 0.1752416491508484, 
0.048347339034080505, 0.09599325805902481, -0.4304211735725403, 0.024911008775234222, 0.03604812175035477, 0.027449598535895348, -0.053103454411029816, 
0.47477105259895325, -0.056282561272382736, 0.11109627783298492, 0.05375690013170242, -0.10840028524398804, -0.5148578882217407, -0.05571325123310089, 
-0.06726007908582687, -0.13537393510341644, 0.08150719106197357, 0.12996670603752136, 0.08771239221096039, 0.04932781681418419, -0.09096521884202957, 
-0.1488739550113678, -0.01882111094892025, -0.0804704874753952, 0.47293728590011597, 0.11638227105140686, -0.15359538793563843, 0.26053908467292786, 
-0.4026205539703369, 0.13347885012626648, -0.027304580435156822, -0.00819406658411026, 0.11867037415504456, -0.03796720132231712, 0.2809317708015442, 
0.02325206622481346, 0.00536801153793931, 0.08842453360557556, -0.26765573024749756, -0.3742007315158844, -0.24981021881103516, 0.035088054835796356, 
0.2040145993232727, 0.15559972822666168, 0.10393287241458893, 0.13566504418849945, -0.0757201537489891, 0.07499993592500687, 0.3326529860496521, 
-0.3384811282157898, 0.19064541161060333, -0.09087252616882324, 0.0775008499622345, 0.24040724337100983, 0.10927785187959671, -0.3157311677932739, 
-0.07865789532661438, -0.2511609196662903, 0.12313851714134216, 0.10922511667013168, 0.06975743919610977, 0.05719086527824402, -0.05012447014451027, 
-0.057020142674446106, -0.048457227647304535, -0.07155117392539978, 0.3055146336555481, 0.040568653494119644, 0.0892312303185463, -0.02594701200723648, 
-0.10230784118175507, -0.2771741449832916, -0.02813040278851986, -0.018023069947957993, 0.09538159519433975, -0.07079502940177917, 0.28633683919906616, 
0.126535564661026, -0.020581994205713272, 0.1877082735300064, 0.1333879977464676, -0.15674905478954315, -0.03430686518549919, -0.014380074106156826, 
0.08950935304164886, 0.14331667125225067, 0.022882362827658653, -0.0045685917139053345, -0.19976085424423218, -0.030871443450450897, -0.007243757136166096, 
-0.06246998533606529, 0.3243273198604584};

#endif

#endif
