0.167946919798851, -0.24086607992649078, -0.02811736799776554, 0.13444067537784576, -0.3056832253932953, -0.43042606115341187, 0.4901295304298401, -0.285586953163147, -0.22543108463287354, -0.016075188294053078, -0.28132665157318115, -0.10436821728944778, 0.2850171625614166, -0.28781184554100037, 0.06575263291597366, -0.437323659658432, 0.2610870599746704, -0.05056047439575195, -0.027898570522665977, 0.35557451844215393, 0.16549542546272278, 0.2496737390756607, -0.2195601910352707, 0.32478204369544983, 0.3043927848339081, 0.12910211086273193, -0.27838873863220215, 0.11355471611022949, -0.20828598737716675, 0.44073739647865295, -0.14819154143333435, 0.03884008154273033, -0.1576235443353653, 0.16030104458332062, -0.3765285313129425, 0.13577549159526825, 0.020065873861312866, -0.06253093481063843, -0.14093811810016632, 0.11166822165250778, -0.13491974771022797, -0.21120448410511017, 0.12165625393390656, 0.2391122728586197, -0.24131515622138977, -0.02415638603270054, -0.3288561701774597, -0.29766637086868286, -0.08280813694000244, 0.2597036063671112, -0.0014300625771284103, 0.15372778475284576, 0.13642214238643646, 0.013938146643340588, -0.33622458577156067, 0.2692362070083618, 0.05929213762283325, -0.29576051235198975, -0.34037697315216064, 0.2794239819049835, -0.3227287530899048, 0.1709156632423401, -0.16345663368701935, -0.3211721181869507, 0.21452012658119202, 0.25878751277923584, 0.2597896158695221, -0.10659853368997574, -0.2542094886302948, -0.03849262371659279, -0.19368669390678406, 0.3475301265716553, 0.19711242616176605, -0.15288911759853363, 0.24074962735176086, -0.481931209564209, 0.08227250725030899, -0.04089067503809929, 0.9848644137382507, -0.16365323960781097, 0.0009490634547546506, -0.3949742913246155, -0.1616949439048767, -0.0690971240401268, 0.5881141424179077, -0.07775099575519562, -0.17087361216545105, -0.28198981285095215, 0.07740874588489532, -0.46814894676208496, -0.9622299671173096, 0.015435575507581234, -0.10281452536582947, 0.15102200210094452, 0.04504729062318802, -0.09590993821620941, 0.2659437358379364, -0.21962790191173553, -0.05572129413485527, -0.23051860928535461, -0.21984387934207916, 0.3254581093788147, 0.18189431726932526, 0.016023239120841026, -0.08366260677576065, -0.21591819822788239, -0.16756495833396912, 0.04294009134173393, 0.0781511440873146, 0.0850403755903244, -0.0929345116019249, 0.17030124366283417, 0.28018325567245483, -0.03546136990189552, -0.11559886485338211, 0.03937211632728577, 0.08044957369565964, 0.20437656342983246, 0.054403387010097504, -0.03491315245628357, -0.27369463443756104, 0.2992454171180725, -0.15121713280677795, 0.2699906826019287, 0.2754534184932709, 0.3130653500556946, -0.19603250920772552, 0.21825799345970154, 0.12388131767511368, -0.3042278289794922, 0.02520289272069931, 0.3966064453125, -0.11616255342960358, -0.1710149198770523, 0.24073830246925354, -0.2614452540874481, 0.08943213522434235, 0.4625937342643738, -0.06174091622233391, 1.3903547525405884, 0.10656409710645676, 0.04063362255692482, -0.05343788117170334, 0.6344971060752869, -0.34492260217666626, 1.3425323963165283, 0.12673990428447723, 0.15997888147830963, -0.058690495789051056, -0.22123515605926514, 0.1514265537261963, -0.36848515272140503, 0.47063106298446655, 0.1259675920009613, 0.08249055594205856, -0.04693804308772087, 0.13478142023086548, -0.05521851405501366, 0.1362464874982834, 0.11187752336263657, 0.2368396520614624, 0.35274213552474976, 0.34328213334083557, -0.29446277022361755, 0.39401233196258545, 0.05281154438853264, 0.005676758009940386, 0.569500744342804, 0.039564549922943115, 0.23337720334529877, -0.2469002902507782, -0.14020946621894836, -0.020833667367696762, 0.37294867634773254, 0.09814634919166565, 0.1889181286096573, 0.2988387942314148, -0.11696366965770721, -0.06687571853399277, 0.29139187932014465, 0.2743626832962036, 0.16396352648735046, -0.0044332146644592285, -0.15358366072177887, 0.2728654444217682, -0.2240462601184845, -0.2339550405740738, -0.36862218379974365, -0.30774909257888794, -0.1483125537633896, 1.1353461742401123, -0.18975228071212769, 0.08624758571386337, 0.023328077048063278, -0.060536086559295654, 0.2043975442647934, -0.25540241599082947, -0.033345047384500504, 0.20760878920555115, 0.10396555811166763, 0.006689511239528656, -0.0048794518224895, 0.0688697099685669, 0.10909216850996017, 0.082743801176548, -0.04555041715502739, 0.2783443033695221, 0.011080850847065449, -0.0003418580745346844, 0.1669943928718567, -0.072330541908741, 0.1806023269891739, 0.07279086112976074, -0.012687383219599724, 0.05870535597205162, 0.002911793300881982, -0.008946788497269154, 0.034526076167821884, -0.16403363645076752, 0.017672831192612648, 0.14773336052894592, 0.09011434763669968, -0.03425593674182892, 0.17290771007537842, 0.12106669694185257, 0.06284759938716888, 0.0012345780851319432, 0.03532516583800316, 0.025984006002545357, 0.05748535320162773, 0.08326061815023422, 0.06421104818582535, -0.0752624124288559, -0.13194556534290314, -0.1653943955898285, 0.08202188462018967, 0.026168035343289375, -0.022890089079737663, -0.07775665819644928, -0.0394890271127224, 0.028644753620028496, -0.1138518825173378, -0.0584980733692646, 0.022726472467184067, 0.11564678698778152, 0.23753789067268372, -0.0010366298956796527, 0.027453847229480743, 0.0855262279510498, -0.12274526059627533, -0.009228498674929142, 0.10289488732814789, -0.22470100224018097, 0.010818902403116226, 0.1594454050064087, 0.04823199287056923, -0.20265373587608337, -0.13359887897968292, -0.052931204438209534, -0.09770657867193222, 0.264534056186676, -0.1238318607211113, -0.026129351928830147, -0.7489585876464844, -0.09234020113945007, 0.018555356189608574, -0.0333431139588356, -0.029437756165862083, 0.010995127260684967, 0.08560973405838013, 0.056430522352457047, -0.03594385087490082, 0.05590745806694031, 0.007764710113406181, -0.04143502935767174, 0.15443019568920135, -0.1188761293888092, 0.3613281548023224, 0.2993970513343811, -0.2182096242904663, 0.4181510806083679, 0.00925491377711296, 0.0736766904592514, 0.029879797250032425, -0.055397436022758484, -0.11121087521314621, -0.046232178807258606, -0.007572351023554802, -0.435484379529953, -0.002492660889402032, 0.017888611182570457, 0.19632717967033386, 0.1429252028465271, -0.026569169014692307, -0.18032363057136536, 0.2605752646923065, 0.10492698103189468, -0.002447726670652628, 0.0912875309586525, -0.22659459710121155, -0.3708684742450714, 0.3835490643978119, 0.18866118788719177, -0.06771743297576904, -0.4026225805282593, 0.18191254138946533, -0.04776424914598465, 0.026728594675660133, -0.19274184107780457, -0.11020313948392868, -0.44183415174484253, 0.22017048299312592, 0.2103535383939743, -0.050373855978250504, -0.0767168402671814, 0.09011664986610413, -0.09930551052093506, -0.08011088520288467, -0.04293699935078621, -0.07600349187850952, -0.0008222952601499856, 0.08133131265640259, -0.06031583249568939, 0.05160704627633095, 0.06101412698626518, 0.003752955934032798, -0.09040722250938416, 0.029911458492279053, 0.10002775490283966, -0.027327761054039, 0.06311361491680145, 0.07297734171152115, -0.09631006419658661, 0.02900945208966732, 0.11991458386182785, -0.046133290976285934, -0.02847445011138916, 0.05646837130188942, -0.003945005126297474, -0.07340437918901443, 0.09218485653400421, 0.014814297668635845, -0.1059839054942131, 0.04458170756697655, -0.044961825013160706, -0.10504120588302612, -0.11900506168603897, -0.04983805492520332, 0.1195286437869072, 0.04743877798318863, 0.011245360597968102, -0.006849372293800116, 0.019293401390314102, -0.01796138659119606, 0.035519782453775406, -0.005345871672034264, 0.026466956362128258, 0.058001164346933365, 0.06483399122953415, -0.06123577430844307, 0.023579083383083344, -0.04770134016871452, -0.14089129865169525, 0.008859661407768726, 0.095941461622715, 0.03677061200141907, 0.10205953568220139, -0.0965380147099495, 0.027301950380206108, -0.062474574893713, -0.04705037176609039, 0.028074437752366066, 0.04602551460266113, 0.057323478162288666, -0.008914499543607235, -0.10242622345685959, 0.02130213938653469, 0.04965201020240784, 0.04477484151721001, 0.06722189486026764, 0.01770324446260929, 0.030875416472554207, 0.10971985012292862, 0.12980279326438904, -0.18837732076644897, -0.21293489634990692, -0.3381798565387726, -0.05336993560194969, 0.06379713118076324, -0.18187493085861206, 0.09198194742202759, -0.37294891476631165, -0.026831233873963356, -0.13563498854637146, -0.1116260439157486, 0.0500308983027935, -0.022820089012384415, 0.02202872931957245, -0.10779047757387161, 0.09865676611661911, 0.21394456923007965, 0.10218904167413712, 0.3158947229385376, 0.20734912157058716, -0.38219186663627625, 0.1828262060880661, 0.15274909138679504, 0.0586903877556324, 0.22437092661857605, 0.4418734312057495, 0.19695571064949036, -0.007413673680275679, 0.029764533042907715, 0.04637882485985756, 0.09528928250074387, -0.18890029191970825, -0.20713798701763153, 0.09630104154348373, -0.18450042605400085, 0.07648458331823349, 0.014922959730029106, -0.22592660784721375, -0.0638311579823494, 0.0235351100564003, -0.08960539102554321, 0.19828011095523834, 0.1718510240316391, -0.1908266544342041, -0.025540221482515335, -0.10390178859233856, 0.0840023010969162, -0.33895063400268555, -0.2568589746952057, 0.032215286046266556, 0.3982895016670227, -0.09782581031322479, -0.23229184746742249, -0.08669865131378174, -0.18333931267261505, 0.16311682760715485, 0.5650051832199097, -0.3208710849285126, -0.002611675765365362, -0.07509175688028336, -0.14798055589199066, -0.23849335312843323, 0.00630731089040637, -0.20548005402088165, 0.35851138830184937, -0.6570786237716675, -0.025665652006864548, 0.46369752287864685, -0.7437517046928406, -0.9685232639312744, 0.7977838516235352, -0.32286956906318665, -0.46543845534324646, 0.32829490303993225, -0.8176981210708618, 0.39341118931770325, 0.9348576068878174, -0.6225073337554932, 0.41415897011756897, -0.42212948203086853, 0.4056966304779053, 0.6603599786758423, 0.10940783470869064, 0.5976365208625793, -0.059786707162857056, 0.46544986963272095, -0.17421962320804596, 0.6989568471908569, 0.5727570056915283, 0.32674098014831543, -0.5470174551010132, 0.24167926609516144, -0.26269277930259705, 0.6564486026763916, -0.39094141125679016, 0.15625815093517303, -0.29930293560028076, 0.32538285851478577, -0.8639983534812927, 0.6126660108566284, 0.07876655459403992, -0.19516398012638092, -0.36166486144065857, 0.21362759172916412, -0.01545196957886219, -0.03826415166258812, 0.18728435039520264, 0.6504302620887756, -0.5977338552474976, 0.22411343455314636, -0.8893948197364807, -0.4618838429450989, -0.23910875618457794, 0.43199869990348816, 0.002527513075619936, 0.28716912865638733, 0.3495265245437622, -0.20500198006629944, -0.7537770867347717, 0.8140459060668945, 0.11959514021873474, -0.8732473850250244, -0.7663586139678955, 0.1512213945388794, -0.49657949805259705, -0.015154087916016579, -0.1958204209804535, -0.8730475306510925, 0.0871080532670021, 0.07787609845399857, 0.044580526649951935, 0.07682085037231445, -0.004298047162592411, 0.04973297566175461, -0.013943450525403023, 0.10259420424699783, 0.061869099736213684, 0.004719723016023636, 0.04580235853791237, -0.03807215765118599, -0.1005685105919838, 0.00610682787373662, 0.028705080971121788, -0.03321303799748421, -0.10085178911685944, -0.02206619642674923, -0.11149808019399643, 0.0492008738219738, 0.011090770363807678, -0.02152666263282299, 0.0412881039083004, 0.009379616007208824, -0.1313977688550949, -0.14204947650432587, 0.005463893059641123, 0.03342742100358009, -0.06597545742988586, -0.005611005239188671, -0.13862018287181854, -0.028352703899145126, 0.06522590667009354, -0.07880017906427383, 0.1311851143836975, -0.007720165885984898, -0.08484107255935669, 0.061363376677036285, 0.07374139875173569, 0.031248953193426132, 0.11268878728151321, -0.12725520133972168, -0.022493738681077957, -0.011478709056973457, 0.03921390324831009, 0.011984164826571941, 0.0618269145488739, 0.09400179237127304, 0.010533123277127743, 0.08027318865060806, -0.16844719648361206, 0.048868317157030106, 0.07004709541797638, 0.017037712037563324, 0.10521137714385986, -0.0678415596485138, -0.024532321840524673, 0.1326454132795334, 0.06931322067975998, 0.04077467694878578, 0.027126792818307877, -0.056271862238645554, -0.125991091132164, 0.13936085999011993, -0.12708653509616852, 0.03730756789445877, -0.005786931607872248, -0.11483312398195267, 0.07178707420825958, 0.01873197965323925, 0.21763959527015686, 0.03316924348473549, -0.048873476684093475, -0.213309183716774, -0.18031339347362518, -0.10530160367488861, 0.23481571674346924, -0.10237838327884674, 0.11546101421117783, -0.07684250175952911, 0.3139304518699646, -0.1006259098649025, -0.03064149245619774, 0.224760964512825, 0.09083230793476105, 0.2161647081375122, -0.17393085360527039, 0.2904126048088074, 0.07106578350067139, -0.045163679867982864, -0.15671825408935547, 0.043422915041446686, -0.13197755813598633, 0.32700756192207336, -0.06033080443739891, 0.03342032432556152, -0.08943620324134827, 0.23037166893482208, -0.2915797829627991, 0.366656631231308, -0.23425079882144928, -0.0774180144071579, 0.055003050714731216, -0.01934218220412731, -0.08046548068523407, 0.18666641414165497, 0.15725213289260864, 0.25153523683547974, -0.22320355474948883, -0.17344821989536285, 0.09242213517427444, -0.18737845122814178, -0.1751847267150879, -0.0069009107537567616, 0.21360266208648682, -0.04380161315202713, -0.14157909154891968, 0.10610587894916534, -0.18790671229362488, 0.16805016994476318, -0.13726861774921417, -0.0688847154378891, -0.4115520715713501, -0.13975651562213898, 0.18105342984199524, 0.24384012818336487, -0.2363218516111374, -0.06590709090232849, 0.008691469207406044, 0.3446790277957916, -0.22319942712783813, -0.19446152448654175, -0.30006924271583557, -0.06568785756826401, 0.38355034589767456, 0.3977678418159485, 0.558462917804718, -0.20581161975860596, 0.14403463900089264, 0.06740240752696991, -0.058906879276037216, 0.551082193851471, 0.3773001432418823, 0.19248151779174805, 0.004201664123684168, -0.03236870840191841, 0.47676950693130493, 0.18321366608142853, 0.2721673846244812, -0.4042944312095642, -0.5618001222610474, -0.3362158536911011, 0.020983580499887466, 0.05270381644368172, -0.4461075961589813, -0.6585078239440918, 0.319326788187027, 0.43344247341156006, 0.6263687014579773, 0.3292008340358734, 0.4408482313156128, 0.3871474266052246, -0.15822920203208923, -0.3168644905090332, -0.02258649468421936, -0.08049297332763672, 0.5756683349609375, -0.46837300062179565, -0.5429986119270325, -0.05728146806359291, -0.3279210031032562, 0.35369792580604553, 0.24272368848323822, -0.1695980727672577, 0.3238038122653961, -0.07457449287176132, 0.24628935754299164, -0.5711266398429871, 0.32744070887565613, -0.5865305066108704, -0.053323280066251755, 0.5567833781242371, 0.1423354595899582, 0.2746891975402832, 0.06466753035783768, -0.18242061138153076, -0.22506311535835266, -0.09454507380723953, 0.4951538145542145, 0.11551517993211746, 0.3566906750202179, 0.11905252933502197, 0.024456089362502098, -0.06003180146217346, -0.12315711379051208, 0.11049383878707886, -0.06885328143835068, -0.11902822554111481, 0.2138891965150833, 0.09711785614490509, 0.1392519474029541, 0.07011402398347855, -0.08615267276763916, 0.4860509932041168, 0.24091021716594696, 0.07332223653793335, 0.3940310478210449, 0.40573596954345703, 0.0053717754781246185, 0.3470905125141144, 0.2693280875682831, -0.10739707946777344, -0.012955063953995705, -0.08835244178771973, -0.23277388513088226, -0.11351939290761948, 0.21737003326416016, 0.1412322223186493, -0.27632349729537964, -0.20712511241436005, 0.24710257351398468, 0.15749254822731018, 0.17250829935073853, 0.1363413780927658, 0.11078868061304092, 0.23435409367084503, -0.018918124958872795, -0.10993622243404388, 0.10983193665742874, -0.018394555896520615, 0.2336740791797638, 0.08607468754053116, -0.20353451371192932, 0.18310469388961792, -0.37666386365890503, 0.01572967879474163, -0.10644540190696716, 0.2539602816104889, 0.05736517533659935, -0.004196991212666035, 0.06293999403715134, -0.21252162754535675, 0.09232475608587265, 0.011942971497774124, 0.0944954976439476, 0.33066311478614807, -0.01565546914935112, 0.1183595061302185, 0.40207552909851074, -0.1947479099035263, -0.26024380326271057, -0.2830321192741394, -0.1853695809841156, -0.26781556010246277, 0.2176707684993744, -0.14524471759796143, 0.0496356301009655, -0.09496644139289856, -0.020555920898914337, 0.01270721759647131, 0.12422066926956177, -0.0782129168510437, 0.05677157640457153, -0.08326378464698792, -0.00295982020907104, -0.03833011910319328, -0.0432109534740448, -0.251974880695343, -0.007680431939661503, 0.17877866327762604, 0.24057702720165253, -0.30406898260116577, -0.10547172278165817, -0.24165375530719757, -0.03477633371949196, -0.005088570062071085, 0.11891920119524002, -0.023746687918901443, 0.08175945281982422, -0.14872495830059052, 0.053547170013189316, -0.1860325038433075, -0.3742826581001282, -0.14262591302394867, -0.055801037698984146, -0.1730804592370987, 0.14875034987926483, 0.09552085399627686, -0.11361927539110184, -0.0716400295495987, -0.08353077620267868, -0.14128467440605164, 0.10317504405975342, 0.18367993831634521, 0.05491435155272484, 0.05530170351266861, 0.12055739760398865, -0.06776344776153564, -0.03532671183347702, -0.14151012897491455, 0.06102150306105614, 0.06868919730186462, -0.07105400413274765, 0.02616419456899166, 0.04867333546280861, -0.03303349018096924, -0.03289275988936424, 0.33104419708251953, -0.11938021332025528, -0.03593071922659874, -0.15263156592845917, -0.06650374829769135, -0.19710250198841095, 0.03305204585194588, -0.01316046342253685, 0.2888343334197998, -0.16090716421604156, 0.019490918144583702, -0.22785086929798126, -0.16135558485984802, -0.107408307492733, -0.29026511311531067, -0.3515584170818329, -0.08013913035392761, -0.1058807373046875, -0.0025889764074236155, 0.11815140396356583, 0.32691359519958496, 0.01446888130158186, -0.1201399490237236, -0.13875824213027954, 0.35917872190475464, 0.054937589913606644, -0.006555345840752125, -0.4108152389526367, 0.5771175622940063, 0.2846182584762573, 0.34399673342704773, 0.3215072751045227, -0.12497855722904205, -0.18430951237678528, 0.09034226089715958, 0.13654255867004395, 0.1834162473678589, -0.2002306878566742, 0.3424626290798187, 0.47314131259918213, -0.13833996653556824, 0.01634150929749012, 0.13975311815738678, 0.09443240612745285, -0.045896414667367935, 0.11687759310007095, 0.39975646138191223, -0.27270206809043884, 0.1658514440059662, -0.1397911012172699, -0.541645884513855, -0.10096924751996994, -0.19740654528141022, -0.1109653115272522, 0.4716262221336365, 0.07167389243841171, 0.19966299831867218, -0.15081839263439178, -0.3901459574699402, -0.05020909756422043, -0.23146000504493713, -0.08050964027643204, 0.014283784665167332, 0.46010521054267883, -0.36166781187057495, -0.22065463662147522, -0.06913973391056061, -0.18118232488632202, 0.3880932331085205, 0.08461754769086838, -0.27625784277915955, -0.08378579467535019, -0.5537594556808472, 0.1781071275472641, -0.2620438039302826, 0.024426698684692383, -0.12592965364456177, 0.10617882758378983, -0.13667334616184235, 0.31374087929725647, -0.04455892741680145, -0.45245152711868286, -0.441133588552475, 0.30388128757476807, -0.001306768972426653, 0.058891698718070984, -0.04547855257987976, -0.4182339012622833, 0.016159260645508766, 0.4803023636341095, -0.3092956840991974, 1.5469409227371216, -0.03531908988952637, 0.5548927783966064, -0.004632028751075268, -0.042893245816230774, 0.004217862151563168, 0.8058748245239258, 0.1745525747537613, -0.32646840810775757, -0.19130241870880127, 0.5233032703399658, -0.49924901127815247, -1.8761178255081177, -0.1605815440416336, -0.14493942260742188, 0.7045201063156128, -0.01891479454934597, 0.03806355223059654, 0.10319532454013824, 0.3520496189594269, -0.4395510256290436, 0.2205546349287033, -0.12236595153808594, 0.4114947021007538, -0.04292740300297737, -0.2029058188199997, -0.27538174390792847, 0.1581101417541504, -0.016360579058527946, 0.576350212097168, -0.2577182948589325, 0.09006597846746445, -0.42200982570648193, -0.23704595863819122, 0.025791652500629425, 0.05835798755288124, -0.02403789944946766, -0.43012866377830505, -0.01772206276655197, 0.15928305685520172, -0.5309175252914429, 0.42704305052757263, -0.15856599807739258, -0.36444535851478577, -0.32362040877342224, -0.1448034942150116, 0.2897416651248932, 0.5842031836509705, -0.18293829262256622, -0.27383360266685486, -0.07061076164245605, 0.3281077742576599, 0.250588983297348, -0.007618017960339785, 0.3985756039619446, 0.937856912612915, -0.7671071290969849, -0.11271759867668152, -0.1683288812637329, -0.032803915441036224, 0.4778524935245514, -0.3995542824268341, -0.796080470085144, -0.017375119030475616, -0.6318259835243225, -0.004935968201607466, -0.25307613611221313, -0.3975948095321655, -0.31012046337127686, -0.7139353156089783, -0.020158231258392334, -0.20732402801513672, 0.7909338474273682, -0.04849177226424217, -0.3746367394924164, -0.026242412626743317, 0.8929450511932373, 0.37537887692451477, -0.22543099522590637, -0.9144688844680786, -0.34421277046203613, -0.5712829232215881, 0.042998991906642914, -0.6982929110527039, 0.5780699253082275, -0.26361173391342163, 0.07587505877017975, 0.07284267246723175, -0.2611125409603119, 0.2523196041584015, 0.5485226511955261, 0.3861219882965088, 0.13003477454185486, -0.759242832660675, -0.08723420649766922, 0.11490196734666824, 0.28328749537467957, 0.390423983335495, 0.1666892021894455, 0.15670812129974365, -0.17773324251174927, 0.5420531034469604, 0.09902714937925339, -0.4098087549209595, 0.030026542022824287, -0.4885703921318054, 0.518571138381958, 0.647428572177887, 1.0289225578308105, -0.19462601840496063, -0.22682347893714905, 0.11871770024299622, -0.19713890552520752, 0.32752442359924316, -0.0566248744726181, -0.025287410244345665, 0.1969185769557953, 0.18218590319156647, -0.05000755563378334, -0.3307620584964752, 0.14392203092575073, -0.2513246536254883, 0.0859779343008995, -0.008484548889100552, 0.027397701516747475, -0.413608580827713, 0.09136151522397995, 0.07535389810800552, 0.40380728244781494, -0.32570651173591614, -0.13525670766830444, -0.36798420548439026, -0.10527942329645157, 0.24872855842113495, -0.17468297481536865, 0.12751439213752747, -0.002998790005221963, -0.2866530418395996, 0.4315207600593567, -0.2840815484523773, -0.33913454413414, -0.04437427595257759, 0.18011809885501862, -0.09503650665283203, 0.1476285457611084, 0.2404283732175827, -0.1124609038233757, 0.03283761441707611, 0.053890880197286606, -0.285420686006546, 0.2316572517156601, 0.21423228085041046, 0.038266029208898544, 0.3929766118526459, 0.019805248826742172, -0.4282623529434204, -0.12799718976020813, -0.13597241044044495, 0.18077725172042847, 0.40841948986053467, 0.27245110273361206, 0.2063172608613968, -0.07372809201478958, -0.015576549805700779, -0.15766873955726624, 0.15039733052253723, 0.0269521102309227, 0.2103736251592636, 0.13875477015972137, -0.0427570715546608, 0.08509743958711624, 0.15541395545005798, -0.158462256193161, 0.3560484051704407, -0.01661311648786068, 0.17013710737228394, -0.04821039363741875, -0.05445365980267525, 0.3760537803173065, 0.2838824689388275, 0.17457257211208344, 0.0918659046292305, -0.591372549533844, -0.011642512865364552, 0.27025753259658813, 0.27633148431777954, 0.13470697402954102, 0.15572281181812286, -0.050308290868997574, -1.936786413192749, 0.3925817608833313, -0.12345592677593231, -0.03424203023314476, -1.4297740459442139, 0.10120715200901031, -1.8914216756820679, -0.28786319494247437, 0.591903567314148, 1.078676700592041, -0.1587461233139038, -0.556405782699585, 0.025351861491799355, 0.05266520753502846, -0.689051628112793, 0.055323876440525055, -0.007430228404700756, 0.1947285234928131, 0.447798490524292, -0.10032322257757187, 0.22801561653614044, 0.3190218210220337, 0.09075646847486496, -0.10402361303567886, 0.19279803335666656, 0.034154269844293594, 0.3157334625720978, 0.08544504642486572, -0.18212255835533142, -0.2186315804719925, -0.9403657913208008, -0.26619336009025574, 0.4591235816478729, 0.21793964505195618, 0.18718703091144562, -0.3538820743560791, 0.012124228291213512, 0.14227209985256195, -0.17047736048698425, -0.22146983444690704, -0.05176505073904991, 0.1635676473379135, 0.3900430500507355, -0.17442773282527924, 0.20642848312854767, -0.1416686475276947, -0.04718704894185066, -0.38283398747444153, 1.0713469982147217, 0.019865091890096664, 0.9848172664642334, -0.6950054168701172, 0.052581191062927246, -0.062432557344436646, -0.04639984294772148, -0.014672276563942432, -0.10397712886333466, -0.02883336693048477, -0.0025134915485978127, 0.09932954609394073, 0.0700288936495781, -0.01810835674405098, -0.18655724823474884, -0.19443853199481964, -0.006114332005381584, 0.17693790793418884, -0.03746390342712402, 0.19586822390556335, -0.01549530029296875, 0.4416530430316925, 0.010744324885308743, 0.10926742106676102, 0.13945697247982025, 0.1079057976603508, 0.22167205810546875, -0.13035288453102112, 0.06963258236646652, -0.020847251638770103, -0.0731920525431633, -0.170732781291008, 0.001803710008971393, -0.26475968956947327, 0.2772066295146942, 0.040766481310129166, 0.051413074135780334, -0.0863816887140274, 0.008159703575074673, -0.3882352113723755, 0.12532778084278107, -0.34866124391555786, -0.22475944459438324, -0.001079210196621716, -0.06496601551771164, -0.10860883444547653, 0.2862595319747925, -0.05725928023457527, 0.2563862204551697, -0.2193910926580429, -0.051127176731824875, 0.039580632001161575, -0.3350343108177185, -0.29015597701072693, 0.10210931301116943, 0.041075367480516434, -0.020932868123054504, -0.2011336088180542, 0.12525703012943268, -0.11177320033311844, 0.30845990777015686, -0.11930757761001587, 0.05261205509305, -0.17123401165008545, -0.08464784920215607, 0.22381317615509033, 0.14131616055965424, -0.26468053460121155, -0.09514369815587997, 0.014871419407427311, 0.06311986595392227, 0.09223540127277374, 0.05369221046566963, -0.0163631122559309, -0.05245283246040344, -0.051451425999403, -0.03715500235557556, -0.07045438140630722, -0.10911411792039871, -0.05682678148150444, 0.013708491809666157, 0.019765445962548256, 0.02558067999780178, 0.014768732711672783, 0.11009372770786285, -0.007564448285847902, 0.04498249664902687, 0.0317283570766449, 0.05126332491636276, 0.042943209409713745, -0.09635946154594421, 0.011190195567905903, 0.000425509613705799, -0.02965383045375347, -0.07246336340904236, -0.002284661401063204, 0.10927128046751022, 0.0022590511944144964, -0.0471530519425869, -0.0004388686502352357, -0.0039352914318442345, 0.0013638585805892944, -0.05344010144472122, -0.0876769870519638, 0.06327121704816818, 0.0068321023136377335, -0.03027958609163761, -0.023983880877494812, 0.02599433809518814, 0.0825180634856224, 0.021883390843868256, -0.060524873435497284, 0.0025679715909063816, 0.0022478660102933645, -0.02975175902247429, 0.08756743371486664, -0.04405204579234123, 0.08282173424959183, -0.03537959232926369, 0.008962851017713547, 0.006767680868506432, 0.017328549176454544, 0.02124454267323017, -0.014786731451749802, -0.01795034296810627, 0.014858108945190907, 0.09460437297821045, -0.07846791297197342, 0.0008655413403175771, 0.01928098313510418, 0.005442648660391569, -0.11747457832098007, 0.020412443205714226, 0.16008175909519196, -0.23336932063102722, -0.23792751133441925, 0.01224113442003727, -0.21874746680259705, 0.11466404795646667, 0.08961334824562073, 0.18488848209381104, -0.04333511367440224, 0.2511567175388336, -0.05237441137433052, 0.1872774362564087, -0.08545210212469101, -0.005454579368233681, -0.4840726852416992, 0.061369638890028, -0.1501280963420868, 0.07018875330686569, 0.2598724365234375, -0.25459641218185425, 0.012531464919447899, -0.38155636191368103, -0.06954214721918106, 0.17562443017959595, -0.5077414512634277, 0.2680656313896179, 0.4646615982055664, -0.0739663690328598, 0.08661435544490814, 0.07043849676847458, 0.04056551307439804, 0.14645841717720032, 0.33191782236099243, 0.14635717868804932, 0.042295631021261215, 0.18633723258972168, 0.013541093096137047, -0.016726216301321983, 0.1913163959980011, -0.33749881386756897, 0.11188606917858124, 0.14621193706989288, -0.06171048432588577, 0.259645015001297, 0.020253729075193405, -0.41382279992103577, -0.3186393678188324, 0.06089833751320839, 0.15891610085964203, -0.2201511561870575, 0.22254256904125214, -0.2732561230659485, 0.13770566880702972, 0.02089451067149639, 0.13536594808101654, 0.09863697737455368, -0.06241092458367348, -0.14707770943641663, 0.09926828742027283, -0.15030178427696228, -0.10122339427471161, -0.01584124192595482, 0.10641872137784958, -0.1230350136756897, -0.06844929605722427, -0.6363120675086975, -0.48421767354011536, 0.17924606800079346, -0.0016732984222471714, -0.4789130985736847, 0.3949846923351288, -0.6172061562538147, -0.12514406442642212, 0.1802028864622116, -0.4541299343109131, 0.4776499271392822, 0.5027837157249451, 0.14246028661727905, -0.39317935705184937, 0.14850164949893951, 0.2711242437362671, 0.5659469366073608, 0.45025861263275146, 0.5408202409744263, -0.20924891531467438, 0.28878676891326904, -0.10794302076101303, -0.16109326481819153, 0.8445761799812317, 0.6059287190437317, 0.10056634992361069, -0.30328282713890076, 0.17011573910713196, 0.3770872950553894, 0.4318254292011261, -0.01298250537365675, -0.06784200668334961, 0.4319181740283966, -0.03682274743914604, 0.03324386477470398, 0.1638992726802826, -0.46329429745674133, -0.07834185659885406, 0.2317759394645691, -0.2912089228630066, 0.0952780544757843, -0.3647598922252655, 0.09560070186853409, -0.752613365650177, 0.07383037358522415, 0.060949161648750305, -0.37403181195259094, -0.147794708609581, 0.09675660729408264, 0.4026012420654297, -0.0304252952337265, 0.03849056363105774, 0.194852814078331, -0.46028026938438416, 0.2769218385219574, 0.8104275465011597, -0.6077911853790283, -0.5217313170433044, -0.24432453513145447, -0.07473257184028625, -0.39015430212020874, 0.08023478090763092, -0.4740806221961975, -0.11942925304174423, 0.1937735378742218, -0.011713838204741478, -0.03698060289025307, 0.2441156655550003, 0.09453824162483215, -0.11203654110431671, 0.19028469920158386, 0.021242689341306686, -0.11464691162109375, 0.113976389169693, -0.04332422837615013, 0.019963271915912628, -0.013053137809038162, 0.1626955270767212, -0.05415724217891693, -0.1155109778046608, -0.030040903016924858, -0.15020246803760529, -0.13198594748973846, 0.3245362639427185, -0.07707200199365616, 0.015589866787195206, -0.050114214420318604, 0.027611499652266502, -0.21497370302677155, -0.3865351378917694, -0.043780673295259476, -0.14139211177825928, -0.1458624005317688, 0.05980243161320686, 0.031039632856845856, 0.051164112985134125, -0.15924863517284393, 0.08522714674472809, -0.18814878165721893, -0.18099378049373627, 0.14906123280525208, 0.15535978972911835, 0.05329122766852379, 0.004781596828252077, 0.24454312026500702, 0.1124688908457756, -0.16808529198169708, 0.08865587413311005, -0.05029980465769768, -0.21997098624706268, 0.09530065208673477, 0.024004558101296425, -0.13985410332679749, -0.024790296331048012, 0.30969998240470886, -0.07404481619596481, -0.055257685482501984, 0.045668404549360275, -0.13072703778743744, -0.274429053068161, 0.14732719957828522, 0.2745509743690491, -0.13987983763217926, -0.04327438771724701, 0.04394565150141716, -0.2017057240009308, 0.06369860470294952, -0.0677298977971077, -0.02253423072397709, 0.03918478265404701, -0.13426755368709564, 0.008313083089888096, -0.014957945793867111, -0.035451341420412064, 0.00039269719854928553, 0.043845996260643005, -0.08643676340579987, -0.009545046836137772, -0.013709137216210365, -0.03266458213329315, -0.04363816976547241, -0.05828848481178284, -0.0022250348702073097, 0.0004558490472845733, 0.026375727728009224, -0.05252678692340851, -0.03652454912662506, 0.0002748858241830021, 0.02788177691400051, 0.04850601404905319, 0.004767315927892923, 0.011237848550081253, -0.05180981382727623, -0.017101792618632317, 0.043923743069171906, -0.006599696818739176, 0.023435233160853386, 0.03357933461666107, -0.006329326890408993, -0.0902293398976326, -0.08112163096666336, -0.031300801783800125, 0.09691713005304337, -0.07895577698945999, -0.09089506417512894, -0.13479802012443542, -0.10254866629838943, -0.06517977267503738, 0.15161043405532837, 0.13873012363910675, 0.00222872756421566, -0.08941897004842758, -0.036257386207580566, -0.06259368360042572, -0.06904076039791107, -0.07261983305215836, 0.08609361201524734, -0.015126515179872513, 0.16580408811569214, -0.08308390527963638, -0.06650387495756149, -0.03346855193376541, -0.0031676525250077248, -0.12098544090986252, 0.10782048851251602, 0.09041948616504669, -0.015763912349939346, -0.08018411695957184, 0.08358480036258698, -0.03508877009153366, 0.11393188685178757, 0.2778793275356293, -0.10377353429794312, 0.25695887207984924, 0.17367155849933624, -0.24861450493335724, -0.1297895461320877, 0.12368675321340561, 0.3045172095298767, -0.07921481877565384, 0.3267858922481537, -0.013562611304223537, 0.27180641889572144, 0.13239821791648865, -0.08598297089338303, 0.10214156657457352, 0.1944338083267212, -0.23009862005710602, 0.271171897649765, -0.0729520320892334, -0.03786175698041916, 0.06747779995203018, -0.1728014349937439, -0.10140129178762436, -0.1342209279537201, -0.007336686365306377, 0.09913396090269089, -0.11287567764520645, 0.1686287373304367, 0.2800484001636505, 0.0336410291492939, -0.3135547637939453, -0.1303381770849228, 0.17461401224136353, -0.01411476545035839, 0.1554432064294815, -0.032309580594301224, 0.244216650724411, 0.19486753642559052, 0.1125093623995781, 0.26139694452285767, 0.08883221447467804, -0.07458353787660599, -0.28728941082954407, 0.030828440561890602, 0.1688051074743271, 0.24874374270439148, -0.0060532111674547195, 0.1582929939031601, 0.22826234996318817, -0.00435626832768321, -0.10010996460914612, 0.15908877551555634, 0.19595783948898315, 0.16607734560966492, 0.09271466732025146, -0.11156164109706879, 0.20591327548027039, -0.12555727362632751, -0.12364070862531662, 0.0752742812037468, -0.22607369720935822, -0.01846919395029545, 0.2756391167640686, -0.03359499201178551, 0.028130188584327698, -0.10922703146934509, -0.0189057569950819, 0.008976634591817856, 0.033283431082963943, 0.031119391322135925, -0.03356652706861496, -0.09960907697677612, 0.0362868495285511, -0.07653782516717911, -0.05918418988585472, -0.054496895521879196, 0.015492325648665428, -0.07407499849796295, 0.08395928889513016, 0.11882030963897705, 0.04276902973651886, -0.016657905653119087, 0.02529069222509861, 0.019416330382227898, -0.06092146039009094, 0.057383954524993896, -0.007281909231096506, -0.05492526292800903, -0.05358198657631874, 0.03662661835551262, 0.0581415630877018, -0.007823022082448006, -0.017467061057686806, -0.0004614965873770416, 0.011399826034903526, -0.019265664741396904, 0.1638493686914444, -0.055303432047367096, -0.1903528869152069, 0.11333733052015305, -0.032899148762226105, 0.1306920349597931, -0.06847619265317917, -0.020548516884446144, 0.05814838781952858, -0.018994798883795738, -0.04711150750517845, -0.06756281852722168, -0.03967246040701866, 0.014578734524548054, -0.05226234719157219, -0.008821923285722733, 0.07172582298517227, 0.036713339388370514, -0.041007816791534424, -0.09248268604278564, -0.022555187344551086, 0.046329326927661896, -0.15710359811782837, 0.029894400388002396, 0.05347079411149025, -0.05634872987866402, 0.07511598616838455, -0.10504544526338577, 0.0128405150026083, 0.0646306574344635, 0.06271091848611832, -0.11760146170854568, 0.06300891935825348, -0.44416990876197815, -0.1504688709974289, 0.26361048221588135, 0.022302934899926186, -0.013765753246843815, 0.14848245680332184, -0.31771937012672424, 0.09591483324766159, 0.3574438691139221, -0.12545795738697052, 0.8888634443283081, 0.1369275152683258, 0.2728270888328552, -0.15095600485801697, 0.28928354382514954, -0.33560818433761597, 1.0216801166534424, 0.2617715001106262, 0.2264387011528015, -0.16106460988521576, -0.114422507584095, 0.04986238479614258, -0.38115546107292175, 0.21236082911491394, 0.4434821307659149, 0.27821940183639526, -0.0877954512834549, 0.13722006976604462, 0.032426510006189346, 0.30547404289245605, 0.019713163375854492, 0.21057593822479248, 0.32473376393318176, 0.3294870853424072, -0.3506511151790619, 0.4474124014377594, -0.163650244474411, -0.03654663264751434, 0.6366332769393921, -0.08532127737998962, -0.035201191902160645, -0.21864555776119232, -0.21599316596984863, -0.32343509793281555, 0.4601101577281952, 0.1542953997850418, 0.25737056136131287, 0.17629551887512207, -0.09724261611700058, 0.07172679156064987, 0.10312468558549881, 0.08804942667484283, 0.18395499885082245, -0.03728845715522766, -0.033944424241781235, 0.31926342844963074, -0.3406555652618408, -0.30058979988098145, -0.22662991285324097, -0.29097995162010193, -0.5098696351051331, 1.4382188320159912, -0.09910066425800323, 0.0879586860537529, -0.16983352601528168, -0.025712404400110245, -0.007628295104950666, -0.19954602420330048, -0.07969880849123001, 0.1657671481370926, -0.2809391915798187, 0.04857701063156128, -0.05544058606028557, -0.1575673669576645, -0.12651707231998444, -0.17145663499832153, 0.05469413474202156, -0.12563234567642212, -0.14264395833015442, 0.11007235199213028, -0.19183044135570526, 0.044485628604888916, 0.28876882791519165, -0.16026891767978668, -0.06685612350702286, -0.10449515283107758, -0.05653373524546623, 0.09806568175554276, 0.09984596073627472, 0.25828132033348083, 0.07952849566936493, 0.09037680178880692, -0.1447562426328659, -0.059096843004226685, 0.10578858107328415, -0.017964759841561317, 0.20650631189346313, -0.10651763528585434, 0.07016957551240921, 0.23540917038917542, 0.018849056214094162, -0.08700790256261826, 0.10766571015119553, 0.08986236155033112, -0.19408148527145386, -0.04155103862285614, 0.007910016924142838, -0.11506026238203049, 0.17674928903579712, 0.14716802537441254, -0.016988513991236687, -0.03501264378428459, -0.014609191566705704, 0.13120687007904053, 0.08039770275354385, 0.025490008294582367, 0.11129512637853622, -0.2164120078086853, 0.1476009637117386, 0.18933400511741638, -0.11540785431861877, -0.04579465463757515, 0.317009299993515, -0.026006627827882767, -0.17851273715496063, 0.11851116269826889, -0.27596768736839294, -0.014778356067836285, -0.0030525699257850647, 0.07051361352205276, -0.005277208983898163, -0.05978316441178322, -0.010145979933440685, -0.02593308873474598, -0.04509102925658226, -0.16452959179878235, -0.0051963175646960735, 0.018774187192320824, -0.01617305912077427, 0.07961234450340271, -0.03913142532110214, 0.05853971838951111, -0.08864174038171768, -0.08529657870531082, 0.11062885820865631, -0.06547659635543823, 0.026223720982670784, -0.04392075911164284, 0.02274416573345661, -0.008956012316048145, 0.108543761074543, -0.018448438495397568, 0.07449334859848022, 0.04939721152186394, 0.032030779868364334, -0.00031530536944046617, 0.049050312489271164, -0.18155764043331146, -0.12562429904937744, -0.16966994106769562, -0.04471423849463463, 0.05347320809960365, 0.0879015326499939, 0.05665123090147972, -0.07419365644454956, -0.043715450912714005, 0.0027263490483164787, 0.1335614174604416, -0.0018820553086698055, 0.1246974840760231, 0.11869839578866959, 0.031490493565797806, -0.015984561294317245, -0.055566512048244476, -0.021420957520604134, 0.03973579779267311, 0.04078614339232445, -0.01609264314174652, -0.0077023557387292385, -0.04311878979206085, -0.06946974247694016, -0.061164434999227524, 0.07187846302986145, 0.05240453779697418, -0.10968000441789627, -0.006869833450764418, 0.0395352840423584, -0.06486930698156357, -0.02496454492211342, -0.08371055871248245, -0.01506794709712267, 0.014863469637930393, 0.08555407077074051, 0.044816311448812485, -0.03475452587008476, 0.0011990501079708338, 0.05012716352939606, 0.005897575058043003, 0.052815526723861694, -0.019622981548309326, 0.01285292487591505, 0.07702888548374176, -0.04415950924158096, -0.10585952550172806, 0.06165606528520584, 0.05345528945326805, -0.023162398487329483, 0.07061018794775009, -0.07815394550561905, -0.03307931497693062, -0.01911330781877041, 0.05433213338255882, -0.030651817098259926, 0.04930010065436363, 0.07585784047842026, 0.000508930126670748, -0.046072810888290405, 0.0008466286235488951, -0.03226910158991814, 0.0933719277381897, -0.09812786430120468, -0.06514699012041092, 0.021723659709095955, 0.10617532581090927, -0.05156002566218376, 0.08743876963853836, -0.023844916373491287, 0.06761526316404343, 0.016488010063767433, -0.033179692924022675, 0.08410196006298065, -0.05297442153096199, -0.0002969719935208559, 0.05739348754286766, 0.10182543843984604, 0.09838760644197464, 0.09373616427183151, -0.030209248885512352, 0.0027514006942510605, 0.04636121168732643, -0.09603439271450043, 0.024080026894807816, -0.052283961325883865, 0.04256737604737282, -0.09516182541847229, 0.030746182426810265, 0.027198486030101776, -0.034829918295145035, 0.012731223367154598, 0.09696874022483826, 0.03753984346985817, -0.047843724489212036, 0.13945798575878143, 0.05889301374554634, -0.005819476209580898, 0.08024612069129944, -0.14968520402908325, -0.09501254558563232, 0.1881902813911438, -0.2507437467575073, -0.07909802347421646, 0.002467129146680236, 0.037122730165719986, -0.017187019810080528, 0.08837075531482697, -0.20551669597625732, -0.1322730928659439, 0.06935971230268478, 0.026557914912700653, -0.41694992780685425, 0.015432252548635006, -0.1863599419593811, -0.11970977485179901, 0.27985042333602905, -0.08409822732210159, -0.3584219217300415, -0.1706291139125824, -0.19686929881572723, 0.23634572327136993, -0.12312804907560349, 0.06765024363994598, 0.43558236956596375, -0.012439443729817867, 0.009492672979831696, 0.10542529821395874, 0.22676025331020355, -0.11834239214658737, 0.09454473108053207, 0.08589288592338562, -0.07535865157842636, 0.0992017611861229, 0.21112309396266937, 0.10909824073314667, 0.0883522629737854, -0.2827962338924408, -0.013641519472002983, -0.00666910782456398, -0.1104123517870903, 0.18727949261665344, 0.12492771446704865, -0.33193209767341614, -0.17576773464679718, 0.04844037815928459, 0.2265443205833435, -0.019053133204579353, 0.033710118383169174, -0.10613809525966644, 0.12948811054229736, 0.11079078167676926, 0.2752542197704315, -0.09260492026805878, 0.16605918109416962, -0.18713387846946716, -0.1654498130083084, 0.009413243271410465, -0.08348136395215988, 0.038057830184698105, -0.01942945457994938, -0.23201718926429749, -0.08642277866601944, 0.09397304058074951, -0.04648083820939064, -0.13043279945850372, 0.07245025038719177, -0.019025400280952454, -0.03651070594787598, -0.09081179648637772, 0.014015632681548595, -0.11346131563186646, -0.01602705754339695, -0.019781922921538353, 0.058456629514694214, 0.13912463188171387, 0.1663712114095688, -0.03482237085700035, 0.0017184395110234618, -0.05803002789616585, -0.10268781334161758, 0.10271798819303513, 0.027588633820414543, 0.0280194953083992, 0.06581331044435501, 0.08718591928482056, 0.06049418821930885, -0.1334335058927536, -0.12000764161348343, 0.027390949428081512, 0.012796984985470772, 0.056845225393772125, -0.012696652673184872, 0.1998784840106964, -0.13105884194374084, 0.06568213552236557, 0.002207021461799741, -0.04222685098648071, 0.04786404222249985, -0.12348488718271255, 0.00822505634278059, 0.14871715009212494, 0.05605306848883629, -0.13910044729709625, 0.010319543071091175, -0.04432163015007973, -0.01335397269576788, 0.050351377576589584, 0.31281065940856934, -0.0780831128358841, -0.17081694304943085, 0.09891689568758011, -0.027503978461027145, 0.0033356910571455956, -0.07668838649988174, -0.014741618186235428, 0.1483798623085022, -0.024685325101017952, -0.04993947967886925, 0.13202142715454102, 0.022436553612351418, 0.17319151759147644, -0.003139365231618285, 0.008623228408396244, -0.0233458261936903, 0.06817290931940079, -0.05931854248046875, 0.06959071010351181, 0.038031112402677536, 0.006719180382788181, 0.011264730244874954, 0.11637574434280396, -0.02820703200995922, -0.09654808044433594, 0.01623082533478737, 0.03442750126123428, 0.0023266547359526157, -0.021906038746237755, -0.0651945099234581, -0.060138069093227386, 0.01163951400667429, 0.11986880004405975, 0.015887854620814323, -0.029411226511001587, -0.060937825590372086, 0.054964203387498856, 0.04354110732674599, -0.12047355622053146, 0.010452247224748135, -0.0017215051921084523, 0.07760623097419739, 0.017909323796629906, -0.017471399158239365, 0.06697460263967514, 0.0455109067261219, -0.07852701842784882, -0.06887336075305939, -0.04110727831721306, 0.043662939220666885, -0.00486945454031229, -0.028771569952368736, -0.05544239655137062, -0.06704536080360413, 0.02301977202296257, -0.04752839356660843, -0.014834979549050331, 0.11133591830730438, -0.08925032615661621, -0.055479664355516434, 0.11908582597970963, 0.05252813175320625, -0.033425502479076385, 0.05888550356030464, 0.08160743862390518, 0.02983364649116993, 0.009181415662169456, -0.028257954865694046, -0.08753927797079086, 0.0056398240849375725, -0.007771484088152647, 0.05784175917506218, 0.03420868143439293, 0.03000526875257492, 0.06790856271982193, 0.049052439630031586, -0.004070339258760214, 0.04551464691758156, -0.0002995328395627439, -0.04924020171165466, -0.0345902219414711, -0.027107561007142067, 0.07974786311388016, -0.006487784907221794, -0.02395644411444664, 0.08508636802434921, 0.04521980509161949, 0.03894008696079254, -0.056174471974372864, 0.013840725645422935, -0.036616433411836624, -0.012688285671174526, 0.008182777091860771, -0.1235722079873085, 0.025489266961812973, -0.029577961191534996, 0.05406767502427101, 0.08064966648817062, 0.07816296815872192, 0.02635682001709938, -0.05795804038643837, 0.06946354359388351, 0.12021428346633911, 0.032341521233320236, -0.10847220569849014, -0.08153015375137329, -0.01781708188354969, -0.04452872276306152, -0.01721995882689953, 0.04109524190425873, 0.005332194734364748, -0.07960879057645798, 0.004026397597044706, -0.009995512664318085, -0.04040783643722534, -0.12311915308237076, -0.0417068712413311, -0.15416182577610016, 0.03478802368044853, 0.04994606599211693, -0.04730958864092827, -0.041305556893348694, 0.15930718183517456, -0.03625188395380974, 0.05191783979535103, -0.028666848316788673, -0.04972453787922859, 0.0910152867436409, -0.0019847676157951355, -0.07342473417520523, 0.06370984762907028, 0.09566405415534973, -0.029933104291558266, -0.1612982153892517, -0.08391613513231277, 0.004962903913110495, -0.06836748868227005, -0.09995798021554947, -0.04344865679740906, 0.0954410508275032, -0.03178220987319946, 0.118167445063591, -0.01722908392548561, 0.05479519069194794, -0.037950631231069565, 0.04887070506811142, -0.13197548687458038, -0.13436678051948547, -0.1367110311985016, 0.039499491453170776, 0.1874675154685974, 0.11333128064870834, -0.18632176518440247, 0.042484480887651443, 0.06891947239637375, 0.0400208979845047, 0.014531975612044334, -0.122857466340065, 0.08831443637609482, -0.31144893169403076, -0.10688905417919159, -0.058975327759981155, -0.07085368037223816, 0.1480795294046402, 0.21495474874973297, -0.0174977146089077, -0.12795989215373993, -0.012317418120801449, -0.02106005884706974, -0.21440793573856354, 0.19616347551345825, 0.28392189741134644, -0.027292536571621895, 0.043112825602293015, 0.02319476567208767, 0.05289354547858238, 0.14655360579490662, 0.07941479235887527, 0.13055607676506042, 0.022403428331017494, 0.14488321542739868, -0.13712066411972046, -0.15691088140010834, 0.027248302474617958, -0.03971432149410248, 0.0019044963410124183, -0.13590388000011444, 0.09607312828302383, -0.007574837189167738, 0.026440134271979332, -0.059985000640153885, 0.08635366708040237, 0.005759915336966515, -0.10518986731767654, -0.04736688360571861, -0.00954408012330532, -0.17185203731060028, 0.06069820001721382, -0.02373841404914856, -0.02902732789516449, 0.009427845478057861, -0.04323972389101982, -0.08805886656045914, -0.04426538199186325, 0.179322749376297, -0.047397661954164505, -0.1541164666414261, 0.005316778086125851, -0.06622783839702606, -0.06965497881174088, 0.04067815840244293, -0.025089828297495842, -0.06084362044930458, 0.04137466847896576, 0.1444018930196762, 0.02285080775618553, 0.005269679706543684, 0.14797580242156982, -0.03857303783297539, 0.044481899589300156, -0.03101937845349312, -0.0746464878320694, 0.12972907721996307, 0.0016941841458901763, 0.015096161514520645, 0.13082276284694672, -0.05484854429960251, -0.08297018706798553, 0.09289099276065826, 0.1443607062101364, 0.1175331324338913, -0.11437968909740448, 0.019905922934412956, -0.08480240404605865, -0.021460480988025665, -0.04919593408703804, -0.05561356619000435, 0.03601164370775223, -0.019045084714889526, 0.16319507360458374, -0.005582072306424379, 0.03735993430018425, 0.19543589651584625, -0.08336924016475677, -0.08597435057163239, -0.08518020063638687, 0.0024467352777719498, 0.13430380821228027, -0.16972112655639648, -0.14435192942619324, -0.011516782455146313, 0.01941561885178089, 0.04800400882959366, 0.0358012318611145, -0.11682832986116409, 0.1894734650850296, -0.13926412165164948, -0.1384633183479309, -0.21430891752243042, 0.03594246134161949, -0.15015698969364166, -0.12009826302528381, 0.053903669118881226, 0.033513132482767105, -0.031705599278211594, -0.016569344326853752, -0.08514179289340973, -0.05784641578793526, -0.1182853952050209, 0.2020854651927948, 0.054342687129974365, -0.130834698677063, 0.06089237704873085, 0.36115092039108276, 0.3523572087287903, 0.660872757434845, 0.12370534241199493, -0.32467710971832275, -0.24110464751720428, 0.1989821195602417, 0.4917474091053009, 0.3226395845413208, 0.037441570311784744, 0.2596615254878998, 0.03680427744984627, 0.11789732426404953, -0.01845339871942997, 0.7408725023269653, -0.040730103850364685, -0.3274805247783661, -0.08426545560359955, -0.5279059410095215, 0.10105256736278534, 0.8172211647033691, -0.5076695680618286, -0.1751919388771057, -0.3936196565628052, 0.020808055996894836, -0.5885850191116333, -0.4169166684150696, 0.04485282674431801, 0.055063195526599884, 0.18240351974964142, -0.06003277003765106, 0.20283988118171692, 0.5071337819099426, 0.19614100456237793, 0.15305951237678528, -0.2253270447254181, 0.08006657660007477, 0.6644793152809143, 0.030742205679416656, -0.06872500479221344, -0.08229903876781464, -0.17664504051208496, -0.19851833581924438, 0.1168392226099968, 0.3758024275302887, 0.014913790859282017, -0.18269380927085876, 0.5837501287460327, 0.4512219727039337, -0.1660226434469223, -0.4430765211582184, -0.09565290808677673, 0.2801075875759125, 0.17151682078838348, 0.28302955627441406, -0.12772443890571594, -0.2017173320055008, 0.09162960946559906, -0.24028320610523224, 0.07856462895870209, 0.17967082560062408, 0.5591684579849243, -0.0348832868039608, 0.6103370785713196, 0.08765199035406113, 0.04552652686834335, 0.2610744833946228, -0.002528395736590028, -0.05383496358990669, 0.03319259732961655, 0.09042198210954666, 0.18183310329914093, 0.1227235421538353, -0.05563009902834892, -0.014043474569916725, 0.09503313899040222, 0.08698659390211105, -0.03563067317008972, 0.23036207258701324, 0.057926762849092484, -0.033656418323516846, 0.156104177236557, -0.25186532735824585, 0.0501127764582634, 0.1876862496137619, 0.06390522420406342, 0.00023344015062320977, -0.018784107640385628, -0.05033762380480766, -0.24677130579948425, -0.2851475477218628, 0.027495792135596275, -0.0523105189204216, -0.004794721491634846, -0.026372695341706276, -0.03220095857977867, 0.034383248537778854, -0.06612817943096161, 0.007868035696446896, -0.010998236015439034, 0.029430026188492775, 0.1323573887348175, 0.08937112241983414, -0.08116333186626434, -0.09953882545232773, -0.01415027305483818, 0.02438317984342575, 0.10008395463228226, 0.01049781683832407, -0.012404672801494598, -0.1559602916240692, 0.12305308133363724, 0.05727827921509743, -0.08662661164999008, -0.043912701308727264, -0.16311386227607727, -0.00494052330031991, 0.02576805092394352, -0.022030724212527275, -0.05137180536985397, -0.2339238077402115, 0.03351892530918121, 0.009644660167396069, 0.0064533427357673645, 0.004339161794632673, 0.2284107506275177, 0.055546894669532776, 0.12818101048469543, 0.05338488146662712, 0.07433990389108658, 0.07309602200984955, 0.052676353603601456, -0.02664097025990486, -0.025013789534568787, -0.03119826689362526, 0.12562569975852966, 0.05426979809999466, -0.01956496760249138, 0.12558944523334503, 0.06952009350061417, -0.08403940498828888, -0.0492234006524086, 0.1830664426088333, -0.002253732644021511, 0.012972400523722172, -0.05087094008922577, -0.09173009544610977, -0.11159646511077881, 0.059172894805669785, -0.14347513020038605, -0.14275775849819183, -0.05140510946512222, -0.07378736138343811, 0.028214676305651665, -0.14752916991710663, 0.011634654365479946, 0.047228679060935974, 0.04985005781054497, 0.02042139507830143, 0.02810068428516388, 0.0941166952252388, 0.0256869588047266, 0.12400103360414505, -0.10313238203525543, 0.041929081082344055, -0.03279879689216614, -0.022788936272263527, 0.10820689797401428, 0.02942991815507412, 0.05528587847948074, -0.06681044399738312, -0.13528579473495483, 0.15329374372959137, 0.13380111753940582, 0.09690051525831223, 0.015791071578860283, 0.07245706766843796, -0.08870415389537811, -0.05471916124224663, 0.004743637051433325, 0.055970244109630585, 0.07078137248754501, 0.06973191350698471, -0.05362465977668762, 0.04067685082554817, 0.02381545677781105, 0.0008406054112128913, 0.054050691425800323, -0.010241285897791386, -0.008700425736606121, 0.09579509496688843, 0.09550066292285919, 0.45511695742607117, 0.03709852322936058, 0.08259112387895584, 0.21688756346702576, -0.6126807332038879, -0.1626051962375641, 0.5402618050575256, 0.3185400068759918, 0.2207910269498825, 0.3807098865509033, -0.337230920791626, 0.8278740048408508, 0.15215252339839935, -0.04473523423075676, 0.24062220752239227, 0.40927499532699585, 0.11145543307065964, 0.7693713903427124, 0.14705340564250946, 0.5031644701957703, 0.8540157675743103, -0.17368628084659576, -0.3211922347545624, -0.07697329670190811, 0.3692585229873657, -0.48849058151245117, -0.6235722899436951, -0.22926507890224457, 0.2192382514476776, 0.3241676390171051, 0.14011482894420624, 0.6174545884132385, 0.389879435300827, 0.4400383532047272, -0.2780933678150177, 0.1751578003168106, -0.05489269271492958, 0.13768094778060913, 0.1640862375497818, -0.2145674228668213, -0.2821505665779114, 0.12552660703659058, -0.29062357544898987, 0.6939817070960999, 0.18392550945281982, 0.03682538866996765, -0.4263489544391632, -0.03301462531089783, 0.23852118849754333, -0.22213968634605408, -0.16613177955150604, -0.11978194862604141, 0.37237489223480225, 0.20333664119243622, -0.12911035120487213, 0.2853197157382965, -0.0773359090089798, -0.3177870512008667, -0.313111811876297, -0.1276479959487915, -0.03821011632680893, 0.67194664478302, 0.34875690937042236, -0.14212974905967712, -0.006116091273725033, 0.3247106671333313, 0.06265326589345932, -0.17052872478961945, -0.0785301923751831, 0.48310622572898865, -0.6864745020866394, 0.49971064925193787, -0.17760160565376282, -0.3027972877025604, 0.35520073771476746, -0.08138856291770935, -0.39655524492263794, -0.324664443731308, -0.28177714347839355, 0.20438483357429504, 0.1261553019285202, -0.1541164517402649, -0.23449958860874176, -1.0643924474716187, 0.06688276678323746, -0.15455472469329834, 0.3354865312576294, 0.5810473561286926, -0.555803120136261, -0.2985445261001587, 0.48218637704849243, 0.3621774911880493, -0.47136276960372925, -0.29028746485710144, -0.5037954449653625, -0.4682829678058624, 0.014343931339681149, -0.7901200652122498, -0.017637157812714577, 0.4380131661891937, -0.3296900987625122, 0.10910194367170334, -0.29580074548721313, -0.24756136536598206, 0.5667155981063843, 0.15733565390110016, 0.564024031162262, -0.21246643364429474, 0.019805189222097397, -0.3218652904033661, -0.1490934044122696, -0.13583679497241974, 0.14630761742591858, 0.22076188027858734, -0.10271559655666351, -0.02591596357524395, -0.16027456521987915, -0.5711565613746643, 0.40414875745773315, -0.13399329781532288, -0.6084690690040588, 0.6724164485931396, 0.4386843144893646, -0.11360608786344528, 0.004041501320898533, 0.3831557631492615, -0.21111831068992615, 0.29870516061782837, 0.1528138965368271, -0.27831611037254333, 0.006112290546298027, 0.1434287428855896, 0.048562709242105484, 0.28616300225257874, -0.036973174661397934, -0.02830408699810505, -0.026008963584899902, 0.07480277866125107, -0.06889595836400986, 0.04054651036858559, -0.25176069140434265, 0.085019551217556, -0.07615827769041061, 0.06872444599866867, -0.07868213206529617, 0.08888170123100281, -0.014265327714383602, -0.23108160495758057, -0.11265743523836136, -0.24207894504070282, -0.01795564405620098, -0.022115062922239304, -0.2500198781490326, 0.14284230768680573, 0.007901940494775772, -0.01804405264556408, 0.015950147062540054, -0.4031187891960144, 0.037457581609487534, -0.17685027420520782, 0.237704336643219, -0.05867689475417137, 0.1884785294532776, -0.4948170483112335, 0.024865882471203804, -0.06197671219706535, 0.20357367396354675, -0.013830458745360374, 0.10372192412614822, 0.2058160901069641, -0.14732587337493896, -0.24766726791858673, -0.2580089867115021, -0.1061069592833519, 0.18608438968658447, 0.04336392879486084, 0.30470845103263855, -0.14258654415607452, 0.03475324437022209, 0.36576125025749207, 0.2749159634113312, 0.16526013612747192, -0.12430403381586075, -0.17064447700977325, 0.14892299473285675, -0.09974058717489243, 0.27920448780059814, -0.15073122084140778, -0.07873532176017761, -0.1211237907409668, -0.05044259876012802, -0.04753817990422249, -0.09173355251550674, 0.29048317670822144, -0.11297474801540375, -0.0614587776362896, 0.07148497551679611, 0.12085532397031784, 0.023525673896074295, 0.2882573902606964, 0.22376710176467896, -0.21296226978302002, 0.24825678765773773, 0.4279424250125885, -0.07776451110839844, 0.17103983461856842, -0.06050366535782814, 0.6297458410263062, -0.07669075578451157, 0.3074253499507904, 0.1621474027633667, -0.18189361691474915, 0.1018608883023262, -0.29196012020111084, -0.071255624294281, -0.2172544002532959, 0.07706490159034729, -0.05443669855594635, 0.252155601978302, -0.2813849449157715, 0.15647579729557037, 0.2671472728252411, 0.2847824692726135, -0.03503326699137688, 0.3232922852039337, 0.21063101291656494, 0.07620121538639069, -0.30819982290267944, -0.22525301575660706, -0.1633952409029007, 0.29254576563835144, -0.0703134834766388, -0.2727796137332916, 0.48472532629966736, -0.17639635503292084, 0.1647142469882965, 0.19099873304367065, -0.28088444471359253, 0.28163713216781616, -0.022346260026097298, 0.033639095723629, -0.322096586227417, 0.17419283092021942, -0.5207450985908508, -0.30645108222961426, 0.15959712862968445, 0.22586320340633392, 0.0025509537663310766, 0.08607706427574158, 0.16044330596923828, -0.1975453943014145, -0.7160230278968811, 0.1897243708372116, 0.1131386011838913, 0.2623394727706909, 0.3274049460887909, 0.05706626549363136, 0.06906141340732574, -0.09762188792228699, -0.06090034916996956, 0.0726725235581398, 0.1410088837146759, -0.01896308921277523, 0.2642459571361542, 0.014015906490385532, 0.12023209780454636, 0.13259083032608032, -0.05550146847963333, -0.04344908148050308, 0.10402688384056091, -0.10757391154766083, 0.09080983698368073, -0.11297686398029327, -0.007870501838624477, 0.1139686331152916, -0.24771052598953247, 0.12254425138235092, -0.21918463706970215, 0.010265964083373547, 0.25974082946777344, -0.3154603838920593, -0.04411781579256058, 0.18481455743312836, -0.14941094815731049, 0.10032980889081955, -0.0640786811709404, 0.09142991155385971, 0.08204653859138489, 0.17314717173576355, -0.10648791491985321, 0.062487564980983734, -0.057804252952337265, -0.022699296474456787, 0.05079713463783264, 0.2295411378145218, -0.1532905399799347, 0.07918661832809448, 0.0714346244931221, 0.1581277996301651, 0.040248654782772064, 0.2559657692909241, -0.36357101798057556, -0.12252216041088104, -0.005541965831071138, 0.08823490887880325, -0.2442609667778015, -0.05518674477934837, -0.01871883124113083, -0.05122791975736618, -0.13339242339134216, 0.41893288493156433, -0.153511643409729, -0.24110914766788483, 0.12300872057676315, 0.10675057768821716, -0.09100743383169174, -0.03154715895652771, -0.0014745856169611216, -0.10140306502580643, 0.050485484302043915, 0.09772676229476929, 0.01415752712637186, -0.1035304069519043, -0.011782307177782059, -0.1314435452222824, 0.06983622163534164, 0.1789904683828354, 0.37801578640937805, 0.3237236738204956, -0.05034368857741356, 0.3963867723941803, 0.23715627193450928, 0.081843301653862, 0.17116856575012207, 0.2382355034351349, 0.2285040020942688, -0.016067540273070335, 0.14600561559200287, 0.22602330148220062, 0.3617295026779175, 0.026237893849611282, -0.22815535962581635, -0.20440658926963806, -0.3224071264266968, 0.1989806741476059, 0.06847894936800003, -0.14873819053173065, -0.16039471328258514, 0.3268123269081116, 0.012344591319561005, 0.10328438878059387, 0.30391234159469604, 0.40657052397727966, 0.36527448892593384, 0.02756386250257492, -0.19703510403633118, 0.035731732845306396, -0.035054173320531845, 0.32396256923675537, -0.006303001195192337, -0.18365995585918427, -0.14334610104560852, -0.23174896836280823, 0.03131585195660591, 0.04617753624916077, 0.020417723804712296, 0.10970179736614227, 0.057692430913448334, 0.3877509832382202, -0.39900174736976624, 0.030918195843696594, 0.03486083075404167, 0.15668648481369019, 0.2672595977783203, -0.0252226535230875, -0.13513153791427612, 0.2628498077392578, -0.2718210816383362, -0.015908371657133102, -0.05026944354176521, -0.04837404564023018, -0.097380630671978, 0.36016392707824707, 0.04865233227610588, 0.02308400347828865, 0.01969878003001213, -0.12717655301094055, -0.11088147014379501, -0.09014543890953064, -0.07591817528009415, 0.02619798853993416, 0.0371379591524601, -0.02846365049481392, -0.1684296578168869, -0.009894928894937038, 0.015400524251163006, 0.027527468279004097, -0.045338790863752365, 0.12363605946302414, -0.0342971496284008, 0.18239308893680573, -0.06805061548948288, 0.15088939666748047, 0.22815538942813873, 0.018657822161912918, 0.05022454634308815, -0.08164894580841064, 0.140494704246521, 0.08033519983291626, 0.003954913467168808, -0.10670700669288635, 0.04087452590465546, -0.030308570712804794, 0.09653929620981216, -0.028482332825660706, 0.04615025222301483, 0.015363883227109909, 0.14720644056797028, -0.01975565031170845, 0.0695980116724968, -0.02290351875126362, -0.13064944744110107, 0.12015073001384735, -0.2104761004447937, -0.18009555339813232, -0.04356168210506439, 0.1009594202041626, 0.17413340508937836, 0.0195617638528347, -0.06482144445180893, -0.02653500624001026, -0.06813473254442215, -0.14800167083740234, 0.016619723290205002, 0.18008750677108765, -0.14389821887016296, -0.07699434459209442, 0.1470363885164261, 0.039144210517406464, 0.08988997340202332, -0.01940757781267166, -0.06114868074655533, -0.007382531184703112, -0.0745469257235527, 0.1752132922410965, 0.09868019819259644, -0.06901058554649353, -0.12353913486003876, 0.041372790932655334, -0.3939090967178345, -0.1083214282989502, 0.30147719383239746, 0.0008863747352734208, -0.5654870271682739, 0.18337425589561462, -0.6580690741539001, 0.22538037598133087, 0.3283669054508209, -0.06428950279951096, 0.2786290645599365, 0.5482030510902405, 0.2285441905260086, -0.32444706559181213, 0.11727655678987503, -0.07912718504667282, 0.2968086004257202, 0.2883499562740326, 0.2179933488368988, -0.16767911612987518, 0.12270838022232056, -0.27999359369277954, -0.3842964768409729, 0.7273486852645874, 0.47119492292404175, 0.30336692929267883, -0.13043177127838135, 0.3376694619655609, 0.373708575963974, 0.3389301896095276, 0.16846492886543274, 0.1620364785194397, 0.41418275237083435, 0.10122780501842499, -0.17150792479515076, 0.36459559202194214, -0.16840793192386627, 0.08968403190374374, 0.13467784225940704, -0.34824925661087036, -0.03617943823337555, -0.49168312549591064, 0.10564631968736649, -0.30101341009140015, 0.11641253530979156, -0.008347824215888977, -0.00015948880172800273, 0.04129984974861145, -0.05211023986339569, 0.2221025824546814, -0.12781935930252075, 0.26485586166381836, 0.49074143171310425, -0.1699119359254837, 0.2297901064157486, 0.860535740852356, -0.4115334451198578, -0.5965882539749146, -0.05696263909339905, -0.16428646445274353, -0.34237563610076904, 0.21206673979759216, -0.19257454574108124, 0.3113165497779846, 0.36518195271492004, 0.19759993255138397, 0.1815972626209259, -0.5843913555145264, -0.3098108172416687, 0.2671372592449188, 0.15871797502040863, 0.18041102588176727, 0.26510679721832275, -0.06332755088806152, -0.7744195461273193, 0.7699685096740723, -0.12400324642658234, -0.06174309179186821, -0.7743396162986755, 0.2602238655090332, -0.8566968441009521, -0.1289903223514557, 0.6928372383117676, 0.7431263327598572, 0.022284865379333496, -0.6888632774353027, -0.08106033504009247, 0.5579652190208435, -0.4739251732826233, -0.1854475438594818, -0.05662444606423378, 0.16107262670993805, 0.5414247512817383, 0.05601261183619499, 0.19010840356349945, 0.2176181524991989, 0.2875913381576538, -0.08401282876729965, 0.14390286803245544, 0.00922609493136406, 0.34299588203430176, 0.21702294051647186, -0.32426461577415466, -0.3609201908111572, -0.6093325018882751, -0.4583272635936737, 0.6168776750564575, 0.22908125817775726, 0.0007501436630263925, -0.4271515905857086, -0.029058007523417473, 0.17146871984004974, -0.17444603145122528, -0.19813160598278046, -0.2194283902645111, 0.1944592446088791, 0.4569951891899109, -0.35404136776924133, 0.13953761756420135, 0.2584041357040405, -0.12086359411478043, -0.5997762084007263, 0.6355277895927429, 0.035468269139528275, 0.7504200339317322, -0.45243561267852783, -0.0019804947078227997, -0.00769457733258605, -0.20038114488124847, -0.06055334210395813, -0.0072895800694823265, -0.15589311718940735, -0.12776139378547668, 0.016570013016462326, -0.3200773596763611, 0.07922875136137009, 0.06544262170791626, -0.05438973754644394, -0.0014403759269043803, 0.05239294469356537, -0.023591112345457077, -0.0450306311249733, -0.0707000344991684, 0.13388709723949432, 0.05037320405244827, 0.1155976802110672, 0.11059043556451797, -0.07602892816066742, 0.03541373461484909, -0.06280950456857681, -0.17923450469970703, 0.15769228339195251, 0.09664890170097351, 0.2032906711101532, -0.008176957257091999, 0.11908421665430069, 0.014038671739399433, 0.023052116855978966, 0.03857655078172684, -0.08187666535377502, 0.19753968715667725, -0.13609938323497772, 0.08962979912757874, 0.1699185073375702, 0.0028523611836135387, -0.07233724743127823, 0.08036305755376816, -0.043791476637125015, -0.19847558438777924, -0.06756576150655746, 0.07125383615493774, -0.18262945115566254, 0.1725998818874359, 0.14595088362693787, -0.01308429054915905, -0.08001647144556046, 0.03521208092570305, 0.17922723293304443, -0.11253375560045242, -0.05371512845158577, 0.02914774976670742, -0.1869853287935257, 0.20818133652210236, 0.13306032121181488, -0.20088745653629303, -0.00907817855477333, 0.13109056651592255, 0.0046558319590985775, 0.06717174500226974, 0.1314108967781067, -0.1556951105594635, -0.07230447232723236, 0.27939555048942566, -0.1903301477432251, -0.25332802534103394, 0.1246611699461937, 0.3161197304725647, -0.42014193534851074, 0.41258370876312256, -0.10554319620132446, -0.10924125462770462, 0.38344764709472656, 0.18221397697925568, -0.21885831654071808, -0.11978908628225327, -0.23007431626319885, 0.42302483320236206, -0.2695370018482208, 0.290505588054657, -0.09063878655433655, -0.3883087635040283, -0.03537743538618088, -0.2703024744987488, 0.1047162339091301, 0.28636908531188965, -0.4389706552028656, -0.03877025470137596, 0.377905011177063, 0.12427820265293121, -0.17449365556240082, -0.06687828153371811, -0.119880810379982, -0.2762885093688965, 0.19655415415763855, -0.35422685742378235, 0.23145189881324768, -0.039019886404275894, -0.3766466975212097, -0.19883526861667633, -0.020429205149412155, -0.10297343879938126, 0.1563018411397934, 0.24518440663814545, 0.20926687121391296, -0.014792020432651043, 0.10996021330356598, -0.32567235827445984, -0.053478263318538666, 0.19746674597263336, 0.21732231974601746, 0.02994816191494465, -0.09736061096191406, -0.1424800306558609, -0.2516157329082489, -0.14623644948005676, 0.22691920399665833, -0.34789371490478516, -0.3263857364654541, 0.5332895517349243, 0.24469012022018433, -0.6381494402885437, 0.056897908449172974, -0.006503103766590357, 0.09689471870660782, 0.3929300308227539, -0.155887633562088, -0.0016583105316385627, -0.10141821950674057, -0.06497018784284592, 0.07397305220365524, 0.014187037013471127, -0.00050832744454965, 0.01948447898030281, 0.05612294375896454, -0.08154084533452988, 0.11678413301706314, 0.04293874278664589, 0.014101624488830566, 0.09403830766677856, -0.11020059138536453, -0.0244833342730999, 0.17310456931591034, -0.009826465509831905, 0.056592535227537155, -0.02592211775481701, -0.07719294726848602, 0.035683177411556244, 0.10194278508424759, -0.06552927196025848, 0.10206276178359985, 0.053240127861499786, 0.02580825798213482, 0.07993732392787933, -0.09065073728561401, 0.0170114915817976, 0.037066664546728134, 0.03910532221198082, 0.02867879904806614, 0.02707502245903015, 0.04976982995867729, -0.04038911312818527, -0.008147554472088814, 0.005966846365481615, -0.08557821810245514, -0.01760239340364933, -0.07726875692605972, 0.021718023344874382, 0.08284773677587509, 0.05902518332004547, 0.08654360473155975, -0.022470148280262947, 0.034160275012254715, -0.0839654952287674, -0.0373871810734272, -0.10652975738048553, 0.06106659770011902, -0.002212632680311799, -0.13101932406425476, 0.03206421062350273, 0.04327409714460373, 0.036926135420799255, 0.06293163448572159, -0.07205245643854141, 0.037328630685806274, -0.016527380794286728, 0.000521936803124845, 0.0784580186009407, -0.1004725843667984, 0.003090064274147153, -0.04754967987537384, -0.13835148513317108, 0.002139776013791561, 0.07019693404436111, -0.1630631536245346, -0.016811076551675797, 0.2082735002040863, 0.11407005041837692, 0.09224056452512741, 0.033570799976587296, -0.0742511972784996, 0.30478525161743164, 0.12855978310108185, 0.028885195031762123, 0.4414772093296051, 0.3748975396156311, -0.08421104401350021, 0.43750640749931335, 0.05825234204530716, 0.0025725546292960644, 0.037993013858795166, 0.02983453869819641, -0.26416394114494324, 0.0009807887254282832, 0.05356519669294357, 0.21827293932437897, -0.401662677526474, -0.012960067018866539, 0.10346920043230057, 0.05599398538470268, 0.03724772483110428, 0.13678154349327087, -0.07153109461069107, 0.21514837443828583, -0.12897023558616638, -0.06635326147079468, 0.018518002703785896, -0.21989719569683075, 0.14819467067718506, 0.126563161611557, -0.011600781232118607, 0.325399249792099, -0.05713731050491333, 0.24258971214294434, -0.05303175747394562, 0.09828341752290726, 0.07954348623752594, -0.07419455051422119, 0.017369477078318596, -0.005371459294110537, 0.06264185160398483, 0.060311462730169296, 0.09917189925909042, 0.1633882075548172, 0.004652043338865042, 0.04517282173037529, 0.22793109714984894, -0.135116308927536, -0.16620603203773499, -0.19434839487075806, -0.10814567655324936, -0.08290669322013855, -0.01278313435614109, -0.14320452511310577, 0.44583117961883545, -0.15235105156898499, 0.03358524665236473, 0.35843974351882935, -0.23304890096187592, 0.40046426653862, -0.11238990724086761, 0.30143994092941284, 0.03074532188475132, 0.03805368393659592, -0.005393021274358034, 0.060129113495349884, -0.3443021774291992, 0.1706671416759491, -0.0911860466003418, 0.19970197975635529, -0.17914444208145142, 0.032310616225004196, 0.007274860516190529, -0.2609632909297943, 0.10993222892284393, -0.39430516958236694, -0.2134169191122055, -0.07387246936559677, -0.22791165113449097, 0.17174066603183746, 0.09603973478078842, 0.021681690588593483, 0.041735611855983734, -0.30114662647247314, 0.0890241265296936, -0.2336801141500473, 0.4646591544151306, -0.00746280699968338, 0.11584127694368362, -0.4841690957546234, 0.2141174077987671, -0.04257006570696831, 0.2587418854236603, -0.015618651174008846, 0.13509978353977203, 0.13595476746559143, -0.2747804522514343, -0.4131303131580353, -0.1374976485967636, -0.2052612155675888, 0.10084615647792816, 0.26814979314804077, 0.7772971987724304, -0.20414674282073975, -0.1306006759405136, 0.5826160311698914, 0.685601532459259, 0.08648394048213959, -0.05705083906650543, -0.31918734312057495, -0.07019072026014328, -0.037963174283504486, 0.3558279871940613, -0.21139010787010193, 0.006482667755335569, -0.20418916642665863, -0.06629271805286407, 0.014460524544119835, -0.13981935381889343, -0.07501805573701859, -0.2778704762458801, 0.0609440878033638, 0.06652674823999405, 0.15688002109527588, -0.007641592063009739, 0.014000918716192245, 0.26889392733573914, -0.06549766659736633, 0.08279617875814438, 0.37553808093070984, -0.1962207406759262, 0.22315570712089539, -0.25850313901901245, 0.3161803185939789, -0.2090097814798355, 0.2217099517583847, 0.32248929142951965, -0.06272011995315552, -0.257324755191803, -0.17677976191043854, 0.0043683345429599285, -0.2684742212295532, -0.1376442015171051, 0.29524239897727966, 0.5247343182563782, -0.11334294080734253, 0.15727831423282623, -0.12313441187143326, 0.01466639619320631, -0.021697336807847023, 0.125228613615036, 0.22212466597557068, 0.24213165044784546, -0.08973091095685959, 0.24921803176403046, -0.10920771956443787, 0.16859306395053864, 0.042760446667671204, -0.02442268282175064, -0.01607852429151535, -0.1691015064716339, -0.09443745762109756, 0.00441261800006032, 0.07121448963880539, 0.2695524990558624, 0.047217756509780884, 0.1607043296098709, -0.16415390372276306, 0.2690311372280121, -0.20767633616924286, 0.01733073964715004, 0.04111044481396675, 0.12180855870246887, -0.07983517646789551, 0.3400953710079193, -0.06130082160234451, 0.13976715505123138, -0.1746937334537506, -0.07145213335752487, 0.04306666553020477, 0.538555383682251, 0.13192901015281677, -0.04700338840484619, 0.03678419440984726, -0.07360894978046417, 0.15501053631305695, -0.07617571949958801, 0.1271134614944458, 0.003552074311301112, -0.06952878832817078, -0.1336096078157425, 0.015344401821494102, 0.032092783600091934, -0.2141023576259613, -0.0489058792591095, -0.13054955005645752, -0.15840940177440643, -0.03599417582154274, 0.12518759071826935, -0.06804107129573822, -0.21755096316337585, -0.07749153673648834, -0.03250338137149811, 0.1901596635580063, 0.026336587965488434, 0.04433437064290047, -0.1073632463812828, 0.027819320559501648, 0.2059042602777481, 0.12304452806711197, -0.0694410502910614, 0.04441309720277786, -0.17943693697452545, 0.03388746455311775, -0.07852630317211151, -0.0674554854631424, -0.10106107592582703, 0.0774502083659172, 0.11967306584119797, -0.10193739086389542, -0.07448151707649231, 0.22477298974990845, 0.05845796316862106, -0.09558242559432983, 0.027455326169729233, -0.1358787566423416, -0.07482623308897018, 0.015008785761892796, -0.21453742682933807, -0.023210491985082626, -0.15604200959205627, 0.10872699320316315, -0.07209303230047226, 0.31924334168434143, -0.00012753855844493955, -0.06565863639116287, -0.020405270159244537, 0.022837519645690918, 0.007474587298929691, 0.033133137971162796, 0.12239030003547668, 0.0047040157951414585, -0.14000314474105835, -0.0630352720618248, -0.07905922085046768, -0.12209103256464005, 0.08841795474290848, -0.12989290058612823, -0.19137796759605408, 0.001767956418916583, -0.12903928756713867, 0.043386414647102356, 0.08904548734426498, 0.1556645631790161, -0.09433703869581223, 0.014387911185622215, -0.124249666929245, -0.04517705366015434, 0.06522254645824432, 0.11455531418323517, -0.2241668403148651, 0.0386679470539093, -0.07095889002084732, -0.009792993776500225, 0.26945817470550537, -0.23975767195224762, -0.08253761380910873, -0.1523769497871399, -0.11281871050596237, 0.15936633944511414, -0.16887912154197693, -0.0005227241199463606, 0.21503540873527527, -0.1446957290172577, -0.1412757933139801, -0.0023615213576704264, 0.07353942096233368, -0.008215194568037987, 0.09928207844495773, -0.027628431096673012, 0.012019517831504345, -0.06591501832008362, 0.10902618616819382, 0.04330587387084961, 0.036301612854003906, -0.10569082200527191, 0.13454441726207733, 0.047681618481874466, -0.14397399127483368, 0.06244056299328804, 0.19191354513168335, -0.27407941222190857, -0.2924135625362396, 0.036778196692466736, 0.1753922998905182, -0.043759316205978394, 0.012373651377856731, -0.07014679163694382, 0.03588112071156502, 0.0820920541882515, 0.09581772238016129, -0.09676196426153183, -0.056206006556749344, 0.007640279363840818, -0.09251155704259872, -0.037100184708833694, -0.10727350413799286, 0.0542977899312973, -0.07116676867008209, -0.1303013563156128, -0.0900653824210167, -0.06263183057308197, 0.046949148178100586, -0.041643429547548294, -0.042930833995342255, 0.12189839780330658, -0.11470846086740494, -0.14588649570941925, 0.011049598455429077, -0.021416855975985527, 0.11000750958919525, 0.10149391740560532, -0.1669495552778244, 0.03722568601369858, 0.11490736901760101, 0.1305609792470932, 0.06446266174316406, -0.06823509186506271, -0.015345588326454163, 0.026861613616347313, -0.013710924424231052, 0.12142231315374374, 0.02165987528860569, -0.12497670203447342, 0.057345274835824966, 0.02568648010492325, -0.004450573120266199, 0.11116598546504974, 0.080746129155159, -0.10986975580453873, -0.18344508111476898, 0.04204006493091583, 0.04292251542210579, 0.08019452542066574, -0.047574687749147415, 0.21527665853500366, 0.10793367028236389, -0.015642814338207245, -0.01328001357614994, 0.1313774287700653, -0.013475833460688591, -0.050198934972286224, -0.06953310966491699, -0.07423754036426544, -0.11143547296524048, 0.1483226865530014, 0.14710690081119537, -0.11046117544174194, -0.06748408079147339, -0.018804030492901802, -0.017884928733110428, -0.09843641519546509, -0.07944421470165253, -0.028343619778752327, -0.10016299039125443, 0.14412885904312134, -0.01990276575088501, -0.025367403402924538, 0.02298557199537754, 0.09978346526622772, 0.1306678205728531, 0.14833180606365204, 0.10598290711641312, -0.0395519845187664, 0.47301432490348816, -0.04071931540966034, 0.2963813543319702, 0.46274805068969727, -0.47661760449409485, 0.28261345624923706, -0.07559714466333389, 0.6640515923500061, 0.18081650137901306, 0.42862093448638916, 0.47705280780792236, 0.0874904915690422, -0.17009520530700684, -0.3954087793827057, 0.40501832962036133, 0.09832420945167542, -0.5498831272125244, 0.06705819070339203, -0.20281188189983368, -0.2258504182100296, 0.2654688060283661, -0.8518524169921875, -0.08087366074323654, -0.5040946006774902, -0.34306034445762634, -0.14537456631660461, -0.11943211406469345, 0.2030576765537262, 0.4663758873939514, -0.3293456733226776, -0.35916706919670105, 0.23607981204986572, 0.6870661377906799, 0.10644158720970154, 0.4234863221645355, -0.6581237316131592, 0.5326642990112305, 0.3029951751232147, 0.2687944769859314, 0.44119757413864136, 0.23655925691127777, -0.5179372429847717, -0.3872559070587158, -0.0660053938627243, 0.5451483130455017, 0.4400673806667328, -0.019068876281380653, 0.4964485168457031, 0.7002679705619812, -0.11457465589046478, -0.30441486835479736, 0.45679694414138794, 0.6106429100036621, 0.2570359408855438, 0.3989941477775574, -0.4363445043563843, -0.0778108462691307, 0.09164822846651077, 0.17151020467281342, 0.23792782425880432, -0.35058820247650146, 0.14059394598007202, 0.5256698727607727, 0.21029570698738098, -0.03988822549581528, 0.07879068702459335, -0.0908929705619812, -0.048767879605293274, 0.17806090414524078, 0.111592136323452, 0.08522354811429977, 0.0032635501120239496, 0.07556506246328354, -0.02007688395678997, 0.09882068634033203, -0.032428205013275146, -0.0003129449614789337, 0.03616521134972572, -0.07429605722427368, 0.07564932852983475, -0.007745314389467239, 0.053781140595674515, 0.011624245904386044, 0.04532717540860176, -0.02803138643503189, -0.01719992607831955, 0.08741311728954315, 0.009394168853759766, 0.012071502394974232, -0.0588352307677269, 0.01631609909236431, 0.012424197979271412, -0.09016071259975433, -0.07457684725522995, -0.1021127998828888, -0.013159536756575108, -0.03797491639852524, -0.03149757534265518, 0.06824924051761627, -0.10684692114591599, -0.11710159480571747, -0.00046104626380838454, 0.010402176529169083, 0.08010036498308182, 0.04949067905545235, -0.013335054740309715, 0.058046746999025345, 0.058179955929517746, 0.016967803239822388, -0.05518078804016113, 0.015354376286268234, -0.03658420220017433, -0.0562700591981411, 0.011820544488728046, -0.02203439548611641, -0.017062805593013763, 0.044451046735048294, 0.02891499362885952, -0.018153471872210503, -0.0008934204233810306, 0.07060784101486206, 0.06591127067804337, 0.03507693484425545, 0.03021860308945179, -0.01395359355956316, -0.02197294495999813, 0.0067152283154428005, -0.027157051488757133, -0.24120700359344482, -0.02479792758822441, -0.3873475193977356, -0.30708742141723633, 0.1425129771232605, -0.19898125529289246, 0.3253079652786255, -0.1291782110929489, 0.24303029477596283, -0.097323939204216, -0.08507563173770905, -0.10261128097772598, 0.26501357555389404, 0.4124952256679535, -0.22060970962047577, -0.0196097269654274, 0.48699018359184265, -0.05816153809428215, 0.5297242999076843, 0.23816241323947906, 0.20706337690353394, 0.14534896612167358, -0.3472824990749359, -0.030531959608197212, 0.40886735916137695, 0.19856031239032745, -0.05054378882050514, -0.393159955739975, 0.07285778969526291, 0.43514490127563477, 0.5704235434532166, 0.2680221199989319, -0.042745191603899, 0.35137200355529785, -0.4200305938720703, 0.26813942193984985, -0.5623879432678223, -0.3489965498447418, 0.1259976327419281, -0.2780679166316986, -0.4384482800960541, -0.006258560810238123, 0.01746150478720665, 0.19329337775707245, -0.2600332796573639, -0.27571624517440796, 0.11135466396808624, -0.45348966121673584, -0.23343545198440552, -0.12724310159683228, 0.3467559516429901, -0.3216235041618347, -0.09193570166826248, 0.11453401297330856, -0.16824662685394287, 0.4221478998661041, 0.21414715051651, -0.32679954171180725, -0.18099726736545563, -0.13141083717346191, 0.2899414300918579, -0.20132865011692047, -0.25620970129966736, -0.2152782529592514, 0.08245855569839478, 0.045904867351055145, -0.03608254715800285, -0.043862540274858475, -0.06325609982013702, 0.05477660521864891, 0.05713512748479843, -0.03513820469379425, -0.018419714644551277, -0.05364193394780159, -0.02089843712747097, 0.07086978852748871, 0.005595303140580654, -0.24434979259967804, 0.11827673763036728, 0.018294760957360268, 0.05437583103775978, 0.08562331646680832, -0.08782844990491867, 0.08722961694002151, 0.12459441274404526, 0.08627399057149887, 0.11350177973508835, 0.021699151024222374, -0.01463773101568222, -0.06199457496404648, -0.07102423161268234, 0.17557211220264435, 0.02890586666762829, 0.011624850332736969, -0.16100184619426727, 0.030109144747257233, 0.13321693241596222, 0.0345538854598999, 0.024810180068016052, 0.01182938925921917, -0.026886945590376854, 0.027524340897798538, 0.016742125153541565, 0.07730656117200851, 0.15884386003017426, 0.0283210352063179, -0.008566335774958134, 0.1260128915309906, 0.019417986273765564, 0.03777007386088371, -0.049427539110183716, -0.04477553069591522, -0.008636489510536194, 0.07317882776260376, 0.02625446394085884, -0.024155855178833008, 0.053509872406721115, -0.06004808470606804, 0.0049740164540708065, -0.010251193307340145, -0.08190979063510895, -0.04465661942958832, -0.0308857224881649, 0.08583860099315643, 0.011554470285773277, 0.01620269939303398, -0.022812681272625923, -0.05564175918698311, 0.273777574300766, 0.4365745186805725, 0.11626981943845749, -0.004712691996246576, -0.3267708420753479, -0.6670981049537659, 0.2256668657064438, 0.3908884525299072, 0.10126888006925583, -0.1375386118888855, -0.20188874006271362, -0.4302288591861725, 0.4462648332118988, -0.24082741141319275, 0.8585867881774902, -0.4548388719558716, 0.28605833649635315, -0.567594051361084, -0.16813313961029053, 0.28915542364120483, 0.204445019364357, 0.24235086143016815, -0.33835333585739136, -0.1293000429868698, 0.4433557987213135, -0.5734082460403442, -0.9853646159172058, -0.03169269114732742, -0.004458779003471136, 0.47551804780960083, -0.05919243022799492, 0.2757374942302704, -0.013189643621444702, 0.019826343283057213, -0.4917755126953125, 0.0980115607380867, 0.0009000848513096571, 0.2855778932571411, 0.04528200998902321, 0.03137155622243881, -0.29849016666412354, -0.49858567118644714, -0.22786135971546173, 0.4942452311515808, 0.36192575097084045, 0.31339845061302185, -0.24963155388832092, -0.13971200585365295, -0.04825763404369354, -0.02603522501885891, -0.243520587682724, -0.3687741160392761, 0.05570776015520096, 0.21319878101348877, -0.1175580695271492, 0.2600022256374359, -0.16589747369289398, -0.04096194729208946, -0.31630706787109375, 0.5358288288116455, 0.284760445356369, 0.5700533986091614, -0.2563079297542572, -0.00621270015835762, -0.03412509337067604, -0.031598206609487534, -0.14687712490558624, 0.04820823669433594, 0.2842453420162201, 0.1623345911502838, -0.09550988674163818, 0.1256241351366043, -0.061291489750146866, 0.011637523770332336, 0.019649047404527664, -0.07996747642755508, -0.05955906957387924, 0.10963708907365799, 0.15254290401935577, -0.012275313958525658, -0.05106525868177414, -0.10601084679365158, 0.042263902723789215, -0.09201304614543915, 0.007965471595525742, -0.003082752926275134, 0.11258989572525024, 0.006015022285282612, -0.09997645020484924, -0.10207577794790268, -0.12351994216442108, -0.14061926305294037, -0.05425898730754852, -0.17462879419326782, 0.09785142540931702, 0.027922337874770164, 0.00752389756962657, -0.0909385085105896, 0.11388404667377472, -0.18859632313251495, 0.09686082601547241, 0.23444238305091858, 0.24562238156795502, -0.1520470827817917, 0.014980888925492764, 0.11901718378067017, -0.01832501031458378, -0.08582287281751633, 0.18955674767494202, -0.16980665922164917, -0.18062397837638855, 0.01572042517364025, -0.030234741047024727, -0.16930559277534485, -0.03185556083917618, 0.16310398280620575, -0.022651799023151398, -0.16091614961624146, 0.12243650108575821, -0.22326400876045227, -0.18845009803771973, 0.05937669426202774, 0.32109761238098145, 0.02668282389640808, -0.03733338043093681, 0.11630436778068542, -0.18956175446510315, -0.041036371141672134, -0.2003408670425415, 0.009190889075398445, -0.12248653173446655, -0.24844364821910858, 0.08400274068117142, -0.09368691593408585, -0.011947241611778736, -0.05312172323465347, -0.34338074922561646, -0.2837538719177246, -0.17644383013248444, 0.3545829653739929, 0.1382836252450943, 0.07196500152349472, -0.19637955725193024, 0.40327540040016174, 0.14099177718162537, 0.5019316673278809, 0.01576034165918827, 0.08193107694387436, -0.06888094544410706, 0.15468400716781616, 0.291930228471756, 0.26108086109161377, 0.20153135061264038, 0.15781064331531525, 0.10964764654636383, -0.020079471170902252, -0.5032528042793274, 0.07968457788228989, 0.0012632326688617468, -0.49051880836486816, -0.310293972492218, -0.05566859990358353, -0.10417227447032928, 0.2579438388347626, -0.3177812695503235, -0.35730409622192383, -0.3774217963218689, 0.015282728709280491, 0.009933431632816792, 0.5812389850616455, 0.22953221201896667, 0.017297254875302315, -0.1025887057185173, -0.3100140690803528, -0.013911456800997257, -0.12791091203689575, -0.21294249594211578, 0.2337719202041626, 0.10588745027780533, -0.10287804901599884, -0.1703471690416336, -0.19896958768367767, -0.21612092852592468, 0.07574786245822906, -0.07591980695724487, 0.07441984117031097, -0.034333981573581696, -0.8277021646499634, 0.14669904112815857, -0.2859305441379547, -0.0755959004163742, -0.011988131329417229, 0.2894918620586395, -0.13537956774234772, 0.021426038816571236, 0.029455095529556274, -0.2820926606655121, 0.23279616236686707, 0.05375470221042633, 0.27220919728279114, -0.00624187383800745, 0.11512000113725662, 0.022952347993850708, 0.08162111788988113, 0.0840982124209404, -0.2259523570537567, -0.10780929028987885, 0.10802249610424042, 0.011814016848802567, 0.02602311596274376, 0.08759504556655884, -0.3255819082260132, 0.04498717933893204, -0.19305242598056793, -0.16172535717487335, 0.21169374883174896, -0.18644490838050842, 0.08288505673408508, 0.12665946781635284, -0.047646280378103256, -0.006951802875846624, 0.0748218223452568, 0.024652812629938126, -0.03288668766617775, 0.28455808758735657, -0.10142208635807037, 0.002085883868858218, 0.06647038459777832, -0.2433215081691742, -0.05092799663543701, -0.009371019899845123, -0.1206953302025795, -0.06530669331550598, 0.04235881194472313, -0.018944766372442245, 0.10252291709184647, -0.10059665143489838, -0.36013078689575195, -0.36661919951438904, -0.019221095368266106, 0.1808473765850067, -0.113883838057518, 0.09445296972990036, 0.0033024894073605537, 0.1317521184682846, -0.015486103482544422, 0.015294319950044155, 0.0026721737813204527, -0.004408212378621101, -0.06240670755505562, 0.09555680304765701, -0.1990422010421753, 0.11188258230686188, 0.027828896418213844, 0.0031110942363739014, -0.14354880154132843, 0.06020531430840492, -0.02881625108420849, 0.15784640610218048, 0.2445468157529831, 0.04679939150810242, -0.07230332493782043, -0.041805800050497055, 0.04324468597769737, 0.09020049124956131, 0.15732769668102264, 0.28404632210731506, 0.11921288818120956, -0.1471555083990097, 0.010759728960692883, 0.24402649700641632, 0.36449137330055237, -0.3379673659801483, 0.19357934594154358, -0.05643526837229729, -0.4030410051345825, -0.17222854495048523, -0.07342497259378433, 0.07883592694997787, -0.38701310753822327, 0.0978558361530304, 0.005485657602548599, -0.16803549230098724, -0.008060717023909092, 0.2612968981266022, -0.21522442996501923, -0.06906881183385849, 0.024932479485869408, 0.028803301975131035, -0.07422984391450882, 0.20021426677703857, -0.34287527203559875, 0.29267144203186035, 0.08055651932954788, 0.05962267890572548, 0.19544290006160736, 0.06603197753429413, 0.07728462666273117, -0.1063266322016716, -0.2645692229270935, 0.04180343076586723, 0.28444749116897583, 0.22821514308452606, 0.2147301882505417, 0.19665861129760742, 0.0022272716742008924, -0.005717610474675894, 0.19080984592437744, 0.17711104452610016, 0.058372728526592255, 0.012189815752208233, -0.21340806782245636, 0.0580081045627594, 0.0019323296146467328, 0.047407116740942, -0.17027302086353302, -0.05715129151940346, -0.06617296487092972, 0.474741667509079, 0.10058359056711197, -0.08901538699865341, 0.4298992156982422, -0.04185903072357178, -0.29412853717803955, 0.20424197614192963, -0.07487384229898453, -0.014160001650452614, 0.2390907257795334, 0.33663198351860046, -0.3412863314151764, 0.18168626725673676, -0.034025341272354126, 0.11544544249773026, 0.14881457388401031, 0.49181678891181946, 0.029136182740330696, 0.23581834137439728, 0.0017776676686480641, -0.24499985575675964, 0.06444801390171051, 0.5249683856964111, 0.04935780167579651, -0.043027568608522415, -0.23596259951591492, 0.2609367072582245, -0.48371899127960205, -0.6604671478271484, -0.32766443490982056, -0.05506301298737526, 0.0971941277384758, 0.1453581154346466, 0.06795471906661987, 0.015554005280137062, -0.10764989256858826, -0.00690903514623642, -0.2282222956418991, -0.5053424835205078, 0.04026798531413078, 0.32452985644340515, -0.3128819465637207, -0.307508260011673, 0.11299056559801102, -0.030299155041575432, 0.024463845416903496, -0.0006538371089845896, -0.14858143031597137, -0.005390842445194721, -0.19351059198379517, -0.05896603688597679, -0.3056113123893738, 0.05674692615866661, -0.24026945233345032, -0.284379780292511, 0.06265875697135925, -0.13879626989364624, -6.571893754880875e-05, -0.27680307626724243, 0.26462072134017944, -0.08698057383298874, -0.08322286605834961, 0.6214869618415833, 0.33215993642807007, -0.26161065697669983, 0.4012693762779236, 0.3481362462043762, 0.17445027828216553, 0.10769403725862503, 0.16460582613945007, -0.5393917560577393, -0.3838687837123871, 0.43093881011009216, -0.036220990121364594, 0.08761952072381973, 0.2871403396129608, -0.37347570061683655, -0.7302284240722656, 0.7933536767959595, -0.1844877302646637, 0.050300054252147675, -0.690808892250061, 0.2635696828365326, -0.6333801746368408, 0.00395550299435854, 0.7403049468994141, 0.8088688254356384, 0.010597744025290012, -0.679220974445343, 0.16908398270606995, 0.5860475897789001, -0.3883764147758484, -0.29387596249580383, -0.1411055624485016, 0.056784044951200485, 0.4699108600616455, 0.14369207620620728, -0.029724130406975746, 0.07081010192632675, 0.35940176248550415, -0.2181166410446167, 0.2134367972612381, -0.05185217782855034, 0.2287677526473999, -0.01683025248348713, -0.3224940896034241, -0.5541340708732605, -0.5001994967460632, -0.20502282679080963, 0.6486554741859436, 0.02004569210112095, 0.007148505188524723, -0.5308374166488647, -0.1661137044429779, 0.09355824440717697, 0.08370915055274963, -0.17522503435611725, -0.16016869246959686, 0.2983842194080353, 0.3339462876319885, -0.43475446105003357, 0.38299137353897095, 0.2388562262058258, -0.27528974413871765, -0.4398823082447052, 0.6094828844070435, 0.007892675697803497, 0.6890761852264404, -0.44109463691711426, -0.2566322088241577, -0.2515186369419098, 0.6545885801315308, 0.23508583009243011, -0.5288559794425964, 0.02109372615814209, 0.2069752961397171, -0.2914189398288727, 0.30905261635780334, 0.23838090896606445, -0.6104820370674133, 0.4117682874202728, -0.17394493520259857, -0.29490768909454346, 0.3159569203853607, -0.04980555921792984, 0.04589923098683357, 0.05327785760164261, -0.09967847168445587, -0.5081807971000671, 0.22999787330627441, 0.44313880801200867, -0.015180656686425209, 0.11371774226427078, -0.023531068116426468, -0.23413872718811035, -0.3064219653606415, 0.22615280747413635, 0.012968892231583595, -0.33833667635917664, 0.170540913939476, 0.1463431417942047, -0.41373327374458313, -0.04525798559188843, -0.11344613134860992, 0.10412748903036118, 0.035233885049819946, -0.5350795388221741, 0.20097072422504425, -0.0425381138920784, -0.2457749843597412, -0.15201114118099213, 0.19096232950687408, 0.28286126255989075, 0.06862399727106094, 0.10004480928182602, -0.4742436707019806, 0.2150740623474121, 0.14106109738349915, -0.28789228200912476, -0.18439854681491852, -0.06790757179260254, -0.4398477077484131, -0.4894021153450012, -0.08874037116765976, 0.1727382242679596, -0.07413620501756668, -0.4119093418121338, 0.47375351190567017, -0.0140115050598979, -0.315899133682251, 0.7887696027755737, 0.24448782205581665, 0.057276975363492966, 0.7496161460876465, -0.6557765603065491, -0.29334330558776855, -0.45436787605285645, -0.6947115063667297, 0.6425465941429138, 0.7355290055274963, -0.11147882044315338, -0.30993297696113586, -0.5168727040290833, -0.6985995173454285, -0.1651579886674881, -0.3251538872718811, -0.4347681403160095, 0.00526333786547184, -0.399795800447464, -0.22354596853256226, 0.7030877470970154, -0.16668497025966644, 0.15489362180233002, -0.07741070538759232, -0.2455502301454544, 0.4885982275009155, 0.5795240998268127, 0.7590678334236145, 0.06620796769857407, 0.39926376938819885, 0.11712557822465897, 0.0002526783791836351, -0.8504717350006104, -0.1497267633676529, 0.00842625554651022, -0.932113766670227, -0.6900243163108826, -0.22040733695030212, -0.42929786443710327, 0.719354510307312, -0.6787923574447632, -0.779283344745636, -0.39883798360824585, -0.5179771780967712, 0.039450764656066895, 0.5890717506408691, 0.9428543448448181, -0.37737002968788147, -0.6453831195831299, -0.5964248180389404, 0.03362591192126274, -0.5107686519622803, -0.8091540932655334, 0.46456900238990784, 0.4844348430633545, -0.25854647159576416, -0.5401497483253479, -0.8882924318313599, -0.5738532543182373, 0.3138654828071594, -0.20092427730560303, -0.16350573301315308, 0.6961296796798706, -0.3673897683620453, 0.552133321762085, -0.3242800533771515, -0.9541191458702087, -0.561816394329071, 0.007051282096654177, 0.19508416950702667, 0.14699149131774902, -0.04831891506910324, 0.053814757615327835, -0.07457076013088226, 0.04868043586611748, 0.14400579035282135, -0.03439159691333771, -0.07468570023775101, 0.004022842738777399, -0.020428936928510666, 0.06422266364097595, -0.003660709597170353, 0.24195311963558197, -0.029254017397761345, 0.09316011518239975, 0.024070989340543747, -0.138636976480484, 0.018512867391109467, 0.13466429710388184, 0.15946358442306519, -0.10288883000612259, -0.04037891700863838, -0.019723327830433846, -0.3302481472492218, -0.3184022307395935, 0.038006510585546494, -0.08972611278295517, 0.04494060203433037, -0.06505342572927475, 0.003273454960435629, -0.06897412985563278, -0.1801520138978958, -0.2353968769311905, 0.10701251029968262, -0.08815356343984604, 0.09935438632965088, -0.02188839577138424, -0.1054450124502182, -0.08645780384540558, -0.00111586251296103, -0.07784450799226761, 0.24480986595153809, -0.11479378491640091, 0.06831616163253784, -0.1540566384792328, -0.08445063978433609, 0.023714695125818253, 0.10317523777484894, -0.15676763653755188, 0.0742998942732811, -0.1151820495724678, 0.04055630788207054, -0.05827026814222336, 0.08739989995956421, -0.17219388484954834, 0.03599117696285248, 0.0019315759418532252, 0.004093953873962164, 0.10472521930932999, 0.2257796972990036, -0.013064185157418251, -0.13579648733139038, 0.08909387141466141, 0.06237995624542236, 0.1090303584933281, 0.0036071892827749252, -0.08110355585813522, 0.13055510818958282, -0.06034132093191147, 0.037190474569797516, -0.10817006975412369, 0.17684787511825562, -0.0731867179274559, -0.07457458972930908, 0.0808718279004097, -0.08540498465299606, -0.296705037355423, -0.02488156035542488, -0.03260451555252075, 0.07144704461097717, 0.06698023527860641, 0.14319205284118652, 0.06729435175657272, -0.12294566631317139, -0.022194424644112587, 0.05723916366696358, -0.09412118047475815, 0.14578308165073395, 0.22620096802711487, -0.04563011974096298, -0.13963212072849274, 0.07631449401378632, 0.10052826255559921, -0.03853442519903183, 0.04800340533256531, 0.05810840055346489, 0.05702843889594078, -0.06800775974988937, -0.028689870610833168, 0.021047091111540794, 0.001200938830152154, -0.19993601739406586, -0.0035054709296673536, -0.05638420209288597, -0.05750502273440361, 0.11113432794809341, 0.0006865819450467825, -0.23173406720161438, -0.20382624864578247, 0.08133216947317123, 0.09203541278839111, -0.053370725363492966, -0.053536005318164825, -0.08779468387365341, 0.06350301951169968, 0.10682103782892227, -0.07582592219114304, -0.08797597140073776, 0.1338110864162445, -0.041962526738643646, -0.04986610263586044, -0.21288371086120605, 0.031137583777308464, -0.07183634489774704, -0.1537182629108429, 0.006486487574875355, -0.0790090560913086, 0.10022290796041489, -0.07717490196228027, -0.13074548542499542, 0.27003419399261475, 0.10801732540130615, 0.1830771416425705, 0.2310018092393875, 0.20824623107910156, 0.051071297377347946, 0.013973335735499859, 0.05835042521357536, -0.16150972247123718, 0.287731409072876, -0.24266253411769867, 0.09924068301916122, -0.137678325176239, 0.1068253442645073, 0.15868361294269562, 0.27743417024612427, -0.039915136992931366, -0.19158610701560974, -0.05107380077242851, 0.04349702224135399, -0.08230119943618774, 0.0003642437804955989, 0.3532390296459198, -0.1129046231508255, 0.2614295184612274, 0.04071754589676857, -0.0008544637821614742, 0.21156920492649078, 0.07610046863555908, 0.2646735608577728, 0.027203014120459557, -0.05003834888339043, 0.06998714804649353, -0.044375818222761154, 0.12115602940320969, 0.10944835096597672, 0.0628078281879425, -0.2169315069913864, 0.009212516248226166, 0.14546085894107819, 0.5056298971176147, 0.1393953412771225, 0.4590752422809601, 0.14746415615081787, -0.16970816254615784, -0.09612290561199188, 0.03776344656944275, -0.40708720684051514, -0.08136148750782013, 0.07429403066635132, 0.579669713973999, -0.04664541780948639, 0.06431519240140915, 0.007684670388698578, -0.06154423579573631, 0.119100421667099, -0.007106200326234102, 0.01627442054450512, 0.396129846572876, 