// Numpy array shape [128]
// Min -0.10191238
// Max 0.17391007
// Number of zeros 2

#ifndef TRANSFORMERS_2_LINEAR_3_BIAS_H_
#define TRANSFORMERS_2_LINEAR_3_BIAS_H_

#ifndef __SYNTHESIS__
model_default_t transformers_2_linear_3_bias[128];
#else
model_default_t transformers_2_linear_3_bias[128] = {-0.04711068421602249, -1.472744345664978, -0.10696333646774292, 0.30390921235084534, 0.18382275104522705, 0.17181988060474396, 
0.2608621120452881, 0.2564978301525116, -0.16259214282035828, -0.043581217527389526, 0.17757175862789154, 0.21101267635822296, 0.11352647840976715, 
0.2014232873916626, -0.1552230566740036, 0.002121537923812866, 0.31680792570114136, 0.2058917135000229, -0.29080912470817566, 1.2220286130905151, 
0.2294706106185913, -0.019613301381468773, -0.3123013973236084, 0.3448030650615692, 0.19081507623195648, 0.15724490582942963, 0.2579464614391327, 
0.20073644816875458, -0.026971077546477318, -0.15417274832725525, -0.2727709114551544, -0.15521781146526337, -0.01402139849960804, 0.11847642809152603, 
-0.2872997224330902, -0.2075621336698532, -0.2293209731578827, -0.12228471785783768, -0.33761948347091675, -0.1554972380399704, 0.117796391248703, 
0.16003338992595673, 0.2652355432510376, 0.32400795817375183, -0.13935747742652893, -0.10918240249156952, 0.18430879712104797, 0.0712265893816948, 
0.2099144458770752, 0.4911940395832062, 0.13047446310520172, -1.0490041971206665, -0.2137763649225235, -0.06869161128997803, -0.5630452632904053, 
-0.32523980736732483, 0.24678154289722443, -0.18881449103355408, -0.2170301228761673, 0.25993630290031433, -0.2503192126750946, 0.43842536211013794, 
0.15903885662555695, 0.28886058926582336, 0.3594104051589966, -0.183950737118721, 0.09530656039714813, 0.6043193340301514, 0.17694787681102753, 
0.1709836721420288, 0.20956270396709442, -0.09941890835762024, 1.5801359415054321, 0.7432088255882263, -0.17337194085121155, -0.2581457793712616, 
0.6386497020721436, -0.23108279705047607, -0.24630151689052582, 0.2776433527469635, 0.3640408515930176, 0.205625519156456, -0.2630292773246765, 
-0.11650718748569489, -0.17404963076114655, -0.01529395580291748, -0.2448323667049408, -0.1188199520111084, 0.22559969127178192, 0.24373207986354828, 
0.23258964717388153, 0.2170538753271103, 0.34169262647628784, 0.24385306239128113, -0.20995309948921204, 1.1771588325500488, -0.14635629951953888, 
-0.190866157412529, -0.1362895369529724, -0.10849331319332123, -0.2702493369579315, 0.2051914483308792, 0.23922573029994965, -0.05484689772129059, 
0.20176349580287933, -0.3222637176513672, -0.17448806762695312, -0.2743736207485199, 0.16876064240932465, -0.16217632591724396, 0.2597377300262451, 
0.2616318464279175, 0.22540068626403809, 0.4382798671722412, -0.1978585124015808, -0.23040027916431427, 0.24741584062576294, 0.3705025315284729, 
0.29789817333221436, -0.03422502800822258, -0.6952323913574219, -0.24326717853546143, 0.18126322329044342, 0.308340847492218, -0.16862916946411133, 
1.597083568572998, 0.2278374880552292, -0.04211551696062088};

#endif

#endif
