// Numpy array shape [128]
// Min -0.96070224
// Max 0.35375193
// Number of zeros 0

#ifndef TRANSFORMERS_0_LINEAR_3_BIAS_H_
#define TRANSFORMERS_0_LINEAR_3_BIAS_H_

#ifndef __SYNTHESIS__
T_norm1_bias_t transformers_0_linear_3_bias[128];
#else
T_norm1_bias_t transformers_0_linear_3_bias[128] = {-1.3651964664459229, -0.6831880211830139, -0.058267295360565186, 0.45331400632858276, -1.2582223415374756, -2.4238414764404297, 
-1.4335358142852783, 0.43590477108955383, 0.20943087339401245, 0.3605650067329407, -0.26798567175865173, -0.9146428108215332, -1.883812427520752, 
0.4101303815841675, -0.02327647991478443, 2.4215450286865234, 0.6409558057785034, -1.3217213153839111, 0.3652576506137848, -0.26646777987480164, 
1.6916130781173706, 0.03036034107208252, 1.655618667602539, -1.3027317523956299, -0.3720766603946686, -1.0545680522918701, -0.608552098274231, 
2.0512444972991943, -0.695594072341919, -0.17094206809997559, -0.6887978315353394, -0.0720900297164917, 0.6649425029754639, -2.1960105895996094, 
-0.04380767047405243, -1.3458832502365112, -0.01586870849132538, 0.3269357979297638, 1.8947877883911133, -0.8918212652206421, 0.6019465923309326, 
-0.6126677989959717, -1.866412878036499, 0.41738367080688477, 3.3384010791778564, -0.14353682100772858, -0.7294646501541138, -1.5150107145309448, 
-0.15188685059547424, 0.4652091860771179, -0.2732675075531006, 1.4731334447860718, 1.2472723722457886, -0.3432563245296478, -1.6798181533813477, 
-1.0156166553497314, 0.635979950428009, 0.6705375909805298, 1.0923490524291992, -0.22903858125209808, -1.0787856578826904, -0.6578983664512634, 
-0.32369399070739746, 1.160487413406372, -0.3929760754108429, -1.8522967100143433, -0.18715742230415344, 1.2173253297805786, 0.9440420269966125, 
-0.6638824939727783, -0.7414604425430298, -1.6593620777130127, -1.5289051532745361, -1.4805946350097656, -2.384219169616699, 1.2771003246307373, 
0.4020206928253174, 0.6603327989578247, -1.7166839838027954, 0.18859779834747314, -3.228245735168457, 0.41028693318367004, 0.09625274688005447, 
0.18386191129684448, -1.6144064664840698, 0.2552972137928009, 0.9638718366622925, 0.0071239173412323, -1.2238768339157104, 0.9680075645446777, 
-0.027866393327713013, -0.4424701929092407, -0.6802304983139038, 0.3609563708305359, 0.9305369853973389, -0.2683807611465454, -0.749928891658783, 
-0.3091914653778076, -0.40766409039497375, -0.5173792839050293, -0.8289498090744019, -0.173334538936615, -0.2861333191394806, 0.744637131690979, 
-0.7855799198150635, -1.9300177097320557, -0.8083404302597046, -1.676399827003479, -1.8702013492584229, -0.719226062297821, -1.6115227937698364, 
-0.6888172626495361, -1.446676254272461, -0.20052847266197205, -0.6489010453224182, 1.1810858249664307, -1.5956320762634277, -1.7167692184448242, 
-0.8922606706619263, -1.4861433506011963, 0.09947484731674194, 1.5140267610549927, 0.9154641628265381, -0.8221081495285034, -0.16836343705654144, 
-1.9013394117355347, 0.7354775667190552, -0.3685917556285858};

#endif

#endif
