// Numpy array shape [128]
// Min -0.2787556
// Max 0.33585393
// Number of zeros 0

#ifndef TRANSFORMERS_1_LINEAR_3_BIAS_H_
#define TRANSFORMERS_1_LINEAR_3_BIAS_H_

#ifndef __SYNTHESIS__
model_default_t transformers_1_linear_3_bias[128];
#else
model_default_t transformers_1_linear_3_bias[128] = {0.09189639985561371, 1.0784649848937988, -0.07557613402605057, -0.6496714949607849, -0.4910276234149933, 0.2568012475967407, 
0.7475322484970093, 2.2118799686431885, 0.2830696403980255, -1.4393627643585205, 0.15254050493240356, 2.1301956176757812, 0.44236505031585693, 
1.3605916500091553, 1.003993034362793, -0.30927303433418274, -0.01536703109741211, 0.1576823741197586, -1.6994478702545166, 0.6947839260101318, 
-0.9736499786376953, -0.9788814783096313, 0.31429702043533325, -0.060980066657066345, -1.4126405715942383, 0.22116491198539734, 0.4670504331588745, 
-0.9775462746620178, 0.909469723701477, -0.015458077192306519, 0.2343396544456482, 0.4047354459762573, 0.9248976707458496, 1.0874968767166138, 
-0.012732893228530884, -0.6951372027397156, -0.022252768278121948, 0.2441886067390442, -0.23794084787368774, -2.000732898712158, -0.4634649455547333, 
-0.26641178131103516, 0.6429485082626343, 1.8188557624816895, -0.37881097197532654, -0.024884864687919617, -0.5350432991981506, -0.9160763025283813, 
1.7301080226898193, 0.1724005490541458, 0.7228498458862305, 0.27033525705337524, 0.28757721185684204, -0.9348660707473755, -0.2812572717666626, 
-0.25918513536453247, 0.0822809562087059, -0.025906939059495926, -0.980640709400177, 0.36695581674575806, 2.516453266143799, 0.7039182186126709, 
0.21904060244560242, 0.31608545780181885, -1.5588631629943848, -0.13471607863903046, 0.2491455078125, 0.2196301370859146, -0.13371552526950836, 
0.032217271625995636, 2.427100658416748, -0.44312775135040283, 0.8097093105316162, -0.07438347488641739, -0.6023380756378174, -0.9279301166534424, 
0.622055172920227, 0.13882198929786682, -0.8605350852012634, 1.3357287645339966, -0.1437365561723709, -0.413766473531723, -1.0213569402694702, 
0.950007438659668, -0.1393425464630127, 0.2607162594795227, -1.1680047512054443, -0.4107378423213959, -0.47789236903190613, 0.13473063707351685, 
-0.6291452050209045, -0.0953419953584671, 1.7763330936431885, 1.216917872428894, -1.006770133972168, 0.1563073694705963, 0.5304201245307922, 
-0.9251988530158997, 0.8620614409446716, 0.7974611520767212, -2.095620632171631, -0.43550026416778564, -0.001960471272468567, 1.2843490839004517, 
-0.7410418391227722, -0.9925965070724487, -0.4374687671661377, 0.31223079562187195, 0.45454394817352295, -0.5301381945610046, 0.7752941250801086, 
1.439967155456543, -0.5344744324684143, 0.20680993795394897, 1.1161178350448608, -0.16163194179534912, -0.35655874013900757, -0.04693249240517616, 
-1.0288728475570679, 0.9545994997024536, 0.5888116955757141, 0.8934693336486816, 0.45879560708999634, 2.196704864501953, 0.2920217514038086, 
-0.0788986086845398, 0.8089032173156738, -0.5216662883758545};

#endif

#endif
