0.17860651016235352, -0.02298351749777794, 0.26779407262802124, 0.003277759300544858, -0.10492312908172607, -0.1188604012131691, 0.06282532960176468, 0.1445910632610321, 0.024373143911361694, 0.036839235574007034, -0.09814751893281937, 0.3085916042327881, -0.012924494221806526, 0.14099806547164917, -0.03921600803732872, 0.22300109267234802, 0.13108956813812256, 0.03742997720837593, -0.04408624768257141, 0.025768142193555832, 0.19535206258296967, -0.04861510172486305, -0.16003067791461945, 0.0585809126496315, -0.02197885699570179, 0.035295866429805756, -0.1604200303554535, 0.05986947566270828, -0.16143716871738434, 0.07774441689252853, 0.121422179043293, -0.14290404319763184, -0.017880434170365334, -0.06041561812162399, -0.24829517304897308, 0.08603601157665253, 0.10665757954120636, 0.023988300934433937, -0.018692804500460625, 0.19983212649822235, 0.04438246786594391, -0.1171068474650383, 0.08003254234790802, 0.07508611679077148, -0.026403561234474182, 0.04597090557217598, -0.10669189691543579, -0.06437504291534424, 0.1326797753572464, 0.014480125159025192, -0.34164053201675415, 0.017990749329328537, 0.12815004587173462, 0.040555402636528015, -0.11914068460464478, 0.11620711535215378, 0.00598251074552536, 0.2010449916124344, 0.11871916800737381, 0.05733369290828705, -0.19363023340702057, 0.13255296647548676, 0.008732345886528492, -0.041919369250535965, 0.11556664854288101, -0.1284421980381012, 0.06320054084062576, 0.012688950635492802, 0.06377691775560379, 0.24424222111701965, 0.0381958968937397, -0.050327789038419724, -0.004156891722232103, -0.048343475908041, -0.04581073299050331, 0.004206159617751837, -0.007461152505129576, -0.09788313508033752, 0.017040738835930824, 0.09925715625286102, 0.04732330143451691, 0.1617722064256668, 0.0011465743882581592, 0.22301243245601654, 0.0633637011051178, 0.00632107350975275, -0.057676613330841064, -0.005416078958660364, -0.04983781650662422, 0.06924919784069061, 0.03729042038321495, 0.020073173567652702, -0.01842036284506321, -0.04767388850450516, -0.00095739820972085, -0.18297621607780457, -0.09318067133426666, 0.003381853923201561, 0.051627375185489655, -0.037939220666885376, -0.07834581285715103, 0.09216637164354324, -0.05657550320029259, 0.17179718613624573, -0.12962187826633453, -0.0145638482645154, 0.04269339144229889, -0.20642949640750885, -0.01171841286122799, 0.019440755248069763, 0.1313079446554184, -0.13732784986495972, 0.05725152790546417, 0.09997668117284775, -0.031839143484830856, 0.014194161631166935, 0.07187061756849289, 0.08974689990282059, 0.11561060696840286, 0.12182094156742096, -0.011754526756703854, -0.07969458401203156, -0.11517103016376495, -0.0077614495530724525, -0.00876384787261486, -0.06839259713888168, -0.07670921832323074, -0.022712016478180885, 0.21810267865657806, -0.1258961260318756, -0.08720903098583221, 0.037998929619789124, 0.16780510544776917, -0.0739419087767601, -0.12029515206813812, -0.23240874707698822, -0.12979115545749664, -0.035183172672986984, -0.06779729574918747, 0.46849918365478516, -0.051135871559381485, -0.21779592335224152, -0.5037586688995361, 0.3634898066520691, 0.3974154591560364, 0.3453710079193115, 0.3148902952671051, 0.1015452891588211, 0.20667466521263123, 0.17418994009494781, -0.0348447822034359, 0.15276068449020386, -0.12131334096193314, 0.23063862323760986, 0.36388593912124634, 0.08976541459560394, 0.13614977896213531, -0.23475442826747894, 0.038800403475761414, -0.1644897758960724, 0.17677238583564758, 0.45319664478302, -0.08992566168308258, -0.13812319934368134, 0.056821584701538086, 0.42504486441612244, 0.0673699751496315, 0.0923594981431961, -0.07881297171115875, 0.137259840965271, 0.07851804792881012, -0.26296570897102356, 0.009996339678764343, 0.15198703110218048, 0.194206103682518, -0.3175825774669647, 0.1456518918275833, -0.1975305676460266, -0.01608896441757679, 0.023476997390389442, 0.01000291109085083, 0.000668511085677892, 0.005838313605636358, 0.1645936369895935, -0.34739816188812256, -0.05165095999836922, -0.024329500272870064, 0.3517340421676636, 0.09971185028553009, 0.17722316086292267, -0.17764921486377716, -0.2903110980987549, 0.014118707738816738, 0.05046690255403519, -0.069757379591465, -0.0020432767923921347, -0.025526419281959534, -0.019252760335803032, -0.05171161890029907, -0.014753852039575577, -0.08567734062671661, 0.019361263141036034, -0.039873357862234116, -0.10608898848295212, -0.10268700122833252, 0.023044109344482422, 0.04250849038362503, -0.03987549990415573, 0.0831579938530922, 0.0028004932682961226, -0.1591746062040329, 0.035787418484687805, 0.055730924010276794, 0.06349490582942963, 0.07529252767562866, 0.151000514626503, -0.1944943368434906, -0.04182087630033493, -0.02358316443860531, 0.086026631295681, -0.014591138809919357, -0.1134214922785759, 0.0415806882083416, -0.2185293287038803, -0.01906820386648178, -0.05373843386769295, -0.016958629712462425, 0.09259013086557388, -0.1480696052312851, 0.10331844538450241, -0.04462828487157822, -0.08545612543821335, -0.054372262209653854, -0.0194692499935627, -0.04453379660844803, 0.12564942240715027, -0.04323470965027809, -0.0674501433968544, 0.00734872929751873, 0.017026105895638466, 0.07302474230527878, -0.0117921382188797, -0.015805494040250778, -0.10051208734512329, -0.07615914195775986, 0.04103996232151985, 0.008447100408375263, 0.01527535542845726, -0.2128663957118988, 0.058546025305986404, 0.07820475101470947, -0.007225740235298872, 0.024591775611042976, 0.0923713818192482, -0.03542819991707802, 0.06814005225896835, 0.14961247146129608, -0.2477247565984726, -0.06544404476881027, -0.05483512580394745, -0.04099348559975624, -0.15014910697937012, 0.08902391046285629, -0.1219477653503418, -0.17928746342658997, -0.270892471075058, -0.2386927306652069, 0.5362891554832458, 0.04774824529886246, 0.1998649388551712, -0.32512056827545166, 0.4532175064086914, 0.24132384359836578, 0.34960076212882996, 0.4319588541984558, 0.015577471815049648, 0.09235107153654099, -0.08498872071504593, 0.010181257501244545, -0.00908143725246191, 0.03623827546834946, 0.20950064063072205, 0.5345234274864197, -0.05270383134484291, 0.15675368905067444, -0.1279757022857666, -0.011262252926826477, 0.12782499194145203, 0.024083858355879784, 0.28228673338890076, -0.101540707051754, 0.10255710780620575, 0.22763405740261078, 0.1417333036661148, 0.01648762822151184, 0.16777129471302032, -0.12263919413089752, 0.3321167528629303, 0.030564356595277786, -0.45929214358329773, -0.013146944344043732, -0.03324110433459282, 0.22520503401756287, -0.10352275520563126, -0.13357308506965637, -0.10598384588956833, -0.013148856349289417, -0.1658737063407898, -0.055096715688705444, 0.07678927481174469, -0.34926629066467285, 0.33760446310043335, 0.08534514904022217, -0.1965557485818863, -0.10705184936523438, 0.19655846059322357, -0.06836356967687607, -0.24101607501506805, -0.22011499106884003, -0.11342962831258774, 0.01693102717399597, 0.03920593112707138, -0.0670635923743248, 0.08268511295318604, -0.012391720898449421, -0.07162880897521973, 0.00764117855578661, -0.018703145906329155, 0.09640796482563019, 0.15360945463180542, 0.0369802825152874, -0.029710039496421814, 0.02152220718562603, 0.08464717864990234, 0.011557547375559807, 0.03829788416624069, -0.07717444747686386, -0.1106380820274353, -0.08099479973316193, -0.04399572312831879, 0.18341900408267975, 0.1074766293168068, -0.13969092071056366, 0.08892160654067993, -0.05773356929421425, 0.018396131694316864, -0.2698908746242523, -0.1151338443160057, 0.075919508934021, 0.061862923204898834, 0.03409471735358238, -0.07954012602567673, 0.01540177408605814, -0.10799652338027954, -0.06666133552789688, 0.0982162207365036, 0.005149454344063997, 0.1291903853416443, 0.07690435647964478, -0.06569582968950272, 0.0860210433602333, -0.1634058803319931, 0.0687117651104927, 0.1841704547405243, 0.017886020243167877, 0.101961649954319, 0.06903250515460968, -0.1427280753850937, 0.08336910605430603, -0.035940323024988174, -0.1204443946480751, 0.12684398889541626, 0.16562193632125854, 0.15046781301498413, -0.03398511931300163, -0.16117171943187714, -0.04527254030108452, 0.00627250736579299, 0.16256067156791687, 0.05388416722416878, -0.12694276869297028, 0.1200992539525032, 0.08099828660488129, -0.0006080163293518126, -0.08393853157758713, 0.13200482726097107, -0.07109954208135605, -0.13382261991500854, -0.03558574616909027, 0.15795834362506866, -0.4132517874240875, 0.14198249578475952, -0.2647242844104767, -0.19217965006828308, 0.16658304631710052, 0.2558068037033081, -0.15334981679916382, -0.4063725471496582, 0.03470199555158615, 0.15701478719711304, -0.35906273126602173, 0.4567095935344696, 0.42902126908302307, -0.5838397741317749, 0.4472847878932953, -0.11548586934804916, 0.5262736678123474, 0.28598299622535706, -0.24228383600711823, -0.11830435693264008, 0.27268245816230774, 0.5436975955963135, -0.29231277108192444, -0.2939910590648651, -0.47075963020324707, -0.5072951316833496, -0.520481288433075, -0.39626097679138184, 0.12586341798305511, 0.027835099026560783, -0.013849148526787758, -0.2426588535308838, -0.33569538593292236, 0.34793683886528015, 0.4012245535850525, 0.11458925157785416, 0.49588528275489807, -0.2691066265106201, -0.23924581706523895, -0.20922192931175232, 0.21956920623779297, 0.2147357314825058, -0.029925091192126274, 0.4086000621318817, 0.06233670189976692, 0.49965426325798035, 0.040192488580942154, -0.4834712743759155, 0.13488058745861053, -0.4429406523704529, 0.2728171646595001, 0.28110700845718384, 0.5769517421722412, -0.31910473108291626, -0.22210177779197693, -0.07558170706033707, 0.2587427794933319, 0.2951640784740448, 0.13612662255764008, -0.2133561670780182, 0.07053478807210922, 0.0991804450750351, -0.053378183394670486, -0.08171896636486053, -0.028126779943704605, -0.14277620613574982, -0.12385354936122894, -0.15329332649707794, -0.10395771265029907, 0.38184720277786255, 0.11737709492444992, -0.07160591334104538, -0.1701754927635193, 0.3086518943309784, 0.15319891273975372, 0.28656673431396484, 0.3335253596305847, 0.19249041378498077, -0.05052946135401726, -0.10742116719484329, -0.06509796530008316, -0.01769169792532921, 0.052359439432621, 0.153193861246109, 0.32840707898139954, -0.11910839378833771, 0.2774171829223633, -0.22023196518421173, -0.01260778121650219, 0.15601401031017303, 0.12321466207504272, 0.20654986798763275, -0.06957831233739853, -0.10110045224428177, -0.023333024233579636, 0.2854713797569275, 0.05584559217095375, 0.16520190238952637, -0.20726557075977325, 0.08322994410991669, -0.06588874012231827, -0.32977068424224854, -0.019894294440746307, 0.0512557290494442, 0.24608036875724792, -0.002617950551211834, 0.025856852531433105, -0.12238654494285583, 0.033047303557395935, -0.033515069633722305, 0.016317859292030334, -0.012272562831640244, -0.20365361869335175, 0.2488255351781845, 0.08780292421579361, -0.1238211989402771, -0.10750963538885117, 0.1850915402173996, 0.04935985803604126, -0.08488469570875168, -0.11811438947916031, -0.06306827813386917, -0.041651401668787, 0.46838828921318054, -0.03499685227870941, 0.025934861972928047, -0.025691945105791092, -0.06005494296550751, 0.06135023012757301, 0.05601761117577553, 0.25377336144447327, -0.026929790154099464, 0.11620054394006729, -0.040313079953193665, -0.024463849142193794, 0.22819773852825165, -0.0001276873954338953, 0.002299895975738764, -0.004205931909382343, -0.20872405171394348, 0.0644998550415039, 0.15173353254795074, -0.22886782884597778, 0.04060826823115349, -0.012284662574529648, -0.07427407056093216, 0.14050331711769104, -0.0021299056243151426, 0.19451653957366943, -0.34504809975624084, 0.27410343289375305, 0.06701058894395828, 0.2185305655002594, 0.23898911476135254, 0.3504830598831177, 0.13580253720283508, 0.12289197742938995, -0.04960184916853905, -0.06202784553170204, 0.026250680908560753, 0.4873201847076416, -0.06424632668495178, -0.3277738690376282, 0.05258305370807648, -0.5502502918243408, -0.03411949425935745, 0.2631925940513611, -0.004879612009972334, 0.008372684009373188, 0.0052360366098582745, -0.05715552344918251, -0.394096702337265, 0.015332862734794617, -0.12392154335975647, 0.03131362423300743, 0.06919598579406738, 0.08724155277013779, -0.0317569300532341, 0.03281787410378456, 0.052260179072618484, -0.2604242265224457, 0.04323703795671463, 0.1186649352312088, -0.33360156416893005, -0.07269346714019775, 0.03408227860927582, 0.17808929085731506, -0.18130365014076233, 0.09497582167387009, 0.17680159211158752, -0.12393166869878769, -0.2539399564266205, -0.08069398999214172, -0.03278656676411629, -0.19637379050254822, -0.10235049575567245, -0.20502397418022156, 0.28760474920272827, 0.04189792647957802, 0.06327932327985764, -0.18118873238563538, 0.2644593119621277, 0.19026069343090057, 0.1922062486410141, 0.13573983311653137, -0.04352958872914314, 0.08744703978300095, -0.01721794903278351, -0.0679953470826149, -0.05348523333668709, -0.05553658306598663, -0.10976853966712952, 0.2795543968677521, 0.08741897344589233, 0.16695620119571686, -0.11381543427705765, -0.019974360242486, 0.07961521297693253, 0.03747140243649483, 0.26349592208862305, -0.1271180361509323, -0.12167488038539886, -0.0036523286253213882, 0.2869793474674225, 0.0037425917107611895, 0.11577079445123672, 0.02102167159318924, 0.04690404236316681, -0.05064740777015686, -0.16520336270332336, -0.08370696753263474, 0.03454052656888962, 0.2893272042274475, 0.1017354279756546, -0.013924408704042435, -0.030066639184951782, 0.0921444445848465, -0.02678658254444599, 0.0948840081691742, 0.11417548358440399, -0.2563715875148773, 0.010372859425842762, -0.09931719303131104, 0.009232571348547935, -0.026944905519485474, 0.12723974883556366, -0.055668581277132034, 0.12023401260375977, 0.022638367488980293, 0.01823427714407444, -0.058977458626031876, 0.11654210090637207, 0.009938751347362995, -0.0589524582028389, 0.07073885947465897, -0.007920670323073864, 0.049355730414390564, -0.005373939406126738, 0.0007553016766905785, -0.058842964470386505, 0.007804307155311108, -0.03236619755625725, -0.11741739511489868, -0.05451008677482605, -0.003035617060959339, 0.04275842756032944, -0.12213341146707535, -0.06857908517122269, 0.045564305037260056, -0.05117543041706085, 0.011323933489620686, -0.03619717061519623, -0.0126088447868824, 0.04757731780409813, -0.06561221182346344, 0.0671687051653862, -0.11338432878255844, 0.0010758965509012341, -0.10621681809425354, 0.04487547278404236, 0.012521914206445217, -0.005710205063223839, 0.013254240155220032, -0.13584160804748535, -0.07430128008127213, 0.021743252873420715, -0.0009304718114435673, -0.06068805977702141, -0.018326226621866226, 0.02344423159956932, -0.01277335174381733, 0.007999910041689873, 0.09251062572002411, -0.05465973541140556, -0.00823763757944107, -0.023022590205073357, 0.04794180020689964, 0.025067564100027084, 0.06282436102628708, 0.03156154230237007, 0.02949937991797924, 0.12547756731510162, 0.024629902094602585, 0.03179298713803291, -0.06307477504014969, 0.040827494114637375, -0.02084883488714695, 0.09121356904506683, 0.05102626234292984, -0.08867572247982025, 0.014361295849084854, 0.0019329003989696503, 0.06568582355976105, -0.01389303058385849, 0.05426855757832527, -0.07016463577747345, -0.05705339461565018, 0.006265989504754543, 0.04479829967021942, -0.01793062686920166, 0.25808820128440857, -0.08583477139472961, -0.02614191733300686, -0.06875093281269073, -0.17672811448574066, 0.4743952453136444, 0.08681541681289673, 0.17495845258235931, -0.09974072128534317, 0.3356858789920807, 0.3380335867404938, 0.10047534108161926, 0.2320280373096466, 0.22473959624767303, 0.0988846868276596, -0.026674389839172363, -0.19292064011096954, -0.02784254029393196, 0.07111793756484985, 0.11224745959043503, 0.08153512328863144, -0.12361788749694824, 0.1485724151134491, -0.30095431208610535, 0.18232755362987518, 0.16033469140529633, 0.06134708225727081, 0.15785931050777435, -0.22731979191303253, 0.08601842075586319, 0.03731951490044594, 0.13639798760414124, 0.038288310170173645, 0.04071631655097008, -0.19511181116104126, 0.1569310873746872, -0.04010225087404251, -0.044747065752744675, 0.010463546961545944, 0.16431081295013428, 0.03192531690001488, -0.09198709577322006, 0.058453015983104706, -0.18847797811031342, -0.12384245544672012, -0.009873820468783379, 0.06950549781322479, 0.033823661506175995, -0.29740408062934875, 0.27311432361602783, 0.1293773353099823, -0.14977599680423737, 0.049962710589170456, 0.05988176912069321, -0.06584884226322174, -0.11658166348934174, -0.000296945363515988, -0.21163345873355865, 0.20652176439762115, 0.02248441055417061, 0.0901198461651802, 0.028071708977222443, -0.4233801066875458, -0.16160787642002106, -0.11843916773796082, 0.1631477177143097, 0.3610210120677948, 0.5232993960380554, -0.07572509348392487, -0.3918689489364624, -0.05943012237548828, -0.18559393286705017, 0.2671031653881073, -0.31637609004974365, -0.00048267407692037523, -0.5071386098861694, -0.3306950032711029, 0.29851701855659485, 0.04360441863536835, -0.22297163307666779, -0.35998883843421936, -0.17935076355934143, -0.2365831881761551, -0.20741461217403412, -0.349918395280838, -0.09842440485954285, 0.26755911111831665, -0.09921098500490189, 0.20029057562351227, 0.04861001297831535, 0.23901329934597015, 0.06811869144439697, 0.08679211139678955, -0.23313093185424805, -0.2887822985649109, 0.4149836301803589, 0.29759180545806885, -0.31027504801750183, -0.2195972055196762, -0.4572787582874298, -0.12649281322956085, 0.4275493025779724, 0.31045177578926086, 0.12183242291212082, -0.17071102559566498, -0.02673434279859066, 0.40302449464797974, -0.21916644275188446, -0.15750199556350708, -0.2713671624660492, 0.025094475597143173, 0.2646006643772125, 0.708148717880249, -0.004020766820758581, -0.4750573933124542, 0.2200029045343399, -0.15815608203411102, 0.3739803731441498, 0.13591530919075012, 0.39097505807876587, 0.06697133183479309, 0.19409608840942383, -0.06312450021505356, -0.07018105685710907, -0.16390809416770935, -0.18160009384155273, 0.23128657042980194, -0.14435148239135742, -0.07034659385681152, -0.15976259112358093, -0.2268287092447281, -0.2986082136631012, 0.015374633483588696, 0.5095323324203491, -0.02890736050903797, -0.15266770124435425, -0.44781333208084106, 0.6493445634841919, 0.33195778727531433, 0.29282429814338684, 0.2776133716106415, -0.0006407139007933438, 0.22790884971618652, 0.1782325953245163, 0.10746034979820251, 0.23479904234409332, -0.33140048384666443, 0.06299278885126114, 0.3102964758872986, 0.019366327673196793, 0.027661949396133423, -0.38628914952278137, 0.023896411061286926, -0.3051273822784424, -0.032756537199020386, 0.4129405617713928, -0.3808222711086273, 0.21507883071899414, 0.14639586210250854, -0.010506766848266125, -0.12487033754587173, -0.06489377468824387, -0.1820840686559677, 0.32309040427207947, 0.12463542073965073, -0.22676710784435272, 0.04449022188782692, -0.20321053266525269, 0.04192804917693138, -0.18153442442417145, 0.02554497681558132, -0.06253202259540558, 0.24448589980602264, 0.002395827556028962, -0.38675183057785034, -0.2713935375213623, -0.0779137909412384, 0.2088775783777237, -0.23855414986610413, 0.06996075809001923, 0.1381770819425583, -0.0251369159668684, 0.1886710673570633, 0.024562811478972435, -0.19306591153144836, -0.20291918516159058, -0.07246977090835571, 0.007628296501934528, 0.061353910714387894, 0.1332211196422577, -0.008187176659703255, -0.05932069569826126, -0.021715231239795685, -0.047316331416368484, 0.14105342328548431, -0.09846214205026627, 0.1139504536986351, -0.010985936038196087, 0.09006700664758682, 0.09578098356723785, -0.014593632891774178, -0.029636625200510025, -0.011055734008550644, -0.06142565235495567, 0.03133893013000488, -0.031383998692035675, -0.12585324048995972, 0.0707600936293602, 0.03654414042830467, -0.17131666839122772, 0.05014694109559059, 0.13694629073143005, -0.0354515016078949, -0.05211656913161278, 0.12103157490491867, 0.07968491315841675, -0.02585063874721527, 0.07153872400522232, 0.12740862369537354, 0.08310221880674362, 0.0630853921175003, -0.074294812977314, 0.03531978279352188, 0.0851258635520935, 0.11401958018541336, -0.0756719559431076, -0.03794189542531967, -0.0559517964720726, -0.10501504689455032, 0.01629464700818062, -0.025591975077986717, -0.02912101335823536, 0.05810032784938812, 0.04454272240400314, -0.05101185664534569, 0.003419739892706275, -0.09676150977611542, 0.06370764225721359, 0.1298525631427765, 0.0004146960563957691, -0.000379955890821293, -0.09657717496156693, 0.09154701977968216, -0.011248448863625526, -0.006750206928700209, -0.0005176172126084566, -0.1508823037147522, -0.040635108947753906, 0.04057122766971588, -0.07512213289737701, -0.07388050854206085, -0.006348589435219765, 0.1610381305217743, 0.016453372314572334, 0.009278959594666958, 0.15940387547016144, 0.12262678891420364, 0.003554324386641383, -0.07338371872901917, -0.05845063924789429, -0.1466006338596344, 0.19431324303150177, 0.046017929911613464, 0.32647860050201416, 0.1029827743768692, 0.20864415168762207, -0.011422119103372097, -0.052371181547641754, 0.010664110071957111, 0.10544666647911072, -0.02489366941154003, -0.15499308705329895, -0.08321236819028854, -0.08397526293992996, -0.13616783916950226, 0.015382645651698112, -0.102367103099823, -0.0425088070333004, -0.09346272796392441, -0.06765612959861755, -0.024431822821497917, 0.05823805183172226, 0.049882080405950546, -0.04791572317481041, -0.008982066065073013, 0.16299544274806976, -0.141824409365654, -0.06748943030834198, -0.09502825140953064, 0.07600966840982437, -0.22094318270683289, 0.046694859862327576, -0.09201891720294952, 0.07191869616508484, 0.030868932604789734, 0.10722170025110245, -0.006361871957778931, 0.14468449354171753, 0.022783884778618813, -0.019247153773903847, -0.08833466470241547, 0.010666144080460072, -0.0014887896832078695, 0.11790447682142258, -0.4793391525745392, 0.12104073166847229, 0.03456138074398041, -0.002276119077578187, -0.060096077620983124, -0.005164456088095903, -0.13135039806365967, -0.08455199748277664, -0.06563027948141098, -0.037085145711898804, -0.3351456820964813, -0.17401240766048431, 0.1515316665172577, -0.03888208419084549, -0.12578360736370087, -0.09838143736124039, 0.20448681712150574, 0.24936775863170624, -0.0007916732574813068, -0.1382380872964859, -0.041517872363328934, -0.3787405490875244, 0.04777764901518822, 0.366180956363678, 0.17327894270420074, 0.013969461433589458, -0.1579630970954895, -0.3068637251853943, -0.04334785416722298, -0.2228425294160843, -0.20143616199493408, -0.1099548414349556, 0.17451633512973785, -0.04367077350616455, 0.20042474567890167, 0.010550620034337044, 0.02549670822918415, -0.08434285968542099, -0.0872114822268486, 0.015063155442476273, -0.016191259026527405, 0.330911785364151, -0.25542891025543213, -0.1829608529806137, 0.07984577119350433, 0.04905847832560539, 0.3296516537666321, -0.3268897235393524, -0.05411064624786377, 0.12509457767009735, -0.1000543087720871, -0.009267093613743782, 0.03627803549170494, -0.01029500737786293, 0.11496087163686752, -0.2171085625886917, 0.11758533120155334, 0.2951025366783142, -0.18469303846359253, -0.049259211868047714, 0.0615730844438076, -0.06873003393411636, -0.08656839281320572, 0.15818601846694946, -0.17118947207927704, -0.04386710003018379, 0.3349353075027466, -0.01190124824643135, -0.00020442584354896098, -0.23438313603401184, 0.1130610778927803, -0.23933251202106476, -0.0015197654720395803, 0.031149083748459816, 0.15925712883472443, 0.05319325625896454, -0.10705956071615219, -0.02047017775475979, -0.040903687477111816, -0.8232895135879517, -0.02792610414326191, -0.125520721077919, -0.09047743678092957, 0.41852468252182007, -0.1728680282831192, 0.2823168635368347, -0.1439286172389984, -1.1439834833145142, 0.11138181388378143, 0.20104241371154785, 0.2591607868671417, -0.1704416126012802, -0.359592080116272, 0.3221212327480316, 0.11808694899082184, 0.05739710479974747, -0.4471507966518402, 0.05272228643298149, -0.2963455617427826, -0.4107968509197235, -0.6594877243041992, 0.07401253283023834, 0.6140137314796448, -0.020138995721936226, 0.07413117587566376, -0.023093942552804947, 0.29169583320617676, 0.14944389462471008, -0.21750709414482117, 0.041317906230688095, -0.2572408616542816, 0.8643432855606079, 0.018056225031614304, -0.24933604896068573, -0.10065573453903198, -0.6520150303840637, -0.38372811675071716, 0.7306976914405823, 0.08680999279022217, 0.20793569087982178, -0.5137208104133606, -0.015551520511507988, 0.05157143995165825, -0.18496210873126984, -0.06562988460063934, -0.3016916811466217, -0.0748983696103096, 0.17474770545959473, -0.1411735564470291, 0.23196856677532196, -0.4450222849845886, -0.006450722459703684, -0.39419206976890564, 0.2516436278820038, 0.17173466086387634, 0.594724178314209, -0.19362126290798187, 0.04526685178279877, 0.23231364786624908, -0.10345769673585892, 0.1633397340774536, 0.26317277550697327, -0.32749465107917786, -0.27635177969932556, -0.19464008510112762, 0.06531990319490433, 0.643198549747467, 0.007724978029727936, -0.12318700551986694, -0.17590688169002533, 0.10263898223638535, 0.6165710687637329, 0.14180698990821838, -1.1582553386688232, 0.09617654979228973, -0.07959937304258347, -0.05663101747632027, 0.1776171177625656, -0.305804580450058, -0.11916936933994293, -0.2415951043367386, -0.21741479635238647, -0.06874582916498184, -0.05932803824543953, 0.278359979391098, -0.091027170419693, 0.11395635455846786, 0.24220575392246246, 0.13825580477714539, 0.34952598810195923, 0.236127108335495, 0.17179395258426666, 0.06250329315662384, -0.3490343689918518, -0.08142346888780594, 0.5865606665611267, 0.05736321583390236, 0.02876342087984085, -0.09597446024417877, 0.33731186389923096, -0.27474361658096313, -0.28683987259864807, 0.09633027762174606, 0.29502663016319275, 0.29255691170692444, -0.06800046563148499, 0.11889147758483887, -0.02543165534734726, -0.2232251763343811, 0.007743627764284611, 0.14040206372737885, 0.42468753457069397, 0.03806557133793831, 0.1049695611000061, -0.2753741145133972, -0.01855851337313652, -0.4194631576538086, 0.44000083208084106, -0.10696396231651306, 0.30135300755500793, 0.02861678972840309, 0.05684259533882141, -0.061427488923072815, -0.038582898676395416, -0.1379868984222412, -0.11071168631315231, 0.3142522871494293, 0.0729314386844635, -0.25961828231811523, -0.09119448065757751, -0.31509968638420105, -0.21357525885105133, -0.14805015921592712, 0.32140666246414185, -0.1059369146823883, -0.40141722559928894, -0.2771355211734772, 0.4741329252719879, 0.028590504080057144, 0.21573106944561005, 0.3005647361278534, -0.19359812140464783, 0.40513405203819275, 0.16507142782211304, 0.22670818865299225, 0.4624794125556946, -0.10988236218690872, 0.045235008001327515, 0.1999213844537735, 0.28582319617271423, -0.2926409840583801, -0.2907956838607788, -0.18017196655273438, -0.3894980847835541, -0.3082999885082245, -0.01990417391061783, -0.3733607530593872, 0.4185713231563568, 0.24871625006198883, -0.3101944029331207, -0.14513471722602844, 0.05167898163199425, 0.12086585909128189, 0.06136082485318184, 0.3317771852016449, -0.07221813499927521, -0.2944338619709015, -0.29287663102149963, 0.01592237688601017, -0.23558630049228668, -0.10931777954101562, 0.10162287205457687, 0.19674105942249298, -0.2009304165840149, -0.14360445737838745, -0.20188280940055847, 0.11064106971025467, 0.01724844239652157, -0.08106524497270584, 0.10296463966369629, 0.27523475885391235, -0.3094880282878876, 0.1696503758430481, 0.09782984852790833, -0.1688668578863144, -0.2661321461200714, -0.01928436942398548, -0.1248563677072525, -0.1532343477010727, -0.05380019173026085, -0.012172626331448555, 0.1388721466064453, 0.002610670169815421, -0.04537425562739372, -0.2155815213918686, -0.1619662493467331, -0.0851469337940216, 0.17307551205158234, -0.00051554647507146, -0.17503893375396729, -0.24114960432052612, -0.07779841125011444, 0.020807305350899696, 0.17096270620822906, 0.11638624966144562, 0.18055154383182526, -0.23802994191646576, -0.08225537091493607, -0.013917780481278896, -0.18853037059307098, -0.05025874078273773, 0.14178258180618286, 0.26742589473724365, -0.2358916997909546, 0.1844101846218109, 0.09609593451023102, 0.09849346429109573, 0.04766170680522919, 0.2729533314704895, 0.18496203422546387, 0.16761091351509094, -0.11137669533491135, -0.0492953360080719, 0.2740424871444702, 0.1673431545495987, -0.02326756715774536, -0.26346248388290405, 0.33781927824020386, -0.1538233608007431, -0.32482922077178955, 0.11039900034666061, 0.004205890465527773, 0.17371951043605804, -0.033916838467121124, -0.009283771738409996, -0.2059318870306015, 0.14768727123737335, -0.13960376381874084, 0.00021113551338203251, 0.09950493276119232, 0.04262135177850723, 0.12137088179588318, 0.08005174994468689, -0.0951511561870575, -0.09868321567773819, 0.06298410147428513, 0.043693941086530685, -0.14441630244255066, 0.059057608246803284, -0.09727458655834198, 0.3810109496116638, -0.34443777799606323, 0.3016367256641388, 0.39456185698509216, -0.21291936933994293, -0.6255623698234558, 1.0294859409332275, -0.08820673078298569, 0.9487320780754089, 0.28014326095581055, -0.425278902053833, -0.2690914273262024, 1.2519073486328125, 0.11362159252166748, 0.17147797346115112, -0.9884187579154968, 0.33439433574676514, 0.11657747626304626, -0.2659858465194702, 0.5048667788505554, -0.46754103899002075, 0.004021779168397188, -0.44066309928894043, -0.2491578459739685, 0.2071152776479721, 0.08857252448797226, -0.37493762373924255, -0.39133894443511963, 0.3963109850883484, 1.4459484815597534, 0.39765045046806335, 0.21185645461082458, 0.33184295892715454, 0.2683210074901581, -0.2517096996307373, 0.08561952412128448, 0.05686306953430176, 0.4390491843223572, -0.05740727484226227, -0.09900221228599548, -0.08101894706487656, -0.17587429285049438, -0.6602683067321777, 0.2913643717765808, 0.031832609325647354, 0.2727901041507721, -0.25932013988494873, -0.08996545523405075, -0.1209363043308258, -0.1814335584640503, -0.3284893333911896, -0.11079732328653336, 0.08889192342758179, 0.4625363349914551, -0.5935642719268799, 0.3504094183444977, 0.1803443431854248, -0.27312254905700684, -1.022772192955017, 0.34611833095550537, -0.1189277172088623, -0.24908210337162018, -0.11417021602392197, -0.13662199676036835, 0.1001695767045021, -0.08684783428907394, -0.026794228702783585, 0.14004579186439514, 0.04559389874339104, -0.17492638528347015, 0.06206778809428215, -0.14503487944602966, 0.12933985888957977, -0.04930883273482323, -0.26227203011512756, 0.05036860331892967, 0.11454873532056808, 0.14135782420635223, 0.083725206553936, -0.14775635302066803, 0.21521100401878357, -0.08801804482936859, -0.17262205481529236, 0.15459945797920227, 0.07513207942247391, 0.14426985383033752, -0.3016505241394043, 0.03681687265634537, 0.10648876428604126, 0.06690757721662521, -0.03738899901509285, 0.09527883678674698, -0.03889676555991173, 0.11230134963989258, 0.02133171074092388, 0.19533540308475494, -0.009927601553499699, 0.13913094997406006, -0.23570311069488525, 0.13900360465049744, 0.032568346709012985, 0.033918432891368866, 0.031775642186403275, 0.056097544729709625, 0.15791989862918854, -0.08870348334312439, 0.02995685674250126, 0.08331312239170074, -0.2241484820842743, 0.10687647014856339, -0.23157520592212677, -0.1038842722773552, -0.1928034871816635, 0.04286905378103256, 0.010766616091132164, -0.024070000275969505, 0.019059715792536736, 0.055249929428100586, -0.19802069664001465, 0.28767600655555725, -0.14965415000915527, -0.19952909648418427, -0.08713210374116898, -0.0854148119688034, -0.14653240144252777, 0.009802529588341713, -0.22639666497707367, -0.15477357804775238, 0.3065219819545746, -0.23536530137062073, 0.132033109664917, 0.040845613926649094, 0.047697290778160095, -0.017050916329026222, -0.15870654582977295, -0.11569911986589432, -0.06180591508746147, -0.09346936643123627, -0.12895837426185608, 0.415791392326355, 0.0332251600921154, -0.1331794112920761, -0.3535030484199524, 0.310960590839386, 0.24865441024303436, 0.49258604645729065, 0.2107856273651123, 0.2247854620218277, 0.0033668605610728264, -0.06412474811077118, -0.08730344474315643, -0.02471042051911354, -0.08161628246307373, 0.20795752108097076, 0.22154507040977478, -0.010751570574939251, 0.17228534817695618, -0.13960188627243042, 0.12253141403198242, 0.040148187428712845, 0.10805724561214447, 0.25367721915245056, -0.05600918084383011, -0.05255337804555893, 0.09179084002971649, 0.363494873046875, -0.025712966918945312, 0.05756203457713127, -0.21892109513282776, 0.26585954427719116, 0.06462176889181137, -0.283232182264328, -0.022758549079298973, 0.14380694925785065, 0.14263133704662323, -0.22334642708301544, 0.0412123017013073, -0.08243400603532791, -0.08800012618303299, 0.07922806590795517, -0.001117224688641727, 0.029612988233566284, 0.00807106215506792, 0.220613494515419, -0.15166205167770386, -0.07110448181629181, 0.0650988519191742, 0.26019036769866943, -0.08615123480558395, -0.12669560313224792, -0.15225866436958313, -0.03966705873608589, 0.18158434331417084, 0.02449658326804638, 0.02901359833776951, -0.018273551017045975, 0.07835149765014648, 0.2139861285686493, -0.004850340541452169, -0.04529491066932678, 0.00793163850903511, 0.05033433809876442, -0.04277420789003372, 0.013796401210129261, 0.034704480320215225, -0.338852196931839, -0.029155028983950615, -0.13947059214115143, -0.04226813465356827, 0.20567360520362854, -0.1665118932723999, 0.23391574621200562, -0.02193099446594715, 0.002052484080195427, -0.10825095325708389, 0.01926884800195694, -0.02451353706419468, 0.053999222815036774, 0.014462869614362717, -0.0479353666305542, 0.009299959056079388, 0.08109770715236664, -0.05449228733778, -0.10582911223173141, 0.05667787045240402, -0.11858771741390228, 0.16660624742507935, -0.016959764063358307, 0.016423534601926804, 0.19079391658306122, 0.059230465441942215, -0.09195312112569809, -0.030948635190725327, 0.09351596236228943, -0.03233166038990021, -0.16285888850688934, 0.03438222035765648, -0.012330174446105957, 0.054887555539608, -0.11458898335695267, 0.05386019125580788, -0.01181657426059246, 0.039245735853910446, -0.020264413207769394, -0.03549888730049133, -0.025574905797839165, 0.1414654552936554, 0.031464967876672745, -0.08049140125513077, -0.16491647064685822, -0.14019355177879333, 0.04622030630707741, 0.07164913415908813, 0.04326216131448746, -0.08859933912754059, -0.04270274564623833, -0.28546133637428284, -0.48943716287612915, -0.8382654190063477, -0.322272390127182, 0.4919993281364441, -0.3578650951385498, 0.9310128092765808, -0.9486689567565918, -0.0508430190384388, -0.9554631114006042, -0.7119484543800354, 0.5135285258293152, 0.4383949041366577, 0.4176363945007324, -0.507707417011261, -0.1497553586959839, 0.5342697501182556, -0.006860300432890654, 0.5340103507041931, 0.5617160797119141, 0.4429648220539093, 1.0750200748443604, -0.07021158933639526, 0.7518243789672852, 0.6437046527862549, 0.656118631362915, 0.17438973486423492, -0.026236843317747116, -0.14077240228652954, -0.3240271508693695, -0.14174684882164001, -0.36469852924346924, -0.4835805296897888, 0.4255366921424866, -0.574123740196228, 0.6306226849555969, 0.6468243598937988, -0.658153772354126, -0.5554965138435364, -0.6489362120628357, 0.12107907980680466, 0.6081802845001221, 0.3242863714694977, 0.0517207533121109, -0.5800906419754028, -0.4941074848175049, -0.5342104434967041, -0.8522482514381409, -0.9173042178153992, 0.39722228050231934, 0.4127929210662842, -0.6499535441398621, -0.4881340265274048, -0.01937314122915268, -0.8383843898773193, 0.7550908327102661, -0.3063015639781952, -0.8590438961982727, -0.19366200268268585, -0.6157141923904419, 0.34423932433128357, -0.1004757508635521, -0.7121407985687256, -0.8160638809204102, -0.01047888956964016, 0.06772942841053009, -0.03150906413793564, -0.054949719458818436, 0.10172579437494278, 0.03394273668527603, -0.07964584976434708, -0.08286848664283752, 0.05491644889116287, 0.024648331105709076, -0.039154957979917526, 0.011340256780385971, 0.0037218641955405474, 0.09330874681472778, 0.038282301276922226, -0.04453326016664505, 0.089994877576828, 0.013928455300629139, -0.06055011972784996, -0.05849216878414154, 0.02668762393295765, 0.0926976427435875, 0.019618872553110123, -0.03439411520957947, 0.06445091962814331, 0.0771065279841423, 0.005453201476484537, -0.03850310668349266, -0.04822172969579697, -0.0046829041093587875, 0.06917077302932739, 0.03810024634003639, 0.058723531663417816, 0.029474440962076187, -0.006797730922698975, -0.032374631613492966, 0.06773442775011063, 0.05706753954291344, -0.030315350741147995, 0.03146124631166458, -0.10780125856399536, 0.03919379413127899, 0.006242021918296814, 0.060688357800245285, -0.04470430687069893, 0.006660656537860632, -0.0609014630317688, 0.03264269977807999, 0.03673788905143738, -0.06470879167318344, -0.07633636891841888, 0.002069868380203843, -0.11375855654478073, -0.04866409674286842, 0.07230666279792786, 0.036043744534254074, -0.056661710143089294, 0.010020487941801548, -0.10059458017349243, -0.05502985790371895, 0.015462043695151806, -0.05924244225025177, 0.10699968785047531, 0.04395865648984909, -0.04154708981513977, 0.055232297629117966, 0.026724645867943764, -0.13876193761825562, -0.052785519510507584, -0.03718967363238335, -0.008300772868096828, 0.04751056805253029, -0.007097378373146057, -0.07781548798084259, -0.05716697499155998, -0.07923053950071335, -0.06503260135650635, -0.031918663531541824, -0.0028854073025286198, 0.014743790030479431, 0.05814716964960098, -0.12082058936357498, -0.15107566118240356, 0.13190487027168274, 0.1207612082362175, -0.04988888278603554, -0.061785198748111725, 0.11633116751909256, 0.011861586943268776, -0.09727448225021362, -0.005802339408546686, 0.09400714933872223, -0.021064775064587593, -0.02897082082927227, -0.04018167778849602, -0.0583471804857254, -0.01566043682396412, 0.01963292434811592, -0.03925173357129097, 0.05361358821392059, -0.03285497426986694, -0.023549571633338928, 0.02406674437224865, -0.02055455558001995, -0.029431406408548355, 0.06056322157382965, 0.045851752161979675, 0.021927885711193085, -0.06264063715934753, -0.08864360302686691, -0.03381401672959328, -0.010470368899405003, 0.00635391054674983, -0.08241084963083267, 0.04524665325880051, 0.014610297046601772, -0.06848474591970444, 0.02499539405107498, -0.009017575532197952, 0.02119641937315464, -0.03548489511013031, 0.11050350964069366, 0.07273221760988235, -0.019785935059189796, 0.09997989982366562, 0.033472057431936264, -0.014842360280454159, -0.07953370362520218, 0.04020560160279274, -0.03950168937444687, 0.02120150998234749, 0.021538667380809784, 0.007639392279088497, -0.015442638657987118, -0.0345432311296463, 0.007998064160346985, 0.012444907799363136, 4.383600753499195e-05, 0.02270294539630413, -0.010701601393520832, 0.021475112065672874, -0.04796943813562393, 0.057266607880592346, -0.007817176170647144, -0.0826561227440834, 0.0047486950643360615, 0.020796053111553192, 0.03481818363070488, 0.058631379157304764, -0.03872957453131676, -0.0007942403899505734, 0.020978424698114395, 0.020194130018353462, 0.00876617431640625, 0.008351201191544533, -0.05247431993484497, -0.002488499041646719, -0.009691367857158184, -0.06312157958745956, -0.017672458663582802, -0.06948614120483398, -0.0009714002953842282, 0.0007518830243498087, 0.010056020691990852, 0.023795466870069504, 0.00023628836788702756, -0.03836819529533386, -0.04186942055821419, -0.025936298072338104, -0.04013334587216377, 0.014790304005146027, 0.04931251332163811, 0.004878751467913389, -0.019677672535181046, 0.054366130381822586, -0.07817486673593521, 0.09254535287618637, -0.054848335683345795, 0.07561611384153366, 0.022384213283658028, -0.06595156341791153, 0.007697199005633593, -0.07464925944805145, 0.03681405633687973, 0.04907797649502754, -0.055680423974990845, -0.04717361927032471, 0.03170027211308479, 0.008493981324136257, 0.050901513546705246, 0.015988672152161598, 0.04287389665842056, -0.01970466785132885, 0.03937118873000145, 0.14637142419815063, -0.021771101281046867, -0.06192715838551521, -0.12615467607975006, -0.06159841641783714, -0.01234899926930666, -0.009570366702973843, 0.021215831860899925, 0.03436098247766495, -0.14637863636016846, 0.012584544718265533, 0.19612355530261993, 0.12836682796478271, -0.1321273297071457, 0.05611061304807663, -0.11709105968475342, -0.00037066603545099497, 0.006700264755636454, -0.10293757170438766, -0.009328673593699932, 0.033497605472803116, -0.002784244017675519, 0.20489509403705597, 0.06424456089735031, 0.008686332032084465, -0.12168970704078674, 0.12994849681854248, -0.029348891228437424, 0.042657073587179184, 0.13509784638881683, 0.18189366161823273, -0.07085885107517242, 0.017546435818076134, 0.004813435021787882, 0.0818716362118721, 0.03019610233604908, -0.05583270266652107, 0.0463525764644146, -0.1973959356546402, 0.06182456761598587, -0.05904599279165268, -0.028717106208205223, 0.10420937836170197, 0.11886190623044968, -0.035691093653440475, -0.040788162499666214, 0.005354528781026602, -0.11585031449794769, 0.020535804331302643, -0.09160508960485458, 0.028252236545085907, 0.01865614764392376, -0.046152424067258835, 0.0861901268362999, 0.07903585582971573, -0.04825591295957565, 0.024131057783961296, 0.08433646708726883, -0.13379478454589844, -0.0812363252043724, 0.048405300825834274, -0.04969146102666855, -0.08768386393785477, 0.1274474859237671, -0.01539754681289196, 0.11429345607757568, -0.1606125682592392, -0.12314768880605698, -0.031656648963689804, -0.12507383525371552, 0.22967569530010223, 0.07719677686691284, 0.02609202452003956, -0.29182925820350647, 0.01639222726225853, 0.2114792764186859, -0.11988223344087601, 0.0264351237565279, -0.07114057242870331, -0.29868534207344055, 0.03236657381057739, 0.07069911807775497, -0.0567132867872715, 0.11435317248106003, -0.10438574850559235, -0.07286833971738815, 0.166422039270401, 0.05898964777588844, -0.1454131305217743, -0.03326362743973732, 0.09645159542560577, 0.020365513861179352, 0.15206880867481232, 0.16735978424549103, 0.09117285907268524, -0.04877731204032898, -0.07506921887397766, -0.061615895479917526, 0.10303304344415665, 0.005218885373324156, 0.22000055015087128, -0.1203959658741951, 0.0035194370429962873, -0.10787316411733627, 0.0065888455137610435, 0.17330630123615265, -0.007783481851220131, 0.03451022133231163, 0.03596734255552292, -0.050566498190164566, 0.03153516352176666, -0.06004953384399414, -0.07703697681427002, 0.17780449986457825, 0.13508281111717224, 0.19796152412891388, 0.10195361077785492, -0.11682364344596863, 0.08955062925815582, -0.06058464199304581, -0.030335495248436928, 0.14808674156665802, -0.041251521557569504, -0.08930933475494385, 0.03862566128373146, -0.1555621474981308, -0.09474946558475494, 0.10047518461942673, -0.16393743455410004, -0.09290595352649689, -0.09150030463933945, -0.07776238024234772, -0.11742477118968964, -0.07783874869346619, 0.025544295087456703, -0.052546508610248566, -0.019950686022639275, -0.2053084671497345, -0.009861203841865063, 0.24178114533424377, 0.1475946307182312, 0.05587052181363106, -0.08061901479959488, -0.24598625302314758, 0.025983944535255432, -0.17093916237354279, 0.05689992010593414, -0.022328859195113182, 0.13944600522518158, 0.01812244951725006, 0.01673808880150318, -0.10706191509962082, 0.08969052881002426, -0.025165613740682602, 0.0705394297838211, 0.009953712113201618, -0.10959494858980179, 0.19720691442489624, -0.11512216180562973, 0.02810550481081009, 0.003442932153120637, -0.08431893587112427, -0.005987977143377066, -0.1365300714969635, 0.05707189068198204, -0.1247616559267044, 0.003754502860829234, -0.08419357240200043, -0.06723544746637344, 0.06697258353233337, -0.10264912992715836, -0.11568686366081238, 0.1487094610929489, 0.10637075453996658, -0.12073924392461777, 0.17146682739257812, 0.08660580217838287, 0.053759340196847916, -0.02365441992878914, 0.023422006517648697, -0.09981890767812729, -0.07933934032917023, -0.008196891285479069, 0.047403398901224136, 0.162527397274971, -0.06754478067159653, 0.032798703759908676, 0.058259639889001846, -0.023388076573610306, 0.10495620965957642, -0.5129305720329285, 0.4717896282672882, -0.3783420920372009, -0.41644325852394104, 0.3038608729839325, 0.2103343904018402, 0.03983539342880249, -0.30225613713264465, 0.11835762858390808, 0.0027716984041035175, 0.14152351021766663, 0.29255411028862, -0.13678504526615143, -0.5107396245002747, -0.3213708996772766, 0.5469573140144348, 0.3129825294017792, -0.27410537004470825, 0.1654479205608368, 0.31851914525032043, -0.07308205217123032, 0.14046286046504974, -0.2643297016620636, 0.01488636713474989, -0.21160872280597687, 0.18509837985038757, -0.3221932649612427, -0.38141170144081116, 0.37540286779403687, -0.43958184123039246, 0.3354850113391876, 0.02901994064450264, 0.24614040553569794, 0.3146916627883911, -0.23485741019248962, 0.034733232110738754, -0.13373444974422455, -0.0940544456243515, 0.29091501235961914, -0.565926194190979, -0.398969829082489, -0.24078597128391266, -0.26489493250846863, 0.5415692329406738, 0.2851458489894867, -0.35416314005851746, -0.22475279867649078, -0.20824044942855835, 0.09769053757190704, -0.3693280518054962, 0.3927381634712219, -0.4483239948749542, -0.31462153792381287, -0.04432142153382301, 0.01061451155692339, 0.026086559519171715, -0.3276871144771576, 0.17197801172733307, 0.34384047985076904, -0.15062357485294342, 0.37889328598976135, 0.18581481277942657, -0.11825323849916458, -0.21949642896652222, 0.14842553436756134, -0.0267726331949234, 0.033361393958330154, 0.1092245951294899, -0.11835576593875885, -0.056003909558057785, -0.22486573457717896, -0.023655997589230537, -0.1600145399570465, 0.09670034795999527, 0.0029365590307861567, 0.01815490424633026, -0.28927549719810486, -0.07540924847126007, 0.1153140589594841, 0.014703743159770966, -0.017176605761051178, 0.19520039856433868, -0.13570411503314972, -0.18845543265342712, 0.06475938856601715, 0.12475753575563431, 0.08085369318723679, -0.04698283225297928, -0.06205705925822258, -0.131750226020813, -0.07084904611110687, 0.20508740842342377, -0.05879848450422287, -0.050243765115737915, -0.25374627113342285, -0.039468660950660706, -0.02929854951798916, -0.08171846717596054, -0.01789451576769352, -0.2113579660654068, -0.15263555943965912, 0.07677242159843445, 0.06996035575866699, 0.1154608279466629, 0.1368255466222763, 0.016071410849690437, 0.013722307048738003, 0.008561895228922367, -0.09234447032213211, 0.06019951030611992, -0.011086882092058659, 0.12999817728996277, -0.009502711705863476, 0.1817951798439026, 0.06047707796096802, 0.11763276904821396, 0.000566842092666775, -0.029078014194965363, 0.22609396278858185, -0.13789938390254974, -0.12314923852682114, 0.06212849169969559, 0.05506693199276924, 0.12747038900852203, -0.05287923291325569, 0.10027411580085754, 0.11742810159921646, -0.015965422615408897, -0.30453166365623474, 0.24679407477378845, -0.1504552811384201, -0.2134108543395996, 0.13888125121593475, 0.3225904107093811, 0.18802788853645325, -0.1017938107252121, 0.12207627296447754, 0.1032346561551094, 0.2657509446144104, -0.42892777919769287, -0.0594952255487442, 0.07101384550333023, 0.4041215777397156, -0.4235246777534485, -0.34566184878349304, -0.3447400629520416, -0.17398588359355927, 0.030695892870426178, -0.2718982994556427, -0.07188631594181061, 0.049841560423374176, -0.16744792461395264, -0.04107115790247917, -0.26348674297332764, -0.3167658746242523, -0.10696841776371002, -0.19841553270816803, 0.06430881470441818, -0.03874489665031433, 0.20227181911468506, 0.020507149398326874, -0.25476527214050293, 0.21430173516273499, 0.1367911547422409, -0.2405879944562912, -0.42646533250808716, 0.054980240762233734, -0.03064635768532753, 0.009771184995770454, -0.18791186809539795, 0.018259141594171524, 0.16827532649040222, 0.10960735380649567, -0.2114100158214569, -0.12243480980396271, 0.2098291963338852, -0.09521915018558502, 0.0741826742887497, 0.17839862406253815, 0.04569237306714058, -0.06229328736662865, -0.033872585743665695, -0.015182197093963623, -0.3526979982852936, -0.03632598742842674, 0.13290143013000488, -0.01979946531355381, -0.22752723097801208, 0.09077509492635727, 0.01606549695134163, 0.05519064515829086, 0.15412235260009766, 0.13726814091205597, -0.3081262707710266, 0.1908891350030899, 0.17223557829856873, -0.2154402881860733, -0.11797622591257095, -0.2584940195083618, 0.05959554389119148, -0.20001685619354248, -0.1538965404033661, -0.1667560189962387, 0.05424909666180611, -0.254451185464859, 0.42804715037345886, 0.05769320949912071, -0.1971558779478073, 0.050799380987882614, 0.13685913383960724, -0.07564011216163635, -0.24900615215301514, -0.10585502535104752, 0.07775407284498215, 0.18721140921115875, 0.018784577026963234, 0.08192738145589828, 0.08648022264242172, 0.506885826587677, 0.07881268858909607, 0.015340362675487995, -0.14982324838638306, -0.006668378133326769, 0.16754363477230072, 0.06203868240118027, 0.01827189140021801, 0.1359342336654663, -0.32781606912612915, 0.16960088908672333, 0.24137520790100098, -0.0407831147313118, 0.21265754103660583, 0.13374648988246918, 0.35854411125183105, -0.018610406666994095, -0.7799409627914429, 0.0733872726559639, 0.1614740937948227, 0.4195912182331085, -0.054207898676395416, -0.18570971488952637, -0.05027346685528755, -0.3583921492099762, 0.19842076301574707, 0.28605175018310547, 0.13337968289852142, -0.27940595149993896, -0.07754896581172943, 0.17730481922626495, -0.2788522243499756, -0.11942117661237717, 0.24472859501838684, -0.2511170506477356, -0.0865418016910553, 0.11535079032182693, -0.07362286746501923, -0.18357567489147186, -0.017084136605262756, 0.11027908325195312, -0.07110501825809479, -0.008605902083218098, -0.08469558507204056, 0.11662997305393219, 0.0027088525239378214, -0.003347174497321248, -0.05722218379378319, 0.014686835929751396, 0.12145688384771347, 0.025961197912693024, -0.05093654245138168, 0.12444694340229034, -0.007040301337838173, -0.04142725467681885, -0.012855404987931252, -0.14536865055561066, 0.03924484923481941, -0.036104898899793625, 0.0070292288437485695, -0.07600345462560654, 0.08752988278865814, 0.07474479079246521, -0.04618951305747032, -0.09391283243894577, 0.07066821306943893, -0.08411778509616852, -0.08611764013767242, -0.05834006145596504, 0.015905993059277534, 0.051918018609285355, 0.05150835961103439, -0.01071761641651392, -0.05788286402821541, 0.07545453310012817, -0.016224771738052368, -0.029653510078787804, -0.03297113999724388, 0.026804981753230095, -0.029567386955022812, -0.03064519725739956, 0.019700106233358383, 0.01656910963356495, -0.012530224397778511, -0.11409810930490494, 0.04930544272065163, -0.01607479341328144, 0.05243255943059921, 0.03828735277056694, 0.02954726666212082, -0.07449225336313248, 0.08632142841815948, -0.008743601851165295, 0.08928056806325912, -0.0183821152895689, 0.0007313619134947658, -0.05876891314983368, -0.09871754050254822, 0.05346979945898056, 0.05779315531253815, -0.11750295758247375, 0.10537510365247726, 0.5221173763275146, -0.6061158180236816, 0.21959638595581055, 0.38486719131469727, -0.1392984688282013, -0.40353724360466003, 0.34485307335853577, -0.0843849778175354, 0.26111355423927307, 0.0024814666248857975, -0.4958461821079254, -0.2781979739665985, 0.3473055958747864, 0.3268478810787201, 0.18314965069293976, -0.480110764503479, 0.2053624540567398, 0.06448457390069962, -0.2842901051044464, -0.016221579164266586, -0.07823285460472107, 0.336292028427124, -0.10489049553871155, 0.2474241703748703, 0.5450292825698853, 0.10470380634069443, 0.04876485466957092, 0.36845383048057556, -0.12466510385274887, 0.13435232639312744, -0.12581466138362885, 0.041308604180812836, 0.020784838125109673, -0.05993639677762985, -0.20692229270935059, -0.020498977974057198, 0.2390923798084259, 0.28430160880088806, -0.14721500873565674, 0.25132226943969727, 0.3795523941516876, 0.01289152167737484, -0.0478876531124115, -0.17667460441589355, -0.2974640130996704, 0.23596765100955963, -0.18083110451698303, -0.2598286271095276, -0.21929295361042023, 0.23369692265987396, -0.3267054855823517, 0.06443426012992859, 0.27118924260139465, 0.22197511792182922, -0.21744075417518616, 0.40184086561203003, 0.19710266590118408, -0.42213279008865356, -0.44957947731018066, 0.23175662755966187, -0.3661240339279175, -0.2041267305612564, -0.353702187538147, -0.31050005555152893, 0.01790258288383484, -0.07655608654022217, 0.10746155679225922, 0.08221092075109482, -0.06019803509116173, 0.11907634139060974, -0.21752455830574036, 0.18617886304855347, -0.10989172756671906, -0.026714889332652092, 0.11126987636089325, -0.37868237495422363, -0.0500248558819294, -0.24027545750141144, 0.1658637523651123, 0.031054912135004997, -0.023952238261699677, -0.4434906840324402, -0.30514809489250183, -0.251307874917984, 0.0616510808467865, -0.18129967153072357, -0.04792727902531624, 0.2213377058506012, -0.0835241749882698, 0.0038088711444288492, -0.030175134539604187, 0.04772421717643738, -0.30115801095962524, 0.11942856758832932, -0.021103810518980026, -0.13884057104587555, -0.10203895717859268, -0.1080290675163269, 0.09488825500011444, -0.06893066316843033, 0.13081952929496765, -0.11383378505706787, -0.08159839361906052, 0.10235169529914856, 0.12513890862464905, -0.14165905117988586, 0.1987200826406479, -0.16179880499839783, 0.007342352997511625, -0.04210434481501579, 0.04208444803953171, -0.022032756358385086, 0.07803065329790115, 0.025134364143013954, -0.11432849615812302, -0.01300947368144989, 0.09126406162977219, 0.04078804329037666, 0.10700342059135437, -0.13504688441753387, -0.15252777934074402, 0.041386693716049194, 0.18676422536373138, -0.1872296929359436, 0.005935859400779009, 0.2011203169822693, 0.07474220544099808, 0.08868832886219025, 0.17172189056873322, -0.2966291904449463, 0.02184087596833706, -0.017076414078474045, 0.1760903000831604, -0.19139567017555237, 0.08495762944221497, -0.29020214080810547, 0.01982092671096325, 0.14441612362861633, -0.2933104336261749, 0.2495538294315338, -0.05287960171699524, 0.1317848265171051, -0.1129976212978363, 0.2686822712421417, 0.3387822210788727, 0.2252301573753357, 0.017732180655002594, 0.02574309892952442, 0.6280721426010132, 0.29583385586738586, -0.18366220593452454, 0.4450644850730896, -0.13248248398303986, 0.12476157397031784, -0.07535406202077866, 0.39681026339530945, -0.26080551743507385, -0.2557968199253082, -0.264692097902298, -0.14664585888385773, -0.31047096848487854, 0.17732611298561096, -0.5820925235748291, 0.37992000579833984, 0.29993581771850586, -0.02572684921324253, -0.36039286851882935, 0.02432841993868351, 0.27035757899284363, -0.09120844304561615, 0.23574157059192657, 0.12250228226184845, -0.5067377090454102, -0.10424712300300598, -0.33140620589256287, -0.2605578303337097, -0.2604605257511139, 0.30447858572006226, -0.11590846627950668, 0.10098312050104141, -0.09012819826602936, -0.15508237481117249, -0.31734004616737366, 0.352028489112854, -0.30300313234329224, -0.11491793394088745, 0.2229894995689392, 0.017429476603865623, 0.03439095616340637, 0.17565058171749115, -0.3358480632305145, -0.3019670844078064, 0.0524272546172142, -0.04763210192322731, 0.06214829534292221, 0.05778739973902702, -0.0792243629693985, -0.09534318000078201, 0.015647126361727715, 0.05276377871632576, -0.021699070930480957, -0.11275798827409744, -0.001921053510159254, 0.09928829222917557, -0.021005703136324883, 0.10527660697698593, -0.10879448056221008, 0.20372822880744934, 0.05527058616280556, -0.05520007014274597, 0.04786831885576248, -0.08629226684570312, 0.011929917149245739, -0.09901757538318634, -0.06861026585102081, 0.05850585550069809, 0.06839606165885925, -0.04470077157020569, -0.0017906290013343096, -0.0679999589920044, 0.02015155367553234, -0.00939942430704832, 0.10897732526063919, -0.0921577662229538, -0.027639759704470634, 0.06987053155899048, 0.001522192033007741, -0.007253688760101795, 0.056418146938085556, 0.04407622292637825, -0.005360341630876064, -0.019512182101607323, 0.023800751194357872, -0.004792413674294949, -0.0010133611503988504, -0.043708644807338715, -0.056041061878204346, -0.05021807178854942, 0.04881654679775238, -0.05284444987773895, 0.10380597412586212, 0.023301368579268456, -0.07975202053785324, -0.055850058794021606, 0.026401542127132416, 0.08431842923164368, -0.02157411351799965, 0.05148164927959442, -0.0016606589779257774, 0.04849359393119812, 0.11846551299095154, 0.0074056112207472324, -0.09459938108921051, -0.005077866837382317, 0.02802710048854351, 0.04444208741188049, -0.3808960020542145, 0.30168572068214417, -0.22162407636642456, -0.017707737162709236, -0.07165741920471191, 0.20560845732688904, -0.011253951117396355, 0.09737024456262589, 0.26302608847618103, -0.05951009318232536, 0.4635438323020935, -0.3526615798473358, 0.013392782770097256, 0.3377591073513031, 0.1376449316740036, -0.3695114552974701, -0.2296103835105896, -0.06300678849220276, 0.09640001505613327, -0.23303422331809998, -0.5160020589828491, 0.044365376234054565, 0.18590965867042542, -0.4789849817752838, 0.014753875322639942, -0.0454750694334507, 0.19783471524715424, -0.28068700432777405, 0.2611905634403229, -0.059608444571495056, -0.006725241895765066, 0.5841317772865295, 0.2668062746524811, -0.02941950038075447, 0.4985845685005188, -0.47419074177742004, -0.2605372369289398, -0.09878847002983093, 0.41216540336608887, -0.11377180367708206, -0.24318625032901764, 0.29071131348609924, -0.34565532207489014, -0.33731693029403687, 0.299758642911911, -0.054894328117370605, 0.40674087405204773, 0.0340711772441864, 0.06417685002088547, -0.20678915083408356, 0.1351621299982071, -0.030723875388503075, 0.12640923261642456, 0.3510814905166626, 0.37923264503479004, -0.41133078932762146, 0.4309418201446533, 0.13735656440258026, -0.03797770291566849, 0.16640326380729675, -0.10706669092178345, -0.5352802276611328, 0.44781777262687683, 0.16462381184101105, 0.018439335748553276, 0.02459760569036007, 0.04885128140449524, 0.05206270515918732, 0.00197352422401309, 0.08157095313072205, 0.0920221358537674, -0.15560287237167358, -0.02924400195479393, -0.08357836306095123, 0.03651326522231102, 0.024814367294311523, -0.10993612557649612, -0.011996861547231674, -0.07982871681451797, -0.09425269067287445, 0.09617551416158676, -0.026231082156300545, 0.0948222279548645, -0.004064125008881092, 0.030168980360031128, 0.07409346848726273, -0.15103548765182495, -0.06602881848812103, 0.010437493212521076, 0.14927548170089722, 0.04279144108295441, -0.06166738271713257, -0.1145324558019638, -0.08998890966176987, 0.02457805722951889, -0.031796906143426895, -0.008922625333070755, 0.14083561301231384, -0.15456445515155792, 0.06706062704324722, 0.08995816856622696, -0.05861395224928856, -0.020894572138786316, 0.07127092033624649, 0.1588107794523239, 0.06953977793455124, 0.07030973583459854, 0.06223740801215172, -0.10292171686887741, 0.04690644145011902, 0.01354044210165739, -0.1354755014181137, -0.12480568885803223, 0.01544238906353712, -0.05430949851870537, 0.014103416353464127, -0.08744154870510101, 0.03787479177117348, -0.12476290762424469, 0.13879065215587616, 0.12516827881336212, -0.016188127920031548, 0.09682324528694153, -0.11338052153587341, -0.09377328306436539, -0.12734359502792358, -0.09786146879196167, -0.01314212940633297, -0.20033417642116547, -0.08599229156970978, -0.33924439549446106, -0.3599426746368408, 0.5383403301239014, 0.40259307622909546, -0.11917654424905777, -0.11318027973175049, -0.2780521810054779, -0.15111210942268372, -0.007455393671989441, 0.04336300119757652, -0.08111221343278885, -0.3522435426712036, -0.22556190192699432, 0.17063842713832855, 0.11652876436710358, -0.05628497526049614, 0.17866918444633484, -0.07988011837005615, 0.574817955493927, 0.2940085828304291, 0.13892188668251038, 0.6254910826683044, -0.13421840965747833, 0.1767592579126358, 0.22032293677330017, 0.20001910626888275, -0.4780665636062622, -0.44538211822509766, -0.17113853991031647, -0.5044068694114685, -0.2955790162086487, 0.02094295620918274, -0.32051151990890503, 0.5397883653640747, 0.12714096903800964, -0.32380014657974243, -0.1307915449142456, -0.20430897176265717, 0.024156246334314346, 0.058193471282720566, 0.6746761202812195, -0.05716502666473389, -0.3377488851547241, -0.4766255021095276, -0.21533219516277313, -0.3687896430492401, -0.11856386810541153, 0.15614333748817444, 0.14084096252918243, -0.09593670070171356, -0.34121596813201904, -0.3656165301799774, 0.07228291779756546, 0.12914827466011047, -0.42171287536621094, -0.06094472110271454, 0.5237228274345398, -0.6332999467849731, 0.20197755098342896, 0.19590267539024353, -0.1870003193616867, -0.3467314541339874, 0.08989710360765457, -0.06931596994400024, -0.07134302705526352, -0.02169588953256607, -0.07360776513814926, 0.016099026426672935, 0.02669171616435051, 0.06738418340682983, 0.09286539256572723, -0.07150432467460632, -0.008441368117928505, -0.021175803616642952, 0.16388575732707977, 0.06412595510482788, 0.013822842389345169, -0.1452585607767105, 0.0859765037894249, -0.03641079366207123, 0.045515239238739014, 0.049526676535606384, -0.13636574149131775, 0.08303029835224152, 0.09670613706111908, 0.0007636116351932287, 0.11990761011838913, 0.03318748250603676, -0.00975822564214468, -0.005449722521007061, -0.022236758843064308, 0.1449439972639084, -0.01720566861331463, 0.032969292253255844, 0.02574138157069683, 0.10546964406967163, -0.012398076243698597, 0.06652821600437164, 0.05358973890542984, -0.001427631825208664, -0.0014005368575453758, 0.014225686900317669, -0.03892102465033531, 0.019222935661673546, 0.059784188866615295, 0.009513091295957565, 0.0010594530031085014, 0.019005432724952698, -0.10583356767892838, -0.019894685596227646, -0.018891265615820885, -0.09614573419094086, -0.07175054401159286, -0.021371452137827873, 0.08111554384231567, 0.01788945496082306, -0.07002530992031097, -0.040389299392700195, 0.04005778580904007, -0.14337106049060822, -0.10035377740859985, 0.06469148397445679, -0.11082490533590317, -0.1054798886179924, 0.03623131290078163, -0.005311769898980856, 0.07926996797323227, 0.015323209576308727, -0.08267827332019806, -0.06878575682640076, -0.06373295187950134, -0.08838871121406555, 0.0013245005393400788, 0.01321010198444128, 0.013950412161648273, -0.0290740467607975, 0.009128771722316742, 0.005363178439438343, 0.033023957163095474, -0.024594228714704514, 0.04309602454304695, 0.0069976323284208775, -0.019609514623880386, -0.04684481769800186, 0.03451419249176979, 0.0018810781184583902, -0.003523035906255245, 0.009223935194313526, 0.0032464175019413233, 0.05655716359615326, 0.04526630416512489, 0.02335396036505699, 0.028979944065213203, 0.05493828281760216, 0.0173442792147398, -0.015578593127429485, -0.004588556010276079, -0.024290990084409714, 0.010405653156340122, 0.015403795056045055, 0.07314474880695343, 0.05872838944196701, 0.029165903106331825, 0.009940463118255138, 0.06456217914819717, -0.00528103718534112, -0.05662447214126587, -0.07307504862546921, 0.09260784089565277, -0.01090407557785511, 0.04422357305884361, 0.05193609744310379, 0.02880403958261013, 0.09909732639789581, -0.05155022814869881, 0.0800066813826561, 0.0717538446187973, -0.03609233349561691, -0.029740044847130775, 0.04301163926720619, 0.13155053555965424, -0.0373358391225338, -0.017199579626321793, -0.00018550004460848868, 0.03876156359910965, -0.046785470098257065, 0.05785936489701271, 0.031746841967105865, -0.08122174441814423, -0.056411609053611755, 0.0831279531121254, -0.5795207023620605, 0.02134348452091217, 0.01473947986960411, -0.009283489547669888, -0.12437080591917038, 0.04645229130983353, -0.033816877752542496, -0.06854866445064545, -0.5522525310516357, -0.37673962116241455, 0.43867549300193787, 0.12782232463359833, 0.38567042350769043, -0.36116743087768555, 0.2261350452899933, 0.11241528391838074, 0.22258730232715607, 0.33366233110427856, -0.2697279453277588, 0.17474490404129028, 0.014637593179941177, 0.013357292860746384, -0.014084338210523129, 0.37612584233283997, 0.4564349353313446, 0.5638289451599121, 0.060705360025167465, 0.0712338238954544, -0.0851125419139862, -0.02429068833589554, 0.16640280187129974, 0.07015818357467651, 0.08711304515600204, -0.0947299599647522, -0.010080813430249691, 0.3881167769432068, 0.07086911797523499, -0.02121913805603981, 0.140602245926857, -0.1572401523590088, 0.39901429414749146, -0.02638322301208973, -0.4812889099121094, -0.029731929302215576, -0.077911876142025, 0.4519701600074768, -0.04436621069908142, -0.4541047215461731, -0.005637618247419596, -0.0965069979429245, -0.12041117995977402, 0.028710482642054558, 0.2808974087238312, -0.6398590207099915, 0.37020590901374817, 0.3147990107536316, -0.45270776748657227, 0.014362595044076443, 0.1005006805062294, -0.039094164967536926, -0.25896865129470825, -0.04546322301030159, -0.2492929846048355, -0.002803247421979904, -0.359666645526886, 0.028123430907726288, -0.0234209056943655, -0.0851965844631195, -0.17315319180488586, 0.059684060513973236, -0.057828083634376526, -0.015681177377700806, -0.059029512107372284, -0.23435702919960022, 0.002255382016301155, 0.1244622990489006, 0.24376201629638672, -0.15176652371883392, 0.10301589220762253, 0.3571666181087494, -0.11384082585573196, -0.05742747336626053, 0.1958274245262146, 0.10256370902061462, 0.10968317091464996, -0.15700270235538483, 0.3060571253299713, 0.1613258570432663, 0.30565324425697327, 0.08358348906040192, 0.052621155977249146, -0.17780236899852753, 0.01691279746592045, -0.05012146010994911, -0.04078671336174011, -0.2044784128665924, 0.26877856254577637, -0.2599010765552521, 0.19175657629966736, 0.5086928009986877, 0.010857067070901394, -0.05016344040632248, -0.0998629778623581, -0.009935244917869568, 0.11661193519830704, 0.029485177248716354, -0.14309155941009521, -0.18356366455554962, -0.14664994180202484, -0.02164587192237377, -0.21894331276416779, -0.25765693187713623, 0.05492495745420456, -0.12947599589824677, -0.1941325068473816, -0.1184694841504097, 0.05852499231696129, -0.4899734556674957, 0.17996303737163544, 0.017515970394015312, -0.27236026525497437, -0.08635806292295456, -0.03734816983342171, 0.0651024878025055, -0.09642569720745087, -0.24490909278392792, -0.22455686330795288, 0.05844654142856598, -0.07334307581186295, -0.021019795909523964, -0.015776339918375015, 0.013974741101264954, 0.2404535710811615, -0.03830561414361, -0.15963144600391388, -0.008144782856106758, 0.04905810207128525, 0.022059688344597816, 0.28241026401519775, 0.041157715022563934, -0.17223531007766724, -0.0034714776556938887, -0.0654115378856659, 0.09641562402248383, 0.39884865283966064, 0.08149247616529465, 0.1870049387216568, -0.08843350410461426, -0.09810145944356918, -0.11760888248682022, -0.13435013592243195, 0.03440824896097183, -0.020280349999666214, 0.07849293202161789, -0.16803286969661713, 0.08623872697353363, -0.012978379614651203, 0.08511243015527725, 0.025082170963287354, 0.03018532134592533, 0.08569371700286865, 0.010896557942032814, -0.12343120574951172, -0.03792250528931618, 0.15853916108608246, 0.036175694316625595, 0.21131634712219238, -0.2175285518169403, -0.001809681416489184, -0.046155501157045364, -0.14559990167617798, 0.09690570086240768, 0.05769888684153557, 0.078895702958107, 0.05197180062532425, 0.06039462611079216, -0.106044240295887, 0.07667011767625809, 0.01666880026459694, -0.07876027375459671, -0.06590551137924194, -0.005088954698294401, 0.05734028294682503, -0.06296882778406143, -0.04987911507487297, -0.07481471449136734, 0.14006133377552032, 0.018023449927568436, -0.027770500630140305, -0.10167235136032104, -0.07021596282720566, 0.19831787049770355, 0.32037410140037537, -0.016139695420861244, 0.0780310332775116, -0.25053340196609497, -0.13193288445472717, 0.46881458163261414, 0.3061407804489136, 0.7841805219650269, 0.9001516699790955, -0.13111823797225952, -1.2204865217208862, 0.7571616172790527, -1.2053437232971191, 0.8922053575515747, -0.9502565264701843, 0.2590572237968445, -0.5965772867202759, -1.2351202964782715, 0.4975357949733734, 0.2345753312110901, -0.19254276156425476, -0.7170239090919495, -0.22495803236961365, -0.29052287340164185, -0.6624630689620972, -1.0509202480316162, -0.19363000988960266, 0.5111682415008545, 0.6601294279098511, 0.4526139497756958, -0.07206382602453232, 0.427269846200943, -0.06330669671297073, -0.4885769486427307, -0.0011521333362907171, -0.5620735287666321, 0.44166800379753113, 0.42131608724594116, -0.8447145819664001, -0.3176044225692749, -0.9644794464111328, -0.423518568277359, 1.0398668050765991, 0.2586495280265808, 0.20018360018730164, -0.9378157258033752, 0.177547886967659, 0.5706006288528442, -0.1941533386707306, -0.2947404086589813, -0.16763409972190857, -0.02819649875164032, 0.31667035818099976, 0.025422677397727966, -0.04096311703324318, -0.8040190935134888, 0.41154414415359497, -0.157614067196846, 0.28510168194770813, 0.23890119791030884, 0.3887999951839447, 0.00252571702003479, 0.3595729470252991, 0.04209108650684357, -0.1648404598236084, -0.059046804904937744, 0.06365890055894852, -0.025950897485017776, 0.020638765767216682, -0.012743059545755386, -0.06514335423707962, -0.1307292878627777, -0.06030638888478279, -0.11200301349163055, 0.4667580723762512, 0.0617000050842762, 0.19434070587158203, -0.10701675713062286, 0.24308402836322784, 0.1599043905735016, 0.26718229055404663, 0.1511719673871994, 0.16567379236221313, -0.14985725283622742, -0.03875016048550606, -0.062344394624233246, -0.23245644569396973, -0.06131701171398163, -0.0456756055355072, 0.0222153477370739, -0.02582467719912529, 0.030244693160057068, -0.007338723633438349, 0.06402572244405746, 0.1800880879163742, 0.05604575201869011, 0.017541663721203804, 0.0032844552770256996, -0.04977989196777344, -0.007165891118347645, 0.17977569997310638, -0.1782233566045761, 0.1175806075334549, -0.24344851076602936, 0.15317010879516602, -0.0121982516720891, 0.004839449655264616, 0.10157221555709839, 0.11227452009916306, 0.08985345810651779, 0.06111825630068779, -0.03296126797795296, -0.12774166464805603, -0.07510752230882645, 0.08837702125310898, -0.08497413992881775, 0.1501125544309616, -0.16415046155452728, 0.12001071870326996, 0.07089244574308395, -0.10973182320594788, -0.027480510994791985, 0.07972872257232666, -0.0636821761727333, -0.06367780268192291, -0.147689089179039, -0.04170875996351242, -0.057098012417554855, 0.007459867745637894, 0.04794207960367203, -0.02746424451470375, -0.049439724534749985, 0.09266751259565353, 0.040627025067806244, -0.029253298416733742, 0.07986012101173401, 0.02112618461251259, -0.024200916290283203, -0.10074286162853241, 0.11870318651199341, 0.1916659027338028, 0.06813772767782211, 0.07583440840244293, 0.029937468469142914, -0.10921363532543182, -0.006676459219306707, -0.06346677988767624, -0.056187260895967484, 0.11365927010774612, -0.10306770354509354, 0.05617822706699371, 0.08954836428165436, 0.0853196233510971, -0.05378316715359688, -0.1270437240600586, 0.15322165191173553, 0.060019493103027344, 0.07233375310897827, 0.05412862449884415, -0.028722435235977173, 0.06283612549304962, -0.0794936791062355, -0.008202092722058296, 0.07324842363595963, -0.006111000664532185, 0.1327887922525406, -0.009895787574350834, -0.13184703886508942, 0.0365937277674675, -0.14646565914154053, -0.14824451506137848, -0.012330844067037106, 0.046272773295640945, 0.04495791345834732, -0.09326352179050446, -0.03602956235408783, 0.022646088153123856, 0.0007517797057516873, -0.0719003900885582, 0.11030678451061249, 0.06049559637904167, -0.1041615754365921, 0.05527251586318016, 0.01997154951095581, -0.04010247066617012, -0.13781143724918365, 0.11477366089820862, -0.05081121623516083, 0.01749921590089798, -0.09718482196331024, -0.06936706602573395, 0.005019308999180794, 0.09212961047887802, -0.01170797273516655, -0.014204727485775948, -0.013235043734312057, 0.04543425515294075, -0.06917193531990051, -0.005232782103121281, -0.007780713960528374, -0.07938461005687714, 0.053261443972587585, 0.049126170575618744, -0.05368628725409508, 0.045164600014686584, -0.062377214431762695, 0.1702723354101181, 0.0029863500967621803, 0.0353400744497776, 0.013578945770859718, -0.07634010910987854, 0.059479545801877975, -0.03577684611082077, -0.07535610347986221, -0.08579053729772568, 0.09018547832965851, 0.1092066690325737, -0.06088268756866455, 0.07320591062307358, 0.04204491898417473, 0.07507140189409256, 0.01947435922920704, 0.05493784695863724, 0.06349821388721466, 0.0441712848842144, -0.062011703848838806, 0.027290822938084602, -7.819372513040435e-06, -0.06587529927492142, 0.01317392848432064, 0.08915778249502182, -0.06190808117389679, -0.02985001727938652, -0.043021295219659805, -0.06369233876466751, -0.03306720778346062, -0.01533572468906641, 0.056793179363012314, 0.10646955668926239, 0.14203211665153503, -0.05374213308095932, -0.03004547953605652, 0.01783713325858116, 0.05421432480216026, -0.08136048913002014, -0.01177560817450285, -0.07740024477243423, 0.0318143293261528, 0.08901402354240417, 0.04159266874194145, -0.01857416331768036, 0.14895804226398468, -0.10782147943973541, 0.13034728169441223, 0.06548329442739487, 0.23603175580501556, -0.03937399759888649, 0.08060471713542938, 0.14531287550926208, 0.00859125331044197, -0.379279762506485, -0.20164397358894348, -0.03313324227929115, -0.01292857713997364, 0.02967159077525139, -0.16533765196800232, 0.34594208002090454, -0.0025757092516869307, 0.04393821954727173, -0.08141757547855377, 0.31394562125205994, 0.1730574071407318, 0.06275968998670578, 0.08152918517589569, -0.04539595544338226, 0.45629921555519104, 0.054464973509311676, -0.10998401045799255, 0.03649822622537613, -0.1704350858926773, 0.021670572459697723, 0.10162395983934402, 0.26285961270332336, 0.03387171030044556, -0.22914673388004303, -0.06605422496795654, -0.08384992927312851, -0.05919931083917618, 0.2758130133152008, -0.2142217755317688, 0.07492675632238388, 0.0016459187027066946, 0.2935454249382019, -0.008861561305820942, 0.019454943016171455, 0.24627254903316498, 0.04257933422923088, 0.008125110529363155, -0.005048764403909445, -0.19560319185256958, 0.1749560385942459, 0.0041350615210831165, -0.09043470770120621, 0.05546743422746658, -0.027114834636449814, -0.07729575783014297, 0.0016843242337927222, 0.03234143927693367, -0.04160556197166443, -0.17286646366119385, 0.20836766064167023, -0.16782791912555695, 0.016574297100305557, 0.1905445009469986, 0.2833356261253357, -0.1920878142118454, 0.2564207911491394, -0.10248450934886932, -0.09814751893281937, -0.11235775798559189, 0.10058476030826569, -0.1803315132856369, -0.04883622005581856, 0.10382530838251114, -0.10943225026130676, -0.0017845507245510817, -0.27244722843170166, -0.1317111998796463, -0.23538774251937866, 0.059160664677619934, 0.05947265028953552, -0.167520672082901, -0.027550503611564636, -0.12760142982006073, 0.12631742656230927, 0.3070254325866699, -0.037693850696086884, -0.1293545812368393, -0.08921699970960617, 0.04872700572013855, 0.18568630516529083, 0.08975674211978912, 0.15742839872837067, -0.11675435304641724, 0.07104819267988205, 0.24139253795146942, 0.06332357227802277, 0.08466751128435135, -0.06120773032307625, -0.026485325768589973, -0.1953931450843811, 0.0758732259273529, 0.21747693419456482, -0.4270530343055725, 0.23690246045589447, 0.08298255503177643, -0.044116612523794174, 0.003215776290744543, -0.137760192155838, -0.0648147389292717, 0.07720125466585159, -0.07214844226837158, -0.14570775628089905, -0.13674990832805634, -0.13632240891456604, -0.08211041241884232, -0.07721637189388275, -0.05687721073627472, -0.02529682032763958, 0.07236143946647644, -0.10080662369728088, -0.264818012714386, -0.19928129017353058, 0.10659489035606384, 0.07258037477731705, -0.2683296799659729, 0.05087800323963165, 0.05015944689512253, -0.052502021193504333, 0.14179877936840057, 0.1552305370569229, -0.29641661047935486, -0.20470792055130005, -0.04409870505332947, -0.007856606505811214, -0.046283405274152756, -0.1231691986322403, -0.038129568099975586, 0.11535769701004028, 0.08207671344280243, -0.12690283358097076, -0.009134747087955475, -0.03823211044073105, -0.06512227654457092, -0.0440581738948822, -0.03613265976309776, 0.12405319511890411, -0.023409239947795868, -0.099114328622818, 0.018749181181192398, -0.015788957476615906, 0.07820424437522888, 0.0521557480096817, 0.006110656075179577, 0.028332162648439407, -0.008137460798025131, -0.06415937840938568, 0.012955868616700172, 0.07467090338468552, -0.037729229778051376, -0.0983588844537735, -0.10941632837057114, -0.019418619573116302, -0.009330526925623417, -0.04107247665524483, -0.048839084804058075, 0.024658970534801483, 0.0010075863683596253, 0.10963817685842514, 0.09642314910888672, -0.06487072259187698, -0.05438670143485069, 0.040761105716228485, 0.13410212099552155, 0.0295998677611351, 0.0013235975056886673, 0.0021526790224015713, -0.010403814725577831, -0.01090791542083025, -0.040887366980314255, -0.017028572037816048, -0.09774582087993622, 0.09913169592618942, -0.02961794286966324, -0.1301354467868805, -0.049126725643873215, -0.0016870428808033466, -0.1317453533411026, -0.04929446429014206, -0.01454918272793293, -0.02066304348409176, -0.0023203990422189236, -0.01596214808523655, -0.017640400677919388, -0.006802051793783903, -0.029035158455371857, -0.0366927795112133, 0.11011230945587158, -0.15480542182922363, 0.24063162505626678, 0.10253579914569855, 0.029769396409392357, 0.010561845265328884, 0.04026157408952713, 0.05385962501168251, -0.13538557291030884, 0.09707903116941452, -0.1395856738090515, 0.48843279480934143, 0.03680288419127464, 0.3080141246318817, -0.08697699755430222, 0.3807133436203003, 0.15323109924793243, 0.2240227609872818, 0.13644185662269592, 0.17310799658298492, 0.15833920240402222, -0.01186076644808054, -0.10383173823356628, -0.016129346564412117, -0.09696850180625916, 0.07395623624324799, -0.04394552856683731, 0.1109311655163765, 0.007954606786370277, -0.016047237440943718, -0.02492246776819229, -0.010767118073999882, 0.07411240041255951, 0.20264355838298798, -0.20298682153224945, 0.1427263766527176, 0.13766369223594666, 0.05148272588849068, -0.06537000089883804, 0.2353753298521042, -0.06395888328552246, 0.19866527616977692, -0.07830054312944412, -0.112603560090065, 0.02894005738198757, 0.16454559564590454, 0.024507706984877586, -0.04227898269891739, 0.05962914973497391, -0.11184655874967575, -0.2509525716304779, 0.04925726354122162, 0.0038206756580621004, 0.07550044357776642, -0.19429238140583038, 0.26310306787490845, 0.044055938720703125, 0.06688668578863144, -0.03815930336713791, 0.25058305263519287, -0.144227996468544, 0.011928063817322254, -0.04491402208805084, -0.15092001855373383, -0.07539962977170944, -0.08383417874574661, -0.015278447419404984, -0.1013825386762619, 0.08948507159948349, 0.04165080189704895, 0.005147535819560289, 0.10923497378826141, 0.028744755312800407, 0.03524571284651756, -0.052874255925416946, -0.06413053721189499, 0.014269511215388775, -0.11641810089349747, 0.019541868939995766, -0.029591955244541168, 0.042786020785570145, -0.11367083340883255, -0.07386643439531326, 0.0036249032709747553, -0.0012381573906168342, -0.0911124050617218, -0.049904242157936096, -0.07179796695709229, -0.004305431619286537, -0.07746969163417816, 0.0007898042676970363, -0.08345132321119308, 0.09946460276842117, 0.004782002419233322, -0.03194928541779518, -0.051386330276727676, -0.0667700245976448, 0.06619899719953537, -0.051394276320934296, -0.04160837456583977, 0.07205174118280411, 0.013007010333240032, 0.10820272564888, -0.0188879556953907, -0.03925221040844917, -0.09739227592945099, -0.06437063962221146, 0.07478467375040054, 0.07848160713911057, -0.03436626121401787, 0.006974317599087954, 0.039341654628515244, -0.011954016052186489, 0.02432873845100403, -0.024044178426265717, -0.014795402996242046, -0.0021686572581529617, 0.05506241321563721, -0.1145947203040123, 0.03696048632264137, -0.08007587492465973, -0.020768536254763603, 0.03792782127857208, -0.00258212280459702, -0.061446450650691986, 0.08976287394762039, -0.0558556467294693, -0.021823715418577194, 0.03439491242170334, 0.055870749056339264, -0.037943437695503235, 0.02841152437031269, 0.03329791873693466, 0.048804402351379395, 0.09873992949724197, -0.010336962528526783, 0.07020337134599686, 0.09730137139558792, 0.024578746408224106, -0.07123447209596634, 0.12817108631134033, 0.028513064607977867, -0.03392854705452919, 0.021268131211400032, -0.013466553762555122, 0.023209260776638985, 0.023892778903245926, -0.038617148995399475, -0.009436693042516708, 0.019159162417054176, 0.007448685355484486, 0.0149384168908, -0.012068265117704868, -0.06643986701965332, -0.07367616891860962, -0.015356237068772316, -0.0009041773155331612, 0.010730463080108166, -0.08283314853906631, -0.043564558029174805, -0.05296482890844345, -0.04779711365699768, 0.01547689363360405, -0.010507646948099136, -0.006915680598467588, -0.00011252470721956342, 0.041634008288383484, 0.11010747402906418, 0.05445031821727753, -0.10146381705999374, 0.08464188128709793, 0.018832046538591385, -0.03200479596853256, 0.0014162397710606456, -0.061523374170064926, -0.01578618958592415, -0.06591717898845673, 0.00642583891749382, -0.021676169708371162, 0.020114246755838394, 0.1033005565404892, 0.1008259654045105, -0.08793895691633224, 0.0014079043176025152, 0.014067956246435642, -0.03738470375537872, -0.0579264760017395, 0.01958509348332882, -0.08171215653419495, -0.00818575732409954, -0.09792238473892212, -0.10836489498615265, -0.165816068649292, 0.1936604082584381, -0.06131356209516525, -0.06126090884208679, 0.14038482308387756, 0.07858094573020935, 0.0220896415412426, -0.1447962075471878, 0.12820865213871002, -0.054044079035520554, 0.10212086141109467, 0.008050854317843914, 0.0259185042232275, 0.1166793704032898, -0.10126146674156189, 0.004449010360985994, 0.17910322546958923, -0.06816594302654266, 0.15896183252334595, 0.07739613205194473, -0.11493335664272308, 0.0553029403090477, -0.15637832880020142, -0.027578450739383698, 0.12570708990097046, 0.11453085392713547, 0.03300037980079651, -0.21340207755565643, 0.18685473501682281, 0.017204752191901207, 0.28179556131362915, 0.07131186872720718, 0.2233806997537613, 0.166279599070549, -0.16945843398571014, 0.08508946746587753, 0.11148939281702042, -0.0019801969174295664, 0.10428645461797714, -0.04562896117568016, -0.22501423954963684, 0.012952149845659733, -0.18220442533493042, -0.027947016060352325, 0.046156276017427444, 0.05670395493507385, -0.07113711535930634, -0.2246447652578354, -0.12279879301786423, -0.1766270399093628, -0.014256885275244713, -0.04403470456600189, 0.048364438116550446, 0.024705348536372185, -0.040204763412475586, 0.12800180912017822, -0.09011390805244446, -0.08976669609546661, 0.04198002070188522, -0.03670307248830795, 0.0018803216516971588, -0.24786241352558136, -0.07706636190414429, -0.040608178824186325, -0.07346595823764801, 0.04578882083296776, -0.10860300809144974, -0.1517990082502365, 0.04601003974676132, 0.12738816440105438, 0.007460632361471653, -0.09275882691144943, 0.06110726296901703, 0.011436812579631805, -0.029610663652420044, 0.04540005698800087, 0.023399541154503822, -0.1284758299589157, 0.005338631570339203, 0.004879261367022991, -0.024076364934444427, 0.024659309536218643, -0.062100600451231, 0.02312532253563404, 0.10555563122034073, 0.06947636604309082, 0.05242370069026947, -0.07039320468902588, -0.07370281219482422, -0.11582092940807343, -0.16436141729354858, -0.007133388891816139, 0.10104662925004959, 0.03345181792974472, 0.03938141092658043, -0.009259028360247612, 0.08785323798656464, -0.0764177069067955, 0.06437017768621445, -0.03993121534585953, -0.11546307802200317, 0.0558449923992157, 0.15145745873451233, -0.04499698057770729, 0.02751350775361061, 0.033840056508779526, -0.012630874291062355, 0.060925353318452835, 0.04225446656346321, -0.04510674253106117, 0.08983394503593445, 0.014766637235879898, 0.06129974499344826, -0.04215535148978233, 0.05750779062509537, 0.006875511724501848, 0.028313174843788147, 0.024633722379803658, 0.06309965997934341, -0.05702933296561241, -0.12676380574703217, -0.006735192146152258, 0.06159915402531624, -0.020703669637441635, 0.1477242410182953, 0.06610561162233353, 0.056646090000867844, -0.05103138089179993, -0.04623010382056236, 0.12730544805526733, 0.1251259446144104, 0.12605653703212738, -0.369370698928833, -0.020516907796263695, -0.09364254772663116, 0.25341135263442993, 0.3464864194393158, 0.05171925574541092, 0.11905157566070557, -0.5776058435440063, 0.01955377496778965, 0.20792776346206665, 0.5777093172073364, -0.4980262219905853, -0.3609693646430969, -0.49217960238456726, -0.3693344295024872, -0.25910115242004395, -0.04083503037691116, -0.13603416085243225, 0.06653477251529694, -0.0732264444231987, -0.10104864835739136, -0.2551606595516205, -0.10965133458375931, 0.16981317102909088, -0.27755147218704224, 0.2750145494937897, -0.2254580855369568, 0.08072645217180252, -0.2405189871788025, -0.41248127818107605, 0.11508866399526596, -0.1040012538433075, -0.022278260439634323, -0.2825050950050354, -0.0617745965719223, 0.16935883462429047, 0.12078659236431122, -0.24058623611927032, 0.033071111887693405, 0.20705755054950714, -0.019984327256679535, -0.06950739771127701, -0.0226556658744812, 0.2907828986644745, 0.0899561271071434, 0.062433063983917236, -0.23044376075267792, 0.31536993384361267, 0.30439844727516174, -0.060830455273389816, 0.19230425357818604, -0.33568742871284485, 0.077223040163517, 0.10308033972978592, 0.08695458620786667, 0.05490854009985924, -0.04190132021903992, 0.11360813677310944, 0.2510586380958557, 0.23545755445957184, -0.2963498830795288, 0.028867941349744797, -0.5794627070426941, -0.23934270441532135, 0.7156609296798706, 0.840579092502594, -0.0752052292227745, -0.19989773631095886, -0.09610429406166077, -0.08294445276260376, -0.026723166927695274, -0.21863579750061035, -0.01851174421608448, -0.2819455564022064, -0.26979920268058777, 0.10812374204397202, 0.19213320314884186, -0.27063652873039246, 0.12283256649971008, 0.20567123591899872, 0.007409242447465658, 0.28044208884239197, 0.0846630185842514, 0.32461780309677124, -0.1155514270067215, 0.2544735372066498, 0.15754464268684387, -0.12432365864515305, -0.20122568309307098, -0.1817355453968048, 0.07321523129940033, -0.367594838142395, -0.042789276689291, 0.1523325890302658, -0.08906657248735428, 0.2166706621646881, 0.20207656919956207, -0.17591266334056854, 0.13752584159374237, -0.4091866910457611, -0.3736625611782074, 0.07350776344537735, 0.2764846384525299, 0.03669454902410507, -0.007229280192404985, -0.4277331829071045, -0.15895487368106842, -0.40376967191696167, -0.11026694625616074, -0.10061019659042358, 0.30069103837013245, -0.25513216853141785, -0.2547105848789215, -0.29144617915153503, 0.08175632357597351, -0.034476201981306076, -0.3869592547416687, -0.10785861313343048, 0.30651217699050903, -0.46223995089530945, 0.4161394238471985, 0.13935723900794983, -0.16834542155265808, -0.34811490774154663, -0.053694937378168106, 0.0143856480717659, -0.07456301897764206, -0.051990266889333725, 0.09860570728778839, -0.10354495793581009, 0.004961347673088312, 0.004726182669401169, -0.06867785006761551, -0.026640739291906357, 0.014871870167553425, -0.11493748426437378, 0.029279420152306557, 0.015844352543354034, -0.02683429606258869, -0.08706682920455933, -0.006712938658893108, -0.006514859851449728, -0.01472033653408289, 0.08995934575796127, -0.011042687110602856, -0.02350606396794319, -0.1310589462518692, 0.020941568538546562, -0.057254984974861145, 0.054947979748249054, -0.21108289062976837, -0.21038611233234406, 0.043985895812511444, -0.05111564323306084, 0.04824420437216759, 0.06148352101445198, 0.0067634121514856815, 0.14024575054645538, -0.12831175327301025, 0.11431751400232315, -0.024057738482952118, -0.012677841819822788, 0.11445527523756027, -0.032067980617284775, 0.01222410798072815, -0.10387348383665085, 0.007904142141342163, 0.10962941497564316, 0.12706172466278076, 0.05326518788933754, 0.03488706424832344, -0.07991313189268112, 0.10248208045959473, -0.17084236443042755, 0.07145591080188751, 0.004903058521449566, 0.017229655757546425, 0.09790238738059998, 0.15091180801391602, -0.06217615678906441, -0.10697992891073227, -0.0053005823865532875, 0.06893175095319748, 0.0023748078383505344, -0.03555746749043465, -0.09505243599414825, 0.03288457170128822, 0.00041904766112565994, 0.02910812385380268, 0.14763221144676208, 0.13517099618911743, 0.008087114430963993, -0.1510152667760849, 0.09883875399827957, -0.08640024065971375, 0.11117637902498245, 0.22563649713993073, 0.09315299242734909, 0.18392272293567657, -0.22822846472263336, -0.032474126666784286, -0.24139650166034698, 0.2394750714302063, -0.3813377916812897, -0.2519565522670746, -0.27713242173194885, -0.3202153742313385, -0.19775134325027466, 0.07001938670873642, 0.013527201488614082, -0.02678954042494297, 0.07686819136142731, 0.02686651237308979, -0.19052128493785858, -0.3494533598423004, 0.0023643774911761284, -0.0787414163351059, -0.023974286392331123, 0.04890536889433861, -0.11700043082237244, 0.0017223533941432834, -0.3118789792060852, 0.13187777996063232, -0.08713269978761673, -0.2455112636089325, -0.03976918011903763, 0.0632292777299881, -0.08934762328863144, 0.22695599496364594, -0.24539896845817566, 0.05843816697597504, 0.39360374212265015, -0.012129336595535278, -0.07822340726852417, -0.3149649500846863, 0.07041960209608078, 0.06896817684173584, -0.031701311469078064, -0.019754894077777863, 0.05877584591507912, 0.03476883843541145, -0.040857527405023575, 0.38304832577705383, -0.18279008567333221, -0.13221101462841034, 0.17789961397647858, 0.18695996701717377, -0.14541777968406677, 0.03126616030931473, 0.37296655774116516, 0.2075699120759964, 0.04375489056110382, 0.05308239534497261, -0.0016022888012230396, 0.07993024587631226, 0.08912166208028793, -0.060191091150045395, -0.023649364709854126, 0.1314155012369156, 0.04806206002831459, 0.07825101166963577, -0.08273748308420181, 0.047869253903627396, -0.008238524198532104, 0.08519671112298965, 0.052567288279533386, 0.020335199311375618, -0.03785606101155281, 0.036192845553159714, 0.03064412996172905, -0.070565365254879, 0.07659792900085449, -0.04749893397092819, -0.006648490205407143, -0.09803544729948044, 0.03468000516295433, 0.17385238409042358, -0.00915363896638155, -0.030877623707056046, -0.07371647655963898, 0.04675401747226715, 0.03342176601290703, 0.02239990420639515, -0.02700098417699337, 0.015942633152008057, 0.016460519284009933, -0.1255073845386505, 0.03985264152288437, 0.050017114728689194, -0.019118713214993477, 0.011704527772963047, -0.028259700164198875, 0.019694875925779343, -0.012777984142303467, 0.026722703129053116, 0.0008825783152133226, 0.043835271149873734, 0.020594939589500427, 0.021717583760619164, -0.05808798223733902, -0.06209688261151314, -0.01638784445822239, 0.0042945933528244495, -0.005579165183007717, -0.012725289911031723, 0.01952543668448925, -0.10854019969701767, 0.05513867363333702, 0.07341071963310242, -0.14019890129566193, -0.03143589571118355, -0.009617489762604237, 0.07696940749883652, 0.0072367130778729916, 0.021308349445462227, -0.12809962034225464, -0.2399284839630127, 0.061230942606925964, -0.148050457239151, -0.10480928421020508, 0.019806133583188057, 0.15308882296085358, 0.10846737027168274, 0.12281988561153412, 0.10917559266090393, -0.01960582099854946, 0.06173568218946457, -0.47998684644699097, 0.02178306318819523, -0.03778126463294029, 0.23377598822116852, -0.31466537714004517, -0.2063317745923996, -0.2206810861825943, -0.2698046565055847, -0.15628741681575775, -0.15378789603710175, -0.08169989287853241, 0.09834989905357361, 0.01388462632894516, 0.1444721221923828, -0.12468211352825165, -0.0529806986451149, -0.1637333333492279, -0.1334364265203476, -0.03306244686245918, -0.11097557842731476, 0.08398847281932831, -0.17451812326908112, -0.21470105648040771, 0.28124260902404785, -0.10392459481954575, -0.054157424718141556, -0.3062194585800171, 0.1206224113702774, -0.14819493889808655, -0.07366915792226791, -0.09299751371145248, -0.002547014271840453, 0.0397043451666832, 0.0295199416577816, -0.07223428040742874, -0.1510193794965744, 0.10262706130743027, -0.014892826788127422, 0.014803907833993435, 0.17282897233963013, -0.025560343638062477, -0.029486754909157753, 0.06216774135828018, -0.015643835067749023, -0.2881867289543152, 0.009587044827640057, 0.017097363248467445, -0.08403047919273376, -0.2611677050590515, 0.142046257853508, -0.1119304671883583, 0.03724280744791031, 0.15868021547794342, 0.16559948027133942, -0.38991838693618774, -0.035353533923625946, 0.0327720046043396, -0.08947765827178955, -0.12497270107269287, 0.04670669883489609, 0.12245578318834305, -0.1234588772058487, -0.3077405095100403, -0.3734178841114044, 0.6935371160507202, -0.02634711191058159, 0.09802758693695068, -0.30865389108657837, 0.5287320017814636, 0.20037885010242462, 0.3191716969013214, 0.44463375210762024, -0.01007281243801117, 0.37579527497291565, -0.16599644720554352, -0.1883527934551239, 0.05606091767549515, 0.13917194306850433, 0.2063795030117035, 0.28809458017349243, -0.02616279013454914, 0.08294150233268738, -0.3270593583583832, 0.05896589905023575, -0.027771444991230965, 0.011260551400482655, 0.22788077592849731, -0.17172132432460785, 0.02372290939092636, 0.16978812217712402, 0.17884187400341034, -0.021413037553429604, 0.13451911509037018, -0.265751451253891, 0.23934625089168549, 0.06167299300432205, -0.23087067902088165, 0.11404784023761749, 0.03672252967953682, 0.27440744638442993, -0.10757982730865479, -0.11699723452329636, -0.00038293289253488183, -0.1359923779964447, -0.17514194548130035, -0.016441579908132553, 0.2035943567752838, -0.23664945363998413, 0.2721936106681824, 0.21489761769771576, -0.2170051485300064, 0.1683790236711502, 0.11519169062376022, -0.18120816349983215, -0.07066889852285385, -0.037315599620342255, -0.2173120081424713, 0.07056588679552078, 0.202872633934021, 0.11626910418272018, 0.1001683920621872, -0.21437327563762665, -0.10548259317874908, -0.39281851053237915, 0.3152688145637512, -0.07508169859647751, 0.2078275978565216, 0.14839936792850494, -0.05518636479973793, -0.29029035568237305, 0.2694423794746399, 0.19699284434318542, 0.050133951008319855, -0.39772921800613403, 0.1020822748541832, 0.1304035484790802, -0.37904924154281616, 0.11723772436380386, -0.12615546584129333, 0.291060209274292, -0.2793002724647522, -0.05902678146958351, -0.18436016142368317, -0.12594270706176758, 0.16481713950634003, -0.20636971294879913, -0.10095426440238953, -0.13617080450057983, 0.07158172875642776, -0.03443130478262901, -0.2600739300251007, 0.2608740031719208, -0.14259551465511322, -0.15055660903453827, -0.04665650427341461, -0.09849798679351807, 0.17793335020542145, 0.08461643755435944, 0.12124735862016678, 0.19133086502552032, -0.07397496700286865, 0.16981986165046692, 0.07446888834238052, 0.27751341462135315, 0.37844333052635193, 0.04781043902039528, 0.013341979123651981, -0.3414504826068878, 0.4335690140724182, 0.10499749332666397, -0.06441714614629745, 0.2587825357913971, -0.24243652820587158, 0.3648657202720642, 0.2176390290260315, 0.21974822878837585, 0.09337122738361359, -0.2634658217430115, -0.4123968780040741, 0.31126558780670166, 0.2622312903404236, 0.00724597554653883, 0.046425722539424896, -0.04533124715089798, -0.050520800054073334, 0.038524724543094635, -0.06686188280582428, 0.09002898633480072, -0.033098164945840836, 0.23681515455245972, -0.18583357334136963, 0.022013463079929352, -0.0966634750366211, 0.001808222266845405, 0.20697066187858582, 0.0047377110458910465, -0.22996842861175537, 0.12333010137081146, -0.03373386710882187, 0.04363396391272545, 0.10742601007223129, -0.1576230376958847, 0.05704232305288315, 0.040692996233701706, -0.09668564796447754, 0.1691693514585495, 0.12333223223686218, 0.06928066909313202, -0.07020267844200134, 0.1736648678779602, 0.24721214175224304, 0.08725903928279877, 0.07375902682542801, 0.10135173797607422, 0.12664362788200378, 0.04983256757259369, -0.018901661038398743, 0.17107585072517395, -0.03953726589679718, 0.2528582811355591, -0.07209359854459763, -0.10468221455812454, 0.07685265690088272, -0.08925739675760269, -0.1144360899925232, 0.04726447910070419, -0.020200397819280624, 0.0779535248875618, 0.0016386691713705659, -0.03002491593360901, -0.10815295577049255, 0.039647649973630905, -0.1252545714378357, 0.04361746460199356, -0.0342390350997448, -0.011238562874495983, -0.025004440918564796, 0.03781874105334282, -0.11844377964735031, -0.09410685300827026, 0.0017941161058843136, 0.0464424304664135, -0.19273176789283752, -0.061566758900880814, -0.11253587156534195, 0.00708708306774497, 0.05961481109261513, 0.028434844687581062, -0.0013145065167918801, 0.10517790913581848, 0.1177748367190361, 0.0072959112003445625, -0.3064555823802948, 0.013010639697313309, 0.050637029111385345, 0.044525839388370514, -0.10554952174425125, -0.040114909410476685, 0.014088493771851063, 0.05243513733148575, -0.04311132803559303, -0.06557557731866837, 0.11605492234230042, -0.16477817296981812, 0.11858904361724854, -0.17912167310714722, 0.07654790580272675, -0.0013617622898891568, -0.19265487790107727, -0.07312329113483429, -0.054069265723228455, -0.03124633990228176, -0.0015979150775820017, 0.03371463716030121, -0.05580837279558182, -0.09655334800481796, 0.012612435035407543, 0.02841457910835743, -0.04926463961601257, 0.02424676902592182, -0.02386920526623726, -0.043508872389793396, 0.0893765464425087, -0.07982632517814636, -0.06610683351755142, -0.09676795452833176, 0.12233699858188629, -0.0384690947830677, 0.01677064597606659, -0.10917264968156815, 0.0189348217099905, 0.05799200013279915, 0.019505783915519714, 0.06259752810001373, 0.15462075173854828, 0.060963694006204605, 0.11982563138008118, -0.08382579684257507, -0.08225462585687637, 0.06741920113563538, 0.03022032231092453, -0.14717578887939453, -0.1544506847858429, -0.08901345729827881, -0.03954346850514412, 0.11174439638853073, -0.16431455314159393, -0.0499974749982357, -0.0838303491473198, 0.0011950857006013393, 0.007529475726187229, 0.04340740293264389, -0.07564683258533478, -0.05971388891339302, 0.11012200266122818, -0.0860026627779007, -0.012053227052092552, 0.0605454221367836, 0.07050924748182297, -0.11759089678525925, -0.11421763896942139, 0.08783627301454544, -0.048190075904130936, -0.09590097516775131, 0.08498530834913254, -0.014395218342542648, -0.045416150242090225, 0.09184634685516357, 0.03568210080265999, -0.005276350304484367, 0.01990003138780594, 0.010669718496501446, -0.09381778538227081, -0.023343248292803764, 0.06654944270849228, 0.011500083841383457, 0.019678955897688866, -0.09785281866788864, -0.0011708009988069534, -0.050195544958114624, 0.062944196164608, -0.013252900913357735, -0.03452800586819649, 0.06187029182910919, -0.03221166878938675, -0.018785640597343445, 0.10525401681661606, -0.048094525933265686, -0.04079359397292137, 0.0005413765902630985, -0.1290622353553772, 0.03219896927475929, -0.020815394818782806, -0.017947519198060036, -0.023928703740239143, -0.07936859875917435, -0.042996957898139954, 0.02937530353665352, 0.0015556702855974436, -0.06549295037984848, -0.04898666590452194, -0.06286552548408508, 0.08213396370410919, -0.03545438498258591, -0.07878812402486801, 0.10804691165685654, 0.02053404413163662, -0.0525108203291893, -0.056104470044374466, 0.02384103462100029, -0.034858863800764084, -0.01297345757484436, 0.049836400896310806, -0.08257390558719635, 0.29890966415405273, -0.03155099228024483, -0.3885088860988617, -0.19665883481502533, -0.3326078951358795, -0.5154886245727539, 0.29975610971450806, 0.10728894919157028, -0.3314706087112427, 0.2846514880657196, -0.6030595898628235, -0.3008527159690857, -0.34219008684158325, 0.9046076536178589, 0.22687897086143494, -0.1258506029844284, -1.1748555898666382, -1.2283800840377808, -0.4333800971508026, 0.715657114982605, -0.21186673641204834, 0.2627984881401062, 0.1078830137848854, -0.9834190607070923, -1.0933622121810913, 0.22583407163619995, 0.14679409563541412, 0.3564590513706207, -0.5627176761627197, -0.025653429329395294, -0.3859080970287323, 0.20700658857822418, 0.1355455219745636, 0.06089509651064873, -0.29612722992897034, -1.2270870208740234, 0.3447923958301544, 0.34713780879974365, -0.5280824303627014, 0.031011855229735374, 0.19796490669250488, 