// Numpy array shape [64, 64]
// Min -0.37110493
// Max 0.40139675
// Number of zeros 0

#ifndef TRANSFORMERS_1_SELF_ATTENTION_OUT_WEIGHT_H_
#define TRANSFORMERS_1_SELF_ATTENTION_OUT_WEIGHT_H_

#ifndef __SYNTHESIS__
model_default_t transformers_1_self_attention_out_weight[4096];
#else
model_default_t transformers_1_self_attention_out_weight[4096] = {0.07023023068904877, 0.1464473307132721, -0.0048429821617901325, -0.06739684194326401, -0.062202583998441696, 0.11243879795074463, 
0.002805133117362857, 0.2873581647872925, 0.10673404484987259, 0.03852251172065735, -0.08567938953638077, 0.050451457500457764, 0.0347549170255661, 
0.17202481627464294, -0.048041991889476776, -0.023643411695957184, -0.11114685237407684, -0.029432931914925575, -0.003091545542702079, -0.05206449702382088, 
-0.09730938076972961, -0.03485817834734917, -0.005796029232442379, -0.19407665729522705, -0.07755822688341141, -0.07381363958120346, 0.003914202097803354, 
-0.18435503542423248, 0.015788020566105843, 0.14431002736091614, 0.11558008939027786, 0.2399575114250183, 0.04518755525350571, 0.09646611660718918, 
-0.010339434258639812, -0.016087060794234276, -0.1573135107755661, 0.057124506682157516, 0.10226105898618698, -0.08470086753368378, -0.020066361874341965, 
-0.0566665343940258, -0.174189031124115, -0.043809592723846436, 0.03250189498066902, -0.15738405287265778, -0.03734089434146881, -0.09237302094697952, 
-0.06615407764911652, -0.19276851415634155, 0.13281993567943573, 0.06956885755062103, 0.0061125303618609905, 0.15459944307804108, 0.16690601408481598, 
-0.04513076692819595, 0.026079121977090836, -0.07511580735445023, -0.03462371602654457, 0.10183051228523254, 0.11074646562337875, -0.12690116465091705, 
0.1512564867734909, 0.04938673973083496, -0.038027942180633545, -0.044039465487003326, -0.1566881686449051, 0.0022869266103953123, -0.0805623009800911, 
-0.007947590202093124, -0.11340527981519699, -0.028049170970916748, 0.027491336688399315, 0.01252384390681982, -0.002347321016713977, -0.041196309030056, 
-0.05759420245885849, 0.20378592610359192, -0.17731177806854248, -0.07438499480485916, -0.03747610002756119, -0.03124847449362278, 0.04040490463376045, 
-0.015402638353407383, 0.06869563460350037, 0.17140360176563263, -0.06593483686447144, 0.03238646686077118, 0.07187701016664505, -0.02071215771138668, 
0.21276797354221344, -0.14541380107402802, 0.04554145410656929, 0.038767009973526, 0.13819332420825958, 0.0918426662683487, 0.156038299202919, 
-0.04520057141780853, -0.058839112520217896, -0.04073638468980789, -0.15450480580329895, 0.09821859002113342, 0.06084360554814339, -0.09320612996816635, 
-0.04198936000466347, -0.081502765417099, -0.14338050782680511, -0.11776057630777359, 0.25766924023628235, -0.040458716452121735, -0.020720241591334343, 
0.022986996918916702, 0.06759321689605713, -0.0002201611059717834, 0.09253799915313721, 0.02860906347632408, -0.0013300888240337372, -0.011937860399484634, 
0.16186824440956116, 0.07871674746274948, -0.0748908519744873, 0.03164216876029968, -0.07665102928876877, -0.01954936608672142, 0.10409138351678848, 
-0.06660803407430649, 0.1712551862001419, 0.080042764544487, 0.0726948156952858, 0.03129982203245163, -0.09817958623170853, 0.10893739759922028, 
-0.12515349686145782, 0.07613099366426468, 0.03433918207883835, 0.16368483006954193, -0.12319624423980713, -0.0017367140389978886, -0.1135561391711235, 
0.0607573427259922, 0.10824040323495865, 0.14249005913734436, -0.12057171016931534, 0.047393351793289185, -0.02608848549425602, -0.06988516449928284, 
0.05173482745885849, -0.13784871995449066, 0.06630681455135345, -0.07428337633609772, -0.030675599351525307, -0.05883529409766197, 0.11595902591943741, 
-0.020421339198946953, -0.04643110930919647, -0.07669448852539062, -0.05439048260450363, -0.06423073261976242, 0.045724887400865555, 0.1874445378780365, 
0.11707399040460587, -0.11495188623666763, -0.11092161387205124, 0.04217365011572838, -0.017317403107881546, -0.09189996123313904, 0.12368418276309967, 
-0.05378304421901703, -0.09681303054094315, 0.07761649787425995, 0.010717587545514107, 0.09146512299776077, 0.15600362420082092, -0.11473293602466583, 
0.09007947146892548, -0.07960457354784012, -0.12402705103158951, -0.1017257422208786, -0.06039869412779808, -0.06782210618257523, -0.0039841607213020325, 
-0.022001370787620544, 0.01323363184928894, 0.09064777940511703, 0.026687419041991234, -0.08220566809177399, 0.04516032710671425, -0.1402607411146164, 
0.008761430159211159, -0.1743551641702652, -0.11881406605243683, -0.03593612462282181, -0.021022340282797813, -0.05392409488558769, 0.042386963963508606, 
0.08126499503850937, -0.010638591833412647, -0.07924582809209824, -0.120964914560318, -0.16468210518360138, -0.028806785121560097, 0.06164504960179329, 
-0.1033654510974884, 0.07774172723293304, 0.021650386974215508, -0.14845187962055206, 0.02589418552815914, -0.1323760747909546, 0.05294201895594597, 
-0.07774952799081802, -0.13830119371414185, -0.007096438203006983, 0.06508388370275497, -0.05842963978648186, -0.05888700857758522, -0.04495479539036751, 
-0.1337040662765503, -0.07721519470214844, -0.01191641017794609, 0.16048231720924377, -0.1620311588048935, 0.009766485542058945, 0.03490528091788292, 
-0.057823214679956436, -0.09023798257112503, 0.009638271294534206, -0.16773633658885956, 0.08207784593105316, 0.11927925795316696, 0.07986503839492798, 
-0.1054609939455986, 0.07193394750356674, -0.028997570276260376, 0.11748316884040833, 0.08160144090652466, -0.06843308359384537, -0.027451205998659134, 
0.07250362634658813, -0.06747055053710938, 0.03063010238111019, -0.12638594210147858, -0.05554572492837906, -0.017608536407351494, -0.0669928714632988, 
-0.028084587305784225, -0.029456134885549545, -0.08225022256374359, 0.06966302543878555, -0.06172746792435646, 0.003191255498677492, -0.10059775412082672, 
0.09556718170642853, -0.0007906202808953822, -0.03919338807463646, -0.15073716640472412, -0.061978600919246674, 0.08800502866506577, -0.07643970847129822, 
-0.016514627262949944, -0.019772838801145554, -0.023651020601391792, -0.20350858569145203, -0.07869389653205872, 0.1844274401664734, -0.011850281618535519, 
-0.019621044397354126, -0.02925124205648899, 0.07206553220748901, 0.05634540691971779, -0.0655701607465744, -0.102401003241539, 0.14700567722320557, 
-0.09342457354068756, 0.03633324056863785, 0.1555328518152237, 0.11018352955579758, 0.0432574525475502, -0.029630202800035477, -0.07652441412210464, 
-0.15763168036937714, -0.0405617281794548, -0.0757790058851242, 0.053308550268411636, 0.008662010543048382, 0.1312597393989563, 0.008865677751600742, 
0.00618516793474555, 0.13550102710723877, 0.06281912326812744, -0.01866260915994644, -0.02337479218840599, -0.14781135320663452, 0.20058752596378326, 
0.09534521400928497, -0.0025855249259620905, -0.004429223947227001, -0.11008402705192566, -0.2602056562900543, -0.020361321046948433, -0.049612585455179214, 
0.18543925881385803, -0.01607055403292179, 0.06772393733263016, 0.113948293030262, 0.005705006420612335, -0.09296447038650513, -0.0511297732591629, 
-0.05166002735495567, -0.07100790739059448, 0.0031794526148587465, 0.04956283047795296, -0.10650955140590668, 0.13783575594425201, 0.07036414742469788, 
-0.09850656241178513, 0.03313049301505089, 0.08955691009759903, -0.02565891481935978, 0.07432275265455246, -0.023825809359550476, -0.07712964713573456, 
-0.05430448427796364, 0.04923135042190552, -0.0985860750079155, 0.08046557754278183, 0.018380653113126755, -0.04884960129857063, -0.01693127118051052, 
0.09686607867479324, 0.018351823091506958, 0.11615891009569168, 0.08303617686033249, 0.1475212574005127, 0.08239395171403885, 0.0360838919878006, 
-0.044052865356206894, -0.10179377347230911, 0.141098290681839, -0.09686530381441116, -0.08256594836711884, -0.05274838209152222, -0.03174130618572235, 
-0.09616925567388535, 0.019299302250146866, 0.07680457085371017, -0.07930964976549149, -0.03027006983757019, -0.06754745543003082, -0.029175972566008568, 
-0.017353445291519165, -0.06004728004336357, 0.2150387018918991, -0.0541917160153389, -0.011159287765622139, 0.14924947917461395, -0.04495790973305702, 
-0.05379447713494301, 0.10656101256608963, 0.09145097434520721, 0.019383447244763374, -0.10153713077306747, -0.08200470358133316, 0.10007134079933167, 
-0.056204721331596375, 0.11969955265522003, -0.019914723932743073, 0.09062927216291428, 0.041988763958215714, -0.03502808138728142, -0.06539210677146912, 
-0.11919350177049637, -0.02313944697380066, 0.15569892525672913, 0.029726002365350723, 0.03216373920440674, -0.013880432583391666, 0.11973921954631805, 
-0.10746626555919647, 0.09758637100458145, 0.048734720796346664, 0.1284126192331314, 0.05147072300314903, 0.021954622119665146, -0.04622878506779671, 
-0.025539550930261612, 0.11346758157014847, -0.09587011486291885, 0.029278729110956192, 0.010153737850487232, -0.020482929423451424, -0.13283836841583252, 
0.08448809385299683, 0.0066473702900111675, -0.08473460376262665, 0.04702768102288246, -0.03259631618857384, -0.07949592918157578, 0.14597024023532867, 
-0.009142673574388027, 0.05390970781445503, -0.04266301542520523, 0.04154587537050247, 0.0058807325549423695, -0.0031346087343990803, 0.05499407276511192, 
0.11696697771549225, -0.0637170821428299, -0.048152677714824677, 0.0397050604224205, 0.021501025184988976, 0.17967113852500916, -0.02641318365931511, 
-0.07029157876968384, 0.12674225866794586, 0.0012513796100392938, 0.12950672209262848, 0.1696072369813919, 0.012702991254627705, 0.12235739082098007, 
-0.12545618414878845, -0.31383416056632996, 0.1328410655260086, -0.03288903832435608, 0.08964048326015472, -0.026860563084483147, 0.04890885576605797, 
-0.015621121972799301, -0.023543817922472954, 0.1360348016023636, -0.12138325721025467, 0.027336174622178078, 0.08657552301883698, 0.06167702004313469, 
-0.1177518367767334, 0.1019686758518219, -0.12822569906711578, 0.06844587624073029, 0.13279367983341217, 0.06453680247068405, 0.07404863089323044, 
-0.0426783449947834, -0.11945276707410812, -0.06671851128339767, -0.0800098404288292, 0.12460067868232727, -0.0939045399427414, 0.0813218429684639, 
-0.006817346438765526, -0.02988770231604576, -0.09050251543521881, -0.114296093583107, -0.12297983467578888, 0.046827733516693115, 0.08770079165697098, 
-0.02640041522681713, 0.1856679767370224, 0.07314534485340118, -0.04567452147603035, 0.027225352823734283, -0.15252338349819183, 0.13512815535068512, 
0.15164431929588318, -0.10778787732124329, -0.07242801040410995, 0.05846799910068512, 0.04456697776913643, -0.05402339622378349, 0.15984632074832916, 
-0.09913560003042221, -0.11310820281505585, 0.007325665559619665, -0.03737238049507141, 0.10984452068805695, -0.042688217014074326, -0.07225954532623291, 
-0.1390806883573532, 0.08117387443780899, -0.05861949175596237, -0.038656339049339294, 0.027397947385907173, 0.18562622368335724, 0.05654412880539894, 
0.14688439667224884, -0.12484675645828247, -0.1866353303194046, 0.14862066507339478, -0.03926675394177437, -0.08111996203660965, 0.016555381938815117, 
0.05429856851696968, 0.06324101239442825, -0.1747734397649765, 0.2011507898569107, 0.008195439353585243, -0.07333867996931076, 0.13316617906093597, 
-0.04972486570477486, -0.009657303802669048, -0.08334868401288986, 0.004905483685433865, 0.007315659895539284, 0.021774714812636375, 0.07560258358716965, 
-0.1299276351928711, -0.0028637645300477743, -0.09423069655895233, 0.05409574508666992, -0.14687895774841309, -0.015906667336821556, 0.08922449499368668, 
-0.008239318616688251, -0.08033731579780579, -0.02007841318845749, -0.04665976017713547, 0.10483960807323456, -0.05007690563797951, -0.04789244756102562, 
0.04265345260500908, 0.105058453977108, 0.07786225527524948, 0.1652599573135376, 0.0852767825126648, 0.09991388767957687, -0.02580929361283779, 
-0.022549564018845558, -0.018799519166350365, 0.0014741134364157915, -0.044310666620731354, -0.08777099847793579, 0.0859093964099884, -0.04841336980462074, 
0.1137886568903923, -0.02959515154361725, 0.0879485011100769, -0.030199790373444557, 0.01373011153191328, -0.07473701983690262, 0.0788908526301384, 
0.01854034699499607, 0.0824974775314331, -0.12458022683858871, 0.1021244153380394, 0.10458040237426758, -0.15143746137619019, -0.05610691383481026, 
-0.07844331115484238, -0.0043984465301036835, -0.03494127839803696, 0.02849898487329483, -0.09294043481349945, 0.013562092557549477, 0.11190499365329742, 
-0.0609501451253891, 0.04229161515831947, 0.011184373870491982, 0.024099335074424744, -0.2231326848268509, 0.04746711999177933, -0.11468030512332916, 
-0.10271217674016953, -0.08933285623788834, 0.129459947347641, 0.0020397333428263664, -0.007236422970890999, -0.056688714772462845, 0.014537454582750797, 
0.12396660447120667, 0.2036615014076233, -0.020458592101931572, -0.19919665157794952, 0.02553255669772625, -0.030693862587213516, 0.1094859316945076, 
-0.06541704386472702, 0.08531083911657333, -0.03830747678875923, -0.02579387091100216, 0.03885916993021965, 0.03732650727033615, -0.04367123544216156, 
0.05861631780862808, -0.050653133541345596, 0.1015939936041832, -0.01740741729736328, -0.173905149102211, 0.02483908273279667, 0.1282978653907776, 
-0.05789891257882118, -0.10079759359359741, -0.17053671181201935, -0.002536601386964321, 0.04799188673496246, 0.13066895306110382, 0.03560712933540344, 
-0.08680509775876999, 0.049071602523326874, -0.12896248698234558, 0.04935409501194954, 0.14508551359176636, 0.06725721061229706, 0.04821405187249184, 
-0.1454123854637146, -0.09646386653184891, 0.14057795703411102, 0.10702264308929443, -0.03390376642346382, 0.026823995634913445, 0.1002756729722023, 
0.06629840284585953, 0.09676903486251831, 0.08320456743240356, -0.1215873658657074, 0.3268146216869354, 0.15713059902191162, -0.06927823275327682, 
0.09666904807090759, -0.07812821865081787, 0.00987488217651844, -0.052626047283411026, -0.114408478140831, -0.058834657073020935, 0.08345256000757217, 
0.06282270699739456, 0.153087317943573, -0.055081747472286224, 0.1022525504231453, -0.0850052535533905, -0.10870308429002762, -0.020282549783587456, 
0.039814241230487823, -0.0893949642777443, -0.1093025878071785, -0.15558046102523804, 0.01367801334708929, 0.046499237418174744, -0.09823354333639145, 
-0.038173653185367584, -0.0016641649417579174, -0.1410137116909027, 0.05358196794986725, -0.14057180285453796, -0.11126921325922012, 0.025676840916275978, 
0.07193664461374283, -0.021104808896780014, -0.01668308489024639, -0.00993706751614809, -0.06986933946609497, -0.06536062061786652, 0.08737773448228836, 
0.13133282959461212, 0.07035394757986069, 0.0037025476340204477, 0.10796193778514862, -0.0853235051035881, -0.05328730121254921, 0.027106408029794693, 
0.06770949810743332, -0.12696918845176697, -0.07181423157453537, 0.08257979154586792, 0.11732552945613861, -0.047146618366241455, -0.09168405085802078, 
0.1251935064792633, -0.078216552734375, 0.14849594235420227, -0.01567055657505989, -0.1518600881099701, -0.10827391594648361, 0.03626648709177971, 
-0.0019518777262419462, -0.008521142415702343, -0.04414310306310654, -0.03225135803222656, 0.08328159898519516, -0.09647224098443985, 0.024072591215372086, 
0.09246514737606049, 0.0496021993458271, -0.12670613825321198, -0.03985367342829704, 0.06361551582813263, 0.028409218415617943, -0.025753550231456757, 
-0.06805408746004105, 0.001024077762849629, 0.06864677369594574, -0.07818479835987091, 0.04356111213564873, 0.08151719719171524, 0.006190767046064138, 
-0.05840054526925087, -0.026390109211206436, 0.043451499193906784, 0.05508187785744667, 0.07430172711610794, 0.0927877202630043, 0.008593534119427204, 
0.04242372885346413, 0.04834965616464615, 0.04497909918427467, -0.013739238493144512, -0.10073482990264893, 0.08478103578090668, 0.15533433854579926, 
-0.06061932444572449, 0.10924249142408371, -0.005135160405188799, 0.0004952351446263492, 0.004847887437790632, 0.19925807416439056, 0.08642903715372086, 
-0.02153649926185608, 0.11694978922605515, -0.06688965857028961, 0.11030103266239166, 0.0297198835760355, -0.0051838005892932415, -0.03638741374015808, 
-0.07808137685060501, 0.04527762159705162, 0.008389604277908802, 0.014137170277535915, 0.06756681203842163, -0.0181684922426939, -0.015585225075483322, 
-0.1773497462272644, 0.19882725179195404, 0.10361284762620926, 0.022596511989831924, -0.1756591945886612, -0.04222739487886429, 0.09816669672727585, 
-0.047679319977760315, 0.2515111565589905, -0.05160621181130409, 0.012963799759745598, 0.12749016284942627, -0.03109125606715679, -0.08756549656391144, 
0.09558303654193878, 0.06341607868671417, -0.04787913337349892, 0.010507351718842983, -0.07919735461473465, -0.09235163778066635, -0.11612502485513687, 
0.22563718259334564, -0.054423987865448, -0.0868057906627655, -0.0824357122182846, -0.03042266145348549, -0.0016472868155688047, 0.04454365000128746, 
0.05271701514720917, 0.008052065037190914, -0.05584584176540375, 0.12403631955385208, 0.04592163488268852, 8.286579395644367e-05, 0.07153649628162384, 
-0.026471149176359177, 0.09984534978866577, -0.06348604708909988, 0.08018303662538528, 0.046685460954904556, 0.0842408761382103, 0.07377513498067856, 
0.1098787784576416, 0.06806819140911102, -0.0627606064081192, -0.021932167932391167, 0.06632889062166214, 0.025188421830534935, 0.12649576365947723, 
-0.07461738586425781, -0.063248410820961, 0.06939173489809036, 0.09581591188907623, 0.05124823376536369, 0.14112982153892517, 0.05000804364681244, 
0.019299341365695, 0.02192835882306099, -0.10541034489870071, -0.051221832633018494, -0.05738183110952377, -0.1352851539850235, -0.09433390945196152, 
0.08082480728626251, -0.00422299699857831, 0.1445326805114746, 0.14224612712860107, 0.03351881727576256, -0.09723162651062012, 0.07273551821708679, 
0.17513318359851837, 0.1623452752828598, 0.14455410838127136, 0.12643183767795563, 0.021164562553167343, 0.18667349219322205, -0.1282934844493866, 
-0.029496753588318825, -0.012796701863408089, -0.019455773755908012, -0.04376758635044098, -0.10387947410345078, -0.050785552710294724, -0.031270891427993774, 
0.023623859509825706, 0.2087518572807312, -0.08512043207883835, 0.011880367062985897, -0.010314736515283585, 0.07541310042142868, -0.09842801839113235, 
0.021878240630030632, 0.005845212377607822, 0.12363295257091522, 0.0046783555299043655, 0.1766500025987625, -0.051308657974004745, 0.17306795716285706, 
0.05934029445052147, -0.015611924231052399, -0.05480479076504707, 0.09391757100820541, -0.1635252982378006, -0.06041724234819412, 0.11678054928779602, 
0.018263038247823715, -0.16337832808494568, 0.18487629294395447, 0.014664027839899063, -0.010055435821413994, -0.1434512883424759, -0.01594904065132141, 
-0.06569848954677582, -0.10816660523414612, -0.04303257167339325, -0.018712013959884644, -0.05576593801379204, 0.04729359224438667, -0.0762406513094902, 
-0.039604317396879196, -0.06521410495042801, 0.02868727222084999, -0.08237282931804657, 0.02401762828230858, 0.010395127348601818, 0.12869863212108612, 
-0.022080695256590843, -0.06820597499608994, 0.0197016429156065, -0.0048463125713169575, 0.052209582179784775, 0.07012821733951569, 0.12060581147670746, 
-0.0902184471487999, -0.05782165750861168, -0.10767345875501633, -0.237980917096138, -0.07857570052146912, -0.06280198693275452, 0.01092707272619009, 
0.13751660287380219, 0.06191173940896988, 0.04819084703922272, -0.1381378471851349, 0.07491014897823334, 0.10713017731904984, 0.13860875368118286, 
0.12127874791622162, 0.020869920030236244, -0.1389225870370865, 0.16029398143291473, -0.15822269022464752, 0.030921075493097305, -0.0534784235060215, 
0.11541624367237091, -0.14289987087249756, 0.10807649046182632, 0.11575642973184586, -0.048175208270549774, -0.22998499870300293, 0.051142554730176926, 
0.051544107496738434, -0.029044466093182564, 0.026916619390249252, -0.10036733001470566, 0.027203937992453575, 0.12853209674358368, -0.039719175547361374, 
-0.050154656171798706, -0.07366476207971573, 0.05938253179192543, 0.1371941715478897, 0.01592087559401989, 0.009938158094882965, -0.06262416392564774, 
0.03012089803814888, 0.1495593637228012, -0.15386834740638733, -0.03988736867904663, 0.09215541183948517, -0.11959312111139297, -0.026806101202964783, 
-0.13123294711112976, -0.06494610011577606, 0.028056204319000244, -0.0865594893693924, 0.10191577672958374, 0.021621104329824448, -0.10568299144506454, 
-0.004856661893427372, -0.07012028992176056, -0.12706133723258972, -0.1420314908027649, 0.038935717195272446, 0.031286779791116714, 0.05909943953156471, 
-0.05834881216287613, -0.12203115969896317, 0.08901380002498627, 0.062317777425050735, 0.2981705665588379, -0.06564448773860931, 0.04953697323799133, 
-0.07831549644470215, -0.14570178091526031, -0.037632036954164505, 0.09182742983102798, 0.11593864113092422, -0.011671413667500019, -0.07205208390951157, 
-0.015248381532728672, -0.032641906291246414, -0.24242094159126282, 0.15750792622566223, 0.05734018608927727, -0.1245955154299736, 0.01506556011736393, 
0.16864469647407532, -0.04852292314171791, -0.13288119435310364, 0.0708744078874588, 0.1199803575873375, -0.004944514017552137, 0.025483297184109688, 
0.06136668473482132, 0.04229311645030975, -0.09926154464483261, -0.1635095775127411, -0.037942253053188324, 0.031122969463467598, 0.006101834122091532, 
0.06378720700740814, 0.05671434849500656, 0.15011735260486603, -0.04496227577328682, 0.12901809811592102, -0.050147704780101776, 0.044307880103588104, 
0.08215725421905518, -0.02322758547961712, -0.2315177172422409, 0.0037439942825585604, 0.022042691707611084, -0.026410598307847977, 0.09093781560659409, 
0.058352939784526825, -0.1171102225780487, 0.02410612441599369, -0.03851170837879181, -0.027297062799334526, 0.13575418293476105, -0.0039462316781282425, 
0.050755955278873444, -0.0022480280604213476, -0.018611786887049675, 0.08389965444803238, 0.06674059480428696, -0.16618479788303375, -0.04775012284517288, 
-0.05187506228685379, -0.005810907110571861, -0.0658034235239029, 0.0008683219784870744, -0.17313948273658752, -0.37042489647865295, 0.038475774228572845, 
0.026168569922447205, 0.010362381115555763, 0.03477523848414421, 0.16276825964450836, 0.013131245970726013, -0.1537032574415207, 0.07789810746908188, 
0.09421300143003464, -0.10239637643098831, 0.08738353848457336, 0.1320294737815857, -0.2117033153772354, 0.07989612221717834, -0.1750349998474121, 
0.07293441146612167, -0.13096065819263458, 0.12917548418045044, 0.045281168073415756, 0.05684671923518181, -0.047665100544691086, -0.10197888314723969, 
-0.26635292172431946, -0.030825894325971603, -0.10994001477956772, -0.007734501268714666, 0.08654838055372238, 0.0031951472628861666, 0.07643531262874603, 
0.09539846330881119, 0.046672094613313675, -0.10072976350784302, -0.08692110329866409, 0.09372003376483917, 0.02743959240615368, 0.0751446858048439, 
0.00015504821203649044, 0.16254813969135284, 0.0743517130613327, 0.22365392744541168, -0.01950426585972309, -0.10276523977518082, -0.05920054018497467, 
0.022899745032191277, 0.06231500953435898, -0.019069431349635124, -0.12180685997009277, 0.17537523806095123, 0.07037415355443954, -0.007477408275008202, 
0.10988771915435791, -0.09821595251560211, 0.11666470766067505, -0.04485010355710983, 0.02405049093067646, -0.0924389511346817, 0.005481155123561621, 
0.06604810059070587, -0.10058676451444626, 0.011864284053444862, 0.03835880383849144, 0.126228466629982, 0.08304078876972198, 0.08228213340044022, 
-0.02746647782623768, 0.08382323384284973, -0.0023294349666684866, 0.05118323862552643, -0.17374882102012634, -0.055415764451026917, -0.056866370141506195, 
0.01754968985915184, 0.031625665724277496, 0.06075306981801987, 0.01931576058268547, 0.0933467224240303, 0.03783915936946869, 0.10616476088762283, 
0.03264637291431427, -0.04305548220872879, 0.11609546840190887, -0.042708247900009155, 0.10469623655080795, 0.10371246188879013, 0.03630075603723526, 
-0.051433905959129333, 0.05503421649336815, -0.0005124800372868776, -0.005650975741446018, 0.05105837807059288, 0.005479002371430397, 0.14485213160514832, 
0.06539162993431091, 0.07510240375995636, -0.042601894587278366, 0.14618079364299774, -0.06816764920949936, 0.01002359576523304, 0.06323061883449554, 
-0.04729478806257248, 0.016998661682009697, 0.032742325216531754, 0.09012535214424133, 0.2551652491092682, 0.12390004843473434, 0.07421519607305527, 
0.10336405783891678, -0.190677672624588, -0.06706107407808304, 0.10597062855958939, 0.015339331701397896, -0.07394161075353622, 0.030910992994904518, 
0.08988350629806519, -0.00711326627060771, 0.14728230237960815, -0.06655915826559067, 0.04840749129652977, 0.026660380885004997, 0.0027255488093942404, 
0.047812558710575104, 0.05969219654798508, 0.17957916855812073, 0.001652693492360413, -0.031029438599944115, 0.009079302661120892, 0.02310929261147976, 
-0.00487659452483058, 0.14878012239933014, -0.07675442099571228, 0.0943707674741745, -0.08617250621318817, -0.16332098841667175, -0.027697216719388962, 
0.12912589311599731, 0.08220318704843521, -0.04889123514294624, -0.031238598749041557, -0.07612065970897675, -0.09916318207979202, 0.13804760575294495, 
-0.042447779327631, 0.060849931091070175, 0.001852980232797563, 0.1027550920844078, -0.0017539573600515723, -0.0026700131129473448, 0.02933668904006481, 
-0.04571324586868286, 0.005453062243759632, 0.18731893599033356, -0.007441084831953049, 0.15833786129951477, 0.04213351383805275, -0.11218695342540741, 
-0.031135274097323418, 0.09403982013463974, -0.0268105361610651, 0.1750333309173584, -0.005028749816119671, -0.00856143981218338, 0.15358290076255798, 
-0.1816607564687729, -0.07333338260650635, 0.028305428102612495, 0.11147096753120422, 0.08774465322494507, 0.06756066530942917, -0.0003535469004418701, 
-0.058840151876211166, 0.0816834345459938, 0.10171355307102203, 0.09976562112569809, -0.028485817834734917, -0.0007303289603441954, 0.17357751727104187, 
-0.06288640946149826, 0.09928477555513382, 0.1518631875514984, -0.008410719223320484, -0.12355957925319672, -0.10738352686166763, 0.05592195689678192, 
0.03701268136501312, -0.051205653697252274, 0.04565634950995445, -0.03279062360525131, -0.1681089848279953, 0.14061707258224487, 0.05471090227365494, 
-0.03438252955675125, 0.05646349489688873, -0.04064092040061951, 0.08870944380760193, 0.16634123027324677, -0.1087130680680275, -0.14762091636657715, 
0.021931035444140434, -0.06498835980892181, 0.042645420879125595, -0.15670447051525116, 0.005697052460163832, -0.007862611673772335, 0.01874660886824131, 
0.06506466865539551, -0.15488053858280182, 0.17119021713733673, -0.015535583719611168, 0.06870260834693909, -0.25141867995262146, -0.0008670532843098044, 
0.11047394573688507, 0.059017397463321686, 0.04042714089155197, 0.09611865878105164, 0.02337995357811451, -0.07851633429527283, 0.0912814736366272, 
0.004291083663702011, 0.11594121903181076, -0.011795743368566036, 0.03995389863848686, -0.05091114714741707, -0.013475984334945679, -0.11048080772161484, 
0.05839285999536514, -0.1677396595478058, 0.03217856213450432, -0.05301934480667114, 0.010444264858961105, 0.06110737845301628, 0.1780228465795517, 
0.24042850732803345, -0.07112006843090057, 0.0697202980518341, -0.17280682921409607, -0.08216603845357895, 0.07395651191473007, 0.03184143453836441, 
-0.07301200181245804, 0.013985123485326767, 0.08734065294265747, 0.09143947064876556, 0.008887805975973606, -0.1328364461660385, 0.053908538073301315, 
0.00918550230562687, -0.16085335612297058, -0.027712345123291016, -0.0146949989721179, 0.0405050590634346, -0.026206599548459053, -0.03755399212241173, 
0.017536034807562828, 0.12460769712924957, 0.07643640041351318, 0.03444261848926544, 0.031010640785098076, -0.014059583656489849, -0.11088075488805771, 
-0.21550285816192627, 0.11412559449672699, 0.07285454869270325, -0.11035240441560745, -0.0793241634964943, -0.08128730952739716, -0.04566747322678566, 
0.02610122598707676, 0.06706108152866364, -0.013777973130345345, 0.21415090560913086, -0.05293615162372589, 0.02497885189950466, -0.08003661781549454, 
0.04948369786143303, -0.058302074670791626, -0.016400722786784172, 0.040782853960990906, 0.1123819425702095, -0.057088542729616165, 0.13399091362953186, 
0.06595978140830994, -0.035224054008722305, -0.10024194419384003, 0.08147002011537552, 0.01375785656273365, 0.03631500154733658, 0.07231883704662323, 
-0.010587400756776333, -0.07036613672971725, -0.018914472311735153, -0.07323168963193893, 0.01662670634686947, 0.019380487501621246, -0.1101963222026825, 
-0.23738111555576324, 0.05898873135447502, 0.009991873987019062, 0.005100731272250414, 0.02986920438706875, -0.10790517926216125, 0.11481323093175888, 
-0.025649700313806534, -0.11886415630578995, 0.044838085770606995, 0.04299236834049225, -0.13753244280815125, 0.05064249783754349, 0.08417465537786484, 
-0.0843619778752327, -0.014068402349948883, 0.1490727812051773, -0.06617515534162521, 0.0034434604458510876, 0.12484876811504364, -0.046749044209718704, 
-0.03011799044907093, -0.059730879962444305, 0.018266377970576286, -0.1007954329252243, -0.055754534900188446, -0.04608869552612305, 0.07337674498558044, 
-0.07577618956565857, -0.06553535163402557, -0.0685553178191185, 0.02840050868690014, -0.05553800240159035, 0.12601251900196075, 0.010835101827979088, 
-0.010494371876120567, 0.050759900361299515, -0.08495228737592697, -0.020094217732548714, -0.09823630005121231, 0.02399349957704544, -0.10929300636053085, 
0.07184670120477676, -0.047921568155288696, 0.09329449385404587, -0.0972810760140419, 0.01880875788629055, -0.07859139889478683, 0.06359511613845825, 
0.10534212738275528, -0.06743072718381882, -0.003867050865665078, -0.04441444203257561, 0.07413849234580994, 0.11194115877151489, 0.01972300000488758, 
-0.01955244317650795, -0.03125501796603203, 0.09930603206157684, 0.06818448007106781, -0.06668828427791595, -0.014697435311973095, 0.008000977337360382, 
0.07086264342069626, 0.032540664076805115, -0.11833295971155167, 0.020224804058670998, 0.03466145321726799, -0.15187790989875793, 0.10466685891151428, 
-0.07376674562692642, -0.054481931030750275, 0.02535313554108143, 0.12459377199411392, -0.011370260268449783, 0.06417859345674515, -0.009066219441592693, 
-0.0018366914009675384, 0.0024529369547963142, 0.10152535140514374, -0.07626548409461975, 0.038672465831041336, 0.03646733611822128, 0.12233414500951767, 
-0.05640246719121933, -0.08402286469936371, -0.07982748746871948, -0.10232222825288773, 0.19890037178993225, -0.044142965227365494, 0.004077451303601265, 
0.08398781716823578, 0.11164812743663788, 0.13068871200084686, -0.025536032393574715, -0.06957730650901794, -0.08620802313089371, 0.04247242957353592, 
-0.07172109186649323, -0.03533342480659485, -0.14549963176250458, 0.1252496987581253, 0.05114809051156044, -0.10136228799819946, 0.02831941284239292, 
0.08924347907304764, 0.10078062862157822, 0.03816857933998108, 0.02891838736832142, -0.054260239005088806, -0.11206477135419846, -0.1406642645597458, 
-0.08177771419286728, 0.023135699331760406, -0.06638920307159424, 0.09385071694850922, -0.007557434495538473, 0.0783119723200798, -0.003823116421699524, 
-0.11215671896934509, 0.00937641691416502, -0.015772730112075806, 0.04601752758026123, 0.10296231508255005, 0.0978320762515068, -0.008679235354065895, 
-0.2036149799823761, -0.06143385171890259, 0.20971013605594635, -0.02531612291932106, -0.0885893777012825, -0.010703697800636292, -0.017116140574216843, 
0.0024493031669408083, -0.15718047320842743, -0.04726042598485947, 0.002321146195754409, -0.03953186422586441, -0.00660581374540925, -0.08330821990966797, 
-0.06895813345909119, -0.07884076982736588, -0.11949186772108078, -0.008058334700763226, -0.07551338523626328, -0.05345036834478378, 0.02700246311724186, 
-0.025258658453822136, -0.04787829890847206, 0.08832240104675293, 0.07543980330228806, -0.18002966046333313, 0.19000962376594543, 0.04467766359448433, 
-0.006168874446302652, 0.06257649511098862, 0.01625722087919712, 0.14292100071907043, -0.016365233808755875, -0.03543082997202873, -0.07251749187707901, 
0.05654046684503555, -0.1122448518872261, 0.10894666612148285, -0.07850807905197144, 0.05085298791527748, 0.016489122062921524, -0.08913912624120712, 
0.10156898945569992, 0.014083080925047398, -0.0030835592187941074, 0.06172867491841316, -0.05181419476866722, 0.12864838540554047, 0.03893675282597542, 
-0.15011811256408691, -0.09564795345067978, -0.02215496078133583, 0.062398798763751984, -0.158293217420578, -0.07429039478302002, -0.06133062765002251, 
-0.03340274468064308, -0.1502014547586441, 0.013543724082410336, 0.05890679731965065, 0.10804544389247894, 0.0455673485994339, -0.06766020506620407, 
-0.042579177767038345, -0.11236269026994705, 0.08022381365299225, -0.028778409585356712, -0.11530327051877975, -0.07612738013267517, -0.00960517954081297, 
0.029024638235569, -0.13425655663013458, -0.06047007441520691, 0.10372310131788254, 0.04494882747530937, 0.14203009009361267, -0.08600534498691559, 
-0.07381926476955414, 0.047623004764318466, 0.08976514637470245, -0.04105409234762192, -0.02163628302514553, 0.07054793834686279, 0.0012916779378429055, 
0.01495511457324028, -0.14117203652858734, 0.05542757362127304, 0.024752553552389145, 0.022239871323108673, 0.10860494524240494, -0.030109502375125885, 
-0.08501121401786804, 0.030411215499043465, -0.06045496091246605, -0.01589847169816494, -0.013878265395760536, -0.04554280638694763, -0.09432971477508545, 
-0.11227655410766602, 0.07942891865968704, -0.0008901997352950275, 0.027474604547023773, 0.08956253528594971, -0.11172660440206528, 0.011815208941698074, 
0.14680860936641693, -0.03897298499941826, -0.048375532031059265, -0.08911895006895065, 0.07095538079738617, -0.12281890958547592, -0.08634727448225021, 
0.09463920444250107, -0.025218944996595383, -0.021784495562314987, -0.10750901699066162, -0.07009317725896835, -0.07709010690450668, -0.015655159950256348, 
-0.09887117892503738, -0.044829849153757095, 0.053269464522600174, 0.09827807545661926, 0.0619354285299778, 0.022857429459691048, -0.12257987260818481, 
0.11057823151350021, 0.004211032763123512, 0.092000313103199, -0.10691676288843155, 0.17628830671310425, -0.004508876241743565, -0.05312471091747284, 
0.15181712806224823, -0.11259208619594574, 0.06075558066368103, 0.012831661850214005, -0.06737656891345978, 0.049246326088905334, -0.06583740562200546, 
-0.10911519080400467, 0.11285001039505005, -0.08411131054162979, -0.05402145907282829, 0.04181169345974922, 0.0883290022611618, -0.0871940404176712, 
0.05644335597753525, -0.04065775126218796, -0.01655300334095955, 0.02552829124033451, 0.042219553142786026, -0.08187470585107803, 0.13988304138183594, 
0.12911154329776764, 0.1463545709848404, -0.005699692294001579, 0.04952465370297432, -0.15937018394470215, -0.13122409582138062, -0.0912991464138031, 
0.1626964509487152, 0.06701073050498962, -0.059092771261930466, 0.08403428643941879, -0.13065168261528015, 0.06957335025072098, 0.19385097920894623, 
0.03009774535894394, -0.10176219046115875, -0.051249440759420395, 0.03539848327636719, -0.14426648616790771, -0.0033364819828420877, -0.05792734771966934, 
0.0888361856341362, -0.06148689612746239, 0.0513630285859108, 0.11264736205339432, 0.09088713675737381, 0.026741141453385353, -0.10090884566307068, 
0.01569032110273838, 0.008833792060613632, -0.12072455883026123, 0.15360786020755768, -0.012390533462166786, 0.04405967518687248, -0.07147720456123352, 
-0.05510060116648674, -0.11522767692804337, -0.04205022379755974, -0.019825899973511696, 0.06589387357234955, -0.13766725361347198, 0.12125259637832642, 
-0.00020636145200114697, 0.11458108574151993, -0.01813317835330963, 0.028633765876293182, 0.020653318613767624, -0.10353746265172958, -0.08028922230005264, 
-0.09745518118143082, -0.023336397483944893, 0.052639465779066086, 0.0712839737534523, 0.08993002772331238, 0.11119227856397629, -0.0905022919178009, 
0.12547287344932556, -0.07709557563066483, 0.0071915918961167336, 0.1258537620306015, -0.014457423239946365, -0.007743967697024345, 0.0309180598706007, 
-0.1324794888496399, -0.20102117955684662, 0.018015693873167038, 0.10371337085962296, -0.02042500488460064, 0.024915704503655434, -0.13971282541751862, 
-0.1103920042514801, -0.05511368066072464, -0.03482833132147789, -0.011515723541378975, -0.012668630108237267, 0.0953531265258789, 0.05295765772461891, 
-0.1778915524482727, -0.11934029310941696, -0.015386004000902176, 0.09046602249145508, -0.10569154471158981, 0.05485297366976738, -0.01407060120254755, 
0.013733606785535812, -0.0837404802441597, 0.05467386171221733, 0.030798710882663727, -0.06611941754817963, -0.06653502583503723, 0.009975939989089966, 
-0.041185248643159866, -0.10408200323581696, 0.03281081095337868, -0.026142392307519913, -0.018810519948601723, 0.013279571197926998, 0.02162439562380314, 
-0.04700608551502228, -0.09462159126996994, 0.024656636640429497, 0.014600968919694424, 0.03652402013540268, 0.08928316086530685, 0.07294607162475586, 
-0.08547115325927734, -0.05349881574511528, 0.004606032744050026, -0.04599945992231369, -0.14568085968494415, 0.02903413586318493, 0.1529114693403244, 
-0.1056695431470871, -0.0776975080370903, -0.014542442746460438, 0.08898273855447769, -0.04184722155332565, 0.07836909592151642, 0.046445757150650024, 
0.08193420618772507, 0.03904787078499794, 0.037218742072582245, -0.17284651100635529, 0.021807193756103516, -0.05217317119240761, -0.10367540270090103, 
0.014472795650362968, -0.10132670402526855, -0.057940199971199036, -0.11991702020168304, -0.13588210940361023, -0.07147375494241714, -0.06851650774478912, 
0.17075319588184357, 0.04983288422226906, -0.07294965535402298, 0.014824435114860535, -0.03549392893910408, -0.03188452124595642, 0.08498915284872055, 
0.01632794179022312, -0.18004156649112701, 0.14524076879024506, 0.06336843967437744, -0.03646363317966461, 0.0340418815612793, -0.015092103742063046, 
-0.027660604566335678, 0.07104149460792542, -0.18348656594753265, 0.010753287933766842, -0.09073176234960556, 0.04819469153881073, -0.05076393857598305, 
0.06342452019453049, -0.02401241473853588, 0.14737571775913239, -0.050022393465042114, -0.04407327622175217, 0.035989295691251755, -0.07849044352769852, 
-0.06991038471460342, -0.02123412676155567, -0.13849686086177826, -0.02599380724132061, -0.008265524171292782, 0.10099615901708603, -0.12893767654895782, 
0.21411968767642975, 0.08660698682069778, -0.09532168507575989, 0.008698229677975178, -0.02149302326142788, 0.08709641546010971, 0.03521236404776573, 
-0.12822264432907104, -0.08122270554304123, 0.07135811448097229, -0.09011027961969376, 0.12564723193645477, -0.07868057489395142, -0.062023360282182693, 
0.01890459656715393, -0.06460156291723251, -0.09995010495185852, -0.02021574229001999, 0.0796002447605133, 0.07680648565292358, -0.11966069042682648, 
0.040793053805828094, 0.03341232240200043, -0.0010700650746002793, 0.18225033581256866, 0.10324450582265854, 0.13839727640151978, 0.10666577517986298, 
0.04981045052409172, 0.006494023837149143, 0.0024208223912864923, 0.015992268919944763, -0.005345821380615234, -0.006684624589979649, 0.06127122417092323, 
-0.1337856650352478, -0.08137216418981552, 0.0793110579252243, 0.04442248493432999, 0.15690270066261292, 0.10788780450820923, 0.10883520543575287, 
-0.03014271892607212, -0.011966057121753693, 0.06878114491701126, 0.03582638129591942, 0.13849346339702606, 0.11831972002983093, -0.008639139123260975, 
-0.040331270545721054, -0.06862945109605789, -0.014808887615799904, -0.015308858826756477, -0.019346537068486214, -0.08031018823385239, -0.0032642839942127466, 
-0.033612534403800964, 0.011163151822984219, 0.060281891375780106, -0.1720495969057083, -0.06821141391992569, -0.001531038316898048, 0.08829404413700104, 
0.06842494010925293, 0.26814979314804077, 0.028616348281502724, 0.04088176414370537, -0.009498734958469868, -0.16772779822349548, 0.0003118267050012946, 
0.22864732146263123, -0.0437149815261364, 0.03699560463428497, 0.028500624001026154, 0.05528032407164574, 0.1217212826013565, 0.03246567025780678, 
-0.14736256003379822, -0.12824729084968567, -0.012819357216358185, -0.066439189016819, -0.009511696174740791, 0.025064945220947266, -0.0012447707122191787, 
-0.16873005032539368, 0.0007378190639428794, -0.034018564969301224, 0.20474843680858612, 0.22851014137268066, 0.20560234785079956, 0.06980850547552109, 
0.09161005169153214, 0.02820596843957901, -0.3322169780731201, 0.12797263264656067, 0.10560499876737595, -0.1586150974035263, -0.11264537274837494, 
0.057573799043893814, 0.02216719277203083, -0.06524103134870529, 0.1605863720178604, -0.1788376420736313, 0.1272086203098297, 0.05408734083175659, 
0.01534645352512598, -0.04774824529886246, -0.03084300085902214, -0.15504059195518494, 0.017525246366858482, 0.020924001932144165, 0.20727191865444183, 
-0.14654676616191864, 0.07129663228988647, 0.020771600306034088, -0.09061506390571594, -0.11812426894903183, 0.06945915520191193, 0.027550671249628067, 
-0.0009321290417574346, 0.07995904982089996, -0.04663534834980965, -0.058542173355817795, 0.026731008663773537, -0.02423631027340889, 0.028424108400940895, 
0.05043308809399605, 0.06588900834321976, -0.15626448392868042, 0.05770784243941307, -0.036069605499506, 0.07781841605901718, -0.13851065933704376, 
0.07424948364496231, -0.08247057348489761, -0.07475973665714264, -0.07618013024330139, 0.00015887230983935297, 0.06998860836029053, -0.03170037642121315, 
0.03425769880414009, 0.09510523080825806, 0.05226119980216026, 0.04412182420492172, 0.18099306523799896, 0.07919338345527649, -0.03014003112912178, 
0.029473621398210526, -0.05276331305503845, -0.07797468453645706, -0.06229269877076149, -0.030886264517903328, -0.0804319754242897, -0.03996455669403076, 
-0.08733000606298447, -0.0015008026966825128, -0.07130519300699234, 0.08114592730998993, 0.01748974621295929, -0.12978675961494446, 0.03622272238135338, 
0.1438772976398468, 0.04443367198109627, 0.15061146020889282, -0.009071629494428635, -0.1270103007555008, -0.000302550703054294, -0.14402912557125092, 
-0.13138897716999054, 0.15288548171520233, 0.018065623939037323, -0.18595366179943085, -0.07185818254947662, 0.12002438306808472, -0.09135815501213074, 
-0.05903720110654831, 0.14464959502220154, -0.15761257708072662, 0.10016593337059021, -0.008774952962994576, 0.12571126222610474, -0.028526954352855682, 
0.17296691238880157, 0.136661097407341, -0.09578142315149307, 0.08324697613716125, -0.021211815997958183, 0.0005955604137852788, 0.13432276248931885, 
-0.040630731731653214, -0.13791584968566895, 0.07880228012800217, 0.12087952345609665, 0.05053083598613739, 0.020090987905859947, 0.14225175976753235, 
-0.015309558250010014, 0.13020576536655426, 0.08091705292463303, -0.11992945522069931, 0.02688317373394966, -0.13090822100639343, -0.024943077936768532, 
0.11438959091901779, 0.09221158921718597, 0.05915721133351326, -0.010849010199308395, -0.09583789855241776, -0.21894137561321259, -0.028953416272997856, 
0.03191690519452095, -0.006695975083857775, -0.12460286170244217, 0.02222454734146595, -0.02824277989566326, 0.1998506784439087, 0.0043188598938286304, 
0.0017713344423100352, -0.07978913187980652, 0.02916325256228447, -0.06100472807884216, -0.09033744037151337, -0.04718589037656784, 0.1960536241531372, 
-0.01437158789485693, -0.12398606538772583, 0.03277038410305977, -0.14452585577964783, 0.011113789863884449, 0.035525742918252945, 0.045217327773571014, 
0.09788869321346283, -0.004301887005567551, -0.025873126462101936, -0.17578889429569244, 0.07693764567375183, -0.08957219123840332, 0.09994779527187347, 
0.10706887394189835, 0.16529987752437592, -0.14439071714878082, -0.06158415600657463, 0.09054943174123764, 0.06744366884231567, 0.03670620918273926, 
-0.04345026984810829, -0.014569805935025215, 0.03830687701702118, -0.04064220190048218, 0.07750115543603897, -0.10212836414575577, -0.01688515394926071, 
-0.027462845668196678, -0.04687359184026718, -0.22797976434230804, 0.048942919820547104, 0.02749382145702839, -0.05261571332812309, -0.04866304621100426, 
-0.023355860263109207, -0.010726545937359333, 0.07709003239870071, -0.14907462894916534, 0.0021966572385281324, -0.04304780066013336, -0.05637611821293831, 
-0.12503065168857574, 0.009649306535720825, -0.038823556154966354, 0.0814797654747963, 0.008113928139209747, 0.015170461498200893, 0.12460648268461227, 
-0.08631933480501175, -0.017307493835687637, -0.07201524823904037, 0.1282048225402832, 0.08734973520040512, 0.03365902602672577, -0.08813274651765823, 
-0.02200726978480816, -0.05182616785168648, 0.0770585760474205, -0.15256060659885406, 0.024778543040156364, 0.16342118382453918, -0.06590048223733902, 
0.05556206405162811, 0.14140045642852783, -0.04493638128042221, -0.06386471539735794, 0.007741141133010387, 0.10328799486160278, 0.011985737830400467, 
-0.07829734683036804, -0.03971078619360924, 0.03723374381661415, -0.14591063559055328, -0.009992462582886219, -0.03377814218401909, 0.07894887030124664, 
0.05384329333901405, -0.028908394277095795, -0.05577369034290314, -0.07434798777103424, -0.06181613728404045, -0.002669995417818427, -0.09104177355766296, 
0.058271072804927826, 0.02279534563422203, 0.044568732380867004, 0.02624410018324852, 0.015663137659430504, 0.08052635192871094, 0.01039571687579155, 
-0.11938856542110443, 0.10307106375694275, 0.002332237083464861, -0.27757519483566284, 0.11213307827711105, 0.23493707180023193, 0.039521608501672745, 
0.04415477439761162, 0.07491641491651535, 0.0046342890709638596, 0.056391872465610504, -0.11927378177642822, 0.023395227268338203, -0.047955479472875595, 
-0.04538048431277275, -0.16842930018901825, -0.013154448941349983, 0.13925336301326752, -0.09989608079195023, -0.03848140314221382, 0.09605961292982101, 
0.04271974787116051, 0.013574652373790741, 0.03382573649287224, -0.063750721514225, -0.11310276389122009, 0.15311236679553986, -0.03630021959543228, 
0.0975542962551117, 0.18005280196666718, 0.09948116540908813, -0.009141611866652966, 0.04567183554172516, -0.013302624225616455, 0.34538108110427856, 
0.07791411131620407, 0.03976228088140488, 0.08298814296722412, 0.02184187062084675, -0.15230494737625122, -0.008671756833791733, -0.08109485357999802, 
-0.11067759245634079, 0.09270249307155609, 0.0914703905582428, 0.0024432798381894827, 0.02950010448694229, 0.06579288840293884, -0.04341313987970352, 
-0.1657303273677826, 0.05598913133144379, -0.02140938490629196, 0.21645842492580414, -0.13926070928573608, 0.08440269529819489, 0.013638867065310478, 
-0.014470868743956089, -0.0844934955239296, 0.0947757363319397, -0.034231387078762054, 0.16004396975040436, 0.055503010749816895, -0.0765877366065979, 
0.07325924932956696, -0.04840686544775963, -0.0568871833384037, -0.037921272218227386, 0.03628803789615631, -0.011823268607258797, 0.025033919140696526, 
-0.1607295274734497, 0.005337115842849016, 0.014510729350149632, 0.0358286052942276, -0.09713630378246307, -0.014381925575435162, 0.08198763430118561, 
-0.0938267707824707, 0.04955880716443062, 0.08025335520505905, 0.035039808601140976, -0.19404852390289307, -0.0032445313408970833, 0.11961118876934052, 
0.03158608078956604, 0.12732797861099243, -0.11857719719409943, -0.14187100529670715, 0.14668382704257965, 0.04432801157236099, 0.009333794005215168, 
0.07416181266307831, -0.08369547128677368, 0.268498033285141, 0.019870324060320854, -0.08688285946846008, 0.10460056364536285, 0.010827559046447277, 
-0.16552235186100006, 0.07510661333799362, 0.029551159590482712, -0.017161285504698753, 0.01828162930905819, -0.10308349877595901, 0.027462895959615707, 
-0.15330636501312256, 0.22288942337036133, 0.09647174924612045, -0.0373501218855381, 0.13904035091400146, 0.10266649723052979, -0.1037343367934227, 
-0.15624645352363586, -0.04997297003865242, 0.03888300433754921, -0.16249682009220123, 0.013823958113789558, -0.048744238913059235, 0.03215932101011276, 
0.14590124785900116, -0.0263946745544672, -0.07595397531986237, 0.0676748976111412, 0.13656118512153625, 0.16971758008003235, 0.13277779519557953, 
-0.12301759421825409, -0.007314491551369429, 0.054227303713560104, -0.13458721339702606, 0.023278359323740005, 0.11003420501947403, 0.08251558989286423, 
0.11548232287168503, -0.08244816213846207, 0.07871682941913605, 0.05238413065671921, -0.09814365208148956, -0.07132278382778168, 0.04076770320534706, 
0.09159597009420395, 0.0611371174454689, -0.047047149389982224, -0.07270181179046631, 0.088716521859169, -0.13918539881706238, -0.027179967612028122, 
-0.03147915005683899, -0.09936469048261642, -0.07389479130506516, 0.025724265724420547, 0.06580241024494171, 0.10316736251115799, -0.08153074979782104, 
-0.10287610441446304, -0.00012665532995015383, 0.10372079908847809, 0.07157070189714432, -0.02261037938296795, -0.05326225981116295, 0.1252385377883911, 
0.014968547970056534, 0.05954021215438843, -0.05675017833709717, -0.11998780816793442, 0.030340973287820816, -0.03426467627286911, 0.004758945666253567, 
0.13900962471961975, -0.03126901015639305, 0.09976670891046524, -0.01552186906337738, 0.05004310607910156, 0.02358284778892994, 0.03168347477912903, 
-0.042065445333719254, 0.0378468856215477, -0.0308957751840353, 0.0762777253985405, 0.019154580309987068, 0.005604407750070095, -0.11363662034273148, 
-0.10753387212753296, -0.0682189017534256, -0.06540041416883469, -0.0786849781870842, 0.12147317081689835, -0.08714383095502853, -0.03437924012541771, 
-0.001442900043912232, 0.10188520699739456, 0.09722433984279633, 0.05184350907802582, -0.10720562189817429, -0.09129022061824799, -0.08427178859710693, 
0.027175763621926308, 0.09513317793607712, 0.08357495814561844, 0.03390175849199295, 0.13034747540950775, 0.05312616750597954, -0.1087765321135521, 
-0.15902522206306458, -0.04062088951468468, -0.10274409502744675, -0.08567848056554794, 0.04386520758271217, -0.0031466716900467873, -0.14324639737606049, 
0.05458763614296913, 0.11675331741571426, 0.06211889907717705, -0.013468999415636063, 0.0489882156252861, -0.21346108615398407, -0.10191463679075241, 
0.07341202348470688, -0.10263986140489578, -0.023008067160844803, -0.09881745278835297, 0.05423678830265999, 0.014187481254339218, 0.08046545833349228, 
0.11768831312656403, -0.011155206710100174, -0.04564938321709633, 0.002800692105665803, 0.09036968648433685, 0.04030117020010948, 0.12341392785310745, 
-0.04975965991616249, 0.0697939470410347, -0.19236397743225098, 0.10410741716623306, 0.019868802279233932, -0.13347652554512024, -0.03977900370955467, 
0.0873226448893547, -0.039856091141700745, -0.21043872833251953, 0.08534763008356094, -0.04740888252854347, 0.09646480530500412, -0.04903507977724075, 
-0.12454352527856827, -0.07408726215362549, 0.17119818925857544, 0.003077470464631915, -0.07598946243524551, 0.09367486089468002, 0.03990495577454567, 
0.1265459954738617, 0.03835926204919815, -0.09064947813749313, 0.0576179064810276, 0.05836465209722519, -0.030827904120087624, -0.012083625420928001, 
-0.0929936021566391, -0.06491769105195999, -0.03989607095718384, -0.012289597652852535, -0.07378600537776947, -0.06155002862215042, 0.08086571842432022, 
-0.06723912060260773, 0.009639800526201725, -0.09396155923604965, 0.02267312817275524, -0.0029667296912521124, 0.01402122713625431, 0.14687198400497437, 
0.1212940439581871, 0.08033160120248795, 0.02169746346771717, -0.014748328365385532, 0.05409272387623787, -0.09235738962888718, -0.08663847297430038, 
0.15843696892261505, 0.0799906775355339, 0.0806143581867218, 0.10366049408912659, -0.07176370173692703, -0.13615863025188446, 0.052107807248830795, 
0.042987726628780365, 0.0027282789815217257, -0.09800606966018677, -0.16586118936538696, 0.03618213161826134, -0.05353206768631935, 0.10453522950410843, 
-0.07369697093963623, -0.05967562273144722, -0.09144071489572525, 0.025609811767935753, 0.08027558028697968, 0.09437382221221924, 0.07779356092214584, 
0.07803946733474731, 0.017865775153040886, -0.07744459062814713, -0.07781670987606049, -0.0027775459457188845, 0.04069824516773224, -0.04401315003633499, 
0.040303848683834076, 0.14608825743198395, 0.06627451628446579, 0.04761739447712898, -0.1292797029018402, 0.09292938560247421, 0.029575563967227936, 
-0.009503648616373539, 0.09196774661540985, -0.040845658630132675, -0.09680565446615219, 0.029296020045876503, 0.016550175845623016, -0.05483366921544075, 
-0.03124811127781868, 0.05145791918039322, 0.14738595485687256, 0.016448913142085075, 0.13030053675174713, 0.13003329932689667, -0.0265694260597229, 
-0.06034453585743904, -0.054930541664361954, 0.04300248995423317, 0.04095493257045746, 0.06251810491085052, 0.07106111943721771, 0.037509649991989136, 
0.009452715516090393, 0.09640343487262726, -0.05905655771493912, -0.06921738386154175, -0.13008837401866913, -0.029688438400626183, -0.09808632731437683, 
0.09449754655361176, 0.032630555331707, -0.042834531515836716, -0.0029756634030491114, 0.00981039647012949, -0.09081585705280304, -0.34247952699661255, 
0.05172998085618019, 0.11756665259599686, 0.008944892324507236, 0.08284511417150497, 0.043949201703071594, -0.11468064039945602, 0.06319403648376465, 
-0.03601352497935295, 0.01265441533178091, 0.012619844637811184, 0.07407385110855103, -0.004342574160546064, 0.015877297148108482, -0.02123468555510044, 
-0.03064798191189766, 0.009180046617984772, 0.15838544070720673, 0.07733921706676483, 0.06346093863248825, 0.13612784445285797, 0.0837503969669342, 
-0.07230889052152634, 0.08567925542593002, 0.035228949040174484, -0.05901399254798889, 0.04836872220039368, -0.06349451839923859, -0.06073907017707825, 
0.011075173504650593, 0.08824614435434341, 0.013396434485912323, -0.048818957060575485, -0.041091155260801315, 0.007654637563973665, -0.0617087259888649, 
0.026712587103247643, -0.04214310273528099, -0.04885070025920868, 0.005456179846078157, -0.15646885335445404, 0.03464376926422119, 0.11817849427461624, 
0.21243906021118164, -0.15161624550819397, 0.016084831207990646, -0.04194421321153641, 0.06971363723278046, -0.13121435046195984, -0.08130257576704025, 
0.12834735214710236, -0.12922705709934235, 0.02354671061038971, 0.08373769372701645, 0.12331157922744751, -0.02280173823237419, 0.06445793807506561, 
-0.05629485845565796, -0.164383202791214, 0.09872986376285553, 0.14580564200878143, -0.05981170013546944, -0.09475348144769669, -0.15734264254570007, 
-0.009342892095446587, 0.12474415451288223, 0.023676317185163498, 0.13497400283813477, -0.09657546132802963, -0.16679449379444122, -0.06214975193142891, 
0.08522654324769974, -0.05348151549696922, -0.011205127462744713, 0.023472260683774948, 0.09628468006849289, -0.07369543612003326, 0.07525575160980225, 
-0.10916515439748764, -0.09166834503412247, 0.1086551770567894, -0.005705737043172121, 0.12553438544273376, -0.10467429459095001, 0.04421885684132576, 
0.013202838599681854, -0.04965375363826752, -0.01649746485054493, 0.04460674151778221, 0.07452040165662766, -0.029199721291661263, 0.11383173614740372, 
-0.03928481787443161, 0.15114955604076385, 0.037312015891075134, 0.1259339153766632, 0.05238286405801773, 0.1128293052315712, -0.14342857897281647, 
-0.06488490849733353, -0.057918794453144073, 0.003991630394011736, -0.0990867093205452, 0.020048998296260834, 0.06430250406265259, 0.09081552177667618, 
-0.10621435195207596, -0.07795247435569763, -0.03522209823131561, 0.05238413065671921, 0.0812617838382721, -0.12152440845966339, 0.11165300756692886, 
-0.005795129109174013, 0.013277473859488964, -0.01280172262340784, 0.07178617268800735, 0.08261238783597946, -0.09081633388996124, 0.06520623713731766, 
0.13524526357650757, -0.03974303603172302, 0.018815167248249054, 0.11837368458509445, -0.01038818433880806, 0.03772316873073578, -0.08012335002422333, 
-0.09914850443601608, -0.18110528588294983, 0.0973791629076004, 0.07971804589033127, 0.06349848210811615, 0.033280011266469955, 0.08843925595283508, 
-0.0019983684178441763, -0.01993727870285511, 0.0505039244890213, 0.16506369411945343, -0.08418310433626175, -0.02785138413310051, -0.04866067320108414, 
-0.15332786738872528, 0.04202096909284592, 0.012051141820847988, -0.029844481498003006, 0.06094083935022354, -0.0028098423499614, -0.09878428280353546, 
-0.017204418778419495, 0.11642366647720337, 0.046221278607845306, 0.04520206153392792, 0.03604603931307793, -0.05819139629602432, -0.1372900903224945, 
-0.02636001631617546, -0.002746314974501729, -0.004238664172589779, 0.03698895499110222, -0.09127350896596909, -0.07831986248493195, 0.03840901330113411, 
-0.17610956728458405, -0.1498926728963852, -0.08805414289236069, 0.05607374384999275, 0.22189313173294067, 0.10695528239011765, -0.28717073798179626, 
0.014657307416200638, -0.09091795235872269, -0.027629192918539047, 0.05815678834915161, 0.09916643798351288, 0.02200653962790966, -0.031795684248209, 
0.06421869248151779, 0.1418907344341278, 0.0477585606276989, 0.10616614669561386, 0.12636730074882507, -0.15178118646144867, 0.044874221086502075, 
-0.060121845453977585, -0.09218166768550873, 0.07372366636991501, 0.11163847893476486, 0.06750580668449402, 0.009658542461693287, 0.004298541694879532, 
-0.09594953060150146, 0.15187986195087433, -0.24283936619758606, -0.04033670946955681, 0.12260835617780685, -0.1086835116147995, 0.038488391786813736, 
-0.09587976336479187, -0.1676347404718399, 0.04552071541547775, -0.09895738959312439, -0.08403048664331436, -0.04925854131579399, 0.10335391014814377, 
0.13361848890781403, -0.10840200632810593, -0.044219646602869034, -0.06576051563024521, -0.1946621835231781, 0.003818132681772113, 0.12429270893335342, 
0.13642847537994385, -0.05436757579445839, 0.05895238742232323, -0.030960215255618095, 0.0802898183465004, 0.208932027220726, 0.044555891305208206, 
-0.07474970072507858, 0.04663284122943878, -0.08019087463617325, 0.016624165698885918, -0.07542936503887177, -0.06701125204563141, -0.11022721976041794, 
0.039913441985845566, 0.01277038361877203, 0.13667729496955872, 0.0924038365483284, -0.08085721731185913, -0.0014055684441700578, -0.0722837746143341, 
0.0986887738108635, -0.10265585780143738, -0.020590094849467278, 0.0016883471980690956, -0.0017111116321757436, 0.08276944607496262, 0.0004698736884165555, 
0.03893370181322098, -0.12205750495195389, -0.09169714897871017, 0.049851153045892715, -0.008680564351379871, -0.06672430038452148, 0.09772919863462448, 
0.09819186478853226, 0.0033018849790096283, 0.10788474231958389, -0.09097601473331451, -0.1161607876420021, 0.10485351830720901, 0.002524014562368393, 
-0.14449700713157654, 0.028896844014525414, -0.09027142822742462, 0.11731918901205063, -0.09649904817342758, -0.08925589919090271, 0.13145588338375092, 
-0.031139114871621132, -0.060649365186691284, 0.14970001578330994, 0.09703495353460312, 0.08940006792545319, 0.0530000738799572, 0.03572158142924309, 
0.12315740436315536, 0.01738605834543705, 0.019872771576046944, -0.09616706520318985, -0.06399781256914139, -0.0653790533542633, -0.10040130466222763, 
0.0340716727077961, -0.14503668248653412, -0.09278196841478348, -0.0955527052283287, -0.04434730112552643, -0.11147751659154892, -0.06989111006259918, 
0.034114472568035126, 0.021071571856737137, -0.09474765509366989, 0.022644981741905212, 0.08561193197965622, 0.18078751862049103, -0.04408581927418709, 
-0.08758634328842163, 0.14278297126293182, 0.07096122950315475, 0.11477211117744446, 0.029200347140431404, -0.007471686694771051, 0.0001866208913270384, 
-0.10372201353311539, 0.05315132439136505, -0.16634294390678406, -0.09344874322414398, 0.09904131293296814, 0.13974569737911224, -0.05684066563844681, 
0.020308945327997208, 0.13623012602329254, -0.048260364681482315, -0.018849829211831093, -0.0760485827922821, -0.16482439637184143, -0.07173960655927658, 
0.0765194296836853, 0.07908730953931808, 0.08507896214723587, 0.05167676880955696, -0.04352676495909691, 0.017331253737211227, -0.06260576099157333, 
0.013460607267916203, -0.06551144272089005, 0.07699498534202576, 0.05369965359568596, -0.0024263437371701, -0.11983493715524673, -0.010146609507501125, 
0.09529940038919449, 0.1074708104133606, -0.04533696547150612, 0.1546906679868698, -0.0033262521028518677, -0.07855777442455292, 0.06747382879257202, 
0.09995350986719131, 0.03787674754858017, -0.007179307285696268, 0.01859632506966591, -0.0012989271199330688, 0.02854756824672222, 0.02602469176054001, 
0.012182219885289669, -0.020515356212854385, -0.03292163833975792, 0.030920518562197685, 0.11421649903059006, 0.11003047972917557, -0.056800443679094315, 
-0.14641191065311432, -0.09025762230157852, 0.16032007336616516, 0.0066713737323880196, 0.14720946550369263, -0.15697532892227173, 0.02985788881778717, 
-0.021166319027543068, 0.041835084557533264, 0.13218702375888824, 0.023938598111271858, 0.1579950749874115, -0.09219978749752045, -0.03323261812329292, 
-0.011073598638176918, -0.08203451335430145, 0.22060923278331757, -0.1243603453040123, 0.07222623378038406, 0.027269259095191956, 0.06588104367256165, 
-0.007181957364082336, -0.01709344983100891, -0.055192213505506516, -0.1365930736064911, 0.02166557125747204, -0.1525154560804367, 0.043060384690761566, 
0.06489158421754837, -0.01911972649395466, -0.13306550681591034, 0.0644463375210762, -0.11105448752641678, -0.030993614345788956, -0.09523839503526688, 
0.06330588459968567, -0.05492506921291351, -0.04737364500761032, -0.029342971742153168, 0.06357624381780624, 0.24881453812122345, 0.06023942679166794, 
0.11218970268964767, 0.04243020340800285, -0.13997554779052734, -0.02183697745203972, 0.16214849054813385, 0.02251228503882885, 0.0907701700925827, 
-0.11077094078063965, -0.14249873161315918, -0.03799247741699219, 0.023965075612068176, 0.19728797674179077, -0.07145214080810547, 0.1004873737692833, 
0.059538379311561584, -0.02178349904716015, 0.07961541414260864, -0.17407584190368652, -0.12081565707921982, 0.06255447864532471, -0.07529310882091522, 
0.19283726811408997, -0.1290116310119629, -0.08431168645620346, 0.049441829323768616, -0.09901571273803711, 0.06454375386238098, 0.10734464228153229, 
0.08467040956020355, 0.03622393310070038, 0.026564989238977432, 0.01922040805220604, -0.023630646988749504, 0.00208565522916615, -0.03600752353668213, 
0.06780936568975449, -0.04625450819730759, -0.16045284271240234, 0.1088729053735733, -0.0879729688167572, 0.08710654079914093, 0.04700859263539314, 
0.05103931203484535, 0.010271385312080383, 0.011604185216128826, 0.09451953321695328, -0.08874590694904327, -0.014712624251842499, -0.021540099754929543, 
-0.2006051242351532, -0.16790103912353516, 0.14867351949214935, 0.046358563005924225, 0.11243738979101181, 0.0946342796087265, -0.11287590116262436, 
0.017095020040869713, 0.016411641612648964, 0.14687351882457733, -0.05446912720799446, -0.05884021893143654, -0.031205838546156883, 0.29060178995132446, 
0.08863150328397751, -0.026126934215426445, 0.057637643069028854, -0.12328609079122543, -0.12267453968524933, 0.19837155938148499, -5.5964323109947145e-05, 
0.01532916072756052, 0.01675225794315338, 0.16885356605052948, -0.018730511888861656, -0.2548733949661255, 0.2720290422439575, 0.10224590450525284, 
0.020777633413672447, 0.10595236718654633, -0.03447302058339119, -0.07859406620264053, -0.13440315425395966, 0.1366494745016098, -0.010603022761642933, 
-0.17045721411705017, 0.03629101440310478, -0.08665440231561661, -0.06592164188623428, -0.018532345071434975, 0.02651723101735115, -0.020583126693964005, 
0.1297205686569214, 0.11814302206039429, 0.1401660293340683, 0.1356445848941803, -0.04500328749418259, 0.10508634895086288, 0.017260894179344177, 
0.1471138894557953, 0.010236782021820545, -0.2412453442811966, 0.14761535823345184, 0.07456126809120178, 0.0015862795989960432, 0.12162715941667557, 
-0.1451527625322342, 0.07453777641057968, 0.010740627534687519, 0.10076534003019333, -0.0030267767142504454, 0.0800761952996254, -0.07399190962314606, 
-0.033827051520347595, 0.23529671132564545, -0.006933797616511583, -0.008463825099170208, -0.18525786697864532, 0.06281443685293198, 0.05345588177442551, 
-0.06124917417764664, -0.06502775102853775, 0.07428388297557831, -0.15592847764492035, 0.24782651662826538, 0.14668715000152588, -0.016325809061527252, 
0.04196754842996597, -0.05422982946038246, 0.14074797928333282, -0.06360836327075958, -0.17801883816719055, 0.22898557782173157, 0.016667775809764862, 
0.053831152617931366, -0.058858077973127365, -0.08354448527097702, -0.13909582793712616, -0.13308586180210114, -0.026619097217917442, -0.0177586879581213, 
0.03911692276597023, -0.014585190452635288, -0.008384031243622303, -0.05818864703178406, -0.12253426015377045, 0.02803039737045765, -0.09198971837759018, 
-0.05347929522395134, 0.006490054540336132, 0.21649834513664246, 0.03954796493053436, 0.04867907986044884, -0.007224477361887693, -0.10178869962692261, 
0.11740376800298691, -0.011104143224656582, -0.11723097413778305, 0.06052436679601669, 0.090907521545887, 0.0225506741553545, -0.19323229789733887, 
-0.15966203808784485, 0.14872585237026215, -0.05335163697600365, -0.18290363252162933, 0.05438375473022461, -0.021402977406978607, -0.03898173198103905, 
0.08574523031711578, -0.27028730511665344, 0.10232669860124588, 0.010492789559066296, 0.09826544672250748, -0.11386921256780624, 0.0783793181180954, 
0.19830970466136932, -0.12859322130680084, -0.026572536677122116, 0.22274896502494812, -0.14153452217578888, 0.015809912234544754, 0.030018065124750137, 
-0.10727012157440186, 0.16035974025726318, 0.22677627205848694, -0.16474325954914093, -0.11231444031000137, 0.1496295928955078, -0.007645410019904375, 
0.06754258275032043, -0.21800497174263, -0.14914610981941223, 0.19858506321907043, -0.18393445014953613, 0.09038204699754715, 0.1162702813744545, 
-0.21858902275562286, -0.05180135741829872, -0.0489688478410244, -0.0662824809551239, -0.04004430025815964, 0.02236252650618553, 0.22459842264652252, 
-0.3711049258708954, 0.05977781116962433, 0.10828916728496552, -0.017371559515595436, -0.009782136417925358, 0.09449112415313721, 0.14283983409404755, 
-0.10039946436882019, 0.020045381039381027, 0.15216200053691864, 0.022314056754112244, -0.004866595845669508, 0.05155758559703827, -0.22678464651107788, 
-0.2173098474740982, -0.14668335020542145, -0.03760131821036339, -0.043358977884054184, -0.15492068231105804, 0.018414244055747986, -0.08266790211200714, 
0.14599449932575226, -0.10789669305086136, 0.032158609479665756, 0.016724666580557823, -0.018344201147556305, 0.008365246467292309, 0.007483618333935738, 
-0.0316341407597065, 0.09471502155065536, -0.05385939031839371, -0.14079026877880096, -0.022241348400712013, -0.1328860968351364, -0.04436061158776283, 
-0.09977255761623383, -0.10486999154090881, -0.016462035477161407, 0.014569098129868507, -0.171142578125, 0.14991681277751923, -0.00031084430520422757, 
0.0035480798687785864, -0.06270591169595718, -0.12217700481414795, 0.013157987967133522, 0.11732327938079834, -0.032306648790836334, 0.036676306277513504, 
-0.022691311314702034, -0.09398483484983444, 0.2528419494628906, 0.009701346047222614, -0.1258506029844284, -0.04127966985106468, -0.07293931394815445, 
-0.04136335104703903, 0.002521160989999771, -0.018968498334288597, 0.035499103367328644, 0.02941906824707985, -0.05116613581776619, -0.126625657081604, 
-0.09699341654777527, 0.14820758998394012, -0.08965407311916351, 0.08293735980987549, -0.03489145264029503, -0.03439698368310928, 0.0816354975104332, 
0.0036854322534054518, 0.06241315230727196, -0.034253742545843124, 0.08763960748910904, -0.1088806539773941, -0.07318363338708878, -0.1287805736064911, 
0.012098928913474083, -0.07374099642038345, -0.05008285865187645, 0.02884082682430744, 0.06568228453397751, 0.13444092869758606, 0.08567065000534058, 
-0.039502523839473724, -0.15749524533748627, 0.08680255711078644, 0.0596526563167572, 0.06304634362459183, 0.01642456278204918, 0.18343530595302582, 
-0.2017088532447815, 0.16306555271148682, -0.0712396502494812, -0.01403449010103941, -0.019397398456931114, -0.04191352799534798, -0.07742533087730408, 
0.013978085480630398, -0.08388365060091019, -0.04867740347981453, 0.1601957082748413, 0.03903573378920555, 0.14632061123847961, -0.18496370315551758, 
-0.10014821588993073, -0.06119615584611893, 0.075543113052845, -0.0001261779834749177, 0.014711328782141209, 0.1085328608751297, 0.039938412606716156, 
0.08865492045879364, 0.08980204164981842, -0.003952475264668465, -0.2816525399684906, 0.07958634942770004, 0.09549945592880249, -0.1029883399605751, 
-0.12320390343666077, 0.12665504217147827, -0.06242109462618828, -0.10127183794975281, 0.15850487351417542, -0.07610742002725601, 0.05487217381596565, 
0.005220510996878147, -0.046283427625894547, -0.08630971610546112, -0.09937865287065506, 0.014984631910920143, -0.13396123051643372, 0.08485039323568344, 
0.08690206706523895, 0.08943915367126465, -0.0490267388522625, 0.02356940135359764, 0.09153784066438675, -0.04215472936630249, 0.11273393034934998, 
0.17869266867637634, -0.1585429459810257, -0.10521911829710007, -0.1481490135192871, -0.04297433793544769, -0.0426018089056015, 0.07967431843280792, 
-0.06876323372125626, -0.011870188638567924, 0.01970912329852581, 0.17024807631969452, 0.053285855799913406, -0.08338082581758499, 0.017782112583518028, 
-0.21111343801021576, 0.167801171541214, -0.10922655463218689, -0.09483525156974792, 0.10157333314418793, -0.10824500024318695, -0.11932801455259323, 
-0.09223241358995438, 0.022740092128515244, 0.08729986101388931, -0.10910917073488235, 0.093222476541996, -0.17332857847213745, -0.2080896496772766, 
-0.07010703533887863, 0.07421862334012985, -0.08979207277297974, -0.04716716334223747, 0.006657214369624853, -0.063336081802845, 0.06649070233106613, 
0.08695178478956223, -0.07650984078645706, -0.11374609172344208, 0.0048210048116743565, 0.06367583572864532, 0.08034703880548477, -0.152740478515625, 
0.08640963584184647, 0.07845044136047363, 0.011563301086425781, 0.19468605518341064, 0.027094557881355286, 0.08233340084552765, 0.10353610664606094, 
-0.025877906009554863, -0.09618960320949554, -0.01634310558438301, 0.11478068679571152, 0.08652308583259583, -0.12668129801750183, 0.1918180137872696, 
0.11731461435556412, -0.07799086719751358, -0.2151550054550171, 0.007684290874749422, 0.1485026478767395, -0.04769745469093323, -0.10398290306329727, 
0.020694350823760033, -0.06697685271501541, 0.049300216138362885, 0.035442303866147995, -0.026767756789922714, -0.014163737185299397, 0.07816297560930252, 
0.01934649795293808, 0.07604120671749115, -0.055665332823991776, 0.022878944873809814, 0.016134990379214287, 0.0104074627161026, -0.06936310231685638, 
-0.10902620106935501, -0.031860657036304474, 0.036278340965509415, 0.10967234522104263, 0.07168484479188919, -0.13317009806632996, 0.043574027717113495, 
0.013953299261629581, -0.08060208708047867, 0.018519852310419083, 0.05489439517259598, 0.07713348418474197, -0.0029747101943939924, 0.05310802534222603, 
0.15725962817668915, 0.08751009404659271, 0.004408728331327438, -0.05445154011249542, 0.00446093175560236, 0.11019333451986313, 0.007315922994166613, 
0.08314536511898041, 0.04348320513963699, -0.08371058851480484, 0.029416995123028755, -0.07191000133752823, -0.08951689302921295, -0.07951076328754425, 
-0.04179023951292038, -0.0623532198369503, 0.08358440548181534, 0.2267206907272339, -0.027991773560643196, -0.005916049238294363, 0.0194848645478487, 
0.01909526437520981, -0.07448229938745499, -0.04013538360595703, 0.13331514596939087, -0.17043693363666534, 0.05379987880587578, 0.018844475969672203, 
-0.04914455488324165, -0.08902249485254288, -0.054842621088027954, 0.05189330130815506, 0.0014667095383629203, 0.047836821526288986, 0.09892144799232483, 
0.07930941134691238, 0.03805488348007202, 0.0640488788485527, -0.04281122609972954, 0.036360129714012146, 0.0182943232357502, 0.1317756325006485, 
0.05199945345520973, 0.024357859045267105, 0.020081935450434685, 0.062387172132730484, -0.04100579768419266, 0.10650317370891571, -0.053221337497234344, 
-0.06452317535877228, -0.019658442586660385, -0.12386268377304077, -0.05127523094415665, -0.08024488389492035, -0.09401783347129822, 0.05772891640663147, 
0.07018546015024185, 0.06385865807533264, -0.004302764777094126, 0.08139780908823013, -0.1171012744307518, -0.012648418545722961, 0.011927749961614609, 
-0.06553500890731812, 0.0015982325421646237, -0.07325990498065948, -0.09591104835271835, 0.04263201355934143, 0.05971156433224678, 0.08005104213953018, 
-0.05847513675689697, -0.06964229792356491, 0.1386236995458603, -0.10511614382266998, -0.02758301980793476, -0.10356214642524719, 0.07367777824401855, 
0.12477929145097733, 0.02770122140645981, 0.08586335927248001, -0.031735487282276154, 0.057436104863882065, 0.13594426214694977, -0.05440537631511688, 
-0.07987679541110992, -0.05980532616376877, 0.009032294154167175, 0.1462288647890091, -0.1278543770313263, 0.17023271322250366, 0.05521047115325928, 
0.012575930915772915, 0.056425053626298904, -0.08173631876707077, 0.0041465796530246735, -0.013750306330621243, -0.04551687836647034, 0.04605243727564812, 
-0.018284067511558533, -0.07079064100980759, -0.14677849411964417, -0.0893513411283493, 0.0978928878903389, -0.018007246777415276, -0.011537219397723675, 
0.057408321648836136, 0.06586023420095444, -0.06686972081661224, 0.14005182683467865, 0.003676036838442087, -0.004647269379347563, -0.011730420403182507, 
-0.12119804322719574, -0.11806026101112366, 0.011777528561651707, -0.03159867972135544, -0.14750102162361145, -0.003192398464307189, 0.029463045299053192, 
0.10564793646335602, -0.015525443479418755, 0.009994544088840485, -0.1602325439453125, 0.1382116824388504, -0.0976356640458107, 0.022578520700335503, 
0.09054600447416306, -0.15426823496818542, 0.005136464256793261, -0.061166513711214066, -0.0025280725676566362, -0.07456108182668686, 0.08579831570386887, 
-0.030742617323994637, -0.021525215357542038, -0.07602345943450928, 0.12079575657844543, 0.08094057440757751, 0.0016672199126332998, -0.04254098981618881, 
-0.3063785135746002, -0.08264539390802383, -0.1425774097442627, 0.10306541621685028, 0.0045704017393291, -0.08583129197359085, -0.07837223261594772, 
-0.05296915024518967, 0.14860635995864868, 0.07932936400175095, -0.11279257386922836, -0.01546949241310358, 0.0851329118013382, -0.042027320712804794, 
-0.018087048083543777, -0.007722181733697653, 0.0670820027589798, 0.06710280478000641, 0.016056569293141365, 0.012579791247844696, -0.013882268220186234, 
0.022213956341147423, -0.0475337915122509, -0.08214159309864044, -0.05996201932430267, 0.0374857597053051, -0.040444742888212204, 0.02999333292245865, 
-0.057740334421396255, 0.045599233359098434, 0.004404447041451931, -0.09563463926315308, 0.10077907890081406, -0.011046728119254112, 0.11200445890426636, 
0.1443300098180771, -0.15082624554634094, -0.09187158942222595, 0.12053230404853821, -0.13591419160366058, 0.1857544332742691, 0.030730128288269043, 
0.022398052737116814, 0.06500907987356186, -0.06719791889190674, -0.06321796774864197, -0.006214919965714216, -0.06515562534332275, 0.07646828144788742, 
-0.17593716084957123, -0.00289498851634562, 0.010099299252033234, -0.09549092501401901, 0.05151490867137909, -0.08903656154870987, -0.04046380892395973, 
-0.024509930983185768, -0.10480090975761414, -0.09682668745517731, 0.127328023314476, 0.020454615354537964, -0.16453225910663605, -0.14044232666492462, 
-0.09705580025911331, 0.4013967514038086, 0.13885919749736786, -0.21427208185195923, 0.2137095332145691, 0.07864072918891907, -0.22975808382034302, 
0.1795656830072403, 0.05726161226630211, -0.03942369297146797, 0.09676100313663483, 0.1072729229927063, -0.038340892642736435, -0.2668682038784027, 
0.3093216121196747, 0.03874578699469566, -0.0640125572681427, 0.030492406338453293, 0.1708425134420395, -0.09469033032655716, -0.06260859221220016, 
0.12089702486991882, -0.13538813591003418, -0.14908911287784576, -0.03244377300143242, -0.08700898289680481, -0.04365633800625801, 0.18100683391094208, 
0.07666950672864914, -0.10469481348991394, 0.008554431609809399, 0.18870967626571655, 0.17260368168354034, 0.10869773477315903, 0.04173468425869942, 
-0.17550663650035858, 0.09898336976766586, -0.010321012698113918, -0.06899509578943253, -0.06999732553958893, -0.03429657965898514, -0.14629219472408295, 
-0.009017367847263813, -0.0882951021194458, 0.01681702584028244, -0.1599169820547104, -0.03985977545380592, -0.10519428551197052, 0.08591548353433609, 
-0.1402703821659088, -0.020522786304354668, 0.11589095741510391, 0.06404498964548111, 0.14117488265037537, -0.003918927162885666, 0.18169769644737244, 
-0.013341197744011879, -0.027130473405122757, 0.024298029020428658, -0.07071523368358612, 0.14684903621673584, -0.029111530631780624, -0.04680202901363373, 
0.033988095819950104, -0.1352422833442688, -0.2762547731399536, 0.07116040587425232, 0.09221585839986801, 0.047392480075359344, 0.05835318565368652, 
-0.09681149572134018, 0.05242542922496796, 0.10404005646705627, 0.09588520228862762, 0.06430473178625107, 0.061622098088264465, 0.04860961064696312, 
-0.05370310693979263, -0.14771929383277893, -0.06700874119997025, -0.08523094654083252, -0.14923669397830963, -0.12908904254436493, 0.11342151463031769, 
0.08178180456161499, -0.11018224060535431, 0.007336185313761234, -0.03982678800821304, -0.0983421728014946, 0.1494503766298294, 0.07220114767551422, 
-0.02229851856827736, 0.08952061086893082, 0.038263969123363495, -0.0677342638373375, 0.005544115789234638, 0.02819260023534298, -0.06831786036491394, 
0.04459643363952637, 0.0182816032320261, -0.037279754877090454, -0.04285331815481186, 0.023224854841828346, 0.1651981770992279, 0.041256383061409, 
-0.14002735912799835, -0.05633798614144325, -0.057567793875932693, -0.15535108745098114, 0.009669502265751362, -0.08758700639009476, -0.045581746846437454, 
-0.05967210233211517, -0.006317891180515289, 0.10924678295850754, 0.08487346023321152, 0.12388678640127182, -0.04746412858366966, -0.01525175292044878, 
-0.07018136978149414, 0.1401665061712265, 0.025453530251979828, -0.04698210209608078, 0.11605871468782425, -0.007715057116001844, -0.0026836462784558535, 
-0.11728581041097641, 0.07662000507116318, -0.007404263596981764, -0.09444134682416916, 0.052527446299791336, -0.0520494244992733, 0.01458219438791275, 
0.15768860280513763, -0.21073421835899353, -0.14558115601539612, -0.1284267008304596, -0.03760078176856041, 0.07271374017000198, 0.030646318569779396, 
-0.05181308090686798, 0.13600128889083862, 0.05081912502646446, 0.020111199468374252, 0.03761148080229759, 0.0036780855152755976, 0.06712263077497482, 
-0.02899163030087948, 0.1370796263217926, 0.11785048991441727, -0.018911533057689667, 0.06905652582645416, -0.060038816183805466, 0.00627381494268775, 
-0.09078848361968994, -0.02027077041566372, -0.06739921122789383, -0.014060145244002342, -0.06547410786151886, -0.09321814030408859, -0.07101711630821228, 
0.06924444437026978, -0.0500439777970314, 0.020198235288262367, -0.056428369134664536, -0.056012313812971115, -0.08011848479509354, 0.09168073534965515, 
-0.12420366704463959, -0.037066515535116196, -0.0714503675699234, 0.0035170179326087236, 0.14302559196949005, 0.04383084550499916, 0.0032210389617830515, 
-0.15804257988929749, 0.15374352037906647, -0.03652950003743172, -0.07591991871595383, 0.11420658975839615, -0.13592644035816193, -0.15035995841026306, 
0.11970146745443344, -0.0504131093621254, 0.003544439561665058, 0.0032101382967084646, -0.13071611523628235, -0.0020228351932018995, -0.20837025344371796, 
-0.017522284761071205, -0.07323107123374939, -0.014701683074235916, -0.08635435253381729, -0.22667808830738068, 0.1233057901263237, 0.005555187817662954, 
0.14867551624774933, 0.10740688443183899, -0.16559864580631256, 0.11776990443468094, -0.07567794620990753, 0.0593845434486866, -0.018644265830516815, 
0.08773529529571533, 0.02073725499212742, -0.008304413408041, -0.03913184627890587, -0.014003176242113113, 0.022329013794660568, 0.004619123414158821, 
0.08944988995790482, -0.07003354281187057, -0.127139151096344, 0.19367755949497223, -0.022390468046069145, 0.09283013641834259, -0.042753491550683975, 
-0.20489400625228882, -0.0876154825091362, -0.04300028458237648, 0.1166638433933258, -0.061586569994688034, -0.10777147114276886, -0.04020483419299126, 
0.056843701750040054, 0.1404161900281906, 0.08347164839506149, -0.12692736089229584, -0.03982744738459587, -0.008623698726296425, -0.05040478706359863, 
0.018763108178973198, 0.1343918889760971, -0.03474466875195503, 0.1748475581407547, 0.06219211593270302, -0.021482320502400398, -0.1379672884941101, 
-0.05795353278517723, -0.08181362599134445, -0.0941266119480133, 0.022431883960962296, 0.0925937369465828, -0.025670593604445457, 0.02638329192996025, 
0.06286796182394028, 0.06764880567789078, 0.07059774547815323, 0.04969814792275429, -0.05142327770590782, -0.02712303400039673, -0.09465757012367249, 
0.1296689808368683, 0.053782351315021515, 0.07323310524225235, -0.087359219789505, 0.08147586137056351, -0.22017589211463928, 0.0003969989193137735, 
-0.08200537413358688, 0.04622805863618851, 0.05855688452720642, -0.1457495093345642, 0.0630245953798294, -0.003289715154096484, 0.0879654809832573, 
0.0711250975728035, 0.024251863360404968, 0.05182425677776337, 0.1552811712026596, -0.13434508442878723, -0.001334432978183031, 0.12272313982248306, 
-0.08532131463289261, 0.09167128801345825, -0.10299946367740631, 0.0982670783996582, -0.027060629799962044, 0.07341238111257553, -0.00666585611179471, 
0.16533395648002625, 0.1481994390487671, 0.10663348436355591, 0.015004868619143963, 0.007323990575969219, 0.07341090589761734, 0.006196408532559872, 
0.03208966925740242, 0.05865757539868355, -0.04100478067994118, 0.022637104615569115, -0.12095519155263901, 0.028767956420779228, -0.03301228582859039, 
0.08239919692277908, 0.03854779154062271, 0.07230798900127411, -0.058593135327100754, 0.16333577036857605, -0.032245829701423645, -0.046968940645456314, 
-0.13763540983200073, -0.038799501955509186, 0.22897747159004211, -0.041379909962415695, -0.06321331858634949, 0.02019316330552101, -0.026750553399324417, 
0.12840308248996735, 0.1807490438222885, -0.2061518132686615, 0.0915365070104599, -0.007322605699300766, -0.04790383204817772, -0.05254746600985527, 
0.23456516861915588, 0.0620153434574604, -0.15756651759147644, 0.1775524765253067, 0.05820634588599205, 0.24765613675117493, -0.06667061895132065, 
0.017656493932008743, 0.05283401161432266, -0.16063465178012848, -0.1364634931087494, -0.05643133074045181, -0.14855599403381348, -0.0753987580537796, 
-0.10202299058437347, -0.06816762685775757, -0.11464259773492813, -0.0016365529736503959, 0.14108456671237946, -0.003535694442689419, -0.06932060420513153, 
-0.020991694182157516, -0.1194673627614975, -0.1208357885479927, 0.03264347463846207, 0.14584872126579285, -0.15403585135936737, 0.05571978539228439, 
0.04288368672132492, 0.25495076179504395, 0.10094933956861496, 0.08144515752792358, -0.18409587442874908, -0.049565140157938004, 0.10703945904970169, 
0.05923358350992203, -0.23449546098709106, -0.013930240646004677, -0.09981273114681244, -0.036180317401885986, 0.18551191687583923, -0.01753915287554264, 
-0.025182407349348068, 0.016764188185334206, 0.13175055384635925, -0.008758632466197014, 0.07812535762786865, 0.0071911136619746685, -0.09768172353506088, 
0.1263241320848465, 0.05727829784154892, -0.0589725524187088, -0.021558616310358047, -0.13311049342155457, -0.09968806058168411, -0.06595232337713242, 
-0.00394462002441287, -0.014468143694102764, -0.22256240248680115, -0.058327265083789825, 0.08263882249593735, 0.03654139116406441, 0.06812068819999695, 
-0.00850184541195631, -0.14935137331485748, -0.08251237124204636, 0.03915044292807579, -0.09972678869962692, -0.019689137116074562, 0.14115630090236664, 
0.2663402259349823, -0.07593098282814026, 0.08209962397813797, 0.052470408380031586, -0.1368144452571869, -0.17488259077072144, -0.029594317078590393, 
-0.01287934836000204, -0.029848957434296608, -0.012713422998785973, -0.09623638540506363, -0.010034545324742794, -0.015469980426132679, 0.23797255754470825, 
-0.013718027621507645, -0.0024384045973420143, -0.07685167342424393, -0.08501148223876953, -0.16244515776634216, -0.0021219642367213964, 0.02937970496714115, 
-0.04363618791103363, 0.10131128132343292, 0.16119514405727386, 0.020538784563541412, 0.07750039547681808, 0.06834141910076141, 0.0220947228372097, 
0.11590459197759628, 0.04803198575973511, 0.05194459110498428, -0.0052100433968007565, -0.0045359996147453785, 0.0943603590130806, 0.028955530375242233, 
-0.033662185072898865, -0.014477639459073544, 0.014957357197999954, 0.10195261240005493, -0.037874750792980194, 0.05028166249394417, 0.09440144151449203, 
-0.07690738886594772, 0.05729547515511513, -0.014371322467923164, -0.1152549535036087, 0.045013222843408585, -0.03241739049553871, 0.0689440369606018, 
-0.08052472025156021, 0.007387618534266949, -0.11317519098520279, -0.08833342045545578, 0.06242436170578003, -0.18008089065551758, 0.0400637723505497, 
-0.03881906718015671, -0.11229913681745529, -0.03654366731643677, -0.11772126704454422, 0.007762566674500704, -0.06971808522939682, -0.09344717115163803, 
0.05359751358628273, -0.16485261917114258, -0.027104729786515236, 0.04365043342113495, -0.0003092526167165488, 0.03520767018198967, -0.0832243487238884, 
0.08338066935539246, -0.0641273632645607, 0.11036501824855804, 0.035333894193172455, -0.019463947042822838, -0.0832887589931488, 0.06531067192554474, 
-0.0022800310980528593, -0.03508756682276726, 0.13218635320663452, 0.18079127371311188, -0.07012661546468735, -0.008001169189810753, -0.014765541069209576, 
-0.04719790816307068, -0.05699177831411362, 0.04982738569378853, 0.0022778850980103016, -0.1415095031261444, -0.023912040516734123, 0.017938433215022087, 
0.04636019840836525, 0.12887799739837646, 0.008033763617277145, -0.07523082196712494, 0.0883096307516098, 0.04676234349608421, 0.04532935842871666, 
0.05186200514435768, 0.09106013923883438, -0.12660248577594757, 0.043429870158433914, 0.032097119837999344, -0.1398872584104538, -0.14800713956356049, 
-0.17491696774959564, -0.004574798047542572, 0.07894671708345413, 0.010024331510066986, 0.05925484374165535, -0.019816067069768906, 0.01492286566644907, 
0.020890619605779648, -0.07171586155891418, 0.019574526697397232, -0.08272851258516312, -0.17811883985996246, 0.1855248063802719, -0.004400671925395727, 
-0.031733591109514236, -0.12149828672409058, -0.1805616319179535, -0.1429370790719986, -0.08468719571828842, 0.09507311880588531, -0.0637497752904892, 
0.07538527995347977, -0.19337716698646545, 0.22024498879909515, 0.10294253379106522, -0.009271839633584023, 0.14009998738765717, -0.07176191359758377, 
-0.1119498461484909, 0.18165135383605957, -0.04999646916985512, 0.11781903356313705, 0.13471829891204834, -0.07207176089286804, -0.023286618292331696, 
-0.35322415828704834, 0.26623398065567017, -0.07960929721593857, 0.008285791613161564, 0.015879353508353233, 0.017051590606570244, -0.045013200491666794, 
-0.04839923232793808, 0.1412258744239807, -0.07187622785568237, 0.0009731521713547409, -0.25931400060653687, -0.196638286113739, -0.11820677667856216, 
0.04245613515377045, 0.12764710187911987, -0.08386935293674469, 0.03340894728899002, 0.12234845012426376, -0.06646167486906052, 0.09126309305429459, 
0.0989973247051239, -0.23394758999347687, 0.04432598873972893, 0.0412200391292572, -0.09645885974168777, -0.17432639002799988, 0.019481033086776733, 
-0.21746501326560974, 0.09624258428812027, 0.10760964453220367, 0.06748839467763901, -0.026981307193636894, 0.033610276877880096, 0.07478325814008713, 
-0.03601103648543358, 0.1131095215678215, 0.026722056791186333, 0.10135909914970398, -0.04363659769296646, 0.2587069869041443, 0.032834094017744064, 
0.07145385444164276, -0.008515017107129097, -0.049734927713871, 0.04972188174724579, 0.1082841083407402, 0.0666830837726593, -0.13046282529830933, 
0.04455599933862686, 0.11788983643054962, 0.024379953742027283, -0.2880707383155823, -0.022891940549016, 0.17462341487407684, -0.06176203116774559, 
0.08259179443120956, 0.10482777655124664, 0.0596332773566246, 0.11288581043481827, 0.058423273265361786, -0.1352885365486145, -0.11314264684915543, 
-0.035085491836071014, 0.027573881670832634, -0.242187961935997, 0.03999604284763336, 0.04329930245876312, -0.057309117168188095, 0.09666775912046432, 
0.1361285299062729, 0.024003230035305023, -0.11794916540384293, 0.15045949816703796, -0.03698645532131195, -0.08878998458385468, 0.142662912607193, 
0.16291598975658417, -0.16007307171821594, -0.02054816111922264, -0.07860883325338364, -0.05784791335463524, 0.04001479595899582, 0.029183123260736465, 
-0.08435042947530746, 0.008349142037332058, 0.044847846031188965, 0.1260702759027481, -0.07324769347906113, 0.032052554190158844, 0.10836758464574814, 
-0.12586435675621033, 0.16725040972232819, -0.010196574032306671, 0.09642665833234787, -0.1230507344007492, 0.12248487025499344, -0.013468729332089424, 
0.03377954289317131, -0.06910876929759979, -0.12398210912942886, -0.07092718034982681, 0.03261656314134598, -0.04674704372882843, -0.16589665412902832, 
0.04217473417520523, -0.14973416924476624, -0.0678488165140152, -0.05343838036060333, -0.1099473312497139, -0.05178944393992424, -0.05926771089434624, 
0.022252755239605904, -0.08203446865081787, 0.06957060098648071, 0.07269743084907532, 0.34317877888679504, -0.03089463897049427, 0.06228755787014961, 
0.16812504827976227, 0.10620217025279999, -0.027442924678325653, -0.03909878060221672, 0.047900378704071045, -0.03631100431084633, -0.02182842418551445, 
0.03308713436126709, -0.044506367295980453, -0.0006523357005789876, 0.10664033144712448, -0.10290741920471191, 0.06847595423460007, 0.14553289115428925, 
0.030655916780233383, -0.10988885909318924, 0.06809291243553162, 0.13178975880146027, 0.0372849740087986, 0.0915905013680458, 0.1650947630405426, 
-0.012393547222018242, 0.014109988696873188, 0.142283096909523, -0.019707804545760155, 0.10648464411497116, -0.06222112104296684, 0.09895515441894531, 
0.012611350044608116, 0.17918840050697327};

#endif

#endif
