0.011565933004021645, -0.13514581322669983, -0.05007021129131317, -0.009539197199046612, 0.1470346599817276, -0.01439556572586298, 0.009958513081073761, -0.07693250477313995, -0.08677013963460922, -0.0885472521185875, 0.11433381587266922, 0.11333509534597397, -0.014851724728941917, 0.09337887167930603, -0.005075457971543074, 0.08553029596805573, -0.06482069194316864, -0.07071603089570999, 0.11605676263570786, 0.12056636810302734, 0.08406863361597061, 0.10487060993909836, 0.05584953352808952, -0.04660031199455261, -0.035508036613464355, -0.10119220614433289, -0.13817352056503296, -0.08438827842473984, -0.10551461577415466, 0.08275768160820007, -0.056695833802223206, -0.009883079677820206, 0.08829739689826965, 0.08751800656318665, -0.02767263911664486, 0.05711458995938301, 0.06885635107755661, 0.021669164299964905, -0.08948902785778046, 0.015409397892653942, -0.045160796493291855, -0.12591081857681274, 0.09499233961105347, -0.015522461384534836, 0.11762198060750961, -0.07008339464664459, 0.1126222088932991, -0.08081354200839996, 0.026973173022270203, 0.10835404694080353, 0.0016905260272324085, 0.05529653653502464, 0.030342625454068184, 0.11412804573774338, -0.12994664907455444, -0.05789906904101372, 0.06558237969875336, -0.09925925731658936, 0.142133891582489, 0.034876659512519836, -0.09112817049026489, -0.1043853834271431, 0.02799082174897194, 0.010411754250526428