// Numpy array shape [64, 64]
// Min -0.764645
// Max 0.6064375
// Number of zeros 0

#ifndef TRANSFORMERS_1_SELF_ATTENTION_OUT_WEIGHT_H_
#define TRANSFORMERS_1_SELF_ATTENTION_OUT_WEIGHT_H_

#ifndef __SYNTHESIS__
model_default_t transformers_1_self_attention_out_weight[4096];
#else
model_default_t transformers_1_self_attention_out_weight[4096] = {0.06192614138126373, 0.16523979604244232, 0.06563658267259598, -0.15909463167190552, -0.09683886170387268, 0.19048619270324707, 
-0.1170249730348587, 0.09650831669569016, 0.16145990788936615, -0.012600673362612724, 0.0045534116216003895, 0.11703793704509735, -0.13618159294128418, 
0.1482483446598053, 0.03507009148597717, 0.007809140719473362, -0.19287754595279694, -0.06718836724758148, -0.1002119705080986, -0.09137608110904694, 
-0.2698414921760559, -0.12466095387935638, 0.0934850350022316, -0.11091017723083496, -0.182687446475029, -0.16893963515758514, -0.015507320873439312, 
-0.10346972197294235, -0.060470499098300934, 0.032740067690610886, 0.03871655464172363, 0.0032229190692305565, 0.053048569709062576, 0.04520447924733162, 
0.02761394903063774, -0.0427134744822979, -0.12170898914337158, 0.08864794671535492, 0.1375618577003479, -0.022896157577633858, 0.006361620966345072, 
-0.005933618638664484, -0.10376495867967606, -0.15838319063186646, -0.10615712404251099, -0.1917925626039505, -0.10429101437330246, -0.039698224514722824, 
-0.04060732573270798, -0.19208095967769623, 0.04345989227294922, 0.18100227415561676, 0.0018821828998625278, 0.06707587838172913, 0.17756174504756927, 
-0.06848105788230896, -0.06506823748350143, 0.0019374215044081211, 0.04307408630847931, 0.11381054669618607, 0.13550955057144165, -0.030917223542928696, 
0.18633368611335754, 0.09845366328954697, 0.01071668229997158, -0.08738289028406143, -0.1325712502002716, -0.056168753653764725, -0.10710884630680084, 
-0.010499274358153343, -0.10656972974538803, -0.12120088934898376, -0.006806784775108099, -0.058796681463718414, -0.05839623510837555, 0.0017724267672747374, 
-0.09111101925373077, 0.14494745433330536, -0.04682763293385506, -0.07242774218320847, -0.034987859427928925, -0.052066586911678314, -0.02493414841592312, 
-0.0573355108499527, 0.14197103679180145, 0.18492472171783447, 0.0318022146821022, 0.05512920767068863, 0.05065513774752617, -0.0644226148724556, 
0.10372576862573624, -0.09502820670604706, 0.02084955759346485, -0.029251091182231903, 0.020388508215546608, -0.1439947932958603, 0.17539583146572113, 
-0.058359768241643906, -0.07124786823987961, -0.04546114802360535, -0.001925195101648569, 0.05709260702133179, 0.030970806255936623, -0.042014654725790024, 
-0.03451814502477646, -0.05666493996977806, -0.0838531032204628, -0.18743643164634705, 0.15430153906345367, -0.04410761967301369, -0.030300358310341835, 
0.04436391219496727, 0.06921251118183136, 0.02183900959789753, 0.08657490462064743, 0.06043800339102745, 0.03787321224808693, -0.03790062665939331, 
0.30093303322792053, 0.07496172934770584, -0.08577176183462143, 0.08489140123128891, -0.05460700765252113, -0.012379219755530357, 0.08398626744747162, 
-0.04607686027884483, 0.11231954395771027, 0.1114598959684372, 0.21366038918495178, -0.004502187017351389, 0.00907054916024208, 0.18584002554416656, 
0.029711762443184853, 0.05833712965250015, 0.08289359509944916, 0.022847099229693413, -0.06084325164556503, 0.017563482746481895, -0.19760830700397491, 
0.02520531602203846, 0.16973455250263214, 0.10790934413671494, -0.046518370509147644, -0.04679356887936592, 0.018327711150050163, -0.07753338664770126, 
-0.03757674619555473, -0.03445005044341087, 0.5676093697547913, -0.06926846504211426, -0.08935131877660751, -0.07056725770235062, 0.08211994171142578, 
-0.08227848261594772, -0.11129237711429596, -0.05103670060634613, -0.007646703626960516, -0.12952964007854462, 0.05936288833618164, 0.010666712187230587, 
0.1923273354768753, -0.11651383340358734, -0.14200694859027863, 0.009340379387140274, 0.015920082107186317, -0.54316645860672, 0.11524613946676254, 
0.04189957678318024, -0.03345894813537598, 0.007611836306750774, -0.012926788069307804, 0.1303252875804901, 0.07951366156339645, 0.0002543710288591683, 
0.03571169823408127, -0.057810645550489426, -0.06665647029876709, -0.0374046266078949, -0.18524274230003357, -0.11145301908254623, 0.046406086534261703, 
-0.0029061678797006607, 0.011586640030145645, 0.2194138914346695, 0.05196579173207283, -0.15937481820583344, 0.05927124619483948, -0.05222460255026817, 
-0.03431525453925133, -0.18033067882061005, -0.09868109971284866, -0.07659463584423065, 0.016490282490849495, -0.10555677115917206, 0.012715832330286503, 
0.2260284125804901, 0.03661835938692093, -0.08742490410804749, -0.04350387677550316, -0.09562212228775024, -0.026310978457331657, 0.15986797213554382, 
-0.16209624707698822, 0.040888894349336624, 0.20649759471416473, -0.13519476354122162, -0.014771643094718456, -0.1654042899608612, 0.09831509739160538, 
-0.02024160511791706, -0.09233471006155014, 0.04033588618040085, 0.2636511027812958, -0.06519225239753723, -0.18533506989479065, -0.11237513273954391, 
-0.06245046108961105, -0.003230944974347949, 0.00809123832732439, 0.09157159179449081, -0.07712563872337341, 0.10286574810743332, 0.12188249826431274, 
0.09969941526651382, -0.07555404305458069, 0.06567263603210449, -0.16026775538921356, 0.05274060368537903, 0.006154649890959263, -0.11034013330936432, 
-0.12967029213905334, 0.07352469116449356, -0.03436878323554993, 0.06527610868215561, -0.01505458913743496, 0.017332814633846283, 0.07606896758079529, 
0.16233466565608978, -0.02193128503859043, 0.03535303473472595, -0.10420442372560501, -0.05162842199206352, -0.0035224473103880882, -0.13872885704040527, 
0.004791368264704943, 0.05032230541110039, -0.12981340289115906, 0.09224128723144531, 0.02922634966671467, -0.06559140980243683, -0.1640300154685974, 
0.11459968984127045, -0.06612028181552887, -0.13446491956710815, -0.134516179561615, -0.08797425031661987, 0.22509770095348358, -0.16299018263816833, 
0.12756840884685516, 0.06419678777456284, 0.10357415676116943, -0.060324814170598984, -0.07548496127128601, -0.04768119379878044, 0.0737115815281868, 
0.09177643805742264, -0.0648031011223793, 0.06118210032582283, 0.06931967288255692, -0.028216738253831863, 0.07849133759737015, 0.09925640374422073, 
-0.11144807189702988, 0.07642822712659836, 0.02505042962729931, 0.09044329077005386, 0.5416990518569946, -0.12605918943881989, -0.08214161545038223, 
-0.13970887660980225, -0.1357947289943695, -0.1764363944530487, -0.07267894595861435, 0.13767771422863007, 0.1955619901418686, -0.09949588775634766, 
0.03213483467698097, 0.06681026518344879, 0.15951132774353027, -0.09835341572761536, -0.05460399016737938, -0.16749878227710724, 0.03358999639749527, 
-0.38235899806022644, -0.0159473679959774, 0.05393384024500847, -0.06807798147201538, -0.26644787192344666, -0.08715632557868958, -0.010293718427419662, 
0.1462092250585556, 0.10401113331317902, 0.05764727666974068, 0.21466606855392456, 0.17739281058311462, -0.07843563705682755, -0.18975715339183807, 
0.0037350603379309177, -0.015367300249636173, -0.06592685729265213, 0.0512622706592083, -0.054849497973918915, 0.17732273042201996, 0.033025696873664856, 
-0.012780890800058842, 0.17714016139507294, 0.011335727758705616, -0.043945591896772385, 0.14614708721637726, 0.03549237921833992, -0.01210528053343296, 
-0.04905802756547928, 0.09393441677093506, -0.08988679200410843, 0.05969788134098053, 0.03726739063858986, -0.056198447942733765, -0.025746196508407593, 
0.12485160678625107, -0.05895528569817543, 0.08091877400875092, 0.07514319568872452, 0.09878543019294739, 0.07204951345920563, 0.159075528383255, 
-0.0048305983655154705, -0.13115987181663513, 0.10903926193714142, -0.1298823356628418, -0.10253071039915085, -0.0034788756165653467, -0.13251693546772003, 
-0.06221439689397812, -0.04541661590337753, 0.04458579793572426, -0.13032376766204834, -0.09877745807170868, 0.049587562680244446, 0.06822555512189865, 
-0.09057530760765076, -0.06537176668643951, 0.01694910228252411, 0.04014253988862038, -0.020233020186424255, 0.11420775949954987, -0.08319773524999619, 
-0.03460953012108803, -0.07848470658063889, 0.18282441794872284, 0.021008502691984177, -0.1657702475786209, -0.14373312890529633, 0.024798987433314323, 
0.07073284685611725, 0.09436254948377609, 0.03934638202190399, 0.0983835905790329, 0.0858076885342598, 0.056009817868471146, -0.07212815433740616, 
-0.14058427512645721, 0.010337975807487965, 0.17009882628917694, -0.011415801011025906, 0.11679600924253464, 0.019386814907193184, 0.1533774733543396, 
-0.05271458625793457, 0.09725504368543625, 0.1427687555551529, 0.07254162430763245, 0.004250416997820139, 0.0652826800942421, 0.034520842134952545, 
-0.026101769879460335, 0.11807552725076675, -0.10269259661436081, -0.07139267772436142, -0.06553526967763901, -0.049868904054164886, -0.1751035898923874, 
-0.026225620880723, -0.02312217466533184, -0.10848972946405411, 0.04670790582895279, 0.059428609907627106, -0.2000790536403656, 0.14819017052650452, 
0.0612492598593235, 0.10549191385507584, -0.0620349682867527, -0.020458780229091644, 0.005517715588212013, -0.00580492103472352, -0.1139584556221962, 
0.1023382842540741, 0.07989680022001266, -0.025816088542342186, 0.01650954782962799, 0.004326171707361937, 0.11514311283826828, 0.023325633257627487, 
-0.1040830984711647, 0.07489090412855148, -0.08777420967817307, 0.05446458235383034, 0.12667784094810486, 0.009345143102109432, 0.10275477916002274, 
-0.11038549989461899, -0.08229050785303116, 0.2214445322751999, -0.022832032293081284, 0.10581725090742111, -0.04385440796613693, 0.09810883551836014, 
0.03542950749397278, -0.020913811400532722, 0.029141388833522797, -0.15064820647239685, 0.02205028384923935, 0.10626765340566635, 0.00705316849052906, 
-0.12816035747528076, 0.14120741188526154, -0.0707293376326561, 0.03166482225060463, 0.08824475854635239, 0.06613212078809738, 0.06959205865859985, 
-0.08178701996803284, -0.04530872032046318, -0.046791091561317444, -0.06736167520284653, 0.12159613519906998, -0.03344224393367767, 0.06785460561513901, 
0.017182596027851105, -0.03627347946166992, -0.08332759141921997, -0.12864802777767181, -0.18506108224391937, -0.021498901769518852, 0.10071873664855957, 
-0.09937989711761475, 0.05790562555193901, 0.051351841539144516, -0.0604960136115551, 0.024601276963949203, -0.07905156165361404, 0.019899003207683563, 
0.1611274778842926, -0.07059773802757263, 0.004936120472848415, 0.03365363925695419, 0.016293535009026527, -0.0623113252222538, 0.10484485328197479, 
-0.30211329460144043, -0.12432598322629929, 0.09852857142686844, -0.027201442047953606, 0.09694495797157288, -0.040165431797504425, -0.10119788348674774, 
-0.06366853415966034, 0.03596916049718857, -0.12921935319900513, -0.08473508059978485, -0.09075017273426056, 0.14132258296012878, 0.037880025804042816, 
0.10641364753246307, -0.10389604419469833, -0.03509196639060974, 0.25866299867630005, -0.006012210622429848, -0.05181661620736122, 0.005524988751858473, 
0.09798136353492737, 0.09325148165225983, -0.15592806041240692, 0.09894083440303802, -0.021497854962944984, -0.10688833147287369, 0.13353301584720612, 
-0.09685617685317993, -0.012400852516293526, -0.06383944302797318, 0.07510489970445633, -0.01971546560525894, -0.012638688087463379, 0.0730232298374176, 
-0.1324579268693924, -0.023425543680787086, -0.04508492350578308, 0.05643865838646889, -0.15603835880756378, -0.013276071287691593, 0.1096801683306694, 
-0.015971267595887184, -0.07359294593334198, -0.09432130306959152, 0.013316419906914234, 0.056212469935417175, -0.16041283309459686, -0.2661117613315582, 
0.14808206260204315, -0.0289932694286108, 0.08815119415521622, 0.16970010101795197, 0.025754421949386597, 0.1748632937669754, 0.07910502701997757, 
-0.17701195180416107, -0.017425933852791786, 0.04217275604605675, 0.06494759023189545, -0.20608213543891907, 0.03319007158279419, -0.0751475989818573, 
0.0002618754515424371, -0.3399248719215393, -0.06568510085344315, 0.06425446271896362, 0.037374742329120636, -0.1544167697429657, 0.0463242270052433, 
0.01035232748836279, 0.05183994397521019, -0.17552386224269867, 0.055212102830410004, 0.09381765872240067, -0.15828995406627655, -0.037742484360933304, 
-0.12153836339712143, 0.12709617614746094, -0.04659223183989525, -0.03409630432724953, 0.19861990213394165, 0.07162012159824371, 0.05126982927322388, 
-0.10453994572162628, 0.08868458867073059, 0.05706116184592247, -0.0869724303483963, -0.16438186168670654, -0.05170443654060364, -0.10317301005125046, 
-0.005553075578063726, -0.08885279297828674, 0.0681118443608284, -0.0034506709780544043, 0.11305072158575058, -0.11080697178840637, -0.046336181461811066, 
0.22934241592884064, 0.06717709451913834, -0.09157305210828781, -0.004841366782784462, 0.07204446941614151, -0.053035806864500046, 0.15158671140670776, 
-0.004716295748949051, 0.09809385240077972, 0.12488570809364319, -0.1586417555809021, 0.05252294987440109, -0.06156674027442932, -0.04266970604658127, 
0.012528764083981514, -0.01842673309147358, 0.10053624212741852, -0.024713994935154915, -0.17081980407238007, 0.18324318528175354, 0.17196322977542877, 
-0.06927225738763809, -0.12287291139364243, -0.09937681257724762, -0.10903114825487137, 0.06812833994626999, 0.121750608086586, 0.06746150553226471, 
0.03673733398318291, 0.0038076378405094147, -0.5737883448600769, 0.10918082296848297, 0.1436084806919098, 0.14172504842281342, 0.10524006187915802, 
-0.05991218984127045, -0.028264237567782402, 0.1579982042312622, 0.06736879795789719, 0.010208932682871819, 0.031192388385534286, 0.2454676628112793, 
-0.05473163723945618, 0.10344488173723221, 0.09050555527210236, -0.05587773397564888, 0.17174768447875977, 0.4823809564113617, -0.1216757670044899, 
0.02805917337536812, -0.07422655820846558, 0.14306937158107758, -0.016108281910419464, -0.06641451269388199, -0.09942236542701721, 0.053887739777565, 
0.19892723858356476, 0.07473155856132507, -0.10390818119049072, 0.07321047782897949, -0.0029696349520236254, -0.10624079406261444, -0.0563168078660965, 
0.017785990610718727, -0.2154909074306488, -0.14858263731002808, -0.19738151133060455, 0.01362145971506834, 0.05642789602279663, -0.18365147709846497, 
-0.012259882874786854, 0.023607123643159866, -0.14255200326442719, -0.011983894743025303, -0.13777877390384674, -0.06710600107908249, -0.05310692638158798, 
0.05768337473273277, 0.035438697785139084, -0.07120615988969803, -0.010988853871822357, -0.07586669921875, -0.17608754336833954, 0.14331990480422974, 
0.09979856014251709, 0.1097247302532196, -0.025356918573379517, 0.09679001569747925, -0.16692279279232025, -0.1016131117939949, 0.054116085171699524, 
0.004666310269385576, -0.0771908164024353, -0.11834609508514404, -0.14447923004627228, 0.13410645723342896, -0.025629105046391487, -0.029059387743473053, 
0.13773468136787415, -0.05036904290318489, 0.13948434591293335, -0.01295129768550396, -0.16866780817508698, -0.06892109662294388, 0.07211582362651825, 
0.06825181096792221, -0.10270766168832779, -0.03476571664214134, -0.03649337589740753, 0.13621768355369568, -0.06629930436611176, 0.18700295686721802, 
0.05434350296854973, -0.024834470823407173, -0.09461963176727295, 0.04982319101691246, 0.14125320315361023, 0.11081920564174652, -0.056043002754449844, 
-0.10503353178501129, 0.0426117479801178, 0.051925115287303925, -0.1531587690114975, 0.028043437749147415, 0.15851689875125885, -0.02432006224989891, 
-0.10380344092845917, -0.03211080655455589, -0.08483421057462692, -0.023772994056344032, 0.010242598131299019, 0.10948511958122253, -0.011211280710995197, 
0.018169354647397995, 0.0700855553150177, 0.08180129528045654, -0.059571925550699234, -0.12432804703712463, 0.02718992531299591, 0.15138210356235504, 
-0.11990685015916824, 0.03538072481751442, -0.06767662614583969, 0.04970135912299156, -0.0006171579007059336, -0.033611588180065155, 0.054858990013599396, 
-0.0756131261587143, 0.08318972587585449, 0.03884512186050415, 0.0556994304060936, 0.005833894480019808, -0.07409776002168655, -0.03153563663363457, 
-0.02382069267332554, 0.05523540824651718, 0.044826894998550415, 0.048920389264822006, -0.20123177766799927, 0.08471651375293732, -0.021997051313519478, 
-0.03318462893366814, 0.18129105865955353, 0.11879730224609375, 0.01730010285973549, -0.14039486646652222, -0.1636071503162384, 0.03775639086961746, 
-0.13381916284561157, 0.006098906043916941, -0.225407212972641, -0.006058686878532171, 0.07435864210128784, 0.07547751814126968, -0.08579583466053009, 
0.3913279175758362, -0.04076007753610611, -0.015344447456300259, 0.12186545878648758, 0.08070839196443558, 0.055246733129024506, -0.015246056020259857, 
-0.06186822056770325, -0.09996447712182999, -0.0452408529818058, -0.17324835062026978, -0.22346395254135132, 0.06349743157625198, 0.08046258985996246, 
0.0918876975774765, -0.06017179414629936, -0.08769959211349487, 0.055604979395866394, 0.058880578726530075, -0.04238331690430641, 0.026541445404291153, 
0.03940243273973465, -0.03131093084812164, -0.016012439504265785, 0.1488717496395111, -0.08797430992126465, -0.046301037073135376, -0.009307347238063812, 
0.15545178949832916, 0.10387122631072998, -0.22830374538898468, -0.11815520375967026, 0.1551583707332611, -0.09394905716180801, -0.020934706553816795, 
-0.0028715527150779963, -0.1314733624458313, 0.16345137357711792, 0.14909648895263672, -0.1934100240468979, 0.17178624868392944, 0.09116825461387634, 
0.07897590100765228, -0.06402270495891571, -0.13692989945411682, -0.08835060894489288, -0.09468674659729004, -0.4014555513858795, -0.08441805839538574, 
0.20628686249256134, 0.11737585067749023, 0.010464656166732311, 0.05487307533621788, 0.036731645464897156, -0.027766281738877296, -0.034068331122398376, 
0.02729768306016922, 0.012678677216172218, -0.14734649658203125, 0.11615810543298721, -0.0709807276725769, 0.19176994264125824, -0.09968148171901703, 
0.01809319294989109, 0.17976780235767365, 0.022734075784683228, -0.013472320511937141, -0.047228626906871796, 0.06527739018201828, 0.08871854096651077, 
-0.03463059291243553, 0.03008187934756279, -0.17242451012134552, -0.037422288209199905, 0.0053408402018249035, 0.06140213459730148, -0.08984241634607315, 
0.0010080955689772964, 0.11697093397378922, 0.07520885020494461, -0.11578633636236191, 0.25042715668678284, -0.06495999544858932, 0.05947627127170563, 
0.13518115878105164, 0.10656657814979553, -0.10308968275785446, 0.1480812281370163, -0.037109579890966415, -0.026179028674960136, 0.14408211410045624, 
0.044094450771808624, -0.14333650469779968, 0.12131740897893906, 0.09747958183288574, 0.06615836173295975, -0.0926954448223114, 0.09451711922883987, 
0.04447966441512108, -0.13528424501419067, -0.002478827955201268, -0.09164014458656311, -0.0911228135228157, 0.21858227252960205, -0.044817760586738586, 
-0.11728233098983765, -0.0931386724114418, 0.08244246989488602, -0.06144874170422554, 0.12377263605594635, -0.0007474840967915952, 0.2734925448894501, 
-0.013583395630121231, -0.19014225900173187, -0.06119037792086601, 0.13265028595924377, 0.13057224452495575, 0.08573079854249954, -0.011395877227187157, 
-0.0035959454253315926, 0.07870535552501678, 0.016526341438293457, 0.042541831731796265, -0.07585757225751877, -0.01158819254487753, 0.04399765282869339, 
0.1602834165096283, -0.09001783281564713, 0.08095855265855789, -0.15584895014762878, -0.000335362390615046, 0.058418650180101395, 0.055797044187784195, 
0.03595663607120514, 0.10977133363485336, 0.048302795737981796, 0.1981964111328125, -0.10783021152019501, -0.00254235602915287, -0.04642273113131523, 
0.07119857519865036, -0.08838529139757156, 0.016382865607738495, 0.10179395973682404, 0.044440679252147675, -0.214188352227211, 0.06927064061164856, 
0.12612725794315338, -0.0928647443652153, -0.04931413382291794, -0.07223808020353317, -0.014529978856444359, 0.04416748136281967, -0.07749238610267639, 
-0.05125166475772858, -0.07013339549303055, 0.09544412046670914, 0.14479967951774597, 0.03851061686873436, -0.016757160425186157, -0.02887873537838459, 
-0.06534584611654282, 0.11132309585809708, -0.09708195179700851, 0.14200632274150848, 0.1667570322751999, -0.027367422357201576, -0.2016116976737976, 
-0.049756474792957306, -0.05794181302189827, 0.07543371617794037, -0.1544640213251114, 0.06684628874063492, 0.06579724699258804, -0.07082726061344147, 
-0.4308859705924988, -0.2931029200553894, -0.05252813920378685, -0.09824804216623306, -0.07793569564819336, 0.021052075549960136, 0.028865115717053413, 
0.07482081651687622, -0.10504348576068878, 0.07856565713882446, 0.06963963806629181, 0.29277971386909485, -0.11697035282850266, 0.03829289972782135, 
-0.053992900997400284, -0.09740647673606873, -0.05328553169965744, 0.17841234803199768, 0.09481783956289291, -0.019659746438264847, -0.05757426097989082, 
0.0669240951538086, -0.03755158931016922, -0.10108466446399689, 0.007728839758783579, 0.07610221207141876, -0.07704121619462967, 0.13859175145626068, 
0.18205460906028748, -0.10729900747537613, -0.12150148302316666, 0.15690791606903076, 0.05223577842116356, -0.06938529014587402, -0.2149578481912613, 
-0.06338801980018616, -0.02351277507841587, -0.0030889473855495453, -0.14446169137954712, -0.0010644126450642943, 0.0025933769065886736, -0.00192657217849046, 
0.13035787642002106, 0.1443202793598175, 0.14667506515979767, -0.016422852873802185, 0.07255744934082031, 0.001664680428802967, 0.10473603010177612, 
0.03611520305275917, 0.023940589278936386, -0.024754134938120842, -0.07191603630781174, 0.09731096774339676, -0.027392061427235603, 0.03477078676223755, 
0.15138378739356995, -0.1268160343170166, -0.052864521741867065, -0.093559131026268, -0.004292495548725128, 0.11224447935819626, 0.05696629360318184, 
0.011222251690924168, -0.006423372309654951, -0.030523531138896942, 0.0021890588104724884, 0.009392285719513893, -0.1110464408993721, -0.00791179295629263, 
-0.03365342691540718, -0.057859137654304504, -0.003227223176509142, 0.11088249832391739, -0.04034240543842316, 0.012984073720872402, 0.009814131073653698, 
0.05813813582062721, 0.026043208315968513, 0.031735554337501526, 0.052152734249830246, 0.0489974282681942, -0.15185292065143585, -0.03872702270746231, 
0.06743790209293365, -0.1383279412984848, 0.035705339163541794, 0.17783747613430023, -0.02170206978917122, 0.08083035796880722, -0.09765134006738663, 
0.09553980827331543, -0.10467905551195145, 0.07313898950815201, 0.10038790851831436, -0.006643940694630146, -0.06974201649427414, -0.06849320977926254, 
-0.3641340434551239, -0.11631494760513306, -0.11538625508546829, 3.853993985103443e-05, 0.036122750490903854, 0.03882692754268646, 0.08842869848012924, 
0.07968345284461975, 0.056953635066747665, -0.07899373024702072, 0.04086105525493622, 0.044546499848365784, 0.15430471301078796, 0.19022957980632782, 
0.15095074474811554, 0.1206447184085846, 0.08437231183052063, 0.08740214258432388, -0.01871117390692234, 0.0329773835837841, -0.061731643974781036, 
-0.005916240159422159, 0.1286645531654358, -0.04890099912881851, -0.070221446454525, 0.13176025450229645, 0.07861225306987762, 0.014775294810533524, 
0.04555236175656319, -0.050785500556230545, 0.5350274443626404, -0.11776424944400787, -0.009932178072631359, -0.15581509470939636, 0.00420560734346509, 
0.03508007898926735, -0.1096794605255127, 0.12587466835975647, 0.10848341137170792, 0.13603490591049194, 0.13761268556118011, 0.1420668661594391, 
0.07776264101266861, 0.06272707134485245, -0.01839653216302395, -0.03137946128845215, -0.1031242236495018, -0.5121471285820007, -0.04245654121041298, 
0.14656026661396027, 0.05366199091076851, -0.013332083821296692, -0.060582492500543594, 0.08251690119504929, 0.02041632868349552, 0.19893211126327515, 
-0.012955608777701855, 0.015408052131533623, 0.2041037678718567, -0.029569439589977264, 0.0039533828385174274, 0.08503086119890213, 0.10548979789018631, 
-0.03456937521696091, -0.012897400185465813, 0.06254971027374268, 0.07205598056316376, -0.00451322365552187, -0.013372858054935932, 0.2556326985359192, 
0.005967644974589348, 0.03969791159033775, 0.0487859733402729, 0.1354650855064392, -0.03970373421907425, 0.005915061570703983, 0.13642039895057678, 
-0.16135920584201813, -0.07430902123451233, 0.08075995743274689, -0.02884662337601185, 0.11245805770158768, 0.10875561088323593, 0.10169828683137894, 
0.1474820077419281, -0.12344800680875778, -0.2237587571144104, 0.0662691742181778, 0.20700852572917938, -0.07075722515583038, -0.06980942189693451, 
-0.009178457781672478, -0.10450097918510437, 0.03383724391460419, -0.22318951785564423, -0.07993265241384506, 0.16566036641597748, 0.06362812966108322, 
-0.07216325402259827, -0.02584199048578739, 0.05049390718340874, 0.08884637802839279, -0.04889587685465813, -0.07161994278430939, -0.043013717979192734, 
-0.1881287842988968, 0.1996382176876068, -0.11988764256238937, 0.11041037738323212, -0.10039129853248596, -0.0870802104473114, 0.004202722571790218, 
0.17445485293865204, 0.0677267387509346, -0.0620463490486145, -0.016639869660139084, -0.04181370511651039, -0.17932860553264618, 0.03146594017744064, 
-0.038264818489551544, 0.03558826446533203, 0.11768606305122375, 0.17699480056762695, -0.02297883853316307, -0.048029959201812744, 0.15520179271697998, 
-0.04111966863274574, -0.09315124899148941, 0.17226359248161316, -0.11976199597120285, 0.07178621739149094, 0.2071782350540161, -0.05932893604040146, 
0.06488340348005295, 0.0898115262389183, 0.03698618337512016, 0.21872423589229584, 0.14894936978816986, 0.007046121172606945, 0.12419190257787704, 
-0.09343567490577698, -0.11812156438827515, 0.04882273077964783, 0.004391642287373543, 0.12760865688323975, 0.026317942887544632, 0.019365457817912102, 
-0.1668318808078766, 0.06740386039018631, 0.0936385840177536, 0.09250166267156601, -0.04248560220003128, 0.053761985152959824, 0.16673511266708374, 
-0.027365630492568016, 0.10506846010684967, 0.1140073761343956, 0.06541834026575089, 0.07048241794109344, 0.011459019035100937, 0.0889008566737175, 
0.06141802296042442, -0.04066580906510353, -0.018963176757097244, -0.05907980725169182, -0.08266177028417587, 0.09150688350200653, -0.01986670307815075, 
-0.148945614695549, -0.08034134656190872, -0.03061750903725624, 0.06995533406734467, 0.08671195805072784, -0.1093963086605072, 0.07791785895824432, 
-0.11042240262031555, -0.08178850263357162, 0.1269189864397049, -0.14320158958435059, 0.013253414072096348, 0.027895310893654823, -0.023989828303456306, 
-0.03910640999674797, -0.14705906808376312, 0.0953449085354805, -0.06869260966777802, 0.02238987386226654, -0.17114026844501495, -0.04370351508259773, 
0.12675850093364716, 0.09409268200397491, 0.033288802951574326, 0.25220441818237305, 0.14265498518943787, -0.0309867262840271, 0.055661462247371674, 
0.045006874948740005, 0.09929650276899338, 0.021847257390618324, 0.06443478912115097, -0.08582822233438492, -0.09099800884723663, -0.13157762587070465, 
0.06940717995166779, -0.14202120900154114, -0.059623658657073975, -0.07373954355716705, 0.08380354195833206, -0.001697876607067883, -0.01487403828650713, 
0.18341393768787384, -0.17493315041065216, 0.12387628853321075, -0.0848226249217987, -0.22649537026882172, 0.06314101815223694, 0.08081918954849243, 
-0.041024673730134964, -0.009697201661765575, 0.09050929546356201, 0.04314550757408142, -0.08280650526285172, -0.3197493553161621, 0.08341774344444275, 
0.12899447977542877, -0.11393047124147415, -0.0497250035405159, -0.03589063882827759, 0.014715155586600304, 0.01339486800134182, -0.12374463677406311, 
-0.0423237606883049, -0.023568838834762573, -0.0633452907204628, -0.004436722956597805, 0.019021213054656982, -0.0027789571322500706, -0.12619717419147491, 
-0.04387886822223663, 0.3854261040687561, 0.06774164736270905, -0.013503553345799446, -0.12173616886138916, -0.03463730961084366, 0.014249315485358238, 
-0.0918157771229744, 0.014433502219617367, -0.035197485238313675, 0.1317121982574463, -0.05132210999727249, -0.02477199397981167, -0.046269096434116364, 
0.07600932568311691, 0.026090914383530617, -0.009157061576843262, -0.006147788371890783, 0.0792817547917366, -0.06350059807300568, 0.09562305361032486, 
0.13897399604320526, -0.02412692829966545, -0.09166388213634491, 0.08181178569793701, 0.10994874686002731, 0.04254840314388275, 0.075273796916008, 
-0.05556393042206764, -0.025260651484131813, -0.04678637534379959, -0.12133904546499252, -0.09984710812568665, -0.01654728502035141, -0.1897643655538559, 
-0.04346246272325516, 0.08656162023544312, -0.09989743679761887, 0.03129309043288231, 0.05094853416085243, -0.14119194447994232, 0.1377989798784256, 
0.011422143317759037, -0.039109572768211365, -0.0014609278878197074, 0.005450042430311441, -0.1403297334909439, 0.03687959909439087, -0.0007526273257099092, 
-0.14424757659435272, 0.012465320527553558, 0.11834830045700073, -0.06137339025735855, 0.0031097133178263903, 0.11179092526435852, -0.043343063443899155, 
-0.04347645118832588, -0.0905231460928917, 0.012746571563184261, -0.18660160899162292, 0.001837631338275969, -0.04483315348625183, 0.13585986196994781, 
-0.09822184592485428, -0.05792649835348129, -0.02680414915084839, 0.11719148606061935, -0.08889232575893402, 0.056289806962013245, -0.0366099588572979, 
-0.03077572025358677, -0.008370960131287575, -0.0033830725587904453, -0.056947819888591766, -0.1189778596162796, 0.055339958518743515, -0.08665850013494492, 
0.040862102061510086, -0.04642127826809883, 0.1477787345647812, -0.09664729237556458, 0.00875718705356121, 0.07086747139692307, 0.06262057274580002, 
0.09538526087999344, 0.001351517392322421, -0.0266425721347332, -0.05558651685714722, 0.08948501944541931, 0.11400281637907028, 0.03366076201200485, 
0.06623268127441406, -0.09175913780927658, 0.0975627452135086, -0.022498931735754013, -0.022309275344014168, -0.01043821033090353, 0.03978901356458664, 
0.09155470877885818, -0.010448548942804337, -0.06650642305612564, 0.16158151626586914, 0.026222746819257736, -0.12969745695590973, 0.07085684686899185, 
-0.006832405459135771, -0.14426307380199432, -0.016432352364063263, 0.14795784652233124, 0.011260210536420345, 0.1216939315199852, 0.00091885298024863, 
-0.2853655219078064, 0.032848794013261795, 0.07523970305919647, -0.02947179414331913, 0.07047413289546967, 0.1544605791568756, 0.14444127678871155, 
-0.07971088588237762, -0.08829853683710098, -0.04068073630332947, -0.07757806777954102, 0.214717835187912, -0.15984341502189636, 0.04213576391339302, 
0.09996980428695679, 0.16482621431350708, 0.029666047543287277, 0.18770459294319153, -0.14650848507881165, -0.14786706864833832, 0.10351721942424774, 
0.013405467383563519, 0.009707367047667503, -0.009623497724533081, 0.00612622918561101, 0.032817475497722626, 0.006375901401042938, -0.028750039637088776, 
0.05919899791479111, 0.09362229704856873, 0.10302466154098511, -0.012589046731591225, -0.0917288288474083, -0.12161567807197571, -0.2667641043663025, 
-0.1299138367176056, -0.0018904701573774219, -0.1142740547657013, 0.09242449700832367, -0.06348278373479843, 0.09382627159357071, -0.013094921596348286, 
-0.11606963723897934, -0.046382855623960495, -0.15154632925987244, 0.11405205726623535, 0.045989181846380234, 0.02513302117586136, -0.2905882000923157, 
0.0023800013586878777, -0.2779061198234558, 0.16792032122612, 0.1130143404006958, 0.016544541344046593, 0.20580658316612244, 0.10339752584695816, 
-0.2695770561695099, -0.0659126564860344, -0.12886406481266022, 0.18333427608013153, -0.21525463461875916, 0.011927074752748013, -0.0341792106628418, 
-0.11346308887004852, -0.764644980430603, -0.270327091217041, 0.12854307889938354, -0.028106193989515305, -0.17662343382835388, -5.6116121413651854e-05, 
0.10134242475032806, -0.08995606750249863, 0.05027995631098747, -0.007881661877036095, -0.17821566760540009, 0.148672416806221, 0.07326287031173706, 
-0.11163709312677383, 0.23349282145500183, -0.02819083258509636, -0.07220877707004547, 0.6064375042915344, 0.03692204877734184, -0.10474609583616257, 
0.08716713637113571, 0.057150572538375854, 0.16248658299446106, -0.17170758545398712, 0.008759371004998684, -0.13494549691677094, 0.031221404671669006, 
0.17705197632312775, 0.03584470972418785, -0.17762719094753265, 0.10914182662963867, 0.10095466673374176, 0.056619398295879364, -0.10465503484010696, 
-0.14953389763832092, -0.24872709810733795, -0.09933352470397949, 0.1755039095878601, -0.025987658649683, -0.1538081020116806, -0.031085651367902756, 
0.06347452104091644, -0.016609210520982742, 0.11461429297924042, 0.07916686683893204, 0.09897623211145401, 0.07533173263072968, 0.05789526179432869, 
0.04209602624177933, -0.0701703205704689, 0.0630623996257782, -0.02855239063501358, -0.13465014100074768, 0.0756104364991188, 0.05618533864617348, 
-0.015958702191710472, -0.059347737580537796, -0.06645790487527847, 0.07128414511680603, 0.023191014304757118, 0.11092720925807953, -0.03579386696219444, 
-0.07464630901813507, -0.024600883945822716, 0.1944560408592224, -0.13005906343460083, -0.07067877799272537, 0.016317928209900856, -0.014970563352108002, 
0.06769783049821854, -0.08595938235521317, 0.06145099923014641, 0.07917460054159164, 0.08953684568405151, 0.18716783821582794, 0.15846043825149536, 
-0.05305775627493858, 0.03588923439383507, 0.002184613374993205, -0.06449533253908157, -0.06283640116453171, -0.27608031034469604, -0.09594124555587769, 
-0.07930967956781387, 0.08945418894290924, -0.05722416937351227, -0.07524678856134415, 0.021950379014015198, 0.009350141510367393, 0.0924251601099968, 
0.12079156935214996, 0.023584537208080292, 0.05015413835644722, -0.09910766035318375, 0.045871347188949585, -0.1421324461698532, -0.04294996336102486, 
0.11394524574279785, -0.2965548634529114, -0.007120498456060886, -0.07876929640769958, -0.07082805037498474, -0.11528069525957108, 0.06450855731964111, 
-0.14771488308906555, -0.09414313733577728, 0.17652085423469543, 0.11574090272188187, 0.0612432062625885, -0.014587962068617344, -0.08672188967466354, 
0.08053696155548096, -0.02695620432496071, 0.07067729532718658, -0.17056266963481903, 0.08507426083087921, 0.002045905217528343, 0.03801417350769043, 
0.21265463531017303, -0.03973525017499924, -0.06747523695230484, -0.005002138204872608, -0.01026669330894947, 0.06247815117239952, -0.09588123112916946, 
-0.12545007467269897, 0.036884188652038574, -0.08608055859804153, -0.26685649156570435, -0.026519594714045525, 0.18102586269378662, -0.0006691489834338427, 
-0.04830120876431465, -0.079173244535923, -0.07454533874988556, 0.0855666771531105, -0.024007048457860947, -0.12896230816841125, 0.08906761556863785, 
0.06842643022537231, 0.10721973329782486, -0.015595435164868832, 0.06772790104150772, -0.12129389494657516, -0.06051638349890709, -0.06956793367862701, 
0.1153428927063942, 0.1121639758348465, -0.024277199059724808, 0.1672034114599228, -0.0763893872499466, -0.010057874023914337, 0.05584586039185524, 
0.024912510067224503, -0.1191917434334755, -0.004766299854964018, 0.030182328075170517, -0.15286847949028015, -0.04669010639190674, 0.013375996612012386, 
0.0917619913816452, -0.11388035863637924, -0.05980411171913147, 0.049213558435440063, 0.03141184523701668, 0.07837387174367905, -0.07157549262046814, 
0.012199749238789082, 0.030473139137029648, -0.07176559418439865, 0.14647434651851654, 0.02030286379158497, 0.12139268219470978, -0.09515993297100067, 
-0.04087081551551819, -0.07545400410890579, -0.02436169795691967, -0.053218334913253784, 0.1387375146150589, -0.06107950955629349, 0.06290725618600845, 
-0.08049007505178452, 0.058497052639722824, -0.057078711688518524, 0.15315309166908264, -0.028409186750650406, -0.06223278492689133, -0.06279531866312027, 
-0.07116468250751495, -0.00026238252758048475, 0.07351091504096985, -0.01917043887078762, 0.42374470829963684, 0.13443145155906677, -0.11949779093265533, 
0.016909142956137657, 0.053557489067316055, 0.039275284856557846, 0.13182003796100616, 0.02337590418756008, 0.06632044911384583, 0.09733742475509644, 
-0.14940392971038818, -0.11249993741512299, 0.08721057325601578, 0.13366952538490295, 0.016401490196585655, -0.03178612142801285, -0.044867612421512604, 
-0.11527884006500244, -0.03497879579663277, -0.013257749378681183, -0.09290530532598495, -0.10552176088094711, -0.0031444262713193893, 0.011887853033840656, 
-0.0294138602912426, -0.08812254667282104, -0.005573419388383627, 0.09831902384757996, -0.04398830607533455, 0.054249782115221024, 0.016784992069005966, 
-0.02455483190715313, -0.035781197249889374, 0.12734609842300415, 0.03848513215780258, -0.03041011095046997, 0.05410197004675865, -0.008831094950437546, 
-0.13199159502983093, -0.047309938818216324, -0.002793717198073864, -0.1283341944217682, -0.021308597177267075, 0.033913176506757736, 0.04958481714129448, 
-0.085765540599823, -0.11334505677223206, 0.14769501984119415, 0.09102807193994522, 0.04166708141565323, 0.17307518422603607, 0.06164929270744324, 
-0.10186593979597092, -0.004970194306224585, 0.0008040962857194245, -0.09632683545351028, -0.015233375132083893, 0.039709288626909256, 0.06145096942782402, 
-0.15511375665664673, -0.006369781214743853, 0.08243502676486969, 0.1313275694847107, -0.009655090980231762, 0.2782875597476959, 0.09162436425685883, 
-0.03832534700632095, -0.017063282430171967, 0.1369074434041977, -0.09174744784832001, 0.07054650783538818, -0.09479102492332458, -0.049872297793626785, 
0.12009359896183014, -0.01911979913711548, 0.08744940161705017, -0.11341110616922379, -0.08495596051216125, -0.05929930880665779, -0.1266060471534729, 
0.10362261533737183, -0.040282271802425385, -0.09397946298122406, 0.06591776758432388, -0.05416813865303993, -0.08333981782197952, 0.007968755438923836, 
-0.01331287156790495, -0.09206157922744751, 0.16564804315567017, 0.064212866127491, -0.09141729772090912, 0.03536468744277954, -0.02561764605343342, 
-0.03833480179309845, -0.012795939110219479, -0.11613013595342636, 0.10292932391166687, -0.20339526236057281, 0.08700110763311386, 0.07074896991252899, 
-0.05609609931707382, -0.09340467303991318, 0.1529492288827896, -0.04307996854186058, -0.12307271361351013, 0.042899709194898605, -0.16632471978664398, 
0.015453252010047436, -0.05300900712609291, -0.04882850870490074, -0.03834608942270279, 0.07850509136915207, 0.13074800372123718, -0.08120051771402359, 
0.01990629732608795, 0.1272251158952713, -0.16536101698875427, -0.10597824305295944, -0.016063431277871132, 0.1287914216518402, 0.015375074930489063, 
-0.04092295840382576, -0.1228918507695198, 0.1304948776960373, -0.07408686727285385, 0.059734344482421875, 0.028764409944415092, 0.417690247297287, 
0.10348231345415115, -0.08196432888507843, -0.05628443509340286, -0.04834362491965294, 0.009837431833148003, 0.01699076034128666, -0.058261748403310776, 
0.026558903977274895, -0.0825563296675682, -0.039715446531772614, -0.12440665811300278, 0.13281840085983276, 0.09680091589689255, -0.018282102420926094, 
0.07975195348262787, 0.07980898022651672, -0.34480366110801697, -0.015115606598556042, 0.05695200338959694, 0.04860721901059151, 0.022493092343211174, 
-0.10012972354888916, -0.0011893793707713485, -0.07872853428125381, 0.095814049243927, 0.06849636137485504, 0.06975901871919632, 0.07393274456262589, 
0.05428920313715935, -0.08505655825138092, 0.05196525529026985, 0.04894431680440903, 0.12323042750358582, 0.17049705982208252, 0.17843547463417053, 
-0.01213029120117426, -0.15071964263916016, 0.05188320204615593, -0.0019988520070910454, -0.05863397568464279, -0.059488214552402496, -0.08356484770774841, 
-0.1115429475903511, 0.039083123207092285, 0.04444825276732445, -0.08498000353574753, -0.13911908864974976, -0.04747815430164337, 0.10822002589702606, 
-0.03490256518125534, 0.13791821897029877, 0.04241826757788658, 0.02203167788684368, 0.01468315813690424, -0.08806928247213364, -0.16756339371204376, 
0.16713441908359528, 0.10842982679605484, 0.042486295104026794, -0.04365774989128113, 0.03638043999671936, 0.0008841052767820656, -0.03346826881170273, 
-0.24836423993110657, -0.20434258878231049, 0.15503059327602386, 0.012837282381951809, -0.1328888088464737, -0.04677167534828186, -0.06214851140975952, 
-0.020800629630684853, -0.08348918706178665, -0.1617487519979477, 0.07779937237501144, -0.10007975250482559, 0.1628129780292511, -0.01508654560893774, 
0.01730276644229889, 0.03604515269398689, -0.1297587752342224, 0.01717858389019966, 0.09679723531007767, -0.09098459780216217, -0.057821448892354965, 
0.07215699553489685, 0.09126044064760208, -0.12678717076778412, -0.06484507769346237, -0.1479552686214447, 0.037093207240104675, 0.1221039742231369, 
0.016328023746609688, 0.030574318021535873, -0.09406059980392456, -0.019609957933425903, 0.056485988199710846, -0.07140282541513443, 0.1747254729270935, 
-0.1555706113576889, -0.011029951274394989, 0.13746002316474915, -0.019472969695925713, -0.0749354362487793, 0.007797539234161377, 0.09828050434589386, 
0.04878495633602142, 0.15698663890361786, -0.018716754391789436, -0.1019115000963211, -0.012460092082619667, 0.023432249203324318, 0.0341397300362587, 
0.03190140426158905, 0.18889003992080688, -0.04592236503958702, 0.05094146355986595, -0.1092011034488678, -0.024895556271076202, -0.1878334879875183, 
0.18213611841201782, -0.08385664969682693, -0.020184101536870003, -0.10638594627380371, 0.06559421122074127, 0.10912636667490005, -0.01019488088786602, 
0.10892226547002792, 0.5328188538551331, 0.14069871604442596, 0.03274150192737579, 0.0934063270688057, 0.15361467003822327, -0.0020670746453106403, 
0.024715481325984, -0.11446481943130493, -0.030422382056713104, -0.06446956098079681, -0.004545554518699646, -0.10937771201133728, -0.01908852346241474, 
-0.07089198380708694, -0.050916098058223724, -0.08105714619159698, 0.08153954148292542, -0.2650623023509979, -0.13940422236919403, -0.01652137190103531, 
0.11882247030735016, -0.018245507031679153, 0.12687106430530548, 0.00973998848348856, -0.05360342934727669, -0.005894347093999386, -0.11095985770225525, 
-0.16129906475543976, 0.11201535165309906, 0.05398949608206749, -0.14640232920646667, -0.15214383602142334, 0.16374129056930542, -0.035207126289606094, 
0.06866323202848434, 0.20718379318714142, -0.06634581834077835, 0.07827450335025787, -0.03749821335077286, 0.09641402214765549, -0.08011189103126526, 
0.10273955762386322, 0.04077230393886566, -0.07587723433971405, 0.18517771363258362, -0.051399391144514084, 0.12841548025608063, 0.2124921679496765, 
0.1216544359922409, -0.10454221069812775, 0.10651390999555588, -0.053641386330127716, 0.01830376498401165, 0.17110353708267212, 0.13199646770954132, 
-0.029845096170902252, 0.15106068551540375, -0.00780282448977232, -0.05047120898962021, 0.00532552320510149, -0.1225435733795166, -0.0009960421593859792, 
0.033476073294878006, -0.010859804227948189, 0.36564481258392334, -0.09631612151861191, -0.13613058626651764, -0.2125161588191986, -0.08799038827419281, 
-1.740598054311704e-05, -0.08818867057561874, 0.011725249700248241, 0.062282320111989975, -0.0668996125459671, 0.18069638311862946, -0.01628843881189823, 
0.018760783597826958, -0.11557324230670929, -0.02251734957098961, -0.07686512917280197, -0.06030428409576416, -0.4289536476135254, 0.15219728648662567, 
0.06181392818689346, -0.0895431712269783, -0.05491497367620468, -0.22020119428634644, 0.03935388848185539, 0.01733427122235298, 0.1923886388540268, 
0.008226921781897545, 0.051625050604343414, 0.08695746213197708, -0.1055111289024353, -0.026128433644771576, -0.0828840360045433, 0.13179495930671692, 
0.08522629737854004, -0.08407093584537506, -0.10675870627164841, -0.039626434445381165, 0.04913561791181564, 0.07473219931125641, 0.1817152053117752, 
-0.10968926548957825, -0.04409683495759964, 0.09226919710636139, -0.03525324538350105, 0.1541976034641266, -0.13915562629699707, -0.004645675886422396, 
0.07406418025493622, 0.05625438690185547, -0.09867823868989944, 0.12773704528808594, -0.04741555452346802, -0.04593736678361893, 0.116446852684021, 
-0.0716647058725357, -0.09282569587230682, 0.2189486026763916, -0.14108946919441223, 0.01847728155553341, -0.1163971796631813, -0.02357538975775242, 
-0.08122246712446213, 0.02366011030972004, -0.08425707370042801, 0.394965797662735, -0.0007046655518934131, -0.10655959695577621, 0.09340260922908783, 
-0.0138351796194911, -0.00929949525743723, -0.07652463763952255, 0.09222850948572159, 0.1620917171239853, 0.10004068911075592, 0.02705312706530094, 
0.2113952338695526, -0.025510748848319054, 0.09136111289262772, -0.1433437019586563, 0.006459243129938841, -0.08483491092920303, -0.2506507933139801, 
0.007126451004296541, 0.1312367469072342, -0.06434743106365204, -0.10778573155403137, -0.07134238630533218, 0.1665094494819641, 0.12177076935768127, 
0.0012819390976801515, -0.015415290370583534, 0.059480734169483185, -0.07029295712709427, -0.021872425451874733, -0.07318029552698135, 0.018900703638792038, 
0.09231225401163101, 0.030340097844600677, -0.19032657146453857, -0.054921090602874756, -0.000930960348341614, -0.07067245244979858, -0.13700270652770996, 
0.1392705738544464, -0.025180356577038765, -0.02210848405957222, 0.02568262629210949, 0.011284109205007553, 0.022938711568713188, -0.038804300129413605, 
-0.1881578266620636, 0.1338035762310028, -0.07029588520526886, -0.05942009389400482, 0.07464540004730225, -0.00609580846503377, -0.03901483118534088, 
0.12390430271625519, 0.07834257930517197, 0.027979396283626556, 0.06200176849961281, -0.16432523727416992, 0.04900059849023819, -0.023865388706326485, 
-0.06492294371128082, -0.054339051246643066, -0.05275031179189682, -0.03979525715112686, -0.15819507837295532, 0.03969179093837738, 0.07108338922262192, 
0.14332853257656097, 0.04103279858827591, 0.027463790029287338, -0.040138255804777145, -0.09276777505874634, 0.025030001997947693, -0.06529310345649719, 
0.06788478046655655, 0.028096873313188553, -0.03492669761180878, -0.06497614085674286, 0.039955925196409225, 0.056972380727529526, 0.07368217408657074, 
0.029373014345765114, -0.0124221071600914, 0.09960192441940308, 0.10061585903167725, -0.06342074275016785, 0.042817696928977966, -0.11785712838172913, 
-0.1658076047897339, 0.11080291122198105, 0.0959148034453392, -0.031691282987594604, 0.001807988272048533, 0.09774097055196762, -0.07476431131362915, 
-0.10703136771917343, 0.12505421042442322, -0.0859423279762268, 0.09574702382087708, -0.1050400361418724, 0.07209260016679764, 0.048617057502269745, 
0.0022273939102888107, -0.1513167917728424, 0.05872155725955963, -0.005807222332805395, 0.08561848849058151, 0.018450111150741577, -0.06729564815759659, 
-0.006563518196344376, -0.08809646964073181, -0.007996360771358013, -0.02862256020307541, -0.03282126411795616, 0.10089084506034851, 0.02397426962852478, 
-0.11889953166246414, 0.026048505678772926, -0.10070537775754929, 0.013170789927244186, -0.07053249329328537, 0.03773369640111923, 0.06917846202850342, 
-0.0822926014661789, 0.13751575350761414, 0.12892962992191315, 0.15150649845600128, -0.018779542297124863, -0.03486932814121246, 0.15808384120464325, 
0.047462787479162216, 0.12721431255340576, -0.09706567227840424, -0.03738873451948166, 0.14786434173583984, 0.02126344107091427, 0.03136459365487099, 
0.08540642261505127, -0.06840676814317703, -0.023431099951267242, -0.028857896104454994, -0.008317203260958195, 0.0176839642226696, 0.03643663600087166, 
-0.02336210012435913, -0.063402459025383, -0.007531945127993822, -0.016256872564554214, 0.010042444802820683, -0.09750469028949738, 0.04965723678469658, 
-0.07051591575145721, -0.013981214724481106, 0.07398651540279388, -0.019696835428476334, 0.05699782073497772, 0.039578553289175034, -0.09278310835361481, 
-0.049654893577098846, -0.13401921093463898, 0.05173826962709427, -0.11220074445009232, -0.026046620681881905, 0.016438206657767296, 0.08213312178850174, 
0.048175372183322906, -0.08400223404169083, -0.136155903339386, 0.04474541172385216, 0.05176563188433647, 0.08671628683805466, 0.06279044598340988, 
-0.17970968782901764, -0.014125279150903225, 0.009787239134311676, -0.1472623348236084, 0.02720271609723568, 0.14779144525527954, 0.1352991759777069, 
0.048708900809288025, -0.059760503470897675, 0.047248080372810364, 0.04566413536667824, -0.13879573345184326, -0.06565821170806885, 0.09036292135715485, 
0.09728053957223892, 0.07042181491851807, -0.013965621590614319, -0.07535906136035919, 0.11154855787754059, -0.0935378223657608, -0.019770322367548943, 
0.019752012565732002, -0.06877698749303818, -0.10743337869644165, 0.041668374091386795, 0.10002753138542175, 0.09120693802833557, -0.04192180186510086, 
-0.06879199296236038, 0.0024292361922562122, 0.11770376563072205, -0.13809171319007874, 0.021373726427555084, -0.028019003570079803, 0.11805228143930435, 
0.02429288439452648, 0.09287257492542267, -0.09123659878969193, -0.12917053699493408, -0.010548225603997707, -0.061994247138500214, 0.017727117985486984, 
0.1551530361175537, -0.04261494055390358, 0.09753663837909698, -0.06266859173774719, 0.07817170023918152, -0.013234189711511135, 0.020566754043102264, 
-0.0667351558804512, 0.11255361139774323, -0.09884807467460632, 0.04851018637418747, 0.031088843941688538, -0.12473460286855698, -0.07790467888116837, 
-0.09789282083511353, -0.06516462564468384, -0.07505970448255539, -0.12613855302333832, 0.1312057077884674, -0.09064047783613205, -0.0831916406750679, 
-0.004314907360821962, 0.06911933422088623, 0.04553073272109032, -0.06511557847261429, -0.08269722759723663, -0.033755168318748474, -0.019600767642259598, 
0.11007166653871536, 0.08886350691318512, 0.06357811391353607, 0.048092570155858994, -0.02772747538983822, 0.002343507017940283, -0.05969579145312309, 
-0.09897986054420471, -0.12691348791122437, -0.056296613067388535, 0.02429470233619213, 0.13245418667793274, 0.1193268746137619, -0.1200035810470581, 
0.0374634675681591, 0.17704907059669495, 0.07172758877277374, 0.04400404915213585, 0.10760024189949036, -0.08473394811153412, -0.04477069154381752, 
0.12147846817970276, -0.13544310629367828, -0.04941432178020477, -0.08227618038654327, -0.09825018048286438, -0.11467117071151733, 0.12554602324962616, 
0.08382686972618103, 0.09714992344379425, -0.015827616676688194, -0.16463495790958405, -0.0021091769449412823, 0.008143237791955471, 0.11682119220495224, 
0.0041653746739029884, 0.11930564790964127, -0.11248847097158432, -0.032355524599552155, -0.007114824838936329, -0.09387058764696121, -0.12829507887363434, 
-0.010896061547100544, 0.06413685530424118, -0.05429629608988762, 0.020193908363580704, -0.07213197648525238, 0.09424930065870285, -0.07053782790899277, 
-0.04888218641281128, -0.03925786912441254, 0.04931274428963661, -0.017827177420258522, -0.12402987480163574, 0.07511141896247864, -0.08179396390914917, 
0.0008286023512482643, -0.08130659908056259, -0.1467428207397461, 0.09010447561740875, 0.09570445865392685, -0.07781337201595306, -0.0014232501853257418, 
-0.09383878856897354, -0.04213074594736099, -0.011357072740793228, -0.014508839696645737, -0.11187547445297241, -0.11496609449386597, 0.07213862985372543, 
-0.09110426902770996, 0.06404044479131699, -0.049027711153030396, 0.012765244580805302, 0.017099887132644653, -0.06765948981046677, 0.2150605469942093, 
0.121079221367836, 0.17480288445949554, -0.005081867799162865, 0.019232043996453285, 0.00514691136777401, -0.10327987372875214, -0.11124922335147858, 
0.07683218270540237, 0.046059105545282364, 0.16150759160518646, 0.11020677536725998, -0.06536175310611725, -0.02439926750957966, 0.12882940471172333, 
0.060870591551065445, -0.001975881401449442, -0.10657612234354019, -0.05241207778453827, 0.054667603224515915, -0.023668084293603897, 0.06590036302804947, 
-0.16115400195121765, -0.07828705757856369, -0.1585119515657425, 0.05466517433524132, 0.2407177984714508, 0.0850088819861412, 0.055903345346450806, 
0.11543507128953934, 0.060392070561647415, -0.10598591715097427, -0.012238139286637306, -0.02466818504035473, -0.012774172239005566, -0.02956574223935604, 
0.01476384699344635, 0.1626170128583908, 0.10326233506202698, 0.10731897503137589, -0.10010295361280441, 0.16836144030094147, 0.06178766489028931, 
-0.007963408716022968, 0.09879365563392639, -0.013944320380687714, -0.13682474195957184, 0.07750388979911804, 0.0013849922688677907, -0.1062217578291893, 
0.05528821796178818, 0.0503842756152153, 0.12089060992002487, 0.05304570123553276, -0.02385825477540493, 0.19180937111377716, -0.04818061739206314, 
-0.07398106157779694, -0.03964970260858536, -0.030195288360118866, 0.07375823706388474, 0.05154075473546982, 0.08700086176395416, 0.020150473341345787, 
-0.002118821255862713, -0.0741480216383934, -0.055696967989206314, -0.05307667702436447, -0.08657970279455185, -0.012167726643383503, -0.06673659384250641, 
0.09749197214841843, 0.059640415012836456, 0.08742998540401459, -0.029651081189513206, 0.008898472413420677, -0.0678039938211441, -0.20089463889598846, 
0.0554148368537426, 0.10931320488452911, 0.0066963802091777325, 0.11096026748418808, 0.11236263066530228, -0.10603661835193634, 0.056085437536239624, 
-0.10747896879911423, 0.0020386255346238613, 0.022972136735916138, 0.12974494695663452, -0.08427271246910095, 0.13686199486255646, -0.05164599046111107, 
-0.06452366709709167, 0.0032483763061463833, 0.1374192237854004, 0.09976855665445328, 0.15040917694568634, 0.0866929441690445, 0.06583964824676514, 
-0.10667723417282104, 0.0015632532304152846, -0.005431599449366331, -0.06921945512294769, 0.09891471266746521, -0.042210500687360764, -0.07166995853185654, 
0.025005772709846497, 0.08726281672716141, -0.036328885704278946, -0.026729082688689232, -0.005276433192193508, -0.05658787488937378, -0.1340389847755432, 
0.09724155068397522, -0.03386330232024193, -0.1402559131383896, 0.09110090881586075, -0.11650898307561874, -0.07219213247299194, 0.16424180567264557, 
0.08633886277675629, -0.15726132690906525, 0.05368439480662346, -0.13489902019500732, 0.057634029537439346, -0.12078683078289032, 0.007642826996743679, 
0.11334311217069626, -0.059649839997291565, 0.010567951016128063, -0.020981207489967346, 0.17599840462207794, -0.02337469346821308, 0.11710592359304428, 
0.009185499511659145, -0.06828182190656662, 0.15067116916179657, 0.0865771472454071, -0.0808287039399147, -0.07900439202785492, -0.13533072173595428, 
-0.03603597357869148, 0.06159526854753494, 0.10054609179496765, 0.06793282181024551, -0.05489243194460869, -0.04896991699934006, -0.1161181777715683, 
0.030438968911767006, -0.06309546530246735, 0.004010067321360111, 0.021537579596042633, 0.14069220423698425, -0.01610245183110237, -0.015080767683684826, 
-0.0973028615117073, -0.09709672629833221, 0.02945183962583542, -0.08152711391448975, 0.16046088933944702, 0.027678068727254868, -0.008897313848137856, 
0.06111062690615654, -0.028773171827197075, 0.031012332066893578, 0.07624474912881851, 0.11816667765378952, -0.08373532444238663, 0.0653020516037941, 
-0.08737828582525253, 0.089542917907238, -0.04433305561542511, 0.03402181342244148, -0.005316467955708504, 0.11333958804607391, -0.1041065901517868, 
-0.06959094852209091, -0.09317120164632797, 0.02196885272860527, -0.02477806992828846, 0.025579435750842094, 0.1020871177315712, 0.09394557029008865, 
-0.20166514813899994, -0.08789220452308655, -0.07802420854568481, 0.07684291154146194, 0.11181502789258957, -0.10408022254705429, 0.06736043095588684, 
0.022223394364118576, -0.03618426248431206, -0.0411142073571682, -0.05083094537258148, 0.18032515048980713, -0.08270400017499924, 0.05730176344513893, 
0.1620548665523529, -0.06290754675865173, 0.005098114721477032, 0.07296500355005264, 0.023967018350958824, 0.012321545742452145, -0.06838822364807129, 
-0.06974862515926361, -0.06283798813819885, 0.002349055605009198, 0.07644177228212357, 0.11197898536920547, 0.08395966142416, 0.042306963354349136, 
0.025374356657266617, -0.07061522454023361, -0.030457105487585068, 0.13353104889392853, -0.10638145357370377, -0.014339860528707504, -0.09401005506515503, 
-0.09996645152568817, 0.02463793382048607, 0.028666548430919647, -0.016999294981360435, 0.08916705846786499, -0.01387148629873991, -0.12038243561983109, 
-0.022765180096030235, 0.09654463082551956, 0.060417767614126205, -0.0032064036931842566, 0.00484795868396759, -0.07103486359119415, -0.14246785640716553, 
-0.02223830483853817, 0.011012107133865356, 0.037010807543992996, 0.051923081278800964, -0.15895269811153412, -0.06195974349975586, 0.04927944391965866, 
-0.0872233435511589, -0.04603337496519089, -0.1109754666686058, 0.059790320694446564, 0.1442916989326477, 0.11469004303216934, -0.10976336896419525, 
-0.02500498667359352, -0.1368788629770279, 0.0003942041366826743, 0.06840594857931137, 0.10579530894756317, -0.02217014878988266, 0.10895560681819916, 
0.020434971898794174, 0.10931405425071716, -0.011405601166188717, 0.050914932042360306, 0.038164105266332626, -0.007170362398028374, -0.031310711055994034, 
-0.0032362716738134623, -0.14315418899059296, 0.06450018286705017, 0.013498576357960701, 0.00775537732988596, 0.11052832752466202, 0.013815270736813545, 
-0.07688253372907639, 0.07264441251754761, -0.09504180401563644, -0.017772836610674858, 0.0878092423081398, -0.11035050451755524, 0.042562827467918396, 
0.027246300131082535, -0.09385045617818832, 0.04365653544664383, -0.14975258708000183, -0.11033932119607925, -0.13521291315555573, 0.11751488596200943, 
0.031992942094802856, 0.03918341547250748, -0.019872194156050682, -0.11157272756099701, -0.09820590168237686, 0.0744885578751564, 0.11950251460075378, 
0.13135671615600586, -0.0695640966296196, 0.03404196351766586, -0.008654259145259857, 0.025674529373645782, 0.08832207322120667, 0.016848966479301453, 
0.04940200597047806, 0.04690452665090561, -0.07932847738265991, 0.005458978470414877, 0.009771027602255344, -0.037609588354825974, -0.012556597590446472, 
0.0695779100060463, -0.035909079015254974, 0.11140745878219604, 0.09853743761777878, -0.024183182045817375, 0.048210423439741135, -0.028201419860124588, 
0.0844375416636467, -0.04447297751903534, -0.05095268413424492, -0.06681434065103531, 0.030307365581393242, 0.06608932465314865, 0.0904541090130806, 
0.039643794298172, -0.12564067542552948, -0.04608951508998871, 0.07892598956823349, 0.05130145698785782, 0.061175573617219925, 0.1167798563838005, 
0.0746840238571167, 0.039148472249507904, 0.12887132167816162, -0.1138877272605896, -0.06582651287317276, 0.10628434270620346, 0.0006594477454200387, 
-0.11951801925897598, 0.014037282206118107, -0.04613032937049866, 0.06321227550506592, -0.14741206169128418, -0.04697946831583977, 0.12892208993434906, 
-0.014998075552284718, -0.09642107784748077, 0.010688194073736668, 0.055645205080509186, 0.0732167586684227, 0.02809557132422924, 0.06764701753854752, 
0.13061244785785675, 0.05679714307188988, -0.08256971091032028, -0.11391740292310715, -0.01856902427971363, -0.08872130513191223, -0.11109792441129684, 
0.027729935944080353, -0.11496100574731827, -0.10541409999132156, -0.10609593242406845, -0.04430961236357689, -0.06847365945577621, -0.08175423741340637, 
0.06728152185678482, -0.04573559761047363, -0.08111259341239929, 0.030093079432845116, 0.07465656846761703, 0.12357380241155624, -0.09443607926368713, 
-0.10088305175304413, 0.15751805901527405, 0.006904551759362221, 0.12315640598535538, 0.044776055961847305, -0.011478387750685215, -0.04183385521173477, 
-0.053546395152807236, 0.03857472166419029, -0.06115817651152611, -0.15789124369621277, 0.09415147453546524, 0.1161775216460228, -0.02613396942615509, 
0.07748915255069733, 0.08465041220188141, -0.06576460599899292, 0.020753677934408188, -0.07500003278255463, -0.11143554747104645, 0.05688504874706268, 
0.046434033662080765, 0.08681046962738037, 0.07559505105018616, 0.10611172765493393, -0.0972258523106575, 0.053571559488773346, -0.02116229012608528, 
-0.0039247870445251465, -0.07936668395996094, 0.09275925904512405, 0.03579410910606384, 0.0011476544896140695, -0.2449139803647995, 0.04025953635573387, 
0.06310630589723587, 0.12313168495893478, -0.013879607431590557, 0.12794676423072815, -0.055075753480196, -0.05412302166223526, 0.11581101268529892, 
0.11172597110271454, 0.033959489315748215, 0.007411902770400047, -0.15150175988674164, -0.012371096760034561, 0.052966367453336716, -0.012832816690206528, 
0.029743799939751625, -0.016241751611232758, -0.0418541245162487, 0.014067292213439941, 0.13807033002376556, 0.12319066375494003, 0.028052540495991707, 
-0.12444121390581131, -0.0908178761601448, 0.08483918011188507, 0.02376173622906208, 0.13005343079566956, -0.13982433080673218, 8.383411477552727e-05, 
-0.020277293398976326, -0.024450758472085, 0.12336479872465134, -0.05266719311475754, 0.07987856864929199, -0.05552026629447937, -0.05715792253613472, 
0.04078060761094093, -0.10962951183319092, -0.04851458594202995, -0.1933044046163559, 0.2127404659986496, -0.03284718841314316, 0.12681281566619873, 
-0.016668925061821938, -0.06729772686958313, -0.10512488335371017, -0.0823623314499855, 0.05006273835897446, -0.06677347421646118, 0.0771365612745285, 
0.06878575682640076, -0.1724405437707901, -0.08667489886283875, 0.055764611810445786, -0.05370725318789482, 0.02712622657418251, -0.016957750543951988, 
0.12624318897724152, -0.11524847894906998, -0.11924097687005997, -0.08013654500246048, 0.08649396151304245, -0.016199711710214615, -0.013444083742797375, 
0.10855361074209213, 0.010725025087594986, -0.11346423625946045, -0.04718097299337387, 0.04400601610541344, -0.021353164687752724, 0.16702011227607727, 
-0.07038546353578568, -0.05647466331720352, -0.006231779232621193, 0.07687731087207794, 0.028910720720887184, -0.06080744415521622, 0.10004515200853348, 
-0.014262150041759014, -0.11061186343431473, 0.13688619434833527, -0.1236761137843132, -0.06262678653001785, 0.0948297455906868, -0.10268444567918777, 
0.1379334181547165, -0.07963364571332932, -0.04558283090591431, -0.017843490466475487, -0.12652628123760223, -0.01827729307115078, 0.05030039697885513, 
0.02743850089609623, -0.01771005056798458, -0.05092884600162506, 0.07453557103872299, -0.0904705822467804, -0.01792042888700962, 0.010291430167853832, 
0.015907861292362213, -0.09610636532306671, -0.06820455193519592, 0.026450183242559433, 0.02904811128973961, -0.016745805740356445, -0.060877349227666855, 
0.050247881561517715, 0.04581768438220024, 0.06909918785095215, 0.08736983686685562, -0.09930938482284546, 0.05467779561877251, -0.02931920625269413, 
-0.15343627333641052, -0.002034512348473072, 0.07473587989807129, 0.03731255233287811, 0.07990647852420807, 0.09571314603090286, -0.08822286128997803, 
0.06551902741193771, -0.06314187496900558, 0.05199587345123291, -0.04433804377913475, -0.058294039219617844, -0.027525410056114197, -0.018171824514865875, 
0.010768636129796505, 0.039920393377542496, -0.05948074534535408, -0.09083428978919983, -0.07541946321725845, 0.0655067041516304, -0.030498499050736427, 
0.00443942379206419, -0.011647351086139679, 0.10142224282026291, -0.07282097637653351, -0.07409226149320602, 0.06818170845508575, 0.12386777251958847, 
0.04792545735836029, 0.03114933706820011, -0.050030242651700974, -0.07506614178419113, -0.09594015777111053, 0.14930786192417145, 0.023755138739943504, 
-0.11528058350086212, 0.027169980108737946, 0.0221732035279274, -0.03527258336544037, -0.0894402265548706, -0.045446403324604034, 0.00037090599653311074, 
0.10196772962808609, 0.013251555152237415, 0.08668220043182373, 0.0694018006324768, -0.10050683468580246, 0.09708791971206665, 0.03365304321050644, 
0.11984395235776901, -0.043606314808130264, -0.11435934901237488, 0.08272122591733932, -0.11654824018478394, -0.04658275097608566, 0.27422791719436646, 
-0.07056291401386261, 0.09949757903814316, -0.018780577927827835, 0.030764702707529068, 0.046222660690546036, 0.06223796308040619, -0.14263096451759338, 
0.006574881263077259, 0.10964029282331467, -0.1180686354637146, -0.007610272150486708, -0.1429850161075592, 0.05728142336010933, 0.06371486186981201, 
-0.09170179814100266, -0.1400124728679657, 0.07472109794616699, -0.16328562796115875, 0.21342991292476654, 0.14230763912200928, -0.03436091169714928, 
-0.023403283208608627, 0.016184667125344276, 0.08302798867225647, -0.018757015466690063, -0.22059588134288788, 0.05960144102573395, 0.06362102180719376, 
0.0791553482413292, -0.040933530777692795, -0.04385818913578987, -0.09395243972539902, -0.12322912365198135, -0.10642814636230469, 0.0712713748216629, 
0.01758134551346302, -0.06617093831300735, 0.030359946191310883, -0.06536485999822617, -0.13211320340633392, -0.03359280526638031, -0.060187045484781265, 
-0.057469550520181656, -0.059073977172374725, 0.09500657021999359, -0.015049176290631294, 0.03555690124630928, 0.07981199771165848, -0.06429658830165863, 
0.07365967333316803, -0.003988209180533886, -0.037887148559093475, 0.08187267929315567, 0.14723598957061768, 0.041563235223293304, -0.11050856858491898, 
-0.08558400720357895, 0.11060137301683426, -0.044556811451911926, -0.09742103517055511, -0.1241241917014122, 0.06455162912607193, -0.1432185173034668, 
0.1658516228199005, -0.10195368528366089, 0.15546409785747528, -0.06432686001062393, 0.0015277971979230642, -0.08088942617177963, 0.08356614410877228, 
0.06079055741429329, -0.12424170225858688, -0.13777635991573334, 0.018559658899903297, -0.11289627850055695, -0.03259705752134323, 0.04306071251630783, 
-0.07974322140216827, 0.09641417115926743, 0.0895676538348198, -0.11069447547197342, -0.11490172147750854, 0.074945367872715, -0.0780755877494812, 
0.044960759580135345, 0.07139191776514053, -0.12535397708415985, 0.0695699080824852, -0.10786525905132294, 0.0772053524851799, -0.0060966480523347855, 
-0.10488108545541763, -0.024353493005037308, -0.015469523146748543, 0.020541531965136528, 0.029004640877246857, 0.07545915991067886, 0.11238539218902588, 
-0.1696547418832779, 0.1268421709537506, 0.0904676541686058, 0.08399888873100281, 0.029071584343910217, 0.11833042651414871, 0.02562178112566471, 
0.012758119031786919, 0.018072230741381645, 0.04647325724363327, 0.13308797776699066, -0.13851255178451538, -0.04279840365052223, -0.1299043446779251, 
-0.09968501329421997, -0.11519055813550949, -0.04968886449933052, 0.07544959336519241, -0.024803783744573593, 0.10373804718255997, -0.03730139881372452, 
0.09456760436296463, -0.06519293785095215, 0.05433725565671921, 0.057310350239276886, 0.006650062277913094, 0.06666542589664459, -0.030983755365014076, 
0.06004257872700691, 0.019651448354125023, -0.13280001282691956, -0.1212763711810112, -0.007653157692402601, -0.07287409156560898, 0.04654683172702789, 
-0.14387571811676025, -0.07022634148597717, 0.024969056248664856, 0.015315446071326733, -0.0011175551917403936, 0.20942215621471405, 0.004245510324835777, 
0.02977798692882061, -0.06323006004095078, -0.12412074953317642, -0.011290028691291809, 0.06379882246255875, 0.06027960032224655, 0.06421954184770584, 
-0.02952348254621029, -0.12111105769872665, 0.0031777312979102135, 0.01947067491710186, -0.11379935592412949, -0.09557196497917175, -0.033149126917123795, 
-0.07956225425004959, -0.17953242361545563, -0.06473354250192642, 0.02385852113366127, 0.02620667964220047, -0.08189817517995834, -0.128329336643219, 
-0.012786696664988995, 0.0005083461874164641, -0.07575424760580063, 0.07663984596729279, -0.05388499051332474, -0.05254129692912102, 0.1111704632639885, 
-0.00985046848654747, 0.07837382704019547, -0.030503682792186737, 0.11090639233589172, -0.05401582270860672, -0.07088276743888855, -0.10498817265033722, 
-0.01702350564301014, -0.0627809688448906, -0.07994144409894943, -0.015588688664138317, 0.04957640543580055, 0.059386130422353745, 0.07261591404676437, 
-0.04118810221552849, -0.08118068426847458, 0.12904049456119537, 0.012837839312851429, 0.01997426338493824, 0.061897579580545425, 0.14816436171531677, 
-0.05639189854264259, 0.13382336497306824, -0.09143607318401337, -0.008361712098121643, -0.018822258338332176, -0.06617643684148788, -0.06763982027769089, 
0.130662739276886, -0.08543524891138077, -0.09281358867883682, 0.1294853240251541, -0.014800759963691235, -0.013247191905975342, -0.09061122685670853, 
-0.11573575437068939, -0.028212299570441246, 0.07285980880260468, -0.03723728284239769, -0.06785860657691956, 0.03038475103676319, 0.0679527297616005, 
0.08203121274709702, 0.0601847879588604, -0.06070692837238312, -0.01894967444241047, 0.07408080995082855, 0.034868646413087845, -0.09529101848602295, 
-0.0970454216003418, 0.0748860090970993, 0.021714333444833755, -0.09646901488304138, 0.06841756403446198, -0.07873337715864182, 0.03465903177857399, 
0.026195760816335678, -0.08030106127262115, 0.04756925627589226, -0.07643259316682816, -0.005305818282067776, -0.060409896075725555, 0.16258525848388672, 
0.07796911895275116, 0.08498977869749069, -0.029718995094299316, -0.050932738929986954, 0.05494268611073494, -0.011838175356388092, 0.04764900356531143, 
0.124033123254776, -0.024930676445364952, -0.062376752495765686, -0.10005131363868713, -0.0507894828915596, 0.037830546498298645, 0.08955589681863785, 
0.02433941699564457, 0.022967852652072906, -0.04079204052686691, 0.11436186730861664, 0.09172005206346512, -0.03810654208064079, 0.027210356667637825, 
-0.11744903028011322, 0.14970172941684723, -0.05026772618293762, -0.3150346577167511, -0.03964688256382942, -0.09257232397794724, -0.07652595639228821, 
0.019269607961177826, 0.0004880401829723269, 0.09685981273651123, -0.01006582472473383, 0.07277151197195053, -0.06895637512207031, -0.08930374681949615, 
-0.07832175493240356, 0.06598396599292755, -0.09783187508583069, -0.05886205658316612, 0.007621126715093851, 0.03507906571030617, 0.05001707002520561, 
0.05593964457511902, -0.05383062735199928, -0.0840006172657013, 0.04052160307765007, -0.06518383324146271, -0.026789898052811623, -0.06612672656774521, 
0.048514578491449356, 0.1051488146185875, 0.055785488337278366, 0.10741115361452103, -0.01393851824104786, 0.0536862388253212, 0.055483151227235794, 
-0.03485187143087387, -0.15146082639694214, 0.07239408791065216, -0.02758907899260521, 0.0747702345252037, -0.08300527930259705, 0.1369234174489975, 
0.10649930685758591, -0.08889440447092056, -0.14307698607444763, -0.008276057429611683, 0.1508118212223053, 0.011404283344745636, -0.09563054144382477, 
0.09389108419418335, -0.0009010006324388087, -0.023513227701187134, -0.028644464910030365, 0.01598360762000084, -0.00978576485067606, -0.032273780554533005, 
-0.06380315870046616, 0.00341983325779438, -0.0042501529678702354, -0.013197475112974644, 0.01166752353310585, 0.05881725996732712, -0.14746567606925964, 
-0.03151173144578934, -0.06688173860311508, -0.0007770847296342254, -0.015309033915400505, 0.1037326529622078, -0.09948134422302246, 0.12981708347797394, 
0.023947419598698616, -0.15337669849395752, 0.10947485268115997, 0.060043852776288986, 0.008274892345070839, 0.04904409497976303, 0.011358175426721573, 
-0.02476310543715954, 0.015555044636130333, -0.028375308960676193, -0.06131646782159805, 0.003155192593112588, 0.1420600563287735, 0.005943384952843189, 
0.11700449138879776, -0.08839216083288193, -0.12327998876571655, 0.08002758026123047, -0.05164327844977379, 0.08030328154563904, -0.11958160996437073, 
-0.04601220786571503, 0.021353011950850487, 0.048211172223091125, 0.121949203312397, 0.08555614203214645, 0.01730310171842575, 0.03634117916226387, 
0.04281213879585266, -0.0814695730805397, -0.05805813893675804, 0.020974064245820045, -0.06365896761417389, 0.08717896789312363, -0.057010333985090256, 
0.03889243304729462, -0.09768767654895782, -0.06902884691953659, 0.03826126828789711, 0.03541284054517746, 0.11348537355661392, 0.09575749933719635, 
0.1392536759376526, -0.06340702623128891, 0.08443283289670944, 0.0560295507311821, 0.016667474061250687, 0.022977134212851524, 0.06577841937541962, 
0.0633598044514656, 0.045367397367954254, 0.08285893499851227, 0.10247501730918884, -0.0903640165925026, 0.08367536216974258, -0.04273555427789688, 
-0.054135292768478394, 0.0228041373193264, -0.07490315288305283, -0.04183120280504227, -0.05000123381614685, -0.1420331448316574, 0.013713800348341465, 
0.07452525943517685, 0.08094795048236847, 0.10132932662963867, 0.09834261238574982, -0.09428420662879944, 0.005814475938677788, 0.03967215120792389, 
0.024699019268155098, 0.002037055091932416, -0.10972321778535843, -0.08539915829896927, 0.04256228730082512, 0.040525104850530624, 0.12084288150072098, 
-0.01100580208003521, -0.056955985724925995, -0.006180102005600929, -0.0723181813955307, -0.003364912234246731, -0.08542431890964508, 0.11417876929044724, 
0.1368316411972046, 0.09489922970533371, 0.04406868666410446, -0.04218670353293419, 0.06023988127708435, 0.2033672034740448, -0.024173786863684654, 
-0.07461553812026978, -0.12793180346488953, 0.01662295125424862, 0.07276906073093414, -0.0724710151553154, 0.1411832869052887, 0.06408340483903885, 
0.009583801962435246, 0.02749212086200714, -0.028310375288128853, -0.025841308757662773, 0.05146635323762894, -0.07436823844909668, 0.07162546366453171, 
0.006655316334217787, -0.020098097622394562, -0.1121130883693695, -0.03524082899093628, 0.10456705093383789, -0.05910636857151985, 0.06862612813711166, 
0.05057947710156441, 0.02530699223279953, -0.04399930313229561, 0.125453382730484, -0.0073957741260528564, 0.0018019156996160746, -0.04833504930138588, 
-0.12506672739982605, -0.029299812391400337, -0.009159412235021591, -0.03214341029524803, -0.024008527398109436, -0.03651503846049309, -0.13583038747310638, 
0.0671423003077507, -0.0857795849442482, 0.061490487307310104, -0.05410557612776756, 0.08369598537683487, -0.0654396265745163, 0.0938667580485344, 
0.05848143249750137, -0.0708959773182869, -0.06664837151765823, -0.03167276829481125, 0.017227478325366974, -0.08403564989566803, 0.10402193665504456, 
-0.004749946296215057, 0.07188829034566879, -0.032395344227552414, 0.1524345874786377, 0.0386771634221077, -0.026317646726965904, -0.027761217206716537, 
-0.029985032975673676, -0.1744515299797058, -0.11481650173664093, 0.12897758185863495, 0.051150981336832047, 0.022035345435142517, -0.1164042130112648, 
-0.0978555753827095, 0.10968798398971558, 0.037198733538389206, -0.08909071981906891, -0.02561461739242077, 0.04268908500671387, -0.006453119684010744, 
-0.015634635463356972, 0.03008376993238926, 0.017545849084854126, 0.06771492213010788, 0.02538137137889862, 0.08533819019794464, -0.05735936015844345, 
0.017697254195809364, -0.031775351613759995, -0.08308391273021698, 0.01961776241660118, 0.038869552314281464, -0.10641809552907944, 0.006630964111536741, 
-0.027226151898503304, 0.0890250876545906, -0.0666469857096672, -0.1321800947189331, 0.010215893387794495, -0.017900092527270317, 0.04001126065850258, 
0.02655516378581524, -0.10397689789533615, -0.07603761553764343, -0.009423399344086647, -0.003831245703622699, 0.1643504500389099, 0.03180069476366043, 
-0.05282833054661751, -0.10992854833602905, -0.0756983608007431, -0.0018321548122912645, 0.005437950603663921, -0.13390424847602844, 0.09960214048624039, 
-0.062270764261484146, -9.284555562771857e-05, 0.10812268406152725, 0.030818114057183266, -0.057622943073511124, -0.060003843158483505, -0.05814850702881813, 
-0.05165329948067665, -0.0009018756682053208, 0.02175804413855076, 0.11630488932132721, -0.052370212972164154, -0.12614277005195618, -0.07778824865818024, 
-0.048115093261003494, 0.1214720606803894, 0.09720318764448166, -0.05812188982963562, 0.12531675398349762, 0.09194589406251907, -0.025828145444393158, 
0.09459313005208969, 0.05888746678829193, -0.03536783903837204, 0.010106961242854595, 0.10735852271318436, -0.07608730345964432, -0.0547649972140789, 
0.14004318416118622, 0.0020682504400610924, -0.06811117380857468, -0.052613966166973114, 0.0920741856098175, -0.0967562273144722, 0.09409822523593903, 
0.015477238222956657, -0.1308630257844925, -0.10149039328098297, -0.0871303454041481, 0.04804539680480957, 0.041518017649650574, 0.10977151244878769, 
-0.05131559818983078, -0.11937818676233292, -0.0036773066967725754, 0.05959530919790268, 0.07860711961984634, 0.022679997608065605, 0.049325671046972275, 
-0.12404491007328033, 0.09706907719373703, -0.03142799809575081, -0.0401371605694294, -0.056529849767684937, -0.05362211912870407, 0.02986743673682213, 
-0.025525130331516266, -0.09621727466583252, 0.012217116542160511, -0.16586481034755707, -0.04844307154417038, -0.06564789265394211, 0.15683382749557495, 
-0.12109792977571487, -0.03955408185720444, 0.07854226976633072, 0.07646448165178299, 0.02455320954322815, 0.03317030146718025, 0.11888135969638824, 
0.025546878576278687, -0.057588569819927216, 0.009927061386406422, -0.10645727813243866, 0.13646122813224792, -0.04103779420256615, -0.03131928667426109, 
0.03474573418498039, -0.1217174157500267, -0.043423160910606384, 0.08476806432008743, 0.07106216251850128, 0.09107672423124313, 0.05541693791747093, 
-0.11743510514497757, 0.07744904607534409, 0.12179422378540039, 0.008379848673939705, 0.048937682062387466, 0.048677071928977966, 0.055148202925920486, 
-0.10776036977767944, -0.013068179599940777, -0.07097050547599792, -0.09758000820875168, -0.09840452671051025, -0.09673865139484406, 0.08524983376264572, 
0.13030703365802765, -0.16415292024612427, -0.020760968327522278, -0.0480739064514637, -0.06017126888036728, 0.0763346403837204, 0.040666040033102036, 
0.07579239457845688, 0.11635593324899673, 0.07591071724891663, -0.08277810364961624, 0.02619531936943531, 0.02407810464501381, 0.020573126152157784, 
0.03939821198582649, 0.06417134404182434, -0.0014331372221931815, -0.07248015701770782, 0.13161781430244446, 0.148346409201622, 0.055584970861673355, 
0.0028726982418447733, 0.01734025776386261, -0.15505839884281158, -0.12290799617767334, -0.06845202296972275, -0.068919338285923, 0.026786576956510544, 
-0.08292341232299805, -0.06492636352777481, 0.11561934649944305, 0.022639047354459763, 0.12747421860694885, -0.01271912083029747, 0.1070231944322586, 
-0.06695851683616638, 0.12585368752479553, -0.026784831658005714, -0.07903296500444412, 0.10500378161668777, -0.033897772431373596, 0.11063096672296524, 
-0.04226111248135567, 0.09098609536886215, 0.004709312226623297, -0.10309972614049911, 0.12651687860488892, -0.04344283044338226, 0.06141902133822441, 
0.13274134695529938, -0.14570115506649017, -0.16038280725479126, -0.10822713375091553, -0.055281613022089005, 0.03547748178243637, 0.0009200329659506679, 
-0.08119998127222061, 0.13092637062072754, 0.07218436151742935, -0.008840766735374928, 0.0606723390519619, 0.010869843885302544, 0.10871155560016632, 
-0.054720692336559296, 0.10938314348459244, 0.08323466032743454, -0.05347470939159393, 0.08377153426408768, -0.09238249808549881, 0.009056450799107552, 
-0.0955893024802208, -0.052993956953287125, -0.04485483840107918, 0.008026860654354095, -0.007144801318645477, -0.0921362042427063, -0.04043875262141228, 
0.07136677205562592, -0.03744835406541824, 0.0033771430607885122, -0.09711643308401108, -0.07072661817073822, -0.00694752112030983, -0.010932440869510174, 
-0.12452559173107147, 0.01780947670340538, -0.08208569884300232, -0.15972867608070374, 0.09180531650781631, 0.021580707281827927, 0.03672362118959427, 
-0.07736212015151978, 0.05795182287693024, -0.023113839328289032, 0.00544968293979764, 0.08565355837345123, -0.03354203701019287, -0.09157568216323853, 
0.0837804302573204, -0.03601750731468201, -0.02272031642496586, 0.02206360176205635, -0.12493693828582764, 0.09397891163825989, -0.18707291781902313, 
-0.018652265891432762, -0.08672449737787247, -0.0055448142811656, -0.045030735433101654, -0.014205284416675568, 0.03447197750210762, 0.041071634739637375, 
0.09374287724494934, 0.12404642254114151, -0.0339864119887352, 0.05568525567650795, -0.08358005434274673, 0.05931294709444046, -0.04845461994409561, 
0.09179072827100754, -0.0022966221440583467, 0.04651987925171852, -0.08776715397834778, -0.030284471809864044, 0.050086718052625656, -0.09004438668489456, 
0.048187006264925, -0.05216333270072937, -0.09589225053787231, 0.1756247878074646, -0.027757233008742332, 0.12270035594701767, 0.035671431571245193, 
-0.1289333552122116, -0.10795428603887558, -0.11552917212247849, 0.08767063170671463, -0.01194297056645155, -0.052872058004140854, -0.1021360456943512, 
0.04208115115761757, 0.04420393705368042, 0.11872951686382294, -0.13876774907112122, -0.051289286464452744, 0.0022654912900179625, -0.08769926428794861, 
0.007344081066548824, 0.1266857236623764, -0.0629492849111557, 0.03321950137615204, 0.07116565108299255, -0.005257308017462492, -0.09916365146636963, 
-0.05131135880947113, -0.1469837725162506, -0.04163413122296333, 0.023573029786348343, 0.08383060246706009, -0.05395898595452309, 0.027554890140891075, 
-0.06335054337978363, 0.008129050023853779, 0.04705309867858887, 0.042733944952487946, -0.06622610241174698, -0.009810428135097027, -0.08118599653244019, 
0.15055985748767853, -0.09267726540565491, 0.03916946426033974, -0.03545774891972542, 0.10185451060533524, -0.025746427476406097, -0.030967919155955315, 
-0.06195560842752457, 0.08531928062438965, 0.04768634960055351, -0.08185609430074692, 0.12138473242521286, 0.0038084127008914948, 0.09008181840181351, 
0.08216361701488495, 0.015590193681418896, 0.03623024374246597, 0.0681915134191513, -0.05151458829641342, 0.017048055306077003, 0.05816297233104706, 
-0.03845891356468201, 0.05289636552333832, -0.12506499886512756, 0.10904035717248917, -0.02923618070781231, 0.12024705857038498, -0.0013893748400732875, 
0.17382201552391052, 0.09108876436948776, 0.1343354433774948, 0.09600714594125748, -0.019238987937569618, 0.0967119038105011, 0.00017675888375379145, 
0.033360108733177185, 0.031819794327020645, -0.014360188506543636, -0.03988327085971832, -0.03318637236952782, 0.11052855104207993, -0.09836214035749435, 
0.11856266856193542, 0.1306373029947281, 0.008473879657685757, -0.11007650196552277, 0.07426565140485764, 0.0673968717455864, 0.020299604162573814, 
-0.1422979235649109, -0.08600536733865738, 0.08118230849504471, 0.026710906997323036, -0.08886627852916718, -0.05657154694199562, -0.02046426385641098, 
0.000651621026918292, 0.007487964350730181, -0.02108123153448105, 0.09468153119087219, 0.057846151292324066, -0.09738483279943466, -0.06882340461015701, 
0.09826590120792389, 0.03434427082538605, 0.0369705855846405, 0.18239594995975494, 0.03948385640978813, 0.16760490834712982, -0.07375290244817734, 
0.10979843139648438, -0.037182457745075226, -0.09531067311763763, -0.15189413726329803, -0.0974527895450592, -0.13367266952991486, -0.0614255852997303, 
-0.09621629863977432, -0.08168348670005798, -0.12190750241279602, 0.01815728470683098, 0.023819351568818092, 0.1714397519826889, -0.061430804431438446, 
-0.092018723487854, -0.028607139363884926, -0.09850725531578064, 0.058061420917510986, 0.06612816452980042, -0.14385715126991272, -0.01265996228903532, 
-0.007399591151624918, 0.011258517391979694, -0.021811531856656075, 0.062315069139003754, -0.054630979895591736, -0.0021925345063209534, 0.07766999304294586, 
0.06954561918973923, -0.13596700131893158, 0.017721906304359436, 0.01842041313648224, -0.04730077460408211, 0.1169823557138443, -0.017781615257263184, 
0.019515270367264748, -0.014809693209826946, 0.06010521575808525, 0.04534447565674782, 0.0038015369791537523, 0.06193695217370987, -0.13188399374485016, 
0.10299867391586304, 0.08309216797351837, -0.05996061488986015, -0.0039345575496554375, -0.1525498330593109, -0.08343439549207687, -0.008388307876884937, 
0.04752369225025177, 0.007392500527203083, -0.05200520530343056, -0.009385206736624241, 0.09654026478528976, 0.058813486248254776, 0.06103622168302536, 
-0.003830009838566184, -0.0985625758767128, -0.09678403288125992, 0.1101025864481926, -0.0623001866042614, 0.006120407488197088, 0.08592451363801956, 
0.02513478510081768, -0.14023761451244354, 0.12423457950353622, 0.041495997458696365, -0.13010166585445404, -0.06555742770433426, -0.08325028419494629, 
-0.06666602939367294, 0.043982233852148056, -0.017274614423513412, -0.09334936738014221, -0.012852062471210957, 0.006571230944246054, 0.10047289729118347, 
-0.022373083978891373, 0.030328046530485153, -0.095722496509552, -0.09821058064699173, -0.16570018231868744, 0.005045522935688496, 0.03187161311507225, 
-0.032365329563617706, 0.12204542756080627, -0.011968119069933891, 0.06580542773008347, 0.14232073724269867, -0.017025161534547806, 0.012366333045065403, 
0.08525031805038452, 0.048218417912721634, 0.013299399055540562, -0.03057911992073059, -0.06145802140235901, 0.06506071239709854, 0.05166488140821457, 
-0.058060843497514725, -0.05117147043347359, 0.07020142674446106, 0.025171998888254166, -0.045225080102682114, 0.07927145063877106, 0.10625788569450378, 
-0.21255075931549072, 0.02885487861931324, -0.05351656302809715, -0.09364228695631027, 0.10231748223304749, -0.13184159994125366, 0.06720153242349625, 
-0.02187180519104004, -0.04359270632266998, -0.05329710617661476, -0.04518914967775345, 0.08630102127790451, -0.15819242596626282, 0.010834905318915844, 
-0.05028364062309265, -0.1087762713432312, 0.02829979732632637, -0.13672569394111633, 0.04384568706154823, -0.04088316112756729, -0.07838056981563568, 
0.07803560048341751, -0.07534821331501007, -0.05083111301064491, 0.07145136594772339, -0.039981819689273834, 0.040355384349823, 0.04716923087835312, 
0.04285528510808945, -0.05615965276956558, 0.10229508578777313, -0.020718224346637726, -0.03505484387278557, -0.12037811428308487, 0.13230596482753754, 
-0.004212322179228067, -0.058227624744176865, 0.15390770137310028, 0.11711646616458893, -0.08510779589414597, -0.0019475212320685387, -0.0013497835025191307, 
-0.0646439790725708, -0.09951728582382202, 0.08562503755092621, -0.011569670401513577, -0.058901097625494, -0.03173353523015976, -0.05518246442079544, 
0.010700900107622147, 0.18223777413368225, 0.08681442588567734, -0.10728401690721512, 0.10525689274072647, -0.0325595997273922, 0.03581090271472931, 
0.01296959724277258, 0.05650785565376282, -0.13412077724933624, 0.10012444108724594, 0.016432996839284897, -0.024555839598178864, -0.11080975085496902, 
0.024068670347332954, -0.10416200757026672, -0.02171083353459835, -0.06229067221283913, 0.07082510739564896, 0.15851324796676636, -0.022762004286050797, 
0.010687079280614853, 0.03193151578307152, -0.03965521231293678, 0.008501936681568623, 0.10242652893066406, 0.20806381106376648, 0.00876071210950613, 
-0.055602990090847015, -0.13381433486938477, -0.15227901935577393, -0.08988578617572784, -0.14776484668254852, 0.089351586997509, 0.012151294387876987, 
0.06362885236740112, -0.129827082157135, 0.04984772950410843, 0.13716737926006317, 0.0695590153336525, 0.05229891836643219, -0.03915601223707199, 
-0.1239052414894104, 0.013722212053835392, -0.07484900206327438, 0.07882320880889893, 0.07033570855855942, -0.0836246982216835, -0.057924650609493256, 
-0.0977397933602333, 0.08926455676555634, -0.10598644614219666, 0.076896071434021, -0.09510409832000732, 0.0011088605970144272, -0.060120757669210434, 
0.006823106203228235, 0.10039353370666504, -0.09988658130168915, 0.034810639917850494, -0.1533040702342987, -0.053611379116773605, -0.09103858470916748, 
-0.09230639040470123, 0.11392655968666077, -0.058324579149484634, 0.05915846675634384, 0.027593126520514488, -0.13202355802059174, 0.032388780266046524, 
0.09783859550952911, -0.1203908771276474, 0.019590696319937706, -0.015581043437123299, -0.05163993313908577, -0.1080012395977974, -0.04479661211371422, 
-0.08002026379108429, -0.05822378396987915, 0.187553271651268, 0.09608392417430878, -0.005613422486931086, -0.012465103529393673, -0.010983824729919434, 
0.043783120810985565, 0.11544278264045715, -0.03291325643658638, 0.0645347610116005, -0.07896675914525986, 0.033873092383146286, 0.03457225114107132, 
0.07902660220861435, 0.03912709280848503, -0.007023719139397144, 0.027131516486406326, 0.02193586714565754, 0.08733020722866058, -0.13417169451713562, 
-0.0024905812460929155, 0.08448398858308792, 0.06431680917739868, -0.01635541394352913, 0.018394164741039276, 0.09944799542427063, -0.03534084931015968, 
0.08952441066503525, -0.03161681443452835, 0.11343622207641602, 0.1337263286113739, -0.02904871106147766, -0.1093439906835556, -0.07619430869817734, 
0.02650945819914341, -0.04574361816048622, -0.060951512306928635, 0.04508894681930542, 0.013395597226917744, -0.0003566165396478027, 0.09274362027645111, 
0.10404768586158752, 0.04107451066374779, -0.1372448205947876, 0.09862078726291656, -0.12181088328361511, 0.013593913987278938, 0.05654871463775635, 
0.08644957840442657, 0.006157402414828539, 0.06193416938185692, -0.05453890934586525, -0.07122837007045746, 0.14320816099643707, 0.013376064598560333, 
0.01898144744336605, 0.04669937491416931, -0.016439439728856087, 0.11709581315517426, -0.03794274479150772, 0.008061150088906288, 0.06271158903837204, 
-0.12796002626419067, 0.04057828709483147, -0.012132763862609863, 0.13338306546211243, -0.12883125245571136, 0.15005910396575928, -0.010923946276307106, 
-0.02362561598420143, -0.12652309238910675, -0.12109796702861786, -0.062450625002384186, 0.07808700203895569, -0.04807211831212044, -0.06477009505033493, 
-0.03813965991139412, -0.09065371751785278, -0.10210669040679932, -0.008101372979581356, -0.1017763540148735, -0.018937604501843452, -0.023119021207094193, 
0.00017403230594936758, -0.09804414212703705, 0.06950898468494415, 0.08420248329639435, 0.137436643242836, -0.0625300332903862, 0.07313825190067291, 
0.11044510453939438, 0.10677895694971085, -0.015154313296079636, -0.06477203965187073, 0.04047719016671181, 0.05047055706381798, 0.013114983215928078, 
0.046845659613609314, -0.10233737528324127, 0.09081371128559113, -0.0519968681037426, -0.08571060001850128, 0.06840898841619492, 0.09254461526870728, 
-0.0031906110234558582, -0.0812658742070198, 0.019128022715449333, 0.17810434103012085, 0.07323137670755386, 0.11736766248941422, 0.17587074637413025, 
0.04604469984769821, 0.04246106371283531, 0.06253267824649811, -0.05030631646513939, 0.09820051491260529, -0.06761663407087326, 0.06273788213729858, 
0.005934508051723242, 0.10537489503622055};

#endif

#endif
