-0.9020580053329468, -0.9284941554069519, 0.35854893922805786, 0.35603052377700806, 0.26175177097320557, -0.21039842069149017, 0.47845837473869324, 0.07736650109291077, -0.29563796520233154, -0.2634267807006836, 1.9211692810058594, -0.31697627902030945, -0.1676509529352188, 0.2756933569908142, 0.22462674975395203, -0.3623494505882263, 0.12699836492538452, -0.28961876034736633, -0.3770182430744171, -0.28978702425956726, -0.03200344741344452, 0.009367872029542923, -0.2233356535434723, 0.25082632899284363, 0.1838546246290207, 0.05820375680923462, -0.11882377415895462, -0.14585748314857483, -0.007102275267243385, -0.19557534158229828, 0.2531399726867676, -0.3607332408428192, -0.20664727687835693, -0.0018588248640298843, 0.30293673276901245, -0.29569992423057556, 0.3106902837753296, 0.27059391140937805, -0.28043729066848755, -0.4995902180671692, -0.06299058347940445, 0.3935879170894623, 0.16293199360370636, 0.4663332998752594, 0.5280681252479553, -0.23963239789009094, -1.012561559677124, 0.25305601954460144, 0.25367629528045654, 1.969809889793396, -0.38084736466407776, -0.2364683896303177, 0.2148965746164322, -0.6598033905029297, -0.3260825276374817, -0.2706003487110138, -0.15327921509742737, 0.017439445480704308, -0.2928310036659241, -0.10656007379293442, -0.5115862488746643, 0.4713538885116577, 0.1026415005326271, 0.3115943372249603, -0.12784427404403687, -0.05958183482289314, -0.48257187008857727, 0.3744325637817383, 0.09910927712917328, -0.8519212007522583, 1.4045705795288086, -1.9705530405044556, 0.3997567296028137, 0.15033042430877686, -0.27405890822410583, -0.14272566139698029, 0.6810337901115417, -0.31978321075439453, 0.18285374343395233, 0.3048282861709595, 1.015937089920044, -0.16627047955989838, -0.6726477742195129, 0.2010817676782608, -0.5585541725158691, -0.3328413665294647, -0.6559170484542847, -1.0998106002807617, 0.09315326064825058, -0.40002530813217163, 0.24355542659759521, 0.4796734154224396, -0.11218956112861633, 0.4523865580558777, -0.15999265015125275, -0.28718069195747375, -0.2124890685081482, -0.2918764650821686, -0.29823634028434753, -0.02582184039056301, 0.1981973499059677, 0.23420989513397217, -0.5693830847740173, -0.12454801052808762, -0.3942830562591553, -0.5555379390716553, 0.23842987418174744, -0.3147583305835724, -0.3985517919063568, -0.22789348661899567, -0.22782713174819946, 1.5351440906524658, 0.2491031289100647, 0.5108040571212769, 0.30774253606796265, -0.17835521697998047, -0.06706884503364563, 1.0365086793899536, 0.27773210406303406, 0.07960721105337143, -0.1912403404712677, -0.3674694895744324, -0.7358790636062622, -0.4617023468017578, -0.3338738679885864, 0.3700741231441498, -0.5818683505058289, 0.424470454454422