// Numpy array shape [128]
// Min -0.4127708
// Max 0.23888661
// Number of zeros 0

#ifndef TRANSFORMERS_0_LINEAR_3_BIAS_H_
#define TRANSFORMERS_0_LINEAR_3_BIAS_H_

#ifndef __SYNTHESIS__
model_default_t transformers_0_linear_3_bias[128];
#else
model_default_t transformers_0_linear_3_bias[128] = {-0.05304895341396332, -0.00918218307197094, 0.37051892280578613, 0.6998109817504883, -0.7789331674575806, 0.3810742199420929, 
-0.15906153619289398, 0.5359792113304138, -0.9676224589347839, 0.019970044493675232, 0.022831274196505547, -0.39894965291023254, -0.21297815442085266, 
0.7056620717048645, 0.2498742640018463, 0.25732094049453735, -0.9417257308959961, 0.28096747398376465, 0.04599675536155701, -0.9083490371704102, 
0.4518245756626129, -1.1685459613800049, 0.3314089775085449, -0.8078914284706116, 0.29090285301208496, -0.7339366674423218, 0.4724418818950653, 
0.40705448389053345, -0.10564784705638885, -1.0901373624801636, -0.6181408166885376, -0.9249173998832703, 0.024653945118188858, -1.2732023000717163, 
-0.9242560863494873, -0.717549204826355, -0.04404269531369209, -0.8424867391586304, 0.7565617561340332, 0.18384116888046265, 0.4083319306373596, 
-1.3662751913070679, 0.5426762104034424, 0.6184080839157104, -0.23093636333942413, -0.595002293586731, -0.7046935558319092, -1.1054002046585083, 
0.2005191445350647, 0.27734488248825073, 0.17306669056415558, -1.006225824356079, 0.2953641414642334, 0.030477158725261688, -0.7188979387283325, 
-1.2345716953277588, 1.3630092144012451, 0.34894484281539917, 0.3078235387802124, 0.14183512330055237, -0.22371423244476318, -0.8172287940979004, 
0.396816611289978, 0.8370694518089294, 0.2393983155488968, 1.8822836875915527, 0.22597405314445496, -0.3142523467540741, -0.37458640336990356, 
-0.6490499973297119, 1.8156620264053345, -0.24862103164196014, -0.13642606139183044, -0.5626094937324524, -0.9837009310722351, 0.5786839723587036, 
0.18316420912742615, 0.14722281694412231, 0.43594083189964294, 0.23837748169898987, -0.9168249368667603, 0.49353450536727905, 1.4764453172683716, 
-0.022114817053079605, -0.013536021113395691, -1.9785399436950684, 2.3040993213653564, 0.11487983167171478, -1.2685401439666748, 0.8460074663162231, 
-0.5079259872436523, 0.224432110786438, -0.8621978759765625, -0.4891204833984375, 0.08787025511264801, 0.016577987000346184, 0.002861505839973688, 
-0.6671068668365479, -0.47525840997695923, -0.18875502049922943, -1.6302134990692139, -1.1190072298049927, 0.43561458587646484, 0.7935923337936401, 
-0.4211618900299072, -0.8600839972496033, -1.4073539972305298, -0.8811261653900146, 0.10432423651218414, -1.113240122795105, -1.7939409017562866, 
0.03519129008054733, -1.007594347000122, -0.744778573513031, -1.1215214729309082, -1.321363925933838, -0.9539032578468323, -0.9139440059661865, 
0.5653015375137329, -0.9849386811256409, -0.7100199460983276, 0.41580966114997864, 0.32276731729507446, -0.45111608505249023, -0.7651684880256653, 
-0.20170776546001434, 0.40802082419395447, -1.1616439819335938};

#endif

#endif
