-1.0978844165802002, 0.28736069798469543, -0.3066803216934204, -0.2057037055492401, -0.42280104756355286, -0.39446181058883667, 0.6002545952796936, 0.6359769105911255, 0.2743440866470337, -0.4828247129917145, -0.5179531574249268, -0.15446585416793823, 1.6246623992919922, 0.5066360235214233, -0.13994772732257843, -0.22301973402500153, 0.419502854347229, 1.051512360572815, -1.2331867218017578, 0.3437168300151825, -0.1601416915655136, 0.7532002925872803, 0.5548567771911621, -0.42518770694732666, 0.6276592016220093, -0.5245299339294434, 0.411288857460022, -0.24333880841732025, -0.20532724261283875, 0.2741950750350952, -0.3004184663295746, 0.1783258616924286, 0.4463907480239868, 0.600117027759552, -0.13441678881645203, -0.40605428814888, 0.12346518039703369, -0.4537300765514374, 0.90553879737854, 0.3074008822441101, 0.1706727147102356, -0.485362708568573, -0.3816361129283905, -0.37230145931243896, -0.4357016980648041, -0.7435683608055115, -0.5835921764373779, -0.9534913301467896, 1.2631453275680542, 0.28592053055763245, 0.564542293548584, 0.5074438452720642, 0.36931130290031433, 0.07485701888799667, -0.3084741234779358, -0.48831242322921753, 0.4376477301120758, -0.46489349007606506, 0.049637146294116974, -0.33903300762176514, 0.5765247941017151, 0.7496020793914795, -0.31372588872909546, -0.24820184707641602, -0.3220190405845642, -0.32332852482795715, 0.5445526838302612, -0.46718651056289673, -0.9296820759773254, 0.16010446846485138, 0.34613269567489624, -0.27683916687965393, -0.1258615255355835, -0.5307777523994446, -0.2518191635608673, -0.9674964547157288, -0.6212116479873657, -0.031669981777668, -0.17903777956962585, -0.22688151895999908, -0.48415833711624146, 1.0562467575073242, -1.0525593757629395, -0.3458804190158844, -0.35325750708580017, 1.0480021238327026, -0.27196940779685974, -0.5216692686080933, 0.01719065010547638, 0.33598947525024414, -0.06939901411533356, -0.6854194402694702, -0.4598873257637024, 0.5144929885864258, 0.27476760745048523, -0.8389464020729065, -0.25545090436935425, -0.6914860606193542, -0.32724976539611816, -0.3832472562789917, 0.2584616243839264, 0.15427221357822418, -0.30399295687675476, -0.09639288485050201, 0.2772600054740906, -0.8623474836349487, -0.4592033624649048, 0.4992199242115021, 0.5378972887992859, 0.1848348081111908, -0.32197991013526917, 0.06486067175865173, -0.5702415704727173, 0.2399255335330963, 0.6088917255401611, 0.3301207423210144, -0.7484128475189209, 1.5644357204437256, -0.3657962679862976, 0.43387770652770996, -0.4875049293041229, -0.05337924137711525, -0.10676072537899017, 0.26743027567863464, 0.42064332962036133, 0.1454949676990509, 0.4638635516166687, 0.38669848442077637