// Numpy array shape [128]
// Min -1.0582856
// Max 0.81099004
// Number of zeros 0

#ifndef TRANSFORMERS_0_LINEAR_3_BIAS_H_
#define TRANSFORMERS_0_LINEAR_3_BIAS_H_

#ifndef __SYNTHESIS__
T_norm1_bias_t transformers_0_linear_3_bias[128];
#else
T_norm1_bias_t transformers_0_linear_3_bias[128] = {0.45895758271217346, -0.041906923055648804, -1.0830602645874023, 0.6059971451759338, -0.8145173192024231, 1.4435932636260986, 
0.19009295105934143, -1.585336446762085, 0.22313085198402405, -2.2840423583984375, 0.39135223627090454, 0.26954907178878784, 0.005300149321556091, 
1.0828075408935547, -0.5958369970321655, -0.6676804423332214, 0.29948094487190247, 0.16826510429382324, -2.5119383335113525, -1.258928656578064, 
-0.5677596926689148, -0.0730934888124466, -0.6685449481010437, 0.9558060169219971, 0.5794448852539062, -2.386396884918213, 0.7835379242897034, 
0.4712963104248047, -0.12511618435382843, 0.38949453830718994, -1.153967022895813, 0.35176730155944824, -0.43193474411964417, -1.0665817260742188, 
-0.8775568008422852, 0.3668442964553833, 0.043832749128341675, 0.3931017518043518, -0.10882851481437683, -2.587139129638672, 0.5595634579658508, 
0.058645039796829224, 0.9734333157539368, 0.8356226086616516, -0.09469424933195114, -0.4265674650669098, -1.4369031190872192, -1.9505822658538818, 
0.5442721843719482, 0.21898329257965088, -0.48407086730003357, -1.2233537435531616, 0.46815720200538635, -0.15254774689674377, -0.5606354475021362, 
0.5155847668647766, 0.07326053082942963, 0.3811764717102051, 0.6661092042922974, 0.2978662848472595, -0.9713753461837769, -0.7716125845909119, 
0.2112359255552292, -1.1895045042037964, -0.1346966028213501, 0.5985362529754639, -0.5733611583709717, 0.2639310657978058, 1.0469024181365967, 
0.5195649266242981, -0.005836518481373787, -1.065670132637024, -0.1410548835992813, -1.9664971828460693, -2.42222261428833, 0.11553129553794861, 
0.40583980083465576, 0.30716317892074585, 0.3704456388950348, 0.0738714188337326, -0.7040874361991882, -0.15601912140846252, -0.11673176288604736, 
-1.372894525527954, 0.5379601716995239, -1.4147065877914429, 0.24630893766880035, 0.017331384122371674, 0.5400967597961426, -0.5517522692680359, 
0.29898330569267273, 0.3207262456417084, -0.008247330784797668, -1.8056707382202148, -1.122093677520752, 0.5421891212463379, -0.0760430097579956, 
-0.5780544281005859, 0.18480300903320312, -0.5414071083068848, -0.6355714797973633, -0.24638953804969788, -0.6185435652732849, -1.5374974012374878, 
3.2248950004577637, 0.32179126143455505, -1.589508295059204, -0.60137540102005, 0.29646018147468567, -1.357405662536621, -1.0314230918884277, 
0.7472469806671143, 0.30030885338783264, -0.46544909477233887, -1.1698921918869019, 0.7482986450195312, -1.8262348175048828, -0.06730252504348755, 
0.3802349269390106, -0.9985148906707764, -0.3208036720752716, 0.9900959730148315, -1.4066660404205322, 0.701867938041687, -0.08388986438512802, 
-1.0656187534332275, 1.9102205038070679, -1.6048707962036133};

#endif

#endif
