// Numpy array shape [64]
// Min -0.12968972
// Max 0.13991205
// Number of zeros 0

#ifndef TRANSFORMERS_0_SELF_ATTENTION_OUT_BIAS_H_
#define TRANSFORMERS_0_SELF_ATTENTION_OUT_BIAS_H_

#ifndef __SYNTHESIS__
model_default_t transformers_0_self_attention_out_bias[64];
#else
model_default_t transformers_0_self_attention_out_bias[64] = {-0.0073287212289869785, -0.10719610005617142, -0.0580611415207386, -0.020565565675497055, 0.101084865629673, -0.011010007932782173, 
0.0041196951642632484, -0.004389374051243067, -0.03151920065283775, -0.07136393338441849, 0.11140939593315125, 0.1224963515996933, -0.03378421068191528, 
0.09393124282360077, -0.018297849223017693, 0.08551307022571564, -0.03128433972597122, -0.05262043699622154, 0.09701678156852722, 0.09735480695962906, 
0.09848809987306595, 0.0916832685470581, 0.04945665970444679, -0.045345745980739594, -0.04951921105384827, -0.10305432230234146, -0.12968972325325012, 
-0.03456630930304527, -0.07140703499317169, 0.08413312584161758, -0.04640796408057213, 0.08844144642353058, 0.09529273957014084, 0.11908166855573654, 
-0.023248013108968735, 0.07237053662538528, 0.038849882781505585, -0.024661792442202568, -0.09131451696157455, 0.024367908015847206, -0.04953218251466751, 
-0.11413000524044037, 0.0808778777718544, -0.03660965338349342, 0.13991205394268036, -0.08257152885198593, 0.11375933140516281, -0.07100555300712585, 
0.010605903342366219, 0.12377781420946121, 0.011103738099336624, 0.03321703523397446, 0.035865072160959244, 0.08100653439760208, -0.09656817466020584, 
-0.08534388989210129, 0.10895945876836777, -0.08810437470674515, 0.12051716446876526, 0.05682293698191643, -0.07172120362520218, -0.08720134943723679, 
-0.004903935361653566, 0.030607640743255615};

#endif

#endif
