// Numpy array shape [64, 64]
// Min -0.69387275
// Max 0.700137
// Number of zeros 0

#ifndef TRANSFORMERS_1_SELF_ATTENTION_V_WEIGHT_H_
#define TRANSFORMERS_1_SELF_ATTENTION_V_WEIGHT_H_

#ifndef __SYNTHESIS__
SA_V_weight_t transformers_1_self_attention_v_weight[4096];
#else
SA_V_weight_t transformers_1_self_attention_v_weight[4096] = {0.42622098326683044, 0.6498898267745972, -0.6449460983276367, -0.3020409047603607, -0.2730713486671448, 0.10898710787296295, 
-0.2511759400367737, -0.3621792495250702, -0.19484904408454895, 0.12291977554559708, 0.553104043006897, -0.3457690179347992, -0.395708829164505, 
-0.527299702167511, -0.2116180658340454, 0.5372710824012756, -0.2811475992202759, 0.10871075093746185, 0.2059234082698822, -0.3543306887149811, 
0.421440452337265, -0.1247505247592926, -0.21436668932437897, -0.09804717451334, -0.18656086921691895, -0.5174814462661743, -0.6155707836151123, 
0.3276459872722626, -0.12774349749088287, 0.2659841775894165, 0.3644101023674011, -0.45769548416137695, -0.23483632504940033, -0.17240943014621735, 
0.5079293251037598, 0.338200181722641, 0.05120047181844711, 0.4833008646965027, 0.1946527510881424, -0.2545755207538605, -0.006803696043789387, 
-0.6596115231513977, 0.021168064326047897, -0.2049480527639389, -0.24404509365558624, -0.14470770955085754, -0.032438233494758606, -0.0885872021317482, 
0.2298123687505722, -0.06297361105680466, -0.25466108322143555, 0.11549107730388641, 0.2678689658641815, -0.21833278238773346, 0.0800274908542633, 
0.37881892919540405, 0.26286712288856506, -0.07764920592308044, 0.03004288114607334, 0.18085627257823944, 0.41813477873802185, 0.015343395061790943, 
-0.283074289560318, -0.27700668573379517, -0.025608019903302193, 0.010828827507793903, 0.01716492883861065, -0.04259493947029114, 0.17886951565742493, 
0.07972199469804764, 0.0583004504442215, -0.019019611179828644, -0.023618659004569054, 0.04626084864139557, -0.086549311876297, 0.07392436265945435, 
-0.04895738139748573, 0.1126035824418068, 0.09735098481178284, 0.009590741246938705, 0.1526438444852829, -0.0768694281578064, 0.03775939717888832, 
-0.06033800542354584, 0.07651849836111069, -0.10394208133220673, -0.20339874923229218, -0.07048434764146805, -0.042405564337968826, -0.06393906474113464, 
-0.07966242730617523, -0.02995157241821289, -0.034336864948272705, 0.11050836741924286, -0.16532941162586212, -0.01254716981202364, -0.014925247989594936, 
0.06646081805229187, -0.110917828977108, 0.011306922882795334, -0.0834464356303215, 0.14417804777622223, 0.08975621312856674, -0.08257289230823517, 
-0.1337597668170929, 0.06796947121620178, 0.12042967975139618, 0.05652639642357826, -0.016883205622434616, 0.0025177153293043375, -0.07350916415452957, 
0.09626485407352448, -0.006525923032313585, 0.03212733939290047, -0.01569184847176075, 0.06586768478155136, -0.0003948233788833022, 0.11052395403385162, 
-0.012150677852332592, 0.0703958198428154, -0.056055374443531036, -0.07911239564418793, -0.05766366794705391, 0.08002655953168869, 0.026070427149534225, 
0.03556288406252861, 0.12092649191617966, 0.005540306679904461, -0.0913570299744606, -0.19883161783218384, 0.0144486203789711, -0.11051797866821289, 
-0.08183051645755768, -0.13437309861183167, -0.1435733288526535, 0.17058515548706055, -0.0651387870311737, -0.14624164998531342, 0.046867288649082184, 
-0.14167499542236328, -0.04476940259337425, -0.0656544417142868, -0.13304655253887177, 0.12663118541240692, -0.03245346248149872, -0.1692068725824356, 
-0.015506978146731853, -0.013340814039111137, -0.06369581818580627, 0.027076134458184242, 0.017335275188088417, 0.02082410268485546, -0.06924367696046829, 
0.069614477455616, 0.14058226346969604, 0.17419014871120453, 0.031756117939949036, -0.1536540687084198, 0.07874933630228043, -0.1329030841588974, 
-0.1457492858171463, -0.15313872694969177, -0.17147083580493927, -0.026927324011921883, 0.020552145317196846, 0.057922638952732086, -0.05227617546916008, 
-0.12059882283210754, 0.2001422941684723, 0.10012474656105042, -0.15539222955703735, -0.015318506397306919, 0.02653547376394272, -0.06528851389884949, 
0.1666160374879837, 0.008639993146061897, 0.05671557039022446, -0.023820627480745316, -0.15391355752944946, 0.12318964302539825, -0.16513118147850037, 
-0.027535684406757355, 0.041863687336444855, -0.10580150038003922, -0.10140015929937363, -0.1253635287284851, 0.24730688333511353, -0.07218655198812485, 
-0.09357290714979172, 0.05650678649544716, -0.06930515915155411, 0.0009304973063990474, 0.31770315766334534, 0.6360850930213928, -0.43766701221466064, 
-0.06584087759256363, -0.33828794956207275, 0.2147502452135086, -0.10739162564277649, -0.478018581867218, -0.20026391744613647, -0.00903343316167593, 
0.567575216293335, -0.18334245681762695, -0.3131083548069, -0.4155120253562927, -0.05016997456550598, 0.45232290029525757, -0.3418169915676117, 
0.14522729814052582, 0.2628708481788635, -0.3905397951602936, 0.20949965715408325, -0.016497068107128143, -0.17906959354877472, -0.2745126187801361, 
0.040529415011405945, -0.492449551820755, -0.45221927762031555, 0.23300732672214508, -0.32019326090812683, 0.21331143379211426, 0.3489501476287842, 
-0.09652195870876312, 0.03882504627108574, 0.0009220395586453378, 0.34277206659317017, 0.28672778606414795, 0.21571877598762512, 0.14505112171173096, 
0.38563817739486694, 0.01733607053756714, 0.1426563709974289, -0.3768666684627533, -0.044951990246772766, 0.19447533786296844, 0.1348489671945572, 
-0.010988977737724781, -0.36808714270591736, 0.25657567381858826, 0.024060336872935295, 0.17229248583316803, -0.0038434071466326714, -0.15914727747440338, 
0.3547692894935608, -0.022128421813249588, -0.22406521439552307, 0.23263688385486603, 0.263823926448822, 0.082743801176548, 0.028411423787474632, 
0.3153034448623657, 0.1582954078912735, -0.23918746411800385, -0.22165770828723907, 0.008320841938257217, 0.13153287768363953, 0.16182690858840942, 
0.08218493312597275, 0.06585152447223663, -0.23462840914726257, -0.2476475089788437, 0.28586485981941223, 0.06634750217199326, -0.027054913341999054, 
0.13248759508132935, 0.15495580434799194, 0.17388875782489777, 0.2896305024623871, 0.010812252759933472, -0.3027609884738922, 0.4101012051105499, 
0.1305866539478302, -0.3679272532463074, -0.44045913219451904, 0.18120619654655457, -0.34914544224739075, 0.007243935950100422, -0.14865551888942719, 
0.3905743658542633, -0.1923697143793106, 0.07561234384775162, 0.023488232865929604, 0.018212493509054184, 0.2205386757850647, -0.23537090420722961, 
-0.007741527631878853, 0.16310854256153107, -0.272485613822937, -0.04591606557369232, 0.018400900065898895, 0.04913699999451637, -0.0470290370285511, 
0.18305742740631104, 0.06588136404752731, -0.07947701960802078, 0.1283360868692398, -0.10011229664087296, -0.11387661099433899, -0.057354770600795746, 
-0.0814240500330925, -0.14402306079864502, 0.009272207506000996, 0.047355763614177704, -0.09961110353469849, -0.26480239629745483, 0.0912896990776062, 
-0.007758202031254768, -0.09855489432811737, 0.07715936005115509, -0.1004028469324112, -0.008126171305775642, -0.06972404569387436, 0.062493644654750824, 
0.2735019028186798, 0.11752566695213318, -0.05841255933046341, -0.24904140830039978, -0.06755112111568451, 0.16592469811439514, -0.025692462921142578, 
0.055344078689813614, -0.1056784987449646, 0.4223608374595642, 0.02586633339524269, -0.031208552420139313, 0.21381732821464539, -0.1749018281698227, 
-0.060440391302108765, 0.06475671380758286, 0.15674152970314026, 0.032109133899211884, -0.05090155079960823, 0.020400868728756905, -0.2549656927585602, 
-0.16029489040374756, -0.18924100697040558, -0.12982726097106934, -0.06483419984579086, -0.14724746346473694, -0.19431069493293762, 0.33779406547546387, 
-0.06924259662628174, -0.0924307107925415, 0.0577019639313221, -0.010738756507635117, -0.17473307251930237, -0.23757070302963257, -0.08751138299703598, 
-0.09983620047569275, 0.2483823597431183, 0.10884668678045273, 0.6463155746459961, 0.23559895157814026, -0.15415585041046143, 0.049763273447752, 
0.22562432289123535, -0.297331303358078, 0.12133029848337173, 0.40448465943336487, -0.18109959363937378, -0.01740855723619461, -0.3259148597717285, 
0.4825952649116516, 0.7001370191574097, 0.42462819814682007, -0.040904976427555084, 0.40082356333732605, -0.42981916666030884, 0.22848425805568695, 
0.025076430290937424, -0.4284916818141937, 0.08289899677038193, 0.13672202825546265, -0.28347551822662354, -0.05408912152051926, -0.14411288499832153, 
0.08645346760749817, 0.052938830107450485, 0.1110694631934166, -0.1717313826084137, -0.17033301293849945, -0.30830854177474976, 0.030460387468338013, 
-0.084677554666996, -0.10702785849571228, -0.1568296253681183, 0.22179822623729706, -0.0838492289185524, -0.12581028044223785, 0.25750839710235596, 
-0.008363308385014534, -0.06488587707281113, 0.030375657603144646, -0.021760979667305946, 0.07807255536317825, 0.1964019536972046, -0.05600646883249283, 
-0.201365664601326, -0.05543385073542595, 0.10209354758262634, -0.09732739627361298, -0.25826913118362427, -0.03388102352619171, -0.033838506788015366, 
0.022422460839152336, 0.017952917143702507, 0.07866105437278748, 0.017666541039943695, -0.015599924139678478, 0.08739001303911209, -0.03429853543639183, 
-0.12082571536302567, 0.06756793707609177, 0.1993355005979538, 0.15697282552719116, 0.12830863893032074, -0.08549511432647705, 0.008022584952414036, 
0.14155365526676178, 0.05572034791111946, -0.10138864815235138, -0.1033615842461586, -0.0806441530585289, 0.01756834052503109, 0.06517650187015533, 
0.041738081723451614, -0.0071525126695632935, -0.13027819991111755, 0.15143588185310364, 0.04322729632258415, -0.003225454594939947, -0.05775720998644829, 
-0.07621894776821136, 0.15051226317882538, -0.03644965961575508, -0.133564293384552, 0.009452618658542633, -0.017246250063180923, -0.08744807541370392, 
0.05378824472427368, -0.10396112501621246, -0.09750347584486008, -0.14712609350681305, -0.13013066351413727, -0.09507663547992706, -0.10431557148694992, 
0.12160730361938477, 0.1536339372396469, -0.005720772780478001, -0.22561848163604736, -0.36108407378196716, 0.004204707220196724, 0.07349079102277756, 
-0.2589806020259857, -0.2772770822048187, 0.005337797570973635, 0.054533641785383224, 0.07148706912994385, -0.23399071395397186, -0.28824925422668457, 
-0.3204190135002136, 0.13749052584171295, -0.0987822636961937, -0.20752987265586853, 0.14679719507694244, 0.38779833912849426, -0.2835715115070343, 
0.24845217168331146, -0.21342185139656067, 0.18005089461803436, -0.243388369679451, 0.10307324677705765, -0.24116353690624237, -0.35125699639320374, 
0.32816627621650696, -0.31273218989372253, 0.2448255866765976, 0.20458337664604187, -0.2363610714673996, -0.006501651369035244, 0.03732302412390709, 
0.11094977706670761, 0.23169675469398499, 0.19372615218162537, 0.21784214675426483, -0.0160614512860775, 0.016792381182312965, 0.04411711171269417, 
-0.026947572827339172, -0.1340988725423813, 0.03681988641619682, -0.18045903742313385, 0.07314657419919968, 0.10660985112190247, 0.21199101209640503, 
0.027648363262414932, 0.10856127738952637, 0.044278889894485474, 0.013647516258060932, 0.11720201373100281, -0.02657981589436531, -0.1525554656982422, 
0.1439438760280609, 0.07657942920923233, 0.07571311295032501, 0.05548451095819473, 0.06699387729167938, 0.08264172077178955, -0.15069858729839325, 
-0.046222083270549774, -0.009746620431542397, -0.0565054677426815, -0.05508532375097275, -0.10585115104913712, 0.10259537398815155, -0.05112600326538086, 
-0.13369449973106384, 0.09455949813127518, -0.061664748936891556, -0.058164793998003006, -0.04431872442364693, -0.06431151926517487, 0.03232211247086525, 
0.15385222434997559, -0.06481392681598663, -0.3033785820007324, 0.19873400032520294, 0.15648184716701508, -0.45961281657218933, -0.04477875307202339, 
-0.0082108648493886, -0.0831005796790123, 0.14853312075138092, -0.20958268642425537, 0.07450231164693832, -0.06011805683374405, 0.1231890395283699, 
0.05884118750691414, -0.11636437475681305, -0.0683186799287796, -0.23809964954853058, 0.0012116038706153631, -0.09551027417182922, 0.04215146601200104, 
-0.032673001289367676, -0.1328469216823578, 0.1047901064157486, -0.08481268584728241, -0.027918996289372444, -0.015415415167808533, -0.14946101605892181, 
0.13071192800998688, -0.08837171643972397, -0.05028346925973892, 0.07960043847560883, 0.02936539798974991, 0.09930458664894104, -0.0841498151421547, 
-0.050825152546167374, -0.08641570061445236, -0.04477234184741974, 0.3597523868083954, -0.011213046498596668, -0.14843226969242096, -0.022822098806500435, 
0.04924502968788147, -0.08079693466424942, 0.050613339990377426, -0.021509142592549324, 0.1282331347465515, 0.08130703866481781, -0.13821522891521454, 
-0.12689155340194702, 0.04531549662351608, 0.13999219238758087, -0.19210825860500336, 0.06736025959253311, -0.05772070586681366, 0.2317533940076828, 
-0.04897473379969597, -0.12520001828670502, -0.12231466174125671, 0.06792416423559189, 0.15018266439437866, 0.24089035391807556, -0.032666273415088654, 
0.02655045874416828, -0.20976024866104126, -0.12035215646028519, 0.07387763261795044, 0.008404464460909367, -0.06745237857103348, 0.03833997622132301, 
-0.10997042804956436, -0.0875319242477417, 0.2142956703901291, 0.035628363490104675, -0.008146324194967747, 0.021944141015410423, -0.024345651268959045, 
0.0816723182797432, 0.22576268017292023, -0.07156237959861755, -0.022986268624663353, 0.2168111801147461, 0.02714875526726246, -0.17250020802021027, 
0.05656518042087555, -0.013779595494270325, -0.22194638848304749, -0.2430860549211502, -0.106523297727108, -0.21548853814601898, 0.054473817348480225, 
0.0756445825099945, -0.02094409614801407, 0.18830521404743195, 0.060088448226451874, 0.17830632627010345, 0.12313038110733032, 0.04570674151182175, 
0.0004663927247747779, -0.16340138018131256, -0.05036153271794319, -0.02683965489268303, -0.1805008053779602, -0.04453449323773384, -0.18950942158699036, 
0.05948686972260475, 0.02531355619430542, -0.05718003958463669, -0.14541137218475342, -0.031405601650476456, 0.014845778234302998, 0.030331863090395927, 
-0.06710334867238998, 0.192106232047081, 0.12464093416929245, 0.09916409850120544, 0.05558110401034355, 0.5246581435203552, -0.18918277323246002, 
-0.1861974447965622, 0.007694497238844633, 0.07777971774339676, -0.034808751195669174, -0.38292819261550903, 0.010166552849113941, 0.2855880558490753, 
0.15684834122657776, 0.03886118531227112, -0.29133111238479614, -0.2366720587015152, 0.19084584712982178, 0.08982318639755249, -0.13322608172893524, 
0.054630473256111145, 0.21435664594173431, -0.09857363253831863, 0.13947263360023499, -0.1372162401676178, 0.007567839231342077, -0.1861111968755722, 
-0.10030003637075424, -0.15741689503192902, -0.32194748520851135, 0.1885683834552765, -0.2902359366416931, 0.11469612270593643, 0.11139202862977982, 
-0.22398871183395386, 0.031372684985399246, 0.08713483810424805, -0.13755197823047638, 0.17956361174583435, -0.07384796440601349, -0.004056666512042284, 
0.25902795791625977, 0.1469729244709015, 0.06696702539920807, -0.11641021817922592, -0.19060784578323364, -0.015958603471517563, 0.16252103447914124, 
0.08694671839475632, -0.010006794705986977, -0.02811775729060173, -0.08253315836191177, 0.19799156486988068, -0.08456945419311523, 0.021647728979587555, 
0.031171707436442375, 0.03265874460339546, 0.050680577754974365, 0.20401138067245483, 0.2259027063846588, 0.08341297507286072, 0.010329765267670155, 
-0.009458514861762524, 0.12819962203502655, -0.009283928200602531, 0.031089309602975845, 0.10840211808681488, -0.07813417911529541, -0.07975462079048157, 
-0.09598277509212494, 0.10356897115707397, -0.07509277015924454, 0.08953998982906342, 0.07229393720626831, 0.06510934978723526, -0.19222569465637207, 
0.045082785189151764, -0.07293684780597687, 0.1468164324760437, -0.06373041123151779, 0.11644388735294342, 0.1068267822265625, 0.20370841026306152, 
0.09938567876815796, -0.015346481464803219, -0.09000413119792938, 0.06806756556034088, -0.015293207950890064, 0.11256090551614761, -0.18938609957695007, 
0.018763292580842972, -0.1968144029378891, 0.04620442911982536, 0.11705736070871353, 0.10151346772909164, 0.07628102600574493, 0.23867979645729065, 
0.110493503510952, -0.1049531027674675, -0.012191844172775745, 0.057240184396505356, -0.06995508074760437, -0.3040435314178467, -0.08744390308856964, 
-0.17232146859169006, -0.09729675948619843, 0.014914382249116898, -0.10832441598176956, 0.062462661415338516, 0.08013816177845001, 0.13567878305912018, 
0.1053343266248703, -0.07685866951942444, -0.1429937481880188, 0.12212134152650833, -0.00023143731232266873, 0.08670473098754883, -0.2451964020729065, 
-0.09330406039953232, -0.1906769573688507, 0.20488837361335754, 0.03737742081284523, -0.08506413549184799, -0.14802749454975128, 0.25668808817863464, 
-0.011289963498711586, 0.060124676674604416, -0.20804357528686523, 0.1491108536720276, 0.1553402841091156, 0.0516970269382, 0.027379130944609642, 
-0.06140798330307007, 0.2714865505695343, 0.09891189634799957, 0.15995247662067413, 0.10168439149856567, 0.17850245535373688, 0.19732455909252167, 
0.2373337298631668, -0.04084659367799759, -0.03272409364581108, 0.09521158039569855, 0.23936611413955688, 0.15118806064128876, -0.07262159883975983, 
-0.2660188376903534, -0.0552552305161953, -0.15739008784294128, -0.15794295072555542, 0.21284891664981842, -0.1286352127790451, 0.21035315096378326, 
0.10978636890649796, 0.03272552043199539, -0.04162123426795006, 0.11331410706043243, 0.18446867167949677, -0.20123079419136047, 0.13284383714199066, 
0.023681089282035828, -0.011517267674207687, 0.07052331417798996, -0.0118303457275033, -0.030654922127723694, -0.06484200060367584, -0.17270958423614502, 
-0.13019798696041107, -0.2348291426897049, -0.23209813237190247, 0.057381365448236465, -0.16780437529087067, 0.2604941427707672, 0.0896705687046051, 
-0.06284412741661072, -0.013880939222872257, 0.16746866703033447, -0.06705662608146667, -0.04233542084693909, -0.19638602435588837, -0.10700638592243195, 
0.03967100381851196, -0.055649735033512115, -0.2417028695344925, -0.06972872465848923, 0.12321066856384277, -0.2078210860490799, -0.08216649293899536, 
-0.07858612388372421, -0.017426099628210068, -0.16432997584342957, -0.21208243072032928, 0.08589363843202591, 0.09664227068424225, -0.0572243370115757, 
-0.2035926878452301, 0.015130330808460712, -0.1818850338459015, -0.00661085918545723, -0.044316891580820084, -0.2108268439769745, 0.031039925292134285, 
0.11737482249736786, -0.11686714738607407, 0.04470023140311241, -0.005706467665731907, 0.08452539891004562, -0.18444383144378662, -0.09073575586080551, 
0.054376762360334396, 0.34176647663116455, 0.11775082349777222, -0.1737956404685974, 0.13490772247314453, 0.11829420924186707, 0.09693557024002075, 
-0.030018899589776993, -0.2226986140012741, -0.11092843115329742, -0.14258049428462982, -0.005053555127233267, 0.07217489928007126, 0.1107250228524208, 
-0.04606805741786957, 0.1286657601594925, 0.17399904131889343, -0.16322354972362518, 0.04561305791139603, -0.1862761527299881, -0.2543098032474518, 
0.16568079590797424, -0.13468240201473236, 0.16384437680244446, -0.16396373510360718, 0.05506850779056549, 0.12852737307548523, -0.07632924616336823, 
-0.11349860578775406, 0.31355932354927063, -0.20760628581047058, -0.25755220651626587, 0.018518364056944847, 0.3157457113265991, 0.1405632495880127, 
0.1270868480205536, 0.10170218348503113, 0.1943359375, -0.09816059470176697, 0.0334392674267292, 0.0790896788239479, -0.08592505753040314, 
0.05071417614817619, 0.1373298317193985, 0.18046148121356964, 0.06320615857839584, -0.053652528673410416, -0.2477630227804184, -0.02079690806567669, 
0.21054598689079285, -0.012224642559885979, -0.2997664213180542, 0.1920195370912552, 0.04137667268514633, -0.008046726696193218, -0.09219419956207275, 
0.033343590795993805, 0.2942410707473755, 0.0030993823893368244, 0.07776044309139252, 0.014434421434998512, 0.13070017099380493, 0.14982621371746063, 
0.09976949542760849, -0.15522310137748718, 0.034512925893068314, 0.0766996443271637, -0.24501630663871765, -0.19504524767398834, 0.12985371053218842, 
-0.21370108425617218, 0.08700787276029587, -0.17262350022792816, 0.14636151492595673, -0.021923251450061798, 0.1755872517824173, 0.12914350628852844, 
-0.19650697708129883, 0.18710589408874512, -0.1044061928987503, 0.06626545637845993, 0.06549487262964249, 0.04240816459059715, -0.13966354727745056, 
0.019275473430752754, -0.05166878178715706, 0.05905739963054657, -0.07537263631820679, -0.21997587382793427, -0.08651381731033325, 0.07196662575006485, 
0.21281500160694122, -0.10849752277135849, -0.11599045991897583, -0.02887713722884655, 0.04197341203689575, 0.06705319881439209, -0.0426071435213089, 
0.0448438823223114, -0.0538981668651104, 0.06988921016454697, -0.060994382947683334, -0.2367175817489624, -0.11227119714021683, 0.04616156220436096, 
0.08916784822940826, -0.14384320378303528, -0.04334278777241707, 0.04041111841797829, 0.06416202336549759, 0.0331723727285862, -0.021890658885240555, 
-0.06232963129878044, -0.0617348849773407, 0.26875370740890503, 0.17150811851024628, -0.13797253370285034, -0.07420173287391663, -0.007254006806761026, 
0.07767841219902039, -0.20699134469032288, -0.2909679710865021, -0.1617710441350937, -0.021333245560526848, -0.12194021046161652, -0.018453042954206467, 
-0.22842296957969666, -0.12825186550617218, 0.2966296970844269, -0.1331528127193451, -0.2482718974351883, 0.22500529885292053, 0.23617398738861084, 
-0.1342705637216568, 0.23523148894309998, 0.003664228832349181, 0.13189385831356049, -0.2669294476509094, 0.14997272193431854, -0.17235764861106873, 
-0.2155131697654724, 0.016357485204935074, -0.2259637713432312, 0.293346107006073, -0.030352041125297546, -0.0337844155728817, -0.32794785499572754, 
-0.17490381002426147, 0.15170492231845856, -0.06336741149425507, -0.043235354125499725, 0.2861254811286926, -0.026085784658789635, -0.09082702547311783, 
-0.1505037546157837, -0.21967574954032898, 0.14277146756649017, -0.21033422648906708, -0.31667229533195496, -0.10368068516254425, 0.1430312842130661, 
-0.19561819732189178, 0.15172286331653595, 0.17442694306373596, -0.21996454894542694, 0.06423160433769226, 0.26963526010513306, -0.3246581256389618, 
0.20926600694656372, 0.35257190465927124, 0.22438040375709534, -0.03986680135130882, -0.16252683103084564, -0.10708123445510864, 0.253156453371048, 
0.24622683227062225, -0.0031241404358297586, -0.419869601726532, 0.07709795981645584, 0.3907856345176697, -0.30640897154808044, -0.01387092936784029, 
-0.18848739564418793, -0.02243076078593731, -0.04344671592116356, -0.2634730339050293, -0.008788059465587139, 0.07184945046901703, 0.0760626271367073, 
-0.06166894733905792, -0.14808426797389984, -0.19402579963207245, 0.02491297572851181, -0.07576151937246323, -0.27345335483551025, 0.16942933201789856, 
0.30031079053878784, -0.11393661797046661, 0.1338965892791748, 0.011085839942097664, 0.02668200619518757, -0.06443876773118973, -0.1311366856098175, 
-0.18062016367912292, -0.12509280443191528, 0.19011850655078888, -0.23255577683448792, 0.06241612508893013, 0.07151090353727341, -0.26125001907348633, 
0.07193434983491898, 0.01166223268955946, -0.06649412959814072, 0.028100768104195595, 0.06071420758962631, -0.06025823950767517, 0.24077053368091583, 
0.06496484577655792, -0.020589955151081085, -0.08894225209951401, -0.07518409937620163, 0.1476515233516693, 0.31890901923179626, 0.12025213986635208, 
-0.11700890958309174, 0.007481052540242672, -0.13581283390522003, 0.17472606897354126, -0.14169105887413025, -0.07941184937953949, 0.20337989926338196, 
0.13330280780792236, 0.12306733429431915, -0.0954136848449707, 0.1220841333270073, 0.021190740168094635, 0.06305139511823654, 0.242235004901886, 
-0.04231908917427063, 0.1648421585559845, -0.028393927961587906, 0.13020597398281097, -0.2563157379627228, -0.21772971749305725, 0.12718144059181213, 
0.17471835017204285, -0.006578907836228609, 0.1115003302693367, 0.11288485676050186, 0.438050776720047, -0.032277029007673264, -0.008591155521571636, 
-0.2900557816028595, 0.1983141154050827, 0.1292283833026886, 0.25141358375549316, -0.031069351360201836, -0.17272120714187622, 0.0831296443939209, 
0.05028089880943298, -0.18224097788333893, 0.21410663425922394, -0.17632487416267395, 0.08424109220504761, -0.015561400912702084, 0.020398229360580444, 
-0.05189523845911026, 0.20441094040870667, 0.17030854523181915, -0.06944725662469864, 0.05307616665959358, -0.11534848064184189, 0.10272116214036942, 
0.11998575925827026, 0.10631288588047028, 0.06233035400509834, -0.15489712357521057, -0.21837304532527924, -0.040636494755744934, -0.1471806913614273, 
-0.34875521063804626, 0.10378167033195496, -0.1072017177939415, 0.23908373713493347, 0.10136550664901733, 0.058206707239151, -0.0006102584302425385, 
0.059510115534067154, 0.14408564567565918, 0.003526458516716957, 0.02335037849843502, -0.0276092030107975, -0.07415948063135147, 0.01028350368142128, 
-0.22146451473236084, -0.03440749645233154, 0.11813642829656601, -0.18812717497348785, -0.19771556556224823, 0.047898534685373306, -0.053791593760252, 
-0.02802520990371704, -0.11264900863170624, 0.19260521233081818, -0.04368346557021141, 0.03807757794857025, -0.11417461186647415, -0.185047447681427, 
0.15438811480998993, 0.04832978919148445, -0.04815934598445892, -0.13308708369731903, 0.20532983541488647, 0.006096191238611937, -0.08718086779117584, 
-0.0034535310696810484, -0.09252835810184479, 0.05235741287469864, 0.028027119114995003, 0.02186351828277111, -0.10969635844230652, -0.08872243016958237, 
0.03850981220602989, -0.14448316395282745, -0.07226166874170303, 0.034095242619514465, -0.07653765380382538, 0.10354483127593994, -0.04085132107138634, 
0.16995292901992798, -0.09434391558170319, 0.08678870648145676, 0.24247398972511292, -0.17817647755146027, 0.167280375957489, 0.0472942553460598, 
-0.017951147630810738, 0.12147589027881622, 0.12393313646316528, 0.026378219947218895, 0.03149427846074104, -0.09791402518749237, 0.07620611041784286, 
-0.22692526876926422, -0.07893787324428558, 0.03187445178627968, 0.08683016151189804, 0.11583349108695984, -0.1721244603395462, -0.1273859292268753, 
0.05256310850381851, 0.03408103808760643, -0.1694396436214447, -0.07039396464824677, -0.06556432694196701, -0.0708276629447937, -0.13498248159885406, 
-0.1410236656665802, 0.001505743246525526, 0.09939825534820557, 0.034536149352788925, 0.06654711067676544, 0.0053644971922039986, 0.01139366626739502, 
-0.04489760100841522, -0.05349968001246452, 0.050017472356557846, 0.22821396589279175, 0.08741830289363861, -0.00031648564618080854, -0.029262978583574295, 
-0.04057912528514862, 0.2198508232831955, 0.1244293749332428, -0.1817806214094162, 0.16605748236179352, 0.32615745067596436, -0.15032625198364258, 
-0.23040667176246643, -0.26291027665138245, 0.2504268288612366, -0.014887318015098572, 0.21652308106422424, 0.01640160009264946, -0.03417614474892616, 
0.00895951222628355, -0.12316416203975677, 0.06328831613063812, -0.22832444310188293, -0.1305229514837265, -0.2221287488937378, 0.29628729820251465, 
0.08918873965740204, -0.05639076232910156, 0.22288458049297333, -0.09260547161102295, 0.12732858955860138, -0.2948110103607178, -0.017393995076417923, 
0.004290987737476826, 0.13129331171512604, 0.3229166865348816, -0.05575767904520035, -0.12200842797756195, 0.0744563564658165, 0.049837805330753326, 
-0.0435442179441452, 0.038339003920555115, 0.08354059606790543, -0.14656591415405273, -0.005893192254006863, -0.14135847985744476, 0.11315262317657471, 
-0.3308611810207367, -0.13804061710834503, -0.10916447639465332, 0.0023529096506536007, -0.2183336615562439, 0.19977614283561707, -0.07392239570617676, 
0.2335135042667389, 0.19266490638256073, 0.25583595037460327, -0.012308191508054733, 0.14679159224033356, 0.20909002423286438, 0.21433238685131073, 
0.026104077696800232, -0.26622435450553894, -0.05971907079219818, 0.06909162551164627, 0.044867388904094696, 0.02524069882929325, -0.3151516914367676, 
0.050734132528305054, -0.2146700769662857, -0.025573136284947395, -0.1364259123802185, 0.17145386338233948, -0.0948171466588974, -0.29256924986839294, 
0.24257788062095642, 0.0833563581109047, -0.10248490422964096, -0.2774193286895752, -0.0005603373283520341, -0.09217600524425507, 0.04112962633371353, 
0.10852322727441788, -0.1077064648270607, 0.19859638810157776, -0.007435633800923824, 0.10956225544214249, -0.04751474782824516, 0.19921576976776123, 
-0.14190876483917236, -0.0965115949511528, 0.08861732482910156, -0.09225751459598541, 0.12321466952562332, -0.052877627313137054, 0.2001340091228485, 
0.08785054087638855, -0.1841745376586914, -0.05068390071392059, -0.08521471917629242, -0.060537129640579224, -0.08210296183824539, -0.06320773810148239, 
-0.23089905083179474, 0.010346160270273685, -0.037131909281015396, -0.026346780359745026, 0.14956024289131165, 0.1146806925535202, 0.10610779374837875, 
0.06808925420045853, 0.22062528133392334, 0.06706452369689941, 0.19519881904125214, 0.11212474852800369, 0.07003850489854813, -0.07119093835353851, 
-0.014179287478327751, -0.09191463887691498, -0.07488450407981873, -0.37547996640205383, 0.02728760428726673, -0.03866775333881378, -0.1271073967218399, 
-0.26518404483795166, -0.05459735170006752, 0.29355624318122864, 0.17066042125225067, -0.19171835482120514, -0.07926081120967865, -0.17730571329593658, 
0.26088887453079224, 0.14994633197784424, 0.3930703401565552, -0.39265361428260803, -0.10381123423576355, -0.22009460628032684, 0.2783217132091522, 
-0.05471274256706238, -0.4785502851009369, 0.12832596898078918, 0.13593041896820068, 0.39019593596458435, -0.26853764057159424, -0.45699945092201233, 
-0.17817863821983337, 0.05313524976372719, 0.1451907604932785, -0.23609355092048645, 0.2073851376771927, 0.3401917517185211, -0.31318631768226624, 
0.38862964510917664, -0.16503967344760895, 0.06767487525939941, -0.18589894473552704, 0.1126241609454155, -0.3209837079048157, -0.30941104888916016, 
0.06776323169469833, -0.2642553746700287, 0.35327646136283875, 0.2577660381793976, -0.2074490636587143, 0.17596466839313507, 0.054149989038705826, 
0.02968420833349228, -0.08544152230024338, -0.12900084257125854, -0.091794453561306, 0.35158252716064453, -0.020922834053635597, -0.09956445544958115, 
-0.27750855684280396, -0.042640961706638336, -0.0418022945523262, -0.034616176038980484, -0.21777255833148956, -0.3270937502384186, 0.07099709659814835, 
0.12815192341804504, 0.11014801263809204, -0.014972619712352753, 0.010577401146292686, 0.2584494948387146, 0.10375900566577911, 0.08247760683298111, 
0.12689082324504852, 0.10871283710002899, 0.1436222940683365, -0.17350873351097107, 0.011506319046020508, 0.15004873275756836, -0.03716825321316719, 
-0.00835003424435854, -0.14477892220020294, 0.26759570837020874, 0.46209144592285156, -0.38205093145370483, -0.2662428319454193, -0.0716799944639206, 
0.19154544174671173, -0.11636549979448318, -0.46701672673225403, 0.15566930174827576, 0.21075040102005005, 0.39730632305145264, -0.10816620290279388, 
-0.3192746043205261, -0.14403198659420013, 0.13914556801319122, 0.25915661454200745, -0.34921297430992126, 0.16282057762145996, 0.3611774444580078, 
-0.23014192283153534, 0.20452962815761566, -0.16922222077846527, 0.1681799441576004, -0.2918485105037689, -0.03724600374698639, -0.20857085287570953, 
-0.4054645001888275, 0.145352303981781, -0.4198753833770752, 0.2977762222290039, 0.14098840951919556, -0.32434922456741333, 0.05810071527957916, 
0.18928655982017517, 0.023656003177165985, -0.00997876562178135, 0.05806639418005943, 0.13378176093101501, 0.2376115769147873, 0.11985040456056595, 
0.07374962419271469, -0.37411603331565857, 0.06341718882322311, 0.08606412261724472, 0.21628296375274658, -0.01040606014430523, -0.30195286870002747, 
-0.04063301905989647, 0.023491494357585907, 0.004051008727401495, 0.03360564634203911, 0.06627301871776581, 0.15971799194812775, 0.11053988337516785, 
-0.072720967233181, 0.14576387405395508, 0.13157892227172852, -0.04508654400706291, -0.11176449805498123, 0.047189027070999146, 0.06516203284263611, 
-0.01915423572063446, 0.042936358600854874, 0.04815659672021866, 0.1494816243648529, 0.32013392448425293, -0.4297248423099518, -0.18680286407470703, 
-0.2532094120979309, 0.21184860169887543, -0.25973743200302124, -0.25135502219200134, 0.02970021963119507, 0.017957674339413643, 0.27445679903030396, 
-0.2974264621734619, -0.26781681180000305, -0.3134784400463104, 0.23008504509925842, 0.07632478326559067, -0.3279769718647003, 0.2177785336971283, 
0.18999022245407104, -0.23831555247306824, 0.3607538342475891, -0.2007819265127182, 0.1559297889471054, -0.2895173728466034, 0.11074007302522659, 
-0.45985084772109985, -0.41688740253448486, 0.22798126935958862, -0.41621360182762146, 0.3237476050853729, 0.14730149507522583, -0.2502993643283844, 
0.1878158003091812, 0.059494636952877045, -0.07441511005163193, -0.1589174121618271, -0.012442917563021183, 0.09039189666509628, 0.24184949696063995, 
0.07128667086362839, -0.06072648987174034, -0.3892046809196472, -0.03745296597480774, 0.04828595370054245, 0.128871351480484, -0.17473120987415314, 
-0.11602403223514557, 0.013960993848741055, 0.15367990732192993, 0.16186562180519104, -0.17317695915699005, 0.019821686670184135, 0.17870233952999115, 
0.194593608379364, -0.07753245532512665, 0.06647689640522003, 0.12090681493282318, 0.01674937643110752, -0.20599263906478882, 0.19601735472679138, 
0.0003690935263875872, 0.14254635572433472, -0.0011310838162899017, -0.14476774632930756, 0.06263276189565659, -0.33369600772857666, 0.25290822982788086, 
0.03283058479428291, -0.001059444504790008, -0.17378289997577667, -0.16086918115615845, 0.20770211517810822, 0.12570559978485107, 0.002249755896627903, 
-0.06054135411977768, -0.030366137623786926, -0.04141702502965927, 0.10992643982172012, 0.024799073114991188, -0.18521380424499512, 0.16339902579784393, 
-0.08611984550952911, 0.029383575543761253, 0.10362563282251358, -0.12763041257858276, 0.14055681228637695, -0.018819335848093033, 0.1591968685388565, 
0.03319088742136955, 0.02018340490758419, 0.15053988993167877, -0.07284430414438248, 0.2784436345100403, 0.04863924905657768, -0.07519235461950302, 
0.003801243379712105, 0.19150614738464355, -0.0856483206152916, -0.04273054748773575, -0.24694257974624634, -0.030528847128152847, -0.16484136879444122, 
-0.016050761565566063, 0.12511777877807617, -0.11410060524940491, 0.21145007014274597, -0.05388397350907326, 0.03320833295583725, -0.07818026840686798, 
-0.056352391839027405, -0.001138491090387106, -0.08805243670940399, -0.11004359275102615, -0.007830671034753323, -0.11604070663452148, -0.006298256106674671, 
-0.2542940378189087, 0.037640683352947235, -0.04939437285065651, -0.13569942116737366, -0.25931188464164734, -0.08004975318908691, -0.05516248568892479, 
0.03364314138889313, -0.1703881323337555, 0.09637640416622162, 0.00025566821568645537, 0.13789817690849304, -0.0266317930072546, 0.2899104952812195, 
-0.2129567563533783, 0.014881456270813942, -0.12575313448905945, 0.03887556493282318, -0.0265802051872015, -0.22163546085357666, 0.05281451344490051, 
0.047284238040447235, 0.07247575372457504, 0.10166972130537033, -0.05185234174132347, -0.014904228039085865, -0.011219188570976257, 0.029986564069986343, 
-0.18643818795681, 0.042844176292419434, 0.08318448066711426, -0.09928232431411743, 0.1556859165430069, -0.04693002626299858, 0.15055297315120697, 
-0.23505030572414398, -0.13208554685115814, -0.08109938353300095, -0.07574408501386642, 0.03799831122159958, -0.3528083562850952, 0.1833219975233078, 
-0.038434844464063644, -0.13992410898208618, 0.12446573376655579, 0.1839647740125656, -0.026738695800304413, -0.04491971433162689, 0.02464999258518219, 
-0.12794487178325653, 0.2653847634792328, 0.18666885793209076, 0.05571737140417099, -0.08509917557239532, -0.023381419479846954, 0.23898273706436157, 
0.28054508566856384, -0.06228923797607422, -0.10801273584365845, -0.048217080533504486, 0.016428537666797638, 0.08616457879543304, -0.09051194787025452, 
-0.13253465294837952, 0.13851943612098694, 0.04618460312485695, 0.017520586028695107, -0.07358983904123306, 0.16840526461601257, 0.058337073773145676, 
-0.12024221569299698, 0.005675384774804115, 0.03461289778351784, 0.09628090262413025, 0.19669434428215027, -0.06296657770872116, 0.18958896398544312, 
0.28579893708229065, -0.07513611763715744, -0.18170885741710663, 0.22113803029060364, 0.15421655774116516, -0.027568135410547256, -0.22400620579719543, 
-0.04688558727502823, -0.018014946952462196, 0.10937469452619553, 0.025077996775507927, -0.19046901166439056, -0.14149712026119232, 0.20356899499893188, 
-0.13648730516433716, -0.22412249445915222, 0.22868849337100983, 0.19565263390541077, -0.1958313286304474, 0.3170153498649597, -0.11254162341356277, 
0.022381221875548363, -0.31778794527053833, 0.11374366283416748, -0.16482529044151306, -0.23568615317344666, 0.18515154719352722, -0.08879109472036362, 
0.3042806386947632, 0.017785686999559402, -0.20540562272071838, 0.00639305030927062, -0.012187947519123554, 0.023670552298426628, 0.09880966693162918, 
-0.10437954217195511, 0.0739152655005455, 0.07998062670230865, 0.061337653547525406, 0.1751023232936859, -0.15786312520503998, 0.11731317639350891, 
0.08771513402462006, -0.009800356812775135, -0.12283515930175781, 0.07738174498081207, -0.2296612709760666, 0.06361328065395355, 0.080670066177845, 
-0.016934949904680252, 0.17584605515003204, 0.08915357291698456, -0.1065492331981659, 0.043306123465299606, 0.0622219517827034, 0.1409251093864441, 
-0.06589857488870621, -0.12557798624038696, -0.00036361991078592837, 0.14253585040569305, 0.13557827472686768, 0.13713514804840088, 0.020214874297380447, 
0.34382694959640503, 0.2983482778072357, -0.21218617260456085, -0.17035876214504242, -0.21966692805290222, -0.08017829060554504, -0.10642443597316742, 
-0.40073269605636597, 0.05429600551724434, 0.18274138867855072, 0.047992363572120667, -0.049673307687044144, -0.11262458562850952, -0.1319589614868164, 
0.04494529962539673, 0.1628754884004593, -0.16149979829788208, -0.1016102209687233, 0.22511214017868042, -0.1877775639295578, 0.21018436551094055, 
-0.20083525776863098, 0.01747412234544754, -0.16095532476902008, -0.15920473635196686, -0.2369394600391388, -0.3601766526699066, 0.1763874590396881, 
-0.264962375164032, -0.021272223442792892, 0.057755257934331894, 0.003035950241610408, -0.13618266582489014, -0.17603753507137299, 0.08306887000799179, 
0.19694608449935913, 0.06240242347121239, 0.07759694755077362, 0.22072605788707733, -0.07939949631690979, 0.14189587533473969, -0.26931440830230713, 
0.1369386613368988, -0.11606503278017044, 0.1289762258529663, -0.013728001154959202, 0.0765090361237526, 0.18666280806064606, -0.018652280792593956, 
0.005098583176732063, 0.141905277967453, -0.03536483645439148, 0.07453101128339767, -0.12110498547554016, -0.13332737982273102, 0.012457791715860367, 
0.14399459958076477, -0.018803924322128296, 0.061186451464891434, -0.07951780408620834, 0.09358798712491989, -0.07886625826358795, -0.11078310757875443, 
0.014465534128248692, -0.10916293412446976, -0.062410786747932434, -0.13828399777412415, 0.02027611993253231, -0.07786525785923004, -0.18247874081134796, 
0.13227994740009308, 0.08357278257608414, -0.045828159898519516, -0.021591972559690475, 0.13157926499843597, 0.05861687287688255, 0.07338201254606247, 
-0.05567388981580734, -0.15585951507091522, 0.1414765864610672, 0.08167312294244766, -0.18130286037921906, -0.14749880135059357, 0.03931232541799545, 
-0.12274079769849777, 0.10776419937610626, -0.15105366706848145, 0.17497481405735016, -0.05110170692205429, 0.05516837537288666, 0.1494807004928589, 
-0.07822489738464355, 0.0550973154604435, -0.11507922410964966, 0.030736753717064857, 0.15556518733501434, 0.005747558083385229, 0.03609352558851242, 
-0.06299565732479095, -0.015622753649950027, -0.11530144512653351, -0.07075843960046768, -0.016259387135505676, -0.05867358669638634, 0.18225231766700745, 
-0.03915950655937195, -0.2092553675174713, 0.0037056172732263803, -0.03506028652191162, -0.11604494601488113, -0.12562339007854462, -0.07673440873622894, 
0.06540969759225845, -0.11439405381679535, 0.15275560319423676, 0.10877509415149689, 0.0009363011922687292, 0.1629551202058792, 0.03421790897846222, 
0.13090954720973969, 0.10109655559062958, 0.07485923171043396, -0.12906022369861603, -0.004434215370565653, -0.0846482440829277, -0.013371662236750126, 
-0.1545167863368988, -0.028788935393095016, 0.20074443519115448, 0.26435938477516174, -0.2273131012916565, -0.31007179617881775, 0.010317908599972725, 
0.019217202439904213, -0.23268423974514008, -0.15033645927906036, 0.017794912680983543, 0.12429682165384293, 0.05699838325381279, -0.07814548164606094, 
-0.3094884157180786, -0.2589312195777893, 0.0637933611869812, 0.23968935012817383, -0.10634109377861023, 0.030411146581172943, 0.3809022605419159, 
-0.16033044457435608, 0.3475913405418396, -0.23691968619823456, -0.0025070221163332462, -0.19124728441238403, -0.056898102164268494, -0.11722873151302338, 
-0.350910484790802, 0.34528234601020813, -0.18026643991470337, 0.2557814121246338, 0.086693674325943, -0.35851845145225525, -0.1300630122423172, 
-0.09370588511228561, 0.055502600967884064, -0.07329785823822021, -0.13492372632026672, 0.04134151712059975, 0.17664943635463715, -0.12301835417747498, 
0.11123115569353104, -0.2107490450143814, -0.012984832748770714, 0.11577797681093216, 0.09927739948034286, -0.12251102924346924, -0.03796505928039551, 
0.020429858937859535, -0.002706489060074091, -0.005510473158210516, -0.10189385712146759, -0.008940146304666996, 0.21811753511428833, -0.11971132457256317, 
0.024638157337903976, 0.22726128995418549, 0.11901610344648361, -0.09423187375068665, 0.11846960335969925, 0.1154288724064827, 0.03296591714024544, 
0.07556460797786713, 0.18811431527137756, -0.0023831664584577084, -0.18448229134082794, 0.14645235240459442, -0.11433622241020203, -0.05096112936735153, 
-0.14306412637233734, -0.002100806450471282, -0.05303115397691727, -0.10322703421115875, 0.15600800514221191, 0.0788872092962265, 0.044674888253211975, 
0.07204058021306992, -0.09023607522249222, -0.09969307482242584, -0.04466715455055237, -0.07637875527143478, -0.15288867056369781, 0.10853900015354156, 
0.08066655695438385, -0.1001913845539093, 0.010018003173172474, -0.0163772851228714, 0.13008412718772888, -0.2292761355638504, -0.1503949910402298, 
0.0678870677947998, -0.02918916568160057, 0.03073093108832836, -0.26318252086639404, 0.14065736532211304, 0.004554159007966518, -0.1843620240688324, 
-0.0021883915178477764, 0.08519069105386734, -0.18761858344078064, 0.004500146955251694, 0.06853962689638138, 0.007850510068237782, 0.22737082839012146, 
0.162797749042511, -0.006752528250217438, 0.016711942851543427, 0.07754795253276825, 0.16146399080753326, 0.20394589006900787, -0.09016963839530945, 
-0.031181808561086655, 0.03785556182265282, 0.01795330084860325, 0.18220947682857513, -0.005319499876350164, -0.10638001561164856, 0.19340208172798157, 
0.11029750853776932, 0.07759375870227814, 0.03895317390561104, 0.17617852985858917, -0.000765267526730895, -0.06436797976493835, -0.02803315781056881, 
0.11058185994625092, 0.13761313259601593, 0.0237492136657238, 0.06582660228013992, 0.03650011122226715, -0.07149580121040344, -0.07081350684165955, 
-0.44319766759872437, 0.17237509787082672, 0.24092288315296173, -0.2786194980144501, 0.0437832735478878, -0.06365998834371567, 0.006751148030161858, 
0.012331539765000343, -0.045472219586372375, -0.1556812822818756, -0.12405111640691757, -0.11389873176813126, 0.16189609467983246, -0.0365026630461216, 
0.11898823082447052, 0.3987826108932495, 0.11857447773218155, 0.1712302267551422, -0.3838443458080292, -0.05289672687649727, 0.04702293500304222, 
0.013622608035802841, -0.018252866342663765, -0.1158183291554451, 0.15616711974143982, 0.09375714510679245, -0.10045423358678818, 0.14920122921466827, 
-0.16531266272068024, -0.36212798953056335, -0.5668235421180725, 0.3219316005706787, 0.42794835567474365, 0.01761186122894287, 0.26989930868148804, 
-0.42489057779312134, -0.31403595209121704, -0.2064363807439804, -0.00017382124497089535, 0.02966955490410328, -0.587644636631012, -0.6938727498054504, 
-0.21232789754867554, 0.5131157040596008, -0.07284218817949295, 0.2311902940273285, -0.2074020951986313, 0.2523449659347534, 0.384639173746109, 
0.048065342009067535, -0.4078652262687683, 0.13132339715957642, 0.19619105756282806, 0.16722318530082703, -0.05581831932067871, -0.25517913699150085, 
-0.532629132270813, 0.140719935297966, 0.07471436262130737, 0.13817892968654633, -0.5325594544410706, 0.10184711962938309, 0.3169865608215332, 
-0.2632199227809906, -0.11345534771680832, -0.18683023750782013, -0.10415906459093094, -0.18191944062709808, -0.39409974217414856, -0.08337635546922684, 
0.26379793882369995, 0.3142867982387543, -0.18685951828956604, -0.43169307708740234, -0.25511783361434937, 0.20968298614025116, 0.394307404756546, 
-0.1661146581172943, 0.12111372500658035, 0.3287128508090973, -0.2730403542518616, 0.4497305452823639, -0.15983210504055023, -0.010136524215340614, 
-0.16881033778190613, -0.1249362975358963, -0.42998501658439636, -0.3997444808483124, 0.3865562081336975, -0.28338149189949036, 0.2537615895271301, 
0.04074329510331154, -0.3201596736907959, -0.0943068191409111, 0.03548054024577141, -0.16820283234119415, -0.1861414611339569, -0.1708357036113739, 
0.03739938884973526, 0.3809598684310913, -0.020158562809228897, 0.017222540453076363, -0.47864988446235657, -0.15908485651016235, 0.12686118483543396, 
-0.018584685400128365, -0.09739352762699127, -0.3279894292354584, 0.06600362807512283, 0.10412244498729706, 0.012506939470767975, -0.07811152935028076, 
0.06634879857301712, 0.1801852583885193, 0.09897125512361526, 0.040596477687358856, 0.24412043392658234, 0.15826921164989471, 0.1973780244588852, 
0.09396432340145111, 0.14293108880519867, -0.028979012742638588, 0.005905542057007551, -0.05324472859501839, 0.0006089684320613742, 0.0542130172252655, 
0.14873510599136353, -0.23551492393016815, 0.09121551364660263, 0.01240408606827259, 0.0007204138673841953, -0.07980598509311676, -0.07481543719768524, 
0.04276785999536514, -0.037180833518505096, -0.002921503270044923, -0.034017760306596756, -0.06363417208194733, 0.08045605570077896, 0.1757095903158188, 
-0.1086111068725586, -0.2471553087234497, 0.05576688423752785, 0.19061192870140076, -0.2526220977306366, 0.15985523164272308, -0.0038902955129742622, 
0.10701006650924683, -0.13988344371318817, -0.11513762176036835, -0.13562078773975372, -0.06692103296518326, 0.028792303055524826, -0.19671213626861572, 
0.14978629350662231, -0.046159058809280396, -0.11585615575313568, 0.05227150768041611, 0.10984937846660614, -0.16991622745990753, -0.16553935408592224, 
-0.1980290561914444, 0.039429016411304474, 0.0762583315372467, 0.26525378227233887, 0.11739674210548401, 0.041682008653879166, 0.08872400224208832, 
0.15673820674419403, 0.11125648021697998, 0.03626735880970955, -0.05817120149731636, 0.003589803818613291, 0.0196849312633276, 0.20445720851421356, 
-0.13168290257453918, -0.1505470871925354, -0.0007088839774951339, -0.08589400351047516, 0.06567065417766571, 0.02288888767361641, -0.05656589940190315, 
0.02603183686733246, -0.11943817883729935, 0.0011095368536189198, 0.0059588076546788216, 0.05316165089607239, 0.016671381890773773, 0.007487517315894365, 
-0.33062514662742615, -0.36618924140930176, 0.17853309214115143, 0.25085774064064026, 0.0012022472219541669, 0.07886020094156265, 0.1223231628537178, 
0.37500616908073425, 0.0961475819349289, -0.17720767855644226, -0.05821689963340759, -0.0076429094187915325, 0.11808720231056213, 0.23166373372077942, 
-0.0816446989774704, -0.07834064960479736, 0.046886056661605835, -0.033632922917604446, -0.2433217465877533, 0.13510054349899292, -0.1545451283454895, 
0.10571608692407608, -0.11879820376634598, 0.15874458849430084, 0.026893258094787598, 0.33147871494293213, 0.162451833486557, -0.14231471717357635, 
0.27873754501342773, -0.14746178686618805, 0.037720926105976105, -0.017107710242271423, 0.1245957612991333, -0.16319222748279572, -0.10680242627859116, 
-0.15340515971183777, -0.04368690401315689, -0.025550363585352898, -0.26569387316703796, -0.05364677309989929, -0.20621323585510254, 0.2523132264614105, 
-0.08807963132858276, -0.0017359930789098144, -0.2061421424150467, 0.020376840606331825, 0.19268198311328888, -0.09421339631080627, -0.021572815254330635, 
0.014335121028125286, -0.007525067776441574, -0.05070158839225769, -0.20033621788024902, -0.025322819128632545, 0.185110405087471, -0.11058522015810013, 
-0.08872886747121811, 0.020311744883656502, 0.03821713104844093, -0.1791469305753708, 0.018537431955337524, 0.13085822761058807, 0.12840834259986877, 
0.014829120598733425, -0.14965632557868958, -0.2194025069475174, -0.03395461291074753, 0.1389778107404709, -0.02556541934609413, -0.14436091482639313, 
0.07462973147630692, 0.11366128921508789, -0.020165054127573967, 0.050494901835918427, -0.12114790827035904, 0.14790906012058258, 0.2188793420791626, 
-0.016535550355911255, -0.029185554012656212, 0.17160968482494354, 0.031069424003362656, -0.2995576560497284, -0.13106583058834076, 0.07357998192310333, 
-0.09353352338075638, 0.0052504753693938255, -0.10441838949918747, 0.014492923393845558, -0.1475570648908615, 0.10505896806716919, 0.09564237296581268, 
0.0013528187992051244, 0.1290116161108017, -0.1105862408876419, -0.060532040894031525, 0.11083626747131348, 0.05475836992263794, -0.08905060589313507, 
-0.14003907144069672, -0.07185438275337219, -0.1676938682794571, -0.1698566973209381, -0.20018677413463593, -0.035013675689697266, 0.1141141951084137, 
0.13108740746974945, 0.022327695041894913, 0.0034201755188405514, -0.06455538421869278, -0.008179730735719204, -0.10654335469007492, 0.10644644498825073, 
0.001097314991056919, -0.09377304464578629, 0.11005640774965286, -0.07525112479925156, -0.2738713026046753, 0.04156050831079483, -0.10065121948719025, 
-0.12486663460731506, -0.2202191948890686, -0.08840883523225784, 0.06076296046376228, -0.06901120394468307, -0.2759666442871094, -0.052156057208776474, 
0.04408640041947365, 0.07804778218269348, 0.2747501730918884, 0.4909634292125702, -0.24719615280628204, -0.13672512769699097, -0.1913253366947174, 
-0.2999694347381592, 0.29068052768707275, -0.40486639738082886, 0.019708598032593727, 0.17517085373401642, 0.32836198806762695, 0.049766894429922104, 
0.08305983990430832, -0.044105589389801025, -0.08085937052965164, 0.4181758761405945, -0.09981172531843185, -0.4010523557662964, 0.12562251091003418, 
0.0004827521916013211, -0.007750755175948143, 0.09084612876176834, -0.07613646239042282, -0.0990367904305458, -0.14584515988826752, -0.25078389048576355, 
-0.09272976964712143, 0.08491699397563934, -0.015824826434254646, -0.21459539234638214, -0.18477700650691986, 0.08115189522504807, -0.07043883949518204, 
0.16948090493679047, 0.5129543542861938, 0.3142811357975006, 0.3354795277118683, 0.16940459609031677, 0.21706120669841766, -0.14875346422195435, 
0.10340699553489685, -0.043839987367391586, 0.08301568776369095, -0.07040167599916458, 0.24730294942855835, 0.19629430770874023, 0.07434632629156113, 
0.20379728078842163, -0.1377086490392685, -0.041979167610406876, 0.053184475749731064, -0.20307955145835876, -0.066226065158844, 0.08451062440872192, 
-0.4639008045196533, 0.004017211496829987, 0.15843012928962708, -0.030861709266901016, 0.3190174400806427, 0.12856729328632355, 0.11589638888835907, 
-0.2716512382030487, -0.3621530830860138, 0.2191879004240036, 0.4312373697757721, 0.032531630247831345, -0.12099096179008484, -0.30803146958351135, 
-0.10892267525196075, -0.2290320098400116, -0.14605842530727386, -0.15172505378723145, 0.08100062608718872, -0.06923269480466843, 0.06114378944039345, 
-0.2687893807888031, 0.13050304353237152, -0.08421690762042999, 0.10517165809869766, -0.039542023092508316, 0.00819484144449234, -0.17782019078731537, 
0.09889090061187744, -0.05610420182347298, -0.058519307523965836, -0.09581033885478973, 0.2786654531955719, -0.008801947347819805, 0.11014096438884735, 
-0.015358046628534794, -0.20964401960372925, 0.09090778976678848, -0.04338588938117027, -0.10966961830854416, -0.10598306357860565, 0.11355032026767731, 
-0.0910826176404953, 0.19481150805950165, 0.49055302143096924, 0.1944473832845688, 0.5822088122367859, 0.13512104749679565, 0.35256800055503845, 
-0.0036880027037113905, -0.020329514518380165, 0.1180117130279541, -0.08302266150712967, -0.06581727415323257, 0.3110094666481018, 0.6263077259063721, 
0.07527729868888855, 0.194390207529068, -0.2913524806499481, -0.17111848294734955, -0.007429627235978842, -0.5366165637969971, -0.1570490151643753, 
0.055701497942209244, -0.4735502004623413, -0.22956342995166779, -0.10526023805141449, 0.03610476478934288, 0.28098931908607483, 0.008780003525316715, 
0.01284200418740511, -0.11751676350831985, -0.3504277467727661, 0.17264775931835175, 0.02375130169093609, -0.0824810117483139, -0.1725209653377533, 
0.0037076042499393225, -0.12051638215780258, -0.1862703412771225, 0.10835248976945877, -0.015757383778691292, 0.16867685317993164, 0.0370706282556057, 
0.2057901918888092, -0.058999139815568924, -0.07723787426948547, -0.019908376038074493, -0.17504814267158508, 0.25324466824531555, 0.15653370320796967, 
-0.10636375844478607, -0.13782313466072083, -0.09635789692401886, -0.011184094473719597, 0.006414209026843309, -0.24720221757888794, 0.22468644380569458, 
0.020154593512415886, -0.026476189494132996, 0.08748508244752884, 0.07046552002429962, -0.005633589345961809, 0.02275739796459675, 0.04356199875473976, 
-0.04950721189379692, -0.01603240706026554, -0.052258849143981934, 0.004337775520980358, -0.08999914675951004, -0.016753697767853737, -0.011247728951275349, 
-0.03293142467737198, -0.07256170362234116, -0.10143806040287018, -0.040756456553936005, -0.35195380449295044, 0.14444109797477722, -0.3449425995349884, 
-0.35925501585006714, 0.05550641566514969, 0.126702681183815, 0.05055643245577812, -0.07507237046957016, -0.10026456415653229, 0.33917275071144104, 
0.06607157737016678, 0.01597556285560131, -0.057781681418418884, 0.06779221445322037, -0.12532591819763184, 0.06732552498579025, 0.17304886877536774, 
0.052177391946315765, -0.1587122678756714, -0.033064279705286026, -0.1511697769165039, -0.10935617238283157, 0.4274940490722656, 0.5137336850166321, 
-0.39164480566978455, -0.12684576213359833, -0.21909578144550323, 0.40962284803390503, -0.2357887625694275, -0.4483681321144104, 0.12036266177892685, 
-0.03395693376660347, 0.3829861879348755, -0.44865623116493225, -0.3749418258666992, -0.36479005217552185, 0.10986927896738052, 0.17406120896339417, 
-0.4051792025566101, 0.32056260108947754, 0.11784008890390396, -0.46474897861480713, 0.38438671827316284, -0.1048622876405716, 0.19424931704998016, 
-0.4288402497768402, 0.1246894896030426, -0.604566216468811, -0.39083823561668396, 0.142048642039299, -0.34805718064308167, 0.3421567976474762, 
0.3223995566368103, -0.2593485116958618, 0.1961776167154312, 0.1322530061006546, 0.08460298180580139, -0.3252280652523041, 0.2012874186038971, 
-0.006111934781074524, 0.272663950920105, 0.15450166165828705, -0.03140624240040779, -0.4245730936527252, 0.041590288281440735, 0.2046310156583786, 
0.14987845718860626, -0.14762429893016815, -0.1940157264471054, 0.0921940729022026, 0.010672091506421566, 0.05735223367810249, -0.1390126347541809, 
-0.019503189250826836, 0.1976989209651947, 0.2725219428539276, -0.2529061734676361, 0.18540798127651215, -0.03178028017282486, 0.08206996321678162, 
-0.03947426751255989, 0.10110729187726974, 0.20334169268608093, 0.046944160014390945, -0.2579416334629059, -0.05153745785355568, 0.04614560306072235, 
0.2944539785385132, -0.35018548369407654, -0.14555858075618744, 0.008678906597197056, 0.0795217752456665, -0.10424107313156128, -0.18760353326797485, 
0.14902126789093018, 0.1395520269870758, 0.22933624684810638, -0.16814033687114716, -0.31694895029067993, -0.15034741163253784, 0.08018963783979416, 
0.09408093243837357, -0.1295263022184372, 0.1009274423122406, 0.1776345670223236, -0.11896416544914246, 0.3160560727119446, -0.24954962730407715, 
0.15127931535243988, -0.20410680770874023, 0.008986026979982853, -0.33169275522232056, -0.3315514624118805, 0.17587850987911224, -0.3147946000099182, 
0.28268498182296753, 0.07001932710409164, -0.2720218896865845, 0.041561223566532135, 0.14889129996299744, 0.0020953244529664516, -0.007948420941829681, 
-0.0540781132876873, 0.07364508509635925, 0.10239578038454056, -0.045840274542570114, 0.08174561709165573, -0.24195459485054016, 0.0802045613527298, 
0.045533835887908936, 0.17265696823596954, -0.19527147710323334, -0.20255935192108154, 0.0949220284819603, 0.0808391198515892, 0.08452145010232925, 
0.11924796551465988, -0.04973296448588371, 0.029445065185427666, 0.1689390242099762, -0.09256202727556229, -0.05357436463236809, 0.1534779965877533, 
-0.04430388659238815, 0.09905466437339783, 0.12629170715808868, -0.0027255634777247906, -0.1837213635444641, -0.02517910674214363, 0.16957877576351166, 
-0.204005166888237, 0.18483586609363556, -0.17462396621704102, 0.13189689815044403, -0.1965932846069336, -0.3795773684978485, -0.016891539096832275, 
0.021861648187041283, 0.17837287485599518, 0.23464587330818176, 0.01285969465970993, -0.06391449272632599, 0.06458397954702377, -0.024998653680086136, 
0.061860885471105576, 0.0880853608250618, 0.10772505402565002, -0.11799494177103043, -0.16357964277267456, 0.10554832965135574, -0.05162093788385391, 
-0.031813815236091614, 0.10257422178983688, 0.22760149836540222, 0.001658579451031983, 0.05180244892835617, 0.05015680193901062, -0.01286909356713295, 
-0.02914472669363022, -0.013840663246810436, -0.06656374037265778, 0.00138540577609092, -0.0038182709831744432, 0.20080497860908508, -0.017142336815595627, 
0.01903180032968521, -0.03396293893456459, -0.07851321250200272, 0.12891916930675507, -0.11404173076152802, 0.20332175493240356, -0.043099209666252136, 
-0.16814425587654114, 0.08176667243242264, 0.1126660704612732, 0.11654956638813019, -0.08853886276483536, -0.036768682301044464, 0.014673144556581974, 
-0.11258194595575333, 0.17954762279987335, 0.006096262019127607, 0.06181180849671364, 0.14137639105319977, 0.1289183795452118, -0.03731221333146095, 
0.04130594804883003, -0.06665369123220444, 0.06491905450820923, 0.06282699108123779, -0.0026820481289178133, 0.048510584980249405, 0.0401364341378212, 
-0.00686705531552434, 0.31824055314064026, 0.6049843430519104, -0.44612985849380493, -0.32890239357948303, -0.29275062680244446, 0.04948537424206734, 
-0.29514560103416443, -0.3937159478664398, 0.060678403824567795, 0.11092931777238846, 0.3195497393608093, -0.27263128757476807, -0.4238448143005371, 
-0.3417942523956299, 0.16788341104984283, 0.39265212416648865, -0.18531113862991333, 0.2202405482530594, 0.3797782063484192, -0.35023462772369385, 
0.4738434851169586, -0.17072318494319916, 0.061651572585105896, -0.12043522298336029, 0.03502800688147545, -0.5800990462303162, -0.3870204985141754, 
0.3955270051956177, -0.28815722465515137, 0.3880421221256256, 0.23131661117076874, -0.4604511559009552, 0.06931450963020325, -0.011059236712753773, 
0.10201676189899445, -0.07985660433769226, 0.10237503051757812, 0.08629076927900314, 0.3814389407634735, -0.09403090924024582, 0.1889714151620865, 
-0.36468979716300964, -0.034041762351989746, -0.0030837301164865494, 0.12182816863059998, -0.2629716694355011, -0.4109566807746887, 0.15955637395381927, 
0.08864761888980865, 0.011799170635640621, -0.08914405107498169, 0.013095984235405922, 0.14837110042572021, 0.11536828428506851, 0.03850187733769417, 
0.12221626937389374, 0.22021612524986267, -0.00602606451138854, -0.1165170669555664, 0.18749386072158813, 0.1084098219871521, -0.04142411798238754, 
0.025084834545850754, -0.026159927248954773, -0.16061396896839142, -0.4558328092098236, 0.44536107778549194, 0.06724391877651215, 0.06426191329956055, 
-0.16974058747291565, 0.20526447892189026, 0.3962680399417877, -0.14679348468780518, 0.06764961779117584, -0.3133562505245209, 0.24184507131576538, 
0.3871968686580658, 0.4038478434085846, -0.15616673231124878, -0.2468527853488922, 0.3336125910282135, -0.15808258950710297, -0.2356477677822113, 
0.34907665848731995, -0.2592463791370392, 0.016349831596016884, 0.00546887656673789, 0.2445058971643448, 0.034100160002708435, 0.42687535285949707, 
0.308543860912323, -0.25168243050575256, 0.31520527601242065, -0.22810691595077515, -0.10695693641901016, 0.24807877838611603, -0.04067940264940262, 
-0.087809719145298, 0.061792269349098206, 0.01238703727722168, 0.0902487188577652, 0.014848295599222183, -0.24763809144496918, -0.08984314650297165, 
-0.008675284683704376, 0.4283970892429352, -0.06709647178649902, -0.0020498335361480713, -0.05686291307210922, 0.07568541169166565, 0.2613295018672943, 
-0.04902517795562744, -0.012026634067296982, -0.27537307143211365, -0.03940720856189728, -0.08813661336898804, -0.14456266164779663, -0.15684111416339874, 
0.06329246610403061, -0.2618766725063324, -0.26798200607299805, -0.014287663623690605, 0.07177300751209259, -0.06916047632694244, -0.050605740398168564, 
-0.03878568112850189, 0.015968330204486847, -0.07957691699266434, -0.0009671106818132102, -0.21212920546531677, -0.025945331901311874, -0.22884829342365265, 
0.0033146042842417955, -0.2694275975227356, -0.11517653614282608, 0.03771825507283211, 0.075942263007164, 0.2121710181236267, 0.01666071265935898, 
-0.047290436923503876, -0.11333911120891571, -0.1246080994606018, -0.025473222136497498, -0.026800798252224922, 0.06542667001485825, -0.03210378810763359, 
-0.026714235544204712, 0.0030035509262233973, 0.02041928842663765, -0.1736089587211609, 0.045742522925138474, 0.2089875191450119, -0.007650195155292749, 
0.14139428734779358, -0.11214178055524826, 0.05032115802168846, 0.06941656768321991, 0.18952862918376923, -0.03031080961227417, -0.18687792122364044, 
-0.05941507965326309, 0.08236942440271378, -0.062466543167829514, -0.17071901261806488, -0.06710255891084671, 0.030974147841334343, 0.005481791216880083, 
-0.013979914598166943, -0.046328846365213394, 0.056527022272348404, -0.23951634764671326, -0.1746024638414383, 0.05083641782402992, -0.02327822707593441, 
0.08813152462244034, -0.12827225029468536, 0.031659699976444244, 0.02582048438489437, -0.08772686123847961, -0.03033718839287758, -0.01264201570302248, 
-0.08793990314006805, 0.1668819934129715, 0.08631309866905212, 0.10612859576940536, 0.16732549667358398, -0.12376490235328674, 0.026568269357085228, 
0.05553960055112839, 0.14396241307258606, 0.0629255473613739, -0.20672394335269928, 0.2189008742570877, -0.07224970310926437, -0.08449309319257736, 
0.062257617712020874, 0.06532905250787735, -0.05017682909965515, 0.08035265654325485, -0.05161689221858978, -0.28090110421180725, -0.13815008103847504, 
0.17494624853134155, -0.21171872317790985, 0.07627462595701218, -0.05378209054470062, 0.10641877353191376, -0.01402799692004919, 0.09806220233440399, 
0.006761352065950632, -0.11796662956476212, 0.009502998553216457, -0.03771339729428291, 0.0974191427230835, -0.035044725984334946, -0.2412215620279312, 
0.26731547713279724, 0.04256117716431618, -0.07044710963964462, 0.024569876492023468, -0.07888355851173401, 0.00912291370332241, 0.20506566762924194, 
0.2520476281642914, -0.02324238233268261, 0.005904764402657747, 0.12134063243865967, 0.31367871165275574, 0.13015155494213104, 0.03132539242506027, 
-0.11882482469081879, -0.140552818775177, -0.09962731599807739, 0.11919278651475906, 0.10680324584245682, -0.13861975073814392, -0.12258275598287582, 
0.059201065450906754, 0.053479645401239395, 0.011854581534862518, 0.06301148235797882, -0.14130812883377075, 0.2720482051372528, 0.06478242576122284, 
-0.014286537654697895, -0.08906437456607819, -0.080128513276577, 0.04916142299771309, 0.10137500613927841, -0.044446490705013275, -0.0182042233645916, 
-0.10468488931655884, -0.14083902537822723, -0.12744489312171936, -0.10255414247512817, -0.006305479444563389, 0.018246106803417206, -0.12102726101875305, 
0.009266121312975883, 0.151982843875885, 0.1289333701133728, -0.2756042778491974, 0.19787104427814484, 0.26992151141166687, -0.13498878479003906, 
-0.09978664666414261, -0.16344210505485535, 0.11877991259098053, 0.1479240506887436, -0.09130101650953293, -0.2451907843351364, 0.08901596069335938, 
0.2189502716064453, -0.2275615781545639, -0.09647531062364578, 0.1962270438671112, -0.05214295908808708, 0.08378352969884872, -0.04745524376630783, 
0.22025077044963837, -0.09047271311283112, 0.09040363132953644, 0.12428537756204605, -0.05999667942523956, 0.04355820268392563, -0.05313762649893761, 
-0.012161592952907085, -0.06910582631826401, 0.006597787607461214, -0.1726970225572586, -0.005723319947719574, 0.16320672631263733, -0.09553716331720352, 
0.020061958581209183, -0.17665918171405792, -0.08961055427789688, 0.020843369886279106, 0.01396543625742197, -0.181185781955719, -0.0563252717256546, 
-0.15671823918819427, -0.06522970646619797, -0.027782026678323746, -0.050745125859975815, -0.023189514875411987, -0.1765405237674713, -0.034799229353666306, 
0.10387582331895828, -0.0005256487638689578, -0.10908522456884384, 0.11062446981668472, 0.03203478455543518, 0.10152607411146164, -0.12935826182365417, 
0.05150482431054115, -0.08046289533376694, -0.05485524237155914, -0.04916933551430702, 0.1155562475323677, 0.1651323437690735, 0.06767904758453369, 
-0.10159695893526077, -0.09411496669054031, 0.1332850307226181, -0.10026641935110092, -0.07278457283973694, 0.06985526531934738, 0.0011290224501863122, 
0.055066872388124466, -0.08068281412124634, -0.06930796802043915, 0.09426674991846085, 0.06599947065114975, 0.04375852271914482, -0.13248640298843384, 
-0.04647623375058174, 0.019051505252718925, 0.0821789801120758, -0.0690155178308487, 0.06331386417150497, -0.07899939268827438, 0.0827731341123581, 
-0.09245245903730392, 0.03008156269788742, 0.16393539309501648, -0.07004714012145996, 0.014094141311943531, -0.029382461681962013, 0.09650778025388718, 
0.20061145722866058, 0.08843588083982468, 0.06117143854498863, 0.07668519020080566, 0.020218918099999428, -0.05088924989104271, -0.13457579910755157, 
0.010904780589044094, -0.08197672665119171, -0.1579708456993103, -0.16870568692684174, 0.02498318813741207, 0.20367179811000824, -0.12682205438613892, 
-0.024316877126693726, 0.0701979547739029, 0.01710842363536358, 0.12285341322422028, 0.14950719475746155, -0.0634046420454979, 0.13199913501739502, 
-0.13793013989925385, 0.04645434767007828, 0.021592166274785995, -0.004403077531605959, 0.018025420606136322, 0.04318743944168091, -0.0036528464406728745, 
-0.06916448473930359, -0.06752125918865204, 0.0627855584025383, -0.23272502422332764, 0.00208480772562325, -0.012841753661632538, 0.03986518457531929, 
-0.2910577058792114, 0.1043318510055542, -0.1886194944381714, 0.1292107105255127, -0.12234117835760117, -0.2955452799797058, -0.2346763014793396, 
0.2628978192806244, 0.3869025409221649, 0.46456217765808105, -0.141310453414917, -0.04620729759335518, -0.04212570935487747, 0.16057409346103668, 
-0.26426252722740173, 0.1349416971206665, -0.006429983768612146, -0.21057473123073578, 0.13693329691886902, 0.14611122012138367, -0.15338125824928284, 
-0.2434566617012024, 0.18044720590114594, 0.3528870940208435, -0.18201525509357452, 0.03293146565556526, -0.06108727678656578, -0.024890130385756493, 
-0.012799640186131, -0.2940545082092285, -0.21200443804264069, -0.24959062039852142, -0.060437534004449844, -0.03482210263609886, -0.0654827430844307, 
-0.06471370905637741, 0.26021718978881836, 0.06949887424707413, 0.14139480888843536, -0.0010432421695441008, -0.014287866652011871, 0.11677185446023941, 
-0.6746194362640381, 0.15985062718391418, -0.0033949667122215033, -0.005991099867969751, 0.2585721015930176, -0.05383528769016266, -0.14614443480968475, 
0.09995615482330322, -0.25427281856536865, 0.05172276869416237, 0.042824726551771164, -0.13358600437641144, -0.10847562551498413, -0.17889253795146942, 
-0.07789106667041779, -0.0880868062376976, 0.3595673441886902, 0.10891836881637573, 0.017431164160370827, -0.06472399830818176, 0.15739253163337708, 
0.07159886509180069, -0.04773296043276787, -0.45248648524284363, 0.3347969651222229, 0.06808136403560638, 0.20462612807750702, 0.04867812618613243, 
0.17706699669361115, 0.27191585302352905, 0.04897516593337059, -0.06835011392831802, -0.06677746027708054, 0.13835252821445465, 0.1954045444726944, 
0.1703473925590515, -0.08605080097913742, -0.023760225623846054, 0.3352331221103668, -0.13610607385635376, -0.20895807445049286, 0.23360250890254974, 
-0.12182183563709259, 0.03776944801211357, -0.21892458200454712, 0.1782454401254654, 0.08503798395395279, 0.3309144079685211, 0.3937303423881531, 
-0.14169633388519287, 0.24737977981567383, -0.2171097993850708, -0.11072539538145065, 0.10463552176952362, -0.016582733020186424, -0.07801289111375809, 
-0.03025624342262745, 0.02018294483423233, -0.11578202247619629, -0.16509667038917542, -0.20629636943340302, -0.022733846679329872, 0.013018524274230003, 
0.341048926115036, 0.0900837779045105, -0.1983228176832199, -0.2150004506111145, 0.02999981679022312, 0.2561497986316681, -0.0841599628329277, 
-0.09030118584632874, -0.05268510431051254, 0.03158791735768318, 0.036562059074640274, -0.29346153140068054, -0.15615904331207275, -0.027438635006546974, 
-0.13237811625003815, -0.2575436234474182, 0.03746536001563072, -0.04837700352072716, -0.17058999836444855, -0.10332255810499191, -0.0694703459739685, 
-0.03633497655391693, 0.09703093022108078, 0.18095484375953674, -0.09700771421194077, -0.060347311198711395, -0.19965413212776184, -0.06861798465251923, 
-0.3877504765987396, 0.14773865044116974, 0.10252287983894348, 0.16803593933582306, -0.03708549588918686, -0.03540370613336563, -0.1022975817322731, 
0.28468942642211914, 0.057270344346761703, 0.12905746698379517, -0.10762058198451996, -0.010138374753296375, -0.33965620398521423, -0.047942668199539185, 
0.10489923506975174, -0.17396579682826996, 0.0937340185046196, 0.2416500747203827, 0.12232709676027298, -0.05160139501094818, 0.11924120038747787, 
0.1167580634355545, -0.03703105449676514, 0.11856748163700104, -0.04078466445207596, -0.1256381869316101, 0.21905581653118134, 0.08224086463451385, 
0.012991108931601048, 0.06018580496311188, 0.13311386108398438, 0.21666131913661957, -0.06476700305938721, 0.005170137621462345, -0.02721109427511692, 
-0.053034842014312744, 0.21494972705841064, -0.13816416263580322, 0.024041103199124336, -0.09119831025600433, 0.08685829490423203, 0.055506885051727295, 
-0.008256322704255581, -0.22232595086097717, -0.14224103093147278, 0.1369534134864807, -0.03988361731171608, -0.1012895256280899, -0.010914579033851624, 
-0.15110692381858826, -0.15983396768569946, 0.0029872131999582052, 0.050514716655015945, 0.1128307357430458, -0.04326960816979408, -0.10424760729074478, 
-0.006727783940732479, 0.04223882406949997, -0.04806515574455261, -0.04423205181956291, -0.045555368065834045, 0.08993975818157196, 0.0011044355342164636, 
-0.08329286426305771, -0.3201771080493927, 0.013832672499120235, 0.27251172065734863, 0.20657457411289215, 0.4084717929363251, -0.27017417550086975, 
0.14443142712116241, -0.19630885124206543, 0.05157862976193428, -0.19541440904140472, 0.10583125054836273, 0.30082008242607117, -0.11083896458148956, 
0.006921959575265646, 0.20166298747062683, 0.07421118021011353, -0.188070610165596, -0.09073641896247864, 0.25746461749076843, -0.20539481937885284, 
0.14096742868423462, 0.2207472175359726, 0.027018792927265167, 0.17004747688770294, 0.001091828104108572, -0.13371609151363373, -0.2751758098602295, 
0.08658208698034286, 0.06806987524032593, -0.36308199167251587, -0.5893950462341309, -0.0780218243598938, -0.2320396602153778, 0.18910637497901917, 
0.14762867987155914, 0.182032510638237, 0.20506168901920319, -0.21291697025299072, 0.24865490198135376, 0.12666401267051697, -0.0676405057311058, 
-0.06556903570890427, 0.01605909690260887, 0.016111277043819427, 0.017731506377458572, -0.32786300778388977, -0.0545320026576519, -0.2468131184577942, 
0.2378271371126175, 0.16721782088279724, -0.2760985791683197, -0.26966622471809387, -0.05861267074942589, 0.2620145380496979, 0.21768230199813843, 
-0.11935305595397949, 0.08240429311990738, 0.20005536079406738, 0.40577900409698486, 0.073141910135746, 0.1872115135192871, 0.001783938379958272, 
0.0324120856821537, -0.0395684577524662, -0.13431860506534576, -0.20619718730449677, -0.12222801148891449, -0.016627999022603035, 0.0406094491481781, 
0.004206291865557432, -0.05580206960439682, -0.20078274607658386, -0.06775789707899094, 0.33489856123924255, -0.0007540760561823845, 0.07684953510761261, 
0.19449840486049652, 0.06441374123096466, -0.14334754645824432, 0.3605414032936096, -0.17928984761238098, 0.04139894247055054, -0.1830601543188095, 
0.029185274615883827, 0.0010298372944816947, -0.21799114346504211, 0.13358737528324127, -0.005817463621497154, 0.1926479935646057, 0.13047157227993011, 
-0.2626030445098877, -0.1228620857000351, -0.121831975877285, 0.06951560825109482, -0.0008716759039089084, 0.005073155742138624, 0.14893925189971924, 
-0.032815463840961456, -0.036417726427316666, 0.1666986644268036, -0.23519669473171234, 0.16043423116207123, -0.274980366230011, -0.31733524799346924, 
-0.26982077956199646, 0.18869827687740326, -0.2400536835193634, 0.3221978545188904, 0.19415239989757538, -0.02151096612215042, 0.12028918415307999, 
0.18202459812164307, -0.09460581094026566, 0.255342572927475, 0.1678575873374939, 0.18921495974063873, 0.02686992846429348, -0.1392892450094223, 
-0.029892947524785995, 0.15634916722774506, 0.13979987800121307, 0.08478686958551407, -0.3115212023258209, 0.09465613216161728, -0.24320144951343536, 
0.226096048951149, -0.055642444640398026, 0.13009102642536163, 0.0013677520910277963, -0.09803858399391174, 0.13154737651348114, -0.10237285494804382, 
-0.2141946703195572, -0.17757433652877808, 0.017794981598854065, 0.0370163656771183, -0.022919923067092896, -0.025164833292365074, -0.16502897441387177, 
0.12888853251934052, 0.08626026660203934, -0.14881151914596558, 0.055482495576143265, -0.2294091135263443, 0.0339185893535614, -0.016628418117761612, 
0.17159517109394073, 0.25740838050842285, -0.07602985203266144, -0.00352418702095747, 0.04957647621631622, 0.2609884738922119, -0.10935281217098236, 
-0.107612244784832, 0.20856383442878723, -0.04396968334913254, -0.06627736985683441, 0.16181589663028717, -0.14534538984298706, 0.09189709275960922, 
0.060525380074977875, -0.07801280170679092, -0.026821132749319077, 0.051885493099689484, -0.056972671300172806, -0.12337367981672287, -0.09097549319267273, 
-0.09901745617389679, -0.18443235754966736, 0.027976112440228462, 0.04850627854466438, 0.17683649063110352, -0.00966230221092701, -0.02774796262383461, 
0.05573089420795441, 0.007059852592647076, 0.08241520076990128, 0.007783449254930019, -0.06130671873688698, -0.2517864406108856, 0.06252478063106537, 
0.041005682200193405, -0.07276127487421036, -0.0823693498969078, 0.07695532590150833, -0.0022442988120019436, -0.10429054498672485, -0.1489519625902176, 
0.09301595389842987, 0.03711835667490959, -0.02598915994167328, -0.09998855739831924, 0.07004193961620331, -0.06634603440761566, 0.1236458271741867, 
0.10989027470350266, 0.27429696917533875, -0.05323301628232002, 0.1191018745303154, -0.1348721832036972, 0.15639638900756836, -0.13485676050186157, 
-0.03692513331770897, -0.0987582877278328, 0.10061091184616089, -0.012157339602708817, 0.145443856716156, 0.0834989920258522, -0.16209463775157928, 
0.06765256077051163, 0.21261930465698242, -0.17048963904380798, 0.12347227334976196, 0.12472046911716461, -0.13500094413757324, 0.02254520356655121, 
0.00239687436260283, -0.07305868715047836, -0.015134897083044052, -0.349326491355896, -0.12468255311250687, -0.02058006078004837, -0.21839694678783417, 
-0.07871905714273453, 0.0256311297416687, 0.04882683604955673, -0.1303274929523468, -0.0003633009910117835, 0.1790936142206192, 0.059548355638980865, 
-0.3708406090736389, -0.20380695164203644, -0.24673554301261902, 0.17805437743663788, -0.30737224221229553, 0.03730224072933197, -0.23595577478408813, 
-0.13758783042430878, 0.11434809118509293, -0.024159923195838928, -0.14255085587501526, 0.30905672907829285, 0.07600937783718109, 0.009133941493928432, 
-0.015847014263272285, -0.034057002514600754, -0.12309083342552185, 0.022312667220830917, 0.17543436586856842, 0.2976258099079132, -0.2775297164916992, 
0.06601273268461227, -0.2086806744337082, 0.015637097880244255, -0.06612297892570496, -0.10696742683649063, -0.08471140265464783, 0.10549284517765045, 
-0.04915903881192207, -0.19382289052009583, -0.17661969363689423, -0.03466380387544632, 0.03267369791865349, 0.1702764332294464, 0.09269992262125015, 
0.2845170795917511, -0.11364854127168655, 0.0865473598241806, 0.13001854717731476, 0.01929839514195919, 0.0640149861574173, 0.022867275401949883, 
0.23238728940486908, 0.13034208118915558, 0.061499446630477905, 0.028790442273020744, 0.12487716972827911, 0.16613979637622833, -0.07263245433568954, 
0.10024591535329819, 0.09104408323764801, 0.1299157589673996, 0.22632019221782684, 0.1956244558095932, -0.023130610585212708, 0.08415143936872482, 
0.08169665932655334, 0.13205209374427795, -0.1991191804409027, -0.13174569606781006, 0.02687791734933853, -0.04805663973093033, 0.22656665742397308, 
-0.0925183892250061, 0.0796770453453064, -0.06693900376558304, 0.08059537410736084, 0.018563680350780487, 0.009218212217092514, -0.14996597170829773, 
0.10045019537210464, 0.009185529313981533, 0.018410297110676765, -0.0829024538397789, 0.07542005926370621, -0.08394903689622879, -0.24149610102176666, 
-0.10582120716571808, 0.009553587064146996, -0.01929076947271824, 0.04200354591012001, -0.23160730302333832, 0.14947035908699036, 0.04085671901702881, 
-0.06003877520561218, -0.15670502185821533, -0.18376372754573822, 0.2645014822483063, 0.1081734299659729, -0.017666209489107132, -0.08247698843479156, 
0.061358798295259476, 0.2100582718849182, 0.06958526372909546, 0.05034976452589035, -0.10282373428344727, 0.07032559812068939, 0.22158046066761017, 
0.11849288642406464, -0.044209446758031845, -0.07455960661172867, 0.1936286836862564, -0.14286082983016968, -0.24653327465057373, 0.08163317292928696, 
-0.10848172754049301, 0.05187104642391205, -0.12775349617004395, 0.08418352156877518, 0.10171901434659958, 0.20930959284305573, 0.1252107471227646, 
-0.25406742095947266, 0.13356293737888336, -0.16689680516719818, -0.0061744581907987595, 0.15801787376403809, 0.05164990574121475, -0.12980540096759796, 
0.026466108858585358, 0.017355456948280334, -0.1074998527765274, -0.18697433173656464, -0.23100270330905914, -0.013936745934188366, -0.1240774393081665, 
0.2524512708187103, -0.13936035335063934, 0.034187983721494675, -0.12240058183670044, 0.06309802085161209, 0.04018016532063484, 0.0461050383746624, 
-0.1331741064786911, -0.057643916457891464, 0.0884331613779068, -0.023786548525094986, -0.10603258013725281, -0.07092741876840591, -0.13714903593063354, 
-0.14958201348781586, -0.14351701736450195, -0.12526750564575195, 0.050927869975566864, -0.13564765453338623, -0.16287094354629517, 0.024637816473841667, 
-0.08723389357328415, 0.06788895279169083, 0.28849104046821594, 0.5299081206321716, -0.46055108308792114, -0.2826140522956848, -0.15281949937343597, 
0.0710492879152298, -0.25140315294265747, -0.5249452590942383, 0.10898356139659882, 0.2911841571331024, 0.5105522871017456, -0.306833416223526, 
-0.38127875328063965, -0.4669007956981659, -0.001645012409426272, 0.38896679878234863, -0.31934043765068054, 0.17056797444820404, 0.32802486419677734, 
-0.40287768840789795, 0.27283474802970886, -0.22576728463172913, -0.015522941015660763, -0.23579098284244537, -0.14465750753879547, -0.3710402250289917, 
-0.4363768398761749, 0.34014877676963806, -0.4038786292076111, 0.24362917244434357, 0.3042147159576416, -0.3670259416103363, 0.15781396627426147, 
0.051084816455841064, -0.027207745239138603, -0.10455074906349182, 0.03599454462528229, 0.02153165079653263, 0.39987945556640625, 0.08334964513778687, 
0.039823804050683975, -0.4560340344905853, 0.06161963939666748, 0.06895259022712708, 0.07986602932214737, -0.1621634066104889, -0.33695128560066223, 
0.054629936814308167, 0.019079752266407013, 0.0941845029592514, 0.07139196246862411, 0.14891205728054047, 0.20483189821243286, 0.14295999705791473, 
0.040716785937547684, 0.1901010423898697, 0.321172833442688, 0.0001347882061963901, -0.11248689889907837, 0.06676243990659714, 0.16757617890834808, 
0.004071311559528112, -0.1297239363193512, -0.13078700006008148, 0.013092654757201672, -0.20198287069797516, 0.13991741836071014, 0.010039647109806538, 
0.06348146498203278, -0.17154791951179504, -0.005073330365121365, 0.24622119963169098, -0.021795369684696198, 0.11600973457098007, -0.31522926688194275, 
0.22060489654541016, 0.2680128514766693, 0.2200012058019638, -0.19720083475112915, -0.09269478172063828, 0.12830685079097748, -0.16371272504329681, 
0.009692717343568802, 0.23913051187992096, -0.24566102027893066, 0.029360070824623108, -0.10724866390228271, 0.18217390775680542, 0.013970236293971539, 
0.16936522722244263, 0.2798825800418854, -0.04197198525071144, 0.3292948007583618, -0.11791335046291351, -0.05402933433651924, 0.15209245681762695, 
-0.09062016010284424, -0.10763461887836456, 0.05487377196550369, -0.2239006906747818, 0.09341349452733994, -0.0759681686758995, -0.14618588984012604, 
-0.08419913798570633, -0.12053348869085312, 0.2557607591152191, -0.07899735867977142, -0.03308306261897087, -0.11828836053609848, 0.17284062504768372, 
0.08407396823167801, 0.025121677666902542, -0.01750987581908703, -0.0674966424703598, 0.10839391499757767, 0.004559217020869255, -0.17663337290287018, 
0.05485312268137932, -0.0925443172454834, -0.2428950071334839, -0.16028083860874176, -0.07795881479978561, 0.02606086991727352, -0.09236397594213486, 
-0.24195992946624756, -0.08638673275709152, 0.0859740749001503, 0.1287047266960144, -0.1292831301689148, 0.008508496917784214, 0.053981974720954895, 
0.0913352519273758, 0.017012983560562134, 0.04548896476626396, 0.02279081754386425, 0.05511176958680153, -0.12625464797019958, 0.06674793362617493, 
0.0010607641888782382, -0.10364776849746704, -0.01865527778863907, 0.027544179931282997, 0.1436219960451126, 0.005143467336893082, 0.06551972776651382, 
-0.006003012880682945, -0.02713167481124401, -0.08046330511569977, 0.0037276807706803083, -0.07173233479261398, 0.08024279773235321, 0.12091873586177826, 
0.014378714375197887, -0.008447946049273014, -0.12123420834541321, 0.11553137004375458, -0.08377406001091003, -0.10672320425510406, 0.07514932006597519, 
-0.05160336196422577, -0.04487033188343048, -0.13431783020496368, 0.11676039546728134, 0.07847990095615387, 0.006037614308297634, -0.02089734748005867, 
0.042831726372241974, -0.019427673891186714, -0.15018901228904724, -0.13246619701385498, -0.02669684775173664, 0.03409210965037346, -0.0039251926355063915, 
0.12826775014400482, -0.0066306390799582005, -0.025277763605117798, -0.02180543728172779, 0.0034251564648002386, 0.0511154942214489, -0.10632307827472687, 
0.08434732258319855, 0.04868808761239052, 0.0230906642973423, 0.003624085569754243, 0.08028453588485718, 0.06786136329174042, 0.08985509723424911, 
0.11348550021648407, -0.007234124466776848, 0.004462181590497494, 0.0442124642431736, 0.13475528359413147, 0.008486522361636162, 0.26199811697006226, 
-0.09599431604146957, -0.046799998730421066, -0.10028931498527527, -0.03171760216355324, -0.0638132393360138, -0.18371006846427917, 0.08626967668533325, 
0.024355769157409668, 0.07933517545461655, 0.05043795704841614, -0.03851848468184471, 0.05868787318468094, 0.18850691616535187, -0.008965414948761463, 
-0.2611921429634094, -0.030778367072343826, 0.10405536741018295, -0.045493800193071365, 0.1367451548576355, 0.05691297724843025, 0.1433464139699936, 
-0.2510044574737549, -0.17376184463500977, -0.07407163083553314, -0.07009228318929672, 0.03388984501361847, -0.39363211393356323, 0.016813624650239944, 
0.035765502601861954, -0.039497047662734985, 0.03287462890148163, 0.010486439801752567, -0.09498392045497894, 0.1286843866109848, -0.02733790874481201, 
-0.13563640415668488, 0.07636696100234985, 0.15814347565174103, -0.06502840667963028, 0.014355471357703209, 0.11265426129102707, 0.055785421282052994, 
0.2899796664714813, 0.06902895122766495, -0.08306492865085602, -0.1519227772951126, -0.13736818730831146, 0.13614746928215027, 0.027225447818636894, 
-0.16019749641418457, 0.19196990132331848, 0.08661749213933945, 0.11626265943050385, -0.009083902463316917, 0.07323991507291794, 0.11217842996120453, 
-0.16522040963172913, -0.016533896327018738, 0.10625751316547394, 0.0912904441356659, 0.08418221026659012, -0.13442541658878326, 0.23789316415786743, 
0.45917221903800964, -0.31584402918815613, -0.27668076753616333, -0.15277405083179474, 0.14240191876888275, -0.3099000155925751, -0.5482772588729858, 
0.004180704243481159, 0.06452047824859619, 0.4202805459499359, -0.2473050057888031, -0.29525694251060486, -0.44974958896636963, 0.1064094752073288, 
0.4686809182167053, -0.25581273436546326, 0.14227509498596191, 0.3410845100879669, -0.22180116176605225, 0.3868042528629303, -0.209440678358078, 
0.07405176758766174, -0.17095379531383514, 0.08771763741970062, -0.484081506729126, -0.3011077642440796, 0.18294981122016907, -0.22073587775230408, 
0.2070816457271576, 0.20474208891391754, -0.295735239982605, -0.07594980299472809, 0.13762018084526062, 0.20081955194473267, -0.09080956876277924, 
0.08160156011581421, 0.00840409379452467, 0.4539478123188019, -0.11167366057634354, 0.1360536813735962, -0.29390501976013184, 0.08606219291687012, 
-0.04289409518241882, 0.06660347431898117, -0.27212855219841003, -0.24639078974723816, 0.03427023068070412, 0.07917926460504532, 0.13475610315799713, 
0.09961434453725815, 0.1147223636507988, 0.27557095885276794, 0.25179946422576904, -0.10760639607906342, 0.13780084252357483, 0.25415077805519104, 
0.06704951077699661, -0.09334378689527512, 0.19426506757736206, 0.050792958587408066, -0.04643963649868965, -0.07793162763118744, -0.0012261720839887857, 
-0.03901055455207825, 0.2355237454175949, -0.12732280790805817, -0.09244050085544586, 0.11813396960496902, 0.0025445364881306887, -0.18944889307022095, 
-0.14902004599571228, -0.022241773083806038, -0.010923823341727257, 0.1696319580078125, -0.12586431205272675, -0.4177859425544739, -0.18253624439239502, 
0.20227627456188202, 0.06370507925748825, -0.21878448128700256, 0.146995410323143, 0.33951184153556824, -0.15499143302440643, 0.28100013732910156, 
-0.133949875831604, -0.045771241188049316, -0.12317965179681778, 0.11447538435459137, -0.0995093435049057, -0.2936412990093231, 0.1741708219051361, 
-0.14384818077087402, 0.36561062932014465, 0.11140868067741394, -0.1499316394329071, 0.019938688725233078, 0.02641572616994381, -0.04897655174136162, 
0.2586061954498291, -0.08495879918336868, 0.14077530801296234, 0.12585042417049408, -0.11568984389305115, 0.045481886714696884, -0.2954437732696533, 
-0.12938041985034943, 0.03282371535897255, 0.004921718500554562, -0.24413761496543884, -0.03419160842895508, -0.029504304751753807, 0.08616940677165985, 
0.2027919739484787, 0.0028848175425082445, 0.24893231689929962, 0.16046716272830963, 0.0481281653046608, 0.13083170354366302, 0.3041963279247284, 
0.09383612126111984, 0.014236599206924438, -0.010316873900592327, 0.14461463689804077, 0.17563669383525848, 0.05743443965911865, -0.09960924088954926, 
-0.015313857235014439, -0.18654108047485352, -0.2283642739057541, 0.21508492529392242, 0.2288816124200821, 0.02361888810992241, -0.04245888069272041, 
0.20698942244052887, 0.24767248332500458, -0.13921208679676056, 0.049232367426157, -0.152712881565094, 0.06690780818462372, 0.13033832609653473, 
0.11677106469869614, -0.19488903880119324, 0.009416596964001656, -0.006859613582491875, -0.07966623455286026, -0.14528730511665344, 0.13391664624214172, 
-0.20546391606330872, 0.02552867867052555, 0.04973467066884041, 0.24473056197166443, 0.02667507901787758, 0.0633300170302391, 0.10706108063459396, 
-0.13887161016464233, 0.1761365383863449, -0.213662788271904, -0.05419756844639778, 0.19852226972579956, -0.059995029121637344, -0.06355931609869003, 
-0.14105692505836487, 0.015126025304198265, 0.04043416678905487, -0.15763123333454132, -0.2847804129123688, -0.055062372237443924, -0.17150652408599854, 
0.2813359797000885, -0.04299011453986168, -0.17383913695812225, -0.09407278150320053, 0.14489492774009705, 0.24283406138420105, -0.12970267236232758, 
-0.12230779975652695, -0.14629487693309784, -0.12478628754615784, -0.07594667375087738, -0.2738994061946869, -0.023956578224897385, 0.1307186633348465, 
-0.05551129952073097, -0.03609268739819527, -0.041202716529369354, -0.11379984021186829, -0.20644773542881012, -0.1561874896287918, 0.11734836548566818, 
0.08727940171957016, 0.03995480760931969};

#endif

#endif
