0.12664251029491425, -0.12628065049648285, -0.0334896482527256, -0.07776568830013275, -0.06836780905723572, -0.22899356484413147, -0.08841516077518463, -0.16306719183921814, 0.08322679996490479, 0.17636767029762268, 0.0015281480737030506, 0.06313200294971466, -0.09116189181804657, 0.014230575412511826, 0.18388862907886505, -0.08460158854722977, 0.13724040985107422, -0.040915053337812424, -0.08503179997205734, -0.04812990128993988, 0.09016696363687515, 0.005019708536565304, -0.05469242110848427, 0.16666263341903687, 0.13771772384643555, -0.1214957982301712, -0.158847376704216, 0.16664773225784302, 0.019501354545354843, 0.12988145649433136, 0.042663753032684326, 0.010327169671654701, -0.20866452157497406, -0.06881789863109589, -0.0335109569132328, 0.058871716260910034, 0.0950743779540062, 0.06256534904241562, -0.002051727380603552, 0.04756000265479088, 0.08069800585508347, -0.15456824004650116, 0.15585722029209137, -0.05779152363538742, -0.23517996072769165, 0.012823263183236122, 0.012168594636023045, -0.09895795583724976, 0.060486484318971634, 0.18424229323863983, -0.05116329714655876, 0.11611738055944443, -0.03164485841989517, 0.055894944816827774, -0.046339672058820724, 0.07491658627986908, 0.10927116125822067, -0.1326674073934555, -0.05905541405081749, -0.09949855506420135, -0.07415387034416199, -0.03630002588033676, -0.12391190975904465, -0.04302297905087471, 0.06459745764732361, 0.05334249883890152, -0.05544643476605415, 0.03542762249708176, 0.1359952688217163, 0.1178494393825531, -0.05070706829428673, 0.11921766400337219, -0.06313690543174744, -0.07439794391393661, 0.011153720319271088, 0.11964774131774902, 0.05649922415614128, -0.07722125202417374, -0.18303272128105164, 0.08771143108606339, -0.12454903870820999, -0.10485213994979858, -0.06663848459720612, -0.04674156755208969, -0.05554090812802315, -0.1739775389432907, -0.046509988605976105, 0.037450965493917465, 0.047301117330789566, 0.055992674082517624, 0.1423828899860382, -0.04563017934560776, -0.04962882399559021, 0.11376038193702698, 0.1789424866437912, -0.022627312690019608, 0.12110251933336258, -0.039917245507240295, 0.12878482043743134, 0.023515215143561363, 0.018262863159179688, -0.04996126890182495, 0.040605783462524414, -0.0906684547662735, 0.055687371641397476, -0.042581234127283096, -0.1067955270409584, 0.08333507925271988, 0.17700137197971344, -0.09176024049520493, 0.05807854235172272, -0.025615883991122246, 0.045476850122213364, -0.00563066778704524, 0.07137449830770493, -0.13000649213790894, -0.0131269171833992, 0.09780842810869217, -0.028543351218104362, 0.07060650736093521, -0.017848601564764977, -0.04044749215245247, -0.0032291735988110304, 0.0839717835187912, 0.12337817996740341, -0.141654834151268, -0.030291834846138954, -0.04234128072857857, -0.011721789836883545, -0.017313407734036446, 0.03369384631514549, -0.11204750835895538, 0.013554440811276436, -0.0022324181627482176, -0.09287436306476593, 0.1251579076051712, -0.11523415148258209, -0.02348892018198967, 0.09082788974046707, -0.08172498643398285, 0.08684911578893661, 0.09224674850702286, -0.006828269921243191, 0.06880564987659454, -0.018260641023516655, 0.11573668569326401, -0.07665886729955673, 0.12507440149784088, 0.10414978861808777, 0.04343704506754875, -0.026221955195069313, -0.08289343863725662, -0.06672254204750061, 0.1354280710220337, -0.02518364042043686, -0.043988727033138275, 0.08035926520824432, 0.11610350012779236, 0.04260244965553284, 0.006842254661023617, 0.11850008368492126, -0.08545622229576111, 0.06677171587944031, -0.08280059695243835, -0.12802185118198395, -0.11717579513788223, -0.06369563937187195, 0.09708884358406067, 0.013216868042945862, -0.028302736580371857, 0.038187023252248764, 0.024792002514004707, 0.09220856428146362, 0.04142802581191063, -0.052899736911058426, -0.04246153309941292, 0.05647138133645058, -0.05694900453090668, -0.07747817039489746, 0.12133537232875824, 0.12230237573385239, 0.019720856100320816, 0.0607919879257679, 0.009364547207951546, 0.06938771158456802, 0.019675293937325478, -0.11788960546255112, -0.14000196754932404, 0.0030319346114993095, 0.08423013240098953, -0.09148407727479935, 0.02554340660572052, -0.10102703422307968, 0.07107605785131454, -0.02934577316045761, -0.07089279592037201, 0.011288207024335861, 0.005243505351245403, 0.05694524943828583, 0.2070823460817337, -0.14192453026771545, -0.022483455017209053, 0.047375909984111786, -0.03871847689151764, -0.029677003622055054, -0.13245442509651184, 0.03890547528862953, 0.03189994767308235, 0.03509172052145004, -8.661134779686108e-05, -0.08695531636476517, 0.08829066157341003, -0.05669742077589035, 0.0016767301131039858, 0.03536473214626312, 0.012247759848833084, 0.0629153847694397, 0.010755591094493866, -0.013227123767137527, -0.0010335452388972044, 0.019790440797805786, -0.06417787075042725, 0.00386060681194067, 0.017345145344734192, -0.028820091858506203, -0.09081833809614182, -0.07374586910009384, -0.029888583347201347, -0.12024828046560287, -0.0877709910273552, 0.08093616366386414, -0.06793643534183502, -0.01313344482332468, -0.012454322539269924, 0.11825254559516907, 0.06168517842888832, 0.11048939824104309, 0.1380179077386856, 0.12780454754829407, 0.041702255606651306, -0.03247682377696037, 0.017968840897083282, -0.024370485916733742, 0.012696584686636925, 0.12020749598741531, 0.06049763783812523, 0.013213335536420345, -0.1438821405172348, 0.07567143440246582, -0.11801579594612122, -0.05657456815242767, -0.15333136916160583, -0.11508842557668686, 0.0697624459862709, 0.019253885373473167, 0.03824693337082863, 0.1108996719121933, 0.14676932990550995, 0.08781380206346512, -0.1078239232301712, -0.06803673505783081, 0.11611343175172806, -0.07545087486505508, -0.01669505052268505, -0.0696437880396843, 0.04175537824630737, 0.09931179136037827, 0.03598544001579285, -0.04190602898597717, 0.0925842821598053, 0.0012336594518274069, -0.055179376155138016, 0.08552534878253937, 0.029616402462124825, 0.09836667031049728, -0.013319787569344044, 0.030851097777485847, 0.11031545698642731, -0.06941550225019455, -0.052273888140916824, 0.04526553675532341, 0.01291850209236145, 0.06198301166296005, 0.1202957034111023, -0.01570211909711361, -0.07618364691734314, 0.05878133326768875, -0.006485207471996546, -0.05992123857140541, 0.09604732692241669, -0.014987928792834282, 0.12248511612415314, 0.007794925011694431, -0.042710404843091965, 0.03609689697623253, -0.09084143489599228, -0.01602906920015812, -0.0716264471411705, -0.01300528459250927, 0.03568160533905029, 0.15327182412147522, -0.0005816461052745581, -0.052077531814575195, 0.06065129116177559, -0.016007551923394203, 0.07350112497806549, 0.06750210374593735, 0.0753309428691864, -0.05679108202457428, -0.01300763338804245, 0.03346885368227959, -0.1233346238732338, -0.08612100780010223, -0.10478636622428894, -0.0174130667001009, 0.05566903576254845, 0.04105449467897415, -0.10467757284641266, -0.03204144537448883, 0.09205067157745361, 0.024582713842391968, -0.03653624281287193, -0.0711585134267807, -0.032934367656707764, -0.01957043446600437, 0.017957694828510284, -0.0767500177025795, -0.06536073982715607, 0.12185722589492798, -0.1132415235042572, -0.0912201926112175, -0.06717192381620407, 0.04339415580034256, -0.10819044709205627, -0.10355883091688156, -0.05592556297779083, 0.09764852374792099, 0.05056075006723404, -0.11313895881175995, -0.054646316915750504, 0.042184606194496155, -0.05776296183466911, -0.10220775753259659, 0.06149490177631378, 0.0053742509335279465, -0.14134740829467773, 0.02203287184238434, -0.04484451934695244, -0.0658641904592514, -0.11758730560541153, 0.0988939106464386, -0.0012718053767457604, -0.05709907412528992, 0.08986597508192062, -0.1149263009428978, -0.1039876863360405, -0.05768326669931412, 0.13258115947246552, 0.06506280601024628, 0.036166343837976456, 0.09587953239679337, 0.0837634801864624, -0.08758694678544998, -0.04213884845376015, -0.0024778172373771667, -0.04140074551105499, 0.12120383977890015, 0.009058074094355106, -0.06383512169122696, 0.03088650107383728, -0.05788515880703926, -0.028264697641134262, 0.051537107676267624, 0.002821077359840274, 0.049103494733572006, 0.0582902766764164, -0.04408066347241402, 0.14510656893253326, 0.12000073492527008, -0.02288297563791275, -0.014110961928963661, -0.10428325086832047, -0.010496300645172596, -0.012113114818930626, -0.051476676017045975, 0.12323977798223495, 0.14600282907485962, -0.07719298452138901, 0.0049170623533427715, -0.07572537660598755, 0.0399525947868824, -0.18480807542800903, 0.17464107275009155, 0.04052624851465225, -0.06578946858644485, -0.0744432657957077, -0.10089263319969177, 0.08068837225437164, 0.04677896946668625, -0.07018153369426727, 0.03343212231993675, -0.04672349989414215, -0.07154745608568192, -0.10123975574970245, 0.09303899109363556, 0.03038550168275833, 0.029110217466950417, -0.020741863176226616, 0.0010785161284729838, -0.06915021687746048, -0.042482297867536545, 0.028976885601878166, -0.07221944630146027, 0.1085636243224144, -0.05496910586953163, 0.009669622406363487, 0.03201073035597801, 0.07690414786338806, 0.028503090143203735, -0.010884994640946388, -0.07484766095876694, -0.07569441199302673, -0.018508823588490486, 0.09022334963083267, -0.04557676240801811, -0.07350163906812668, 0.03282030671834946, -0.09283758699893951, -0.074177585542202, -0.12062866240739822, 0.08197680115699768, 0.018976658582687378, -0.04902028292417526, -0.14812389016151428, 0.06858741492033005, -0.004573252983391285, 0.025671912357211113, 0.0065027629025280476, -0.006037743762135506, -0.02607719786465168, 0.04460396617650986, -0.1435220092535019, -0.07265918701887131, 0.07881239801645279, -0.07491494715213776, 0.07066194713115692, -0.12816976010799408, -0.0610639862716198, 0.10738462954759598, 0.09750446677207947, -0.14696991443634033, -0.006406895350664854, -0.009642689488828182, 0.02065254934132099, -0.07457316666841507, -0.10650893300771713, 0.0022733088117092848, -0.17358295619487762, -0.02434021420776844, -0.03118176758289337, -0.0910981148481369, -0.021229371428489685, -0.13008612394332886, -0.06883181631565094, 0.04521390423178673, -0.09915941208600998, -0.026655882596969604, -0.007182511035352945, 0.05687037482857704, -0.1381385773420334, 0.09334337711334229, -0.11784324049949646, 0.07583767175674438, 0.06643732637166977, 0.057977937161922455, -0.01554161123931408, 0.07398952543735504, -0.10212045162916183, 0.10435769706964493, 0.00926066655665636, 0.047998566180467606, 0.0034575893077999353, -0.05382129177451134, -0.08222568780183792, -0.09457356482744217, 0.0050870515406131744, -0.014086786657571793, -0.16076140105724335, 0.11683506518602371, -0.047100625932216644, -0.07577930390834808, -0.058200620114803314, -0.057365816086530685, 0.046177737414836884, -0.0009629096020944417, -0.09918229281902313, -0.0429520457983017, -0.16000522673130035, -0.11304303258657455, -0.061005763709545135, -0.15628860890865326, 0.05929761752486229, 0.028067512437701225, 0.003866875311359763, -0.08112680912017822, -0.0054915351793169975, 0.00981098972260952, -0.06505728513002396, 0.040615592151880264, -0.09465016424655914, -0.10804232209920883, 0.06782994419336319, -0.04815884307026863, 0.013771387748420238, -0.033994242548942566, 0.014795985072851181, 0.02952698990702629, -0.08322031795978546, -0.0011263219639658928, 0.27470317482948303, 0.014132385142147541, -0.12288280576467514, 0.07531196624040604, 0.11810526251792908, 0.043604325503110886, -0.13649685680866241, 0.10826733708381653, 0.09652341902256012, -0.07243101298809052, 0.1421663761138916, -0.03589785471558571, 0.19703157246112823, 0.003814455820247531, 0.0834251195192337, -0.026090580970048904, -0.030007317662239075, 0.11095606535673141, 0.01946490816771984, -0.015445280820131302, -0.023673349991440773, 0.05710984766483307, 0.07548438012599945, 0.01723402552306652, -0.00922774150967598, -0.16033634543418884, -0.12217109650373459, -0.05443404242396355, 0.14612247049808502, 0.07419660687446594, 0.041587185114622116, -0.08818937838077545, 0.1505500227212906, 0.09250990301370621, -0.017926467582583427, -0.005857799202203751, -0.09703557938337326, 0.09548644721508026, 0.07729452103376389, -0.0821136012673378, -0.00526747340336442, 0.07255863398313522, 0.20618614554405212, 0.08657378703355789, -0.06691429018974304, -0.09881000220775604, 0.014589550904929638, -0.087227962911129, -0.17803636193275452, 0.1114751324057579, 0.10949449241161346, 0.1191900297999382, -0.12992702424526215, -0.07609628885984421, 0.11953267455101013, 0.09421937167644501, 0.010241437703371048, -0.000848172465339303, 0.14038316905498505, -0.040783267468214035, 0.05644272267818451, -0.08060139417648315, 0.08401764929294586, -0.005610679276287556, 0.02593393623828888, -0.11439897119998932, -0.15283720195293427, 0.08229473233222961, -0.014541808515787125, 0.09401432424783707, 0.08593637496232986, -0.12277934700250626, -0.08503814041614532, 0.03308190032839775, -0.05690775066614151, 0.0011656522983685136, 0.10601269453763962, 0.12324057519435883, -0.005614390596747398, -0.06869496405124664, 0.09320303797721863, -0.10983553528785706, -0.01546048279851675, 0.10958418995141983, -0.03973839804530144, -0.03748394176363945, 0.10903483629226685, 0.05122952163219452, 0.06765008717775345, -0.033553674817085266, 0.037592459470033646, -0.1009078398346901, 0.0043257842771708965, 0.04767771065235138, -0.21588338911533356, 0.1548973172903061, -0.0029864120297133923, 0.047189317643642426, 0.07046651840209961, -0.06883539259433746, -0.024179834872484207, 0.12705740332603455, -0.0810944214463234, -0.03726920112967491, 0.02075492963194847, -0.1352020800113678, -0.08183015137910843, -0.08474019169807434, -0.09400340169668198, -0.028133921325206757, -0.004023029003292322, 0.12068139016628265, -0.09474111348390579, -0.1045493334531784, -0.07283198833465576, -0.05827535688877106, -0.08936907351016998, -0.019162612035870552, 0.0037558393087238073, 0.03349316120147705, -0.0919414609670639, 0.10182622820138931, -0.1329960972070694, -0.054025474935770035, 0.0159134604036808, 0.024034013971686363, -0.09827932715415955, -0.007772768381983042, -0.04608740657567978, -0.02631070278584957, -0.08610547333955765, 0.04164859652519226, -0.06333022564649582, -0.14535601437091827, -0.09550613164901733, -0.037877704948186874, 0.06281829625368118, -0.04967878386378288, 0.0545901358127594, 0.008125582709908485, 0.06320261210203171, 0.08301903307437897, 0.17403997480869293, -0.005386886186897755, 0.10275181382894516, 0.0061398581601679325, -0.02116258069872856, -0.09820108860731125, 0.09712260216474533, -0.08884187787771225, 0.012287276796996593, -0.1452852189540863, -0.010292310267686844, -0.14475281536579132, -0.029279179871082306, -0.09175185114145279, 0.10235393792390823, 0.1540396809577942, 0.03327835351228714, -0.03126995638012886, 0.10519790649414062, -0.06669338047504425, -0.057726915925741196, 0.04053622856736183, 0.09129709005355835, -0.11984296143054962, -0.0985359400510788, -0.07316027581691742, 0.028484854847192764, -0.11857088655233383, 0.037145353853702545, -0.014828191138803959, -0.0721675232052803, -0.11059653759002686, 0.053491562604904175, -0.007480438333004713, 0.13439840078353882, 0.03190017119050026, -0.14152929186820984, 0.026295743882656097, 0.05024603381752968, 0.10229772329330444, -0.007142521440982819, 0.008843224495649338, -0.03550967574119568, -0.003689622040838003, -0.0577743761241436, 0.012122240848839283, -0.04429933428764343, 0.033838555216789246, -0.03053285740315914, -0.019712992012500763, -0.27641069889068604, 0.11031577736139297, 0.010157615877687931, 0.06920824199914932, -0.15196861326694489, -0.005651280749589205, -0.04434381425380707, -0.019892172887921333, -0.06653741747140884, 0.10899592936038971, -0.03613464906811714, 0.09481829404830933, -0.14948764443397522, -0.004577266052365303, 0.07376639544963837, 0.07632110267877579, -0.06871166080236435, 0.0650695413351059, 0.05020322650671005, 0.07079197466373444, -0.10243383049964905, -0.11671550571918488, -0.034510549157857895, 0.08095795661211014, -0.031504202634096146, -0.08985140174627304, 0.08550754934549332, 0.058574385941028595, -0.04205537214875221, -0.04174743592739105, -0.055335260927677155, 0.07639667391777039, 0.044048141688108444, 0.04503755271434784, -0.13727085292339325, 0.028877872973680496, -0.05442328006029129, -0.13618291914463043, -0.10311244428157806, -0.06434430927038193, -0.08444216102361679, 0.050619784742593765, -0.17040270566940308, 0.11680956184864044, -0.18381430208683014, -0.0282442606985569, -0.10086274147033691, -0.0547417588531971, 0.12722858786582947, -0.13418789207935333, -0.11754312366247177, -0.09483548998832703, 0.05466883257031441, -0.03369662165641785, -0.027232423424720764, 0.011627323925495148, 0.04970094561576843, 0.07028194516897202, 0.10167399793863297, 0.011544333770871162, -0.03972093388438225, 0.003047819947823882, -0.06913742423057556, 0.050655435770750046, -0.06350086629390717, -0.06636007130146027, 0.017555465921759605, -0.05271279066801071, -0.048283424228429794, 0.10211127996444702, -0.012528829276561737, -0.028523830696940422, 0.06898757815361023, 0.01770769990980625, 0.003769087605178356, 0.042723022401332855, 0.017938395962119102, -0.06760290265083313, 0.017056813463568687, -0.08210286498069763, -0.12806275486946106, -0.08850723505020142, -0.04662632942199707, 0.03265157714486122, -0.1507597416639328, -0.0726429745554924, 0.045471251010894775, -0.04350070655345917, 0.009705333039164543, -0.041122566908597946, -0.003771251067519188, -0.09519234299659729, -0.0374477282166481, 0.043975867331027985, -0.1025736927986145, -0.0937558263540268, -0.06450340151786804, 0.08107234537601471, 0.06852035969495773, 0.08768999576568604, 0.02663407288491726, -0.10926252603530884, 0.01872330904006958, -0.12964169681072235, -0.0815533772110939, -0.12480051815509796, -0.11925385147333145, 0.02211802639067173, 0.04889899119734764, -0.11581471562385559, 0.0646873190999031, 0.05221020057797432, -0.10535728931427002, -0.0808355063199997, 0.10575640201568604, -0.08102346956729889, -0.11785285174846649, 0.002473984146490693, -0.07096043974161148, 0.026227889582514763, 0.045216284692287445, -0.12091908603906631, 0.056144893169403076, -0.10120102018117905, 0.10335173457860947, -0.036898475140333176, -0.06387977302074432, -0.15603771805763245, 0.1530396044254303, -0.1466982066631317, 0.11204880475997925, 0.020766032859683037, 0.06864465773105621, 0.06040797010064125, -0.13839635252952576, 0.09612320363521576, 0.16179625689983368, 0.07700435072183609, -0.04482518509030342, 0.052700527012348175, 0.15801218152046204, -0.11486022174358368, 0.026694510132074356, -0.02258245088160038, -0.0228745024651289, 0.08879507333040237, 0.10966937243938446, -0.08544852584600449, 0.08454327285289764, -0.06330429762601852, 0.07126208394765854, 0.08495227247476578, -0.03229934722185135, 0.10955896228551865, -0.00987209565937519, 0.07364169508218765, 0.07871294021606445, 0.03306354582309723, 0.07376448065042496, -0.06672663241624832, 0.1230396255850792, -0.059308458119630814, 0.03229720890522003, 0.0279366597533226, -0.11160936206579208, -0.00863689836114645, 0.04010094702243805, -0.01690119318664074, -0.06688132137060165, 0.1294683963060379, 0.011005327105522156, 0.03461017832159996, 0.05437714606523514, 0.10940493643283844, 0.07077144831418991, -0.006412924733012915, 0.027751779183745384, 0.01030732411891222, 0.04760647937655449, 0.016090093180537224, -0.12832413613796234, -0.009105597622692585, 0.101738840341568, 0.05921861529350281, 0.15469452738761902, 0.12467829883098602, 0.07202091813087463, -0.05940476059913635, -0.011670757085084915, 0.0024284597020596266, -0.025590375065803528, 0.008108282461762428, -0.08541702479124069, 0.04004669934511185, -0.026729058474302292, 0.026877762749791145, 0.018016919493675232, -0.03118566982448101, -0.0003328755556140095, 0.10086451470851898, 0.01445688959211111, -0.06362131237983704, -0.09118320047855377, -0.0024339857045561075, 0.08939424902200699, 0.09781990945339203, 0.04812682047486305, 0.0265852902084589, -0.11386182904243469, 0.10020269453525543, 0.08708380162715912, -0.020183229818940163, -0.07579021900892258, -0.01883184351027012, -0.031129388138651848, -0.09575822204351425, -0.0055345408618450165, 0.08592383563518524, -0.03777063265442848, -0.026559418067336082, -0.10274945199489594, 0.008954272605478764, -0.01798194833099842, 0.016594883054494858, 0.021891724318265915, 0.046892959624528885, 0.09867389500141144, 0.11722630262374878, 0.07549499720335007, -0.019561100751161575, -0.06855142116546631, -0.14875486493110657, -0.10891378670930862, 0.024766767397522926, 0.08613544702529907, 0.08337777853012085, 0.007179092150181532, -0.05845271423459053, 0.0656314566731453, 0.01778622716665268, -0.06296073645353317, 0.052295561879873276, -0.011816667392849922, -0.0651954859495163, 0.04308022931218147, -0.08704473078250885, 0.046461645513772964, -0.021796150133013725, 0.02505321614444256, -0.11005260050296783, 0.049813613295555115, 0.08252201229333878, -0.018780972808599472, -0.005705954972654581, 0.12736020982265472, -0.10046330839395523, -0.11953368037939072, 0.014395132660865784, 0.1992616504430771, 0.06990068405866623, -0.07257107645273209, 0.012454546988010406, 0.12607358396053314, -0.013186505064368248, -0.07847579568624496, -0.09231576323509216, -0.07959271967411041, 0.06516411900520325, -0.03052518144249916, -0.10790634900331497, -0.014924178831279278, 0.004981574136763811, 0.0668523982167244, 0.07662573456764221, 0.10458499193191528, 0.08421332389116287, -0.09329771995544434, 0.007753465324640274, 0.03420576825737953, 0.08259140700101852, 0.022459184750914574, 0.17152085900306702, 0.11180540919303894, -0.03730539232492447, 0.058255668729543686, -0.016804423183202744, 0.1300017386674881, -0.049752235412597656, -0.11881636083126068, 0.10518278926610947, -0.021054863929748535, 0.014419147744774818, 0.03957308456301689, 0.09047107398509979, -0.1654665172100067, 0.10177137702703476, 0.0168574471026659, 0.1444731205701828, -0.1106996089220047, -0.10212187469005585, -0.0023320973850786686, 0.07869268208742142, -0.11255639046430588, -0.06309119611978531, -0.054226864129304886, -0.004259214736521244, -0.09617812931537628, 0.07690288126468658, 0.03019070439040661, -0.09399653971195221, -0.027379335835576057, 0.04614730551838875, 0.07754416018724442, 0.12245053052902222, 0.0880025178194046, 0.019187072291970253, 0.05813337117433548, -0.035116370767354965, 0.0977061539888382, 0.06395885348320007, 0.3550996780395508, 0.09806443750858307, 0.1651923656463623, 0.18365654349327087, -0.02606523223221302, -0.07820970565080643, 0.03826654329895973, 0.04645180329680443, 0.04352976381778717, 0.06817800551652908, 0.1364590972661972, -0.07601353526115417, 0.10232443362474442, -0.06523649394512177, -0.04453936591744423, -0.043197184801101685, -0.0590670071542263, 0.033218950033187866, 0.07204356789588928, -0.027452552691102028, 0.12135449796915054, 0.07118852436542511, 0.011510509066283703, -0.1373734325170517, -0.05279797315597534, 0.03561031073331833, -0.06745858490467072, 0.05373577028512955, -0.08181361854076385, 0.08726732432842255, 0.2263231724500656, -0.03815962001681328, 0.23727336525917053, 0.1384926736354828, -0.05728720873594284, 0.02172660268843174, 0.0984797328710556, 0.08816061168909073, 0.03277667239308357, 0.12808029353618622, 0.0756278708577156, -0.055254507809877396, 0.1470736563205719, -0.018320424482226372, -0.060837890952825546, -0.07400956004858017, -0.07502749562263489, -0.02533562108874321, -0.13643303513526917, 0.04234011098742485, -0.03163575008511543, 0.09868430346250534, -0.0499088317155838, 0.03283507749438286, 0.10221971571445465, 0.11526644974946976, 0.1315528303384781, -0.11866746842861176, 0.09628993272781372, 0.11615396291017532, -0.017539825290441513, 0.007196540012955666, -0.008101173676550388, 0.12734553217887878, 0.06646811962127686, -0.1436629295349121, -0.0312928631901741, 0.008593506179749966, 0.09670638293027878, -0.046513043344020844, -0.08015967160463333, 0.07297816872596741, 0.054903872311115265, -0.03707386925816536, 0.05076140910387039, 0.06388431787490845, -0.029816655442118645, -0.07773396372795105, 0.04767514392733574, 0.008666228502988815, 0.046899788081645966, 0.05979360267519951, -0.062016841024160385, -0.0937298834323883, 0.03737335652112961, -0.10985083132982254, 0.0371515266597271, -0.02507401816546917, 0.007763293571770191, -0.041942134499549866, 0.017354648560285568, 0.08140506595373154, 0.020833635702729225, -0.11177132278680801, -0.15238524973392487, -0.007417000830173492, -0.07059821486473083, 0.0050370460376143456, -0.03574710339307785, 0.033797673881053925, 0.027228230610489845, 0.04551813378930092, 0.06251758337020874, -0.12213986366987228, -0.09882057458162308, 0.010158153250813484, -0.06386622041463852, 0.11587228626012802, 0.030981650575995445, 0.09297874569892883, -0.09318499267101288, 0.02746114879846573, -0.1360766440629959, 0.0979272723197937, 0.051856521517038345, 0.07860179245471954, 0.05501260980963707, 0.09711813181638718, -0.06604224443435669, -0.026150396093726158, -0.12752500176429749, -0.04130019620060921, 0.03267386555671692, -0.09251502901315689, -0.11478930711746216, -0.11819694936275482, 0.11439655721187592, -0.025284476578235626, 0.17345233261585236, 0.08499379456043243, -0.0010968632996082306, -0.06505875289440155, -0.044671013951301575, 0.022745881229639053, 0.09480170160531998, -0.028116848319768906, -0.025854529812932014, -0.018118293955922127, -0.11090964823961258, 0.15350885689258575, -0.05355403199791908, -0.04790019616484642, -0.052491772919893265, -0.09718528389930725, -0.07036467641592026, -0.06477652490139008, 0.09962800145149231, 0.05474986881017685, 0.08627279847860336, 0.029916228726506233, 0.04599151387810707, 0.04352053627371788, 0.03434644639492035, -0.03513580188155174, -0.05727475881576538, -0.06523314118385315, -0.00043845747131854296, 0.055546727031469345, -0.13875360786914825, -0.014253437519073486, 0.0011173527454957366, -0.02342504821717739, 0.002731284126639366, 0.055780116468667984, -0.06460841000080109, 0.00712244026362896, 0.056624073535203934, 0.11195658892393112, -0.01561292726546526, -0.05997457727789879, 0.01219371147453785, -0.011981167830526829, 0.07383593171834946, -0.11841746419668198, -0.04853526130318642, 0.18362729251384735, -0.057722803205251694, 0.1456611603498459, -0.04398008808493614, 0.1275380700826645, -0.005794785916805267, 8.123806037474424e-05, 0.13952915370464325, 0.04052849858999252, 0.04922689497470856, -0.023174768313765526, -0.012569906190037727, -0.03510438650846481, -0.127456396818161, 0.007993643172085285, -0.056202586740255356, -0.0425233393907547, -0.21322423219680786, -0.05327339470386505, -0.05575665831565857, 0.043287377804517746, -0.14180122315883636, -0.16218456625938416, -0.0983244925737381, 0.07097931951284409, -0.16131597757339478, 0.130512997508049, -0.08652834594249725, -0.0445876307785511, -0.05992746353149414, 0.003048658836632967, -0.06884563714265823, -0.15079642832279205, -0.020553208887577057, 0.053576961159706116, -0.06294968724250793, 0.00543789379298687, 0.03893861174583435, -0.04938827082514763, -0.0650203749537468, 0.13154886662960052, 0.025835370644927025, 0.03428846597671509, 0.06211467832326889, 0.1011831983923912, -0.08170609176158905, -0.03008582629263401, -0.07121457159519196, -0.06140165776014328, -0.03750228509306908, -0.0283493734896183, -0.07330106198787689, -0.0933869257569313, -0.13280615210533142, -0.11056654155254364, -0.018286988139152527, -0.040410879999399185, 0.07947132736444473, 0.05978180840611458, -0.05963357537984848, 0.11831572651863098, -0.16593630611896515, 0.08575218915939331, 0.07557277381420135, 0.022135570645332336, 0.09686540812253952, -0.019010890275239944, -0.11481750756502151, 0.017680443823337555, 0.019328534603118896, 0.040185704827308655, 0.10959190875291824, -0.08083982765674591, -0.07123976945877075, -0.1249975934624672, 0.0007382472977042198, -0.03153430297970772, 0.060110125690698624, 0.037051014602184296, -0.022247981280088425, -0.03969435393810272, 0.05533938482403755, 0.04463221877813339, -0.013891119509935379, -0.0027284836396574974, -0.05484484136104584, 0.0157892107963562, -0.12006904929876328, 0.0005239145248197019, 0.09424588084220886, 0.05072532594203949, 0.15554150938987732, 0.020193427801132202, -0.07392143458127975, 0.06543365865945816, 0.028543874621391296, -0.10182991623878479, 0.033310405910015106, -0.06419616937637329, -0.1089545413851738, 0.06036524847149849, -0.0672592967748642, 0.02012343890964985, 0.08662997931241989, -0.02061368338763714, -0.00801773089915514, -0.08613106608390808, -0.14083141088485718, 0.014222199097275734, 0.074495330452919, 0.04577414318919182, 0.10934857279062271, 0.09035685658454895, 0.0779387503862381, -0.006294377613812685, -0.09930704534053802, -0.07846952974796295, -0.06371068954467773, -0.0957212820649147, -0.09748508036136627, 0.08238060772418976, 0.10424637049436569, -0.11507044732570648, 0.110696941614151, -0.0831821858882904, -0.07210908085107803, -0.022586381062865257, 0.08165432512760162, -0.05615963041782379, -0.09065627306699753, 0.08864988386631012, 0.11240007728338242, 0.08316584676504135, 0.004839980974793434, 0.030204281210899353, -0.03215399757027626, -0.02754935435950756, -0.011503280140459538, -0.08554725348949432, -0.0019974817987531424, -0.06284075975418091, -0.08246128261089325, -0.006484777666628361, -0.08566581457853317, -0.008618160150945187, -0.028284169733524323, -0.03223608061671257, -0.016131291165947914, -0.08261490613222122, -0.1472722440958023, -0.020875344052910805, 0.06336135417222977, 0.09546289592981339, 0.045838337391614914, -0.010419419035315514, -0.023050665855407715, 0.0583127923309803, 0.10951963067054749, 0.08543889969587326, 0.1606278419494629, -0.09132304042577744, 0.16382883489131927, 0.04502950608730316, -0.021744290366768837, -0.14317111670970917, -0.04784219339489937, -0.13920484483242035, -0.02867673896253109, -0.02025972679257393, -0.010341794230043888, -0.036328695714473724, 0.019025254994630814, -0.10078896582126617, -0.07227588444948196, -0.014155374839901924, 0.01505008339881897, -0.06115639954805374, 0.18128420412540436, -0.030324731022119522, -0.040329281240701675, 0.09342972189188004, -0.05050920322537422, -0.016668617725372314, 0.13309966027736664, -0.09657136350870132, 0.03426365554332733, -0.009497310034930706, -0.0010153373004868627, 0.04605146497488022, -0.02103184349834919, -0.0018523012986406684, -0.07920589298009872, -0.030552895739674568, -0.05285533517599106, 0.09616745263338089, -0.05936163291335106, 0.09568752348423004, -0.11704941838979721, -0.005852659232914448, -0.09658437967300415, -0.025791971012949944, -0.07940959930419922, -0.09144959598779678, 0.003833610564470291, -0.08632300794124603, -0.11131743341684341, 0.056235164403915405, -0.04521005600690842, 0.11889492720365524, -0.3196966350078583, 0.1251671314239502, 0.022145597264170647, -0.05245859548449516, -0.12309085577726364, -0.12044605612754822, -0.0662536472082138, 0.11276409775018692, -0.0823221430182457, -0.002153722569346428, 0.014455676078796387, -0.030924765393137932, -0.10498762875795364, 0.18609115481376648, 0.11867526173591614, 0.08198368549346924, -0.10703017562627792, -0.03284459188580513, 0.041472576558589935, -0.12636542320251465, 0.037114448845386505, -0.11272600293159485, 0.10023335367441177, 0.03087553195655346, 0.013485945761203766, 0.0448622852563858, 0.08453922718763351, 0.09369198232889175, -0.014091776683926582, -0.11730283498764038, -0.2139975130558014, 0.01815640740096569, -0.10249250382184982, -0.028250057250261307, -0.13467924296855927, 0.05679396167397499, -0.009543615393340588, 0.016154194250702858, -0.15585830807685852, 0.02932470478117466, -0.016998954117298126, 0.1379861980676651, -0.029408032074570656, -0.010654846206307411, -0.04835149645805359, -0.02277095429599285, 0.09636832773685455, -0.1092047244310379, 0.10363073647022247, -0.07058089226484299, -0.16337409615516663, -0.11720748245716095, 0.0005383668467402458, -0.06197794899344444, 0.08316674828529358, 0.00012243147648405284, -0.02047426626086235, -0.022754918783903122, -0.03037767857313156, -0.0023273255210369825, -0.19727428257465363, -0.04272002726793289, -0.04444960504770279, -0.05715692415833473, -0.2218438982963562, -0.07261717319488525, -0.11398664861917496, -0.04554036259651184, -0.1319197565317154, -0.020199686288833618, -0.006669067312031984, 0.07920539379119873, -0.002170457039028406, 0.08983256667852402, -0.11223410815000534, -0.0803566724061966, 0.08945856243371964, -0.04136815294623375, 0.12833631038665771, -0.11131619662046432, 0.0872500017285347, 0.07345061004161835, -0.03659287467598915, -0.11663272976875305, 0.1128980964422226, -0.003920711576938629, -0.030893243849277496, -0.08259531855583191, 0.005087527446448803, 0.008764101192355156, 0.0506817102432251, 0.0462176576256752, -0.09394622594118118, 0.07964617013931274, -0.060919225215911865, -0.055008672177791595, 0.011658897623419762, 0.062057822942733765, -0.03593653440475464, 0.07784189283847809, -0.12991636991500854, -0.032587647438049316, -0.03611176833510399, -0.1800401657819748, -0.019652849063277245, 0.08759293705224991, -0.08879458904266357, 0.13052722811698914, -0.08082157373428345, 0.08424708992242813, -0.037729840725660324, 0.020075421780347824, 0.022848837077617645, -0.009374968707561493, -0.05769135057926178, -0.08773964643478394, 0.010232885368168354, -0.0026502148248255253, -0.06724287569522858, -0.03234931454062462, -0.03878185898065567, 0.07839537411928177, -0.0502249151468277, -0.010683687403798103, 0.08723229914903641, -0.06814282387495041, 0.07850721478462219, -0.04335189238190651, 0.43172487616539, -0.055400550365448, 0.11592228710651398, -0.02045459672808647, -0.09412750601768494, -0.021403605118393898, 0.11526991426944733, -0.06277011334896088, 0.01656174659729004, -0.09463825821876526, 0.1023138090968132, 0.053702060133218765, 0.09377404302358627, -0.18966619670391083, 0.023069903254508972, -0.1008545309305191, 0.0745709165930748, 0.005254968535155058, 0.06043021008372307, 0.009618532843887806, -0.007585078943520784, -0.07855618745088577, 0.1203261986374855, -0.05412132292985916, 0.0027705493848770857, 0.04496688023209572, 0.010393980890512466, 0.03768673911690712, 0.16291509568691254, 0.06880662590265274, 0.1780039221048355, -0.04570841044187546, 0.07414079457521439, 0.08056186884641647, -0.026842691004276276, 0.10768966376781464, -0.08473166078329086, 0.0236419215798378, 0.06254870444536209, 0.038532111793756485, 0.09899505227804184, -0.08462153375148773, 0.12656797468662262, -0.07641002535820007, 0.1068422868847847, -0.0295624528080225, -0.04604380205273628, 0.12230060249567032, -0.16151316463947296, -0.006181265227496624, 0.03759097307920456, 0.11360219866037369, -0.0040292455814778805, -0.1113004982471466, 0.11568627506494522, 0.02819676510989666, 0.10023478418588638, -0.04479643702507019, -0.10744466632604599, 0.1288200318813324, 0.04652204364538193, 0.016450932249426842, -0.0008202989702112973, 0.12290415912866592, 0.05442409962415695, 0.0610368512570858, -0.061879537999629974, 0.11611609160900116, 0.03890762850642204, 0.04545760899782181, 0.04735580459237099, -0.0860012099146843, -0.11189005523920059, -0.07112186402082443, 0.01991637982428074, 0.05552411824464798, 0.035878706723451614, 0.01936645247042179, 0.1137729287147522, 0.0019168102880939841, 0.09077626466751099, -0.12312549352645874, 0.05633727088570595, 0.06566860526800156, 0.03301076218485832, -0.006382570136338472, -0.1161847859621048, -0.042622122913599014, 0.0008027963922359049, 0.004969659261405468, -0.03680959343910217, -0.12770868837833405, 0.03288590908050537, -0.06655623018741608, 0.06538312882184982, 0.025514287874102592, -0.055432531982660294, -0.012656714767217636, 0.03738382086157799, 0.07735781371593475, 0.0016092649893835187, -0.08714891225099564, -0.057936444878578186, 0.038448214530944824, -0.009783247485756874, -0.0007344491314142942, 0.11466208845376968, -0.07928325980901718, -0.026221074163913727, -0.05635663494467735, -0.09111254662275314, -0.03917111083865166, 0.04456052556633949, 0.10626963526010513, 0.0025198275689035654, 0.0011186294723302126, 0.04749443009495735, -0.0036041869316250086, -0.024549787864089012, 0.03382250666618347, 0.005488683935254812, -0.11023253947496414, -0.022198325023055077, -0.11574164032936096, -0.03523273393511772, 0.010906577110290527, -0.017751187086105347, -0.08184301853179932, 0.18184801936149597, -0.08222021907567978, -0.051977671682834625, -0.03673355281352997, -0.06384234875440598, -0.10509710013866425, -0.12408699840307236, 0.04540170729160309, -0.030928129330277443, -0.006567457690834999, 0.0758248120546341, -0.056833360344171524, 0.123079314827919, 0.0584581233561039, -0.04228474199771881, 0.00948028638958931, 0.10962432622909546, 0.028489522635936737, 0.11879980564117432, 0.1137487143278122, 0.023270905017852783, 0.10140824317932129, 0.034727852791547775, -0.042659200727939606, -0.06457451730966568, 0.08223506063222885, -0.03927404060959816, 0.13119685649871826, 0.06329158693552017, 0.061041440814733505, -0.027032040059566498, 0.06932737678289413, 0.018582435324788094, -0.06700412929058075, -0.08711947500705719, 0.020349571481347084, -0.001405156683176756, 0.09528306871652603, 0.0038636846002191305, -0.013169895857572556, -0.002628790447488427, 0.006774247623980045, 0.08342230319976807, -0.08757682144641876, 0.09852659702301025, 0.10209598392248154, -0.04746275767683983, -0.06303482502698898, 0.03097292222082615, -0.039506830275058746, 0.11242400854825974, 0.006210531108081341, 0.025626203045248985, 0.03660585731267929, -0.019264893606305122, 0.03620052710175514, -0.04873573035001755, 0.014822563156485558, -0.193849116563797, 0.10393194854259491, 0.006066071800887585, 0.008497894741594791, -0.150614932179451, -0.026793604716658592, 0.08866803348064423, 0.05163123086094856, 0.07031191140413284, -0.029024600982666016, 0.1233794242143631, 0.06550738215446472, 0.08286968618631363, 0.13693559169769287, -0.14461220800876617, -0.07331708818674088, 0.16332706809043884, 0.017025241628289223, 0.10580107569694519, -0.08765418827533722, -0.0368962436914444, -0.09974385052919388, 0.06521710008382797, 0.1197916716337204, -0.11472558975219727, -0.09081815183162689, 0.13270023465156555, 0.05480092391371727, 0.014063187874853611, -0.16926895081996918, -0.019263820722699165, 0.014101143926382065, -0.04498439282178879, 0.08433585613965988, -0.008678661659359932, 0.011015567928552628, 0.03565645217895508, -0.01930271089076996, -0.061543725430965424, -0.048574503511190414, 0.1422261744737625, -0.0948936864733696, 0.15308770537376404, -0.11149495840072632, 0.04763658717274666, 0.01980067789554596, 0.13898712396621704, 0.11957482993602753, -0.02457956224679947, -0.033545833081007004, -0.010987639427185059, 0.01576264575123787, 0.004646638408303261, 0.025052810087800026, -0.11474648118019104, -0.059900589287281036, 0.11127405613660812, -0.047042373567819595, 0.06973450630903244, -0.03468114510178566, 0.03005170077085495, 0.026568999513983727, -0.09101000428199768, -0.13967333734035492, 0.06463924050331116, 0.03201460465788841, 0.08011946082115173, 0.03234954550862312, -0.07040528208017349, 0.013569443486630917, 0.2540951371192932, -0.008792485110461712, 0.08618807792663574, 0.05758946016430855, -0.04381416365504265, 0.09177952259778976, -0.007058452814817429, -0.03770165517926216, 0.043172113597393036, -0.059845343232154846, 0.1293725222349167, -0.06980359554290771, 0.16422703862190247, -0.1620507538318634, 0.06653647124767303, -0.0876319482922554, 0.0629095807671547, -0.07552655786275864, 0.047004763036966324, -0.025552237406373024, 0.11864974349737167, 0.06570575386285782, 0.08954025059938431, 0.04854300618171692, -0.004815199412405491, 0.012734027579426765, 0.11012066900730133, -0.06825143843889236, 0.003719204105436802, -0.07843860983848572, -0.0015829831827431917, 0.03503652662038803, 0.07298338413238525, 0.03641130402684212, -0.0005875485949218273, -0.00761368777602911, -0.029073163866996765, 0.07604192942380905, -0.074319988489151, 0.04798153042793274, -0.11129526048898697, -0.015860669314861298, 0.07838768512010574, 0.0196544099599123, 0.043836552649736404, -0.02373894862830639, -0.09041926264762878, -0.06789439916610718, -0.09768453240394592, -0.1016271635890007, -0.06474913656711578, 0.10806289315223694, -0.14464585483074188, 0.04431138187646866, -0.003612315049394965, 0.12005212157964706, 0.10227140784263611, -0.05724673718214035, -0.086179718375206, 0.0911274328827858, 0.03782248497009277, -0.01922236941754818, -0.2092626541852951, 0.011352072469890118, 0.1398245096206665, 0.017663683742284775, 0.1736331433057785, -0.0040059215389192104, 0.029290182515978813, 0.025567274540662766, -0.10318753123283386, -0.021806852892041206, -0.05559292808175087, 0.10049483180046082, 0.14951571822166443, -0.025228368118405342, 0.04134558141231537, -0.07528828084468842, 0.0185824166983366, -0.0027249541599303484, 0.1586686074733734, -0.035020243376493454, -0.12427153438329697, -0.05090172961354256, -0.014578196220099926, 0.09735172986984253, -0.1028815358877182, -0.13196155428886414, -0.07691136002540588, -0.04910210892558098, 0.09562847763299942, 0.08379517495632172, 0.05452140420675278, 0.10092982649803162, -0.00021709654538426548, 0.00671454006806016, 0.0761130303144455, -0.10577929019927979, 0.05990822985768318, -0.0663142204284668, 0.16796346008777618, -0.07569854706525803, -0.016467217355966568, 0.06107030808925629, 0.10138989239931107, -0.010828157886862755, 0.11220496147871017, 0.06610539555549622, 0.04041065648198128, 0.06760167330503464, 0.07920721918344498, 0.01695655845105648, -0.08343406021595001, 0.058917440474033356, -0.07103350013494492, -0.07359461486339569, 0.03204568475484848, -0.12409624457359314, -0.025613684207201004, 0.019615236669778824, -0.08234942704439163, -0.029526203870773315, -0.18701031804084778, 0.02199459634721279, 0.04462932422757149, 0.07695125043392181, -0.11516932398080826, -0.039689622819423676, -0.0037078247405588627, 0.08984899520874023, -0.10927922278642654, -0.12442836165428162, 0.05688721686601639, 0.04017490893602371, -0.13509392738342285, -0.04729967564344406, 0.06483244895935059, -0.014162125065922737, -0.03724706172943115, -0.11055482178926468, -0.08610362559556961, 0.1483517438173294, -0.08821094781160355, 0.10175874084234238, -0.04390937462449074, 0.03147239610552788, -0.0981009230017662, 0.03959725424647331, 0.010126084089279175, -0.1174527108669281, -0.08582039922475815, -0.04323103651404381, -0.0378410667181015, 0.07580237835645676, 0.09967358410358429, 0.026936404407024384, -0.07654575258493423, 0.025571158155798912, 0.07796742022037506, -0.008062507957220078, -0.041270911693573, 0.05939901992678642, -0.0025723495054990053, 0.11706530302762985, -0.026660257950425148, -0.11977642774581909, 0.0431535542011261, -0.05590686947107315, 0.09539919346570969, -0.01857716403901577, 0.08474398404359818, -0.14510007202625275, -0.03247704729437828, 0.12169189751148224, 0.08771456032991409, -0.05208733677864075, 0.1551836133003235, -0.06395336240530014, -0.1470281183719635, -0.12059365957975388, 0.045912329107522964, -0.15041330456733704, -0.03790302202105522, -0.156370148062706, 0.07970289885997772, -0.060218192636966705, -0.08694848418235779, 0.014378247782588005, 0.03853270784020424, -0.016371259465813637, 0.03799708932638168, -0.06879071891307831, -0.023953553289175034, 0.031011154875159264, -0.02894979529082775, -0.14010478556156158, 0.059806469827890396, -0.020641764625906944, 0.015787087380886078, 0.004258095286786556, 0.053311023861169815, 0.11220171302556992, 0.09342966228723526, -0.035200703889131546, -0.016765033826231956, -0.09204189479351044, 0.055835023522377014, 0.046462494879961014, -0.0867127925157547, -0.0065027871169149876, -0.1367836743593216, 0.0960228219628334, -0.012109179981052876, 0.08387115597724915, -0.07416518032550812, -0.11068689078092575, 0.00011068012827308849, -0.010409585200250149, -0.04483138769865036, -0.10230907052755356, -0.11497395485639572, -0.03015836700797081, -0.0367281474173069, 0.07182822376489639, 0.01928495243191719, 0.10787453502416611, -0.10691432654857635, -0.09112157672643661, 0.1442623734474182, 0.056285686790943146, -0.10295908153057098, 0.08616980910301208, 0.07248620688915253, 0.0963839665055275, 0.09760647267103195, 0.012615949846804142, 0.009166492149233818, -0.09513486176729202, -0.09836947172880173, 0.025883587077260017, 0.08370475471019745, 0.034614693373441696, 0.10023780167102814, -0.03215350583195686, 0.1399882584810257, 0.0987190529704094, 0.10202722996473312, 0.07758019119501114, -0.12319668382406235, -0.08015493303537369, -0.08048920333385468, 0.08897869288921356, -0.05361638218164444, -0.04757959023118019, -0.17168255150318146, 0.11592571437358856, 0.06779395043849945, -0.15565669536590576, -0.055772338062524796, -0.10720229148864746, -0.034989554435014725, 0.04192754998803139, 0.1329777091741562, 0.04924706742167473, 0.1334732621908188, 0.03304906561970711, -0.004238111432641745, 0.00619552144780755, -0.016687512397766113, -0.15391746163368225, 0.060809314250946045, 0.03956995904445648, -0.015835203230381012, -0.021624010056257248, 0.013650776818394661, -0.10506407916545868, -0.09257350862026215, 0.0745130404829979, -0.030431140214204788, 0.08068578690290451, 0.017372414469718933, -0.059337373822927475, 0.020825380459427834, -0.02165999636054039, 0.13767358660697937, 0.07940791547298431, -0.1386413425207138, -0.07244322448968887, -0.018588582053780556, -0.13308347761631012, -0.0782068520784378, -0.02927706018090248, -0.06227017194032669, 0.11496176570653915, 0.14380788803100586, -0.10694731026887894, -0.09592120349407196, 0.016331782564520836, 0.13318537175655365, -0.09311449527740479, 0.04420167952775955, -0.08032917231321335, 0.023537583649158478, 0.03648342937231064, -0.028650030493736267, -0.015895884484052658, 0.11450353264808655, 0.10263682901859283, 0.05508402734994888, 0.013520962558686733, -0.16159163415431976, 0.12204496562480927, 0.07171621173620224, -0.09059378504753113, 0.07638949155807495, -0.0035602638963609934, 0.05620763078331947, -0.13175596296787262, -0.37516170740127563, 0.04420415312051773, -0.04479794576764107, -0.08579897880554199, 0.12193868309259415, 0.0718650221824646, 0.03251563012599945, -0.0010833186097443104, 0.020028678700327873, 0.08809653669595718, 0.06556973606348038, 0.1360248327255249, 0.03709186986088753, 0.08266176283359528, 0.0634547621011734, 0.12370212376117706, -0.05888320133090019, -0.06961019337177277, -0.012757874093949795, 0.13053591549396515, -0.06393001228570938, 0.05854973942041397, -0.09760074317455292, 0.04958370700478554, 0.12017781287431717, 0.03872734308242798, 0.02545531652867794, -0.04240214824676514, 0.0892951712012291, -0.14671774208545685, -0.05250466242432594, 0.08516811579465866, -0.18679317831993103, 0.07491422444581985, -0.06995858997106552, 0.0056472038850188255, -0.1861787736415863, 0.05184029042720795, 0.02033870294690132, 0.04366438463330269, 0.0035994313657283783, 0.07830275595188141, -0.15506762266159058, -0.08519698679447174, 0.012784719467163086, 0.12824296951293945, 0.08181878179311752, 0.007931250147521496, 0.16106955707073212, -0.005872361361980438, 0.042613159865140915, 0.08399005234241486, -0.18965309858322144, 0.04280097782611847, 0.057693883776664734, -0.03487304970622063, 0.0380958691239357, -0.04998840019106865, 0.07410203665494919, -0.13925807178020477, 0.03779975697398186, -0.1132233664393425, 0.11944836378097534, 0.008337168954312801, 0.06914426386356354, 0.0701255351305008, 0.06790882349014282, 0.08328159153461456, -0.03348731994628906, -0.06768529117107391, 0.060128968209028244, 0.06119438260793686, 0.0375884547829628, -0.08516629785299301, 0.03117428533732891, -0.11312463134527206, 0.03705620393157005, -0.010142291896045208, -0.08896752446889877, 0.05600115284323692, 0.0652984157204628, -0.035517752170562744, 0.0876023918390274, -0.11371820420026779, 0.01806711219251156, -0.041023820638656616, 0.0026053437031805515, -0.0754830613732338, 0.07193212956190109, -0.04927259683609009, 0.0019423292251303792, -0.029655739665031433, -0.021529966965317726, -0.009749816730618477, -0.08476687967777252, -0.09002836048603058, -0.06251423805952072, -0.11242431402206421, -0.11294444650411606, 0.02516956441104412, -0.032019324600696564, -0.07610607147216797, 0.0765993595123291, -0.10106761008501053, 0.0024501781444996595, 0.04462425038218498, -0.07068914920091629, -0.04198399558663368, -0.08579668402671814, -0.10951733589172363, 0.0915711522102356, 0.047045037150382996, 0.08254709094762802, 0.014936842955648899, -0.10261354595422745, -0.0019636908546090126, 0.13043907284736633, -0.09712689369916916, 0.013075349852442741, -0.12762363255023956, 0.040044691413640976, 0.05184820294380188, 0.12804743647575378, 0.0859563946723938, -0.11430899798870087, -0.10238556563854218, 0.08959294110536575, 0.0570729561150074, 0.0813375934958458, -0.04239828512072563, 0.2562810480594635, -0.07338204234838486, 0.1591797024011612, 0.05018548294901848, -0.13916228711605072, -0.12171413004398346, 0.12472569197416306, 0.0897335335612297, 0.00482122553512454, -0.02790704555809498, 0.14574337005615234, 0.02158338576555252, 0.18703964352607727, -0.09441068023443222, -0.01769081875681877, 0.012765152379870415, 0.013091107830405235, 0.08593424409627914, -0.01034689974039793, -0.03527595475316048, 0.0941222533583641, 0.11930844932794571, -0.04349360242486, -0.09327062219381332, -0.011823588982224464, 0.1300230771303177, -0.06431172043085098, -0.04180938005447388, 0.07033271342515945, 0.024137308821082115, 0.1655733287334442, 0.03633759915828705, 0.059459950774908066, 0.059655964374542236, 0.04372837021946907, 0.0009220315841957927, -0.08466147631406784, 0.17829681932926178, 0.07443005591630936, 0.14849373698234558, 0.07598253339529037, 0.03439033403992653, 0.10408136248588562, -0.020647559314966202, 0.027080431580543518, 0.12182144820690155, -0.046633411198854446, 0.09988077729940414, -0.16966062784194946, 0.051363978534936905, 0.09928740561008453, 0.02884666994214058, 0.09829133749008179, -0.006924287416040897, -0.034932397305965424, 0.22035351395606995, 0.09448222815990448, 0.02713235840201378, -0.08968041837215424, 0.11041082441806793, 0.0473516471683979, -0.03081441856920719, 0.014680291526019573, 0.06621617078781128, 0.02299298346042633, -0.12976951897144318, 0.02469410002231598, 0.05746537819504738, -0.036849770694971085, 0.016526296734809875, 0.03521968051791191, -0.0685080885887146, 0.0558161623775959, 0.12231140583753586, 0.11810074746608734, 0.0814954936504364, -0.1003793478012085, -0.03431684896349907, -0.05975682660937309, 0.002263648435473442, 0.08752990514039993, -0.08870135247707367, -0.06785213947296143, -0.11134513467550278, -0.018403831869363785, -0.0292226392775774, 0.04574288800358772, -0.11869855225086212, 0.0031272554770112038, -0.10517672449350357, -0.10263010114431381, 0.07308542728424072, -0.01935247704386711, 0.047896672040224075, 0.06358859688043594, 0.09940461814403534, -0.0562264584004879, 0.0822058692574501, 0.028992148116230965, -0.08430764079093933, 0.08777228742837906, -0.07668216526508331, -0.019594458863139153, 0.02910587750375271, -0.12968097627162933, 0.007486951071768999, 0.05997607856988907, 0.05060894042253494, -0.005655158311128616, 0.008204592391848564, 0.03198365122079849, 0.04419257864356041, -0.02035645954310894, -0.12446180731058121, -0.06402941048145294, -0.13193625211715698, 0.11291567981243134, 0.11202352494001389, 0.07238432765007019, 0.04781971871852875, -0.10549526661634445, -0.06713691353797913, -0.010456345975399017, -0.02597982995212078, -0.02071043848991394, 0.025893952697515488, -0.01589042879641056, -0.13920599222183228, -0.025869783014059067, -0.03249065577983856, -0.04331216961145401, -0.02570897899568081, -0.013596626929938793, -0.05095158889889717, -0.0028786174952983856, 0.020313266664743423, 0.06934560835361481, 0.0502968467772007, 0.01757257804274559, 0.0024569027591496706, 0.04170062392950058, 0.0901731476187706, -0.09348171204328537, 0.11431965231895447, -0.14832553267478943, 0.08355873078107834, -0.07542568445205688, -0.02913975715637207, -0.03529804199934006, 0.021476561203598976, -0.01754060387611389, 0.07714838534593582, -0.0023814334999769926, -0.07223554700613022, 0.014991824515163898, -0.022061966359615326, -0.1110103502869606, -0.02582683227956295, 0.07370686531066895, -0.010217447765171528, -0.033633653074502945, 0.106022909283638, -0.04003455862402916, 0.005893236957490444, -0.088736392557621, -0.09987393766641617, 0.034813202917575836, -0.07665205746889114, 0.018883489072322845, -0.03139098361134529, -0.10464461147785187, 0.12230587750673294, 0.04744471609592438, -0.016817333176732063, 0.07363858073949814, -0.018972061574459076, 0.06985574215650558, 0.10286246985197067, -0.02219264954328537, 0.07461711019277573, 0.06114736944437027, 0.027128789573907852, 0.04340289533138275, 0.05382489413022995, 0.028043122962117195, -0.11268992722034454, -0.07710087299346924, -0.06451384723186493, -0.06263262778520584, -0.10169421136379242, -0.16421668231487274, 0.11966302245855331, 0.0402306504547596, 0.05765068158507347, 0.1597767174243927, 0.007219045422971249, -0.10379864275455475, -0.13421113789081573, -0.07339887320995331, -0.060601748526096344, 0.07790806889533997, -0.020797448232769966, -0.05839588865637779, 0.020840315148234367, 0.055427927523851395, 0.02357378974556923, 0.0021533023100346327, -0.01041955966502428, -0.03779849037528038, 0.12982597947120667, 0.04391391947865486, 0.008652694523334503, -0.0465901754796505, 0.11869507282972336, 0.050206009298563004, 0.05098257213830948, 0.01097322627902031, 0.15293732285499573, 0.08949382603168488, 0.10918570309877396, -0.0008798860944807529, 0.011290712282061577, 0.0005709792021661997, 0.015370442532002926, -0.046574000269174576, 0.02940305694937706, -0.10892041772603989, -0.030216379091143608, 0.03230265900492668, 0.11547250300645828, -0.09420710802078247, 0.1708751916885376, 0.11263588815927505, 0.02250717021524906, 0.09390253573656082, 0.11954670399427414, 0.05844547599554062, 0.09760712832212448, 0.02108468860387802, 0.12473171949386597, -0.08765415847301483, 0.1070798933506012, 0.0727168470621109, -0.0037234160117805004, -0.10841982066631317, -0.0324789397418499, 0.06567960977554321, 0.17803682386875153, -0.06321403384208679, 0.11304907500743866, 0.021213343366980553, -0.06184329837560654, -0.08793394267559052, -0.1492215394973755, -0.41302356123924255, -0.03716721758246422, -0.18585056066513062, 0.11815468966960907, -0.08906755596399307, 0.06977332383394241, 0.05007750913500786, 0.12357882410287857, -0.10465358197689056, 0.05054983124136925, -0.04750051721930504, -0.07363774627447128, -0.13151612877845764, 0.04261323809623718, 0.02208610065281391, 0.01725780963897705, -0.10077536106109619, -0.08909200131893158, -0.012544743716716766, 0.008928551338613033, 0.019734416157007217, -0.1379968672990799, -0.16214504837989807, 0.03933856636285782, 0.12630778551101685, 0.04937324672937393, 0.03943793848156929, -0.056703004986047745, 0.11515873670578003, 0.08769989758729935, 0.005399020854383707, -0.0643228068947792, -0.18954722583293915, -0.04912799224257469, 0.01729883812367916, -0.06220176815986633, 0.04794564098119736, 0.07014593482017517, -0.05334831029176712, -0.03861354663968086, 0.05184967443346977, -0.07027541100978851, 0.030588217079639435, 0.04467415809631348, 0.08165677636861801, 0.011328181251883507, -0.026905380189418793, -0.06112898141145706, 0.135748028755188, -0.06709227710962296, 0.17885860800743103, 0.04294769465923309, -0.08973367512226105, -0.11852440237998962, 0.0892428383231163, -0.038333818316459656, -0.12277083843946457, -0.06266922503709793, 0.06194348260760307, -0.1184062510728836, -0.08514146506786346, -0.08045823872089386, 0.0112293791025877, 0.004627041518688202, 0.1399419605731964, -0.03276760131120682, -0.06252332776784897, 0.03380878269672394, -0.01415666937828064, 0.06916316598653793, 0.048683494329452515, 0.03539121523499489, 0.11429242789745331, 0.06612854450941086, -0.17942167818546295, 0.11408542096614838, -0.08315854519605637, 0.02848966233432293, -0.15433228015899658, 0.12677323818206787, 0.17430280148983002, 0.07446382194757462, 0.0662759318947792, -0.12867024540901184, 0.08429375290870667, 0.044638000428676605, 0.03205113112926483, -0.11431801319122314, -0.1348806917667389, -0.10517722368240356, -0.00014247138460632414, 0.060168903321027756, 0.04226935654878616, -0.017829416319727898, 0.059865206480026245, -0.022735368460416794, -0.02232571318745613, -0.12126483768224716, -0.03146945312619209, 0.005983658600598574, 0.13093845546245575, 0.07260046154260635, -0.05144152790307999, -0.006633168552070856, 0.007619907148182392, -0.1374557763338089, -0.04990893602371216, 0.08794369548559189, 0.03419151157140732, 0.039122458547353745, -0.10469488054513931, 0.008174124173820019, 0.024617772549390793, -0.022784480825066566, 0.05714886263012886, -0.13270379602909088, -0.18351668119430542, -0.07708199322223663, 0.0949375182390213, -0.07558772712945938, -0.026078926399350166, -0.11297015845775604, -0.1088249608874321, 0.044134337455034256, 0.07062364369630814, -0.01902841031551361, 0.04860195517539978, 0.05280661955475807, 0.1786583960056305, -0.08520718663930893, -0.2187677025794983, 0.021922098472714424, -0.07214480638504028, -0.041056521236896515, -0.11294327676296234, 0.02023855596780777, -0.10167579352855682, -0.049866605550050735, 0.04655208811163902, 0.062010638415813446, -0.08441262692213058, -0.0069124395959079266, -0.17747285962104797, 0.09449329227209091, 0.09845830500125885, -0.044771958142519, 0.0753358006477356, -0.046751439571380615, -0.09299259632825851, 0.11332286894321442, 0.08733111619949341, 0.04531627148389816, -0.04102287068963051, 0.10363411903381348, -0.03707507625222206, -0.009260037913918495, 0.1304212212562561, -0.0872083306312561, -0.15105892717838287, -0.04586583748459816, -0.063334621489048, 0.0033565047197043896, 0.06528915464878082, -0.08220117539167404, 0.06639032065868378, -0.020561575889587402, -0.011169920675456524, 0.08474406599998474, -0.056531328707933426, -0.0034343779552727938, -0.07626017183065414, 0.10665559768676758, -0.16656002402305603, 0.06869392842054367, -0.184119313955307, 0.1201622411608696, -0.06899446249008179, -0.0059617990627884865, 0.0456005334854126, -0.13587573170661926, 0.03221133351325989, -0.0661943256855011, 0.15545107424259186, 0.08432420343160629, 0.12881921231746674, 0.05709419399499893, -0.09975732862949371, 0.026666194200515747, -0.028917046263813972, 0.07006987184286118, 0.07672172039747238, 0.026061151176691055, 0.2111886441707611, -0.028243372216820717, 0.0012604640796780586, -0.02681923098862171, -0.10741636902093887, -0.06170996278524399, -0.06634687632322311, -0.07781117409467697, 0.045971982181072235, 0.05615421012043953, -0.0989794209599495, 0.1075824722647667, 0.0739293172955513, -0.06570494174957275, 0.05496862530708313, 0.03571767359972, -0.08289303630590439, 0.008871888741850853, -0.02932397648692131, 0.018925895914435387, 0.040033191442489624, -0.06248249113559723, 0.0740816667675972, -0.16404710710048676, -0.12537097930908203, 0.09531573951244354, -0.0051622712053358555, -0.0012427974725142121, -0.13454777002334595, -0.10006462782621384, -0.060093317180871964, -0.06078971549868584, -0.09802941232919693, 0.08781237155199051, 0.08715023100376129, 0.13444705307483673, -0.046923957765102386, -0.03660827502608299, -0.12153784930706024, 0.028539663180708885, -0.08000019192695618, 0.001404214184731245, -0.11974619328975677, -0.1087597906589508, 0.11544481664896011, -0.0018905065953731537, -0.09064054489135742, -0.12459491938352585, -0.16223736107349396, 0.09552349895238876, 0.013736672699451447, -0.1652606725692749, -0.00122104212641716, 0.05211062356829643, -0.11152075976133347, 0.05452915281057358, 0.021599432453513145, -0.02573222666978836, 0.04778994992375374, 0.004134482238441706, 0.16306661069393158, 0.010744485072791576, 0.0412834957242012, 0.0825381949543953, 0.3911183774471283, -0.15211030840873718, 0.016614574939012527, -0.09699344635009766, -0.056590043008327484, 0.03324063494801521, -0.06513134390115738, 0.009134482592344284, -0.0372585654258728, -0.040400780737400055, 0.05344055965542793, 0.0714695155620575, -0.11020305007696152, 0.06357263028621674, -0.12871712446212769, -0.11384908109903336, 0.01658426597714424, 0.08798301219940186, 0.06336387991905212, 0.018101010471582413, 0.06800416111946106, 0.05384979397058487, 0.03137877210974693, -0.1387242078781128, -0.0027709119021892548, -0.12594564259052277, -0.006983647588640451, 0.08245192468166351, -0.1316152811050415, -0.06780311465263367, -0.009805204346776009, 0.06812533736228943, 0.13420909643173218, 0.006743462290614843, 0.04584362357854843, 0.05564515292644501, -0.04693888872861862, 0.10080881416797638, 0.024574056267738342, 0.05322504788637161, -0.017813434824347496, -0.018702615052461624, -0.09020154178142548, 0.08503268659114838, -0.03182963654398918, 0.11994224786758423, -0.1078716516494751, -0.046048328280448914, -0.15311552584171295, -0.08034754544496536, -0.1621730774641037, -0.06428010016679764, -0.0028995403554290533, 0.15541882812976837, -0.10634595155715942, -0.09341844171285629, 0.007634297478944063, -0.03617284819483757, 0.144308939576149, -0.02584388107061386, -0.025163181126117706, -0.1343291997909546, 0.0029631995130330324, -0.01463145762681961, 0.06554771214723587, -0.08182016760110855, -0.06361352652311325, -0.05779445171356201, -0.13316768407821655, -0.11375165730714798, 0.1367497593164444, 0.026439007371664047, 0.07998134940862656, -0.12776055932044983, -0.12248197942972183, -0.028469407930970192, -0.08057264238595963, -0.03815009817481041, -0.1667829304933548, 0.1650923639535904, -0.10886847972869873, -0.025766953825950623, -0.09637659788131714, -0.08008649945259094, 0.025069277733564377, -0.10291080176830292, 0.04266968369483948, -0.06331733614206314, -0.10424821823835373, -0.042443305253982544, -0.0063581750728189945, -0.09544116258621216, 0.015874911099672318, 0.030087126418948174, -0.1714622676372528, -0.018664052709937096, -0.04167421907186508, 0.0624232180416584, -0.1247841939330101, -0.09133151173591614, -0.1473679542541504, 0.020443730056285858, -0.052794650197029114, 0.00045663266791962087, 0.08825521916151047, 0.046265508979558945, -0.07381884008646011, -0.014813617803156376, -0.18387556076049805, -0.08462917804718018, 0.0024708241689950228, -0.06239815801382065, 0.10027173161506653, 0.030210159718990326, 0.06871353834867477, -0.16814933717250824, 0.14481133222579956, 0.06176440417766571, 0.05742473900318146, 0.1087677851319313, -0.016636447980999947, -0.12182746827602386, -0.11657052487134933, -0.14173641800880432, 0.05798406898975372, -0.02169770561158657, 0.01905798353254795, -0.01801164075732231, 0.009678443893790245, -0.022956158965826035, 0.16744467616081238, -0.05838179588317871, -0.09488651156425476, 0.004154220689088106, -0.03111172467470169, -0.0125714261084795, 0.08923414349555969, 0.08237458020448685, -0.0228026881814003, 0.033900316804647446, 0.11299615353345871, -0.062163095921278, 0.11025847494602203, -0.06601512432098389, 0.06954493373632431, 0.07966616004705429, 0.1249212995171547, 0.06413698196411133, 0.09723887592554092, 0.00803404301404953, 0.008363009430468082, -0.12319784611463547, -0.07326115667819977, -0.09211896359920502, 0.018143180757761, -0.03194738179445267, -0.09101095795631409, 0.016063520684838295, 0.08975379168987274, 0.0066010174341499805, 0.07912188768386841, -0.08657029271125793, -0.06554991006851196, 0.04074854776263237, 0.10203275829553604, -0.05231499671936035, 0.09143514186143875, -0.10093037784099579, -0.06662330031394958, 0.03908002749085426, -0.03213999420404434, 0.08466856926679611, -0.09542719274759293, -0.04332229495048523, 0.08962772786617279, 0.14807483553886414, -0.02116086333990097, -0.00700419582426548, 0.01482259202748537, 0.10882459580898285, 0.08101100474596024, 0.01484433189034462, 0.043753087520599365, 0.019840583205223083, 0.08733484894037247, -0.01407634373754263, 0.09493120014667511, -0.06992264091968536, 0.035809632390737534, 0.1446685492992401, 0.10624800622463226, 0.023408588021993637, 0.09421857446432114, -0.09340688586235046, 0.3877396285533905, 0.007190914824604988, -0.06132920831441879, 0.0351385623216629, 0.1008184552192688, 0.001807100954465568, 0.04153316468000412, -0.10184448957443237, -0.004442209377884865, 0.01585395820438862, 0.004635788034647703, -0.14211732149124146, 0.22199766337871552, 0.024463055655360222, 0.08732631057500839, 0.07419862598180771, 0.17074622213840485, -0.011100203730165958, 0.07763170450925827, -0.04128864407539368, 0.005055579356849194, -0.1384410709142685, -0.10862550139427185, -0.0977221429347992, 0.020268945023417473, 0.04298903048038483, -0.14630967378616333, 0.08688163012266159, -0.05211242660880089, 0.04009323939681053, -0.033306702971458435, 0.05863012745976448, -0.017327504232525826, 0.03989679738879204, 0.14376552402973175, 0.05527111142873764, -0.13412636518478394, -0.05166394263505936, 0.05806686729192734, -0.05846455320715904, 0.15317164361476898, -0.03699829429388046, 0.12040984630584717, -0.0009329423774033785, 0.026348689571022987, -0.054196882992982864, -0.08222885429859161, -0.005259115714579821, -0.0669858455657959, 0.07830144464969635, 0.04023392125964165, -0.1063762679696083, 0.00190670695155859, -0.1718081384897232, -0.020962726324796677, 0.042123403400182724, -0.05920526012778282, 0.04873283579945564, 0.07329713553190231, 0.06863337010145187, 0.14718428254127502, -0.009139122441411018, 0.23140165209770203, 0.06297706812620163, 0.15790869295597076, -0.10065373033285141, -0.0026677013374865055, -0.038703739643096924, -0.0693444088101387, -0.06493141502141953, 0.08284394443035126, 0.0936402902007103, -0.11006807535886765, -0.0013597543584182858, 0.020370297133922577, -0.0643426850438118, -0.04210231080651283, -0.16669055819511414, -0.0996384397149086, 0.11973761022090912, 0.031070075929164886, -0.026666732504963875, -0.000800201843958348, 0.09249518066644669, -0.013549532741308212, 0.10600164532661438, 0.025054454803466797, 0.1078840047121048, 0.008058980107307434, -0.0013978785136714578, -0.043018441647291183, -0.034311626106500626, 0.045006509870290756, -0.09083735197782516, -0.0561596155166626, -0.10342159867286682, -0.01591363176703453, 0.05623037368059158, 0.14597678184509277, 0.0563935711979866, -0.08835708349943161, -0.05146311596035957, 0.0457153357565403, -0.01755005493760109, 0.005977042485028505, -0.0607890710234642, 0.03981567174196243, 0.05184434354305267, -0.07754028588533401, 0.11894243955612183, 0.015419027768075466, 0.09437230974435806, 0.025006640702486038, -0.13209785521030426, 0.13110901415348053, 0.1261281669139862, -0.019038725644350052, 0.059958912432193756, -0.01806185580790043, -0.027054283767938614, 0.005222154315561056, 0.06116475164890289, -0.05097702890634537, 0.11090745031833649, 0.07814992964267731, -0.03644704446196556, -0.04925834387540817, -0.06077482923865318, -0.06702949851751328, 0.07433096319437027, -0.06306123733520508, -0.09377393871545792, 0.004666751716285944, -0.0062777497805655, 0.03662849962711334, 0.04327873885631561, 0.00601320993155241, 0.008394096046686172, 0.08560288697481155, -0.03845486417412758, -0.061350155621767044, 0.04086841270327568, 0.1268966943025589, -0.11726228892803192, 0.11527100205421448, -0.07601002603769302, -0.026088884100317955, 0.09225389361381531, 0.12917886674404144, 0.0891212522983551, 0.041041016578674316, -0.11550962924957275, 0.00513632083311677, -0.019092710688710213, -0.05623459815979004, -0.10936567932367325, -0.05905775725841522, 0.09818390756845474, -0.0041960119269788265, -0.026226287707686424, 0.04584076255559921, -0.047679927200078964, 0.03239201381802559, 0.022925132885575294, 0.1531030237674713, -0.002797086024656892, 0.04490949958562851, -0.05332416296005249, -0.022659430280327797, 0.055365510284900665, 0.12609630823135376, 0.005293624475598335, 0.028442589566111565, 0.08715710788965225, 0.08857860416173935, 0.007102693431079388, 0.058195099234580994, 0.04818519577383995, -0.09252894669771194, -0.028059130534529686, -0.09312939643859863, -0.040349915623664856, -0.049994438886642456, 0.05896879360079765, 0.01855616085231304, -0.06301688402891159, -0.02444426342844963, 0.02410143055021763, -0.07895572483539581, -0.05539814010262489, 0.11570722609758377, -0.1353565752506256, -0.09864193946123123, 0.053759656846523285, -0.19244380295276642, 0.05333588272333145, 0.06431359797716141, -0.07989048957824707, -0.04642238840460777, -0.08815077692270279, 0.036591604351997375, 0.06756290793418884, -0.030779264867305756, 0.026751719415187836, -0.09142810106277466, 0.17599612474441528, -0.09809442609548569, 0.01640862599015236, -0.03159832954406738, 0.036897409707307816, -0.0766199380159378, 0.06517954915761948, -0.01812387816607952, -0.06275393068790436, 0.06351258605718613, -0.057174526154994965, 0.009829765185713768, 0.08380474895238876, -0.025780299678444862, -0.12288902699947357, -0.16887393593788147, -0.1354168951511383, -0.11510957777500153, 0.05469542369246483, -0.10019031167030334, -0.07262616604566574, 0.01190975122153759, -0.11288993805646896, -0.004820691421627998, 0.021230675280094147, 0.08819771558046341, -0.017030123621225357, 0.005240281578153372, 0.032116953283548355, -0.1127222552895546, -0.0580778606235981, 0.03212810307741165, 0.010424177162349224, 0.06178095191717148, 0.06442238390445709, -0.06878239661455154, 0.025869153439998627, 0.016572268679738045, 0.10767308622598648, -0.06578369438648224, 0.18662452697753906, 0.0879242792725563, -0.05310836061835289, -0.10862447321414948, -0.09874118864536285, -0.0817561000585556, 0.12010294944047928, -0.1102554127573967, 0.0498356893658638, 0.09770861268043518, -0.07290567457675934, 0.1348728984594345, -0.02411102131009102, 0.10420706868171692, 0.0436227023601532, -0.15288962423801422, 0.06090410053730011, -0.06825755536556244, 0.044222403317689896, -0.057946138083934784, -0.09064025431871414, 0.07332607358694077, 0.037937965244054794, 0.05142556503415108, -0.06635523587465286, 0.03686464577913284, -0.08849682658910751, -0.07907838374376297, 0.050254907459020615, -0.09567435830831528, 0.09665384143590927, 0.05234305188059807, -0.03955136239528656, 0.11038524657487869, -0.07878434658050537, -0.004861045628786087, -0.15215656161308289, 0.029654115438461304, 0.06614232063293457, 0.1533476710319519, -0.01450385246425867, -0.0010365869384258986, 0.053642768412828445, 0.12292499840259552, 0.11520715802907944, 0.06470442563295364, 0.06673109531402588, -0.09429876506328583, -0.018609896302223206, -0.08386550843715668, -0.03333454206585884, 0.01602729968726635, 0.049623820930719376, -0.046954795718193054, -0.13276055455207825, -0.09578956663608551, -0.09155091643333435, -0.09327264875173569, -0.08459077775478363, -0.07885127514600754, -0.0012257826747372746, -0.012679800391197205, 0.1250072419643402, 0.0944533497095108, -0.17245915532112122, -0.001286093145608902, 0.09023537486791611, 0.015813041478395462, -0.019113779067993164, -0.03570495918393135, 0.0772915929555893, 0.057913485914468765, -0.07398909330368042, -0.03402143716812134, 0.10022313892841339, 0.09468869864940643, -0.10948573052883148, -0.08809837698936462, -0.023633958771824837, 0.048702359199523926, 0.10473144799470901, 0.01564011350274086, -0.02792258933186531, 0.06028527021408081, -0.04190988838672638, -0.1441604048013687, -0.004324823617935181, 0.014422569423913956, -0.03868815302848816, -0.062087852507829666, 0.15199032425880432, 0.08241988718509674, 0.030082466080784798, 0.08013907819986343, -0.07353732734918594, -0.0698959156870842, -0.036858804523944855, 0.029708467423915863, 0.04109441116452217, 0.016446297988295555, 0.032794732600450516, -0.026914363726973534, -0.01538300421088934, -0.013555510900914669, -0.0332002118229866, -0.11857281625270844, -0.07563932985067368, -0.01617465354502201, -0.06888876855373383, -0.07646747678518295, -0.00497971149161458, 0.08316978067159653, -0.022740399464964867, 0.011798309162259102, 0.1701904982328415, 0.018987657502293587, 0.08386513590812683, 0.037577103823423386, -0.0480499267578125, 0.08728297799825668, 0.0012844898737967014, -0.08820754289627075, 0.0734245702624321, -0.09986359626054764, 0.08722633123397827, -0.02493063174188137, -0.01102251186966896, 0.07691612094640732, 0.03889254108071327, -0.07352159917354584, 0.11947435140609741, 0.07012616097927094, 0.03708680719137192, -0.004472644999623299, 0.06374543160200119, -0.006095673888921738, -0.040092501789331436, -0.15817572176456451, -0.0974959209561348, 0.25906533002853394, -0.0394236296415329, 0.060949843376874924, 0.016011390835046768, 0.08788849413394928, -0.08664712309837341, -0.003915014676749706, -0.12870001792907715, 0.11786945909261703, -0.07970227301120758, 0.006204253528267145, 0.029256638139486313, 0.1111176386475563, -0.018981672823429108, -0.11775312572717667, -0.021557817235589027, -0.021133115515112877, -0.002334908815100789, -0.0796818882226944, 0.14671728014945984, -0.1192832887172699, -0.06893184036016464, -0.0573759488761425, -0.10255029797554016, 0.01702895760536194, -0.018667049705982208, 0.0177683737128973, -0.08848536759614944, -0.008783876895904541, 0.00476436922326684, 0.1297735869884491, -0.002631579292938113, -0.02249537594616413, 0.022260887548327446, -0.04570417478680611, -0.06671926379203796, -0.13573463261127472, 0.15873311460018158, 0.09183327853679657, 0.03455190733075142, -0.0875406563282013, 0.10143154859542847, 0.0949062779545784, -0.06144913658499718, 0.008728301152586937, -0.01660199835896492, -0.03795173391699791, 0.12669409811496735, -0.17702257633209229, 0.07137509435415268, 0.09011606872081757, -0.07281160354614258, 0.04238850250840187, 0.07346631586551666, 0.06430601328611374, 0.205206498503685, 0.08245224505662918, 0.04162599518895149, -0.0200393907725811, 0.015507965348660946, -0.07605685293674469, 0.007346242666244507, -0.004729799460619688, -0.08494286984205246, 0.04179736599326134, -0.05462956428527832, 0.08680254220962524, 0.03749455511569977, -0.0011081169359385967, 0.017169861122965813, -0.05116484314203262, -0.10148125886917114, -0.03554624691605568, -0.09924323856830597, -0.005147402640432119, -0.08944694697856903, 0.1117335706949234, -0.040210068225860596, -0.014863336458802223, -0.05019906535744667, 0.017121339216828346, -0.03574191406369209, -0.06150442361831665, 0.00046007291530258954, 0.05517243593931198, -0.06859923899173737, -0.009936102665960789, -0.0577215850353241, 0.004255396313965321, -0.012311701662838459, -0.07810598611831665, -0.06084725260734558, -0.009216684848070145, 0.06959991157054901, -0.028006043285131454, -0.020294049754738808, -0.08805322647094727, 0.0017313275020569563, -0.08523674309253693, -0.011148747056722641, -0.0499313548207283, -0.04943868890404701, 0.016591370105743408, 0.02522966079413891, 0.047298889607191086, 0.04543478041887283, 0.013300376012921333, -0.02110363356769085, 0.01038798876106739, 0.12009375542402267, 0.033995311707258224, -0.06767739355564117, -0.12116199731826782, 0.020055098459124565, -0.05909314751625061, 0.05026478320360184, 0.003529575653374195, -0.0817955881357193, 0.05128556117415428, 0.06385613977909088, -0.036791857331991196, -0.07290751487016678, -0.055285122245550156, 0.07272625714540482, -0.07103028893470764, 0.09623286128044128, 0.20182980597019196, -0.1346423327922821, -0.026570042595267296, -0.09054787456989288, 0.05183342471718788, 0.04028942063450813, 0.004399400670081377, -0.13053089380264282, 0.0018809273606166244, -0.06793639063835144, -0.17456591129302979, -0.04187612608075142, -0.021154029294848442, 0.0014217724092304707, -0.02370978519320488, 0.03897399455308914, 0.18329742550849915, -0.027589064091444016, 0.059638023376464844, -0.10498616099357605, 0.02686052955687046, 0.023767132312059402, -0.01619499921798706, -0.031996652483940125, -0.17126455903053284, -0.11438432335853577, -0.0014976083766669035, -0.17185677587985992, 0.0001975305931409821, -0.03401687741279602, 0.008115135133266449, 0.11340665072202682, 0.0470094308257103, -0.15681996941566467, 0.05411935970187187, 0.08366339653730392, 0.01319159846752882, 0.06714894622564316, 0.050818346440792084, -0.1564253866672516, 0.009096420370042324, -0.1836170256137848, -0.07738897949457169, -0.08769410103559494, 0.06705768406391144, -0.05245531350374222, -0.07742703706026077, -0.06642777472734451, -0.0010058144107460976, 0.07748497277498245, -0.11966313421726227, 0.003772223135456443, 0.07667607069015503, -0.05334150791168213, -0.044878218322992325, 0.09243801981210709, 0.03090522065758705, 0.044076208025217056, 0.03991076350212097, 0.1410556137561798, -0.07088487595319748, -0.12244056165218353, 0.03419511392712593, 0.04515823349356651, 0.1653389185667038, -0.07455097138881683, 0.00020695979765150696, -0.008451995439827442, -0.061876486986875534, 0.0013178582303225994, -0.010727356187999249, -0.1395726203918457, -0.060476478189229965, -0.06945327669382095, -0.12323678284883499, -0.19113250076770782, 0.01032319851219654, -0.13564400374889374, -0.14423036575317383, -0.07413335144519806, 0.06948404759168625, -0.0614544041454792, -0.08374717086553574, 0.012201176024973392, -0.057504717260599136, 0.06505804508924484, -0.027335548773407936, 0.004440463148057461, 0.08078870922327042, 0.05514578893780708, -0.014591196551918983, 0.09578552097082138, -0.08409210294485092, -0.017566151916980743, 0.02610020898282528, -0.027649488300085068, 0.12803184986114502, 0.054837990552186966, -0.0824827179312706, -0.05610552802681923, 0.1377277374267578, 0.07110458612442017, -0.05583024024963379, 0.005854418966919184, -0.03383488580584526, 0.028137918561697006, 0.14412528276443481, 0.0599963553249836, 0.03156271576881409, -0.11186167597770691, -0.05120035260915756, -0.11696817725896835, 0.03715134784579277, -0.0029110040049999952, -0.02083895355463028, -0.0004058803606312722, -0.04515007883310318, -0.09394872188568115, -0.059669312089681625, 0.1108860969543457, 0.09757231175899506, 0.07473987340927124, -0.027633875608444214, 0.04695049300789833, 0.13216598331928253, -0.08653207868337631, -0.13187183439731598, 0.06632592529058456, 0.0792393609881401, 0.047430314123630524, -0.04046162590384483, 0.1468600481748581, 0.05216295272111893, 0.08477718383073807, -0.0471051000058651, -0.12419304996728897, -0.018786903470754623, 0.102736696600914, 0.03574977070093155, -0.07786870747804642, 0.14299257099628448, 0.0013558432692661881, 0.009885898791253567, 0.012183169834315777, 0.05810416117310524, 0.03780626133084297, 0.07322011142969131, 0.0786079689860344, 0.06637489795684814, -0.08932115137577057, 0.024688202887773514, -0.00914088636636734, -0.11446798592805862, -0.10051616281270981, -0.013276074081659317, 0.02074051834642887, 0.029514990746974945, -0.07494621723890305, 0.07896006107330322, -0.034872353076934814, 0.19140754640102386, 0.01441402267664671, 0.10020513832569122, -0.09111646562814713, -0.09360900521278381, 0.0816035270690918, -0.0015606360975652933, -0.023925108835101128, 0.04058974236249924, 0.08236322551965714, 0.12445393204689026, -0.05240520089864731, 0.1065136194229126, 0.011585226282477379, -0.13197603821754456, 0.06449047476053238, 0.07875325530767441, -0.06749597191810608, -0.06089548394083977, -0.13838806748390198, 0.022643422707915306, 0.13193929195404053, -0.07175461947917938, -0.11560234427452087, -0.023853402584791183, 0.06741159409284592, 0.05888861045241356, 0.05344419553875923, -0.008731253445148468, 0.10095593333244324, 0.029439054429531097, -0.02985248528420925, -0.14092528820037842, 0.03141956776380539, -0.06074073538184166, -0.054852087050676346, -0.041667014360427856, 0.06636133044958115, -0.026040107011795044, 0.062450602650642395, 0.005370099097490311, -0.002317605772987008, 0.08115414530038834, 0.08777236193418503, 0.004455448128283024, -0.07255636155605316, 0.16919471323490143, 0.01948636770248413, 0.03071628324687481, 0.06381028145551682, 0.09046170115470886, -0.011698509566485882, -0.010700982995331287, -0.12719924747943878, -0.11817802488803864, -0.03525065258145332, 0.05131242796778679, 0.040547631680965424, -0.0019963604863733053, -0.1095622256398201, 0.13419902324676514, 0.046320486813783646, -0.009977727197110653, 0.08346860855817795, 0.04382896423339844, -0.0016107825795188546, -0.058540329337120056, -0.16468916833400726, 0.09659409523010254, -0.1012001633644104, 0.06650900095701218, 0.05233492702245712, -0.010038911364972591, 0.052655477076768875, -0.039485376328229904, 0.05327033996582031, 0.14410892128944397, -0.04461974278092384, 0.1144920289516449, 0.01821446791291237, -0.05068706348538399, 0.0314626581966877, 0.08324224501848221, 0.018334127962589264, -0.10968156158924103, 4.785324927070178e-05, 0.0955452248454094, -0.0031772071961313486, -0.13916617631912231, -0.11800859123468399, -0.13395264744758606, -0.022628866136074066, -0.03601197153329849, 0.07192546129226685, 0.052702952176332474, -0.03432260453701019, -0.013276863843202591, 0.12352994084358215, -0.07482452690601349, -0.02125372923910618, -0.20498056709766388, -0.04908036068081856, -0.009358327835798264, 0.00797735620290041, -0.0644005835056305, 0.008638001047074795, 0.036189183592796326, 0.18763035535812378, -0.11889714002609253, 0.08774084597826004, -0.06341598182916641, 0.1043749675154686, 0.15903715789318085, -0.07836376130580902, 0.059423863887786865, 0.09387696534395218, -0.10830240696668625, 0.09562323242425919, 0.012538283132016659, 0.07152245193719864, -0.025308383628726006, 0.06642970442771912, 0.006356067955493927, 0.023298848420381546, -0.0741015374660492, -0.12403595447540283, -0.06712377071380615, -0.025888614356517792, -0.026417145505547523, 0.10902895033359528, 0.0273763295263052, 0.07088791579008102, -0.02830398641526699, 0.11115390807390213, -0.12464102357625961, -0.14745430648326874, -0.09314723312854767, 0.07961641997098923, -0.06187603995203972, -0.11018195003271103, -0.0062148915603756905, 0.10946692526340485, -0.07789528369903564, -0.10331432521343231, -0.026352988556027412, -0.007362899370491505, -0.1057119145989418, 9.723167750053108e-06, 0.045131005346775055, 0.06881693750619888, 0.09145165979862213, 0.03793250769376755, -0.0607871450483799, 0.03630838915705681, -0.13317105174064636, 0.04046434164047241, -0.0776851698756218, -0.1482655107975006, -0.03452947363257408, -0.05521474406123161, -0.0391165129840374, 0.0548754557967186, -0.044499170035123825, -0.1364956796169281, -0.11973638087511063, -0.09662298113107681, -0.02064998634159565, 0.07997302711009979, -0.03831511363387108, 0.10035847127437592, 0.046936385333538055, 0.03249116614460945, -0.057721711695194244, -0.09668004512786865, -0.012012898921966553, 0.01646057702600956, -0.02294710837304592, 0.12915758788585663, -0.10456012934446335, 0.07225783169269562, -0.11331786960363388, 0.05032060295343399, -0.12491744756698608, -0.0038410567212849855, -0.03602609038352966, -0.060626041144132614, 0.006644124165177345, -0.07631945610046387, 0.003227060427889228, -0.042844828218221664, -0.08295774459838867, 0.002022029832005501, -0.19838760793209076, 0.04576045647263527, -0.14368847012519836, -0.06683555990457535, -0.09068824350833893, 0.03449779376387596, -0.039040859788656235, 0.054234713315963745, 0.009601755999028683, 0.026983153074979782, 0.07674216479063034, 0.00818201620131731, -0.11702626198530197, 0.11520082503557205, 0.05705304443836212, 0.013295629061758518, -0.005204006563872099, 0.08641759306192398, -0.0925549641251564, -0.10376346111297607, 0.07372521609067917, -0.059129130095243454, 0.028429536148905754, 0.11699651181697845, 0.04815738648176193, 0.0038720679003745317, -0.11748959869146347, -0.05858522281050682, -0.1132279485464096, -0.02814357355237007, -0.10930220037698746, 0.03745473548769951, 0.02723814733326435, 0.12448492646217346, -0.26592591404914856, 0.15037685632705688, 0.011480214074254036, 0.0332808643579483, 0.02928328886628151, 0.02233298122882843, 0.007715638726949692, -0.005668242461979389, -0.028256205841898918, -0.07129955291748047, -0.037974633276462555, -0.011219006963074207, -0.17858286201953888, 0.014018922112882137, 0.0722738578915596, -0.04183265194296837, 0.09332682937383652, 0.017919564619660378, -0.10676100105047226, -0.11871033161878586, 0.09598930180072784, -0.09416051208972931, -0.07124514132738113, 0.11780869215726852, -0.019292643293738365, -0.002430735621601343, 0.17289847135543823, -0.011574056930840015, 0.08733687549829483, -0.053035080432891846, -0.003028272418305278, -0.008296112529933453, -0.01692228391766548, 0.02695055492222309, -0.08912156522274017, 0.04983130097389221, -0.08526653796434402, -0.12935782968997955, -0.01517531368881464, -0.10039904713630676, 0.05905090272426605, -0.05239448696374893, -0.14796219766139984, -0.005823533982038498, -0.07172597199678421, -0.09693003445863724, -0.01854964904487133, -0.08716460317373276, 0.08389994502067566, -0.11973816901445389, -0.1383771151304245, -0.13783559203147888, -0.028252815827727318, -0.09145327657461166, -0.1332535296678543, -0.1526891142129898, 0.02167525887489319, 0.053802747279405594, -0.03416968137025833, 0.11153095960617065, 0.05772436410188675, -0.02807644009590149, 0.0069829062558710575, 0.028735894709825516, -0.11126039177179337, 0.011307790875434875, 0.06374471634626389, 0.04362864047288895, 0.13432960212230682, -0.010783720761537552, -0.04709679260849953, 0.12502680718898773, -0.14594799280166626, 0.12677286565303802, 0.03976055979728699, -0.04818318784236908, -0.09979649633169174, 0.007863327860832214, -0.010943547822535038, -0.053473297506570816, -0.0649905875325203, 0.08584309369325638, -0.04662032052874565, -0.02159823477268219, -0.08445227891206741, -0.0834275558590889, -0.01275820005685091, -0.03342420980334282, 0.0015502050518989563, 0.03824186325073242, 0.13678650557994843, -0.0574004203081131, 0.07232515513896942, 0.10153138637542725, -0.22657978534698486, -0.01902499794960022, 0.0652683675289154, -0.05848226323723793, 0.04118182137608528, 0.07067988067865372, 0.018818503245711327, -0.14854976534843445, 0.003718251595273614, -0.0735897496342659, 0.02500070072710514, 0.03940099477767944, 0.004733894485980272, 0.11510483920574188, -0.11536724120378494, -0.09553489089012146, -0.08594968169927597, -0.0229239072650671, -0.0660802498459816, 0.11002446711063385, -0.15143989026546478, 0.056278083473443985, 0.01813073456287384, -0.09829794615507126, 0.034169021993875504, -0.03240801393985748, -0.08607322722673416, 0.05885253846645355, -0.10610680282115936, 0.06142796203494072, 0.09865757822990417, -0.00399688770994544, 0.24254149198532104, 0.002113564172759652, 0.26200342178344727, -0.014091734774410725, 0.002311859978362918, 0.048019491136074066, 0.09423128515481949, -0.15034891664981842, -0.07046642899513245, 0.0683591365814209, 0.0018504237523302436, 0.035774268209934235, -0.09062636643648148, -0.09329570829868317, 0.061951618641614914, -0.046948306262493134, 0.010587875731289387, 0.18603742122650146, 0.043006736785173416, -0.20101593434810638, 0.05835794284939766, 0.14027290046215057, -0.048832911998033524, -0.09480773657560349, -0.14102715253829956, 0.08383649587631226, 0.019122762605547905, -0.07673178613185883, -0.15516617894172668, -0.09316451102495193, 0.05511106923222542, 0.08458705991506577, 0.040253523737192154, -0.09761562943458557, 0.09841426461935043, -0.04772316291928291, -0.002471339888870716, -0.050853945314884186, -0.031400300562381744, 0.0937025398015976, 0.08618509769439697, 0.04445064440369606, 0.07481133192777634, 0.07066527009010315, 0.08867582678794861, 0.0025312756188213825, -0.027663450688123703, -0.07635895162820816, 0.017757153138518333, -0.03220177814364433, -0.21961916983127594, 0.06519869714975357, 0.24877509474754333, 0.136961430311203, -0.04908968135714531, 0.037486810237169266, -0.022315962240099907, -0.007017345633357763, 0.14527517557144165, -0.0565347820520401, 0.1632731705904007, -0.10125302523374557, -0.057814598083496094, -0.24026422202587128, -0.22214144468307495, 0.0106618357822299, 0.122825987637043, 0.09723256528377533, 0.0761561393737793, 0.082915760576725, -0.1006094291806221, -0.023799948394298553, -0.029338404536247253, -0.01592804118990898, -0.03518666326999664, 0.0609118826687336, -0.027884885668754578, 0.1854010373353958, 0.2008480727672577, -0.10332207381725311, -0.07743053883314133, -0.09001047164201736, 0.0306518767029047, 0.0009263777174055576, -0.04385272040963173, 0.07175686210393906, -0.0200739074498415, 0.10533542186021805, 0.09134194999933243, -0.04694487527012825, 0.05395708978176117, 0.01675996370613575, 0.12466888129711151, -0.0664820522069931, -0.010602327063679695, -0.037401702255010605, 0.06639224290847778, 0.11044105887413025, 0.04752897098660469, -0.07954224944114685, -0.023289376869797707, -0.02667779102921486, 0.0012091140961274505, 0.07159995287656784, -0.11296285688877106, 0.09037504345178604, -0.10247033834457397, -0.06027960404753685, -0.10834946483373642, 0.09037244319915771, 0.016323762014508247, 0.0819181576371193, -0.0720653161406517, 0.08088590204715729, -0.13354875147342682, 0.0671936497092247, -0.02108599804341793, -0.07497183233499527, -0.0691450759768486, -0.0178628358989954, -0.09951484203338623, 0.21295283734798431, 0.04316564276814461