0.560684323310852, 0.5173068642616272, 0.6068850755691528, 0.47276008129119873, -1.7279841899871826, 0.18972963094711304, 0.46204090118408203, 0.9420368075370789, -0.541544497013092, 1.4905768632888794, -1.5179431438446045, -0.8492259979248047, 0.18429085612297058, -0.24426569044589996, 0.8486220836639404, -1.1967856884002686, 0.2795290946960449, -0.9877263307571411, -0.4592677652835846, 0.30154260993003845, -0.505612850189209, 0.7486898303031921, -0.8485618233680725, 0.18120326101779938, 1.279807209968567, -0.509800136089325, -0.33834028244018555, -0.2060694694519043, 0.05459250509738922, -0.6456067562103271, 0.9515373706817627, 0.7324790954589844, 0.13011455535888672, -0.9407268762588501, 1.1388349533081055, -0.4186576008796692, -1.0402631759643555, 0.9642828106880188, 0.7268595695495605, 0.004097402095794678, 0.256022572517395, -1.9876447916030884, 0.612106442451477, 1.3984230756759644, -0.052243027836084366, -1.531727910041809, -1.4212349653244019, 0.19346070289611816, 0.36124810576438904, 0.09148123860359192, 0.7014439105987549, 0.23753291368484497, 0.867842435836792, -0.5337634682655334, -0.4560551643371582, -0.8005427122116089, 0.800848126411438, -0.4838653802871704, 0.11651264131069183, 0.21287426352500916, 1.2150987386703491, 1.1917264461517334, 0.8644891381263733, -0.6517941951751709, 0.9806171655654907, -0.47164976596832275, 0.5899678468704224, 0.5338630080223083, 0.4647539556026459, 0.05041436105966568, 0.6046497821807861, 0.21336224675178528, 1.1161198616027832, -0.7424246072769165, -1.1386045217514038, -0.6703461408615112, 0.6843860745429993, 0.375127911567688, 0.7008084654808044, -0.752586305141449, 0.25117573142051697, -1.3094127178192139, -1.335801601409912, -0.39696556329727173, 0.6123102307319641, -0.7161499261856079, -0.9945799112319946, -0.44234055280685425, 0.7036730051040649, -0.9277595281600952, 0.6797903180122375, -0.39233195781707764, -0.4605964422225952, 0.2376759648323059, 0.45773693919181824, -0.2962723672389984, -1.0473906993865967, -0.5365126729011536, 0.9458541870117188, 0.1360791027545929, -0.6079179048538208, -0.37739819288253784, -0.7426134943962097, 1.281427025794983, -0.019904449582099915, -1.5500564575195312, -1.749857783317566, -0.06926459074020386, 1.7693507671356201, -0.5790740847587585, -0.6977630257606506, 1.2000644207000732, -0.982961893081665, 1.3809809684753418, 0.2783397138118744, -0.04302063584327698, -0.3366950452327728, -0.5179297924041748, 0.1810731142759323, 1.286787509918213, 0.8455366492271423, 1.607764720916748, 2.513995409011841, 0.8767452836036682, 0.6532817482948303, 0.5714115500450134, 0.4207380414009094, -0.19078263640403748