-0.06726374477148056, 0.06926940381526947, -0.04728064686059952, 0.05818655341863632, -0.07569640129804611, -0.040943123400211334, 0.057555850595235825, -0.10590484738349915, -0.06343606114387512, 0.0789138525724411, 0.1331319361925125, 0.019274836406111717, 0.08600877225399017, -0.03781649470329285, -0.063820019364357, 0.10540224611759186, 0.047661054879426956, -0.06493105739355087, 0.1267605870962143, 0.06920599937438965, -0.05056146904826164, -0.011121382936835289, 0.1121765747666359, -0.02529292367398739, 0.1167609766125679, 0.011017324402928352, -0.07568192481994629, 0.07731763273477554, -0.03849652037024498, -0.007375815417617559, 0.10875680297613144, -0.0482255220413208, 0.08516139537096024, 0.040690645575523376, 0.026849346235394478, -0.017956838011741638, 0.019664626568555832, -0.159955695271492, 0.015195767395198345, -0.06315894424915314, 0.11912225931882858, 0.0988428145647049, 0.0877154991030693, -0.05774110183119774, -0.11410259455442429, 0.006422751117497683, 0.044166430830955505, 0.07089266926050186, 0.08789411932229996, 0.03706179931759834, 0.05082586780190468, 0.10546740144491196, -0.026804137974977493, -0.10213494300842285, 0.03216056153178215, 0.05128179490566254, -0.01757126860320568, -0.09143637120723724, 0.09075933694839478, 0.06623712182044983, -0.049588706344366074, -0.02809247188270092, 0.03759830817580223, -0.13383935391902924