0.2622, 0.1021, -0.1740, 0.1341, 0.4057, -0.2213, -0.1961, -0.3974, 0.2024, 0.5615, 0.1274, 0.2714, 0.1384, -0.1152, 0.2182, 0.3835, -0.5329, 0.1478, 0.0983, -0.0466, -0.1292, -0.0379, -0.3413, -0.0470, 0.0294, 0.1504, 0.0889, -0.0273, -0.4029, 0.3843, -0.4765, -0.0975
0.3547, 0.0094, -0.6140, -0.1642, 0.0576, -0.1323, -0.1649, -0.1412, -1.3597, 0.3427, -0.1764, -0.0005, -0.0153, -0.0218, 0.3293, -0.3057, 1.0254, -0.1675, 0.5391, 0.0386, 0.0936, -0.9881, -0.0516, -0.1712, -0.0541, -0.2018, -0.1331, 0.0184, -0.0470, 0.5653, 0.0498, 0.1170
-0.1278, 0.0485, -0.0245, 0.0070, -0.0341, 0.0293, 0.3873, 0.3804, 0.2533, 0.2588, -0.2136, 0.0758, 0.0098, -0.3146, 0.1162, -0.4280, 0.2332, -0.2384, -0.1095, 0.1448, 0.4880, -0.0803, -0.1071, -0.3423, -0.2596, -0.1720, -0.0172, -0.3146, -0.1776, 0.4050, -0.0352, -0.1570
0.0089, -0.0532, 0.2561, 0.0667, 0.0338, -0.1580, -0.2190, 0.1929, 0.4291, -0.4953, 0.3349, -0.1809, -0.0015, 0.2318, -0.2989, 0.2176, -0.7472, 0.2030, -0.6525, -0.2317, -0.3796, 0.5262, 0.2800, 0.1244, 0.2015, 0.3772, -0.1619, 0.2960, 0.3064, -0.8384, 0.2024, 0.2759
0.4358, -0.0610, -0.0294, 0.2118, 0.0872, -0.1561, -0.3638, -0.5587, -0.4463, 0.3275, 0.1747, -0.1622, -0.1780, 0.4502, 0.0050, 0.2278, 0.1549, 0.0213, 0.3667, -0.0323, -0.1913, -0.0745, -0.2423, 0.3537, 0.0510, 0.0353, -0.0288, -0.0372, -0.1682, 0.0667, 0.0740, 0.1914
0.1092, -0.0936, 0.7032, 0.0120, 0.3072, 0.0922, 0.7738, -0.0883, 0.7160, -0.0228, 0.1497, -0.0460, 0.1957, 0.0299, 0.1846, 0.1689, -0.8613, 0.0351, -0.2415, 0.4178, 0.4143, 0.3485, -0.1680, -0.1591, 0.0892, 0.2820, 0.2736, 0.4253, 0.2329, -0.2966, -0.0956, -0.2974
-0.1100, 0.1810, -0.4909, -0.0394, -0.1168, -0.3622, -0.7291, 0.3901, -0.1230, -0.4169, -0.1607, -0.2574, -0.3109, 0.2002, -0.0949, -0.4443, -0.0349, -0.1342, -0.2610, -0.0950, -0.7934, 0.2306, 0.5002, 0.1283, 0.1696, 0.0076, -0.3832, -0.0748, 0.5491, -0.2356, 0.5084, 0.3650
-0.2191, 0.1541, -0.4550, -0.0779, 0.0630, -0.0718, -0.4780, 0.5119, 0.4281, 0.6016, 0.1329, -0.0033, 0.0631, 0.2303, 0.0338, -0.0298, -0.5495, 0.0154, -0.2949, -0.0919, -0.4430, 0.1246, 0.1581, 0.1486, 0.1721, 0.3841, -0.0473, -0.2504, -0.5503, 0.0031, -0.0080, -0.1483
-0.4489, 0.1109, -0.2007, -0.1869, -0.2892, -0.2059, -0.4453, 0.3998, 1.0131, -0.7224, 0.2287, -0.1456, -0.2718, 0.1061, -0.3158, 0.0194, -0.7126, -0.1484, -0.3568, -0.0347, -0.4823, 0.6711, 0.4694, 0.2428, 0.0733, 0.1479, -0.1191, -0.5735, 0.3686, -0.2971, 0.2170, 0.1506
0.1876, 0.0433, 0.4137, 0.0912, -0.4240, -0.0702, 0.0015, -0.0916, -0.9112, -0.5314, -0.5013, -0.2589, -0.2409, 0.3496, -0.2693, -0.1590, 0.6922, -0.0605, 0.3054, -0.2073, 0.1593, -0.1189, 0.3723, 0.0926, -0.1046, -0.0618, -0.2543, 0.0147, 0.6802, -0.2971, 0.2817, 0.1891
0.3186, 0.1045, -0.3042, -0.0837, -0.0048, -0.1207, -0.5553, -0.4921, -1.0131, 0.2217, 0.1002, -0.0526, -0.2821, 0.2508, 0.0511, -0.2191, 0.8617, 0.0315, 0.3054, -0.2512, -0.1225, -0.6892, 0.0233, 0.1728, 0.1324, -0.0650, -0.2789, 0.0085, -0.0002, 0.1239, -0.0540, 0.2169
-0.5011, 0.0137, -0.3115, 0.0313, 0.0167, 0.0984, 0.2132, 0.2582, 0.1695, 0.2785, -0.0161, 0.0010, -0.0206, -0.4843, 0.1118, -0.2547, 0.4221, -0.0714, -0.0668, 0.0043, 0.3230, -0.1884, -0.0186, -0.0607, -0.3670, -0.2323, 0.1716, -0.2238, 0.2232, 0.3868, -0.0033, -0.2270
-0.4244, 0.0661, -0.8762, 0.1658, -0.1040, -0.0068, -0.4768, 0.6030, -0.0399, 0.4055, -0.1885, -0.0662, 0.0118, 0.1039, 0.3187, -0.4072, 0.8069, -0.1676, 0.1341, -0.1327, -0.4591, -0.4241, 0.1196, 0.1121, -0.0459, 0.0242, -0.0258, -0.4049, -0.2537, 0.3463, 0.3326, 0.0928
-0.1640, 0.1044, -0.3508, -0.0779, -0.0562, -0.0982, -0.2707, -0.0768, 0.5153, 0.8142, 0.0480, -0.2555, -0.1578, -0.0358, 0.0958, -0.0826, -1.1883, 0.0817, -0.4777, -0.0451, -0.2760, 0.0733, -0.3704, 0.0721, 0.1040, -0.0135, -0.3007, 0.0145, -0.5530, 0.2008, -0.2748, -0.1389
0.1532, -0.0827, 0.8576, 0.0199, 0.2895, 0.1515, 0.9728, -0.5537, 0.1526, 0.3605, 0.1659, 0.2970, 0.4517, -0.2744, -0.1348, 0.5120, -0.7004, 0.2380, -0.0901, 0.2224, 0.5518, 0.2837, -0.3448, -0.1316, 0.2006, 0.1410, 0.2959, 0.3915, -0.3122, -0.0139, -0.1288, -0.4303
0.9342, -0.1355, 0.8536, 0.1748, -0.0922, 0.2859, 0.4832, -0.6111, -0.7198, -0.0653, -0.1775, -0.2398, 0.2021, 0.0960, -0.1602, 0.3264, 0.0342, -0.1450, 0.1223, -0.0381, 0.4543, -0.1144, -0.1196, -0.1959, 0.1749, 0.1822, -0.1238, 0.3969, 0.2264, -0.2189, -0.0612, -0.1208
