-0.0363871231675148, -0.03814848139882088, -0.016501547768712044, -0.07936180382966995, -0.10683506727218628, 0.1528603732585907, 0.009777276776731014, 0.006775185465812683, 0.08483967930078506, 0.15125545859336853, -0.19201283156871796, -0.21943853795528412, -0.01885119080543518, -0.15703624486923218, 0.08949844539165497, -0.019697759300470352, 0.04480474442243576, -0.28841936588287354, -0.132463276386261, -0.13090075552463531, 0.05767713487148285, 0.17182190716266632, -0.10143789649009705, -0.024854470044374466, -0.3108910620212555, 0.19700121879577637, 0.3319573998451233, -0.010251946747303009, 0.28798314929008484, 0.11118011921644211, -0.09466841071844101, 0.14538246393203735, 0.120784230530262, -0.15003448724746704, -0.050215549767017365, 0.11152815818786621, 0.04780419543385506, 0.1017724871635437, 0.08323334902524948, 0.12935279309749603, 0.028656920418143272, 0.07226182520389557, 0.08542010188102722, -0.050657644867897034, -0.1223272755742073, -0.08358383178710938, 0.08129553496837616, 0.08630269020795822, -0.34768548607826233, 0.1823643147945404, 0.1333577036857605, -0.3887946605682373, 0.04368881508708, -0.20413723587989807, 0.09344759583473206, 0.051971424371004105, -0.0012370339827612042, -0.19016632437705994, 0.3493858277797699, 0.2146582156419754, 0.5279099345207214, 0.12092927098274231, -0.2105809599161148, -0.10875682532787323, -1.1475658416748047, 0.10655595362186432, 0.5110083818435669, -0.4478342831134796, -0.23824766278266907, -0.1867290884256363, -0.0638328418135643, 0.05204159393906593, 0.08785678446292877, -0.21761023998260498, 0.6766249537467957, 0.20220805704593658, 1.0124609470367432, 0.6846047639846802, -0.8377227783203125, 0.09581349045038223, -0.1518675982952118, -0.371924489736557, -0.26429033279418945, -0.1569700986146927, 0.13498827815055847, 0.30527934432029724, 0.03694511950016022, -0.050311557948589325, -0.07039061188697815, 0.0955493301153183, 0.08996452391147614, -0.28312841057777405, -0.06271809339523315, -0.23294973373413086, 0.05451164022088051, 0.17668986320495605, 0.5459904074668884, 0.06586740911006927, 0.0016219671815633774, 0.21223637461662292, -0.01993377134203911, -0.2700665593147278, -0.3842720091342926, -0.16963477432727814, -0.12287440150976181, 0.4277383089065552, 0.24221131205558777, 0.4195742905139923, 0.1518203318119049, -0.05617646872997284, 0.44154173135757446, 0.04000847041606903, 0.2452975958585739, 0.467652827501297, 0.1729055643081665, 0.17949075996875763, -0.4629574120044708, -0.24537231028079987, 0.09673449397087097, -0.041297562420368195, 0.060655154287815094, -0.2526806890964508, -0.38466677069664, 0.07282771915197372, -0.3360089957714081, 0.09371858090162277, 0.12472037225961685, 0.052010517567396164, 0.29519516229629517, -0.07028740644454956, 0.12546227872371674, -0.08032525330781937, 0.30069518089294434, 0.0022577124182134867, 0.013254870660603046, 0.2788684368133545, -0.5809289216995239, 0.06684058159589767, 0.06986871361732483, -0.25413426756858826, -0.01819969154894352, 0.4193590581417084, 0.4304964542388916, -0.4582635760307312, -0.42929819226264954, 0.028002189472317696, 0.03957467898726463, -0.6480088829994202, 0.020140791311860085, -0.12850455939769745, 0.4405970573425293, 0.220156729221344, 0.16541282832622528, -0.26109617948532104, 0.04333679378032684, -0.20264944434165955, 0.2797844111919403, 0.3007238805294037, -0.5162320137023926, -0.056974947452545166, 0.28558310866355896, -0.07390867173671722, 0.2466031312942505, -0.1367674618959427, 0.13674651086330414, 0.06344500184059143, 0.31655579805374146, 0.34601062536239624, -0.5271509885787964, -0.10173863172531128, -0.2847408652305603, -0.11343172192573547, -0.155888170003891, 0.20491503179073334, 0.3795829713344574, -0.38007497787475586, -0.23814095556735992, 0.4337713420391083, 0.42867252230644226, -0.0648990049958229, -0.43384578824043274, -0.3425028920173645, 0.11967291682958603, 0.2565360963344574, 0.006441238336265087, -0.14621655642986298, -0.04329662397503853, 0.02328178659081459, 0.20792794227600098, 0.08791116625070572, -0.3281693160533905, -0.1067051962018013, 0.31744053959846497, 0.5363197326660156, 0.18714290857315063, 0.5190724730491638, -0.6822414994239807, -0.17027686536312103, 0.07008984684944153, -0.421054482460022, 0.7250475287437439, -0.010734680108726025, -0.2624033987522125, -0.14129821956157684, -0.2806312143802643, -0.221281960606575, 0.09860026091337204, 0.69272780418396, -0.434388667345047, 0.1923796385526657, 0.28352075815200806, -0.2816075086593628, -0.259127140045166, -0.18953683972358704, 0.08509289473295212, 0.006549938581883907, -0.057934727519750595, -0.13457073271274567, 0.23440390825271606, 0.06579954922199249, 0.08428283780813217, -0.01613866724073887, -0.49339112639427185, 0.037308670580387115, 0.21689172089099884, 0.21773213148117065, 0.048117928206920624, 0.023875752463936806, -0.08482570201158524, -0.20749439299106598, -0.262361615896225, 0.18692943453788757, -0.06067096069455147, 0.223486065864563, 0.0957273468375206, 0.22842822968959808, 0.31455379724502563, -0.005454957019537687, 0.17372378706932068, -0.10670433938503265, 0.12034090608358383, -0.2867392897605896, -0.228436678647995, -0.01602443866431713, 0.23133014142513275, 0.29544511437416077, -0.10651011019945145, -0.22255051136016846, -0.1998952329158783, 0.3120309114456177, -0.26546069979667664, -0.15259890258312225, -0.06730715185403824, -0.051708150655031204, 0.24909241497516632, -0.08396794646978378, 0.05102277919650078, 0.49679282307624817, 0.05660245940089226, 0.48587459325790405, -0.27401089668273926, -0.3410627841949463, 0.2975809574127197, -0.1535625159740448, 0.5535313487052917, -0.1782733052968979, -0.40818026661872864, -0.16007745265960693, -0.34155866503715515, -0.12248207628726959, 0.07772968709468842, 0.43442291021347046, -0.0729118064045906, 0.23195187747478485, 0.2248869389295578, -0.22870616614818573, -0.029990829527378082, -0.019602587446570396, 0.15552282333374023, 0.27406221628189087, -0.13578379154205322, 0.1425589621067047, 0.38384443521499634, 0.2874507009983063, 0.1935756355524063, 0.37421342730522156, -0.20548927783966064, -0.25485759973526, 0.20179413259029388, 0.16370588541030884, -0.2027219533920288, -0.05547812953591347, -0.01016045268625021, -0.05700308084487915, -0.2587226629257202, 0.22562795877456665, -0.33316293358802795, -0.0022092692088335752, 0.3395523428916931, 0.1670830100774765, 0.3215520679950714, 0.2241065353155136, 0.5160278677940369, -0.3243100345134735, -0.4842837154865265, -0.08188031613826752, 0.10414741188287735, -0.40378308296203613, 0.015864357352256775, -0.07415422797203064, 0.25749143958091736, 0.09318909049034119, 0.022454887628555298, -0.05554584041237831, -0.04363689199090004, 0.1351030468940735, 0.12623752653598785, 0.3919978439807892, -0.15377038717269897, 0.03902675211429596, -0.4599606990814209, 0.26777350902557373, 0.4070985019207001, -0.08360583335161209, -0.2584160268306732, -0.14568309485912323, 0.14021936058998108, 0.11261419206857681, 0.18252496421337128, -0.3405320942401886, -0.021441549062728882, -0.04569855332374573, 0.19513678550720215, 0.07818503677845001, -0.39431053400039673, 0.21575622260570526, 0.12174250930547714, -0.14309470355510712, -0.15969571471214294, -0.08308901637792587, -0.05041026324033737, 0.2828826904296875, -0.39040887355804443, -0.39738914370536804, 0.04701850563287735, 0.17852085828781128, 0.26596593856811523, 0.2985098958015442, 0.12696824967861176, -0.10715547949075699, 0.14623808860778809, 0.2783489227294922, -0.016709355637431145, -0.26430270075798035, 0.1309783011674881, -0.05409541726112366, 0.38092663884162903, 0.24991875886917114, 0.43712544441223145, 0.36949318647384644, -0.23468956351280212, 0.1966332644224167, -0.02235817164182663, -0.27781692147254944, -0.0034025178756564856, -0.12015590816736221, -0.04687803238630295, -0.3731530010700226, -0.7296153903007507, -0.015970386564731598, 0.27178189158439636, -0.3460986316204071, -0.31941691040992737, -0.26597267389297485, 0.12682190537452698, -0.19094862043857574, 0.27212461829185486, -0.26795557141304016, 0.3981412947177887, 0.17882139980793, 0.5306934714317322, 0.30020999908447266, -0.7960469722747803, 0.006898812483996153, 0.28587231040000916, 0.22036036849021912, -0.0923694372177124, -0.10423925518989563, -0.10420620441436768, -0.034539952874183655, -0.17140208184719086, 0.048626676201820374, -0.27670374512672424, 0.22289326786994934, 0.07931026816368103, 0.17383654415607452, 0.24428993463516235, 0.042536411434412, 0.14413033425807953, -0.15513135492801666, 0.22421994805335999, 0.6353265643119812, 0.5189853310585022, 0.3750145435333252, -0.6496149301528931, -0.5516345500946045, 0.17768000066280365, 0.15718376636505127, 0.173508420586586, -0.2935669720172882, -0.5166996717453003, -0.114332415163517, -0.3099873661994934, -0.13395774364471436, 0.15777422487735748, -0.05294178053736687, 0.3052479028701782, 1.0852913856506348, 0.36298298835754395, 0.7625446915626526, -1.0725700855255127, -0.7733252048492432, -0.6559110879898071, 0.0450812429189682, 0.3715336322784424, -0.6515632271766663, 0.18255555629730225, 0.9379280805587769, 0.39749452471733093, 0.24275913834571838, 0.05556287243962288, 0.19146277010440826, 0.193936288356781, -0.13356401026248932, -0.4425892233848572, 0.16022804379463196, 0.3585837781429291, 0.5480185151100159, -0.20793268084526062, -0.44218313694000244, -0.22610467672348022, 0.4534820318222046, 0.08446799218654633, -0.1780562400817871, 0.019864162430167198, -0.34135621786117554, 0.1850218027830124, 0.3480023741722107, -0.39102044701576233, -0.13770027458667755, 0.3431428372859955, -0.44718801975250244, 0.1251428723335266, -0.3422037661075592, 0.38753488659858704, 0.17283546924591064, -0.27480852603912354, -0.2889423966407776, 0.21688437461853027, -0.16142110526561737, 0.18147160112857819, 0.4952413737773895, -0.45868581533432007, -0.656843364238739, 0.40106502175331116, 0.5019364356994629, 0.27707427740097046, 0.4399428963661194, -0.6200791597366333, -0.44734299182891846, 0.2624243497848511, 0.008601704612374306, 0.5334224700927734, -0.06905534863471985, -0.564315676689148, 0.01326326560229063, -0.5284790396690369, -0.3969281315803528, 0.2608663737773895, 0.6236915588378906, 0.2696226239204407, -0.5721975564956665, 0.08809500187635422, -0.29300564527511597, 0.925289511680603, 0.15981478989124298, 0.6041699051856995, 0.2391781508922577, -0.3326115608215332, -0.09913201630115509, -0.6290035843849182, -1.0420342683792114, -0.8286881446838379, -0.1841888427734375, 0.10885924100875854, -0.5515657067298889, -0.058322738856077194, -0.3087560534477234, -0.36139369010925293, -0.04899466410279274, 0.23718221485614777, 0.29890042543411255, -0.1276104748249054, -0.38977041840553284, -0.24916432797908783, 0.352760910987854, -0.02014814503490925, -0.0686667338013649, -0.03865601122379303, -0.07335837930440903, 0.033621255308389664, -0.0805535838007927