// Numpy array shape [32, 16]
// Min -1.1920383
// Max 0.8280732
// Number of zeros 0

#ifndef TRANSFORMERS_0_LINEAR_2_WEIGHT_H_
#define TRANSFORMERS_0_LINEAR_2_WEIGHT_H_

#ifndef __SYNTHESIS__
model_default_t transformers_0_linear_2_weight[512];
#else
model_default_t transformers_0_linear_2_weight[512] = {-0.023670414462685585, 0.028952229768037796, 0.13448281586170197, -0.4267268776893616, 0.18811209499835968, 0.3448096811771393, 
0.061404116451740265, -0.16220088303089142, -0.15077248215675354, -0.720808744430542, 0.15760283172130585, -0.12216684967279434, 0.23377475142478943, 
0.29567572474479675, 0.29002925753593445, 0.39504268765449524, 0.2862634062767029, -0.6381972432136536, -0.158712238073349, 0.12579591572284698, 
0.15487296879291534, 0.3892841637134552, 0.2904715836048126, 0.16218800842761993, 0.024623680859804153, -0.010306045413017273, 0.1687924861907959, 
0.08348962664604187, -0.2780976891517639, 0.36419063806533813, -0.279615193605423, 0.3351406455039978, -0.2941061556339264, -0.8741605877876282, 
0.17287403345108032, 0.12058407068252563, -0.8333437442779541, 0.0023770711850374937, -0.8998047113418579, 0.0714230164885521, 0.1515311449766159, 
-0.338669091463089, -0.04603937640786171, -0.2748999297618866, 0.40882235765457153, -0.030456652864813805, -0.046795520931482315, 0.1598721146583557, 
0.15464529395103455, 0.3731236457824707, 0.34524616599082947, -0.10616004467010498, -0.007829217240214348, -0.06337179988622665, -0.26126715540885925, 
-0.8365309238433838, 0.11115998029708862, 0.24546298384666443, -0.1694222390651703, -0.09186877310276031, 0.2818065285682678, 0.020188063383102417, 
0.2571096122264862, -0.760800302028656, -0.08515462279319763, -0.3080398738384247, -0.1627979278564453, -0.09969691932201385, -0.8585888147354126, 
0.38101422786712646, 0.126386359333992, -0.25841614603996277, 0.5168534517288208, -0.33310621976852417, 0.7216385006904602, -0.13249391317367554, 
-0.1465250849723816, -0.07861673086881638, -0.34528499841690063, 0.13580194115638733, -0.1635497510433197, -0.6871466040611267, 0.36530929803848267, 
0.3368234634399414, -0.3794165849685669, -0.7729227542877197, 0.7623730897903442, -0.19705282151699066, -0.19512546062469482, -0.08860969543457031, 
0.28316688537597656, 0.24937120079994202, 0.26831865310668945, -0.08651316165924072, 0.1313801258802414, -0.2562873363494873, 0.07267340272665024, 
0.2632829546928406, -0.28674888610839844, -0.013708634302020073, -0.01432458870112896, 0.308696985244751, 0.12885938584804535, -0.1688677817583084, 
0.04217641428112984, 0.1487419158220291, 0.31726834177970886, -0.030227869749069214, 0.026858871802687645, -0.14850284159183502, -0.1323898881673813, 
0.05750879645347595, -0.048315033316612244, -0.07278870046138763, 0.2393488585948944, 0.022132771089673042, -0.20335572957992554, 0.1266031116247177, 
0.35699260234832764, 0.08963911980390549, 0.1659742295742035, -0.45201003551483154, 0.19131456315517426, 0.07683339715003967, -0.1082717627286911, 
0.05440619960427284, -0.03673398867249489, 0.18527936935424805, 0.007046982180327177, 0.21351410448551178, 0.03103036992251873, 0.055322837084531784, 
0.1500883251428604, 0.18578492105007172, -0.015215666964650154, -0.2860713005065918, -0.32774361968040466, 0.14040271937847137, 0.048433274030685425, 
0.03401913121342659, 0.354471355676651, 0.10793036967515945, -0.052765898406505585, 0.1652849316596985, 0.3341045379638672, -0.11221129447221756, 
-0.221542090177536, 0.004235226195305586, 0.30181074142456055, 0.38326629996299744, 0.2798916697502136, 0.0528617687523365, -0.4598418176174164, 
-0.19457092881202698, -0.07162350416183472, -0.4996820390224457, -0.06831581890583038, 0.20438842475414276, -0.3249574601650238, 0.33531835675239563, 
-0.2864495813846588, 0.16700372099876404, -0.11148571223020554, 0.19279178977012634, -0.23390856385231018, 0.34804198145866394, -0.12421911209821701, 
-0.19530543684959412, 0.08545937389135361, 0.266188383102417, 0.0058654737658798695, 0.20707227289676666, 0.360707551240921, -0.2613528370857239, 
-0.016314858570694923, -0.25794467329978943, 0.08261348307132721, 0.28157490491867065, -0.19357705116271973, -0.10991672426462173, -0.5110805630683899, 
-0.0469505749642849, 0.06695782393217087, -0.16198937594890594, -0.30051201581954956, 0.012938549742102623, -0.08380112051963806, 0.05902787670493126, 
0.2080996036529541, 0.34906768798828125, 0.5728546977043152, 0.2939072549343109, 0.12594953179359436, 0.14801764488220215, -0.22287610173225403, 
-0.04674745351076126, 0.025283079594373703, -0.12132295966148376, 0.06213271990418434, 0.31776538491249084, -0.24461792409420013, 0.07423867285251617, 
-0.3597531318664551, 0.16525138914585114, 0.09878937900066376, -0.10757867246866226, 0.35453563928604126, -0.12234525382518768, -0.03410995751619339, 
0.061203762888908386, -0.0089393500238657, -0.26244843006134033, -0.0751902237534523, 0.1254865974187851, -0.15154939889907837, 0.1651497781276703, 
0.011304744519293308, 0.14874301850795746, 0.027293456718325615, -0.2806280851364136, -0.14189498126506805, -0.0600232295691967, 0.02217176929116249, 
-0.2999480962753296, -0.1953735202550888, 0.09305527061223984, -0.028948210179805756, 0.4334428012371063, -0.7767595052719116, 0.12862825393676758, 
0.19244636595249176, -0.0305013544857502, -0.3805992603302002, 0.3044062554836273, 0.2583574950695038, -0.07450760900974274, 0.17205609381198883, 
-0.5470501184463501, 0.1015656441450119, 0.06510132551193237, 0.3124316930770874, 0.3097729980945587, -0.12854699790477753, -0.5459270477294922, 
-0.37669920921325684, -0.081598661839962, 0.25339996814727783, -0.17212122678756714, 0.17237964272499084, -0.18085220456123352, 0.2868589162826538, 
0.3164905607700348, 0.3001355528831482, 0.26364919543266296, -0.15223149955272675, -0.12923553586006165, -0.20416176319122314, 0.3795328736305237, 
-0.3461821675300598, -0.24565520882606506, 0.3064962327480316, 0.08270414173603058, -0.1868775337934494, 0.029979158192873, 0.332845538854599, 
-0.17313139140605927, -0.08027638494968414, -0.36973658204078674, 0.33567386865615845, 0.2276604175567627, 0.23654361069202423, 0.29451999068260193, 
0.035949721932411194, 0.17896367609500885, 0.044213950634002686, 0.37149232625961304, 0.14573565125465393, -0.010197692550718784, -0.03266598656773567, 
-0.20269744098186493, 0.23374250531196594, 0.2580857574939728, -0.3471572995185852, -0.34333494305610657, 0.04595974460244179, 0.2001262903213501, 
-0.10338574647903442, 0.08186952769756317, -0.34437814354896545, -0.15726646780967712, -0.2148597538471222, 0.4750087559223175, 0.3107554018497467, 
-0.02604595012962818, -0.42411771416664124, 0.5223790407180786, 0.18167147040367126, 0.5925920605659485, 0.017198078334331512, 0.35562628507614136, 
-1.1920382976531982, 0.18458491563796997, -0.20313316583633423, -0.46901246905326843, -0.8042728304862976, 0.4171970784664154, -0.09042876958847046, 
-0.11991605162620544, 0.23429739475250244, -0.3048937916755676, 0.01488762628287077, 0.4732614755630493, 0.17816267907619476, 0.22704388201236725, 
0.030881401151418686, 0.26627492904663086, -0.20479567348957062, -1.080906629562378, -0.11801235377788544, -0.35371193289756775, -0.06407420337200165, 
0.07166927307844162, -0.24658772349357605, -0.05879589542746544, 0.02117306739091873, -0.2142667919397354, -0.6287939548492432, 0.20199528336524963, 
-0.15825854241847992, -0.24163803458213806, 0.046137139201164246, 0.2884666621685028, -0.45405319333076477, 0.16527429223060608, -0.2721942365169525, 
-0.25018954277038574, -0.48249179124832153, -0.6232429146766663, 0.1936914473772049, 0.2560408115386963, 0.2622682452201843, 0.12237219512462616, 
-0.001179182669147849, 0.5239740014076233, 0.07140448689460754, 0.022873740643262863, 0.5171934962272644, 0.058140818029642105, 0.0003238063945900649, 
-0.5405265688896179, 0.03995920345187187, -0.22489385306835175, -0.01927603967487812, 0.02459660917520523, 0.14549928903579712, 0.09982861578464508, 
0.14983196556568146, -0.1225123256444931, 0.7068919539451599, 0.6696832776069641, 0.2785617411136627, -0.42219001054763794, -0.8710783123970032, 
0.07436251640319824, -0.47023728489875793, 0.3332473337650299, 0.4364674389362335, -0.2873033583164215, -0.18657167255878448, 0.7427976727485657, 
-0.13832657039165497, -0.02124423161149025, 0.37594878673553467, 0.16733218729496002, -0.7059143781661987, 0.21248091757297516, -0.09402711689472198, 
0.7653193473815918, -0.687700629234314, -0.2633872628211975, 0.13577373325824738, -0.28167274594306946, -0.3525674343109131, -0.05358511209487915, 
0.0030394871719181538, -0.7485174536705017, -0.1163531243801117, -0.4056059718132019, -0.36004599928855896, -0.18264350295066833, -0.33663880825042725, 
0.7434524893760681, -0.03470608592033386, -0.24086885154247284, 0.07817726582288742, -0.004920606035739183, -0.532913088798523, -0.33923405408859253, 
-0.5363779664039612, 0.2027849406003952, -0.9961862564086914, -0.08836600929498672, -0.46478480100631714, 0.03886637091636658, -0.05634927377104759, 
-0.42724472284317017, 0.01822710782289505, -0.8037553429603577, -0.17932602763175964, 0.7399919629096985, -0.3174573481082916, 0.050301600247621536, 
0.2841510474681854, -0.853646457195282, 0.6741011142730713, -0.5211203098297119, -0.17958472669124603, 0.17452968657016754, -0.05853208899497986, 
0.13816647231578827, -0.13210849463939667, -0.39060720801353455, 0.11233824491500854, 0.37317460775375366, -0.1427002251148224, -0.41961565613746643, 
0.08867745846509933, -0.40018871426582336, -0.3643183410167694, 0.3424854576587677, 0.3283228576183319, -0.05296879634261131, -0.10580731928348541, 
0.00345437740907073, 0.14285613596439362, -0.09055040776729584, 0.24078787863254547, -0.23380613327026367, -0.20310518145561218, 0.12441122531890869, 
0.08915702998638153, 0.20509277284145355, -0.028746454045176506, -0.18814034759998322, -0.4482007622718811, -0.08624595403671265, 0.058325741440057755, 
-0.13711582124233246, -0.013882100582122803, 0.20293046534061432, -0.17583465576171875, 0.34880179166793823, -0.13949471712112427, 0.08799392729997635, 
0.7590931057929993, 0.3518538475036621, 0.336770623922348, -0.16976554691791534, 0.07637874782085419, -0.09785091131925583, -0.0007977052591741085, 
0.34475940465927124, 0.7441361546516418, -0.2750611901283264, -0.34399157762527466, 0.31974074244499207, 0.8280732035636902, -0.2556861639022827, 
-0.09553661942481995, -0.04122569411993027, -0.381764680147171, -0.17359846830368042, 0.6206445097923279, 0.15366920828819275, 0.02948283590376377, 
-0.33718010783195496, -0.03954325243830681, -0.087432362139225, -0.1461983025074005, 0.22509850561618805, 0.010151296854019165, -0.26965758204460144, 
-0.02439451962709427, -0.016853472217917442, -0.2216743528842926, 0.2767069935798645, -0.09710321575403214, -0.3992767333984375, 0.20533832907676697, 
-0.09600936621427536, 0.2274276465177536, -0.04276785999536514, -0.20998191833496094, -0.1855493038892746, 0.02501404844224453, -0.09340765327215195, 
-0.006320654414594173, -0.023403426632285118, 0.10277872532606125, 0.1925780326128006, -0.28927427530288696, -0.49236947298049927, -0.4463678300380707, 
0.05010347440838814, -0.09938303381204605, 0.10318007320165634, -0.08743876963853836, 0.19263631105422974, 0.643779993057251, -0.03417094796895981, 
0.48194676637649536, -0.22162489593029022};

#endif

#endif
