// Numpy array shape [32, 16]
// Min -1.9840822
// Max 0.9809796
// Number of zeros 0

#ifndef TRANSFORMERS_0_LINEAR_2_WEIGHT_H_
#define TRANSFORMERS_0_LINEAR_2_WEIGHT_H_

#ifndef __SYNTHESIS__
model_default_t transformers_0_linear_2_weight[512];
#else
model_default_t transformers_0_linear_2_weight[512] = {0.2063605785369873, -0.1333734393119812, -0.3677074909210205, -0.0005494823562912643, 0.4285593628883362, 0.3896045982837677, 
-0.2058962732553482, 0.2469238042831421, 0.3263934850692749, -1.1572998762130737, -0.3746129870414734, -0.30052006244659424, 0.33796653151512146, 
-0.4752556085586548, 0.10816046595573425, 0.39792943000793457, 0.15446174144744873, -0.1191420778632164, 0.3047788739204407, 0.24993334710597992, 
-0.1096094623208046, 0.36915868520736694, 0.2969220280647278, -0.007983126677572727, -0.1342303454875946, -0.24537865817546844, 0.42346876859664917, 
0.28349006175994873, -0.02913711778819561, 0.18680210411548615, -0.15567801892757416, -0.14139674603939056, 0.06649141758680344, -0.18172729015350342, 
-0.012859313748776913, -0.18442635238170624, -0.5842064023017883, 0.14567433297634125, 0.5843601226806641, 0.6603603959083557, 0.21457691490650177, 
-0.3824857771396637, 0.1425515115261078, -0.3604511022567749, -0.06053513288497925, -0.09273014217615128, 0.1402067095041275, 0.06572044640779495, 
0.0527104027569294, -0.2511994242668152, 0.39747872948646545, -0.7001527547836304, -0.5540730953216553, -0.38445836305618286, 0.0687849372625351, 
-0.11042938381433487, -0.13506008684635162, 0.19088153541088104, -0.3147136867046356, -0.5667773485183716, -0.5334896445274353, 0.6462246775627136, 
0.2867126166820526, -0.36813074350357056, -0.7332985401153564, -0.036196768283843994, -0.05705859512090683, 0.15157297253608704, 0.11679300665855408, 
-0.046715471893548965, -0.2446189820766449, -0.5197747945785522, -0.5089204907417297, -0.445345401763916, 0.16488374769687653, 0.11929573118686676, 
-0.2975733280181885, 0.18255312740802765, -0.1783791482448578, -0.1994982659816742, -0.27766284346580505, 0.18907178938388824, -0.19292952120304108, 
0.1296139657497406, 0.014338074252009392, -0.6789383292198181, -0.03565346822142601, 0.02057337760925293, 0.1460883766412735, 0.17567144334316254, 
0.24413473904132843, -0.4880843162536621, -0.006801276467740536, -0.7317761778831482, -0.018096361309289932, -0.03259669989347458, 0.2612113058567047, 
-0.09374453872442245, 0.36198288202285767, 0.043193262070417404, -0.1244511753320694, 0.0642852783203125, -0.12170585244894028, -0.5530322194099426, 
-1.6350702047348022, -0.15540316700935364, 0.2968047857284546, -0.1874525249004364, 0.22133347392082214, 0.4022965729236603, 0.05947545915842056, 
-0.11380686610937119, -1.5406935214996338, -0.08424494415521622, -0.03332144394516945, -0.018722083419561386, 0.3719959557056427, -0.3927299678325653, 
-0.25725534558296204, -0.2044294774532318, 0.5213813185691833, -0.12161525338888168, -0.18824809789657593, 0.4162069261074066, 0.12211838364601135, 
-0.6539700031280518, -0.24438565969467163, 0.11933503299951553, -0.29316267371177673, -0.22264531254768372, -0.09908042103052139, -0.17522665858268738, 
-0.1273573786020279, -0.4346335232257843, -0.13166019320487976, -0.016189448535442352, -0.24818828701972961, -0.7546536922454834, -0.009365509264171124, 
-0.34944474697113037, -0.5288175344467163, 0.14205926656723022, -0.96028733253479, -0.9851906895637512, 0.0833134576678276, 0.04306412488222122, 
-0.1127348393201828, 0.16451507806777954, -0.5604287981987, 0.0330590084195137, -0.11885222047567368, -0.2179889678955078, 0.35945552587509155, 
0.3960035741329193, -0.5875903964042664, -0.10937677323818207, -0.3378981649875641, 0.0835234597325325, -0.7947835326194763, -0.20598912239074707, 
-0.1480097770690918, 0.010145843029022217, 0.18556979298591614, 0.00090394401922822, 0.08763303607702255, -0.09365880489349365, 0.47675591707229614, 
-0.23864108324050903, -0.22463956475257874, -0.11534684896469116, -0.3638327717781067, -0.36521515250205994, -0.3188779652118683, -0.07638776302337646, 
-0.4828892946243286, 0.16707544028759003, 0.252431184053421, 0.08176079392433167, -1.209465503692627, -0.10838299244642258, 0.5085968375205994, 
0.41535618901252747, 0.04436889663338661, 0.15048065781593323, -0.6966177821159363, 0.18066182732582092, 0.09118684381246567, 0.21963541209697723, 
0.11175154149532318, -0.28407570719718933, 0.9809796214103699, 0.2995137870311737, -0.8215118646621704, -0.18030282855033875, -0.17397403717041016, 
0.05969582125544548, 0.02547922357916832, 0.19141994416713715, -0.18877999484539032, -1.7419638633728027, -1.4154192209243774, -0.4208188056945801, 
0.16368339955806732, 0.18691572546958923, 0.08467158675193787, 0.057632625102996826, 0.08445782959461212, -0.03671431541442871, -0.15047040581703186, 
0.15539401769638062, -0.18804362416267395, -0.04332127794623375, 0.1968510001897812, -1.1765691041946411, -0.0774395689368248, 0.019658587872982025, 
0.2051714062690735, 0.11114894598722458, 0.04201279208064079, 0.2156856507062912, -0.1569329798221588, -0.30384182929992676, -0.18947619199752808, 
-0.12816616892814636, 0.9239295721054077, -0.06175193190574646, 0.2662293612957001, -0.19706304371356964, 0.18123215436935425, 0.10516524314880371, 
-0.27556854486465454, 0.02041570097208023, 0.02406676486134529, -0.6520519852638245, -0.8711780905723572, -0.4708981215953827, -0.008955580182373524, 
-0.10759201645851135, -0.6799122095108032, 0.368298202753067, -0.4455246031284332, -0.8506211638450623, -1.1231060028076172, -0.12207579612731934, 
0.11330906301736832, 0.1757628619670868, 0.04484765976667404, -0.09795212000608444, -1.0377516746520996, -1.1163177490234375, -0.279817670583725, 
0.20894694328308105, 0.48893582820892334, -0.5469603538513184, 0.165870800614357, -0.22351649403572083, -0.34943482279777527, 0.00807398185133934, 
0.3932163715362549, -0.23054756224155426, -0.13326822221279144, -0.2571042478084564, 0.12516731023788452, 0.15775209665298462, 0.2859860062599182, 
0.1926269680261612, 0.13550066947937012, -0.03894219920039177, -0.14797645807266235, 0.5120707750320435, 0.2996509373188019, -0.4050695598125458, 
0.3088948428630829, 0.2472081035375595, 0.26633793115615845, -0.23484402894973755, 0.07489681243896484, 0.2609556019306183, -0.6818036437034607, 
-0.12925368547439575, 0.2721915543079376, -0.011258370243012905, -0.22932150959968567, 0.03422081470489502, 0.45339158177375793, 0.22300884127616882, 
0.42151060700416565, 0.5783173441886902, -0.27985912561416626, 0.018772751092910767, 0.3486543595790863, -0.059127457439899445, 0.21958288550376892, 
0.07084739953279495, 0.3926279544830322, -1.2876579761505127, -1.0773624181747437, -0.29919251799583435, 0.22740747034549713, 0.21888788044452667, 
0.38918355107307434, -0.15595057606697083, -0.23196424543857574, 0.13623583316802979, -0.8349169492721558, -0.09401223808526993, -0.6521031856536865, 
0.052593693137168884, -0.4116581082344055, -0.6505321860313416, 0.10551182925701141, -0.052407439798116684, -0.05228390172123909, 0.35554981231689453, 
0.19508130848407745, 0.19207726418972015, 0.2736798822879791, -0.44859904050827026, 0.15923330187797546, -0.09797792881727219, 0.1436590999364853, 
0.05086566507816315, -0.11827536672353745, -0.21794633567333221, -0.025497572496533394, -0.5250022411346436, -0.290618360042572, 0.20663167536258698, 
0.1785603165626526, 0.3855428397655487, -0.05835637450218201, -0.1367054581642151, -0.14289571344852448, 0.19040565192699432, 0.2882411777973175, 
-0.16700559854507446, 0.2884937524795532, -0.06383209675550461, -0.05902771279215813, -0.05775541067123413, 0.12513841688632965, 0.11913415044546127, 
-0.08007778972387314, -0.2714008390903473, -0.1463838666677475, -0.0438702367246151, -0.19355836510658264, -0.13313141465187073, -0.23312556743621826, 
0.44123637676239014, -0.09311974048614502, -0.07537933439016342, -0.43461737036705017, -0.2594207525253296, 0.2858220934867859, -0.12639454007148743, 
-0.30818814039230347, -0.22637468576431274, 0.2833031713962555, -0.061420947313308716, 0.28257882595062256, -0.31949692964553833, 0.22243358194828033, 
-0.24080578982830048, 0.0990428477525711, 0.19858676195144653, 0.12454677373170853, -0.07517237961292267, 0.045306164771318436, -0.18690741062164307, 
0.08424389362335205, 0.02320162020623684, 0.3379010558128357, 0.236696258187294, -0.5451356768608093, -0.45253485441207886, 0.06147383525967598, 
0.03461717441678047, -0.11549320816993713, 0.02664009854197502, -0.5467702746391296, -0.20142222940921783, 0.19958661496639252, -0.19355662167072296, 
-0.2932971119880676, -0.03630144149065018, 0.30937644839286804, -0.07483557611703873, -0.27966994047164917, -0.3719062805175781, 0.14140482246875763, 
0.39195671677589417, 0.21487969160079956, 0.8540367484092712, 0.06755741685628891, -0.4589834213256836, 0.37945356965065, 0.04548871889710426, 
0.23201385140419006, -0.1906004697084427, 0.3796581029891968, 0.05907008796930313, 0.0601690411567688, 0.12381374835968018, -0.2554664611816406, 
0.1033831313252449, 0.3419201672077179, -0.13530966639518738, -0.11711640655994415, 0.03685486316680908, 0.020922280848026276, 0.244795024394989, 
0.20846067368984222, 0.3167697489261627, 0.03708399459719658, -0.795054018497467, -0.3307588994503021, -0.17145399749279022, -0.4676015079021454, 
-0.03378113731741905, 0.2484636753797531, -0.302725225687027, -0.08309374749660492, -0.21879857778549194, -0.20332282781600952, 0.004481183364987373, 
-0.1209023967385292, -0.11994539946317673, -0.21190650761127472, -0.10230987519025803, 0.17503681778907776, 0.07444877177476883, -0.1362767368555069, 
0.21785341203212738, 0.03835371881723404, 0.1296107918024063, -0.49501457810401917, -0.19115673005580902, 0.14182163774967194, -0.02629471756517887, 
0.01497036125510931, 0.2126617431640625, -0.18116512894630432, -0.38892680406570435, -0.1477985382080078, 0.3033943772315979, 0.25034821033477783, 
0.04271532967686653, 0.8246109485626221, -0.11772062629461288, -0.07381775230169296, 0.007116785738617182, 0.3442033529281616, -0.2397070825099945, 
0.19358943402767181, 0.21157072484493256, 0.0008133678347803652, -0.005851943977177143, -1.1693365573883057, -0.563170850276947, -0.13025011122226715, 
0.07223153114318848, -0.525859534740448, 0.37432000041007996, -1.9840822219848633, 0.21599970757961273, -0.9618422985076904, 0.07277251780033112, 
-0.20926682651042938, 0.2141442447900772, 0.0820835530757904, 0.005528218578547239, -0.5782106518745422, 0.32457631826400757, -0.5911732316017151, 
0.23878046870231628, 0.17855793237686157, -0.17554964125156403, -0.4307389259338379, 0.3351013958454132, -0.3242301940917969, -0.1072700023651123, 
-0.5533190965652466, -0.13047322630882263, 0.006695284973829985, -0.23161695897579193, -0.9303589463233948, -0.1994379758834839, 0.01938307285308838, 
-0.1460130214691162, -0.03581918403506279, 0.3934578001499176, 0.31934913992881775, -0.6000252962112427, -0.014882388524711132, 0.43340757489204407, 
0.07629643380641937, -0.030533304437994957, 0.17144109308719635, 0.4371283948421478, -0.6280404329299927, -0.008761486038565636, 0.42489707469940186, 
0.26515743136405945, -0.6304188966751099, 0.07056741416454315, 0.3520148694515228, 0.23881684243679047, 0.5377020239830017, -0.05283799767494202, 
-0.30270975828170776, -0.07678264379501343};

#endif

#endif
