// Numpy array shape [64]
// Min -0.26663524
// Max 0.1462526
// Number of zeros 0

#ifndef TRANSFORMERS_0_SELF_ATTENTION_OUT_BIAS_H_
#define TRANSFORMERS_0_SELF_ATTENTION_OUT_BIAS_H_

#ifndef __SYNTHESIS__
SA_dense_bias_t transformers_0_self_attention_out_bias[64];
#else
SA_dense_bias_t transformers_0_self_attention_out_bias[64] = {-0.0025275510270148516, -0.12038812786340714, -0.04896802455186844, -0.014599337242543697, 0.06225927174091339, -0.1453997939825058, 
-0.019198456779122353, 0.017686886712908745, -0.03203107789158821, -0.11139677464962006, 0.09648721665143967, 0.14127184450626373, -0.031946923583745956, 
0.07323562353849411, -0.010704374872148037, 0.08589291572570801, -0.038942981511354446, -0.050804879516363144, 0.07014379650354385, 0.07409869879484177, 
0.0959370955824852, 0.07748338580131531, 0.07537702471017838, -0.05260733515024185, -0.05530453473329544, -0.09717786312103271, -0.13564452528953552, 
-0.046197161078453064, -0.1100427433848381, 0.10328686982393265, -0.02491074986755848, -0.2666352391242981, 0.0856071263551712, 0.06237426772713661, 
-0.03430928289890289, 0.009728021919727325, 0.131283700466156, -0.008976174518465996, -0.1025175079703331, 0.022821182385087013, -0.04668894782662392, 
-0.10073736310005188, 0.09426556527614594, -0.027726510539650917, 0.14474815130233765, -0.08748185634613037, 0.1462526023387909, -0.06643492728471756, 
0.012020635418593884, 0.129508838057518, 0.0044438838958740234, -0.00547855906188488, 0.016380757093429565, 0.0898326113820076, -0.12305590510368347, 
-0.10334572196006775, 0.11835045367479324, -0.07292219996452332, 0.10167304426431656, 0.034197911620140076, -0.07873749732971191, -0.06585318595170975, 
0.004952934104949236, 0.05688638985157013};

#endif

#endif
