// Numpy array shape [64]
// Min -0.45749754
// Max 0.3437889
// Number of zeros 0

#ifndef TRANSFORMERS_1_SELF_ATTENTION_NORM_BIAS_H_
#define TRANSFORMERS_1_SELF_ATTENTION_NORM_BIAS_H_

#ifndef __SYNTHESIS__
model_default_t transformers_1_self_attention_norm_bias[64];
#else
model_default_t transformers_1_self_attention_norm_bias[64] = {-0.3541290760040283, -0.26547789573669434, 0.6831904053688049, -0.2525121569633484, 0.7807996869087219, 0.5149475336074829, 
0.33424121141433716, -0.16089844703674316, 0.8223288655281067, 0.28212857246398926, -0.32637226581573486, -0.5502772331237793, 0.39321115612983704, 
0.42817413806915283, 0.4168725907802582, -0.4995702803134918, -0.1467905044555664, 0.34027260541915894, 0.14426293969154358, 0.5528974533081055, 
0.5195278525352478, -0.613040566444397, -0.3277462124824524, -0.22832432389259338, 0.1577897071838379, -0.3677191138267517, -0.44289717078208923, 
-0.5798056721687317, 0.5179935693740845, -0.22372227907180786, -0.4421288073062897, 0.4065438508987427, -0.7319687604904175, -0.4914969801902771, 
0.3718671202659607, 0.1764066219329834, -0.5271643996238708, -0.07891078293323517, 0.1550038903951645, -0.3346273899078369, -0.4863143563270569, 
0.2730357050895691, -0.2689149081707001, 0.28503525257110596, 0.5318551063537598, 0.412919819355011, 0.5835579633712769, 0.24587370455265045, 
-0.6059808731079102, 0.3849584460258484, -0.30514442920684814, 0.4550565183162689, -0.3893563747406006, 0.5599307417869568, 0.8183786869049072, 
0.6177352666854858, 0.40213096141815186, -0.5264469981193542, -0.04488241672515869, -0.32201308012008667, -0.4194629490375519, -0.586503267288208, 
-0.31984394788742065, 0.3568894863128662};

#endif

#endif
