// Numpy array shape [64, 128]
// Min -0.47722748
// Max 0.44081497
// Number of zeros 0

#ifndef TRANSFORMERS_1_LINEAR_5_WEIGHT_H_
#define TRANSFORMERS_1_LINEAR_5_WEIGHT_H_

#ifndef __SYNTHESIS__
model_default_t transformers_1_linear_5_weight[8192];
#else
model_default_t transformers_1_linear_5_weight[8192] = {0.03211744502186775, 0.04479369521141052, 0.08347392082214355, 0.020013727247714996, 0.033067960292100906, 0.07388226687908173, 
0.04547828808426857, 0.03035954385995865, 0.21092307567596436, -0.019207188859581947, 0.00619184784591198, -0.048970453441143036, 0.014661381021142006, 
0.010385067202150822, 0.00505127664655447, 0.0774516686797142, 0.016807347536087036, -0.0297551192343235, 0.09337744116783142, -0.003057540860027075, 
-0.159335657954216, 0.031032875180244446, -0.11428307741880417, 0.05912209674715996, 0.14023001492023468, 0.021204665303230286, -0.03029031492769718, 
0.08226883411407471, -0.09485100209712982, 0.09186184406280518, 0.10602148622274399, 0.031984977424144745, -0.03365947678685188, 0.11314480006694794, 
-0.07418046146631241, -0.0314728319644928, -0.00116028543561697, -0.08850093930959702, 0.0155257573351264, -0.06390362232923508, -0.06429196894168854, 
-0.11259252578020096, -0.0006446597981266677, -0.05984250456094742, -0.03085719235241413, -0.004914209246635437, 0.02040966972708702, -0.02674640715122223, 
-0.16892369091510773, -0.08449464291334152, -0.025781113654375076, -0.06505116075277328, 0.018126148730516434, -0.08770778775215149, 0.05370229482650757, 
0.1819847673177719, 0.07465493679046631, 0.08072053641080856, -0.07248729467391968, 0.04357118532061577, -0.09138273447751999, -0.05042212828993797, 
0.04118942469358444, -0.05491863563656807, 0.014619705267250538, 0.0655064806342125, -0.0446336455643177, -0.011951985768973827, -0.09310105443000793, 
-0.07103219628334045, -0.0042445482686161995, 0.009424082934856415, 0.1360141485929489, 0.002440918702632189, 0.11134006828069687, -0.18874919414520264, 
0.03762726113200188, 0.19909271597862244, -0.1579943150281906, 0.004539933521300554, -0.01120768953114748, -0.09420670568943024, -0.0039253090508282185, 
0.05645393207669258, -0.05870358645915985, 0.03662542253732681, -0.04584406316280365, 0.04248831421136856, 0.02373124286532402, 0.013805621303617954, 
0.030918065458536148, -0.12106738239526749, -0.1687929928302765, -0.004013861995190382, -0.03407317399978638, 0.004541540518403053, 0.031385600566864014, 
0.12559980154037476, -0.1289432793855667, 0.025521401315927505, -0.10415539145469666, -0.14643867313861847, 0.10583359748125076, 0.09880077838897705, 
-0.022038791328668594, -0.08667366206645966, 0.05566354840993881, -0.025821300223469734, -0.09879758954048157, -0.03779696300625801, -0.009912161156535149, 
0.011690338142216206, -0.03704233840107918, -0.01740352436900139, -0.016661910340189934, -0.13932161033153534, 0.1601112186908722, 0.05567028373479843, 
0.07595837861299515, 0.1425587385892868, 0.038070086389780045, -0.04148709774017334, -0.12558524310588837, -0.07919629663228989, -0.02443707175552845, 
0.04403483122587204, 0.00844431109726429, -0.07806091755628586, 0.0006360344705171883, -0.07704673707485199, 0.05820835381746292, -0.062288910150527954, 
0.004228794015944004, 0.04795709624886513, -0.08275602757930756, -0.08186987042427063, 0.2193935662508011, -0.01745864376425743, -0.007201350759714842, 
-0.20305953919887543, -0.04964405670762062, 0.1965646892786026, -0.011380157433450222, -0.054258693009614944, -0.07746095210313797, 0.0692676454782486, 
0.13174913823604584, 0.03328467905521393, -0.04645746573805809, -0.036514729261398315, 0.021304868161678314, -0.033516187220811844, 0.01800236478447914, 
0.15129412710666656, 0.04610857740044594, -0.05162103474140167, -0.1352182924747467, 0.036325603723526, -0.14641141891479492, -0.004659903235733509, 
0.017039401456713676, -0.050131406635046005, -0.07661144435405731, 0.11857989430427551, -0.258877694606781, -0.10773353278636932, 0.01798216812312603, 
0.03252414986491203, 0.0749884620308876, -0.16074004769325256, -0.034917183220386505, -0.09602481871843338, -0.10395634174346924, -0.06361857056617737, 
-0.04366597160696983, 0.01631760038435459, 0.032655928283929825, -0.1007763221859932, -0.15333738923072815, -0.014394999481737614, 0.07148531079292297, 
-0.025940535590052605, 0.017325762659311295, 0.04181038215756416, 0.05134250968694687, -0.09747335314750671, 0.011717939749360085, -0.0708228200674057, 
-0.08979373425245285, 0.055355727672576904, 0.018371567130088806, -0.07074050605297089, -0.029739132151007652, -0.003773478325456381, -0.038231633603572845, 
0.12854516506195068, 0.05241326615214348, 0.05342654511332512, -0.053174957633018494, -0.009885101579129696, 0.1279476433992386, -0.020887425169348717, 
0.09005671739578247, 0.029777387157082558, 0.018992017954587936, 0.10840249806642532, -0.09769300371408463, 0.01967959851026535, 0.01471104845404625, 
0.0024377331137657166, 0.13217061758041382, -0.001246397732757032, -0.09354444593191147, 0.025863394141197205, -0.11067790538072586, 0.0020925768185406923, 
0.11740074306726456, 0.03328152745962143, -0.03468826413154602, -0.15255089104175568, -0.06900554895401001, -0.013719577342271805, 0.0530768521130085, 
0.13845868408679962, -0.035585932433605194, 0.06968698650598526, -0.034054119139909744, -0.10240989923477173, -0.04303474724292755, 0.041689421981573105, 
0.09872858226299286, 0.058914847671985626, -0.11714392900466919, -0.05351284518837929, -0.13546763360500336, -0.03827306255698204, 0.11129426956176758, 
-0.06301909685134888, 0.07439197599887848, 0.056384116411209106, -0.05041388049721718, -0.06299371272325516, -0.061101946979761124, -0.02856561169028282, 
-0.07905794680118561, 0.14509811997413635, 0.11379048228263855, -0.007862269878387451, -0.020068062469363213, -0.05061318352818489, -0.07393346726894379, 
0.015810955315828323, 0.09476984292268753, -0.08751945197582245, -0.0233740396797657, 0.017455363646149635, -0.043423108756542206, -0.03903399407863617, 
-0.053907331079244614, 0.041426967829465866, -0.09371201694011688, -0.059073012322187424, 0.0828327089548111, -0.1586441844701767, 0.23441317677497864, 
-0.033103376626968384, 0.04922123998403549, -0.12979425489902496, -0.05020010843873024, 0.16233913600444794, -0.16503079235553741, -0.03697390481829643, 
0.028027722612023354, -0.08676143735647202, 0.15345485508441925, 0.22599606215953827, -0.13270580768585205, 0.07727766782045364, -0.067587710916996, 
-0.058000922203063965, 0.022651758044958115, 0.12263498455286026, 0.1026749312877655, -0.06950977444648743, -0.014331360347568989, 0.011809325776994228, 
0.00556570291519165, 0.041023291647434235, -0.07824926823377609, 0.06278660148382187, 0.014112177304923534, 0.05372433364391327, -0.06544781476259232, 
0.07710591703653336, 0.15176494419574738, 0.05674530565738678, 0.03746393322944641, -0.046780411154031754, -0.11453500390052795, 0.07375093549489975, 
0.05766035616397858, -0.06135892868041992, 0.09397431463003159, -0.02344590611755848, -0.04395054653286934, -0.0020868682768195868, 0.10087398439645767, 
-0.04202546924352646, 0.030618613585829735, 0.13705219328403473, 0.13269838690757751, 0.06890285015106201, -0.02407899871468544, 0.018209943547844887, 
-0.05569545179605484, -0.08550748974084854, 0.11271847784519196, -0.048993464559316635, -0.020195959135890007, -0.13817018270492554, -0.05043618753552437, 
0.04532046988606453, -0.1662108302116394, 0.019199270755052567, 0.020903049036860466, -0.0857066884636879, -0.07730711251497269, 0.08395472168922424, 
0.026960797607898712, 0.007183392066508532, -0.04213816300034523, -0.05253518745303154, 0.01216120831668377, 0.08997249603271484, -0.06351184099912643, 
0.0031050515826791525, 0.031119748950004578, 0.01813635043799877, 0.07766259461641312, -0.021472694352269173, -0.2425154149532318, 0.01020390447229147, 
-0.026379525661468506, 0.027286779135465622, 0.15549281239509583, 0.019441379234194756, 0.06774688512086868, -0.0340268649160862, -0.023822279646992683, 
0.014500374905765057, 0.024160530418157578, 0.17471231520175934, -0.017365626990795135, 0.00017593943630345166, -0.0803757980465889, -0.06263667345046997, 
0.029658174142241478, 0.04578814655542374, -0.039887312799692154, -0.02733418717980385, -0.010712753050029278, -0.014686455018818378, -0.011529983952641487, 
0.07515563815832138, -0.04263908416032791, 0.03326081112027168, 0.024084974080324173, -0.08791906386613846, -0.07370684295892715, -0.0339580699801445, 
0.03773709014058113, -0.07193249464035034, 0.027985870838165283, 0.0014699114253744483, -0.0020847131963819265, 0.04813043400645256, -0.07005652040243149, 
0.09841100871562958, -0.09144771844148636, -0.008646662347018719, 0.05543676018714905, -0.061500973999500275, -0.0003943959018215537, -0.09412521123886108, 
-0.0069069149903953075, -0.06899252533912659, 0.021389935165643692, -0.0620255172252655, 0.015122673474252224, 0.11213376373052597, 0.06021851301193237, 
0.03451499342918396, 0.0825999453663826, 0.0432526096701622, -0.05365138500928879, -0.16804836690425873, -0.018848344683647156, 0.0882725715637207, 
0.10205839574337006, -0.20806357264518738, -0.021803805604577065, -0.056095559149980545, -0.09303075820207596, -0.024845382198691368, 0.1247941330075264, 
0.00889417715370655, -0.1739882230758667, 0.074793241918087, 0.00379554252140224, -0.20442968606948853, -0.32274124026298523, -0.007764357142150402, 
0.14792266488075256, 0.022050725296139717, 0.0433468371629715, -0.3269451856613159, 0.06138087809085846, 0.1904417723417282, -0.145950049161911, 
0.10847388207912445, -0.23397424817085266, 0.08423857390880585, -0.04749367758631706, -0.15746554732322693, -0.04411788657307625, -0.21006521582603455, 
-0.16380591690540314, 0.17746929824352264, 0.04089738801121712, 0.1519862562417984, -0.06593503057956696, -0.006474295165389776, 0.01992626115679741, 
0.15018050372600555, -0.13226956129074097, 0.09902343153953552, -0.004507640842348337, 0.1313074678182602, 0.037388503551483154, -0.07482607662677765, 
-0.030586788430809975, 0.044836536049842834, -0.06222134456038475, 0.1850929856300354, 0.05046336352825165, 0.06675899028778076, -0.16268543899059296, 
-0.01574953831732273, 0.10738224536180496, 0.021435396745800972, -0.04890089109539986, -0.07489941269159317, -0.173452690243721, 0.09744299948215485, 
-0.044882167130708694, -0.11487216502428055, 0.03255566582083702, 0.04197324439883232, 0.07339128851890564, 0.011589627712965012, -0.06769916415214539, 
0.020181696861982346, 0.008040973916649818, 0.05345600098371506, -0.1841471940279007, -0.04675886780023575, -0.16999858617782593, 0.030031200498342514, 
-0.036851268261671066, -0.04335853084921837, 0.09897544234991074, -0.10852330178022385, -0.05704767629504204, -0.06056230515241623, -0.12307703495025635, 
0.3089027404785156, 0.10128162801265717, 0.008687346242368221, -0.08409338444471359, -0.2368917465209961, -0.006634990684688091, -0.0694166049361229, 
0.17774420976638794, -0.019628776237368584, -0.1424712985754013, -0.06542155146598816, 0.014133035205304623, 0.04541659355163574, -0.1148308590054512, 
0.05399646610021591, -0.06342358887195587, 0.020874304696917534, 0.07908891141414642, 0.05988074094057083, 0.09567870199680328, 0.01139418501406908, 
0.289058119058609, 0.03857101500034332, 0.0006424661260098219, 0.06525824964046478, -0.0558442659676075, -0.04811542481184006, -0.0795058012008667, 
-0.06911735981702805, 0.04680095240473747, 0.03993288055062294, 0.03941458836197853, 0.12014197558164597, 0.020651502534747124, 0.04215783625841141, 
0.018376968801021576, 0.1450655609369278, -0.00650189770385623, 0.021965933963656425, -0.00813325121998787, 0.06553399562835693, -0.03086695447564125, 
-0.008002725429832935, -0.1530849188566208, 0.02709633857011795, 0.27014654874801636, 0.03609621524810791, 0.032737888395786285, -0.1811351180076599, 
0.036951545625925064, 0.1130165383219719, -0.02924451231956482, -0.07361724972724915, -0.03296788036823273, -0.0717960000038147, -0.03494023159146309, 
0.07951116561889648, 0.01870487816631794, 0.09472262114286423, -0.010312823578715324, -0.05131258815526962, 0.027605105191469193, 0.0632489025592804, 
0.12766021490097046, -0.03588284179568291, -0.07496211677789688, -0.05299912393093109, 0.007304002530872822, 0.07363992184400558, 0.026554785668849945, 
-0.012902474962174892, -0.07563894242048264, 0.03678387776017189, -0.09735561907291412, -0.09361159056425095, 0.020839538425207138, 0.12369537353515625, 
-0.08818291127681732, -0.05046357586979866, -0.03757544606924057, 0.04548637568950653, 0.0595078282058239, -0.06673888862133026, 0.013236768543720245, 
-0.01641666702926159, 0.047725290060043335, -0.1251267045736313, -0.05268467962741852, -0.13135720789432526, 0.12440738826990128, -0.07373347133398056, 
-0.09075208008289337, 0.10039658844470978, -0.012939009815454483, 0.06329939514398575, -0.08217725157737732, 0.02132776379585266, 0.10743164271116257, 
-0.007071404717862606, 0.04495857656002045, -0.13277803361415863, -0.12774620950222015, 0.0002708212996367365, -0.04338055104017258, 0.02299838699400425, 
-0.061050817370414734, 0.07384513318538666, 0.05724494904279709, -0.1713883876800537, 0.36073237657546997, -0.09680106490850449, -0.041228652000427246, 
-0.042555585503578186, -0.015859330072999, 0.1794063150882721, -0.033240605145692825, -0.018039429560303688, -0.053786445409059525, -0.1471315175294876, 
0.09340022504329681, 0.2764972746372223, -0.2408217489719391, 0.049638088792562485, -0.01741451770067215, -0.06140736863017082, -0.03513714298605919, 
0.06085455045104027, -0.0028539930935949087, -0.15194420516490936, 0.06290959566831589, -0.021687142550945282, -0.005230576265603304, -0.07767531275749207, 
0.005130706820636988, 0.10107598453760147, -0.026514779776334763, -0.12299592792987823, 0.0015967176295816898, 0.14157021045684814, 0.17023737728595734, 
-0.04852205887436867, -0.027479732409119606, -0.10250145941972733, -0.1786150187253952, 0.09399549663066864, 0.1668776571750641, -0.01994636282324791, 
0.09453997015953064, -0.012282940559089184, -0.031104132533073425, -0.024055618792772293, -0.01807272806763649, 0.0249075498431921, -0.04022689163684845, 
0.112313412129879, 0.062378861010074615, 0.16643190383911133, 0.027402393519878387, 0.07872360199689865, 0.021418338641524315, -0.0029613592196255922, 
0.04532055929303169, -0.15372993052005768, -0.03616275265812874, -0.013225746341049671, 0.07763207703828812, 0.04694373533129692, 0.10895273834466934, 
0.024230360984802246, 0.054333727806806564, -0.052523158490657806, -0.07014569640159607, 0.19811202585697174, -0.05005057528614998, -0.06422741711139679, 
0.09760783612728119, -0.02837427891790867, -0.014761622063815594, 0.06934504956007004, 0.033175330609083176, 0.02442939206957817, 0.008927722461521626, 
0.06107880175113678, -0.07992247492074966, -0.10446038097143173, -0.11634436249732971, -0.0017800623318180442, 0.05962686613202095, 0.0027957051061093807, 
-0.07282563298940659, 0.06154641509056091, -0.06939341127872467, -0.12973780930042267, -0.13653306663036346, -0.12830813229084015, 0.04664263129234314, 
-0.0446910597383976, 0.047862835228443146, -0.07460469007492065, -0.03839835152029991, 0.10031598061323166, 0.024891244247555733, 0.01611831970512867, 
-0.0011842896929010749, 0.02946845255792141, 0.06096087023615837, -0.04850461706519127, 0.09046778827905655, 0.09027213603258133, -0.12025921791791916, 
0.08074750751256943, -0.05361657962203026, 0.10321111977100372, -0.1696908175945282, 0.022705208510160446, -0.12355714291334152, 0.054385535418987274, 
0.11700045317411423, 0.13590656220912933, -0.004032636992633343, -0.07523026317358017, -0.14135046303272247, 0.029509173706173897, 0.0009337220108136535, 
-0.04469660669565201, 0.039214856922626495, 0.07088020443916321, 0.053156327456235886, 0.015160104259848595, -0.19106146693229675, -0.06708585470914841, 
0.03871520608663559, -0.1278379112482071, 0.09364283084869385, -0.011389904655516148, 0.04146208614110947, -0.132626011967659, 0.017733054235577583, 
-0.01623881794512272, -0.09630917012691498, -0.029939590021967888, 0.06148110702633858, 0.1685234159231186, -0.055089227855205536, -0.1508263796567917, 
0.13431771099567413, 0.0794735699892044, -0.08422723412513733, 0.1546953022480011, 0.0461018867790699, 0.14318907260894775, 0.0016563457902520895, 
-0.054342642426490784, 0.01668546162545681, -0.021675847470760345, -0.05264362692832947, -5.739402331528254e-05, 0.06453985720872879, 0.06894934922456741, 
-0.08891470730304718, -0.1323523074388504, 0.08840108662843704, 0.10852008312940598, -0.08304895460605621, 0.1592874974012375, -0.12892712652683258, 
-0.0933527946472168, -0.002185820834711194, -0.14441926777362823, -0.18696752190589905, 0.08040368556976318, -0.03944285586476326, 0.12796221673488617, 
0.04912891983985901, -0.11483262479305267, 0.004362788982689381, -0.16770394146442413, 0.14396993815898895, 0.12810294330120087, -0.03038610890507698, 
0.08610792458057404, -0.15732072293758392, 0.0646568313241005, -0.046649932861328125, -0.0351925827562809, 0.03850248083472252, -0.18982098996639252, 
0.017079178243875504, -0.1651553511619568, -0.00648786686360836, -0.10060128569602966, -0.10807494819164276, -0.04740876331925392, -0.14181537926197052, 
0.18488316237926483, -0.06199231743812561, -0.3103553354740143, -0.053080204874277115, 0.31015995144844055, 0.03632619231939316, -0.12204978615045547, 
0.19844961166381836, -0.05712305009365082, 0.09469230473041534, -0.022432439029216766, -0.2513190507888794, 0.030695641413331032, 0.04427767172455788, 
-0.02037227526307106, -0.11417903006076813, -0.08517898619174957, -0.19152797758579254, -0.02919810824096203, 0.003283703699707985, 0.039418503642082214, 
0.047429852187633514, -0.15184080600738525, -0.24273911118507385, -0.21719768643379211, -0.1650327444076538, 0.19202138483524323, 0.061406299471855164, 
-0.003667521523311734, -0.05876687914133072, -0.2851613461971283, 0.10659798979759216, -0.05352189391851425, 0.06769275665283203, 0.08902803063392639, 
-0.3446158170700073, -0.07016799598932266, 0.02104528248310089, -0.2841354012489319, -0.1604165881872177, -0.07186736166477203, -0.02239297330379486, 
-0.06260717660188675, 0.18585486710071564, -0.20861029624938965, -0.02460387535393238, 0.0851174145936966, 0.054131634533405304, -0.09576185047626495, 
-0.03387871012091637, 0.009550793096423149, -0.2415531426668167, -0.11664921045303345, -0.00847073458135128, -0.07838764041662216, -0.31525444984436035, 
0.19684448838233948, 0.15335795283317566, -0.06398183107376099, 0.20496277511119843, 0.17513200640678406, -0.010889444500207901, 0.1937313973903656, 
-0.03396787866950035, -0.07771530002355576, 0.05190156772732735, -0.04626764357089996, -0.03634821996092796, 0.07329761981964111, -0.03392675891518593, 
-0.01239495724439621, 0.12094942480325699, 0.12029153853654861, -0.09852387756109238, -0.2104734629392624, 0.04389442130923271, 0.1533353179693222, 
-0.03052501380443573, 0.013282012194395065, -0.018810536712408066, 0.06640556454658508, -0.025099387392401695, 0.05111926421523094, -0.007851661182940006, 
0.04868602752685547, -0.0568876788020134, -0.09767841547727585, -0.0849204733967781, -0.04008432850241661, 0.03256310895085335, 0.00707471976056695, 
-0.01879214681684971, -0.006872179917991161, -0.05099182575941086, -0.13254879415035248, 0.05960873141884804, -0.1340261548757553, 0.025981701910495758, 
0.014780658297240734, -0.07534143328666687, -0.011697730980813503, -0.1517532765865326, 0.011398768052458763, -0.030407682061195374, -0.05963730439543724, 
-0.030037323012948036, -0.06447482109069824, 0.044752176851034164, -0.13365186750888824, -0.01967826671898365, -0.045704856514930725, 0.07583193480968475, 
0.06319618225097656, -0.1103704497218132, 0.04041370004415512, -0.09007555991411209, -0.000903012347407639, 0.10639054328203201, 0.116233691573143, 
0.052912890911102295, -0.12782321870326996, 0.010103059001266956, 0.002671783324331045, -0.090879425406456, -0.09216811507940292, -0.08215184509754181, 
-0.05454188212752342, -0.07678298652172089, 0.23578684031963348, -0.12948916852474213, -0.22859227657318115, 0.10323721915483475, 0.047138601541519165, 
-0.09753981977701187, 0.0332140177488327, 0.15136858820915222, -0.02844339795410633, 0.16053029894828796, -0.009954249486327171, -0.23597614467144012, 
0.17494377493858337, -0.2495875209569931, 0.18860842287540436, -0.010821695439517498, -0.1092849001288414, 0.09971264004707336, 0.10990820080041885, 
-0.1704936921596527, -0.01403107214719057, 0.16621865332126617, 0.06849642097949982, 0.013742820359766483, 0.01947002485394478, 0.23603835701942444, 
-0.05622166022658348, -0.198235884308815, -0.0033255573362112045, 0.05795607343316078, 0.11232923716306686, -0.04813205450773239, -0.05552561953663826, 
0.058139294385910034, 0.013208710588514805, 0.07905346900224686, -0.03736482933163643, 0.1276828646659851, -0.07026143372058868, -0.015497896820306778, 
0.1716660112142563, 0.1569765955209732, -0.07969477027654648, -0.11945704370737076, -0.1828424483537674, 0.03361276537179947, -0.08304829150438309, 
-0.16228652000427246, -0.08886004239320755, 0.06883784383535385, -0.1111179068684578, -0.10199252516031265, -0.17269699275493622, 0.06822716444730759, 
0.10876797884702682, -0.18250659108161926, 0.0800822302699089, 0.06548119336366653, -0.22912953794002533, 0.09351170808076859, 0.1843208223581314, 
0.07266974449157715, -0.013131987303495407, 0.09411198645830154, 0.08160948008298874, -0.08496813476085663, 0.034252606332302094, 0.0006733808550052345, 
0.031430549919605255, -0.037186399102211, -0.05872185900807381, 0.11918097734451294, 0.11549584567546844, 0.07278347760438919, -0.023206761106848717, 
0.07159490138292313, 0.04877588152885437, -0.030969243496656418, 0.06825052946805954, 0.041575800627470016, 0.0823013186454773, 0.07955954223871231, 
-0.059945426881313324, -0.0383433997631073, 0.05607978254556656, 0.06918159127235413, 0.08422306180000305, -0.032761890441179276, 0.12403762340545654, 
0.006804933305829763, 0.04657385125756264, -0.15262135863304138, -0.025183795019984245, -0.018471118062734604, 0.10927421599626541, -0.07248634845018387, 
0.08476440608501434, -0.05471328645944595, 0.07881883531808853, -0.10247956216335297, -0.14677587151527405, -0.025135064497590065, 0.06052808836102486, 
0.013303385116159916, -0.05369597673416138, -0.046177420765161514, -0.0032419166527688503, 0.014747923240065575, 0.00215563690289855, 0.03447505086660385, 
-0.05882186070084572, -0.05842199921607971, -0.10107480734586716, -0.09398166835308075, -0.041184451431035995, 0.016851121559739113, -0.10610614717006683, 
-0.08254258334636688, 0.04721883311867714, 0.02727116458117962, 0.015784351155161858, -0.053472742438316345, 0.026081668213009834, 0.05738220363855362, 
-0.04846763238310814, -0.05105604976415634, -0.06175278127193451, 0.043485864996910095, -0.004872166085988283, 0.01654054783284664, 0.0429714098572731, 
0.13130135834217072, 0.0032709233928471804, -0.01174654345959425, -0.13275572657585144, 0.22921127080917358, 0.07972045987844467, 0.10262936353683472, 
-0.0201206486672163, -0.06894833594560623, 0.18882277607917786, 0.018201079219579697, 0.07673487812280655, 0.010203382931649685, 0.012316522188484669, 
0.007753896526992321, 0.09839221090078354, -0.058858562260866165, -0.049679581075906754, 0.041417039930820465, -0.05247785151004791, -0.04832402244210243, 
0.08709068596363068, 0.073601134121418, 0.023319430649280548, 0.006271508056670427, 0.10013696551322937, 0.016972828656435013, -0.010463920421898365, 
-0.06865154206752777, 0.055227961391210556, -0.10298844426870346, 0.035744715481996536, -0.00943875964730978, -0.08052116632461548, 0.020665017887949944, 
-0.005180233158171177, 0.020420635119080544, -0.02749117650091648, -0.0954289510846138, -0.03281424194574356, 0.10232891142368317, -0.06021600961685181, 
-0.04438519477844238, -0.06116459146142006, -0.05280669033527374, -0.06736237555742264, -0.01216899137943983, -0.1398860514163971, -0.06095556542277336, 
-0.09399379789829254, 0.03909951075911522, 0.023468447849154472, -0.07497572898864746, -0.02799435891211033, -0.01964791864156723, -0.06203090399503708, 
-0.038818057626485825, -0.0529235377907753, -0.05171753838658333, 0.01790946163237095, -0.034561093896627426, 0.007955358363687992, 0.016111262142658234, 
0.04762960970401764, 0.006457174196839333, -0.14524444937705994, 0.02454417385160923, -0.06419751793146133, -0.05290984362363815, -0.04245197772979736, 
-0.09450825303792953, 0.10163789242506027, 0.017685167491436005, -0.02315226010978222, -0.0769495889544487, -0.00909458752721548, -0.022148435935378075, 
-0.07369231432676315, -0.03992076218128204, 0.0542965792119503, 0.08585264533758163, 0.11181782931089401, 0.024240119382739067, 0.050291143357753754, 
-0.016610732302069664, 0.09951717406511307, -0.008722910657525063, -0.10771279036998749, 0.01741635426878929, -0.024701226502656937, 0.07061143219470978, 
0.09372328966856003, -0.0774039700627327, 0.056486278772354126, 0.03336411714553833, 0.06708516925573349, -0.0464787557721138, -0.029484305530786514, 
-0.04583020508289337, 0.11549180001020432, -0.0010089775314554572, 0.0617147795855999, -0.06409508734941483, -0.016989566385746002, -0.022792614996433258, 
-0.08869782090187073, -0.005762779153883457, -0.04109205678105354, -0.12020313739776611, 0.02090262621641159, -0.1224534884095192, 0.0346454456448555, 
-0.026517309248447418, 0.14803221821784973, -0.1695939004421234, -0.05554051697254181, -0.1368209570646286, -0.09432531893253326, -0.043593574315309525, 
-0.11096211522817612, -0.03666318580508232, -0.0249946191906929, -0.057979073375463486, -0.05826990306377411, -0.09094379842281342, 0.0026474192272871733, 
-0.1163768395781517, 0.04796602576971054, 0.009934287518262863, -0.11049008369445801, -0.0662924200296402, 0.16971586644649506, 0.0006479077856056392, 
0.05383041128516197, 0.04618806391954422, 0.0676887035369873, 0.0657467395067215, -0.017012733966112137, -0.09297830611467361, 0.05130080133676529, 
-0.04707988351583481, 0.009417508728802204, 0.1750151365995407, 0.011637456715106964, -0.1736477166414261, -0.014384472742676735, 0.09621701389551163, 
-0.027707602828741074, 0.09222586452960968, 0.11141245067119598, 0.13004770874977112, -0.19670914113521576, 0.03630685806274414, -0.10168798267841339, 
0.021960411220788956, 0.31659048795700073, 0.004130274523049593, -0.09313415735960007, 0.029740404337644577, -0.09887207299470901, 0.16398431360721588, 
0.1826711893081665, 0.111082062125206, 0.06297390162944794, -0.046471089124679565, 0.08809883147478104, 0.1128462627530098, -0.16051030158996582, 
-0.015368100255727768, 0.038799431174993515, 0.02278817817568779, -0.0020930366590619087, -0.15748834609985352, -0.07566488534212112, -0.010233743116259575, 
-0.08729031682014465, 0.025585532188415527, 0.040450289845466614, 0.14514443278312683, -0.05336915701627731, -0.015853140503168106, -0.05193670094013214, 
-0.01822950318455696, -0.0722259134054184, 0.07207533717155457, 0.06940329819917679, -0.058503374457359314, -0.0062830508686602116, 0.10355623066425323, 
0.0708613321185112, -0.21153411269187927, 0.0951654240489006, 0.12106946855783463, -0.03859556466341019, -0.05985775589942932, 0.06252948939800262, 
0.2149147391319275, 0.004437911789864302, 0.05042559280991554, -0.1384408175945282, -0.20853263139724731, 0.05560966953635216, -0.10225647687911987, 
0.13962043821811676, 0.07044736295938492, -0.0394485779106617, 0.194601908326149, -0.04766387492418289, -0.09625409543514252, 0.09776365011930466, 
-0.07488669455051422, 0.023500777781009674, 0.09965810924768448, 0.08668342232704163, 0.19032622873783112, -0.010628046467900276, -0.11669404804706573, 
0.12401960790157318, 0.1334313154220581, 0.02158195711672306, -0.1815001368522644, 0.04730929434299469, -0.14976468682289124, -0.0308231208473444, 
-0.11436552554368973, -0.026202542707324028, 0.21482202410697937, 0.05276433005928993, 0.16318710148334503, -0.09537069499492645, 0.043598756194114685, 
-0.10958850383758545, -0.17213311791419983, -0.08529125899076462, -0.11724728345870972, -0.1390688419342041, -0.16394034028053284, -0.062361665070056915, 
-0.01152469776570797, -0.07766087353229523, 0.18110191822052002, 0.01895095407962799, 0.18815122544765472, 0.19564960896968842, -0.06051304563879967, 
0.15246902406215668, -0.20134568214416504, -0.13646362721920013, 0.01480945385992527, 0.019317178055644035, -0.027276474982500076, -0.13827960193157196, 
-0.08915770798921585, 0.0024120158050209284, -0.015833688899874687, 0.015529362484812737, -0.05943845584988594, -0.12244126200675964, 0.018519055098295212, 
0.031370777636766434, 0.059553712606430054, -0.023920878767967224, 0.005572248250246048, 0.06210874393582344, 0.05475470423698425, -0.086845263838768, 
-0.048389896750450134, 0.10288351029157639, -0.016442492604255676, 0.09383180737495422, 0.06003085523843765, -0.09972946345806122, -0.19350644946098328, 
0.10602537542581558, -0.006592645775526762, -0.07922357320785522, 0.12538689374923706, 0.03877420723438263, 0.08136876672506332, -0.2180580049753189, 
-0.05777983367443085, -0.06349329650402069, 0.04724378138780594, 0.3583747148513794, 0.10564578324556351, -0.014277955517172813, 0.003849190892651677, 
0.05799058452248573, 0.14351433515548706, 0.1780376434326172, 0.14280486106872559, 0.005574209615588188, -0.09378630667924881, -0.02175302989780903, 
0.11405046284198761, -0.019751528277993202, -0.026039160788059235, 0.032899342477321625, -0.07676012814044952, -0.1018131747841835, -0.012194323353469372, 
-0.05195283517241478, 0.10079819709062576, -0.08042584359645844, 0.03633131459355354, -0.019061557948589325, 0.11379538476467133, 0.07326480001211166, 
0.04881546273827553, 0.013136656954884529, -0.01434482354670763, -0.13917307555675507, 0.07979229837656021, -0.02341650053858757, 0.017627155408263206, 
0.022191744297742844, 0.07017494738101959, 0.07812626659870148, -0.06133735179901123, 0.025960758328437805, 0.2789604067802429, -0.0453113317489624, 
-0.08804791420698166, 0.24222175776958466, -0.2745382487773895, 0.05880768224596977, -0.012883024290204048, 0.0338553823530674, -0.05441198870539665, 
-0.10107884556055069, -0.06543926894664764, -0.027225015684962273, 0.04739704728126526, -0.17634102702140808, -0.11699502915143967, -0.21013683080673218, 
0.029188143089413643, 0.09605568647384644, -0.0977339893579483, 0.14672957360744476, 0.01699572056531906, -0.10617370158433914, -0.05583838000893593, 
0.011043363250792027, -0.13153278827667236, -0.051994696259498596, 0.0890992283821106, 0.10955619812011719, -0.09073243290185928, -0.0005114710656926036, 
-0.1468547135591507, 0.10978780686855316, -0.046016089618206024, -0.07179266959428787, -0.054384712129831314, -0.09320558607578278, 0.16892097890377045, 
0.021846601739525795, 0.12130807340145111, 0.12789548933506012, -0.19510222971439362, 0.027750840410590172, -0.09807603806257248, 0.04201316833496094, 
-0.09593876451253891, 0.10752253979444504, -0.10279891639947891, -0.1313873678445816, -0.09171062707901001, -0.08483076840639114, -0.05826988071203232, 
-0.008003159426152706, -0.11539475619792938, -0.014940348453819752, 0.008594883605837822, 0.04943953827023506, 0.02657623216509819, 0.05814088508486748, 
-0.1425391435623169, -0.07375379651784897, 0.05460932478308678, 0.01803971827030182, 0.08272754400968552, 0.017184488475322723, 0.008443118073046207, 
0.14077073335647583, -0.004513370338827372, 0.15427133440971375, -0.0798504501581192, 0.035626139491796494, -0.02975432015955448, 0.05279696732759476, 
-0.001209080102853477, 0.09198281168937683, 0.08235849440097809, 0.07344686985015869, 0.03197680413722992, 0.004355101380497217, -0.06296789646148682, 
-0.017260437831282616, 0.12425459176301956, -0.01525988057255745, 0.0793449729681015, -0.039879292249679565, -0.042352233082056046, -0.06858784705400467, 
-0.019891755655407906, -0.0017786204116418958, 0.048429328948259354, -0.016454622149467468, 0.08594641089439392, -0.07326958328485489, 0.024339599534869194, 
0.03593932464718819, 0.07597125321626663, 0.016955530270934105, 0.0470665879547596, -0.02387070097029209, -0.09753631800413132, 0.009700755588710308, 
-0.01215612143278122, 0.017707427963614464, 0.02840421535074711, 0.016588108614087105, 0.025152981281280518, -0.0049076564610004425, 0.10501589626073837, 
0.030946949496865273, 0.04785029590129852, 0.0361684188246727, -0.02335050329566002, 0.027347953990101814, -0.0776970311999321, -0.04233977198600769, 
-0.01609197072684765, -0.00415082136169076, -0.04559001699090004, 0.040496665984392166, 0.10656607151031494, -0.028156667947769165, -0.011668819934129715, 
-0.07530483603477478, -0.033928822726011276, -0.015970636159181595, -0.2049458920955658, -0.014699035324156284, 0.062295716255903244, -0.032011985778808594, 
-0.09772824496030807, 0.10791285336017609, 0.05310741066932678, -0.0807599127292633, 0.11545763909816742, 0.02531747706234455, -0.1874038428068161, 
0.03761035203933716, 0.1408182978630066, 0.1146165281534195, 0.00321827526204288, -0.07563062757253647, -0.015115092508494854, -0.061538394540548325, 
0.06416255235671997, 0.053442440927028656, 0.10219358652830124, 0.09819809347391129, -0.035527464002370834, 0.019536400213837624, -0.06598461419343948, 
0.058840710669755936, -0.08696160465478897, 0.1752949208021164, 0.0911983996629715, -0.031779441982507706, -0.022736061364412308, -0.09286203235387802, 
-0.06588415801525116, 0.08167766034603119, 0.04797232896089554, 0.0788494274020195, -0.025197872892022133, -0.12285808473825455, -0.13010527193546295, 
-0.19855698943138123, -0.11519080400466919, 0.10703983157873154, 0.008057697676122189, 0.11832962185144424, -0.023531746119260788, -0.03851189836859703, 
0.06508202105760574, -0.07757938653230667, 0.18384131789207458, 0.014087753370404243, 0.010214254260063171, 0.04455338045954704, -0.19464072585105896, 
-0.01770080253481865, -0.19135911762714386, 0.06107679754495621, -0.0610433854162693, -0.04628223553299904, -0.06844564527273178, -0.08331439644098282, 
0.11119700223207474, -0.08838258683681488, -0.006504941266030073, -0.07735154032707214, -0.07587447762489319, -0.037443432956933975, 0.09690437465906143, 
-0.0808703675866127, 0.013528428971767426, 0.061059050261974335, -0.04014858603477478, -0.08917352557182312, 0.2088068723678589, 0.08999520540237427, 
-0.023064611479640007, -0.128205806016922, -0.004867572337388992, 0.20571711659431458, -0.04199319705367088, 0.011629564687609673, -0.13414838910102844, 
-0.06736832857131958, 0.003693473292514682, 0.07042309641838074, 0.011202975176274776, -0.12786506116390228, 0.022708384320139885, -0.09204806387424469, 
-0.04083757475018501, 0.052469346672296524, -0.03550151735544205, 0.039595406502485275, -0.027004308998584747, -0.08371856808662415, -0.14417698979377747, 
-0.09109305590391159, 0.034071266651153564, -0.02247166819870472, -0.0857352539896965, 0.09691689908504486, -0.23911833763122559, -0.023570092394948006, 
-0.02706328220665455, -0.057241566479206085, 0.00977229792624712, 0.11291179805994034, -0.12491930276155472, -0.008183767087757587, -0.07826583087444305, 
-0.04645451530814171, -0.06990855187177658, -0.11903552711009979, -0.02587234601378441, -0.10748864710330963, -0.02890610694885254, 0.026203447952866554, 
-0.11172130703926086, 0.00782762747257948, 0.08614017814397812, 0.05757656693458557, 0.07886500656604767, -0.03587110713124275, -0.0029639953281730413, 
0.001930423080921173, -0.09853221476078033, -0.09661367535591125, 0.03416543826460838, -0.09337235242128372, 0.1874234676361084, 0.06566920876502991, 
-0.09151563048362732, 0.08267829567193985, 0.13347399234771729, -0.009443630464375019, -0.08517245203256607, 0.11734126508235931, 0.04661290720105171, 
-0.030830465257167816, 0.07203243672847748, 0.06029508262872696, -0.184004545211792, 0.018861601129174232, -0.09903932362794876, 0.12216362357139587, 
0.07779370248317719, -0.022110890597105026, 0.10333481431007385, -0.030106328427791595, -0.0033111530356109142, 0.06584175676107407, -0.06498264521360397, 
-0.13765348494052887, 0.12674924731254578, -0.05596525967121124, 0.07385767251253128, -0.025466809049248695, -0.12695899605751038, 0.15617236495018005, 
0.20648334920406342, -0.08753267675638199, -0.03773815184831619, -0.03740306571125984, -0.018738366663455963, -0.1059550940990448, -0.007332201115787029, 
0.036499910056591034, 0.05631811544299126, 0.03809249773621559, 0.005989494733512402, 0.0006451284280046821, 0.05314970016479492, -0.0311018917709589, 
-0.18108712136745453, 0.11069877445697784, 0.010118150152266026, 0.025587482377886772, -0.28776463866233826, -0.040582235902547836, 0.0943831130862236, 
-0.08997692912817001, -0.01671944558620453, 0.01874852180480957, 0.12996268272399902, 0.18954971432685852, 0.07626008987426758, 0.16426967084407806, 
-0.03008391708135605, -0.019965188577771187, -0.005334245972335339, 0.04548930376768112, -0.13015270233154297, 0.15743756294250488, -0.039663683623075485, 
-0.0787387266755104, 0.04374723136425018, 0.07952169328927994, -0.07523776590824127, -0.14774881303310394, -0.11325571686029434, -0.0700925886631012, 
-0.1189635768532753, -0.07698192447423935, -0.027937954291701317, -0.014682757668197155, 0.024212051182985306, -0.10013585537672043, -0.02318660542368889, 
-0.021260561421513557, -0.009838338010013103, 0.17300240695476532, -0.12150704115629196, -0.0002614748664200306, 0.12578865885734558, 0.025797275826334953, 
0.0174320787191391, 0.12348537147045135, 0.07445724308490753, -0.0068399421870708466, 0.06950323283672333, -0.09574680030345917, -0.02745090425014496, 
-0.04483050853013992, -0.09022334218025208, 0.025776615366339684, 0.12057517468929291, -0.10517556220293045, 0.06439120322465897, -0.01866239309310913, 
-0.03677000105381012, 0.026079559698700905, -0.04680202528834343, -0.0038475499022752047, -0.07836803048849106, 0.23195381462574005, 0.025749491527676582, 
0.046919070184230804, 0.060391832143068314, 0.06739106774330139, 0.128968745470047, -0.034651536494493484, 0.0026979141402989626, 0.1111806258559227, 
-0.2168150097131729, -0.027050260454416275, -0.052176300436258316, 0.07414913177490234, -0.18834295868873596, 0.019194690510630608, -0.05332601070404053, 
-0.09426140040159225, -0.00785178691148758, 0.004270846024155617, -0.07324420660734177, -0.026905279606580734, -0.02216627262532711, -0.0867537334561348, 
0.06015016511082649, -0.008617608807981014, -0.038028817623853683, 0.008359168656170368, -0.005502752494066954, -0.051613885909318924, -0.06664147973060608, 
0.03246152028441429, 0.2584298551082611, 0.14943400025367737, 0.005380914080888033, -0.13841849565505981, 0.04274458810687065, 0.1530391424894333, 
-0.11010750383138657, 0.043127596378326416, 0.11958231776952744, 0.025107819586992264, -0.005459248088300228, -0.003922457806766033, -0.0978999137878418, 
0.016604727134108543, 0.0543295256793499, 0.06095130741596222, -0.00881233625113964, 0.06435303390026093, 0.04831412807106972, -0.07662858814001083, 
-0.1487678587436676, 0.02475529909133911, -0.08693069964647293, 0.09218994528055191, 0.04892934486269951, 0.05110799893736839, -0.004058425314724445, 
0.054095558822155, -0.036677584052085876, -0.177665114402771, 0.015502831898629665, 0.099070243537426, 0.0017230039229616523, -0.08703456819057465, 
-0.03839590400457382, 0.036086633801460266, -0.04693916440010071, -0.12313272058963776, -0.10307278484106064, -0.04339020326733589, 0.05869710445404053, 
-0.023258648812770844, -0.15013732016086578, -0.09558777511119843, -0.02363714389503002, 0.0442882664501667, -0.015735477209091187, 0.0404379740357399, 
-0.04049038514494896, -0.049764517694711685, -0.029776664450764656, -0.013777563348412514, 0.1038317009806633, 0.07300528138875961, 0.047960881143808365, 
-0.17066927254199982, -0.1429111659526825, -0.12775936722755432, 0.06773243844509125, -0.09874145686626434, -0.056875165551900864, -0.001240934943780303, 
-0.03198682889342308, -0.1452665776014328, 0.2543146312236786, 0.15406136214733124, -0.0427091047167778, -0.19728802144527435, -0.09196427464485168, 
0.07531451433897018, 0.019995396956801414, -0.09448318928480148, -0.07869391143321991, 0.06080938130617142, 0.05081109702587128, 0.05794037878513336, 
-0.03116282820701599, -0.09095339477062225, -0.05625566095113754, -0.1352013796567917, -0.06433232873678207, 0.0886896476149559, 0.01301281526684761, 
-0.09384377300739288, -0.0010124437976628542, -0.022655434906482697, -0.20514914393424988, 0.07541584223508835, 0.08239306509494781, -0.0427883043885231, 
-0.02430136315524578, 0.0314997173845768, -0.2150973677635193, -0.048299819231033325, -0.0632081851363182, -0.03516457602381706, -0.005586162209510803, 
0.10460628569126129, -0.07517434656620026, -0.07041818648576736, -0.022369859740138054, -0.07780125737190247, -0.1126757338643074, 0.015845678746700287, 
0.04816662520170212, -0.03994321450591087, -0.11565382033586502, 0.14180542528629303, -0.07860647886991501, 0.05567767098546028, 0.011562071740627289, 
0.043152693659067154, 0.08873482048511505, -0.16412556171417236, 0.06250160187482834, -0.06493299454450607, 0.037597041577100754, 0.045391350984573364, 
0.14343753457069397, 0.06122640520334244, 0.04841957613825798, -0.002989509841427207, 0.08723121881484985, 0.037987712770700455, 0.03255428746342659, 
-0.024660754948854446, 0.07608234137296677, -0.01071993913501501, 0.04718855768442154, -0.017783209681510925, -0.008517103269696236, -0.014748988673090935, 
0.12112701684236526, 0.06419408321380615, 0.001051349681802094, -0.00616409070789814, 0.07402952760457993, -0.09665734320878983, -0.020033834502100945, 
-0.008824913762509823, -0.014558035880327225, 0.06477000564336777, 0.007403936702758074, -0.11952701956033707, 0.08723585307598114, -0.03365735337138176, 
-0.05484623834490776, -0.07258256524801254, 0.07078102231025696, 0.1033744141459465, 0.10902360826730728, 0.14976921677589417, 0.13446734845638275, 
0.09514119476079941, -0.08164871484041214, -0.06967128813266754, 0.098148874938488, 0.026870135217905045, 0.10944647341966629, -0.05648608133196831, 
-0.13213130831718445, 0.0659952461719513, -0.04191962629556656, 0.055330611765384674, 0.002211563754826784, 0.02699427120387554, -0.020252561196684837, 
0.026894908398389816, 0.07874520123004913, 0.054179996252059937, 0.09836874157190323, 0.016874926164746284, 0.06361309438943863, 0.018210824579000473, 
0.0544489361345768, -0.02337295189499855, -0.030413618311285973, -0.08579837530851364, -0.1390276998281479, 0.08619371801614761, -0.013860268518328667, 
-0.029336579144001007, 0.01883598603308201, -0.055084098130464554, -0.06175719574093819, -0.02823661081492901, -0.09224556386470795, -0.01529013179242611, 
-0.05184679105877876, -0.00515414122492075, 0.09274131059646606, -0.08054739236831665, 0.2569675147533417, -0.10352813452482224, -0.049866676330566406, 
-0.1306919902563095, -0.035100020468235016, 0.21776968240737915, -0.046254683285951614, 0.07466666400432587, 0.02947898395359516, -0.0355893149971962, 
0.15841126441955566, 0.10514187812805176, -0.2001950442790985, -0.07354046404361725, -0.04720142483711243, -0.089056096971035, -0.031219225376844406, 
-0.0094689279794693, 0.004492313135415316, -0.18934595584869385, 0.04600556939840317, -0.048846326768398285, 0.050271183252334595, -0.1127098947763443, 
0.039368271827697754, -0.039053283631801605, -0.03232238441705704, -0.17623461782932281, -0.006234095897525549, 0.09593506902456284, 0.1657942831516266, 
0.06917919963598251, 0.005608489736914635, -0.011697732843458652, -0.13340944051742554, -0.01455087773501873, 0.09828723967075348, -0.023147257044911385, 
0.06992494314908981, 0.015927432104945183, -0.11398255079984665, -0.04600246250629425, 0.015108408406376839, -0.07706902176141739, -0.03736674040555954, 
-0.016601596027612686, 0.07165057212114334, 0.07709435373544693, 0.03239677846431732, 0.04429834708571434, -0.033702436834573746, -0.031387101858854294, 
0.004742100369185209, -0.0727110281586647, -0.05839984491467476, -0.06886997073888779, 0.002154586836695671, 0.024430645629763603, 0.02603793889284134, 
0.03001219965517521, -0.01689763367176056, -0.005686329212039709, 0.07224374264478683, -0.11854716390371323, 0.09040537476539612, 0.10791697353124619, 
0.04941043630242348, -0.05578158423304558, 0.029371151700615883, 0.11657159775495529, -0.016337770968675613, -0.017083175480365753, -0.04581563547253609, 
0.10702311247587204, 0.08498945087194443, 0.10122756659984589, -0.07296352833509445, 0.03641775995492935, -0.06333238631486893, -0.015093863941729069, 
-0.030911395326256752, 0.06334150582551956, 0.08549413830041885, -0.013666682876646519, 0.1604747176170349, 0.13174216449260712, -0.1457667499780655, 
0.06458933651447296, -0.007538685575127602, 0.03853432834148407, 0.049722541123628616, -0.059852875769138336, -0.05754886940121651, -0.04193077236413956, 
0.06505085527896881, -0.029080793261528015, -0.10383768379688263, -0.11623562127351761, -0.14978636801242828, -0.05466185510158539, 0.1350453794002533, 
-0.10524545609951019, -0.01933610811829567, 0.05968821421265602, 0.10343117266893387, -0.13522635400295258, -0.047421228140592575, -0.014748135581612587, 
-0.006439981982111931, 0.107863649725914, -0.030890299007296562, 0.06437425315380096, 0.048882655799388885, 0.03404134884476662, -0.013357116840779781, 
0.05756314843893051, -0.024211572483181953, -0.05464579537510872, 0.036581676453351974, 0.04790518060326576, 0.01595277711749077, 0.06752224266529083, 
-0.12609311938285828, 0.04129994288086891, 0.2274201512336731, -0.03632763400673866, 0.048974618315696716, 0.1588624119758606, -0.044900283217430115, 
-0.07181005924940109, -0.036202557384967804, 0.009875199757516384, -0.003435255726799369, -0.08360695093870163, -0.05746878311038017, -0.011040499433875084, 
0.023917602375149727, -0.08958417177200317, 0.07784605771303177, -0.11950291693210602, -0.1197386234998703, 0.1783141940832138, 0.05651631951332092, 
0.16826631128787994, 0.020328300073742867, -0.02927454560995102, 0.04283344745635986, -0.05083557590842247, -0.2061304897069931, -0.0853060781955719, 
0.05201328545808792, 0.09408114850521088, -0.18808314204216003, -0.03601551055908203, -0.1996026486158371, 0.05561384558677673, -0.031209515407681465, 
-0.15855832397937775, 0.054755374789237976, 0.09538824111223221, 0.05561447888612747, 0.010500099509954453, 0.13519155979156494, 0.007026259787380695, 
-0.12702269852161407, -0.029179155826568604, -0.18257728219032288, 0.0019425366772338748, -0.3319491147994995, -0.01965421251952648, -0.10259971767663956, 
-0.07181978970766068, -0.02727520279586315, -0.01004752703011036, 0.021183088421821594, 0.20774488151073456, -0.20291423797607422, -0.08638115227222443, 
0.009069276973605156, -0.1464349627494812, 0.07025780528783798, 0.026136793196201324, -0.17647835612297058, -0.13358257710933685, -0.08685283362865448, 
-0.03350197151303291, 0.06421637535095215, -0.06529660522937775, -0.06393582373857498, -0.11154346168041229, 0.03782859817147255, -0.024324560537934303, 
0.28746140003204346, 0.16236020624637604, -0.15332184731960297, -0.22638478875160217, 0.030246082693338394, 0.14735160768032074, -0.013502783142030239, 
0.023268770426511765, 0.006114259362220764, 0.06903322786092758, -0.02604430913925171, 0.149058535695076, -0.08929773420095444, -0.03630080074071884, 
0.08205848932266235, -0.13409464061260223, -0.06057748943567276, 0.1537211835384369, 0.1549004167318344, -0.008065542206168175, 0.09319975972175598, 
-0.06984108686447144, -0.27015963196754456, 0.0069330367259681225, -0.027594320476055145, 0.004759480711072683, 0.031974755227565765, 0.07031973451375961, 
-0.06574071943759918, -0.12280168384313583, -0.03216264396905899, 0.15106891095638275, 0.047324854880571365, -0.013005812652409077, -0.1182272881269455, 
-0.04420270770788193, 0.08441822975873947, -0.06458728015422821, -0.0983109325170517, -0.010506834834814072, 0.033564526587724686, -0.042859211564064026, 
-0.13664326071739197, -0.05231289193034172, 0.034057989716529846, 0.04441360756754875, -0.07673278450965881, 0.10969045758247375, 0.08331099152565002, 
-0.1286875158548355, 0.08938446640968323, 0.05150153115391731, -0.049612242728471756, 0.0022482378408312798, 0.1449020802974701, -0.14966236054897308, 
0.15357494354248047, -0.02581268735229969, 0.028947502374649048, 0.145516499876976, 0.042405277490615845, -0.031990714371204376, -0.054594215005636215, 
0.04675113409757614, -0.005019718315452337, -0.08707588911056519, 0.02344471402466297, -0.03118145652115345, -0.025659525766968727, -0.03324008733034134, 
0.11236810684204102, -0.1599532514810562, -0.01903480477631092, -0.06551630049943924, -0.13239094614982605, 0.03418958932161331, -0.08173404633998871, 
0.08609998226165771, -0.08848845958709717, 0.08024832606315613, 0.06986435502767563, 0.019679976627230644, 0.0064774323254823685, -0.2347337007522583, 
-0.09602545201778412, -0.11786983907222748, 4.5015149225946516e-05, 0.14734679460525513, 0.05490870401263237, 0.04418312758207321, -0.06850270926952362, 
0.11500769853591919, -0.07708755880594254, 0.12795276939868927, 0.09170614928007126, 0.07124315202236176, 0.03707699850201607, 0.06150946393609047, 
-0.03923776000738144, 0.021025847643613815, -0.032908614724874496, 0.1802188605070114, -0.18983937799930573, 0.04605018347501755, -0.04310717433691025, 
0.046711355447769165, -0.24087192118167877, 0.03149103745818138, 0.07865843921899796, 0.17317107319831848, 0.056160807609558105, -0.006191164720803499, 
-0.030103417113423347, 0.06806032359600067, 0.040243376046419144, -0.009981295093894005, -0.022596685215830803, 0.04806455597281456, -0.06943629682064056, 
0.07766567915678024, -0.19235722720623016, 0.0813845694065094, -0.13444654643535614, -0.04611077159643173, 0.1709231585264206, 0.10707163065671921, 
-0.06309986114501953, 0.1274281144142151, 0.15119075775146484, 0.07764822244644165, -0.025435855612158775, -0.2047661691904068, 0.038582704961299896, 
0.16946318745613098, -0.19281423091888428, 0.02832951955497265, 0.14504912495613098, -0.08509862422943115, 0.22506006062030792, 0.042691197246313095, 
-0.27418890595436096, -0.021915288642048836, -0.07767734676599503, -0.07062625885009766, 0.07529343664646149, 0.11140738427639008, 0.0785897970199585, 
-0.0690733939409256, 0.04170502722263336, 0.07509522140026093, 0.19793373346328735, 0.0417356938123703, 0.05206085741519928, -0.000615675759036094, 
0.07319766283035278, -0.14220497012138367, -0.05712663009762764, -0.018071061000227928, 0.1526746302843094, -0.20674243569374084, -0.12257955223321915, 
0.010362738743424416, -0.11398009210824966, 0.004797713365405798, 0.09239562600851059, -0.1202729120850563, 0.02257526107132435, -0.017734911292791367, 
-0.14714942872524261, -0.10958922654390335, 0.13048674166202545, -0.06344719231128693, -0.21809837222099304, 0.0015268377028405666, 0.13886089622974396, 
0.04352377727627754, -0.018561678007245064, 0.003753982251510024, 0.06063226982951164, -0.0017321492778137326, 0.2070140540599823, -0.04128599166870117, 
-0.025437133386731148, 0.05079956352710724, -0.030836600810289383, 0.07567843049764633, -0.1192387193441391, 0.03890899196267128, 0.07786759734153748, 
-0.01647796668112278, -0.0052349381148815155, -0.023809058591723442, 0.3248685300350189, 0.0822446197271347, -0.0025046118535101414, -0.08161236345767975, 
0.09119042009115219, 0.07247953861951828, -0.20933398604393005, 0.01689739152789116, 0.009565374813973904, 0.041054949164390564, -0.004730906803160906, 
0.020825613290071487, -0.10601498931646347, 0.16802826523780823, -0.09778286516666412, 0.03663041442632675, 0.08010320365428925, 0.11161071062088013, 
0.05005362629890442, 0.007168713957071304, -0.06256459653377533, 0.10045258700847626, -0.050707753747701645, 0.027416057884693146, -0.02915441058576107, 
0.05574464797973633, -0.13352848589420319, 0.100326769053936, -0.1536809355020523, -0.1731301099061966, 0.010988441295921803, 0.010796626098453999, 
-0.08274374157190323, -0.032066043466329575, -0.02112654224038124, -0.07737982273101807, -0.06739521771669388, -0.19305437803268433, -0.08986743539571762, 
-0.13676142692565918, -0.0839788019657135, -0.06809432059526443, -0.03185238316655159, -0.010444643907248974, 0.048301275819540024, -0.09516113251447678, 
-0.010924887843430042, 0.19533184170722961, -0.08768046647310257, 0.045690570026636124, -0.032547321170568466, -0.0927855521440506, 0.13543486595153809, 
-0.06334284693002701, -0.06225845217704773, -0.17968019843101501, -0.13357563316822052, 0.001676662708632648, 0.018086599186062813, 0.04022466763854027, 
0.1169310137629509, -0.03593984618782997, -0.13209238648414612, 0.19226640462875366, 0.07931486517190933, 0.11721942573785782, -0.01929827593266964, 
0.022445106878876686, -0.049035221338272095, -0.03241497278213501, -0.1614101380109787, 0.10820914804935455, -0.051262930035591125, -0.0016915970481932163, 
0.2404077798128128, -0.08915978670120239, -0.06475362181663513, -0.026670893654227257, -0.0676610991358757, -0.029149990528821945, 0.061766982078552246, 
-0.00241548428311944, 0.17506666481494904, -0.017453337088227272, -0.045858319848775864, -0.05940886214375496, 0.05609378591179848, 0.15000507235527039, 
-0.03625080734491348, -0.012330199591815472, -0.013337274082005024, -0.08470121771097183, 0.015670565888285637, 0.03617145121097565, 0.13360191881656647, 
-0.034137062728405, 0.05375427007675171, -0.0094603281468153, 0.107186459004879, -0.1436997503042221, 0.09465879201889038, -0.01560916006565094, 
-0.01408386416733265, -0.027174612507224083, -0.02341686375439167, -0.11203749477863312, 0.12144140899181366, -0.04725882411003113, -0.09982900321483612, 
0.027173245325684547, 0.09355434775352478, 0.03123629093170166, -0.046996694058179855, -0.0585707351565361, 0.07667512446641922, -0.10377717018127441, 
0.0679905116558075, -0.05410786718130112, -0.04040999338030815, 0.060405150055885315, 0.21096988022327423, 0.10405509918928146, -0.21605929732322693, 
0.11341949552297592, 0.034609999507665634, -0.17999093234539032, -0.23016774654388428, 0.1548437625169754, -0.17438973486423492, 0.0888521820306778, 
0.26267102360725403, 0.09424446523189545, -0.2492147535085678, -0.2229710817337036, -0.13894236087799072, 0.12781357765197754, 0.19133596122264862, 
-0.19732272624969482, 0.09078331291675568, -0.05462443456053734, 0.0953928604722023, 0.13043512403964996, 0.15327885746955872, -0.01831529289484024, 
0.2028665840625763, 0.04414711520075798, 0.057512279599905014, -0.11868926882743835, -0.13799920678138733, 0.20720480382442474, 0.17142675817012787, 
0.1184542328119278, -0.04354298859834671, 0.0794810801744461, -0.14835470914840698, -0.158460795879364, 0.04654034227132797, 0.0658000186085701, 
0.16572459042072296, 0.1866609901189804, 0.1889939308166504, -0.14460736513137817, 0.24552316963672638, -0.007914507761597633, -0.1245083138346672, 
0.019896691665053368, -0.07920947670936584, 0.03659811615943909, -0.10153103619813919, -0.19878269731998444, -0.043904244899749756, -0.21922984719276428, 
0.1952838897705078, -0.051255546510219574, 0.0031728900503367186, 0.2034342885017395, 0.040177665650844574, 0.31485751271247864, -0.18814045190811157, 
-0.11219686269760132, -0.1286863535642624, 0.2491132915019989, -0.015080218203365803, 0.10858780890703201, -0.03934711590409279, 0.043884873390197754, 
-0.06619308888912201, 0.019280312582850456, -0.024297920987010002, -0.005234877113252878, -0.054733291268348694, -0.061299391090869904, 0.24590905010700226, 
0.14489473402500153, -0.05405040457844734, -0.017803603783249855, 0.0027069649659097195, 0.21312808990478516, -0.12161307781934738, 0.051553983241319656, 
0.05611786991357803, 0.04984535276889801, 0.06501173973083496, 0.0446176677942276, -0.02889363095164299, 0.08193545788526535, 0.06897115707397461, 
-0.1349901705980301, 0.04671059176325798, 0.13511766493320465, 0.07925518602132797, 0.10103035718202591, -0.050647102296352386, -0.055080510675907135, 
-0.21088746190071106, 0.005528593435883522, -0.07865958660840988, 0.03323807939887047, 0.07465600222349167, 0.11855427920818329, -0.08516835421323776, 
-0.09688444435596466, 0.003520543687045574, -0.047522466629743576, -0.16799214482307434, -0.04830101877450943, -0.054192643612623215, -0.11853352189064026, 
-0.03125210851430893, -0.11917034536600113, -0.06810703128576279, -0.12779423594474792, 0.0918852761387825, -0.07909500598907471, -0.06359019130468369, 
0.03468169644474983, -0.11559268832206726, -0.07180187851190567, 0.0643877312541008, 0.0020876640919595957, 0.06843741238117218, -0.16052120923995972, 
0.08657333254814148, -0.08712249994277954, 0.07798980921506882, -0.036258768290281296, 0.011678404174745083, -0.08826038986444473, -0.10002842545509338, 
-0.053568191826343536, -0.01857679896056652, 0.06705735623836517, -0.04641322046518326, -0.20803610980510712, 0.018938690423965454, 0.15978556871414185, 
0.07769826799631119, -0.0009977249428629875, 0.0005100678536109626, -0.08828907459974289, 0.05116945132613182, -0.04694545269012451, -0.11034689098596573, 
0.20442789793014526, 0.08592338114976883, 0.15609604120254517, 0.10069786757230759, -0.024190859869122505, -0.34981420636177063, -0.07284341007471085, 
-0.03632562234997749, 0.09181734174489975, 0.02777852490544319, 0.1291026473045349, 0.24395108222961426, -0.1809469759464264, -0.04478180408477783, 
-0.08260288834571838, 0.062206149101257324, 0.013442128896713257, -0.17163239419460297, 0.06223214790225029, 0.06515674293041229, 0.06375523656606674, 
0.06527574360370636, 0.01823192834854126, 0.026544660329818726, 0.1391615867614746, 0.09687764197587967, -0.01034859474748373, 0.06788605451583862, 
-0.17359648644924164, -0.05956569314002991, -0.07044540345668793, -0.06319975852966309, -0.08902308344841003, -0.21161815524101257, 0.055522456765174866, 
0.0990125760436058, -0.09106458723545074, 0.09274803847074509, 0.17251932621002197, -0.019842198118567467, 0.058375366032123566, 0.04731209948658943, 
-0.02894568257033825, -0.0019288641633465886, -0.1437261551618576, 0.05038118734955788, -0.00423913961276412, -0.03637651354074478, -0.1053319126367569, 
0.00010040921915788203, -0.06349396705627441, 0.06164426729083061, -0.048886023461818695, 0.05548463016748428, -0.019316380843520164, -0.03959205001592636, 
0.05358031019568443, -0.05619887635111809, 0.045809194445610046, -0.02786848321557045, -0.08049477636814117, -0.0653829500079155, 0.007713979575783014, 
0.0794295072555542, -0.006981211248785257, -0.11650370806455612, -0.05987442657351494, -0.14594481885433197, -0.008506461046636105, 0.15264752507209778, 
0.08690459281206131, 0.05248764157295227, -0.04755569249391556, -0.07126487791538239, 0.01382463239133358, -0.16397498548030853, 0.11389949917793274, 
-0.024037159979343414, -0.01638820208609104, -0.05612367391586304, -0.18271546065807343, -0.0028851244132965803, 0.04757944494485855, -0.044037431478500366, 
0.1119815930724144, -0.02206600457429886, -0.06207960098981857, -0.04615246504545212, -0.06935589015483856, 0.0193196889013052, -0.06355910748243332, 
-0.10167156159877777, 0.06616656482219696, 0.012192037887871265, 0.10506892204284668, 0.09595496952533722, 0.018698938190937042, -0.041552409529685974, 
0.08760643750429153, -0.10043417662382126, 0.04245442897081375, 0.082353375852108, 0.05006779357790947, -0.0071150693111121655, 0.028346648439764977, 
0.08230676501989365, 0.10010070353746414, 0.013750660233199596, 0.022963732481002808, -0.03938377648591995, 0.03226989135146141, -0.014980228617787361, 
-0.02873714454472065, -0.031177757307887077, -0.05809567868709564, -0.07089079916477203, 0.05289969965815544, -0.013105473481118679, -0.0498669408261776, 
0.0028693079948425293, -0.019513852894306183, 0.2823355495929718, 0.13573133945465088, 0.014811073429882526, -0.2493160218000412, 0.09162019193172455, 
0.23528927564620972, 0.0020919027738273144, 0.03656947985291481, -0.06975740194320679, 0.07192641496658325, 0.11448346823453903, 0.10272601991891861, 
-0.09039955586194992, -0.06956753879785538, -0.02404535934329033, -0.09649034589529037, -0.035466019064188004, 0.08789121359586716, -0.08028748631477356, 
-0.06282011419534683, 0.04023227095603943, -0.12054986506700516, -0.11816161870956421, -0.13755492866039276, -0.012438100762665272, -0.0719401091337204, 
-0.04282158985733986, 0.034424472600221634, -0.1761542558670044, -0.10617922991514206, -0.0064075361005961895, 0.07773514837026596, -0.03565598279237747, 
-0.030772121623158455, -0.17422926425933838, -0.026365941390395164, 0.00341427163220942, -0.17130717635154724, 0.026710033416748047, -0.06652411818504333, 
-0.0009863994782790542, -0.11486306041479111, -0.07038290798664093, -0.05293547734618187, -0.13305506110191345, -0.06712320446968079, 0.07245975732803345, 
0.018894316628575325, 0.07234494388103485, -0.16732157766819, 0.04862518236041069, -0.10079067200422287, -0.10281118750572205, -0.08656838536262512, 
-0.04211968928575516, -0.03195934370160103, 0.027113813906908035, 0.02685115672647953, 0.1021621823310852, 0.09988383203744888, -0.14917683601379395, 
-0.027435025200247765, -0.05075632408261299, -0.23969602584838867, 0.01359060499817133, -0.04804050177335739, -0.004442244302481413, 0.1291196048259735, 
0.16032855212688446, -0.1882278472185135, -0.008633558638393879, -0.01858333870768547, -0.031521640717983246, -0.025631679221987724, -0.23200742900371552, 
-0.10360925644636154, 0.19340024888515472, 0.020337853580713272, -0.022418687120079994, -0.11772770434617996, 0.014883526600897312, -0.05969465523958206, 
-0.09120748192071915, 0.2690412402153015, 0.11336660385131836, 0.044243812561035156, -0.16282661259174347, 0.13985449075698853, 0.11016244441270828, 
-0.044257741421461105, 0.09870988875627518, -0.11491948366165161, -0.16944022476673126, -0.08784449100494385, -0.043106548488140106, 0.010244672186672688, 
-0.16633136570453644, -0.08627605438232422, -0.12354052066802979, -0.02238006517291069, 0.10560443997383118, 0.044809672981500626, 0.09070462733507156, 
0.08316773176193237, 0.4408149719238281, -0.05384710058569908, -0.1599767506122589, -0.04985267296433449, -0.01788608357310295, -0.11969953775405884, 
-0.16920723021030426, -0.08854273706674576, -0.06348143517971039, -0.12053713202476501, -0.001987226540222764, 0.14254947006702423, 0.07257623225450516, 
0.03653186932206154, 0.0319196842610836, 0.028956668451428413, 0.03926011174917221, 0.14187565445899963, -0.024716369807720184, 0.059463292360305786, 
-0.011978695169091225, 0.09077971428632736, 0.024736804887652397, 0.07112441956996918, -0.09978553652763367, 0.06658966839313507, 0.025801125913858414, 
-0.021186502650380135, -0.06743193417787552, -2.384863000770565e-05, -0.021007761359214783, 0.08233411610126495, 0.021015863865613937, -0.007128428667783737, 
0.13539713621139526, -0.14735588431358337, 0.04912910237908363, -0.028590334579348564, -0.06553550064563751, 0.006309506483376026, 0.02416560985147953, 
-0.003153298981487751, 0.017498161643743515, -0.02103915438055992, 0.07025901228189468, 0.0703406110405922, 0.14918217062950134, -0.030918190255761147, 
-0.04605227708816528, 0.0034816605038940907, 0.10638700425624847, -0.07067485898733139, -0.15182150900363922, -0.0007134146871976554, 0.07795359194278717, 
-0.08901575952768326, -0.024057960137724876, -0.0026610982604324818, 0.045052092522382736, -0.029844578355550766, 0.04237096384167671, -0.12845280766487122, 
0.14901620149612427, 0.030345333740115166, 0.02494858205318451, -0.036994725465774536, 0.07563024014234543, 0.007651872932910919, -0.11483971774578094, 
-0.01068821456283331, -0.006792410276830196, -0.05724571645259857, 0.04266885668039322, 0.04744262248277664, 0.02637999691069126, 0.07240967452526093, 
0.015311280265450478, -0.09788846224546432, 0.0750027671456337, 0.1118936762213707, -0.023146014660596848, -0.03137530758976936, 0.015401345677673817, 
0.05805312097072601, -0.09920027107000351, -0.018574325367808342, 0.05983259901404381, -0.21225066483020782, 0.2029585838317871, 0.07846461981534958, 
-0.06882474571466446, -0.13053405284881592, 0.0600319467484951, 0.1683393120765686, -0.0638759657740593, -0.052401524037122726, 0.02775159664452076, 
-0.09204548597335815, 0.06565959751605988, 0.23396652936935425, -0.1659470945596695, -0.014328637160360813, -0.05475117266178131, -0.09912308305501938, 
0.014277705922722816, -0.007370123639702797, -0.05993782356381416, 0.015289003029465675, 0.06675902754068375, 0.16236130893230438, 0.00535607198253274, 
-0.04691169410943985, 0.039631303399801254, 0.13831159472465515, -0.028582626953721046, -0.11695127189159393, -0.04575713351368904, 0.05831409618258476, 
0.12621550261974335, -0.047434259206056595, -0.07047589868307114, -0.021976839751005173, -0.10432001948356628, -0.019330671057105064, 0.151271253824234, 
0.026826731860637665, 0.03293876722455025, 0.00662224180996418, 0.2918638586997986, -0.13970936834812164, 0.09288741648197174, -0.04247800260782242, 
-0.06852303445339203, 0.0012504674959927797, 0.01854884810745716, 0.038847554475069046, 0.058968912810087204, -0.040763068944215775, 0.004995142109692097, 
0.06042439490556717, -0.010704806074500084, -0.08800042420625687, 0.1248706579208374, -0.06131646782159805, -0.06461399048566818, 0.010337095707654953, 
-0.024131236597895622, -0.142125204205513, 0.11467399448156357, -0.09045926481485367, 0.012179388664662838, 0.22941206395626068, -0.07727368921041489, 
-0.0761803686618805, -0.08619678020477295, 0.0005583215388469398, -0.011273574084043503, -0.033775243908166885, -0.01884760521352291, -0.013917184434831142, 
0.039561040699481964, 0.09812363982200623, 0.02715807780623436, -0.15205791592597961, -0.03657478466629982, 0.14997898042201996, -0.027085814625024796, 
0.1026490330696106, 0.046104833483695984, -0.047428667545318604, 0.041713036596775055, -0.21942876279354095, -0.09863192588090897, -0.1447041779756546, 
0.047520458698272705, 0.07011095434427261, -0.056093573570251465, -0.0611121766269207, -0.047883424907922745, -0.03471759706735611, -0.14685864746570587, 
0.07857772707939148, 0.03400520235300064, -0.07512073963880539, -0.036012277007102966, 0.0672249048948288, 0.028796695172786713, -0.006983470171689987, 
-0.06969234347343445, -0.09730976819992065, 0.03096804767847061, -0.11381585150957108, -0.23716916143894196, 0.07345647364854813, -0.0468754880130291, 
0.017095007002353668, -0.12605144083499908, 0.027065221220254898, 0.13073287904262543, -0.0017909456510096788, -0.030349647626280785, -0.07689911872148514, 
-0.028590165078639984, -0.11953757703304291, 0.10071154683828354, 0.054761018604040146, -0.056297264993190765, -0.013833749108016491, 0.02286113239824772, 
-0.11649954319000244, 0.06655120849609375, -0.06451551616191864, 0.08288493007421494, 0.05193989723920822, 0.04595419019460678, -0.14448542892932892, 
0.21604056656360626, -0.05859801545739174, -0.02950308844447136, 0.017890825867652893, -0.04289437457919121, 0.12372715771198273, 0.1369907557964325, 
0.008749442175030708, 0.02546589821577072, -0.009573942981660366, -0.022470828145742416, 0.2264648675918579, -0.03480855002999306, 0.09079237282276154, 
0.023050345480442047, 0.06008179485797882, -0.0536404550075531, -0.03361555188894272, -0.13262200355529785, -0.05990510433912277, -0.15408703684806824, 
0.05116719380021095, -0.011261860840022564, -0.06272292137145996, 0.002808433026075363, 0.048634983599185944, -0.037937019020318985, 0.12764094769954681, 
0.14863631129264832, 0.00042056007077917457, -0.0568348728120327, -0.0869736522436142, -0.062365882098674774, -0.09435639530420303, 0.018659541383385658, 
-0.09042737632989883, -0.0952075943350792, 0.10585922002792358, 0.006012233905494213, -0.007577599957585335, -0.08140622079372406, -0.022717520594596863, 
0.07947910577058792, 0.07303401082754135, 0.06394682824611664, 0.021002458408474922, 0.12050174921751022, 0.07631167769432068, 0.08265599608421326, 
-0.09343124181032181, 0.03502761572599411, -0.15587101876735687, -0.03756329044699669, 0.10593578964471817, -0.0988297238945961, -0.11911327391862869, 
0.08917487412691116, -0.07763728499412537, -0.017240464687347412, -0.07257061451673508, -0.059277184307575226, 0.12087796628475189, -0.044883303344249725, 
-0.186486154794693, 0.20085719227790833, 0.04873475432395935, 0.025489063933491707, -0.000731371808797121, -0.05497797951102257, 0.2896963357925415, 
0.007255487609654665, -0.07701744139194489, 0.0419815368950367, -0.10320710390806198, -0.11391592025756836, 0.22166766226291656, -0.01675371639430523, 
0.0024684241507202387, -0.033229805529117584, -0.042999837547540665, -0.05323871225118637, 0.004465159028768539, -0.11368003487586975, 0.07327952235937119, 
0.06648123264312744, 0.032489050179719925, 0.026747457683086395, -0.2543585002422333, 0.10311248153448105, 0.0022345841862261295, 0.04839223995804787, 
0.018601685762405396, -0.03516753390431404, 0.06562037020921707, 0.0691046193242073, 0.018246175721287727, -0.08448991924524307, -0.10551426559686661, 
-0.1195223405957222, 0.011628887616097927, 0.03248029574751854, 0.0689663290977478, 0.13441398739814758, -0.030949357897043228, 0.1416269987821579, 
-0.08467954397201538, 0.019637197256088257, 0.00040080546750687063, 0.07001876085996628, 0.10324401408433914, -0.004552899394184351, -0.0416133850812912, 
0.004889671690762043, -0.08653224259614944, -0.040739476680755615, 0.17085425555706024, -0.03648167848587036, 0.01345913391560316, 0.015158455818891525, 
-0.04020056501030922, -0.1219608262181282, -0.025456540286540985, -0.08319327980279922, 0.011404912918806076, -0.12562260031700134, -0.0140690878033638, 
0.07142266631126404, -0.1862991750240326, 0.25098901987075806, 0.06799706071615219, 0.005114125553518534, -0.056445054709911346, 0.08062199503183365, 
0.1876794397830963, -0.0809689313173294, -0.06904423236846924, 0.08178018033504486, -0.05370326712727547, 0.047323327511548996, 0.3269237279891968, 
-0.14486350119113922, -0.03999441862106323, 0.03188703581690788, -0.15944109857082367, 0.1355382204055786, 0.05978001281619072, -0.037402283400297165, 
-0.01584857515990734, 0.07686429470777512, 0.18787142634391785, 0.06292311102151871, 0.058179520070552826, 0.16810666024684906, 0.09345658123493195, 
0.059863824397325516, -0.12715616822242737, 0.16078604757785797, 0.1376354992389679, 0.150522381067276, 0.0894789919257164, -0.15990039706230164, 
-0.13898199796676636, -0.028795728459954262, -0.009405410848557949, 0.1709308624267578, -0.03793337941169739, 0.08156599849462509, -0.17876283824443817, 
0.23530451953411102, -0.1691119372844696, 0.21177412569522858, -0.045967791229486465, 0.06063857674598694, 0.06639596074819565, 0.06955938041210175, 
-0.001978356624022126, 0.10691715031862259, -0.06393563002347946, -0.032991379499435425, 0.06244999170303345, -0.035103876143693924, -0.07847084105014801, 
0.12166484445333481, 0.021130435168743134, 0.0009643053635954857, 0.002511814469471574, 0.04009341821074486, 0.017470790073275566, -0.06064698100090027, 
0.0013817070284858346, 0.0720800906419754, 0.038318879902362823, -0.07355819642543793, 0.06313416361808777, 0.07302368432283401, -0.015457368455827236, 
0.02491096593439579, -0.13391262292861938, 0.060865551233291626, -0.009913381189107895, -0.0358830988407135, 0.0769585371017456, -0.15017928183078766, 
-0.06685280799865723, 0.0947469174861908, 0.03719725459814072, 0.08654344081878662, -0.030601724982261658, -0.06796971708536148, -0.08603190630674362, 
-0.03642331808805466, 0.2324068248271942, 0.035950012505054474, 0.05348113551735878, 0.017703672870993614, 0.0135212242603302, 0.036238402128219604, 
0.053649406880140305, -0.08303432911634445, 0.019136225804686546, -0.09634435176849365, 0.016997529193758965, -0.06361674517393112, -0.02725452184677124, 
-0.020095404237508774, -0.110405832529068, 0.07131218910217285, 0.08109698444604874, 0.0223968755453825, 0.008615910075604916, 0.032057829201221466, 
-0.020993569865822792, 0.12522010505199432, 0.015324152074754238, -0.014457658864557743, 0.06517913937568665, -0.02049536630511284, -0.07701802998781204, 
-0.17438001930713654, -0.07466623932123184, -0.038968559354543686, 0.028242630884051323, -0.006832284852862358, 0.12081509828567505, 0.0072867185808718204, 
-0.03502744808793068, 0.10398881882429123, -0.06458214670419693, 0.08588219434022903, 0.04179082810878754, -0.0240146704018116, 0.1310296356678009, 
-0.029753927141427994, -0.0323159359395504, -0.03386802226305008, -0.04572629556059837, 0.11373942345380783, 0.02348502166569233, 0.027974970638751984, 
-0.17131055891513824, 0.02168956585228443, 0.07032664865255356, -0.1387632191181183, 0.032471317797899246, -0.09785100072622299, 0.01810084469616413, 
0.08623415976762772, -0.00030020801932550967, 0.015317273326218128, -0.06702406704425812, -0.01267442386597395, -0.06467819958925247, 0.031370118260383606, 
0.12053751200437546, 0.0848512351512909, -0.020210495218634605, -0.0027537161950021982, -0.06338176876306534, -0.13989649713039398, -0.0949367880821228, 
-0.11724173277616501, -0.07391785830259323, 0.009542606770992279, 0.1326764076948166, -0.14600421488285065, -0.14305151998996735, -0.009920625947415829, 
0.006272143684327602, -0.08636276423931122, -0.07726279646158218, -0.11769338697195053, -0.11523439735174179, 0.015913650393486023, -0.14638614654541016, 
-0.026904577389359474, 0.08158037066459656, 0.1106516569852829, -0.08986860513687134, -0.0727589949965477, -0.039965417236089706, -0.022812992334365845, 
-0.10061628371477127, 0.03380260244011879, 0.07103952765464783, 0.030065834522247314, 0.06003947556018829, 0.032198671251535416, 0.02260657586157322, 
-0.004412594251334667, 0.004537730012089014, -0.04431777074933052, -0.05138682574033737, -0.07280083000659943, -0.003938088659197092, 0.06098978593945503, 
-0.06610532850027084, -0.005473033990710974, 0.05798923224210739, -0.08333582431077957, -0.05784739553928375, 0.3014087975025177, 0.038090091198682785, 
0.029569348320364952, -0.10874711722135544, 0.08597810566425323, 0.18180041015148163, -0.049133043736219406, 0.08619672805070877, -0.019000617787241936, 
0.04788927733898163, 0.013292626477777958, 0.08782391995191574, -0.12209475785493851, 0.02478816546499729, 0.01549096591770649, 0.015479929745197296, 
0.033838775008916855, -0.01761775091290474, 0.06733725965023041, -0.03910248726606369, 0.054353661835193634, -0.026020312681794167, -0.14161887764930725, 
-0.031965017318725586, 0.10695943236351013, 0.0594942606985569, -0.07116672396659851, -0.01761339046061039, -0.1514492630958557, -0.018360033631324768, 
-0.0704287514090538, 0.08730717748403549, 0.03351891040802002, -0.002179668052121997, -0.04332944378256798, -0.13950352370738983, -0.023012395948171616, 
-0.18983544409275055, 0.012728765606880188, -0.030519237741827965, 0.06081428378820419, 0.0033486378379166126, 0.03613636642694473, -0.039534036070108414, 
-0.04312071576714516, -0.09750508517026901, -0.05305130407214165, -0.019923564046621323, -0.07840720564126968, -0.10533332079648972, -0.003390392754226923, 
0.034286897629499435, -0.0773351714015007, -0.041224852204322815, 0.05188564583659172, -0.08520737290382385, 0.11656054109334946, 0.11395025998353958, 
-0.04374910891056061, 0.0484161376953125, 0.1381887048482895, 0.09697218984365463, -0.09245416522026062, 0.08906829357147217, -0.03501143306493759, 
-0.019711624830961227, 0.05891628935933113, 0.1401081085205078, 0.05662136152386665, -0.15129321813583374, -0.0502028726041317, 0.08405731618404388, 
-0.03865585848689079, -0.10813797265291214, -0.009815821424126625, -0.11943501979112625, 0.033087436109781265, 0.0586189329624176, -0.071689173579216, 
-0.0034196835476905107, 0.1329493373632431, -0.06365185976028442, -0.10299745202064514, -0.12437359988689423, 0.08218266069889069, -0.039556171745061874, 
0.15676629543304443, 0.15081773698329926, 0.04728192090988159, 0.0424281507730484, 0.05081476643681526, -0.0523793026804924, 0.1607332080602646, 
0.01601780764758587, -0.029432160779833794, 0.15482167899608612, -0.04131636023521423, -0.02113804593682289, 0.004520157352089882, 0.07820535451173782, 
0.014861585572361946, -0.04414142295718193, 0.10434655845165253, -0.00047699897550046444, 0.020561091601848602, -0.11498276144266129, 0.031692080199718475, 
-0.01041458174586296, 0.0038563725538551807, -0.06119379773736, 0.09539755433797836, 0.12139395624399185, 0.04028044268488884, 0.02391766384243965, 
0.03206079080700874, 0.03581516444683075, -0.0013421615585684776, 0.031208721920847893, 0.057776421308517456, 0.0916130542755127, 0.04009750485420227, 
-0.016292298212647438, -0.046300601214170456, -0.08832073956727982, 0.0533352755010128, -0.08345282822847366, -0.016223421320319176, 0.010809273459017277, 
0.25408297777175903, 0.05903958901762962, -0.0009646492544561625, -0.01377225574105978, -0.04507224261760712, 0.12954770028591156, -0.18255221843719482, 
0.09704582393169403, 0.2248956710100174, -0.0296799223870039, 0.13761307299137115, 0.07450566440820694, -0.12363976985216141, 0.12557752430438995, 
-0.11481522768735886, 0.032257452607154846, 0.10078377276659012, 0.10501208156347275, 0.05755544453859329, -0.08053454756736755, -0.23379379510879517, 
0.14679104089736938, 0.16648027300834656, -0.09289056062698364, -0.13166603446006775, 0.1862284541130066, -0.043573495000600815, 0.19345644116401672, 
-0.19209825992584229, -0.10154972225427628, -0.005312726832926273, 0.046977367252111435, -0.10236040502786636, -0.04084990918636322, -0.11958277225494385, 
0.017965450882911682, -0.21438270807266235, -0.14516185224056244, -0.19953085482120514, -0.13445807993412018, -0.1398967206478119, -0.05440676584839821, 
-0.07353391498327255, 0.06875039637088776, 0.014350134879350662, -0.006809634156525135, 0.17580841481685638, 0.2421049326658249, -0.09206032007932663, 
-0.16855281591415405, -0.22444671392440796, -0.23321613669395447, -0.017692741006612778, -0.07004015892744064, -0.056188106536865234, -0.15125715732574463, 
0.01628103479743004, 0.07642155885696411, -0.14037877321243286, -0.11729001998901367, 0.14021515846252441, 0.01208872627466917, 0.034059975296258926, 
0.1906869262456894, -0.21332193911075592, -0.12232678383588791, -0.0542147271335125, -0.07205883413553238, 0.01304088905453682, -0.1890188604593277, 
-0.14493001997470856, 0.04491784796118736, 0.015106375329196453, -0.07209303975105286, -0.04429672658443451, -0.2947227358818054, 0.10198564827442169, 
0.14549872279167175, 0.06406237185001373, 0.11099374294281006, 0.0476878359913826, -0.010208605788648129, 0.022852886468172073, 0.15104137361049652, 
-0.10620710998773575, 0.08374743908643723, 0.06944627314805984, -0.29088515043258667, -0.1587028056383133, -0.05221329629421234, -0.0744699239730835, 
0.13398891687393188, -0.0800280049443245, -0.12976901233196259, 0.06562069803476334, -0.21553947031497955, 0.04901812970638275, -0.06883584707975388, 
0.16294538974761963, -0.018671497702598572, -0.1167164221405983, -0.0681246891617775, 0.005343582481145859, -0.17772071063518524, -0.0778082087635994, 
-0.005190987605601549, 0.11140219122171402, -0.13201318681240082, -0.011014803312718868, -0.09112478792667389, 0.014300723560154438, 0.013434307649731636, 
-0.06743525713682175, 0.05112088844180107, -0.04945560172200203, -0.052603285759687424, 0.09455361217260361, 0.04035249352455139, -0.04500945657491684, 
-0.043955571949481964, 0.09563492983579636, 0.06450901180505753, 0.1709972470998764, 0.0009425003081560135, 0.30281296372413635, -0.07494848966598511, 
0.11487945914268494, 0.30410587787628174, -0.18240711092948914, -0.029229817911982536, -0.16059215366840363, -0.027606988325715065, -0.06708880513906479, 
-0.041295651346445084, 0.08550992608070374, -0.22490963339805603, 0.10548771172761917, -0.21711215376853943, -0.16568836569786072, -0.12851421535015106, 
0.18456867337226868, 0.11964429169893265, -0.1393096148967743, 0.062264133244752884, 0.02243068628013134, -0.1232854500412941, -0.2256937026977539, 
-0.07698697596788406, -0.0950763151049614, 0.0398859940469265, 0.1158863827586174, -0.1498868465423584, -0.10245732963085175, 0.0467502661049366, 
-0.3514811396598816, 0.21252024173736572, -0.09143725782632828, -0.05330033227801323, -0.07072345912456512, -0.1702650636434555, 0.053317490965127945, 
-0.160686656832695, 0.17416250705718994, 0.13936997950077057, -0.24814468622207642, 0.0702577531337738, -0.31517940759658813, -0.047616466879844666, 
-0.23446312546730042, 0.19498685002326965, -0.21498505771160126, 0.07917618751525879, 0.17109152674674988, 0.08842097222805023, 0.009632810950279236, 
-0.013618504628539085, -0.06220061704516411, -0.0070615289732813835, 0.03591170907020569, -0.035545334219932556, 0.053826648741960526, 0.13756297528743744, 
-0.2511102855205536, -0.052715964615345, -0.03652951493859291, 0.016075143590569496, -0.06933149695396423, 0.14067059755325317, -0.04407181963324547, 
-0.05738404765725136, -0.09042259305715561, -0.09464536607265472, 0.05871111899614334, 0.061155594885349274, -0.014050805941224098, -0.1301824152469635, 
0.015084409154951572, 0.019092982634902, 0.08744093775749207, 0.013520210050046444, 0.11408337205648422, -0.07454358041286469, 0.10466975718736649, 
0.010252653621137142, -0.0017499629175290465, 0.006427500396966934, -0.005544878076761961, 0.09843987971544266, 0.04180975258350372, 0.13746733963489532, 
-0.008750374428927898, 0.04119150713086128, -0.03996872901916504, 0.042024534195661545, -0.010921135544776917, 0.10294158011674881, 0.013722156174480915, 
0.013627391308546066, -0.004615588113665581, -0.08223989605903625, -0.063522107899189, -0.03587198629975319, -0.0024128758814185858, 0.010620992630720139, 
-0.05148452892899513, -0.028637735173106194, 0.091116763651371, -0.07614988088607788, -0.11416617035865784, -0.02723480947315693, -0.06739433109760284, 
0.05804523825645447, 0.03775905817747116, 0.02314050681889057, -0.04797019064426422, -0.029656948521733284, 0.14476856589317322, -0.009204923175275326, 
-0.13547584414482117, 0.0268626119941473, -0.057733528316020966, -0.03442290797829628, -0.010831653140485287, -0.07121770828962326, 0.002631476614624262, 
-0.024452246725559235, 0.06022728979587555, 0.018277667462825775, 0.01898418553173542, -0.05045681819319725, -0.05590551719069481, -0.047790609300136566, 
0.04803546145558357, 0.01717807725071907, 0.0011203561443835497, -0.019103307276964188, 0.22917701303958893, 0.022920353338122368, -0.025152333080768585, 
-0.06381165981292725, 0.057165712118148804, 0.21158812940120697, -0.03574202209711075, -0.04464628919959068, 0.020695803686976433, -0.014394952915608883, 
0.07608198374509811, 0.02618289366364479, -0.15522320568561554, -0.12295947223901749, 0.019235452637076378, -0.009933268651366234, -0.00306134345009923, 
0.1000630334019661, 0.08552368730306625, -0.24224568903446198, 0.07952257990837097, 0.06000620126724243, 0.12911245226860046, 0.026416216045618057, 
0.012106799520552158, 0.01687692292034626, 0.028257686644792557, 0.005372804123908281, 0.04650038108229637, 0.0169658325612545, 0.12876898050308228, 
-0.09991098195314407, -0.07159813493490219, 0.012854930944740772, -0.1144419014453888, 0.0895063728094101, 0.07933206856250763, -0.13265901803970337, 
0.017438285052776337, -0.039834413677453995, -0.06696579605340958, -0.050776172429323196, -0.041313737630844116, 0.0727674663066864, 0.04595864191651344, 
0.10023041814565659, 0.234150692820549, 0.12826868891716003, 0.1221771389245987, -0.0017515993677079678, -0.024801764637231827, -0.02949129231274128, 
0.043299783021211624, -0.02410714514553547, -0.030493345111608505, 0.013077020645141602, 0.018490014597773552, -0.08223503828048706, -0.014676881954073906, 
-0.10640279948711395, 0.01769234798848629, 0.09762472659349442, 0.15524804592132568, -0.07979975640773773, 0.16018041968345642, 0.06406939029693604, 
-0.08573351800441742, -0.058746568858623505, 0.08435597270727158, 0.30719757080078125, -0.05911153927445412, 0.017124570906162262, 0.06845948845148087, 
0.02034507319331169, 0.07756241410970688, 0.1865362524986267, -0.04315977543592453, 0.061708737164735794, -0.06677982956171036, -0.0038296054117381573, 
0.059467870742082596, -0.016958627849817276, -0.08268324285745621, 0.02976198121905327, -0.12630552053451538, 0.05780591070652008, -0.03301367908716202, 
-0.13722892105579376, 0.08037988096475601, 0.08066730946302414, -0.16403666138648987, 0.11218956857919693, -0.015241757035255432, -0.2192499190568924, 
0.06120896339416504, 0.009027082473039627, -0.09345927834510803, -0.021753964945673943, -0.08166291564702988, 0.07559724897146225, -0.037558216601610184, 
-0.144521564245224, -0.14325998723506927, -0.15720325708389282, -0.07976794987916946, 0.011139953508973122, -0.03312622010707855, -0.003819603007286787, 
-0.0012414326192811131, 0.061161741614341736, 0.0836809054017067, 0.173211008310318, -0.10398944467306137, -0.22799421846866608, -0.23884990811347961, 
-0.17016758024692535, 0.004091589245945215, -0.08507739752531052, -0.1572127491235733, -0.05799226835370064, -0.14207090437412262, -0.11580498516559601, 
0.027168292552232742, 0.03961396962404251, 0.04131881147623062, 0.20026880502700806, 0.2569149136543274, -0.04161544144153595, 0.10655663907527924, 
-0.049071960151195526, -0.1587980091571808, 0.26288938522338867, 0.11577598750591278, 0.06498897075653076, 0.03735513240098953, 0.005341494921594858, 
0.1385287642478943, 0.08127859979867935, 0.10752633213996887, 0.08991341292858124, 0.04728027433156967, 0.0962229073047638, -0.08418432623147964, 
-0.14305207133293152, 0.11776486039161682, 0.032729946076869965, -0.0740867480635643, 0.04696563631296158, -0.07761479914188385, 0.18024112284183502, 
-0.10132316499948502, -0.04459283500909805, -0.08462376147508621, 0.1583971083164215, 0.0675806924700737, 0.2334485501050949, 0.09620453417301178, 
-0.13368602097034454, -0.1971769481897354, 0.04617425054311752, -0.13399983942508698, 0.05804375186562538, -0.17250145971775055, 0.01063371542841196, 
0.06691553443670273, 0.004296034574508667, -0.030967164784669876, -0.05734042450785637, -0.12972159683704376, 0.19657889008522034, 0.13225142657756805, 
0.1521010398864746, -0.10553038120269775, 0.08211024105548859, 0.013451796025037766, 0.13442593812942505, 0.05498455464839935, -0.292653888463974, 
-0.22638185322284698, -0.18419581651687622, 0.02482554316520691, -0.14966639876365662, -0.09451808780431747, -0.08088923990726471, 0.024272775277495384, 
0.08170919865369797, -0.001092321122996509, 0.103023461997509, -0.058182746171951294, 0.010637755505740643, -0.01648816652595997, -0.057742148637771606, 
0.19063471257686615, 0.018101220950484276, -0.018781650811433792, -0.15401451289653778, 0.09174846857786179, 0.11720751225948334, -0.07689624279737473, 
-0.0035839173942804337, -0.013747211545705795, 0.05432743951678276, 0.10351777821779251, 0.04521985352039337, -0.09823167324066162, 0.10143554955720901, 
-0.04038963094353676, 0.03637276962399483, 0.03704959526658058, 0.11685369908809662, -0.0025493924040347338, 0.027935007587075233, -0.10091792047023773, 
0.12067708373069763, -0.1641034632921219, -0.07692843675613403, 0.01713639684021473, 0.03817190229892731, 0.03101343661546707, 0.1124393567442894, 
-0.2342473417520523, -0.10424298048019409, -0.07376758009195328, 0.11096237599849701, -0.050603073090314865, -0.06351098418235779, -0.0666627287864685, 
-0.07460297644138336, -0.03774584084749222, -0.18129044771194458, -0.05499471351504326, -0.12393674999475479, -0.04101242870092392, -0.04946393519639969, 
0.01214524544775486, -0.06596780568361282, 0.028787674382328987, -0.07302828878164291, 0.018976954743266106, -0.004381966311484575, 0.02024427428841591, 
0.06343259662389755, 0.06642753630876541, -0.07639803737401962, -0.0599839985370636, -0.04194306209683418, 0.03389288857579231, -0.08507290482521057, 
0.025421179831027985, -0.1978071630001068, -0.024561937898397446, -0.015901032835245132, -0.05202966555953026, -0.02010994218289852, 0.01628130115568638, 
-0.1774478554725647, 0.21171937882900238, 0.056481122970581055, -0.0939241349697113, -0.17031513154506683, 0.0706525593996048, 0.028784405440092087, 
0.02593543753027916, -0.05548752099275589, -0.12019984424114227, 0.1269969493150711, -0.04084574058651924, 0.15045218169689178, -0.03348458185791969, 
-0.026601796969771385, -0.08211363106966019, -0.048390910029411316, 0.03095853328704834, 0.07359164953231812, 0.02677668072283268, 0.030319835990667343, 
0.005811127368360758, -0.1150813177227974, -0.07626032829284668, 0.01905139721930027, -0.005489605478942394, -0.06643666326999664, 0.03773842006921768, 
0.04275107383728027, -0.20467878878116608, 0.03887154161930084, -0.0693705677986145, 0.07054977864027023, -0.001712783589027822, -0.078868567943573, 
-0.13687081634998322, -0.019373780116438866, 0.1317797750234604, 0.04061314836144447, -0.060587186366319656, 0.03082428127527237, 0.0980042815208435, 
-0.023915966972708702, -0.06766528636217117, 0.056177765130996704, -0.06521949172019958, 0.060588184744119644, 0.04648071527481079, 0.08143960684537888, 
0.13617631793022156, -0.12451605498790741, 0.046950165182352066, -0.06938934326171875, 0.03465479984879494, 0.04141702502965927, 0.06206744536757469, 
0.05692509189248085, -0.08416198194026947, 0.005643600132316351, 0.016629282385110855, -0.05815491825342178, -0.052357275038957596, 0.039181068539619446, 
-0.07214730978012085, -0.028186708688735962, 0.2796972393989563, 0.05475423112511635, -0.027166347950696945, -0.1702364981174469, 0.050959326326847076, 
0.1702049970626831, -0.036423228681087494, 0.022001681849360466, -0.06963010877370834, -0.03274516761302948, 0.03677266091108322, 0.09335321187973022, 
-0.1458658128976822, -0.05336247384548187, -0.005134419538080692, -0.02282644622027874, 0.048307403922080994, 0.09306574612855911, 0.09463761746883392, 
-0.03904206305742264, 0.06803441047668457, 0.05333845317363739, -0.15550051629543304, 0.11590012162923813, 0.057291239500045776, 0.10977673530578613, 
0.07254550606012344, -0.1046258956193924, -0.08174708485603333, -0.07319777458906174, -0.10051015764474869, -0.017015857622027397, -0.00584660517051816, 
-0.13103839755058289, -0.10096839815378189, 0.014674023725092411, 0.135493203997612, -0.13984869420528412, -0.09566722065210342, -0.019561104476451874, 
0.09109574556350708, -0.1646042913198471, -0.004083640407770872, -0.056983791291713715, 0.01166929118335247, 0.009212343953549862, -0.05603519082069397, 
-0.01868731901049614, -0.03319280222058296, -0.010637817904353142, -0.0655575841665268, -0.0527418851852417, -0.0861964151263237, 0.045332033187150955, 
0.030040938407182693, 0.010227296501398087, 0.13470187783241272, 0.0886450782418251, -0.0516190268099308, 0.050186436623334885, 0.12340990453958511, 
-0.02220221422612667, 0.056565262377262115, -0.02907128818333149, 0.05113564059138298, 0.08182863891124725, -0.07115621864795685, -0.038317274302244186, 
-0.06175396963953972, 0.06724076718091965, -0.05348294600844383, -0.033514562994241714, 0.18263983726501465, -0.1296570897102356, 0.08469665795564651, 
0.039161283522844315, -0.10308844596147537, 0.08576922863721848, -0.08131379634141922, 0.1101166158914566, 0.12272477149963379, 0.07198956608772278, 
0.0962449237704277, 0.0027509210631251335, -0.07695232331752777, 0.20705080032348633, 0.10768347233533859, 0.14476247131824493, -0.13800150156021118, 
0.13469676673412323, -0.15642528235912323, -0.003485201159492135, -0.1679295152425766, -0.04754450172185898, 0.11064454913139343, 0.04798741638660431, 
-0.05775483697652817, 0.08579877018928528, -0.0030840677209198475, -0.006118373479694128, -0.2757454812526703, -0.0944143533706665, -0.2128438800573349, 
-0.2121424525976181, -0.25263819098472595, -0.019965743646025658, -0.12493037432432175, -0.07998747378587723, 0.1355324685573578, 0.027425842359662056, 
0.14635130763053894, 0.1844206005334854, 0.0025164340622723103, -0.05619489401578903, -0.26688075065612793, -0.2427879422903061, 0.09292589873075485, 
0.14548742771148682, 0.0027462863363325596, -0.2504309117794037, -0.005723630078136921, 0.004029227886348963, 0.03425266966223717, 0.0566788911819458, 
-0.12937724590301514, -0.01587880402803421, -0.06560779362916946, -0.08295195549726486, 0.21049512922763824, 0.06738653033971786, -0.07721749693155289, 
-0.15213443338871002, 0.09689376503229141, 0.1203138530254364, -0.026659194380044937, -0.08087071031332016, -0.017807383090257645, 0.040963225066661835, 
0.03618412837386131, 0.04737241193652153, 0.019512081518769264, 0.058247219771146774, 0.019359203055500984, -0.05930319055914879, 0.1014808714389801, 
0.06832405179738998, 0.09333791583776474, -0.08859214931726456, -0.04273170977830887, 0.03324105218052864, -0.24805407226085663, 0.024111604318022728, 
0.05749142915010452, 0.05292097479104996, 0.11426308006048203, 0.07407883554697037, -0.13930349051952362, -0.04192997142672539, -0.08789537101984024, 
-0.010630562901496887, -0.035982824862003326, 0.02904479019343853, -0.03397418558597565, 0.012622200883924961, 0.051051102578639984, 0.0482502281665802, 
0.04367010295391083, 0.04158167168498039, 0.09721794724464417, -0.1128159686923027, -0.1289062350988388, -0.037554193288087845, -0.10446768254041672, 
0.0077449181117117405, 0.027835343033075333, -0.014306224882602692, 0.09316128492355347, -0.11997230350971222, 0.05244098976254463, 0.034897662699222565, 
0.05707012489438057, -0.0608363039791584, 0.03217671066522598, -0.04284103959798813, 0.029309436678886414, 0.1901540458202362, -0.21911801397800446, 
-0.07886909693479538, -0.11259966343641281, -0.03318436071276665, -0.0582975335419178, 0.07300206273794174, 0.03871346637606621, 0.1418398916721344, 
0.01655934378504753, -0.02584693394601345, -0.05226892605423927, 0.02919895015656948, -0.11340620368719101, 0.09634709358215332, 0.11439387500286102, 
0.048518773168325424, 0.1258583664894104, 0.05942828953266144, -0.18371739983558655, -0.057346027344465256, -0.037564270198345184, -0.05328163877129555, 
0.0668422132730484, 0.12840153276920319, 0.20098388195037842, -0.026875749230384827, 0.04135563597083092, -0.002162650227546692, 0.0053201476112008095, 
0.0853220596909523, 0.0265794824808836, 0.09840893000364304, -0.031194202601909637, -0.16915403306484222, -0.007318546529859304, 0.1144065111875534, 
0.049040235579013824, 0.0014870306476950645, -0.04690620303153992, -0.021746285259723663, 0.09393429756164551, -0.06650421023368835, 0.06574007123708725, 
-0.13757182657718658, -0.033506277948617935, 0.02578255534172058, -0.012860661372542381, -0.17627693712711334, 0.17644594609737396, -0.049167271703481674, 
-0.130111962556839, 0.02096661739051342, 0.059884581714868546, -0.048924677073955536, 0.025891244411468506, 0.06200890243053436, 0.07874404639005661, 
-0.04259347915649414, 0.10170803219079971, -0.027334146201610565, 0.04247443005442619, -0.043953537940979004, 0.007404558826237917, -0.08199435472488403, 
0.06739269942045212, -0.10399918258190155, -0.0339130163192749, 0.07312218844890594, 0.04521476849913597, 0.09042993187904358, -0.058463774621486664, 
0.0646996945142746, -0.022688917815685272, -0.026704998686909676, 0.09861920028924942, 0.01693977229297161, -0.017022892832756042, -0.008735058829188347, 
-0.11598361283540726, -0.06960514932870865, 0.025476202368736267, -0.03961435332894325, 0.1938384771347046, -0.13519226014614105, -0.09273221343755722, 
-0.05232301726937294, -0.09854182600975037, -0.060984574258327484, -0.2556683123111725, 0.105996273458004, -0.022638991475105286, 0.07315318286418915, 
0.05591451749205589, -0.4211413860321045, -0.058069996535778046, -0.1202121376991272, 0.10328847914934158, 0.07214920222759247, -0.14610347151756287, 
-0.08311830461025238, 0.020426928997039795, -0.03333984687924385, -0.06207726523280144, -0.02149200066924095, -0.07540353387594223, 0.017103390768170357, 
0.04799169301986694, -0.015546130947768688, 0.1292789727449417, 0.1418553739786148, 0.09607051312923431, 0.008434870280325413, -0.022611062973737717, 
0.06716133654117584, 0.054442718625068665, 0.1280193030834198, 0.04284171760082245, -0.08455101400613785, 0.08000997453927994, -0.074000783264637, 
-0.02958809770643711, 0.08133907616138458, -0.0006201269570738077, -0.12644973397254944, -0.010605958290398121, 0.04840310290455818, 0.01794459857046604, 
0.02944932132959366, 0.07765763252973557, -0.016255483031272888, -0.03848021849989891, 0.02413836680352688, -0.10745665431022644, -0.02745307981967926, 
0.15589706599712372, -0.05474521964788437, -0.04926484450697899, -0.021431349217891693, 0.06079167127609253, -0.020143363624811172, 0.0169315654784441, 
-0.06620370596647263, -0.05608036741614342, -0.0492236390709877, 0.04214293137192726, 0.003634038148447871, 0.06015627831220627, 0.08726905286312103, 
-0.10411226749420166, 0.005704270675778389, -0.0211349930614233, 0.04247549921274185, 0.09402810037136078, -0.07544989138841629, -0.11516758799552917, 
-0.0664929449558258, -0.050684571266174316, -0.06981977075338364, -0.010526432655751705, -0.10468973964452744, 0.011610587127506733, 0.062291450798511505, 
-0.07885251939296722, -0.04722701758146286, 0.031245680525898933, 0.032580841332674026, 0.14755144715309143, 0.01298072561621666, -0.07639975100755692, 
-0.01797705888748169, -0.01835804246366024, -0.032085154205560684, -0.023408574983477592, -0.06626609712839127, -0.10727912187576294, 0.02653360180556774, 
-0.07224911451339722, -0.010675112716853619, 0.002012444194406271, -0.04654126614332199, -0.14547792077064514, 0.07639617472887039, 0.0374080091714859, 
-0.05013897269964218, -0.08039506524801254, -0.0047285002656280994, -0.05000998452305794, -0.0658496767282486, 0.01846623234450817, -0.03087741881608963, 
0.01415033359080553, 0.04420808330178261, -0.12063523381948471, 0.042853109538555145, 0.1425129473209381, -0.0006785952136851847, 0.216542050242424, 
0.10978752374649048, 0.29052188992500305, 0.2157151997089386, -0.09393367916345596, -0.09757648408412933, 0.12724687159061432, 0.18188102543354034, 
-0.003895987058058381, -0.03747204318642616, 0.209364652633667, -0.047176260501146317, 0.12634801864624023, 0.07226260751485825, 0.04275069385766983, 
0.1470821648836136, -0.10450219362974167, -0.04885737970471382, -0.0013126143021509051, 0.1289992779493332, -0.12077633291482925, -0.040300965309143066, 
-0.06725824624300003, 0.21470744907855988, 0.19729527831077576, 0.018877798691391945, -0.10959017276763916, 0.12180458009243011, -0.11035340279340744, 
0.2558160424232483, -0.11508718132972717, -0.1448173075914383, 0.06782163679599762, 0.013814837671816349, -0.020325737074017525, -0.17406445741653442, 
0.05012504383921623, 0.031011806800961494, -0.19182085990905762, -0.009093419648706913, -0.165934219956398, -0.10727802664041519, -0.08991977572441101, 
-0.03496236354112625, -0.13310591876506805, -0.10410385578870773, 0.03106127865612507, 0.032753344625234604, 0.00803262460976839, 0.2296602874994278, 
-0.1586615890264511, -0.09129288047552109, -0.22196580469608307, -0.10459304600954056, 0.05169549956917763, 0.03723106160759926, -0.20270021259784698, 
-0.1687578707933426, -0.2041245698928833, 0.0031066620722413063, 0.0016213580965995789, -0.2979467213153839, -0.13293887674808502, 0.2688469886779785, 
-0.1298976093530655, -0.12469977140426636, 0.27638891339302063, -0.07651615142822266, 0.16183730959892273, 0.01737324520945549, -0.15239381790161133, 
0.1062125563621521, 0.08769035339355469, -0.0696469396352768, -0.15042681992053986, -0.13526251912117004, -0.1912979930639267, 0.21754613518714905, 
-0.08496373146772385, -0.011493787169456482, 0.07828161865472794, -0.14656618237495422, -0.1296280026435852, -0.32386666536331177, -0.2356502115726471, 
0.25601810216903687, 0.1815240979194641, -0.07180102169513702, 0.014463034458458424, -0.3889085054397583, 0.15571272373199463, -0.09834019839763641, 
0.10480757802724838, 0.021054711192846298, -0.3130885660648346, -0.07509327679872513, 0.09097504615783691, -0.2978944182395935, -0.056285519152879715, 
-0.08103825151920319, -0.16302743554115295, 0.1528443694114685, 0.12902115285396576, -0.05337725579738617, 0.026138074696063995, 0.03104018233716488, 
0.18431545794010162, 0.03578287735581398, -0.11666461080312729, 0.04955596849322319, -0.20634518563747406, -0.04557318612933159, -0.11078736931085587, 
-0.17739960551261902, -0.13111111521720886, 0.08004041761159897, 0.14946722984313965, 0.14267830550670624, 0.08681990206241608, -0.030225733295083046, 
-0.011662861332297325, 0.13230234384536743, -0.01957123912870884, 0.07922548055648804, 0.07114984095096588, -0.1338382363319397, 0.15306918323040009, 
0.11478213965892792, 0.10863526910543442, 0.0019750557839870453, 0.29752305150032043, -0.12654174864292145, 0.008766810409724712, 0.041236575692892075, 
-0.04949468374252319, 0.2763137221336365, -0.017446311190724373, 0.1788046956062317, 0.1900682896375656, -0.09475524723529816, 0.27465057373046875, 
