-0.5883923172950745, -0.39077264070510864, 0.5936123728752136, -0.34442460536956787, 1.8709365129470825, 0.34884947538375854, 0.43076884746551514, -0.33936238288879395, 0.4651862382888794, 0.4548143148422241, -0.3511236310005188, -0.3837333023548126, 0.2784062325954437, 0.7089332938194275, 0.33009254932403564, -0.4760403633117676, -0.4200306534767151, 0.17905789613723755, 0.4699093699455261, 0.5373103022575378, 0.4650549292564392, -0.43680042028427124, -0.3444470763206482, -0.6985464096069336, 0.38455310463905334, -0.3261537551879883, -0.23704802989959717, -0.6424144506454468, 0.15572968125343323, -0.48515450954437256, -0.5207955241203308, 0.7506818771362305, -0.6874337196350098, -0.3211652636528015, 0.2838176488876343, 0.398027241230011, -0.6944392919540405, -0.48874273896217346, 0.14049823582172394, -0.3351752460002899, -0.4196171760559082, 0.23954948782920837, -0.13425415754318237, 0.32009661197662354, 0.3079344630241394, 0.4785820245742798, 0.4721943140029907, 0.2155914008617401, -0.7198747992515564, 0.31252676248550415, -0.32406049966812134, 0.35127341747283936, -0.49412795901298523, 0.1091090738773346, 0.734325647354126, 0.2862817347049713, 0.19055142998695374, -0.5739998817443848, 0.24664223194122314, -0.056879281997680664, -0.1998596340417862, -0.7873210906982422, -0.3981632590293884, 0.3031846880912781