// Numpy array shape [16, 16]
// Min -0.7464337
// Max 0.70058364
// Number of zeros 0

#ifndef TRANSFORMERS_0_SELF_ATTENTION_OUT_WEIGHT_H_
#define TRANSFORMERS_0_SELF_ATTENTION_OUT_WEIGHT_H_

#ifndef __SYNTHESIS__
model_default_t transformers_0_self_attention_out_weight[256];
#else
model_default_t transformers_0_self_attention_out_weight[256] = {0.19975948333740234, -0.2859271764755249, 0.04351188614964485, 0.01897912099957466, -0.23705269396305084, 0.15198418498039246, 
0.32077252864837646, -0.34901097416877747, 0.05327606201171875, -0.1261419951915741, 0.3231787383556366, 0.45854708552360535, -0.03704266995191574, 
0.28980201482772827, -0.3415968418121338, 0.36470505595207214, 0.39037665724754333, 0.13589443266391754, 0.5620492100715637, 0.28711941838264465, 
0.4703509509563446, 0.0850619524717331, -0.0997314453125, 0.266389399766922, 0.02025981992483139, -0.1931600421667099, -0.17229251563549042, 
0.19237978756427765, 0.29741767048835754, 0.10760654509067535, 0.113227978348732, 0.1069418266415596, 0.07675956189632416, 0.2877417206764221, 
-0.4012792408466339, -0.08141978085041046, -0.1739182025194168, -0.3963150084018707, -0.17006587982177734, -0.21510225534439087, -0.23379074037075043, 
-0.3815547823905945, 0.04916948825120926, 0.3511353135108948, 0.2600083351135254, 0.27445200085639954, 0.2292410284280777, -0.32285094261169434, 
-0.6451456546783447, -0.5260817408561707, 0.35836920142173767, -0.10243482887744904, -0.04033844172954559, 0.7005836367607117, -0.21018743515014648, 
0.5845416188240051, 0.45398232340812683, 0.6572033166885376, 0.38444024324417114, -0.25905123353004456, 0.10563476383686066, 0.14752277731895447, 
-0.028428267687559128, -0.6758043766021729, -0.3697291910648346, -0.05930495634675026, 0.10288070887327194, 0.18620042502880096, 0.026432674378156662, 
-0.0008095164666883647, 0.0951816514134407, 0.3174777030944824, -0.29567989706993103, -0.0294821597635746, 0.1830037534236908, -0.4298558235168457, 
-0.37063729763031006, -0.19283689558506012, -0.12650766968727112, -0.10824531316757202, 0.17824998497962952, 0.0512230284512043, -0.046293310821056366, 
-0.09380897134542465, -0.2710634469985962, -0.08161903917789459, -0.33127960562705994, 0.3793640732765198, -0.11814847588539124, 0.015808235853910446, 
-0.1607183963060379, -0.22026583552360535, -0.18503296375274658, -0.03222879394888878, 0.036165811121463776, -0.4560299515724182, -0.746433675289154, 
-0.2016795575618744, 0.25271549820899963, 0.03755525127053261, -0.07206913083791733, 0.2257063239812851, -0.17102795839309692, -0.12598440051078796, 
0.3137081563472748, 0.3129590153694153, -0.04475253075361252, -0.551581621170044, -0.1740952730178833, -0.022120464593172073, 0.31350231170654297, 
0.015781957656145096, 0.008657904341816902, 0.3317113220691681, -0.03222093731164932, 0.010156881995499134, -0.25767186284065247, 0.2581702470779419, 
-0.18563063442707062, -0.13739904761314392, 0.01259538996964693, -0.08869237452745438, -0.44492387771606445, 0.11362823098897934, -0.15076322853565216, 
0.24058204889297485, 0.46515870094299316, 0.10406707227230072, 0.4633171856403351, 0.21978020668029785, 0.3021697998046875, -0.0395987406373024, 
-0.2981230616569519, 0.08546667546033859, -0.23523831367492676, 0.23591504991054535, 0.017484469339251518, 0.18674838542938232, -0.1226140484213829, 
-0.027332501485943794, -0.269099622964859, 0.06721703708171844, 0.20480547845363617, 0.5050761699676514, 0.4416886270046234, 0.1888687014579773, 
-0.15384544432163239, 0.20337341725826263, -0.1643674522638321, -0.308430016040802, 0.1115083172917366, 0.22774073481559753, -0.34464213252067566, 
-0.24756267666816711, -0.16534516215324402, 0.02248859964311123, 0.18209117650985718, -0.376467764377594, 0.08351949602365494, 0.42293331027030945, 
-0.06405950337648392, 0.25359994173049927, -0.09009460359811783, 0.18795014917850494, 0.23327262699604034, -0.47973570227622986, -0.17512862384319305, 
0.2066343128681183, 0.011610194109380245, 0.16014105081558228, -0.2775469422340393, 0.01638883352279663, 0.02083861082792282, -0.3407164514064789, 
-0.0698738619685173, 0.03557709977030754, 0.028073618188500404, -0.15480484068393707, -0.3570099174976349, -0.34816989302635193, 0.19363945722579956, 
-0.36393895745277405, -0.13483700156211853, -0.23806074261665344, 0.005695348605513573, -0.12574636936187744, 0.030092887580394745, 0.0597844123840332, 
0.24120059609413147, 0.14774243533611298, 0.19432541728019714, -0.23088672757148743, -0.06237614154815674, -0.33431485295295715, 0.11984418332576752, 
0.6389581561088562, -0.34280380606651306, 0.07520004361867905, 0.3732047379016876, 0.11536550521850586, 0.12500405311584473, 0.006070376373827457, 
0.07231617718935013, 0.13661937415599823, 0.02032294310629368, -0.5657902359962463, -0.03891121968626976, 0.20896735787391663, 0.15033142268657684, 
0.25298866629600525, 0.16387169063091278, -0.33484989404678345, 0.24650318920612335, 0.07698909193277359, -0.4282616376876831, -0.3162757158279419, 
0.1246868148446083, -0.2552289366722107, -0.043202970176935196, 0.194177508354187, -0.08929149061441422, 0.2961849570274353, -0.15507210791110992, 
0.05945200473070145, -0.04864222928881645, 0.29673221707344055, -0.22641029953956604, 0.5914226174354553, -0.023717515170574188, 0.15998385846614838, 
0.022360051050782204, -0.20752263069152832, -0.046505607664585114, 0.09034983813762665, -0.09096039831638336, -0.24627533555030823, -0.0841284841299057, 
-0.5345553755760193, 0.3296690583229065, 0.30748504400253296, 0.5605235695838928, -0.25395768880844116, 0.04035226255655289, -0.126407653093338, 
0.08286913484334946, -0.37895894050598145, 0.3268945813179016, -0.326774001121521, -0.0358102023601532, 0.04833928495645523, -0.12445918470621109, 
0.37601438164711, -0.08060671389102936, -0.06564545631408691, 0.026422105729579926, 0.5417718887329102};

#endif

#endif
