// Numpy array shape [64]
// Min -0.12716655
// Max 0.13979201
// Number of zeros 0

#ifndef TRANSFORMERS_2_SELF_ATTENTION_OUT_BIAS_H_
#define TRANSFORMERS_2_SELF_ATTENTION_OUT_BIAS_H_

#ifndef __SYNTHESIS__
model_default_t transformers_2_self_attention_out_bias[64];
#else
model_default_t transformers_2_self_attention_out_bias[64] = {-0.07176901400089264, 0.09269558638334274, -0.049703896045684814, 0.05787664279341698, -0.03600026294589043, -0.028526803478598595, 
0.011165499687194824, -0.08839347958564758, -0.041998013854026794, 0.06612047553062439, 0.10363171994686127, 0.01838407851755619, 0.0487237349152565, 
-0.04194554686546326, -0.07306850701570511, 0.10341119766235352, 0.08294332772493362, -0.04940718039870262, 0.0859140008687973, 0.02313215844333172, 
-0.04515550285577774, -0.029995711520314217, 0.13979201018810272, -0.033083971589803696, 0.09773232042789459, 0.015548313967883587, -0.08320608735084534, 
0.1147543340921402, -0.022243909537792206, 0.01102465856820345, 0.11002402007579803, -0.05708765611052513, 0.08154382556676865, 0.030029084533452988, 
0.029416115954518318, -0.03636699169874191, 0.03797497600317001, -0.11093361675739288, 0.006490906234830618, -0.06544013321399689, 0.10471204668283463, 
0.1193404346704483, 0.10731577128171921, -0.05444330722093582, -0.12716655433177948, -0.0033427891321480274, 0.04334946721792221, 0.1014898419380188, 
0.06373206526041031, 0.05673814192414284, 0.053912170231342316, 0.09650342911481857, -0.04681284725666046, -0.09536241739988327, 0.04620744287967682, 
0.0029175791423767805, 0.015408250503242016, -0.07770172506570816, 0.06576072424650192, 0.069515660405159, -0.029025502502918243, 0.0033627222292125225, 
0.029077734798192978, -0.09677178412675858};

#endif

#endif
