// Numpy array shape [961]
// Min -1.1253546
// Max 2.4062908
// Number of zeros 0

#ifndef TRANSFORMERS_2_SELF_ATTENTION_PRE_EXP_NORM_BIAS_H_
#define TRANSFORMERS_2_SELF_ATTENTION_PRE_EXP_NORM_BIAS_H_

#ifndef __SYNTHESIS__
model_default_t transformers_2_self_attention_pre_exp_norm_bias[961];
#else
model_default_t transformers_2_self_attention_pre_exp_norm_bias[961] = {-0.8642218708992004, -0.6172791123390198, -0.3152032196521759, 0.08963972330093384, 0.17757630348205566, 0.3585193455219269, 
0.3033060133457184, 0.38407373428344727, 0.3476749360561371, 0.3201662600040436, 0.18149253726005554, 0.04058846831321716, -0.10006865859031677, 
-0.11987942457199097, -0.33203789591789246, -0.45263296365737915, -0.7292489409446716, -0.7196416258811951, -0.7633374929428101, -0.806505560874939, 
-0.7325920462608337, -0.5972353219985962, -0.4197255074977875, -0.3194127678871155, 0.0005347132682800293, 0.3863935172557831, 0.5663285255432129, 
0.9396108388900757, 1.2443851232528687, 1.6629371643066406, 2.0388917922973633, 0.09681431949138641, -0.05729829519987106, 0.18550169467926025, 
0.2840080261230469, 0.26290392875671387, 0.18536891043186188, 0.08836967498064041, 0.04995906352996826, -0.01469285786151886, -0.10010004788637161, 
-0.09196359664201736, -0.19720757007598877, -0.22505153715610504, -0.23819087445735931, -0.30337491631507874, -0.32212942838668823, -0.23188790678977966, 
-0.24381017684936523, -0.21290230751037598, -0.12473216652870178, -0.051840364933013916, -0.021774396300315857, -0.053726062178611755, -0.029992878437042236, 
-0.043837226927280426, -0.08939861506223679, -0.02911371737718582, -0.09130660444498062, -0.09427414834499359, -0.14007137715816498, -0.14061567187309265, 
0.06504857540130615, 0.13428306579589844, 0.3301439881324768, 0.32789069414138794, 0.3130679130554199, 0.22786465287208557, 0.16000162065029144, 
0.09979148954153061, -0.016078323125839233, -0.06330965459346771, -0.1367478370666504, -0.32737451791763306, -0.4105418920516968, -0.46485334634780884, 
-0.5127217769622803, -0.5137850642204285, -0.4178934097290039, -0.35508498549461365, -0.30204489827156067, -0.24127337336540222, -0.1556403636932373, 
-0.12201089411973953, -0.13336366415023804, -0.10560385882854462, -0.12431566417217255, -0.16110453009605408, -0.11867199838161469, -0.17978420853614807, 
-0.18473517894744873, -0.21110329031944275, -0.21867093443870544, 0.12386712431907654, 0.09576636552810669, 0.27156537771224976, 0.3206157088279724, 
0.2668363153934479, 0.20681217312812805, 0.161166712641716, 0.04277253895998001, 0.02487565577030182, -0.05752161145210266, -0.1316932886838913, 
-0.32671791315078735, -0.4577219486236572, -0.39313066005706787, -0.45527684688568115, -0.47212833166122437, -0.401967853307724, -0.31675779819488525, 
-0.2660101652145386, -0.1908140778541565, -0.11717326194047928, -0.07690805196762085, -0.08157212287187576, -0.08050861209630966, -0.07494013011455536, 
-0.09728770703077316, -0.07156035304069519, -0.11851237714290619, -0.13381069898605347, -0.17015595734119415, -0.17940539121627808, 0.1637333333492279, 
0.09602520614862442, 0.2624208927154541, 0.2582641839981079, 0.2792049050331116, 0.18568670749664307, 0.10901312530040741, 0.056039467453956604, 
-0.014954492449760437, -0.06771498173475266, -0.14778530597686768, -0.32048091292381287, -0.3597355782985687, -0.361742228269577, -0.4274641275405884, 
-0.46503835916519165, -0.31405651569366455, -0.30060839653015137, -0.26204684376716614, -0.1632150411605835, -0.11499607563018799, -0.03639863803982735, 
-0.041604526340961456, -0.0257076695561409, -0.06202491372823715, -0.05491553992033005, -0.027624860405921936, -0.07660586386919022, -0.09639332443475723, 
-0.11923226714134216, -0.1393347978591919, 0.18803633749485016, 0.13021008670330048, 0.26715314388275146, 0.25343939661979675, 0.21840092539787292, 
0.19618737697601318, 0.11163975298404694, 0.03216979652643204, -0.030927449464797974, -0.0986211895942688, -0.10456229001283646, -0.28975164890289307, 
-0.3104376196861267, -0.38710731267929077, -0.42093944549560547, -0.42363888025283813, -0.37205979228019714, -0.28207525610923767, -0.2708168625831604, 
-0.18504609167575836, -0.11641716212034225, -0.06046649441123009, -0.04031522572040558, -0.0299273282289505, -0.02938772737979889, -0.047557979822158813, 
-0.016543447971343994, -0.07006245851516724, -0.07362779229879379, -0.09648441523313522, -0.11326504498720169, 0.1601172685623169, 0.1887931525707245, 
0.28743571043014526, 0.2673339247703552, 0.209364116191864, 0.1596447229385376, 0.1058465912938118, 0.027290455996990204, -0.0312209352850914, 
-0.07398402690887451, -0.09473197162151337, -0.27169135212898254, -0.31222763657569885, -0.31125831604003906, -0.39868324995040894, -0.42007866501808167, 
-0.3341529965400696, -0.2933332026004791, -0.27489912509918213, -0.18155288696289062, -0.11752311885356903, -0.08000402897596359, -0.049396663904190063, 
-0.016894347965717316, -0.03554011881351471, -0.048622459173202515, -0.014186501502990723, -0.03950439393520355, -0.06082260608673096, -0.07921434193849564, 
-0.09342748671770096, 0.13715960085391998, 0.2673078775405884, 0.3279244303703308, 0.2745257318019867, 0.23964744806289673, 0.16426880657672882, 
0.10318112373352051, 0.020317241549491882, -0.008467689156532288, -0.03782050311565399, -0.10487574338912964, -0.22849810123443604, -0.32903942465782166, 
-0.31170928478240967, -0.35410076379776, -0.4352492392063141, -0.3095991611480713, -0.3281945288181305, -0.29341351985931396, -0.20889133214950562, 
-0.14643941819667816, -0.06696292012929916, -0.08270296454429626, -0.05340622365474701, -0.035856008529663086, -0.06251806020736694, -0.034891873598098755, 
-0.05030210316181183, -0.0521874725818634, -0.08476505428552628, -0.08804560452699661, 0.12065985798835754, 0.3327732980251312, 0.34959882497787476, 
0.29036542773246765, 0.23607991635799408, 0.15373753011226654, 0.09069258719682693, 0.038159772753715515, -0.09347029030323029, -0.08099639415740967, 
-0.10776121914386749, -0.23576831817626953, -0.34063610434532166, -0.3254149258136749, -0.35931074619293213, -0.3714064657688141, -0.3231114447116852, 
-0.36855852603912354, -0.29815375804901123, -0.26647353172302246, -0.17858493328094482, -0.08182526379823685, -0.08049602806568146, -0.046936362981796265, 
-0.03314340114593506, -0.0560494065284729, -0.01044146716594696, -0.024829745292663574, -0.037263914942741394, -0.05742189288139343, -0.06822565197944641, 
0.11767503619194031, 0.39380794763565063, 0.3777305483818054, 0.3043380379676819, 0.24173806607723236, 0.1473296731710434, 0.08580423891544342, 
0.02753233164548874, -0.04390116035938263, -0.1705416887998581, -0.14008894562721252, -0.18322838842868805, -0.3068566620349884, -0.27865853905677795, 
-0.36450886726379395, -0.4010991156101227, -0.35993024706840515, -0.3694978356361389, -0.3078044354915619, -0.28254377841949463, -0.17509549856185913, 
-0.09871874749660492, -0.07681259512901306, -0.04817403852939606, -0.03558710217475891, -0.05810341238975525, 0.006678104400634766, -0.016761302947998047, 
-0.01249280571937561, -0.04332000017166138, -0.04908230900764465, 0.0781853049993515, 0.4246903359889984, 0.40214863419532776, 0.29979008436203003, 
0.22614359855651855, 0.14409440755844116, 0.09477183222770691, 0.024280577898025513, -0.0026709437370300293, -0.058274783194065094, -0.15840773284435272, 
-0.15354159474372864, -0.2975078821182251, -0.2419552356004715, -0.30212756991386414, -0.3408498764038086, -0.3088618814945221, -0.34710097312927246, 
-0.27183330059051514, -0.2848775386810303, -0.2198374718427658, -0.12529516220092773, -0.12150213122367859, -0.08509374409914017, -0.05327905714511871, 
-0.07288919389247894, -0.02867177128791809, -0.02848920226097107, -0.026604101061820984, -0.03557285666465759, -0.05532025545835495, 0.04714055359363556, 
0.4359784722328186, 0.4434396028518677, 0.2897228002548218, 0.19981983304023743, 0.13799718022346497, 0.07589586824178696, 0.020125873386859894, 
-0.028162881731987, -0.017320498824119568, -0.06571923196315765, -0.17312298715114594, -0.2574513554573059, -0.2005632072687149, -0.2643609941005707, 
-0.29153573513031006, -0.31921079754829407, -0.3335438370704651, -0.25863566994667053, -0.2732964754104614, -0.2585603594779968, -0.11971773952245712, 
-0.12439796328544617, -0.09156759083271027, -0.06538990139961243, -0.07345245033502579, -0.01691696047782898, -0.01916562020778656, -0.014237582683563232, 
-0.03395727276802063, -0.057110533118247986, -0.006263837218284607, 0.43278810381889343, 0.41789713501930237, 0.26040369272232056, 0.2100444734096527, 
0.14454562962055206, 0.09382979571819305, 0.04161214083433151, -0.0014587640762329102, 0.008131429553031921, -0.05806368961930275, -0.10671530663967133, 
-0.16434010863304138, -0.17966243624687195, -0.2365100085735321, -0.23919986188411713, -0.2596074044704437, -0.3158625364303589, -0.30089104175567627, 
-0.2956078052520752, -0.24210506677627563, -0.1604568362236023, -0.16870735585689545, -0.11696621775627136, -0.09918507933616638, -0.10913127660751343, 
-0.050866156816482544, -0.06143820285797119, -0.03747067600488663, -0.05506116896867752, -0.06500851362943649, -0.044471532106399536, 0.4041088819503784, 
0.36629772186279297, 0.22822478413581848, 0.14855654537677765, 0.1331719160079956, 0.10885235667228699, 0.09007947146892548, 0.03149773180484772, 
0.07989400625228882, 0.01988719403743744, -0.022628862410783768, -0.14929550886154175, -0.15775030851364136, -0.21464499831199646, -0.2528987228870392, 
-0.2625712752342224, -0.29592907428741455, -0.2637840509414673, -0.23428143560886383, -0.2520822286605835, -0.17445938289165497, -0.18529954552650452, 
-0.15954196453094482, -0.11579512059688568, -0.15253016352653503, -0.07332470268011093, -0.07102199643850327, -0.07186413556337357, -0.06827153265476227, 
-0.07204437255859375, -0.09169815480709076, 0.37213268876075745, 0.32973814010620117, 0.21672073006629944, 0.15639296174049377, 0.13524378836154938, 
0.13204102218151093, 0.11064120382070541, 0.11193877458572388, 0.13943149149417877, 0.09796947240829468, 0.08595366030931473, -0.05009937286376953, 
-0.06396623700857162, -0.18294449150562286, -0.17681176960468292, -0.20688924193382263, -0.24262145161628723, -0.1938084363937378, -0.2778955101966858, 
-0.29918572306632996, -0.18244314193725586, -0.19852444529533386, -0.20431046187877655, -0.15749946236610413, -0.18560421466827393, -0.10111222416162491, 
-0.1123284250497818, -0.0885486826300621, -0.10150595754384995, -0.10607884079217911, -0.13438823819160461, 0.3209698796272278, 0.26125651597976685, 
0.15418942272663116, 0.12133098393678665, 0.121885746717453, 0.14154137670993805, 0.12819071114063263, 0.17980779707431793, 0.22846898436546326, 
0.16957572102546692, 0.18650536239147186, 0.09230661392211914, 0.02493651583790779, -0.05805150046944618, -0.15200965106487274, -0.18139876425266266, 
-0.22592568397521973, -0.23812513053417206, -0.23528221249580383, -0.27311044931411743, -0.21294957399368286, -0.24111340939998627, -0.1999034434556961, 
-0.17880769073963165, -0.2011033296585083, -0.13191601634025574, -0.13193947076797485, -0.10781913995742798, -0.10067518055438995, -0.11050881445407867, 
-0.18847395479679108, 0.2653631567955017, 0.16906893253326416, 0.1068030372262001, 0.09907184541225433, 0.1078931987285614, 0.14632931351661682, 
0.17511922121047974, 0.21661801636219025, 0.2678837776184082, 0.24799388647079468, 0.22828812897205353, 0.1722019761800766, 0.13726839423179626, 
0.0417713038623333, -0.06221020221710205, -0.15966090559959412, -0.15993355214595795, -0.18274228274822235, -0.19552455842494965, -0.23653939366340637, 
-0.19580736756324768, -0.22138720750808716, -0.23910443484783173, -0.1922444999217987, -0.20683595538139343, -0.16595730185508728, -0.15680383145809174, 
-0.14334802329540253, -0.13570143282413483, -0.14216458797454834, -0.22588929533958435, 0.22384028136730194, 0.12427616119384766, 0.07767696678638458, 
0.08116225898265839, 0.10649318248033524, 0.16462653875350952, 0.1966569721698761, 0.22781172394752502, 0.32796621322631836, 0.2562524676322937, 
0.2999490201473236, 0.21988536417484283, 0.2231827676296234, 0.1292865127325058, -0.012035205960273743, -0.070773184299469, -0.1377708613872528, 
-0.18966029584407806, -0.21140649914741516, -0.25374409556388855, -0.19930782914161682, -0.23044812679290771, -0.24244433641433716, -0.22483159601688385, 
-0.24055776000022888, -0.20889267325401306, -0.1881650984287262, -0.17502257227897644, -0.16514450311660767, -0.1565156728029251, -0.2795034945011139, 
0.16758762300014496, 0.06690337508916855, 0.05072186887264252, 0.061982229351997375, 0.10156816244125366, 0.16970844566822052, 0.19894671440124512, 
0.2669385075569153, 0.320087194442749, 0.28348684310913086, 0.4147327244281769, 0.19373217225074768, 0.3194621801376343, 0.29409563541412354, 
0.05107402056455612, 0.030818987637758255, -0.06782820075750351, -0.19070309400558472, -0.1853833794593811, -0.23769865930080414, -0.20767714083194733, 
-0.25199341773986816, -0.25911492109298706, -0.2323169708251953, -0.25333279371261597, -0.22121241688728333, -0.20610469579696655, -0.19042527675628662, 
-0.18522873520851135, -0.17193491756916046, -0.3068087697029114, 0.12511277198791504, 0.02818331867456436, 0.0327102467417717, 0.0637262687087059, 
0.1120339035987854, 0.18974483013153076, 0.23927301168441772, 0.29646071791648865, 0.3627672791481018, 0.28232499957084656, 0.40990787744522095, 
0.24616459012031555, 0.4403473138809204, 0.2363743931055069, 0.1868806630373001, 0.09184624254703522, -0.008726164698600769, -0.11203863471746445, 
-0.17725105583667755, -0.2521250545978546, -0.241708904504776, -0.26124799251556396, -0.2576986253261566, -0.2513692080974579, -0.26361554861068726, 
-0.24549171328544617, -0.21274086833000183, -0.2091023027896881, -0.1974109709262848, -0.18648532032966614, -0.3349123001098633, 0.08879930526018143, 
-0.016091227531433105, 0.0031837299466133118, 0.041437387466430664, 0.08970732986927032, 0.18443657457828522, 0.2355819046497345, 0.309373140335083, 
0.38519424200057983, 0.32033467292785645, 0.3910067677497864, 0.33185938000679016, 0.44304269552230835, 0.26881763339042664, 0.24588680267333984, 
0.1591748148202896, 0.05422777310013771, -0.06767839193344116, -0.1615370810031891, -0.21417713165283203, -0.2197791039943695, -0.26252859830856323, 
-0.2753005027770996, -0.2599819302558899, -0.2840476930141449, -0.27032262086868286, -0.24979843199253082, -0.23629680275917053, -0.2212451696395874, 
-0.21618840098381042, -0.3446469306945801, 0.03608567267656326, -0.0681452676653862, -0.028509318828582764, 0.022813312709331512, 0.07791690528392792, 
0.15389496088027954, 0.22875815629959106, 0.30711042881011963, 0.3901548981666565, 0.3403244614601135, 0.45791393518447876, 0.3304060101509094, 
0.4518148899078369, 0.3862510025501251, 0.2822042405605316, 0.19177059829235077, 0.12450659275054932, -0.012117180973291397, -0.13640649616718292, 
-0.19958412647247314, -0.21170100569725037, -0.2559298276901245, -0.2696492373943329, -0.24639177322387695, -0.2677372097969055, -0.25852325558662415, 
-0.2433474361896515, -0.22194679081439972, -0.21541956067085266, -0.20717012882232666, -0.36992505192756653, 0.007704734802246094, -0.10373523086309433, 
-0.0523071363568306, 0.005382955074310303, 0.08763505518436432, 0.16903607547283173, 0.23230472207069397, 0.3283671736717224, 0.4041338264942169, 
0.35025739669799805, 0.4561593532562256, 0.349809855222702, 0.4872293472290039, 0.43667808175086975, 0.29613256454467773, 0.23165060579776764, 
0.171090230345726, -0.015595652163028717, -0.09695025533437729, -0.1815170794725418, -0.20021188259124756, -0.25996384024620056, -0.2704305648803711, 
-0.26485884189605713, -0.2827651798725128, -0.26603591442108154, -0.2500590682029724, -0.23680607974529266, -0.22810077667236328, -0.2162901610136032, 
-0.3807923197746277, -0.008670590817928314, -0.11955996602773666, -0.0603649839758873, 0.0035804733633995056, 0.07564670592546463, 0.1787622570991516, 
0.22926895320415497, 0.3229776620864868, 0.41418200731277466, 0.3651636242866516, 0.4922866225242615, 0.4104415774345398, 0.5080665946006775, 
0.35645464062690735, 0.3924860954284668, 0.2202918827533722, 0.18796490132808685, 0.053657036274671555, -0.029665663838386536, -0.1558046191930771, 
-0.18474113941192627, -0.23469269275665283, -0.2668967843055725, -0.26894667744636536, -0.28901001811027527, -0.27843648195266724, -0.25907012820243835, 
-0.24980434775352478, -0.2331904023885727, -0.2284601628780365, -0.3988460302352905, -0.023946180939674377, -0.14268440008163452, -0.07274237275123596, 
-0.015118211507797241, 0.0752677321434021, 0.16413846611976624, 0.24969393014907837, 0.3334422707557678, 0.39836686849594116, 0.37513288855552673, 
0.4914003312587738, 0.4113836884498596, 0.5233830213546753, 0.44324398040771484, 0.39264196157455444, 0.2847939133644104, 0.18462759256362915, 
0.07427950203418732, -0.046904899179935455, -0.14637064933776855, -0.15599921345710754, -0.22812917828559875, -0.2642565965652466, -0.25800156593322754, 
-0.26314273476600647, -0.27046307921409607, -0.2537767291069031, -0.2389337718486786, -0.22851034998893738, -0.21559269726276398, -0.4082120358943939, 
-0.04543964937329292, -0.15921305119991302, -0.08743644505739212, -0.017011046409606934, 0.06670181453227997, 0.16916939616203308, 0.24210016429424286, 
0.34075993299484253, 0.4215049743652344, 0.37837761640548706, 0.5312869548797607, 0.46384698152542114, 0.510053277015686, 0.4252275824546814, 
0.3996124267578125, 0.3318149745464325, 0.22848135232925415, 0.0819845199584961, -0.00481075793504715, -0.13050439953804016, -0.1474146842956543, 
-0.2214134782552719, -0.2644230127334595, -0.23977555334568024, -0.2655078172683716, -0.2676151990890503, -0.2552872896194458, -0.23957544565200806, 
-0.2268914431333542, -0.2243061065673828, -0.4146312475204468, -0.04998598247766495, -0.17581935226917267, -0.09652678668498993, -0.025001496076583862, 
0.05679607763886452, 0.15422551333904266, 0.23375727236270905, 0.34501928091049194, 0.450416624546051, 0.38823002576828003, 0.5753116607666016, 
0.4803629517555237, 0.5260915756225586, 0.5519042611122131, 0.4546319842338562, 0.34062159061431885, 0.2349601686000824, 0.09907779097557068, 
-0.00568033754825592, -0.1313624083995819, -0.1326780468225479, -0.19736409187316895, -0.24172766506671906, -0.23948293924331665, -0.2567932605743408, 
-0.2865554988384247, -0.25971102714538574, -0.24659663438796997, -0.23246830701828003, -0.22616197168827057, -0.4193822145462036, -0.051757726818323135, 
-0.18434815108776093, -0.10703786462545395, -0.03622625023126602, 0.04477865993976593, 0.14996059238910675, 0.24051335453987122, 0.33266371488571167, 
0.42810410261154175, 0.4153543710708618, 0.5932884216308594, 0.4802102744579315, 0.5950989127159119, 0.4982920289039612, 0.4507622718811035, 
0.39662444591522217, 0.27277639508247375, 0.1298496574163437, 0.059182241559028625, -0.10205110907554626, -0.12528997659683228, -0.1844254434108734, 
-0.23097488284111023, -0.23039862513542175, -0.2523711919784546, -0.2724153399467468, -0.2682516276836395, -0.2492467612028122, -0.2393062859773636, 
-0.22904236614704132, -0.4291589856147766, -0.053946297615766525, -0.18867374956607819, -0.11247599124908447, -0.03953533619642258, 0.0529809445142746, 
0.15277549624443054, 0.24938353896141052, 0.3443225026130676, 0.458438903093338, 0.4273006319999695, 0.6090431213378906, 0.5242929458618164, 
0.5639358162879944, 0.5432601571083069, 0.5127228498458862, 0.353898286819458, 0.27897319197654724, 0.1455557644367218, 0.053511906415224075, 
-0.09556172043085098, -0.10645654052495956, -0.1812138855457306, -0.23218248784542084, -0.2257843315601349, -0.24709707498550415, -0.2710317075252533, 
-0.25917908549308777, -0.2622889578342438, -0.23707392811775208, -0.2282797396183014, -0.42911380529403687, -0.055506207048892975, -0.19756920635700226, 
-0.12423890084028244, -0.04885588586330414, 0.05051130801439285, 0.1635858416557312, 0.23794321715831757, 0.35378116369247437, 0.4256785213947296, 
0.4488253593444824, 0.580452561378479, 0.5341851115226746, 0.5690914392471313, 0.47076237201690674, 0.537165641784668, 0.377144992351532, 
0.2763094902038574, 0.14342516660690308, 0.07378019392490387, -0.08153226971626282, -0.09662356227636337, -0.17337025701999664, -0.21390634775161743, 
-0.2140302062034607, -0.23757362365722656, -0.2602415978908539, -0.2563406825065613, -0.24682646989822388, -0.25139451026916504, -0.22515687346458435, 
-0.43563297390937805, -0.05313989147543907, -0.19654034078121185, -0.12544378638267517, -0.054494231939315796, 0.04359728470444679, 0.1577853411436081, 
0.25374311208724976, 0.34936755895614624, 0.4549436569213867, 0.43861228227615356, 0.6010769605636597, 0.5005174875259399, 0.5530290603637695, 
0.523221492767334, 0.47888681292533875, 0.36075010895729065, 0.3085249364376068, 0.16252747178077698, 0.07619650661945343, -0.09655340760946274, 
-0.09376052021980286, -0.1577446311712265, -0.2172611951828003, -0.21071770787239075, -0.24535110592842102, -0.2657617926597595, -0.25536593794822693, 
-0.2455967217683792, -0.23530077934265137, -0.23331254720687866};

#endif

#endif
