-0.8949365615844727, -0.26289355754852295, 0.2363702356815338, -0.39176738262176514, 0.2814224660396576, -0.8242620229721069, 0.4929583668708801, 2.528386354446411, 0.3562401533126831, 0.5739481449127197, -0.12096789479255676, 0.41948750615119934, -0.021470457315444946, 1.1746296882629395, 0.09713605046272278, -0.11851011961698532, -0.1549420803785324, 0.03942820429801941, 0.04491254687309265, -1.0323387384414673, 1.0432772636413574, -0.41964682936668396, -0.09579598903656006, -0.4066501259803772, 0.0393223762512207, -0.19153644144535065, -0.10275442898273468, -0.5627191066741943, 0.15009576082229614, -0.07898561656475067, -0.2238880693912506, 0.6119691133499146, -0.2335609495639801, -0.10285013914108276, 0.4535369277000427, 0.28930267691612244, 0.036630451679229736, -0.1683291643857956, -0.15473803877830505, -0.07123762369155884, -0.07815959304571152, 0.08556997776031494, -0.061838485300540924, 0.17656323313713074, -0.6954253911972046, 0.37916865944862366, 0.3586502969264984, 0.14350572228431702, -1.4014604091644287, 0.24759334325790405, -0.3183404505252838, 0.3148297667503357, -0.05963888019323349, 0.6790260672569275, -0.6999607086181641, -0.01035851240158081, 0.2803589105606079, 0.036303937435150146, 0.0987679660320282, -0.24922998249530792, -0.2717684507369995, -0.10455343127250671, -0.3739098012447357, 0.023191839456558228