// Numpy array shape [64]
// Min -1.1005503
// Max 0.43464884
// Number of zeros 0

#ifndef TRANSFORMERS_1_LINEAR_0_BIAS_H_
#define TRANSFORMERS_1_LINEAR_0_BIAS_H_

#ifndef __SYNTHESIS__
model_default_t transformers_1_linear_0_bias[64];
#else
model_default_t transformers_1_linear_0_bias[64] = {-0.23697830736637115, -0.2363583892583847, -0.04831647500395775, -0.5520604848861694, -0.19923610985279083, 1.447524905204773, 
0.2870970368385315, 0.2757633626461029, 0.08057701587677002, 0.5119905471801758, -0.5869535207748413, -0.5895134210586548, 0.05322951078414917, 
0.45616570115089417, 0.09461700916290283, -0.3112414479255676, -0.9178535342216492, 0.047332942485809326, 0.5137830972671509, 0.456285685300827, 
0.062080368399620056, -0.2546381652355194, -0.8917225003242493, -0.62332683801651, 0.42078614234924316, -0.8733289837837219, -0.5304734110832214, 
-0.38843539357185364, 0.22857728600502014, -0.5049874782562256, -0.4958052933216095, 0.12318611145019531, -0.28250861167907715, -0.13556139171123505, 
-0.04543912410736084, 0.37371712923049927, -0.30042219161987305, -0.007367193698883057, -0.23812979459762573, -0.613042414188385, -0.8816829919815063, 
-0.5716615319252014, -0.25764113664627075, 0.030613631010055542, 0.457845002412796, -0.03377439081668854, 0.035055339336395264, 0.5093895792961121, 
-1.1707309484481812, 0.155912846326828, -0.25971612334251404, 0.33967602252960205, -0.03623194620013237, 0.7143020629882812, 0.7088750600814819, 
0.7300471067428589, 0.07764086127281189, -0.38243719935417175, -0.05305960774421692, -0.6553308367729187, -0.11356332898139954, -0.028830593451857567, 
-0.34193211793899536, 0.10416033864021301};

#endif

#endif
