// Numpy array shape [64]
// Min -0.31408542
// Max 0.31463134
// Number of zeros 0

#ifndef TRANSFORMERS_2_SELF_ATTENTION_NORM_BIAS_H_
#define TRANSFORMERS_2_SELF_ATTENTION_NORM_BIAS_H_

#ifndef __SYNTHESIS__
model_default_t transformers_2_self_attention_norm_bias[64];
#else
model_default_t transformers_2_self_attention_norm_bias[64] = {-0.32160577178001404, -0.20209187269210815, 0.2983928918838501, -0.19100087881088257, -0.05982721224427223, 0.4186279773712158, 
0.38466256856918335, -0.9438758492469788, 0.39790627360343933, 1.645762324333191, -0.30161863565444946, 0.22136837244033813, 0.4153110980987549, 
0.32460302114486694, 0.5083387494087219, -0.19746655225753784, -0.38617441058158875, 0.5598991513252258, 0.039367809891700745, 0.23775668442249298, 
0.17754504084587097, -0.3912822902202606, -0.2005656659603119, -0.2983872890472412, 0.09610454738140106, -0.2487296760082245, -0.6938376426696777, 
0.5028073787689209, 0.35732370615005493, -0.4028204083442688, 0.09199021756649017, -0.7107088565826416, 0.6812455058097839, -0.3274202346801758, 
0.4521644711494446, 0.2573908865451813, 0.016035422682762146, -0.388953298330307, -0.12537825107574463, -0.420089453458786, -0.32024186849594116, 
0.3352981209754944, -0.4191012382507324, 0.30190327763557434, 0.40230807662010193, 0.16322621703147888, 0.5782111883163452, 0.5047668218612671, 
0.29839015007019043, 0.34107792377471924, -0.2878425419330597, 0.15045994520187378, -0.24253524839878082, -0.008932515978813171, 1.3747268915176392, 
0.17196032404899597, 0.28192541003227234, -0.2587546110153198, 0.29107189178466797, -0.22779381275177002, -0.21581266820430756, -0.4639546275138855, 
-0.3239268362522125, 0.3664557635784149};

#endif

#endif
