-0.5475975275039673, 0.5270383358001709, 1.0612032413482666, 0.8028433918952942, 1.1072649955749512, 1.1999527215957642, 1.4858397245407104, 1.7402185201644897, 1.9910752773284912, 1.8117287158966064, 1.383021354675293, 1.1057556867599487, 0.854158878326416, 0.7053518295288086, 0.36967048048973083, 0.360665500164032, -0.0414373017847538, -0.1827193945646286, -0.23364228010177612, -0.5252527594566345, -0.5670474171638489, -0.4612925052642822, -0.7959891557693481, -0.8009203672409058, -0.8328993320465088, -0.6722127199172974, -0.9266611933708191, -1.0347272157669067, -0.919304370880127, -0.8403024673461914, -0.9449160099029541, 0.7573195099830627, -0.7650594711303711, 0.42800742387771606, 0.9075989723205566, 1.294264316558838, 1.0721409320831299, 0.4137042760848999, -0.19208389520645142, -0.15935927629470825, 0.17456626892089844, 0.2567446827888489, 0.4061211943626404, 0.6182737946510315, 0.8621185421943665, 0.8176825046539307, 0.887383222579956, 0.8934492468833923, 1.2951791286468506, 1.3871915340423584, 0.987287163734436, 1.3675216436386108, 0.9253617525100708, 1.1533160209655762, 1.0661096572875977, 1.3096424341201782, 1.0234670639038086, 0.9124744534492493, 0.8286331295967102, 0.7598460912704468, 0.9315621852874756, 1.2916460037231445, 0.43348613381385803, 1.1397929191589355, 1.7896902561187744, 0.6783239841461182, 0.4124807119369507, 0.5560219287872314, 0.8146233558654785, 1.2025877237319946, 0.3920515775680542, 0.6475264430046082, 0.5304126143455505, 0.4337911605834961, 0.3665241301059723, 0.18532082438468933, 0.12413549423217773, 0.02426210045814514, -0.016325026750564575, -0.14409005641937256, -0.2210562825202942, -0.08635258674621582, -0.1878623068332672, -0.19885855913162231, -0.18471494317054749, -0.09742876887321472, -0.37829363346099854, -0.26345735788345337, -0.49475955963134766, -0.38376298546791077, -0.3981236517429352, -0.5578691363334656, -0.5594985485076904, 0.6880848407745361, 0.6003766655921936, 0.6465978026390076, 0.7686038017272949, 0.48337414860725403, 0.11750400066375732, 0.5562666654586792, 1.9656568765640259, 1.3367462158203125, 1.5619912147521973, 1.713277816772461, 0.8425801396369934, 0.9532797932624817, 0.6778464913368225, 0.5437912344932556, 0.49443596601486206, 0.3669296205043793, 0.3815767765045166, 0.37543588876724243, 0.44068479537963867, 0.1864505261182785, 0.1828700304031372, 0.1758754551410675, 0.2173708975315094, -0.026390403509140015, 0.1827903687953949, 0.09159243851900101, -0.13658341765403748, -0.12890906631946564, -0.1949717104434967, -0.24918676912784576, 0.9163682460784912, 0.410928338766098, 0.12602713704109192, 0.576328456401825, 0.7924995422363281, -0.11458086967468262, -0.19033163785934448, 1.5019912719726562, 1.7864879369735718, 2.027346611022949, 2.3537497520446777, 1.0917729139328003, 1.228503704071045, 0.9372148513793945, 0.8455871343612671, 0.8526214361190796, 0.5441340208053589, 0.46249598264694214, 0.4965578317642212, 0.6664979457855225, 0.3973982036113739, 0.615458607673645, 0.42309433221817017, 0.413554310798645, 0.2828158438205719, 0.42431357502937317, 0.24799871444702148, 0.3431183695793152, 0.3484461307525635, 0.10831710696220398, 0.06759621202945709, 0.9720883965492249, 0.4798370599746704, -0.030635476112365723, 0.504427433013916, 0.41921335458755493, 1.1927281618118286, 0.006008058786392212, 1.6394413709640503, 2.5282793045043945, 1.9457420110702515, 2.5451512336730957, 1.4936587810516357, 1.2488272190093994, 1.2360702753067017, 1.2600548267364502, 0.7926099300384521, 0.43703827261924744, 0.6589398384094238, 0.6955668926239014, 0.6282030940055847, 0.654771625995636, 0.4572652578353882, 0.575257420539856, 0.5397194623947144, 0.31241440773010254, 0.5296024084091187, 0.4306532144546509, 0.1588810235261917, 0.23861151933670044, 0.2121623307466507, 0.17607632279396057, 1.3743103742599487, 0.24672353267669678, 0.06801676750183105, 0.3733072578907013, 0.9924415946006775, 0.7718940377235413, 1.2182714939117432, 1.5667119026184082, 1.4085325002670288, 1.7003320455551147, 2.4176297187805176, 1.1739401817321777, 1.7214210033416748, 1.3440278768539429, 1.437267780303955, 1.2989717721939087, 0.7110196948051453, 0.7637315988540649, 1.123552680015564, 0.9650146961212158, 0.7245351076126099, 0.5100537538528442, 0.6223843693733215, 0.6628771424293518, 0.2379569709300995, 0.7869818806648254, 0.5426298379898071, 0.38250306248664856, 0.0979689434170723, 0.06480807811021805, 0.24342234432697296, 1.2797561883926392, 0.15430647134780884, -0.02867811918258667, 0.5106824636459351, 0.8911486268043518, 1.169399619102478, 1.4299888610839844, 2.334092617034912, 2.0207748413085938, 2.1589977741241455, 2.2342331409454346, 1.6455488204956055, 1.4846949577331543, 1.1331474781036377, 1.4587767124176025, 1.1949268579483032, 1.2868901491165161, 0.9963968992233276, 0.7392497658729553, 1.1557716131210327, 0.8103127479553223, 0.7092278003692627, 0.9740926623344421, 0.7539889812469482, 0.49118685722351074, 0.6633033752441406, 0.39553600549697876, 0.41724511981010437, 0.30114492774009705, 0.2032434642314911, 0.13439327478408813, 1.0793349742889404, 0.3381894826889038, -0.17380839586257935, 0.6128337979316711, 1.0797522068023682, 1.9477241039276123, 1.8324166536331177, 2.03920316696167, 1.278186321258545, 2.089010000228882, 1.6841959953308105, 1.7633252143859863, 1.2700724601745605, 1.0612759590148926, 1.7105960845947266, 1.2794380187988281, 1.031096339225769, 0.841607928276062, 1.1075494289398193, 1.2445160150527954, 0.9755324125289917, 0.8103497624397278, 1.0569627285003662, 0.7107136249542236, 0.529017448425293, 0.4615342319011688, 0.46322670578956604, 0.5316416025161743, 0.31751537322998047, 0.14292728900909424, 0.05181751400232315, 0.6983563899993896, 0.2297113537788391, 0.026550769805908203, 0.33908164501190186, 0.8143583536148071, 0.8791529536247253, 0.8513818979263306, 2.3978724479675293, 1.882573127746582, 1.6667325496673584, 3.1437320709228516, 2.0508222579956055, 1.519397258758545, 1.320076584815979, 1.438412070274353, 0.875019907951355, 0.9548364877700806, 0.8611909747123718, 0.9636004567146301, 1.0025783777236938, 0.6197548508644104, 0.5739964842796326, 0.29428011178970337, 0.5107503533363342, 0.17636452615261078, 0.12295904010534286, 0.3490958511829376, 0.36445578932762146, 0.05593591928482056, 0.11531566083431244, -0.09565714001655579, 0.6101386547088623, -0.0046541690826416016, 0.5367778539657593, 0.4552137851715088, 1.0624719858169556, 1.2761685848236084, 1.0123622417449951, 1.4017387628555298, 1.4254772663116455, 1.9235398769378662, 1.8408254384994507, 2.212712049484253, 1.617502212524414, 1.7774028778076172, 1.142849087715149, 0.8396232724189758, 1.2314133644104004, 0.8588576316833496, 0.6062250137329102, 0.735264003276825, 0.4339584410190582, 0.43818777799606323, 0.4253855347633362, 0.6295879483222961, 0.16561651229858398, 0.1613677591085434, -0.13652054965496063, -0.04093500226736069, -0.02216900885105133, -0.23537038266658783, -0.03514695167541504, 0.2783362865447998, 0.04304099082946777, 0.7021447420120239, 0.8073784112930298, 1.3487993478775024, 1.5347678661346436, 1.5091114044189453, 1.4175748825073242, 1.3023661375045776, 1.9850221872329712, 2.2672271728515625, 0.8991273641586304, 1.1939610242843628, 0.8284816741943359, 0.7003799080848694, 0.5082640051841736, 0.9364637136459351, 0.4409307837486267, 0.4801347553730011, 0.6156361103057861, 0.6496896147727966, 0.22783558070659637, 0.1881607174873352, 0.13348110020160675, -0.13181570172309875, -0.1709386110305786, -0.08951539546251297, -0.17296145856380463, -0.22837242484092712, -0.2847748398780823, -0.2938278317451477, 0.02033674716949463, 0.1549658477306366, 1.0151032209396362, 0.9056167006492615, 1.464991569519043, 1.0870485305786133, 1.0464314222335815, 1.3717401027679443, 1.7227344512939453, 1.6914825439453125, 1.6998100280761719, 1.082942008972168, 0.5709564089775085, 1.0320755243301392, 0.9706851243972778, 0.6383925676345825, 0.5511261820793152, 0.3135380446910858, 1.0442332029342651, 0.2909492552280426, 0.2811071574687958, 0.18596360087394714, 0.10399803519248962, -0.11551833152770996, -0.28043287992477417, -0.4423549175262451, -0.34520775079727173, -0.33215534687042236, -0.3538569211959839, -0.23191460967063904, -0.3547794222831726, 0.031460702419281006, 0.05751538276672363, 0.8358761072158813, 0.6999483704566956, 1.0226887464523315, 1.356095314025879, 0.9681404829025269, 1.667749285697937, 1.0501329898834229, 2.012122631072998, 2.833430767059326, 1.3479456901550293, 1.7179157733917236, 0.36646419763565063, 0.5944501161575317, 0.5740857720375061, 0.6090338230133057, 0.10494749248027802, 0.42193377017974854, 0.363908588886261, 0.48062172532081604, 0.11892497539520264, 0.02886989712715149, 0.05546651780605316, -0.201001837849617, -0.5022718906402588, -0.1418994814157486, -0.1607241928577423, -0.0876230001449585, -0.4035588800907135, -0.25116828083992004, -0.3195183575153351, 0.6615563631057739, 0.8611785173416138, 0.9532701373100281, 0.8516187071800232, 0.8357890844345093, 0.6716325879096985, 1.6530731916427612, 1.7395353317260742, 2.1574110984802246, 1.7337263822555542, 1.3111870288848877, 0.8256536722183228, 0.48529914021492004, 0.2662983536720276, 0.06071975827217102, 0.33217769861221313, 0.24142101407051086, 0.3190913200378418, -0.07740162312984467, 0.04394229128956795, -0.037161532789468765, -0.0981430932879448, -0.31916892528533936, -0.222817525267601, -0.6859413385391235, -0.12569156289100647, -0.32119494676589966, -0.5280517339706421, -0.6388565301895142, -0.5732420086860657, -0.1401519477367401, 0.12034446001052856, 0.794109582901001, 0.9207595586776733, 1.4290802478790283, 1.143283486366272, 1.1504371166229248, 1.7809491157531738, 1.7027699947357178, 2.00042986869812, 1.7113358974456787, 1.5001397132873535, 1.7772326469421387, 0.9334903955459595, 0.9957228899002075, 0.15410569310188293, 0.8605222702026367, 0.319132536649704, 0.27093735337257385, 0.397400438785553, 0.411601722240448, -0.030717596411705017, -0.09016554802656174, -0.09000007808208466, -0.21677130460739136, -0.5238876938819885, -0.2316017895936966, -0.35552161931991577, -0.4178420305252075, -0.6362817287445068, -0.2783014178276062, -0.5311957001686096, 0.21793735027313232, 0.6991983652114868, 0.5105471611022949, 0.7762211561203003, 0.9552930593490601, 1.9242401123046875, 1.8106364011764526, 3.170502185821533, 2.5673272609710693, 2.436858654022217, 2.220187187194824, 1.950890302658081, 0.9156684875488281, 0.4929102063179016, 0.5410964488983154, 0.29552161693573, 0.2836979627609253, -0.02491549402475357, 0.055815305560827255, 0.26806214451789856, -0.11879722028970718, -0.29998210072517395, 0.050928741693496704, -0.2755727171897888, -0.3907685875892639, -0.41959261894226074, -0.46921414136886597, -0.4842852056026459, -0.718338131904602, -0.32116711139678955, -0.9035518169403076, 0.39605966210365295, 0.7071526646614075, 0.9082651138305664, 1.1050394773483276, 0.9306432008743286, 1.5356640815734863, 0.5732071399688721, 2.208101749420166, 2.478759765625, 1.0962390899658203, 1.363324522972107, 1.1746916770935059, 1.3677198886871338, 0.8524452447891235, 0.7283573746681213, 0.8027184009552002, 0.07528418302536011, -0.03212473914027214, -0.06583645939826965, 0.06496774405241013, -0.1559692770242691, -0.38438162207603455, -0.4828754663467407, -0.5001610517501831, -0.6786929368972778, -0.6069854497909546, -0.6160252690315247, -0.5417753458023071, -0.8602062463760376, -0.42015254497528076, -0.7864437103271484, 0.4945414066314697, 0.9510039687156677, 1.1839745044708252, 1.3179786205291748, 0.9546500444412231, 1.2142781019210815, 0.9832442402839661, 1.4015470743179321, 1.8257641792297363, 1.3818659782409668, 1.0183825492858887, 1.593364953994751, 1.2419065237045288, 1.1104885339736938, 0.27108046412467957, 0.6572859287261963, -0.07306143641471863, -0.25557345151901245, -0.30432242155075073, -0.08988156169652939, -0.38058409094810486, -0.5929563045501709, -0.4101249575614929, -0.5539963245391846, -0.9866561889648438, -0.7785154581069946, -0.7945147156715393, -0.8796271681785583, -0.9958938956260681, -0.6814924478530884, -0.8419597148895264, 0.4590088129043579, 0.7959282398223877, 0.9322370290756226, 0.810924232006073, 0.733318030834198, 0.901185929775238, 2.034801959991455, 2.5578627586364746, 1.9934821128845215, 1.948309302330017, 1.7033580541610718, 1.621769905090332, 1.4559996128082275, 0.9712110757827759, 0.43412303924560547, 0.3738904595375061, 0.11564376205205917, -0.17960692942142487, 0.108619824051857, -0.10782231390476227, -0.2761407196521759, -0.42104390263557434, -0.32638832926750183, -0.5467886924743652, -0.9477894306182861, -0.7850903272628784, -0.6244397759437561, -0.6700237989425659, -0.795456051826477, -0.48371070623397827, -0.5858380794525146, 0.5112721920013428, 0.7606539130210876, 1.0349626541137695, 1.3149464130401611, 1.160621166229248, 1.5132867097854614, 1.7028651237487793, 1.9420936107635498, 2.201725959777832, 0.7063555121421814, 1.2382272481918335, 1.8386852741241455, 0.8571040630340576, 0.9208701848983765, 0.48311999440193176, 0.4978145956993103, 0.17776723206043243, 0.1537938416004181, 0.17171725630760193, -0.06914497166872025, -0.24838532507419586, -0.5633254647254944, -0.1981380581855774, -0.534439206123352, -0.6468850374221802, -0.48814883828163147, -0.604825496673584, -0.7614359855651855, -0.7319217920303345, -0.4940332770347595, -0.6874145269393921, 0.36213219165802, 0.9809114336967468, 1.0864663124084473, 1.351898193359375, 1.2747929096221924, 1.5553853511810303, 1.4780046939849854, 2.0632591247558594, 2.3004040718078613, 1.9930920600891113, 1.4676721096038818, 1.3724429607391357, 0.7092536687850952, 1.2139875888824463, 0.827889084815979, 0.32735174894332886, 0.23347827792167664, 0.13739030063152313, -0.10810788720846176, 0.008933693170547485, -0.1981988549232483, -0.5472040176391602, -0.4324305057525635, -0.7022997140884399, -0.6801137328147888, -0.6620376110076904, -0.7089105844497681, -0.4945333003997803, -0.7342891693115234, -0.4536812901496887, -0.8386795520782471, 0.6882373094558716, 0.9433866739273071, 1.3724033832550049, 1.1478326320648193, 0.8809816241264343, 1.2617920637130737, 1.2804820537567139, 2.4625329971313477, 2.0924935340881348, 1.5802152156829834, 1.2319742441177368, 1.7523977756500244, 1.0384548902511597, 0.493221253156662, 0.5820276737213135, 0.3105960190296173, -0.16339987516403198, -0.18084190785884857, -0.3560597896575928, -0.3169470429420471, -0.6105166673660278, -0.4088074564933777, -0.522343099117279, -0.7496079802513123, -0.8603992462158203, -0.8425309062004089, -0.5641464591026306, -0.6654108762741089, -0.8746335506439209, -0.579551100730896, -0.6895177364349365, 0.5248071551322937, 0.9683962464332581, 1.2143689393997192, 1.192850947380066, 1.4657700061798096, 1.4372813701629639, 1.6598683595657349, 2.936187744140625, 2.611330986022949, 2.7749037742614746, 1.4174692630767822, 1.602592945098877, 1.3396739959716797, 0.6097548604011536, 0.3585864305496216, 0.566718578338623, -0.15572324395179749, -0.1878051459789276, -0.33789798617362976, -0.2009565234184265, -0.6605589985847473, -0.8257384300231934, -0.3963841199874878, -0.7496211528778076, -0.9527697563171387, -0.6834225654602051, -0.8056608438491821, -0.7461100816726685, -0.8195905685424805, -0.5371579527854919, -0.5259065628051758, 0.2830820083618164, 0.6058571338653564, 0.9746177792549133, 1.0184041261672974, 1.6338963508605957, 1.7230559587478638, 2.039487600326538, 2.2695579528808594, 3.098696708679199, 2.5010905265808105, 1.4497570991516113, 1.5238333940505981, 1.2825549840927124, 0.7635303139686584, 0.9013055562973022, 0.4051002264022827, 0.35962677001953125, 0.08761462569236755, -0.2250780165195465, -0.07935714721679688, -0.6097105145454407, -0.7081195116043091, -0.41171011328697205, -0.5205129384994507, -0.7541688680648804, -0.8044946789741516, -0.6069444417953491, -0.6096543073654175, -0.6580797433853149, -0.3382405638694763, -0.6641496419906616, 0.4261395335197449, 0.8483392596244812, 1.2186996936798096, 1.2517129182815552, 1.3996589183807373, 1.3163325786590576, 1.9952270984649658, 2.89404296875, 2.4106786251068115, 1.6601542234420776, 1.7531746625900269, 1.30479097366333, 1.1545418500900269, 1.0895318984985352, 0.5661576390266418, 0.6970858573913574, 0.14827749133110046, -0.32965052127838135, -0.3263005018234253, -0.3053727447986603, -0.6374472379684448, -0.7535957098007202, -0.573840320110321, -0.8023160696029663, -0.6992163062095642, -0.9313225150108337, -0.7203292846679688, -0.6645025014877319, -0.7115713357925415, -0.08305326849222183, -0.2509443759918213, 0.256804496049881, 0.8166514039039612, 1.1553236246109009, 1.5683176517486572, 1.2253518104553223, 1.140193223953247, 1.9094653129577637, 1.8540626764297485, 2.4888463020324707, 2.491426944732666, 1.341291904449463, 1.4496283531188965, 1.0919281244277954, 0.7099015712738037, 0.5790095329284668, 0.3845577836036682, 0.18605786561965942, -0.06857435405254364, -0.3164936900138855, -0.18529942631721497, -0.759197473526001, -0.6952420473098755, -0.37552160024642944, -0.6757543683052063, -1.0788191556930542, -0.5765818357467651, -0.55409836769104, -0.4064199924468994, -0.5936353206634521, -0.018669962882995605, -0.4832814335823059, 0.35990989208221436, 0.7494897246360779, 1.1049728393554688, 0.9671664834022522, 1.0089824199676514, 1.3747389316558838, 1.8464951515197754, 2.0100929737091064, 2.9226531982421875, 2.4619812965393066, 1.2539374828338623, 1.3378266096115112, 0.6330165863037109, 0.38130849599838257, 0.5696202516555786, 0.37722247838974, -0.025887131690979004, -0.2887759208679199, -0.2857033610343933, -0.2840358316898346, -0.9471882581710815, -0.7215719223022461, -0.7744436264038086, -0.9820765256881714, -1.1563955545425415, -1.0355170965194702, -0.6975563168525696, -0.6332305669784546, -0.8219904899597168, 0.10652841627597809, -0.3816898763179779, 0.2630009651184082, 0.6212823390960693, 0.9436099529266357, 1.1552917957305908, 0.9547205567359924, 1.2792904376983643, 1.4789457321166992, 1.9760422706604004, 2.2360448837280273, 1.8892362117767334, 1.3410340547561646, 0.9687795639038086, 0.866641640663147, 0.33159321546554565, 0.4583479166030884, 0.18217527866363525, -0.13483703136444092, -0.10847251117229462, -0.5752143859863281, -0.3573041558265686, -0.8348198533058167, -0.9045562148094177, -0.7663173675537109, -1.026863694190979, -1.3873496055603027, -1.0449525117874146, -0.7658106088638306, -0.3422473073005676, -0.22437545657157898, 1.159492015838623, -0.0921403169631958, 0.16056397557258606, 0.5152193307876587, 0.9599515199661255, 0.772700309753418, 0.769440770149231, 0.5770336389541626, 1.159503698348999, 1.4298465251922607, 1.5182785987854004, 1.4687292575836182, 1.2661988735198975, 1.0344655513763428, 1.0008479356765747, 0.624957799911499, 0.591579258441925, 0.3451904058456421, -0.35058724880218506, -0.24317260086536407, -0.7338380813598633, -0.5412229895591736, -1.0976207256317139, -1.1693205833435059, -0.7779505252838135, -1.1075512170791626, -1.2905033826828003, -1.1216059923171997, -0.9270852208137512, -0.6876684427261353, -0.3671959340572357, 1.7898640632629395, 0.012507408857345581, 0.6089289784431458, 0.48609110713005066, 0.549956738948822, 0.45553892850875854, 0.28956037759780884, 0.03826117515563965, 0.21571096777915955, 0.616309404373169, 0.6497175097465515, 0.8144481778144836, 0.8895666599273682, 0.9428303837776184, 1.0381966829299927, 0.6291487812995911, 0.4732409119606018, -0.0397280752658844, -0.5262511968612671, -0.6047994494438171, -0.8762496113777161, -0.872515082359314, -1.070180058479309, -1.2270584106445312, -1.0877511501312256, -1.1184910535812378, -1.39378023147583, -1.1021580696105957, -1.077989101409912, -1.0991404056549072, -0.7931084632873535, 1.3261892795562744