// Numpy array shape [64]
// Min -0.18964536
// Max 0.1600549
// Number of zeros 0

#ifndef TRANSFORMERS_2_LINEAR_0_BIAS_H_
#define TRANSFORMERS_2_LINEAR_0_BIAS_H_

#ifndef __SYNTHESIS__
model_default_t transformers_2_linear_0_bias[64];
#else
model_default_t transformers_2_linear_0_bias[64] = {-0.7656663060188293, -0.504570722579956, 0.21620750427246094, -0.6299340128898621, -0.07728233933448792, -0.2512286603450775, 
0.482593834400177, -0.9176609516143799, 0.3432655930519104, 0.2620466649532318, -0.7010363936424255, -0.4790414571762085, 0.5044085383415222, 
0.5364529490470886, 0.38783276081085205, -0.543971061706543, -0.425967812538147, 0.460304319858551, 0.43627336621284485, 0.4626326262950897, 
0.5440205931663513, -0.5325956344604492, -0.698432207107544, -0.4574893116950989, 0.4380955696105957, -0.4616427421569824, -0.5175166130065918, 
-0.6386485695838928, 0.4459693431854248, -0.5440688133239746, -0.5036566853523254, -0.023696400225162506, -0.8261547088623047, -0.4383755922317505, 
0.39613085985183716, 0.6661162972450256, -1.3751747608184814, -0.4448795020580292, -0.330601304769516, -0.7819325923919678, -0.6074662804603577, 
0.6643593907356262, -0.5411111116409302, 0.34548044204711914, 0.3910476565361023, 0.18007852137088776, 0.6356318593025208, 0.10677221417427063, 
-0.6184094548225403, 0.6001607775688171, -0.5251906514167786, 0.29156139492988586, -0.6116248369216919, 0.3560328483581543, 0.29572081565856934, 
0.6915155053138733, 0.32356929779052734, -0.6930955052375793, 0.4142416715621948, -0.24658603966236115, -0.3614650070667267, -0.4583877921104431, 
-0.5908252000808716, 0.21585160493850708};

#endif

#endif
