// Numpy array shape [128]
// Min -0.5310212
// Max 0.3033711
// Number of zeros 0

#ifndef TRANSFORMERS_0_LINEAR_3_BIAS_H_
#define TRANSFORMERS_0_LINEAR_3_BIAS_H_

#ifndef __SYNTHESIS__
model_default_t transformers_0_linear_3_bias[128];
#else
model_default_t transformers_0_linear_3_bias[128] = {-0.07934429496526718, 0.3987232446670532, -0.4946974515914917, 0.6416087746620178, 0.5927041172981262, -0.3517463803291321, 
0.10956472158432007, 0.1835680603981018, -0.2123064398765564, 0.38986048102378845, 0.28269127011299133, 0.4091629981994629, -0.27030473947525024, 
-0.08065345883369446, 0.15402661263942719, 0.21587306261062622, -0.12003043293952942, 0.6257192492485046, -0.14710281789302826, 0.06496664881706238, 
-1.3498120307922363, -0.7845703363418579, 0.3145182132720947, 0.30084115266799927, 0.19086477160453796, 0.6340382695198059, 0.49594613909721375, 
0.7159505486488342, 0.1531176120042801, -0.35993555188179016, -0.666559636592865, 0.4930878281593323, -0.8157413005828857, -0.2820378839969635, 
-1.1844552755355835, -1.559620976448059, -0.12983529269695282, 0.4984772801399231, -0.2510189414024353, -0.7579110860824585, 0.30457785725593567, 
0.2781197428703308, 0.5523250102996826, 1.9025728702545166, 0.904100775718689, -0.4153667390346527, -0.1691604107618332, -0.3110125660896301, 
-0.13964015245437622, 0.7106730937957764, -1.1962780952453613, -1.7468795776367188, -0.7281579971313477, 0.0558331236243248, -0.23826482892036438, 
-0.4433131217956543, 0.39002132415771484, -0.9976043701171875, -0.443371057510376, -0.5782448649406433, 0.06684886664152145, -1.278613567352295, 
0.20086964964866638, -0.37812337279319763, 0.12522989511489868, 0.03911520168185234, 0.07022872567176819, 0.7024579048156738, 0.31042400002479553, 
-0.8090728521347046, 0.13571113348007202, 0.6761488318443298, 0.5489166975021362, -1.5900686979293823, -0.43035462498664856, 0.8019791841506958, 
-0.5631111264228821, 0.6661887168884277, 0.5671413540840149, -0.38484522700309753, 0.4101899266242981, -1.7576894760131836, -0.1811555176973343, 
0.2980448305606842, -1.2848236560821533, 0.8532221913337708, -0.6285617351531982, 0.40294644236564636, -1.8321456909179688, -0.31527256965637207, 
-1.2619816064834595, 0.4130280315876007, 0.2073669135570526, -0.6351486444473267, -1.5242000818252563, -1.9058570861816406, 0.30756932497024536, 
-0.7918776273727417, 1.5337995290756226, -0.23051272332668304, -0.804318904876709, 0.7958406209945679, 0.7575394511222839, 0.5409970879554749, 
-0.2960739731788635, -0.7733121514320374, -1.7127442359924316, -0.5287186503410339, -0.29181769490242004, -1.8850350379943848, -0.7727051973342896, 
0.5673291087150574, -0.1665935218334198, -1.2439470291137695, 0.7649965882301331, 0.6358445882797241, 0.11202681809663773, -0.5774796605110168, 
0.6440284848213196, -0.2806146740913391, -0.5892701745033264, -0.48115986585617065, 0.13344356417655945, 0.4608439803123474, -0.1472928822040558, 
-0.1182878166437149, 0.22989800572395325, -0.11637617647647858};

#endif

#endif
