// Numpy array shape [64]
// Min -0.29316166
// Max 0.46554735
// Number of zeros 0

#ifndef TRANSFORMERS_0_LINEAR_0_BIAS_H_
#define TRANSFORMERS_0_LINEAR_0_BIAS_H_

#ifndef __SYNTHESIS__
model_default_t transformers_0_linear_0_bias[64];
#else
model_default_t transformers_0_linear_0_bias[64] = {-0.6317331790924072, -0.588446319103241, 0.33867257833480835, -0.5983253121376038, 1.7497140169143677, 0.5518746972084045, 
0.5452269315719604, -1.1440974473953247, 0.6223356127738953, 1.2643952369689941, -0.5813277959823608, -0.1304677277803421, 0.30332618951797485, 
0.5037897229194641, 0.47604626417160034, -0.4356141686439514, -0.4050353467464447, 0.41291114687919617, 0.23061753809452057, 0.6562376022338867, 
-0.2520250082015991, -0.5171743631362915, -0.5981631278991699, -0.5832284688949585, 0.1805734932422638, -0.6337515711784363, -0.5295549631118774, 
-1.2406071424484253, 0.3996179699897766, -0.6736049056053162, 0.2018914818763733, -0.5032442808151245, 0.3224605321884155, -0.6149884462356567, 
0.5085356831550598, 0.2745016813278198, -0.5211532115936279, -0.5953748226165771, -0.026837170124053955, -0.5402643084526062, -0.5827940702438354, 
0.6266956925392151, -0.6345139741897583, 0.676364541053772, 0.4235171675682068, 0.22064462304115295, 0.38682419061660767, 0.27159371972084045, 
-0.5392746925354004, 0.27480438351631165, -0.4654950201511383, 0.39143216609954834, -0.4077892303466797, 0.1905600130558014, 1.1854206323623657, 
0.3890884220600128, 0.449013352394104, -0.6057090163230896, 0.5421501994132996, -0.5151039361953735, -0.455902099609375, -0.5231099128723145, 
-0.5976741909980774, 0.2968963086605072};

#endif

#endif
