// Numpy array shape [64, 64]
// Min -0.33580145
// Max 0.3634612
// Number of zeros 0

#ifndef TRANSFORMERS_2_SELF_ATTENTION_OUT_WEIGHT_H_
#define TRANSFORMERS_2_SELF_ATTENTION_OUT_WEIGHT_H_

#ifndef __SYNTHESIS__
model_default_t transformers_2_self_attention_out_weight[4096];
#else
model_default_t transformers_2_self_attention_out_weight[4096] = {-0.20804116129875183, 0.011543290689587593, -0.14665073156356812, 0.010354716330766678, 0.0669330582022667, -0.08209486305713654, 
0.0020311656408011913, -0.22824159264564514, -0.07921978831291199, -0.2741449475288391, 0.07672899216413498, 0.08101952821016312, -0.1466265767812729, 
0.037908874452114105, -0.17894600331783295, 0.18166856467723846, -0.09024539589881897, -0.02768261358141899, 0.19334730505943298, -0.0221650879830122, 
0.0395059660077095, 0.07361026108264923, 0.02835789881646633, -0.14810308814048767, -0.09763524681329727, 0.03260689973831177, 0.04363004118204117, 
-0.015619447454810143, 0.011697990819811821, 0.049506593495607376, -0.01756179705262184, 0.07808246463537216, 0.003964300267398357, -0.012495220638811588, 
0.059369079768657684, -0.0011488916352391243, 0.0026009243447333574, -0.17291155457496643, -0.022931110113859177, -0.17363496124744415, -0.10531420260667801, 
0.1024107113480568, 0.05115746334195137, -0.013002429157495499, -0.05180557817220688, -0.03934997320175171, 0.09947787970304489, 0.04716826230287552, 
-0.1464899331331253, 0.032904237508773804, 0.18008953332901, -0.1074078157544136, -0.1695435345172882, -0.10713706165552139, -0.0477280355989933, 
-0.08302284777164459, 0.0395408496260643, -0.026669852435588837, 0.007521316409111023, -0.10582731664180756, 0.07942043244838715, -0.06124063581228256, 
-0.032939035445451736, -0.05342191457748413, -0.014332905411720276, 0.027477199211716652, 0.02053067833185196, -0.02213323675096035, 0.05211304500699043, 
-0.011153987608850002, 0.08675424754619598, -0.05633794888854027, 0.13281168043613434, 0.08329471945762634, -0.07803411036729813, -0.11490397900342941, 
0.144371896982193, 0.1726524531841278, -0.000977825722657144, 0.09548982977867126, 0.08722923696041107, -0.1272926777601242, 0.06495772302150726, 
0.09930536150932312, -0.14767591655254364, -0.009567384608089924, -0.012746023945510387, -0.03807380422949791, 0.0769432783126831, 0.17737159132957458, 
-0.04917643964290619, -0.11400013417005539, 0.012165486812591553, 0.12806810438632965, -0.004436946939677, 0.10659196227788925, -0.09170926362276077, 
-0.006284266710281372, -0.1233411431312561, -0.06515900045633316, 0.1017008125782013, 0.022989651188254356, 0.015412919223308563, -0.15691691637039185, 
-0.09453978389501572, -0.10665962845087051, -0.1298249363899231, -0.0770927369594574, 0.16501332819461823, -0.11686190962791443, -0.06817904859781265, 
0.06009164825081825, -0.019280781969428062, -0.18215051293373108, 0.13177286088466644, -0.21637055277824402, -0.09395246207714081, 0.11511581391096115, 
0.03342704474925995, -0.013293408788740635, -0.04077574983239174, -0.16164548695087433, -0.09926699846982956, 0.09781346470117569, 0.043536048382520676, 
-0.008220268413424492, 0.05868586152791977, -0.09637116640806198, 0.1606428325176239, 0.07335107028484344, -0.00679312739521265, 0.07338947057723999, 
-0.19737541675567627, -0.00453306594863534, 0.031128648668527603, -0.022938845679163933, -0.03550584614276886, -0.026405779644846916, -0.019753145053982735, 
-0.04999597743153572, 0.04976001754403114, -0.19289341568946838, 0.1974424570798874, -0.017698146402835846, -0.132421612739563, -0.01633055880665779, 
-0.17958062887191772, -0.25817903876304626, 0.09435681253671646, -0.169965922832489, 0.03205391764640808, 0.10781187564134598, -0.12780001759529114, 
0.04160735383629799, 0.05494682863354683, -0.02537393569946289, 0.09942512214183807, -0.12799286842346191, -0.16467958688735962, 0.011988180689513683, 
-0.034115277230739594, -0.19070985913276672, -0.05023683235049248, 0.08361411094665527, 0.0029950507450848818, 0.10027068108320236, -0.15083962678909302, 
0.2147463709115982, 0.10563056170940399, -0.14369767904281616, 0.018808811902999878, 0.036398984491825104, -0.02542724460363388, 0.14045563340187073, 
-0.10605921596288681, -0.08433711528778076, -0.019900165498256683, 0.08348769694566727, -0.02556840516626835, 0.18558843433856964, -0.03227650746703148, 
0.007870706729590893, -0.051720861345529556, 0.010364140383899212, -0.07706375420093536, -0.02057391218841076, 0.01866610161960125, 0.08842573314905167, 
-0.12401153147220612, -0.08245016634464264, 0.03810049965977669, 0.1266644448041916, 0.08530092984437943, 0.015379716642200947, 0.09888682514429092, 
0.03177010267972946, -0.1704862415790558, 0.038382917642593384, 0.07372083514928818, 0.05768481269478798, 0.13114634156227112, 0.1589098572731018, 
-0.0842616930603981, -0.0432831346988678, 0.1530972272157669, -0.2032759189605713, 0.1372452974319458, -0.031580813229084015, -0.06362652033567429, 
0.025084810331463814, 0.03797617554664612, 0.06503221392631531, -0.07997353374958038, -0.016656063497066498, 0.06098878011107445, -0.04859032481908798, 
0.014692600816488266, -0.153593048453331, -0.08890912681818008, 0.20897482335567474, -0.015895217657089233, -0.08051761984825134, -0.1268821507692337, 
0.03499777987599373, -0.041535891592502594, -0.03946523740887642, 0.04954276978969574, -0.0450030118227005, 0.12650646269321442, 0.034175414592027664, 
-0.12794774770736694, 0.19010138511657715, 0.04885179176926613, -0.08766181766986847, -0.06916224211454391, 0.10113390535116196, -0.09410494565963745, 
0.21350723505020142, -0.16161414980888367, 0.05262278765439987, 0.11497531086206436, 0.1386130005121231, -0.07912208884954453, 0.0845145657658577, 
0.19799965620040894, -0.021471451967954636, -0.12384538352489471, 0.06257017701864243, -0.06029307097196579, 0.022392624989151955, 0.038995008915662766, 
0.19537389278411865, -0.12342306226491928, -0.013601561076939106, 0.03310171142220497, 0.03039935603737831, -0.00491751916706562, 0.04996243119239807, 
-0.021839052438735962, 0.007854174822568893, -0.16212381422519684, -0.1746748685836792, 0.01810472644865513, 0.1090279370546341, 0.04252661019563675, 
0.0566675029695034, -0.13980911672115326, -0.16109496355056763, 0.070794977247715, -0.10756171494722366, -0.033897798508405685, -0.004208981525152922, 
0.09303148835897446, -0.05460938811302185, 0.06014508381485939, 0.006008646450936794, -0.13111115992069244, -0.06234356388449669, -0.12132730334997177, 
0.01034718006849289, 0.08566951751708984, 0.001773553667590022, -0.017792314291000366, -0.1451832801103592, 0.14094439148902893, -0.010858466848731041, 
0.0428217388689518, 0.06356164067983627, 0.10874884575605392, 0.05866032466292381, -0.100684754550457, -0.031686123460531235, -0.012936025857925415, 
-0.03082289546728134, 0.13168194890022278, -0.09554730355739594, 0.02066344954073429, 0.029106108471751213, 0.0022521696519106627, 0.12424670904874802, 
-0.022911762818694115, -0.0015872176736593246, 0.11217409372329712, -0.09993508458137512, -0.0013008504174649715, 0.0007801323663443327, 0.0868610218167305, 
-0.07794545590877533, 0.1063670888543129, 0.056944794952869415, 0.1156635656952858, -0.03465080261230469, 0.021202394738793373, 0.07108425348997116, 
-0.06564647704362869, 0.1056414321064949, -0.13539792597293854, 0.030733508989214897, -0.15181200206279755, 0.04003289341926575, 0.11821099370718002, 
0.001109982724301517, -0.04880758374929428, 0.08592961728572845, 0.0753341093659401, -0.021808691322803497, -0.08905498683452606, -0.14907719194889069, 
0.03916040062904358, 0.08991271257400513, -0.02024087682366371, 0.10266806930303574, -0.12310118973255157, -0.10354826599359512, 0.10423145443201065, 
0.003484498243778944, -0.12265775352716446, 0.041461244225502014, -0.07863928377628326, -0.044566452503204346, 0.11612069606781006, -0.07162714004516602, 
0.11245530098676682, 0.08653918653726578, -0.18954433500766754, -0.0038718990981578827, -0.017350785434246063, -0.035484328866004944, -0.11239828169345856, 
-0.09731867164373398, -0.12414461374282837, -0.049536265432834625, 0.12312483042478561, -0.17507535219192505, 0.0014827157137915492, -0.0023177550174295902, 
0.09244287759065628, 0.08388340473175049, -0.08193955570459366, -0.06262075155973434, 0.10164900869131088, 0.16538451611995697, 0.10046116262674332, 
0.05377576872706413, -0.1340235024690628, 0.1408252865076065, 0.06956623494625092, 0.1633838266134262, 0.04562072828412056, -0.12725341320037842, 
-0.02839885838329792, -0.025344504043459892, 0.03460671007633209, -0.0686897486448288, -0.1284080594778061, 0.04463503882288933, -0.07471257448196411, 
0.1508658528327942, -0.005384828895330429, 0.06773197650909424, -0.0016461671330034733, -0.09167182445526123, 0.05992675945162773, 0.12348882853984833, 
-0.03475187346339226, -0.05294656753540039, 0.1497924029827118, 0.04772524535655975, 0.10259082913398743, 0.1546756476163864, -0.14686080813407898, 
0.03859853744506836, -0.14359594881534576, 0.04447883367538452, -0.06022166088223457, 0.14266830682754517, -0.02149401418864727, -0.16216446459293365, 
0.0383901447057724, 0.08233582973480225, 0.07595279812812805, 0.02039233408868313, -0.06034035608172417, -0.06477279216051102, 0.12318436056375504, 
-0.1460227221250534, 0.010569203644990921, -0.06247255206108093, -0.02425600402057171, 0.10669947415590286, 0.002707158913835883, 0.033317212015390396, 
-0.0824694037437439, -0.009850317612290382, -0.08791527897119522, -0.01665680669248104, 0.023860368877649307, 0.011927483603358269, 0.016844386234879494, 
0.06632021069526672, -0.03328929841518402, 0.019882002845406532, -0.13619768619537354, 0.04081525653600693, 0.06817951798439026, 0.14775292575359344, 
-0.0141099002212286, -0.011788041330873966, -0.15926161408424377, -0.06551415473222733, 0.09835784137248993, 0.0622393935918808, -0.10157769173383713, 
0.01502871885895729, -0.08500372618436813, 0.1258232742547989, 0.05985511466860771, -0.015281477943062782, 0.03489549458026886, -0.12368666380643845, 
-0.0786941647529602, -0.08527860045433044, 0.12169262766838074, 0.12244273722171783, -0.03933892771601677, 0.07960572093725204, -0.039662398397922516, 
0.12582086026668549, -0.06261556595563889, 0.025301985442638397, 0.10166683048009872, 0.045073967427015305, -0.03541973978281021, -0.009154750034213066, 
0.006156370509415865, 0.03164290636777878, 0.09760218858718872, 0.03082100860774517, 0.0065312739461660385, -0.05961626395583153, 0.1412525326013565, 
-0.09931667149066925, -0.05910203978419304, -0.20796239376068115, -0.06705231964588165, 0.1237601637840271, 0.07371165603399277, -0.015326485969126225, 
-0.05655580013990402, 0.10222292691469193, -0.06905201077461243, -0.1267457753419876, 0.09203027188777924, -0.10508023202419281, 0.020515821874141693, 
-0.13364528119564056, -0.07029862701892853, 0.07162598520517349, 0.09220165014266968, 0.10058411210775375, 0.039696041494607925, 0.0801796019077301, 
-0.005531995557248592, 0.13363780081272125, 0.09347573667764664, 0.00457052793353796, -0.07881370186805725, -0.07110457122325897, -0.13525988161563873, 
0.0425167940557003, 0.022945350036025047, -0.036595433950424194, 0.0680624470114708, 0.02249024249613285, -0.060370638966560364, -0.11974040418863297, 
0.10567350685596466, -0.04890255630016327, 0.012693922035396099, -0.16404752433300018, 0.021857505664229393, 0.025924626737833023, 0.17491823434829712, 
0.07729320973157883, -0.10365518927574158, 0.04088722541928291, -0.056931376457214355, 0.11792593449354172, 0.08321769535541534, 0.05848255753517151, 
0.06870324164628983, -0.11563742905855179, -0.014494265429675579, 0.1374165266752243, -0.12171784788370132, -0.08286233246326447, 0.14436493813991547, 
0.14591294527053833, -0.16346576809883118, -0.09400847554206848, -0.04952578991651535, -0.16836324334144592, -0.05449889227747917, 0.09369508177042007, 
-0.08729355782270432, 0.006563986651599407, -0.01909966766834259, 0.27153217792510986, 0.009042162448167801, 0.011315545998513699, 0.05361621081829071, 
-0.15452931821346283, -0.01222475990653038, 0.0650826022028923, 0.12593060731887817, 0.012147138826549053, -0.06322608888149261, -0.04257385432720184, 
-0.014540867879986763, 0.07712160795927048, 0.08388536423444748, 0.05858350545167923, 0.08484678715467453, -0.05207020416855812, -0.17185617983341217, 
-0.1332666277885437, 0.05589952692389488, 0.07593601942062378, -0.07082021981477737, -0.14145834743976593, -0.09339772909879684, -0.11265438795089722, 
-0.10143651813268661, 0.18386568129062653, 0.10104398429393768, 0.03195197880268097, -0.048388078808784485, 0.015462730079889297, 0.007025618106126785, 
0.09073898196220398, 0.015887169167399406, 0.0026661474257707596, 0.16170865297317505, 0.040877558290958405, -0.1292707771062851, -0.11936599016189575, 
-0.005752590950578451, -0.017623556777834892, -0.08447389304637909, 0.018417231738567352, -0.053577326238155365, -0.10594914108514786, 0.01841847598552704, 
0.0684257224202156, -0.06361369788646698, 0.06909924000501633, -0.13275279104709625, 0.07678329199552536, -0.13420432806015015, -0.15004631876945496, 
0.1517592966556549, -0.07975848764181137, 0.009186028502881527, -0.1039065569639206, 0.06781075894832611, 0.020596502348780632, -0.011293411254882812, 
-0.14736592769622803, -0.07817317545413971, 0.04542992636561394, -0.04614473879337311, -0.010538085363805294, 0.03421758860349655, -0.008227221667766571, 
0.16142994165420532, 0.01364878099411726, 0.06961429864168167, 0.06368288397789001, -0.058364517986774445, -0.0007607751758769155, 0.11974813789129257, 
0.15852895379066467, -0.07764576375484467, -0.17672429978847504, -0.09966008365154266, 0.04853922128677368, 0.07289311289787292, 0.053685881197452545, 
0.045735813677310944, 0.1916791796684265, -0.08127821981906891, 0.05702722445130348, -0.009961494244635105, -0.16786862909793854, 0.14419803023338318, 
-0.003941901493817568, -0.1765585094690323, -0.025849323719739914, 0.03530891612172127, 0.033383339643478394, 0.08398422598838806, -0.21722212433815002, 
0.031299516558647156, -0.19270466268062592, -0.08013001829385757, 0.0751243531703949, 0.0978814885020256, -0.2103329598903656, -0.12021446973085403, 
-0.007405795156955719, 0.07879456877708435, 0.01983792707324028, 0.058286380022764206, -0.04752145707607269, -0.03088005818426609, -0.13388483226299286, 
0.19286541640758514, 0.0628986582159996, -0.13160794973373413, -0.004607300274074078, -0.061611682176589966, -0.018491506576538086, -0.10841713100671768, 
-0.043184153735637665, 0.10944916307926178, -0.08564985543489456, 0.06324630975723267, 0.05058882385492325, -0.043049342930316925, -0.12067802250385284, 
-0.05670738220214844, 0.03496792912483215, 0.11326558142900467, 0.08367031812667847, 0.13686108589172363, 0.14986975491046906, 0.00551990233361721, 
-0.04088384658098221, -0.023682093247771263, 0.10122531652450562, -0.06257880479097366, -0.16669894754886627, 0.09302300214767456, 0.04579672962427139, 
-0.030410200357437134, 0.019198672845959663, -0.15062734484672546, -0.10591490566730499, 0.006692204158753157, -0.10052558034658432, -0.09760992974042892, 
-0.08647522330284119, -0.09658875316381454, 0.007824592292308807, 0.07754510641098022, -0.024607310071587563, -0.046922970563173294, 0.05260255187749863, 
0.07711517065763474, -0.0715470090508461, 0.07646281272172928, -0.004591214936226606, -0.0667572021484375, 0.06827788054943085, -0.11804592609405518, 
0.029339900240302086, -0.0036002439446747303, 0.1087023988366127, -0.04645209386944771, -0.1271057426929474, -0.11593274772167206, 0.11728529632091522, 
0.05634918436408043, 0.008789178915321827, -0.003959656227380037, -0.07245783507823944, -0.005585545673966408, 0.13190089166164398, 0.06275666505098343, 
0.09520787745714188, -0.05016764998435974, -0.0645778551697731, -0.14528976380825043, 0.1631241887807846, 0.0622466541826725, 0.025368034839630127, 
0.24859023094177246, 0.07838365435600281, -0.30129823088645935, -0.1963767558336258, 0.0592598132789135, 0.012248962186276913, 0.026427358388900757, 
0.24296407401561737, 0.037028439342975616, -0.02127084508538246, 0.14687280356884003, 0.050645675510168076, 0.13934725522994995, -0.13648368418216705, 
-0.10426733642816544, -0.14592252671718597, -0.04045727476477623, -0.10193536430597305, 0.07058238983154297, -0.112711101770401, -0.14127686619758606, 
0.07402364164590836, 0.03356131166219711, 0.0007020764169283211, -0.03032270260155201, 0.043846916407346725, 0.011408878490328789, -0.018453607335686684, 
0.032043714076280594, -0.062322549521923065, 0.14395564794540405, 0.01948154717683792, 0.04708041623234749, -0.1450464427471161, -0.11642732471227646, 
0.1478021889925003, 0.1405104100704193, 0.1646742969751358, -0.0806683748960495, -0.13084667921066284, -0.07790590822696686, -0.05619840323925018, 
0.12449359148740768, 0.11529988050460815, -0.12255700677633286, 0.05998438596725464, 0.25232410430908203, 0.10587064921855927, -0.11954160779714584, 
-0.07234083116054535, 0.03540036827325821, 0.15206022560596466, 0.1290864795446396, 0.15470698475837708, -0.019671769812703133, 0.03900729492306709, 
-0.014085918664932251, 0.07979299873113632, 0.013555592857301235, 0.10987042635679245, 0.05768478661775589, 0.0904247984290123, -0.012045927345752716, 
0.0632997453212738, 0.14121724665164948, -0.09771168977022171, -0.1394146978855133, 0.1303628385066986, -0.1785062849521637, -0.019031943753361702, 
-0.015830794349312782, -0.05620776489377022, 0.08514267206192017, 0.0873403549194336, -0.14115291833877563, -0.09692128002643585, 0.00314579950645566, 
0.07249663025140762, -0.1547856628894806, 0.12329938262701035, -0.04975360259413719, -0.05045329034328461, 0.0696827843785286, 0.04581673443317413, 
0.16752339899539948, 0.08305876702070236, 0.05424196645617485, -0.05355614423751831, 0.004320890177041292, 0.09274139255285263, 0.0051437197253108025, 
0.0037030051462352276, -0.1491943746805191, -0.09022568166255951, 0.03653533756732941, -0.1482173204421997, 0.08926904946565628, 0.03934059292078018, 
-0.003302955301478505, -0.06126809120178223, -0.060566116124391556, 0.15633676946163177, 0.027941672131419182, 0.05336572974920273, -0.005122239235788584, 
0.06599061191082001, -0.09331291913986206, -0.0918869897723198, -0.04761863872408867, -0.023540876805782318, 0.01381738018244505, 0.06917295604944229, 
-0.002600173931568861, 0.12602730095386505, 0.016129814088344574, -0.06820780038833618, -0.13639141619205475, -0.052733466029167175, 0.04736524447798729, 
0.06517530977725983, 0.1732683926820755, 0.0919683501124382, -0.11866369843482971, -0.05203307420015335, 0.09623587876558304, 0.16957025229930878, 
0.13133829832077026, 0.009678510017693043, 0.147464781999588, 0.01870700903236866, -0.0857950747013092, -0.01724635437130928, -0.025899209082126617, 
0.09437951445579529, 0.07652515918016434, -0.062326136976480484, -0.08458949625492096, -0.027460983023047447, -0.019684933125972748, 0.07325705885887146, 
0.007620533928275108, 0.0075708008371293545, 0.03796960413455963, -0.04370685666799545, -0.13420745730400085, 0.10793774574995041, -0.013900273479521275, 
-0.18523161113262177, -0.061652615666389465, -0.048070501536130905, -0.05062119662761688, -0.06053486838936806, -0.05870158597826958, 0.1027563214302063, 
-0.08092327415943146, -0.06386387348175049, -0.12320121377706528, -0.11477866768836975, 0.07177195698022842, 0.002858430380001664, -0.021069062873721123, 
-0.13200047612190247, -0.04244642332196236, 0.12485431134700775, -0.001427275245077908, -0.032894764095544815, -0.047930508852005005, 0.050145722925662994, 
0.04115763306617737, 0.08530212193727493, -0.13308341801166534, -0.043947163969278336, 0.13654127717018127, 0.0008633853285573423, 0.07575506716966629, 
-0.09384477883577347, -0.11268877983093262, 0.12738800048828125, 0.116732157766819, 0.03261258453130722, -0.06880858540534973, -0.0721450001001358, 
0.09345313161611557, 0.08789175003767014, 0.035115838050842285, -0.08027172088623047, 0.07359129935503006, 0.11633545905351639, -0.10524297505617142, 
0.018569141626358032, 0.012255842797458172, -0.15908534824848175, 0.05303443223237991, -0.08860336989164352, -0.052881624549627304, -0.014283980242908001, 
-0.13459037244319916, 0.009501365013420582, 0.021003808826208115, 0.19259099662303925, 0.15323424339294434, 0.10872472822666168, 0.0567951500415802, 
-0.08259586244821548, -0.029667308554053307, -0.02261941321194172, -0.14165569841861725, 0.05921091511845589, -0.08918062597513199, -0.14026640355587006, 
0.06604171544313431, -0.10446580499410629, -0.06285634636878967, 0.09397488832473755, -0.05814852938055992, -0.021532753482460976, 0.06515919417142868, 
0.18797433376312256, -0.024788478389382362, -0.08145761489868164, -0.05800627917051315, 0.054513584822416306, 0.13474446535110474, -0.17370499670505524, 
0.107062928378582, -0.01802987977862358, -0.16787925362586975, 0.06849794834852219, -0.012138637714087963, 0.02753729745745659, 0.13953596353530884, 
0.02401077002286911, -0.07016319781541824, -0.20179565250873566, -0.21275193989276886, 0.18301452696323395, -0.05945570021867752, 0.062387432903051376, 
0.08279165625572205, 0.17096416652202606, -0.051502782851457596, -0.03521552309393883, -0.04414882883429527, -0.0634705126285553, -0.12145206332206726, 
-0.08171670883893967, -0.02931700088083744, 0.0016188060399144888, 0.09680525213479996, 0.1245039626955986, -0.15099772810935974, 0.1841467320919037, 
0.12471679598093033, -0.07863442599773407, 0.23561294376850128, 0.0008812859305180609, 0.16303637623786926, 0.133268341422081, -0.011981131508946419, 
0.04999604448676109, 0.007017912343144417, -0.012190144509077072, -0.10524830222129822, 0.09496092796325684, 0.12869040668010712, 0.00786169245839119, 
-0.07838273048400879, -0.23463840782642365, 0.1904924213886261, -0.11993242800235748, -0.17353852093219757, -0.09260488301515579, -0.057524051517248154, 
-0.062267985194921494, 0.11794920265674591, -0.14396075904369354, 0.031683601438999176, 0.05499397590756416, -0.0963401347398758, -0.10503599047660828, 
-0.07256664335727692, 0.1291174739599228, -0.1442553699016571, -0.174551323056221, -0.022839004173874855, -0.029667923226952553, 0.08191559463739395, 
0.0012828477192670107, -0.02307378314435482, -0.03734472766518593, 0.09481410682201385, 0.07809855788946152, -0.10038436949253082, 0.24572841823101044, 
0.020472081378102303, 0.10523230582475662, -0.10441311448812485, -0.1540149301290512, -0.17212548851966858, 0.3626522421836853, -0.1128348857164383, 
0.17498451471328735, 0.06908942013978958, -0.013034101575613022, -0.236825630068779, 0.21814852952957153, 0.14639276266098022, -0.08447032421827316, 
-0.08771105110645294, -0.0747658908367157, -0.11311383545398712, 0.12334057688713074, 0.028953805565834045, 0.07047069072723389, -0.2333102524280548, 
0.15269000828266144, 0.08545082807540894, -0.028298497200012207, -0.07945352047681808, 0.045690231025218964, -0.024943003430962563, -0.0928671807050705, 
-0.10118062794208527, 0.16665422916412354, 0.06518692523241043, -0.042524345219135284, -0.092269666492939, 0.1014944389462471, 0.06714429706335068, 
0.018316492438316345, -0.14233823120594025, -0.13067547976970673, 0.030463019385933876, 0.17232872545719147, -0.08870162069797516, 0.11779724061489105, 
-0.04922216385602951, -0.06600649654865265, 0.03610699996352196, 0.032456882297992706, 0.04862580820918083, 0.04485539719462395, 0.028360284864902496, 
0.026626838371157646, 0.10241729021072388, -0.044852834194898605, 0.093101866543293, -0.0828099176287651, -0.045936811715364456, -0.07264742255210876, 
0.17646834254264832, 0.04815524443984032, 0.13251489400863647, -0.06918266415596008, -0.020990485325455666, 0.1025979146361351, -0.011694516986608505, 
0.057241033762693405, 0.02398907206952572, 0.027140097692608833, 0.009993171319365501, 0.021967865526676178, -0.20965145528316498, 0.05209144949913025, 
0.0555233359336853, 0.05462039262056351, 0.16233842074871063, -0.0629827082157135, -0.10019759088754654, 0.10218256711959839, -0.021302126348018646, 
0.015403203666210175, -0.0605153813958168, -0.0023574538063257933, 0.04258199781179428, 0.07326243072748184, -0.08176438510417938, 0.025650735944509506, 
0.051237769424915314, 0.028549594804644585, -0.04914378747344017, 0.11361043900251389, -0.015162344090640545, 0.12658217549324036, -0.036775581538677216, 
-0.05845334753394127, 0.07067161798477173, 0.24715708196163177, 0.049566153436899185, -0.1662936806678772, -0.025350702926516533, -0.1266430914402008, 
-0.039580393582582474, 0.031719472259283066, -0.15214836597442627, 0.025018030777573586, -0.08776011317968369, 0.26535311341285706, 0.058559250086545944, 
0.16945138573646545, -0.04184948652982712, 0.07192964106798172, -0.08797809481620789, 0.008553571067750454, 0.07235226035118103, 0.13123925030231476, 
-0.1228388100862503, 0.05946895852684975, 0.024425821378827095, 0.061349548399448395, -0.03510314226150513, 0.002315585734322667, -0.08477596193552017, 
0.0012701026862487197, -0.03765995427966118, 0.06350980699062347, 0.13575822114944458, 0.0930481031537056, -0.0076314425095915794, -0.11837425827980042, 
-0.038944050669670105, -0.07901150733232498, -0.05751277878880501, 0.10984810441732407, 0.12602154910564423, 0.0036366123240441084, -0.051058437675237656, 
-0.16623374819755554, 0.026204559952020645, -0.017671577632427216, 0.011556481942534447, 0.05236314237117767, 0.14279316365718842, 0.011145491153001785, 
-0.04512369632720947, -0.10763154923915863, -0.09360665082931519, -0.10304639488458633, 0.05175288766622543, 0.01139560341835022, 0.0912104994058609, 
-0.11319129168987274, 0.11406616121530533, -0.032186634838581085, -0.05822671577334404, 0.17116914689540863, -0.07073434442281723, -0.06163180246949196, 
-0.09719546884298325, -0.13215374946594238, 0.0952165499329567, -0.0612265020608902, 0.043864160776138306, 0.014195452444255352, 0.05844928324222565, 
-0.11598952114582062, -0.024248488247394562, -0.013995619490742683, -0.15523619949817657, -0.014816620387136936, 0.07684600353240967, 0.08123128116130829, 
0.11038932204246521, 0.048472966998815536, -0.001976081170141697, -0.17549964785575867, 0.0750972107052803, -0.007271077483892441, 0.1811811327934265, 
-0.09435616433620453, 0.012885769829154015, -0.11787249147891998, -0.03800877183675766, -0.03496040403842926, 0.016265681013464928, 0.055906862020492554, 
-0.015558050014078617, 0.06567929685115814, 0.007140371948480606, -0.08575356751680374, 0.07379598915576935, -0.07446414977312088, -0.0021381638944149017, 
0.03306999430060387, -0.06914278864860535, 0.09149577468633652, -0.07354679703712463, 0.008348820731043816, -0.011990207247436047, 0.027322815731167793, 
-0.12546978890895844, 0.05237400531768799, -0.01181752048432827, 0.006963631138205528, -0.11620551347732544, -0.11777648329734802, 0.11381818354129791, 
0.05593318119645119, -0.024067534133791924, -0.09820637106895447, 0.04093124717473984, -0.06966434419155121, 0.041661035269498825, -0.05750766396522522, 
0.10870315879583359, -0.02996918559074402, -0.06280503422021866, -0.03566538915038109, -0.034397728741168976, 0.13912582397460938, -0.0798274576663971, 
-0.06534814834594727, -0.004694758448749781, 0.07226241379976273, 0.15957985818386078, 0.16090816259384155, -0.048283208161592484, -0.14084237813949585, 
-0.04380400478839874, -0.19426997005939484, 0.14736488461494446, 0.029978696256875992, 0.010222007520496845, 0.030923591926693916, -0.09229838103055954, 
0.17239010334014893, -0.13215793669223785, 0.11364111304283142, 0.15570808947086334, -0.08816663175821304, 0.013597417622804642, -0.11835096776485443, 
-0.034225285053253174, 0.060562003403902054, 0.03669384494423866, 0.09483179450035095, 0.03522280603647232, -0.07007375359535217, -0.08921480923891068, 
-0.1473415046930313, 0.0005395776242949069, 0.11340327560901642, 0.14158783853054047, -0.04500366002321243, 0.020559124648571014, 0.03942657634615898, 
-0.11346592754125595, -0.013903127051889896, 0.13053961098194122, -0.0579955168068409, 0.010078019462525845, -0.06291542947292328, -0.08803506195545197, 
-0.07020436227321625, -0.09735120832920074, 0.034535933285951614, 0.05050989240407944, -0.008033487014472485, -0.09485209733247757, -0.07761089503765106, 
-0.04751158505678177, -0.023162759840488434, -0.058921393007040024, -0.004965735599398613, -0.007833266630768776, 0.02000555209815502, -0.019090674817562103, 
0.10415907949209213, -0.026096666231751442, -0.11989234387874603, -0.00044288442586548626, -0.08462373912334442, 0.06915724277496338, 0.1147938221693039, 
0.13764223456382751, 0.07975386083126068, 0.030394716188311577, 0.1402396708726883, -0.02093409188091755, 0.011370765045285225, 0.07096762955188751, 
0.0730934664607048, 0.12343459576368332, 0.08907262235879898, 0.0063345604576170444, 0.12312916666269302, 0.06957840174436569, 0.06461474299430847, 
0.09664424508810043, 0.056888025254011154, 0.09836521744728088, -0.058769673109054565, -0.06622869521379471, 0.14041009545326233, 0.08085135370492935, 
-0.07435230165719986, 0.014733844436705112, -0.17546895146369934, -0.027728984132409096, -0.07716687768697739, -0.1318197101354599, -0.09532950073480606, 
0.020175538957118988, -0.06503987312316895, -0.007957912050187588, 0.0427161380648613, 0.004497585352510214, 0.13787071406841278, 0.06792125105857849, 
-0.08487343043088913, 0.05711612477898598, 0.11261789500713348, 0.1445501148700714, -0.05112326890230179, 0.07411182671785355, -0.08911444246768951, 
0.03943416476249695, -0.060784947127103806, 0.07438202947378159, 0.05562988668680191, -0.05420812591910362, 0.014690200798213482, -0.019273463636636734, 
-0.010622041299939156, 0.14202608168125153, -0.052756745368242264, 0.02997981198132038, 0.1488422453403473, 0.05824757367372513, -0.059733327478170395, 
0.03215501084923744, 0.14805284142494202, -0.050482768565416336, 0.03903960436582565, -0.019963834434747696, 0.07514394074678421, -0.02941110171377659, 
0.1375175416469574, -0.13551002740859985, -0.07774384319782257, 0.008777160197496414, 0.038826048374176025, -0.027476945891976357, 0.1381247490644455, 
-0.11054938286542892, -0.10986912250518799, -0.066094309091568, -0.012234596535563469, 0.15383556485176086, 0.07715170830488205, 0.0556211918592453, 
-0.12731307744979858, 0.1171341985464096, 0.005094527266919613, 0.09269654005765915, 0.04174724593758583, -0.11798539012670517, 0.029633779078722, 
0.11853764206171036, 0.06918618828058243, 0.13458853960037231, -0.12033294141292572, 0.03531123325228691, -0.09542825073003769, -0.06936916708946228, 
-0.04641365632414818, -0.0752992257475853, -0.13726289570331573, -0.09586434811353683, -0.03307617828249931, -0.14171278476715088, -0.08151961117982864, 
0.13481637835502625, 0.09748721867799759, 0.03449978306889534, 0.02329910360276699, -0.15286661684513092, 0.03300672769546509, 0.142897829413414, 
0.017047429457306862, 0.08524688333272934, -0.15780912339687347, -0.12793271243572235, 0.12577341496944427, -0.08561686426401138, -0.005716491490602493, 
-0.057296257466077805, -0.05115867406129837, -0.04728902503848076, 0.06388793885707855, -0.1627230942249298, 0.024635663256049156, -0.13546106219291687, 
-0.1005987897515297, 0.09645433723926544, 0.11875662952661514, -0.061308905482292175, -0.01721319556236267, 0.06836008280515671, 0.03570942580699921, 
0.03826659172773361, -0.029173383489251137, 0.1319844275712967, 0.004675659351050854, -0.1759364902973175, -0.009937230497598648, 0.05250764265656471, 
-0.020699486136436462, 0.07024657726287842, 0.15645083785057068, -0.05357281491160393, -0.10307537019252777, -0.08132722228765488, 0.0059732249937951565, 
0.023584619164466858, 0.10699417442083359, -0.07074421644210815, 0.07804971188306808, 0.14089041948318481, -0.11730239540338516, 0.06753088533878326, 
-0.05933552607893944, -0.04411002993583679, -0.06715051084756851, 0.0372600294649601, 0.029249396175146103, 0.01710495911538601, -0.004090430215001106, 
0.07711315900087357, -0.19674697518348694, 0.07930567115545273, 0.0507822185754776, -0.018848266452550888, 0.05045953392982483, -0.11889250576496124, 
0.05195837467908859, -0.17212003469467163, -0.045660413801670074, 0.04584309458732605, -0.14378511905670166, 0.10215301066637039, -0.022416681051254272, 
-0.09215335547924042, -0.05022376403212547, -0.07058709859848022, 0.21823054552078247, 0.15139155089855194, -0.12043459713459015, 0.0922430232167244, 
-0.1253196895122528, -0.12281124293804169, -0.0481649786233902, 0.07140137255191803, -0.02022881992161274, 0.013003218919038773, 0.0795661211013794, 
0.1424344778060913, 0.12158818542957306, -0.0541752465069294, -0.10084009915590286, -0.026977920904755592, -0.08695844560861588, -0.10136077553033829, 
-0.06933306902647018, -0.16096143424510956, 0.04377590864896774, -0.28530746698379517, 0.0694621279835701, -0.24355873465538025, -0.1416965276002884, 
0.25975072383880615, -0.017517326399683952, -0.011072912253439426, -0.006371960509568453, 0.11326900869607925, -0.23978734016418457, -0.007918668910861015, 
-0.03671114519238472, -0.10381908714771271, 0.19716918468475342, -0.2822790741920471, 0.027658799663186073, 0.05853256955742836, 0.08846838772296906, 
0.07036741822957993, -0.09728819131851196, 0.0825984850525856, 0.04954204335808754, 0.10358549654483795, 0.028266632929444313, 0.04616205021739006, 
-0.028760498389601707, 0.06877274066209793, -0.10174334049224854, -0.020597051829099655, 0.0053618974052369595, 0.03465958684682846, -0.059015508741140366, 
0.05039075016975403, 0.11932846903800964, -0.02235189825296402, -0.05680439621210098, -0.0751081332564354, 0.0005322718061506748, 0.1108684167265892, 
0.03832590952515602, -0.13797305524349213, 0.06446987390518188, 0.09216539561748505, -0.03888897970318794, 0.2761227488517761, -0.07405266910791397, 
-0.0067550321109592915, -0.12188194692134857, 0.007457722909748554, -0.050978533923625946, 0.06435844302177429, -0.16636797785758972, 0.0213763564825058, 
-0.1156865656375885, 0.07807748019695282, 0.14677849411964417, -0.12828147411346436, -0.02061545103788376, -0.028376510366797447, -0.16455045342445374, 
0.09230504184961319, -0.03982064500451088, 0.07457368075847626, -0.09967906773090363, -0.1362745463848114, 0.13124588131904602, 0.09371734410524368, 
-0.1744658648967743, 0.12760208547115326, 0.10611295700073242, -0.13286660611629486, -0.11711737513542175, -0.04525269567966461, -0.0018364361021667719, 
0.008213002234697342, 0.10901002585887909, -0.04107002913951874, 0.09844037890434265, -0.14092577993869781, 0.029781389981508255, -0.15946200489997864, 
0.15447454154491425, -0.1908227801322937, -0.22396479547023773, 0.005256356205791235, 0.05413592979311943, 0.18476322293281555, 0.05078188329935074, 
-0.10737156122922897, -0.11413451284170151, -0.025686541572213173, 0.03111821413040161, -0.032170724123716354, -0.030907336622476578, 0.015797479078173637, 
-0.018746275454759598, -0.04806244373321533, -0.1303711235523224, 0.03751116245985031, 0.045916199684143066, -0.07336921244859695, -0.041345395147800446, 
-0.09180941432714462, 0.10980965942144394, 0.15047860145568848, 0.10608088970184326, 0.12731614708900452, -0.1325986087322235, -0.1605350524187088, 
-0.019357316195964813, -0.0991327241063118, -0.11712045967578888, 0.00909611489623785, 0.06656274199485779, -0.07885445654392242, 0.12001781910657883, 
0.0594160258769989, -0.1683599054813385, -0.15138936042785645, 0.02741931565105915, -0.04948364943265915, 0.009207814931869507, -0.03315223008394241, 
0.029229752719402313, 0.09219354391098022, 0.03129158541560173, 0.1761692315340042, 0.08953049033880234, -0.01845281943678856, -0.0866323783993721, 
-0.04317477345466614, 0.022821681573987007, 0.11635762453079224, 0.13707122206687927, -0.08173730969429016, -0.1442868858575821, -0.14377474784851074, 
0.058026935905218124, 0.017289459705352783, 0.148759126663208, -0.12475033849477768, 0.06340740621089935, -0.008430985733866692, 0.1513434648513794, 
-0.07707026600837708, -0.029188742861151695, -0.20962536334991455, 0.04809677228331566, 0.034329429268836975, -0.09606418758630753, 0.08405489474534988, 
-0.04884975776076317, 0.059704896062612534, 0.037543900310993195, -0.061241548508405685, 0.1448131501674652, 0.09320718050003052, -0.18276193737983704, 
0.013724173419177532, -0.017640111967921257, 0.0011993179796263576, 0.0633196011185646, 0.04178508743643761, -0.058383360505104065, 0.009933331049978733, 
-0.10449104756116867, -0.12773357331752777, 0.1284526139497757, 0.17182248830795288, 0.12710611522197723, -0.0702313780784607, -0.011502629145979881, 
-0.27371513843536377, -0.03930949419736862, -0.09167802333831787, 0.09138369560241699, 0.039820630103349686, 0.13307370245456696, -0.11875340342521667, 
0.1891770213842392, -0.003646563272923231, -0.05480850115418434, -0.13414902985095978, -0.11372201144695282, -0.12569686770439148, 0.12445445358753204, 
0.11656933277845383, -0.10671936720609665, -0.030771393328905106, 0.012845874764025211, 0.09477939456701279, 0.00708279013633728, 0.06804942339658737, 
0.021047579124569893, -0.005719398148357868, 0.10803072899580002, 0.0796564370393753, -0.06776134669780731, 0.09728485345840454, 0.03600889816880226, 
0.03714364767074585, -0.03423229232430458, 0.05871300399303436, -0.11253060400485992, -0.06706688553094864, 0.10066574066877365, -0.08122596144676208, 
0.009311314672231674, -0.04793073609471321, -0.11007075011730194, -0.09210208803415298, 0.08657940477132797, -0.07375870645046234, 0.04348091408610344, 
0.07410174608230591, 0.021986039355397224, -0.003217269666492939, -0.057091306895017624, -0.029848990961909294, -0.14717447757720947, 0.08729232847690582, 
0.016500795260071754, 0.002097467426210642, 0.009730356745421886, 0.1993642896413803, 0.0975397527217865, 0.07773704081773758, -0.12123838812112808, 
-0.09945302456617355, -0.059981413185596466, 0.12132091075181961, 0.04183265194296837, 0.0669296532869339, 0.06920436024665833, -0.13779950141906738, 
-0.1499098539352417, 0.05967993289232254, 0.020833324640989304, 0.11048682779073715, 0.03427800536155701, 0.02617485634982586, -0.005332539789378643, 
-0.000818296626675874, 0.03824891895055771, 0.0036974477116018534, 0.12351157516241074, -0.11703607439994812, -0.0020530116744339466, -0.029734866693615913, 
0.048980697989463806, 0.02669638767838478, 0.047090597450733185, 0.07345020025968552, 0.017166336998343468, 0.09695001691579819, 0.006665477994829416, 
0.02754989266395569, -0.0034873224794864655, 0.02984389290213585, -0.016970504075288773, -0.06976938992738724, -0.03813282027840614, 0.1968311369419098, 
0.14613361656665802, 0.008320421911776066, 0.10714047402143478, -0.053060393780469894, -0.06734911352396011, 0.14355632662773132, 0.08349089324474335, 
0.019917301833629608, -0.03125360980629921, 0.060249730944633484, -0.12259586155414581, 0.12741757929325104, 0.09119939059019089, -0.04973193630576134, 
-0.08736254274845123, -0.05693700537085533, -0.0983152762055397, 0.03430818393826485, 0.022958502173423767, 0.08534053713083267, -0.16477619111537933, 
-0.006480271462351084, 0.09816874563694, 0.13813412189483643, 0.043089449405670166, 0.14909443259239197, -0.006661085411906242, -0.1620403677225113, 
0.07165498286485672, 0.12549026310443878, -0.09846702963113785, -0.047395236790180206, 0.05461595952510834, -0.15312722325325012, -0.1299397051334381, 
-0.11949371546506882, 0.09206493943929672, 0.008650444447994232, 0.09381570667028427, 0.10755913704633713, -0.020777013152837753, 0.08585704863071442, 
-0.173958420753479, 0.16857501864433289, -0.11941614747047424, 0.11694785952568054, 0.14916038513183594, 0.07893963158130646, 0.008289000950753689, 
0.0754181295633316, 0.0019614289049059153, -0.07168341428041458, -0.03135154768824577, -0.06471718847751617, 0.024573134258389473, 0.04308117926120758, 
-0.00920917559415102, -0.037108443677425385, -0.012445928528904915, 0.07242080569267273, 0.13592037558555603, -0.10414931178092957, 0.049214188009500504, 
-0.2035909742116928, -0.1271197497844696, -0.07490286976099014, 0.00410672090947628, 0.05868421122431755, 0.105437271296978, -0.09073510766029358, 
-0.016500283032655716, 0.18005479872226715, -0.013982206583023071, -0.07942842692136765, 0.14082740247249603, -0.048466894775629044, -0.15339231491088867, 
-0.06825569272041321, 0.012255946174263954, 0.1351032853126526, 0.10595495998859406, -0.06665323674678802, -0.0793522447347641, -0.10589556396007538, 
0.2817423641681671, 0.043005965650081635, -0.13572470843791962, -0.2169470489025116, -0.12103130668401718, -0.00982656329870224, -0.04637987166643143, 
-0.011137744411826134, -0.10690410435199738, -0.0009398845722898841, 0.03848264738917351, -0.042699508368968964, 0.22548907995224, 0.20794035494327545, 
0.12082982808351517, -0.06754962354898453, -0.046186115592718124, -0.2292696237564087, 0.23037925362586975, -0.08313864469528198, 0.08867260068655014, 
0.13559897243976593, 0.02630392648279667, -0.24291326105594635, -0.020119542255997658, 0.12606950104236603, -0.14354416728019714, -0.0018259682692587376, 
-0.04185635596513748, -0.12421302497386932, -0.035954441875219345, 0.013184134848415852, 0.10502881556749344, -0.061554815620183945, 0.1799183189868927, 
0.10872285813093185, -0.06924609839916229, 0.08360794186592102, 0.1034015640616417, 0.08653127402067184, 0.1690714955329895, -0.012962549924850464, 
-0.08991602808237076, 0.05434354022145271, 0.0935061126947403, -0.07070748507976532, -0.07155926525592804, 0.06521957367658615, -0.022476384416222572, 
0.036832958459854126, 0.08816065639257431, -0.057741448283195496, 0.06399364769458771, -0.012613724917173386, 0.04891413450241089, 0.0657518059015274, 
-0.15562711656093597, -0.02443164400756359, 0.05446320399641991, -0.009050460532307625, 0.10167893022298813, -0.01324540190398693, -0.10324209183454514, 
-0.03222973272204399, 0.10258065164089203, -0.09375759214162827, 0.07931873947381973, -0.07689981907606125, -0.10514578968286514, 0.09649588167667389, 
-0.06769763678312302, -0.01306905597448349, 0.024628007784485817, -0.01605263538658619, -0.030673407018184662, -0.011001689359545708, -0.05061209201812744, 
0.07972954958677292, 0.07481427490711212, -0.007869427092373371, 0.10734288394451141, -0.038663122802972794, 0.15102587640285492, -0.10763628780841827, 
-0.05748102813959122, 0.09857573360204697, -0.10227428376674652, 0.05728441849350929, 0.04545949399471283, -0.035870034247636795, 0.02495737001299858, 
-0.06896328181028366, 0.08555003255605698, 0.02541615255177021, 0.09912924468517303, -0.06192803010344505, 0.039653368294239044, -0.0608469620347023, 
0.10826302319765091, -0.04051413759589195, -0.02391611598432064, -0.09811099618673325, 0.014002427458763123, -0.06337131559848785, -0.01585633121430874, 
0.18598902225494385, -0.052629198879003525, 0.05649220198392868, -0.015618766658008099, 0.01624387316405773, -0.193532794713974, 0.03396601974964142, 
-0.1264687478542328, 0.13879387080669403, 0.20930957794189453, -0.18467561900615692, 0.07887179404497147, 0.07047112286090851, -0.08455098420381546, 
0.09925761818885803, 0.16380847990512848, -0.11624570935964584, 0.005614057183265686, -0.02839808166027069, -0.10325382649898529, 0.08073046803474426, 
0.17337383329868317, 0.07847340404987335, -0.23720844089984894, -0.05009062960743904, 0.010900873690843582, 0.2177962064743042, 0.20023374259471893, 
-0.05401896685361862, 0.148793563246727, -0.11153142154216766, -0.07916811853647232, 0.07165741175413132, -0.08128742128610611, 0.2083926647901535, 
-0.2550302743911743, -0.037862032651901245, -0.07644953578710556, 0.030505573377013206, -0.0423605777323246, 0.2547707259654999, -0.2671251595020294, 
0.06306863576173782, -0.17598649859428406, 0.008994538336992264, -0.19388894736766815, 0.1528273969888687, -0.15636800229549408, 0.03349579498171806, 
0.10618472099304199, 0.0318215973675251, 0.14272214472293854, 0.06647246330976486, -0.17375235259532928, -0.10038966685533524, 0.037246596068143845, 
0.06042134761810303, 0.06171334907412529, 0.05532880127429962, -0.06941492110490799, 0.029141409322619438, -0.05037739500403404, 0.08411012589931488, 
-0.019654883071780205, 0.046968746930360794, 0.08945358544588089, -0.09970012307167053, -0.12214488536119461, -0.10224737226963043, 0.001314173685386777, 
0.022802233695983887, 0.05769018083810806, -0.00950711127370596, -0.02425972931087017, -0.03601444140076637, 0.15776972472667694, -0.10969053208827972, 
0.07426554709672928, -0.10817127674818039, -0.11734220385551453, 0.009561321698129177, -0.029571520164608955, -0.01465898472815752, 0.17056074738502502, 
-0.15389418601989746, -0.13008861243724823, 0.014657197520136833, 0.14689414203166962, -0.15203484892845154, -0.11579088121652603, 0.02780364640057087, 
0.026862554252147675, -0.1170605942606926, -0.11644340306520462, 0.05066392943263054, -0.06195162981748581, -0.055442385375499725, 0.06511009484529495, 
-0.11843602359294891, -0.09947653114795685, 0.017919043079018593, 0.11851981282234192, 0.16742795705795288, -0.14611589908599854, -0.1641475260257721, 
-0.07271823287010193, -0.06408350169658661, -0.11281441897153854, 0.0023524498101323843, 0.15987266600131989, 0.009642655961215496, 0.08266778290271759, 
-0.11482967436313629, 0.013930282555520535, 0.04958629980683327, -0.016287416219711304, -0.16829431056976318, -0.01772555150091648, 0.14938384294509888, 
-0.15213237702846527, 0.15306028723716736, 0.013343269005417824, 0.06455858051776886, 0.12406198680400848, -0.018100526183843613, -0.1762244701385498, 
0.11851181834936142, 0.025555597618222237, -0.0647195503115654, -0.0947909876704216, 0.21000269055366516, -0.09796059131622314, 0.1043563261628151, 
0.07493679970502853, -0.2086491882801056, -0.18251913785934448, 0.19965516030788422, 0.05542876943945885, -0.045657869428396225, -0.2507377862930298, 
0.18547973036766052, 0.019410813227295876, 0.1553577035665512, 0.18087463080883026, -0.12291471660137177, 0.18938446044921875, -0.2416987121105194, 
0.030754748731851578, -0.02092016115784645, 0.2266320437192917, -0.04485360160470009, -0.07801442593336105, 0.07585406303405762, 0.08065813034772873, 
0.14297978579998016, 0.16162364184856415, -0.04853156954050064, 0.2916244864463806, -0.09568949043750763, -0.027240095660090446, -0.058899011462926865, 
-0.18830303847789764, 0.0882442370057106, 0.0048192087560892105, -0.21255922317504883, -0.16912880539894104, -0.16949568688869476, 0.06388799101114273, 
-0.21077679097652435, -0.01680632308125496, -0.04371446743607521, -0.06501739472150803, -0.04822021722793579, -0.0719534382224083, 0.024841761216521263, 
-0.11280795186758041, 0.20648284256458282, 0.16983658075332642, -0.020978739485144615, 0.21724417805671692, 0.21650534868240356, -0.20864497125148773, 
-0.03381849080324173, 0.12121912091970444, 0.07543474435806274, -0.19323036074638367, -0.02829085849225521, -0.2597392201423645, 0.11576557159423828, 
-0.06809725612401962, 0.10208398103713989, 0.11415070295333862, -0.17505672574043274, -0.13945803046226501, -0.010798626579344273, -0.056486643850803375, 
-0.08161276578903198, 0.11778392642736435, 0.001704605296254158, 0.06754425168037415, 0.10015924274921417, -0.038322173058986664, -0.00742699671536684, 
0.05393890663981438, 0.03536802530288696, -0.10510570555925369, -0.037358660250902176, -0.0597003698348999, 0.01097420696169138, 0.14383599162101746, 
-0.15647011995315552, 0.07624008506536484, 0.10380869358778, 0.026285653933882713, -0.16397733986377716, 0.0590297132730484, -0.09850683808326721, 
-0.017238132655620575, -0.11494801938533783, -0.02428891696035862, 0.08422128111124039, -0.06599358469247818, -0.1047113910317421, 0.09942171722650528, 
-0.045684583485126495, 0.036096762865781784, 0.07169042527675629, 0.0069223507307469845, 0.07884857058525085, -0.057163916528224945, -0.10650113970041275, 
0.0021841884590685368, -0.12838445603847504, -0.07623086124658585, 0.02358543686568737, -0.07055089622735977, 0.15354226529598236, 0.07720482349395752, 
-0.04118942841887474, -0.02287382259964943, 0.06717515736818314, 0.022883782163262367, -0.31084975600242615, -0.07613678276538849, 0.044333599507808685, 
-0.056607626378536224, -0.1306745707988739, 0.038254085928201675, -0.0755816176533699, 0.1065114438533783, 0.03935062512755394, -0.08906810730695724, 
-0.0004918432678095996, -0.036290790885686874, 0.09803842008113861, -0.18653421103954315, -0.04944777488708496, -0.0930154100060463, 0.04189324006438255, 
-0.21025443077087402, 0.0022956847678869963, 0.023980097845196724, -0.07282888144254684, -0.03222983703017235, 0.07183584570884705, -0.05992632731795311, 
-0.014395362697541714, -0.27721360325813293, 0.04577083885669708, -0.24072425067424774, -0.09624174982309341, 0.07722576707601547, 0.015581234358251095, 
0.07187843322753906, -0.15564365684986115, 0.09075137227773666, -0.081100232899189, -0.08780475705862045, -0.24269764125347137, -0.09562240540981293, 
-0.07788517326116562, 0.12361808866262436, 0.1196141391992569, 0.04170665144920349, 0.04536246880888939, 0.002349616726860404, -0.020629920065402985, 
0.05791718512773514, -0.12911270558834076, 0.021199235692620277, 0.04938130080699921, -0.15818585455417633, 0.010244515724480152, -0.16824087500572205, 
0.12270672619342804, 0.06900298595428467, -0.16801579296588898, 0.035847268998622894, -0.018368326127529144, -0.016405092552304268, -0.0343683585524559, 
-0.08789337426424026, -0.025338834151625633, 0.07430314272642136, -0.0958087369799614, -0.03743619844317436, -0.33273789286613464, 0.0073358542285859585, 
-0.1314777135848999, -0.01054870244115591, 0.07119263708591461, -0.01465089526027441, -0.03468652814626694, 0.2275850623846054, -0.26700645685195923, 
-0.10709276795387268, 0.10817927122116089, -0.05722656473517418, 0.01909092254936695, 0.11444882303476334, -0.060840729624032974, -0.16161547601222992, 
0.3029966354370117, 0.008287953212857246, 0.04291413724422455, 0.1905045509338379, -0.16116230189800262, -0.30296313762664795, 0.06063719466328621, 
-0.10065088421106339, 0.14547079801559448, -0.2081337422132492, 0.15611810982227325, -0.173374205827713, 0.09536340832710266, 0.27177250385284424, 
0.06243273615837097, 0.13886989653110504, -0.1698586344718933, -0.025326771661639214, 0.23449644446372986, -0.08738695085048676, -0.0014955609804019332, 
-0.23446911573410034, 0.143069326877594, 0.16595657169818878, 0.048209864646196365, 0.16924789547920227, 0.13438780605793, 0.19210940599441528, 
-0.17112775146961212, 0.045227039605379105, -0.03359563276171684, 0.11166547238826752, -0.044687360525131226, 0.05138971656560898, -0.21118633449077606, 
-0.17184725403785706, -0.10600590705871582, 0.12740935385227203, -0.320414662361145, 0.08290231227874756, -0.17614635825157166, -0.16498245298862457, 
0.01486760750412941, -0.08849648386240005, 0.11251021176576614, 0.03396204113960266, 0.08194881677627563, 0.2667427659034729, -0.2616725564002991, 
0.0910591185092926, -0.0019764266908168793, -0.20653462409973145, -0.19952157139778137, 0.19064609706401825, 0.062153540551662445, -0.1519530564546585, 
-0.14587704837322235, -0.10412914305925369, -0.052481282502412796, 0.1249902993440628, 0.06863900274038315, -0.061451926827430725, -0.03769168630242348, 
0.0476389043033123, -0.12983104586601257, -0.017446601763367653, 0.057314250618219376, -0.07679904997348785, -0.056173719465732574, -0.06696829199790955, 
-0.11474443972110748, 0.02527368627488613, -0.03306341916322708, -0.2079482525587082, -0.016385450959205627, -0.02635243721306324, 0.03542468696832657, 
0.024209758266806602, 0.1325918436050415, 0.11564766615629196, -0.06220901757478714, 0.09828297048807144, -0.01588441990315914, -0.08502241224050522, 
-0.0934358611702919, -0.06449858844280243, -0.08057936280965805, 0.029057607054710388, -0.1121586337685585, -0.1905272901058197, 0.06309598684310913, 
-0.023515306413173676, 0.08032006770372391, 0.17224770784378052, -0.06513266265392303, 0.16630789637565613, -0.09679057449102402, -0.15728016197681427, 
-0.08500543236732483, -0.11483246088027954, 0.1624707579612732, 0.11540331691503525, 0.004808977246284485, -0.08111074566841125, 0.061342496424913406, 
-0.005254169460386038, -0.03459513559937477, -0.03883298486471176, -0.1333751231431961, 0.09175573289394379, -0.04443750157952309, 0.007682097610086203, 
-0.1113375723361969, 0.04997241497039795, -0.20371147990226746, -0.01425318606197834, -0.030774559825658798, 0.10151053220033646, 0.13112302124500275, 
0.2980351448059082, -0.17830589413642883, -0.06754042208194733, -0.16540999710559845, 0.08808979392051697, 0.09612134844064713, -0.15687933564186096, 
-0.04155847430229187, 0.07760775834321976, -0.0844620019197464, -0.05462886765599251, -0.05771275982260704, -0.0828917995095253, -0.02242422290146351, 
-0.050964705646038055, -0.12228983640670776, -0.08761777728796005, -0.10228797793388367, 0.05206596106290817, -0.14435343444347382, 0.05766130983829498, 
0.057548779994249344, -0.0017443981487303972, -0.05242561176419258, 0.1468500941991806, 0.12230799347162247, -0.016671976074576378, -0.1244904026389122, 
-0.17788010835647583, -0.055265769362449646, -0.07384195923805237, -0.06561405211687088, -0.12203545868396759, -0.01222415454685688, 0.056102946400642395, 
0.056859761476516724, 0.038392141461372375, -0.027410157024860382, -0.060076069086790085, 0.10666883736848831, 0.059547606855630875, 0.07730554044246674, 
0.056760333478450775, 0.17264489829540253, -0.015626221895217896, 0.08376748859882355, 0.06073052063584328, 0.11804543435573578, -0.0853043645620346, 
-0.1436988115310669, -0.013587637804448605, -0.059453334659338, 0.012362227775156498, -0.04899206385016441, -0.05505267158150673, -0.17994968593120575, 
-0.14606517553329468, 0.08677782863378525, -0.0340522937476635, -0.18364191055297852, 0.1370874047279358, 0.054709725081920624, -0.05793086066842079, 
0.05969051644206047, -0.04227106273174286, 0.0037649651058018208, -0.09378579258918762, 0.04144998639822006, 0.016779106110334396, -0.024605050683021545, 
-0.13063649833202362, 0.016203172504901886, 0.12152346223592758, 0.002334094373509288, -0.12600190937519073, 0.12729588150978088, 0.0018647763645276427, 
0.11498929560184479, 0.04733569920063019, -0.018925251439213753, -0.12866176664829254, -0.010617936961352825, -0.04365794360637665, -0.039539139717817307, 
0.09610317647457123, -0.0759229063987732, 0.07417230308055878, 0.08143582195043564, 0.0004933779709972441, -0.012101825326681137, 0.05051222816109657, 
0.11192487925291061, -0.058927442878484726, -0.06941607594490051, 0.04832778498530388, -0.00503344414755702, -0.04240262508392334, -0.057190634310245514, 
0.006953505799174309, -0.02843509055674076, -0.027219371870160103, -0.09406273066997528, 0.07013153284788132, 0.048517148941755295, -0.04837646335363388, 
-0.0411367304623127, -0.08718167990446091, -0.13989192247390747, -0.07805977016687393, -0.09899242222309113, -0.06959173828363419, -0.010702316649258137, 
-0.010158314369618893, -0.15006105601787567, 0.041941266506910324, 0.13435184955596924, -0.01518488209694624, -0.12372203916311264, 0.061187777668237686, 
0.02929132990539074, 0.04457153379917145, -0.07300541549921036, 0.1506401002407074, 0.031214553862810135, -0.09580832719802856, 0.014388483949005604, 
-0.08422060310840607, 0.02353508211672306, -0.03470674529671669, 0.06572559475898743, 0.07516592741012573, 0.0639805719256401, -0.09605851024389267, 
-0.0378454215824604, 0.10046311467885971, -0.04675283282995224, 0.0483592189848423, 0.06937211006879807, -0.14169348776340485, -0.0034283262211829424, 
0.09241826832294464, -0.1251235455274582, 0.08971281349658966, -0.03180541843175888, -0.12151812762022018, 0.11213056743144989, 0.014569182880222797, 
0.03209064155817032, 0.019662803038954735, -0.13354285061359406, -0.06099126115441322, -0.01946604624390602, 0.0373263880610466, -0.016822336241602898, 
-0.060366109013557434, 0.0722491517663002, -0.06064779683947563, -0.1593533158302307, 0.08674510568380356, -0.12230072915554047, 0.14770925045013428, 
-0.03286563605070114, -0.08738517761230469, 0.10355234146118164, 0.0439230315387249, -0.04833689704537392, 0.08899755775928497, 0.06140238419175148, 
0.07835660129785538, 0.08517873287200928, 0.0844975933432579, -0.09597241878509521, -0.11162961274385452, 0.014961016364395618, -0.055715590715408325, 
-0.2252500355243683, 0.1421033889055252, -0.12595099210739136, 0.04290910065174103, -0.02693089284002781, -0.009848705492913723, -0.16255144774913788, 
-0.05330068618059158, 0.022848518565297127, 0.1260010451078415, -0.1599629819393158, -0.02636396326124668, -0.05641509220004082, 0.03773334249854088, 
0.02779478020966053, -0.08038310706615448, 0.021922389045357704, -0.05457472428679466, 0.04724128916859627, -0.13861466944217682, -0.024494396522641182, 
0.05603466555476189, -0.04268677905201912, -0.154027059674263, 0.20484401285648346, 0.20119459927082062, -0.07063877582550049, 0.023205632343888283, 
-0.19678868353366852, -0.2326180785894394, 0.03152022883296013, 0.04974732920527458, -0.06288285553455353, 0.023423314094543457, -0.09269776195287704, 
0.08687392622232437, -0.10772965103387833, 0.18319715559482574, -0.1528988927602768, -0.0238342322409153, -0.004489761311560869, -0.09179843962192535, 
0.25931593775749207, 0.11029782891273499, -0.024496212601661682, 0.04484846442937851, -0.041651688516139984, 0.027376394718885422, 0.045107703655958176, 
-0.008471186272799969, -0.05520409718155861, -0.13995182514190674, -0.07740498334169388, -0.0745241791009903, 0.07845452427864075, -0.041886765509843826, 
-0.11991145461797714, -0.06782753765583038, -0.11380143463611603, 0.12022469192743301, 0.19730444252490997, 0.26236748695373535, 0.157072976231575, 
-0.20337587594985962, 0.3199422061443329, -0.0971870943903923, 0.08032729476690292, -0.03134655952453613, -0.053238220512866974, 0.13497203588485718, 
0.13706430792808533, 0.11304880678653717, -0.22654937207698822, -0.12129683047533035, 0.15090426802635193, -0.16265133023262024, -0.1640429049730301, 
0.10920736193656921, 0.0749129131436348, -0.17077934741973877, -0.002887859009206295, 0.10153082013130188, 0.01966295763850212, 0.204227015376091, 
-0.037193663418293, 0.061705417931079865, 0.10592032223939896, -0.060720812529325485, 0.012265387922525406, 0.007922086864709854, 0.07418375462293625, 
-0.06702303141355515, 0.03140077367424965, 0.13073942065238953, -0.06149810180068016, -0.16344740986824036, 0.22151002287864685, 0.03290565311908722, 
0.06828977167606354, -0.33580145239830017, 0.07902895659208298, 0.04946201667189598, 0.10275159031152725, 0.017860939726233482, -0.027708208188414574, 
0.21305085718631744, -0.061932824552059174, 0.048405375331640244, -0.01751335710287094, 0.000985637423582375, -0.1629909723997116, -0.03189973160624504, 
-0.13267157971858978, 0.07471930980682373, -0.07316809892654419, -0.054020218551158905, -0.08021505922079086, -0.020705824717879295, -0.153634175658226, 
0.1093999519944191, 0.008917414583265781, 0.11024966090917587, -0.0940297544002533, -0.03528715670108795, -0.141337588429451, -0.07084696739912033, 
0.05322461947798729, 0.13099375367164612, -0.15094290673732758, 0.005157967563718557, -0.07444306463003159, -0.04933127015829086, 0.0780821219086647, 
-0.036644864827394485, 0.017324581742286682, 0.08517616242170334, -0.06978606432676315, 0.15782283246517181, -0.29416370391845703, 0.23435141146183014, 
0.10945525020360947, -0.11586390435695648, 0.02180752158164978, 0.14308875799179077, -0.07457701861858368, 0.07963152229785919, -0.16150380671024323, 
-0.01429178100079298, 0.10640710592269897, -0.003396989544853568, 0.05166291445493698, 0.025693470612168312, -0.04597778245806694, -0.12446895241737366, 
0.0782642811536789, -0.09191315621137619, -0.07061870396137238, 0.08650294691324234, -0.1684875637292862, -0.13812097907066345, 0.012420249171555042, 
-0.047245342284440994, 0.09628190845251083, -0.054691072553396225, 0.16700614988803864, 0.06102278456091881, -0.08774950355291367, 0.12297327816486359, 
0.041071563959121704, -0.06595073640346527, -0.19500957429409027, 0.04589025303721428, 0.10199132561683655, 0.07191228866577148, -0.23666159808635712, 
-0.023672647774219513, -0.09830471873283386, 0.15020135045051575, 0.12033957988023758, 0.02052520029246807, -0.11389695107936859, -0.014043239876627922, 
-0.08614553511142731, -0.0693393126130104, -0.0645236223936081, -0.055485766381025314, -0.04608680307865143, 0.014058826491236687, -0.15173164010047913, 
-0.015954649075865746, -0.10289081186056137, -0.007773950230330229, -0.20998452603816986, 0.16938745975494385, 0.010162658989429474, 0.06177380681037903, 
-0.018575558438897133, 0.1624782532453537, -0.020628472790122032, 0.04685814678668976, -0.054119519889354706, 0.04055410996079445, -0.2725921869277954, 
0.11324508488178253, -0.07474943995475769, -0.011246880516409874, -0.029844623059034348, 0.06460494548082352, 0.1061016321182251, -0.03439422324299812, 
-0.13616088032722473, -0.15557417273521423, -0.003493226831778884, -0.012491964735090733, 0.0713113471865654, 0.09678082913160324, -0.06441144645214081, 
0.11451251059770584, -0.11078282445669174, -0.2462165653705597, 0.048737164586782455, 0.054912641644477844, -0.05608084052801132, 0.09542369842529297, 
-0.02147575095295906, 0.013007988221943378, 0.09603682905435562, -0.08744137734174728, 0.054460614919662476, -0.09173794835805893, -0.024493398144841194, 
0.09621117264032364, 0.09553778171539307, -0.04180309176445007, -0.17978867888450623, -0.0026202125009149313, 0.03677507862448692, -0.07137623429298401, 
-0.10269846767187119, 0.07467927783727646, -0.06216228008270264, -0.030159160494804382, -0.053518060594797134, -7.438867032760754e-05, 0.08203349262475967, 
0.018581677228212357, -0.11422634869813919, 0.006395362317562103, -0.05397498235106468, -0.023952513933181763, 0.0073727830313146114, -0.10369348526000977, 
0.02090606652200222, -0.10522191226482391, 0.01246210839599371, -0.0595192015171051, 0.0021894292440265417, 0.10975360870361328, 0.056057050824165344, 
-0.021870141848921776, 0.0018631408456712961, 0.11695349216461182, -0.031738732010126114, 0.12121269106864929, -0.017894338816404343, -0.054256487637758255, 
-0.261638879776001, -0.050788216292858124, 0.07692066580057144, -0.06836754828691483, -0.1258135437965393, 0.08285172283649445, -0.07050219923257828, 
0.11614342033863068, 0.08990416675806046, -0.08494629710912704, -0.11717168986797333, 0.08832383155822754, 0.1256534308195114, -0.11183805763721466, 
-0.02765636518597603, 0.13342563807964325, -0.276607871055603, -0.10574600845575333, 0.07148709148168564, 0.028074882924556732, 0.27115553617477417, 
0.24195760488510132, -0.04273037612438202, 0.010589645244181156, 0.09593785554170609, 0.1069156602025032, -0.10371957719326019, 0.26088255643844604, 
-0.14450214803218842, -0.10993678867816925, -0.04470450058579445, 0.034622546285390854, 0.12925036251544952, -0.08232126384973526, -0.08644457906484604, 
-0.07345358282327652, 0.24284131824970245, 0.004156601149588823, -0.05251646414399147, -0.18502277135849, -0.08386378735303879, -0.2044762670993805, 
-0.03695850074291229, -0.22554607689380646, 0.10460243374109268, -0.04169509932398796, 0.10352542251348495, 0.06733650714159012, -0.06980741024017334, 
-0.017457662150263786, 0.12124641984701157, 0.13103261590003967, -0.010500500909984112, -0.03269912675023079, 0.3634611964225769, 0.090131014585495, 
-0.03452875092625618, 0.18926018476486206, -0.12007662653923035, -0.06669996678829193, -0.09936811774969101, -0.027662837877869606, -0.11605659127235413, 
-0.11746080964803696, 0.08548824489116669, -0.18957950174808502, -0.1132889911532402, 0.10203777253627777, 0.02036481723189354, -0.01754736341536045, 
0.030434956774115562, 0.1004299595952034, 0.1276712715625763, 0.004575944971293211, -0.0551774725317955, 0.09639102965593338, 0.027912143617868423, 
0.0681200698018074, -0.05483872443437576, -0.028775477781891823, 0.08777882158756256, 0.1327468454837799, -0.05997364595532417, -0.00274947052821517, 
0.059549566358327866, 0.02265804260969162, 0.007801379077136517, -0.047617509961128235, 0.009668836370110512, -0.08136641979217529, 0.11516974121332169, 
-0.03222694993019104, 0.03514629229903221, 0.0984262079000473, 0.0037841107696294785, 0.04158753901720047, 0.07158175110816956, 0.10070685297250748, 
-0.04560856893658638, 0.10952699184417725, 0.02119702659547329, -0.05773870646953583, 0.05781503766775131, 0.05017027631402016, -0.08554798364639282, 
-0.04380566626787186, 0.062080781906843185, -0.0006919604493305087, -0.00615609111264348, 0.0027658017352223396, -0.024090386927127838, -0.1651439517736435, 
-0.025691058486700058, -0.06101623922586441, -0.0980181023478508, 0.02280813828110695, 0.1193104088306427, -0.03652948886156082, 0.11672455817461014, 
-0.07299437373876572, 0.05721992254257202, -0.09432103484869003, -0.16833657026290894, -0.016385991126298904, 0.12176114320755005, -0.036002229899168015, 
0.06931322813034058, -0.1537117063999176, 0.14832346141338348, 0.02700619027018547, 0.04078677296638489, 0.06258587539196014, 0.045225732028484344, 
0.03676331415772438, 0.02833642065525055, -0.05447337403893471, -0.14078259468078613, -0.04196147993206978, 0.06019313260912895, -0.01474345475435257, 
0.09181666374206543, -0.07439114153385162, 0.08445796370506287, -0.045309681445360184, 0.07589219510555267, 0.04214788228273392, -0.0474250465631485, 
0.014764387160539627, 0.09385973960161209, 0.124638132750988, 0.07161512970924377, 0.0021005619782954454, -0.04727529361844063, -0.10312057286500931, 
0.021536966785788536, -0.10440437495708466, 0.006716782692819834, -0.030568374320864677, -0.12734529376029968, -0.09949296712875366, -0.025809187442064285, 
0.03182972967624664, 0.10067063570022583, 0.06032860279083252, 0.13441802561283112, -0.04032667726278305, -0.04165675863623619, 0.012132749892771244, 
-0.04634130373597145, 0.07967968285083771, 0.11080978810787201, 0.08723513782024384, 0.04434403404593468, -0.13773152232170105, -0.06184781342744827, 
0.07514652609825134, -0.10322442650794983, -0.07719559967517853, -0.09682364761829376, 0.09098411351442337, 0.10300225019454956, 0.0025635859929025173, 
0.15275606513023376, -0.08343813568353653, 0.11194305121898651, 0.07468356937170029, -0.028973910957574844, 0.015651384368538857, 0.08253662288188934, 
0.11066650599241257, 0.004954881966114044, -0.08244242519140244, 0.2288128137588501, -0.00035330496029928327, 0.12324736267328262, -0.0429607592523098, 
-0.048191461712121964, -0.0796201229095459, -0.1015230342745781, -0.0010994666954502463, -0.05713308975100517, 0.05318794026970863, -0.051875628530979156, 
0.060127075761556625, -0.07235519587993622, 0.10790019482374191, 0.07407059520483017, 0.019788773730397224, -0.21078766882419586, 0.027554620057344437, 
-0.14967456459999084, -0.14144481718540192, -0.07140330970287323, 0.2307780385017395, -0.14079219102859497, 0.14503037929534912, -0.04365050420165062, 
0.2868574261665344, -0.12488946318626404, 0.17920497059822083, 0.0941094309091568, 0.007415136322379112, -0.1917673945426941, -0.17774765193462372, 
0.18022505939006805, 0.064907006919384, -0.0940718725323677, 0.020005222409963608, 0.14059239625930786, 0.11307894438505173, -0.05828087776899338, 
-0.17931561172008514, 0.04036685451865196, 0.05938068777322769, 0.0717555359005928, -0.01511711347848177, 0.15444375574588776, 0.10758645087480545, 
0.1227065846323967, 0.015263347886502743, -0.051435936242341995, -0.06715837866067886, 0.08185294270515442, 0.05496569722890854, 0.09977330267429352, 
-0.11559318006038666, 0.2775476276874542, 0.04284214600920677, 0.17068691551685333, 0.15573304891586304, -0.11886350065469742, -0.10862085968255997, 
-0.07229683548212051, -0.011119927279651165, -0.1611446887254715, -0.10968571901321411, 0.33639171719551086, -0.0885760486125946, -0.08390039205551147, 
0.09208837896585464, 0.1700313240289688, -0.048533711582422256, 0.07535582035779953, 0.08525919169187546, 0.07819191366434097, 0.1254841387271881, 
-0.08911155164241791, 0.051107607781887054, 0.0002926034212578088, 0.012342139147222042, 0.09665963798761368, 0.1878700703382492, 0.021914107725024223, 
-0.15749602019786835, -0.10848331451416016, -0.013343457132577896, 0.1255263090133667, 0.039952732622623444, -0.11272360384464264, -0.13121964037418365, 
0.032159123569726944, 0.02086091972887516, -0.16015639901161194, 0.15115180611610413, 0.020543791353702545, 0.03438150882720947, 0.0916033536195755, 
0.1481776386499405, 0.0846208706498146, -0.04129105806350708, 0.00028128738631494343, -0.08999338746070862, 0.0513201579451561, 0.09952443838119507, 
-0.15847840905189514, -0.078713059425354, -0.1599884033203125, -0.14564524590969086, 0.07220771163702011, 0.020485935732722282, -0.08889023214578629, 
-0.043108534067869186, -0.12074786424636841, 0.036716610193252563, 0.009632179513573647, 0.004598896950483322, 0.0015210990095511079, 0.07433152943849564, 
0.11728457361459732, -0.003085471224039793, -0.011765455827116966, 0.045052602887153625, -0.03241180628538132, -0.09491174668073654, -0.06799079477787018, 
0.040802836418151855, -0.04994470998644829, 0.07346519082784653, -0.1226825937628746, 0.04920109733939171, 0.044644974172115326, -0.016344979405403137, 
-0.007918443530797958, 0.10664014518260956, 0.07967831194400787, -0.03729213401675224, -0.05230211094021797, 0.21993595361709595, -0.017879880964756012, 
0.10045229643583298, -0.05981360375881195, 0.04098629951477051, 0.1038842648267746, -0.11887355893850327, 0.05857637897133827, 0.17723113298416138, 
0.07572266459465027, 0.012427269481122494, -0.11592308431863785, -0.020973309874534607, -0.06277492642402649, 0.10301680117845535, 0.05663813650608063, 
0.05400165542960167, 0.20500598847866058, 0.07363725453615189, -0.005897581111639738, 0.0013254821533337235, 0.05949540063738823, 0.1183110848069191, 
0.07381226867437363, -0.09174304455518723, 0.04724675789475441, 0.04927660524845123, 0.025171805173158646, -0.1831960827112198, -0.08323492854833603, 
0.10104138404130936, -0.13927237689495087, -0.08499408513307571, -0.145607128739357, -0.06564769148826599, 0.02898445352911949, -0.09048816561698914, 
-0.14706577360630035, 0.07408807426691055, -0.11504163593053818, 0.09133145213127136, -0.0540492907166481, -0.1090434193611145, 0.10866427421569824, 
0.11230874806642532, 0.08938499540090561, 0.1476062685251236, -0.21442344784736633, -0.009523284621536732, -0.12705406546592712, -0.0014348487602546811, 
-0.12538640201091766, 0.11209490150213242, -0.06872893124818802, 0.14266517758369446, -0.06673090159893036, 0.08476810157299042, -0.25714632868766785, 
-0.026186810806393623, -0.15671376883983612, 0.09735254943370819, -0.05556990206241608, 0.06483317911624908, -0.08579859137535095, 0.0032606273889541626, 
-0.20502573251724243, -0.07480038702487946, -0.014292076230049133, -0.030944541096687317, 0.042321398854255676, -0.06244393065571785, -0.2016432285308838, 
-0.08563798666000366, 0.22936595976352692, -0.12378247827291489, 0.14051152765750885, 0.11021774262189865, -0.19196893274784088, -0.037545256316661835, 
0.017468975856900215, 0.103182353079319, -0.01721847616136074, -0.29176515340805054, 0.16914087533950806, 0.032537009567022324, 0.08192218840122223, 
0.015057239681482315, 0.11292164772748947, 0.13815373182296753, -0.022984445095062256, -0.09242034703493118, 0.1416599601507187, 0.012148908339440823, 
-0.023468710482120514, -0.15877367556095123, -0.044578004628419876, 0.206219881772995, -0.038194503635168076, 0.21027347445487976, 0.03517579659819603, 
0.045402538031339645, -0.17550325393676758, -0.09385865926742554, 0.03385414928197861, -0.057319771498441696, 0.11651457846164703, -0.09948176145553589, 
-0.18054941296577454, -0.09066007286310196, -0.13962291181087494, 0.07505316287279129, -0.06534942239522934, -0.10010422766208649, -0.11059528589248657, 
-0.16306015849113464, 0.08670003712177277, -0.027540648356080055, 0.13766765594482422, -0.11074850708246231, 0.17954249680042267, 0.20567898452281952, 
-0.23542726039886475, 0.21913616359233856, -0.007028937805444002, -0.16453611850738525, -0.07158242166042328, 0.1367117315530777, 0.0354025736451149, 
-0.010556334629654884, -0.017855975776910782, -0.20454572141170502, 0.09910353273153305, 0.06755051761865616, 0.06860776245594025, -0.08556415885686874, 
-0.013280446641147137, 0.13693799078464508, 0.146334707736969, -0.05652398243546486, -0.10752338916063309, -0.0548064187169075, -0.20079639554023743, 
-0.07290548086166382, 0.060867223888635635, 0.044002123177051544, 0.1338740885257721, -0.10749603062868118, -0.01819603145122528, -0.1648114174604416, 
0.002810555510222912, 0.13918858766555786, 0.1435416042804718, 0.05013403668999672, 0.027026832103729248, -0.020311398431658745, 0.04815955460071564, 
0.035699740052223206, -0.1967320591211319, 0.06704837828874588, -0.18105554580688477, -0.05003225803375244, 0.056510187685489655, -0.013767405413091183, 
0.06121707335114479, 0.09045259654521942, -0.01677771471440792, 0.1976616531610489, 0.007222923915833235, -0.09019544720649719, 0.016713343560695648, 
-0.11747720092535019, 0.09561488032341003, 0.008438427932560444, 0.12980249524116516, -0.044081419706344604, -0.2070057988166809, 0.037733107805252075, 
-0.022401565685868263, -0.052796777337789536, -0.05323357135057449, 0.03294525668025017, 0.048666395246982574, -0.024243680760264397, 0.0008887747535482049, 
0.015763793140649796, -0.12748983502388, 0.05127200856804848, -0.12525638937950134, 0.053597092628479004, 0.027866488322615623, 0.0069117117673158646, 
0.09580858051776886, 0.19954566657543182, -0.16725584864616394, -0.13979877531528473, 0.02505362220108509, -0.10821788758039474, 0.05764612555503845, 
-0.023301443085074425, 0.005687627010047436, -0.05793625861406326, 0.09608662128448486, -0.026362549513578415, 0.02419648878276348, -0.07341887056827545, 
0.06751222908496857, 0.17322015762329102, -0.08680606633424759, -0.016142938286066055, 0.061657872051000595, 0.20770087838172913, 0.03130181133747101, 
-0.06640631705522537, 0.13776446878910065, -0.16430211067199707, 0.06226896122097969, 0.004633435048162937, 0.23019036650657654, 0.0037763637956231833, 
-0.05233634635806084, 0.15967193245887756, 0.06265274435281754, -0.08743089437484741, 0.06219646707177162, 0.07345820218324661, -0.058496229350566864, 
0.16541580855846405, -0.06062978878617287, 0.05833667889237404, 0.03462206572294235, -0.05340692773461342, 0.17432844638824463, -0.09934903681278229, 
-0.055591702461242676, 0.13032124936580658, -0.06012875214219093, 0.16441738605499268, -0.0003912781539838761, 0.05252863094210625, 0.16218921542167664, 
-0.025658128783106804, -0.08694206178188324, 0.013508526608347893, -0.02184506505727768, -0.07453005015850067, 0.11214229464530945, 0.08408690989017487, 
-0.10874772816896439, 0.04581855237483978, 0.21022115647792816, 0.01738511212170124, -0.07567793875932693, 0.06883290410041809, -0.05116302892565727, 
0.0458567813038826, -0.0581231415271759, -0.012850808911025524, -0.00013905861123930663, 0.07865865528583527, 0.060394544154405594, -0.058211326599121094, 
0.015452575869858265, -0.12398750334978104, 0.014087955467402935, -0.004501666873693466, -0.06532615423202515, -0.1131233274936676, 0.008191435597836971, 
-0.01746673323214054, -0.05736033245921135, 0.11871004104614258, 0.11898788064718246, 0.04725249484181404, 0.0816471129655838, 0.09063073992729187, 
0.06257324665784836, -0.004330683033913374, -0.03184662386775017, -0.02042032964527607, 0.17544792592525482, 0.02918853797018528, 0.08308767527341843, 
0.127977192401886, -0.04829317331314087, -0.19215230643749237, -0.13337182998657227, -0.044148340821266174, -0.08295700699090958, -0.03922134265303612, 
-0.04195786267518997, -0.15201765298843384, -0.17885614931583405, -0.13448679447174072, 0.05688551813364029, 0.11209128797054291, -0.11989384889602661, 
0.06313583999872208, -0.01933840848505497, 0.1217910423874855, 0.0033573214896023273, -0.02214112877845764, 0.161035418510437, 0.1580251306295395, 
-0.07326731830835342, -0.04621933028101921, -0.1015724390745163, -0.09934576600790024, -0.05130231752991676, 0.07693882286548615, -0.14885225892066956, 
0.12468153983354568, -0.14291635155677795, -0.03258237987756729, -0.32981806993484497, 0.007005565799772739, -0.16121819615364075, -0.005870752967894077, 
0.14691922068595886, -0.10234277695417404, 0.08352088928222656, -0.007134107872843742, -0.1722734421491623, -0.14803384244441986, 0.057035453617572784, 
-0.06561972200870514, -0.007847982458770275, 0.007587018422782421, -0.15062452852725983, -0.23193727433681488, 0.1349494755268097, -0.007948756217956543, 
0.018560705706477165, 0.032161910086870193, -0.14078070223331451, -0.189701646566391, 0.16553053259849548, -0.11488591134548187, -0.08697300404310226, 
-0.241186261177063, 0.19091331958770752, -0.07500512152910233, -0.053645674139261246, 0.20974816381931305, 0.031202098354697227, 0.11648618429899216, 
-0.19150246679782867, -0.004121906124055386, 0.04324888810515404, -0.05849996581673622, -0.056094568222761154, -0.057668525725603104, -0.14595796167850494, 
-0.009146167896687984, -0.056503165513277054, -0.04054686799645424, -0.021691814064979553, 0.02911411039531231, -0.014791070483624935, 0.05911162495613098, 
0.10003207623958588, -0.009869533590972424, 0.07259397208690643, -0.0022538157645612955, 0.0020096965599805117, -0.05759505182504654, -0.10057591646909714, 
0.17521502077579498, -0.1595110446214676, -0.006811671424657106, 0.03032085858285427, 0.017906395718455315, 0.13908880949020386, 0.1392756700515747, 
-0.1515331119298935, 0.05358533188700676, 0.11364541202783585, 0.12387373298406601, -0.07146722823381424, 0.18058931827545166, 0.06329932063817978, 
-0.25212612748146057, -0.1751958429813385, -0.003303845878690481, 0.09980304539203644, 0.026039933785796165, -0.19109340012073517, -0.1804569810628891, 
0.052420638501644135, 0.09309906512498856, -0.058797188103199005, -0.17374715209007263, 0.08481908589601517, -0.04349899664521217, -0.01998603716492653, 
-0.03245323896408081, 0.027937162667512894, -0.08729573339223862, -0.13929051160812378, -0.043354280292987823, 0.06286948174238205, -0.027907446026802063, 
0.13948409259319305, -0.05049140378832817, 0.12202426046133041, -0.014596751891076565, -0.04054424539208412, -0.03366725891828537, 0.04085703566670418, 
0.03039812296628952, -0.056086525321006775, -0.007088370155543089, -0.08695156872272491, -0.07886375486850739, -0.1777731329202652, 0.06259873509407043, 
-0.13407637178897858, -0.0030761435627937317, 0.025010840967297554, -0.1124599501490593, -0.09415388852357864, -0.14636297523975372, -0.09276846796274185, 
0.050473909825086594, 0.0072628408670425415, 0.004647024441510439, -0.12218867242336273, -0.08053349703550339, -0.05826431140303612, 0.11655293405056, 
-0.08039531856775284, 0.1577453762292862, -0.14424976706504822, 0.058566924184560776, -0.09250413626432419, -0.09505495429039001, 0.07762021571397781, 
0.07459361106157303, -0.16588905453681946, 0.06730414181947708, 0.05164007842540741, -0.04500292241573334, -0.099690742790699, 0.052759550511837006, 
-0.050113875418901443, -0.007813275791704655, 0.025171920657157898, 0.10207521915435791, -0.0474119558930397, 0.0917094349861145, -0.0896420031785965, 
-0.03597746044397354, -0.10699409991502762, -0.09093832969665527, -0.07992818206548691, 0.014404206536710262, 0.06627271324396133, -0.1492817997932434, 
0.15317781269550323, 0.04168069362640381, 0.09408405423164368, -0.12719622254371643, 0.013971183449029922, -0.004513541702181101, -0.05656815692782402, 
-0.02178237959742546, -0.06764157116413116, -0.06197378411889076, 0.15565873682498932, -0.016083234921097755, -0.024723364040255547, 0.033372603356838226, 
-0.10935657471418381, -0.08252251893281937, -0.07659723609685898, 0.059874869883060455, 0.08997549116611481, 0.00672417227178812, 0.01795714721083641, 
0.0315629206597805, 0.08258985728025436, 0.08132617175579071, -0.013581347651779652, 0.17583036422729492, -0.05169929191470146, 0.05435873568058014, 
0.014626072719693184, -0.060313161462545395, -0.0009976074798032641, 0.06058047339320183, 0.08324126154184341, 0.09960121661424637, 0.013612854294478893, 
0.11679315567016602, -0.1235160380601883, -0.024684017524123192, -0.05748521536588669, 0.08333980292081833, -0.06485667824745178, -0.0980108231306076, 
-0.1017925813794136, -0.060841161757707596, -0.03801685571670532, 0.07826882600784302, 0.05251917243003845, 0.009310425259172916, 0.1608220636844635, 
-0.011541739106178284, -0.03890348598361015, 0.06522606313228607, 0.06771852821111679, 0.07021944969892502, 0.09323368221521378, -0.1675601303577423, 
-0.04309557005763054, 0.041767701506614685, -0.07505587488412857, -0.08420617878437042, -0.18037696182727814, 0.024684399366378784, 0.03503453731536865, 
0.040704287588596344, 0.06355304270982742, 0.12633883953094482, 0.08254608511924744, -0.022498367354273796, -0.06623093783855438, 0.007672720123082399, 
0.018421776592731476, 0.18744635581970215, -0.1717253029346466, 0.15166541934013367, -0.027316324412822723, -0.004131165333092213, 0.08842131495475769, 
0.0952562689781189, -0.13798773288726807, -0.09498775750398636, 0.06551053375005722, -0.0047438740730285645, 0.01575903221964836, 0.189213365316391, 
0.018833380192518234, 0.06711041182279587, 0.09969095140695572, 0.009321287274360657, -0.01312924362719059, 0.13010714948177338, -0.01843034289777279, 
0.04363790526986122, -0.004114950075745583, 0.0003520020400173962, -0.04885163903236389, -0.11109825223684311, 0.09244407713413239, 0.006895469035953283, 
0.0025325824972242117, 0.08015581965446472, 0.009605856612324715, -0.10370361804962158, 0.05015639215707779, -0.009530967101454735, -0.032096389681100845, 
0.062011346220970154, 0.07302714139223099, 0.060816679149866104, 0.22610580921173096, -0.08841826021671295, -0.014792045578360558, 0.057498499751091, 
0.1742861121892929, 0.09862916171550751, 0.07681126147508621, 0.06997893750667572, 0.0002875895006582141, 0.006118174642324448, -0.07614785432815552, 
-0.1711651235818863, -0.0003069689264521003, 0.04310739412903786, -0.07367492467164993, -0.09184832870960236, 0.044250067323446274, -0.09470051527023315, 
-0.04874982684850693, -0.10340037941932678, -0.12967246770858765, 0.1002938449382782, 0.06833327561616898, 0.03490469232201576, 0.11524515599012375, 
0.04616398364305496, -0.17202097177505493, 0.09532772749662399, -0.16650915145874023, 0.21008729934692383, -0.01029262226074934, 0.1416046917438507, 
0.016468970105051994, -0.10351325571537018, -0.17938290536403656, -0.015642695128917694, 0.1869242638349533, 0.0416283905506134, -0.15168778598308563, 
0.07533911615610123, 0.15361890196800232, 0.03034066967666149, 0.04887621849775314, -0.02305718883872032, 0.12793073058128357, 0.03887944668531418, 
0.16748137772083282, 0.09615593403577805, 0.20201067626476288, -0.07439182698726654, 0.0017847688868641853, 0.0709955170750618, 0.11767186969518661, 
0.08546800166368484, 0.009292349219322205, 0.17966298758983612, 0.061661116778850555, -0.2060316950082779, 0.15284565091133118, -0.16055242717266083, 
0.10349076241254807, 0.012747875414788723, -0.01705426722764969, -0.13351543247699738, 0.05732230842113495, 0.0806887298822403, -0.04215855896472931, 
0.03089541383087635, 0.312908798456192, -0.15859690308570862, 0.018357861787080765, 0.0186212956905365, 0.05431961268186569, -0.03833828121423721, 
-0.06358211487531662, -0.1496247947216034, 0.10834978520870209, 0.05693989619612694, -0.11554743349552155, -0.040644995868206024, 0.13326196372509003, 
0.08919181674718857, -0.04751278832554817, 0.1825871616601944, -0.1005014032125473, -0.10532481223344803, 0.03149023279547691, -0.14153917133808136, 
0.014629327692091465, -0.021919606253504753, -0.12142006307840347, -0.01581236906349659, -0.054390884935855865, -0.01621243730187416, 0.03457466512918472, 
0.16458430886268616, -0.02028742805123329, -0.0807214006781578, -0.03590811789035797, 0.03223906457424164, -0.016248125582933426, 0.007373895030468702, 
-0.003531285561621189, 0.027724463492631912, 0.20394866168498993, 0.03758601099252701, -0.1029629036784172, -0.061597928404808044, -0.11594808846712112, 
-0.07611166685819626, 0.0701693668961525, 0.03270051255822182, 0.1824113428592682, -0.10437802225351334, -0.08843286335468292, 0.12056603282690048, 
0.00288134953007102, 0.04794487729668617, 0.09420949220657349, -0.01643192023038864, 0.04174403101205826, -0.015038444660604, 0.24009400606155396, 
0.0832786113023758, -0.02754375711083412, 0.05594530329108238, -0.08687753975391388, 0.13902023434638977, -0.045761335641145706, -0.0875941589474678, 
0.030457451939582825, 0.008714262396097183, 0.20195133984088898, -0.05407319962978363, 0.07775086909532547, 0.13138622045516968, 0.15824799239635468, 
-0.13606826961040497, 0.09048532694578171, 0.02232232689857483, 0.12129152566194534, 0.02135291136801243, 0.031030049547553062, -0.0007324937614612281, 
0.09510618448257446, 0.08924483507871628, 0.08288703113794327, -0.10903754830360413, 0.13357780873775482, 0.10306958854198456, 0.001293945242650807, 
0.09666791558265686, -0.13668064773082733, 0.010142581537365913, -0.019323838874697685, -0.016858793795108795, 0.12742570042610168, 0.12111112475395203, 
0.005185171030461788, -0.16024209558963776, -0.022043384611606598, 0.008868439123034477, 0.11618056148290634, -0.04688926413655281, -0.0003664750838652253, 
-0.13283230364322662, 0.04502848908305168, 0.07245758175849915, -0.09208348393440247, -0.028524160385131836, 0.07608038932085037, 0.06245861575007439, 
0.1025002971291542, -0.0314142145216465, -0.10723468661308289, -0.031149975955486298, 0.060404375195503235, -0.008108828216791153, 0.021449996158480644, 
0.10561341047286987, -0.07031387090682983, 0.026858380064368248, -0.1447407752275467, -0.018151933327317238, -0.09062705188989639, 0.14356763660907745, 
-0.23558863997459412, 0.13334615528583527, -0.03149762749671936, -0.06588064134120941, 0.1416066735982895, 0.045373037457466125, 0.028681863099336624, 
0.10840173810720444, 0.09911966323852539, 0.1770477294921875, -0.17744377255439758, -0.10390281677246094, 0.08255496621131897, -0.1387743055820465, 
-0.1219746321439743, 0.13330887258052826, -0.09486588835716248, 0.04989030957221985, -0.20691494643688202, 0.10662149637937546, -0.07516118884086609, 
-0.013470024801790714, -0.12534941732883453, -0.0410427488386631, -0.0011882820399478078, -0.016292577609419823, -0.2247810661792755, -0.04018057882785797, 
-0.019797058776021004, -0.12918348610401154, -0.037204090505838394, 0.2309129685163498, -0.02140122652053833, -0.09296213835477829, 0.1229124590754509, 
0.21689452230930328, -0.0804959088563919, 0.0003898422874044627, 0.012047428637742996, -0.16738224029541016, -0.03297978639602661, -0.18604326248168945, 
0.22505418956279755, -0.07477474212646484, -0.07894375920295715, 0.011991862207651138, 0.032192494720220566, 0.18342427909374237, 0.04097025841474533, 
0.04599328339099884, 0.026934368535876274, -0.07609697431325912, -0.008551233448088169, -0.1587747186422348, 0.004006038885563612, 0.13230983912944794, 
0.05551494285464287, -0.09448505938053131, 0.07950931042432785, 0.08689553290605545, 0.1106027364730835, 0.23341189324855804, 0.018838685005903244, 
-0.08213187009096146, 0.3462599813938141, -0.05532503500580788, 0.17492100596427917, 0.14095449447631836, -0.1288079172372818, 0.061741068959236145, 
-0.09375220537185669, -0.05963220074772835, -0.03036399558186531, -0.06787823140621185, 0.17118725180625916, -0.2395697385072708, -0.10434307157993317, 
0.04443815350532532, 0.15732702612876892, -0.06911341100931168, 0.010478954762220383, 0.0665319487452507, -0.06501138210296631, 0.11758483946323395, 
-0.03776770830154419, -0.00046236696653068066, -0.03486407548189163, 0.09103145450353622, 0.07015957683324814, -0.12681350111961365, 0.18746963143348694, 
0.010387329384684563, 0.12036613374948502, 0.06260347366333008, -0.08381239324808121, -0.08798449486494064, 0.002319521736353636, -0.06499487161636353, 
-0.032521624118089676, 0.04975283518433571, 0.009012703783810139, 0.03588177263736725, 0.06714039295911789, 0.04860164225101471, -0.11300269514322281, 
-0.04676663503050804, 0.05200998857617378, -0.01029890775680542, 0.048809170722961426, -0.011084486730396748, 0.027117375284433365, -0.17665258049964905, 
-0.09663567692041397, 0.08818511664867401, 0.1796032339334488, -0.005584916565567255, -0.04041966795921326, 0.1977434754371643, 0.06895218789577484, 
-0.006772476248443127, -0.008264598436653614, 0.019830372184515, -0.046187881380319595, -0.018446901813149452, 0.03321164846420288, 0.018798721954226494, 
0.08289249241352081, 0.07324103266000748, -0.1053943857550621, 0.034864526242017746, -0.09359847009181976, 0.04298144578933716, -0.014833742752671242, 
-0.004785012919455767, -0.059842292219400406, -0.15222181379795074, 0.047243889421224594, 0.002571444259956479, -0.003565543331205845, -0.04979836568236351, 
-0.1040518581867218, -0.16015954315662384, -0.07953078299760818, -0.026419855654239655, 0.10467525571584702, -0.11055100709199905, 0.04883035272359848, 
-0.03052504174411297, -0.035026002675294876, -0.07126200944185257, -0.022091683000326157, 0.08965636044740677, 0.04790043458342552, -0.05678088590502739, 
-0.12149553745985031, 0.19740568101406097, 0.098411925137043, -0.10450655966997147, 0.1362869143486023, 0.09434501081705093, 0.03380989655852318, 
-0.07741063833236694, -0.1440088301897049, 0.05435996875166893, 0.00880471896380186, -0.04830857366323471, -0.000468944403110072, -0.012030190788209438, 
-0.11342015862464905, 0.09123523533344269, 0.04652552679181099, 0.01069214940071106, -0.08365751802921295, 0.05169824883341789, 0.15829907357692719, 
-0.05284419283270836, 0.14208784699440002, -0.009447162970900536, -0.05073928087949753, 0.009369204752147198, 0.04838109388947487, -0.0706087201833725, 
-0.00035033473977819085, 0.02276148647069931, -0.07747489959001541, 0.008663931861519814, 0.09085098654031754, 0.1620018035173416, 0.08253864198923111, 
0.10999885201454163, 0.03863251581788063, 0.0052952636033296585, 0.2531718909740448, 0.030143922194838524, -0.06536763906478882, 0.00048773791058920324, 
-0.09101379662752151, -0.10902732610702515, 0.12268192321062088, -0.027556387707591057, -0.051033854484558105, 0.04306395724415779, 0.3214639723300934, 
-0.05178281292319298, 0.016571996733546257, -0.10069400072097778, 0.03112197481095791, -0.005285484716296196, -0.0916227325797081, -0.013083769008517265, 
0.011969042010605335, -0.0965532660484314};

#endif

#endif
