// Numpy array shape [128]
// Min -0.38715577
// Max 0.38172254
// Number of zeros 0

#ifndef TRANSFORMERS_2_LINEAR_3_BIAS_H_
#define TRANSFORMERS_2_LINEAR_3_BIAS_H_

#ifndef __SYNTHESIS__
T_norm1_bias_t transformers_2_linear_3_bias[128];
#else
T_norm1_bias_t transformers_2_linear_3_bias[128] = {-0.209613636136055, 0.031134581193327904, -0.7397208213806152, 0.49734053015708923, 0.32850512862205505, 0.911063551902771, 
0.24007906019687653, 0.08092782646417618, 0.8316259980201721, 0.013081679120659828, -0.1711074709892273, -0.04630917310714722, -0.2014249861240387, 
0.0996394157409668, 0.1552255004644394, 0.05417761206626892, 0.3019002676010132, -0.07466543465852737, 0.6975710988044739, -0.2600291073322296, 
-0.1226717010140419, -1.2309669256210327, -0.3523574471473694, -0.07145151495933533, 0.04385412856936455, 1.2070984840393066, 0.1399226039648056, 
-0.09489403665065765, 0.04038335755467415, -0.2884998917579651, 0.3157850503921509, 0.20198814570903778, 1.8071290254592896, 0.5013779997825623, 
0.47677305340766907, 0.2287532389163971, -0.07509888708591461, 0.6003698706626892, -0.5255918502807617, -0.7856598496437073, -0.03379708528518677, 
0.21521246433258057, 0.013448059558868408, -0.4244915246963501, -0.06655529886484146, -0.025776511058211327, 0.1812296211719513, 0.15845558047294617, 
-0.08027520030736923, -0.15170705318450928, 0.09217869490385056, -0.15766151249408722, 0.3019289970397949, -0.03655645623803139, -0.012482747435569763, 
-0.17693033814430237, 0.045298777520656586, 0.16995249688625336, 0.29019755125045776, 0.26516205072402954, -0.13979598879814148, 1.004988670349121, 
-1.5238685607910156, 0.4513472020626068, 0.015308437868952751, 0.3060344457626343, 0.43593281507492065, -0.035082295536994934, 0.7755909562110901, 
-0.21252533793449402, 0.008694824762642384, 0.05981854349374771, 2.088066816329956, 0.5450900793075562, -0.05552523210644722, 0.40488630533218384, 
-0.11275028437376022, 0.06572131812572479, 0.12247387319803238, 0.11075733602046967, -0.04706266522407532, -0.25528308749198914, 0.16372600197792053, 
0.11523723602294922, -0.8208476305007935, 0.3787965178489685, -0.7178468704223633, 0.3167455494403839, 0.03327912464737892, 0.30653876066207886, 
0.24974381923675537, 0.1876697540283203, -0.3361879587173462, 0.06027892231941223, -0.3282851278781891, 0.04204609990119934, -0.11527204513549805, 
0.03328625112771988, 0.1550339162349701, 2.2571680545806885, -0.3201775550842285, 0.5756900310516357, 0.032844237983226776, 0.39446359872817993, 
-0.9684251546859741, 0.16342052817344666, -0.029422879219055176, 0.3617105782032013, -0.07157790660858154, 1.4943947792053223, -0.4982050657272339, 
0.07988613098859787, 0.060138992965221405, 1.6549192667007446, 0.2320939302444458, 0.11849755048751831, 0.5631576180458069, 0.6616308093070984, 
0.3512401580810547, 0.0996103435754776, -0.3238513171672821, 0.23915383219718933, 0.5207244753837585, -0.5867759585380554, 0.5803684592247009, 
0.23852726817131042, 0.0773148238658905, 1.5132274627685547};

#endif

#endif
