-0.9082036018371582, -0.7257037162780762, 0.5685914754867554, -0.6744284629821777, -0.9294047951698303, -0.2157716155052185, 0.7543286085128784, -1.3579636812210083, 0.955658495426178, 1.200484037399292, -0.8457058668136597, -0.632480800151825, 0.6909537315368652, 0.6405080556869507, 0.6058475375175476, -0.6473060250282288, -0.6705288290977478, 0.8148408532142639, 0.5799840688705444, 0.5177212357521057, 0.8079156875610352, -0.6586177349090576, -0.8046165108680725, -0.7222268581390381, 0.5892221927642822, -0.7122663259506226, -0.7137571573257446, -0.6111955046653748, 0.7464606761932373, -0.85123211145401, -0.6278045773506165, 0.11166802048683167, -0.9329796433448792, -0.6482423543930054, 0.8180901408195496, 0.7948894500732422, -2.8597612380981445, -0.4744669497013092, -0.5030008554458618, -0.8089158535003662, -0.7767127156257629, 0.7819024324417114, -0.7986133098602295, 0.6140618324279785, 0.5032672882080078, 0.5250015258789062, 0.7658642530441284, 0.6140293478965759, -0.7140008807182312, 0.6834610104560852, -0.7668437957763672, 0.870158851146698, -0.6871359348297119, 0.6877543926239014, 0.8217453956604004, 0.8101304769515991, 0.6248546242713928, -0.8009274005889893, 0.5916891098022461, -0.302410364151001, -0.516660213470459, -0.7488946914672852, -0.845521092414856, 0.6206670999526978