// Numpy array shape [64]
// Min -0.8025694
// Max 0.5127828
// Number of zeros 0

#ifndef TRANSFORMERS_2_SELF_ATTENTION_NORM_BIAS_H_
#define TRANSFORMERS_2_SELF_ATTENTION_NORM_BIAS_H_

#ifndef __SYNTHESIS__
SA_norm_bias_t transformers_2_self_attention_norm_bias[64];
#else
SA_norm_bias_t transformers_2_self_attention_norm_bias[64] = {-0.403270423412323, 0.06845363974571228, -0.04861559718847275, -0.3519725799560547, 2.1470935344696045, -2.9007465839385986, 
0.008914177305996418, -4.811928749084473, 1.6206945180892944, -0.03899848461151123, 0.05237847566604614, 0.00015189778059720993, 0.001327286008745432, 
-0.39195767045021057, 0.01714356243610382, 0.12239912152290344, -0.06181644648313522, -0.025607354938983917, 0.4127611219882965, -1.7035038471221924, 
0.6285932064056396, -0.45613425970077515, -0.4196549952030182, 0.920189380645752, -0.06003706157207489, -0.03820133954286575, -0.09423726797103882, 
0.15704047679901123, -0.07054946571588516, -0.2773115932941437, 0.5266456007957458, 0.053355127573013306, -1.732493281364441, -0.8414453864097595, 
-0.029777884483337402, -0.095974400639534, -2.085993528366089, -2.5506410598754883, 0.3449360132217407, -1.0042390823364258, 0.32985636591911316, 
0.3356175720691681, 0.06823348999023438, 0.1707901656627655, 0.4094255864620209, 0.5207090377807617, -0.17472988367080688, 0.14141856133937836, 
-0.2013215869665146, -0.2311817705631256, 0.34041276574134827, 0.9911127090454102, -0.013452470302581787, 0.21237191557884216, -0.22465205192565918, 
0.20503480732440948, -0.0024902457371354103, 0.03271299600601196, 0.25474047660827637, -0.20275427401065826, -0.5760536193847656, -0.3001248836517334, 
-0.031057685613632202, 0.4782347083091736};

#endif

#endif
