// Numpy array shape [961]
// Min -2.9520223
// Max 3.9187336
// Number of zeros 0

#ifndef TRANSFORMERS_1_SELF_ATTENTION_PRE_EXP_NORM_BIAS_H_
#define TRANSFORMERS_1_SELF_ATTENTION_PRE_EXP_NORM_BIAS_H_

#ifndef __SYNTHESIS__
SA_exp_norm_bias_t transformers_1_self_attention_pre_exp_norm_bias[961];
#else
SA_exp_norm_bias_t transformers_1_self_attention_pre_exp_norm_bias[961] = {-0.6353427171707153, -0.2782859206199646, 0.14347605407238007, 0.19442147016525269, 0.30451101064682007, 0.23597946763038635, 
0.09830444306135178, 0.11397293210029602, 0.14054039120674133, -0.4319755434989929, -0.34730982780456543, -0.4581288695335388, -0.6234245300292969, 
-0.6060234904289246, -0.6461126208305359, -0.6801458597183228, -0.8783587217330933, -1.126534342765808, -1.027314305305481, -1.1169911623001099, 
-1.1391757726669312, -1.0396636724472046, -0.8987734913825989, -0.8340464234352112, -0.5842399597167969, -0.4334222376346588, -0.14272001385688782, 
0.2941301465034485, 0.8032914400100708, 1.4539499282836914, 2.8027172088623047, -8.302016258239746, 2.1692893505096436, 4.098433494567871, 
3.7069172859191895, 3.4499192237854004, 3.3075644969940186, 3.0401062965393066, 2.591764450073242, 2.3611583709716797, 0.920555830001831, 
-0.2095126509666443, -1.0414866209030151, -1.528209924697876, -1.68520987033844, -1.7579199075698853, -1.9210809469223022, -2.1988961696624756, 
-2.2438087463378906, -2.278839349746704, -2.4743893146514893, -2.5670039653778076, -2.7931432723999023, -2.9166603088378906, -2.9821531772613525, 
-3.105480909347534, -3.180375337600708, -3.50536847114563, -3.413299322128296, -3.488543748855591, -3.5929462909698486, -3.773730993270874, 
0.21417292952537537, 0.7668284177780151, -0.29968059062957764, 0.855666995048523, 0.1997828483581543, 0.11906042695045471, 0.6852995753288269, 
0.49208301305770874, 0.8507164716720581, 1.3526880741119385, 1.29038667678833, 0.9635889530181885, 0.9100289940834045, 0.9061927795410156, 
1.0678938627243042, 0.44491153955459595, 0.45601826906204224, 0.26078641414642334, 0.23324614763259888, 0.32161712646484375, 0.28490710258483887, 
0.06594226509332657, -0.16962367296218872, -0.3319737911224365, -0.3036574125289917, -0.2410317063331604, -0.22581815719604492, -0.18360784649848938, 
-0.4412657618522644, -0.4785723090171814, -0.21442124247550964, 1.7323174476623535, 0.5616222620010376, 0.7057211399078369, -0.36134225130081177, 
-0.20572078227996826, -0.03260129690170288, -0.3391916751861572, 0.0719301700592041, 0.2667418122291565, 0.6256463527679443, 0.7356897592544556, 
0.9286461472511292, 1.0521317720413208, 1.018715500831604, 0.9757055044174194, 0.5679565668106079, 0.5150881409645081, 0.45905524492263794, 
0.08275198936462402, 0.30837154388427734, 0.20699714124202728, 0.19362713396549225, -0.0006742328405380249, 0.08859497308731079, 0.15725314617156982, 
0.03066915273666382, 0.15580058097839355, 0.08205202221870422, -0.3320404589176178, -0.2258886992931366, 0.05798962712287903, 0.7082534432411194, 
0.8701518774032593, 0.3351824879646301, -0.30576092004776, -0.16947242617607117, 0.0926094651222229, -0.0636664628982544, 0.08187741041183472, 
0.5032579302787781, 0.903451681137085, 0.9593261480331421, 0.8614195585250854, 0.9979041814804077, 0.5894290208816528, 0.8043987154960632, 
0.4770311713218689, 0.6282476782798767, 0.3837435841560364, 0.1466425061225891, 0.24717874825000763, 0.05142637714743614, 0.06458909809589386, 
0.047676362097263336, 0.09853726625442505, 0.05532240867614746, -0.2535170912742615, 0.0017345845699310303, -0.14205679297447205, -0.32530391216278076, 
-0.468009889125824, 0.0969456136226654, -0.4405214190483093, 1.0436675548553467, 0.41669195890426636, 0.06539133191108704, 0.09230828285217285, 
-0.10543818771839142, 0.009753644466400146, 0.1668211817741394, 0.869846761226654, 1.1018664836883545, 1.3710871934890747, 0.9296584725379944, 
0.7138745188713074, 0.6349144577980042, 0.22434183955192566, 0.39601773023605347, 0.5167858600616455, 0.02471330761909485, 0.19630983471870422, 
-0.1634015589952469, 0.2821427583694458, 0.08694133162498474, 0.052290886640548706, -0.24087156355381012, -0.13805422186851501, -0.2607167363166809, 
-0.1501787006855011, 0.05659683793783188, -0.5091162323951721, -0.5266231298446655, -0.37097129225730896, -0.3581494688987732, 1.1544172763824463, 
0.6620582342147827, 0.33769676089286804, 0.023657917976379395, -0.13977009057998657, 9.757280349731445e-05, 0.08944272994995117, 0.1015198826789856, 
1.0770015716552734, 1.326793909072876, 1.3543758392333984, 0.9639158248901367, 0.9797425270080566, 0.40587401390075684, 0.1505703628063202, 
0.3417361080646515, -0.09949061274528503, 0.11946786940097809, -0.17578332126140594, -0.1492263525724411, -0.017968155443668365, -0.34917014837265015, 
-0.08643703162670135, -0.17777495086193085, -0.2368467152118683, -0.29686179757118225, -0.3881710171699524, -0.6234509944915771, -0.7441551685333252, 
-0.6033937931060791, -0.6657910346984863, 1.2695499658584595, 0.3757225573062897, 0.17674827575683594, 0.005308747291564941, -0.3003082871437073, 
-0.028930485248565674, 0.1894434690475464, 0.8693899512290955, 1.4078774452209473, 1.3047510385513306, 1.1549293994903564, 1.0949888229370117, 
0.8140043616294861, 0.5754837393760681, 0.17720666527748108, 0.15542209148406982, 0.13955745100975037, -0.3581622838973999, -0.20354558527469635, 
-0.03924756497144699, -0.27161556482315063, -0.04354371875524521, -0.1851314902305603, -0.21158942580223083, -0.41736602783203125, -0.5255005955696106, 
-0.4400312006473541, -0.6225504875183105, -0.755781888961792, -0.6804231405258179, -1.1095492839813232, 1.4616813659667969, 0.6994128227233887, 
0.5170508623123169, 0.07708197832107544, -0.2768039107322693, -0.15324866771697998, 0.43575626611709595, 0.41679301857948303, 1.0442999601364136, 
0.9073801040649414, 1.34075927734375, 1.8389971256256104, 0.36432212591171265, 0.8842840790748596, 0.7247748374938965, 0.3690909445285797, 
-0.05826401710510254, -0.16761815547943115, 0.005508847534656525, -0.19602654874324799, -0.060230057686567307, -0.17529374361038208, -0.20994634926319122, 
-0.34917253255844116, -0.6488638520240784, -0.45665279030799866, -0.5668969750404358, -0.7198188304901123, -0.8412517309188843, -0.759931206703186, 
-1.321726679801941, 1.3908510208129883, 0.5241921544075012, 0.3447045683860779, 0.2247510552406311, -0.2736451029777527, -0.1671544313430786, 
0.045546770095825195, 0.29731011390686035, 0.22954660654067993, 1.2387983798980713, 0.7736988663673401, 1.1588624715805054, 0.4402325749397278, 
0.2877157926559448, 0.1347348392009735, 0.567546546459198, 0.47788169980049133, -0.08496561646461487, 0.15334957838058472, -0.18062011897563934, 
-0.25539112091064453, -0.3455909788608551, -0.11872773617506027, -0.4717704951763153, -0.28221550583839417, -0.29399240016937256, -0.515174150466919, 
-0.5831180214881897, -0.5176131129264832, -0.38618341088294983, -1.279473900794983, 1.3667426109313965, 0.6374830007553101, 0.38330918550491333, 
0.07107600569725037, -0.16263151168823242, -0.20207315683364868, -0.12184852361679077, -0.08510524034500122, 0.381182461977005, 0.04833650588989258, 
0.7343649864196777, 0.6752263307571411, 0.6344799995422363, 0.7928919792175293, 0.5166175365447998, 0.7078752517700195, 0.5815712213516235, 
0.18273863196372986, -0.37463313341140747, -0.2238965928554535, -0.06490650027990341, -0.4917062222957611, -0.13951358199119568, -0.36659735441207886, 
-0.25666916370391846, -0.6288682818412781, -0.7595595121383667, -0.6999706029891968, -0.887752890586853, -0.9391248822212219, -0.9091372489929199, 
1.482236623764038, 0.5811323523521423, 0.3809244632720947, -0.3665732443332672, -0.7493088245391846, -0.7979937195777893, -0.7556590437889099, 
-0.3258312940597534, -0.17039483785629272, 0.30761557817459106, 0.4226478636264801, 0.7981245517730713, 0.4145568907260895, 0.7664294838905334, 
0.24093547463417053, 0.4911269247531891, 0.4609375596046448, -0.14919790625572205, -0.03700948506593704, 0.17801013588905334, 0.04154022037982941, 
-0.31209856271743774, -0.16230784356594086, -0.233958899974823, -0.37936389446258545, -0.30405619740486145, -0.5093708038330078, -0.7033258080482483, 
-0.933160662651062, -0.6248482465744019, -0.9385782480239868, 1.4441108703613281, 0.49343883991241455, 0.2000562846660614, -0.10115119814872742, 
-0.50316321849823, -0.46174705028533936, -0.65525221824646, -0.006847500801086426, -0.14259842038154602, -0.036218613386154175, 0.6629610061645508, 
-0.005547225475311279, 0.8974922299385071, 1.1072441339492798, 0.6489241719245911, 0.7873529195785522, 0.483787477016449, 0.8361133933067322, 
0.26162949204444885, -0.1790861338376999, -0.20076829195022583, -0.19949106872081757, -0.1931467205286026, -0.2692195177078247, -0.497162401676178, 
-0.6255497336387634, -0.8928830027580261, -0.8095123767852783, -1.0926710367202759, -0.8971062898635864, -0.6555217504501343, 0.9656721353530884, 
0.4676421880722046, 0.5240101218223572, 0.12330514192581177, -0.19579964876174927, -0.2583959996700287, -0.47735631465911865, -0.7406858205795288, 
-0.0650968849658966, 0.24342340230941772, 0.3068653643131256, 1.1342730522155762, 0.35285162925720215, 0.3464076519012451, 0.688775360584259, 
0.5746750831604004, 0.2037430852651596, 0.5184264183044434, 0.37136998772621155, 0.4007658362388611, -0.025277473032474518, -0.14545580744743347, 
-0.2119079977273941, -0.13963748514652252, -0.5741547346115112, -0.35793164372444153, -0.4533168375492096, -0.5723196864128113, -0.9460220336914062, 
-0.6397757530212402, -0.265816330909729, 0.851373553276062, 0.26140227913856506, -0.02531123161315918, -0.2434147298336029, -0.47489485144615173, 
-0.7108999490737915, -0.36779943108558655, -0.060779571533203125, -0.605868935585022, 0.006306245923042297, 0.5993102788925171, 0.8794512748718262, 
0.36027202010154724, 0.08730699121952057, 0.3196164071559906, 0.6124634742736816, 0.6725744009017944, 0.30301564931869507, 0.07645324617624283, 
0.1259617805480957, 0.2657962739467621, 0.04935064911842346, 0.043512552976608276, 0.19282327592372894, -0.41506659984588623, 0.012291669845581055, 
-0.3078768849372864, -0.5910313129425049, -0.5334336161613464, -0.4005637764930725, -0.6012184619903564, 0.8081585764884949, 0.413224995136261, 
0.231643944978714, -0.05844378471374512, -0.3802777826786041, -0.41539695858955383, -0.454569935798645, 0.1731414496898651, -0.4819164574146271, 
0.5288625955581665, 0.4062688946723938, 0.840016782283783, 0.6987025737762451, 0.48129138350486755, 0.012379258871078491, 0.6891512274742126, 
0.7467395067214966, 0.403933584690094, 0.5008085370063782, 0.26347699761390686, 0.20444560050964355, -0.08400210738182068, -0.15430477261543274, 
-0.40995198488235474, -0.5377858877182007, -0.4253523051738739, -0.6470158100128174, -0.650497317314148, -1.0009958744049072, -0.7645691633224487, 
-0.456544429063797, 0.46285659074783325, 0.2165437936782837, -0.02063050866127014, -0.0579056441783905, -0.37173113226890564, -0.42589178681373596, 
-0.5178808569908142, -0.1764223873615265, 0.23696625232696533, 0.6300482749938965, 0.3479735851287842, 0.6023523807525635, 0.3067690432071686, 
0.5836820602416992, 0.45069420337677, 0.3879666328430176, 0.8399351239204407, 0.5273687243461609, 0.2407570779323578, 0.7787140607833862, 
0.506609320640564, 0.42499107122421265, 0.30681419372558594, 0.11648698151111603, -0.05445024371147156, -0.11684559285640717, -0.13669517636299133, 
-0.37453120946884155, -0.5753055214881897, -0.5342311263084412, -0.41118836402893066, 0.3599928617477417, 0.4342694580554962, 0.33191806077957153, 
-0.04485538601875305, -0.6690253019332886, -0.6312181949615479, -0.2771996259689331, -0.542646586894989, 0.2389678955078125, 0.40835797786712646, 
0.3216603398323059, 0.3195139765739441, 0.03208714723587036, 0.3281272351741791, 0.5368342399597168, 0.5839262008666992, 0.3924786150455475, 
0.5074539184570312, 0.5528736114501953, 0.3997291624546051, 0.3283461928367615, 0.2427433431148529, 0.07077731192111969, 0.17290988564491272, 
-0.017487555742263794, -0.2789190411567688, -0.36969441175460815, -0.619766116142273, -0.6644694805145264, -0.42371413111686707, -0.27208447456359863, 
0.33211249113082886, 0.5504392981529236, 0.42872074246406555, 0.14908292889595032, 0.06290557980537415, 0.4356202185153961, -0.9380003213882446, 
-0.5640904903411865, -0.43835705518722534, -0.2963303327560425, -0.6844013929367065, 1.2539582252502441, 0.29369401931762695, -0.24000486731529236, 
0.03369823098182678, 0.32941746711730957, 0.41928791999816895, 0.23226195573806763, 0.4929239749908447, 0.6340211033821106, 0.5163874626159668, 
0.24317112565040588, 0.3874879479408264, 0.08863024413585663, -0.06592705845832825, -0.1438649594783783, -0.17511005699634552, -0.2948109209537506, 
-0.5157232880592346, -0.26269906759262085, -0.5087795853614807, 0.4603177309036255, 0.5145549774169922, 0.5262306928634644, 0.3431195914745331, 
0.09401595592498779, 0.08692696690559387, -0.3315941095352173, 0.2133771777153015, 0.4907079041004181, -0.3789699077606201, 0.010215818881988525, 
0.28209662437438965, 0.48864829540252686, -0.0008440017700195312, 0.41696691513061523, -0.05437752604484558, 0.641156792640686, 0.6769856214523315, 
0.5087490081787109, 0.4820576012134552, 0.4931422770023346, 0.27710676193237305, 0.30812618136405945, 0.12793971598148346, -0.2896321415901184, 
-0.46415799856185913, -0.4729630947113037, -0.5697029232978821, -0.7599982619285583, -0.664490282535553, -0.3649807572364807, 0.42341935634613037, 
0.5803998112678528, 0.11719924211502075, -0.02287614345550537, -0.06361851096153259, -0.564388632774353, -0.8352264761924744, -0.4482382535934448, 
-0.3215646743774414, -0.694664716720581, 0.6320181488990784, -0.15473920106887817, 0.6154837012290955, -0.06514240801334381, 0.10521744191646576, 
0.8972072601318359, 0.5852795839309692, 0.6608961224555969, 0.7641746997833252, 0.3486329913139343, 0.4511490762233734, 0.26128825545310974, 
0.3502678871154785, -0.2082812786102295, -0.1222166046500206, -0.11168340593576431, -0.41906067728996277, -0.5453267097473145, -0.6769431829452515, 
-0.5414307117462158, -0.23184385895729065, 0.232771635055542, 0.33937785029411316, 0.08009994029998779, -0.17451372742652893, -0.3424633741378784, 
0.011824965476989746, -0.502790093421936, -0.02799627184867859, 0.058319926261901855, 0.0809941291809082, 0.3840509355068207, 0.24017447233200073, 
-0.2250194251537323, 0.3288203775882721, 0.45721256732940674, 0.6339693069458008, 0.6647412776947021, 0.8541284203529358, 0.6965271830558777, 
0.5229437947273254, 0.5953810214996338, 0.38295525312423706, 0.4131231904029846, 0.04843306541442871, 0.12413719296455383, -0.10551106929779053, 
-0.2648638188838959, -0.35230663418769836, -0.5155748128890991, -0.26642757654190063, -0.199601411819458, 0.13942275941371918, 0.3029107451438904, 
0.141373410820961, -0.029031753540039062, -0.47324338555336, -0.4918230175971985, -0.2798618972301483, 0.51016765832901, -0.14520326256752014, 
-0.06269940733909607, 0.11627605557441711, 0.6744713187217712, 0.5881237387657166, -0.08076253533363342, 0.22905348241329193, 0.8644673824310303, 
0.4944833219051361, 0.38286057114601135, 0.5759601593017578, 0.6399649977684021, 0.44112342596054077, 0.35789820551872253, 0.27541428804397583, 
0.06934033334255219, 0.08682206273078918, -0.21339476108551025, -0.11146329343318939, -0.4490480124950409, -0.4264216125011444, -0.5924261808395386, 
0.017674684524536133, -0.16103293001651764, 0.021468698978424072, -0.16677361726760864, -0.5855225324630737, -0.8346221446990967, -0.369625061750412, 
-0.5175255537033081, -0.4739042818546295, -0.1338241696357727, 0.34224069118499756, 0.9381572008132935, 0.7795367240905762, 0.40881556272506714, 
0.06293877214193344, 0.3560149073600769, 0.7997251749038696, 0.756625771522522, 0.8066242933273315, 0.9258406162261963, 0.8982268571853638, 
0.7432652711868286, 0.6255051493644714, 0.5870211124420166, 0.4913385510444641, 0.2439357340335846, 0.26849353313446045, -0.05952554941177368, 
-0.1582244634628296, -0.19364312291145325, -0.11018668860197067, -0.08416202664375305, -0.037573814392089844, 0.012719988822937012, -0.12600401043891907, 
-0.24415895342826843, -0.47662970423698425, -0.004451394081115723, -0.6059786677360535, -0.2779780328273773, -0.4821559488773346, 0.18643957376480103, 
0.22592557966709137, 0.6388715505599976, 0.6582120656967163, 0.7231199741363525, 0.25920408964157104, 0.8010532855987549, 1.1674799919128418, 
0.8991279602050781, 0.9539293050765991, 0.6509031057357788, 0.566643476486206, 0.6035677194595337, 0.6276862025260925, 0.37384241819381714, 
0.34915637969970703, 0.08564986288547516, -0.008889168500900269, -0.21103279292583466, -0.36524301767349243, -0.4430832266807556, -0.013206809759140015, 
-0.13348321616649628, 0.003951013088226318, -0.12479637563228607, -0.34761571884155273, -0.363192081451416, -0.15666678547859192, -0.4989217519760132, 
0.03480583429336548, -0.09806841611862183, -0.026115119457244873, 0.45826491713523865, 0.23162303864955902, 0.5337125658988953, 0.4606916010379791, 
-0.3627837896347046, 0.8413388729095459, 1.4150103330612183, 0.5352113246917725, 0.8214062452316284, 0.6873520612716675, 0.960737407207489, 
0.8799585700035095, 0.6106536388397217, 0.34770092368125916, 0.19195660948753357, 0.02651791274547577, -0.02911543846130371, -0.10913850367069244, 
-0.2610488533973694, -0.2357751429080963, 0.06927365064620972, -0.11753073334693909, -0.046043992042541504, -0.13206887245178223, -0.4898083508014679, 
-0.6703025102615356, -0.45358726382255554, -0.48783254623413086, -0.2466372549533844, -0.3787771165370941, -0.08563631772994995, -0.10526770353317261, 
0.6437904834747314, 0.1829051822423935, 0.9810954332351685, 0.43172943592071533, 0.5521186590194702, 0.7544986009597778, 0.9120267629623413, 
0.4908381402492523, 0.7547426223754883, 0.6122976541519165, 0.8204438090324402, 0.7343294620513916, 0.4865380525588989, 0.24431352317333221, 
0.4037327468395233, 0.23487338423728943, -0.30998897552490234, -0.34531086683273315, -0.22627907991409302, 0.042041778564453125, -0.200973778963089, 
-0.037177085876464844, -0.15751200914382935, -0.45181646943092346, -0.7630302906036377, -0.3896985948085785, -0.1844923496246338, -0.6433886289596558, 
-0.29150861501693726, 0.02556362748146057, 0.06641837954521179, -0.14479738473892212, -0.29684627056121826, 0.5992820858955383, 0.0563080757856369, 
1.088963270187378, 0.8871071338653564, 0.7827184200286865, 0.7817974090576172, 0.8512930870056152, 0.48686090111732483, 0.8588783740997314, 
0.616034746170044, 0.6458199620246887, 0.37688371539115906, 0.45146119594573975, 0.300531268119812, -0.04436086118221283, -0.26483315229415894, 
-0.4361273944377899, 0.1974153071641922, -0.3387540578842163, -0.24693384766578674, -0.34821248054504395, -0.5520480871200562, -0.6002852916717529, 
-0.44093677401542664, -0.6031407117843628, -0.2437835931777954, -0.6091013550758362, 0.16829271614551544, -0.732353925704956, 0.30190062522888184, 
0.7044988870620728, 0.25197702646255493, 1.1452842950820923, 0.7090021967887878, 0.7408528327941895, 1.1218994855880737, 0.9716936945915222, 
1.0879218578338623, 0.7869194149971008, 0.8341752290725708, 0.5876129269599915, 0.603110671043396, 0.4634630084037781, 0.3489483594894409, 
0.2602485120296478, 0.15988749265670776, 0.03091678023338318, -0.3278489112854004, 0.231727734208107, -0.39155417680740356, -0.30037984251976013, 
-0.5150312185287476, -0.6243999004364014, -0.9834585189819336, -0.7408962249755859, -0.30478206276893616, -0.5037158131599426, -0.4910486042499542, 
-0.13297820091247559, 0.22476448118686676, -0.10916315019130707, -0.02287997305393219, 0.3000338077545166, 0.18897870182991028, 0.6204794049263, 
0.19585490226745605, 0.9061954617500305, 0.8435139060020447, 0.7824933528900146, 0.8681514859199524, 1.1133275032043457, 1.024693489074707, 
0.6911485195159912, 0.6035398840904236, 0.5974067449569702, 0.38955220580101013, 0.3205762505531311, 0.2723197340965271, -0.1916532963514328, 
0.37049946188926697, -0.7682106494903564, -0.5022387504577637, -0.6430085897445679, -0.6924790143966675, -0.8857660293579102, -0.5986762642860413, 
-0.6647482514381409, -0.9109019041061401, -1.0016716718673706, -0.24607591331005096, -0.18344278633594513, 0.8569947481155396, 0.06262275576591492, 
0.3406148850917816, 0.8514940738677979, 0.8834658265113831, 0.9096246361732483, 1.1638742685317993, 1.1604585647583008, 1.246330976486206, 
1.1334879398345947, 1.1169586181640625, 1.2083197832107544, 1.0030895471572876, 0.877756655216217, 0.6787504553794861, 0.6931355595588684, 
0.35251927375793457, 0.15205076336860657, 0.3566999137401581};

#endif

#endif
