// Numpy array shape [64]
// Min -0.33831587
// Max 0.49295157
// Number of zeros 0

#ifndef TRANSFORMERS_0_LINEAR_0_BIAS_H_
#define TRANSFORMERS_0_LINEAR_0_BIAS_H_

#ifndef __SYNTHESIS__
model_default_t transformers_0_linear_0_bias[64];
#else
model_default_t transformers_0_linear_0_bias[64] = {-0.5579215288162231, -0.4068041443824768, 0.45632266998291016, -0.46466559171676636, 0.7780531644821167, 0.6277633309364319, 
0.23705044388771057, -0.3700141906738281, 0.27585509419441223, 0.5093305110931396, -0.530515730381012, -0.5585016012191772, 0.16807439923286438, 
0.33822521567344666, 0.47380176186561584, -0.5249491930007935, -0.5027250647544861, 0.41296252608299255, 0.14462250471115112, 0.4012316167354584, 
0.5867246389389038, -0.5976547598838806, -0.6300207376480103, -0.5264968276023865, 0.24598276615142822, -0.5419260263442993, -0.6066415309906006, 
-0.5135892629623413, 0.45120885968208313, -0.4976530969142914, -0.4966095983982086, 1.7507635354995728, -0.6100041270256042, -0.5558943748474121, 
0.4599512815475464, 0.334449827671051, -0.4939230680465698, -0.3150126039981842, 0.39647841453552246, -0.5341246128082275, -0.5556240081787109, 
0.5268837213516235, -0.6647918820381165, 0.4699382185935974, 0.06028246134519577, 0.41959136724472046, 0.3817565441131592, 0.2939385771751404, 
-0.5620556473731995, 0.37297600507736206, -0.5112819075584412, 0.2036462128162384, -0.6618722677230835, 0.37259358167648315, 1.177016258239746, 
0.4862948954105377, 0.45351743698120117, -0.6098606586456299, 0.39690256118774414, -0.44070255756378174, -0.4751571714878082, -0.47033965587615967, 
-0.5003394484519958, 0.2779151201248169};

#endif

#endif
