0.22659459710121155, -0.11920174956321716, 0.490327388048172, 0.05644186586141586, 2.6221415996551514, 1.6259264945983887, -0.001323780743405223, 4.300722599029541, 0.0062841251492500305, 0.050241291522979736, 0.05335789918899536, 0.09249036759138107, -0.030887052416801453, 2.927170515060425, 0.001304894220083952, -0.5298960208892822, -0.039249494671821594, 0.08171743154525757, -0.0036247489042580128, -0.900713324546814, 0.8209092617034912, -0.003957381471991539, 0.011319682002067566, -0.053398966789245605, -0.006176665425300598, -0.03478388488292694, -0.06629678606987, 0.11323866993188858, -0.01827014982700348, -0.022323831915855408, -0.23309326171875, 0.0780937671661377, -0.2243763506412506, -0.5061479806900024, 0.020076632499694824, 0.15721775591373444, -1.0241456031799316, -0.8208165764808655, -0.6255863904953003, -0.29191774129867554, 0.07331083714962006, 0.08799061179161072, 0.015677616000175476, -0.009062007069587708, 0.006365774665027857, -0.0019144825637340546, 0.06678013503551483, 0.07805192470550537, -5.128444194793701, 0.12308809161186218, -0.2158278077840805, 0.4152159094810486, 0.45754456520080566, -0.0024448037147521973, -5.44213342666626, -0.006429178174585104, 0.008709922432899475, 0.01160825788974762, 0.030156828463077545, -0.04158754646778107, 0.004992011934518814, -0.05787062644958496, -0.006496608257293701, 0.013958603143692017