// Numpy array shape [64]
// Min -0.1321077
// Max 0.12556669
// Number of zeros 0

#ifndef TRANSFORMERS_0_SELF_ATTENTION_OUT_BIAS_H_
#define TRANSFORMERS_0_SELF_ATTENTION_OUT_BIAS_H_

#ifndef __SYNTHESIS__
model_default_t transformers_0_self_attention_out_bias[64];
#else
model_default_t transformers_0_self_attention_out_bias[64] = {-0.0011739464243873954, -0.1204029843211174, -0.05366644263267517, -0.02934081479907036, 0.054398272186517715, 0.012845367193222046, 
0.00014625134645029902, -0.05119504779577255, -0.02799115888774395, -0.10531424731016159, 0.11708403378725052, 0.1215260848402977, -0.03415416553616524, 
0.0830194279551506, -0.021615341305732727, 0.08058562874794006, -0.04884331300854683, -0.053279705345630646, 0.09415829926729202, 0.10437458008527756, 
0.09307219088077545, 0.08852654695510864, 0.046806491911411285, -0.03818897157907486, -0.06448477506637573, -0.11069344729185104, -0.1321077048778534, 
-0.0742870643734932, -0.08566900342702866, 0.08795014023780823, -0.046772222965955734, 0.057407643646001816, 0.09453612565994263, 0.08263077586889267, 
-0.012595881707966328, 0.07645200937986374, 0.02926071733236313, -0.01386972889304161, -0.10750865936279297, 0.016361119225621223, -0.07140902429819107, 
-0.09375610202550888, 0.08102231472730637, -0.028091266751289368, 0.10966718196868896, -0.07368625700473785, 0.12314747273921967, -0.05944978818297386, 
0.023509731516242027, 0.12556669116020203, 0.019681375473737717, 0.024072224274277687, 0.04093330353498459, 0.0930415689945221, -0.12019249051809311, 
-0.07817555963993073, 0.1029546931385994, -0.08270759880542755, 0.10637646168470383, 0.035398561507463455, -0.06407158821821213, -0.09362159669399261, 
0.023297414183616638, 0.035620007663965225};

#endif

#endif
