// Numpy array shape [64]
// Min -0.510013
// Max 0.48138285
// Number of zeros 0

#ifndef TRANSFORMERS_0_SELF_ATTENTION_NORM_BIAS_H_
#define TRANSFORMERS_0_SELF_ATTENTION_NORM_BIAS_H_

#ifndef __SYNTHESIS__
SA_norm_bias_t transformers_0_self_attention_norm_bias[64];
#else
SA_norm_bias_t transformers_0_self_attention_norm_bias[64] = {-0.0925777405500412, 0.16921466588974, -0.22312702238559723, -0.08095185458660126, 0.6429952383041382, -1.0684939622879028, 
-0.08373017609119415, -0.6359332203865051, -0.11227680742740631, 0.2502863109111786, -0.05138269066810608, 0.06241680681705475, 0.007890542037785053, 
0.10783541202545166, -0.017821863293647766, 0.050919145345687866, -0.5515795946121216, -0.002581357955932617, 0.0010562613606452942, 0.013569548726081848, 
-0.03563840687274933, -0.025707751512527466, 0.036348432302474976, 0.03832384943962097, 0.002951624570414424, -0.08604337275028229, -0.002269566059112549, 
0.19745676219463348, -0.3004611134529114, -0.04715976119041443, -0.08863461762666702, -0.26764217019081116, -0.4419105648994446, -0.0018227682448923588, 
-0.13561630249023438, -0.021990612149238586, -0.17595124244689941, -0.2594129741191864, 0.2132212072610855, -0.179494708776474, -0.1049797385931015, 
-0.03031221032142639, -0.4900825321674347, 0.19416791200637817, 0.2035234272480011, -0.00542813865467906, 0.35454684495925903, -0.0023477952927351, 
-0.5498088598251343, 0.069369375705719, -0.004401469137519598, -0.005800008773803711, 0.1664150059223175, 0.0005425889976322651, 0.16673794388771057, 
0.21075934171676636, -0.10893630981445312, -0.45983707904815674, -0.0007592588663101196, -0.14635232090950012, 0.11160421371459961, -0.1329188346862793, 
0.10325294733047485, -0.042229145765304565};

#endif

#endif
