0.15424707531929016, -0.35874882340431213, -0.06655774265527725, 0.1422424018383026, -0.6002321243286133, 0.2707248628139496, 0.052114106714725494, 0.08821402490139008, -0.20065933465957642, -0.07423105090856552, 0.05507070943713188, 0.2387274205684662, 0.08406935632228851, 0.11556269973516464, -0.14957310259342194, 0.2904715836048126, -0.02490491420030594, 0.009021981619298458, 0.23366548120975494, -0.1754581779241562, -0.06198543310165405, 0.39263173937797546, 0.22360898554325104, -0.26058679819107056, 0.0711057260632515, 0.13640518486499786, -0.17232799530029297, -0.3342311680316925, 0.37224265933036804, -0.10342448949813843, 0.3200051188468933, -0.3449423313140869, -0.05183090642094612, 0.051358912140131, 0.0646667554974556, 0.13384272158145905, -0.11276070028543472, -0.13549330830574036, -0.3226102292537689, -0.19070309400558472, -0.26699671149253845, 0.07521065324544907, -0.4565441608428955, 0.2599855661392212, 0.21821492910385132, -0.0856122300028801, 0.05442795529961586, -0.2202695608139038, -0.6267040967941284, 0.49267715215682983, -0.34382912516593933, -0.0008844080730341375, 0.38610321283340454, -0.134740948677063, 0.18922457098960876, -0.01185374055057764, -0.007679855450987816, -0.21309207379817963, -0.1154395118355751, 0.17219538986682892, 0.07369875907897949, -0.08308466523885727, -0.2016192227602005, 0.16584785282611847, -0.08349315077066422, -0.06989488005638123, -0.14606893062591553, 0.16710087656974792, 0.0230003260076046, 0.03504585847258568, -0.09907025098800659, 0.054834771901369095, -0.18596765398979187, -0.15151774883270264, 0.23910768330097198, 0.4618290364742279, -0.26988139748573303, -0.130405455827713, -0.2530726492404938, 0.3299296498298645, 0.05105745419859886, -0.2048230767250061, 0.10226896405220032, -0.1776215136051178, 0.19842272996902466, 0.2374497801065445, 0.2581380009651184, -0.04731668159365654, -0.17941318452358246, -0.13077251613140106, 0.35825544595718384, 0.12248753756284714, 0.26815664768218994, -0.2684725522994995, 0.47880008816719055, 0.2660323679447174, 0.46890687942504883, -0.3436761498451233, 0.08164554089307785, 0.01335268933326006, -0.31668251752853394, 0.3424080014228821, -0.1292923241853714, 0.014900226145982742, -0.25464192032814026, 0.20281028747558594, -0.12615039944648743, 0.11148849129676819, 0.21356873214244843, -0.15545915067195892, 0.0098134009167552, 0.14448171854019165, -0.03570181876420975, -0.17325672507286072, 0.13364800810813904, 0.022408034652471542, -0.37309232354164124, 0.2003946304321289, 0.3526112139225006, -0.1169913038611412, -0.21983161568641663, -0.07164172828197479, -0.019621673971414566, -0.09332495182752609, 0.2780666947364807, 0.04008636623620987, 0.24167275428771973, -0.3423687219619751, -0.08372960984706879, -0.04625318571925163, -0.09003400802612305, 0.10861774533987045, 0.09358295053243637, 0.08934968709945679, 0.2277607023715973, -0.24981164932250977, 0.10725495219230652, 0.22303523123264313, -0.3995315134525299, 0.17308644950389862, -0.6380468010902405, -0.10501164942979813, -0.19440360367298126, -0.2415837198495865, 0.18405063450336456, -0.3420007526874542, -0.04989992827177048, -0.10999923944473267, -0.5700528621673584, 0.20161885023117065, 0.15244153141975403, -0.28207212686538696, -0.062028538435697556, 0.22846034169197083, -0.19140625, 0.023377880454063416, -0.04146812856197357, -0.14881698787212372, -0.13102637231349945, -0.03563276305794716, -0.39937257766723633, 0.3535356819629669, 0.46285367012023926, 0.1492747813463211, -0.030912114307284355, 0.14632432162761688, -0.11097583919763565, 0.1281995177268982, 0.15734826028347015, -0.15546859800815582, 0.09031647443771362, -0.10068684071302414, 0.13174085319042206, 0.025342023000121117, 0.40216657519340515, -0.0666244700551033, -0.040683794766664505, 0.08124198019504547, 0.015027130022644997, 0.20288856327533722, -0.19493569433689117, 0.20964793860912323, -0.02338283881545067, 0.43867015838623047, -0.04195469245314598, 0.26729458570480347, -0.23455055058002472, 0.12411177158355713, -0.16654671728610992, -0.06731043756008148, 0.24383296072483063, -0.13761474192142487, 0.6305682063102722, -0.18812355399131775, -0.06521114706993103, -0.1199183538556099, -0.2077922374010086, 0.4795325994491577, 0.03177989646792412, -0.22702191770076752, 0.08687308430671692, 0.030363718047738075, -0.22682969272136688, -0.04612650349736214, 0.25263458490371704, -0.23549440503120422, -0.19638310372829437, 0.0785985067486763, -0.10981476306915283, -0.006857086438685656, -0.046334948390722275, -0.3239069879055023, -0.35219061374664307, 0.24246758222579956, 0.07444500178098679, 0.13910381495952606, -0.2384592443704605, -0.16934393346309662, 0.21186700463294983, -0.3638063669204712, 0.18156224489212036, 0.2740597128868103, 0.3854581415653229, -0.03582239896059036, -0.08183903247117996, 0.05251835286617279, 0.2785184681415558, 0.24066267907619476, -0.4346565008163452, 0.006013255566358566, -0.40459078550338745, 0.36338940262794495, 0.3821754455566406, -0.12936575710773468, 0.024612868204712868, -0.31369340419769287, 0.10773444175720215, -0.273732990026474, -0.15716828405857086, -0.16719430685043335, 0.2539800703525543, -0.22209611535072327, 0.015223907306790352, -0.2511410713195801, -0.2025173008441925, 0.41142383217811584, 0.26003414392471313, -0.0216919407248497, -0.21470971405506134, 0.05632543936371803, -0.42012396454811096, 0.2539428472518921, 0.1369614154100418, -0.15083874762058258, -0.25164926052093506, 0.10752169042825699, 0.012977391481399536, -0.1729482263326645, 0.03754270821809769, -0.31540513038635254, -0.6589047312736511, -0.22780995070934296, 0.2970031201839447, -0.34397414326667786, -0.10539171099662781, -0.10590977221727371, -0.23682773113250732, -0.07203546166419983, 0.351951539516449, -0.13223156332969666, -0.018182236701250076, -0.2425938844680786, -0.18351605534553528, 0.010339317843317986, -0.15113814175128937, 0.007336069364100695, -0.03087252750992775, 0.11064667254686356, 0.21133941411972046, -0.35480690002441406, 0.1076052337884903, 0.3162670433521271, 0.3893560767173767, -0.08654522150754929, -0.2168649286031723, 0.06346452236175537, -0.18188287317752838, 0.3756101131439209, -0.5606977939605713, 0.455789715051651, -0.031514089554548264, 0.21035334467887878, 0.29708051681518555, -0.2083473801612854, -0.012981069274246693, 0.13990561664104462, 0.2671026289463043, 0.06900642067193985, -0.07301583886146545, -0.16295161843299866, -0.052291788160800934, -0.24272310733795166, -0.007331052795052528, -0.03671114519238472, -0.06284122914075851, 0.02481735311448574, 0.21966372430324554, 0.2957991659641266, 0.21016362309455872, -0.041943974792957306, -0.24241836369037628, -0.1993066668510437, 0.1230655089020729, 0.24860797822475433, 0.0872408002614975, 0.35710278153419495, -0.2714051902294159, 0.11985506117343903, -0.13870616257190704, -0.019943907856941223, 0.11747953295707703, -0.2973354458808899, 0.19403381645679474, -0.4703463912010193, 0.32612112164497375, 0.07686654478311539, 0.1164730042219162, -0.2268027514219284, -0.2505074441432953, 0.015229002572596073, 0.18287372589111328, -0.1665349155664444, -0.2654600441455841, -0.0002581710577942431, 0.3985586166381836, 0.19938036799430847, 0.5755268335342407, -0.1470494568347931, 0.2713080644607544, -0.017419300973415375, -0.3336012065410614, 0.24175652861595154, -0.08497153967618942, -0.1744028627872467, 0.12474603950977325, -0.03912311792373657, 0.32765477895736694, -0.2790573537349701, -0.3001765310764313, 0.09239131957292557, -0.09157581627368927, -0.28753331303596497, 0.19490458071231842, 0.1397566944360733, 0.09686211496591568, -0.08298054337501526, -0.05324184149503708, 0.056973569095134735, 0.07310392707586288, -0.11270085722208023, -0.2015254646539688, 0.1627325713634491, -0.1665770262479782, -0.46606045961380005, 0.1800151765346527, 0.06505440175533295, 0.29620954394340515, -0.17743022739887238, -0.17977625131607056, 0.43059512972831726, 0.13275405764579773, 0.5132468938827515, -0.6718395948410034, 0.26891839504241943, -0.4342462718486786, 0.12970153987407684, -0.13404668867588043, 0.04099057987332344, -0.10947506874799728, -0.0725926011800766, 0.21606743335723877, 0.5512241125106812, -0.2378315031528473, -0.06045866012573242, 0.5007845759391785, -0.11254908889532089, 0.14499510824680328, 0.10661447793245316, -0.29684019088745117, 0.06143650785088539, 0.2589479684829712, 0.0363667756319046, -0.31105461716651917, 0.13877518475055695, -0.24848327040672302, 0.11980884522199631, 0.09136716276407242, 0.17501136660575867, 0.1769324094057083, 0.1860920637845993, -0.3765007257461548, -0.4252384305000305, 0.37509939074516296, 0.03229707106947899, -0.19794654846191406, 0.14420825242996216, -0.27166107296943665, -0.19995452463626862, 0.028406690806150436, 0.01661658100783825, -0.0886543020606041, -0.4527440369129181, 0.3546210527420044, 0.010025828145444393, -0.016539443284273148, -0.2712935507297516, 0.026704341173171997, 0.035416655242443085, 0.13945524394512177, 0.0806741714477539, -0.053236640989780426, -0.07410188764333725, -0.0866054892539978, -0.04944702237844467, -0.018337281420826912, 0.45507317781448364, 0.49834299087524414, 0.23435162007808685, -0.31930819153785706, -0.08929283171892166, 0.41759857535362244, 0.14519228041172028, -0.34278160333633423, 0.31002041697502136, -0.3641228973865509, 0.03209809958934784, 0.25039559602737427, -0.11473561078310013, -0.2536510229110718, 0.30984434485435486, 0.10429277271032333, 0.29421699047088623, -0.003213989082723856, 0.00015364015416707844, 0.08223126083612442, -0.037646785378456116, 0.061639368534088135, -0.0999351441860199, -0.1098351702094078, 0.0629216879606247, 0.10996279120445251, -0.34162771701812744, -0.2541678547859192, 0.25580060482025146, -0.058354225009679794, -0.16282494366168976, -0.009725979529321194, -0.09587561339139938, 0.20621804893016815, 0.15803039073944092, -0.09438049793243408, 0.1573685109615326, -0.15801703929901123, 0.23986734449863434, -0.17707185447216034, -0.16200819611549377, 0.14023002982139587, 0.20444327592849731, 0.1256219744682312, 0.022069176658988, -0.09583909809589386, -0.262921005487442, -0.19483952224254608, -0.00011916012590518221, 0.049654535949230194, -0.11346445977687836, -0.4521181583404541, 0.16812551021575928, -0.46980974078178406, -0.06511720269918442, 0.21103355288505554, -0.3049026429653168, 0.3692498803138733, -0.2137845903635025, -0.28988540172576904, 0.4076687693595886, -0.09821227192878723, 0.08910993486642838, -0.388103187084198, 0.33093538880348206, -0.39362621307373047, 0.35801368951797485, 0.2742062509059906, -0.5216045379638672, -0.16986972093582153, 0.0709863007068634, 0.13720351457595825, -0.31718987226486206, 0.0684274286031723, -0.06024801358580589, -0.3540923297405243, -0.21509866416454315, -0.06579962372779846, -0.045861419290304184, 0.046605661511421204, 0.03221731632947922, -0.2479032576084137, -0.06220400705933571, 0.16243603825569153, -0.11953660100698471, 0.3081742823123932, -0.4229238033294678, 0.03926825150847435, -0.14807264506816864, -0.15432120859622955, -0.29799318313598633, -0.10022933781147003, -0.1287655532360077, -0.13744889199733734, -0.33453094959259033, -0.23311950266361237, 0.4990781545639038, 0.38464558124542236, -0.004545478615909815, -0.45122626423835754, 0.10863302648067474, 0.10592056065797806, 0.3699135184288025, 0.2707262933254242, -0.41341671347618103, 0.33944079279899597, -0.03472458943724632, -0.329170286655426, 0.450479120016098, -0.17734694480895996, -0.09440360218286514, -0.3239782750606537, 0.2923869490623474, 0.02455504797399044, 0.3166646659374237, 0.030914759263396263, -0.08596503734588623, -0.22259089350700378, 0.22529149055480957, -0.19720575213432312, -0.37268298864364624, 0.09615317732095718, -0.06970582157373428, 0.1898634284734726, -0.16084958612918854, -0.25247058272361755, 0.22523556649684906, -0.18971310555934906, -0.18680843710899353, 0.13743607699871063, -0.2358541488647461, 0.36325958371162415, 0.008054235950112343, -0.08537092804908752, -0.4095584750175476, 0.2807772159576416, -0.11805786192417145, -0.08062686771154404, -0.28052160143852234, 0.25106140971183777, -0.017626484856009483, 0.16087421774864197, -0.03069465234875679, -0.042788997292518616, -0.09736026078462601, 0.20390741527080536, -0.04383693262934685, -0.14993076026439667, -0.411063551902771, 0.18245133757591248, 0.20109230279922485, -0.27868494391441345, 0.2555476129055023, -0.23266540467739105, -0.09275718033313751, 0.5160185098648071, -0.34439563751220703, 0.0716991126537323, 0.22382640838623047, 0.6099897623062134, -0.6145203113555908, 0.4044295847415924, -0.2845403552055359, -0.6023923754692078, 0.5892627835273743, 0.23730210959911346, -0.6192508935928345, -0.355334609746933, 0.43075239658355713, -0.5665934085845947, -0.018018102273344994, 0.290097177028656, 0.04383090138435364, 0.015034143812954426, -0.08356261998414993, -0.1568174809217453, 0.20390723645687103, -0.1892828792333603, 0.007782177999615669, -0.381667822599411, 0.14881429076194763, -0.01915290579199791, 0.012097029015421867, 0.13716740906238556, 0.2889302968978882, 0.06822769343852997, 0.2959297001361847, -0.3286035656929016, -0.23482349514961243, -0.277590811252594, 0.1066891998052597, 0.35324734449386597, -0.1559598594903946, -0.3380909264087677, 0.0658445805311203, 0.10992684960365295, 0.20292750000953674, 0.2721858024597168, -0.14819857478141785, -0.338691383600235, 0.37573665380477905, -0.06675192713737488, 0.11290685087442398, 0.29362037777900696, -0.043286293745040894, -0.00509633170440793, 0.18104319274425507, 0.5343499183654785, -0.24581094086170197, 0.2530502676963806, -0.26877909898757935, -0.5746569037437439, 0.48079103231430054, 0.44684717059135437, -0.2087298482656479, 0.2389799803495407, 0.3841261565685272, -0.38379570841789246, -0.28860658407211304, 0.16793197393417358, -0.14861319959163666, 0.037259817123413086, 0.5588265061378479, -0.17019972205162048, 0.20184709131717682, 0.2001001089811325, 0.3583059310913086, -0.07585511356592178, 0.13143734633922577, -0.3832843005657196, 0.23827853798866272, -0.17254643142223358, 0.1437579095363617, 0.047486793249845505, 0.04526565223932266, -0.3217180371284485, -0.008878407068550587, -0.37401533126831055, 0.2983352243900299, 0.22815030813217163, -0.10785800218582153, 0.1161387711763382, 0.03812454268336296, 0.20185460150241852, 0.4345591068267822, -0.38914966583251953, 0.17448653280735016, -0.4894053041934967, 0.06950730085372925, -0.3775801658630371, -0.09009729325771332, 0.20512641966342926, -0.20081211626529694, 0.022799547761678696, -0.0850171372294426, -0.14729179441928864, 0.09385547041893005, 0.17264634370803833, 0.05387439206242561, -0.021555209532380104, 0.03427574038505554, 0.17588284611701965, 0.09506678581237793, -0.08815594017505646, 0.016704075038433075, -0.3082219064235687, 0.08451464772224426, -0.22798055410385132, 0.09362419694662094, 0.08479776978492737, -0.15624919533729553, 0.17307095229625702, -0.0646977573633194, 0.07864414155483246, 0.025137266144156456, -0.329540491104126, -0.022750666365027428, -0.4097755551338196, 0.29639002680778503, 0.21660956740379333, 0.03070632740855217, -0.1282116174697876, -0.24108828604221344, 0.06387895345687866, 0.0883578211069107, 0.06358788162469864, 0.103292316198349, 0.37450483441352844, 0.20066919922828674, -0.057349663227796555, 0.376042902469635, -0.09092316776514053, -0.16445180773735046, -0.16911344230175018, -0.24381636083126068, -0.49885228276252747, 0.3054254651069641, -0.126063734292984, 0.2990173399448395, 0.37049341201782227, 0.002438948256894946, -0.10388568043708801, -0.16563965380191803, -0.34345802664756775, 0.12727482616901398, 0.02103920839726925, 0.04344961792230606, 0.09540029615163803, -0.17299172282218933, -0.12376223504543304, -0.009683997370302677, -0.3551325500011444, 0.17218360304832458, 0.24624459445476532, 0.02517665922641754, -0.13382269442081451, -0.02824573963880539, -0.20872092247009277, -0.02272759936749935, -0.2319774031639099, 0.08026351034641266, -0.0897696390748024, 0.3052298426628113, -0.10742375999689102, -0.017860427498817444, -0.1763598471879959, 0.28163397312164307, 0.23223145306110382, -0.24102628231048584, 0.07867027819156647, -0.06471407413482666, 0.2093319147825241, 0.06793174892663956, 0.2730700969696045, -0.028501147404313087, 0.027471495792269707, 0.13059300184249878, -0.14043979346752167, 0.04288484528660774, 0.05708130821585655, 0.082125723361969, -0.09149397909641266, -0.1514735370874405