// Numpy array shape [64, 64]
// Min -0.85682875
// Max 0.9511487
// Number of zeros 0

#ifndef TRANSFORMERS_1_SELF_ATTENTION_OUT_WEIGHT_H_
#define TRANSFORMERS_1_SELF_ATTENTION_OUT_WEIGHT_H_

#ifndef __SYNTHESIS__
model_default_t transformers_1_self_attention_out_weight[4096];
#else
model_default_t transformers_1_self_attention_out_weight[4096] = {0.05406945198774338, 0.17324291169643402, -0.18859682977199554, 0.011880786158144474, 0.01658698543906212, 0.05612926930189133, 
0.12725980579853058, -0.011293488554656506, 0.000739838054869324, -0.08221282064914703, -0.1585632711648941, 0.023218048736453056, -0.029558569192886353, 
0.11557832360267639, -0.08311887830495834, -0.07913591712713242, -0.03557291254401207, 0.009665037505328655, 0.418857604265213, -0.0007850612746551633, 
-0.15576079487800598, 0.15573132038116455, -0.02260485850274563, -0.08493373543024063, 0.23552939295768738, 0.1629311740398407, 0.04310726374387741, 
-0.16869936883449554, -0.526266872882843, 0.1665123701095581, 0.1707967221736908, -0.03418422490358353, 0.25799646973609924, 0.09700702130794525, 
-0.008457680232822895, -0.00680428696796298, -0.1438467800617218, -0.05059968680143356, 0.028850136324763298, 0.011305359192192554, -0.03433961421251297, 
-0.015339738689363003, -0.08831082284450531, -0.09057528525590897, -0.03795824944972992, -0.2585330903530121, -0.021609410643577576, -0.21965640783309937, 
-0.1039009764790535, -0.14311116933822632, 0.2052384614944458, -0.026469318196177483, 0.08304599672555923, 0.14485101401805878, 0.0468299575150013, 
-0.05238179862499237, 0.1449563056230545, -0.19177639484405518, 0.007803311105817556, 0.02512642741203308, 0.07763949781656265, -0.3418610095977783, 
0.08854055404663086, -0.08528626710176468, -0.06551903486251831, 0.24488912522792816, -0.4380173981189728, 0.1807626187801361, 0.08436184376478195, 
0.1336721032857895, 0.10663722455501556, -0.0027707526460289955, -0.17508360743522644, -0.12283353507518768, -0.08474080264568329, -0.022609388455748558, 
-0.20935454964637756, 0.3539293110370636, -0.2829185128211975, 0.06359317898750305, 0.20484791696071625, 0.015339082106947899, 0.3126519024372101, 
0.10309864580631256, -0.24836012721061707, 0.4279845356941223, -0.011607828550040722, -0.09840606898069382, 0.3451472520828247, 0.37194836139678955, 
0.22519172728061676, -0.31292104721069336, -0.2462751716375351, 0.16176535189151764, 0.36108607053756714, 0.046957358717918396, 0.08569983392953873, 
-0.1531858891248703, 0.011428888887166977, 0.2283000499010086, -0.08056975156068802, 0.07305978983640671, 0.312863290309906, -0.054522499442100525, 
-0.27124208211898804, -0.19175274670124054, -0.12219798564910889, -0.20916014909744263, 0.1454436480998993, -0.20572826266288757, -0.03008725307881832, 
0.14836162328720093, -0.02713499590754509, -0.17040495574474335, 0.61104416847229, -0.27136456966400146, 0.12552064657211304, -0.0342399924993515, 
0.004071909002959728, 0.12006780505180359, 0.08232902735471725, -0.11695130169391632, -0.13051198422908783, -0.036280062049627304, 0.21860407292842865, 
-0.31745827198028564, 0.10246661305427551, -0.0006687738350592554, -0.07558729499578476, 0.2525497376918793, -0.13860884308815002, 0.1512776017189026, 
0.032768115401268005, 0.12750238180160522, 0.09282564371824265, 0.0762563943862915, -0.2133396863937378, -0.08573266118764877, -0.2529294192790985, 
0.10011328011751175, 0.06476981192827225, 0.05405515059828758, -0.2726810574531555, 0.14967003464698792, 0.00813093688338995, 0.0020063796546310186, 
-0.2706208825111389, 0.14214488863945007, -0.4606962502002716, 0.03516197204589844, 0.016198454424738884, -0.3053251802921295, 0.05995629355311394, 
0.15778900682926178, 0.03291111811995506, -0.06855105608701706, 0.35209912061691284, -0.0904344916343689, 0.12763269245624542, 0.05219573527574539, 
0.05074803903698921, -0.321073442697525, 0.024355243891477585, 0.2148086577653885, -0.07860099524259567, 0.03658154234290123, 0.42184925079345703, 
-0.11041100323200226, -0.34273502230644226, -0.20328423380851746, -0.0926845371723175, 0.1075700893998146, -0.09825874119997025, 0.02751309610903263, 
-0.09456653147935867, 0.10095345973968506, -0.18487435579299927, -0.1907603144645691, 0.2057102620601654, -0.32460257411003113, -0.07711541652679443, 
-0.13180279731750488, -0.15152640640735626, 0.038218192756175995, 0.19141001999378204, -0.20649981498718262, 0.09407087415456772, -0.07854752987623215, 
0.2857457995414734, -0.18425342440605164, -0.1096755787730217, -0.07703450322151184, 0.06361888349056244, -0.2055133581161499, 0.4634981155395508, 
0.02941504865884781, -0.10219626873731613, 0.11121531575918198, -0.4175134301185608, 0.000501402944792062, 0.05462472513318062, 0.13043755292892456, 
0.019142109900712967, 0.1325882226228714, -0.015682382509112358, -0.3009600341320038, 0.11748888343572617, -0.16043062508106232, -0.15642283856868744, 
-0.1380457729101181, -0.5994336009025574, -0.04081740230321884, 0.2050035297870636, -0.3517140746116638, 0.07706184685230255, -0.130843847990036, 
-0.510287344455719, -0.48926442861557007, 0.01843726634979248, 0.43191754817962646, 0.29901981353759766, -0.0638144314289093, -0.06893225014209747, 
-0.34170764684677124, -0.284536212682724, 0.0010430737165734172, -0.11639057844877243, -0.04408897086977959, 0.15237025916576385, 0.11288444697856903, 
-0.08028306066989899, 0.12689802050590515, 0.02266642637550831, 0.028599942103028297, -0.05245900899171829, 0.04865116626024246, -0.07777047157287598, 
0.17794877290725708, -0.1248299777507782, 0.25522831082344055, 0.14591579139232635, -0.039849746972322464, -0.26741620898246765, 0.23178502917289734, 
-0.05836692824959755, -0.04107555001974106, -0.004280253779143095, -0.03882367163896561, -0.09342502057552338, 0.17664991319179535, -0.0375891849398613, 
0.23685261607170105, -0.12308534234762192, 0.24323847889900208, -0.03800956532359123, 0.10995793342590332, 0.28115347027778625, -0.5230184197425842, 
0.4048197865486145, -0.1805126667022705, -0.018485218286514282, -0.1421063095331192, -0.36137688159942627, -0.00669212406501174, 0.16561535000801086, 
0.16057847440242767, 0.06829264014959335, 0.1289130449295044, 0.05081060901284218, -0.23431013524532318, 0.1597968339920044, 0.0051538171246647835, 
-0.21937015652656555, -0.041724640876054764, -0.08558493852615356, -0.2335987538099289, 0.49979254603385925, -0.3619896471500397, -0.018923040479421616, 
0.2407694011926651, -0.5264319777488708, -0.7278674840927124, -0.14709652960300446, 0.14071179926395416, 0.21019215881824493, -0.12216159701347351, 
-0.2180875837802887, -0.06092897430062294, -0.07303167134523392, 0.1545594036579132, -0.18000441789627075, -0.2715924084186554, 0.263840913772583, 
-0.008748307824134827, -0.31047219038009644, 0.057406235486269, 0.15578143298625946, -0.04408451169729233, 0.06480050832033157, -0.015087002888321877, 
0.12654732167720795, 0.07822917401790619, 0.19462954998016357, 0.19066394865512848, 0.21119581162929535, 0.0205373652279377, -0.6188262701034546, 
0.48127976059913635, -0.09518889337778091, -0.017978549003601074, 0.2562067210674286, -0.1732366681098938, -0.048826828598976135, 0.22447898983955383, 
0.013017509132623672, 0.14459893107414246, -0.1320648342370987, 0.30776211619377136, 0.018828993663191795, 0.09139995276927948, 0.13291685283184052, 
0.06461913883686066, 0.017991747707128525, 0.007985356263816357, -0.005270503461360931, -0.015783298760652542, 0.1282907873392105, 0.00029117544181644917, 
0.016661949455738068, 0.023929614573717117, 0.19825546443462372, 0.026631971821188927, 0.11548501998186111, -0.036459386348724365, -0.019894585013389587, 
-0.11385703831911087, -0.07104993611574173, 0.06930271536111832, 0.03078952245414257, -0.11301233619451523, 0.01096584927290678, 0.11615470796823502, 
0.07412084937095642, 0.04175363481044769, -0.04936160892248154, -0.14128558337688446, -0.047745347023010254, -0.1258697360754013, -0.07176867127418518, 
0.08350704610347748, 0.016980774700641632, -0.019329655915498734, -0.23499518632888794, -0.06734984368085861, 0.039852168411016464, -0.16642910242080688, 
0.008671458810567856, -0.0034697637893259525, 0.10500169545412064, 0.1278093159198761, -0.14277435839176178, -0.06496445089578629, 0.027043739333748817, 
0.03987596184015274, 0.011203332804143429, -0.13263095915317535, 0.10666782408952713, 0.05603865534067154, 0.020437221974134445, 0.007591478060930967, 
-0.09959326684474945, 0.03157125785946846, 0.2806699872016907, 0.026563065126538277, -0.008262641727924347, 0.03999001160264015, 0.1449292004108429, 
-0.047603804618120193, 0.10156421363353729, 0.03369069844484329, 0.0017023783875629306, 0.1942838728427887, -0.012257070280611515, 0.12830106914043427, 
-0.10778872668743134, 0.2946992814540863, -0.4909723997116089, 0.12809647619724274, 0.08647707849740982, -0.11881773173809052, 0.20352831482887268, 
0.001186847104690969, -0.031755026429891586, -0.09369641542434692, -0.07266493141651154, -0.035182759165763855, -0.09558507800102234, 0.3721882998943329, 
-0.02666396275162697, 0.0827583372592926, 0.15770220756530762, 0.09855733811855316, 0.5299618244171143, 0.08630667626857758, -0.07583215087652206, 
0.41761356592178345, -0.09393221884965897, -0.03784565255045891, 0.48934605717658997, 0.5327750444412231, 0.15862952172756195, -0.13471485674381256, 
-0.5641875863075256, 0.16415438055992126, 0.07104230672121048, 0.30341774225234985, 0.42926323413848877, 0.027533376589417458, 0.09504427015781403, 
-0.04304034635424614, -0.2976374626159668, -0.10640960931777954, -0.03070359118282795, 0.09321188926696777, -0.10043422877788544, 0.1232558935880661, 
0.1108417883515358, -0.018104834482073784, 0.20004387199878693, -0.2419784814119339, 0.14745710790157318, -0.14952680468559265, -0.2110096961259842, 
-0.10431337356567383, 0.39173609018325806, -0.39124011993408203, 0.08576998114585876, 0.14010407030582428, -0.017430005595088005, 0.15098874270915985, 
0.03200766444206238, -0.26621463894844055, -0.10378319025039673, -0.22314389050006866, 0.20945888757705688, -0.41056618094444275, 0.02841288410127163, 
-0.11225580424070358, -0.004000308457762003, -0.05004940554499626, -0.301669180393219, -0.07099270820617676, 0.08781120926141739, -0.14155490696430206, 
0.14344604313373566, 0.03987092152237892, 0.1089741438627243, 0.04242350906133652, 0.022644445300102234, -0.0884527936577797, 0.13809143006801605, 
0.19762645661830902, 0.005624134559184313, -0.02590961568057537, 0.1306578814983368, 0.13483938574790955, 0.4132367670536041, 0.08299136906862259, 
-0.019781315699219704, 0.051290836185216904, -0.009536498226225376, -0.0893373116850853, 0.5242903232574463, 0.27574995160102844, -0.11826199293136597, 
0.08843013644218445, -0.3668826222419739, -0.1092444360256195, -0.12084135413169861, 0.23873642086982727, 0.6341327428817749, -0.009017125703394413, 
0.10371538251638412, -0.2656393051147461, -0.2488645613193512, -0.19898392260074615, -0.09901989996433258, -0.018207337707281113, 0.05615381896495819, 
0.16446708142757416, 0.17167344689369202, -0.1696353703737259, 0.29615670442581177, 0.022072002291679382, 0.02613506279885769, -0.11978913098573685, 
-0.23233529925346375, 0.07783234864473343, 0.019222864881157875, -0.0974641665816307, 0.0117861432954669, 0.11403872817754745, -0.013830415904521942, 
-0.13047300279140472, 0.06246613338589668, -0.1465025246143341, 0.07502636313438416, -0.18805889785289764, -0.023053446784615517, -0.1157236099243164, 
0.08352763950824738, -0.09375206381082535, 0.03624802827835083, 0.03356552869081497, 0.005666713230311871, -0.015604336746037006, 0.012313676066696644, 
-0.007874873466789722, 0.29108110070228577, -0.016394339501857758, -0.031138760969042778, 0.030943168327212334, 0.19316557049751282, 0.06291444599628448, 
0.07413992285728455, -0.03567161783576012, 0.020889896899461746, 0.04139189422130585, -0.266693115234375, 0.07395630329847336, 0.02317889593541622, 
0.12746046483516693, -0.1300528645515442, -0.007856643758714199, 0.028117984533309937, -0.2420867383480072, -0.19050540030002594, 0.02995305135846138, 
-0.02831277996301651, -0.24033993482589722, -0.07152200490236282, 0.21969103813171387, 0.2841129004955292, -0.035340841859579086, -0.2390095740556717, 
-0.203862264752388, 0.055213674902915955, -0.08930256217718124, 0.019044315442442894, 0.004219255410134792, 0.09027185291051865, 0.07369447499513626, 
-0.22555892169475555, -0.03471407666802406, -0.09009508043527603, -0.02240510657429695, 0.04877270758152008, -0.17323485016822815, 0.08808644115924835, 
0.1720137596130371, 0.14733849465847015, 0.07739724963903427, -0.04271360859274864, 0.039012908935546875, -0.06327781826257706, 0.026555685326457024, 
-0.051268842071294785, 0.030204156413674355, 0.10211651772260666, -0.07764697074890137, 0.047466978430747986, 0.009959740564227104, 0.0027562857139855623, 
0.08463647216558456, 0.12673406302928925, 0.18279598653316498, 0.03130064159631729, -0.11351282149553299, -0.2511201500892639, 0.022999420762062073, 
-0.17131471633911133, -0.4418905973434448, 0.248106449842453, -0.1364915370941162, -0.06746701151132584, 0.10096731036901474, 0.2673744857311249, 
-0.27452775835990906, -0.003122217021882534, -0.14739802479743958, 0.11550291627645493, -0.12406007200479507, 0.09548721462488174, -0.0539054349064827, 
-0.0066108182072639465, -0.13840651512145996, 0.144379124045372, 0.004778335336595774, 0.1233697459101677, 0.4309658408164978, 0.2042509913444519, 
-0.1478627622127533, -0.1377233862876892, -0.42395642399787903, 0.25750622153282166, -0.035008687525987625, -0.11694065481424332, 0.1880616992712021, 
-0.23774577677249908, 0.33248913288116455, -0.09308692067861557, 0.12750369310379028, 0.45742136240005493, 0.010730687528848648, -0.34644845128059387, 
0.13485680520534515, 0.2098764330148697, 0.17563556134700775, 0.050540778785943985, -0.03434443846344948, 0.24369242787361145, 0.11340385675430298, 
0.21234022080898285, -0.16263321042060852, -0.06244891136884689, 0.27991941571235657, -0.30141860246658325, -0.23627017438411713, 0.01553727313876152, 
-0.03659767657518387, 0.5104777812957764, 0.17960117757320404, -0.4093140959739685, 0.022311540320515633, 0.07084143161773682, -0.22789904475212097, 
-0.1988239735364914, -0.044027142226696014, -0.2743394672870636, 0.03426565229892731, 0.04535597190260887, -0.18740391731262207, 0.30809876322746277, 
0.04988950863480568, -0.13766518235206604, -0.04148194566369057, -0.1788492500782013, -0.02167402394115925, 0.049534257501363754, 0.21153956651687622, 
0.2605843245983124, 0.039315976202487946, -0.02036590687930584, -0.09970424324274063, -0.034767765551805496, -0.14787733554840088, -0.05967433378100395, 
-0.09293794631958008, -0.5280352830886841, -0.2206118106842041, 0.1849503368139267, -0.1317485123872757, 0.1228402853012085, -0.01744849979877472, 
-0.18343371152877808, -0.4424787759780884, 0.14568544924259186, -0.07481282204389572, 0.24113665521144867, -0.12078629434108734, -0.03758721053600311, 
-0.11088096350431442, -0.4039270281791687, 0.0919778048992157, -0.055220238864421844, 0.14273832738399506, 0.1878587007522583, 0.10699796676635742, 
0.06660686433315277, 0.1298556625843048, -0.009796984493732452, -0.07343538105487823, -0.03957924246788025, 0.15754084289073944, -0.06784455478191376, 
-0.11864147335290909, -0.0593726746737957, 0.15435552597045898, 0.12398231029510498, 0.052484799176454544, -0.11547183990478516, 0.12026892602443695, 
-0.036489568650722504, -0.08833419531583786, 0.13570696115493774, 0.14944207668304443, -0.09599281847476959, 0.195490300655365, 0.008842895738780499, 
0.18399515748023987, -0.03528202697634697, 0.2537732422351837, -0.020601371303200722, 0.013280651532113552, 0.14566075801849365, 0.10628484189510345, 
-0.12357979267835617, -0.07940870523452759, 0.16480670869350433, -0.2431236058473587, 0.021644659340381622, 0.018932905048131943, 0.16171854734420776, 
0.081210196018219, 0.10074146836996078, 0.1010376363992691, 0.12301130592823029, -0.1796816885471344, 0.18111242353916168, -0.19455483555793762, 
-0.12164782732725143, -0.035559676587581635, 0.08824974298477173, 0.10576822608709335, 0.090433768928051, -0.06950972229242325, -0.24073728919029236, 
-0.14128856360912323, 0.2231212854385376, 0.050128690898418427, -0.078184112906456, -0.1355300098657608, -0.19591407477855682, 0.13179337978363037, 
-0.06818944215774536, 0.270364910364151, 0.4055691063404083, 0.2261420041322708, 0.0670228973031044, -0.19507941603660583, 0.08219074457883835, 
-0.4690753221511841, -0.12094937264919281, -0.07977911084890366, -0.013396821916103363, -0.03902582451701164, -0.08044806122779846, 0.12128967046737671, 
0.25888562202453613, -0.06879960745573044, 0.0706181526184082, -0.3470174968242645, -0.011936510913074017, 0.1280684769153595, -0.1509818583726883, 
0.04618728160858154, -0.09641549736261368, 0.07403059303760529, 0.3701181709766388, -0.10652909427881241, 0.023172006011009216, 0.05702019855380058, 
0.007251832168549299, 0.11887871474027634, -0.07540719956159592, 0.15120738744735718, 0.026254279538989067, 0.1478603035211563, -0.02548971213400364, 
0.20818132162094116, -0.4649289548397064, -0.09903249144554138, 0.023308074101805687, -0.0966712236404419, 0.20607011020183563, -0.03206048533320427, 
-0.16310672461986542, -0.1340646594762802, 0.04990792274475098, -0.005106438882648945, 0.0016673896461725235, 0.13114933669567108, 0.047362931072711945, 
-0.027121249586343765, 0.09983254224061966, -0.11043401062488556, 0.13147075474262238, 0.016715293750166893, -0.2728425860404968, 0.09015670418739319, 
-0.017849765717983246, 0.29207196831703186, 0.36651352047920227, 0.39664319157600403, 0.015652546659111977, -0.44340580701828003, -0.24099597334861755, 
0.17025414109230042, 0.13638703525066376, 0.125268816947937, 0.2790261507034302, 0.19676423072814941, 0.05670743063092232, 0.02951694279909134, 
0.12094936519861221, -0.05475685000419617, -0.1887727528810501, -0.05018150061368942, -0.024318305775523186, -0.005799613427370787, 0.1895616054534912, 
0.05890628695487976, 0.22287020087242126, -0.13637815415859222, 0.04913175851106644, -0.3265913128852844, -0.05945243313908577, -0.0617060549557209, 
0.09273545444011688, -0.24496011435985565, 0.040792327374219894, -0.004143684171140194, 0.20358744263648987, 0.03047207184135914, 0.13008791208267212, 
-0.012455028481781483, 0.044842932373285294, -0.1928553730249405, 0.14300374686717987, -0.30062413215637207, -0.13638389110565186, -0.021919868886470795, 
0.23223869502544403, -0.42516201734542847, 0.9511486887931824, -0.17126984894275665, 0.07321477681398392, -0.1328614056110382, -0.26124024391174316, 
0.04410698637366295, 0.11665783077478409, 0.0671810507774353, -0.005380464252084494, 0.015959737822413445, 0.1139456108212471, -0.19407981634140015, 
0.20395587384700775, -0.09648973494768143, -0.21659035980701447, 0.06099141016602516, -0.14150385558605194, -0.1329636424779892, 0.5854713916778564, 
-0.2713284194469452, -0.2115502655506134, -0.4508548676967621, -0.3585309386253357, -0.595089316368103, -0.09146635979413986, 0.5177647471427917, 
0.13436903059482574, -0.16405761241912842, -0.18625037372112274, -0.049674659967422485, 0.23398952186107635, -0.2549850344657898, 0.20797136425971985, 
-0.2573179006576538, -0.27635839581489563, -0.11377892643213272, -0.06833425909280777, -0.046587102115154266, 0.023716352880001068, 0.11545395106077194, 
-0.14490960538387299, 0.04107392579317093, -0.1763310432434082, 0.4827447831630707, -0.16076140105724335, 0.48684799671173096, 0.10769104957580566, 
0.23958969116210938, -0.4840451776981354, 0.8565900921821594, 0.13060149550437927, -0.019664039835333824, -0.31394657492637634, -0.27151134610176086, 
0.08411674946546555, 0.10777432471513748, 0.030067099258303642, 0.15933389961719513, -0.20287302136421204, 0.3424307703971863, 0.1372029185295105, 
0.3362165689468384, 0.004210034850984812, -0.045514460653066635, 0.13862445950508118, -0.2771593928337097, 0.004749349318444729, -0.16115185618400574, 
-0.17654933035373688, 0.04153483733534813, -0.08695723116397858, 0.07726169377565384, 0.1387539505958557, 0.17214025557041168, -0.03358666971325874, 
-0.4565192759037018, 0.21955497562885284, -0.19475527107715607, -0.23935462534427643, -0.032277725636959076, -0.28456324338912964, -0.01897452399134636, 
0.17806610465049744, -0.3258000314235687, -0.17050457000732422, 0.06729137152433395, -0.1937415897846222, -0.2713601589202881, -0.05562424287199974, 
-0.06877364218235016, 0.05949406698346138, -0.019265489652752876, -0.06514032185077667, -0.01958453468978405, 0.06674765050411224, 0.35690343379974365, 
-0.17113709449768066, -0.22945033013820648, 0.32612767815589905, -0.2771192193031311, -0.17327137291431427, -0.06575927138328552, 0.019606878980994225, 
0.03459761291742325, -0.04741615056991577, 0.13096930086612701, 0.16293048858642578, 0.017765605822205544, 0.04326722398400307, -0.19849073886871338, 
0.31740930676460266, 0.0838739275932312, -0.497650146484375, 0.18533273041248322, -0.07923935353755951, -0.01732100360095501, 0.46415194869041443, 
-0.10079757869243622, -0.09168154746294022, 0.00807768665254116, -0.05280988663434982, 0.030733641237020493, -0.037931445986032486, 0.22384460270404816, 
-0.011503078043460846, 0.23973049223423004, 0.274995893239975, -0.2689329981803894, 0.7921165227890015, -0.17421463131904602, 0.030568210408091545, 
-0.022046687081456184, -0.27972301840782166, -0.05642608553171158, 0.1524134874343872, 0.16351883113384247, 0.02100960724055767, 0.08826223760843277, 
0.11046823114156723, -0.17626574635505676, 0.15927384793758392, -0.06583648175001144, -0.22192609310150146, 0.17401497066020966, -0.34353747963905334, 
-0.03929542750120163, 0.3252958059310913, -0.23783071339130402, 0.07562436163425446, -0.21571162343025208, -0.4992842674255371, -0.555543839931488, 
-0.15212814509868622, 0.480221688747406, 0.3121299147605896, -0.11904866993427277, -0.32309553027153015, -0.10786978900432587, 0.13263000547885895, 
-0.13333295285701752, 0.10681737959384918, -0.14080433547496796, -0.16911160945892334, 0.011335069313645363, -0.12121149152517319, -0.011549633927643299, 
0.12058700621128082, -0.12373034656047821, -0.05059439688920975, 0.13875599205493927, -0.2626284956932068, 0.3600917458534241, -0.26922088861465454, 
0.4778892695903778, -0.033069320023059845, 0.26166337728500366, -0.2338271588087082, 0.5523972511291504, -0.08806547522544861, -0.21379947662353516, 
-0.37065786123275757, -0.18307115137577057, -0.1781865805387497, 0.126103475689888, 0.12169768661260605, 0.1494724601507187, -0.03040347248315811, 
0.33632180094718933, 0.19903002679347992, 0.09059559553861618, -0.00201997859403491, 0.040331270545721054, 0.2718667984008789, 0.15473222732543945, 
-0.07324127852916718, 0.09986657649278641, 0.03752058744430542, 0.014449995011091232, 0.13500669598579407, -0.03575201332569122, -0.16681860387325287, 
0.21928362548351288, 0.04321941360831261, -0.0464923270046711, -0.1793002188205719, 0.14063052833080292, 0.216114342212677, -0.027328642085194588, 
0.2890796363353729, -0.05305350944399834, 0.10937800258398056, 0.13484780490398407, 0.11925748735666275, -0.09314130991697311, 0.16666856408119202, 
0.09899839758872986, 0.005639061331748962, 0.5314570069313049, -0.6517645120620728, 0.1295539140701294, 0.0877264216542244, -0.09323260933160782, 
0.256038635969162, 0.15374742448329926, -0.0028062034398317337, -0.16350287199020386, -0.2749952971935272, -0.10173718631267548, -0.05039603263139725, 
0.20418311655521393, 0.01686774753034115, 0.04951540008187294, -0.026792192831635475, 0.1331188678741455, -0.23616480827331543, -0.09750731289386749, 
0.033741921186447144, -0.1691463142633438, 0.14565935730934143, 0.02122185193002224, 0.056368906050920486, 0.2627154290676117, 0.12455300241708755, 
0.09371984004974365, -0.027460794895887375, -0.10047943145036697, 0.24666577577590942, -0.04633461683988571, 0.10506141930818558, 0.11602301150560379, 
0.11919476091861725, -0.021443035453557968, -0.019346456974744797, -0.016277262941002846, -0.020999416708946228, 0.0848638191819191, -0.03688023239374161, 
-0.16612665355205536, 0.004762591794133186, -0.020317813381552696, 0.1601814478635788, -0.010584650561213493, 0.0048435525968670845, -0.002503751078620553, 
0.08428344130516052, 0.00894197542220354, 0.07632449269294739, -0.0073744868859648705, 0.24513623118400574, -0.04003811255097389, -0.18883398175239563, 
0.184328094124794, 0.01994294486939907, 0.16722463071346283, -0.025474688038229942, 0.08431727439165115, 0.11036451160907745, -0.1853630095720291, 
-0.08519090712070465, 0.036817409098148346, 0.006745941936969757, -0.12070854008197784, -0.0677657499909401, -0.0454825721681118, 0.1441451758146286, 
-0.012866780161857605, -0.09304117411375046, -0.12673348188400269, 0.11542607098817825, -0.1023787260055542, 0.005321058910340071, -0.0030367709696292877, 
0.12285361438989639, -0.04832170531153679, -0.19148723781108856, 0.002171875676140189, -0.04265366867184639, -0.06601860374212265, 0.03567824885249138, 
-0.010791933164000511, 0.062026362866163254, 0.16604997217655182, 0.021981732919812202, 0.06808630377054214, 0.04542892053723335, 0.02295602299273014, 
-0.1391771286725998, 0.02179953083395958, -0.013433857820928097, 0.02999834343791008, 0.20230358839035034, 0.032749272882938385, 0.03242582082748413, 
-0.09040732681751251, -0.031212031841278076, -0.05718734860420227, 0.27600857615470886, 0.06342285126447678, -0.20741361379623413, 0.3892171382904053, 
-0.8296453356742859, 0.13902559876441956, 0.04082357510924339, 0.14272940158843994, 0.35802656412124634, 0.020253043621778488, -0.22278745472431183, 
-0.2172764241695404, 0.005361328832805157, 0.06773871183395386, 0.012893841601908207, 0.22968822717666626, -0.2744114398956299, 0.2126730978488922, 
0.22564372420310974, 0.06401415169239044, 0.52130526304245, 0.09912563860416412, -0.4500334560871124, 0.20940272510051727, 0.14735357463359833, 
0.3475162386894226, 0.31639617681503296, 0.5878221392631531, 0.09080538153648376, -0.5495486259460449, -0.21918059885501862, 0.21825344860553741, 
0.1639854460954666, 0.049657613039016724, -0.32203423976898193, 0.23326599597930908, 0.044307976961135864, 0.2211550921201706, 0.19093672931194305, 
0.14368602633476257, 0.012381167151033878, 0.10522671788930893, -0.21240384876728058, 0.023696841672062874, 0.16529668867588043, -0.10972286015748978, 
0.08797213435173035, -0.4316570460796356, 0.19451817870140076, -0.28032350540161133, -0.08110112696886063, -0.4455886483192444, 0.41431766748428345, 
-0.37136009335517883, 0.1682906299829483, 0.11841589212417603, 0.20013327896595, 0.24343840777873993, -0.0034147745463997126, -0.0790635496377945, 
-0.06879587471485138, -0.07666438817977905, 0.17291589081287384, -0.2520892322063446, -0.2284860610961914, -0.357699990272522, -0.09169377386569977, 
0.12320434302091599, -0.40121451020240784, 0.17142276465892792, 0.19101667404174805, -0.06741322576999664, 0.3027811050415039, -0.045483723282814026, 
0.1409471482038498, -0.09413924813270569, -0.0018477600533515215, -0.10347820073366165, -0.08391688019037247, 0.25720715522766113, 0.03552967309951782, 
-0.053293000906705856, 0.15065446496009827, 0.20218418538570404, 0.7972736358642578, -0.09035938233137131, -0.13350345194339752, 0.2610800564289093, 
-0.057455457746982574, -0.13278965651988983, 0.3384195566177368, 0.35789427161216736, 0.014071200042963028, -0.15372604131698608, -0.609346330165863, 
0.12510845065116882, 0.20079390704631805, 0.2804621458053589, 0.3003096878528595, 0.10596214234828949, 0.0028575933538377285, -0.1270415186882019, 
-0.20804086327552795, -0.1120544970035553, 0.032570648938417435, -0.016148142516613007, -0.1791515201330185, 0.034919459372758865, 0.048110481351614, 
-0.13930600881576538, 0.1756109893321991, -0.03507544845342636, 0.30133235454559326, -0.18490858376026154, -0.14341238141059875, -0.04609960317611694, 
0.20522060990333557, -0.14181610941886902, 0.10972287505865097, 0.21615780889987946, 0.09416702389717102, -0.10518133640289307, 0.26077210903167725, 
-0.02677687257528305, -0.11389954388141632, -0.1682368516921997, 0.05866706371307373, -0.24166283011436462, 0.01718127354979515, -0.007997426204383373, 
-0.1121315285563469, 0.09086743742227554, 0.035640131682157516, 0.04462314397096634, 0.023120377212762833, 0.038510169833898544, 0.02224537543952465, 
-0.02122821845114231, -0.06328261643648148, -0.19090943038463593, -0.10877675563097, -0.2692115008831024, -0.13391084969043732, 0.32237255573272705, 
-0.23563537001609802, 0.02688266895711422, 0.1851763129234314, 0.11936211585998535, -0.1894335001707077, 0.13511547446250916, -0.09890363365411758, 
0.12815406918525696, -0.06550689786672592, -0.04648059979081154, -0.06694769859313965, 0.17104563117027283, 0.11398985981941223, -0.031107114627957344, 
0.17803724110126495, -0.030011845752596855, 0.0892895758152008, 0.0797828733921051, -0.23748083412647247, -0.36764243245124817, 0.11946117132902145, 
0.10261527448892593, -0.20901958644390106, 0.20687904953956604, 0.2641986310482025, -0.16664889454841614, -0.05856343358755112, -0.19196520745754242, 
-0.011154290288686752, -0.07908634841442108, -0.22023655474185944, 0.18101553618907928, -0.3348150849342346, 0.32361912727355957, -0.29368433356285095, 
-0.014897266402840614, 0.3248629570007324, -0.007515856064856052, -0.052385363727808, -0.12479013949632645, -0.43562769889831543, 0.21214690804481506, 
0.11283157765865326, -0.11596333980560303, -0.09470871835947037, -0.10656029731035233, 0.14150354266166687, 0.05007379129528999, -0.02988452836871147, 
-0.09201984107494354, 0.06353215128183365, 0.10940872132778168, 0.24811559915542603, 0.0032223351299762726, 0.01265217550098896, 0.016412997618317604, 
0.017712553963065147, 0.006157836876809597, 0.00862161722034216, 0.04354984313249588, 0.038778308779001236, -0.2340410053730011, 0.07089131325483322, 
0.04969557374715805, -0.1081242486834526, 0.026716912165284157, 0.12842869758605957, -0.06615490466356277, -0.31491246819496155, -0.03112548403441906, 
-0.15926796197891235, -0.07481750845909119, 0.07812701165676117, -0.18022291362285614, -0.2875687777996063, -0.09426897764205933, 0.07748036086559296, 
-0.18154354393482208, 0.4379114508628845, -0.07852715253829956, -0.06831000000238419, 0.07662200182676315, -0.41788312792778015, -0.1274978667497635, 
0.1010647714138031, 0.26159730553627014, 0.13657714426517487, 0.14041844010353088, 0.058942124247550964, -0.1530456244945526, 0.006480114534497261, 
-0.14386194944381714, -0.13096857070922852, -0.019762663170695305, -0.06925883144140244, 0.23266005516052246, -0.1876949965953827, 0.28549978137016296, 
0.11029606312513351, 0.08065265417098999, 0.07522144913673401, -0.027183519676327705, -0.01667531207203865, -0.19502632319927216, -0.10446486622095108, 
0.03615109995007515, -0.052559006959199905, -0.05917835608124733, 0.06579012423753738, 0.07345980405807495, 0.10221551358699799, 0.14728236198425293, 
-0.14190013706684113, 0.05748177692294121, -0.09266827255487442, -0.0025189113803207874, -0.010581225156784058, -0.0708189457654953, 0.02758854627609253, 
-0.33912310004234314, 0.03186475858092308, -0.00010073488374473527, 0.18157564103603363, 0.020262090489268303, 0.05741695314645767, 0.0027192619163542986, 
0.048614103347063065, -0.20595231652259827, 0.07552169263362885, -0.08844197541475296, -0.18883025646209717, 0.017693931236863136, -0.01639215275645256, 
-0.0719418004155159, 0.024924911558628082, -0.18898673355579376, -0.16826394200325012, -0.02089795470237732, 0.021397743374109268, 0.016494767740368843, 
-0.09293384104967117, -0.22956185042858124, -0.05019631236791611, 0.04072826728224754, -0.19018606841564178, 0.19306351244449615, 0.3948325216770172, 
0.15686564147472382, 0.10978156328201294, -0.08882933109998703, 0.060113340616226196, -0.2780258357524872, -0.2755656838417053, -0.21227040886878967, 
0.08250582963228226, -0.05109071731567383, 0.1132725179195404, 0.04677480459213257, 0.24637159705162048, 0.011613554321229458, 0.1969904601573944, 
-0.13156180083751678, -0.028837816789746284, 0.06709006428718567, -0.10792496800422668, 0.033613964915275574, -0.0372936874628067, -0.049290262162685394, 
0.22821298241615295, -0.18706893920898438, -0.042592596262693405, 0.02071433886885643, -0.00701149832457304, -0.11892543733119965, -0.09005332738161087, 
-0.13341590762138367, -0.09326969087123871, 0.05959085747599602, -0.1185179129242897, 0.11902759224176407, -0.0632733404636383, -0.12020917236804962, 
-0.08486308157444, 0.06215840205550194, -0.07401169091463089, 0.05666308104991913, -0.09499920904636383, -0.06921704113483429, 0.005101599730551243, 
0.02902551181614399, -0.011731259524822235, -0.16410072147846222, 0.1944105327129364, 0.0022624090779572725, 0.06387607008218765, -0.08927982300519943, 
-0.1178639605641365, 0.08280017226934433, 0.14413243532180786, 0.01641063764691353, 0.05241209641098976, 0.3325444459915161, 0.39743050932884216, 
0.2191190868616104, 0.09616462141275406, 0.13629250228405, -0.10328158736228943, -0.06821291893720627, -0.14039403200149536, 0.008881154470145702, 
0.18484991788864136, 0.1858166605234146, -0.07292284816503525, -0.10865523666143417, -0.054595936089754105, -0.03463062271475792, -0.3888026773929596, 
0.024339867755770683, 0.32539814710617065, 0.014854172244668007, 0.11456605046987534, 0.15791305899620056, -0.05926861613988876, -0.10523055493831635, 
0.13511037826538086, -0.49514931440353394, -0.0728452205657959, 0.13202854990959167, -0.08349096029996872, -0.1269429326057434, -0.16373717784881592, 
0.06166566163301468, 0.04216616973280907, -0.0989375039935112, -0.12486904859542847, -0.023716429248452187, 0.03024444729089737, -0.15867209434509277, 
-0.13281100988388062, -0.13678236305713654, 0.11892588436603546, -0.08913050591945648, -0.00772835873067379, 0.09055767208337784, -0.32578322291374207, 
0.06724455952644348, 0.3109387457370758, -0.09294586628675461, 0.07185351103544235, 0.006926869973540306, 0.07938078045845032, -0.03373086452484131, 
0.06755467504262924, 0.07773659378290176, 0.06096554547548294, 0.12740667164325714, -0.026798168197274208, 0.0903652086853981, -0.0007635759538970888, 
-0.009627019986510277, 0.6194955110549927, 0.0033010742627084255, -0.04368961229920387, 0.2051241546869278, 4.991744572180323e-05, -0.1446112096309662, 
0.328108549118042, 0.2607177793979645, -0.08595515042543411, 0.3108328580856323, -0.45929574966430664, -0.07669374346733093, 0.14130771160125732, 
0.2684350311756134, 0.6733910441398621, -0.019521139562129974, 0.0867486372590065, -0.27897414565086365, -0.31671032309532166, -0.3520059883594513, 
0.1135072112083435, 0.04322349280118942, -0.13881944119930267, 0.19835099577903748, 0.00026851234724745154, 0.034869227558374405, 0.21143940091133118, 
-0.03871464356780052, 0.05352838709950447, -0.2242441028356552, -0.1755731850862503, -0.11790816485881805, 0.09100842475891113, -0.10289528220891953, 
0.015129448845982552, 0.06085740774869919, -0.07886379212141037, -0.04835725948214531, 0.2446601688861847, -0.06178668513894081, -0.035418104380369186, 
-0.06719852238893509, 0.10295767337083817, -0.2911023795604706, 0.20638611912727356, -0.05876808613538742, 0.1547810286283493, -0.22705137729644775, 
-0.2651102840900421, -0.06648420542478561, -0.10602376610040665, -0.10894307494163513, -0.06096133962273598, 0.04297883063554764, 0.13495290279388428, 
-0.009305017068982124, 0.28481894731521606, -0.1308716982603073, 0.012650852091610432, -0.058216579258441925, 0.018022190779447556, -0.13220132887363434, 
-0.131796196103096, -0.029508791863918304, 0.2089034616947174, -0.30152878165245056, 0.3946833312511444, -0.054669611155986786, -0.012154825031757355, 
0.4299714267253876, 0.286807119846344, -0.002438424387946725, 0.13749930262565613, 0.042145758867263794, -0.013146230950951576, -0.0917731449007988, 
-0.4317362308502197, 0.03823509439826012, -0.008208994753658772, 0.18756280839443207, -0.05931759253144264, 0.07374822348356247, 0.02117769978940487, 
-0.011080324649810791, -0.327678382396698, 0.10019475221633911, 0.3477369546890259, 0.15989241003990173, 0.2884431481361389, -0.06975118815898895, 
0.02239181287586689, -0.14150628447532654, -0.2057032585144043, -0.22210735082626343, -0.12141096591949463, 0.2003360092639923, -0.19658051431179047, 
-0.09471473842859268, -0.016838127747178078, 0.06208961457014084, 0.11898621916770935, 0.14550603926181793, -0.3883711099624634, 0.10062246024608612, 
-0.1292153149843216, -0.08542528003454208, -0.23815512657165527, -0.16176976263523102, 0.051655661314725876, -0.005418968852609396, 0.23490937054157257, 
-0.17937815189361572, -0.04406120628118515, 0.22202880680561066, 0.10508807003498077, 0.15837709605693817, 0.049473658204078674, -0.07784955203533173, 
0.024854322895407677, -0.057652633637189865, 0.0394318550825119, 0.06997749209403992, -0.25878453254699707, 0.17257708311080933, 0.094966359436512, 
-0.08200214058160782, -0.09330911189317703, 0.059212569147348404, 0.7555482387542725, 0.026167239993810654, 0.17544569075107574, -0.012975060380995274, 
0.02610653266310692, -0.24132955074310303, 0.11151830852031708, -0.14911223948001862, 0.02547898329794407, 0.20757552981376648, -0.6979129910469055, 
0.19731231033802032, 0.20706279575824738, -0.14217744767665863, 0.09541243314743042, -0.1564270555973053, 0.06516235321760178, -0.19409985840320587, 
-0.0149513715878129, 0.0023552337661385536, 0.17608636617660522, 0.1013602539896965, -0.2610558867454529, 0.08094359189271927, -0.10474725067615509, 
-0.09131551533937454, -0.03427541255950928, -0.08818633109331131, 0.13223546743392944, 0.24229219555854797, 0.332658976316452, -0.20488646626472473, 
-0.05316465348005295, 0.2557607889175415, 0.11752752959728241, 0.28042110800743103, -0.005903781391680241, -0.03736555948853493, 0.29356738924980164, 
0.01681581698358059, -0.11146103590726852, 0.28611069917678833, -0.24859674274921417, -0.18111257255077362, 0.11340712755918503, 0.04632186144590378, 
-0.16893810033798218, 0.14667466282844543, -0.3500049412250519, 0.009991739876568317, 0.09507768601179123, 0.15794716775417328, -0.07405884563922882, 
-0.023783115670084953, -0.12233433872461319, -0.19642990827560425, -0.09966105967760086, 0.02594006434082985, -0.03776329755783081, 0.0789262056350708, 
-0.18651282787322998, -0.011086842976510525, 0.12815195322036743, -0.04131310060620308, 0.275195449590683, 0.301483690738678, -0.4371524751186371, 
0.18460512161254883, -0.05914348363876343, -0.11488766223192215, 0.21244661509990692, 0.34009379148483276, 0.16067436337471008, -0.18422731757164001, 
-0.2655954957008362, 0.03275815397500992, 0.17477329075336456, -0.062494248151779175, 0.28498369455337524, 0.05080343037843704, 0.09561850875616074, 
0.15040312707424164, -0.016903972253203392, 0.01970602199435234, 0.10987402498722076, 0.05160129442811012, -0.16353173553943634, -0.04789761081337929, 
-0.16535808145999908, 0.04873011261224747, -0.07635229080915451, -0.11750932782888412, 0.0982082411646843, -0.037213925272226334, 0.19788138568401337, 
-0.15555231273174286, 0.17494326829910278, -0.2549433410167694, 0.004143767990171909, 0.09614967554807663, -0.04369311034679413, -0.018424054607748985, 
0.21912704408168793, -0.2349618375301361, 0.060089949518442154, -0.028547251597046852, 0.054424650967121124, -0.2566254734992981, -0.06064319610595703, 
-0.16753055155277252, -0.10735279321670532, 0.3109778165817261, -0.6508806347846985, 0.11721006780862808, -0.010438067838549614, 0.09079483896493912, 
0.3665540814399719, 0.02191467396914959, -0.10256175696849823, -0.059760190546512604, -0.1794099658727646, -0.1843593865633011, 0.004928226117044687, 
0.254852831363678, -0.1452425718307495, 0.06950134038925171, 0.3088063597679138, 0.05053998529911041, 0.46251893043518066, 0.13042038679122925, 
-0.44737404584884644, 0.2251841276884079, -0.00527462363243103, 0.11865732073783875, 0.43963292241096497, 0.6357556581497192, 0.07328490912914276, 
-0.4298594892024994, -0.570710301399231, 0.08379913121461868, 0.3527083694934845, 0.08515486866235733, 0.15370088815689087, 0.16632239520549774, 
-0.024082092568278313, 0.22541706264019012, -0.10666738450527191, 0.0017858792562037706, 0.09561454504728317, -0.06975476443767548, -0.15028199553489685, 
0.060541458427906036, 0.14382432401180267, -0.07657759636640549, 0.0815526470541954, -0.4463914632797241, 0.13389842212200165, -0.28845855593681335, 
-0.17867505550384521, -0.10235562920570374, 0.35174521803855896, -0.6345310807228088, 0.11173178255558014, 0.06232942268252373, 0.1559223085641861, 
0.05864156410098076, 0.16131141781806946, -0.17460626363754272, -0.16965697705745697, -0.28152772784233093, 0.15734997391700745, -0.3106968104839325, 
-0.1302167922258377, -0.1908469945192337, -0.36545392870903015, 0.09924036264419556, -0.48884502053260803, -0.14149156212806702, -0.015545939095318317, 
-0.06405945867300034, 0.1733202189207077, 0.12496478855609894, -0.13635118305683136, -0.13649553060531616, -0.013723093084990978, -0.133450448513031, 
0.21697965264320374, -0.04486122354865074, 0.027932709082961082, 0.11709386110305786, -0.048602145165205, 0.23116154968738556, -0.26829051971435547, 
0.1647796332836151, -0.2174198031425476, 0.09279635548591614, 0.019783150404691696, -0.009262779727578163, 0.4027535617351532, 0.31797125935554504, 
0.04557085409760475, -0.21784159541130066, 0.5011624097824097, -0.24886265397071838, -0.17296083271503448, 0.15145544707775116, 0.06591209024190903, 
-0.22327864170074463, 0.1334751695394516, 0.09136021137237549, -0.20846834778785706, -0.027891186997294426, -0.033767495304346085, -0.15340201556682587, 
0.10986209660768509, -0.1325596272945404, 0.20850621163845062, -0.0368141233921051, -0.02752804569900036, 0.2910911738872528, -0.20970238745212555, 
-0.23564954102039337, -0.17088337242603302, 0.08823990076780319, 0.166290745139122, -0.5231074690818787, -0.122585229575634, -0.12875860929489136, 
-0.07589668035507202, 0.05569494888186455, -0.2747735381126404, 0.014903802424669266, -0.00425697723403573, 0.06990475952625275, 0.13748736679553986, 
-0.04574150964617729, 0.22523479163646698, -0.12602251768112183, 0.038679368793964386, -0.06327033787965775, -0.10745321959257126, -0.01600353606045246, 
0.10262200981378555, -0.39542150497436523, 0.19149500131607056, -0.08059493452310562, 0.038943495601415634, 0.10180709511041641, 0.10954900830984116, 
0.013172895647585392, 0.17316855490207672, -0.138688325881958, -0.02959822490811348, -0.12273184955120087, -0.16254062950611115, -0.010990346781909466, 
0.20486168563365936, 0.03563176095485687, 0.2192203253507614, 0.060108307749032974, -0.24552315473556519, -0.06986656785011292, 0.07690766453742981, 
0.07694809883832932, -0.11779358237981796, -0.1863589882850647, -0.26082843542099, -0.04450532793998718, 0.11062615364789963, 0.24953867495059967, 
0.2367715686559677, 0.11764763295650482, -0.04895976185798645, -0.10859256237745285, 0.1484920084476471, -0.3750273287296295, -0.07782360166311264, 
-0.07887943834066391, -0.09129414707422256, 0.12958618998527527, -0.04452921450138092, 0.04256055876612663, 0.14477410912513733, -0.0032708693761378527, 
0.24302172660827637, -0.2777068316936493, -0.10719761997461319, 0.016465622931718826, -0.07294315844774246, -0.0942079946398735, 0.006017195992171764, 
0.05196969211101532, 0.30272528529167175, -0.20090922713279724, -0.08770201355218887, 0.062144722789525986, 0.14442507922649384, -0.038930099457502365, 
-0.03642536699771881, -0.09384176135063171, -0.03113212250173092, -0.04578813910484314, 0.0314854234457016, -0.1917721927165985, 0.008218718692660332, 
-0.3327794373035431, 0.103491872549057, -0.33802905678749084, 0.062324028462171555, -0.051777392625808716, 0.1095801591873169, 0.051476821303367615, 
-0.01957564242184162, 0.02984498254954815, 0.2390974760055542, -0.3576977252960205, 0.2375219762325287, -0.1309523731470108, -0.1968599408864975, 
-0.08361458778381348, -0.017870012670755386, -0.07140587270259857, 0.2848531901836395, -0.0052057355642318726, -0.2166862189769745, 0.08729998767375946, 
-0.012705153785645962, -0.1118454560637474, -0.20114834606647491, 0.31914734840393066, -0.0040403371676802635, -0.015686705708503723, -0.1853122115135193, 
0.14907963573932648, 0.3823365867137909, 0.07359530031681061, -0.09958966821432114, -0.23476766049861908, -0.06603115051984787, -0.43494725227355957, 
-0.1616939902305603, -0.028972763568162918, -0.025879250839352608, -0.014201001264154911, 0.012992653995752335, 0.17313742637634277, 0.15267780423164368, 
-0.039362113922834396, 0.1141686961054802, -0.14122138917446136, -0.1993754357099533, 0.1404062956571579, -0.25404080748558044, 0.23216868937015533, 
-0.08580011874437332, -0.02441330999135971, 0.03323740139603615, -0.19731900095939636, -0.10398536175489426, -0.010827344842255116, -0.029980216175317764, 
0.046821460127830505, -0.01935681514441967, 0.06367767602205276, 0.09572627395391464, 0.08243589103221893, -0.18996627628803253, -0.03771054744720459, 
-0.5258460640907288, 0.0423172265291214, -0.0929683968424797, -0.4317690134048462, 0.340798944234848, -0.5234269499778748, 0.11076197773218155, 
-0.30667102336883545, -0.17616619169712067, -0.08904556185007095, 0.0030289620626717806, 0.2698664665222168, -0.17359906435012817, -0.12143558263778687, 
-0.049485255032777786, -0.0321769043803215, -0.23728322982788086, 0.40394464135169983, -0.2439347207546234, 0.32268914580345154, -0.028888199478387833, 
0.09383217990398407, 0.019765019416809082, 0.28327471017837524, 0.05093911290168762, 0.026288727298378944, 0.08874852955341339, -0.10253655165433884, 
0.04713555797934532, -0.1987897902727127, -0.005388871766626835, -0.04789693281054497, -0.004152180626988411, -0.20592232048511505, 0.061784032732248306, 
-0.045561954379081726, -0.010168427601456642, 0.03268684446811676, 0.012860038317739964, 0.0585285946726799, 0.00923992320895195, -0.10148125141859055, 
-0.18359960615634918, 0.19581110775470734, 0.23997840285301208, -0.414997398853302, -0.11693629622459412, 0.05329354852437973, 0.05769239366054535, 
-0.2644718289375305, -0.06245473027229309, -0.029625415802001953, -0.007032471708953381, -0.2681913375854492, 0.1844049096107483, -0.21342222392559052, 
-0.06081075593829155, -0.28028520941734314, 0.24908623099327087, -0.3084917962551117, 0.046457987278699875, -0.10056893527507782, 0.026113051921129227, 
-0.12099254131317139, 0.3073115646839142, 0.02288033813238144, -0.25612926483154297, 0.05653991550207138, -0.14098866283893585, 0.1491643488407135, 
-0.1349906623363495, -0.06846991181373596, -0.06451387703418732, 0.33832553029060364, 0.17434680461883545, 0.1040848046541214, 0.10167344659566879, 
-0.17628513276576996, 0.07795239239931107, 0.12895871698856354, -0.04738781973719597, -0.12751488387584686, -0.22717216610908508, 0.05866760015487671, 
0.18682803213596344, -0.11040959507226944, 0.03754104673862457, -0.17094340920448303, 0.22811979055404663, 0.0009269645088352263, 0.45845553278923035, 
0.22780759632587433, 0.09160896390676498, 0.404315322637558, -0.07087687402963638, 0.15528662502765656, 0.0011396402260288596, 0.1011045053601265, 
-0.06606437265872955, -0.11707093566656113, 0.23020122945308685, 0.12089944630861282, -0.1363178938627243, -0.07699815928936005, -0.07618394494056702, 
-0.022205812856554985, -0.3104337155818939, -0.022929493337869644, -0.21610292792320251, 0.6122732162475586, 0.12458761036396027, 0.03511140123009682, 
-0.055095501244068146, -0.40974128246307373, 0.1993972212076187, -0.0015858594560995698, 0.2567976713180542, -0.030722662806510925, 0.30170655250549316, 
0.08351640403270721, -0.0901641845703125, -0.12600304186344147, -0.04957319796085358, 0.08940239250659943, 0.06425713002681732, 0.06656037271022797, 
-0.20054493844509125, -0.01835011877119541, -0.34899958968162537, -0.13198746740818024, -0.1482475996017456, 0.27429625391960144, -0.15056084096431732, 
0.031847529113292694, 0.07470858097076416, -0.1188657209277153, 0.04741967096924782, -0.1795470118522644, -0.15722739696502686, 0.2842622399330139, 
0.015437154099345207, 0.007919568568468094, -0.13175657391548157, -0.002380856079980731, 0.21760480105876923, -0.2794923782348633, -0.11575770378112793, 
-0.20025119185447693, -0.02280111238360405, -0.2806564271450043, 0.028097758069634438, -0.04984328895807266, 0.17657221853733063, 0.03616214171051979, 
-0.02187514677643776, 0.01931547187268734, 0.2778131365776062, 0.09103517234325409, -0.05006151646375656, -0.09773193299770355, 0.20354749262332916, 
-0.34615516662597656, -0.2762857973575592, -0.1617123931646347, -0.09013337641954422, -0.0017624183092266321, -0.2553098797798157, 0.16467444598674774, 
0.025507133454084396, 0.06291602551937103, 0.07664243876934052, -0.1598525494337082, 0.1385980099439621, 0.027660369873046875, 0.020737890154123306, 
0.019655628129839897, -0.062187641859054565, -0.04637566953897476, 0.07395432144403458, 0.35152262449264526, -0.13815632462501526, -0.1521785706281662, 
0.05993383005261421, -0.062735415995121, -0.026631835848093033, -0.13091236352920532, 0.14426235854625702, -0.03803378716111183, -0.06928972899913788, 
0.24004966020584106, -0.03166081756353378, -0.10561792552471161, -0.3724413812160492, -0.025037826970219612, -0.0680321678519249, -0.11655501276254654, 
0.0002899089886341244, -0.14421327412128448, 0.1641138643026352, -0.486365407705307, -0.06795790046453476, 0.15389277040958405, -0.178353950381279, 
0.33849507570266724, -0.2733917236328125, 0.05373089388012886, -0.07157433032989502, 0.18248406052589417, 0.23738731443881989, -0.1563204824924469, 
-0.11028076708316803, -0.005802568048238754, 0.016638949513435364, -0.13221359252929688, 0.189751997590065, -0.024256708100438118, 0.1129816398024559, 
0.14625228941440582, -0.06543657928705215, 0.056309785693883896, 0.04133940488100052, -0.01809883303940296, -0.13470737636089325, 0.19790038466453552, 
0.22137461602687836, -0.536396861076355, 0.006099590100347996, -0.25100481510162354, 0.13020235300064087, 0.108780138194561, -0.08432773500680923, 
0.2161630392074585, 0.058410339057445526, -0.13939312100410461, -0.13147422671318054, 0.21329639852046967, 0.044327717274427414, -0.28917208313941956, 
0.00851475354284048, 0.036388419568538666, -0.06316740810871124, 0.08865367621183395, -0.012304010801017284, 0.5731887817382812, 0.0188067015260458, 
-0.29622650146484375, 0.23138244450092316, 0.09648589789867401, -0.10061436146497726, -0.16601333022117615, 0.06153377518057823, -0.31715714931488037, 
0.08696214854717255, 0.07866071909666061, -0.0036515139508992434, 0.15871642529964447, 0.2934733033180237, -0.1555606722831726, 0.23545153439044952, 
-0.04307083413004875, -0.19492420554161072, 0.23805710673332214, -0.3044445514678955, 0.20785263180732727, 0.2503301203250885, -0.12239913642406464, 
-0.28070059418678284, -0.3191230297088623, 0.18144424259662628, 0.062083568423986435, 0.07893197238445282, -0.02076897770166397, 0.2566976547241211, 
0.11183173954486847, 0.4425038695335388, -0.1280052810907364, -0.02553846687078476, 0.2536885738372803, -0.2805018723011017, -0.28287237882614136, 
-0.13630983233451843, -0.24058453738689423, -0.25623318552970886, -0.02631109207868576, -0.19120779633522034, -0.016006512567400932, 0.09522751718759537, 
-0.1066763624548912, -0.04676412418484688, 0.2772464454174042, -0.2522332966327667, 0.3585817813873291, -0.1901828795671463, -0.015487159602344036, 
0.10705181211233139, -0.2033340185880661, 0.055934879928827286, -0.0987214744091034, 0.3099386990070343, 0.18606875836849213, 0.13248002529144287, 
0.36910390853881836, -0.03460405766963959, -0.08627048134803772, -0.15107406675815582, 0.31613069772720337, -0.05524973198771477, -0.3556607961654663, 
-0.06489786505699158, 0.09651807695627213, -0.19343894720077515, 0.2681172788143158, 0.012756404466927052, 0.2523978352546692, -0.0784454420208931, 
0.19669000804424286, 0.16087350249290466, 0.05938240513205528, -0.05355576425790787, 0.29558250308036804, -0.011151586659252644, -0.2170848846435547, 
0.13241685926914215, 0.12757226824760437, 0.014527969062328339, 0.21110770106315613, -0.08064961433410645, 0.425525039434433, 0.33077576756477356, 
-0.20098043978214264, -0.29609501361846924, -0.1631748527288437, 0.14634791016578674, -0.033849868923425674, 0.13667045533657074, -0.12733307480812073, 
-0.015482514165341854, -0.11957363784313202, 0.16598665714263916, -0.2554719150066376, -0.14357958734035492, 0.11751995235681534, -0.2795221209526062, 
-0.12053278088569641, -0.03989001363515854, -0.30464521050453186, -0.08233781903982162, -0.12658356130123138, -0.1603131741285324, -0.20602600276470184, 
0.12659741938114166, 0.06316698342561722, 0.09295758605003357, 0.41620755195617676, 0.00617227703332901, 0.4262944459915161, -0.13005803525447845, 
-0.15186063945293427, 0.10152725130319595, -0.0176851749420166, 0.09895390272140503, -0.005890502128750086, 0.36231938004493713, -0.23794488608837128, 
0.0422293059527874, 0.18946518003940582, 0.06560707092285156, 0.07373794913291931, -0.026243463158607483, 0.22681111097335815, -0.1446731686592102, 
-0.3008202910423279, -0.018699558451771736, 0.13201746344566345, -0.33218857645988464, 0.2555776834487915, 0.01564737781882286, 0.030222570523619652, 
0.055156245827674866, 0.4422247111797333, -0.025884537026286125, 0.19280442595481873, 0.018813861533999443, -0.07634004205465317, -0.010350294411182404, 
0.005001574754714966, 0.2896405756473541, -0.012929825112223625, 0.19476911425590515, -0.055015966296195984, 0.03942479193210602, 0.03502556309103966, 
0.22770993411540985, -0.38358303904533386, -0.09837871044874191, -0.07278171926736832, 0.14629894495010376, 0.05801227688789368, -0.01248217187821865, 
0.16989126801490784, 0.5692598819732666, 0.3184743821620941, 0.014684646390378475, 0.1525207906961441, 0.058318331837654114, 0.022269228473305702, 
-0.015032468363642693, 0.14636357128620148, 0.014474819414317608, 0.10007421672344208, -0.2326115518808365, -0.10020908713340759, -0.10427193343639374, 
-0.24597086012363434, 0.11787046492099762, -0.2205185443162918, 0.17358510196208954, -0.03888760879635811, 0.18738573789596558, -0.018082570284605026, 
0.15903182327747345, -0.1624690741300583, -0.05047839879989624, -0.29132112860679626, 0.14522932469844818, -0.2625545561313629, 0.4699251353740692, 
-0.07152552157640457, 0.16014280915260315, -0.07487522810697556, 0.08859673887491226, -0.2514873445034027, 0.29364871978759766, 0.4007970988750458, 
0.13580232858657837, -0.08141571283340454, -0.15909309685230255, -0.2336040437221527, 0.05122069641947746, -0.157226100564003, 0.1863420307636261, 
-0.0031026038341224194, 0.10424239933490753, -0.06759432703256607, 0.1499209702014923, -0.021389681845903397, 0.052388329058885574, -0.10737904161214828, 
-0.4138244688510895, -0.0634961724281311, -0.11226782202720642, 0.1253107339143753, -0.2228153795003891, 0.13623109459877014, 0.29970040917396545, 
-0.3718910217285156, -0.13335168361663818, 0.09190408885478973, 0.046062443405389786, 0.4211277365684509, -0.24399405717849731, 0.07590790092945099, 
-0.05426307022571564, -0.10275394469499588, 0.044764887541532516, -0.39840149879455566, -0.10171359032392502, -0.2795875072479248, -0.0374000184237957, 
-0.09005657583475113, 0.057401079684495926, -0.1322566419839859, 0.27105656266212463, 0.17612725496292114, 0.36330628395080566, 0.07120784372091293, 
0.16264523565769196, 0.11407017707824707, 0.06769479811191559, 0.1721661537885666, 0.23698841035366058, -0.3962979018688202, 0.019353482872247696, 
-0.11757632344961166, 0.07058248668909073, 0.05608602985739708, -0.15119338035583496, 0.20030981302261353, -0.13679902255535126, 0.10045076161623001, 
-0.23264522850513458, -0.043858736753463745, -0.02419562265276909, -0.042905982583761215, 0.07668467611074448, 0.0822455883026123, -0.16731074452400208, 
-0.2338901311159134, 0.11441493779420853, 0.6129692792892456, 0.12286484986543655, 0.07239782810211182, 0.15239456295967102, -0.08444638550281525, 
-0.12748080492019653, -0.031221389770507812, 0.14631040394306183, 0.07973167300224304, -0.17461036145687103, 0.15616078674793243, 0.2822915315628052, 
-0.28013601899147034, 0.3280101716518402, 0.027612067759037018, -0.10071594268083572, 0.464868426322937, 0.10968708992004395, 0.10152295231819153, 
0.04635229706764221, 0.11675344407558441, -0.07478367537260056, 0.04976826533675194, 0.49021193385124207, -0.31340786814689636, 0.23869602382183075, 
0.012312054634094238, 0.05196538195014, -0.03516906127333641, 0.06464707851409912, -0.09744834899902344, -0.1531836986541748, 0.002368554938584566, 
0.07654614746570587, -0.31230810284614563, 0.3222739100456238, 0.03893674910068512, 0.009853912517428398, 0.3659653067588806, 0.2484651505947113, 
0.09170033037662506, 0.22209730744361877, 0.15345096588134766, 0.02887951023876667, 0.21997864544391632, -0.015760229900479317, 0.12453994154930115, 
0.2253267765045166, -0.4960714280605316, 0.23889999091625214, 0.012280703522264957, -0.1984885334968567, -0.3457769453525543, -0.11813653260469437, 
0.10998088121414185, -0.008970005437731743, -0.10635353624820709, -0.35182151198387146, 0.045943062752485275, 0.3028242290019989, 0.06837965548038483, 
0.00024074045359157026, -0.06307703256607056, 0.3266926109790802, 0.18044136464595795, 0.3216969072818756, 0.2934724688529968, 0.1571899801492691, 
-0.1113964393734932, -0.05266176164150238, 0.06431623548269272, -0.1225142627954483, -0.04881344363093376, -0.01224160473793745, -0.1232667863368988, 
0.18304850161075592, -0.13291138410568237, 0.2731376886367798, 0.14478878676891327, -0.17763201892375946, 0.21433691680431366, -0.5178457498550415, 
0.32357868552207947, -0.025325026363134384, -0.06782799959182739, 0.10770637542009354, 0.4955061972141266, 0.10550200194120407, 0.11791858822107315, 
0.1614108383655548, 0.0005018509109504521, -0.08998345583677292, 0.08128394931554794, 0.26389676332473755, -0.47869962453842163, 0.20923691987991333, 
-0.3368573784828186, 0.03956496715545654, -0.01227586716413498, 0.012451485730707645, -0.37020066380500793, 0.1484554409980774, -0.19701901078224182, 
-0.04701513051986694, 0.13158050179481506, 0.08064734935760498, 0.8739424347877502, -0.16495925188064575, -0.0183260440826416, 0.18684928119182587, 
-0.23073816299438477, -0.2592252194881439, -0.0500083826482296, 0.2225288599729538, 0.22425320744514465, -0.04242241010069847, 0.19066716730594635, 
0.15316888689994812, 0.1677287220954895, -0.43453967571258545, 0.07306711375713348, -0.26478418707847595, 0.3534088134765625, -0.09276766330003738, 
0.24644553661346436, -0.2365337312221527, -0.19045399129390717, 0.007023785728961229, 0.3109983801841736, 0.1957680881023407, 0.008183310739696026, 
0.1846260279417038, 0.28166648745536804, -0.004269286058843136, 0.06051509082317352, -0.14226002991199493, 0.28603702783584595, 0.0453929603099823, 
0.05966764688491821, 0.1791980117559433, 0.2239406853914261, 0.18743091821670532, -0.037322431802749634, 0.10720184445381165, 0.08666783571243286, 
-0.29189571738243103, 0.30709803104400635, -0.12583164870738983, 0.21153759956359863, 0.38493531942367554, 0.170734241604805, -0.19183917343616486, 
-0.09401669353246689, 0.18146906793117523, -0.1055922880768776, 0.1048518493771553, -0.23212605714797974, -0.1846669763326645, -0.17542418837547302, 
0.17065343260765076, -0.14616608619689941, -0.05238454416394234, 0.17629189789295197, -0.27077019214630127, -0.18515653908252716, -0.07988005131483078, 
-0.2904050648212433, -0.05277286469936371, 0.029998399317264557, 0.07490310817956924, 0.11096394807100296, -0.01723712496459484, -0.027997344732284546, 
0.07588169723749161, 0.2511787712574005, -0.11048159003257751, 0.5149221420288086, -0.09925781935453415, -0.14628706872463226, 0.13049298524856567, 
0.0370439775288105, 0.07879842817783356, 0.22210654616355896, -0.04832112416625023, -0.06830943375825882, -0.05594571307301521, 0.2512863874435425, 
-0.12952357530593872, 0.031080342829227448, -0.10273103415966034, -0.008293574675917625, -0.030211102217435837, -0.010476683266460896, -0.07459210604429245, 
0.07967094331979752, -0.26837730407714844, 0.4035016894340515, 0.061926260590553284, 0.16268374025821686, -0.12472621351480484, 0.3268413841724396, 
-0.004318673629313707, 0.18374106287956238, 0.1334044337272644, 0.12492651492357254, 0.1004861369729042, -0.14305010437965393, 0.04555964097380638, 
0.09328127652406693, -0.2939784824848175, 0.10772992670536041, -0.202702134847641, 0.2084556668996811, 0.29530662298202515, 0.21889209747314453, 
-0.26045528054237366, -0.06643778085708618, -0.0016541867516934872, -0.08141127973794937, 0.10074666887521744, -0.13783328235149384, -0.08198583126068115, 
-0.11390648782253265, 0.16068503260612488, -0.37072762846946716, -0.022036796435713768, 0.06671212613582611, -0.19953741133213043, -0.28901395201683044, 
0.015319954603910446, -0.28673335909843445, -0.23036472499370575, -0.17771975696086884, -0.02515246719121933, 0.07666999101638794, 0.0301140695810318, 
0.030192632228136063, 0.0434737429022789, -0.04155926778912544, -0.2200823873281479, 0.5529158115386963, -0.1778968870639801, 0.06580416858196259, 
0.0073363762348890305, -0.040427107363939285, 0.06568841636180878, 0.1353280395269394, 0.01051505096256733, -0.025153890252113342, 0.13103662431240082, 
0.1747533679008484, -0.21750950813293457, 0.22896713018417358, -0.2576312720775604, 0.009246054105460644, -0.08420418202877045, -0.1792418509721756, 
0.033192187547683716, -0.00264735403470695, -0.22302672266960144, 0.3121955990791321, -0.05669229105114937, 0.05098576843738556, 0.027379686012864113, 
0.273833304643631, 0.059307761490345, 0.2554372251033783, 0.14227822422981262, 0.16880349814891815, 0.23647955060005188, -0.024745337665081024, 
-0.024830544367432594, -0.12174416333436966, 0.030358368530869484, 0.18828840553760529, -0.01955808326601982, 0.521243691444397, 0.02912062220275402, 
0.06342873722314835, 0.12919658422470093, -0.1953228861093521, 0.19645290076732635, -0.15458957850933075, 0.20818327367305756, -0.15777114033699036, 
-0.3990735411643982, 0.08466596901416779, 0.14110104739665985, 0.23581361770629883, 0.0011141108116135001, 0.32486164569854736, -0.11786705255508423, 
0.07635542750358582, -0.07132977247238159, -0.130127415060997, -0.006215361412614584, -0.07811610400676727, -0.12251598387956619, -0.049446411430835724, 
0.1993906944990158, 0.09837958216667175, -0.14514197409152985, 0.39214378595352173, 0.05356796085834503, 0.40489932894706726, -0.13812978565692902, 
-0.03022821992635727, 0.18899722397327423, -0.002603915287181735, -0.00820846576243639, -0.019757719710469246, 0.061891958117485046, -0.11065071076154709, 
-0.14946706593036652, 0.12200373411178589, -0.1928921490907669, -0.02488594315946102, -0.020816734060645103, -0.10266050696372986, -0.12845885753631592, 
-0.3928070664405823, 0.04290258139371872, 0.3715595602989197, -0.32440635561943054, -0.09833706170320511, -0.037829719483852386, -0.024100903421640396, 
0.15057219564914703, 0.23743446171283722, 0.06660275906324387, -0.07509373128414154, -0.22668887674808502, -0.06174397096037865, -0.3058374524116516, 
0.11259415745735168, -0.06529118120670319, -0.38037702441215515, 0.15110142529010773, -0.4176018536090851, -0.004871921613812447, -0.3784835636615753, 
-0.2887592315673828, 0.1201387494802475, -0.05024449899792671, 0.48159459233283997, -0.151865154504776, 0.06597893685102463, -0.15964187681674957, 
0.11377391964197159, 0.16344673931598663, -0.0011489386670291424, -0.08383329957723618, -0.11352713406085968, -0.008999519050121307, 0.02984127216041088, 
-0.030232993885874748, 0.02745288424193859, 0.1743500828742981, 0.03882903978228569, 0.1331406533718109, 0.14191794395446777, -0.04209962487220764, 
-0.04585287719964981, -0.2264220118522644, 0.13698050379753113, -0.013370055705308914, -0.5610257387161255, 0.08381161838769913, -0.21241161227226257, 
0.025841182097792625, 0.026849066838622093, -0.1521034985780716, 0.12514415383338928, -0.0857202485203743, -0.10799019783735275, -0.15517586469650269, 
0.2674700617790222, 0.03633977100253105, -0.250664085149765, -0.14589060842990875, -0.024677857756614685, -0.014144168235361576, -0.10067471116781235, 
-0.06306523084640503, 0.27885371446609497, 0.04469522461295128, -0.24036315083503723, 0.22578102350234985, -0.10930202901363373, -0.13513390719890594, 
-0.07830221205949783, 0.042949698865413666, -0.3744593560695648, 0.027533233165740967, 0.043871209025382996, 0.02178003080189228, -0.2470974326133728, 
0.3471165597438812, 0.1009625494480133, 0.1558099240064621, -0.18582148849964142, 0.09938398748636246, 0.07512664049863815, -0.25595757365226746, 
0.17166104912757874, -0.042515791952610016, 0.01999516785144806, -0.04252832382917404, -0.2325941026210785, 0.053925950080156326, 0.17620119452476501, 
0.06627116352319717, -0.0035161729902029037, 0.11263919621706009, 0.32601073384284973, 0.09123589843511581, 0.0830865427851677, 0.22016280889511108, 
-0.07659928500652313, 0.07209432125091553, 0.2716354429721832, -0.2751616835594177, -0.23426581919193268, -0.19644346833229065, -0.1374976485967636, 
-0.06989914178848267, 0.09272205084562302, -0.1066490113735199, -0.0888407975435257, -0.22347500920295715, 0.2404477596282959, 0.026735985651612282, 
-0.052392300218343735, 0.054827868938446045, -0.040111176669597626, 0.1570981740951538, -0.3190358877182007, 0.1554417610168457, -0.1383998692035675, 
0.03643229231238365, 0.29452812671661377, 0.12862519919872284, 0.1260615736246109, 0.14473366737365723, -0.11125118285417557, 0.1921834498643875, 
0.28889647126197815, 0.11956363916397095, -0.28661811351776123, -0.02514856494963169, -0.2934591770172119, -0.0965958759188652, -0.10073474049568176, 
0.03593067452311516, -0.07223072648048401, -0.23439665138721466, -0.008180839940905571, 0.10941559076309204, -0.09503471106290817, 0.13363605737686157, 
-0.07104718685150146, 0.44211938977241516, 0.11575012654066086, 0.1266632080078125, 0.27535489201545715, -0.12457424402236938, 0.21539661288261414, 
-0.20768806338310242, 0.30465319752693176, 0.11330913007259369, -0.1696091741323471, 0.09760444611310959, -0.4874228835105896, 0.23871619999408722, 
0.024871814996004105, -0.12342683225870132, 0.13057294487953186, 0.4079180657863617, -0.10384691506624222, 0.37893301248550415, -0.18530070781707764, 
0.18956439197063446, -0.023700501769781113, -0.027613870799541473, -0.07478263974189758, -0.06884806603193283, -0.09721249341964722, -0.15136495232582092, 
-0.002770524937659502, -0.12963944673538208, 0.3055782616138458, -0.02642855979502201, -0.147450253367424, -0.06223297864198685, 0.24456602334976196, 
-0.010136066935956478, -0.19749945402145386, -0.007119451649487019, 0.09993138909339905, 0.14198845624923706, -0.3159531056880951, -0.07329556345939636, 
-0.22535106539726257, 0.10856661200523376, -0.03565765172243118, -0.023547688499093056, 0.3115207850933075, 0.12015052884817123, 0.05395238474011421, 
-0.03464864566922188, 0.34479671716690063, 0.1807974874973297, -0.014467102475464344, 0.02764146775007248, -0.07290449738502502, -0.1632523387670517, 
0.11446046084165573, 0.014200636185705662, 0.07437316328287125, -0.32148411870002747, 0.11837145686149597, 0.19643835723400116, 0.01330900751054287, 
-0.1463821828365326, -0.09324268996715546, -0.15521711111068726, -0.0668536126613617, 0.015880245715379715, -0.23446062207221985, 0.39739298820495605, 
-0.2767556309700012, 0.082579106092453, -0.32016342878341675, -0.16856688261032104, -0.2588886320590973, -0.16039404273033142, 0.0947147086262703, 
-0.01201297715306282, -0.23332595825195312, -0.07306218892335892, 0.1941368579864502, -0.24046143889427185, 0.48093900084495544, -0.35136446356773376, 
0.16593743860721588, -0.1376093029975891, 0.07309402525424957, -0.0425424687564373, 0.1820305436849594, 0.0492977611720562, 0.22431714832782745, 
0.16544023156166077, 0.029453733935952187, 0.0012379405088722706, -0.31807610392570496, 0.12550996243953705, -0.02867872826755047, -0.1668650358915329, 
-0.1672300398349762, 0.028736557811498642, -0.11634412407875061, -0.06646040081977844, 0.017505323514342308, -0.13125576078891754, 0.04184146970510483, 
0.04013882204890251, -0.08700055629014969, 0.0327274389564991, -0.057507723569869995, 0.09882175922393799, -0.28127947449684143, 0.07838030159473419, 
-0.027061834931373596, 0.16105586290359497, -0.12560352683067322, -0.12629283964633942, -0.014341967180371284, -0.17203959822654724, -0.12112335860729218, 
0.13440576195716858, -0.3028179407119751, -0.12940190732479095, -0.22470134496688843, 0.08724821358919144, -0.2185121774673462, -0.01835237815976143, 
-0.051942549645900726, -0.04682537168264389, 0.004274396225810051, -0.06699535250663757, 0.11065835505723953, -0.14205889403820038, 0.1580929309129715, 
-0.524747908115387, 0.13798251748085022, 0.004939810838550329, -0.19229862093925476, 0.12205199152231216, 0.16296644508838654, -0.13959982991218567, 
0.10010475665330887, 0.0266707893460989, 0.10431170463562012, 0.014223792590200901, 0.06883029639720917, -0.12524831295013428, -0.5469703078269958, 
0.005933000240474939, -0.21708250045776367, -0.17680758237838745, -0.052157800644636154, 0.04278944805264473, -0.22232356667518616, 0.16122640669345856, 
-0.12423112988471985, -0.023865478113293648, -0.007368675898760557, 0.16826912760734558, 0.38181865215301514, -0.003878906136378646, 0.007226091809570789, 
0.08379950374364853, -0.1438603550195694, -0.2431216537952423, 0.08869891613721848, -0.003524820553138852, 0.11809831112623215, 0.02116125263273716, 
0.2652953863143921, -0.06854692846536636, 0.2117423713207245, -0.3298054039478302, 0.10368679463863373, -0.20168529450893402, 0.33415547013282776, 
-0.0391853041946888, 0.1949905902147293, -0.28305816650390625, -0.17272643744945526, 0.14227809011936188, 0.30126431584358215, 0.04646589234471321, 
0.15240910649299622, 0.056773390620946884, 0.21936975419521332, -0.0790017619729042, -0.058153968304395676, -0.14236131310462952, 0.13141441345214844, 
-0.004454096779227257, 0.23627761006355286, -0.1729508638381958, 0.0008709572721272707, -0.513052761554718, -0.10656866431236267, 0.0940961241722107, 
0.41403836011886597, -0.40312904119491577, -0.05583987385034561, 0.03923170641064644, -0.22527925670146942, 0.09690055251121521, -0.0002880351385101676, 
-0.24622584879398346, 0.045659612864255905, 0.0416751429438591, 0.18004189431667328, -0.0597042441368103, 0.11604956537485123, 0.4297753870487213, 
-0.25077420473098755, 0.43399402499198914, -0.32298707962036133, -0.05301937088370323, -0.04114843159914017, 0.05720204859972, -0.12111148238182068, 
0.10028760880231857, 0.1587880253791809, -0.46816402673721313, -0.03450233116745949, -0.02236611768603325, -0.11914947628974915, -0.15060432255268097, 
-0.18169358372688293, 0.2301449477672577, -0.34353572130203247, -0.17502249777317047, -0.09377700835466385, -0.04711296781897545, -0.08526978641748428, 
-0.03652546554803848, 0.09172109514474869, -0.0025894008576869965, -0.016240889206528664, 0.15914984047412872, 0.15883570909500122, 0.39634811878204346, 
-0.1439172923564911, -0.07179896533489227, -0.03533157706260681, -0.04398127272725105, 0.4236293137073517, -0.03679991886019707, 0.4442077875137329, 
-0.019056987017393112, -0.21104325354099274, 0.07867000252008438, 0.17056655883789062, 0.10636335611343384, 0.032438475638628006, 0.038688112050294876, 
0.09502620249986649, 0.21603482961654663, 0.4151539206504822, 0.01614384725689888, 0.03213929012417793, -0.017272647470235825, -0.08284968882799149, 
-0.0796423926949501, -0.23822662234306335, -0.2203090786933899, -0.17595653235912323, -0.1195242628455162, -0.03441585600376129, 0.25309082865715027, 
0.279707133769989, -0.22628295421600342, 0.1219782680273056, 0.10604789108037949, -0.15287332236766815, 0.09805771708488464, 0.10237584263086319, 
-0.25494763255119324, 0.09031811356544495, 0.060641683638095856, -0.09074535220861435, -0.01218257937580347, 0.23823358118534088, -0.04091126471757889, 
-0.09313063323497772, -0.08684151619672775, -0.23023787140846252, -0.23130841553211212, -0.10627089440822601, -0.16853433847427368, 0.16013416647911072, 
0.10174309462308884, -0.01429319754242897, -0.09597420692443848, -0.010980497114360332, -0.2875297963619232, 0.7511598467826843, -0.1640329211950302, 
-0.07474028319120407, 0.04976402595639229, 0.04428860917687416, 0.314188688993454, -0.144840806722641, 0.006081163417547941, 0.16929826140403748, 
0.0726209282875061, 0.10979343950748444, -0.29210105538368225, 0.13370679318904877, 0.06167993322014809, -0.07260608673095703, -0.07284078747034073, 
-0.16588090360164642, -0.1834036260843277, -0.20548371970653534, -0.1747516244649887, 0.2428465187549591, -0.001168027170933783, -0.025265051051974297, 
-0.00975861307233572, 0.15619011223316193, 0.05483454465866089, 0.19632354378700256, -0.06681528687477112, 0.08877495676279068, -0.06896066665649414, 
-0.22081774473190308, 0.15765604376792908, -0.2191743552684784, 0.35012829303741455, -0.16968148946762085, -0.1195693165063858, 0.31563565135002136, 
0.0537879541516304, -0.5461287498474121, 0.03781340271234512, -0.2627500295639038, 0.026419082656502724, -0.15259703993797302, 0.0771748349070549, 
0.043524667620658875, -0.09509291499853134, 0.3426152765750885, -0.25929734110832214, 0.2926233410835266, -0.04143013432621956, 0.15568317472934723, 
-0.049337808042764664, 0.28600308299064636, -0.05797767639160156, 0.020054148510098457, 0.08195663243532181, -0.07218246161937714, -0.0440778024494648, 
-0.5547730922698975, 0.08784516155719757, -0.07244524359703064, 0.07715687900781631, 0.3915014863014221, 0.19426672160625458, 0.1357499063014984, 
-0.0961814820766449, 0.016145965084433556, 0.09957268089056015, -0.25971290469169617, -0.1277136504650116, -0.11167040467262268, 0.6115676164627075, 
-0.3344461917877197, 0.17404192686080933, -0.19171488285064697, 0.13314864039421082, -0.28653684258461, 0.22198688983917236, -0.05299678444862366, 
-0.06488274782896042, -0.45270290970802307, -0.0860341414809227, 0.024764541536569595, -0.10506445169448853, -0.35970547795295715, -0.046859778463840485, 
0.010949534364044666, 0.2222047597169876, -0.08877053111791611, -0.14407028257846832, -0.07664839923381805, 0.06770257651805878, 0.11508934199810028, 
0.08558057993650436, -0.07221312075853348, -0.1311771422624588, -0.18829208612442017, -0.105115607380867, 0.02262989804148674, 0.005177272483706474, 
0.1598786860704422, 0.029498251155018806, 0.2191535383462906, -0.08902552723884583, 0.008794715628027916, 0.007312845904380083, 0.06908474117517471, 
0.05794767662882805, 0.0515856072306633, -0.2695203125476837, 0.12807771563529968, 0.1619570106267929, -0.023578060790896416, -0.1563265025615692, 
0.19797997176647186, -0.06638816744089127, -0.07436416298151016, 0.04000730812549591, -0.32223111391067505, -0.2967415750026703, -0.10753428190946579, 
-0.18510574102401733, 0.2875545024871826, 0.10716140270233154, -0.08919093012809753, -0.06248684972524643, 0.16563914716243744, -0.2698131799697876, 
0.5605734586715698, -0.08425504714250565, 0.0109019186347723, 0.21045510470867157, 0.06468977779150009, 0.09849030524492264, -0.12721766531467438, 
-0.20022538304328918, 0.15689228475093842, -0.14939352869987488, 0.037934597581624985, -0.09717212617397308, 0.09868056327104568, 0.019719233736395836, 
-0.0026812548749148846, -0.16062748432159424, -0.17248544096946716, -0.050316814333200455, 0.07496974617242813, -0.10355310887098312, 0.20601613819599152, 
-0.04272656515240669, -0.12054790556430817, -0.0974741205573082, 0.14778319001197815, 0.2051459401845932, -0.0037363977171480656, 0.03318241983652115, 
-0.015853850170969963, 0.05884722247719765, -0.05138658732175827, 0.010468042455613613, -0.3648682236671448, 0.11638230830430984, -0.19502264261245728, 
-0.08331820368766785, 0.05991379916667938, -0.04069498926401138, -0.24937774240970612, -0.05838917940855026, -0.2399599254131317, 0.229137122631073, 
-0.212970569729805, 0.11820088326931, 0.13163912296295166, -0.40618181228637695, 0.4829769730567932, 0.08829931914806366, 0.4622849225997925, 
-0.13457129895687103, 0.24409636855125427, -0.003317216644063592, 0.09993860870599747, 0.0761067196726799, -0.2504047155380249, -0.26177293062210083, 
-0.042820513248443604, -0.30666300654411316, -0.3243902325630188, 0.2240520566701889, 0.045338284224271774, -0.08152904361486435, 0.2140289843082428, 
0.027694998309016228, 0.325067937374115, -0.0028360052965581417, 0.07518903911113739, 0.3006949722766876, -0.10515782982110977, 0.16322503983974457, 
-0.20045946538448334, -0.15731726586818695, 0.018018726259469986, -0.06214283034205437, -0.25629565119743347, -0.25518468022346497, 0.024948332458734512, 
0.2361181527376175, -0.11691869795322418, -0.15250252187252045, -0.28347545862197876, -0.023753860965371132, 0.06057462841272354, -0.18977369368076324, 
-0.1788959503173828, 0.05127911642193794, 0.025391753762960434, -0.023033035919070244, -0.1658778041601181, 0.12253811955451965, -0.22737249732017517, 
0.17768257856369019, -0.047052592039108276, 0.37771421670913696, 0.005772995296865702, 0.21506378054618835, 0.1636163741350174, 0.13917067646980286, 
0.13315914571285248, -0.1694556623697281, 0.26501673460006714, -0.054093874990940094, -0.4172914922237396, 0.03265053406357765, -0.31954067945480347, 
0.01466665230691433, -0.02787718176841736, 0.07406657934188843, 0.06270728260278702, 0.5623011589050293, 0.060421109199523926, 0.002623564563691616, 
-0.06273309886455536, 0.24927540123462677, -0.005935474298894405, -0.039830081164836884, 0.11010825634002686, -0.0984208732843399, -0.16640116274356842, 
-0.1140216663479805, 0.07870661467313766, -0.007287433836609125, -0.03737097233533859, 0.16185230016708374, -0.037826333194971085, 0.020787594839930534, 
0.4841030538082123, -0.0002871530596166849, -0.12785017490386963, -0.07806313037872314, -0.06283579021692276, 0.10151465237140656, -0.28114402294158936, 
-0.16127867996692657, -0.02878176048398018, 0.542671263217926, -0.10224854201078415, -0.008048411458730698, 0.1140458881855011, 0.261688768863678, 
-0.2744487524032593, 0.13108937442302704, 0.261262983083725, 0.10826300084590912, -0.21911266446113586, -0.022703753784298897, 0.06826460361480713, 
-0.13482566177845, -0.10916931182146072, 0.023464128375053406, 0.12251512706279755, -0.11723891645669937, -0.05512552335858345, -0.052350595593452454, 
-0.03366709128022194, -0.05160162225365639, 0.24886898696422577, -0.09717650711536407, -0.20017045736312866, 0.05561701953411102, 0.10589040815830231, 
-0.4216177761554718, 0.21711865067481995, -0.22411535680294037, 0.190702423453331, 0.5735409259796143, 0.14549915492534637, -0.38592734932899475, 
-0.26945924758911133, 0.15559621155261993, 0.0003512720577418804, -0.007909429259598255, -0.01839604601264, -0.10069037973880768, -0.40663594007492065, 
0.30471476912498474, -0.42251572012901306, -0.014008783735334873, 0.1323317438364029, -0.4331890046596527, -0.23806895315647125, -0.21147872507572174, 
-0.3145561218261719, -0.1741812527179718, -0.1696886271238327, -0.11682997643947601, 0.014421230182051659, 0.16767831146717072, -0.09951046109199524, 
0.14434964954853058, 0.272255003452301, -0.30326953530311584, 0.8779683113098145, -0.19461704790592194, -0.03615246340632439, 0.07735738903284073, 
0.169174924492836, 0.1508644074201584, 0.09932003170251846, 0.00449927244335413, -0.09509215503931046, 0.10928487777709961, 0.22471170127391815, 
-0.07632477581501007, -0.014035100117325783, -0.13930368423461914, 0.257147878408432, -0.2226446270942688, -0.09445260465145111, -0.04152373969554901, 
-0.10314713418483734, -0.33912864327430725, 0.3383907377719879, 0.24040073156356812, 0.011095128953456879, -0.06983723491430283, 0.3367885649204254, 
0.12559601664543152, 0.43095555901527405, 0.0008558405097573996, 0.01155377272516489, -0.09969916939735413, -0.11055564135313034, 0.2228178232908249, 
-0.12471485137939453, 0.20993411540985107, -0.22850069403648376, -0.0900009274482727, 0.18287885189056396, 0.16010086238384247, -0.41692522168159485, 
-0.34833699464797974, -0.3497660756111145, 0.06422964483499527, 0.06499333679676056, 0.1656799018383026, 0.029018044471740723, 0.14694413542747498, 
0.1730339676141739, 0.40657368302345276, 0.09134180843830109, -0.00468932231888175, 0.22961562871932983, -0.19778314232826233, 0.017475435510277748, 
-0.003728695912286639, -0.19177503883838654, -0.5140294432640076, -0.25321051478385925, -0.13305728137493134, -0.3224965035915375, 0.02204463817179203, 
-0.24556496739387512, 0.022777974605560303, 0.16314201056957245, -0.1510895937681198, 0.22485630214214325, -0.2393316626548767, 0.0015902095474302769, 
0.2949973940849304, -0.2077084183692932, 0.22719742357730865, -0.05465690791606903, 0.14737381041049957, 0.19866308569908142, 0.3483600318431854, 
-0.25305604934692383, -0.07916320115327835, -0.14275890588760376, 0.13067884743213654, 0.36376953125, -0.07311046123504639, -0.23686350882053375, 
-0.15072011947631836, -0.09398482739925385, -0.1485435962677002, 0.06868823617696762, 0.11202814429998398, 0.10418776422739029, -0.04514709487557411, 
-0.04127863794565201, 0.17323437333106995, -0.05287187546491623, 0.069823257625103, -0.3268146812915802, 0.26815882325172424, 0.07131339609622955, 
-0.027372807264328003, 0.008016184903681278, 0.30820581316947937, -0.25864216685295105, 0.13305765390396118, -0.1439196765422821, -0.41072651743888855, 
-0.286819189786911, 0.3694325089454651, 0.0617007277905941, 0.028875859454274178, -0.13804487884044647, -0.06818361580371857, 0.13247685134410858, 
-0.0102958669885993, 0.38543593883514404, -0.25035324692726135, 0.5119039416313171, 0.09266987442970276, -0.12891769409179688, 0.26118507981300354, 
0.4078842103481293, -0.002412346424534917, 0.21510900557041168, 0.12837132811546326, 0.17302308976650238, 0.17908859252929688, -0.07073406130075455, 
-0.05718254670500755, 0.10616812109947205, -0.21815530955791473, -0.17471998929977417, 0.19512005150318146, -0.8568287491798401, 0.029210727661848068, 
0.017707645893096924, -0.09581323713064194, -0.27095940709114075, -0.10366492718458176, -0.11367621272802353, 0.061756912618875504, 0.04588516801595688, 
-0.2235611081123352, -0.25391000509262085, 0.060134146362543106, 0.021672168746590614, 0.06996069103479385, -0.12310183048248291, 0.268183171749115, 
0.12617026269435883, 0.16426511108875275, -0.024309419095516205, 0.2402632236480713, -0.509778618812561, -0.15160003304481506, 0.0861559808254242, 
-0.00344946444965899, -0.5322187542915344, -0.07118696719408035, -0.4218777120113373, -0.000540279084816575, 0.022077791392803192, -0.0069269598461687565, 
0.09267645329236984, -0.2557748556137085, 0.13655981421470642, -0.030417805537581444, 0.0883217379450798, 0.18637077510356903, -0.25571441650390625, 
-0.12926457822322845, 0.282483845949173, 0.14207813143730164, 0.17441211640834808, -0.27249979972839355, -0.120961993932724, -0.1772690862417221, 
-0.010242711752653122, -0.06172407418489456, -0.3022499084472656, -0.409061074256897, 0.007855361327528954, 0.14857296645641327, -0.19306078553199768, 
0.12588953971862793, -0.18898198008537292, 0.029896490275859833, 0.2995085120201111, 0.35198986530303955, 0.13021217286586761, 0.2865561246871948, 
0.21229200065135956, -0.14938931167125702, 0.25152748823165894, 0.057461030781269073, -0.2454853057861328, -0.060891248285770416, -0.35531866550445557, 
0.14843878149986267, 0.10154058784246445, -0.23489686846733093, 0.11473382264375687, -0.15571829676628113, 0.15819573402404785, -0.06861810386180878, 
-0.14557881653308868, -0.21569831669330597, 0.007493161130696535, 0.01936485804617405, -0.11143248528242111, -0.0430673249065876, -0.2674567699432373, 
0.12686875462532043, 0.30183595418930054, 0.1832703799009323, 0.1490662693977356, 0.34131643176078796, -0.03426176309585571, -0.036151617765426636, 
0.07386578619480133, 0.09078479558229446, 0.019202357158064842, -0.12454745173454285, -0.03293824940919876, 0.15995439887046814, 0.22157418727874756, 
-0.023351406678557396, -0.11006905138492584, 0.14096100628376007, 0.2080215960741043, -0.32418400049209595, 0.4111287593841553, 0.025628119707107544, 
0.1800992488861084, 0.40052616596221924, 0.08245208859443665, -0.33223971724510193, -0.04749961197376251, -0.005850727669894695, 0.085261270403862, 
-0.039325516670942307, -0.18083158135414124, -0.07129640132188797, -0.5286019444465637, 0.22602702677249908, -0.6681307554244995, -0.019187388941645622, 
0.004205101169645786, -0.37181714177131653, -0.36412280797958374, -0.18513986468315125, -0.2631806433200836, -0.040793534368276596, -0.16840291023254395, 
0.07449426501989365, 0.10084210336208344, 0.028204556554555893, 0.02811933495104313, 0.02916339784860611, 0.21316920220851898, -0.1679762601852417, 
0.4979129433631897, -0.149854838848114, 0.025315415114164352, 0.03837410733103752, 0.08893930166959763, -0.05298607051372528, 0.2342642992734909, 
0.08192528784275055, -0.11884795129299164, 0.07277149707078934, 0.4508970081806183, -0.15704578161239624, 0.057127904146909714, -0.1603045016527176, 
-0.0483672171831131, -0.199313685297966, -0.06004011631011963, -0.032920971512794495, 0.10243602097034454, -0.21988452970981598, 0.4104088246822357, 
0.10470817983150482, 0.284378319978714, 0.06560102850198746, 0.35522589087486267, 0.10067475587129593, 0.34526240825653076, 0.17238429188728333, 
0.00986996479332447, 0.49525755643844604, -0.04225090891122818, 0.2044106423854828, 0.023127762600779533, -0.09916882961988449, 0.22733213007450104, 
-0.08303657174110413, 0.2672787606716156, 0.12392478436231613, 0.08577895909547806, 0.18878401815891266, -0.13106372952461243, 0.1682768315076828, 
0.12090906500816345, 0.1237051859498024, -0.024772167205810547, 0.14428125321865082, -0.062485042959451675, 0.25086507201194763, -0.0400720052421093, 
-0.031508345156908035, 0.005255396477878094, -0.08377330005168915, -0.1648697853088379, -0.18853002786636353, -0.17228566110134125, -0.08004126697778702, 
0.10198845714330673, -0.187254399061203, 0.2765919864177704, 0.11648896336555481, 0.014868846163153648, 0.012877320870757103, 0.25053682923316956, 
0.06870225071907043, 0.1763458400964737, -0.07747502624988556, 0.11463271826505661, 0.20315201580524445, -0.2724328339099884, 0.04587830603122711, 
-0.18628127872943878, -0.005697357468307018, -0.01478303037583828, -0.13875454664230347, 0.16770364344120026, -0.030960269272327423, 0.0027072548400610685, 
0.04208496958017349, 0.17328684031963348, 0.027180759236216545, -0.1162819042801857, -0.04796259477734566, -0.006864508613944054, -0.16944527626037598, 
0.06318496912717819, 0.15535001456737518, -0.031767338514328, -0.07674811780452728, 0.17225036025047302, -0.08680353313684464, -0.06143598258495331, 
0.03787922486662865, -0.18412058055400848, -0.032507847994565964, -0.09277661144733429, -0.2584606409072876, 0.01587994582951069, -0.2796040177345276, 
-0.14113087952136993, -0.07403033971786499, -0.13149690628051758, -0.03846696764230728, 0.021479304879903793, 0.10082463175058365, 0.30531075596809387, 
-0.12197569012641907, -0.030624214559793472, -0.017534129321575165, 0.1315530687570572, -0.23855778574943542, 0.08651342988014221, -0.026167720556259155, 
0.09226644784212112, -0.05923304334282875, -0.0867755338549614, 0.06231041997671127, -0.06298582255840302, 0.22091253101825714, -0.01993848755955696, 
0.34433242678642273, 0.05836453288793564, 0.05375577136874199, 0.14205381274223328, -0.02763918600976467, 0.1642550379037857, 0.000614947930444032, 
0.05716119334101677, -0.1262948215007782, -0.1467413604259491, 0.10723058879375458, 0.0669226199388504, -0.18549329042434692, 0.31328466534614563, 
-0.07570880651473999, 0.0869288519024849, -0.250819593667984, -0.15426135063171387, -0.08225120604038239, 0.2287205457687378, 0.10423506051301956, 
0.23276762664318085, -0.041318055242300034, -0.3470842242240906, -0.0027166870422661304, 0.11289943009614944, 0.1905694603919983, 0.10166816413402557, 
0.28394952416419983, -0.15112626552581787, -0.019645247608423233, -0.20655600726604462, -0.0632154792547226, -0.001895607216283679, -0.19516003131866455, 
-0.0033335043117403984, 0.0916774570941925, -0.01303390134125948, 0.18084454536437988, -0.02492162026464939, 0.11230169981718063, 0.4892091453075409, 
-0.22895829379558563, 0.33716845512390137, 0.07821110635995865, 0.14544305205345154, 0.014140099287033081, 0.04998720437288284, -0.0018876173999160528, 
0.07062015682458878, -0.22243960201740265, -0.06980918347835541, -0.12030725181102753, -0.05439133569598198, 0.50422203540802, -0.43185827136039734, 
-0.03385687246918678, -0.4128814935684204, 0.01680779829621315, -0.17464159429073334, -0.08487574011087418, -0.229208305478096, -0.034331660717725754, 
-0.01319763995707035, 0.1270117163658142, 0.13152608275413513, 0.23703789710998535, 0.13221606612205505, -0.11110531538724899, 0.17754723131656647, 
0.3044900894165039, 0.19037677347660065, 0.09743267297744751, -0.11399374157190323, 0.059434086084365845, -0.0701540857553482, -0.2038804590702057, 
0.11539190262556076, -0.18406617641448975, 0.13215814530849457, 0.43075689673423767, -0.3764071762561798, 0.07052698731422424, 0.18157954514026642, 
0.18119479715824127, -0.21363197267055511, -0.03414289280772209, 0.19284358620643616, 0.10627782344818115, 0.1419491469860077, 0.06108816713094711, 
0.20143498480319977, 0.13205300271511078, 0.2141169011592865, -0.035910170525312424, 0.13595888018608093, -0.05571162328124046, 0.3019435405731201, 
-0.12058109790086746, 0.33253756165504456};

#endif

#endif
