// Numpy array shape [128]
// Min -0.124092296
// Max 0.103497684
// Number of zeros 5

#ifndef TRANSFORMERS_2_LINEAR_3_BIAS_H_
#define TRANSFORMERS_2_LINEAR_3_BIAS_H_

#ifndef __SYNTHESIS__
model_default_t transformers_2_linear_3_bias[128];
#else
model_default_t transformers_2_linear_3_bias[128] = {0.12329626083374023, 0.26689934730529785, 0.28833773732185364, -0.1769590824842453, -0.482349693775177, 0.09777797758579254, 
0.3048316538333893, -0.0017310082912445068, -0.14905241131782532, 0.09453926980495453, -0.20189575850963593, -0.3867885172367096, -0.44021421670913696, 
0.2907041311264038, 0.22153881192207336, -0.6468591690063477, 0.2512376010417938, -0.21840894222259521, 0.12674051523208618, -0.25458046793937683, 
0.28425028920173645, 0.052718546241521835, 0.3255806565284729, 1.0331729650497437, -0.17119373381137848, 0.15652617812156677, 0.22493937611579895, 
-0.03724968433380127, 0.029248787090182304, -0.11471462994813919, 0.2330627143383026, 0.21995362639427185, -0.07177546620368958, 0.0794094130396843, 
0.18612468242645264, -0.2111327052116394, -0.20451021194458008, 0.06500113010406494, -0.29879894852638245, 0.21100467443466187, 0.2096630483865738, 
0.94936603307724, 0.31186777353286743, 0.3845739960670471, -0.10650584846735, -0.051660917699337006, -1.085035800933838, 0.18240515887737274, 
0.1329009234905243, 0.3945162296295166, -0.4602874219417572, -0.23560845851898193, -0.21642009913921356, 0.2849424183368683, -0.2431326061487198, 
0.1811242699623108, 0.1608034074306488, -0.18058642745018005, -0.15000620484352112, 0.012822583317756653, -0.3184325098991394, 0.4232912063598633, 
0.27640700340270996, 0.0084221251308918, 0.355020135641098, -0.14528314769268036, 0.2987075746059418, 0.25301897525787354, 0.7326088547706604, 
0.03611815348267555, 0.26990291476249695, 0.016797766089439392, 0.29099345207214355, 0.213628351688385, -0.199616476893425, -0.2967732846736908, 
0.2660355865955353, -0.1423603594303131, -0.19689927995204926, 0.2994573414325714, 0.25535115599632263, 0.2560385763645172, 0.24785080552101135, 
-0.19143366813659668, -0.25767096877098083, -0.2677088677883148, 0.04126870632171631, 0.25134676694869995, 0.10955509543418884, 0.26080283522605896, 
-0.10069363564252853, -0.32453224062919617, 0.3631223738193512, 0.28821608424186707, -0.23831285536289215, -0.2992841601371765, 0.2512070834636688, 
-0.16474342346191406, -0.2959893047809601, 0.23917385935783386, -0.2818697392940521, 0.26189690828323364, 0.2339896708726883, 0.019581753760576248, 
0.2144070714712143, 0.04952455312013626, -0.2227175533771515, -0.328866571187973, 0.21147102117538452, -0.19411838054656982, -0.0666646957397461, 
0.25553590059280396, 0.19907118380069733, 0.3794354796409607, 0.23524774610996246, -0.2605157494544983, 0.20579364895820618, 0.31326207518577576, 
0.7088783383369446, 0.495056688785553, 0.25941526889801025, -0.29758280515670776, -0.07948867976665497, 0.2343907356262207, 0.10247522592544556, 
0.37717771530151367, 0.23131702840328217, 0.3045324683189392};

#endif

#endif
