0.1173945888876915, -0.10433415323495865, 0.035116299986839294, -0.11508352309465408, -0.0703672543168068, -0.11927427351474762, -0.11326521635055542, -0.12571348249912262, -0.028437424451112747, -0.10309208184480667, 0.03835878521203995, 0.10003021359443665, 0.04944790527224541, 0.11344527453184128, -0.023372692987322807, -0.00701684458181262, 0.07957415282726288, 0.07271701097488403, -0.04246338829398155, 0.12621448934078217, -0.048156578093767166, 0.05140845850110054, -0.0918937548995018, 0.09972105920314789, 0.03992142900824547, -0.009320037439465523, 0.04807836562395096, -0.033036768436431885, -0.08368244767189026, -0.10231954604387283, -0.029001567512750626, 0.10620241612195969, -0.025387097150087357, -0.056342702358961105, 0.1207791119813919, 0.12440777570009232, 0.011843112297356129, 0.07634460926055908, 0.005850434768944979, 0.09094369411468506, -0.10033223778009415, 0.03869186341762543, -0.07534027099609375, 0.12998361885547638, -0.12043370306491852, 0.04459824040532112, 0.050297949463129044, -0.07335855811834335, -0.07996995002031326, -0.003247467800974846, -0.06712883710861206, 0.05703628808259964, 0.0031164574902504683, 0.07029034197330475, 0.10036145150661469, 0.025410406291484833, -0.07851691544055939, 0.09118595719337463, 0.02444005012512207, 0.03227141126990318, 0.029933035373687744, -0.011420679278671741, 0.025811567902565002, -0.09205538779497147