// Numpy array shape [64]
// Min -0.15025546
// Max 0.13764668
// Number of zeros 0

#ifndef TRANSFORMERS_1_SELF_ATTENTION_OUT_BIAS_H_
#define TRANSFORMERS_1_SELF_ATTENTION_OUT_BIAS_H_

#ifndef __SYNTHESIS__
model_default_t transformers_1_self_attention_out_bias[64];
#else
model_default_t transformers_1_self_attention_out_bias[64] = {0.11814583837985992, -0.12635952234268188, 0.040526725351810455, -0.09989143162965775, -0.10761610418558121, -0.1502554565668106, 
-0.10520399361848831, -0.13827113807201385, -0.04745357483625412, -0.058340538293123245, 0.031658370047807693, 0.09698426723480225, 0.06925840675830841, 
0.13327524065971375, 0.001762808533385396, -0.012818697839975357, 0.05376221612095833, 0.04923086613416672, -0.0398247204720974, 0.13764667510986328, 
-0.05239468812942505, 0.07194085419178009, -0.08398392051458359, 0.09769213944673538, 0.06149020791053772, -0.007489032577723265, 0.03358851373195648, 
-0.09170633554458618, -0.10841532051563263, -0.1226508617401123, -0.035283174365758896, 0.13466057181358337, -0.018976382911205292, -0.053349416702985764, 
0.12285728007555008, 0.11125201731920242, -0.016572579741477966, 0.031208151951432228, 0.012830662541091442, 0.10364221781492233, -0.0707358792424202, 
0.017100458964705467, -0.07312187552452087, 0.12675468623638153, -0.10557001829147339, 0.05137685313820839, 0.0508052334189415, -0.09407025575637817, 
-0.07577718049287796, -0.00777443777769804, -0.07657069712877274, 0.08393673598766327, -0.004887307062745094, 0.08831355720758438, 0.11429562419652939, 
0.034144893288612366, -0.10641228407621384, 0.07775571942329407, 0.04582423344254494, 0.02139664813876152, -0.003057199763134122, -0.0278179869055748, 
0.03620528429746628, -0.11454617977142334};

#endif

#endif
