0.39184606075286865, -0.2564392387866974, -0.011098245158791542, -0.5108992457389832, -0.07119230180978775, -0.2581656575202942, -0.199520543217659, -0.8893300890922546, 0.02373315766453743, 0.2468397617340088, -0.22789081931114197, -0.028201643377542496, -0.1759786307811737, 0.1793876588344574, 0.4086702764034271, 0.08966101706027985, 0.1648891717195511, -0.25185152888298035, -0.0027592640835791826, -0.4040537476539612, 0.38716140389442444, -0.05886691063642502, -0.3873631954193115, 0.27965614199638367, -0.20927196741104126, 0.1319790631532669, -0.10899659246206284, -0.21106462180614471, -0.6165757179260254, 0.11001931130886078, -0.44048604369163513, -0.33892956376075745, 0.1230669841170311, -0.10977194458246231, 0.045271024107933044, 0.06745884567499161, 0.13672679662704468, -0.2187262922525406, -0.15562160313129425, -0.17221315205097198, 0.1567036211490631, -0.0937211737036705, 0.048612188547849655, 0.2404344379901886, -0.06408285349607468, 0.36222925782203674, 0.14406800270080566, 0.02925264835357666, 0.3673662543296814, 0.1555953174829483, -0.4748148024082184, -0.09778394550085068, 0.19076058268547058, 0.1739833801984787, 0.22695386409759521, 0.3562491238117218, -0.11978017538785934, -0.2761218845844269, -0.2199917435646057, -0.08583209663629532, -0.25107696652412415, 0.02401701919734478, 0.12447849661111832, 0.19882069528102875, -0.15174825489521027, -0.015362086705863476, 0.08335798233747482, 0.0037034740671515465, 0.2880154848098755, 0.414850115776062, 0.0529644638299942, 0.3454936444759369, 0.3454088866710663, -0.23150566220283508, -0.1776418536901474, 0.20172803103923798, 0.05440519005060196, 0.3070564866065979, 0.10727611929178238, 0.1833408623933792, 0.0678815245628357, -0.1649734377861023, -0.10358095169067383, 0.11742644011974335, 0.003721812041476369, 0.2610156536102295, -0.09007932990789413, 0.20859482884407043, -0.06806517392396927, 0.061993155628442764, -0.13233770430088043, -0.129347026348114, 0.2431342750787735, 0.2453172206878662, 0.3368469476699829, 0.08336977660655975, -0.051124464720487595, -0.20897626876831055, 0.19487571716308594, 0.28987976908683777, -0.28997138142585754, -0.19714821875095367, 0.03951386734843254, 0.11869663745164871, -0.028998620808124542, 0.1263820081949234, 0.22912681102752686, 0.12371937930583954, 0.3055413067340851, -0.6447980999946594, -0.25187793374061584, -0.09724380075931549, -0.8654430508613586, -0.0893302634358406, 0.30710193514823914, -0.2301332950592041, -0.36963218450546265, -0.48796212673187256, 0.25186365842819214, -0.22734658420085907, -0.2014060765504837, 0.2681054472923279, 0.5640213489532471, -0.009078502655029297, -0.42420700192451477, -0.8486585021018982, -0.012189122848212719, 0.1247311383485794, -0.6167545318603516, -0.16749422252178192, 0.451961874961853, 0.17713329195976257, -0.4764592945575714, -0.5146802663803101, -0.4188612103462219, -0.3335220515727997, 0.21181535720825195, 0.13546183705329895, -0.15192101895809174, -0.325107216835022, 0.30220556259155273, -0.13041351735591888, 0.1797821968793869, 0.451980322599411, 0.09399853646755219, -0.1975167989730835, -0.09043019264936447, 0.008072149939835072, 0.44203871488571167, -0.5570489168167114, 0.4440932273864746, 0.0004337721038609743, -0.44007408618927, 0.3170928657054901, -0.21387191116809845, -0.18419286608695984, -0.5222582817077637, 0.03773563355207443, -0.5039495825767517, -0.05874595418572426, -0.29809558391571045, -0.1900218278169632, -0.03711283951997757, -0.32180747389793396, 0.15863053500652313, 0.19123095273971558, 0.4143131971359253, 0.33139660954475403, 0.3558453321456909, -0.6595255136489868, -0.6343086361885071, -0.08982552587985992, -0.28208333253860474, 0.1947779357433319, -0.38531559705734253, 0.19437885284423828, 0.15430079400539398, -0.36447960138320923, 0.49178263545036316, 0.5602020621299744, -0.321871280670166, 0.040159281343221664, -0.18180790543556213, -0.1165742501616478, -0.11546038836240768, -0.23315882682800293, -0.6565022468566895, -0.24442681670188904, 0.7897805571556091, -0.15259017050266266, 0.21733978390693665, 0.3397088348865509, -0.0634191706776619, -0.26771336793899536, -0.24233530461788177, 0.24977359175682068, -0.2099357545375824, 0.29783913493156433, -0.20186634361743927, -0.011622805148363113, -0.3042336106300354, 0.21402586996555328, 0.22947795689105988, -0.12007088959217072, 0.2517426609992981, 0.0055540394969284534, 0.06744071841239929, 0.17946647107601166, 0.007706661708652973, 0.10944502800703049, 0.10211426764726639, -0.15475746989250183, 0.2345050722360611, 0.006652877666056156, 0.05828877165913582, -0.03732490912079811, -0.5959011316299438, 0.11537088453769684, 0.31362563371658325, -0.27893713116645813, -0.11835446208715439, 0.2031479924917221, -0.18155962228775024, -0.22021931409835815, 0.07553596049547195, 0.2514614164829254, -0.013660711236298084, 0.35430067777633667, 0.15568329393863678, 0.12558972835540771, 0.2454531490802765, 0.3356021046638489, -0.1590302735567093, 0.11524765193462372, 0.11368255317211151, 0.023515993729233742, 0.020984109491109848, -0.15883007645606995, -0.7549626231193542, -0.17649556696414948, -0.05463071167469025, 0.45432525873184204, -0.0194791741669178, 0.24169234931468964, -0.134695902466774, -0.03947938233613968, 0.1444665491580963, 0.5105586051940918, -0.17054256796836853, 0.024783935397863388, 0.20484784245491028, -0.14112934470176697, 0.4673832654953003, -0.36380887031555176, 0.39443910121917725, -0.03289850056171417, -0.21315300464630127, 0.18744957447052002, 0.12742449343204498, 0.09706839919090271, -0.0011538887629285455, 0.042691510170698166, 0.5030608177185059, 0.15736357867717743, 0.30101460218429565, -0.6719567179679871, -0.08545561879873276, -0.4258624017238617, -0.4198616147041321, 0.3917081356048584, -0.16231556236743927, 0.046752236783504486, 0.11758969724178314, 0.10531794279813766, 0.10982444882392883, 0.2578769326210022, -0.36897239089012146, -0.46874260902404785, 0.2965541481971741, -0.23455804586410522, 0.2574664354324341, -0.35069552063941956, 0.31575530767440796, -0.12683340907096863, -0.1901458203792572, -0.2933806777000427, -0.03492419049143791, 0.6137478947639465, -0.7710171937942505, -0.2757190763950348, -0.04784885421395302, 0.06670980900526047, -0.1740373969078064, -0.038098786026239395, -0.8097515106201172, 0.18024277687072754, -0.4008300304412842, 0.6521629095077515, 0.3695933222770691, -0.7550387978553772, -0.7190417051315308, 0.16182321310043335, 0.05171608924865723, 0.6271411180496216, -0.1421402394771576, -0.1941487342119217, 0.5515429377555847, -0.2631366550922394, -0.012771010398864746, -0.5592864751815796, 0.4046003818511963, 0.17177167534828186, 0.15846775472164154, 0.23318004608154297, -0.1569710075855255, 0.03222629427909851, -0.709110677242279, -0.1585509479045868, -0.2543797492980957, -0.8110036849975586, -0.44190311431884766, -0.3259326219558716, -0.018311267718672752, -0.2295244038105011, -0.10440883785486221, 0.34969571232795715, -0.17803065478801727, -0.16925550997257233, -0.3295137882232666, 0.07821720093488693, 0.175129696726799, 0.0006846586475148797, -0.05090556666254997, -0.07500790059566498, -0.2301497608423233, 0.23474285006523132, -0.279020756483078, 0.06093274801969528, -0.014024188742041588, -0.1272854208946228, 0.08784443885087967, 0.051334768533706665, -0.21658167243003845, -0.10580742359161377, -0.006222229916602373, 0.16968467831611633, -0.19284126162528992, 0.03526725620031357, 0.18591664731502533, -0.015496328473091125, 0.3125818967819214, 0.09559809416532516, -0.2018517553806305, -0.15659211575984955, 0.24940244853496552, 0.9798387289047241, 0.09200870990753174, -0.13880737125873566, 0.41395244002342224, -0.13559523224830627, 0.13085339963436127, 0.12946274876594543, -0.7022818922996521, -0.39490917325019836, 0.7726675271987915, -0.046163782477378845, 0.37743762135505676, -0.1757066249847412, -0.6934760808944702, 0.0961856096982956, -0.2064644694328308, -0.1405358910560608, 0.10104139894247055, -0.7185472846031189, 0.042402856051921844, -0.4471343457698822, 0.26982581615448, -0.09073247015476227, 0.4662613272666931, 0.1334528923034668, 0.27637699246406555, -0.08661127835512161, 0.022482169792056084, -0.12117592245340347, -0.30360448360443115, 0.09487467259168625, -0.16032111644744873, -0.45136773586273193, -0.17638298869132996, 0.18243443965911865, -0.17963899672031403, -0.47822973132133484, -0.2062264382839203, 0.11865661293268204, 0.29106593132019043, -0.0695420652627945, -0.6304681897163391, 0.0034783813171088696, 0.15652330219745636, 0.01580859161913395, -0.22490164637565613, 0.1051427498459816, -0.22852462530136108, -0.21800988912582397, -0.06701982766389847, 0.24800094962120056, 0.2249876856803894, -0.36338961124420166, 0.16981860995292664, 0.2647424042224884, -0.34420621395111084, -0.18514522910118103, -0.5045769214630127, 0.1721387654542923, -0.021379319950938225, 0.21914628148078918, -1.3254687786102295, -0.1430061161518097, 0.13643242418766022, -0.44924619793891907, 0.18641839921474457, -0.42457354068756104, 0.28571617603302, 0.2959458827972412, 0.22102035582065582, -0.10695942491292953, -0.4943769574165344, -0.11484942585229874, -0.2895008623600006, -0.12283845245838165, 0.19985640048980713, -0.0694882795214653, -0.80311119556427, 0.11921381205320358, 0.24670016765594482, 0.17448937892913818, -0.37857332825660706, 0.157651886343956, 0.012264619581401348, -0.525945246219635, 0.33106082677841187, 0.0263232234865427, -0.003754386445507407, 0.14312562346458435, 0.33112937211990356, 0.09453435987234116, 0.05397748202085495, 0.20120273530483246, 0.80903160572052, 0.1279791295528412, -0.13317827880382538, 0.03654934838414192, -0.07547755539417267, 0.022115234285593033, 0.12569305300712585, -0.12077289074659348, -0.5323681831359863, 0.04645371064543724, 0.16495302319526672, 0.19247594475746155, 0.3606482148170471, -0.16107748448848724, 0.20118309557437897, -0.02079785242676735, -0.01272810809314251, 0.23875080049037933, -0.1842861920595169, -0.39765965938568115, 0.04586568847298622, -0.07295116037130356, -0.14151808619499207, 0.10632390528917313, 0.14102400839328766, -0.1352771818637848, 0.254888653755188, 0.15425533056259155, -0.02531173825263977, 0.11623668670654297, 0.05258337780833244, -0.06857059895992279, 0.45555055141448975, -0.03252692148089409, 0.06814878433942795, -0.20034871995449066, -0.04434782639145851, -0.15897002816200256, 0.10738237202167511, -0.2340906709432602, 0.28224727511405945, 0.033281151205301285, 0.18236812949180603, 0.4228699207305908, -0.12109402567148209, 0.017504917457699776, -0.04008926823735237, 0.23003347218036652, 0.22412998974323273, 0.06162525713443756, -0.160110205411911, -0.4174068570137024, 0.29551824927330017, -0.15000490844249725, 0.2744064927101135, 0.11705857515335083, -0.38258126378059387, 0.05114171653985977, -0.1010567769408226, -0.21443143486976624, 0.020908180624246597, -0.26417291164398193, -0.23438750207424164, -0.0348023921251297