-0.10665810108184814, 0.1038561463356018, -0.06376778334379196, 0.05069878324866295, -0.0642985999584198, -0.014066440053284168, 0.030924804508686066, -0.10543671995401382, -0.06154116243124008, 0.038935717195272446, 0.11434811353683472, 0.011019003577530384, 0.07376107573509216, -0.03674909472465515, -0.0963580310344696, 0.09903371334075928, 0.08131412416696548, -0.05002119764685631, 0.1058204248547554, 0.014841854572296143, -0.0404064767062664, -0.04286999627947807, 0.1399262398481369, -0.0501820333302021, 0.10949184000492096, 0.00518893962725997, -0.09375563263893127, 0.12493229657411575, -0.013223879970610142, -0.010999458841979504, 0.10977557301521301, -0.08854112774133682, 0.07216225564479828, 0.04444144293665886, 0.02670721895992756, -0.01797959953546524, 0.031789593398571014, -0.1138540580868721, 0.014912699349224567, -0.07572446018457413, 0.07478582859039307, 0.1223478764295578, 0.08631972223520279, -0.06339354813098907, -0.14665234088897705, 0.007229705341160297, 0.06760581582784653, 0.08608082681894302, 0.07130103558301926, 0.04178118333220482, 0.07650438696146011, 0.09355207532644272, -0.04427962005138397, -0.08828745782375336, -0.022875381633639336, 0.02906433865427971, 0.010639856569468975, -0.09028530865907669, 0.07618605345487595, 0.07624711096286774, -0.03015643171966076, -0.010516097769141197, 0.030766304582357407, -0.1346796154975891