-0.020813792943954468, 1.0699245929718018, 0.1744753122329712, 0.23543602228164673, 0.35846957564353943, 0.7388173937797546, -0.5969622135162354, 0.09794469177722931, 0.2405671775341034, 1.0487250089645386, 0.005923919379711151, 0.3679402470588684, -0.4497475028038025, -0.29744240641593933, 1.2924721240997314, 0.16622498631477356, 0.6998401880264282, 0.08446669578552246, 0.5135370492935181, 0.11487402021884918, 0.1499173492193222, -0.9246774911880493, 0.29934725165367126, 0.6833043694496155, 0.08859340846538544, 0.022137096151709557, 0.44270116090774536, 0.17805399000644684, 0.20451226830482483, 0.2567352056503296, -0.010979701764881611, 0.01760852336883545, 0.10347690433263779, 0.4116072356700897, -0.08278568089008331, 0.2496059387922287, 1.4207255840301514, 0.8096080422401428, 0.5061180591583252, -1.0312988758087158, -1.6493178606033325, 0.6853352189064026, 0.38551822304725647, 0.35403862595558167, 0.23473824560642242, 0.024550825357437134, -0.420623242855072, -0.9419269561767578, 0.3985121548175812, 0.3968401551246643, -0.2584415376186371, 0.2040381133556366, -0.08827820420265198, -0.16857533156871796, -0.08611348271369934, 0.13803772628307343, 0.028950827196240425, 0.6660569310188293, -0.03599819540977478, 0.9725794792175293, -0.08973488211631775, 0.7136387228965759, 0.24833260476589203, -0.25301629304885864, 0.036683518439531326, 0.5614176988601685, 0.6827676892280579, -1.0761890411376953, 0.30455470085144043, 0.4212103486061096, 0.42233791947364807, 0.03149458020925522, 0.200731098651886, 0.196421816945076, -0.27808934450149536, 0.4184977412223816, 0.05026093125343323, -0.026466846466064453, 0.17097769677639008, 0.3255704641342163, 0.08075626194477081, -0.07577607035636902, 0.2199203222990036, 0.9111692905426025, -0.18248994648456573, 1.4198617935180664, -1.4245322942733765, 0.0024687498807907104, 0.20422601699829102, -0.042418673634529114, 0.4267709255218506, 0.1865326166152954, -0.05771326273679733, 0.01322194468230009, -0.026355460286140442, 0.0364825576543808, -0.02462068200111389, 0.22983324527740479, 0.16214828193187714, 0.11573909223079681, 0.062099114060401917, 0.7202759385108948, -0.0522603914141655, -0.043310150504112244, 0.4175577759742737, 0.05217611789703369, 0.052503492683172226, -0.18080276250839233, -0.31757014989852905, 0.878434956073761, 0.38482043147087097, 0.049175113439559937, 0.09041232615709305, -0.071551114320755, 0.03851380571722984, 1.7146894931793213, 0.07234563678503036, 0.09176363050937653, 0.07250790297985077, -0.5433590412139893, 0.03189987689256668, -0.15877491235733032, 0.23836630582809448, -1.3051414489746094, 0.16712142527103424, -0.07191610336303711, 0.07305419445037842, 1.742078185081482