// Numpy array shape [64]
// Min -0.3705931
// Max 0.55381614
// Number of zeros 0

#ifndef TRANSFORMERS_0_LINEAR_0_BIAS_H_
#define TRANSFORMERS_0_LINEAR_0_BIAS_H_

#ifndef __SYNTHESIS__
model_default_t transformers_0_linear_0_bias[64];
#else
model_default_t transformers_0_linear_0_bias[64] = {-0.6037132143974304, -0.3418154716491699, 0.4089707136154175, -0.4908692240715027, -0.7092372179031372, -2.131819248199463, 
0.2086021900177002, -0.6281788945198059, 0.45473596453666687, 0.26016953587532043, -0.37970954179763794, -0.43618157505989075, 0.3938460946083069, 
0.5725640058517456, 0.486377477645874, -0.5655282735824585, -0.49361059069633484, 0.2200591266155243, 0.11620625853538513, 0.27766838669776917, 
0.3643576502799988, -0.5754640102386475, -0.6584442853927612, -0.480366051197052, 0.2972789704799652, -0.47698381543159485, -0.4225301146507263, 
-0.5113258361816406, 0.6356346011161804, -0.42736124992370605, -0.5205581188201904, 0.7849339246749878, -0.5575451254844666, -0.552143394947052, 
0.5761567950248718, 0.4260014593601227, -0.31086739897727966, -0.5345854163169861, -0.32520315051078796, -0.368445485830307, -0.4394254684448242, 
0.48074623942375183, -0.7214908003807068, 0.4846421480178833, 0.08333373069763184, 0.33966749906539917, 0.36139658093452454, 0.029663830995559692, 
-0.5167436599731445, 0.46571385860443115, -0.4302719533443451, 0.40199506282806396, -0.5454118847846985, 0.15218006074428558, 0.8178234696388245, 
0.3956720232963562, 0.495086133480072, -0.5315117835998535, 0.35940021276474, -0.37428712844848633, -0.47313204407691956, -0.4785793423652649, 
-0.34588873386383057, 0.35237717628479004};

#endif

#endif
