-0.5719816088676453, -0.5167433619499207, 0.32333317399024963, -0.3298434615135193, -1.025216817855835, -1.04044771194458, 0.39304643869400024, -0.7222257256507874, 0.5580673813819885, 0.5698939561843872, -0.5567891001701355, -0.22158589959144592, 0.4482647776603699, 0.5746986269950867, 0.39232224225997925, -0.4634280800819397, -0.2246447652578354, 0.5761920213699341, 0.21579985320568085, 0.4045242667198181, 0.24622595310211182, -0.4057062566280365, -0.3463176488876343, -0.3876526355743408, 0.38130316138267517, -0.44565388560295105, -0.49675631523132324, -0.5530163049697876, 0.3735627233982086, -0.44756466150283813, -0.2679382562637329, 0.19803987443447113, -0.46990206837654114, -0.32848450541496277, 0.361535906791687, 0.5634705424308777, -0.7146996259689331, -0.6500519514083862, -0.07057105004787445, -0.4695488512516022, -0.42749983072280884, 0.30163538455963135, -0.41809049248695374, 0.42529287934303284, 0.16402406990528107, 0.1288871020078659, 0.39955973625183105, 0.16224481165409088, -0.33227425813674927, 0.4870017468929291, -0.36290737986564636, 0.2860755920410156, -0.3832376301288605, 0.12375977635383606, 0.23665113747119904, 0.146895632147789, 0.31017908453941345, -0.35497528314590454, 0.305242121219635, -0.043379902839660645, -0.19625350832939148, -0.5554004907608032, -0.5362472534179688, 0.43104416131973267