// Numpy array shape [64]
// Min -0.421496
// Max 0.5460132
// Number of zeros 0

#ifndef TRANSFORMERS_0_SELF_ATTENTION_NORM_BIAS_H_
#define TRANSFORMERS_0_SELF_ATTENTION_NORM_BIAS_H_

#ifndef __SYNTHESIS__
model_default_t transformers_0_self_attention_norm_bias[64];
#else
model_default_t transformers_0_self_attention_norm_bias[64] = {-0.3480578660964966, 0.022144433110952377, 0.0029403462540358305, -0.002519499510526657, -0.4282519817352295, -0.027754202485084534, 
0.0024946273770183325, 0.13933224976062775, -0.0011132415384054184, 0.008620090782642365, -0.007072131149470806, 0.006069754250347614, -0.23356151580810547, 
-0.2476116120815277, 0.0019719856791198254, -0.04604165628552437, 0.22883275151252747, 0.5012327432632446, 0.15262678265571594, 0.002543024718761444, 
0.0021007531322538853, -0.29232606291770935, -0.00919264554977417, -0.0005900837131775916, -0.2781980037689209, -0.004891811870038509, -0.003740722080692649, 
0.005564774386584759, -0.00031583523377776146, 0.002551209181547165, -0.004981988109648228, -0.86342453956604, -0.005008658394217491, 0.13014835119247437, 
0.002347230911254883, 0.0005640171002596617, 0.01984308660030365, -0.286212682723999, -0.00698716938495636, -0.007321569137275219, 0.45415621995925903, 
0.02933908998966217, -0.012074975296854973, -0.00021843405556865036, -0.2303023636341095, -0.14592835307121277, 0.004636446945369244, 0.0020862440578639507, 
-0.008799340575933456, 0.015978705137968063, 0.014611424878239632, 0.004492255859076977, -0.2428295910358429, -0.10237853229045868, 0.28513604402542114, 
0.004554221406579018, -0.4074191749095917, 0.2725364565849304, -0.006719198543578386, 0.2089303582906723, -0.35975179076194763, -0.11216390877962112, 
0.25377804040908813, 0.0026841205544769764};

#endif

#endif
