// Numpy array shape [128, 64]
// Min -0.35044885
// Max 0.45959285
// Number of zeros 0

#ifndef TRANSFORMERS_2_LINEAR_2_WEIGHT_H_
#define TRANSFORMERS_2_LINEAR_2_WEIGHT_H_

#ifndef __SYNTHESIS__
model_default_t transformers_2_linear_2_weight[8192];
#else
model_default_t transformers_2_linear_2_weight[8192] = {-0.04516201466321945, -0.10130301117897034, -0.06721385568380356, 0.07170761376619339, -0.07432138919830322, 0.10082578659057617, 
0.023762570694088936, 0.1434878706932068, 0.05724707245826721, 0.09552769362926483, 0.015461078844964504, 0.08221834152936935, 0.009593771770596504, 
-0.14564931392669678, 0.03812568634748459, 0.06724248826503754, -0.010282403789460659, -0.0663333311676979, -0.0340408980846405, 0.021556511521339417, 
-0.1757277250289917, 0.028765833005309105, -0.0681043490767479, 0.045672692358493805, 0.06717120110988617, -0.11401866376399994, -0.037172622978687286, 
0.0013311803340911865, -0.07922543585300446, -0.009865345433354378, -0.16938482224941254, 0.04729960486292839, 0.1415608823299408, 0.12744569778442383, 
-0.06330802291631699, -0.032115060836076736, -0.017115838825702667, 0.042468179017305374, 0.06384319812059402, -0.0864248052239418, -0.052359383553266525, 
0.11791346222162247, -0.14106473326683044, -0.12300443649291992, 0.05555044859647751, 0.034214310348033905, -0.027307875454425812, -0.11026956886053085, 
0.017623376101255417, -0.04235649108886719, 0.14268919825553894, 0.005431652069091797, 0.07320623844861984, -0.031056689098477364, 0.11593790352344513, 
-0.13559260964393616, -0.03629833832383156, 0.030382782220840454, -0.04972163587808609, 0.0596034899353981, 0.10947221517562866, 0.018857216462492943, 
-0.09003414213657379, 0.08171482384204865, -0.1709957867860794, -0.014149629510939121, -0.21558809280395508, -0.05661412701010704, -0.09820305556058884, 
0.0498955138027668, -0.15250469744205475, 0.0798630490899086, -0.20041485130786896, -0.06796439737081528, -0.07100369781255722, -0.09429385513067245, 
-0.0789254829287529, 0.08919847011566162, 0.08537550270557404, 0.04588848352432251, -0.11210645735263824, -0.12670540809631348, -0.06053992733359337, 
-0.06655094027519226, 0.14343436062335968, 0.09022992104291916, 0.040185291320085526, -0.012644875794649124, -0.023427248001098633, -0.02951672114431858, 
0.045554373413324356, 0.10798103362321854, 0.024718541651964188, -0.03332233428955078, 0.11457352340221405, 0.08763445913791656, 0.006435447372496128, 
0.1583402305841446, 0.047562092542648315, -0.021046321839094162, 0.09115054458379745, -0.01245677936822176, -0.018212689086794853, -0.11204153299331665, 
-0.01513025164604187, -0.06606364250183105, 0.012573838233947754, 0.13309454917907715, 0.03437652811408043, -0.03330094739794731, 0.12417303025722504, 
-0.15613573789596558, -0.16405130922794342, -0.13628089427947998, -0.16939952969551086, -0.10903284698724747, 0.016859695315361023, -0.05135038495063782, 
0.0276789590716362, 0.03791620209813118, -0.041635338217020035, 0.040820423513650894, 0.007512586656957865, -0.04497295990586281, -0.10221634805202484, 
-0.05918179824948311, -0.17799365520477295, -0.09434845298528671, -0.012798236683011055, 0.0831291526556015, -0.019222544506192207, 0.0017480711685493588, 
0.17675535380840302, 0.008456289768218994, -0.13407103717327118, -0.04147005081176758, 0.08073820173740387, -0.039540182799100876, 0.09029091149568558, 
0.05683024227619171, -0.03829275071620941, -0.13865001499652863, 0.033044785261154175, 0.11353743076324463, -0.17189139127731323, 0.06791874021291733, 
-0.09351411461830139, -0.06308172643184662, -0.13127821683883667, -0.05556958168745041, -0.15293656289577484, 0.1137755736708641, 0.052294883877038956, 
0.043221715837717056, -0.06277020275592804, -0.007127039134502411, 0.07719144225120544, 0.14748205244541168, -0.1342829167842865, -0.14000512659549713, 
-0.06402165442705154, 0.08153178542852402, -0.06276049464941025, 0.1331530213356018, 0.10625353455543518, 0.039420854300260544, 0.057612963020801544, 
0.09618400037288666, -0.13512907922267914, -0.025636672973632812, 0.012292641215026379, -0.022900626063346863, 0.0008857423672452569, 0.09615447372198105, 
0.04937738925218582, 0.08463843911886215, 0.003972013480961323, -0.13330328464508057, 0.16752499341964722, 0.09888698905706406, 0.1377127766609192, 
-0.22712907195091248, 0.15803195536136627, 0.08322859555482864, 0.12780095636844635, 0.04483708366751671, 0.03768158704042435, -0.062480147927999496, 
-0.00450056791305542, -0.16486233472824097, 0.047407470643520355, -0.04963464289903641, -0.17676736414432526, 0.002742709359154105, -0.16004535555839539, 
0.03285982087254524, 0.06741728633642197, 0.007393243256956339, -0.09279575198888779, -0.0724400207400322, -0.07883858680725098, 0.12057214975357056, 
0.11292266845703125, -0.09186916053295135, -0.04549895226955414, 0.08649022877216339, 0.1231570765376091, 0.06930773705244064, -0.09031037986278534, 
-0.00034443315234966576, -0.14351215958595276, 0.12592439353466034, 0.14675891399383545, 0.14817039668560028, -0.017567651346325874, -0.02542850933969021, 
-0.011720485985279083, -0.13238823413848877, 0.05533328279852867, 0.08539100736379623, 0.10135272890329361, -0.08823075890541077, 0.019208267331123352, 
0.08337324857711792, 0.08406621962785721, 0.11192388832569122, 0.06506818532943726, 0.06211438030004501, 0.11872465908527374, -0.05454273521900177, 
-0.0250011645257473, 0.10996989905834198, -0.02733209915459156, -0.06271368265151978, -0.11202800273895264, 0.16346101462841034, -0.058590684086084366, 
0.15820877254009247, -0.16391810774803162, 0.04499072581529617, -0.13731558620929718, 0.07075405865907669, -0.04993988573551178, -0.04759084805846214, 
-0.031215645372867584, -0.10479138791561127, -0.11112792044878006, 0.05278496444225311, 0.012649144046008587, 0.023442845791578293, -0.07399407029151917, 
-0.22988641262054443, 0.07132820039987564, -0.08351561427116394, -0.1599823236465454, 0.07955513149499893, -0.02746772952377796, 0.06579332053661346, 
0.08849462866783142, 0.02974773943424225, 0.05930618941783905, -0.011235281825065613, -0.03747069090604782, -0.15256483852863312, -0.025533542037010193, 
0.09528406709432602, -0.0028315503150224686, -0.028613915666937828, 0.08823437243700027, 0.042637649923563004, 0.006950894836336374, 0.0773836150765419, 
-0.021461492404341698, 0.012609411962330341, -0.019154544919729233, -0.06676673144102097, -0.09605054557323456, 0.04585421830415726, 0.01358615979552269, 
-0.11499293893575668, -0.0772089958190918, 0.12265035510063171, -0.05808933451771736, 0.06783735007047653, -0.13285887241363525, 0.08877801150083542, 
0.01303249690681696, 0.1110132709145546, 0.04904370754957199, -0.07071945816278458, -0.09117047488689423, 0.037345971912145615, 0.08437300473451614, 
-0.005106001626700163, 0.07555004209280014, -0.005566037259995937, -0.029380902647972107, -0.04777500405907631, 0.08410340547561646, -0.03685806691646576, 
0.0834556594491005, -0.09998051077127457, 0.1438761055469513, 0.11223387718200684, 0.032578662037849426, -0.09456892311573029, -0.04912244528532028, 
-0.12629982829093933, 0.08013174682855606, -0.03397408500313759, -0.10012145340442657, -0.04143426567316055, 0.11349450796842575, -0.11557449400424957, 
-0.03211677819490433, -0.07014945149421692, 0.08049850910902023, -0.11794876307249069, 0.04164265841245651, 0.02597764879465103, -0.12471119314432144, 
-0.04953165352344513, 0.060293566435575485, 0.001406359951943159, -0.04656944423913956, -0.1150827705860138, 0.07648774236440659, 0.006070668809115887, 
-0.0011816441547125578, 0.04564317688345909, 0.024230195209383965, 0.11169632524251938, 0.13399910926818848, 0.09176669269800186, -0.13311350345611572, 
0.05448535084724426, -0.03693637251853943, -0.00914781168103218, 0.030703023076057434, -0.14387977123260498, 0.010003081522881985, 0.09595970809459686, 
0.19657926261425018, 0.028056956827640533, -0.1048123687505722, -0.02490500919520855, 0.048759810626506805, 0.09772247821092606, 0.015952179208397865, 
0.0655941292643547, -0.01629553735256195, 0.062157873064279556, -0.005982299335300922, -0.07994122058153152, 0.11091203987598419, -0.01479347050189972, 
-0.04848211258649826, 0.02253779210150242, 0.05194936320185661, -0.10743802040815353, 0.0037007967475801706, -0.033932026475667953, -0.08206431567668915, 
0.03002901002764702, -0.11060351878404617, 0.04144393280148506, 0.04621146246790886, -0.039022330194711685, -0.09705134481191635, 0.04308420792222023, 
0.06294692307710648, -0.09280607849359512, 0.10691919922828674, -0.02207343839108944, 0.013375956565141678, 0.014398663304746151, 0.007953755557537079, 
0.08723580092191696, -0.1326330453157425, 0.030079511925578117, -0.0022804830223321915, -0.01844833791255951, -0.07305768877267838, -0.02664605714380741, 
-0.01594482734799385, -0.17426976561546326, -0.002780432580038905, 0.02445126883685589, -0.1031976118683815, 0.0734158456325531, -0.13765884935855865, 
0.07472015172243118, 0.053776368498802185, 0.07260257005691528, 0.04108764976263046, 0.06108245998620987, 0.00235841260291636, -0.0817067101597786, 
-0.1584261655807495, 0.042377274483442307, -0.14137685298919678, -0.07744517177343369, -0.026472274214029312, -0.04657457396388054, -0.012124866247177124, 
-0.14204484224319458, -0.06709752976894379, 0.060962580144405365, -0.05855625495314598, -0.1266290247440338, -0.15070317685604095, -0.08219924569129944, 
-0.034794919192790985, 0.0615808442234993, -0.08492788672447205, -0.09808331727981567, -0.07473914325237274, -0.06079188734292984, -0.08177201449871063, 
0.01643487811088562, 0.14428691565990448, -0.11427377164363861, 0.08414245396852493, -0.17471516132354736, -0.11753438413143158, -0.030004674568772316, 
-0.0427415631711483, 0.03350125998258591, 0.02535972185432911, -0.08008754998445511, 0.005938541144132614, -0.1367201954126358, -0.08663429319858551, 
-0.18695569038391113, 0.1975700706243515, -0.05836893618106842, -0.02275889553129673, -0.11959441006183624, 0.15293191373348236, -0.09474117308855057, 
-0.13676834106445312, -0.002255318220704794, 0.1167716234922409, 0.02841375023126602, 0.06636448949575424, -0.028735041618347168, -0.14138518273830414, 
0.11602585017681122, -0.20948509871959686, 0.13418465852737427, -0.006300692446529865, -0.061588384211063385, 0.030374642461538315, 0.06572751700878143, 
-0.09153961390256882, -0.06162338703870773, -0.18008530139923096, 0.09857742488384247, -0.10558616369962692, 0.049757231026887894, -0.1058318018913269, 
-0.08900060504674911, 0.14531674981117249, -0.12494545429944992, 0.12890362739562988, 0.02685469016432762, -0.09665583819150925, 0.0798051580786705, 
0.05316989868879318, 0.016717704012989998, 0.02167605422437191, -0.12063435465097427, 0.017946790903806686, -0.14971035718917847, 0.030814386904239655, 
0.07009918242692947, -0.17491018772125244, -0.17361237108707428, 0.0718676745891571, -0.0020436185877770185, -0.09945132583379745, 0.05483153834939003, 
-0.05714927613735199, -0.11686696112155914, -0.05866715684533119, 0.0285662692040205, -0.07820209860801697, 0.054623957723379135, -0.1468738615512848, 
0.0240407083183527, -0.09388656914234161, -0.03400824964046478, -0.06750835478305817, 0.10311205685138702, 0.09854191541671753, -0.12249346822500229, 
-0.039508432149887085, -0.11889912188053131, -0.07701452821493149, 0.05095430836081505, -0.018864938989281654, 0.007590951398015022, 0.02360418625175953, 
-0.04652390629053116, -0.015377494506537914, -0.015076104551553726, 0.0621088407933712, -0.2519729733467102, 0.03604384511709213, 0.015021871775388718, 
0.00510120065882802, -0.005812553688883781, 0.0028491399716585875, -0.04811406508088112, 0.11095955967903137, 0.023895682767033577, -0.018371522426605225, 
-0.01442176103591919, 0.07497310638427734, 0.07556641101837158, 0.11063238978385925, 0.10622350871562958, 0.00030551827512681484, -0.1363791823387146, 
-0.21904607117176056, -0.12061694264411926, 0.10065636783838272, 0.07054785639047623, -0.09537046402692795, -0.1750926822423935, 0.10427305102348328, 
0.04690919071435928, -0.16041533648967743, -0.020140159875154495, -0.05530634894967079, 0.0933777391910553, 0.05829440429806709, 0.02407955750823021, 
-0.048866789788007736, -0.12331461906433105, -0.0027927658520638943, 0.12333987653255463, 0.03307243064045906, 0.06609031558036804, -0.08612663298845291, 
-0.04345042631030083, -0.05768124759197235, -0.06743532419204712, 0.07160769402980804, 0.11039789021015167, 0.03117111697793007, 0.023725291714072227, 
-0.10416365414857864, -0.02568468265235424, -0.13060346245765686, 0.10052694380283356, 0.05834070220589638, 0.11284743249416351, -0.03959987312555313, 
-0.10492784529924393, -0.19413155317306519, -0.13114088773727417, -0.0828680470585823, -0.03878270089626312, 0.09438435733318329, 0.0862221047282219, 
-0.009339590556919575, -0.0007977689965628088, -0.055545274168252945, -0.07509393990039825, 0.02807527594268322, 0.0206503476947546, -0.18984940648078918, 
-0.03460630029439926, -0.11584412306547165, 0.047734763473272324, 0.025198860093951225, 0.01584433764219284, -0.08065388351678848, -0.03564632683992386, 
-0.0992666631937027, 0.043489936739206314, 0.06663285940885544, 0.03255733847618103, 0.030751852318644524, 0.06796647608280182, -0.01783852092921734, 
-0.1838293969631195, -0.0051232026889920235, 0.06049700453877449, -0.02604430913925171, -0.13983088731765747, -0.09897368401288986, 0.07414878904819489, 
-0.07415328919887543, 0.019781120121479034, 0.05577004328370094, 0.027904225513339043, 0.10436046123504639, -0.03853952884674072, 0.09230106323957443, 
-0.08370830118656158, -0.02673911117017269, 0.054978299885988235, -0.09494945406913757, 0.05344035476446152, -0.11836093664169312, -0.08349914103746414, 
0.08099609613418579, 0.05925903841853142, -0.07857288420200348, 0.02282804064452648, 0.03479645773768425, -0.07358725368976593, 0.09589270502328873, 
0.04682908579707146, -0.0921495333313942, -0.07071889936923981, -0.11796364188194275, 0.11055192351341248, 0.08913125097751617, -0.00199189898557961, 
-0.19270159304141998, 0.07128942757844925, -0.1459009051322937, 0.025331389158964157, 0.07801366597414017, -0.04848327487707138, -8.79847866599448e-05, 
-0.07322854548692703, 0.10247476398944855, -0.0011547249741852283, -0.01796654984354973, 0.11437013745307922, 0.026790935546159744, -0.10466916859149933, 
0.1040840893983841, -0.12021911889314651, 0.11701849102973938, -0.017194468528032303, 0.033645547926425934, 0.05207904428243637, 0.02793373167514801, 
-0.08325877040624619, 0.03038611449301243, -0.11819413304328918, 0.008783085271716118, 0.03819987177848816, 0.12235152721405029, -0.1222442016005516, 
0.06855253875255585, 0.06366270035505295, 0.019977176561951637, -0.0028938737232238054, 0.01001599058508873, 0.030649274587631226, 0.027230802923440933, 
-0.04999849572777748, 0.15137456357479095, -0.08675094693899155, -0.09196552634239197, -0.047670379281044006, 0.03554612025618553, -0.02162269316613674, 
-0.07310647517442703, 0.07124116271734238, -0.03941462188959122, -0.14912821352481842, -0.003441628534346819, 0.06969258189201355, -0.001996520906686783, 
0.021265003830194473, 0.023966612294316292, -0.07058151811361313, -0.13076870143413544, 0.02627316117286682, 0.054122332483530045, 0.020525110885500908, 
-0.03690387308597565, -0.03008713759481907, 0.006845709402114153, -0.05249780789017677, 0.06401004642248154, -0.04703311622142792, -0.1257682740688324, 
-0.10470706224441528, -0.1463959515094757, -0.06887312233448029, 0.011257218196988106, -0.06500375270843506, 0.022184446454048157, -0.011628936044871807, 
-0.147891104221344, 0.023869143798947334, -0.010341260582208633, 0.001412299694493413, 0.06602170318365097, -0.08734253793954849, -0.015323200263082981, 
0.07318302989006042, -0.03732844442129135, 0.11057309806346893, 0.010373999364674091, 0.14376172423362732, 0.027167344465851784, 0.06174345687031746, 
0.10715751349925995, -0.021495405584573746, -0.03706805035471916, -0.09398827701807022, 0.10277650505304337, -0.05427907407283783, -0.11204560846090317, 
-0.09308501332998276, -0.07767844200134277, 0.05633482709527016, -0.028488699346780777, 0.10929720103740692, 0.048214685171842575, 0.08091029524803162, 
-0.09112797677516937, 0.06994742155075073, 0.06461799889802933, -0.0827467143535614, -0.07677102088928223, -0.06462575495243073, 0.011241072788834572, 
-0.10206743329763412, -0.13263678550720215, -0.11278316378593445, 0.0015706438571214676, -0.004539261106401682, -0.06678086519241333, -0.001548714004456997, 
-0.08160822093486786, -0.12691785395145416, -0.030641917139291763, -0.006417252589017153, -0.06815920770168304, -0.05947921797633171, 0.0993729829788208, 
0.09442882984876633, 0.036463413387537, -0.08117701858282089, 0.043496374040842056, 0.11117812991142273, 0.003309115767478943, 0.08346785604953766, 
-0.05775893107056618, -0.05608372390270233, 0.13473406434059143, 0.07407157868146896, -0.134554922580719, 0.014347277581691742, 0.057883020490407944, 
0.10543622821569443, 0.02744358405470848, 0.04895860329270363, -0.0025280904956161976, 0.01566244475543499, 0.07749909162521362, -0.10384917259216309, 
0.04032021760940552, -0.0137331523001194, 0.03538861870765686, -0.059254713356494904, 0.01918131858110428, -0.0799589529633522, 0.008836968801915646, 
0.023405924439430237, 0.04546525701880455, 0.1077198013663292, 0.08513812720775604, 0.04607267677783966, 0.030040912330150604, 0.008729740977287292, 
-0.056099966168403625, 0.03246922791004181, -0.07395701855421066, 0.11207842826843262, 0.2024618536233902, -0.08345212042331696, -0.09383489936590195, 
0.05930298566818237, 0.12075413763523102, 0.08066040277481079, -0.07245106995105743, -0.047735296189785004, 0.08521594852209091, 0.07284874469041824, 
-0.07385499775409698, -0.13658179342746735, -0.034753210842609406, 0.07453368604183197, 0.1685095876455307, 0.030504614114761353, -0.02997424453496933, 
-0.04690907150506973, 0.18979425728321075, -0.008847767487168312, -0.1443040817975998, 0.10919547080993652, 0.04703221097588539, 0.08595597743988037, 
-0.09911639243364334, 0.06262442469596863, -0.023602064698934555, -0.07247007638216019, 0.11335425078868866, -0.10851885378360748, -0.04635457694530487, 
0.08343120664358139, -0.005534742493182421, -0.03478017449378967, 0.2779196500778198, -0.08471734076738358, 0.008681309409439564, 0.12002556771039963, 
-0.05121999606490135, -0.10707969218492508, -0.1430586576461792, -0.05115767568349838, -0.0395226888358593, 0.02846125140786171, -0.08992013335227966, 
-0.026521075516939163, 0.08738352358341217, -0.13477663695812225, 0.0743483453989029, -0.004472945351153612, 0.11548899859189987, -0.022844824939966202, 
-0.054627228528261185, 0.08800987899303436, 0.06051746755838394, -0.03239845857024193, 0.07213479280471802, 0.08409497886896133, 0.10775132477283478, 
-0.16177375614643097, 0.13026586174964905, -0.09167125076055527, 0.03749418258666992, -0.0025549670681357384, -0.035253413021564484, -0.018071014434099197, 
-0.16134007275104523, -0.0900091677904129, 0.1493081897497177, -0.05739893391728401, -0.08289511501789093, 0.0690804123878479, -0.11165818572044373, 
0.0180831216275692, 0.10974204540252686, 0.06802244484424591, 0.0205097459256649, 0.041297636926174164, 0.013974891044199467, 0.07718511670827866, 
-0.0017545134760439396, -0.13803617656230927, 0.05952344834804535, -0.009340476244688034, -0.08006106317043304, -0.04445500299334526, 0.025360092520713806, 
-0.022896384820342064, 0.019721603021025658, 0.0016642273403704166, -0.007756586652249098, -0.13305345177650452, 0.018850062042474747, 0.17129768431186676, 
-0.06046314537525177, 0.09489572048187256, 0.0008412929018959403, 0.01718011684715748, -0.09239199012517929, 0.048745933920145035, 0.15479107201099396, 
-0.047808777540922165, 0.004794497508555651, -0.12756352126598358, 0.004668327048420906, -0.05172528326511383, -0.06687261164188385, 0.0710093080997467, 
0.09994783997535706, -0.1327512115240097, 0.07190851867198944, -0.10719743371009827, 0.08569525927305222, 0.0899631455540657, 0.038115493953228, 
-0.12273918837308884, -0.07191374897956848, 0.11884373426437378, -0.19648423790931702, -0.10626856237649918, -0.036083027720451355, -0.07134082913398743, 
-0.17737740278244019, 0.111753448843956, -0.06072418391704559, -0.03658510372042656, -0.01176802720874548, 0.07076955586671829, 0.18785937130451202, 
-0.12010274082422256, 0.07276153564453125, 0.16308347880840302, -0.006499718874692917, -0.09094896167516708, 0.15451763570308685, -0.06032564863562584, 
-0.03354731947183609, -0.2747156023979187, 0.18112018704414368, 0.10213714838027954, 0.09835897386074066, -0.03768458962440491, -0.25554215908050537, 
-0.055480122566223145, 0.05637076869606972, 0.07081122696399689, -0.04952806606888771, -0.015862837433815002, -0.04672190174460411, -0.046019505709409714, 
-0.06944497674703598, 0.0903208777308464, -0.055372387170791626, 0.11979490518569946, 0.0034500821493566036, -0.2094331830739975, -0.1134786605834961, 
0.056477468460798264, -0.19799412786960602, -0.02564026415348053, 0.12492766231298447, -0.08996070921421051, -0.09028184413909912, -0.26665353775024414, 
-0.1211933121085167, -0.17141158878803253, 0.12491216510534286, 0.129536971449852, 0.05763059854507446, -0.20766976475715637, 0.1791326105594635, 
0.052247583866119385, -0.11952348798513412, 0.02880864217877388, 0.024461645632982254, -0.07407258450984955, 0.005958413705229759, -0.04611790552735329, 
0.11779986321926117, 0.04146437719464302, -0.034466639161109924, -0.03272799402475357, 0.047192297875881195, -0.19048640131950378, -0.00048494318616576493, 
0.07866986840963364, 0.16698214411735535, 0.06587406247854233, -0.21790777146816254, -0.07453350722789764, -0.014365654438734055, 0.029125163331627846, 
-0.2464025765657425, -0.09608089923858643, 0.063449427485466, -0.11105352640151978, -0.00839855708181858, 0.13796751201152802, 0.007644984405487776, 
0.07047665119171143, 0.15730899572372437, 0.1689039021730423, -0.08122184872627258, -0.1623227745294571, 0.04525124281644821, -0.12084655463695526, 
0.02627168782055378, 0.030170993879437447, -0.16019250452518463, -0.09482510387897491, -0.03740432858467102, 0.009456299245357513, -0.18391521275043488, 
0.08824373781681061, -0.02713179588317871, -0.22689074277877808, 0.14578138291835785, 0.09776045382022858, 0.04195595532655716, 0.05254380404949188, 
-0.023967761546373367, 0.018597353249788284, 0.06473293900489807, -0.044526971876621246, -0.15307007730007172, -0.017973508685827255, 0.19322118163108826, 
-0.06094980612397194, -0.14385397732257843, -0.016120517626404762, -0.002792883897200227, 0.09364814311265945, 0.18892796337604523, 0.11054836213588715, 
0.09070918709039688, -0.1967620551586151, 0.10672090202569962, -0.06217724829912186, 0.11020197719335556, -0.12156762927770615, -0.12733426690101624, 
-0.11533123254776001, -0.2811805009841919, -0.07936257123947144, 0.020769398659467697, 0.005328412167727947, 0.1230616420507431, 0.055291686207056046, 
0.0700731873512268, 0.08695848286151886, -0.0347004197537899, -0.015344883315265179, 0.0889272689819336, -0.05358408764004707, -0.0508590042591095, 
0.09691642224788666, 0.024466924369335175, 0.027582338079810143, 0.03033709153532982, 0.00532821798697114, -0.023288195952773094, 0.01015210710465908, 
-0.11602473258972168, 0.03224438801407814, 0.1073959618806839, 0.0074338954873383045, 0.0638873279094696, -0.149067685008049, -0.1474357396364212, 
0.06591808795928955, 0.08679076284170151, 0.08940765261650085, -0.12374274432659149, -0.01734078861773014, -0.0003679129877127707, -0.010250716470181942, 
-0.018524138256907463, -0.07314382493495941, 0.09800766408443451, -0.1294584572315216, -1.62664564413717e-05, 0.008772462606430054, 0.038569994270801544, 
-0.04648742079734802, -0.0025632218457758427, -0.06573367118835449, -0.019611967727541924, -0.033357247710227966, -0.14468316733837128, 0.028734952211380005, 
-0.027939440682530403, 0.018387429416179657, -0.07557494193315506, 0.049599140882492065, 0.09742555022239685, 0.0347234345972538, -0.024125996977090836, 
-0.036739397794008255, 0.019874723628163338, -0.0647885873913765, -0.00839133933186531, -0.0056894561275839806, -0.13192526996135712, -0.12224283069372177, 
-0.013125904835760593, -0.11749306321144104, 0.0733039528131485, -0.056243881583213806, -0.09449906647205353, 0.07028423994779587, -0.0016229941975325346, 
0.06816044449806213, 0.04339856654405594, 0.09423764795064926, 0.09673786163330078, -0.08262608200311661, 0.01790531352162361, -0.14277084171772003, 
-0.04239540174603462, 0.02129056677222252, -0.045191943645477295, -0.11403878033161163, -0.1012321189045906, 0.05543239414691925, 0.15122738480567932, 
0.037016190588474274, 0.03750607743859291, -0.15256066620349884, 0.021912336349487305, 0.12177824229001999, 0.043632276356220245, 0.03758016973733902, 
-0.0868319645524025, -0.024850931018590927, -0.13279157876968384, 0.0545249804854393, 0.18121597170829773, 0.06337440758943558, 0.0007267594337463379, 
0.05477850139141083, 0.020464077591896057, -0.1211605966091156, 0.00740477442741394, 0.07214099913835526, 0.0957132950425148, 0.005093575455248356, 
-0.03404928743839264, -0.12694501876831055, 0.058450110256671906, 0.12930499017238617, -0.0016681104898452759, 0.044871605932712555, 0.061107005923986435, 
0.08145476132631302, 0.09353660047054291, -0.056825097650289536, -0.025862671434879303, -0.11361914128065109, 0.03220156207680702, 0.09008520841598511, 
0.139285147190094, -0.05449743941426277, -0.11924398690462112, -0.051978956907987595, -0.004585356917232275, 0.0032442251686006784, 0.02829812839627266, 
0.0009548998787067831, 0.06803851574659348, -0.07597599178552628, -0.08433675020933151, 0.01830592006444931, 0.05449109897017479, 0.09594260901212692, 
-0.006842818111181259, -0.05413925647735596, 0.04491591081023216, -0.04760105907917023, 0.07673612236976624, -0.11751015484333038, -0.041964948177337646, 
-0.06745985150337219, -0.07215507328510284, 0.1197051852941513, 0.06494754552841187, 0.002340678358450532, 0.02967127412557602, 0.09745263308286667, 
0.16943925619125366, 0.04167725890874863, 0.10942183434963226, -0.046028874814510345, -0.04999826103448868, -0.006005352828651667, -0.03975923731923103, 
-0.13041935861110687, -0.05160149186849594, 0.14686954021453857, 0.09781821072101593, 0.141862690448761, 0.01841188408434391, -0.1317019909620285, 
0.17499256134033203, 0.04432918131351471, -5.752964352723211e-05, 0.039015740156173706, -0.06136414036154747, -0.08042269945144653, -0.000795629050116986, 
-0.010707007721066475, 0.01282577309757471, -0.14146453142166138, 0.06071855127811432, -0.09699837118387222, 0.08269274234771729, -0.10529861599206924, 
0.03590938821434975, 0.07614721357822418, 0.18915358185768127, 0.11212951689958572, 0.04946162924170494, -0.1196155697107315, 0.07611452043056488, 
-0.09415245056152344, 0.02870875410735607, 0.002919622464105487, -0.017129605636000633, 0.09791333973407745, -0.04935569316148758, -0.025844763964414597, 
-0.0027042170986533165, 0.06887604296207428, 0.10941212624311447, 0.004269738681614399, -0.01937757059931755, -0.13335242867469788, 0.022395987063646317, 
-0.016959385946393013, -0.12838764488697052, 0.1508105844259262, -0.05791965126991272, 0.07943924516439438, -0.08236666768789291, -0.015473324805498123, 
-0.07777006924152374, -0.025501258671283722, 0.007381165865808725, 0.1443103849887848, 0.16714444756507874, -0.06121278554201126, 0.06042015925049782, 
0.07817117124795914, -0.11712716519832611, 0.004232876468449831, 0.13283497095108032, -0.08438675850629807, 0.08195769786834717, 0.06405509263277054, 
0.19936814904212952, -0.05150771141052246, 0.0802944079041481, 0.03224147483706474, -0.1120423898100853, 0.0931878536939621, 0.014933262020349503, 
-0.02769162692129612, 0.03327809274196625, 0.06677477061748505, -0.054079070687294006, -0.045219551771879196, 0.04405888915061951, -0.0325668528676033, 
0.0035081442911177874, 0.02387363277375698, 0.1055288016796112, -0.05554349720478058, 0.01307652983814478, 0.14375317096710205, -0.003791302442550659, 
-0.12309689819812775, 0.10479386895895004, 0.028112072497606277, -0.1001325398683548, -0.03586256504058838, 0.07018005847930908, -0.19037163257598877, 
-0.044376201927661896, -0.09848812222480774, 0.1305483728647232, 0.028652505949139595, -0.03028014488518238, -0.012385833077132702, 0.16706514358520508, 
-0.059574976563453674, 0.03873372822999954, 0.09009217470884323, 0.18821223080158234, -0.06458394974470139, 0.09895467013120651, -0.038698721677064896, 
-0.09166905283927917, 0.07951753586530685, -0.04709459841251373, 0.04520934820175171, 0.058336805552244186, -0.04183582961559296, -0.010764604434370995, 
-0.039021577686071396, -0.027735263109207153, -0.10044556111097336, 0.07133908569812775, 0.1336391121149063, 0.13422128558158875, -0.20888681709766388, 
-0.07089707255363464, 0.08837854862213135, 0.005519302561879158, 0.0526040680706501, 0.05518621578812599, 0.13698695600032806, -0.10257364064455032, 
0.017906563356518745, -0.1333732157945633, -0.07105592638254166, 0.11753460764884949, -0.14620687067508698, 0.03810100257396698, 0.059296149760484695, 
0.07936631888151169, -0.004477499518543482, -0.07869327813386917, -0.16380994021892548, 0.03203350305557251, 0.003251505084335804, -0.1818642020225525, 
0.07773999124765396, 0.06146833300590515, -0.1008300855755806, -0.10859318822622299, 0.06073177605867386, -0.08929102122783661, 0.017720922827720642, 
-0.06524164974689484, -0.1494186967611313, -0.05852879211306572, 0.0748729482293129, -0.08401556313037872, 0.014990908093750477, -0.10808178037405014, 
0.03163784742355347, 0.1644938588142395, 0.05754486471414566, -0.03351188451051712, -0.0713924765586853, 0.14020681381225586, 0.07563863694667816, 
-0.034009482711553574, 0.11081856489181519, 0.020944880321621895, -0.02471325546503067, -0.048248570412397385, -0.16243915259838104, 0.04520519822835922, 
0.03421921655535698, -0.08124417066574097, 0.06188729405403137, -0.007485087960958481, 0.07367847859859467, -0.08009060472249985, 0.04367747902870178, 
0.011347132734954357, -0.06009100750088692, -0.04702815040946007, 0.034013424068689346, -0.05687735602259636, 0.06790869683027267, -0.054666969925165176, 
-0.0338575541973114, 0.10413552820682526, -0.1242259293794632, -0.11947368830442429, -0.03660016506910324, -0.11755029112100601, -0.06889127194881439, 
0.10543204843997955, 0.0924544408917427, -0.16179503500461578, 0.029776697978377342, 0.12842614948749542, 0.0245888140052557, 0.10392282903194427, 
0.013369888998568058, -0.09043864160776138, -0.17531509697437286, 0.029906556010246277, 0.09572530537843704, -0.14104802906513214, -0.007491390686482191, 
-0.03317424654960632, 0.008454064838588238, 0.06934323906898499, 0.016797693446278572, -0.1532592475414276, 0.04500792548060417, 0.014819501899182796, 
-0.18500667810440063, -0.03198419511318207, 0.010502347722649574, -0.09412271529436111, 0.02465973049402237, 0.06115390732884407, -0.12936463952064514, 
-0.09062175452709198, -0.004862047266215086, -0.1914077252149582, -0.09159699082374573, -0.15230682492256165, -0.082692950963974, -0.034317269921302795, 
-0.10266988724470139, -0.12716522812843323, 0.08720947057008743, 0.05517682060599327, -0.15879380702972412, 0.0882185623049736, -0.019117265939712524, 
-0.010321908630430698, 0.02559937909245491, -0.05445616692304611, -0.15270133316516876, -0.10826084762811661, 0.040207989513874054, -0.14160127937793732, 
0.057501256465911865, -0.18233436346054077, 0.054474346339702606, 0.06419068574905396, -0.04640534520149231, 0.10284404456615448, 0.13467060029506683, 
-0.045196276158094406, -0.0305941179394722, -0.09498079866170883, -0.05273488536477089, -0.09397238492965698, -0.11421088874340057, 0.03584539145231247, 
0.01893274486064911, -0.1483871042728424, -0.024306589737534523, -0.05863582715392113, -0.020999139174818993, 0.04843471944332123, -0.12233185768127441, 
-0.0683814287185669, -0.08553382009267807, 0.03732792288064957, -0.01832396350800991, -0.09995467960834503, -0.18288560211658478, -0.09276773780584335, 
0.015191279351711273, -0.05484412983059883, 0.11506002396345139, 0.11922172456979752, -0.04553913325071335, -0.027545543387532234, -0.0986112654209137, 
-0.05771335959434509, 0.050034571439027786, -0.12805093824863434, -0.06296784430742264, 0.10837632417678833, 0.0326046384871006, 0.10808674991130829, 
0.04256441816687584, -0.08104178309440613, -0.10071633011102676, -0.030184190720319748, 0.028128264471888542, -0.03235968202352524, -0.17625460028648376, 
-0.03065134771168232, -0.017516616731882095, -0.028628835454583168, -0.05775780230760574, 0.002710874890908599, -0.0900690108537674, 0.1968681663274765, 
-0.15910466015338898, -0.03954242169857025, 0.12279382348060608, -0.12690424919128418, 0.05477815493941307, -0.08475500345230103, 0.06300684064626694, 
-0.09317350387573242, 0.0975073054432869, 0.07277843356132507, -0.07588493078947067, -0.0768176019191742, 0.03285205364227295, 0.01886960305273533, 
0.22967281937599182, -0.05455548316240311, 0.08559180051088333, -0.05125298351049423, -0.13418029248714447, -0.04536120966076851, -0.18856839835643768, 
-0.197209894657135, -0.0272943414747715, 0.06349805742502213, 0.07055561989545822, 0.09605348110198975, -0.07494150847196579, -0.05815749987959862, 
-0.031570520251989365, 0.12345047295093536, -0.024156462401151657, -0.1369168758392334, -0.17500202357769012, -0.0010892003774642944, 0.02422863058745861, 
-0.13696834444999695, 0.07959512621164322, -0.01738785207271576, -0.10580534487962723, -0.07035337388515472, -0.010229424573481083, -0.09650913625955582, 
0.030892612412571907, 0.0022901042830199003, 0.005110958591103554, 0.04384230077266693, 0.08299366384744644, 0.004728901665657759, 0.014810091815888882, 
-0.09264492988586426, -0.2120644748210907, -0.11429806053638458, -0.09604229032993317, -0.1112021952867508, 0.052107710391283035, 0.051889240741729736, 
-0.01825692318379879, -0.09207139909267426, -0.11654505133628845, 0.06026120483875275, 0.026648208498954773, 0.026950204744935036, -0.24107171595096588, 
0.06645167618989944, -0.06612104177474976, 0.08758117258548737, 0.010796425864100456, -0.1342054158449173, -0.04558340832591057, -0.05894726514816284, 
0.0812845230102539, 0.02914213389158249, -0.003385096788406372, 0.1140759140253067, -0.16024518013000488, 0.05595502257347107, 0.044871293008327484, 
-0.005886220373213291, -0.10117199271917343, 0.16415703296661377, -0.05650610849261284, 0.09969107806682587, -0.05396328866481781, 0.05929667875170708, 
-0.13163618743419647, 0.08123359829187393, 0.011316115036606789, 0.013372820802032948, 0.007460637949407101, 0.1770765781402588, -0.05320453643798828, 
-0.06398999691009521, 0.10424315184354782, 0.00594111206009984, 0.017621470615267754, -0.13321053981781006, -0.15480636060237885, 0.02512969821691513, 
0.030509883537888527, 0.0778869241476059, -0.10526839643716812, -0.13930632174015045, -0.1143471971154213, -0.036273859441280365, 0.06761302053928375, 
-0.030203843489289284, 0.041381239891052246, 0.027545589953660965, -0.02894703671336174, 0.13394933938980103, -0.0028638418298214674, -0.06308010220527649, 
-0.134634330868721, 0.14717762172222137, 0.017872482538223267, 0.04199554771184921, -0.06957826763391495, -0.06523237377405167, -0.020942093804478645, 
-0.000407902873121202, 0.13005609810352325, 0.07728953659534454, 0.05318109691143036, -0.0665123462677002, -0.07823910564184189, 0.04799472168087959, 
-0.12096129357814789, 0.10075341165065765, -0.0734083503484726, 0.03248601779341698, 0.04410537704825401, -0.009965343400835991, 0.012758146040141582, 
-0.03230641037225723, -0.18707039952278137, -0.061113156378269196, -0.11987064778804779, 0.14313502609729767, -0.05994792282581329, 0.039864715188741684, 
-0.08261512964963913, 0.05896913632750511, -0.0006542401388287544, 0.0030256970785558224, -0.06874268501996994, -0.07528942823410034, -0.13807423412799835, 
0.05606737360358238, 0.002780596725642681, 0.07121133804321289, -0.15552811324596405, -0.14322595298290253, -0.06030235439538956, 0.10430733114480972, 
0.06190567463636398, -0.09647737443447113, -0.09035569429397583, -0.03724648803472519, -0.12022973597049713, -0.15197254717350006, 0.025965528562664986, 
0.06206463277339935, -0.0803564041852951, 0.060935843735933304, 0.028146885335445404, 0.033784329891204834, 0.06339748948812485, 0.029858404770493507, 
0.09707113355398178, -0.017542198300361633, -0.09925731271505356, -0.046936407685279846, -0.03774096444249153, 0.025217339396476746, 0.06835794448852539, 
-0.060368284583091736, -0.09010901302099228, 0.11246774345636368, 0.025312427431344986, -0.053241703659296036, -0.048419445753097534, 0.10723546147346497, 
0.044624559581279755, -0.05940500646829605, 0.1431766003370285, -0.04552821069955826, 0.02845928631722927, 0.12335417419672012, -0.13218648731708527, 
-0.03940656781196594, -0.00674669723957777, 0.005452296230942011, 0.11898704618215561, -0.06989023089408875, -0.13522857427597046, -0.07559587061405182, 
-0.024323508143424988, -0.06314212828874588, -0.04254215955734253, 0.030145617201924324, 0.09839452803134918, 0.006705718580633402, -0.06662654131650925, 
-0.09241744875907898, 0.0369265079498291, 0.01917283795773983, -0.13269643485546112, 0.031910162419080734, -0.016981974244117737, 0.0703842043876648, 
-0.049139104783535004, 0.03556591644883156, 0.05710707977414131, -0.01206278521567583, 0.06900345534086227, -0.026592917740345, 0.05515686422586441, 
0.07333631813526154, -0.029532112181186676, -0.06865717470645905, -0.030559798702597618, -0.056542158126831055, 0.008968907408416271, -0.08436603844165802, 
-0.05255216360092163, -0.022090431302785873, 0.07374097406864166, -0.02811047062277794, -0.08161325752735138, 0.06595154106616974, 0.09700910747051239, 
0.0670366883277893, 0.013380483724176884, 0.09684047102928162, 0.046040453016757965, 0.012679420411586761, 0.055315420031547546, 0.03372705355286598, 
-0.011804080568253994, -0.02857138030230999, -0.041606780141592026, 0.08744163066148758, -0.02270132303237915, 0.03965390473604202, -0.004596905782818794, 
-0.10772412270307541, 0.030938023701310158, -0.06377963721752167, 0.042693912982940674, -0.12886983156204224, -0.060281287878751755, -0.11537511646747589, 
-0.14543281495571136, -0.12765902280807495, 0.09533441811800003, 0.13574618101119995, -0.08280996233224869, -0.0007927122060209513, -0.07657025009393692, 
0.030589081346988678, -0.0893363505601883, 0.049683116376399994, -0.031003085896372795, -0.11486589908599854, -0.022920366376638412, -0.02665071375668049, 
-0.12344139069318771, 0.05207700654864311, -0.005088020581752062, -0.030697360634803772, -0.04994364455342293, -0.04062848165631294, -0.10006073117256165, 
0.025410128757357597, 0.009633855894207954, 0.10167770832777023, -0.10711277276277542, -0.08724652230739594, 0.0782766044139862, 0.03104759007692337, 
0.02773290127515793, -0.07399379462003708, 0.02041075937449932, -0.021619655191898346, 0.14714133739471436, -0.06145479530096054, -0.002141939476132393, 
0.09691879153251648, 0.00401373952627182, -0.041854605078697205, 0.07368672639131546, 0.029265129938721657, 0.07146362960338593, -0.09198795258998871, 
0.1134122908115387, -0.08924880623817444, -0.08009716123342514, 0.024893460795283318, -0.07104295492172241, 0.001575438305735588, 0.17496144771575928, 
0.027049124240875244, 0.052061330527067184, -0.08492356538772583, 0.06632544845342636, -0.048701681196689606, -0.04366210103034973, -0.03553657978773117, 
0.028357157483696938, 0.041967570781707764, -0.13551536202430725, 0.07529725879430771, -0.025136087089776993, -0.11755052953958511, 0.1012912169098854, 
-0.13232484459877014, -0.09931956231594086, -0.006091923452913761, 0.013133054599165916, -0.06142058223485947, 0.006301622372120619, -0.041650351136922836, 
0.049580447375774384, 0.08939234912395477, -0.10114965587854385, 0.010612092912197113, 0.01243437547236681, -0.014390834607183933, 0.008914947509765625, 
-0.00044171459740027785, -0.009670828469097614, -0.010308399796485901, -0.11674125492572784, 0.09221810102462769, 0.05679114907979965, 0.06356076151132584, 
0.010420731268823147, -0.017170343548059464, 0.09906983375549316, 0.06720653176307678, -0.12125954777002335, 0.021342188119888306, -0.04740116372704506, 
0.07595295459032059, -0.03451886773109436, 0.08381272107362747, -0.06882192194461823, -0.10878751426935196, -0.018816614523530006, 0.009487819857895374, 
0.13611741364002228, -0.10164061933755875, 0.04037857800722122, -0.04149302467703819, -0.019300805404782295, -0.016996392980217934, 0.09258577227592468, 
0.08296610414981842, 0.0528983473777771, -0.1330529749393463, -0.058060478419065475, 0.005634240806102753, -0.06993132829666138, 0.011807036586105824, 
-0.0030265578534454107, 0.10448857396841049, -0.09451944380998611, -0.028466714546084404, -0.014763303101062775, 0.01332252100110054, 0.030591115355491638, 
0.13122253119945526, 0.03464643657207489, 0.09471673518419266, -0.15438365936279297, -0.09699428081512451, -0.010172605514526367, -0.05991947278380394, 
0.10676397383213043, -0.003538754303008318, -0.016310445964336395, -0.011248811148107052, 0.05131906643509865, 0.14663764834403992, -0.03250373154878616, 
0.008139604702591896, -0.11228993535041809, -0.0643070861697197, -0.09215231239795685, -0.05443685129284859, 0.04853755235671997, -0.01899443194270134, 
0.07608408480882645, -0.04091187193989754, 0.03971897065639496, 0.06309590488672256, 0.0956111028790474, -0.028175784274935722, 0.0677596926689148, 
-0.009646139107644558, -0.0420958437025547, -0.05329601839184761, 0.011942734941840172, -0.05852298066020012, -0.06371428817510605, 0.06838931143283844, 
0.045988183468580246, -0.05899795889854431, -0.03247268497943878, 0.129306823015213, -0.046766750514507294, -0.07303012162446976, 0.15324680507183075, 
-0.00528246583417058, 0.03451450541615486, 0.045690570026636124, 0.11694688349962234, 0.06782087683677673, -0.06726504117250443, -0.07620099931955338, 
-0.11932805180549622, 0.034232690930366516, 0.020352715626358986, -0.14735586941242218, 0.1143595427274704, 0.035443708300590515, 0.0323360450565815, 
0.060303132981061935, 0.12630774080753326, 0.02523350715637207, -0.1380995810031891, 0.036929901689291, -0.0932253897190094, 0.07136200368404388, 
-0.03831460699439049, -0.1022583618760109, -0.014226979576051235, -0.04563942924141884, -0.03918951377272606, 0.0968499705195427, -0.040979016572237015, 
0.07066896557807922, 0.07108273357152939, 0.06265436112880707, 0.10466071963310242, 0.02697545476257801, 0.12516914308071136, -0.02238941192626953, 
-0.12327980250120163, 0.013681390322744846, -0.1553448736667633, -0.11056164652109146, -0.13552644848823547, 0.09432635456323624, 0.11573352664709091, 
0.05163069814443588, 0.12495170533657074, -0.1737249493598938, 0.08965429663658142, 0.11696070432662964, 0.008507093414664268, 0.08355911821126938, 
0.04981015995144844, 0.10974427312612534, -0.21451562643051147, -0.1345711648464203, 0.06914125382900238, -0.15277785062789917, 0.12377588450908661, 
-0.07955556362867355, 0.1633778065443039, -0.19966483116149902, 0.1132923886179924, -0.00880479346960783, -0.0926433652639389, -0.03596429154276848, 
0.015738628804683685, -0.10404790192842484, 0.020314877852797508, 0.10635446012020111, 0.04495209828019142, -0.018922898918390274, -0.06367827206850052, 
0.009809770621359348, -0.015922630205750465, -0.16436626017093658, -0.04003738984465599, 0.12653006613254547, 0.0018749478040263057, 0.018877875059843063, 
-0.010599137283861637, -0.11375134438276291, -0.08160961419343948, 0.013757736422121525, -0.12811844050884247, 0.06738786399364471, 0.09815935045480728, 
-0.0861663818359375, -0.16152922809123993, 0.07170990109443665, -0.1408877670764923, 0.03682015463709831, 0.1329357922077179, 0.01516574528068304, 
-0.19579492509365082, -0.027537032961845398, 0.012294204905629158, 0.04491310194134712, 0.13794173300266266, 0.13460898399353027, -0.010215483605861664, 
-0.033868592232465744, -0.03820069879293442, 0.03006063774228096, -0.05370649695396423, -0.00730880768969655, 0.021268801763653755, -0.04573965445160866, 
0.10655542463064194, 0.019302653148770332, 0.05856037139892578, -0.14631876349449158, 0.00529294740408659, -0.08804017305374146, 0.11329937726259232, 
0.0934680849313736, -0.0007761305314488709, -0.09072776138782501, 0.06923038512468338, 0.09577461332082748, -0.06931896507740021, -0.12347237765789032, 
-0.16669243574142456, -0.0071723246946930885, 0.1258990615606308, -0.07043375074863434, -0.012235919944941998, -0.09540527313947678, -0.10820698738098145, 
0.11827071011066437, -0.06956204026937485, 0.07101090997457504, 0.1151561439037323, -0.023113597184419632, -0.14565441012382507, -0.007702082395553589, 
0.03702740743756294, -0.03269477188587189, 0.13096992671489716, -0.12109912931919098, 0.020427029579877853, 0.027422314509749413, -0.12137388437986374, 
-0.15534372627735138, 0.014117063023149967, 0.013626008294522762, 0.015516098588705063, 0.12253175675868988, 0.09606827795505524, -0.16037772595882416, 
0.13649246096611023, 0.05777427554130554, -0.054578520357608795, -0.08111336082220078, -0.004516489338129759, -0.05377799645066261, 0.141492560505867, 
-0.056625206023454666, -0.13176186382770538, -0.020482998341321945, -0.07671210169792175, 0.015970954671502113, -0.0689278095960617, 0.03345561400055885, 
-0.07271981239318848, -0.10668406635522842, -0.19704996049404144, -0.09376025944948196, 0.09774153679609299, 0.1185985580086708, -0.1855008900165558, 
-0.16422592103481293, -0.07387149333953857, -0.18072457611560822, 0.11847057938575745, 0.036989204585552216, 0.04761645942926407, -0.021220579743385315, 
0.13995085656642914, 0.0364331379532814, 0.007704503368586302, -0.13059227168560028, -0.19067750871181488, -0.13876093924045563, 0.07224047929048538, 
-0.18715627491474152, -0.016757486388087273, -0.10328405350446701, 0.05704634636640549, -0.18600808084011078, -0.11180941015481949, -0.19463513791561127, 
-0.08523453772068024, -0.08286237716674805, -0.17304039001464844, 0.06801595538854599, -0.16285397112369537, -0.0036534161772578955, 0.039277084171772, 
-0.07212387025356293, 0.057444244623184204, 0.05397365242242813, -0.036806464195251465, -0.06141084060072899, 0.14404147863388062, -0.0680336207151413, 
-0.0717286765575409, -0.10255282372236252, -0.13805034756660461, -0.06947546452283859, -0.046749260276556015, -0.11065301299095154, 0.03870685026049614, 
0.13932585716247559, 0.09028507024049759, 0.14233878254890442, 0.00423822458833456, -0.13213324546813965, -0.08885733783245087, -0.06126374006271362, 
0.04455925524234772, 0.07649011164903641, -0.03114859014749527, 0.06215744465589523, -0.022305913269519806, -0.05887860804796219, 0.018665574491024017, 
0.10937944799661636, -0.006143109407275915, 0.1610698401927948, -0.06615712493658066, -0.08915973454713821, 0.11583591997623444, -0.131636843085289, 
0.09194779396057129, -0.046285443007946014, -0.07010186463594437, 0.009301689453423023, -0.013169337995350361, 0.07549633085727692, 0.0422632172703743, 
-0.10960239917039871, 0.06479249149560928, 0.0424639917910099, 0.029400596395134926, -0.17546753585338593, 0.06355275213718414, -0.032569024711847305, 
-0.07533086091279984, -0.06041143834590912, -0.18479777872562408, -0.14761285483837128, 0.09419356286525726, 0.05592941492795944, 0.1949819028377533, 
0.05321452021598816, 0.03272145241498947, -0.0041675991378724575, -0.13265454769134521, 0.07903347164392471, 0.05840808153152466, -0.1821838617324829, 
0.04137241840362549, 0.11746086180210114, 0.08569029718637466, -0.02234605886042118, -0.0551910437643528, 0.11143389344215393, -0.10000316053628922, 
0.012443600222468376, -0.09561053663492203, -0.08525943011045456, 0.10025890171527863, 0.06159257888793945, 0.005487390793859959, 0.023585200309753418, 
0.02816634066402912, -0.10798667371273041, 0.012500705197453499, -0.07317440956830978, -0.08347678184509277, -0.17840254306793213, 0.06982780247926712, 
0.011146295815706253, -0.06399006396532059, -0.05952325090765953, -0.02699032612144947, 0.011402891017496586, -0.0829916000366211, -0.05613452196121216, 
0.06018631532788277, -0.013036699965596199, -0.21589702367782593, 0.010569287464022636, -0.07267828285694122, 0.05296749249100685, -0.06983664631843567, 
0.017531896010041237, 0.05171111971139908, 0.026533430442214012, -0.03643718361854553, 0.03784467279911041, 0.0020356327295303345, -0.07009072601795197, 
-0.13162152469158173, -0.10592415928840637, -0.09119372069835663, -0.03531833365559578, -0.036379534751176834, 0.1246659979224205, -0.054956357926130295, 
0.09851139038801193, 0.057765379548072815, -0.11449827998876572, -0.15970641374588013, 0.01853940635919571, 0.07102587074041367, 0.08027300238609314, 
0.023673564195632935, 0.05812777951359749, 0.03039148822426796, -0.14618457853794098, 0.07100267708301544, 0.05940918251872063, 0.06857378780841827, 
-0.0916733592748642, 0.024717098101973534, -0.015406711958348751, -0.048733510076999664, -0.06608281284570694, 0.043981391936540604, 0.10978878289461136, 
-0.04312097281217575, -0.020136045292019844, -0.11575337499380112, -0.11998207122087479, 0.06203676387667656, 0.09321264922618866, 0.0758855864405632, 
-0.10555992275476456, 0.041433218866586685, 0.07936795800924301, -0.13607046008110046, 0.022216908633708954, -0.002056889235973358, 0.06991954892873764, 
-0.01821557804942131, 0.09347842633724213, -0.0792103260755539, -0.021786034107208252, 0.06704967468976974, 0.03359376639127731, -0.01861635409295559, 
0.051942866295576096, 0.029560672119259834, -0.07599104195833206, 0.024094877764582634, 0.013096830807626247, 0.03922517970204353, -0.020440848544239998, 
-0.014523481018841267, 0.12557683885097504, -0.05503357946872711, -0.09496799856424332, -0.08491688221693039, 0.05763840302824974, 0.04374866187572479, 
-0.09240183979272842, -0.08086401224136353, 0.0017190187936648726, 0.06515628844499588, 0.09147840738296509, 0.1655113399028778, 0.035524606704711914, 
-0.03687162697315216, 0.017104264348745346, -0.07389065623283386, 0.04004879295825958, 0.0555422306060791, 0.0068103717640042305, 0.04407365992665291, 
0.07194371521472931, 0.11378886550664902, 0.023820098489522934, 0.13919906318187714, -0.03819550201296806, 0.04726117476820946, 0.06318657845258713, 
0.09287779778242111, 0.02708933874964714, 0.06659305840730667, -0.10598191618919373, 0.029320230707526207, -0.02149745263159275, -0.08553556352853775, 
0.10230842232704163, -0.0290650837123394, -0.10457070916891098, 0.06331219524145126, 0.03196357935667038, -0.016388138756155968, -0.051630161702632904, 
0.1583148092031479, -0.04839920997619629, -0.08245114237070084, 0.07550521194934845, 0.049956124275922775, -0.054130785167217255, 0.12483970820903778, 
0.0936087965965271, 0.061124641448259354, 0.03391483053565025, 0.03713067248463631, -0.06507227569818497, 0.12604887783527374, 0.005817384924739599, 
-0.058095190674066544, -0.033797089010477066, -0.10760613530874252, -0.1455414742231369, 0.08086017519235611, 0.01835370995104313, -0.008764687925577164, 
-0.08164762705564499, -0.1272328794002533, 0.095810167491436, 0.08715256303548813, 0.02992134727537632, -0.051114607602357864, -0.017296219244599342, 
-0.004877030849456787, -0.05341772735118866, -0.1074710488319397, -0.10487721860408783, 0.11151976138353348, -0.11094079911708832, 0.05089249461889267, 
0.1514989584684372, -0.006919316481798887, -0.051672711968421936, -0.11062297224998474, -0.00456397607922554, 0.015314163640141487, 0.07030680775642395, 
-0.1437782347202301, 0.08611855655908585, -0.062354110181331635, 0.07625825703144073, -0.0515202097594738, -0.01400124840438366, -0.09272218495607376, 
0.025090999901294708, -0.01724865473806858, -0.029660474509000778, 0.05013587698340416, -0.09811068326234818, -0.06570450216531754, 0.07145232707262039, 
0.09346234798431396, 0.09495780616998672, 0.07261119782924652, -0.14253908395767212, 0.013684329576790333, 0.04678361862897873, -0.025351224467158318, 
-0.13441121578216553, -0.11056385934352875, -0.04069307819008827, 0.15910440683364868, -0.0879557803273201, -0.041090432554483414, 0.047831207513809204, 
-0.03677481785416603, 0.030582888051867485, -0.04486261308193207, -0.11989942938089371, 0.048193588852882385, -0.042298849672079086, -0.10943698137998581, 
-0.043795399367809296, 0.12831620872020721, 0.012863332405686378, -0.03954944387078285, -0.01995398849248886, 0.05091427266597748, 0.1406962126493454, 
0.13736484944820404, 0.0006702683167532086, -0.1516263335943222, -0.0741226077079773, 0.05017663165926933, -0.026432523503899574, -0.14839573204517365, 
0.13608108460903168, -0.05010683462023735, 0.032187383621931076, -0.16216039657592773, -0.08917199820280075, -0.11122644692659378, -0.06340975314378738, 
0.09722898155450821, -0.08331095427274704, -0.12323039770126343, -0.06107400357723236, -0.10635869204998016, -0.0941489189863205, -0.03601023182272911, 
-0.03788585588335991, -0.06710094213485718, -0.03541884198784828, -0.05715124309062958, -0.025483690202236176, 0.14648140966892242, 0.01825292594730854, 
-0.13428495824337006, 0.09994301944971085, 0.015329131856560707, -0.016506193205714226, -0.05108422413468361, -0.11329871416091919, 0.10210376232862473, 
-0.04013221710920334, 0.03788629174232483, -6.362795829772949e-06, -0.1025111973285675, -0.08130622655153275, 0.0731591135263443, 0.11591234058141708, 
-0.1255631446838379, -0.10752447694540024, 0.0543258860707283, 0.09279504418373108, -0.0532870888710022, 0.10139177739620209, 0.07011812925338745, 
-0.01409228052943945, -0.08903679251670837, 0.06715685874223709, 0.11303859949111938, 0.0706377699971199, -0.051222868263721466, -0.03500990942120552, 
0.09562423080205917, 0.08021118491888046, -0.0033845792058855295, -0.12113940715789795, 0.0793769359588623, -0.10037155449390411, -0.03765741363167763, 
-0.03821077570319176, 0.10646403580904007, -0.16984961926937103, 0.013100056909024715, 0.05140170827507973, 0.07888296991586685, -0.015010683797299862, 
0.04534287750720978, -0.07766614109277725, -0.10659687221050262, 0.03489414602518082, -0.06989564746618271, -0.014458298683166504, 0.11461909860372543, 
-0.07397426664829254, -0.10137226432561874, -0.061016131192445755, -0.05432832986116409, 0.01900479570031166, -0.07422252744436264, -0.05145156383514404, 
-0.11378655582666397, -0.0534200482070446, 0.0561332069337368, 0.13271073997020721, 0.05656629800796509, -0.01863362081348896, 0.0381619855761528, 
0.0174732469022274, 0.07193751633167267, -0.03884541615843773, -0.0099885119125247, 0.0800376608967781, 0.022156739607453346, 0.05218100547790527, 
-0.019915997982025146, -0.06478714942932129, 0.07584069669246674, -0.025081584230065346, -0.07770811766386032, -0.062119875103235245, -0.10655901581048965, 
0.017899122089147568, -0.017190048471093178, 0.13307315111160278, -0.08444369584321976, -0.07427553832530975, 0.10170047730207443, -0.04865174740552902, 
-0.12125203013420105, 0.02770913951098919, -0.05263663828372955, 0.05431545898318291, 0.050268594175577164, 0.03934602066874504, -0.07365628331899643, 
-0.08533760160207748, 0.06751521676778793, -0.06170568987727165, 0.14440271258354187, 0.08628960698843002, 0.011287766508758068, 0.057916928082704544, 
-0.10000336170196533, 0.005223061889410019, 0.04803083837032318, 0.057617925107479095, -0.08660547435283661, 0.0747378021478653, 0.011960559524595737, 
0.017906226217746735, 0.08882546424865723, -0.04442717880010605, 0.07337536662817001, -0.10343828797340393, 0.03599562495946884, -0.16269822418689728, 
0.08941064774990082, 0.10582175105810165, 0.04029001668095589, -0.04202155023813248, -0.07836315035820007, 0.06727122515439987, 0.06949122250080109, 
-0.1277596801519394, 0.07069536298513412, -0.007250009570270777, -0.07995179295539856, 0.02610861137509346, 0.016553716734051704, -0.0032864054664969444, 
-0.04238039627671242, 0.07994955033063889, -0.06876613199710846, 0.11398546397686005, -0.08413157612085342, 0.09217681735754013, 0.08764783293008804, 
0.039973825216293335, -0.018614385277032852, -0.03873687982559204, 0.006816734094172716, 0.07934916019439697, -0.077462337911129, -0.016568079590797424, 
0.09028138965368271, -0.07319134473800659, 0.016923295333981514, 0.03402352333068848, -0.15771789848804474, 0.05688078701496124, -0.0876023918390274, 
0.09772863239049911, -0.04595528542995453, -0.009184349328279495, 0.07409504801034927, -0.04092877730727196, -0.16286583244800568, -0.05504995211958885, 
-0.07966922968626022, 0.017348261550068855, -0.06909552216529846, -0.054374877363443375, -0.04431543126702309, -0.09910587221384048, 0.11170800030231476, 
-0.05226373299956322, 0.10309740155935287, -0.05818885192275047, -0.05249439924955368, 0.016479145735502243, -0.06638678908348083, 0.11386782675981522, 
-0.022780394181609154, -0.06368400156497955, -0.04009048640727997, 0.10014881938695908, -0.045571863651275635, 0.09231692552566528, -0.0105739152058959, 
-0.028531745076179504, -0.05452444776892662, -0.06288812309503555, -0.13391780853271484, -0.02503182739019394, 0.002364854095503688, -0.011452983133494854, 
0.0243935938924551, 0.10143408924341202, -0.07701687514781952, -0.04963364452123642, 0.014784272760152817, 0.0547662191092968, 0.15907226502895355, 
-0.1330706626176834, 0.04265325888991356, -0.018518391996622086, 0.09450109302997589, -0.02455972321331501, 0.17578279972076416, -0.11289969831705093, 
-0.0031281686387956142, 0.05672729015350342, -0.15670685470104218, -0.04707624018192291, -0.11176642030477524, -0.09017966687679291, -0.0542362816631794, 
-0.0547015406191349, 0.0728013664484024, 0.06688504666090012, -0.000151102474774234, 0.032150980085134506, -0.08942722529172897, 0.0931534394621849, 
0.014450917951762676, -0.0566793717443943, 0.06386379152536392, 0.055418387055397034, 0.1357879936695099, 0.11644091457128525, -0.1394830346107483, 
-0.0038154730573296547, -0.07411974668502808, -0.07251913100481033, 0.08420834690332413, 0.010626297444105148, -0.06351576000452042, 0.027807634323835373, 
-0.0268612839281559, 0.08067416399717331, -0.08196349442005157, -0.048770781606435776, -0.012128964997828007, 0.040153730660676956, 0.002869308227673173, 
0.0010006353259086609, -0.01501142792403698, -0.04218301177024841, 0.024376388639211655, 0.1337137520313263, 0.044239919632673264, 0.021613191813230515, 
-0.03963170573115349, -0.1630663275718689, -0.09846587479114532, -0.09809145331382751, 0.02058517001569271, 0.0593380481004715, 0.06969316303730011, 
-0.07125714421272278, 0.13740691542625427, -0.06541860103607178, -0.018886219710111618, 0.1292332410812378, -0.14963805675506592, 0.023928727954626083, 
-0.020387453958392143, 0.011488848365843296, -0.024720298126339912, 0.06805773079395294, 0.02187713049352169, 0.1141546368598938, -0.05619186908006668, 
0.02497234381735325, -0.06131879612803459, -0.004045560956001282, -0.08196554332971573, -0.10190073400735855, -0.13983657956123352, -0.07707023620605469, 
0.021538276225328445, 0.03902658447623253, 0.12795542180538177, -0.14871130883693695, 0.09352338314056396, 0.11782138794660568, 0.08116833865642548, 
0.1109931617975235, 0.07912758737802505, -0.1064024418592453, 0.013333003036677837, -0.17904101312160492, -0.09925055503845215, -0.011815209873020649, 
-0.17811690270900726, -0.024000974372029305, -0.09317265450954437, -0.07510659098625183, 0.047126077115535736, -0.14861544966697693, -0.09302455931901932, 
-0.0748552456498146, -0.11875049769878387, 0.09961098432540894, 0.12195037305355072, 0.03516829386353493, -0.03599704056978226, -0.01627584919333458, 
-0.11264464259147644, -0.006222642492502928, -0.023238740861415863, -0.06926421821117401, 0.025922438129782677, -0.02670927532017231, -0.0860869288444519, 
-0.1668219417333603, 0.034787941724061966, 0.008999943733215332, 0.0723351240158081, 0.10442902892827988, -0.10111073404550552, -0.13100680708885193, 
-0.14192253351211548, -0.015543832443654537, 0.08538605272769928, -0.28614315390586853, -0.03142625465989113, -0.019600600004196167, 0.08410142362117767, 
-0.08219564706087112, 0.0190746933221817, 0.04561740159988403, 0.028744447976350784, 0.14403079450130463, -0.17159105837345123, 0.048644497990608215, 
-0.04519257694482803, 0.10386808216571808, -0.04001404717564583, -0.19938337802886963, 0.03963442146778107, 0.06002216041088104, 0.09515821188688278, 
0.05989019200205803, 0.04942429065704346, 0.14820963144302368, 0.046684443950653076, 0.138131782412529, 0.030449310317635536, -0.1684940755367279, 
-0.10935329645872116, -0.15536066889762878, -0.035613156855106354, 0.022684546187520027, 0.07421223074197769, 0.08701702207326889, -0.13274940848350525, 
0.029143111780285835, -0.15874077379703522, 0.17427317798137665, 0.0777563750743866, 0.04901288077235222, -0.2517760694026947, -0.00261341012082994, 
-0.019858043640851974, -0.13877221941947937, 0.06352794915437698, -0.05640216916799545, 0.05297647416591644, 0.06755323708057404, -0.11865970492362976, 
0.05964065343141556, 0.05743679776787758, -0.15891669690608978, 0.0875658243894577, -0.16539740562438965, 0.028961189091205597, 0.0019885399378836155, 
0.021550068631768227, 0.009814240038394928, 0.02248946949839592, -0.23248933255672455, -0.08919932693243027, -0.10640271753072739, 0.09109532833099365, 
-0.14015445113182068, 0.0642472505569458, 0.11418664455413818, 0.003167463466525078, -0.0992116928100586, -0.1527475118637085, 0.009787953458726406, 
0.06997721642255783, 0.01036748941987753, -0.01916629634797573, 0.09997676312923431, -0.08382829278707504, 0.02861911430954933, -0.07773412019014359, 
0.05453745275735855, -0.00030952852102927864, -0.12443733215332031, -0.07599776238203049, 0.0289745032787323, -0.03883015364408493, -0.01998249627649784, 
0.07695095241069794, 0.07446178793907166, -0.11654038727283478, 0.028598329052329063, -0.1363578587770462, -0.035675209015607834, 0.0977928563952446, 
0.020085202530026436, -0.14634107053279877, 0.0997721403837204, 0.11978212743997574, -0.17237789928913116, -0.0008207598002627492, -0.08455872535705566, 
-0.023969309404492378, -0.14399553835391998, -0.08550938963890076, 0.023991573601961136, 0.025542933493852615, -0.0947137102484703, -0.15626488626003265, 
0.045279763638973236, -0.13928312063217163, -0.08072960376739502, 0.03785652667284012, 0.11305738240480423, -0.07174380868673325, 0.07363548129796982, 
-0.11904807388782501, -0.07668013125658035, 0.15025722980499268, 0.06789951771497726, -0.08458618819713593, -0.04983058199286461, -0.11224840581417084, 
-0.15613724291324615, -0.0634993463754654, -0.06326093524694443, 0.017831183969974518, -0.07793883979320526, 0.04201577976346016, -0.02585447020828724, 
0.167684406042099, 0.09939247369766235, -0.20759838819503784, -0.05322897806763649, 0.1263207346200943, -0.041785240173339844, 0.044011689722537994, 
-0.1388302594423294, 0.05261094495654106, -0.22173382341861725, -0.015760937705636024, -0.0073939417488873005, 0.09008219838142395, 0.14634352922439575, 
0.06114865094423294, 0.051160212606191635, -0.12466880679130554, -0.08692298829555511, -0.08300454914569855, -0.21598860621452332, -0.04270166531205177, 
-0.02351149544119835, 0.015559908002614975, -0.053338441997766495, -0.08503520488739014, -0.049021463841199875, 0.027367716655135155, -0.03864813223481178, 
0.021658215671777725, -0.08247347176074982, -0.11185744404792786, 0.0316830575466156, -0.10952946543693542, 0.04436878487467766, 0.07579133659601212, 
0.02499610185623169, -0.1316763162612915, -0.11230145394802094, -0.08694186806678772, -0.0061079151928424835, 0.13989126682281494, -0.015582757070660591, 
-0.17893758416175842, 0.17985378205776215, -0.13226577639579773, -0.1561090350151062, -0.020090676844120026, 0.09890677779912949, -0.025274859741330147, 
0.18156805634498596, -0.0034890363458544016, -0.09102317690849304, 0.021710297092795372, -0.08815397322177887, -0.10029099136590958, -0.1470302790403366, 
0.11051647365093231, 0.03003917634487152, -0.04768480360507965, -0.094974584877491, -0.0450911745429039, -0.01787997968494892, 0.027252264320850372, 
-0.06391207128763199, -0.04330868646502495, 0.0284682959318161, 0.10445082932710648, 0.12731672823429108, -0.10923592001199722, 0.08693793416023254, 
-0.03417430818080902, -0.033604696393013, 0.07851587235927582, -0.014394160360097885, 0.07985950261354446, -0.1877613514661789, -0.10440148413181305, 
-0.02661147154867649, -0.17621402442455292, 0.010852422565221786, 0.008173398673534393, -0.14131540060043335, -0.15988487005233765, 0.08633284270763397, 
-0.07412880659103394, -0.08847782760858536, 0.06918973475694656, 0.05705063045024872, -0.12890957295894623, 0.02445155195891857, 0.0161834005266428, 
-0.15163631737232208, 0.04738578945398331, -0.09729637205600739, -0.06139819696545601, -0.035673946142196655, 0.049330174922943115, -0.03942154720425606, 
0.014786302112042904, 0.16024522483348846, -0.09466223418712616, -0.019639259204268456, -0.019165223464369774, -0.035140931606292725, 0.022810328751802444, 
-0.09618566930294037, -0.007212950848042965, -0.1196596547961235, -0.053501080721616745, -0.12078865617513657, 0.03900572285056114, -0.058579202741384506, 
0.018902821466326714, -0.10600293427705765, -0.004045553971081972, -0.02937406115233898, 0.036137282848358154, 0.10210369527339935, -0.14755496382713318, 
-0.10515370219945908, 0.0916764959692955, -0.0242456067353487, 0.05121491849422455, -0.12456460297107697, 0.13090652227401733, 0.10907664895057678, 
-0.07184099406003952, 0.12961740791797638, -0.03602524474263191, 0.05096451938152313, -0.03971874713897705, -0.16972528398036957, -0.10191033035516739, 
0.040383193641901016, 0.09411027282476425, -0.0342462882399559, 0.06518550962209702, 0.11499172449111938, -0.054530736058950424, 0.12525533139705658, 
-0.0419296994805336, -0.07621545344591141, -0.18011312186717987, 0.09322860091924667, -0.1448298692703247, -0.06274934858083725, 0.12262602895498276, 
-0.1497085839509964, -0.14744620025157928, 0.12803412973880768, -0.05520123615860939, 0.0698843002319336, 0.10901696979999542, -0.016308579593896866, 
0.0026382242795079947, 0.09507538378238678, -0.07338462769985199, 0.043759554624557495, 0.04459989443421364, -0.0551375187933445, -0.18904712796211243, 
0.0815921276807785, 0.023072078824043274, 0.17094041407108307, 0.06296791136264801, 0.003344872035086155, -0.044628459960222244, 0.04556776210665703, 
0.07630906254053116, 0.026591677218675613, 0.02367645502090454, 0.11605652421712875, -0.046007558703422546, -0.12449133396148682, 0.10958577692508698, 
0.0629613995552063, -0.09439798444509506, 0.10009074211120605, 0.0025487132370471954, -0.13356377184391022, -0.06142896041274071, -0.16281192004680634, 
-0.05300573632121086, -0.135899156332016, -0.03817174956202507, -0.030732287093997, 0.06205831840634346, -0.04780932515859604, 0.1030963808298111, 
-0.05257328227162361, 0.0169921163469553, 0.09282507747411728, 0.13812699913978577, -0.17844060063362122, 0.1424347311258316, 0.05660403147339821, 
-0.0754421055316925, 0.13116872310638428, -0.13770721852779388, 0.0455746203660965, -0.028184799477458, 0.1286916732788086, 0.15778256952762604, 
0.09350769966840744, -0.0183100663125515, 0.024902841076254845, 0.04855901002883911, -0.08573786914348602, -0.00808886718004942, -0.20517748594284058, 
-0.1882612407207489, 0.10811179876327515, -0.1277403086423874, -0.10141085088253021, 0.019344931468367577, -0.10466510057449341, -0.00991283543407917, 
0.13652333617210388, -0.21433374285697937, -0.1445523053407669, 0.0625789612531662, -0.06194492056965828, 0.017739856615662575, -0.05259887874126434, 
0.02144448086619377, 0.001381713431328535, 0.06889194995164871, -0.25199222564697266, -0.07197248935699463, 0.1688309609889984, -0.0455627515912056, 
-0.1661836951971054, 0.044394467025995255, -0.11160901188850403, 0.053704410791397095, -0.08955153077840805, -0.09737993776798248, -0.079902783036232, 
0.05345774069428444, 0.14854229986667633, 0.02383243851363659, -0.06390859931707382, -0.018742293119430542, 0.02996322512626648, -0.023239577189087868, 
-0.06523633003234863, 0.1233060210943222, 0.09151921421289444, -0.023645801469683647, 0.10679221153259277, 0.10884541273117065, -0.07931686192750931, 
0.05804772675037384, 0.12297007441520691, 0.013152088038623333, 0.10368268936872482, 0.009909449145197868, 0.2099997103214264, -0.00624576723203063, 
0.07941916584968567, -0.08604735136032104, 0.026053354144096375, -0.16076727211475372, 0.14372991025447845, -0.10890455543994904, 0.09050384908914566, 
-0.08063127845525742, -0.03467649593949318, -0.06668407469987869, 0.01680825836956501, 0.07830101251602173, 0.005908006802201271, -0.01101615745574236, 
-0.14885388314723969, 0.01627971976995468, 0.19077135622501373, -0.051086876541376114, -0.07742924243211746, -0.14047488570213318, 0.067050501704216, 
-0.002901356667280197, -0.026264052838087082, -0.0493270568549633, 0.01107450295239687, -0.06719715893268585, -0.033291056752204895, 0.029711144044995308, 
0.0056919981725513935, 0.15259191393852234, -0.08224020153284073, 0.07017777860164642, 0.21993596851825714, -0.1329883635044098, -0.034621529281139374, 
-0.09281965345144272, 0.09087751805782318, 0.005619782954454422, -0.020212069153785706, -0.07178434729576111, 0.01776607520878315, 0.21500565111637115, 
-0.04311337694525719, -0.021279141306877136, -0.11180175840854645, -0.08273536711931229, -0.11841553449630737, -0.14970101416110992, 0.1531866192817688, 
0.049999501556158066, 0.015950752422213554, -0.008388451300561428, -0.023701196536421776, -0.07358129322528839, 0.02024821750819683, -0.003270137822255492, 
-0.04106292128562927, -0.1362510323524475, -0.05602336674928665, 0.056010112166404724, -0.08436213433742523, -0.03614587336778641, -0.025260845199227333, 
-0.08023770153522491, -0.0928921103477478, -0.11429832875728607, 0.06645330786705017, 0.07598854601383209, 0.07446490973234177, -0.10195000469684601, 
0.05826392397284508, -0.1350332498550415, 0.07653743028640747, 0.000735023058950901, 0.021790185943245888, -0.15286193788051605, -0.0014864838449284434, 
-0.012459334917366505, -0.033999841660261154, 0.0030857876408845186, 0.07251694798469543, 0.10071411728858948, 0.12802109122276306, -0.134463369846344, 
-0.06921645998954773, 0.1298838108778, -0.09225345402956009, -0.12629815936088562, 0.13738220930099487, 0.03130433335900307, 0.03362825885415077, 
-0.008122053928673267, -0.010719344019889832, -0.0862954705953598, -0.11450482904911041, -0.14608994126319885, -0.0527622252702713, 0.12758563458919525, 
-0.03880966454744339, 0.01807102933526039, -0.06618057936429977, -0.057931989431381226, -0.05740758031606674, 0.14291337132453918, -0.12443061172962189, 
-0.15949514508247375, -0.03628426790237427, -0.04536321014165878, 0.0889662504196167, -0.11275716871023178, 0.07926396280527115, 0.15006780624389648, 
-0.03254207596182823, -0.03670324757695198, 0.07022950798273087, -0.12058550864458084, -0.05877526104450226, -0.004090259782969952, 0.125639408826828, 
-0.09892825782299042, 0.0011168112978339195, 0.06800416111946106, 0.07866708934307098, 0.07907143980264664, -0.0612935796380043, 0.05017716810107231, 
0.11970365047454834, -0.19474834203720093, -0.16201433539390564, -0.11716202646493912, -0.17856234312057495, 0.0826859176158905, 0.024139882996678352, 
0.060015857219696045, -0.018429258838295937, 0.06771896779537201, -0.14070329070091248, -0.0025501621421426535, 0.03860625997185707, -0.0025364819448441267, 
0.0702417641878128, -0.004223991185426712, 0.12266787886619568, 0.003135013161227107, -0.20579896867275238, 0.017719073221087456, 0.10815859586000443, 
0.08142009377479553, -0.14272485673427582, -0.08899474889039993, 0.06053626537322998, -0.03133298456668854, -0.06309087574481964, -0.16184554994106293, 
-0.0615292489528656, -0.013594422489404678, -0.033486418426036835, 0.007227431982755661, 0.10436077415943146, -0.09375259280204773, -0.04866940528154373, 
-0.0008702498162165284, -0.07857374101877213, -0.06686672568321228, 0.042128052562475204, 0.020512672141194344, 0.07033530622720718, -0.20379538834095, 
0.10565454512834549, -0.06942379474639893, -0.14777368307113647, 0.12475447356700897, 0.11466889828443527, 0.12024739384651184, 0.09004306048154831, 
-0.12871253490447998, 0.09943539649248123, 0.05441386252641678, -0.06307386606931686, -0.010448158718645573, -0.18110138177871704, -0.02830497734248638, 
-0.13365617394447327, -0.08506608754396439, 0.012975351884961128, -0.05896046385169029, -0.1968262791633606, 0.10731303691864014, -0.07695840299129486, 
0.15810123085975647, 0.037969011813402176, -0.014334463514387608, 0.008312130346894264, 0.019593844190239906, -0.0840538889169693, -0.015282913111150265, 
-0.1436486691236496, -0.07008317112922668, 0.14028088748455048, 0.12352906912565231, -0.09078837186098099, -0.12484700232744217, 0.030803179368376732, 
0.018893612548708916, -0.09752167016267776, -0.09019818156957626, -0.0633259117603302, -0.02451772801578045, 0.11280404031276703, 0.05466189980506897, 
-0.16007313132286072, 0.08815646916627884, 0.1164417564868927, 0.04980342835187912, 0.030952617526054382, -0.1046845093369484, -0.059761565178632736, 
0.03580305352807045, 0.1080189123749733, -0.1369720995426178, -0.03740537166595459, 0.14081385731697083, 0.010723528452217579, -0.044329848140478134, 
0.1834324151277542, -0.17044204473495483, -0.1011720523238182, -0.14804232120513916, -0.01511930301785469, 0.10494647920131683, -0.005906702019274235, 
0.08446507155895233, 0.12282012403011322, 0.004164188634604216, -0.13021203875541687, 0.051203157752752304, 0.0647730678319931, -0.09765934944152832, 
0.04214109107851982, -0.15415452420711517, -0.13143886625766754, -0.11506538838148117, 0.015080210752785206, 0.025990664958953857, -0.05395274609327316, 
0.0459834560751915, 0.07070425897836685, -0.05203138291835785, -0.17556683719158173, -0.07045731693506241, -0.09598959982395172, -0.017010584473609924, 
-0.05006999522447586, 0.03574050962924957, -0.0902334451675415, -0.16022725403308868, -0.1827644258737564, 0.08129661530256271, -0.07236915826797485, 
-0.07913964241743088, -0.1370447725057602, 0.1318831443786621, -0.1989298313856125, 0.09024012088775635, -0.08555016666650772, 0.004407024011015892, 
0.04632268100976944, -0.17036718130111694, -0.15626738965511322, 0.007704821415245533, 0.01814844086766243, 0.1331755816936493, -0.20687216520309448, 
-0.1417146474123001, 0.1265374720096588, 0.0143644530326128, -0.07017054408788681, 0.12078898400068283, 0.07332541793584824, 0.08112375438213348, 
0.06383823603391647, 0.038466691970825195, -0.0797276645898819, 0.026535728946328163, -0.21620750427246094, -0.13722547888755798, -0.09390147775411606, 
0.021869542077183723, 0.16184845566749573, -0.09720465540885925, -0.09751392900943756, -0.16820134222507477, 0.09376174211502075, -0.018795104697346687, 
0.020795553922653198, -0.18727122247219086, -0.03125259652733803, -0.15728986263275146, 0.006166619248688221, 0.11880924552679062, 0.10900655388832092, 
0.10849012434482574, 0.013844010420143604, -0.015916254371404648, -0.1291072517633438, 0.03763061761856079, -0.20572298765182495, 0.12498366832733154, 
-0.02166523039340973, 0.10787889361381531, -0.00391624728217721, 0.048184774816036224, -0.16320766508579254, -0.02554786391556263, -0.22288323938846588, 
-0.07767003774642944, 0.06914890557527542, 0.08492372184991837, -0.10626592487096786, 0.09470485150814056, -0.004153221379965544, -0.030202191323041916, 
-0.1362306922674179, -0.11282619088888168, -0.07221615314483643, -0.027707088738679886, 0.15640948712825775, 0.1414279192686081, -0.016184542328119278, 
-0.0904683843255043, 0.08840736746788025, -0.17582333087921143, 0.10251695662736893, 0.0399511493742466, 0.06494560837745667, -0.11335095763206482, 
0.055410876870155334, 0.17444166541099548, -0.04655623808503151, -0.05374402180314064, -0.04641684889793396, -0.15339624881744385, 0.12989689409732819, 
-0.045266542583703995, -0.15800921618938446, 0.11732006072998047, -0.09280975908041, -0.0381600446999073, 0.046683549880981445, 0.16341373324394226, 
-0.012428171001374722, 0.05541958287358284, -0.13803397119045258, -0.008036674000322819, -0.04807862639427185, -0.055928535759449005, -0.20637604594230652, 
-0.10377539694309235, -0.1551213562488556, 0.05788940191268921, -0.12428368628025055, 0.046441588550806046, -0.17430126667022705, -0.04983346536755562, 
0.09337610006332397, -0.18772807717323303, -0.05840187892317772, -0.016496432945132256, 0.04647768288850784, -0.07765521109104156, -0.02174106054008007, 
-0.03810194134712219, 0.0010034556034952402, 0.10388059914112091, 0.11750193685293198, -0.042528629302978516, -0.12690439820289612, -0.07412897795438766, 
0.088213711977005, 0.03852767124772072, 0.07283031195402145, 0.05706222355365753, 0.1335352659225464, -0.1424185335636139, 0.02741275355219841, 
0.05933103337883949, -0.17627406120300293, 0.19791042804718018, -0.04313933476805687, 0.006598084699362516, -0.11071789264678955, -0.10461971908807755, 
0.14520293474197388, -0.09021196514368057, 0.011522841639816761, -0.14464446902275085, -0.165519580245018, -0.12516890466213226, -0.022325338795781136, 
-0.049875304102897644, -0.18854254484176636, -0.033747777342796326, 0.12700030207633972, -0.03249853104352951, -0.052232224494218826, 0.14454515278339386, 
0.11297839134931564, -0.02567196637392044, -0.10135024785995483, -0.05222269520163536, -0.1248377114534378, -0.0032393301371484995, -0.15377715229988098, 
-0.08310462534427643, 0.02367427758872509, 0.112160325050354, -0.05515216663479805, 0.0482211634516716, -0.0984024852514267, -0.015600544400513172, 
-0.051498766988515854, 0.15329326689243317, 0.14171810448169708, 0.04136790335178375, 0.17725856602191925, 0.03918617591261864, 0.04224957153201103, 
0.021086404100060463, 0.1172134056687355, 0.04950026050209999, -0.07564257085323334, -0.14933021366596222, 0.08084680140018463, 0.13072927296161652, 
-0.1820482313632965, 0.12582612037658691, -0.24406424164772034, -0.07365434616804123, 0.03253011032938957, 0.011878706514835358, -0.12522758543491364, 
0.08886563777923584, -0.24554699659347534, -0.019567884504795074, -0.058588169515132904, 0.00274577341042459, -0.05345794931054115, 0.02680114656686783, 
0.06668273359537125, 0.02148367650806904, -0.09423547983169556, -0.11893432587385178, -0.1850443184375763, -0.05258595943450928, 0.04423200711607933, 
-0.006745305843651295, 0.03675219789147377, -0.02305942215025425, -0.06961506605148315, -0.03452523425221443, 0.05569564923644066, 0.10648107528686523, 
-0.1403130143880844, -0.09364613890647888, -0.10185189545154572, 0.15679731965065002, -0.07960195094347, 0.06139429286122322, 0.038393259048461914, 
0.04809727147221565, -0.07276050001382828, -0.16463550925254822, -0.18252484500408173, -0.09830595552921295, -0.11008602380752563, -0.024204978719353676, 
-0.039558932185173035, 0.07550830394029617, 0.023741818964481354, 0.1368304193019867, -0.05376225337386131, -0.11472032219171524, -0.06699750572443008, 
-0.14744462072849274, -0.11792450398206711, -0.02603912726044655, 0.005205747205764055, -0.08193428069353104, 0.048311974853277206, -0.023775160312652588, 
-0.11290755867958069, -0.019309641793370247, 0.028139492496848106, 0.07700441777706146, 0.015451974235475063, 0.018275780603289604, -0.08576697111129761, 
0.04235588759183884, -0.0004034991143271327, 0.028815459460020065, 0.08432918041944504, 0.06119590625166893, 0.009112678468227386, -0.059963926672935486, 
-0.07867913693189621, -0.12372323125600815, -0.07100114226341248, 0.011786074377596378, 0.03419005870819092, -0.09301628917455673, -0.07701902836561203, 
-0.03138222545385361, -0.10478360950946808, -0.10163122415542603, -0.07967636734247208, -0.09963570535182953, 0.07642745226621628, -0.07206634432077408, 
0.02493862994015217, -0.01983119361102581, 0.04009540006518364, -0.14185447990894318, 0.0010854267748072743, 0.05962967127561569, -0.07293853908777237, 
0.2234335094690323, 0.06807520985603333, -0.09000574797391891, 0.03203114867210388, 0.148149773478508, -0.1243937611579895, -0.053269047290086746, 
0.08810305595397949, -0.12786948680877686, -0.05881168693304062, -0.021785622462630272, 0.014909004792571068, -0.04690810292959213, 0.12613219022750854, 
0.07495442032814026, -0.12014379352331161, 0.026034750044345856, 0.07435517758131027, -0.037481214851140976, 0.007550941314548254, 0.007483282592147589, 
-0.040443189442157745, -0.0374157577753067, 0.09465298801660538, 0.0832258015871048, 0.0021647794637829065, -0.021000873297452927, -0.16138029098510742, 
0.02146582491695881, -0.13015702366828918, 0.05678880214691162, -0.1386975646018982, -0.11823967099189758, -0.04744071885943413, 0.0017444024560973048, 
0.10042016953229904, -0.14032085239887238, 0.08106264472007751, 0.018614111468195915, 0.0804692879319191, -0.08457313477993011, -0.018268359825015068, 
0.0712214931845665, -0.13347378373146057, 0.04287458956241608, 0.15277859568595886, 0.021154742687940598, -0.013376661576330662, 0.14052002131938934, 
0.1492197960615158, 0.008502249605953693, -0.09939227998256683, 0.0401870422065258, 0.005997288506478071, -0.12302736937999725, -0.04984043538570404, 
0.06710650026798248, -0.08968452364206314, -0.047630056738853455, -0.002940123900771141, 0.02763483300805092, -0.009487825445830822, 0.13217684626579285, 
-0.09999627619981766, 0.022885268554091454, 0.06146584078669548, 0.002265803748741746, -0.06689202785491943, 0.023234695196151733, 0.11658608168363571, 
-0.07120592147111893, -0.07949672639369965, -0.03915278986096382, -0.10663425922393799, -0.0832599624991417, 0.11116164922714233, -0.0610712505877018, 
-0.11384440213441849, 0.05207516625523567, -0.07293806970119476, 0.04417960345745087, 0.12790757417678833, -0.04662461578845978, 0.11181526631116867, 
-0.08993327617645264, 0.12944775819778442, 0.006940328981727362, 0.010873022489249706, 0.022052226588129997, 0.016726551577448845, -0.03186250105500221, 
-0.09741202741861343, 0.07767230272293091, -0.0006635938188992441, -0.004544297698885202, 0.04190222918987274, -0.05802246183156967, -0.02872176468372345, 
0.08806752413511276, -0.023860527202486992, -0.029103996232151985, -0.08609651029109955, -0.042440593242645264, -0.11716605722904205, -0.057171620428562164, 
-0.16224993765354156, 0.05251295864582062, -0.14731407165527344, -0.03446117043495178, -0.0541481077671051, 0.08967088907957077, -0.05473257973790169, 
-0.06034320965409279, 0.10026810318231583, -0.04880194365978241, -0.09902127087116241, 0.12803958356380463, -0.1818309873342514, -0.025172611698508263, 
-0.142903670668602, -0.05324854329228401, -0.14105680584907532, -0.11072030663490295, -0.16025188565254211, -0.048372335731983185, 0.0710882619023323, 
-0.13674543797969818, 0.0028191725723445415, -0.160638228058815, 0.0481194332242012, -0.007819633930921555, -0.03822539001703262, 0.040382809937000275, 
-0.024818984791636467, 0.06057000160217285, -0.11444590240716934, 0.12840455770492554, 0.14582350850105286, -0.08102648705244064, 0.09662380814552307, 
-0.10068295150995255, -0.12629909813404083, -0.03620131313800812, 0.03926188126206398, -0.03369973599910736, -0.08882070332765579, 0.12189683318138123, 
-0.10210894048213959, -0.01480021234601736, 0.007234548684209585, -0.08885127305984497, 0.08549096435308456, 0.027569590136408806, -0.024919062852859497, 
-0.07046959549188614, 0.013219863176345825, -0.07466273754835129, -0.12117249518632889, -0.03799283504486084, -0.09230489283800125, 0.0824650451540947, 
0.14278513193130493, -0.12811294198036194, -0.1322871744632721, 0.057380311191082, -0.03659486398100853, 0.027985792607069016, -0.15385869145393372, 
0.01475584041327238, -0.05679837614297867, -0.08254751563072205, 0.06744347512722015, -0.0336587093770504, -0.21249350905418396, 0.06897744536399841, 
0.04516809061169624, 0.00510683748871088, -0.14337530732154846, 0.06339956820011139, -0.0525081604719162, -0.02529648318886757, 0.0747123584151268, 
0.03462216258049011, 0.03756802901625633, -0.0036699415650218725, -0.046247802674770355, 0.19375450909137726, 0.03398093953728676, -0.0699956864118576, 
-0.0024681754875928164, -0.17822018265724182, 0.08050587773323059, -0.0287662111222744, -0.13161247968673706, -0.12787705659866333, -0.048940032720565796, 
0.04942026361823082, -0.020407525822520256, -0.027950948104262352, 0.013625934720039368, 0.06672263145446777, 0.14235474169254303, 0.012577923946082592, 
-0.01721223257482052, 0.11433316767215729, -0.007677748333662748, -0.1807718724012375, 0.09415654838085175, 0.09793615341186523, -0.1613636016845703, 
0.04929015040397644, -0.13184130191802979, -0.2002919465303421, -0.040330540388822556, -0.11599215865135193, -0.0746992900967598, 0.16614356637001038, 
-0.01955190673470497, -0.11780861020088196, -0.09270796924829483, 0.027335649356245995, -0.09352865815162659, 0.03261024132370949, -0.0113911097869277, 
-0.17130273580551147, -0.14996123313903809, -0.1738891899585724, -0.09269671142101288, 0.004167281091213226, 0.11622057110071182, -0.06510218232870102, 
0.05208127573132515, 0.03236190974712372, 0.024314124137163162, 0.04105827212333679, -0.19640178978443146, 0.1516600251197815, -0.10590620338916779, 
-0.05627457797527313, 0.05433802679181099, 0.007726594340056181, 0.14200016856193542, -0.20085546374320984, 0.006506247911602259, -0.06825403869152069, 
-0.024586042389273643, 0.0004969167057424784, -0.16853123903274536, 0.0985829308629036, -0.013452445156872272, -0.0916452705860138, 0.0748366117477417, 
-0.05649062991142273, 0.027772825211286545, -0.14803265035152435, -0.12614648044109344, -0.058489929884672165, 0.12315289676189423, 0.023026814684271812, 
-0.024967608973383904, -0.17579928040504456, 0.02572639472782612, 0.023009398952126503, -0.18240617215633392, 0.06906044483184814, 0.15178237855434418, 
0.04316520690917969, 0.05760185793042183, -0.06348147988319397, -0.10998066514730453, -0.0565275140106678, -0.13734367489814758, -0.007147040218114853, 
-0.013451417908072472, 0.13080565631389618, 0.03105536662042141, -0.03931589424610138, -0.03214120492339134, -0.16624842584133148, 4.683911174652167e-05, 
0.017546169459819794, -0.01308926846832037, -0.04486585035920143, 0.06566053628921509, -0.07639159262180328, -0.0416194424033165, 0.11296874284744263, 
0.004215146880596876, 0.07492350041866302, 0.1683463603258133, 0.018723659217357635, 0.06195122003555298, 0.008718015626072884, -0.03201206028461456, 
0.11665181070566177, -0.22925670444965363, 0.03721112385392189, 0.07750733196735382, -0.0740571916103363, 0.0002676044241525233, 0.1532481610774994, 
-0.09441286325454712, -0.06036150082945824, -0.11232096701860428, 0.10198219865560532, 0.047053951770067215, 0.05340169742703438, 0.13833703100681305, 
-0.0640917494893074, -8.683443593326956e-05, -0.19105908274650574, -0.03928332030773163, 0.09180041402578354, 0.04818156734108925, 0.19389021396636963, 
-0.09347143769264221, -0.18567343056201935, 0.11935583502054214, -0.08134046196937561, -0.08498732000589371, 0.042619287967681885, 0.11442875862121582, 
-0.11324504762887955, -0.07102164626121521, 0.03713899850845337, -0.18929985165596008, 0.11536400765180588, -0.041049763560295105, 0.014338850043714046, 
0.13053953647613525, -0.07916422188282013, -0.05364614725112915, 0.07662122696638107, -0.11576727032661438, 0.010369081050157547, 0.10957613587379456, 
0.016888005658984184, -0.0815495178103447, 0.0072337263263762, 0.06413734704256058, -0.19929613173007965, -0.11677167564630508, -0.0441494919359684, 
-0.12104668468236923, -0.014230255037546158, 0.021205034106969833, -0.04273222014307976, 0.04614226520061493, -0.008534984663128853, -0.1489233374595642, 
0.1063784509897232, 0.12361875921487808, 0.06888708472251892, -0.08527781814336777, -0.16430433094501495, -0.0426667146384716, 0.03943389281630516, 
-0.15761765837669373, 0.03258603438735008, -0.0036581833846867085, 0.017756052315235138, -0.02571333758533001, -0.053053513169288635, 0.03442840278148651, 
0.05895903334021568, -0.028653085231781006, -0.09837222099304199, -0.017460567876696587, 0.028940774500370026, 0.004462065175175667, 0.027770770713686943, 
0.006210841704159975, -0.09033257514238358, -0.0050890338607132435, -0.038885489106178284, -0.059900831431150436, 0.020584333688020706, 0.027299093082547188, 
-0.03454999253153801, 0.03103773668408394, 0.012452010996639729, 0.028891494497656822, 0.028718866407871246, 0.051736775785684586, 0.043596301227808, 
0.06858684122562408, -0.12804388999938965, 0.058798208832740784, 0.0017905995482578874, 0.05542643740773201, 0.06706688553094864, -0.0648372545838356, 
-0.037098828703165054, 0.07447236031293869, -0.12265292555093765, -0.00451936200261116, -0.034022219479084015, 0.08491454273462296, -0.09719393402338028, 
0.045458585023880005, 0.028701286762952805, -0.032408133149147034, 0.058586638420820236, 0.026584597304463387, -0.01417545322328806, -0.03463989868760109, 
0.0606706328690052, -0.00499101635068655, 0.07255048304796219, 0.026151977479457855, 0.018336988985538483, 0.01563619077205658, 0.0625571608543396, 
-0.030966371297836304, -0.027123672887682915, 0.05690380930900574, -0.05506773665547371, -0.0034270347096025944, -0.04232582077383995, 0.07696627825498581, 
-0.06883152574300766, 0.005420970264822245, -0.051388729363679886, -0.01052593719214201, -0.061552777886390686, -0.05114314705133438, -0.027658311650156975, 
-0.01578683778643608, 0.0635552778840065, -0.037712324410676956, -0.08419647812843323, -0.00575669901445508, -0.039042919874191284, -0.0008843555115163326, 
-0.03545499965548515, -0.007333047688007355, -0.005105678457766771, 0.0021572394762188196, 0.02093358524143696, 0.02532878704369068, 0.08592795580625534, 
0.037250395864248276, 0.07620178908109665, 0.08824284374713898, 0.006876775529235601, 0.045848507434129715, 0.06641949713230133, -0.07231874763965607, 
-0.05118757486343384, 0.052683912217617035, -0.022665495052933693, -0.04410499334335327, 0.04953901842236519, -0.03085208870470524, 0.08181868493556976, 
-0.0927676409482956, -0.04190855100750923, -0.08271519839763641, -0.006668983958661556, -0.04174325242638588, 0.04480404779314995, -0.05709334835410118, 
-0.06267151981592178, -0.09496763348579407, -0.03165857493877411, 0.04359991475939751, -0.15650492906570435, -0.02109703980386257, 0.05467982962727547, 
-0.008600499480962753, -0.06790079921483994, -0.016413474455475807, -0.01978992111980915, 0.030149448662996292, 0.12073355913162231, -0.1270589679479599, 
0.00519193708896637, 0.0008293184801004827, 0.06971794366836548, -0.14453232288360596, 0.059512659907341, -0.0091490363702178, 0.0010249344632029533, 
0.03651104494929314, -0.0686875432729721, -0.034554049372673035, -0.1552274376153946, -0.13752029836177826, -0.02884732559323311, -0.14916439354419708, 
-0.007744506001472473, -0.17632511258125305, -0.06642025709152222, -0.11599914729595184, 0.1115020215511322, 0.12336920201778412, -0.08679104596376419, 
0.03091735579073429, -0.19228339195251465, -0.009583530016243458, -0.09794507920742035, -0.02103431150317192, 0.03024843893945217, -0.019916199147701263, 
0.02757756970822811, -0.15650883316993713, -0.10167096555233002, -0.04616667702794075, -0.021843712776899338, 0.07038871943950653, 0.031050773337483406, 
0.040278419852256775, 0.00886823982000351, -0.033154379576444626, -0.0680338442325592, -0.2163080871105194, -0.060158390551805496, 0.06283117085695267, 
0.08946823328733444, -0.031169094145298004, 0.1459837108850479, 0.1123751848936081, 0.09858287125825882, 0.012363603338599205, -0.08373714983463287, 
0.01643705926835537, 0.06650024652481079, -0.14200347661972046, -0.1006714254617691, 0.11526821553707123, -0.03631362318992615, 0.014841006137430668, 
-0.1255025714635849, -0.09079676866531372, -0.1527528613805771, -0.1183813288807869, 0.001776781165972352, 0.022702189162373543, -0.24927829205989838, 
0.06293035298585892, -0.042293258011341095, -0.10622727870941162, 0.0814691036939621, 0.010600308887660503, 0.09800387918949127, 0.11586546897888184, 
0.05143169313669205, 0.04962366446852684, 0.02233024500310421, -0.22061869502067566, -0.0715268924832344, -0.2137659788131714, 0.1094190925359726, 
0.035716746002435684, -0.005843114573508501, 0.007922631688416004, -0.010255223140120506, -0.1779996156692505, -0.04590839520096779, -0.048758555203676224, 
0.11099913716316223, 0.058435484766960144, 0.10985969752073288, 0.05435854196548462, 0.02551453374326229, -0.05300973355770111, -0.17427688837051392, 
-0.23822002112865448, 0.047622013837099075, 0.027694430202245712, -0.0524534173309803, -0.1367902010679245, -0.15004195272922516, -0.07629585266113281, 
-0.03504686430096626, 0.07651164382696152, 0.03154614195227623, -0.006595770362764597, -0.10275334119796753, -0.03152906894683838, 0.08141332864761353, 
-0.04803948849439621, 0.08375073969364166, 0.04386602342128754, 0.005033327266573906, 0.039730895310640335, -0.148799866437912, -0.011699303984642029, 
-0.059618230909109116, -0.057761065661907196, -0.016140015795826912, 0.04765459895133972, -0.06792344897985458, -0.02000381052494049, -0.08017965406179428, 
0.00039817896322347224, -0.10941186547279358, 0.015023254789412022, 0.01719178631901741, -0.17308449745178223, 0.12555478513240814, -0.159131720662117, 
-0.028294609859585762, 0.058356933295726776, -0.10505352914333344, 0.07409586012363434, 0.09022063761949539, 0.0913553386926651, 0.00595362763851881, 
-0.06713899224996567, -0.10643546283245087, -0.10679040849208832, 0.02899818681180477, -0.11205416917800903, -0.039820630103349686, -0.09931709617376328, 
0.1076182946562767, 0.03500865399837494, 0.01348179578781128, 0.006577618420124054, -0.012767370790243149, 0.07094524800777435, -0.046533189713954926, 
0.09173856675624847, 0.043143317103385925, -0.025857936590909958, -0.2429356873035431, 0.04943202808499336, 0.026651114225387573, -0.15681788325309753, 
0.09647167474031448, -0.044318415224552155, 0.06182674318552017, -0.10826195031404495, 0.06501010060310364, -0.19736748933792114, -0.09863946586847305, 
-0.06465368717908859, 0.059568293392658234, -0.08055932074785233, -0.183945894241333, -0.032443754374980927, 0.08480026572942734, -0.07153940200805664, 
-0.05224928632378578, 0.1404598504304886, -0.05122484639286995, 0.06240007281303406, -0.0048764594830572605, 0.13927914202213287, 0.09124606102705002, 
0.00458204559981823, -0.159136101603508, -0.009590854868292809, 0.03043939173221588, -0.03084276244044304, -0.06542398780584335, 0.0224046241492033, 
-0.07585413753986359, 0.04214560240507126, 0.07157880812883377, 0.03217235952615738, 0.001759675214998424, -0.04671712964773178, 0.10550972819328308, 
0.08894756436347961, -0.18397480249404907, -0.013502982445061207, 0.02380727231502533, -0.11576779186725616, 0.03939902409911156, 0.1362036019563675, 
0.05293644219636917, 0.13356201350688934, -0.0131454449146986, -0.08815936744213104, 0.005081500858068466, -0.20873865485191345, -0.07996563613414764, 
-0.03422124683856964, 0.14121605455875397, -0.07283210754394531, -0.10618101805448532, -0.10063251107931137, 0.021844256669282913, -0.14922210574150085, 
-0.07765258103609085, 0.006354875862598419, -0.010453889146447182, -0.1829749047756195, 0.09184818714857101, -0.04574768617749214, -0.1517535299062729, 
-0.007029844913631678, -0.15097500383853912, -0.027645541355013847, 0.11488218605518341, 0.054942741990089417, 0.10978023707866669, -0.06178804486989975, 
0.021893082186579704, 0.142508864402771, -0.12080997228622437, 0.08389168232679367, -0.026671646162867546, -0.08338114619255066, -0.07603609561920166, 
0.06169021129608154, -0.09227543324232101, -0.13866347074508667, 0.10422895103693008, -0.07707579433917999, 0.010822591371834278, 0.040901780128479004, 
-0.15869347751140594, -0.17478597164154053, 0.10805278271436691, -0.016134895384311676, -0.011476564221084118, 0.09848757088184357, 0.16229915618896484, 
-0.0831010490655899, -0.01595621183514595, -0.17253674566745758, -0.19144590198993683, -0.04674350097775459, 0.02840803936123848, -0.1888875812292099, 
0.145035058259964, -0.053950101137161255, -0.02078721672296524, -0.07739391922950745, 0.04439971596002579, -0.03473738208413124, 0.11864867806434631, 
0.011671237647533417, -0.20743897557258606, 0.08478356152772903, -0.19846642017364502, -0.016056036576628685, 0.16139492392539978, -0.1206962987780571, 
-0.10505440831184387, -0.10686658322811127, -0.007741429377347231, -0.1599985510110855, -0.09894746541976929, -0.023461969569325447, -0.08759547770023346, 
-0.10184988379478455, 0.06130608171224594, -0.051794491708278656, 0.024831514805555344, -0.0964825302362442, -0.06267144531011581, -0.033336371183395386, 
0.0660935640335083, 0.007572862785309553, -0.025142880156636238, 0.02594897150993347, 0.029308101162314415, -0.024256082251667976, 0.1380968540906906, 
-0.04176979884505272, 0.05149364098906517, 0.03526262193918228, -0.03736899048089981, 0.08455431461334229, 0.17177195847034454, -0.059269461780786514, 
-0.1205252856016159, -0.04480654001235962, -0.09725074470043182, -0.1158578172326088, 0.06655725836753845, 0.1308920681476593, -0.043786462396383286, 
-0.06614787876605988, 0.07687298208475113, -0.04765752702951431, 0.014707990922033787, 0.0390535444021225, -0.03660023212432861, 0.029196862131357193, 
0.026800474151968956, 0.05882108956575394, -0.1285565197467804, -0.024607980623841286, 0.0638197660446167, -0.008819344453513622, 0.12486624717712402, 
0.02429443970322609, -0.024500582367181778, -0.09581269323825836, -0.10474276542663574, -0.0729251354932785, 0.03682694584131241, -0.015328372828662395, 
0.01659298501908779, -0.022085463628172874, -0.10884080827236176, -0.07829869538545609, -0.07880811393260956, -0.017583737149834633, -0.017741398885846138, 
0.10297763347625732, 0.10913702845573425, 0.04326436668634415, -0.08738245069980621, -0.05328905209898949, -0.12213695049285889, 0.036145493388175964, 
-0.15142406523227692, 0.07324951142072678, -0.053618259727954865, 0.01712036319077015, 0.061398983001708984, 0.064937062561512, -0.15161751210689545, 
0.043502166867256165, -0.09192794561386108, 0.085743248462677, 0.018855992704629898, 0.0127109345048666, 0.017763888463377953, -0.019213924184441566, 
-0.039862725883722305, -0.0010633129859343171, 0.12071269750595093, -0.11535054445266724, 0.010861031711101532, 0.050910547375679016, 0.051796071231365204, 
-0.04172622039914131, 0.00835227221250534, -0.0261642187833786, 0.01072012446820736, 0.1706327348947525, -0.06130694970488548, 0.026487603783607483, 
0.0019385389750823379, 0.03122556395828724, 0.010080012492835522, 0.0390835776925087, -0.044809624552726746, 0.05522652342915535, 0.18818393349647522, 
-0.042293936014175415, -0.02436034195125103, 0.002342507243156433, 0.049865782260894775, 0.12178395688533783, 0.08456715196371078, 0.015995709225535393, 
0.06898268312215805, 0.12557066977024078, 0.10282514989376068, -0.036057379096746445, 0.07720115035772324, 0.04121401533484459, -0.07991355657577515, 
-0.10891178995370865, 0.1032860279083252, -0.08330704271793365, 0.014834434725344181, -0.076058030128479, -0.01962617225944996, 0.14073626697063446, 
0.02625715360045433, -0.08994954824447632, 0.011279978789389133, 0.01984216459095478, -0.10182417929172516, -0.04884948953986168, 0.010515183210372925, 
-0.09065800905227661, -0.0737249031662941, 0.10219171643257141, -0.0674055814743042, -0.13930286467075348, -0.04280504956841469, 0.019931919872760773, 
0.12692990899085999, -0.011904393322765827, 0.006830079015344381, -0.036936674267053604, -0.043674368411302567, 0.02368220128118992, 0.01188147533684969, 
-0.13701236248016357, 0.10658635199069977, -0.09181969612836838, -0.05235346034169197, -0.03974689170718193, 0.09242896735668182, 0.2046193927526474, 
0.033573493361473083, 0.02959766425192356, -0.1313551515340805, -0.04294586926698685, 0.03758740425109863, 0.04485305771231651, -0.1295051872730255, 
0.10012321174144745, 0.06662902981042862, -0.11903325468301773, -0.11260998249053955, -0.03885822370648384, 0.02378983050584793, 0.020405733957886696, 
-0.09490156918764114, 0.16278116405010223, -0.1761370450258255, -0.09645251929759979, 0.06923584640026093, -0.14962205290794373, -0.02674570493400097, 
-0.0543440617620945, 0.09406393021345139, 0.12481348216533661, -0.1130589097738266, 0.0007163447444327176, 0.002148384926840663, -0.0009562574559822679, 
-0.10784457623958588, 0.0758085772395134, -0.05838653817772865, -0.03137660771608353, 0.013955239206552505, 0.0011933910427615047, -0.01271026860922575, 
0.013489896431565285, 0.03468027710914612, -0.04750589281320572, -0.03312934935092926, 0.08832235634326935, 0.08985494822263718, 0.11573494970798492, 
-0.09368910640478134, 0.04100947454571724, -0.13932932913303375, 0.045991331338882446, -0.040706850588321686, 0.07521259784698486, -0.044696636497974396, 
-0.028561407700181007, -0.08345494419336319, -0.13932302594184875, 0.05729701742529869, 0.10485687851905823, 0.03271901234984398, -0.034414347261190414, 
