// Numpy array shape [64]
// Min -0.65560645
// Max 1.1576841
// Number of zeros 0

#ifndef TRANSFORMERS_0_LINEAR_0_BIAS_H_
#define TRANSFORMERS_0_LINEAR_0_BIAS_H_

#ifndef __SYNTHESIS__
T_norm0_bias_t transformers_0_linear_0_bias[64];
#else
T_norm0_bias_t transformers_0_linear_0_bias[64] = {-0.318564772605896, -0.032125938683748245, -0.2174214869737625, -0.08231236040592194, 1.4053231477737427, 0.7383270263671875, 
-0.0008171498775482178, -0.779598593711853, 1.181566834449768, 0.32321566343307495, -0.05375933647155762, -0.3896014094352722, 0.10395792126655579, 
0.36246615648269653, 0.12197764217853546, -0.339524507522583, -0.17729222774505615, -0.010057568550109863, 0.06976616382598877, -1.4603404998779297, 
0.6669657826423645, -0.4163821041584015, -0.7469512224197388, -0.26775047183036804, -0.055926889181137085, -0.15482647716999054, -0.4079088270664215, 
-0.8698650598526001, 0.07504895329475403, -0.1217551901936531, -0.44433706998825073, 3.2338926792144775, -0.2249227613210678, -0.029275838285684586, 
0.2039845734834671, -0.25995007157325745, -0.5722976922988892, -0.04420262575149536, 0.012644767761230469, -0.10344778746366501, -0.32437288761138916, 
0.5865229368209839, -0.5539083480834961, 0.25617486238479614, 0.3381336033344269, -0.16218817234039307, -0.02920377254486084, 0.024662882089614868, 
-0.15898247063159943, 0.20435327291488647, -0.29915475845336914, 0.4685322046279907, -0.3745764195919037, -0.017209619283676147, 1.6932308673858643, 
0.5792536735534668, 0.32209160923957825, -0.18521231412887573, 0.17939156293869019, -0.3257902264595032, -0.264937162399292, -0.2058052271604538, 
-0.029182396829128265, 0.8826127052307129};

#endif

#endif
