// Numpy array shape [64]
// Min -0.13073295
// Max 0.12626392
// Number of zeros 0

#ifndef TRANSFORMERS_2_SELF_ATTENTION_OUT_BIAS_H_
#define TRANSFORMERS_2_SELF_ATTENTION_OUT_BIAS_H_

#ifndef __SYNTHESIS__
model_default_t transformers_2_self_attention_out_bias[64];
#else
model_default_t transformers_2_self_attention_out_bias[64] = {-0.07126026600599289, 0.09134513139724731, -0.051181770861148834, 0.04871495068073273, -0.0691051185131073, -0.027796808630228043, 
0.03234199061989784, -0.09154782444238663, -0.03872966393828392, 0.03116193227469921, 0.11927414685487747, 0.015219809487462044, 0.057334624230861664, 
-0.04340315982699394, -0.08322595804929733, 0.10187914222478867, 0.07168135792016983, -0.046400126069784164, 0.1096540093421936, 0.04752904921770096, 
-0.045555368065834045, -0.033476151525974274, 0.11933309584856033, -0.033914607018232346, 0.09868232160806656, 0.010528802871704102, -0.07641864567995071, 
0.12626391649246216, -0.013911225832998753, -0.0018351214239373803, 0.11205517500638962, -0.06323399394750595, 0.0873095765709877, 0.04198502376675606, 
0.015152405947446823, -0.013924796134233475, 0.033373959362506866, -0.10343371331691742, 0.010864024050533772, -0.07944398373365402, 0.09509079903364182, 
0.11845593899488449, 0.0907447561621666, -0.0535857193171978, -0.1307329535484314, -0.006359982769936323, 0.05418778583407402, 0.0925382748246193, 
0.06630416959524155, 0.04372161254286766, 0.0617072619497776, 0.08917372673749924, -0.03232691437005997, -0.10442745685577393, 0.04376629739999771, 
0.023327169939875603, 0.0068567367270588875, -0.09419175237417221, 0.06663356721401215, 0.07309253513813019, -0.016252992674708366, -0.02083684876561165, 
0.02182931639254093, -0.12242136895656586};

#endif

#endif
