0.4456310570240021, 0.1596229374408722, 0.12342672795057297, 0.5197098255157471, -0.9101330637931824, -0.25155407190322876, -0.8636468052864075, 0.019676990807056427, 0.31805670261383057, 0.79083251953125, 0.0018644928932189941, -0.07580190896987915, 1.420491099357605, 1.5736385583877563, 0.14607445895671844, 0.1990738809108734, -1.613502025604248, -1.8837193250656128, 0.09179311245679855, 0.0030044466257095337, 0.3374119699001312, -0.15020428597927094, 0.9937673211097717, -0.4435671865940094, -0.004116177558898926, 0.09006289392709732, 0.10733675956726074, -0.24050292372703552, -0.00725516676902771, -0.11442415416240692, -0.44391533732414246, 0.25399503111839294, -0.1755085438489914, 0.3919146955013275, 0.2922091782093048, -0.49253755807876587, -0.5087929964065552, 0.16746583580970764, -0.2608327567577362, 0.10200603306293488, -0.8430912494659424, 0.6455469131469727, 0.2813984453678131, 0.6843013763427734, 0.8176838159561157, -0.30167311429977417, -0.05145739018917084, 0.11060662567615509, 0.15142075717449188, 1.102176308631897, -0.5804821848869324, 1.9244123697280884, 0.19089563190937042, 0.11056558787822723, -0.3835309147834778, 0.3244595527648926, -0.1775336116552353, 0.3490166962146759, -0.06956694275140762, 0.2466757446527481, 0.08497228473424911, 0.2076159566640854, 0.05664670467376709, 0.04521109163761139, 0.5077608823776245, -0.12436680495738983, 1.1262171268463135, 0.19737952947616577, -0.29024025797843933, 0.2587050497531891, 0.04647522047162056, 0.2938291132450104, 0.4008817970752716, 0.21246176958084106, 0.1466999650001526, 0.08782448619604111, -0.07318508625030518, 0.7856512665748596, 0.06527576595544815, 0.42287561297416687, 0.0379333570599556, 0.0342179536819458, -0.7853724956512451, 0.11768798530101776, 1.1339126825332642, 0.23503369092941284, 0.14738573133945465, -0.03980109840631485, -0.2796068787574768, 0.8155590891838074, 0.38201403617858887, 0.028442151844501495, 0.008375599980354309, 0.1667032688856125, -0.66024249792099, 1.876218318939209, 0.3171313405036926, -0.31057578325271606, -0.01751408725976944, 0.36118507385253906, -1.2396692037582397, 0.10861263424158096, 0.992558479309082, 0.23348522186279297, 0.09385790675878525, 0.7183683514595032, -0.9036121368408203, 0.06862442195415497, 0.1649119108915329, 0.052459392696619034, 0.3581090569496155, -0.18417374789714813, 0.7116847634315491, 1.440185308456421, 0.11003385484218597, 0.6296800374984741, -0.30877217650413513, 0.09281332790851593, 0.006774291396141052, 0.4232928156852722, -0.04993852972984314, -0.2705126404762268, -0.7300442457199097, 0.13862349092960358, 0.15830081701278687, 0.5781899690628052, -0.20781627297401428, -0.2549850046634674