0.0862790048122406, 0.1949414312839508, 0.20036356151103973, -0.10099374502897263, -0.2172183096408844, 0.12050805240869522, -0.2328406423330307, -0.1938159167766571, -0.1749587506055832, 0.05715659260749817, 0.09580590575933456, 0.019201062619686127, 0.07273729145526886, 0.08057399094104767, 0.16362936794757843, -0.21070687472820282, 0.0477626696228981, -0.06332563608884811, -0.09190238267183304, 0.21966925263404846, 0.1983320564031601, -0.010868665762245655, -0.19551165401935577, 0.23555338382720947, 0.02491339109838009, 0.17977190017700195, 0.21447567641735077, 0.05531911551952362, 0.08214418590068817, 0.07685871422290802, -0.19991426169872284, -0.024121494963765144, -0.22250261902809143, 0.16099025309085846, -5.368685378925875e-05, -0.07733624428510666, 0.03799905255436897, -0.22054597735404968, -0.0429203063249588, -0.20884647965431213, -0.07607732713222504, 0.1814340204000473, 0.21317005157470703, 0.2133169174194336, -0.03927532956004143, 0.19470281898975372, 0.22442841529846191, 0.16828230023384094, 0.0779426321387291, -0.1657792627811432, 0.14986100792884827, -0.023660477250814438, -0.22279278934001923, -0.17205305397510529, -0.05048733577132225, 0.10177596658468246, -0.03960760682821274, -0.10673154145479202, 0.1975162923336029, -0.07561134546995163, -0.055453334003686905, -0.20578327775001526, 0.22686667740345, -0.16062036156654358, -0.028323572129011154, 0.12512922286987305, -0.015371942892670631, -0.24762900173664093, 0.027699854224920273, -0.0490160807967186, 0.1500561684370041, -0.12465893477201462, 0.0807197242975235, -0.05713488906621933, 0.12676630914211273, -0.22829046845436096, -0.04297149181365967, -0.18409432470798492, -0.014380941167473793, -0.12258780747652054, -0.059300780296325684, -0.15895581245422363, -0.07706880569458008, 0.09216940402984619, 0.040575966238975525, 0.006992759648710489, -0.15240241587162018, -0.16475488245487213, 0.23746761679649353, -0.018137603998184204, 0.18094487488269806, 0.14159807562828064, 0.0010809494415298104, -0.0366990864276886, 0.11611010134220123, -0.11304926127195358, 0.01877894625067711, 0.2335556149482727, -0.2448500394821167, -0.019671106711030006, 0.15557309985160828, 0.010819068178534508, 0.04677866771817207, -0.18933911621570587, -0.17854374647140503, -0.15437039732933044, -0.21361947059631348, -0.20328789949417114, 0.03406547009944916, -0.13072040677070618, 0.029528629034757614, 0.1801375448703766, 0.2427077442407608, -0.14049753546714783, -0.04433480650186539, 0.1907583326101303, -0.05019204318523407, -0.0691295936703682, -0.012848984450101852, 0.10048646479845047, 0.2185545265674591, -0.11155212670564651, 0.1982218474149704, -0.19496755301952362, 0.22034011781215668, -0.11653289943933487, -0.11766501516103745, -0.17251534759998322, -0.005685500800609589, 0.06335964798927307, -0.2342207431793213, 0.11031327396631241, -0.09532468765974045, -0.018004581332206726, 0.0564231313765049, -0.17589013278484344, 0.006646791007369757, -0.04464596509933472, 0.1909056007862091, 0.2175929993391037, -0.10831350088119507, -0.13875210285186768, 0.16214777529239655, -0.16539263725280762, -0.18105188012123108, -0.0044847954995930195, 0.20643025636672974, 0.09078070521354675, -0.08684752136468887, -0.20827357470989227, -0.044981449842453, -0.006877256091684103, -0.04118762165307999, -0.07684583961963654, -0.10798189043998718, 0.14553524553775787, -0.08638136088848114, -0.11846984922885895, -0.18184013664722443, -0.2063724398612976, 0.006967679597437382, -0.22191597521305084, 0.0025254106149077415, -0.19794543087482452, -0.21485169231891632, 0.10766159743070602, -0.19972047209739685, 0.1185285747051239, 0.1845920979976654, 0.02854314260184765, 0.16005563735961914, 0.13234157860279083, 0.08336145430803299, 0.011608097702264786, 0.017827654257416725, -0.11595255881547928, -0.20664271712303162, 0.18737764656543732, 0.19567185640335083, 0.16557075083255768, 0.2004195898771286, 0.19731754064559937, 0.1331862360239029, -0.17056646943092346, -0.14001113176345825, 0.17888739705085754, -0.22906363010406494, 0.08053749054670334, 0.0075416360050439835, 0.05421458184719086, 0.0020287532825022936, -0.22319570183753967, 0.12505914270877838, -0.2056119292974472, 0.14564715325832367, -0.20129916071891785, 0.1523943394422531, 0.08798979222774506, 0.0671093761920929, -0.10262174159288406, 0.19989757239818573, 0.07174628227949142, -0.03349774703383446, -0.15853209793567657, -0.009790951386094093, 0.20251019299030304, -0.0704699456691742, -0.20851361751556396, -0.1894160509109497, -0.04011204466223717, 0.2466491311788559, 0.052304934710264206, -0.24408107995986938, 0.1611536592245102, 0.013949866406619549, 0.11698701977729797, 0.18549403548240662, 0.0924169272184372, 0.22007381916046143, -0.09468038380146027, 0.17098526656627655, -0.04370686039328575, 0.23928464949131012, -0.22449369728565216, 0.1730000376701355, 0.08406472951173782, 0.01253334991633892, 0.05009843036532402, -0.04017976298928261, -0.10707427561283112, 0.0628085806965828, -0.027553725987672806, -0.14106516540050507, 0.026626352220773697, -0.02319592423737049, -0.0007715856772847474, -0.17282558977603912, -0.1279917061328888, -0.09860196709632874, 0.029740868136286736, -0.012485253624618053, 0.03074805624783039, 0.15242469310760498, 0.1408013254404068, -0.04963444545865059, 0.05468018352985382, 0.10945425182580948, -0.05641975626349449, -0.10290700942277908, -0.062064047902822495, 0.06161772459745407, 0.14364013075828552, 0.22968973219394684, 0.002463897690176964, -0.061048559844493866, -0.09435484558343887, -0.005033794324845076, 0.19322478771209717, -0.12787967920303345, 0.14065136015415192, 0.05109075456857681, 0.09911470860242844, -0.029971014708280563, -0.20507708191871643, 0.1468149870634079, -0.035762302577495575, 0.15197879076004028, 0.23303073644638062, 0.01780211739242077, 0.1570650339126587, -0.01604330725967884, -0.11613962799310684, 0.035841669887304306, 0.16874894499778748, -0.2366749346256256, 0.0030398517847061157, 0.15672294795513153, 0.06939931958913803, -0.23426970839500427, 0.07837794721126556, 0.19773907959461212, 0.2298300415277481, -0.15449199080467224, 0.17105647921562195, -0.04281456395983696, -0.0821429044008255, -0.021705009043216705, -0.0602053664624691, 0.0885973572731018, 0.011512535624206066, 0.19759003818035126, 0.026364833116531372, -0.23321855068206787, 0.0977211520075798, 0.24824291467666626, -0.13158151507377625, -0.12060503661632538, 0.15526916086673737, -0.18269728124141693, 0.03072609193623066, 0.09145455062389374, -0.21600982546806335, -0.23798106610774994, -0.1977877914905548, -0.18477113544940948, -0.009939138777554035, 0.22351595759391785, -0.07292839139699936, 0.10006684809923172, -0.15775060653686523, -0.14387813210487366, 0.22118256986141205, 0.020680608227849007, 0.12658381462097168, 0.18931984901428223, -0.017893901094794273, -0.10811793059110641, -0.21180124580860138, -0.19039367139339447, 0.2069229632616043, 0.047365929931402206, 0.19349275529384613, -0.23447906970977783, 0.023608118295669556, 0.10525494813919067, -0.17021651566028595, -0.1753677874803543, -0.02222146838903427, -0.07041655480861664, -0.045664310455322266, -0.0952771008014679, 0.07999680936336517, -0.2011832296848297, -0.20927941799163818, -0.016956504434347153, -0.031187238171696663, 0.04788530245423317, -0.10700009018182755, 0.1809988021850586, 0.16420145332813263, 0.12568780779838562, 0.18088564276695251, 0.24731013178825378, -0.14469322562217712, -0.09909410029649734, 0.16158531606197357, 0.1435682624578476, -0.07073496282100677, -0.13194702565670013, -0.046218302100896835, 0.039071083068847656, 0.14479462802410126, -0.17225871980190277, -0.16660051047801971, 0.06875284761190414, 0.22418592870235443, -0.20916986465454102, 0.07055781036615372, -0.12638436257839203, 0.18645860254764557, 0.19895395636558533, -0.20579832792282104, 0.21158041059970856, -0.0862349346280098, -0.032530609518289566, 0.08897589892148972, 0.04626960679888725, -0.14156122505664825, -0.1992456316947937, 0.10170762985944748, -0.0746319591999054, 0.17596612870693207, 0.20662638545036316, -0.029623642563819885, -0.21823517978191376, -0.08897566050291061, 0.17932164669036865, 0.16173110902309418, 0.22603176534175873, -0.1517253816127777, 0.1789049357175827, -0.09804870933294296, 0.119850754737854, 0.09335033595561981, -0.029036350548267365, 0.09393645823001862, -0.040288813412189484, 0.2068891078233719, -0.021845635026693344, -0.051598962396383286, 0.1687094271183014, -0.15601126849651337, 0.12626901268959045, 0.07200213521718979, 0.2447693794965744, 0.07410071045160294, -0.20962664484977722, -0.07364499568939209, 0.15275177359580994, -0.18973611295223236, -0.07869523763656616, 0.19284220039844513, 0.15838396549224854, -0.23963087797164917, 0.04932155832648277, -0.08954820781946182, -0.2009563148021698, 0.19101843237876892, -0.12059281766414642, -0.14516188204288483, -0.09297624230384827, 0.036587830632925034, 0.0755816176533699, -0.22551602125167847, -0.16132111847400665, 0.23871245980262756, -0.052893705666065216, -0.026446979492902756, -0.1142565906047821, -0.15916404128074646, -0.10383711010217667, -0.001777589786797762, -0.1947622001171112, -0.06335986405611038, -0.03315054625272751, -0.17150862514972687, -0.14355935156345367, -0.2423853576183319, 0.13972558081150055, -0.09742827713489532, -0.12921957671642303, 0.03004373610019684, 0.00883955042809248, 0.16773532330989838, -0.14913447201251984, -0.21731768548488617, 0.09736379981040955, 0.11459750682115555, 0.123402900993824, 0.09620267152786255, -0.18107949197292328, -0.19278576970100403, -0.2349206656217575, -0.21758224070072174, -0.20473431050777435, 0.02528546378016472, 0.1115909144282341, -0.02208242379128933, 0.21944107115268707, 0.09853243827819824, 0.003901018761098385, -0.1497928947210312, -0.11351928114891052, 0.23035164177417755, -0.1890861988067627, 0.1483537256717682, 0.21547909080982208, -0.20339903235435486, 0.15286476910114288, 0.021297354251146317, -0.07861915975809097, 0.21321171522140503, 0.00024517811834812164, -0.1989041268825531, -0.07044640928506851, 0.23780930042266846, -0.08406868577003479, 0.13464561104774475, -0.07388556748628616, 0.06446671485900879, 0.11778873205184937, 0.18168874084949493, -0.19625099003314972, 0.10081232339143753, -0.008721408434212208, 0.08766394108533859, -0.057712458074092865, 0.14426878094673157, 0.11033618450164795, -0.17421148717403412, 0.07011902332305908, -0.0956014096736908, 0.2301841527223587, 0.2022717446088791, 0.12149453908205032, -0.14129211008548737, -0.07349051535129547, 0.06165851652622223, -0.17752178013324738, -0.06423960626125336, 0.19526852667331696, 0.22104710340499878, -0.14997869729995728, 0.2194771021604538, 0.06600271910429001, -0.0562402606010437, 0.022426268085837364, 0.2058374136686325, 0.13418130576610565, -0.12125126272439957, 0.04138187691569328, 0.11314617097377777, -0.159164696931839, 0.1568063348531723, -0.13589757680892944, -0.2241700291633606, 0.22697333991527557, -0.1451004445552826, 0.16705673933029175, -0.2315915822982788, -0.1105145663022995, 0.19534045457839966, 0.10743074119091034, -0.06561093777418137, -0.2440854012966156, 0.2314869910478592, 0.10765932500362396, 0.11219880729913712, 0.21606318652629852, 0.10349790006875992, -0.11182067543268204, -0.009409798309206963, -0.1329481154680252, 0.02931143529713154, -0.15431228280067444, 0.23010845482349396, -0.021204842254519463, -0.051333192735910416, -0.12213923782110214, -0.026860931888222694, 0.10350216180086136, -0.19424934685230255, -0.046120673418045044, 0.04947971552610397, 0.21238858997821808, 0.12247169017791748, -0.0674191415309906, -0.23602411150932312, 0.2224419265985489, 0.18160675466060638, -0.2000253051519394, 0.10505588352680206, -0.24797110259532928, -0.10392643511295319, 0.08909531682729721, -0.21936312317848206, -0.14428585767745972, 0.005710830446332693, -0.22467908263206482, -0.2008506804704666, -0.07449625432491302, -0.1751853972673416, 0.05223558098077774, -0.17391030490398407, -0.2436595857143402, -0.1687810719013214, 0.21290574967861176, -0.0854167565703392, 0.23588266968727112, 0.14872634410858154, 0.19200380146503448, -0.23708386719226837, 0.13946931064128876, 0.22792476415634155, 0.16964226961135864, -0.23146584630012512, -0.028509747236967087, 0.004121048375964165, -0.16340093314647675, 0.08735159784555435, 0.2443930059671402, -0.016104357317090034, -0.09699598699808121, 0.21161200106143951, 0.09763067215681076, -0.14915341138839722, -0.009644092991948128, 0.06852073222398758, 0.19304339587688446, -0.04375521093606949, -0.21914957463741302, -0.09882395714521408, 0.11225615441799164, -0.2246987521648407, -0.15597598254680634, 0.04408770427107811, 0.12616074085235596, -0.04618367552757263, 0.05357863008975983, 0.16575317084789276, -0.16444388031959534, 0.15457235276699066, 0.20815052092075348, 0.18820573389530182, -0.23068130016326904, -0.14526686072349548, -0.0010113914031535387, -0.24248692393302917, -0.19992581009864807, -0.03287306800484657, 0.12000855058431625, 0.02085736021399498, -0.1721005141735077, 0.02350674569606781, 0.10083021968603134, -0.05585591122508049, 0.1795019507408142, -0.23699049651622772, -0.08167507499456406, 0.008292055688798428, 0.23045800626277924, 0.2357628494501114, -0.1773771196603775, -0.2504277229309082, -0.17262426018714905, -0.11173909902572632, -0.1431509405374527, 0.05072285607457161, -0.16617321968078613, 0.12038519233465195, -0.11762087792158127, 0.13239188492298126, -0.12167058885097504, -0.15294770896434784, -0.10277954488992691, -0.1634863018989563, -0.19053994119167328, 0.0933210700750351, -0.14965584874153137, -0.24534361064434052, -0.23405946791172028, -0.04058069363236427, -0.026500627398490906, 0.22094358503818512, 0.17773357033729553, 0.1283310502767563, 0.18943056464195251, -0.2050529271364212, 0.04545259475708008, 0.1890757530927658, -0.012970810756087303, -0.04084724187850952, -0.24290703237056732, -0.06398819386959076, -0.04129883274435997, 0.09400255233049393, 0.08202686905860901, 0.1247682124376297, 0.1338297426700592, -0.06822094321250916, -0.06064331904053688, -0.01459661964327097, -0.12720690667629242, -0.14440569281578064, 0.02308395691215992, 0.11144169420003891, 0.22128964960575104, 0.06552189588546753, 0.13406041264533997, -0.10722726583480835, -0.048907868564128876, 0.009558819234371185, 0.16901017725467682, 0.10259111225605011, 0.2271619588136673, -0.08948918431997299, -0.23476162552833557, 0.15848670899868011, -0.14997237920761108, -0.15153279900550842, -0.034549664705991745, 0.03795532137155533, 0.12295813113451004, -0.10555049031972885, 0.20759478211402893, -0.22350671887397766, 0.05039302632212639, -0.20198848843574524, -0.19702310860157013, -0.13732793927192688, 0.06557120382785797, 0.13854648172855377, 0.005525229033082724, -0.18628086149692535, -0.03873203322291374, 0.13732732832431793, 0.20610255002975464, 0.18858231604099274, -0.00036335934419184923, -0.2295907735824585, 0.10603183507919312, 0.18481524288654327, -0.2383229285478592, -0.12371111661195755, -0.024349989369511604, -0.12621428072452545, -0.13302165269851685, -0.015687227249145508, -0.12886042892932892, 0.017073068767786026, -0.10202667862176895, 0.18951907753944397, 0.11901868879795074, 0.07102802395820618, -0.003329743165522814, -0.22329051792621613, 0.024508778005838394, 0.20805740356445312, -0.20339493453502655, 0.12038961052894592, -0.18170180916786194, -0.05777987837791443, -0.061516858637332916, 0.23298758268356323, 0.050456877797842026, 0.0897965207695961, 0.046140190213918686, 0.232993483543396, 0.07175303995609283, -0.04616594687104225, 0.17329944670200348, -0.18603278696537018, 0.039672885090112686, -0.13640126585960388, -0.09113539755344391, -0.2235831916332245, -0.08474726974964142, -0.09038511663675308, 0.05871940404176712, 0.21471258997917175, -0.01868492364883423, -0.006701692007482052, 0.21920199692249298, 0.09822790324687958, 0.023918060585856438, -0.17489632964134216, 0.07097107917070389, -0.017926054075360298, -0.18154317140579224, 0.07978510856628418, 0.08602321147918701, -0.17171119153499603, 0.13499118387699127, -0.11034753918647766, -0.20596495270729065, -0.09202676266431808, 0.16984564065933228, 0.2493654191493988, 0.2143946886062622, -0.06104150414466858, -0.07114951312541962, -0.2438361793756485, 0.17906823754310608, 0.17176692187786102, 0.17742858827114105, 0.14258909225463867, 0.03838517516851425, 0.12403251230716705, 0.10917102545499802, 0.19036126136779785, 0.11463088542222977, 0.24631929397583008, 0.0052215177565813065, -0.18878108263015747, -0.07921996712684631, 0.0025756931863725185, -0.0827183946967125, 0.09900704771280289, -0.11126729846000671, -0.050909001380205154, 0.1455821394920349, -0.044975098222494125, 0.042268384248018265, 0.13471956551074982, -0.24426580965518951, 0.062000613659620285, -0.049642164260149, 0.0845760852098465, 0.13827382028102875, 0.15082913637161255, -0.12570199370384216, 0.17385223507881165, 0.09723753482103348, -0.2346867173910141, 0.22564733028411865, 0.20069293677806854, 0.20972248911857605, -0.13454781472682953, -0.2117621898651123, 0.028261758387088776, -0.09765469282865524, -0.21348439157009125, -0.04655388370156288, 0.14082330465316772, 0.0860736072063446, -0.03575022518634796, -0.16415730118751526, 0.202631875872612, -0.21653041243553162, 0.05397374927997589, -0.018529755994677544, -0.003948224242776632, 0.16518744826316833, -0.24588961899280548, -0.2334875464439392, 0.18088215589523315, 0.18414580821990967, 0.015236137434840202, 0.09761010110378265, -0.24706551432609558, 0.08540084958076477, 0.24278798699378967, 0.18074122071266174, 0.13704177737236023, -0.07407117635011673, 0.21298418939113617, -0.14817658066749573, -0.1393072009086609, -0.10986456274986267, 0.19807501137256622, 0.14888587594032288, 0.05819803848862648, 0.24246565997600555, -0.19465991854667664, -0.13001497089862823, 0.18261253833770752, -0.2306750863790512, -0.10452067106962204, -0.02361435443162918, -0.12094513326883316, -0.06674908846616745, 0.018228886649012566, 0.12732712924480438, 0.1776493489742279, -0.19482210278511047, 0.23590318858623505, 0.16317367553710938, -0.22416748106479645, 0.10178171098232269, -0.007429452147334814, -0.010567736811935902, 0.11201432347297668, -0.028080308809876442, -0.015599989332258701, -0.1266126185655594, -0.09923109412193298, 0.11358523368835449, 0.09586978703737259, -0.17716459929943085, -0.0617019385099411, -0.17473267018795013, -0.03453255444765091, 0.17243269085884094, -0.13910897076129913, -0.09964952617883682, -0.026855167001485825, 0.15088802576065063, -0.2289828360080719, 0.2221481055021286, 0.16417551040649414, 0.244406595826149, 0.0471307672560215, 0.02349529229104519, 0.23801663517951965, -0.10028477013111115, -0.1805647611618042, -0.14402368664741516, -0.2146933674812317, -0.23323431611061096, 0.015137585811316967, -0.19823260605335236, -0.2016027718782425, -0.23900702595710754, 0.17867989838123322, 0.10639828443527222, 0.014539262279868126, -0.186274453997612, -0.19278687238693237, -0.11473239958286285, 0.1597289741039276, 0.2421914041042328, 0.15819382667541504, 0.19536186754703522, 0.0037892889231443405, 0.04612186923623085, 0.10975317656993866, -0.1206536665558815, -0.09346440434455872, 0.0765371024608612, -0.060937002301216125, -0.03519165888428688, 0.18556587398052216, -0.17118701338768005, 0.1811351180076599, -0.17924267053604126, 0.11951238662004471, -0.09997081756591797, 0.04424603283405304, -0.1179613396525383, -0.02458796463906765, -0.03998705372214317, 0.18795952200889587, 0.02128342166543007, 0.19861309230327606, 0.009956654161214828, 0.045609794557094574, -0.034062374383211136, 0.1797218769788742, -0.14356453716754913, 0.20451952517032623, -0.06761886179447174, 0.16340233385562897, 0.13591977953910828, 0.05501188337802887, 0.1875610053539276, -0.09518173336982727, 0.23598937690258026, -0.11998026072978973, 0.22815686464309692, -0.15827588737010956, 0.1580352783203125, -0.030876172706484795, -0.2357032299041748, -0.035383906215429306, -0.2347177118062973, -0.12159210443496704, 0.011587435379624367, -0.2340189516544342, -0.06964897364377975, 0.17176002264022827, 0.10346667468547821, 0.19172684848308563, 0.05707937106490135, 0.23342444002628326, -0.03654355928301811, -0.22909995913505554, -0.11377447843551636, 0.00726099219173193, -0.08785105496644974, -0.097907654941082, 0.11446705460548401, -0.06015447527170181, 0.02431974560022354, 0.17793500423431396, 0.23496833443641663, 0.05495922639966011, 0.14185497164726257, -0.19837668538093567, -0.13299712538719177, -0.19433878362178802, -0.1835755854845047, 0.04266080632805824, 0.0680379718542099, -0.11515926569700241, -0.13904355466365814, 0.005684921983629465, -0.04912225157022476, -0.06486275047063828, 0.07317935675382614, 0.2333446592092514, -0.07729098200798035, 0.11524683237075806, -0.033359501510858536, -0.14811968803405762, 0.06200115755200386, 0.10438330471515656, -0.22886249423027039, -0.015053040347993374, -0.05326610803604126, 0.06090707704424858, -0.055824533104896545, -0.18586304783821106, 0.22254827618598938, -0.15307378768920898, 0.2414523810148239, 0.23322296142578125, 0.18194934725761414, 0.18508495390415192, 0.18738198280334473, 0.12094258517026901, 0.09455512464046478, -0.15517637133598328, 0.13589851558208466, 0.06444468349218369, -0.21957851946353912, -0.169448584318161, -0.19432324171066284, -0.1659518927335739, -0.03471115231513977, -0.07600049674510956, 0.2101755142211914, -0.06298380345106125, 0.08488939702510834, 0.07362755388021469, 0.15447717905044556, -0.02066992036998272, -0.0030717968475073576, 0.13912039995193481, -0.058648623526096344, -0.004676553420722485, -0.22350335121154785, -0.01210133545100689, -0.19364775717258453, 0.13673850893974304, -0.06896204501390457, 0.2173014134168625, -0.20350678265094757, 0.11527851223945618, 0.07490977644920349, 0.08053748309612274, -0.07635613530874252, -0.028414444997906685, -0.23914572596549988, -0.24911387264728546, 0.05718749389052391, 0.1861511915922165, 0.150959774851799, -0.20784375071525574, -0.24535006284713745, -0.0004423661739565432, 0.1040298342704773, -0.07902330160140991, 0.011441566050052643, -0.16614003479480743, -0.14315104484558105, -0.10971880704164505, -0.19309717416763306, -0.1993214190006256, -0.1571066528558731, 0.16609860956668854, -0.2187226414680481, -0.11875945329666138, 0.17701026797294617, -0.2209222912788391, 0.09002963453531265, -0.019110146909952164, 0.21343712508678436, 0.22455774247646332, -0.14723962545394897, -0.23591305315494537, -0.23040930926799774, -0.05625978857278824, -0.07141569256782532, 0.10139033943414688, -0.0730065256357193, 0.0016268626786768436, -0.09541959315538406, 0.10662467032670975, -0.11229176819324493, -0.09566027671098709, -0.22398437559604645, -0.23250986635684967, 0.15967892110347748, -0.16547182202339172, 0.10219123959541321, 0.18473616242408752, -0.20997439324855804, -0.04682737961411476, 0.19276994466781616, 0.2412160038948059, -0.07444800436496735, 0.0014031925238668919, 0.21712897717952728, -0.216287299990654, -0.08713453263044357, 0.06363659352064133, -0.08338967710733414, -0.029177140444517136, -0.10741712898015976, 0.05483287200331688, 0.16642552614212036, 0.19268067181110382, -0.02089555561542511, -0.1275223046541214, 0.24708549678325653, 0.19206848740577698, 0.22837233543395996, 0.16012054681777954, -0.1489546149969101, -0.08830370754003525, 0.17168045043945312, 0.24285468459129333, -0.13947458565235138, -0.15114282071590424, 0.22377420961856842, -0.19466321170330048, -0.020253432914614677, -0.24842506647109985, 0.16441698372364044, -0.020821094512939453, -0.04266658425331116, -0.13444030284881592, 0.1830615997314453, -0.1551680862903595, 0.11011125892400742, -0.17168159782886505, 0.014550765044987202, -0.18613003194332123, -0.2105071097612381, -0.0029276441782712936, 0.0861503854393959, -0.18982888758182526, 0.1671835035085678, -0.061259590089321136, -0.017427219077944756, -0.18128971755504608, -0.10146386921405792, -0.1644006371498108, 0.052693337202072144, -0.17628908157348633, 0.063029445707798, -0.15375277400016785, -0.13570192456245422, 0.1308792531490326, -0.14530539512634277, -0.24627579748630524, 0.15023648738861084, -0.11389223486185074, 0.0665733739733696, 0.02255846932530403, 0.21511833369731903, -0.14075513184070587, 0.15708771347999573, -0.12338811159133911, -0.06378987431526184, -0.204332172870636, -0.028361449018120766, 0.08826219290494919, 0.010278883390128613, 0.12376861274242401, 0.20344096422195435, 0.003016993636265397, 0.1065433919429779, -0.017323747277259827, -0.15590526163578033, 0.1877177208662033, -0.1281372308731079, 0.06263358891010284, 0.24447621405124664, 0.11978240311145782, 0.006491468288004398, -0.10495194792747498, 0.013894624076783657, 0.11648553609848022, 0.19379611313343048, -0.22115793824195862, -0.005657599773257971, 0.06545939296483994, 0.21489936113357544, 0.12184441089630127, 0.13094952702522278, 0.03863525390625, -0.12784650921821594, 0.24943703413009644, -0.21962912380695343, -0.13977845013141632, 0.018876565620303154, 0.04393653944134712, -0.0870092362165451, 0.04300348088145256, 0.09831231832504272, 0.03147478029131889, -0.0586242638528347, -0.13561074435710907, -0.11765766143798828, -0.1593974232673645, -0.19130925834178925, 0.18071046471595764, -0.12712615728378296, 0.014418267644941807, -0.22462616860866547, 0.11219928413629532, 0.004889671225100756, 0.1393381804227829, -0.014913825318217278, -0.021534163504838943, -0.18230783939361572, 0.1036892756819725, -0.04560346156358719, 0.10343743860721588, -0.20657552778720856, -0.1402266025543213, -0.12443949282169342, -0.057747554033994675, 0.05824614316225052, 0.10984843224287033, 0.16216504573822021, 0.16664737462997437, -0.003813212737441063, -0.18889087438583374, 0.11316291242837906, 0.015035404823720455, 0.06733409315347672, 0.10738313943147659, 0.24808967113494873, 0.17405349016189575, -0.03872748091816902, -0.02245711162686348, 0.016606081277132034, 0.0768074244260788, -0.21702544391155243, -0.22542406618595123, -0.10199365019798279, -0.2441568523645401, -0.19897028803825378, -0.09214194118976593, 0.08291976153850555, -0.15048471093177795, 0.047997795045375824, -0.15901683270931244, 0.19502849876880646, 0.005226827692240477, -0.09025266021490097, 0.21064436435699463, 0.05915552377700806, -0.08671363443136215, 0.059125375002622604, 0.2476726472377777, 0.10175865888595581, 0.030424732714891434, -0.23638838529586792, -0.17601734399795532, -0.06980903446674347, 0.11839023977518082, 0.1056012436747551, 0.22119677066802979, -0.08210079371929169, -0.15881849825382233, 0.23141829669475555, 0.004765705205500126, -0.018988434225320816, 0.049345411360263824, -0.05142810940742493, -0.24260257184505463, 0.24090725183486938, 0.01931810937821865, 0.23085950314998627, 0.08539419621229172, 0.008285137824714184, 0.1952410638332367, -0.0053141736425459385, 0.07912825793027878, 0.14077898859977722, -0.06345019489526749, -0.10798434168100357, 0.2082221955060959, -0.027081908658146858, -0.10356076806783676, 0.010231533087790012, -0.24074265360832214, -0.12685947120189667, -0.06691637635231018, 0.16221103072166443, -0.2174375206232071, -0.23297935724258423, 0.22363081574440002, -0.24748700857162476, 0.2020590901374817, 0.07376278936862946, -0.012765957973897457, 0.21528053283691406, -0.004487224388867617, -0.025880564004182816, 0.2400658279657364, 0.1457972526550293, -0.01949547789990902, 0.15321078896522522, -0.1948147565126419, -0.049673303961753845, -0.18885208666324615, 0.07362470775842667, -0.19718219339847565, -0.051757849752902985, -0.17036248743534088, -0.15476462244987488, -0.21292632818222046, 0.051037196069955826, -0.13494189083576202, -0.17600587010383606, 0.2119743973016739, -0.005159435793757439, 0.15115025639533997, 0.10334192216396332, -0.05407983437180519, -0.07944411039352417, -0.1565292775630951, 0.006593740079551935, -0.21573378145694733, 0.17617112398147583, 0.1369667500257492, 0.13434389233589172, -0.016611136496067047, 0.22867755591869354, 0.017669979482889175, -0.06478434056043625, -0.24469272792339325, -0.07023532688617706, 0.04901345819234848, -0.17954771220684052, -0.010680154897272587, -0.1785137951374054, -0.22697165608406067, 0.1152709424495697, 0.14784729480743408, 0.1494680792093277, 0.09814854711294174, -0.23736587166786194, 0.04599020630121231, -0.23830299079418182, 0.08255932480096817, -0.015204104594886303, 0.1378588080406189, 0.17886118590831757, 0.199294313788414, 0.10879746824502945, -0.2212790995836258, 0.23906561732292175, -0.21775540709495544, 0.005162255838513374, -0.07881812751293182, -0.11965017765760422, -0.015359265729784966, 0.003314464120194316, -0.23017175495624542, -0.035699255764484406, 0.23168274760246277, 0.20188646018505096, -0.04176521301269531, 0.24005450308322906, 0.12309207767248154, 0.19832810759544373, -0.0322473905980587, -0.2196192741394043, -0.22794568538665771, -0.08289104700088501, 0.23840618133544922, 0.2324177771806717, 0.24996301531791687, 0.08197800815105438, 0.24613173305988312, -0.1480524092912674, 0.1012970432639122, -0.17836792767047882, -0.018919305875897408, 0.07657007873058319, 0.19687309861183167, 0.0383509024977684, 0.22361887991428375, -0.054972294718027115, -0.06050754338502884, -0.20397944748401642, -0.1613663285970688, 0.09202706068754196, 0.1893673539161682, 0.08088983595371246, 0.21081124246120453, 0.21697603166103363, -0.13427014648914337, -0.04378466680645943, 0.11537441611289978, -0.227428138256073, 0.12671878933906555, -0.04761935770511627, -0.16622556746006012, -0.15441982448101044, 0.1817503571510315, 0.10727687180042267, 0.07169587910175323, -0.04220476374030113, 0.07094882428646088, 0.16885046660900116, -0.08359237015247345, 0.16271208226680756, 0.12241943925619125, -0.2406158447265625, -0.10581327974796295, 0.20827679336071014, -0.16312797367572784, -0.12286080420017242, -0.24500779807567596, -0.1493503898382187, -0.19196566939353943, -0.04301052913069725, -0.22965775430202484, -0.09357676655054092, -0.09616377204656601, -0.12864331901073456, -0.15982674062252045, 0.24288003146648407, -0.12403877079486847, -0.15425585210323334, -0.008606762625277042, 0.02739107236266136, 0.01697925478219986, -0.0987313836812973, 0.1096549779176712, 0.13269709050655365, 0.04922400042414665, 0.11355679482221603, 0.08599855750799179, -0.024076947942376137, 0.24018271267414093, 0.13928821682929993, 0.11515527218580246, 0.214365616440773, -0.13967803120613098, -0.08394094556570053, -0.050800759345293045, 0.14621177315711975, 0.13888314366340637, -0.02145986817777157, 0.17527806758880615, 0.005313723813742399, 0.19133172929286957, 0.22941190004348755, 0.1478898972272873, 0.21844938397407532, -0.10418758541345596, 0.15531480312347412, 0.22232647240161896, -0.22324936091899872, -0.2399756908416748, 0.2010396122932434, -0.12060505151748657, 0.035393454134464264, -0.10040616244077682, 0.02990587428212166, 0.004411598667502403, 0.20123229920864105, 0.2029089629650116, 0.13519427180290222, 0.09454980492591858, -0.1394929140806198, 0.04401187598705292, 0.05265950411558151, 0.0718403235077858, -0.16938404738903046, -0.1462426781654358, 0.0630221888422966, 0.12526309490203857, 0.23574072122573853, 0.09919483959674835, 0.014502451755106449, -0.05881078913807869, 0.21360525488853455, -0.01271295640617609, -0.09804732352495193, 0.07172154635190964, -0.19254808127880096, 0.1390131115913391, 0.20424936711788177, -0.08800218254327774, -0.0439324714243412, -0.11761821806430817, -0.17220832407474518, -0.24976558983325958, 0.004875632002949715, 0.0678604394197464, 0.20748186111450195, -0.11263207346200943, 0.027520600706338882, 0.010692054405808449, -0.0512048564851284, 0.12000537663698196, -0.0030059232376515865, -0.18717873096466064, 0.22360087931156158, 0.0028953219298273325, -0.066691093146801, 0.12185008078813553, -0.2421737164258957, 0.1180155798792839, 0.18656204640865326, 0.16775117814540863, 0.18278510868549347, 0.1252794712781906, 0.06191909313201904, 0.20916418731212616, 0.11701754480600357, 0.18134760856628418, 0.019791292026638985, -0.04201478138566017, 0.18130077421665192, -0.13158711791038513, -0.15427406132221222, 0.24364401400089264, 0.026912493631243706, 0.1649017482995987, -0.022857358679175377, -0.05296194925904274, 0.22215314209461212, -0.17643767595291138, 0.21271803975105286, -0.02357199415564537, 0.1341824233531952, -0.09216547757387161, -0.03230521082878113, 0.18627555668354034, 0.08597623556852341, 0.19855599105358124, -0.02015283890068531, -0.11500527709722519, 0.1636199802160263, -0.054944198578596115, -0.21850021183490753, 0.1055806577205658, -0.10709316283464432, 0.08781539648771286, -0.20195583999156952, 0.08762793987989426, 0.07764948904514313, 0.1990215927362442, -0.1991862654685974, -0.06781592965126038, 0.17214339971542358, 0.06012563779950142, -0.11317190527915955, 0.027278412133455276, 0.20346982777118683, -0.057686470448970795, 0.053519491106271744, -0.0917339101433754, 0.06091105937957764, 0.012213675305247307, 0.1365080326795578, 0.007998134940862656, 0.15149474143981934, -0.011478113010525703, -0.12056174874305725, -0.19277432560920715, 0.17580214142799377, -0.18962040543556213, -0.13047219812870026, 0.24968461692333221, 0.2044571042060852, -0.02988608554005623, 0.043591320514678955, 0.22485308349132538, -0.1073710098862648, -0.23329220712184906, -0.04736585542559624, -0.12225879728794098, -0.14915567636489868, 0.07502517849206924, -0.19365185499191284, 0.11907656490802765, 0.0699668675661087, 0.24078409373760223, -0.23036408424377441, 0.16497929394245148, 0.1991083174943924, -0.13404929637908936, -0.05188208445906639, -0.15257923305034637, 0.21057535707950592, -0.03542298451066017, 0.11266010999679565, 0.08720812946557999, -0.16025832295417786, 0.15194544196128845, 0.2124333679676056, -0.17024977505207062, 0.15001192688941956, 0.04335591569542885, 0.030018243938684464, 0.20291030406951904, -0.08253210037946701, 0.05399564653635025, 0.20793618261814117, 0.03637238219380379, 0.24548539519309998, 0.10288374871015549, 0.053549814969301224, -0.1564212590456009, -0.013284283690154552, -0.13322176039218903, 0.025278262794017792, -0.11836414039134979, -0.15179632604122162, 0.1503596007823944, 0.21496427059173584, 0.09006118774414062, 0.12582358717918396, 0.10086528956890106, 0.20524515211582184, 0.06665363162755966, -0.14842256903648376, 0.14590492844581604, -0.12461720407009125, -0.21867665648460388, 0.141170933842659, -0.18231841921806335, -0.02969844453036785, 0.1722593456506729, -0.20426271855831146, -0.030130406841635704, -0.14579838514328003, 0.20415858924388885, 0.1992000788450241, -0.1967223733663559, 0.20707866549491882, -0.10832136124372482, 0.22256293892860413, 0.14606019854545593, -0.2178364098072052, -0.19694645702838898, -0.06677711009979248, -0.07783088088035583, 0.002864998998120427, 0.218667134642601, -0.11401369422674179, -0.06216978654265404, -0.07333827763795853, 0.16746656596660614, -0.1558358371257782, 0.13630619645118713, 0.03656493499875069, -0.13554012775421143, -0.0662270039319992, 0.05289492756128311, 0.13484281301498413, 0.2030060738325119, -0.040423471480607986, 0.04672667384147644, -0.024899117648601532, 0.02561260387301445, 0.014201421290636063, 0.2493748813867569, -0.16863638162612915, 0.14229844510555267, 0.10566018521785736, -0.0735892578959465, -0.2488473653793335, -0.21408100426197052, -0.15332353115081787, -0.13996875286102295, -0.05812772735953331, -0.028268888592720032, 0.03828391432762146, 0.1261443942785263, -0.19731897115707397, -0.19925932586193085, 0.02849210798740387, -0.09648272395133972, -0.12969788908958435, 0.1283084601163864, -0.22804482281208038, -0.14021459221839905, -0.02481432445347309, -0.13927917182445526, -0.07491067796945572, 0.18584668636322021, 0.003839711658656597, -0.19770273566246033, -0.14889121055603027, -0.008817899972200394, -0.12309809774160385, 0.08051475882530212, 0.13606321811676025, 0.1613903045654297, 0.02365473099052906, 0.06988051533699036, -0.14821277558803558, 0.07825884968042374, 0.07827389985322952, 0.08955515176057816, -0.052049670368433, -0.1081676185131073, 0.08751823753118515, 0.09660226106643677, -0.05097053200006485, 0.14470994472503662, -0.1451428234577179, 0.13559375703334808, 0.17303258180618286, 0.12300412356853485, 0.04530449956655502, 0.17933113873004913, -0.21925435960292816, -0.071383997797966, -0.013400029391050339, -0.08979412168264389, -0.1462969034910202, -0.20935052633285522, 0.07880613952875137, -0.18979062139987946, -0.12145594507455826, 0.04426184296607971, -0.2215302586555481, -0.1481342613697052, -0.055675771087408066, 0.07506118714809418, 0.18965528905391693, 0.14005884528160095, 0.11929044127464294, -0.16877469420433044, 0.14098019897937775, -0.10984579473733902, 0.14852114021778107, -0.028699038550257683, -0.02997644804418087, -0.2434607893228531, 0.11855080723762512, 0.04614701867103577, 0.08931952714920044, 0.20580996572971344, 0.21635659039020538, -0.18590781092643738, 0.2008529007434845, 0.008012727834284306, 0.029650872573256493, 0.07970093935728073, -0.14256031811237335, -0.04385501891374588, -0.09459550678730011, 0.24670280516147614, -0.15199369192123413, 0.1538843810558319, -0.2378406822681427, -0.15748511254787445, -0.10519152879714966, -0.09705288708209991, -0.2066727578639984, -0.05139971151947975, 0.23255333304405212, 0.10358279943466187, 0.18495763838291168, 0.14190468192100525, -0.21927762031555176, 0.09235862642526627, -0.22534582018852234, 0.20106013119220734, -0.012890093959867954, -0.22980980575084686, -0.08615528047084808, 0.18727025389671326, -0.07497701793909073, -0.08499956876039505, 0.1617186814546585, 0.0897078663110733, 0.23430000245571136, -0.15044207870960236, -0.042494650930166245, -0.06726650148630142, -0.1680937260389328, -0.13082395493984222, -0.039208732545375824, -0.20556646585464478, 0.20429563522338867, -0.2075902819633484, -0.055024027824401855, -0.1592279076576233, 0.1244661957025528, -0.17089205980300903, 0.0588117316365242, 0.2488851696252823, 0.16688849031925201, 0.15431542694568634, -0.08523451536893845, 0.02709808386862278, -0.1534120887517929, 0.09571772068738937, 0.1863178014755249, -0.03408141806721687, -0.1636880487203598, 0.04506726935505867, -0.03059082105755806, 0.21218645572662354, -0.23518548905849457, 0.2136603444814682, -0.1301937848329544, -0.05711481347680092, 0.16924089193344116, 0.06036106124520302, 0.2330724596977234, -0.2408818155527115, -0.17630042135715485, -0.15737688541412354, -0.22044247388839722, -0.21923185884952545, 0.20696493983268738, 0.07169025391340256, 0.026512037962675095, 0.1192600205540657, -0.0651816725730896, 0.20060493052005768, -0.24263417720794678, 0.016516035422682762, 0.06268956512212753, -0.07809845358133316, 0.1199456974864006, -0.027697276324033737, -0.009006175212562084, -0.20011219382286072, -0.11220339685678482, -0.21997438371181488, 0.21022167801856995, 0.1788136512041092, -0.1557188183069229, -0.003470970317721367, 0.029926173388957977, 0.050333596765995026, 0.11949983239173889, 0.06898531317710876, 0.1596236526966095, -0.19060561060905457, -0.03671294450759888, 0.17279130220413208, 0.246740460395813, 0.22280152142047882, 0.19688287377357483, -0.12447135895490646, -0.029892340302467346, 0.1581726223230362, -0.04202176257967949, -0.2322847992181778, -0.21010519564151764, 0.09775949269533157, 0.038358792662620544, -0.19727864861488342, -0.06108402833342552, 0.009053003042936325, 0.1616036593914032, -0.10912390053272247, -0.21064724028110504, 0.031052224338054657, -0.13661541044712067, 0.12373437732458115, -0.11841675639152527, 0.13318882882595062, -0.0398390106856823, -0.015597867779433727, 0.23066407442092896, -0.24321191012859344, -0.2242852747440338, -0.038276515901088715, -0.2056914120912552, -0.06551390141248703, 0.01651065982878208, 0.06106248497962952, 0.126417875289917, -0.04229932278394699, 0.11953875422477722, 0.1545906662940979, -0.21937216818332672, -0.2402753233909607, 0.11865260452032089, 0.20844881236553192, 0.11511780321598053, 0.06764674186706543, 0.06714832782745361, -0.058661822229623795, 0.046791259199380875, -0.07676137238740921, 0.14362753927707672, 0.1731027364730835, 0.17487689852714539, -0.019953403621912003, 0.19386371970176697, 0.11260663717985153, -0.2300829440355301, -0.13211381435394287, 0.08285045623779297, -0.22077302634716034, 0.0440746434032917, 0.03259221464395523, -0.2171509861946106, -0.1505538374185562, 0.1257300078868866, 0.05934674292802811, -0.16845287382602692, 0.020659906789660454, 0.006965763866901398, 0.14258095622062683, -0.0843697190284729, 0.04998358339071274, -0.11448945850133896, -0.0663767009973526, 0.14041191339492798, -0.057054731994867325, 0.18021024763584137, 0.14088650047779083, -0.043161388486623764, 0.17078301310539246, 0.20279353857040405, -0.21746709942817688, -0.022028082981705666, 0.1681726574897766, 0.14299984276294708, 0.22904425859451294, -0.08292932063341141, -0.24903948605060577, 0.11224400252103806, -0.07710706442594528, -0.03628778085112572, -0.0876380056142807, -0.21143458783626556, 0.24220407009124756, 0.18445555865764618, 0.15228065848350525, -0.20394012331962585, -0.2104649841785431, -0.0024881174322217703, 0.18458335101604462, 0.04546951502561569, 0.0327172577381134, -0.05625462532043457, -0.20315787196159363, 0.03212714195251465, 0.11974955350160599, 0.020354662090539932, -0.1501370221376419, -0.2500747740268707, -0.14668230712413788, 0.13819652795791626, -0.011260618455708027, -0.09841407090425491, 0.020882239565253258, 0.1482824981212616, -0.21840399503707886, 0.0725284069776535, -0.2049586921930313, -0.2176065444946289, 0.22596584260463715, 0.14817391335964203, -0.24239368736743927, 0.14750492572784424, -0.06750054657459259, -0.009711571037769318, 0.11708848178386688, -0.2222726196050644, -0.12266630679368973, -0.05658324062824249, 0.2115900069475174, -0.1586834341287613, -0.23514118790626526, 0.19646643102169037, -0.18610616028308868, -0.12183067947626114, -0.110385462641716, -0.23825374245643616, -0.06425520032644272, 0.09265507012605667, -0.059245336800813675, 0.006441713310778141, 0.13585276901721954, -0.2054675817489624, 0.022832367569208145, 0.13137252628803253, -0.1396581083536148, -0.17203129827976227, -0.17191676795482635, -0.08897889405488968, -0.09445174783468246, -0.18429268896579742, 0.24653074145317078, 0.06490912288427353, 0.041017234325408936, 0.2455175518989563, 0.21372878551483154, -0.06972416490316391, -0.07086839526891708, 0.04348573461174965, -0.12736399471759796, 0.15592621266841888, 0.06765460222959518, 0.18151703476905823, 0.1347627490758896, -0.182479128241539, 0.11198046803474426, 0.21271003782749176, 0.23432795703411102, -0.00423410814255476, 0.15842202305793762, -0.05735551193356514, 0.09174240380525589, 0.0535234734416008, 0.013667353428900242, -0.1979721188545227, -0.052429500967264175, -0.14029280841350555, -0.1935698539018631, 0.15628834068775177, 0.06141457334160805, -0.1581781804561615, 0.2186664640903473, 0.23689638078212738, 0.13503406941890717, 0.0880950540304184, -0.002660305006429553, 0.19775886833667755, 0.02095249481499195, -0.05705084651708603, -0.16322684288024902, -0.08470842987298965, 0.16902029514312744, -0.06305772811174393, 0.24379105865955353, -0.13890863955020905, 0.22481125593185425, 0.2093755453824997, 0.24039514362812042, -0.2263399213552475, -0.04617634043097496, -0.09698066860437393, -0.21317122876644135, 0.11235003918409348, -0.12326272577047348, -0.04434826225042343, 0.10512348264455795, 0.1997167021036148, -0.13908076286315918, -0.17822673916816711, -0.09262615442276001, -0.05818382278084755, 0.17447121441364288, -0.21733784675598145, 0.2138531357049942, 0.07915879040956497, 0.235620379447937, 0.24862807989120483, -0.02798321656882763, -0.18731878697872162, 0.16803719103336334, 0.09214908629655838, -0.010969297029078007, -0.22529518604278564, 0.17067620158195496, -0.025253260508179665, 0.05372759327292442, -0.1138366162776947, -0.1498337984085083, -0.1853008270263672, 0.08593255281448364, -0.1259332299232483, 0.06307654082775116, 0.1725224256515503, -0.2240467667579651, -0.00538859935477376, -0.22469310462474823, 0.13826118409633636, 0.2367912232875824, 0.09072566032409668, -0.12340711802244186, 0.13832500576972961, 0.2224879115819931, -0.1629313826560974, 0.05711841210722923