// Numpy array shape [128]
// Min -0.24477407
// Max 0.2488266
// Number of zeros 0

#ifndef INP_LAYER_BIAS_H_
#define INP_LAYER_BIAS_H_

#ifndef __SYNTHESIS__
model_default_t inp_layer_bias[128];
#else
model_default_t inp_layer_bias[128] = {-0.13219968974590302, 0.15424787998199463, 0.12956787645816803, 0.017276763916015625, 0.23497575521469116, 0.09998389333486557, 
0.08004771173000336, 0.09719088673591614, -0.07162690162658691, -0.12296291440725327, 0.16626542806625366, -0.036567602306604385, -0.2094724476337433, 
0.04814104363322258, -0.20945368707180023, -0.15619421005249023, 0.021555349230766296, -0.16399745643138885, 0.1323062777519226, 0.048193637281656265, 
-0.09501561522483826, 0.2055419236421585, -0.04243121296167374, -0.22713801264762878, 0.0040883091278374195, -0.2224806696176529, -0.08830361068248749, 
-0.12086531519889832, 0.15745694935321808, -0.14466412365436554, 0.11155931651592255, 0.18843936920166016, -0.24402984976768494, -0.10706961899995804, 
-0.19646014273166656, 0.1362989991903305, 0.007291459944099188, 0.08793354034423828, 0.14925962686538696, -0.18315458297729492, -0.17703185975551605, 
-0.01798650063574314, 0.054331813007593155, 0.2062205672264099, -0.05840505659580231, -0.24284417927265167, -0.22757984697818756, 0.24621714651584625, 
0.02125689946115017, -0.08381764590740204, 0.10628526657819748, 0.10601840168237686, -0.1654587686061859, -0.14704610407352448, 0.19901667535305023, 
0.1935299187898636, -0.03837641701102257, -0.2036416083574295, -0.11560777574777603, -0.08874792605638504, 0.019976044073700905, 0.07789098471403122, 
-0.2016046643257141, 0.09015573561191559, -0.07506056129932404, 0.08527446538209915, -0.17156894505023956, -0.016381999477744102, -0.2396860122680664, 
0.13797761499881744, 0.14462414383888245, 0.12574660778045654, 0.08947935700416565, -0.06282161921262741, 0.008373896591365337, 0.1501670926809311, 
0.028060663491487503, -0.07650285959243774, -0.18644066154956818, -0.2146175652742386, 0.22222213447093964, 0.09899771958589554, -0.18942898511886597, 
-0.24477407336235046, -0.07653561979532242, 0.0012318195076659322, -0.06187048181891441, 0.1862807720899582, 0.05543573573231697, 0.16659772396087646, 
-0.11314600706100464, 0.23449468612670898, -0.14267763495445251, 0.24882659316062927, -0.1945882886648178, 0.1567625254392624, -0.21949875354766846, 
0.08789025992155075, 0.05946693196892738, -0.15020553767681122, -0.0981350690126419, 0.1123073548078537, 0.19533127546310425, 0.14375001192092896, 
0.06395075470209122, -0.21991941332817078, 0.10014992207288742, -0.022737614810466766, -0.11703978478908539, -0.149754136800766, -0.04541761800646782, 
-0.18140126764774323, 0.11918745189905167, -0.15451045334339142, 0.19995003938674927, -0.0798918753862381, -0.19230219721794128, 0.18821290135383606, 
0.0677618682384491, 0.08945423364639282, -0.044189974665641785, 0.00913255289196968, -0.23429399728775024, 0.11774557828903198, 0.12408377230167389, 
0.11718820780515671, -0.19363674521446228, -0.09866277873516083};

#endif

#endif
