// Numpy array shape [128]
// Min -0.24484944
// Max 0.24890997
// Number of zeros 0

#ifndef INP_LAYER_BIAS_H_
#define INP_LAYER_BIAS_H_

#ifndef __SYNTHESIS__
model_default_t inp_layer_bias[128];
#else
model_default_t inp_layer_bias[128] = {-0.1320319026708603, 0.15429936349391937, 0.12968705594539642, 0.017032776027917862, 0.2347566783428192, 0.10019374638795853, 
0.08015278726816177, 0.09723279625177383, -0.07179135084152222, -0.12290383130311966, 0.16648073494434357, -0.03676261380314827, -0.20922289788722992, 
0.04803052172064781, -0.20931753516197205, -0.15611423552036285, 0.021376345306634903, -0.16414430737495422, 0.1323845237493515, 0.048441331833601, 
-0.09518075734376907, 0.20541079342365265, -0.04220108315348625, -0.22717301547527313, 0.004312412813305855, -0.22260171175003052, -0.08833067119121552, 
-0.12082743644714355, 0.15752165019512177, -0.14449676871299744, 0.11157570034265518, 0.18845991790294647, -0.24388942122459412, -0.10710914433002472, 
-0.19650448858737946, 0.1364942044019699, 0.007494195830076933, 0.08776354789733887, 0.14929524064064026, -0.18307682871818542, -0.17693717777729034, 
-0.01774008572101593, 0.05440220981836319, 0.20642806589603424, -0.05864134058356285, -0.24279817938804626, -0.22779856622219086, 0.24635933339595795, 
0.021112099289894104, -0.08387286961078644, 0.10630707442760468, 0.10606571286916733, -0.16524606943130493, -0.1472884565591812, 0.19920064508914948, 
0.19338789582252502, -0.03812946006655693, -0.20348210632801056, -0.11577250808477402, -0.0885770320892334, 0.019741004332900047, 0.07783667743206024, 
-0.2016664296388626, 0.09001222997903824, -0.07499566674232483, 0.0850827544927597, -0.17137274146080017, -0.01641719415783882, -0.23943713307380676, 
0.13777515292167664, 0.14458772540092468, 0.12565353512763977, 0.08970392495393753, -0.06302505731582642, 0.008132603019475937, 0.15023526549339294, 
0.02797233872115612, -0.07661838084459305, -0.18640807271003723, -0.21447329223155975, 0.22206337749958038, 0.09880365431308746, -0.18960966169834137, 
-0.24484944343566895, -0.07670300453901291, 0.0014806651743128896, -0.06208300217986107, 0.18606747686862946, 0.055231913924217224, 0.16638301312923431, 
-0.11310296505689621, 0.2344716340303421, -0.14265166223049164, 0.24890996515750885, -0.19452740252017975, 0.15658818185329437, -0.21932634711265564, 
0.0879383534193039, 0.059225209057331085, -0.1503560096025467, -0.09836949408054352, 0.11224475502967834, 0.19510748982429504, 0.14356909692287445, 
0.06416593492031097, -0.22003455460071564, 0.10037431120872498, -0.022920334711670876, -0.11716816574335098, -0.14962001144886017, -0.045530494302511215, 
-0.18127913773059845, 0.11928068846464157, -0.15430328249931335, 0.19971658289432526, -0.07985253632068634, -0.19227197766304016, 0.18844027817249298, 
0.06759614497423172, 0.08938618749380112, -0.0444190613925457, 0.0089894849807024, -0.23444890975952148, 0.11765842139720917, 0.12403876334428787, 
0.1170613020658493, -0.19349348545074463, -0.09841454774141312};

#endif

#endif
