// Numpy array shape [128, 16]
// Min -0.561232
// Max 0.5767604
// Number of zeros 0

#ifndef INP_LAYER_WEIGHT_H_
#define INP_LAYER_WEIGHT_H_

#ifndef __SYNTHESIS__
model_default_t inp_layer_weight[2048];
#else
model_default_t inp_layer_weight[2048] = {-0.001658222172409296, 0.18263596296310425, -0.19713163375854492, -0.13517940044403076, 0.13007496297359467, -0.223382830619812, 
0.15954208374023438, -0.1973859816789627, -0.10286153107881546, -0.21994391083717346, 0.014109540730714798, -0.04044868052005768, -0.16222400963306427, 
0.1451970487833023, -0.10661506652832031, 0.13144168257713318, -0.2942642271518707, -0.22593756020069122, -0.029506802558898926, 0.031139029189944267, 
0.007481141947209835, 0.2535744309425354, -0.08161655068397522, -0.11352384835481644, 0.1112627238035202, 0.15680424869060516, -0.059223324060440063, 
0.22688700258731842, -0.0548170804977417, 0.09807782620191574, -0.19806049764156342, -0.2411593347787857, -0.10312288254499435, -0.03438316285610199, 
0.038254957646131516, -0.1961638480424881, -0.14291012287139893, -0.24993079900741577, -0.21062207221984863, -0.07478214055299759, -0.1444351077079773, 
0.08950124680995941, -0.1317925751209259, 0.09520512819290161, -0.11392764747142792, 0.14637409150600433, -0.029154174029827118, 0.30067649483680725, 
-0.24844476580619812, -0.2186914086341858, 0.07802914828062057, -0.11126530915498734, 0.08485061675310135, 0.034127529710531235, 0.2433946579694748, 
-0.11536014080047607, -0.3215808570384979, -0.02794273942708969, 0.18883705139160156, -0.0987752228975296, -0.18352659046649933, 0.2035219967365265, 
-0.030173853039741516, -0.04132658615708351, -0.057928189635276794, -0.1507638692855835, 0.19807489216327667, 0.10031268745660782, -0.029848504811525345, 
-0.17277830839157104, -0.07277096062898636, -0.03255771845579147, -0.2427651286125183, -0.161493718624115, -0.16304954886436462, 0.08595183491706848, 
0.15811210870742798, -0.10709559917449951, 0.14627449214458466, 0.1285887211561203, -0.2195446789264679, 0.053355567157268524, -0.19099050760269165, 
-0.014402121305465698, -0.16131232678890228, 0.14188377559185028, 0.08965656161308289, 0.10304629057645798, 0.06281623244285583, -0.20040272176265717, 
-0.17505784332752228, -0.024515053257346153, 0.293593168258667, 0.23309509456157684, -0.16712474822998047, 0.21952389180660248, -0.06794414669275284, 
0.35195252299308777, -0.11649052798748016, 0.09807408601045609, -0.03333776444196701, 0.21141229569911957, 0.11846821755170822, -0.044988200068473816, 
-0.04067587852478027, -0.17796921730041504, 0.08413700014352798, -0.1656908541917801, 0.025787198916077614, -0.0743582621216774, -0.06839239597320557, 
-0.17803607881069183, 0.15162400901317596, -0.1434885710477829, -0.23093120753765106, -0.09342432022094727, 0.2170649915933609, -0.031015150249004364, 
-0.1566336303949356, 0.0370461642742157, -0.12858714163303375, 0.1600905805826187, 0.21666231751441956, -0.2091589868068695, 0.13570253551006317, 
0.13012605905532837, 0.05178820714354515, -0.09111500531435013, 0.1365036517381668, 0.18373289704322815, -0.09905648231506348, 0.01113678514957428, 
-0.0012609191471710801, 0.16096621751785278, 0.0898682177066803, 0.12193290889263153, -0.20484508574008942, -0.16971342265605927, -0.07883249223232269, 
-0.10055617243051529, -0.03525964915752411, 0.02828163094818592, 0.08545738458633423, 0.1729246973991394, 0.06117555871605873, -0.024767832830548286, 
0.020035549998283386, -0.14659710228443146, 0.08268066495656967, 0.2891654372215271, 0.047101687639951706, -0.05831461399793625, 0.2778443396091461, 
0.06445702910423279, -0.028217241168022156, 0.023448554798960686, -0.22858890891075134, 0.19646362960338593, -0.12717069685459137, -0.14886736869812012, 
-0.05279731750488281, -0.12587034702301025, 0.19773827493190765, -0.21964673697948456, -0.2507210373878479, 0.23224176466464996, -0.03126346319913864, 
-0.16803407669067383, 0.006968704983592033, 0.22482791543006897, 0.10120046883821487, 0.11328902840614319, -0.04095754772424698, -0.10219155251979828, 
-0.18931345641613007, 0.23949839174747467, -0.11573905497789383, -0.11868399381637573, -0.03674713894724846, 0.21443134546279907, -0.05742607265710831, 
0.06264827400445938, -0.058140404522418976, -0.22203144431114197, 0.02850664034485817, 0.07439775764942169, 0.1421271413564682, -0.06956405937671661, 
0.029806334525346756, 0.2242812216281891, -0.042042076587677, -0.06731784343719482, -0.17358410358428955, 0.18588775396347046, 0.21327443420886993, 
-0.15660424530506134, -0.12059259414672852, 0.07407686114311218, -0.2540368139743805, -0.008894599974155426, -0.08298951387405396, -0.15452322363853455, 
-0.19568555057048798, 0.22605545818805695, 0.14633718132972717, -0.09846537560224533, -0.014020229689776897, 0.11709503829479218, -0.07247957587242126, 
-0.07133884727954865, -0.08463362604379654, -0.13351288437843323, -0.10345995426177979, 0.253853976726532, 0.09841398149728775, 0.20305044949054718, 
-0.12948720157146454, -0.017535701394081116, -0.09249422699213028, -0.10035469383001328, 0.25068971514701843, 0.05102556571364403, -0.024856936186552048, 
0.16820836067199707, 0.10132190585136414, 0.12558938562870026, 0.06319275498390198, 0.025270657613873482, 0.1877894252538681, -0.04067416116595268, 
0.040195148438215256, -0.16437304019927979, 0.08242692798376083, 0.18813598155975342, 0.23628629744052887, -0.11831329762935638, -0.16336122155189514, 
-0.06745942682027817, 0.00986486952751875, -0.059079717844724655, 0.13554903864860535, 0.07080331444740295, -0.09526871144771576, -0.09455548226833344, 
0.1683642864227295, 0.14548034965991974, -0.1696205586194992, -0.120108962059021, -0.10689054429531097, 0.08016317337751389, -0.06885270774364471, 
-0.15109501779079437, -0.030579308047890663, 0.08120204508304596, 0.13849498331546783, -0.06071317195892334, -0.3279314637184143, -0.26621848344802856, 
-0.3020879626274109, 0.3131537139415741, 0.08329475671052933, 0.2944107949733734, -0.1268562376499176, 0.24644707143306732, -0.1369670033454895, 
0.31684815883636475, -0.24778354167938232, 0.13883483409881592, -0.27831730246543884, -0.04277677834033966, -0.21219922602176666, 0.09577572345733643, 
-0.1516769826412201, -0.1555814892053604, -0.23563818633556366, 0.014808336272835732, -0.2781126797199249, 0.26916277408599854, 0.046779800206422806, 
-0.23516234755516052, 0.20255808532238007, 0.02129461243748665, 0.18729712069034576, -0.10353415459394455, 0.303282767534256, 0.031769830733537674, 
-0.3600829243659973, 0.17291751503944397, -0.027865750715136528, 0.33233824372291565, -0.3644962012767792, -0.15495078265666962, 0.1574336737394333, 
0.10030277818441391, 0.049285244196653366, 0.33533474802970886, 0.13671498000621796, -0.12298531085252762, 0.16963323950767517, 0.1579328328371048, 
0.026560241356492043, 0.019361503422260284, 0.15105076134204865, -0.06396207958459854, 0.14590832591056824, -0.03544227406382561, 0.22966530919075012, 
0.05469569191336632, -0.30474135279655457, -0.020979493856430054, 0.048350341618061066, -0.09548894315958023, 0.05555373802781105, 0.33522582054138184, 
0.29314807057380676, -0.3764961361885071, 0.2851881682872772, -0.26005226373672485, 0.32057297229766846, 0.1304938644170761, -0.05091753602027893, 
0.016610167920589447, 0.22187115252017975, 0.16789467632770538, -0.196420356631279, -0.2070288062095642, -0.13178740441799164, 0.22592920064926147, 
0.17011739313602448, -0.14359165728092194, -0.09165237843990326, 0.34521302580833435, -0.21262575685977936, 0.20444324612617493, 0.26505449414253235, 
0.06582522392272949, 0.1261572688817978, 0.10858061909675598, 0.022197673097252846, -0.07961134612560272, 0.1066398024559021, -0.2217218428850174, 
-0.034607838839292526, 0.25485482811927795, 0.16588498651981354, 0.16680604219436646, -0.08968593180179596, -0.11515174061059952, -0.21245799958705902, 
0.2594805061817169, -0.12691539525985718, -0.0350659117102623, 0.19718854129314423, 0.007285283878445625, -0.2237543910741806, -0.2888645827770233, 
0.13647019863128662, -0.30386024713516235, -0.10889527201652527, 0.09125261008739471, -0.039526596665382385, -0.18397168815135956, -0.36706745624542236, 
0.13066887855529785, 0.1339390128850937, -0.10756227374076843, -0.24181172251701355, 0.20615169405937195, 0.22090297937393188, -0.2815050184726715, 
0.000661856378428638, -0.12832464277744293, -0.138619065284729, 0.030201107263565063, 0.1315002143383026, -0.14772550761699677, -0.01753716543316841, 
-0.324480265378952, -0.05855197831988335, -0.32372206449508667, 0.2596680819988251, 0.10927537828683853, -0.27770179510116577, -0.13026577234268188, 
-0.29648181796073914, -0.1439826488494873, -0.317326158285141, 0.48024263978004456, 0.14530083537101746, -0.2693427503108978, -0.21083499491214752, 
-0.2579905688762665, -0.00023628734925296158, 0.03494475409388542, -0.21347647905349731, -0.45107296109199524, -0.1802026778459549, -0.2627374827861786, 
-0.10714729130268097, 0.08076386153697968, -0.33599546551704407, -0.3447495698928833, 0.22170814871788025, -0.018006401136517525, 0.11505814641714096, 
0.3718046545982361, 0.011515880934894085, 0.17933586239814758, 0.4307047128677368, 0.32508209347724915, 0.38832801580429077, -0.12360838055610657, 
0.13643740117549896, -0.09976772964000702, 0.012248922139406204, 0.45459291338920593, 0.1550603210926056, 0.3442426919937134, -0.09583886712789536, 
0.18388794362545013, 0.29316285252571106, 0.18257543444633484, -0.1910666823387146, 0.10647762566804886, 0.032453540712594986, 0.22999171912670135, 
0.31019026041030884, -0.15882185101509094, 0.3852541148662567, -0.13066044449806213, -0.19577904045581818, 0.03493814170360565, -0.30708813667297363, 
-0.4327752888202667, -0.08162272721529007, 0.05965214595198631, 0.15037819743156433, 0.25898563861846924, -0.1702260673046112, 0.25910913944244385, 
0.1224830150604248, 0.050822075456380844, -0.200746089220047, -0.4433923363685608, -0.3701644837856293, 0.09831468760967255, 0.11049571633338928, 
0.0885678306221962, 0.33483970165252686, -0.2687877118587494, -0.12299174815416336, -0.46852603554725647, 0.24485531449317932, -0.2932509779930115, 
-0.04131409525871277, -0.3474213778972626, -0.41725999116897583, 0.053815845400094986, 0.23292212188243866, -0.2331451028585434, 0.09146707504987717, 
-0.2486715465784073, 0.2508775293827057, 0.3184879422187805, 0.045370716601610184, -0.3398972451686859, 0.2859412431716919, -0.32589587569236755, 
-0.3082497715950012, 0.08415801078081131, 0.22503918409347534, -0.33485475182533264, -0.022728389129042625, 0.29278138279914856, -0.3743509352207184, 
-0.025636035948991776, -0.2696972191333771, 0.037334587424993515, 0.1993761956691742, -0.12365898489952087, 0.1763446182012558, -0.007297673728317022, 
-0.1840842068195343, 0.14321917295455933, 0.07019190490245819, -0.056431252509355545, -0.22643950581550598, 0.13999617099761963, 0.39090779423713684, 
-0.2262311726808548, -0.0760713592171669, -0.04917924851179123, 0.34697696566581726, -0.18769069015979767, -0.08529017865657806, 0.4656756818294525, 
-0.07833757996559143, 0.1144159808754921, 0.35569414496421814, -0.016389936208724976, 0.2166178971529007, -0.07794925570487976, 0.25685206055641174, 
-0.10533235222101212, 0.28152602910995483, -0.4600931704044342, -0.24639654159545898, -0.10409113019704819, -0.21019548177719116, 0.16991214454174042, 
-0.2067468762397766, 0.03115980327129364, -0.11758628487586975, 0.06977852433919907, -0.23426637053489685, 0.14860886335372925, 0.21090362966060638, 
0.1490665078163147, 0.3408157527446747, -0.00498006958514452, -0.25950905680656433, 0.09628701210021973, 0.010803338140249252, -0.05014585703611374, 
-0.1946340948343277, 0.11342384666204453, -0.04628176614642143, 0.3068654239177704, -0.1846485286951065, 0.2202097773551941, 0.04590969532728195, 
0.08007881790399551, 0.07520903646945953, -0.03986712172627449, -0.10119973123073578, -0.22792895138263702, -0.06745456904172897, 0.19480840861797333, 
0.1202344298362732, 0.15227137506008148, 0.2640819251537323, -0.17926965653896332, -0.17945359647274017, -0.3233453035354614, -0.19850778579711914, 
-0.127643883228302, -0.19989298284053802, -0.2617698311805725, -0.003292330075055361, -0.2934054434299469, 0.2227584421634674, -0.17250590026378632, 
-0.10017424076795578, -0.053271129727363586, -0.05744161829352379, 0.189291849732399, -0.12359054386615753, -0.12897509336471558, -0.12135553359985352, 
-0.16088172793388367, 0.15917149186134338, 0.04642752557992935, -0.053085051476955414, 0.277635782957077, -0.04998943209648132, -0.10425232350826263, 
0.0427565835416317, 0.12863007187843323, 0.12166666239500046, -0.13709756731987, -0.20620520412921906, 0.09310738742351532, -0.18707166612148285, 
-0.03794557973742485, 0.17492303252220154, 0.15537644922733307, -0.06008346006274223, 0.19289597868919373, -0.18720616400241852, -0.2934969663619995, 
-0.1897096186876297, 0.14094200730323792, -0.16843180358409882, 0.0133778415620327, -0.09618498384952545, -0.2008172869682312, 0.15881049633026123, 
-0.05315817892551422, 0.12858760356903076, 0.18217289447784424, 0.15187175571918488, 0.16666343808174133, 0.21743828058242798, -0.11717282235622406, 
-0.32619255781173706, 0.2036556452512741, -0.1409648358821869, 0.03631483018398285, 0.22175979614257812, 0.0998128280043602, 0.22163702547550201, 
-0.0745631754398346, -0.010805469006299973, -0.015184922143816948, -0.28913164138793945, 0.27147695422172546, -0.10900705307722092, 0.25081244111061096, 
0.2771146297454834, -0.12530437111854553, 0.24179400503635406, 0.10813787579536438, 0.032602906227111816, -0.028848892077803612, 0.16883887350559235, 
-0.18387733399868011, 0.25857576727867126, -0.02859536185860634, -0.005791332572698593, 0.13987453281879425, 0.13938108086585999, -0.28440171480178833, 
0.10614845156669617, 0.25295212864875793, 0.19652000069618225, -0.037942156195640564, -0.29602861404418945, -0.2506202161312103, -0.2924921214580536, 
0.02631240151822567, 0.308566153049469, -0.3430357873439789, -0.05560986325144768, -0.1770431250333786, 0.21245801448822021, 0.03186682239174843, 
0.13867439329624176, 0.15571936964988708, -0.2269631177186966, 0.02348104864358902, 0.12836512923240662, 0.18333809077739716, 0.27889102697372437, 
0.005286953411996365, 0.16439016163349152, -0.02335483208298683, 0.14507050812244415, 0.08440520614385605, -0.01959116756916046, -0.06187451630830765, 
0.063744455575943, -0.08481712639331818, 0.18992911279201508, -0.07718155533075333, 0.033743347972631454, -0.2498926967382431, 0.2189691960811615, 
-0.13506531715393066, 0.00012945792695973068, -0.11478948593139648, 0.19025465846061707, -0.17196528613567352, 0.1279662847518921, -0.07923366129398346, 
0.0779983326792717, -0.25026935338974, -0.18940451741218567, -0.13247649371623993, 0.05041898787021637, -0.032417286187410355, 0.17908453941345215, 
0.12561623752117157, 0.024976514279842377, -0.18941649794578552, 0.2785133719444275, 0.25470438599586487, -0.19842447340488434, 0.2600155174732208, 
-0.12485097348690033, -0.013507215306162834, 0.24888725578784943, -0.011695213615894318, -0.04547467082738876, 0.19822591543197632, 0.13058465719223022, 
0.160684272646904, 0.0360754020512104, 0.1308320015668869, 0.10629923641681671, 0.11328665912151337, 0.13175465166568756, -0.14535479247570038, 
-0.0866011530160904, -0.13446633517742157, 0.11125034838914871, 0.059890348464250565, 0.14707425236701965, -0.21113920211791992, 0.13515709340572357, 
0.005569633562117815, 0.0867181122303009, -0.1975710242986679, -0.07695382833480835, -0.21844522655010223, 0.20213598012924194, 0.04258962348103523, 
0.09490357339382172, -0.04501020535826683, 0.16550412774085999, 0.09355273842811584, 0.07570648193359375, 0.09305521845817566, 0.2816448509693146, 
-0.14448417723178864, -0.29825520515441895, -0.06791859120130539, 0.0037599143106490374, 0.07953859865665436, -0.31356799602508545, 0.06497165560722351, 
-0.09878983348608017, -0.021132342517375946, -0.06861680001020432, 0.10505542904138565, 0.21770602464675903, 0.13164514303207397, -0.23801222443580627, 
-0.1652640402317047, 0.1253170520067215, -0.2204582840204239, 0.1852550208568573, 0.05830174684524536, -0.10017819702625275, -0.3417641520500183, 
0.19896133244037628, 0.16537053883075714, -0.26849842071533203, -0.17808528244495392, -0.09689541906118393, -0.06988833099603653, -0.008178251795470715, 
-0.1941901296377182, 0.18702316284179688, -0.14547023177146912, -0.004726390819996595, -0.10569800436496735, -0.16226428747177124, 0.031938083469867706, 
0.11495516449213028, -0.06722239404916763, -0.1380227655172348, 0.010561280883848667, 0.0845707431435585, 0.16461631655693054, 0.16578996181488037, 
-0.18848782777786255, 0.16052113473415375, -0.18589258193969727, -0.05448602885007858, 0.19380773603916168, 0.129031702876091, 0.05429315194487572, 
-0.08220842480659485, -0.09332367032766342, 0.23604218661785126, -0.12732452154159546, -0.06743142753839493, -0.14990732073783875, 0.00863172858953476, 
-0.058520104736089706, 0.11475609987974167, 0.15985867381095886, -0.14599083364009857, -0.04138469323515892, -0.04245544597506523, 0.0551229752600193, 
0.12102337181568146, -0.10988068580627441, -0.10873905569314957, 0.11204074323177338, -0.12581942975521088, 0.05778295919299126, -0.040558766573667526, 
0.1596926599740982, 0.07081220299005508, -0.034178268164396286, -0.0421123206615448, -0.13203294575214386, 0.06939570605754852, 0.1918114721775055, 
-0.10572750866413116, -0.23250198364257812, 0.05448533594608307, 0.17115283012390137, 0.0096952635794878, 0.18554309010505676, -0.15720336139202118, 
0.03613562509417534, 0.11031660437583923, 0.10859472304582596, 0.1531418114900589, -0.09046048671007156, -0.18307068943977356, -0.06189941242337227, 
-0.14743447303771973, 0.23480090498924255, 0.009349236264824867, 0.14771437644958496, -0.11278031021356583, 0.1653202474117279, 0.11176751554012299, 
0.010165977291762829, 0.032193467020988464, 0.16670700907707214, 0.16310939192771912, -0.0446569062769413, 0.09908796101808548, -0.03266775235533714, 
0.21631047129631042, 0.14432431757450104, -0.08472727984189987, 0.11909991502761841, 0.032802730798721313, 0.07758110016584396, 0.17974305152893066, 
0.1020379513502121, 0.16053873300552368, -0.08863281458616257, 0.15219241380691528, 0.06134523078799248, 0.04523451253771782, -0.0706612765789032, 
0.17337022721767426, 0.1431068629026413, 0.05994752049446106, 0.15585696697235107, -0.06774835288524628, -0.059961266815662384, -0.13386768102645874, 
-0.10233413428068161, 0.03849458694458008, -0.05633934959769249, -0.04859791323542595, -0.14473247528076172, -0.059781648218631744, 0.20303601026535034, 
0.11524799466133118, -0.020582443103194237, -0.04776380583643913, 0.09110274910926819, 0.1694270670413971, -0.11488481611013412, -0.15228311717510223, 
0.1617671400308609, -0.030035343021154404, 0.10622809827327728, 0.17318274080753326, -0.1298896223306656, -0.0678977519273758, 0.030533503741025925, 
0.11185767501592636, -0.09262596815824509, 0.09975682199001312, -0.17907442152500153, 0.07032448798418045, -0.2090456634759903, -0.0970868393778801, 
0.12212373316287994, 0.0909091904759407, -0.19855399429798126, 0.12715081870555878, 0.11480337381362915, 0.09559769183397293, -0.09333494305610657, 
0.14738671481609344, 0.18646039068698883, 0.10650739073753357, -0.06537038087844849, -0.06563929468393326, 0.024021001532673836, 0.0699189081788063, 
-0.055255141109228134, -0.17400722205638885, 0.04534533619880676, 0.20356392860412598, -0.06851601600646973, -0.19515149295330048, -0.03134101256728172, 
-0.008977857418358326, -0.13847407698631287, -0.11691797524690628, -0.006620203144848347, -0.22671006619930267, -0.013188382610678673, 0.01021552737802267, 
0.14779433608055115, 0.2165132611989975, 0.19063207507133484, 0.13168922066688538, -0.129865825176239, -0.0913337841629982, -0.13743506371974945, 
-0.006954213138669729, 0.07008581608533859, -0.09706339240074158, -0.12921376526355743, 0.09858458489179611, 0.025414396077394485, 0.02390580251812935, 
0.0435628779232502, 0.15498274564743042, -0.19187787175178528, 0.1305280327796936, 0.06769954413175583, -0.10674973577260971, 0.0023562228307127953, 
0.009439585730433464, 0.12707407772541046, 0.07069828361272812, -0.16108928620815277, -0.02356787584722042, 0.13374020159244537, 0.13891714811325073, 
-0.1611255705356598, 0.20527051389217377, 0.20642973482608795, 0.09957407414913177, 0.14047816395759583, -0.011977887712419033, 0.07987186312675476, 
-0.20488719642162323, -0.06440436094999313, 0.06319203227758408, 0.22215168178081512, 0.10879631340503693, 0.08505401015281677, 0.20140226185321808, 
-0.19988715648651123, -0.12481670081615448, -0.22474797070026398, -0.06774915754795074, -0.20732077956199646, -0.10486999154090881, -0.12979114055633545, 
-0.19704295694828033, 0.06622980535030365, -0.14560586214065552, -0.07890936732292175, 0.07259079068899155, -0.2254985272884369, -0.060961756855249405, 
-0.24634067714214325, 0.14132598042488098, 0.013257699087262154, 0.13708749413490295, -0.049850232899188995, -0.2044166624546051, -0.09364936500787735, 
-0.0008869845187291503, 0.1157468780875206, 0.04175031930208206, 0.0592157281935215, 0.18339215219020844, -0.027063623070716858, -0.020404499024152756, 
-0.1823071986436844, -0.14675797522068024, -0.10652989894151688, 0.12598665058612823, 0.010340758599340916, 0.10550252348184586, 0.2508357763290405, 
0.004553093109279871, -0.17333491146564484, 0.07463697344064713, 0.20525836944580078, 0.21866337954998016, 0.16732031106948853, 0.042484622448682785, 
-0.05234064161777496, 0.16661454737186432, -0.06799256056547165, -0.10064645856618881, -0.026293540373444557, 0.0028736975509673357, 0.08517557382583618, 
-0.01251994725316763, -0.16514982283115387, -0.005774905905127525, 0.15656711161136627, 0.009853682480752468, -0.04137882962822914, 0.18581554293632507, 
-0.22209714353084564, -0.054789744317531586, 0.0866328626871109, 0.04110023006796837, 0.21372434496879578, -0.0011589053319767118, 0.20118527114391327, 
0.06254147738218307, 0.13130022585391998, -0.05787268280982971, -0.22137373685836792, -0.051184386014938354, 0.19595085084438324, 0.23369580507278442, 
-0.08062659949064255, -0.0026026428677141666, 0.028779437765479088, -0.19350281357765198, 0.03474753722548485, 0.19337809085845947, -0.046103108674287796, 
-0.07623111456632614, -0.2188161164522171, 0.07464625686407089, -0.08382294327020645, 0.1644008606672287, -0.07103084772825241, -0.09912294894456863, 
0.10822809487581253, -0.09997352212667465, -0.05061723291873932, -0.008600981906056404, -0.0473659373819828, 0.016349656507372856, 0.038822900503873825, 
0.14491768181324005, 0.0958947092294693, -0.17159821093082428, 0.11675474792718887, -0.050991833209991455, 0.07337301224470139, -0.22018493711948395, 
0.05363873019814491, 0.03367588669061661, -0.13601207733154297, -0.012083654291927814, -0.017606988549232483, 0.029099158942699432, 0.002226761309430003, 
0.18699955940246582, 0.15974068641662598, 0.03921150416135788, -0.16389548778533936, -0.10025762021541595, 0.21463973820209503, -0.11516862362623215, 
-0.15924057364463806, 0.12089195847511292, -0.17898282408714294, 0.021249884739518166, 0.0701533630490303, -0.03636263683438301, 0.1949375867843628, 
0.0843411386013031, 0.03531164303421974, 0.30046600103378296, 0.1896725445985794, 0.06040085479617119, -0.21293112635612488, 0.046749457716941833, 
0.06976210325956345, -0.1662825495004654, 0.00804744940251112, 0.15972283482551575, 0.16397032141685486, -0.15374787151813507, 0.08334589749574661, 
0.08256462216377258, 0.09786829352378845, 0.1930369883775711, 0.20475691556930542, 0.012246578000485897, -0.02804582752287388, -0.04540557041764259, 
0.014169958420097828, -0.2505470812320709, -0.03510003164410591, 0.12806931138038635, 0.11377349495887756, 0.1047903522849083, -0.14092758297920227, 
0.018970925360918045, 0.04127989336848259, 0.023082945495843887, 0.1632245033979416, -0.04403357207775116, -0.27084144949913025, -0.14868220686912537, 
0.0476575568318367, 0.036705147475004196, -0.04011903703212738, 0.12581536173820496, 0.1561535745859146, -0.16008028388023376, 0.08884327113628387, 
0.0724330022931099, -0.007386813405901194, -0.03369315341114998, -0.16224262118339539, 0.18320825695991516, -0.22239872813224792, -0.03947626054286957, 
0.13191762566566467, -0.03133663162589073, 0.12335499376058578, 0.1816439926624298, -0.1543649137020111, 0.20297138392925262, 0.0024322199169546366, 
0.1034754291176796, 0.24378295242786407, 0.03242082893848419, 0.06143662706017494, 0.14287397265434265, -0.006089802365750074, -0.10168898850679398, 
0.02663450688123703, -0.06899935007095337, 0.030183324590325356, 0.11381692439317703, -0.09570253640413284, -0.11841559410095215, 0.16522447764873505, 
0.10556808859109879, 0.017937593162059784, -0.16314980387687683, -0.15044021606445312, -0.06469223648309708, 0.18604685366153717, 0.0364508181810379, 
0.16829323768615723, 0.03496021032333374, 0.15473808348178864, 0.02071668766438961, 0.07973124831914902, -0.0933493822813034, 0.1911545991897583, 
-0.1575130671262741, 0.22397176921367645, -0.04555463790893555, 0.1917286217212677, 0.0015739115187898278, -0.01779874972999096, 0.20675404369831085, 
0.11465346813201904, 0.18075686693191528, -0.10694245994091034, 0.05942307412624359, -0.08016014099121094, 0.08892668038606644, 0.00627327524125576, 
-0.06127453222870827, -0.1874910145998001, 0.15552087128162384, -0.20443587005138397, 0.037477754056453705, 0.06739635020494461, -0.06585729122161865, 
0.150827094912529, -0.0738014206290245, 0.11311779916286469, 0.17786560952663422, -0.11837521195411682, 0.15693749487400055, -0.05993606150150299, 
-0.12486933171749115, -0.2013711929321289, -0.19346164166927338, -0.07158464193344116, -0.16215762495994568, 0.17426489293575287, -0.19896966218948364, 
0.15190067887306213, -0.15535253286361694, 0.07625844329595566, -0.20796625316143036, -0.24085015058517456, 0.15245355665683746, -0.048138465732336044, 
-0.04677169770002365, -0.18165002763271332, -0.0017095389775931835, -0.11922707408666611, -0.08912815153598785, 0.07784782350063324, -0.19261017441749573, 
-0.06542365252971649, -0.055032242089509964, 0.01255497895181179, -0.09622028470039368, 0.16889755427837372, -0.18764278292655945, -0.2017611861228943, 
-0.21201714873313904, -0.16342678666114807, 0.16819508373737335, 0.14785277843475342, -0.12484852969646454, 0.11220752447843552, 0.06511805951595306, 
-0.016315890476107597, 0.132262721657753, -0.10863254964351654, -0.030461672693490982, 0.13412368297576904, 0.015286827459931374, -0.19676128029823303, 
-0.2133781909942627, -0.16630977392196655, 0.11752878874540329, -0.10902964323759079, -0.15519052743911743, -0.06907467544078827, -0.10053091496229172, 
0.1122746542096138, -0.13491933047771454, -0.19656755030155182, -0.19286639988422394, 0.12835226953029633, -0.17257829010486603, -0.17024581134319305, 
-0.04527774825692177, 0.061877671629190445, 0.19080980122089386, -0.15705974400043488, 0.12448006868362427, 0.13987722992897034, -0.2223382294178009, 
-0.14380235970020294, -0.1883068084716797, 0.15865682065486908, 0.09435778856277466, -0.09413795918226242, 0.19817833602428436, 0.24850566685199738, 
0.18576228618621826, -0.1034264862537384, -0.2405877411365509, -0.09208868443965912, -0.2354477196931839, -0.22166766226291656, 0.12209543585777283, 
-0.2222016304731369, -0.1649823784828186, -0.13726021349430084, 0.16083236038684845, 0.03485152870416641, -0.19734518229961395, -0.00482803862541914, 
0.006153706461191177, 0.09513553977012634, -0.2366301417350769, -0.11563726514577866, -0.0675513744354248, 0.11408480256795883, -0.1441216766834259, 
-0.07626994699239731, -0.12963904440402985, -0.1525212675333023, -0.14739860594272614, -0.1084783747792244, 0.01573706790804863, 0.055472809821367264, 
-0.03218260034918785, -0.09774181991815567, -0.15175874531269073, -0.12090197950601578, -0.09239570051431656, -0.15179577469825745, 0.04797741025686264, 
0.07790285348892212, -0.022424956783652306, 0.26677197217941284, -0.037744950503110886, 0.2552119791507721, -0.022523706778883934, -0.03358471766114235, 
-0.03983873501420021, 0.24130885303020477, 0.07225033640861511, -0.14905497431755066, 0.1814153790473938, 0.05137280374765396, -0.12065663933753967, 
-0.10380369424819946, -0.03963213413953781, 0.13910116255283356, 0.17638802528381348, -0.07477998733520508, -0.2038087248802185, 0.20419591665267944, 
0.09975456446409225, -0.08230756968259811, -0.12632274627685547, -0.2394687384366989, 0.1537899523973465, 0.09731261432170868, -0.19247643649578094, 
0.08763690292835236, -0.21567891538143158, 0.07626809179782867, -0.1932668685913086, -0.13633599877357483, 0.030237672850489616, -0.030108176171779633, 
-0.18541310727596283, 0.11444521695375443, -0.05903588607907295, 0.046875033527612686, 0.13349677622318268, -0.04620787501335144, 0.08429765701293945, 
0.12260443717241287, -0.015412891283631325, -0.19057157635688782, 0.11673323065042496, 0.11579678952693939, 0.1283063292503357, -0.07631047070026398, 
-0.0244792178273201, 0.08367720246315002, 0.23849253356456757, -0.053484395146369934, 0.15433061122894287, -0.2329384833574295, 0.26802539825439453, 
-0.05520037189126015, -0.07199841737747192, 0.00837840884923935, -0.0328841470181942, 0.16930046677589417, -0.0500195138156414, -0.2396438717842102, 
-0.15413111448287964, -0.17205914855003357, 0.24092812836170197, 0.1445278376340866, 0.00405866140499711, -0.13039125502109528, 0.0802750214934349, 
-0.15329580008983612, -0.00015537322906311601, -0.08578069508075714, 0.020717304199934006, 0.07543770968914032, 0.006341875065118074, -0.17186066508293152, 
-0.16963693499565125, 0.11200336366891861, -0.18949851393699646, -0.040034715086221695, -0.01729079894721508, -0.07260320335626602, -0.200151264667511, 
0.1299462914466858, 0.18331998586654663, -0.06386115401983261, 0.17506568133831024, -0.07504945993423462, -0.00013807512004859746, 0.03509344160556793, 
-0.13840548694133759, -0.1417432725429535, -0.023686746135354042, -0.16322867572307587, -0.0862121507525444, -0.08129411190748215, 0.1378428190946579, 
0.09481477737426758, -0.04315931722521782, 0.2646504342556, -0.0038681775331497192, 0.21622198820114136, -0.00971823651343584, -0.08771658688783646, 
0.013027367182075977, 0.2512895166873932, -0.01246265321969986, 0.14913569390773773, -0.13938337564468384, 0.14119432866573334, 0.05880959331989288, 
0.12626288831233978, 0.13298523426055908, -0.04168687015771866, 0.18389247357845306, -0.0005047021550126374, -0.1485285609960556, -0.03354278951883316, 
-0.14478763937950134, 0.09639638662338257, 0.022081872448325157, 0.07393117249011993, -0.007126974873244762, 0.012275874614715576, 0.06264213472604752, 
0.026989363133907318, -0.2213134467601776, 0.037305526435375214, -0.15097874402999878, -0.030434221029281616, -0.14424791932106018, -0.18262270092964172, 
0.17309798300266266, 0.09328465163707733, -0.028259824961423874, -0.2712284326553345, -0.1863972693681717, -0.10306956619024277, 0.1525341123342514, 
0.10247182101011276, -0.14170880615711212, 0.20811834931373596, 0.08237800747156143, -0.23815272748470306, -0.1602638214826584, -0.04913003370165825, 
-0.17192479968070984, -0.2211429625749588, -0.22991050779819489, 0.05519971251487732, 0.041904550045728683, 0.18339873850345612, -0.09498728066682816, 
0.16580404341220856, -0.24359121918678284, 0.0694940984249115, 0.23336629569530487, 0.09199903160333633, 0.14937685430049896, -0.06811786442995071, 
-0.12668953835964203, 0.19559244811534882, -0.019196853041648865, -0.2518312633037567, 0.0373191200196743, 0.064239002764225, -0.13690310716629028, 
0.11400485783815384, 0.01788541115820408, 0.07187096774578094, 0.05565633624792099, 0.2503642737865448, -0.04131385684013367, -0.053127456456422806, 
-0.10860976576805115, 0.1245768666267395, -0.005191424861550331, 0.04080287739634514, -0.07412908971309662, 0.203309565782547, -0.15505735576152802, 
0.18241488933563232, -0.186270073056221, -0.038575153797864914, -0.041907213628292084, -0.07927600294351578, 0.025103939697146416, -0.23327554762363434, 
-0.0032717729918658733, 0.12845008075237274, -0.07459978759288788, 0.23828087747097015, -0.23254121840000153, 0.13195793330669403, -0.01742994599044323, 
0.02913166768848896, -0.13215552270412445, 0.04935677722096443, 0.03803398460149765, -0.13878832757472992, -0.22087617218494415, -0.03438699245452881, 
-0.013527738861739635, -0.18356256186962128, 0.1737278252840042, -0.12244239449501038, 0.2313895970582962, -0.10659661144018173, -0.1889674812555313, 
-0.08675891906023026, 0.09557024389505386, -0.1729615032672882, 0.24476906657218933, -0.10308608412742615, 0.18971771001815796, -0.13467037677764893, 
-0.1393369436264038, 0.057421423494815826, 0.18263627588748932, 0.1782684624195099, -0.13296516239643097, 0.1680651605129242, 0.08923812955617905, 
-0.09566174447536469, 0.1974431723356247, 0.09587308764457703, -0.22675883769989014, -0.0012023155577480793, -0.15204274654388428, -0.09440779685974121, 
-0.22290262579917908, -0.19934716820716858, 0.07714971154928207, -0.020356960594654083, -0.02162298746407032, 0.03630144149065018, -0.2162526249885559, 
0.09058903157711029, -0.09091787785291672, -0.03920960798859596, -0.15474261343479156, 0.04587109014391899, 0.0954679399728775, -0.06491043418645859, 
-0.09664561599493027, -0.17246243357658386, 0.10647615790367126, -0.1763007938861847, -0.21716712415218353, -0.12372461706399918, 0.0281908567994833, 
-0.13005179166793823, 0.11449972540140152, 0.18445777893066406, -0.18947437405586243, 0.20244909822940826, 0.21875841915607452, -0.0923139899969101, 
0.16742011904716492, 0.12245055288076401, -0.16159382462501526, 0.19357162714004517, -0.20754459500312805, -0.15699192881584167, -0.134238600730896, 
0.1089850515127182, 0.02102855034172535, 0.13889135420322418, 0.04412557929754257, -0.2224445939064026, 0.17989613115787506, 0.19613084197044373, 
0.1896587759256363, -0.2143680602312088, -0.14056086540222168, 0.022167962044477463, 0.06364263594150543, 0.2158202826976776, 0.1523636430501938, 
0.014503865502774715, -0.0941799208521843, -0.1044221967458725, 0.21952804923057556, -0.20677873492240906, 0.16451846063137054, 0.16667737066745758, 
0.1636066883802414, 0.17306941747665405, -0.08186943084001541, -0.21252304315567017, -0.23449824750423431, -0.2309313863515854, 0.1296774297952652, 
-0.11588231474161148, -0.0996059849858284, -0.08488532900810242, 0.011433517560362816, -0.1475120335817337, 0.17216530442237854, -0.11383157223463058, 
-0.1931435912847519, -0.10307657718658447, 0.1954541653394699, -0.1330423355102539, 0.08280396461486816, -0.1265707015991211, 0.028089294210076332, 
-0.09957368671894073, -0.05274176597595215, 0.09497957676649094, -0.21661478281021118, -0.12908916175365448, 0.0893353670835495, 0.07946351915597916, 
0.08129289001226425, 0.1657755821943283, 0.14431874454021454, -0.04113699495792389, -0.00681195966899395, 0.20949895679950714, 0.06477443128824234, 
0.07657060772180557, 0.18586526811122894, -0.03393883630633354, -0.007694910746067762, 0.10018415004014969, -0.21177242696285248, 0.1138986125588417, 
0.09988299757242203, 0.09048272669315338, 0.004158119671046734, 0.08982893079519272, 0.06935354322195053, 0.1966363936662674, 0.11337372660636902, 
0.0010139810619875789, 0.15499895811080933, 0.12363285571336746, 0.1271037757396698, -0.10777967423200607, -0.2141551375389099, 0.218574658036232, 
-0.08284750580787659, -0.19077107310295105, -0.20618316531181335, -0.17445124685764313, -0.1876259595155716, -0.21920940279960632, -0.17963938415050507, 
0.10650874674320221, 0.016194047406315804, 0.022992203012108803, 0.18625763058662415, 0.2573695778846741, 0.19462455809116364, 0.2371685653924942, 
0.016231168061494827, 0.21583613753318787, -0.16845469176769257, 0.14360417425632477, -0.03258950263261795, -0.18379630148410797, -0.12940506637096405, 
0.11799739301204681, 0.20746798813343048, -0.2045699954032898, 0.20299193263053894, 0.10499010235071182, -0.0011175001272931695, -0.021999837830662727, 
-0.22273482382297516, -0.12863406538963318, -0.09494135528802872, -0.2218763828277588, -0.18588553369045258, -0.08560853451490402, 0.1811707317829132, 
0.11683563143014908, 0.10373632609844208, 0.19707365334033966, 0.08266477286815643, -0.012492528185248375, 0.0393000952899456, 0.22603534162044525, 
-0.08692647516727448, -0.1636303961277008, -0.0035679542925208807, -0.17899443209171295, -0.08610072731971741, 0.08152340352535248, -0.13335534930229187, 
-0.07279951125383377, -0.07898209989070892, 0.11145039647817612, -0.2844627797603607, 0.061191778630018234, 0.08957205712795258, -0.09312479943037033, 
0.09300611168146133, -0.17066992819309235, 0.058093734085559845, 0.12449928373098373, 0.1993938833475113, 0.24046079814434052, -0.22840292751789093, 
-0.07392878085374832, 0.0369190014898777, 0.20035499334335327, 0.06504175066947937, 0.003955708350986242, 0.14037755131721497, 0.016222801059484482, 
0.2585054337978363, -0.12648192048072815, -0.034363340586423874, -0.03968486934900284, 0.1187133640050888, 0.24534539878368378, -0.07395026087760925, 
0.10724841803312302, -0.17555557191371918, 0.055362701416015625, -0.09057828783988953, 0.11472883075475693, -0.007469779811799526, -0.2100738137960434, 
0.1514490693807602, -0.10337105393409729, 0.15156620740890503, -0.2253747284412384, -0.1807829588651657, 0.1521373987197876, 0.14439629018306732, 
0.08406593650579453, 0.07268049567937851, 0.015346975065767765, -0.1067991629242897, -0.18716566264629364, 0.17223592102527618, -0.12950651347637177, 
-0.15466518700122833, 0.011769052594900131, -0.08968406170606613, 0.2435980886220932, 0.20002909004688263, 0.08812861889600754, -0.1258828490972519, 
-0.19829171895980835, -0.16394121944904327, -0.09861287474632263, 0.09697215259075165, 0.19594062864780426, 0.19097115099430084, -0.18664465844631195, 
-0.06446673721075058, 0.14595137536525726, 0.17692115902900696, 0.15601593255996704, -0.022230524569749832, -0.11430414021015167, 0.2560374140739441, 
-0.1610364019870758, -0.15856905281543732, -0.05996083840727806, -0.11713949590921402, -0.18619002401828766, -0.17570176720619202, -0.1848791092634201, 
0.029729435220360756, 0.08802477270364761, -0.04335791617631912, 0.028675071895122528, 0.20438264310359955, 0.06062931567430496, -0.1322866678237915, 
-0.0204792320728302, 0.14260756969451904, 0.04651803523302078, -0.18147094547748566, -0.18259209394454956, -0.07471685856580734, -0.08892162889242172, 
0.13470669090747833, -0.21432974934577942, 0.08142511546611786, -0.03996081277728081, 0.051725827157497406, -0.13032731413841248, 0.037936124950647354, 
-0.030299395322799683, 0.044567614793777466, 0.12644325196743011, 0.0030807110015302896, -0.13090373575687408, -0.1371222883462906, -0.15248531103134155, 
0.15794140100479126, 0.06352244317531586, 0.17465925216674805, -0.023108240216970444, 0.11386694014072418, 0.16686765849590302, 0.1352633833885193, 
0.022533508017659187, 0.23017269372940063, -0.03347097709774971, 0.05816573277115822, -0.09265410900115967, 0.04799937084317207, 0.04485314339399338, 
0.14298821985721588, -0.17243649065494537, -0.1105843111872673, -0.0999680906534195, 0.01739475503563881, 0.07870273292064667, 0.14836007356643677, 
0.0007975176558829844, -0.19409693777561188, -0.137595072388649, 0.4280541241168976, -0.3299406170845032, -0.10530770570039749, -0.35321494936943054, 
-0.32892388105392456, -0.14060671627521515, 0.5489435791969299, -0.14833448827266693, -0.4158554971218109, 0.46179038286209106, -0.1021723523736, 
0.3206609785556793, -0.05890845134854317, -0.28152599930763245, -0.10580188781023026, -0.2549854815006256, -0.246463343501091, 0.18340513110160828, 
-0.33486321568489075, -0.1949128955602646, 0.279267817735672, 0.32566022872924805, -0.3475528657436371, -0.3402913510799408, -0.4649720788002014, 
-0.2160348892211914, 0.029681000858545303, -0.1881335824728012, 0.4801984429359436, -0.18389640748500824, 0.4554596245288849, -0.15413732826709747, 
0.39854708313941956, -0.042942628264427185, -0.019989855587482452, 0.2935166358947754, 0.16755889356136322, -0.5305492281913757, -0.46369901299476624, 
-0.4084785580635071, -0.08201559633016586, -0.5612319707870483, 0.19783730804920197, -0.3199350833892822, -0.312653511762619, -0.02555815316736698, 
-0.0062512666918337345, 0.08850239217281342, 0.07653796672821045, 0.41005468368530273, 0.17447391152381897, 0.27639588713645935, -0.2108500748872757, 
-0.3992825746536255, 0.16829289495944977, 0.12707076966762543, -0.26964282989501953, 0.26654893159866333, -0.18357177078723907, 0.06730575114488602, 
-0.3535977303981781, -0.45360395312309265, -0.5307941436767578, -0.3927914500236511, 0.02044066973030567, 0.3546420633792877, 0.3564038574695587, 
-0.43636828660964966, -0.22164897620677948, 0.32114315032958984, 0.14357887208461761, 0.5716554522514343, 0.31564846634864807, -0.34865236282348633, 
0.46900343894958496, -0.36149996519088745, 0.3116764724254608, 0.10345793515443802, -0.38370391726493835, 0.5767604112625122, 0.1099892109632492, 
-0.0070617347955703735, 0.15676529705524445, 0.16490775346755981, 0.036586128175258636, 0.2460416853427887, -0.34863942861557007, -0.39141982793807983, 
0.42524203658103943, 0.16488933563232422, 0.25974905490875244, 0.08836622536182404, -0.07342683523893356, -0.20379826426506042, -0.05103464797139168, 
0.03313339129090309, -0.4717271327972412, 0.36746999621391296, -0.42272552847862244, -0.034371621906757355, -0.33781832456588745, 0.07954306155443192, 
-0.4725291430950165, 0.48355257511138916, 0.39900413155555725, 0.3569451570510864, -0.052352722734212875, -0.08978033810853958, -0.08196195214986801, 
-0.03822970762848854, -0.3522099554538727, 0.03439434990286827, 0.08225871622562408, 0.4362602233886719, 0.3711805045604706, 0.22248078882694244, 
-0.2633137106895447, 0.2249426245689392, 0.31581538915634155, 0.016526008024811745, -0.43742644786834717, 0.31667661666870117, -0.30539384484291077, 
0.4244309961795807, -0.0019494222942739725, 0.5466942191123962, 0.018453892320394516, 0.2692110538482666, 0.137543722987175, 0.10125499963760376, 
-0.1791837513446808, -0.2618369460105896, 0.1588413566350937, -0.22503694891929626, 0.0038629756309092045, -0.07833579927682877, 0.15661567449569702, 
0.1814149171113968, 0.27224090695381165, 0.008907182142138481, 0.07506150007247925, -0.0331483818590641, -0.14748385548591614, 0.09310369938611984, 
0.12411703914403915, -0.06737522035837173, 0.1795133650302887, 0.25705039501190186, -0.28625696897506714, 0.23717933893203735, 0.24495655298233032, 
-0.06703326106071472, 0.12437405437231064, 0.06822192668914795, -0.2369956225156784, 0.15949620306491852, -0.03889172151684761, 0.2144947350025177, 
-0.06585662066936493, -0.17529618740081787, -0.03427277132868767, 0.2166796773672104, -0.31122317910194397, -0.11628293246030807, -0.335326224565506, 
0.16867880523204803, -0.18798454105854034, -0.0049631595611572266, -0.2712945342063904, 0.04404796287417412, 0.25143444538116455, 0.19123965501785278, 
-0.03141484409570694, 0.2908191382884979, -0.09158874303102493, -0.04030415043234825, 0.11660007387399673, -0.04562142863869667, 0.2316015213727951, 
-0.055865198373794556, -0.011555683799088001, 0.10812139511108398, 0.1770879328250885, -0.24533921480178833, 0.10883492231369019, 0.014554076828062534, 
0.023429736495018005, 0.27655068039894104, -0.1354179084300995, 0.12230154126882553, 0.1869281828403473, -0.07014990597963333, 0.055686865001916885, 
-0.06072911620140076, 0.2260112762451172, -0.1318431794643402, -0.10552462190389633, -0.29680225253105164, -0.12148831784725189, -0.29103219509124756, 
-0.07796802371740341, -0.2975308299064636, 0.25399473309516907, -0.173143669962883, -0.20601464807987213, 0.18398141860961914, -0.2508535087108612, 
-0.11253848671913147, -0.07545864582061768, 0.264423668384552, 0.024513281881809235, 0.04007847234606743, 0.2847962975502014, -0.09949515759944916, 
-0.054176490753889084, 0.2404201179742813, -0.24907109141349792, -0.0264703631401062, -0.1420011818408966, -0.11660175025463104, -0.1867537796497345, 
-0.14686554670333862, 0.029114896431565285, -0.32902538776397705, 0.14656178653240204, -0.03627500310540199, 0.05691036581993103, 0.0036355990450829268, 
0.09358734637498856, 0.23774579167366028, -0.15091991424560547, 0.2363889217376709, 0.10630642622709274, -0.22764864563941956, 0.006984615232795477, 
0.1601918637752533, 0.27225154638290405, 0.2435230165719986, -0.03983914479613304, -0.13926146924495697, 0.1970711201429367, 0.1670154482126236, 
-0.040344659239053726, -0.09446542710065842, -0.0901007428765297, 0.22077953815460205, 0.01860346458852291, 0.009679893963038921, -0.1406429260969162, 
0.07116130739450455, 0.23731550574302673, 0.03534423187375069, 0.2751410901546478, -0.13955000042915344};

#endif

#endif
