-0.06252563744783401, 0.06876412779092789, 0.053656335920095444, 0.05091380700469017, 0.02026364766061306, -0.0010606918949633837, -0.026053408160805702, -0.08259858936071396, 0.0837106853723526, -0.029208801686763763, -0.06759670376777649, 0.013595308177173138, -0.03320760652422905, 0.038238611072301865, 0.04237097501754761, -0.07094699144363403, 0.023720072582364082, 0.0007256352691911161, -0.035426218062639236, -0.029202964156866074, 0.0020267823711037636, -0.0026549785397946835, 0.05274822935461998, -0.06973269581794739, 0.051340099424123764, 0.046599116176366806, 0.06500207632780075, -0.02686566673219204, -0.014284500852227211, -0.05818251147866249, -0.02879304811358452, 0.06659786403179169, 0.029731502756476402, -0.056124620139598846, -0.05737698823213577, 0.011312570422887802, 0.029216768220067024, -0.03253505751490593, -0.05170793458819389, 0.039596762508153915, 0.024965567514300346, -0.062339819967746735, 0.003911735489964485, 0.021447351202368736, -0.004716932307928801, -0.01773594319820404, 0.0441158264875412, 0.059224702417850494, -0.008425524458289146, 0.007880914025008678, 0.03677228093147278, -0.04436977580189705, 0.024102192372083664, -0.08607444167137146, 0.0462670773267746, -0.024405639618635178, -0.021106058731675148, 0.06184681877493858, -0.0690222829580307, 0.02687997929751873, 0.029479045420885086, -0.022151676937937737, 0.0404086634516716, 0.026591556146740913, -0.04269839823246002, 0.03417311608791351, 0.05594500154256821, -0.05677172169089317, -0.06047786399722099, 0.05281778424978256, 0.020744649693369865, -0.07240135967731476, -0.029610205441713333, -0.031905412673950195, -0.04613972082734108, -0.05485645309090614, 0.03812173008918762, 0.00027215975569561124, -0.08314891159534454, 0.04725951328873634, -0.03287256509065628, 0.06395169347524643, -0.02912968024611473, -0.0767037495970726, -0.08164068311452866, 0.05691707134246826, -0.03724372386932373, 0.0836576297879219, 0.08687277138233185, -0.05380624160170555, 0.04492545127868652, 0.05405108258128166, -0.08321631699800491, 0.011899586766958237, -0.018985319882631302, 0.08837505429983139, 0.08219262957572937, -0.06439559161663055, -0.06880995631217957, -0.02497442066669464, 0.06886593252420425, 0.03535451740026474, 0.027015527710318565, 0.016058439388871193, 0.06288224458694458, 0.057025350630283356, -0.04540005698800087, 0.07236435264348984, 0.00030355300987139344, 0.026788346469402313, 0.02529914863407612, 0.05856790766119957, -0.052946753799915314, -0.022059204056859016, -0.020989758893847466, 0.028718343004584312, -0.05377591773867607, 0.014285488985478878, -0.017201198264956474, 0.05643259733915329, -0.03775427117943764, -0.021323755383491516, -0.05904487147927284, -0.06504230946302414, 0.08321752399206161, 0.029743453487753868, -0.07653221487998962, 0.0715617910027504, -0.029758427292108536, -0.01621084287762642, -0.0502726174890995, -0.016756242141127586, -0.021889062598347664, -0.05289650335907936, -0.05898919329047203, 0.02446386218070984, 0.005650931969285011, 0.05659742280840874, -0.049003858119249344, 0.04995756968855858, 0.06482753157615662, 0.004729496780782938, 0.039895493537187576, 0.08257903903722763, 0.08019667863845825, 0.03410454839468002, -0.046612709760665894, 0.029048096388578415, 0.05237384885549545, -0.00321002840064466, -0.01860646903514862, -0.045644648373126984, 0.031776312738657, -0.06219920516014099, -0.08313218504190445, -0.08719789981842041, 0.045637208968400955, -0.05928046628832817, -0.08724497258663177, -0.05185213312506676, 0.05834662541747093, 0.07630950957536697, 0.029412327334284782, 0.041234612464904785, -0.03190825507044792, -0.053189996629953384, 0.023664945736527443, -0.08403216302394867, -0.009146562777459621, -0.052723392844200134, 0.0445714145898819, 0.05798159912228584, -0.0033819498494267464, -0.08035609126091003, 0.07030968368053436, 0.06836919486522675, 0.05579680576920509, -0.022738942876458168, -0.06786565482616425, -0.07277349382638931, -0.005166113842278719, -0.008614159189164639, 0.05677173659205437, -0.06262174248695374, 0.02475595660507679, -0.08492182940244675, 0.04371776804327965, -0.03822953626513481, -0.0846627801656723, -0.0437898188829422, 0.04726504534482956, 0.013889940455555916, -0.08419036120176315, 0.01565469801425934, -0.055801160633563995, -0.04134606570005417, -0.06315325945615768, 0.017868634313344955, 0.06003739312291145, -0.0052640317007899284, 0.059774886816740036, -0.07819665968418121, -0.028830287978053093, -0.04269597679376602, 0.05524567887187004, -0.08220726251602173, -0.014878390356898308, 0.08854270726442337, -0.0695796012878418, 0.011539772152900696, 0.030680552124977112, -0.07427532225847244, 0.07585971057415009, 0.07919250428676605, -0.07267502695322037, -0.05284566804766655, -0.06803186982870102, -0.06741305440664291, 0.03151161968708038, 0.07455062121152878, 0.04953490570187569, 0.06312114000320435, 0.04069444164633751, -0.0076996879652142525, 0.05468862131237984, 0.07271560281515121, 0.023117180913686752, -0.0837714821100235, -0.016253678128123283, 0.08636903762817383, 0.08466847985982895, 0.0482289157807827, -0.0520174466073513, 0.031038472428917885, -0.07119488716125488, -0.06000435724854469, -0.03604886680841446, -0.061283305287361145, 0.06869055330753326, 0.06239154934883118, -0.013994366861879826, 0.06050437316298485, -0.06725116074085236, 0.04464433342218399, 0.07640891522169113, -0.03572569414973259, -0.07315786927938461, -0.02542346715927124, -0.053529832512140274, 0.08189623802900314, -0.02257828786969185, -0.08678638190031052, 0.024556588381528854, -0.06764920800924301, 0.04259106516838074, 0.033673305064439774, -0.02048591896891594, 0.02099676802754402, -0.0378570593893528, 0.05196141079068184, 0.06395862996578217, 0.04465799778699875, 0.06657898426055908, 0.04666348174214363, -0.05860866233706474, -0.04120508208870888, -0.07858499139547348, 0.05025105178356171, 0.037931594997644424, 0.07853803783655167, -0.07149193435907364, -0.06842271238565445, -0.0557398721575737, 0.014866870827972889, -0.03926817327737808, 0.06746355444192886, -0.03166520595550537, -0.07357487827539444, -0.06480397284030914, 0.02674904279410839, 0.048223935067653656, -0.014867058955132961, -0.08018523454666138, 0.04299034923315048, 0.005802089348435402, 0.02823217585682869, -0.0011426500277593732, 0.013614638708531857, 0.04238392785191536, 0.021428696811199188, 0.02348598837852478, -0.06719601154327393, -0.05925732105970383, -0.03403649106621742, -0.08788303285837173, -0.018213845789432526, -0.05643641576170921, 0.0319124311208725, 0.007916834205389023, -0.07964741438627243, -0.00842423178255558, -0.04144894704222679, 0.0436856783926487, -0.012772730551660061, 0.014164580963551998, -0.06867263466119766, -0.01259822491556406, 0.001970314420759678, -0.036640483886003494, -0.07937433570623398, -0.010373588651418686, 0.03975348174571991, -0.08725985139608383, -0.06349800527095795, -0.023543911054730415, -0.08629131317138672, -0.03950616717338562, -0.08377965539693832, -0.08753550052642822, 0.0076256319880485535, 0.02789362333714962, -0.05315662547945976, 0.08547259122133255, -0.06740470975637436, -0.03376990184187889, -0.039057180285453796, 0.022454965859651566, 0.0036391839385032654, 0.03238886967301369, 0.06994608044624329, -0.025857768952846527, 0.07056290656328201, -0.04638536274433136, 0.008404465392231941, 0.010507233440876007, 0.04010366275906563, -0.030377531424164772, -0.0723186582326889, 0.08309581130743027, -0.0572771392762661, 0.009660303592681885, -0.07269291579723358, -0.06669501215219498, -0.015918606892228127, -0.052147116512060165, 0.021869594231247902, -0.00588658032938838, 0.07804031670093536, 0.07530820369720459, 0.03465081751346588, -0.01230724435299635, 0.0872550904750824, 0.002411774592474103, -0.04690522328019142, 0.06784290820360184, -0.006332771852612495, -0.0691276416182518, 0.04458428546786308, -0.027496127411723137, 0.059039633721113205, -0.014152949675917625, 0.00683373399078846, 0.055040374398231506, 0.06704631447792053, -0.07426322996616364, 0.01185639388859272, -0.07780814915895462, -0.044028908014297485, 0.02560241147875786, 0.035340566188097, -0.009159141220152378, -0.08501805365085602, -0.05484091863036156, -0.06749225407838821, 0.028023162856698036, -0.071510449051857, 0.0338127501308918, -0.0579623319208622, -0.08016632497310638, -0.01999642699956894, -0.07619544118642807, 0.04940320923924446, -0.021374324336647987, -0.004023879300802946, -0.04482576996088028, 0.06091535836458206, -0.05342193320393562, -0.011573380790650845, -0.03872409462928772, -0.04038883000612259, 0.030937880277633667, -0.0865735188126564, 0.0829957127571106, 0.05102790519595146, 0.015316339209675789, -0.02932688593864441, -0.08194480836391449, 0.05892343819141388, 0.03933205083012581, 0.04704324156045914, -0.008131277747452259, 0.0177181176841259, 0.06454667448997498, 0.016176234930753708, -0.06419702619314194, 0.04227129742503166, 0.0445089153945446, 0.06928093731403351, 0.03807421401143074, 0.024734890088438988, -0.021230733022093773, -0.07737161964178085, 0.07969890534877777, -0.07544219493865967, -0.06745855510234833, -0.04051945358514786, 0.0656198188662529, -0.0640324279665947, -0.0015287341084331274, 0.06673835217952728, 0.007200176827609539, 0.04828698933124542, -0.0038060364313423634, 0.002401434350758791, 0.06953844428062439, -0.033634673804044724, -0.017778905108571053, 0.07058196514844894, -0.019502099603414536, -0.042428456246852875, -0.08291367441415787, 0.07963275164365768, -0.0021285093389451504, 0.05685766413807869, -0.08759625256061554, -0.045292213559150696, 0.07065293937921524, 0.005147459916770458, 0.012198044918477535, -0.04691971465945244, 0.007955421693623066, 0.004187389276921749, -0.05842123553156853, 0.04041891545057297, 0.08817416429519653, 0.07178819924592972, -0.028578802943229675, 0.07904248684644699, 0.0801238864660263, 0.08139508962631226, -0.06858896464109421, -0.0006057527498342097, 0.07846672832965851, -0.009143753908574581, 0.02899669110774994, 0.05963525176048279, -0.02186843752861023, -0.013858988881111145, 0.010505082085728645, -0.061665572226047516, -0.013422506861388683, 0.05386248603463173, 0.042510997503995895, 0.03591383993625641, 0.019886966794729233, -0.06038064509630203, -0.07550355792045593, -0.02134118229150772, -0.02720351330935955, 0.023698218166828156, 0.06342536211013794, -0.016326937824487686, 0.07731696963310242, 0.0724509134888649, -0.05023481696844101, -0.050757408142089844, 0.003760341554880142, -0.04864395037293434, -0.009965430945158005, 0.0357217900454998, 0.06831838190555573, 0.07831668108701706, -0.054718222469091415, -0.015131923370063305, -0.05003376677632332, 0.014009624719619751, -0.08246376365423203, -0.061508212238550186, 0.013853884302079678, -0.05617256090044975, -0.05027344077825546, -0.08404803276062012, 0.020118780434131622, 0.04593438282608986, -0.020532485097646713, 0.022338569164276123, 0.05248502641916275, -0.08199159801006317, -0.07059971243143082, 0.024056950584053993, 0.05317692458629608, -0.031580884009599686, -0.05568749085068703, -0.025983519852161407, 0.06713933497667313, -0.03149658814072609, -0.013986180536448956, 0.05904019623994827, 0.013344776816666126, -0.07740319520235062, 0.02322297729551792, 0.07956172525882721, -0.023728474974632263, -0.03400779515504837, 0.06475662440061569, -0.006353816483169794, -0.041942719370126724, 0.023066772148013115, 0.07621395587921143, -0.07405214756727219, 0.022011838853359222, 0.0857788547873497, -0.021278245374560356, -0.005143726244568825, -0.016671394929289818, -0.04441465437412262, -0.004256134852766991, -0.06208295747637749, -0.03352636843919754, 0.04911534860730171, -0.04585549235343933, -0.06686591356992722, 0.0633452907204628, -0.005936432164162397, -0.013676192611455917, 0.07505713403224945, -0.06197545304894447, -0.039777934551239014, -0.0060533336363732815, -0.000801569374743849, 0.02070368453860283, -0.049361538141965866, -0.08045066893100739, -0.013350286521017551, 0.02990669198334217, 0.02837624028325081, 0.029598403722047806, 0.009017749689519405, 0.0861125960946083, -0.08450837433338165, -0.04426253214478493, 0.06597937643527985, -0.06161441653966904, -0.002991223707795143, -0.004963800776749849, 0.0798860490322113, 0.08729091286659241, -0.07020241767168045, -0.0031826801132410765, -0.08016695827245712, -0.04824350029230118, -0.023393802344799042, -0.016335146501660347, -0.008550398983061314, 0.0865335762500763, -0.009693589992821217, 0.033362723886966705, -0.024730483070015907, -0.04505686089396477, 0.007343972567468882, -0.01711687445640564, -0.04807451739907265, 0.005440207198262215, 0.06333399564027786, -0.04535148665308952, 0.023565012961626053, -0.08156942576169968, -0.0870211124420166, 0.01790175773203373, 0.08340597152709961, 0.06338981539011002, -0.019780872389674187, -0.008397572673857212, 0.03163162246346474, 0.07535684108734131, -0.0012606503441929817, -0.08207432925701141, -0.010775531642138958, -0.08330987393856049, 0.07274957746267319, 0.018699554726481438, 0.04158094525337219, -0.026783185079693794, 0.07251427322626114, 0.0071580251678824425, 0.045165352523326874, 0.04599054530262947, -0.008672572672367096, -0.055745888501405716, -0.030022526159882545, 0.05220453068614006, 0.04612770676612854, -0.08742715418338776, -0.03866548836231232, 0.02381608821451664, -0.06721805781126022, -0.08290745317935944, 0.006112964823842049, 0.07924970239400864, 0.0009604342631064355, 0.024772364646196365, 0.06437885016202927, -0.08243715018033981, 0.08804600685834885, -0.06430625170469284, -0.015016880817711353, -0.08316949754953384, -0.035715676844120026, 0.0816020742058754, -0.041476935148239136, -0.012364553287625313, 0.02076985314488411, -0.07640213519334793, 0.046333566308021545, -0.05350860580801964, 0.01241119671612978, 0.014794883318245411, -0.054450780153274536, 0.06912225484848022, -0.046150803565979004, 0.02275332249701023, 0.027056431397795677, -0.04363975301384926, -0.010857478715479374, 0.050576627254486084, 0.07169316709041595, -0.08259698748588562, -0.01411614939570427, 0.05379052087664604, 0.07101323455572128