-0.10516594350337982, 0.0015772690530866385, -0.004806213080883026, -0.0005109271733090281, 0.0015038677956908941, -0.002376682125031948, -0.5794169902801514, -0.0006569737452082336, 0.00045858052908442914, -1.1787828207015991, -0.02736579440534115, -0.6008031964302063, -0.5672227740287781, 0.01631646417081356, 0.007310834713280201, -0.0006534689455293119, -0.006376045290380716, -0.0015519087901338935, -0.0028475141152739525, -0.0003739641106221825, -0.38128167390823364, -0.16532857716083527, -0.0019887795206159353, -0.6098118424415588, -0.004160807467997074, -0.6303520798683167, -0.0011403154348954558, -0.0023397814948111773, -0.0018729856237769127, -0.16788172721862793, 0.0018980444874614477, -0.005458084866404533, -0.00446892948821187, -0.48730921745300293, -0.005198145750910044, 0.0003633238666225225, -0.0007393800769932568, -0.00252902926877141, -0.47689732909202576, -0.005607093218713999, 0.0018045553006231785, -0.388273686170578, 0.25205695629119873, -0.044605910778045654, -0.14090962707996368, 0.003836442017927766, 0.004021606873720884, 0.3316771686077118, -0.002187185687944293, 0.17384834587574005, 0.0018559930613264441, -0.00244000181555748, 0.00060429418226704, 0.004589404445141554, -0.0018375104991719127, 0.0023394953459501266, 0.0018183585489168763, -0.012565289624035358, 0.0012185373343527317, -0.824195921421051, -6.626190588576719e-05, 0.001737839775159955, 0.0004355505225248635, -0.004215780179947615, -0.06040966883301735, 0.0018116330029442906, -0.015970423817634583, 0.004774987231940031, 0.004896215163171291, -0.0027286438271403313, -0.09082026034593582, 0.0035730465315282345, -0.3345302641391754, -0.32499662041664124, -0.007027365732938051, -0.0006363675347529352, -0.0021687624976038933, -0.5326221585273743, -0.0005167851923033595, -0.002173620043322444, -0.0005702513735741377, -0.7205007076263428, -0.18004252016544342, -1.0862241983413696, 0.37198227643966675, -0.0016430073883384466, 0.02151046320796013, -0.07184386253356934, 0.00015469938807655126, -0.004489133134484291, -1.1355890035629272, -0.0031587453559041023, -0.006322471424937248, -0.18054518103599548, -0.0016139178769662976, 0.0005252758273854852, -0.0012788554886355996, -0.0013073448790237308, 0.022870687767863274, 0.001965514151379466, -0.4975453019142151, -0.6410481929779053, -0.0014790571294724941, -0.003906338009983301, 0.20909824967384338, 0.0011014131596311927, -0.00386644434183836, -0.21694785356521606, -0.004426041152328253, -0.5396198630332947, -0.0013264007866382599, 0.0006223740638233721, -0.000792801147326827, -0.0004886898095719516, -0.00040787493344396353, -0.0023733500856906176, -0.0005627205246128142, 0.004611017648130655, -0.0017566651804372668, -0.003340373048558831, 0.003139085602015257, -0.0010965715628117323, -1.0721843242645264, 0.011697047390043736, 0.0005159876891411841, -0.0027299749199301004, -0.013439072296023369, 0.00010803826444316655, -0.004846636671572924, -0.8343704342842102, -0.4151068329811096, 0.0074422662146389484, -9.710701124276966e-05, -0.00053923309314996, -0.17568200826644897, -0.02228623814880848, 1.210488971992163e-05, 0.0024974006228148937, -0.17735640704631805, -0.0006991457776166499, 0.0024443832226097584, 0.0019013156415894628, -0.010767494328320026, 0.0039059158880263567, -0.5011971592903137, 0.000528550473973155, 0.04844998940825462, 0.0030935986433178186, -0.307167649269104, 0.0022553454618901014, 0.0011857114732265472, -0.3729526400566101, 0.00042858306551352143, -0.23837347328662872, 0.008786816149950027, -0.5842360854148865, 0.0004982418613508344, 0.0007279614801518619, 0.009849170222878456, -0.003448983421549201, -0.006043578963726759, -0.6501105427742004, -0.1720617413520813, -0.6463733911514282, -0.0019054415170103312, -0.04027605429291725, -0.13841553032398224, -0.29860588908195496, -0.0009844570886343718, -0.0032562920823693275, -0.4854744076728821, -8.113163494272158e-05, -0.8321995735168457, -1.5003641843795776, -0.0017700507305562496, -0.11392513662576675, 0.04403407499194145, -0.0003672568709589541, -0.0027483312878757715, 0.0012416496174409986, 0.5141710638999939, -0.24184371531009674, -0.0008098484249785542, -0.0002623201871756464, 0.1560337394475937, 0.0007282717269845307, -0.46056100726127625, -0.011572567746043205, -0.007117580156773329, 0.000704843841958791, -0.0001164552741101943, 0.0068693882785737514, 0.006405994761735201, 0.0015206041280180216, -0.0014450191520154476, -0.0003184594679623842, 0.001980436034500599, 0.003394195344299078, -0.0063667758367955685, -0.004693824797868729, -0.0007623637211509049, 3.875568290823139e-05, -0.04863729700446129, -0.0004902593791484833, -0.0036628462839871645, -0.01176531333476305, -0.8543434739112854, -0.0026368650142103434, -0.08564791828393936, -0.006848793011158705, -0.004809301812201738, -0.0011739572510123253, -0.002485059667378664, 0.054228950291872025, -1.4322930574417114, -0.02015576884150505, -0.00037444173358380795, -0.7826738357543945, -0.002862888388335705, 0.2946241497993469, -0.003745605470612645, 0.003548678243532777, -0.2649654746055603, 0.0021014721132814884, -0.7335940003395081, 0.010671114549040794, 0.0014469322049990296, -1.1692956686019897, -0.15582674741744995, -0.06553950160741806, 0.00026413091109134257, -0.7199652791023254, -0.024244945496320724, -0.23955726623535156, -0.007413424085825682, -0.11092044413089752, -0.007203406188637018, -0.0008162015583366156, -0.6462444067001343, -0.0010543224634602666, -0.0020925633143633604, -0.02297160215675831, -0.038989871740341187, -0.02674412541091442, 0.0018029810162261128, 0.001395201194100082, -0.5730910897254944, -0.002481014234945178, 0.003875164082273841, 0.1603628396987915, -0.002386796986684203, 0.0008305065566673875, -0.0013568910071626306, -1.753917932510376, -0.0006432993104681373, -0.002204596297815442