// Numpy array shape [256, 128]
// Min -0.08864468
// Max 0.088687666
// Number of zeros 0

#ifndef TRANSFORMERS_0_LINEAR_2_WEIGHT_H_
#define TRANSFORMERS_0_LINEAR_2_WEIGHT_H_

#ifndef __SYNTHESIS__
model_default_t transformers_0_linear_2_weight[32768];
#else
model_default_t transformers_0_linear_2_weight[32768] = {-0.022346973419189453, -0.017103830352425575, 0.06625409424304962, 0.018313376232981682, -0.023728540167212486, 0.03425572067499161, 
0.05255613476037979, 0.0005640052258968353, 0.009347640909254551, 0.058604076504707336, 0.08616571873426437, -0.03473848104476929, -0.06359394639730453, 
0.008014386519789696, 0.005389587488025427, 0.06343839317560196, -0.019632777199149132, -0.0027137151919305325, 0.049901463091373444, -0.0721931904554367, 
-0.008919375948607922, 0.056118715554475784, -0.03708716481924057, -0.08343876898288727, 0.06066247075796127, -0.03992384672164917, -0.025753628462553024, 
-0.055949825793504715, -0.04948674887418747, 0.006292291451245546, 0.0018580026226118207, -0.0034190332517027855, -0.04756830260157585, 0.06065400317311287, 
-0.02270197495818138, -0.026258844882249832, -0.05597404018044472, -0.03818734362721443, -0.04933437705039978, 0.03968476876616478, -0.06618992239236832, 
0.039625346660614014, -0.012977429665625095, -0.07851921766996384, 0.06666354089975357, -0.04348647594451904, -0.08511438965797424, 0.0037012433167546988, 
0.06053995341062546, -0.0719883069396019, -0.0036988533101975918, 0.00017785064119379967, -0.07900645583868027, 0.007740400265902281, -0.01855083554983139, 
0.018032029271125793, -0.049585893750190735, 0.07961302995681763, -0.006785018369555473, 0.06752266734838486, 0.06972500681877136, -0.06328181177377701, 
0.009799995459616184, -0.021604392677545547, -0.01104476023465395, 0.04759479686617851, -0.030994605273008347, -0.05178713798522949, -0.05950167030096054, 
-0.062188535928726196, 0.04090363532304764, -0.005779447499662638, 0.031778089702129364, 0.02265092171728611, 0.03664081171154976, -0.07783874869346619, 
0.024843210354447365, 0.045124463737010956, 0.03031943179666996, -0.023595798760652542, -0.05026716738939285, -0.05326753109693527, 0.08353843539953232, 
0.04605131968855858, -0.014185987412929535, -0.07323817908763885, 0.06556397676467896, 0.06081746891140938, -0.024464013054966927, -0.0852920413017273, 
0.05573638528585434, -0.0831160843372345, 0.04209600016474724, 0.029980946332216263, -0.062305599451065063, -0.013057976961135864, 0.08553151786327362, 
-0.05369840934872627, 0.048379361629486084, 0.06334282457828522, -0.04167553037405014, -0.027362553402781487, -0.04802015796303749, -0.08460843563079834, 
-0.02667580544948578, 0.053133536130189896, 0.018118565902113914, 0.06659518927335739, -0.00888944324105978, 0.0666913390159607, -0.03870425373315811, 
-0.007728970609605312, -0.04893270134925842, -0.06894239038228989, 0.0038432739675045013, -0.029309548437595367, 0.06288722902536392, 0.04946305230259895, 
-0.023540575057268143, -0.05924256891012192, 0.05580274015665054, 0.079360231757164, 0.07286186516284943, 0.04406861960887909, -0.08299732208251953, 
0.002905368572100997, -0.03966329246759415, 0.057709552347660065, 0.04254262521862984, -0.008074899204075336, 0.041226569563150406, 0.0364806205034256, 
0.038048237562179565, 0.053579654544591904, 0.05995308980345726, -0.047945376485586166, 0.025462981313467026, -0.08650273829698563, 0.024811172857880592, 
-0.03298991918563843, -0.07441868633031845, -0.01731431856751442, 0.06650417298078537, 0.035182684659957886, -0.03465716540813446, -0.08661692589521408, 
0.0017168523045256734, 0.08724483847618103, -0.04259839281439781, 0.04687119647860527, -0.05178907513618469, -0.021640295162796974, -0.002244822680950165, 
-0.01499299518764019, 0.0737970843911171, 0.0010694756638258696, -0.002475774846971035, 0.08237065374851227, 0.0661187469959259, -0.07747951149940491, 
-0.003877656301483512, 0.06965566426515579, 0.02252870984375477, -0.025545349344611168, -0.02947632223367691, -0.011513551697134972, -0.0071138059720396996, 
-0.009843290783464909, 0.02136833779513836, -0.021489329636096954, 0.05042795091867447, 0.050842322409152985, 0.06466417759656906, 0.059257615357637405, 
-0.04495798796415329, -0.07154678553342819, 0.00821240060031414, 0.015022953040897846, -0.04434598237276077, 0.0675685778260231, 0.015025434084236622, 
0.02062191441655159, -0.017736855894327164, 0.06022345647215843, -0.08141398429870605, -0.019455671310424805, -0.05559312552213669, -0.06646299362182617, 
0.029422705993056297, 0.0507584847509861, 0.0334085114300251, 0.010850188322365284, 0.07438912987709045, -0.04286723956465721, -0.040864795446395874, 
0.04455054923892021, 0.009793629869818687, -0.05882657319307327, -0.06487727910280228, 0.0027590051759034395, -0.02771930769085884, -0.07041806727647781, 
-0.049551934003829956, 0.019825313240289688, 0.01562565751373768, -0.0850861668586731, 0.023656729608774185, -0.08535575121641159, 0.06446696817874908, 
-0.06323331594467163, -0.03470296785235405, -0.059288326650857925, 0.029498470947146416, 0.06850620359182358, -0.07942596077919006, -0.08331293612718582, 
-0.0353032685816288, 0.012968454509973526, -0.018574757501482964, 0.08795987069606781, 0.04532768204808235, 0.02140938863158226, 0.06812503188848495, 
-0.024440448731184006, 0.008948196657001972, -0.021657630801200867, 0.029089927673339844, -0.07048860937356949, 0.005646400153636932, 0.08743518590927124, 
0.04425966367125511, 0.011903250589966774, 0.020737746730446815, 0.053561318665742874, -0.0821441113948822, 0.038564447313547134, 0.06922350823879242, 
0.0054321144707500935, 0.024826306849718094, -0.03151744231581688, 0.03987361118197441, -0.05833274498581886, 0.062436431646347046, -0.05920304358005524, 
0.0008777561597526073, 0.013159244321286678, -0.07595918327569962, -0.0032521032262593508, 0.006984069012105465, -0.07874958217144012, 0.06780819594860077, 
0.053210366517305374, -0.08091229200363159, -0.07736004143953323, 0.0672217532992363, 0.0488482266664505, 0.00908640306442976, -0.0859038382768631, 
-0.004714606329798698, -0.08401043713092804, 0.06419850885868073, -0.016848169267177582, 0.055612437427043915, 0.008386043831706047, 0.051190558820962906, 
-0.03527824208140373, 0.056564148515462875, 0.08801227062940598, 0.05828637257218361, -0.02385755255818367, 0.02792714349925518, 0.02368834987282753, 
-0.047726452350616455, 0.005455960985273123, -0.036055151373147964, 0.018825925886631012, 0.04411352053284645, -0.005857722833752632, -0.04927639663219452, 
-0.07953254133462906, -0.022598538547754288, -0.0764647051692009, 0.0328853614628315, -0.03977883234620094, -0.07455627620220184, 0.009866655804216862, 
0.050082504749298096, -0.06148417294025421, -0.061494313180446625, 0.06414329260587692, 0.01635228469967842, 0.02384450100362301, -0.060906246304512024, 
-0.07326368987560272, -0.07743951678276062, 0.011850252747535706, 0.021129392087459564, -0.012271733954548836, -0.030061451718211174, 0.034648533910512924, 
0.05897575989365578, 0.0773923471570015, -0.020042382180690765, -0.0637708529829979, 0.006518623325973749, -0.009108223021030426, -0.05550524964928627, 
-0.043994542211294174, 0.057383451610803604, 0.0040025836788117886, -0.08198393136262894, 0.027977637946605682, -0.029062295332551003, 0.07015962153673172, 
0.04959556460380554, -0.05727715790271759, -0.08111020177602768, 0.06949781626462936, -0.06750764697790146, 0.021997153759002686, 0.07784535735845566, 
-0.05233040079474449, 0.05816008523106575, 0.06552379578351974, 0.05718876048922539, -0.019614845514297485, 0.0278346985578537, -0.034185584634542465, 
0.018864022567868233, 0.08730646967887878, 0.025264602154493332, 0.022585369646549225, -0.06931154429912567, 0.03787501901388168, -0.06053251028060913, 
-0.058337561786174774, -0.051001716405153275, 0.02338239923119545, -0.02218584343791008, -0.03919517993927002, 0.027456801384687424, 0.02616671659052372, 
-0.04840308055281639, 0.025093108415603638, 0.0714847519993782, 0.012498588301241398, -0.054728131741285324, -0.0767488032579422, 0.013355476781725883, 
0.015486237592995167, -0.06697117537260056, -0.03146326541900635, -0.026744166389107704, -0.01063345093280077, -0.002700334182009101, 0.020699819549918175, 
-0.012991775758564472, 0.07669512927532196, 0.06791409850120544, -0.04512284696102142, -0.07991150766611099, 0.07331570237874985, 0.014740829356014729, 
-0.018720854073762894, 0.0422041118144989, -0.01435853447765112, 0.006682896055281162, 0.012522845529019833, -0.01808188669383526, 0.06528332829475403, 
0.013245683163404465, -0.044831957668066025, -0.012359725311398506, 0.02814752794802189, 0.034151412546634674, -0.006807743571698666, 0.018359163776040077, 
-0.005876616109162569, -0.07525280863046646, -0.011304151266813278, -0.034374166280031204, 0.06520165503025055, -0.04313530772924423, -0.007856328971683979, 
0.06203095614910126, -0.020552024245262146, -0.01666955277323723, -0.04036569967865944, -0.06013787165284157, 0.052651867270469666, -0.029898228123784065, 
0.04041089862585068, 0.06123119220137596, -0.08271916210651398, 0.03685207664966583, -0.08200578391551971, -0.027226461097598076, 0.08277998119592667, 
-0.05379994958639145, -0.032020971179008484, -0.028026627376675606, 0.009843393228948116, -0.0585358664393425, 0.024478891864418983, 0.08225781470537186, 
-0.0666753277182579, 0.002619817852973938, -0.029537206515669823, -0.016247287392616272, 0.05544932559132576, -0.06840236485004425, 0.005862033925950527, 
-0.0724267065525055, 0.017193717882037163, 0.0036386128049343824, 0.03329538553953171, -0.016924919560551643, 0.011823967099189758, -0.049277227371931076, 
-0.062108445912599564, 0.019648076966404915, -0.022511912509799004, -0.08311338722705841, 0.010299872606992722, 0.06094310060143471, 0.01781882531940937, 
0.034355346113443375, -0.03126844763755798, 0.022848038002848625, 0.03666990250349045, -0.045709241181612015, 0.018985498696565628, 0.011829755268990993, 
0.011254236102104187, -0.0368092842400074, -0.057147372514009476, 0.0570698156952858, 0.06280466914176941, 0.036487430334091187, 0.058853745460510254, 
-0.05791933462023735, 0.06702844798564911, 0.04382171109318733, -0.06756571680307388, -0.05083891376852989, -0.059394851326942444, 0.025787925347685814, 
-0.04953538626432419, 0.07461995631456375, 0.07152706384658813, -0.0011377667542546988, -0.026641706004738808, 0.07573632895946503, 0.0423869825899601, 
-0.04350718855857849, 0.08775225281715393, -0.067637600004673, -0.03800996392965317, 0.052251216024160385, 0.08240161836147308, -0.060370370745658875, 
-0.08609607070684433, -0.004912084434181452, 0.0027740313671529293, 0.06984150409698486, -0.05039266496896744, -0.04279317334294319, 0.028465047478675842, 
0.06253182142972946, -0.030678246170282364, 0.045146699994802475, -0.04042912647128105, -0.039332352578639984, 0.02013358846306801, -0.028208453208208084, 
-0.06326617300510406, -0.07359471172094345, 0.05480010062456131, -0.02706287056207657, -0.021135473623871803, 0.07068128138780594, -0.0005987926269881427, 
-0.0443296879529953, 0.03880465030670166, 0.04770800098776817, 0.023743683472275734, -0.013816684484481812, -0.0002393406757619232, 0.06532138586044312, 
0.07807774096727371, 0.07488903403282166, -0.06212504580616951, 0.07267826050519943, -0.04221013933420181, -0.08586715161800385, -0.051912080496549606, 
-0.01048985030502081, 0.019169026985764503, 0.05346140265464783, 0.0764021947979927, -0.020677458494901657, 0.05552787333726883, 0.018091676756739616, 
0.03179994598031044, -0.05515727028250694, -0.06126323342323303, 0.02361598238348961, 0.027620267122983932, 0.030064847320318222, -0.048819661140441895, 
0.08044596761465073, -0.06262283772230148, -0.07348432391881943, -0.075760617852211, 0.07821705937385559, 0.04678059369325638, -0.05783267319202423, 
-0.021278141066432, -0.03452065959572792, 0.006124050822108984, 0.05521995201706886, -0.0829097107052803, -0.001694742706604302, 0.04412579536437988, 
0.05753323435783386, -0.01651364378631115, -0.05931736156344414, -0.0021938125137239695, -0.03719855844974518, -0.08038918673992157, -0.042368389666080475, 
0.049041423946619034, 0.03914009407162666, -0.020481295883655548, -0.04314859211444855, 0.030133860185742378, -0.014060323126614094, 0.07271023094654083, 
0.017545640468597412, -0.0012318345252424479, 0.02411741204559803, -0.009164505638182163, 0.08107730001211166, 0.07834324240684509, 0.041397418826818466, 
0.06963653862476349, 0.045612458139657974, 0.026062874123454094, 0.008112707175314426, -0.08499771356582642, 0.029200561344623566, -0.04177724942564964, 
-0.00627127243205905, 0.0808078721165657, 0.06542853266000748, 0.019327489659190178, -0.011469085700809956, -0.06734193116426468, 0.08868604153394699, 
0.031117700040340424, 0.05589733272790909, 0.05139593407511711, -0.06352099776268005, -0.01223536767065525, -0.0724421888589859, -0.08579424768686295, 
0.019979393109679222, 0.019755253568291664, 0.06958048045635223, 0.03514263406395912, -0.03573201224207878, -0.013563945889472961, -0.06690027564764023, 
0.08740802854299545, -0.060772597789764404, -0.040872152894735336, -0.06862320750951767, -0.04398667812347412, -0.057672929018735886, -0.026478160172700882, 
0.00655288714915514, 0.08330339193344116, 0.05879595875740051, -0.021434346213936806, -0.04249538108706474, -0.04665101692080498, 0.008484764955937862, 
0.03930806741118431, -0.06803671270608902, 0.08305923640727997, 0.07137557119131088, 0.06536375731229782, -0.007927599363029003, 0.001020438619889319, 
-0.08686690777540207, -0.08387849479913712, 0.03363298997282982, 0.05465961620211601, 0.015583788976073265, -0.053270939737558365, 0.08579453080892563, 
-0.04156289994716644, -0.004156319424510002, -0.00806769635528326, -0.053835444152355194, 0.00835696142166853, 0.02951793558895588, -0.019155578687787056, 
0.05981690064072609, -0.010418465360999107, -0.0814732238650322, -0.07155869901180267, -0.022900979965925217, 0.07694928348064423, -0.02888677455484867, 
-0.0775878056883812, 0.016926169395446777, -0.07725585997104645, -0.00912104919552803, -0.04073001444339752, 0.033788807690143585, 0.01751263625919819, 
-0.07213100045919418, -0.055167946964502335, 0.00011294412252027541, 0.04338265210390091, 0.0466773621737957, 0.0460221990942955, -0.011649721302092075, 
0.06810437142848969, -0.048357509076595306, -0.03370700776576996, 0.07470427453517914, 0.06766544282436371, -0.04662289842963219, -0.032006580382585526, 
-0.06739293783903122, -0.036156561225652695, 0.048145171254873276, 0.005369256716221571, -0.06694693863391876, 0.029916951432824135, 0.07856284081935883, 
0.06537264585494995, 0.0879053920507431, -0.01394458394497633, -0.03633347898721695, -0.03972165286540985, -0.0004857539024669677, 0.02551119774580002, 
-0.03663584962487221, -0.018383994698524475, 0.0500025637447834, 0.0761590451002121, -0.06407833099365234, -0.033024679869413376, -0.020802287384867668, 
-0.05641411989927292, -0.04260421544313431, 0.00809695664793253, -0.02397308312356472, -0.06296191364526749, -0.030780931934714317, -0.07306119799613953, 
-0.0329427495598793, -0.06005656346678734, -0.025849679484963417, -0.02406376786530018, 0.06268506497144699, -0.0585629977285862, 0.03624983876943588, 
0.006957004778087139, -0.0545816570520401, 0.06618916243314743, 0.07595212012529373, -0.06140843778848648, 0.05866753309965134, 0.04227286949753761, 
-0.041897691786289215, -0.06958294659852982, -0.08499713242053986, 0.01881183497607708, -0.08188643306493759, -0.0033667900133877993, -0.04172126576304436, 
0.07348064333200455, -0.05049329251050949, -0.06640974432229996, -0.00015754853666294366, -0.08798937499523163, 0.006004051771014929, -0.06897133588790894, 
-0.07042830437421799, 0.03823672607541084, 0.03702278435230255, -0.0320279635488987, -0.02006118930876255, 0.034309640526771545, 0.04620123654603958, 
-0.004166613798588514, -0.037032078951597214, 0.059953730553388596, -0.016456792131066322, 0.04825964942574501, 0.03279527276754379, 0.013294168747961521, 
0.014527745544910431, -0.05361901596188545, 0.010072244331240654, -0.002176070585846901, 0.05904015153646469, 0.009830561466515064, -0.05067604035139084, 
0.08005644381046295, -0.02601555548608303, -0.0341273732483387, 0.04488299787044525, 0.04402315989136696, -0.008954345248639584, 0.013029991649091244, 
-0.07504188269376755, -0.07675192505121231, -0.0459432378411293, 0.0021462959703058004, 0.06972695142030716, 0.05322463437914848, -0.06238105893135071, 
0.055280331522226334, -0.03979441896080971, 0.07418593019247055, -0.08567357808351517, -0.07816154509782791, 0.034019146114587784, -0.051901161670684814, 
0.003214732278138399, 0.08309468626976013, -0.04934486001729965, 0.009647411294281483, 0.025250444188714027, 0.07241625338792801, -0.030504275113344193, 
-0.028780221939086914, 0.07179851830005646, 0.03314684331417084, -0.07055497914552689, -0.07533536106348038, -0.06921541690826416, 0.0365278534591198, 
0.06580274552106857, -0.03767256811261177, -0.03661992400884628, -0.07082196325063705, -0.011657902039587498, -0.010159014724195004, -0.0393860824406147, 
0.0754367858171463, -0.03287287801504135, -0.01755802519619465, -0.08376745879650116, 0.07376431673765182, 0.012811283580958843, -0.024532897397875786, 
-0.05340762436389923, 0.08356165885925293, -0.046022750437259674, 0.06664720177650452, 0.0025625284761190414, 0.08270132541656494, 0.08406231552362442, 
-0.0755755826830864, -0.03759663924574852, -0.03464213013648987, -0.06964360922574997, 0.047949835658073425, -0.043573860079050064, 0.02498393878340721, 
0.08859311789274216, 0.059497639536857605, 0.02240612916648388, -0.05541732907295227, 0.04581588879227638, 0.08827773481607437, 0.047028861939907074, 
-0.06813657283782959, 0.02641732059419155, -0.023841070011258125, 0.029634149745106697, -0.022241320461034775, 0.006991675589233637, 0.02404080703854561, 
-0.05641508847475052, -0.03171437606215477, -0.02078784629702568, 0.04760607331991196, -0.07501279562711716, -0.06038116291165352, -0.06010224297642708, 
0.026318246498703957, -0.0291153434664011, -0.01915823668241501, -0.040634628385305405, -0.027216704562306404, 0.030857063829898834, 0.013920693658292294, 
-0.002453957684338093, 0.04298429563641548, 0.051963504403829575, -0.04059559479355812, -0.033871833235025406, -0.016299838200211525, -0.07470494508743286, 
0.06974832713603973, 0.07169418036937714, -0.039424020797014236, -0.029602384194731712, -0.01125286240130663, -0.012415886856615543, -0.029964063316583633, 
-0.01981464773416519, -0.024928316473960876, 0.051818739622831345, -0.08528442680835724, -0.0156951155513525, -0.08329254388809204, -0.06699373573064804, 
-0.06251538544893265, 0.006866993848234415, 0.04601860046386719, 0.06476692110300064, -0.06895021349191666, -0.08303359150886536, -0.050433557480573654, 
-0.06453965604305267, 0.07146121561527252, -0.06235084682703018, 0.06194181367754936, -0.03857647255063057, 0.007494628895074129, 0.08116746693849564, 
0.009503169916570187, 0.038511887192726135, 0.07652928680181503, 0.023606784641742706, -0.027661340311169624, 0.07990163564682007, 0.007910449057817459, 
-0.08019401878118515, 0.03657713159918785, -0.027949566021561623, -0.05865523964166641, -0.0131198326125741, 0.03116224706172943, 0.02295760065317154, 
-0.03557456284761429, -0.0030319024808704853, -0.02777741104364395, 0.0877060815691948, -0.07535061985254288, 0.019307609647512436, -0.054235149174928665, 
0.048313070088624954, 0.02796938642859459, 0.004049781709909439, 0.07552474737167358, -0.0854080319404602, 0.01151732075959444, -0.08199504762887955, 
0.0101219667121768, -0.06426951289176941, 0.08571548759937286, 0.04268556088209152, 0.07348356395959854, 0.022268926724791527, -0.0708877295255661, 
0.043868307024240494, -0.05300499126315117, -0.06255916506052017, 0.0045244041830301285, 0.029381485655903816, 0.009247531183063984, 0.03284800052642822, 
0.008217990398406982, 0.061556700617074966, 0.0596897266805172, -0.015132436528801918, 0.08624229580163956, 0.08768903464078903, 0.010818780399858952, 
0.027873525395989418, -0.05850813165307045, 0.04284528270363808, 0.0046057067811489105, 0.033826183527708054, 0.03228853642940521, -0.03363359719514847, 
-0.05363224819302559, 0.036962781101465225, -0.08556652069091797, -0.004950397182255983, -0.03259372338652611, -0.06676651537418365, -0.06946345418691635, 
0.06045658141374588, 0.01178071927279234, -0.016085201874375343, -0.05964815989136696, 0.06923808157444, 0.07758335024118423, -0.00873996876180172, 
-0.04450715333223343, 0.05659474432468414, 0.024972522631287575, -0.06271645426750183, -0.021838901564478874, -0.018613126128911972, -0.02107585035264492, 
-0.04399493709206581, 0.08080003410577774, 0.00035827598185278475, -0.07090140134096146, -0.06202864646911621, 0.05205177888274193, -0.01810046099126339, 
-0.02596914954483509, -0.019792960956692696, 0.016393693163990974, 0.06737228482961655, -0.02065349370241165, 0.04903938248753548, 0.05556878075003624, 
-0.07068002969026566, 0.028588755056262016, -0.08048723638057709, 0.0017692034598439932, -0.08524587750434875, 0.03789056837558746, -0.04806409031152725, 
-0.008068431168794632, 0.04626908525824547, 0.06991394609212875, -0.04259536415338516, -0.0771220326423645, 0.06771913915872574, 0.07159003615379333, 
0.06267721205949783, 0.0014461013488471508, -0.059080325067043304, -0.06573653221130371, -0.040678221732378006, -0.023821646347641945, -0.04638557881116867, 
-0.0425691194832325, -0.05335913971066475, 0.0004989900626242161, -0.06899021565914154, -0.004825260955840349, -0.07355796545743942, -0.07616622745990753, 
0.028654970228672028, 0.012881262227892876, -0.020843269303441048, 0.01818249747157097, -0.029866859316825867, -0.046221423894166946, 0.08503453433513641, 
-0.06347164511680603, -0.017157744616270065, 0.05339733511209488, -0.009344611316919327, -0.01020054705440998, 0.07276725023984909, 0.0018491537775844336, 
-0.01774371974170208, -0.07349937409162521, 0.02848758175969124, -0.009689286351203918, -0.08634207397699356, -0.041275542229413986, -0.03474455699324608, 
0.06410610675811768, -0.059700287878513336, 0.044329993426799774, -0.05002046376466751, -0.04429921507835388, 0.05631682649254799, -0.040154486894607544, 
-0.028780054301023483, 0.007087308447808027, -0.051888104528188705, 0.06504875421524048, 0.0048272632993757725, -0.023267097771167755, -0.029548825696110725, 
-0.055107343941926956, 0.06112236529588699, 0.0248572900891304, -0.0592426098883152, 0.05116523802280426, 0.08528400957584381, 0.008413583971560001, 
-0.061176326125860214, 0.07349637150764465, 0.0168406181037426, 0.03620787337422371, 0.0773792639374733, -0.07408396154642105, -0.003301779041066766, 
0.034626930952072144, 0.02222394570708275, -0.04093320667743683, 0.01787208579480648, -0.033140845596790314, -0.050670281052589417, -0.07629448175430298, 
-0.02989613264799118, -0.053717270493507385, 0.056549347937107086, 0.014714117161929607, 0.04618879035115242, 0.01161317341029644, 0.08283184468746185, 
-0.014952979981899261, -0.07741907984018326, 0.07895130664110184, -0.07375110685825348, -0.0026558437384665012, 0.006053089629858732, 0.07074243575334549, 
-0.0727982223033905, 0.027244538068771362, 0.05973365902900696, -0.06018700823187828, -0.013388213701546192, 0.05799398943781853, 0.08723998069763184, 
0.0014469146262854338, -0.014456266537308693, 0.053741276264190674, 0.0586356520652771, -0.006663058884441853, 0.07930703461170197, 0.03190014138817787, 
-0.0024974343832582235, -0.021524585783481598, -0.037842750549316406, 0.025304581969976425, -0.07600359618663788, -0.03482920676469803, 0.015124826692044735, 
0.0761130303144455, 0.04802491515874863, 0.0455300472676754, 0.08562378585338593, -0.04997652396559715, 0.07676885277032852, -0.04104744270443916, 
0.08786821365356445, -0.06205585226416588, 0.020771052688360214, 0.04852348566055298, 0.018407471477985382, 0.010751279070973396, -0.06411533802747726, 
-0.018748853355646133, -0.0838036835193634, 0.01629043184220791, -0.08724281936883926, -0.0750713124871254, 0.022426314651966095, -0.027016742154955864, 
0.06436459720134735, 0.08633043617010117, -0.024804096668958664, -0.026096872985363007, 0.08717014640569687, -0.04799539968371391, -0.0034426897764205933, 
-0.08307699859142303, 0.08025645464658737, 0.02139507234096527, -0.015344351530075073, -0.02904210239648819, 0.05652683973312378, -0.06365114450454712, 
-0.029005151242017746, -0.06049250066280365, -0.06933926045894623, -0.017558947205543518, 0.05798192322254181, -0.007132158614695072, -0.038091789931058884, 
-0.07833059132099152, 0.0811687484383583, 0.04416381195187569, -0.06344295293092728, 0.01516382209956646, 0.013509193435311317, -0.017917688935995102, 
0.0820445865392685, -0.031423140317201614, -0.01793985441327095, -0.0034851813688874245, -0.03858448565006256, 0.012827237136662006, 0.07964105159044266, 
-0.05132250487804413, 0.013559140264987946, 0.07790734618902206, 0.009271666407585144, -0.07541004568338394, -0.058178532868623734, 0.01627626270055771, 
-0.08701728284358978, 0.08560341596603394, -0.05635174363851547, -0.04125479236245155, -0.04670986160635948, 0.01302401814609766, -0.06327886879444122, 
0.02051662467420101, -0.07022746652364731, 0.04583759978413582, 0.007191328331828117, -0.07499272376298904, -0.0005898292874917388, 0.0793699249625206, 
-0.047604095190763474, -0.06427556276321411, 0.0007682924624532461, 0.08256059885025024, -0.036398995667696, 0.08154622465372086, 0.04622504487633705, 
0.009559739381074905, -0.07224220782518387, -0.03409746289253235, 0.021700022742152214, 0.06477496027946472, -0.08614381402730942, 0.061075612902641296, 
0.022851021960377693, -0.020629344508051872, -0.045075222849845886, -0.0833565965294838, 0.0099745262414217, -0.03547278419137001, -0.02853354811668396, 
0.02174285240471363, -0.014141160063445568, -0.005929737351834774, 0.07561901956796646, -0.02448652684688568, 0.0063584791496396065, 0.07510748505592346, 
-0.07070712000131607, -0.07695426791906357, -0.015113148838281631, 0.08205589652061462, -0.011055556125938892, -0.04731795936822891, 0.05831214040517807, 
-0.06886828690767288, 0.06594035774469376, 0.0026404850650578737, 0.020395470783114433, 0.052151959389448166, -0.0037144189700484276, 0.031198179349303246, 
0.042957957834005356, 0.0021667799446731806, -0.07922190427780151, -0.07177899777889252, 0.019795777276158333, 0.02966608665883541, -0.08697196841239929, 
0.04887254908680916, 0.02095220610499382, -0.05626882240176201, 0.08455228805541992, -0.07619161903858185, -0.052448820322752, 0.03908038139343262, 
-0.04279228672385216, 0.011898479424417019, -0.030667562037706375, 0.056363511830568314, -0.010572257451713085, 0.03257210552692413, -0.031428124755620956, 
0.048323385417461395, -0.039533261209726334, -0.04058682546019554, 0.019352739676833153, -0.0539739616215229, 0.027724627405405045, 0.07563606649637222, 
0.06944519281387329, 0.059409212321043015, -0.03143838047981262, -0.04676033928990364, -0.01276864018291235, 0.06424670666456223, -0.07696506381034851, 
-0.07425714284181595, 0.03339545428752899, 0.03639023378491402, -0.036389417946338654, 0.061924636363983154, 0.05501440167427063, 0.05135593190789223, 
0.007712898310273886, 0.07228086143732071, -0.013684794306755066, -0.08271046727895737, 0.0672759935259819, -0.05663292855024338, 0.056385740637779236, 
0.05064229667186737, -0.006570400670170784, 0.024036666378378868, 0.06084614247083664, 0.08428096026182175, -0.05064021423459053, 0.0006442033918574452, 
-0.058625925332307816, -0.07864218205213547, -0.023300282657146454, -0.016748126596212387, 0.07689438760280609, -0.048117123544216156, 0.029564034193754196, 
0.02146964520215988, 0.05641241744160652, 0.08071305602788925, -0.022317061200737953, -0.04488717019557953, -0.001222663326188922, 0.0827280804514885, 
0.07563920319080353, 0.07100185751914978, 0.05258787423372269, 0.04759276285767555, 0.05870426446199417, 0.0772874727845192, -0.0018234269227832556, 
0.03038438782095909, -0.08680551499128342, 0.03328896313905716, 0.00981767289340496, -0.08497491478919983, 0.007807633839547634, -0.07643312960863113, 
-0.0689237043261528, -0.04656793549656868, -0.04708976671099663, 0.07327055186033249, -0.0478111207485199, 0.060864511877298355, -0.04291757568717003, 
-0.0233305674046278, 0.04223835840821266, -0.0417652353644371, -0.07830619812011719, 0.04462606459856033, -0.060446519404649734, -0.04245241731405258, 
-0.018025146797299385, -0.08137568086385727, -0.05111830681562424, -0.03315045312047005, -0.0017097947420552373, 0.03166956827044487, -0.021571077406406403, 
0.015441360883414745, -0.035479627549648285, -0.014422393403947353, 0.07303158938884735, -0.02844322845339775, 0.06978663802146912, 0.04146149009466171, 
-0.018646756187081337, 0.030402883887290955, -0.06400962173938751, -0.07281230390071869, 0.052125535905361176, 0.05390667915344238, -0.013435193337500095, 
0.075550377368927, 0.0810898095369339, -0.011552929878234863, 0.0378635972738266, -0.0406419038772583, 0.06576763093471527, -0.058354612439870834, 
-0.05749756097793579, -0.016885414719581604, 0.0666334480047226, 0.0738324522972107, -0.039016243070364, -0.004911438561975956, -0.008813339285552502, 
0.01433507539331913, 0.009228534065186977, 0.04710888862609863, 0.048542823642492294, 0.0536523275077343, 0.01486977655440569, 0.07022570073604584, 
0.07337133586406708, 0.05734866484999657, 0.024271875619888306, 0.06327968835830688, -0.08397738635540009, 0.0432855561375618, -0.022408608347177505, 
0.0384003184735775, 0.07555253803730011, 0.04877769201993942, 0.05251552164554596, 0.014135237783193588, 0.07832583039999008, 0.012667788192629814, 
0.042429979890584946, 0.07505881041288376, 0.04562125355005264, 0.007359880022704601, -0.0797974243760109, -0.0775381401181221, 0.07242439687252045, 
-0.07587352395057678, -0.02077971026301384, -0.014447677880525589, -0.03169862926006317, 0.016770830377936363, -0.03268451616168022, 0.009336484596133232, 
0.010358255356550217, 0.0482897087931633, 0.05620730295777321, 0.03873264417052269, -0.055138614028692245, -0.06916452944278717, -4.641489067580551e-05, 
-0.021911604329943657, 0.015093349851667881, 0.06840066611766815, -0.040077418088912964, 0.030403845012187958, -0.05850914120674133, -0.0680251345038414, 
0.06608487665653229, -0.03259182721376419, 0.02126467227935791, 0.07039689272642136, -0.05661924183368683, 0.02284814417362213, -0.001306933700107038, 
0.08576063066720963, -0.0649792030453682, -0.05732432380318642, -0.01541691180318594, 0.03214935213327408, -0.019323254004120827, -0.04643873870372772, 
0.061578985303640366, 0.07436341047286987, 0.0700472742319107, 0.08643479645252228, 0.011285873129963875, -0.000717641320079565, 0.02802196331322193, 
0.08762437105178833, 0.0581904798746109, 0.04895322397351265, -0.08279017359018326, 0.06136132404208183, -0.06292877346277237, -0.07439254224300385, 
-0.004239557310938835, -0.02009001187980175, 0.004504031036049128, -0.08167152106761932, 0.03851739317178726, -0.07130581885576248, -0.044677481055259705, 
0.026522522792220116, 0.06928037852048874, -0.013455296866595745, -0.037948641926050186, -0.08350870013237, -0.01282408181577921, 0.0410589724779129, 
-0.00025160497170872986, -0.08497130125761032, -0.06068701297044754, -0.028082292526960373, -0.03195766732096672, -0.05559810250997543, 0.0016072498401626945, 
0.013788427226245403, -0.026286661624908447, 0.03846593201160431, 0.06656809896230698, 0.022631019353866577, 0.0872054398059845, 0.06710333377122879, 
0.05504130199551582, -0.06404544413089752, 0.005652276333421469, -0.07841993123292923, 0.0823497399687767, -0.018691372126340866, -0.05781308561563492, 
0.02720358781516552, -0.08363039791584015, 0.023404080420732498, 0.07061923295259476, -0.07845724374055862, -0.023769591003656387, -0.0585743673145771, 
0.01915798895061016, -0.07351896911859512, -0.053391408175230026, -0.03413187339901924, -0.04925519973039627, 0.07491257786750793, -0.05540725588798523, 
0.00048015365609899163, -0.0008728649117983878, -0.06126105785369873, 0.042319949716329575, -0.06928018480539322, 0.015084268525242805, 0.04387721046805382, 
-0.019244927912950516, -0.012278084643185139, -0.0756809413433075, 0.08295010775327682, -0.0053549897857010365, -0.06392499059438705, 0.06812972575426102, 
-0.0041451300494372845, 0.004303464200347662, 0.027770889922976494, -0.02978605218231678, -0.032014261931180954, -0.035604532808065414, 0.0332615040242672, 
-0.0010323902824893594, -0.030195672065019608, 0.04411124810576439, 0.08471774309873581, -0.036267802119255066, -0.07086870819330215, 0.0024028075858950615, 
-0.08676887303590775, -0.03128752484917641, 0.05754504352807999, 0.07611634582281113, -0.017648868262767792, -0.015215347521007061, -0.03670180216431618, 
-0.08495858311653137, 0.0646585002541542, 0.043673694133758545, -0.07838758081197739, 0.059941500425338745, 0.03121611662209034, -0.07611680030822754, 
-0.0007575885974802077, 0.04177973419427872, -0.06700795143842697, -0.04479414224624634, 0.012801693752408028, -0.01674685627222061, 0.05696786567568779, 
0.04205631464719772, -0.06342778354883194, 0.044870875775814056, 0.030123507604002953, 0.0007098641945049167, -0.004416313022375107, 0.08645946532487869, 
-0.004797845147550106, -0.044295743107795715, -0.03876388818025589, 0.038805194199085236, 0.027382254600524902, -0.03039798140525818, -0.06263850629329681, 
0.046698734164237976, 0.07637326419353485, -0.0015081641031429172, 0.02420320361852646, -0.011650582775473595, -0.059271086007356644, -0.010163137689232826, 
-0.019667888060212135, 0.07136332243680954, -0.06725690513849258, -0.05877494066953659, 0.021044021472334862, 0.025416463613510132, 0.06880059093236923, 
0.07163574546575546, 0.03838997334241867, -0.07841313630342484, 0.04276237264275551, 0.06692207604646683, 0.06766069680452347, -0.06746133416891098, 
-0.050726793706417084, 0.07520558685064316, -0.015003214590251446, -0.07582525908946991, 0.0573187954723835, 0.024494707584381104, 0.07782340049743652, 
-0.06540066748857498, -0.07786943763494492, -0.07461372017860413, -0.0676475390791893, -0.007122265640646219, 0.0023981407284736633, 0.07769617438316345, 
0.08082059770822525, 0.07857144623994827, -0.037229444831609726, -0.05954326316714287, -0.049796607345342636, 0.05507387965917587, 0.08420336991548538, 
-0.06164759770035744, 0.030338246375322342, 0.02265579253435135, 0.01774427480995655, -0.07408811897039413, -0.01979922130703926, 0.00027222168864682317, 
0.0327184721827507, -0.05391424521803856, -0.0503615066409111, 0.08565561473369598, 0.0036176014691591263, -0.08750906586647034, 0.030596062541007996, 
0.025144260376691818, 0.04257720708847046, -0.054126180708408356, -0.06359738111495972, 0.01399971917271614, 0.016699885949492455, 0.0036830571480095387, 
-0.03787088394165039, -0.0142323337495327, 0.04410102590918541, 0.00034212684840895236, -0.025835605338215828, -0.0082688108086586, -0.05626963451504707, 
-0.006727082189172506, -0.08131929486989975, -0.058351919054985046, 0.07431486994028091, -0.05025361105799675, 0.017002465203404427, -0.02651020511984825, 
-0.04683149233460426, -0.05961872637271881, 0.06795256584882736, -0.05246322229504585, 0.05008582025766373, -0.01899225264787674, -0.00710339518263936, 
0.0040687983855605125, 0.08147366344928741, -0.03934125229716301, -0.030914029106497765, -0.026777440682053566, 0.06400316208600998, 0.0003057458088733256, 
0.01781248115003109, -0.014670420438051224, -0.028907088562846184, 0.07580794394016266, -0.06636825203895569, -0.07315848022699356, 0.07051751762628555, 
-0.05037045478820801, -0.08662256598472595, -0.05652669444680214, 0.054402243345975876, -0.06780818104743958, 0.03394395485520363, -0.08380904048681259, 
-0.045590076595544815, -0.006993193179368973, 0.002405913546681404, 0.06820553541183472, -0.0219291839748621, 0.025965100154280663, 0.033845677971839905, 
0.010058985091745853, 0.08155247569084167, 0.07719483971595764, 0.046639181673526764, 0.028076374903321266, 0.047681525349617004, -0.031122395768761635, 
0.01133144274353981, -0.016091426834464073, 0.028875628486275673, 0.007159180007874966, -0.04952623322606087, 0.013336552307009697, -0.04369931295514107, 
0.07125764340162277, 0.05752479285001755, 0.0003449168289080262, -0.027131689712405205, -0.06913824379444122, 0.03126271814107895, -0.019192282110452652, 
-0.07545081526041031, -0.08677322417497635, -0.021456796675920486, -0.00973294023424387, 0.06795912981033325, 0.014559306204319, -0.03184504434466362, 
-0.07656542956829071, 0.07091381400823593, -0.006292828358709812, 0.05584640055894852, 0.00317717925645411, 0.022710666060447693, -0.07286030799150467, 
0.012477004900574684, -0.08630502969026566, -0.023329727351665497, -0.057233311235904694, -0.06785528361797333, 0.06619205325841904, 0.016644015908241272, 
0.06943530589342117, 0.05336371809244156, 0.01635797880589962, -0.08645160496234894, -0.005432839039713144, 0.05468938127160072, 0.04238174483180046, 
-0.017092552036046982, -0.01570962369441986, 0.05513540282845497, 0.0380622074007988, -0.03988638147711754, -0.045314643532037735, -0.05214911326766014, 
-0.06251507252454758, 0.041155777871608734, -0.05318583548069, 0.028207194060087204, 0.036929018795490265, 0.028534401208162308, 0.0648658350110054, 
-0.008143212646245956, -0.03327113389968872, 0.0071379682049155235, -0.06146092712879181, -0.002407475607469678, -0.083831787109375, 0.03140467032790184, 
0.020115496590733528, 0.03011367842555046, 0.05498930439352989, 0.018477393314242363, 0.08079294115304947, -0.08307812362909317, -0.04122977703809738, 
0.051331184804439545, 0.00715193897485733, 0.042729757726192474, -0.02862371690571308, 0.07795390486717224, -0.022368568927049637, 0.059913258999586105, 
0.005637887865304947, -0.013880751095712185, 0.04638364911079407, 0.03331959992647171, -0.06211555376648903, 0.022875655442476273, -0.018500760197639465, 
0.00998485554009676, 0.020077362656593323, 0.037848155945539474, 0.056677740067243576, -0.08235040307044983, -0.06869500875473022, -0.053331486880779266, 
0.01753309741616249, -0.08692967146635056, 0.05962147191166878, -0.0615016371011734, -0.023056382313370705, 0.020750608295202255, -0.019203774631023407, 
0.059672702103853226, -0.0011887139407917857, 0.041312575340270996, -0.051063213497400284, -0.01984187588095665, -0.024780821055173874, 0.02475684881210327, 
0.07861645519733429, 0.06502439081668854, -0.04361813887953758, -0.045703765004873276, 0.002293415367603302, -0.015172465704381466, -0.07025819271802902, 
-0.040367815643548965, -0.04720439016819, 0.03059053234755993, -0.0297629926353693, 0.07663889229297638, 0.02521112747490406, -0.013615936040878296, 
0.0667596086859703, 0.06257466971874237, 0.04254217445850372, 0.07225053012371063, 0.071502186357975, -0.05657832697033882, -0.06391777843236923, 
-0.011378995142877102, -0.01332906261086464, 0.086339071393013, -0.05812545493245125, 0.029170900583267212, 0.022015634924173355, 0.030301403254270554, 
-0.002889149822294712, 0.018841996788978577, -0.04652560129761696, 0.022243071347475052, -0.010542931966483593, -0.014972738921642303, 0.022187286987900734, 
-0.03906957060098648, 0.007714699488133192, 0.002634265460073948, -0.07585400342941284, 0.023547571152448654, 0.00985514372587204, -0.010987790301442146, 
-0.06647928059101105, -0.02543952874839306, -0.003154672449454665, -0.08082681149244308, 0.04530149698257446, 0.0210683885961771, -0.0372595451772213, 
0.007761634420603514, -0.05769573152065277, -0.07801687717437744, -0.0700058713555336, 0.08565134555101395, -0.07004066556692123, 0.07860323786735535, 
0.061128418892621994, -0.023345939815044403, 0.03757539764046669, 0.08595827966928482, -0.0402122363448143, -0.03078797273337841, -0.07536588609218597, 
-0.04111003130674362, -0.06799492985010147, -0.08698762208223343, -0.06536806374788284, -0.005283062346279621, -0.031504858285188675, -0.025540102273225784, 
0.0721760168671608, 0.00938294269144535, -0.010984825901687145, -0.04961086064577103, 0.08750004321336746, -0.07872997969388962, 0.02488524839282036, 
-0.04885963350534439, 0.015021883882582188, -0.03798332437872887, 0.008763490244746208, 0.0393129326403141, 0.06063788756728172, 0.009088230319321156, 
-0.021618330851197243, -0.0854446217417717, -0.009996990673244, 0.00854343082755804, 0.00096739741275087, -0.0874081403017044, 0.041071817278862, 
-0.033114656805992126, -0.006010363344103098, 0.018241746351122856, 0.06310267746448517, 0.011918035335838795, -0.08189550042152405, 0.037442516535520554, 
-0.06387370824813843, 0.03554772213101387, 0.02777167037129402, -0.035515595227479935, -0.014780860394239426, 0.04582546651363373, 0.06943321228027344, 
-0.07807140052318573, -0.049397844821214676, 0.015961013734340668, 0.03908146917819977, 0.02014116756618023, -0.0016059501795098186, -0.06069541722536087, 
0.06395068019628525, -0.008531569503247738, 0.05272473022341728, -0.07964270561933517, -0.04955904558300972, 0.04251403734087944, 0.011639155447483063, 
-0.04484349861741066, -0.004897573962807655, -0.008229839615523815, 0.04629725590348244, 0.05706677958369255, -0.054341934621334076, 0.04751020297408104, 
-0.0860709622502327, -0.020506398752331734, -0.08423159271478653, -0.039552148431539536, -0.051574066281318665, -0.08302304893732071, 0.06974373757839203, 
-0.022386427968740463, -0.07899179309606552, 0.03841446712613106, -0.05781426653265953, -0.00024793061311356723, 0.08195645362138748, 0.08472322672605515, 
0.017853541299700737, -0.042018018662929535, 0.0659242644906044, 0.04060464724898338, -0.03571613132953644, 0.08216331154108047, 0.05147455632686615, 
-0.06437273323535919, -0.013493174687027931, -0.08257927000522614, -0.0642605647444725, 0.07106269150972366, 0.014765653759241104, -0.02556164562702179, 
0.015858616679906845, -0.07575258612632751, 0.08336201310157776, -0.0539461225271225, 0.01845499686896801, 0.0788412094116211, -0.06305516511201859, 
-0.03489004075527191, 0.06358390301465988, 0.07782211899757385, -0.004569975193589926, -0.011340695433318615, -0.08823516219854355, 0.046277161687612534, 
-0.025916146114468575, 0.08307922631502151, -0.026405666023492813, -0.07678361982107162, 0.02637006714940071, -0.08459022641181946, -0.08321402966976166, 
0.008245939388871193, -0.05105941370129585, -0.050749704241752625, 0.05941910669207573, -0.012801285833120346, -0.0692274272441864, 0.0642785057425499, 
0.03913452476263046, -0.06439661234617233, 0.02336796559393406, 0.0014070478500798345, 0.011331086046993732, 0.08209500461816788, 0.05098788067698479, 
0.02857140824198723, 0.033104900270700455, 0.021404270082712173, 0.07569775730371475, -0.08597590029239655, 0.03654205799102783, -0.0075556691735982895, 
-0.0028174531180411577, -0.0295235738158226, -0.001138543477281928, 0.08105141669511795, 0.07723184674978256, 0.04929594323039055, 0.05329789221286774, 
-0.07941514253616333, 0.025245346128940582, 0.02506762370467186, -0.053510282188653946, 0.021705498918890953, 0.05876331031322479, -0.087591253221035, 
0.03720926120877266, -0.061278678476810455, -0.041769567877054214, 0.031414471566677094, -0.049709659069776535, -0.0009156025480479002, -0.011250129900872707, 
0.048234499990940094, -0.0825376808643341, 0.012703404761850834, -0.022957028821110725, 0.05956383794546127, -0.08310609310865402, -0.06179206818342209, 
-0.03815726935863495, 0.04390688240528107, -0.0825478807091713, 0.02703680470585823, 0.039957933127880096, 0.00257582007907331, 0.06150733679533005, 
-0.058133307844400406, 0.020012326538562775, -0.07785555720329285, 0.0660167708992958, 0.08776795119047165, -0.04410606995224953, -0.05904214084148407, 
-0.014883720315992832, -0.002330576768144965, 0.044270724058151245, -0.027628837153315544, 0.08388067781925201, 0.08621717244386673, 0.0008770690183155239, 
-0.010304160416126251, -0.06195502355694771, -0.07698040455579758, 0.020583149045705795, -0.0038424471858888865, -0.07095596939325333, 0.04627080634236336, 
-0.0694170594215393, 3.956747968913987e-05, 0.053433120250701904, 0.07951217889785767, 0.021573398262262344, 0.08586560934782028, -0.04633742943406105, 
-0.005429400596767664, 0.027413945645093918, -0.049081429839134216, 0.02649182826280594, 0.082384392619133, -0.014011451974511147, 0.028755145147442818, 
0.03548038750886917, 0.07962525635957718, 0.05266675353050232, -0.005888933315873146, -0.05211639776825905, -0.022851580753922462, -0.07786544412374496, 
0.017054734751582146, 0.012865141034126282, -0.01391593273729086, 0.03960312157869339, -0.016901502385735512, -0.07007374614477158, 0.0786161869764328, 
0.029997462406754494, -0.06476046144962311, 0.03977857157588005, 0.01999533362686634, -0.053635016083717346, -0.04020239785313606, -0.0631696954369545, 
0.03002716600894928, 0.053976912051439285, 0.051346100866794586, -0.06586234271526337, -0.044262345880270004, 0.002813836093991995, 0.05527626723051071, 
-0.08661843091249466, 0.028620775789022446, 0.06004846841096878, -0.07707158476114273, 0.04840556159615517, 0.020905975252389908, 0.012145306915044785, 
-0.060208920389413834, -0.06673254817724228, -0.04344934597611427, -0.009431126527488232, -0.053075045347213745, -0.028002960607409477, 0.01707836240530014, 
-0.050592392683029175, -0.08782118558883667, 0.060964349657297134, 0.08494415134191513, -0.0486619770526886, -0.07064005732536316, -0.03868641331791878, 
-0.03794943913817406, -0.06366714835166931, 0.07803729176521301, -0.08828526735305786, 0.013991710729897022, 0.03749490901827812, 0.017614874988794327, 
-0.0077622379176318645, -0.041512783616781235, 0.0007536581833846867, -0.06968819350004196, -0.06850051879882812, -0.06589855998754501, -0.07776646316051483, 
-0.07591722160577774, -0.01620413362979889, 0.017551470547914505, -0.009504974819719791, 0.005212198477238417, 0.05527770146727562, -0.02825341746211052, 
0.03867287561297417, -0.061154745519161224, -0.02588682994246483, -0.03164592757821083, 0.002154386369511485, 0.0017301638144999743, -0.06187072768807411, 
0.0011770109413191676, 0.04685463011264801, -0.025645151734352112, 0.04414670914411545, 0.021785788238048553, 0.043065063655376434, 0.08773256838321686, 
0.028078293427824974, 0.0868956595659256, 0.087248295545578, -0.03607620671391487, -0.07725867629051208, -0.01105551142245531, 0.059113968163728714, 
-0.03486087545752525, -0.05572837218642235, 0.047990426421165466, -0.008057093247771263, -0.08191584050655365, 0.045122649520635605, -0.011817882768809795, 
-0.05385233834385872, 0.0006342624546959996, -0.016458330675959587, 0.04563693702220917, 0.05663193017244339, 0.024052979424595833, 0.008629792369902134, 
-0.011931831948459148, -0.059653714299201965, -0.03207603469491005, -0.05242626741528511, 0.020302681252360344, -0.06001592054963112, -0.07779271900653839, 
-0.026977917179465294, 0.037068676203489304, 0.04923095926642418, 0.0690792053937912, 0.007644873112440109, 0.08000942319631577, 0.03762281686067581, 
-0.0655607208609581, -0.037499282509088516, -0.07767605036497116, -0.01566554233431816, 0.08216100931167603, -0.07844661921262741, 0.010684200562536716, 
-0.027226578444242477, 0.04446079954504967, 0.020756972953677177, 0.08725559711456299, -0.06852441281080246, 0.00607906561344862, 0.07975713908672333, 
0.08231813460588455, 0.08648993074893951, 0.006777505856007338, 0.024267343804240227, 0.01825951412320137, 0.07411311566829681, -0.009806985035538673, 
0.01948200725018978, 0.07194603234529495, 0.03376062959432602, -0.011543181724846363, -0.026665346696972847, 0.03428274393081665, -0.05450579151511192, 
0.06435076892375946, -0.0225762240588665, 0.05953047052025795, 0.030018936842679977, -0.03114265389740467, -0.054235633462667465, 0.08327557891607285, 
-0.059755582362413406, 0.0032712689135223627, -0.01719452068209648, -0.04025447368621826, 0.015384119935333729, -0.07571573555469513, -0.05364970862865448, 
-0.08659081161022186, -0.05893723666667938, -0.02638936974108219, 0.039359573274850845, -0.03113970346748829, -0.07735070586204529, -0.048181310296058655, 
-0.045071978121995926, 0.0665898472070694, 0.0053207348100841045, -0.08674297481775284, -0.06947240233421326, -0.04366466775536537, -2.046235022135079e-05, 
-0.022987935692071915, 0.002384831663221121, 0.06311339884996414, -0.025990761816501617, -0.05046767368912697, 0.001078217406757176, 0.033827412873506546, 
-0.015960272401571274, -0.02577967755496502, -0.0866515189409256, 0.026812369003891945, -0.06660600006580353, -0.058822985738515854, 0.009998627007007599, 
-0.047231242060661316, -0.02709757350385189, 0.06655982881784439, 0.007700806949287653, -0.06485199928283691, 0.0588395930826664, -0.07822159677743912, 
0.017490459606051445, -0.07971229404211044, -0.045479148626327515, 0.017027076333761215, 0.0636841282248497, -0.05587656423449516, -0.0687597468495369, 
0.03729325160384178, 0.02461085468530655, -0.07268133759498596, 0.03556770086288452, -0.002585088601335883, 0.03334231302142143, -0.06582421064376831, 
0.03409815579652786, 0.003988408949226141, 0.03970745578408241, 0.02879682555794716, -0.0005953612853772938, 0.08628323674201965, -0.031435776501894, 
0.08304636180400848, 0.07639384269714355, 0.01592458412051201, 0.036871083080768585, 0.07371071726083755, -0.07780846208333969, 0.08092448860406876, 
-0.0007680677226744592, 0.05928019434213638, 0.057793308049440384, 0.04174458235502243, -0.030769139528274536, 0.08244093507528305, -0.08455910533666611, 
-0.055093247443437576, 0.01701170764863491, -0.06221655756235123, 0.08800851553678513, -0.03693726286292076, 0.07802868634462357, 0.03759944811463356, 
-0.04365478456020355, -0.07896088063716888, -0.05061823129653931, -0.08260899037122726, 0.04060205817222595, 0.0461052730679512, -0.03358958661556244, 
-0.087331123650074, 0.0768677145242691, 0.0782361775636673, 0.02958730421960354, 0.033243559300899506, 0.03475622460246086, -0.02317965030670166, 
0.047694090753793716, -0.00042057246901094913, -0.053848035633563995, 0.00534750847145915, -0.037190765142440796, 0.084902822971344, -0.02729702554643154, 
-0.040749385952949524, -0.0772082731127739, 0.032721955329179764, 0.059954624623060226, -0.08296935260295868, 0.022487998008728027, -0.054349347949028015, 
-0.04626481607556343, 0.03989870846271515, -0.05254555493593216, -0.07139525562524796, -0.0723993256688118, -0.08160080760717392, -0.0825599879026413, 
-0.023833157494664192, 0.018878836184740067, 0.08678342401981354, -0.06319014728069305, -0.041286781430244446, 0.022599689662456512, 0.04702794551849365, 
0.02968836948275566, -0.021108441054821014, 0.038953039795160294, 0.03284888342022896, -0.07311715185642242, 0.0850827544927597, -0.04155660793185234, 
0.06881649792194366, 0.06547173857688904, 0.06283233314752579, 0.05727989599108696, -0.046434734016656876, 0.010156510397791862, -0.004584422335028648, 
0.06939341127872467, -0.01080507505685091, -0.020955020561814308, -0.04256536811590195, -0.03167157247662544, 0.020263515412807465, -0.07057572156190872, 
0.041919369250535965, -0.041636109352111816, 0.0351562574505806, 0.020717037841677666, -0.009886802174150944, 0.032815780490636826, 0.08289269357919693, 
0.02800470031797886, 0.01697763241827488, -0.07963203638792038, -0.04526581987738609, -0.04201805964112282, 0.06475864350795746, -0.008780179545283318, 
0.06893298029899597, -0.0005157054401934147, -0.06936229765415192, 0.04316194728016853, -0.05179465189576149, -0.002081229817122221, -0.061187244951725006, 
0.015626003965735435, 0.02379494160413742, -0.07846906036138535, -0.01519976370036602, -0.017164183780550957, 0.024640211835503578, 0.02592964470386505, 
0.06427226215600967, 0.05173344165086746, 0.011077559553086758, -0.01270325481891632, -0.0067103891633450985, 0.0867532268166542, -0.06943720579147339, 
-0.05967690423130989, 0.05928582698106766, 0.04377952218055725, 0.04031305015087128, -0.07884000986814499, -0.04863901436328888, -0.08653110265731812, 
0.023616831749677658, -0.08037887513637543, -0.033402178436517715, -0.004965816158801317, 0.029454970732331276, -0.05612873658537865, -0.07766446471214294, 
-0.013923829421401024, -0.0038447536062449217, -0.08636151254177094, 0.07885448634624481, 0.004568544682115316, 0.012105653993785381, -0.04276082292199135, 
-0.026877833530306816, -0.012018563225865364, -0.06296907365322113, -0.04203664883971214, 0.03920801356434822, 0.06325414031744003, 0.027885861694812775, 
-0.04460056871175766, 0.03895767778158188, -0.06680577993392944, 0.012214742600917816, -0.025006018579006195, -0.002969409106299281, 0.06831976771354675, 
0.04676462337374687, -0.08559884130954742, -0.013301798142492771, 0.04869692027568817, -0.017515266314148903, -0.07176137715578079, 0.013009821996092796, 
-0.0345606654882431, -0.06133679300546646, 0.07950831204652786, 0.03434459865093231, -0.06569710373878479, 0.03740118816494942, 0.06246858462691307, 
-0.04535555839538574, -0.0095685925334692, 0.07168829441070557, -0.039332371205091476, 0.007274982985109091, 0.06659519672393799, 0.01287152897566557, 
0.08087269216775894, -0.0285809263586998, 0.05964924022555351, 0.030307382345199585, 0.013188003562390804, -0.06644885241985321, 0.01012337300926447, 
-0.0161538515239954, 0.001493345946073532, 0.07125307619571686, -0.048459529876708984, -0.05572071298956871, 0.05309555307030678, -0.06560511142015457, 
0.038741566240787506, -0.04944830387830734, 0.08455760031938553, 0.016755547374486923, 0.07956777513027191, 0.05017639324069023, 0.01814524456858635, 
0.04134652763605118, 0.07790940999984741, 0.006169379223138094, 0.0011544431326910853, -0.008792590349912643, 0.07478021085262299, 0.03660796582698822, 
0.0034525932278484106, 0.009337108582258224, 0.08389159291982651, 0.056036755442619324, 0.0686710849404335, -0.020290488377213478, 0.04204023256897926, 
0.04735894128680229, -0.018048973754048347, 0.042349301278591156, -0.013139217160642147, 0.07763466984033585, 0.08437883108854294, 0.03876231238245964, 
-0.07148095965385437, 0.005086658988147974, -0.0005680402391590178, 0.06496559083461761, -0.08713239431381226, -0.035762425512075424, 0.025829115882515907, 
0.06901924312114716, -0.06286604702472687, 0.01876555010676384, -0.06974240392446518, 0.047588326036930084, -0.06965520232915878, 0.003229439025744796, 
-0.08309306204319, 0.08333083987236023, 0.06006762012839317, -0.04429641738533974, -0.06948070228099823, -0.022177070379257202, -0.008352041244506836, 
-0.07241976261138916, 0.07437411695718765, 0.052766118198633194, -0.07418302446603775, -0.006043202709406614, -0.0427212119102478, 0.0075032394379377365, 
-0.047085631638765335, 0.008656204678118229, 0.08397234976291656, -0.0017027445137500763, -0.0516059584915638, -0.04048676788806915, -0.001974632730707526, 
0.041837505996227264, -0.01671059988439083, 0.020597603172063828, 0.02670687809586525, 0.015487068332731724, -0.028374847024679184, -0.08693181723356247, 
0.07415018230676651, 0.013368110172450542, 0.011242171749472618, -0.08085627853870392, -0.07757366448640823, 0.07492347806692123, -0.08368360251188278, 
0.04321637749671936, -0.0396670438349247, -0.04436996951699257, -0.013812488876283169, -0.021373245865106583, -0.04273821413516998, 0.05360545963048935, 
-0.08381444215774536, 0.06898202002048492, 0.05236359313130379, -0.06541293114423752, 0.06094091385602951, -0.04501703381538391, -0.06814365088939667, 
0.07743813842535019, 0.027468519285321236, 0.014672872610390186, 0.08654766529798508, 0.03546210750937462, 0.02805359661579132, 0.07784239947795868, 
0.07915503531694412, 0.013903935439884663, 0.08222471922636032, -0.06922000646591187, -0.02382197417318821, 0.004668835550546646, 0.02223525010049343, 
-0.029717184603214264, -0.06688403338193893, 0.08670260012149811, -0.018410157412290573, 0.014389000833034515, -0.08129964768886566, 0.03297772258520126, 
-0.060387611389160156, 0.018390486016869545, -0.08440788090229034, 0.06862687319517136, 0.006412127520889044, 0.003582012141123414, -0.04925863817334175, 
0.06176380813121796, -0.05603285878896713, 0.012316794134676456, 0.051928646862506866, -0.007688069716095924, -0.032242316752672195, 0.07211875170469284, 
0.04190363734960556, 0.026808131486177444, 0.07067551463842392, 0.08070773631334305, -0.06272321194410324, 0.02256455458700657, -0.0020041619427502155, 
-0.05201953649520874, -0.0787988007068634, 0.07024968415498734, 0.08635600656270981, -0.03395126014947891, -0.06503219902515411, 0.03964432701468468, 
-0.03360586613416672, -0.04598687216639519, -0.02981766127049923, 0.056600265204906464, -0.049957968294620514, 0.0526394359767437, -0.050058238208293915, 
-0.05845925211906433, 0.013713007792830467, 0.05431355535984039, 0.049693722277879715, -0.08075286448001862, 0.051824234426021576, 0.061046052724123, 
0.03996812552213669, -0.05368635058403015, 0.013219919055700302, -0.039008814841508865, -0.07734010368585587, 0.08137493580579758, -0.019498346373438835, 
0.028357604518532753, -0.06319043785333633, 0.0746121034026146, 0.018622294068336487, 0.08102548867464066, 0.054829176515340805, 0.013624530285596848, 
-0.04592195898294449, -0.08749649673700333, 0.025718901306390762, -0.07559385895729065, -0.04765155911445618, -0.08791741728782654, 0.03423372283577919, 
0.046371012926101685, -0.035278867930173874, -0.08559834212064743, -0.062372900545597076, 0.001378159155137837, -0.08189968764781952, 0.00023849980789236724, 
-0.04051283746957779, -0.06272389739751816, -0.03382011502981186, -0.04561866447329521, 0.049119722098112106, 0.07542719691991806, 0.037270236760377884, 
0.0156717486679554, -0.025774551555514336, 0.014985811896622181, -0.04771661385893822, 0.06519298255443573, 0.05871318653225899, 0.05460985004901886, 
-0.024795517325401306, -0.03091730736196041, -0.04836000129580498, -0.05399318411946297, 0.04846401885151863, -0.015034027397632599, 0.07570654153823853, 
0.08477018773555756, 0.0514264851808548, 0.04131656140089035, 0.06881394982337952, 0.08591262996196747, 0.06126176193356514, -0.03992577642202377, 
-0.021713484078645706, -0.08132732659578323, -0.04358445480465889, -0.03183082491159439, 0.07890640944242477, 0.07895522564649582, -0.06498517096042633, 
-0.00870413240045309, -0.035468459129333496, 0.07627793401479721, 0.041986625641584396, 0.0057021635584533215, -0.015522507019340992, 0.06949090212583542, 
0.00820078793913126, -0.052239637821912766, 0.033588699996471405, 0.06283112615346909, 0.04101373255252838, -0.02089274302124977, 0.03461725637316704, 
0.03779866173863411, 0.03389007970690727, 0.025393502786755562, 0.002263645874336362, 0.021621430292725563, 0.04879024624824524, -0.0770283043384552, 
0.019671326503157616, -0.06071927398443222, 0.024515654891729355, 0.001030176063068211, -0.06413331627845764, 0.012303594499826431, -0.03493237867951393, 
-0.07365866005420685, 0.05972373113036156, 0.03854750469326973, 0.06327030807733536, -0.07344844937324524, 0.015454764477908611, 0.007234262768179178, 
-0.011629474349319935, -0.06347914785146713, 0.02941138669848442, -0.003730527125298977, -0.07630296796560287, -0.024150079116225243, 0.08326832205057144, 
-0.026058964431285858, 0.0008727242820896208, -0.02277560532093048, -0.08579055964946747, 0.08265840262174606, 0.06408238410949707, -0.04692685976624489, 
-0.013865657150745392, -0.04542548954486847, 0.00689840828999877, 0.07100680470466614, -0.04859036207199097, -0.021210066974163055, -0.0011572090443223715, 
-0.025444595143198967, -0.07365886121988297, -0.02090929076075554, -0.08857058733701706, -0.060401614755392075, 0.08446233719587326, -0.01068885624408722, 
-0.018934134393930435, -0.011158112436532974, -0.016245555132627487, 0.058962345123291016, -0.0857999324798584, 0.06877826154232025, -0.0753275603055954, 
-0.060635101050138474, -0.02567598968744278, -0.07878647744655609, 0.05138109624385834, 0.0294949933886528, 0.021924128755927086, -0.025178896263241768, 
-0.06550175696611404, -0.03601099178195, -0.018568379804491997, 0.005934235639870167, 0.009437443688511848, -0.026821546256542206, -0.05359426140785217, 
-0.06770727038383484, -0.06608936190605164, 0.02160820923745632, 0.020282668992877007, -0.050341032445430756, -0.01080322079360485, 0.02553047053515911, 
0.007386674638837576, 0.019944431260228157, -0.05139284208416939, 0.015747660771012306, -0.08715338259935379, -0.07367372512817383, -0.01592600718140602, 
-0.028228890150785446, -0.02740379236638546, -0.06733380258083344, 0.04288704693317413, 0.0037174175959080458, 0.06177057698369026, -0.08186366409063339, 
0.05725672096014023, 0.020476916804909706, -0.01955999620258808, 0.008750887587666512, 0.011231949552893639, 0.08006682246923447, -0.05786590278148651, 
-0.0008774256566539407, 0.04018145054578781, -0.07703480124473572, 0.03988117352128029, 0.08074615895748138, 0.029515797272324562, -0.00999339111149311, 
0.04332895576953888, -0.010480891913175583, 0.013256986625492573, 0.02057953178882599, -0.052382003515958786, 0.015755867585539818, -0.06513645499944687, 
0.05786392092704773, -0.059739191085100174, 0.05203182250261307, 0.08673655241727829, -0.013384387828409672, 0.03444759547710419, 0.03099982813000679, 
-0.06829517334699631, -0.03387455269694328, -0.0392533577978611, 0.0508749894797802, -0.01650165021419525, 0.009719283320009708, -0.025046182796359062, 
0.010466496460139751, -0.01063536573201418, 0.0849638357758522, -0.04605090618133545, 0.07448478788137436, -0.014717110432684422, 0.02351863868534565, 
0.08441515266895294, -0.004036285914480686, 0.03130314499139786, 0.021140992641448975, -0.011385234072804451, -0.03643966466188431, 0.02917485497891903, 
-0.08542606979608536, -0.07915020734071732, -0.015372009947896004, -0.005541519727557898, -0.031065426766872406, -0.07258547097444534, 0.005937817040830851, 
-0.00612599216401577, -0.012259514071047306, 0.03920147195458412, 0.008616660721600056, 0.08533649891614914, 0.00020597680122591555, 0.07083917409181595, 
0.018374372273683548, -0.010317469015717506, -0.07115530967712402, -0.011308390647172928, 0.08615954220294952, -0.08213682472705841, 0.029771246016025543, 
0.0048262556083500385, 0.07108353823423386, -0.013238154351711273, -0.006892339792102575, -0.039371930062770844, 0.07102406024932861, -0.08559355139732361, 
0.012498381547629833, -0.018987523391842842, 0.057617515325546265, -0.08856882154941559, 0.009223219007253647, 0.08098148554563522, 0.06837786734104156, 
-0.007205992937088013, 0.04724767804145813, -0.011304503306746483, 0.014661061577498913, -0.032108716666698456, 0.07771952450275421, 0.05100865289568901, 
0.06071005389094353, -0.004459346178919077, -0.03600895032286644, -0.009267203509807587, -0.024900279939174652, -0.06031396985054016, 0.05267307907342911, 
-0.05484126880764961, 0.06935151666402817, 0.03264637663960457, -0.056884944438934326, -0.07349441200494766, -0.027303295210003853, 0.0634479820728302, 
0.07717301696538925, 0.06963351368904114, 0.015155208297073841, -0.07987556606531143, -0.01471016276627779, -0.050904497504234314, -0.00446802144870162, 
-0.04913632571697235, -0.0560879148542881, -0.03749556839466095, -0.06806372851133347, -0.055835310369729996, 0.08626667410135269, -0.050960738211870193, 
0.04842052981257439, 0.0354587659239769, 0.022548984736204147, -9.405895980307832e-05, -0.05748826637864113, 0.0014353443402796984, 0.07393427938222885, 
0.030606523156166077, -0.0631161481142044, -0.00046870726509951055, 0.07313382625579834, -0.006134242285043001, -0.02353750169277191, -0.009673915803432465, 
0.04619956389069557, 0.06945931166410446, -0.054934751242399216, -0.021695904433727264, -0.06950631737709045, 0.03973287343978882, 0.06098718196153641, 
0.07033438980579376, 0.015649383887648582, -0.023514261469244957, 0.025999443605542183, 0.08007940649986267, 0.029123686254024506, -0.05938608571887016, 
0.08077061176300049, 0.0303872711956501, 0.03700609505176544, -0.024477176368236542, -0.0773993730545044, 0.055357448756694794, -0.06754584610462189, 
-0.02521568164229393, 0.056833416223526, 0.024112068116664886, -0.06720257550477982, 0.07680691033601761, 0.033226463943719864, 0.07175406813621521, 
-0.012448559515178204, -0.02396538481116295, -0.0601368211209774, 0.018017830327153206, 0.016713913530111313, -0.03457479178905487, -0.08457423746585846, 
-0.056012339890003204, -0.04559602960944176, -0.07783468812704086, 0.05429729074239731, 0.03070126287639141, 0.047992706298828125, -0.010047719813883305, 
-0.06128886342048645, 0.0674574077129364, -0.06153412163257599, -0.0020589937921613455, 0.030931077897548676, -0.04577687755227089, 0.025599999353289604, 
-0.029827285557985306, -0.031800735741853714, -0.03601262718439102, -0.05087987333536148, -0.006138577591627836, 0.035251304507255554, 0.04168079048395157, 
0.08551928400993347, 0.011405812576413155, -0.024440012872219086, 0.03323924168944359, -0.030114060267806053, 0.04184490442276001, -0.053794197738170624, 
0.06725001335144043, 0.021042538806796074, -0.03073733299970627, 0.026541052386164665, 0.05773726850748062, 0.028605854138731956, 0.07737275958061218, 
-0.03238493576645851, -0.028007077053189278, -0.04084089770913124, -0.07331950217485428, -0.0739160105586052, 0.06943857669830322, 0.05048738047480583, 
0.038829024881124496, 0.04062914475798607, 0.05432186648249626, -0.05505131185054779, 0.08589521050453186, -0.05623501166701317, 0.025763938203454018, 
-0.034516531974077225, 0.057170383632183075, -0.057702649384737015, 0.034426506608724594, 0.0356532484292984, -0.009130245074629784, -0.02379251830279827, 
-0.06006316840648651, 0.08059510588645935, -0.08727754652500153, 0.03768816217780113, -0.08554400503635406, -0.07324308156967163, 0.08343024551868439, 
0.032563112676143646, -0.0542047955095768, -0.061509422957897186, 0.08339041471481323, 0.06750758737325668, 0.014448379166424274, 0.07833755016326904, 
0.037053514271974564, 0.003623215714469552, 0.08431651443243027, 0.04685705900192261, -0.023276735097169876, 0.07121659070253372, -0.0833478718996048, 
-0.03728596866130829, 0.04406755790114403, 0.0754048079252243, 0.0402662493288517, 0.014332356862723827, 0.01577775739133358, -0.0053738784044981, 
0.03894958645105362, -0.08794335275888443, 0.04895757511258125, -0.03125807270407677, 0.025954168289899826, 0.0251323189586401, 0.02774004451930523, 
0.08780530840158463, -0.06447221338748932, 0.07785794138908386, -0.01767607405781746, -0.06760387122631073, -0.010608657263219357, 0.08659861981868744, 
0.028014840558171272, 0.08384186029434204, 0.04709786921739578, -0.039201050996780396, 0.05399772897362709, 0.0886048674583435, 0.05942852795124054, 
-0.0705484077334404, 0.0017158110858872533, -0.04975440353155136, 0.017191991209983826, 0.05312846601009369, 0.02609589882194996, 0.0618530698120594, 
-0.07543029636144638, -0.05150048807263374, 0.08272476494312286, 0.025547707453370094, -0.05935363098978996, -0.022279534488916397, -0.005564608611166477, 
-0.06222342699766159, -0.07529442012310028, 0.037317901849746704, -0.04025591164827347, -0.07508045434951782, -0.07669956237077713, 0.043378930538892746, 
0.015374059788882732, 0.056554894894361496, 0.0690125823020935, -0.08814466744661331, -0.05373329669237137, -0.05292186886072159, 0.055177174508571625, 
0.05567849799990654, -0.08440113812685013, -0.055217642337083817, 0.07292675226926804, -0.06409469246864319, 0.06292567402124405, 0.07535910606384277, 
-0.014346661977469921, 0.008539395406842232, -0.04443073645234108, 0.008847873657941818, 0.04961578920483589, 0.030841698870062828, -0.0061571416445076466, 
0.0031137848272919655, 0.05542190372943878, 0.06586640328168869, 0.03697878122329712, 0.080879807472229, 0.042107000946998596, 0.01994217187166214, 
-0.06699123233556747, -0.058456018567085266, -0.018224302679300308, -0.03316032513976097, -0.03515781834721565, 0.04164845496416092, -0.06518494337797165, 
-0.025814127177000046, 0.04349380359053612, -0.04623989015817642, 0.030776549130678177, -0.042106036096811295, -0.008044677786529064, 0.0595962218940258, 
0.040983401238918304, 0.08612304925918579, -0.008560958318412304, -0.0283304862678051, -0.06422020494937897, 0.03862125426530838, -0.029885098338127136, 
-0.04629889503121376, 0.025912316516041756, -0.033644840121269226, 0.08470983058214188, 0.004986294079571962, 0.03628949820995331, -0.053763385862112045, 
0.08026120811700821, 0.08550515025854111, 0.05957423150539398, -0.05000152811408043, -0.07478433847427368, 0.03970465064048767, 0.003768863156437874, 
-0.05103529244661331, -0.07643751800060272, -0.049927569925785065, 0.07230062782764435, -0.04397427663207054, 0.04974755272269249, -0.06687751412391663, 
-0.0765935480594635, 0.00954725593328476, -0.03342285752296448, -0.0603104829788208, 0.005409662611782551, -0.06298574060201645, -0.04222717508673668, 
-0.009883015416562557, 0.018747631460428238, -0.03331064432859421, 0.018523914739489555, -0.04533752053976059, 0.08079781383275986, -0.01730610989034176, 
-0.021686257794499397, 0.03918834775686264, 0.04084603860974312, 0.02817046269774437, 0.036030422896146774, -0.02036328986287117, 0.06545821577310562, 
-0.04773851856589317, 0.015369747765362263, -0.06678816676139832, -0.011402028612792492, 0.08013419061899185, 0.0783095583319664, 0.01792053133249283, 
-0.07395687699317932, -0.013724273070693016, 0.02775522507727146, 0.027826430276036263, 0.01396995224058628, -0.04990189149975777, -0.0416320338845253, 
-0.08474321663379669, 0.051677294075489044, -0.0715620145201683, 0.017007244750857353, 0.0020535532385110855, 0.08313506096601486, -0.05124223604798317, 
0.06084434688091278, 0.08158935606479645, 0.011896761134266853, -0.04462267830967903, -6.296789069892839e-05, 0.07867930084466934, -0.03252074494957924, 
-0.06879330426454544, -0.02451065182685852, -0.00599584961310029, -0.017524296417832375, 0.00507312873378396, -0.07058935612440109, -0.006202248856425285, 
-0.010110685601830482, -0.0345570333302021, 0.039565715938806534, 0.01097068376839161, -0.02384929731488228, 0.03224901482462883, 0.08426647633314133, 
-0.024020886048674583, -0.07097069174051285, -0.0688735768198967, 0.02260042540729046, 0.009621277451515198, -0.08659263700246811, -0.0364815779030323, 
0.06319765001535416, 0.01014712918549776, -0.08262527734041214, 0.0329781211912632, 0.015976442024111748, -0.008141395635902882, -0.02514113299548626, 
-0.052443984895944595, -0.02991475537419319, -0.04261806607246399, -0.03154235705733299, -0.04238671064376831, -0.021539337933063507, 0.010476580820977688, 
-0.019439004361629486, -0.002938964869827032, -0.03377567231655121, -0.05317085608839989, -0.021912045776844025, -0.04402788728475571, -0.016039546579122543, 
0.06465756893157959, -0.03300289809703827, 0.021514205262064934, 0.03906926512718201, -0.08786053210496902, -0.001597490394487977, -0.08674585819244385, 
-0.00014858429494779557, -0.03089199960231781, 0.020495250821113586, -0.004019244108349085, 0.015992391854524612, -0.07673989236354828, 0.05907213315367699, 
-0.04538569226861, -0.06527973711490631, 0.01932917721569538, 0.0021522841416299343, 0.022997278720140457, 0.027224136516451836, -0.037952620536088943, 
-0.049022529274225235, 0.05477115884423256, -0.032317567616701126, 0.08655602484941483, -0.05649567395448685, 0.009935291483998299, -0.04919639229774475, 
0.012158391065895557, -0.0876958966255188, 0.05635550990700722, 0.07070717215538025, -0.08681247383356094, 0.01951843500137329, 0.08179254084825516, 
0.08491314202547073, 0.014430785551667213, -0.06087639555335045, 0.07344075292348862, 0.06214882433414459, -0.02710900269448757, -0.07303525507450104, 
0.04012475535273552, 0.021052272990345955, -0.08023300766944885, 0.02344290167093277, 0.04907415062189102, 0.02718268521130085, 0.033797487616539, 
-0.08437339216470718, -0.03809259459376335, -0.05266105383634567, 0.05451506748795509, -0.038994088768959045, -0.0593637190759182, -0.017273753881454468, 
-0.0820889100432396, -0.04187023639678955, -0.020930495113134384, -0.016948141157627106, -0.053029127418994904, 0.05500250309705734, -0.07850411534309387, 
0.014011864550411701, 0.0868958830833435, 0.016469450667500496, -0.08129528164863586, 0.05017010122537613, 0.021976420655846596, 0.04744596779346466, 
-0.07418826967477798, -0.06822550296783447, -0.006096572149544954, -0.06335029751062393, -0.054762862622737885, 0.08147557079792023, 0.03793714568018913, 
0.005716570187360048, 0.08716271817684174, 0.01333882287144661, -0.040008895099163055, 0.04718856140971184, -0.07582549750804901, 0.0442354716360569, 
-0.04373559728264809, 0.055187709629535675, 0.02731199376285076, -0.07227159291505814, -0.08467253297567368, -0.07381423562765121, 0.015475899912416935, 
0.010845229029655457, -0.031125130131840706, 0.009981830604374409, 0.08292383700609207, -0.03803960978984833, -0.03810971602797508, 0.08309917896986008, 
-0.05780881270766258, -0.009176715277135372, -0.05388146638870239, -0.042575377970933914, -0.06570477783679962, 0.07805535942316055, -0.02322610653936863, 
-0.02704734355211258, 0.04140022397041321, 0.0460548996925354, -0.04590318724513054, -0.001260456396266818, 0.05090191960334778, -0.014873532578349113, 
0.008082644082605839, -0.023112719878554344, 0.05999501049518585, 0.06396953761577606, 0.005595178343355656, 0.03551845625042915, 0.08549096435308456, 
-0.030201179906725883, -0.08594392985105515, 0.08854204416275024, 0.05614463984966278, -0.07413681596517563, 0.05556180700659752, 0.05953969806432724, 
0.08106815814971924, 0.08592133969068527, 0.07507415115833282, 0.08656135201454163, -0.06776851415634155, -0.07165048271417618, 0.08433635532855988, 
-0.04735530912876129, 0.010075346566736698, 0.050716426223516464, -0.052479490637779236, 0.05223028361797333, -0.07890596240758896, -0.013348461128771305, 
0.058628760278224945, 0.087040476500988, -0.00674135098233819, 0.054847102612257004, 0.0811561793088913, 0.07188244163990021, 0.02418369986116886, 
0.08841538429260254, -0.06169755384325981, 0.0794387087225914, -0.07920077443122864, 0.0035402884241193533, -0.060194868594408035, 0.004101613070815802, 
-0.08390945941209793, -0.006079226266592741, -0.06606144458055496, 0.061971329152584076, 0.02713070437312126, -0.062354572117328644, 0.01862204447388649, 
0.05408252403140068, 0.06682528555393219, 0.07978411018848419, -0.06091945618391037, 0.010187998414039612, -0.07385549694299698, -0.08462478220462799, 
0.05316941440105438, 0.04451423138380051, -0.03989997133612633, -0.027800312265753746, -0.0683567225933075, 0.07123606652021408, 0.018564783036708832, 
-0.07290931791067123, -0.046700119972229004, -0.026543695479631424, -0.0028811681549996138, 0.007969709113240242, -0.07435420155525208, -0.05911026522517204, 
0.0020421124063432217, -0.03609178215265274, -0.027759728953242302, 0.051659394055604935, 0.04355884715914726, 0.050847698003053665, 0.014079243876039982, 
-0.05284048244357109, -0.017279742285609245, 0.037882573902606964, -0.04045331850647926, 0.08455166965723038, -0.015129441395401955, 0.08790972828865051, 
0.03618047013878822, 0.0678391233086586, 0.07331491261720657, -0.05936741828918457, -0.08758540451526642, 0.0011379874777048826, 0.08194437623023987, 
0.017239633947610855, 0.02470424212515354, 0.030048951506614685, 0.06023804843425751, 0.04039309546351433, -0.013270449824631214, -0.06278657913208008, 
0.04366544634103775, 0.025499917566776276, 0.07042195647954941, -0.06170740723609924, 0.08061042428016663, -0.02247474528849125, 0.007649093866348267, 
-0.02695806697010994, -0.055978674441576004, 0.02696594037115574, -0.02640891820192337, 0.06658384948968887, -0.05528605729341507, 0.03407277166843414, 
-0.019116727635264397, -0.009521475993096828, -0.08326581120491028, -0.04526375234127045, -0.059839148074388504, 0.05768273398280144, -0.07085805386304855, 
-0.06820102781057358, -0.08224081248044968, -0.06825724989175797, -0.03234676644206047, 0.0379832461476326, 0.08807693421840668, -0.07971902191638947, 
-0.03312545269727707, -0.014648769982159138, 0.004198102746158838, 0.0427883043885231, 0.07860757410526276, -0.04153208062052727, 0.06224792078137398, 
-0.0013807218056172132, -0.05862722545862198, -0.0412902757525444, -0.08635243773460388, 0.0707307681441307, 0.04273934289813042, -0.015870999544858932, 
-0.08333173394203186, -0.06251909583806992, -0.006435788702219725, 0.008858192712068558, -0.07762768864631653, -0.07896298170089722, 0.0005651216488331556, 
0.0030795822385698557, 0.07768229395151138, 0.02580171637237072, -0.07548116147518158, 0.07966969907283783, -0.022655630484223366, 0.0464191660284996, 
0.0297922994941473, -0.07719387114048004, 0.011802646331489086, -0.051965367048978806, -0.0857105553150177, -0.046832188963890076, -0.058494921773672104, 
-0.08244974911212921, -0.07650991529226303, 0.06860028952360153, -0.013878810219466686, 0.010352534241974354, 0.03989424183964729, 0.06210663542151451, 
0.0338921844959259, 0.05810874328017235, -0.07495938986539841, 0.008061440661549568, -0.08512841910123825, 0.006050195544958115, 0.07152817398309708, 
0.07547857612371445, -0.02969973161816597, -0.05939992517232895, -0.06019265949726105, 0.010738582350313663, -0.0608062818646431, 0.0674867108464241, 
-0.0653720274567604, -0.07382967323064804, -0.04113226756453514, -0.01681043952703476, -0.05953691154718399, 0.07908285409212112, -0.07036883383989334, 
-0.03095817193388939, 0.08734286576509476, -0.02725367248058319, 0.014958580024540424, -0.07988239824771881, 0.023470453917980194, 0.030664242804050446, 
0.05762362852692604, -0.055491939187049866, 0.00184760766569525, 0.06391453742980957, -0.0032879451755434275, -0.04712095484137535, -0.0001400973997078836, 
-0.04327232018113136, -0.051807284355163574, -0.014594120904803276, -0.0726873055100441, -0.05792384594678879, -0.005555620416998863, -0.07249283045530319, 
-0.012663941830396652, 0.042235977947711945, 0.016001226380467415, 0.037910956889390945, -0.04107747599482536, 0.034312497824430466, -0.04923853278160095, 
-0.0338592454791069, 0.004788880702108145, -0.07051455229520798, -0.04983240365982056, -0.06429634988307953, -0.020319776609539986, 0.0836206004023552, 
0.004046319518238306, -0.0651976615190506, 0.030085569247603416, -0.008380054496228695, -0.050764795392751694, 0.055812012404203415, 0.06059524044394493, 
0.05695391073822975, 0.06409189850091934, 0.004530637059360743, 0.0495912991464138, -0.06105854734778404, 0.01449668686836958, -0.07626346498727798, 
0.06549687683582306, 0.04455670714378357, -0.07426212728023529, 0.05723406374454498, -0.06772378832101822, -0.071861132979393, -0.00017527931777294725, 
0.07899045199155807, 0.04338628426194191, -0.06802268326282501, 0.061566099524497986, 0.012972671538591385, -0.03357996419072151, -0.08258145302534103, 
0.05426895618438721, -0.06646965444087982, -0.03130163252353668, 0.0746678039431572, 0.08707468956708908, 0.07050640881061554, -0.08299564570188522, 
-0.04850469529628754, 0.03367023915052414, -0.02869955264031887, -0.07486306130886078, -0.0817493125796318, -0.07524363696575165, 0.058490946888923645, 
-0.021108852699398994, 0.06575655937194824, -0.009105346165597439, -0.0622904933989048, 0.07352865487337112, 0.0371411107480526, -0.0794302225112915, 
0.03773059695959091, 0.08646856993436813, 0.0843149870634079, 0.02857353910803795, -0.026957711204886436, -0.055882036685943604, 0.005460353568196297, 
-0.0656459778547287, 0.013841325417160988, -0.07649517804384232, -0.03061756119132042, 0.012046503834426403, 0.011841089464724064, 0.028946667909622192, 
0.06632616370916367, -0.07359399646520615, -0.06118635833263397, -0.055315837264060974, 0.07457638531923294, -0.058194443583488464, 0.07902618497610092, 
0.0521310530602932, -0.0010330380173400044, -0.01248888298869133, 0.06702156364917755, 0.08789622038602829, 0.07405829429626465, 0.03493744507431984, 
-0.040393829345703125, -0.006545888725668192, 0.01638936996459961, 0.06347238272428513, -0.07698571681976318, 0.08476172387599945, 0.0037705765571445227, 
0.04709295555949211, 0.022364605218172073, 0.04040874168276787, -0.01139694545418024, -0.0013308777706697583, 0.05166884884238243, -0.05679120495915413, 
0.03242454305291176, -0.043859247118234634, 0.03231470286846161, -0.0001148895244114101, -0.059557706117630005, -0.0326741598546505, -0.06227787956595421, 
0.062183674424886703, 0.08630342036485672, 0.07572188228368759, 0.04321670159697533, -0.06893206387758255, 0.033446554094552994, 0.06461500376462936, 
0.0566195510327816, -0.04560273885726929, -0.027481071650981903, 0.004835684783756733, -0.008467589505016804, -0.05625101551413536, 0.03203926607966423, 
0.042285654693841934, -0.05745241045951843, 0.0582943893969059, 0.050609689205884933, 0.000796268112026155, -0.04056190699338913, 0.00272369384765625, 
-0.04922875016927719, -0.012304880656301975, -0.047734178602695465, 0.05730082839727402, -0.01783708855509758, -0.05245141312479973, 0.07549021393060684, 
-0.039873138070106506, 0.03120533935725689, -0.0019360906444489956, 0.07533644884824753, -0.06188185140490532, 0.0322575718164444, 0.06225964426994324, 
-0.008890178054571152, -0.04626424238085747, -0.043535977602005005, 0.05349447578191757, 0.05875654146075249, 0.004314715042710304, 0.06394444406032562, 
0.029987866058945656, 0.0823332741856575, -0.0034392729867249727, -0.021482368931174278, 0.005292950198054314, -0.04845121130347252, 0.009453017264604568, 
0.06064336374402046, 0.017380857840180397, 0.03367426246404648, -0.002752079628407955, -0.07099947333335876, 0.0864926278591156, 0.03588210046291351, 
-0.00276749674230814, -0.057085081934928894, 0.032799411565065384, -0.01068832352757454, -0.01718296855688095, 0.028777221217751503, 0.08074118942022324, 
0.043992750346660614, 0.07540065795183182, -0.056138403713703156, -0.05552191659808159, -0.04343374818563461, -0.03617747500538826, 0.08472365885972977, 
0.0375249981880188, 0.007288795430213213, 0.04411021247506142, -0.021730251610279083, 0.021584058180451393, 0.05186842009425163, 0.0858522579073906, 
0.05251973494887352, 0.01083521731197834, 0.07265926897525787, 0.04581284895539284, 0.04105889052152634, -0.00025750516215339303, 0.04309413209557533, 
-0.08334136009216309, -0.0008309546974487603, 0.0027559695299714804, -0.02673155628144741, -0.08056535571813583, 0.060991428792476654, 0.04511825740337372, 
-0.028639888390898705, -0.013619319535791874, -0.0652480274438858, 0.023944875225424767, -0.007929248735308647, -0.08288831263780594, -0.0001191495539387688, 
-0.07224471122026443, 0.045993052423000336, 0.06470585614442825, -0.010288035497069359, 0.012042847461998463, -0.00012601535127032548, -0.0015092550311237574, 
0.01447453536093235, 0.03089587390422821, 0.040758535265922546, 0.013796656392514706, -0.03565425053238869, -0.012077650055289268, 0.0707029327750206, 
-0.08624208718538284, -0.04242904484272003, -0.0771239623427391, 0.03722655028104782, 0.0023801145143806934, -0.08646632730960846, 0.0017589693889021873, 
-0.08411385118961334, -0.031082775443792343, -0.08451388031244278, 0.04230909049510956, 0.004666483961045742, -0.08134755492210388, 0.06296015530824661, 
0.05134281516075134, 0.013448555022478104, -0.009486541152000427, -0.06896556913852692, -0.011794107034802437, -0.05026276782155037, -0.01052037812769413, 
-0.03693648800253868, -0.0256647989153862, -0.052713192999362946, 0.04151991754770279, -0.053693737834692, 0.07992401719093323, -0.030377743765711784, 
0.06853588670492172, -0.03077545575797558, 0.021292846649885178, 0.030056234449148178, -0.05438021197915077, 0.01569446548819542, 0.047664254903793335, 
0.07384664565324783, -0.0004586824798025191, 0.023615453392267227, 0.08527707308530807, 0.04154741391539574, 0.008075585588812828, -0.07412561029195786, 
0.07107158750295639, 0.012050340883433819, -0.032998356968164444, -0.0064730518497526646, 3.7020268791820854e-05, -0.07669713348150253, 0.04772628843784332, 
-0.04355718940496445, -0.021014129742980003, -0.016628332436084747, 0.08723585307598114, -0.051086682826280594, -0.06732326000928879, 0.06446181237697601, 
0.028349051252007484, 0.058935269713401794, 0.018127191811800003, 0.04160980507731438, 0.08003463596105576, -0.038750771433115005, 0.041639603674411774, 
-0.05408016964793205, 0.0353243350982666, 0.07523399591445923, 0.03205101937055588, -0.08204562962055206, 0.07028339058160782, -0.03940669447183609, 
-0.07049394398927689, 0.02674487978219986, -0.00629600090906024, -0.006848820485174656, -0.07519923150539398, -0.08506875485181808, 0.07422366738319397, 
-0.06414151191711426, 0.0413171611726284, -0.06417850404977798, 0.04353468865156174, 0.06951317936182022, 0.05923778563737869, 0.048743654042482376, 
0.03546515479683876, -0.0709623172879219, 0.0785498172044754, -0.08033660799264908, 0.08387626707553864, 0.0735723078250885, 0.0009835120290517807, 
-0.07301335781812668, -0.024689126759767532, -0.0708281546831131, 0.015024199150502682, -0.08275565505027771, 0.050068438053131104, -0.015961654484272003, 
-0.06371136009693146, 0.03392345830798149, -0.0792621374130249, -0.037291597574949265, -0.007953700609505177, -0.011007275432348251, 0.08138475567102432, 
-0.022736435756087303, 0.02566458471119404, 0.01614357717335224, -0.011124839074909687, 0.07440328598022461, -0.0849509984254837, -0.030441129580140114, 
0.07002683728933334, 0.03544636443257332, 0.020944418385624886, 0.009850176982581615, -0.03147776797413826, -0.079202800989151, -0.04427366703748703, 
-0.004353062715381384, 0.04318812116980553, -0.06538153439760208, 0.013171710073947906, 0.015128080733120441, -0.04544083774089813, -0.015967970713973045, 
0.0706774964928627, 0.006614211946725845, -0.03680009767413139, 0.010604344308376312, -0.02146953158080578, -0.03354984521865845, 0.06957542896270752, 
-0.027029521763324738, -0.0312783345580101, 0.014256857335567474, 0.02772805653512478, 0.005278143100440502, -0.03588704392313957, -0.04449516534805298, 
0.029400624334812164, -0.025513553991913795, 0.03215985372662544, -0.06282958388328552, -0.07892851531505585, 0.07434021681547165, 0.008007778786122799, 
-0.06206055358052254, -0.08692176640033722, 0.05440446734428406, 0.0850234404206276, 0.07757100462913513, -0.08133027702569962, -0.008162868209183216, 
-0.07513656467199326, -0.03024389035999775, 0.06064935401082039, 0.0047262366861104965, -0.06102917343378067, 0.08743424713611603, -0.05581441894173622, 
0.07309772819280624, 0.006013574544340372, -0.042558733373880386, -0.023583438247442245, 0.04706832394003868, -0.03412965312600136, -0.0004711084475275129, 
0.024336453527212143, 0.03951462730765343, -0.08581428229808807, -0.051275596022605896, 0.04176592081785202, 0.02299557253718376, 0.0389438159763813, 
0.08757765591144562, 0.0174452755600214, 0.03583062067627907, -0.08541427552700043, -0.07610194385051727, -0.06416992098093033, 0.007784680463373661, 
0.07903660088777542, 0.07733117043972015, -0.08001594990491867, 0.06648454070091248, 0.06933745741844177, 0.011175885796546936, -0.08754107356071472, 
-0.003623447846621275, 0.011612015776336193, -0.07376840710639954, 0.06745079904794693, 0.0590556338429451, 0.03957543522119522, -0.06019316986203194, 
0.05812443420290947, -0.05171322822570801, 0.008173535577952862, 0.028745675459504128, 0.01315228920429945, -0.08103199303150177, -0.023772137239575386, 
0.05405058711767197, -0.0837773010134697, 0.004344237968325615, 0.04336554557085037, -0.08046580851078033, -0.06402839720249176, -0.03391622006893158, 
0.02231229469180107, 0.028366820886731148, 0.008385456167161465, 0.0716666430234909, 0.07858476787805557, 0.07920131087303162, -0.03682452440261841, 
-0.053333133459091187, -0.009542113170027733, 0.012512042187154293, 0.016136422753334045, 0.06666549295186996, 0.034136250615119934, 0.08435705304145813, 
0.019089633598923683, 0.00923998188227415, -0.026095248758792877, -0.021292435005307198, 0.03624109551310539, -0.01941119320690632, -0.033657729625701904, 
0.04629598930478096, 0.07455127686262131, -0.031984277069568634, 0.013097296468913555, 0.05613051727414131, -0.08258150517940521, 0.01025375910103321, 
-0.07115703076124191, 0.08173174411058426, -0.026735931634902954, 0.06413104385137558, 0.029466280713677406, -0.018603768199682236, 0.07817348092794418, 
0.05667291209101677, 0.06807871907949448, 0.07105116546154022, -0.014480463229119778, 0.02068009413778782, -0.05949903652071953, -0.07465877383947372, 
0.016930432990193367, 0.009575730189681053, -0.08344004303216934, 0.07068897783756256, 0.025301020592451096, 0.0697675496339798, 0.03554573282599449, 
-0.06989632546901703, 0.007754512131214142, 0.04677008092403412, -0.05438455939292908, -0.07626396417617798, 0.08108073472976685, -0.08249124884605408, 
0.07097671926021576, 0.028975719586014748, -0.02663223259150982, -0.03242209553718567, 0.07869019359350204, -0.06554756313562393, 0.08618061989545822, 
-0.04854387044906616, -0.08724774420261383, 0.07097619026899338, -0.058270856738090515, 0.051812708377838135, -0.03319704905152321, 0.04317847266793251, 
0.07798752933740616, 0.005336958449333906, 0.056155722588300705, -0.04945819824934006, 0.06158783659338951, -0.008897381834685802, 0.04696057736873627, 
0.029794059693813324, -0.05223033204674721, 0.02157376892864704, 0.08447948098182678, 0.013644792139530182, 0.05902593210339546, 0.0272362157702446, 
0.08345478773117065, 0.05192999541759491, -0.049506254494190216, -0.035470061004161835, 0.07064053416252136, 0.01613166183233261, -0.036416977643966675, 
-0.02517726644873619, 0.08466517925262451, -0.06345324218273163, 0.004297418054193258, 0.032482799142599106, -0.06513448059558868, 0.018901044502854347, 
-0.016710776835680008, 0.03093208372592926, 0.06285349279642105, 0.06311263144016266, 0.0047619943507015705, -0.032475948333740234, -0.004968130029737949, 
-0.047175951302051544, 0.08193513751029968, 0.03777846693992615, -0.06076100841164589, -0.038609907031059265, 0.009164799936115742, 0.005641746800392866, 
-0.05334443971514702, -0.026286320760846138, -0.03786236420273781, -0.0035710062365978956, 0.009483755566179752, 0.0168319009244442, 0.013037849217653275, 
-0.06475527584552765, 0.06343438476324081, 0.0352942980825901, 0.049229931086301804, -0.05662844702601433, 0.06803521513938904, 0.08480502665042877, 
-0.03649120777845383, -0.05608905479311943, 0.02384798601269722, 0.04581134021282196, -0.014108366332948208, -0.06545689702033997, 0.03223872929811478, 
-0.026043780148029327, -0.01882970705628395, -0.008939946070313454, -0.010177438147366047, 0.04297225549817085, -0.018344983458518982, -0.042816657572984695, 
0.056846555322408676, 0.016784103587269783, 0.08544988185167313, -0.06755001842975616, -0.037076495587825775, -0.002944598440080881, 0.03871387615799904, 
-0.006724173668771982, -0.052987780421972275, 0.024436144158244133, 0.042434416711330414, 0.040038321167230606, 0.07379022240638733, 0.03803009167313576, 
0.07837983965873718, -0.023092251271009445, -0.04788424074649811, -0.019452199339866638, 0.07583875954151154, 0.04560292884707451, 0.03957836329936981, 
-0.04264981299638748, 0.054824259132146835, -0.014412824995815754, 0.05875508859753609, -0.05761127918958664, -0.07086150348186493, -0.07917968183755875, 
-0.04039832577109337, -0.0443686842918396, 0.07891000062227249, -0.04892149567604065, -0.04250328615307808, 0.026866937056183815, -0.08703150600194931, 
-0.0809796154499054, 0.04887105152010918, 0.021611295640468597, 0.0679505243897438, 0.00480054272338748, -0.02135901339352131, -0.0839705616235733, 
0.052018336951732635, 0.0164998397231102, 0.01951109804213047, -0.021271349862217903, 0.06381627172231674, -0.0830664187669754, 0.08188363909721375, 
0.049715619534254074, 0.08267100900411606, -0.07936996966600418, 0.05346662923693657, 0.05404337868094444, -0.060807742178440094, -0.010138548910617828, 
0.06014493480324745, 0.0775260478258133, -0.0340798981487751, 0.039567913860082626, -0.07304697483778, 0.08248898386955261, -0.060141127556562424, 
0.041784483939409256, -0.033823154866695404, -0.04355546087026596, 0.08098413050174713, 0.04953968524932861, 0.07177619636058807, 0.07627838850021362, 
0.019215289503335953, 0.04027404636144638, -0.0014696213183924556, 0.0015505768824368715, -0.006477993447333574, 0.052849140018224716, 0.014706137590110302, 
-0.07037658989429474, -0.04791828244924545, 0.058246344327926636, 0.03155843913555145, 0.03991888836026192, 0.04527980089187622, 0.030368467792868614, 
0.0600021556019783, -0.0783751830458641, 0.08522535115480423, 0.06125667691230774, 0.04106690362095833, 0.004366050940006971, -0.06349091231822968, 
0.07961605489253998, 0.0016063271323218942, 0.08741314709186554, -0.03388289362192154, 0.005426763091236353, 0.03758007660508156, -0.07885138690471649, 
-0.006785384379327297, -0.07440235465765, -0.001126429415307939, 0.029308948665857315, 0.05906960740685463, -0.016791731119155884, -0.009995300322771072, 
-0.011077669449150562, 0.04357486963272095, -0.054426394402980804, 0.0281112939119339, 0.051021937280893326, -0.04729164019227028, -0.04936770349740982, 
0.00247126049362123, -0.02225901372730732, -0.03787350282073021, 0.009268180467188358, 0.03793343901634216, -0.06862671673297882, 0.013947057537734509, 
0.0705057829618454, -0.07640121877193451, -0.05325387418270111, 0.07179536670446396, 0.041809774935245514, -0.02151278592646122, 0.07818307727575302, 
0.0844694972038269, 0.005911880172789097, -0.03060789778828621, 0.005886909551918507, -0.08279803395271301, -0.0449010506272316, -0.027360476553440094, 
-0.05467652529478073, -0.01958395168185234, 0.04526636004447937, -0.07995442301034927, -0.034639112651348114, 0.018234772607684135, 0.05225684121251106, 
-0.015750670805573463, 0.033746376633644104, 0.024596422910690308, -0.06682051718235016, 0.05492725223302841, 0.03450922295451164, 0.030499469488859177, 
0.03616815432906151, -0.08386263996362686, -0.027796432375907898, -0.03245608136057854, -0.033924758434295654, 0.04480205848813057, 0.00302092544734478, 
-0.08259953558444977, 0.026464588940143585, 0.02529897913336754, -0.0431705005466938, 0.08646127581596375, 0.0465732179582119, -0.025154516100883484, 
0.0119101507589221, -0.07356817275285721, -0.05359221622347832, -0.007880724035203457, 0.012076573446393013, -0.08460398763418198, 0.07773815840482712, 
0.059821393340826035, -0.05490095168352127, -0.020653842017054558, -0.07412740588188171, 0.05819142609834671, 0.040014833211898804, 0.05947945639491081, 
0.04738329350948334, 0.04157733544707298, 0.06797440350055695, 0.05769716203212738, -0.06817114353179932, 0.08206675201654434, 0.009581104852259159, 
0.05424433574080467, -0.020026853308081627, -0.012768835760653019, 0.002580053173005581, 0.06631967425346375, 0.05014152452349663, -0.07244249433279037, 
-0.07013602554798126, -0.07789979875087738, 0.00705483416095376, 0.05609821155667305, -0.05915720760822296, 0.07096713781356812, -0.04842590540647507, 
-0.03367629647254944, 0.08208798617124557, -0.07363385707139969, -0.07103937864303589, 0.05078517273068428, 0.012600046582520008, 0.030580176040530205, 
0.07296790927648544, -0.08433789014816284, 0.08028906583786011, -0.0542604885995388, 0.05452466011047363, -0.01108990516513586, 0.07626280933618546, 
0.051528893411159515, -0.03471003472805023, 0.035910461097955704, 0.028230320662260056, -0.04185883700847626, 0.07818577438592911, -0.07446907460689545, 
-0.01328539103269577, 0.031495559960603714, 0.05818444490432739, -0.008771741762757301, -0.04611734673380852, 0.022744618356227875, 0.021231992170214653, 
0.03427388519048691, 0.009643767029047012, 0.052631575614213943, 0.010272301733493805, -0.05271904543042183, 0.07571019977331161, -0.06900127977132797, 
0.010190272703766823, 0.07509231567382812, -0.06486544758081436, -0.019677767530083656, 0.0359235480427742, 0.014816828072071075, -0.035972096025943756, 
-0.008173302747309208, 0.07053938508033752, -0.020258452743291855, -0.06924154609441757, 0.036555659025907516, -0.06822910904884338, -0.014818068593740463, 
-0.08164936304092407, -0.016154253855347633, -0.05404149368405342, 0.07205849885940552, -0.08476947993040085, 0.0250751543790102, -0.05665053799748421, 
0.028743041679263115, 0.08047539740800858, 0.035661932080984116, 0.016938352957367897, 0.04691937938332558, -0.0008175884140655398, -0.05192030593752861, 
0.08543091267347336, 0.028290223330259323, -0.026355905458331108, -0.006606508977711201, 0.0011216739658266306, -0.0587485209107399, -0.028484826907515526, 
0.05628848820924759, 0.06260669976472855, -0.07218161970376968, 0.07686357200145721, -0.04938089847564697, -0.07274169474840164, 0.08752734214067459, 
0.07958544790744781, 0.02950393222272396, 0.014078848995268345, 0.05191074684262276, -0.04806368798017502, -0.06162884086370468, -0.005850053858011961, 
0.08353517204523087, 0.006715631578117609, -0.06268887966871262, 0.02144045941531658, 0.05886128917336464, 0.027859071269631386, 0.02219921536743641, 
0.03485451266169548, -0.08246245235204697, 0.00629171309992671, 0.015357079915702343, 0.007053743116557598, 0.0669851154088974, -0.032988883554935455, 
0.004633238073438406, 0.029387375339865685, -0.011315790936350822, 0.03679332509636879, 0.027943270280957222, 0.05244845524430275, -0.07509350776672363, 
-0.05273626744747162, -0.055629994720220566, -0.08047732710838318, 0.03070446476340294, -0.06413241475820541, -0.07185401767492294, -0.011236457154154778, 
0.02220117300748825, -0.0505254752933979, 0.019640803337097168, 0.06519468873739243, -0.07575276494026184, -0.07065629959106445, -0.027746224775910378, 
0.04668450355529785, -0.049424413591623306, -0.02705434150993824, 0.05085323378443718, 0.013478884473443031, -0.07157985121011734, -0.035430941730737686, 
0.07324539124965668, -0.07101541757583618, -0.0030488665215671062, -0.07338310778141022, 0.06382078677415848, 0.04811659827828407, 0.05071086809039116, 
0.023950109258294106, 0.049707721918821335, -0.02137376368045807, 0.08404004573822021, -0.07911713421344757, 0.08768001943826675, 0.025140346959233284, 
0.05220143496990204, 0.008145407773554325, -0.0039887200109660625, 0.03775813430547714, 0.005983131472021341, -0.031919389963150024, 0.013433144427835941, 
-0.0029923024121671915, 0.04498685151338577, 0.041983988136053085, 0.01660315878689289, -0.08199242502450943, 0.07182792574167252, -0.037735629826784134, 
-0.05279074236750603, -0.019052525982260704, 0.050852008163928986, 0.08541735261678696, -0.009575633332133293, -0.005077574867755175, 0.04572218656539917, 
-0.04573315009474754, -0.03303965926170349, 0.041588857769966125, 0.034243855625391006, -0.0870179757475853, -0.07440179586410522, 0.08727533370256424, 
-0.015717044472694397, -0.034337498247623444, -0.08236660808324814, 0.010782845318317413, -0.001197576872073114, -0.08418586850166321, -0.028220772743225098, 
0.029895437881350517, 0.07278307527303696, 0.049699120223522186, -0.03637678176164627, 0.020955447107553482, -0.029481962323188782, 0.076626718044281, 
-0.024800242856144905, 0.030427273362874985, -0.06265442818403244, 0.036724891513586044, -0.05095801129937172, 0.07916843891143799, 0.020493753254413605, 
0.004705524072051048, -0.011239500716328621, -0.037921242415905, 0.060237817466259, -0.07983885705471039, 0.029187796637415886, 0.07930067926645279, 
-0.01786654070019722, -0.018048711121082306, -0.033220045268535614, 0.054480716586112976, -0.010584027506411076, 0.05752083286643028, -0.06027610972523689, 
-0.04754742607474327, 0.027501901611685753, 0.06540000438690186, 0.028745008632540703, 0.07787925004959106, -0.06917579472064972, -0.04824889078736305, 
0.02834879420697689, -0.06785953044891357, -0.08623521029949188, 0.003738229162991047, 0.018314948305487633, -0.07753676921129227, 0.06250351667404175, 
-0.009283740073442459, 0.047979194670915604, -0.04362078756093979, 0.07680074125528336, 0.00699796574190259, 0.02637377381324768, 0.03567323461174965, 
0.044604476541280746, -0.017582807689905167, -0.061698250472545624, -0.0655917301774025, 0.017243806272745132, 0.05644926428794861, 0.0025118039920926094, 
-0.014657117426395416, -0.0767793282866478, -0.06631772965192795, 0.03654760867357254, -0.06923552602529526, 0.0016160646919161081, 0.016978805884718895, 
0.02982027642428875, -0.0875016301870346, 0.000575060083065182, 0.07887449115514755, 0.05641133710741997, -0.014010567218065262, -0.05683523043990135, 
-0.018117131665349007, 0.07373043149709702, 0.08694024384021759, -0.0811207965016365, 0.027401180937886238, -0.04700980708003044, 0.045056577771902084, 
-0.02333798259496689, 0.05626114457845688, 0.030578045174479485, 0.0692724883556366, 0.03226853534579277, -0.04013283923268318, 0.042421504855155945, 
-0.080848328769207, -0.008946442976593971, 0.08077869564294815, 0.04203466325998306, 0.012720327824354172, 0.008711707778275013, -0.006965405307710171, 
0.005256959702819586, -0.082844577729702, 0.060265928506851196, 0.02518542855978012, 0.049727290868759155, 0.04713170602917671, 0.03963451460003853, 
-0.025199752300977707, 0.011258485727012157, -0.008543654344975948, -0.06692565977573395, -0.03796951100230217, 0.008679957129061222, -0.0847851112484932, 
