-0.00033030539634637535, 0.00026929890736937523, -0.00042426030267961323, -0.0005300429766066372, -0.0003343780117575079, -0.0002473376225680113, 0.00011190355871804059, -0.0004006596573162824, 0.00037985030212439597, 5.04003583046142e-05, -6.957509322091937e-05, 0.0004070039722137153, -0.00038924787077121437, 0.0002765464305412024, 0.0004970362060703337, 8.333518781000748e-05, 0.00018933776300400496, 0.000104644859675318, 7.556025229860097e-05, -0.0003048611106351018, 0.0003785309090744704, -5.482419874169864e-05, 7.961053779581562e-05, -0.0004756310081575066, 0.0001671586069278419, 0.0004073186428286135, 1.1900009667442646e-05, -1.3821495485899504e-05, -0.00036645575892180204, -0.0003016845730599016, 0.00026009223074652255, 0.00029028355493210256, -8.235157292801887e-05, 0.0003540101461112499, -0.00024187532835640013, -0.00019663735292851925, 0.00020111844060011208, -0.000427437131293118, -0.00033148593502119184, 2.9094000637996942e-05, 0.0003315599460620433, 0.00042368602589704096, 0.0004168449086137116, 0.00016269389016088098, -9.800109546631575e-05, 0.00039730133721604943, 2.9945964342914522e-05, 0.000479141395771876, -4.440738121047616e-05, -0.00042766108526848257, 0.00011085495498264208, -0.00031682022381573915, 0.000266361195826903, -0.00033316874760203063, 0.0002695507719181478, 0.00011318277393002063, 0.0004273519734852016, 4.4722150050802156e-05, 0.00018903646559920162, -0.0002362834056839347, -0.000430051441071555, -0.0002458303060848266, 0.0005579452845267951, -0.00019500451162457466, -0.00011130918574053794, -0.00024090094666462392, 3.580275006243028e-05, -0.00022173422621563077, 6.182785728015006e-05, 0.00019181572133675218, 0.00030364523991011083, 0.00021082651801407337, 0.00056326889898628, -5.478666935232468e-05, -0.00016206013970077038, 0.00018925839685834944, -0.00046300655230879784, -0.0004679500707425177, 0.0005618330324068666, 0.0004810709797311574, 9.774798672879115e-05, -0.00010961310908896849, 0.00027260719798505306, 0.00012049231736455113, 0.00022792184608988464, -0.00010496425238670781, 0.0005385539843700826, 0.0002448165323585272, 7.704918971285224e-05, 0.0002665344800334424, 0.00045000945101492107, -0.0002632412069942802, 0.00030178017914295197, -0.00019964629609603435, -0.0003587689425330609, 1.542147401778493e-05, 0.0001621429983060807, 0.00035727841896004975, -0.00019097198673989624, -0.00019347343186382204, -0.00038635998498648405, -4.337462451076135e-05, -0.0004620070103555918, -0.00017571134958416224, 0.0004614358476828784, 0.0005645232740789652, -0.00034717784728854895, -9.367848542751744e-05, -0.00021101246238686144, 0.00037065529613755643, -0.0002225025527877733, -0.0002892621560022235, 0.0004748910723719746, 0.00021156176808290184, 6.658356869593263e-05, 0.000110847526229918, -0.00011081682168878615, -6.336581282084808e-05, 0.00032737324363552034, -0.0005079672555439174, -0.0003393429215066135, 0.0002198402798967436, -0.0004783124604728073, -0.00024497596314176917, -0.00030556332785636187, -0.00011874180199811235, -0.00020622072042897344, -0.00012080077431164682, 0.0001340713060926646, 0.00037284736754372716, 1.9836747014778666e-05, 0.00036930476198904216, 0.0005500666447915137, 0.00022758878185413778, -0.00017935041978489608, -0.0003604077792260796, 8.469208842143416e-05, 0.0003613962035160512, 0.0004067507397849113, 1.1419810107327066e-05, -4.219508628011681e-05, -0.00037088236422277987, 0.0003288707521278411, 0.00024128469522111118, 0.0002175594709115103, -0.00012856848479714245, 0.0001443846122128889, 0.00028379695140756667, 0.00017684102931525558, -0.0004075291217304766, 0.0003199854982085526, -0.00029201529105193913, 0.00021655033924616873, -0.0001598121307324618, -0.00027405668515712023, 1.9390583474887535e-05, 5.9355865232646465e-05, 0.000202446331968531, 0.00012324970157351345, -0.0002821558155119419, 0.0004396808217279613, 0.0003431892837397754, -0.00021676997130271047, 9.339382086182013e-05, -0.0002401385281700641, -0.00015874108066782355, -0.0005248958477750421, -9.905677870847285e-05, -0.0004114079929422587, -0.0002480949624441564, 4.350507879280485e-05, 0.000404800521209836, 3.070545062655583e-05, -0.0005111193750053644, 4.6979403123259544e-07, 0.0003327776794321835, -0.0003060340241063386, 0.0005329602863639593, 0.0003560019831638783, 0.0004192906490061432, 0.00029588345205411315, -0.00023138416872825474, 0.00033554958645254374, -8.516517118550837e-05, 6.63104874547571e-05, -0.0005431809695437551, -0.0003419489075895399, -0.0004183724813628942, -0.00023301367764361203, -0.00024160539032891393, -0.00020598209812305868, -0.00024326995480805635, -0.0003976236912421882, 0.0003292426117695868, 0.00015813329082448035, 0.0004919110797345638, -0.00010446165106259286, -8.671073737787083e-05, -0.0005219535669311881, -0.0002339471539016813, 0.0005166445625945926, 6.413584196707234e-05, -0.00027915730606764555, 0.0002727071405388415, -7.745473340037279e-06, 7.743010428384878e-06, 0.00027712128940038383, 0.0005493865464814007, 0.00011347151303198189, -3.886584454448894e-05, -0.00024112986284308136, 0.00010868350364034995, 0.0003928729856852442, 0.000152669454109855, -0.00022404920309782028, 0.0004871938726864755, 0.0002472159103490412, -3.113355705863796e-05, -2.0087814846192487e-05, 0.0005007411818951368, 7.222832937259227e-05, 5.6618380767758936e-05, 0.0003198438207618892, -0.0005401924136094749, -2.622448118927423e-05, -0.0002451972686685622, 8.86071939021349e-05, -0.00022487578098662198, 0.0003993389254901558, -0.000338500743964687, -0.00017715146532282233, 0.0003938564914278686, 3.399485649424605e-05, 0.00021541237947531044, 0.0003235531330574304, 6.546893564518541e-05, -0.0003914272238034755, -0.00041084468830376863, 0.0004138229414820671, -0.00021376674703788012, -0.0001380305620841682, 6.240986294869799e-06, 0.0002380201331106946, -0.00029025753610767424, 0.0004533482133410871, -4.436255039763637e-06, 0.00035789579851552844, -0.00026289044762961566, -0.00025911227567121387, -0.0004482668300624937, -0.000505099247675389, 0.0004013153666164726, -0.0004759709117934108, 0.0002562695008236915, -0.0005294254515320063, -9.608055552234873e-05