// Numpy array shape [128]
// Min -0.08653548953277836
// Max 0.08886531585007051
// Number of zeros 0

#ifndef TRANSFORMERS_0_SELF_ATTENTION_OUT_BIAS_H_
#define TRANSFORMERS_0_SELF_ATTENTION_OUT_BIAS_H_

#ifndef __SYNTHESIS__
model_default_t transformers_0_self_attention_out_bias[128];
#else
model_default_t transformers_0_self_attention_out_bias[128] = {-0.012955393100344782, 0.08201604339192836, -0.07146148143320355, -0.002226574052834851, 0.03437318441059647, -0.055133209289845754, 
0.046261720716092476, 0.014746591439875983, 0.025676563993686972, -0.06356227137331043, -0.019845668226821576, -0.01870503093496594, 0.08700424571074537, 
0.008723882402132855, 0.010232749926564507, -0.003609043094238792, -0.07475977378738281, -0.07198640967913568, -0.0568612546453435, -0.06238989099926706, 
0.011777724879936433, -0.014345586981787376, -0.04331029054030267, -0.046298364566982865, 0.07211155370400438, 0.05129836329717219, -0.0181095007608083, 
0.07572372368042976, -0.0629544523070025, -0.021950938065355773, -0.041982290631215995, 0.014698538230820861, -0.02082699179652974, -0.003538590948372808, 
-0.003469755253210595, -0.020003093584639062, -0.007881519737127413, 0.019946013428736746, -0.010851023061239532, 0.04296590810614052, -0.06681847452778461, 
0.009723179128255542, 0.012950713799764684, 0.08395704533533432, -0.07137829961599744, -0.0319819991722247, 0.0179530425670601, -0.04298964377262467, 
-0.04531132325530106, 0.002716446798949134, 0.05219745424256889, 0.03136055647445916, -0.05973773821050631, -0.02553021475166023, 0.029830796851786495, 
-0.06585372990891751, -0.02771132007086332, -0.052432750743186055, 0.08448128023491586, 0.001658463357240711, -0.003696729515812131, 0.0590149043942301, 
0.0036965803563826457, -0.08509558016826753, -0.011007757538485454, 0.011172264211722975, 0.002695866975913748, 0.013936269036444562, 0.006401419776032518, 
0.021035552907873813, -0.06271571990690317, 0.011426435478762967, 0.05643489290409475, -0.02822728417318344, -0.035436613037023945, 0.0772480486252832, 
-0.031081501948105016, 0.05720102497074631, -0.006025943279914531, 0.025827886828081407, -0.060422898870048335, 0.013799855079652118, 0.07933205289510664, 
-0.08324727760830933, -0.051408671843036005, -0.005140450172430968, 0.012518536126276597, -0.018513327425832768, -0.028733100995005756, 0.029768739521823833, 
0.043176452120455906, -0.009360274050028655, -0.07767848629198829, 0.024022806682634675, -0.01657724798832271, 0.043960850554924324, -0.08653548953277836, 
0.05837062887822857, 0.021073168044592975, -0.04772928519165794, 0.011002225998477924, 0.05242108142372804, -0.06827313497051725, -0.007576524973295326, 
-0.07945885209175016, 0.011903179624065532, -0.01654553538796624, -0.026275109914614448, 0.08886531585007051, -0.021712084911208504, -0.009391693728806546, 
0.030916614998150554, 0.05778629026859787, 0.06629114629540743, 0.07568295694705994, 0.0379378251894246, 0.06871001492271842, 0.004883743850454191, 
-0.04776713864319367, 0.013570414251727983, 0.01365353842821041, 0.0631387283749255, 0.0505507344044582, 0.02996060226793223, 0.0555424794636716, 
-0.07744875487459943, -0.06296189131063779, -0.02712297724629045};

#endif

#endif
