// Numpy array shape [256]
// Min -0.0003933404
// Max 0.0003977624
// Number of zeros 0

#ifndef TRANSFORMERS_0_LINEAR_3_BIAS_H_
#define TRANSFORMERS_0_LINEAR_3_BIAS_H_

#ifndef __SYNTHESIS__
model_default_t transformers_0_linear_3_bias[256];
#else
model_default_t transformers_0_linear_3_bias[256] = {-0.00029688497306779027, 0.00019864217028953135, -0.0003319899260532111, -0.0003764782741200179, -0.00029254044056870043, -0.00014459219528362155, 
0.00017508174641989172, -0.0002976314281113446, 0.0002810883743222803, 8.698653255123645e-05, 2.0587485778378323e-05, 0.0003146179369650781, -0.00029445806285366416, 
0.0002585793554317206, 0.0003505451022647321, -7.127712160581723e-05, 7.561037637060508e-05, 8.220142626669258e-05, 7.417983579216525e-05, -0.00021547409414779395, 
0.0002255678118672222, 7.308100521186134e-06, 0.000172507599927485, -0.00037898027221672237, 2.100895653711632e-05, 0.00028376103728078306, 8.551428618375212e-05, 
4.349287337390706e-05, -0.0003256040217820555, -0.0002774556924123317, 0.0002271976409247145, 0.0002629140217322856, -0.00016269412299152464, 0.0002563622547313571, 
-0.0002447254373691976, -0.00010248784383293241, 0.00017314650176558644, -0.0003579346521291882, -0.00020710407989099622, 2.6685395368986065e-06, 0.00027013063663616776, 
0.00034115472226403654, 0.0003550570399966091, 0.00018360344984102994, -0.00017828753334470093, 0.0003354499349370599, 1.7008786016958766e-05, 0.00031721292180009186, 
6.297363142948598e-05, -0.0003374458756297827, 0.00013637061056215316, -0.00029307426302693784, 0.00025348446797579527, -0.00017552694771438837, 0.00015458384586963803, 
7.006611667748075e-06, 0.00030171245452947915, 2.9639637432410382e-05, 0.00013402130571193993, -0.0001444661320419982, -0.00035493867471814156, -0.00011867232387885451, 
0.00039458603714592755, -0.0002271185367135331, -6.945434142835438e-05, -0.00014381641813088208, 4.024067675345577e-05, -0.0001422794011887163, 4.166715370956808e-05, 
8.144347521010786e-05, 0.0002879573730751872, 0.00025733219808898866, 0.0003958900342695415, -8.198901196010411e-05, -4.309340874897316e-05, 0.00018046892364509404, 
-0.00033496165997348726, -0.0002822873939294368, 0.0003968000237364322, 0.0003752015472855419, -7.134804036468267e-08, -0.0001202477578772232, 0.0002634473203215748, 
9.17747547646286e-06, 0.00024488201597705483, -9.732061880640686e-05, 0.00038061721716076136, 0.00025325577007606626, 4.5462071284418926e-05, 0.00011485745199024677, 
0.00037057491135783494, -0.000266265677055344, 0.0002681900514289737, -0.00018647112301550806, -0.00026220057043246925, 6.142504571471363e-05, 0.00015518724103458226, 
0.00030816171783953905, -5.575182876782492e-05, -0.00016478398174513131, -0.0003152598801534623, 2.678623604879249e-05, -0.0003747405135072768, -0.00023291043180506676, 
0.00033452987554483116, 0.0003905499179381877, -0.00020059561938978732, 8.012977195903659e-05, -0.00021160926553420722, 0.000315175304422155, -0.00024324134574271739, 
-0.00019893918943125755, 0.0003754927893169224, 0.00023288409283850342, -6.221721559995785e-05, 4.6200304495869204e-05, -0.00016026769299060106, -0.00011965454905293882, 
0.0002958840341307223, -0.00035845558159053326, -0.0002631335228215903, 0.00028670579195022583, -0.00037714774953201413, -0.00016722224245313555, -0.00018766582070384175, 
-9.327012958237901e-05, -0.00024996328284032643, 3.504651613184251e-05, 3.544480205164291e-05, 0.00022362942399922758, 5.4315849411068484e-05, 0.00030202892958186567, 
0.000397762400098145, 0.00015538724255748093, -0.00024537506396882236, -0.0002811388694681227, 3.629637149060727e-06, 0.0002963559818454087, 0.00033231565612368286, 
-2.2855832867207937e-05, -5.171793236513622e-05, -0.00024161043984349817, 0.00027809347375296056, 0.00014664778427686542, 0.00013289964408613741, -0.00023377913748845458, 
-2.2589631043956615e-05, 0.00028619085787795484, 7.758117862977087e-05, -0.00027261790819466114, 0.00032091536559164524, -0.0002660103200469166, 0.00010271993960486725, 
-0.00020142360881436616, -0.00012095000420231372, 8.188860374502838e-05, -8.356002945220098e-05, 0.00020238426805008203, 3.1460313039133325e-05, -0.00021412436035461724, 
0.00033553989487700164, 0.00022430245007853955, -0.00015603404608555138, 0.00015391824126709253, -0.00012884801253676414, -0.0001560080418130383, -0.0003875883703585714, 
-0.00011989180347882211, -0.0003048572689294815, -0.0002626453060656786, -1.675676685408689e-05, 0.0002700959739740938, 3.9066864701453596e-05, -0.00037600993528030813, 
0.00013042669161222875, 0.0002174308174289763, -0.000182977833901532, 0.0003920073213521391, 0.00021029978233855218, 0.0003092681581620127, 0.000303014152450487, 
-0.000224506133235991, 0.00028488633688539267, -0.00013749809295404702, 0.00012553608394227922, -0.00039334039320237935, -0.0003181768406648189, -0.0002794782631099224, 
-8.301439811475575e-05, -0.000271429744316265, -0.00013688186299987137, -0.00024793201009742916, -0.00033358269138261676, 0.0002595106197986752, 0.0001226233725901693, 
0.0003752364427782595, -2.997971751028672e-05, -0.0001471323921578005, -0.0003790617629420012, -0.00021610569092445076, 0.0003630001738201827, 0.00012633785081561655, 
-0.0001702996378298849, 0.00012556600267998874, 1.7883634427562356e-05, 7.176587678259239e-05, 0.00017809608834795654, 0.0003746893198695034, 0.00010044805821962655, 
5.1800736400764436e-05, -0.0002467947779223323, 0.00016526352555956692, 0.0003050952800549567, 0.0002100017009070143, -0.00023730055545456707, 0.0003408079210203141, 
0.00015759521920699626, 7.912373257568106e-05, 3.111174009973183e-05, 0.0003829261113423854, 0.0001576598733663559, -1.0488874067959841e-05, 0.00028192432364448905, 
-0.00038244356983341277, -0.0001172307602246292, -0.00016387549112550914, 1.5295110642910004e-05, -0.0001481464714743197, 0.0002261939225718379, -0.00021904753521084785, 
-0.00011274560529273003, 0.0002588153874967247, 9.794453035283368e-06, 0.0002152019733330235, 0.00022360171715263277, 0.00015719940711278468, -0.0002663132909219712, 
-0.0002776777546387166, 0.00025887947413139045, -0.00021736390772275627, -0.00019833612896036357, 6.183635559864342e-05, 0.0002283547364640981, -0.00022439463646151125, 
0.0002987899642903358, 5.725491519115167e-06, 0.00019353981770109385, -0.00020089163444936275, -0.00012793320638593286, -0.00028050379478372633, -0.00037217288627289236, 
0.0002487852470949292, -0.00034728896571323276, 0.00024580577155575156, -0.00037019941373728216, -5.89699593547266e-05};

#endif

#endif
