// Numpy array shape [128]
// Min -0.08822918
// Max 0.08678334
// Number of zeros 0

#ifndef TRANSFORMERS_1_SELF_ATTENTION_OUT_BIAS_H_
#define TRANSFORMERS_1_SELF_ATTENTION_OUT_BIAS_H_

#ifndef __SYNTHESIS__
model_default_t transformers_1_self_attention_out_bias[128];
#else
model_default_t transformers_1_self_attention_out_bias[128] = {-0.04406393691897392, 0.04503149911761284, 0.020760057494044304, 0.030084533616900444, -0.04169720038771629, 0.070683553814888, 
0.02292206883430481, 0.06137644127011299, 0.02934321202337742, -0.019456680864095688, 0.019499022513628006, -0.05157042667269707, 0.05449341610074043, 
-0.06506840139627457, 0.07245400547981262, -0.012397159822285175, -0.04444585740566254, 0.033078908920288086, -0.051860321313142776, 0.01681520603597164, 
-0.07754609733819962, -0.07917521148920059, 0.04133785516023636, 0.035476211458444595, -0.005478825885802507, -0.08822917938232422, 0.008496402762830257, 
0.07722286134958267, -0.01481238566339016, -0.06601015478372574, -0.036340877413749695, 0.005878672935068607, 0.010791310109198093, 0.05574716255068779, 
0.004911710973829031, 0.07312469184398651, 0.07885091006755829, 0.018964704126119614, -0.02998272515833378, 0.05839303508400917, 0.055458247661590576, 
0.04902740940451622, -0.03642649203538895, 0.05955669283866882, -0.024983344599604607, -0.0018990838434547186, -0.049035582691431046, 0.005708119831979275, 
0.0403260700404644, -0.026724131777882576, -0.03887525573372841, 0.05818827822804451, -0.08237291127443314, 0.0855516865849495, 0.006737870164215565, 
-0.07254118472337723, -0.08542566001415253, -0.008691700175404549, 0.07049854844808578, 0.00855929870158434, 0.08464857935905457, 0.03854608163237572, 
-0.006951945833861828, 0.027546312659978867, 0.013226225972175598, 0.010504200123250484, -0.049858950078487396, 0.014814802445471287, 0.05447136238217354, 
-0.03626226261258125, -0.033003635704517365, 0.012496148236095905, -0.04024902731180191, 0.01392686739563942, 0.0209660604596138, 0.07364722341299057, 
0.041517481207847595, -0.07746513932943344, 0.06250536441802979, -0.05551294609904289, -0.0727449581027031, 0.06956271827220917, 0.07235296815633774, 
-0.0656227096915245, 0.0018834262154996395, 0.02968885935842991, 0.046974651515483856, -0.020376233384013176, 0.08167318254709244, 0.04788505285978317, 
-0.012183948419988155, -0.0415288470685482, -0.08106733113527298, -0.0036227181553840637, -0.03888595476746559, -0.011150381527841091, -0.04596995189785957, 
0.02444641850888729, 0.050472017377614975, -0.014536398462951183, 0.011620204895734787, 0.08006254583597183, -0.019649602472782135, -0.04085451364517212, 
0.03960653394460678, 0.07473389059305191, 0.03356626257300377, -0.0253800917416811, 0.06136532872915268, 0.06098674237728119, -0.07204808294773102, 
-0.03496307134628296, -0.006908420938998461, 0.0782274380326271, 0.010054074227809906, 0.08678334206342697, -0.00235914159566164, -0.06469861418008804, 
-0.0488799512386322, -0.08289331197738647, 0.06038414686918259, 0.05459580942988396, 0.037565555423498154, -0.06388670206069946, -0.0528779961168766, 
0.07438989728689194, -0.06804737448692322, -0.06802020221948624};

#endif

#endif
