// Numpy array shape [128]
// Min -0.00039946503
// Max 0.0003981504
// Number of zeros 0

#ifndef TRANSFORMERS_1_LINEAR_0_BIAS_H_
#define TRANSFORMERS_1_LINEAR_0_BIAS_H_

#ifndef __SYNTHESIS__
model_default_t transformers_1_linear_0_bias[128];
#else
model_default_t transformers_1_linear_0_bias[128] = {-7.754062971798703e-05, 0.0002073129144264385, -0.0003567539097275585, -4.719437856692821e-05, -0.0003452308592386544, -0.000275577389402315, 
-1.0119114449480549e-05, -8.512262138538063e-05, -0.00039946503238752484, 0.00011645254562608898, 8.84047185536474e-05, -0.000235287647228688, 0.00011300379992462695, 
0.00022140787041280419, 0.00032798355096019804, -0.0003245774714741856, 0.00024033663794398308, -0.00026475265622138977, -0.00012195396993774921, -0.00016267904720734805, 
-0.0003682383394334465, 0.0002523822768125683, 0.00020492332987487316, -0.0003547320084180683, -0.000266458373516798, 4.9317237426294014e-05, 0.0003981504123657942, 
0.00024333798501174897, -0.00018944013572763652, 0.00022719048138242215, 0.00017190782818943262, -0.00017604290042072535, 0.00038383068749681115, 5.272072667139582e-05, 
-8.952297503128648e-05, -0.00016881729243323207, 9.88748506642878e-05, -0.00039118280983529985, 2.3436361516360193e-05, 0.0001887916587293148, -0.00021059892605990171, 
-0.0002589088398963213, 0.00037506764056161046, -0.00022619226365350187, 6.423363083740696e-05, 5.208227230468765e-05, 0.00023081034305505455, -3.9679784094914794e-05, 
0.0003395297680981457, 0.0002116449031746015, -7.07845829310827e-05, 0.00031831287196837366, 6.112248956924304e-05, 0.0003938594018109143, -3.3129588700830936e-05, 
-6.481690797954798e-05, 0.00038841686910018325, -0.0002700314507819712, -0.00013717517140321434, 0.000168791098985821, -0.00022272620117291808, 0.0002997262927237898, 
-0.00012475880794227123, 0.00021101556194480509, 0.00010186621511820704, 3.342441050335765e-05, 3.50436894223094e-05, 0.00011065275612054393, 0.0003515753778629005, 
-6.051050513633527e-05, 5.1019873353652656e-05, 0.00019382940081413835, 0.00022242811974138021, -0.0001987978321267292, -0.00013896510063204914, 6.863791350042447e-05, 
0.00029521732358261943, -0.00012683149543590844, -0.0003561267803888768, 0.0003498520818538964, 5.522973879124038e-05, -7.166104296629783e-07, -4.669157351600006e-05, 
0.00036431904300116, 0.00021368340821936727, 0.0001987610594369471, -7.113723404472694e-05, -3.235236363252625e-05, 7.022928184596822e-05, -0.0002644138876348734, 
0.00016512228467036039, 0.00029913889011368155, -5.794627213617787e-06, -0.00011821353109553456, -0.00032245993497781456, 0.00038302442408166826, -1.7786627722671255e-05, 
0.0003443331515882164, 0.0003041713498532772, -0.00021955108968541026, -0.00018994256970472634, 0.00023763244098518044, 0.0001768429356161505, 7.207185262814164e-05, 
-7.740763976471499e-05, -0.00028309295885264874, -0.00010769891378004104, -0.0002406000130577013, 0.0002463424752932042, 4.819784953724593e-05, -0.000151755302795209, 
-9.351518383482471e-05, 0.00018177751917392015, -3.129880133201368e-05, 4.8237994633382186e-05, 0.0003781730483751744, 0.00024469950585626066, 1.9727351173060015e-05, 
-0.00018749831360764802, -0.00024878853582777083, 0.00021877964900340885, -0.0003042506577912718, 0.00027109342045150697, 0.00011437282228143886, 0.00017907038272824138, 
-0.0003424788301344961, 0.0003830412751995027, -5.3328050853451714e-05};

#endif

#endif
