0.0002242437331005931, -8.594469545641914e-05, 0.00015768125012982637, 0.0002052110357908532, -0.0002600564039312303, -0.00018476623517926782, -0.0001561085373396054, 7.595955685246736e-05, -0.0001251039793714881, -0.00011546957102837041, -0.00022144924150779843, 0.00011064536374760792, 0.00026114366482943296, -0.0001438115577911958, -0.0001320131414104253, 8.051638724282384e-05, 0.00021687665139324963, 0.00023223852622322738, 0.00024651395506225526, 0.0001607376616448164, 7.961104711284861e-05, -0.00022455031285062432, 5.095762753626332e-05, 0.00017067282169591635, 0.00019646748842205852, -3.187852416886017e-05, 0.0002306442620465532, -5.399922520155087e-05, -0.00019701392739079893, 0.00011950214684475213, 0.00021108232613187283, 2.070194750558585e-05, 5.486595910042524e-05, 0.00019410974346101284, 8.468229498248547e-05, -1.5781581168994308e-05, -0.00025509935221634805, -0.0002544384333305061, -0.00011196093691978604, 0.0001961439847946167, -6.221968214958906e-05, -0.0001583781704539433, -0.00012290615995880216, 0.00021950721566099674, -0.0001993125770241022, 9.49688910623081e-05, -0.00010286535689374432, -0.00016473533469252288, 0.00012998993042856455, -0.00019695705850608647, -7.552788883913308e-05, -4.393800918478519e-05, 2.782039882731624e-05, -0.0001088820063159801, 0.00016738033446017653, -7.645713776582852e-05, 2.7775309717981145e-05, -0.00010545588884269819, -0.00024096107517834753, 0.00012169397086836398, -0.00015928216453175992, -0.00020159796986263245, -0.00023237349523697048, -0.00017182088049594313, -0.00018302413809578866, -0.00016119341307785362, -0.00025598364300094545, 7.326397462747991e-05, -0.00013156543718650937, -0.00022962488583289087, 0.00023365150263998657, -0.00020582442812155932, -7.821226063242648e-06, 0.0001284314930671826, -0.00021747060236521065, -0.00018466907204128802, -0.00021851315977983177, -0.00011343369260430336, -5.2534338465193287e-05, 0.00014144771557766944, -0.0001374406710965559, -0.00021108683722559363, -0.0002335432800464332, 2.4350347302970476e-06, 4.748885112348944e-05, 4.153902773396112e-05, 0.00018674007151275873, -5.523448271560483e-05, 7.754244870739058e-05, 9.06318673514761e-05, 0.00021153590932954103, 0.00020853118621744215, -0.0001354388805339113, 0.00023130913905333728, 7.793008262524381e-05, 6.844255403848365e-05, 0.00016431265976279974, -0.0001245460007339716, -5.047636659583077e-05, -0.00010334746184526011, -0.00014766547246836126, 0.0002180762676289305, 0.00020569993648678064, 0.0002932172501459718, 0.0002713369904085994, -7.875361916376278e-05, 0.00016602073446847498, -0.0001903984957607463, 1.943038296303712e-05, -0.0001919061178341508, 0.00010141376696992666, 0.0001366384094581008, 0.000146551537909545, 0.00013415153080131859, -0.00011857174831675366, 0.00022310121858026832, 0.0002307812392245978, -2.333626525796717e-06, -0.00019298953702673316, -0.00020737669547088444, -1.821606474550208e-06, 0.00020425955881364644, 0.00021543893672060221, 0.00018597743473947048, 0.0001595259818714112, -0.0002490508777555078, 0.0001858272444223985, -9.502017746854108e-06