// Numpy array shape [256, 128]
// Min -0.0886094
// Max 0.088763475
// Number of zeros 0

#ifndef TRANSFORMERS_1_LINEAR_2_WEIGHT_H_
#define TRANSFORMERS_1_LINEAR_2_WEIGHT_H_

#ifndef __SYNTHESIS__
model_default_t transformers_1_linear_2_weight[32768];
#else
model_default_t transformers_1_linear_2_weight[32768] = {-0.04946022853255272, 0.07455970346927643, -0.03196502849459648, 0.05521353706717491, -0.08526094257831573, 0.009101692587137222, 
-0.06349363923072815, 0.009838459081947803, 0.010325153358280659, -0.03553986921906471, 0.009989401325583458, 0.0017192260129377246, -0.037223074585199356, 
0.012833080254495144, 0.08312829583883286, -0.06505634635686874, 0.025770388543605804, 0.0397891141474247, 0.025008948519825935, 0.01864439994096756, 
0.0594480037689209, 0.0465804785490036, -0.02787376008927822, 0.01755184680223465, 0.060663845390081406, -0.08758759498596191, -0.007963541895151138, 
-0.08112899214029312, -0.03665001690387726, -0.03363414481282234, -0.06817259639501572, 0.06791672110557556, 0.0553155392408371, 0.06336189806461334, 
0.01760946772992611, -0.06836474686861038, -0.012182090431451797, -0.0005916362279094756, -0.07425928115844727, -0.005908316932618618, 0.08305443823337555, 
0.015437614172697067, 0.06024689972400665, -0.016771942377090454, 0.055862076580524445, -0.028425078839063644, -0.05871717631816864, -0.08145353943109512, 
-0.022168420255184174, 0.01814384013414383, -0.019170815125107765, -0.04301351681351662, 0.08456709235906601, 0.08066397160291672, 0.001361955190077424, 
0.017171239480376244, -0.04512773081660271, 0.03279828280210495, -0.038395754992961884, 0.08637401461601257, 0.04258624091744423, 0.08742619305849075, 
-0.0782632902264595, -0.046179383993148804, -0.04747013375163078, 0.04738457500934601, 0.004883965011686087, -0.018136784434318542, -0.04272077605128288, 
0.055694881826639175, 0.02281920239329338, -0.06848743557929993, 0.009891913272440434, 0.04636324569582939, 0.03871363773941994, 0.03328995406627655, 
-0.022605663165450096, -0.009742293506860733, 0.003402089001610875, -0.04730954021215439, 0.04418634995818138, -0.06670710444450378, 0.08490431308746338, 
0.06281815469264984, -0.00035042964736931026, 0.037711452692747116, -0.0006404676823876798, -0.07398461550474167, 0.01963743567466736, -0.07644757628440857, 
0.006287355907261372, 0.03938999027013779, -0.028458504006266594, -0.02854815684258938, 0.0871581882238388, -0.0111486054956913, -0.08373094350099564, 
0.06814712285995483, -0.06472308933734894, 0.07057028263807297, -0.06656505167484283, -0.030084768310189247, -0.04035840556025505, 0.06921515613794327, 
0.07696335017681122, 0.011430858634412289, 0.027114365249872208, 0.02563067339360714, 0.08280646800994873, -0.020087920129299164, 0.013770798221230507, 
0.0430111438035965, 0.07957573980093002, 0.04915127158164978, -0.0018995190039277077, -0.033716876059770584, 0.024833718314766884, -0.0064812772907316685, 
0.07421224564313889, -0.02950464002788067, -0.04125134274363518, -0.057513896375894547, -0.07442276924848557, 0.06837907433509827, -0.025670818984508514, 
-0.060509368777275085, -0.042089592665433884, -0.036917947232723236, 0.03031296096742153, 0.03854342922568321, 0.030088508501648903, -0.054524585604667664, 
0.060497138649225235, -0.00621795142069459, -0.032303471118211746, 0.08509042859077454, 0.02267245575785637, -0.005403951276093721, -0.06457698345184326, 
0.04925037547945976, -0.08546741306781769, 0.07502853870391846, -0.013056743890047073, -0.02969738282263279, 0.03544064983725548, 0.002658096607774496, 
0.004393621813505888, -0.00480961799621582, -0.029946312308311462, -0.07980716973543167, -0.08324266970157623, 0.05979878082871437, 0.07445825636386871, 
0.07787768542766571, -0.035929158329963684, -0.036327239125967026, -0.08416853845119476, 0.02116759680211544, -0.0327024906873703, 0.08633743971586227, 
0.07967199385166168, -0.029362866654992104, -0.08594473451375961, -0.04412662237882614, 0.07063470780849457, -0.015258893370628357, -0.03738844022154808, 
0.013743482530117035, 0.025261109694838524, 0.019595449790358543, 0.017168806865811348, -0.0741283968091011, 0.016440313309431076, 0.028667539358139038, 
0.05149422958493233, 0.0037279173266142607, 0.007689516991376877, -0.04968181625008583, -0.05333339050412178, 0.08651106804609299, -0.0593411847949028, 
0.022138630971312523, 0.023802880197763443, 0.01504328940063715, -0.044504277408123016, -0.002893255790695548, -0.06477916240692139, 0.030534980818629265, 
-0.047165241092443466, 0.019790219143033028, -0.08826502412557602, 0.04863785207271576, 0.07518091797828674, -0.014812624081969261, 0.022322364151477814, 
-0.006081113591790199, -0.0658668503165245, -0.07957924902439117, -0.06710141152143478, 0.04789905995130539, -0.0348893478512764, 0.016319504007697105, 
0.015037908218801022, 0.08406496793031693, -0.08742881566286087, -0.06350920349359512, 0.009119338355958462, 0.03301158547401428, 0.06401200592517853, 
0.08726774901151657, -0.019173070788383484, 0.025738384574651718, 0.011951430700719357, 0.02171841450035572, -0.03726355731487274, -0.05552589148283005, 
0.02319435402750969, -0.02318768948316574, 0.012044214643537998, 0.07341159880161285, -0.01705053448677063, -0.07275304943323135, 0.0804377943277359, 
0.028211560100317, 0.08451148867607117, -0.03009065054357052, 0.023487597703933716, 0.031807251274585724, 0.05608091130852699, 0.06255042552947998, 
-0.012655924074351788, 0.04792609065771103, -0.06696334481239319, 0.00890268199145794, -0.08701078593730927, -0.025277351960539818, -0.013897190801799297, 
0.0677618682384491, 0.059000201523303986, 0.0413302481174469, 0.036044999957084656, -0.07035256922245026, 0.041136082261800766, -0.06211875006556511, 
0.0035105689894407988, -0.03716978058218956, 0.0024606266524642706, 0.04975859820842743, -0.03477941080927849, 0.053894512355327606, -0.021986551582813263, 
0.006778133567422628, -0.027099603787064552, 0.00549539178609848, -0.04328479990363121, -0.056683871895074844, -0.05555741488933563, 0.02072708122432232, 
0.021475719287991524, -0.0355231836438179, 0.051455721259117126, -0.02477053925395012, -0.05014663562178612, 0.03696402534842491, 0.012374771758913994, 
0.06589369475841522, 0.03832633048295975, 0.03065960481762886, -0.014928732067346573, 0.0018928148783743382, -0.027801798656582832, 0.0395558662712574, 
-0.013409007340669632, -0.019145669415593147, -0.007271107751876116, -0.009280718863010406, 0.08534837514162064, 0.06981845945119858, 0.05792735889554024, 
0.015326832421123981, -0.04733430966734886, -0.03034094348549843, -0.05362861603498459, -0.03695635497570038, -0.026617180556058884, 0.04455533251166344, 
0.07086119800806046, 0.08212928473949432, -0.08171628415584564, 0.07361777126789093, -0.028038663789629936, -0.009163456037640572, -0.07888070493936539, 
-0.018859559670090675, -0.013158493675291538, 0.05441494286060333, 0.0722600519657135, 0.07688935846090317, -0.07676795870065689, 0.04871561378240585, 
0.06968466937541962, -0.01447165198624134, 0.03987814486026764, 0.018022721633315086, -0.0034623458050191402, 0.08401186019182205, 0.06552498787641525, 
0.08121257275342941, -0.06146719306707382, 0.04082737863063812, 0.07033191621303558, -0.06293302774429321, -0.021516846492886543, -0.07821456342935562, 
-0.0210153479129076, -0.06454330682754517, 0.04321775212883949, -0.020161915570497513, -0.054493289440870285, -0.022956890985369682, 0.06528793275356293, 
0.06307294219732285, -0.018439486622810364, -0.013921046629548073, 0.023379569873213768, 0.0848056972026825, -0.005881316959857941, 0.003422682173550129, 
0.0645209327340126, 0.061685044318437576, 0.006412304472178221, 0.08579068630933762, -0.05136188864707947, -0.03880405053496361, 0.07811971008777618, 
0.07916603237390518, -0.03846316039562225, -0.030504079535603523, 0.02273661643266678, -0.0483596995472908, -0.0593077726662159, 0.06025218591094017, 
-0.046327803283929825, -0.020767495036125183, 0.05477048456668854, 0.0410686694085598, 0.006289537530392408, 0.044069062918424606, -0.08376681804656982, 
-0.01768159307539463, -0.033733826130628586, -0.026082392781972885, -0.05748520419001579, 0.016827795654535294, -0.05531010031700134, -0.0781451165676117, 
0.08253723382949829, -0.05504131689667702, -0.05262371152639389, -0.07848460227251053, -0.06773378700017929, 0.010119112208485603, 0.06230083480477333, 
0.016125718131661415, -0.05648760870099068, 0.07915977388620377, 0.03856995701789856, 0.00033473275834694505, 0.06579640507698059, 0.03551891818642616, 
-0.051819443702697754, -0.07949420064687729, -0.0009898935677483678, -0.07126384228467941, 0.05982885882258415, 0.07422886043787003, -0.06982514262199402, 
-0.06867215782403946, 0.06048453226685524, 0.08456827700138092, -0.023036150261759758, 0.04565306752920151, -0.08556660264730453, -0.017405390739440918, 
0.0075922030955553055, 0.017449215054512024, -0.009158216416835785, -0.05009256675839424, 0.06154423579573631, -0.06507530063390732, -0.062144555151462555, 
-0.038709476590156555, 0.039658233523368835, -0.07481713593006134, -0.027664251625537872, -0.05159318819642067, 0.07940463721752167, 0.02862955629825592, 
0.01767786033451557, 0.028437761589884758, 0.066009022295475, 0.06592091172933578, -0.06583414226770401, -0.056764159351587296, 0.07028389722108841, 
0.00544238043949008, 0.048711273819208145, 0.008841983042657375, -0.04796560853719711, -0.03897782042622566, -0.06461536139249802, 0.01667107455432415, 
-0.08348448574542999, 0.05466093868017197, 0.05940839648246765, -0.029562005773186684, -0.047426577657461166, 0.014461422339081764, 0.017128152772784233, 
0.014817362651228905, -0.029129283502697945, -0.07947096228599548, 0.01603199914097786, 0.0701991394162178, -0.01441519521176815, 0.005410400684922934, 
0.05327152460813522, -0.07710368931293488, -0.06563451886177063, -0.003944752272218466, -0.01937091536819935, 0.058456920087337494, 0.08150628209114075, 
0.08743912726640701, -0.013627906329929829, 0.07676903158426285, 0.08443426340818405, -0.05145766958594322, -0.08335227519273758, -0.06788375228643417, 
-0.04884965717792511, 0.013879893347620964, -0.06363896280527115, 0.03755556792020798, -0.013758040964603424, 0.047261036932468414, 0.058304157108068466, 
0.056026604026556015, 0.029193582013249397, -0.06471708416938782, -0.0564013347029686, -0.08697602897882462, -0.05462018772959709, 0.08775852620601654, 
0.027506651356816292, 0.08625351637601852, 0.08757574111223221, 0.026874186471104622, 0.057040024548769, -0.027835499495267868, -0.03890915587544441, 
-0.03154465928673744, 0.08096595853567123, 0.00910706166177988, 0.06160096451640129, -0.055552203208208084, -0.08160584419965744, 0.018325909972190857, 
-0.08553897589445114, -0.08765609562397003, -0.0787712037563324, 0.03321303427219391, 0.06343463808298111, 0.0567520409822464, -0.044475436210632324, 
-0.08806493133306503, -0.002962424186989665, 0.05099433287978172, 0.06144364923238754, 0.07014787942171097, -0.06178327649831772, 0.03939297795295715, 
0.01972898282110691, 0.08157464116811752, 0.06466461718082428, 0.07639247179031372, 0.0372491292655468, -0.0076070199720561504, -0.07095261663198471, 
-0.0481533408164978, 0.030749820172786713, -0.012144720181822777, -0.027395106852054596, 0.07820836454629898, -7.385521166725084e-05, 0.06093320995569229, 
-0.03816576302051544, 0.029349127784371376, 0.05611124634742737, -0.08696777373552322, -0.050052233040332794, -0.053549859672784805, -0.024555429816246033, 
0.040616266429424286, -0.014049014076590538, -0.08389803767204285, -0.07666569948196411, -0.043432869017124176, 0.03053722158074379, 0.05262582376599312, 
-0.08398579061031342, 0.00010963570093736053, -0.08509326726198196, 0.06416536867618561, 0.0879383459687233, -0.039345260709524155, -0.00028670753818005323, 
0.009674126282334328, -0.08308996260166168, -0.05714946985244751, -0.02870783396065235, -0.0047248112969100475, 0.026264024898409843, 0.007371353451162577, 
0.06183171272277832, 0.061623554676771164, 0.007342300843447447, -0.0008365987450815737, 0.010747130960226059, 0.06360717862844467, 0.04816426336765289, 
0.04865023121237755, 0.027883930131793022, -0.02108960598707199, 0.03556360304355621, 0.017112968489527702, -0.03677913546562195, 0.0789845734834671, 
0.08592211455106735, -0.04312305897474289, -0.021822959184646606, -0.0003551481058821082, 0.02263597771525383, 0.0741666629910469, 0.039817649871110916, 
-0.027525238692760468, -0.03483429178595543, -0.02084849216043949, 0.07207953184843063, 0.07967881113290787, 0.06260175257921219, 0.06787922978401184, 
-0.05598090961575508, 0.018369203433394432, 0.058971844613552094, -0.07085812091827393, 0.044656168669462204, 0.0540304109454155, 0.06978099793195724, 
0.006876189727336168, 0.01811964064836502, 0.050442155450582504, -0.006479434669017792, 0.04268711432814598, -0.045119334012269974, 0.025235982611775398, 
0.015171833336353302, -0.07969123870134354, -0.012514017522335052, -0.010651578195393085, 0.04730299860239029, -0.002656826749444008, 0.041740164160728455, 
0.04936657100915909, -0.049224548041820526, -0.02811931073665619, 0.009000612422823906, 0.0058440398424863815, -0.03932465985417366, -0.0552024208009243, 
0.0038535543717443943, -0.029144061729311943, -0.05128739774227142, 0.0506482757627964, 0.043264828622341156, 0.03773493692278862, -0.0320190005004406, 
-0.05786136910319328, -0.06135587394237518, -0.07650046050548553, -0.0819319412112236, -0.04414740577340126, -0.04630439355969429, 0.061963774263858795, 
0.0034526248928159475, 0.007181934546679258, -0.038664668798446655, 0.04685313254594803, 0.08534155786037445, 0.0013808294897899032, -0.04181763529777527, 
-0.00431164912879467, 0.014997848309576511, 0.07078440487384796, -0.04861187934875488, 0.006703529041260481, -0.07505561411380768, 0.05254942923784256, 
-0.021493230015039444, -0.022069383412599564, -0.030761582776904106, -0.0059960405342280865, 0.047670550644397736, 0.06894291192293167, -0.07174361497163773, 
-0.035359084606170654, 0.03844047710299492, 0.003962500020861626, 0.0610891655087471, -0.013891792856156826, 0.028973190113902092, -0.05971961468458176, 
0.05049543455243111, -0.039299048483371735, -0.06270233541727066, 0.07816636562347412, -0.038709357380867004, -0.05873151496052742, 0.024216432124376297, 
-0.050450846552848816, -0.02513573318719864, 0.07532229274511337, 0.06784748286008835, 0.001137254759669304, 0.07568329572677612, 0.044002991169691086, 
0.02872353047132492, -0.060370493680238724, -0.05665801465511322, 0.0398164726793766, 0.03798973932862282, -0.07394386827945709, -0.08289971947669983, 
0.04165295138955116, -0.05259300768375397, -0.00026988013996742666, 0.07514573633670807, -0.00786998774856329, 0.061626873910427094, -0.022854147478938103, 
0.003130672499537468, -0.022625042125582695, -0.04813772812485695, -0.07786118984222412, 0.06827622652053833, -0.049958717077970505, 0.0340469591319561, 
-0.004184270277619362, -0.025373220443725586, -0.00047908807755447924, 0.03181250020861626, 0.03298657387495041, 0.076448455452919, -0.032852619886398315, 
-0.05733293667435646, -0.020282432436943054, 0.025371171534061432, -0.0004738920251838863, -0.04259796813130379, 0.07914771884679794, -0.016474170610308647, 
-0.06721530109643936, 0.07168012112379074, -0.04686081036925316, 0.035365600138902664, 0.07303895056247711, -0.07844772189855576, 0.04217460751533508, 
-0.05058044567704201, -0.07180062681436539, -0.01901085302233696, 0.024224495515227318, 0.051173388957977295, -0.06334676593542099, -0.08142095059156418, 
0.02925901673734188, 0.01302054151892662, 0.0520906075835228, -0.01514427363872528, -0.06411821395158768, -0.06988167762756348, 0.03839823603630066, 
-0.004992409609258175, -0.0632457509636879, 0.024002501741051674, -0.05685839429497719, 0.002440875628963113, 0.0055889892391860485, 0.08844419568777084, 
0.04965198040008545, -0.05537030100822449, -0.06798499077558517, 0.03888525441288948, -0.023669855669140816, -0.0029950272291898727, -0.07123308628797531, 
-0.017331380397081375, 0.07484012842178345, 0.028074374422430992, 0.04434547573328018, -0.04671742767095566, 0.010335980914533138, 0.07441845536231995, 
-0.03236106410622597, 0.08754850924015045, -0.0023177105467766523, 0.0027164737693965435, 0.05584987998008728, -0.07612013071775436, -0.07558900117874146, 
-0.03758973255753517, 0.03581169247627258, 0.011531139723956585, -0.015478068962693214, -0.05467475578188896, 0.0521145761013031, 0.0754784643650055, 
-0.02689574845135212, -0.05463425815105438, -0.04078502580523491, 0.029337376356124878, 0.04496941342949867, 0.018107935786247253, -0.02556454949080944, 
-0.0767647847533226, 0.05707612633705139, -0.020115219056606293, -0.08132816851139069, -0.022115590050816536, -0.0750737115740776, 0.03972746431827545, 
-0.07054608315229416, -0.010095646604895592, 0.07121986150741577, -0.01865115761756897, -0.015621354803442955, 0.0384269654750824, 0.07406546920537949, 
-0.01988394185900688, -0.0015360253164544702, -0.08228607475757599, 0.07027386128902435, -0.026502925902605057, 0.024452561512589455, -0.002076035598292947, 
-0.03594038635492325, 0.07910245656967163, -0.007653043605387211, 0.04923613741993904, -0.021520273759961128, 0.0729108601808548, 0.03347146511077881, 
-0.050986986607313156, 0.08417241275310516, -0.008324811235070229, -0.06966891139745712, 0.07362256944179535, -0.054676733911037445, 0.051466263830661774, 
-0.004094408825039864, 0.0712808221578598, 0.059095121920108795, 0.0392419658601284, 0.032256174832582474, -0.04410818964242935, 0.027770860120654106, 
0.009900655597448349, -0.044306572526693344, 0.027438122779130936, -0.01573246344923973, 0.018261227756738663, 0.06668546795845032, -0.07250235229730606, 
-0.026439081877470016, 0.057937245815992355, -0.020317979156970978, 0.027287419885396957, 0.07651222497224808, 0.07636847347021103, -0.03267960622906685, 
0.07265132665634155, 0.06273888051509857, 0.0646270141005516, 0.004344290122389793, 0.07613321393728256, -0.03183731064200401, -0.07437430322170258, 
0.010137920267879963, 0.01982113905251026, -0.07749897986650467, -0.023762725293636322, -0.07031479477882385, -0.08371294289827347, -0.07535633444786072, 
0.009794927202165127, -0.01527698989957571, -0.06754547357559204, 0.031061962246894836, 0.07080239057540894, 0.004825604613870382, -0.08227039128541946, 
-0.044803909957408905, -0.0338757298886776, 0.013041257858276367, -0.08010780066251755, 0.05439453572034836, 0.002217101166024804, 0.019539179280400276, 
0.06332246214151382, -0.0026013830211013556, 0.04696441441774368, -0.013703332282602787, -0.05423431098461151, 0.0472383052110672, -0.03242309391498566, 
-0.03005533665418625, 0.0667649582028389, 0.03108278103172779, 0.058283135294914246, 0.04743511974811554, -0.010861122980713844, 0.053931012749671936, 
0.003315187059342861, -0.003566065104678273, -0.0163650531321764, 0.05149690434336662, -0.07402988523244858, -0.0040437448769807816, -0.03208398073911667, 
0.022930901497602463, -0.06182744726538658, -0.07729946076869965, 0.06848058849573135, 0.08546749502420425, 0.01182958111166954, -0.08025939017534256, 
0.02592335268855095, 0.004838784225285053, -0.03667502477765083, 0.03211680427193642, -0.01733967661857605, -0.06664484739303589, -0.03979390114545822, 
-0.044269438832998276, 0.08385635912418365, 0.0186000969260931, 0.07552952319383621, -0.06331536918878555, -0.08353785425424576, -0.009117764420807362, 
0.009191926568746567, -0.004765945021063089, -0.008209606632590294, 0.07331877201795578, 0.0883299708366394, 0.04601839557290077, 0.04071853682398796, 
0.055819276720285416, 0.0600997656583786, 0.0426490418612957, -0.021714389324188232, 0.07350271195173264, -0.083240807056427, -0.028602100908756256, 
-0.05255933478474617, -0.026491060853004456, 0.07485348731279373, -0.018491212278604507, 0.01624096930027008, -0.03298427537083626, -0.02934776432812214, 
-0.06294833868741989, -0.029640043154358864, -0.06746246665716171, 0.08010216802358627, 0.0392439030110836, -0.06089166924357414, 0.014807994477450848, 
0.0558849535882473, 0.07935943454504013, -0.03829260542988777, 0.044863346964120865, 0.07813228666782379, -0.0268997922539711, 0.06718867272138596, 
-0.06322508305311203, -0.021188581362366676, -0.072750523686409, 0.03958423435688019, -0.07032156735658646, -0.043037910014390945, -0.05248076468706131, 
-0.0837894156575203, 0.06298847496509552, -0.07955408096313477, 0.0016349251382052898, 0.07868403196334839, 0.038030460476875305, 0.04184742271900177, 
0.06460060924291611, 0.022804291918873787, 0.08047635108232498, -0.039145760238170624, 0.08610408008098602, -0.06787822395563126, -0.023483650758862495, 
-0.04690927639603615, -0.04591144993901253, 0.06747902929782867, -4.018597974209115e-05, 0.008661115542054176, -0.04395299404859543, -0.014963049441576004, 
-0.05018514394760132, -0.07603752613067627, 0.05285516008734703, -0.023001087829470634, -0.041528210043907166, 0.018261177465319633, 0.014933750033378601, 
-0.07944303750991821, 0.007608416490256786, -0.03474913910031319, -0.06661730259656906, -0.0014523519203066826, 0.06298761069774628, -0.05820177495479584, 
-0.05229078605771065, -0.004632065072655678, -0.019765378907322884, -0.045211076736450195, -0.08034015446901321, 0.062010373920202255, -0.05369652062654495, 
-0.052033279091119766, 0.05119740217924118, -0.0573836974799633, 0.06376557052135468, 0.012876546941697598, -0.08814273774623871, 0.07648260146379471, 
-0.0009166476665996015, -0.018433846533298492, -0.03557424247264862, 0.012049914337694645, 0.013174628838896751, 0.033044733107089996, -0.018842941150069237, 
0.08210235089063644, -0.051608793437480927, -0.009454788640141487, -0.049940016120672226, -0.0584130622446537, 0.032869212329387665, -0.08723241090774536, 
-0.019921787083148956, 0.06477782875299454, 0.07840514928102493, -0.012427065521478653, 0.0756499320268631, -0.03456469997763634, -0.08493520319461823, 
-0.010277600027620792, -0.08405296504497528, -0.027798209339380264, -0.002957651624456048, -0.017874469980597496, 0.05877663940191269, 0.07637791335582733, 
0.029060423374176025, -0.015893923118710518, -0.07804370671510696, -0.06329640001058578, 0.012392082251608372, 0.007374862674623728, -0.056168317794799805, 
-0.00041563870036043227, -0.03445669636130333, -0.0827903151512146, 0.06276744604110718, 0.06698945164680481, 0.05885462462902069, -0.03574088215827942, 
-0.06389891356229782, 0.03160456195473671, -0.024624167010188103, -0.06578288227319717, -0.02294229343533516, -0.050403252243995667, 0.07630360126495361, 
0.08026297390460968, -0.014153470285236835, 0.04406937584280968, 0.038210831582546234, 0.07296215742826462, -0.057374440133571625, 0.04779594764113426, 
-0.0005811144947074354, 0.043484676629304886, -0.0188400000333786, -0.009734142571687698, 0.04796832054853439, 0.03219757601618767, -0.013958043418824673, 
-0.01060791127383709, 0.06675897538661957, 0.05179291591048241, 0.07960575073957443, 0.07431817054748535, 0.04543931037187576, 0.07352958619594574, 
-0.0603618398308754, -0.015161499381065369, -0.08074256777763367, -0.056798629462718964, 0.04225517064332962, 0.08030738681554794, -0.022747909650206566, 
-0.01580214686691761, 0.04743020609021187, 0.06908119469881058, 0.04613100364804268, 0.06158995255827904, 0.01623702421784401, -0.003442333312705159, 
0.0011718978639692068, -0.08109172433614731, -0.07796961069107056, 0.07460599392652512, -0.041228003799915314, -0.0008550046477466822, -0.008282266557216644, 
0.018131518736481667, 0.08268676698207855, -0.04825235903263092, 0.06542125344276428, 0.0042797876521945, -0.0403037890791893, 0.004937249235808849, 
-0.06096833571791649, -0.05889091640710831, 0.07635832577943802, 0.05089108645915985, -0.04629504308104515, 0.052033115178346634, -0.048768360167741776, 
-0.004475208465009928, -0.04805905371904373, 0.0455719456076622, 0.04956737533211708, 0.04803146421909332, -0.07741882652044296, -0.07887937128543854, 
0.009550243616104126, -0.039358776062726974, 0.024016370996832848, 0.06356199830770493, -0.047800078988075256, -0.06436508893966675, -0.0070213139988482, 
-0.06684848666191101, -0.08588742464780807, 0.014219466596841812, -0.008806838653981686, 0.05219396576285362, 0.06349897384643555, -0.005180490668863058, 
-0.08352100849151611, -0.03478803113102913, 0.07182708382606506, -0.07528076320886612, 0.023600731045007706, -0.051846690475940704, 0.04328084737062454, 
-0.03874678537249565, 0.03214416652917862, 0.02460951916873455, -0.004553497303277254, 0.03406515344977379, -0.031270384788513184, -0.0837303027510643, 
0.045057352632284164, 0.008371289819478989, -0.013097444549202919, -0.05724066123366356, 0.018824035301804543, -0.06136699020862579, -0.07335087656974792, 
-0.08533942699432373, -0.08314616233110428, -0.07196810096502304, 0.050054047256708145, 0.04292939603328705, 0.008031160570681095, 0.03502462059259415, 
-0.051093827933073044, 0.0504867285490036, -0.04304782301187515, -0.08805911988019943, -0.020983077585697174, -0.003996553830802441, 0.08227177709341049, 
-0.031139319762587547, 0.05380500853061676, -0.01622300036251545, 0.057949475944042206, -0.07529188692569733, 0.07483255863189697, -0.010726915672421455, 
-0.04153880104422569, -0.029434511438012123, 0.061434973031282425, -0.05000826343894005, -0.06019746512174606, -0.0753319039940834, -0.06041857600212097, 
0.027929216623306274, -0.061947051435709, -0.08139669895172119, -0.08737653493881226, 0.05418810248374939, 0.02250763215124607, -0.08125593513250351, 
-0.017503907904028893, -0.0027998897712677717, 0.07204291224479675, 0.028352389112114906, -0.050453878939151764, -0.05671415477991104, -0.07028895616531372, 
0.027005182579159737, 0.0389254055917263, 0.087600477039814, 0.028315803036093712, -0.03406720981001854, -0.023564327508211136, -0.03236216679215431, 
-0.005233134608715773, -0.04877156391739845, 0.07661008089780807, -0.055719465017318726, -0.07945998013019562, -0.035568781197071075, -0.037728775292634964, 
0.06010577082633972, 0.06564640998840332, 0.0035450991708785295, -0.0721028596162796, -0.02797519415616989, 0.051163770258426666, -0.0489254854619503, 
0.08707015961408615, -0.01074962317943573, 0.017979035153985023, -0.0799376368522644, -0.07871294021606445, -0.038824599236249924, -0.06839219480752945, 
-0.03489602729678154, 0.022550785914063454, -0.02294471301138401, -0.08141104131937027, 0.08277199417352676, 0.08253271132707596, -0.07261031866073608, 
-0.0188263151794672, -0.043748047202825546, -0.012348605319857597, -0.08054763823747635, -0.025348059833049774, -0.030128546059131622, -0.02600761689245701, 
0.05927804112434387, 0.007388103753328323, -0.009703390300273895, -0.07703158259391785, -0.05666371434926987, 0.027444588020443916, 0.011841527186334133, 
-0.0072044371627271175, 0.008791501633822918, -0.023525312542915344, -0.016211867332458496, -0.0657002180814743, -0.07644093781709671, 0.03466698154807091, 
0.05978101119399071, 0.027013566344976425, -0.03439845144748688, -0.04278359189629555, 0.01631290465593338, 0.0008175618131645024, -0.07915780693292618, 
0.05244090035557747, -0.05984397232532501, -0.04612509533762932, -0.02392105758190155, 0.07566973567008972, 0.025877010077238083, -0.05432987958192825, 
0.04033480957150459, -0.05394798144698143, -0.0681716650724411, 0.07612567394971848, -0.008656100369989872, 0.041643835604190826, 0.01932549476623535, 
-0.03208202123641968, -0.06414536386728287, -0.008462678641080856, 0.04476957023143768, 0.010794976726174355, -0.031926970928907394, 0.02858397364616394, 
-0.07579227536916733, -0.060669586062431335, -0.02771855890750885, -0.08474716544151306, -0.019864674657583237, -0.033526234328746796, -0.06639621406793594, 
-0.025096222758293152, 0.008495102636516094, 0.04865084961056709, -0.019465479999780655, -0.0009564225911162794, 0.0014709491515532136, 0.016174910590052605, 
0.004242597613483667, -0.06235664710402489, 0.08502187579870224, -0.06543032824993134, -0.021696116775274277, 0.0521402470767498, -0.050124671310186386, 
0.04246533289551735, -0.04120097681879997, -0.07528851181268692, -0.07979091256856918, -0.0473310649394989, 0.08571718633174896, -0.04337014630436897, 
0.03819091618061066, 0.054300643503665924, 0.06041073054075241, 0.001117462175898254, -0.03826013579964638, -0.024724137037992477, -0.053407710045576096, 
0.04443942755460739, 0.08496847003698349, -0.06610529124736786, 0.07383517175912857, -0.0064696636982262135, -0.08345258980989456, -0.006035205442458391, 
-0.005046225618571043, -0.01491057313978672, 0.027751294896006584, -0.020164426416158676, 0.00863712653517723, -0.08056601881980896, -0.028087103739380836, 
0.021800369024276733, -0.07237818092107773, -0.05537595599889755, 0.005158207379281521, 0.018261296674609184, -0.053224802017211914, 0.047200337052345276, 
-0.05967823043465614, 0.0031696981750428677, 0.08164609223604202, -0.08494774997234344, 0.0811750516295433, -0.03743724524974823, -0.06819844245910645, 
-0.004566334653645754, -0.002046598121523857, 0.03982457518577576, 0.029653029516339302, 0.08549004793167114, 0.07255541533231735, 0.05291800945997238, 
-0.04801938682794571, -0.08574967831373215, 0.02859286405146122, -0.06238884851336479, 0.007318416610360146, 0.04406427964568138, -0.020867086946964264, 
0.024097690358757973, 0.06811624020338058, 0.07915384322404861, 0.0363115556538105, 0.05090487375855446, 0.05673586204648018, 0.0009212864097207785, 
-0.02888052724301815, 0.03606538474559784, 0.0431925430893898, -0.015815742313861847, 0.06287452578544617, -0.05238417536020279, 0.016838159412145615, 
0.06579796224832535, -0.03313085436820984, 0.07551595568656921, -0.0021860506385564804, 0.04491475597023964, 0.07312148064374924, -0.05310697853565216, 
0.0756101906299591, -0.0522272065281868, -0.06895666569471359, 0.016805315390229225, 0.0025648807641118765, -0.011727359145879745, -0.07333910465240479, 
-0.013754828833043575, 0.020790178328752518, 0.03285345435142517, -0.08369529247283936, 0.06460461765527725, -0.02248726598918438, 0.012567088007926941, 
-0.06613542139530182, 0.08398747444152832, -0.049833185970783234, 0.0260789692401886, 0.07670515030622482, -0.07880993187427521, -0.07328996062278748, 
-0.014280476607382298, -0.047127410769462585, -0.04431286081671715, -0.06393679231405258, -0.005165069364011288, -0.08593811094760895, -0.0029252024833112955, 
-0.05518406629562378, -0.07403707504272461, -0.06878586113452911, 0.012299470603466034, -0.026473499834537506, 0.023246049880981445, -0.04457152634859085, 
-0.028952566906809807, 0.021927885711193085, -0.03688720241189003, 0.05946941673755646, -0.055566973984241486, -0.07684269547462463, -0.013889274559915066, 
0.008825497701764107, -9.818291800911538e-06, 0.005367882549762726, 0.002247187774628401, 0.0004936899058520794, -0.03808988258242607, -0.06803750991821289, 
0.06108003482222557, 0.07440419495105743, -0.051143828779459, 0.03495798259973526, 0.015750443562865257, -0.0858309417963028, 0.07245040684938431, 
-0.04720848798751831, -0.02821052074432373, -0.06974519789218903, 0.07163016498088837, -0.013934291899204254, -0.03329386189579964, -0.01006252784281969, 
-0.04545149952173233, 0.004570282530039549, 0.05718908831477165, -0.008222301490604877, 0.051883514970541, -0.020423736423254013, 0.03539884835481644, 
-0.0231315940618515, -0.06999479234218597, 0.05267643928527832, 0.04034745320677757, 0.03653372824192047, 0.06738723069429398, -0.07532603293657303, 
0.029058558866381645, -0.01968589425086975, 0.02802215702831745, 0.028091253712773323, 0.0387120358645916, 0.07227461040019989, 0.0597473680973053, 
0.008507132530212402, 0.0782165378332138, -0.02990296110510826, 0.062326621264219284, 0.08452384173870087, -0.03859587386250496, -0.03854922205209732, 
0.041265662759542465, -0.03840237110853195, -0.03665503114461899, -0.07358670234680176, 0.07474305480718613, 0.050925496965646744, -0.041720882058143616, 
0.009502691216766834, 0.0827171802520752, -0.07291542738676071, 0.07206299901008606, 0.03382377326488495, -0.030332138761878014, 0.0647028386592865, 
0.06280869990587234, 0.055818215012550354, -0.07032500207424164, 0.009309005923569202, 0.013044069521129131, 0.07772795855998993, -0.06313332170248032, 
-0.04164610803127289, -0.07850272208452225, -0.006668595597147942, -0.04984951391816139, 0.027813391759991646, -0.056993741542100906, 0.024710973724722862, 
0.04639415070414543, 0.013808253221213818, 0.04495154321193695, 0.034928105771541595, -0.06784730404615402, 0.08596014231443405, 0.07520538568496704, 
0.08407598733901978, -0.0002608808281365782, -0.04653850942850113, -0.04997123032808304, -0.033775217831134796, 0.014065345749258995, 0.028241155669093132, 
0.07819212228059769, -0.06884028762578964, -0.07091039419174194, 0.06376795470714569, -0.07483544200658798, -0.03479288890957832, 0.07811319082975388, 
0.020571749657392502, 0.08482559770345688, 0.050638582557439804, 0.025824958458542824, 0.0759793296456337, -0.08419903367757797, 0.08697081357240677, 
-0.007822375744581223, -0.004775402136147022, 0.023189568892121315, -0.007215933408588171, -0.01853269152343273, 0.024276720359921455, 0.016266265884041786, 
-0.00988766085356474, -0.023890910670161247, 0.020539721474051476, -0.05103703588247299, 0.008149771019816399, 0.08129187673330307, -0.06081659346818924, 
-0.019559921696782112, -0.06327076256275177, -0.042413197457790375, -0.040655042976140976, 0.04244131222367287, -0.07376247644424438, -0.052943479269742966, 
0.02491619437932968, -0.045959968119859695, -0.02285141684114933, -0.0738476887345314, -0.06275264173746109, 0.07156895101070404, 0.05608178302645683, 
-0.0691102147102356, 0.051728755235672, 0.059824634343385696, 0.02743837796151638, -0.0054715177975595, 0.06640474498271942, 0.017272356897592545, 
-0.04979078471660614, -0.055970024317502975, 0.0569988414645195, 0.0037919427268207073, -0.004807258956134319, 0.06493157893419266, -0.04592650383710861, 
-0.031775109469890594, 0.0050672246143221855, 0.04391360655426979, -0.07609175145626068, 0.05293358862400055, -0.04361841455101967, 0.05448812618851662, 
-0.014127865433692932, 0.0239529050886631, 0.08122387528419495, -0.05629584565758705, 0.019768189638853073, 0.05240777134895325, 0.07331773638725281, 
-0.08794587105512619, -0.03103414550423622, 0.06618434935808182, -0.05513940751552582, -0.03578157350420952, 0.03524992987513542, 0.036112647503614426, 
0.06571682542562485, 0.03568985313177109, 0.0865258127450943, -0.003333370666950941, 0.08160493522882462, -0.0050605544820427895, 0.05300511419773102, 
0.02961624599993229, 0.006186265964061022, -0.01355725433677435, 0.06885580718517303, 0.072503462433815, 0.03072970174252987, 0.004800884053111076, 
-0.020195551216602325, -0.07414506375789642, -0.0725947842001915, -0.05344304442405701, 0.082908496260643, 0.047302402555942535, 0.03103918582201004, 
-0.04546656459569931, -0.057941704988479614, 0.003855818882584572, -0.05313565209507942, -0.05719016492366791, 0.08439502120018005, -0.07658243179321289, 
0.07187234610319138, 0.06128415837883949, 0.058802008628845215, -0.029602089896798134, -0.07865800708532333, -0.030909670516848564, 0.07485336810350418, 
0.05150975286960602, -0.06449969857931137, -0.0067509859800338745, -0.06578028947114944, 0.06041748821735382, -0.06940159201622009, 0.057268861681222916, 
0.051809947937726974, 0.06901738792657852, -0.06807321310043335, -0.07360000163316727, -0.07748907059431076, -0.04615231603384018, -0.02219606190919876, 
-0.08091136813163757, 0.025934236124157906, 0.05334234982728958, 0.0847489982843399, -0.04483698680996895, 0.0032247952185571194, -0.05437367409467697, 
0.043208807706832886, 0.03272460028529167, -0.061787914484739304, 0.018765563145279884, 0.04979190602898598, 0.009476158767938614, -0.0192376971244812, 
-0.05792485177516937, -0.06230171397328377, -0.014862715266644955, 0.026465406641364098, 0.07409404963254929, -0.051012180745601654, -0.03767383471131325, 
-0.07735984027385712, -0.0001577674556756392, 0.05336856469511986, -0.04659074917435646, -0.01885976642370224, -0.017247140407562256, 0.003619041061028838, 
-0.07423755526542664, 0.03411343693733215, 0.03436911851167679, -0.05347153916954994, 0.06806768476963043, 0.03344825655221939, -0.016012031584978104, 
0.019123457372188568, -0.02495862916111946, 0.008133712224662304, 0.048928022384643555, -0.0646541640162468, -0.01862231083214283, 0.06335446983575821, 
-0.0496385432779789, 0.06453544646501541, -0.018040984869003296, -0.001832049572840333, -0.008997493423521519, -0.08740358054637909, 0.020464874804019928, 
-0.08348383754491806, -0.0034723100252449512, -0.025262637063860893, 0.016725711524486542, -0.02886086329817772, -0.012816554866731167, 0.047309886664152145, 
-0.08275910466909409, 0.01982642151415348, 0.012623262591660023, -0.006317665334790945, 0.02403387613594532, -0.05811966955661774, 0.0841151624917984, 
-0.018912410363554955, -0.05867817997932434, -0.08456537872552872, 0.06919844448566437, -0.046318307518959045, 0.05792362242937088, 0.022734984755516052, 
0.04165438190102577, 0.011166727170348167, 0.04902323707938194, 0.019178491085767746, 0.02420945093035698, -0.0077269310131669044, -0.005993220489472151, 
-0.0025852140970528126, 0.07880432158708572, 0.06849473714828491, -0.021263081580400467, -0.008517298847436905, -0.06376121938228607, 0.08251427859067917, 
0.0684947595000267, 0.038449060171842575, 0.0725153386592865, 0.060849878937006, -0.06513094902038574, -0.07695972919464111, -0.0779198631644249, 
-0.04562002420425415, -0.01664915680885315, 0.001914389431476593, 0.07229539752006531, 0.0322408527135849, -0.03638262674212456, -0.06013549491763115, 
-0.021142661571502686, -0.06860479712486267, 0.025544699281454086, 0.0714828297495842, 0.0844111293554306, -0.08319135010242462, 0.022663725540041924, 
0.012252307496964931, -0.03614829480648041, -0.032961346209049225, 0.01582396775484085, 0.018924999982118607, -0.039859846234321594, -0.04788287356495857, 
-0.07315800338983536, 0.06832321733236313, 0.03810666501522064, 0.02949851006269455, -0.0685667097568512, 0.06632235646247864, 0.02269868366420269, 
-0.03667532652616501, 0.019020814448595047, 0.0399307906627655, -0.0577385351061821, -0.018948787823319435, 0.03126693516969681, 0.026216669008135796, 
-0.08250068128108978, -0.05546637997031212, -0.07575836032629013, -0.03207806497812271, 0.05333269387483597, -0.07828773558139801, 0.013633212074637413, 
-0.02192237600684166, -0.025580527260899544, -0.004579225555062294, 0.04927961155772209, 0.06931193172931671, 0.04563252627849579, 0.08327250182628632, 
-0.0007280619465745986, 0.031457602977752686, 0.05125400424003601, 0.031215202063322067, -0.031070658937096596, -0.027469759806990623, -0.040842898190021515, 
0.03914216533303261, -0.07389900088310242, 0.04709894210100174, 0.02370021492242813, 0.025613494217395782, 0.05650574713945389, -0.0074302940629422665, 
-0.004701060242950916, -0.0427018404006958, -0.033911507576704025, -0.04006441682577133, 0.011911353096365929, -0.07491528987884521, -0.06667893379926682, 
0.011325539089739323, -0.003905845107510686, -0.014080398716032505, -0.038529835641384125, -0.05315323546528816, -0.056097060441970825, 0.013426380231976509, 
0.036555226892232895, 0.014737690798938274, 0.01695224829018116, 0.08099500834941864, 0.08575011789798737, -0.06759603321552277, 0.029184967279434204, 
0.01633274182677269, -0.0868377685546875, -0.02346963994204998, 0.0543653778731823, -0.017031360417604446, -0.0258400309830904, 0.0722595825791359, 
0.029271520674228668, 0.0859457328915596, 0.08551906794309616, -0.004945531487464905, -0.04794536158442497, 0.00030192520353011787, -0.056116364896297455, 
0.07164838165044785, 0.021778378635644913, 0.03532817214727402, -0.046585582196712494, 0.03678812086582184, -0.06547312438488007, 0.0055671255104243755, 
0.07139594852924347, -0.08506771177053452, -0.007844150066375732, -0.04176480695605278, 0.054762378334999084, 0.05105665326118469, -0.0063598379492759705, 
0.02411874756217003, -0.03457726910710335, 0.04379903897643089, 0.008411255665123463, 0.04320205748081207, -0.06911047548055649, -0.003225194988772273, 
-0.044616129249334335, -0.01917906478047371, -0.030179161578416824, 0.07921327650547028, 0.010511236265301704, -0.047226715832948685, -0.045308832079172134, 
-0.06019381061196327, 0.07503736764192581, 0.004852325655519962, -0.009804596193134785, -0.023985091596841812, 0.0712570771574974, 0.0036970158107578754, 
0.022041866555809975, -0.011228630319237709, 0.06694017350673676, -0.07793707400560379, 0.05756790563464165, -0.05226638540625572, -0.07381264120340347, 
0.03089078515768051, -0.06182880699634552, 0.04621167853474617, -0.07090829312801361, 0.05758658051490784, 0.03267481178045273, -0.06425977498292923, 
-0.07617004215717316, -0.016222277656197548, -0.007166274823248386, 0.04111209884285927, 0.06293579190969467, 0.07066518813371658, -0.04321766644716263, 
0.050530482083559036, 0.0877261832356453, -0.002252318663522601, -0.07489121705293655, 0.08526139706373215, 0.010166994296014309, 0.037304412573575974, 
-0.013407387770712376, -0.0585956834256649, -0.04918673634529114, 0.049351319670677185, -0.05347997322678566, -0.06495051085948944, 0.04834491387009621, 
-0.0038979551754891872, 0.027148745954036713, -0.06033632159233093, 0.07977012544870377, 0.03275023028254509, -0.04269510880112648, -0.00512065552175045, 
0.03474728390574455, -0.02545228973031044, -0.05770460143685341, -0.05391315370798111, 0.06078193336725235, -0.0721704512834549, -0.02721461094915867, 
-0.07751473784446716, -0.013725954107940197, 0.04227149114012718, 0.04255281388759613, -0.07116957008838654, 0.05496199056506157, -0.061523422598838806, 
-0.04127756506204605, 0.013444775715470314, 0.003777231089770794, -0.024251235648989677, -0.07929109781980515, 0.058917086571455, 0.04642389714717865, 
-0.06295264512300491, -0.06827544420957565, 0.08722231537103653, -0.07558263838291168, 0.0012912142556160688, 0.054398346692323685, -0.009652440436184406, 
-0.023830749094486237, 0.045182935893535614, -0.03877705708146095, -0.010273950174450874, -0.07923250645399094, 0.001893386128358543, 0.009005834348499775, 
-0.007639856543391943, -0.04332408308982849, 0.039766084402799606, 0.06300599873065948, 0.024918507784605026, -0.060260482132434845, -0.015841517597436905, 
0.012155663222074509, -0.0751536563038826, 0.009526302106678486, 0.05262862518429756, 0.023988544940948486, 0.034882113337516785, -0.025211025029420853, 
-0.025504959747195244, -0.08505327999591827, -0.07143787294626236, 0.08826541900634766, -0.06902525573968887, -0.020261021330952644, 0.01963144540786743, 
-0.0703771635890007, -0.01974450796842575, -0.026077046990394592, -0.041789062321186066, 0.0725659728050232, -0.053428176790475845, 0.08663704246282578, 
-0.01080159842967987, -0.012327526696026325, 0.07929074019193649, 0.008195474743843079, -0.040047768503427505, 0.03576860576868057, 0.025199295952916145, 
0.06862939894199371, -0.005285901017487049, 0.004446269944310188, 0.062150515615940094, -0.012344349175691605, 0.05903485789895058, 0.02256457693874836, 
-0.0555780790746212, 0.02594963274896145, -0.05078301578760147, 0.04337345063686371, 0.03786708042025566, 0.07585422694683075, 0.05495969578623772, 
-0.07775867730379105, -0.027135709300637245, 0.036023855209350586, 0.023654436692595482, 0.0874151661992073, -0.07539959996938705, 0.013675032183527946, 
-0.043056633323431015, 0.06424856930971146, 0.060317762196063995, 0.022291511297225952, 0.026029393076896667, -0.039926331490278244, -0.018364720046520233, 
0.007147412747144699, -0.08475206792354584, -0.048014625906944275, -0.011476213112473488, -0.06884849071502686, 0.07727348059415817, -0.07328707724809647, 
-0.038026224821805954, -0.06431490927934647, -0.02455167844891548, -0.06777498126029968, 0.031033968552947044, -0.05650514364242554, -0.038987766951322556, 
-0.054583415389060974, -0.054745566099882126, 0.066852867603302, -0.06198720261454582, -0.05034692957997322, 0.06785452365875244, 0.043308377265930176, 
-0.017849603667855263, 0.010914438404142857, 0.009729461744427681, -0.07411274313926697, 0.03732897341251373, 0.0036132114473730326, -0.07650476694107056, 
-0.021891625598073006, -0.06341942399740219, -0.027850838378071785, -0.04797789454460144, 0.0003353367210365832, -0.06384997814893723, 0.08441010117530823, 
-0.005821387283504009, -0.03624098375439644, -0.045882560312747955, 0.02786719799041748, 0.0225073155015707, -0.08546271920204163, 0.02010883018374443, 
0.009979663416743279, 0.08447816222906113, -0.038883015513420105, -0.07286186516284943, 0.07273124158382416, 0.04303470253944397, 0.0653085708618164, 
-0.016124702990055084, -0.01043689250946045, -0.08590593934059143, -0.06956501305103302, -0.08743543922901154, -0.07353930920362473, -0.041175343096256256, 
-0.01943301036953926, -0.00203165621496737, -0.07551003247499466, 0.06980760395526886, 0.00616847351193428, -0.012735798954963684, -0.050831325352191925, 
-0.024826552718877792, -0.030011076480150223, 0.006990701891481876, 0.08133959770202637, -0.08272521942853928, -0.06753717362880707, 0.04729926958680153, 
-0.05176349729299545, -0.02518204040825367, -0.06740310043096542, 0.06689723581075668, 0.023709317669272423, 0.05083007737994194, 0.08771727979183197, 
-0.08416742086410522, 0.06444849818944931, 0.053411588072776794, 0.07184697687625885, -0.08091266453266144, -0.03511083498597145, -0.03951290249824524, 
-0.07419241964817047, 0.05358804389834404, -0.01753690466284752, 0.060711998492479324, -0.025589048862457275, 0.05139123275876045, 0.012770522385835648, 
0.010101721622049809, -0.031914062798023224, -0.013992233201861382, 0.019138213247060776, 0.03186400607228279, -0.012643472291529179, 0.0010179742239415646, 
0.08844387531280518, -0.015752097591757774, 0.08371223509311676, -0.03767503798007965, 0.04730498418211937, -0.03600974380970001, -0.08133743703365326, 
-0.03289391100406647, -0.05167398229241371, 0.07440248876810074, 0.07238074392080307, 0.016365446150302887, 0.06893347203731537, -0.04119627922773361, 
0.0171375535428524, 0.04775168374180794, -0.03396106883883476, -0.05678253993391991, -0.00930612999945879, -0.013545773923397064, -0.05659693107008934, 
-0.06146300956606865, 3.901401214534417e-05, -0.03428472951054573, 0.02376365289092064, 0.05739995092153549, 0.05204171687364578, -0.0010455877054482698, 
0.02659429796040058, -0.07579556107521057, 0.057649239897727966, 0.07161429524421692, -0.07014962285757065, 0.08309731632471085, -0.026225294917821884, 
0.0038396127056330442, 0.054146215319633484, 0.042772840708494186, 0.08844831585884094, 0.0790724977850914, 0.022476179525256157, 0.007144611328840256, 
0.014452699571847916, 0.0016489594709128141, 0.08577476441860199, 0.012125784531235695, 0.05010678246617317, -0.03332903981208801, -0.05904680863022804, 
0.05662292614579201, 0.02528809756040573, 0.07953160256147385, 0.08781075477600098, 0.015177877619862556, -0.08354465663433075, -0.06978412717580795, 
0.05937200412154198, -0.01342924777418375, 0.03572468459606171, -0.05466648191213608, 0.060238856822252274, 0.08639658242464066, -0.025414826348423958, 
-0.05478315427899361, 0.053453586995601654, 0.04442973807454109, -0.08756060153245926, 0.030695689842104912, -0.0682218000292778, -0.035319335758686066, 
-0.013577696867287159, 0.08038599044084549, 0.056438885629177094, 0.04035581648349762, 0.0331895686686039, -0.08759016543626785, -0.02799072489142418, 
0.024973327293992043, -0.06310757249593735, 0.05317610129714012, -0.05959474295377731, 0.031017696484923363, 0.0747983455657959, 0.06239816173911095, 
-0.014822766184806824, 0.034042418003082275, -0.029988713562488556, 0.06719832122325897, 0.059136759489774704, 0.0326073057949543, -0.047487758100032806, 
-7.740015280432999e-05, -0.002316449536010623, 0.05242248997092247, -0.08319934457540512, 0.02362440899014473, -0.05288974940776825, -0.02993117831647396, 
0.041076820343732834, -0.0463426448404789, 0.07066705822944641, 0.06532923877239227, -0.04878133907914162, -0.060002125799655914, -0.02225547656416893, 
0.03358130529522896, 0.045591551810503006, 0.08503716439008713, 0.06802067160606384, -0.027994738891720772, -0.01291200052946806, -0.020044904202222824, 
-0.03785025328397751, 0.005656298249959946, -0.015470379963517189, -0.06035636365413666, -0.032708849757909775, 0.05473672226071358, 0.08814607560634613, 
-0.04060916602611542, -0.030110031366348267, -0.006712058559060097, 0.02001293934881687, -0.06242873892188072, 0.037578269839286804, -0.08147401362657547, 
-0.03659860044717789, -0.05336002632975578, 0.041869789361953735, 0.07244304567575455, -0.04236882925033569, 0.074857197701931, -0.012864276766777039, 
0.00999416783452034, -0.05844898149371147, 0.016953235492110252, -0.04413450509309769, -0.07112354785203934, -0.00966374110430479, 0.06039923056960106, 
-0.026128219440579414, 0.012161402963101864, -0.076870858669281, -0.00897988397628069, 0.028973747044801712, -0.03739487752318382, 0.016970636323094368, 
-0.05211802199482918, -0.045248277485370636, -0.013539504259824753, 0.06732320040464401, -0.014726853929460049, -0.0368957594037056, 0.03431837633252144, 
0.07382380217313766, 0.04175297170877457, -0.07682600617408752, 0.0564836785197258, 0.08766096830368042, -0.018872588872909546, -0.08740675449371338, 
-0.06153273582458496, -0.08193843066692352, 0.027062349021434784, 0.013645232655107975, -0.03997545316815376, 0.004306070040911436, -0.07124707847833633, 
-0.019309833645820618, -0.04311874881386757, -0.06690266728401184, 0.06512006372213364, 0.08243716508150101, -0.009094645269215107, 0.02165852300822735, 
-0.031662601977586746, -0.05271511897444725, -0.025709886103868484, -0.014561157673597336, 0.039355386048555374, -0.08444995433092117, 0.08620783686637878, 
-0.032187625765800476, -0.055133089423179626, 0.05284128338098526, 0.06659751385450363, 0.05514084920287132, -0.07919467240571976, 0.023567210882902145, 
0.012068421579897404, 0.046679023653268814, -0.08241462707519531, -0.02865622378885746, 0.015395830385386944, -0.016376670449972153, 0.06325993686914444, 
0.0668717548251152, 0.07807958126068115, 0.0249117910861969, 0.0585562065243721, -0.03495476767420769, -0.059094104915857315, -0.017852427437901497, 
-0.05107804760336876, 0.027846690267324448, -0.021147562190890312, 0.04986000433564186, -0.08261986821889877, 0.049187153577804565, 0.08204594999551773, 
0.06038743630051613, -0.02300948090851307, -0.051451005041599274, -0.036585014313459396, 0.03619446977972984, 0.028773507103323936, -0.06481614708900452, 
0.05050251632928848, 0.013943891040980816, -0.042390041053295135, 0.038806576281785965, -0.06885665655136108, 0.006887954659759998, 0.02632385864853859, 
0.011020556092262268, -0.011588548310101032, -0.047942373901605606, -0.03144603595137596, 0.0547853484749794, 0.0568753182888031, 0.07991840690374374, 
0.07881622761487961, -0.02775084413588047, 0.0048653907142579556, 0.03472211956977844, 0.013995422050356865, 0.061664216220378876, 0.08726682513952255, 
0.0401272214949131, -0.062652587890625, 0.014416007325053215, 0.058272119611501694, -0.022814245894551277, -0.054513003677129745, 0.05149214342236519, 
0.05462673678994179, -0.06621173769235611, 0.005507939960807562, 0.08575616031885147, -0.03027472458779812, -0.05855488404631615, 0.06890133023262024, 
-0.052092164754867554, -0.04005391150712967, 0.026323648169636726, -0.0860910713672638, 0.006469325162470341, 0.05835263431072235, 0.08751580119132996, 
0.0012658380437642336, -0.019841769710183144, -0.05773424729704857, -0.06394336372613907, -0.032886967062950134, 0.039027608931064606, 0.0233046505600214, 
0.059290021657943726, -0.04907914251089096, 0.08571267873048782, 0.03271692991256714, -0.027006808668375015, 0.021947773173451424, 0.08152776211500168, 
-0.014978914521634579, -0.04322684183716774, 0.05207827314734459, -0.03694680705666542, 0.026817064732313156, 0.06561533361673355, 0.03342025727033615, 
0.04243529215455055, -0.08851196616888046, 0.056292302906513214, 0.05711134895682335, -0.002621349645778537, 0.013092286884784698, 0.024088915437459946, 
0.07611377537250519, -0.03185670077800751, -0.07803517580032349, 0.044179853051900864, -0.03414652869105339, -0.011603868566453457, -0.023775754496455193, 
0.03860305994749069, 0.08492522686719894, 0.024115215986967087, -0.002116347895935178, 0.05166225880384445, -0.08379540592432022, -0.025532785803079605, 
-0.004157381132245064, -0.08529483526945114, -0.02306702733039856, 0.06880578398704529, -0.019604772329330444, 0.05838577076792717, 0.08395954221487045, 
-0.03495830297470093, -0.08695266395807266, 0.006498015020042658, 0.03549914434552193, 0.011605553328990936, -0.04696071520447731, -0.05860025808215141, 
-0.08546014875173569, 0.07682398706674576, -0.06805872172117233, -0.04810392111539841, 0.0746755450963974, 0.0334555059671402, 0.029214225709438324, 
-0.0017448284197598696, -0.015426038764417171, -0.06820487976074219, 0.031108109280467033, 0.059889473021030426, 0.021377291530370712, 0.016801884397864342, 
-0.08661606162786484, -0.00889350101351738, -0.05001694709062576, -0.05185474082827568, -0.049082085490226746, 0.05052952840924263, 0.026953822001814842, 
-0.05010312795639038, -0.08570104837417603, 0.021960340440273285, 0.038286637514829636, -0.051656320691108704, -0.05589419975876808, -0.05045902356505394, 
-0.032780036330223083, 0.007381354924291372, -0.08590704202651978, -0.04156247526407242, 0.005851332098245621, 0.06745702028274536, -0.03472046181559563, 
-0.06126348674297333, -0.08114397525787354, 0.01968676596879959, -0.07399851083755493, -0.0860278308391571, 0.051744408905506134, -0.006105303764343262, 
0.02700251154601574, -0.044801030308008194, -0.06444089859724045, 0.0028915645089000463, 0.006804179400205612, -0.03975510224699974, -0.0182369165122509, 
0.0776991918683052, 0.02364235743880272, -0.017721593379974365, -0.023973148316144943, -0.06733729690313339, -0.0011476794024929404, -0.02760237827897072, 
-0.07501106709241867, -0.08836423605680466, -0.0686141699552536, -0.08597110956907272, -0.024040432646870613, 0.06088162213563919, -0.004448934458196163, 
0.04829425364732742, 0.04130897670984268, -0.057986967265605927, 0.019517691805958748, 0.0314469039440155, -0.06319347023963928, -0.03147980943322182, 
0.013722161762416363, 0.06964090466499329, -0.05254390090703964, 0.06731928139925003, -0.035170093178749084, 0.015529727563261986, 0.0013444009236991405, 
-0.04248686507344246, -0.06117065250873566, -0.0811118632555008, 0.05513126775622368, -0.03511893004179001, -0.01232956163585186, 0.004920494742691517, 
-0.04843081533908844, 0.056261006742715836, -0.031169723719358444, 0.06872215121984482, -0.07988069206476212, -0.07867851108312607, 0.056656040251255035, 
-0.0644802451133728, -0.01140692736953497, -0.06819754093885422, 0.08077370375394821, -0.08366145938634872, -0.08046375960111618, 0.08404675126075745, 
-0.08386316150426865, 0.04420153424143791, -0.07961072772741318, -0.02497396059334278, 0.016064506024122238, -0.030857449397444725, -0.06544659286737442, 
0.01048346608877182, -0.04797312244772911, 0.008429235778748989, 0.011981364339590073, -0.0060855126939713955, -0.04369502142071724, -0.012414169497787952, 
-0.08730371296405792, 0.07433103770017624, 0.050739821046590805, -0.03221692517399788, -0.018480097874999046, -0.029593320563435555, -0.04620223864912987, 
-0.08676499128341675, -0.019824491813778877, 0.040606070309877396, -0.029376912862062454, 0.02558206021785736, 0.015121464617550373, 0.07957019656896591, 
0.03457745909690857, 0.08031341433525085, 0.07162588089704514, 0.058072298765182495, -0.03755021095275879, -0.06353351473808289, -0.02521401084959507, 
0.03157486394047737, 0.008377098478376865, 0.011206098832190037, 0.03556613624095917, 0.07593827694654465, -0.04834214597940445, -0.02545344829559326, 
-0.032542333006858826, 0.07021565735340118, 0.054051753133535385, 0.053641945123672485, -0.03071306087076664, -0.03796987608075142, -0.047982458025217056, 
-0.016736863180994987, -0.02001655288040638, 0.028106238692998886, 0.017776694148778915, 0.05859149992465973, -0.04039192199707031, -0.03407159820199013, 
0.023777073249220848, 0.03493654727935791, -0.022314518690109253, -0.01808755286037922, 0.08178972452878952, 0.038975391536951065, -0.022499224171042442, 
-0.001712049008347094, 0.0027266477700322866, 0.0028394039254635572, 0.051110442727804184, 0.04404101520776749, -0.012532168067991734, 0.04962422698736191, 
-0.04569023475050926, 0.022722411900758743, -0.07672755420207977, -0.01985149271786213, 0.0829494446516037, -0.02085157483816147, -0.015383548103272915, 
-0.08105288445949554, 0.026802603155374527, -0.04803384095430374, -0.0501849539577961, -0.08478464186191559, 0.03540252149105072, -0.066925548017025, 
0.007810589857399464, -0.07638365775346756, -0.011498521082103252, -0.020981498062610626, 0.05778096988797188, -0.07168636471033096, -0.08390618860721588, 
0.02788425423204899, 0.005836047697812319, 0.05799182131886482, 0.02808677963912487, -0.02101479098200798, -0.04341685771942139, 0.08365711569786072, 
0.029235519468784332, -0.025111276656389236, 0.009324531070888042, -0.04410327225923538, 0.017349641770124435, 0.0011567878536880016, -0.03418070450425148, 
-0.05589382350444794, 0.06876082718372345, -0.023233402520418167, -0.04710964858531952, 0.07425620406866074, -0.014747535809874535, -0.08471396565437317, 
0.01820032112300396, 0.0668826550245285, -0.0721038430929184, 0.03329102694988251, 0.01376948133111, -0.024384619668126106, -0.018634898588061333, 
-0.04676607623696327, -0.05740834400057793, -0.05614682286977768, 0.08656330406665802, -0.02641868032515049, -0.05351572483778, -0.06541849672794342, 
-0.01594638265669346, 0.08651811629533768, -0.002584183821454644, 0.07269949465990067, 0.08087283372879028, -0.027638942003250122, 0.028479408472776413, 
0.04000508412718773, 0.014209752902388573, 0.006966409273445606, 0.010661466978490353, -0.008011139929294586, -0.0780218169093132, 0.07272969186306, 
0.023639528080821037, -0.002239336259663105, 0.04361503943800926, -0.010220336727797985, -0.05865715071558952, -6.15201861364767e-05, -0.08688388764858246, 
0.05451114848256111, -0.06233101710677147, -0.046896956861019135, -0.025362001731991768, 0.0037774420343339443, -0.06620834022760391, -0.07632359862327576, 
-0.004458493087440729, 0.04392838850617409, -0.05098460614681244, 0.048302654176950455, -0.07506729662418365, -0.05195438861846924, 0.06952463090419769, 
-0.05451834574341774, 0.03645412251353264, -0.0011329432018101215, 0.03925222530961037, 0.04531662538647652, -0.07032088935375214, -0.0029638975393027067, 
0.04560394957661629, -0.021398387849330902, -0.08127041906118393, -0.0029300993774086237, 0.06850691139698029, -0.018767420202493668, -0.03033117577433586, 
-0.05521703511476517, 0.005941052921116352, 0.07606300711631775, 0.018719235435128212, -0.03521960228681564, 0.04170071333646774, -0.048763759434223175, 
0.04546179249882698, -0.06286776065826416, -0.06321899592876434, -0.06413430720567703, -0.04079412668943405, 0.07075411826372147, -0.07851215451955795, 
-0.07169195264577866, -0.08834746479988098, -0.029428523033857346, 0.05152051895856857, -0.05047401785850525, -0.03318144381046295, 0.02871236577630043, 
-0.009146211668848991, -0.022161008790135384, -0.08771321177482605, 0.04418695345520973, -0.016268493607640266, 0.021311502903699875, -0.044833794236183167, 
0.0501483716070652, 0.06597451865673065, 0.0206065122038126, -0.014481429010629654, 0.0679694265127182, 0.0848223939538002, 0.07351983338594437, 
-0.04917695000767708, 0.03741304948925972, -0.0018959160661324859, 0.025864873081445694, -0.019210955128073692, -0.039504874497652054, 0.05272527039051056, 
0.0757288709282875, -0.06473912298679352, 0.07767663896083832, 0.02647816762328148, -0.03332000970840454, -0.04176245257258415, -0.054073866456747055, 
-0.036255843937397, -0.03631720319390297, 0.035207755863666534, -0.013060387223958969, 0.06472629308700562, 0.005217080004513264, -0.064714714884758, 
-0.011795845814049244, -0.009785246104001999, 0.046039462089538574, 0.018210027366876602, 0.005471524782478809, 0.05055996775627136, -0.0027186081279069185, 
0.0656106024980545, -0.03917776793241501, -0.06841336190700531, 0.07842173427343369, 0.0376514308154583, 0.08466324955224991, 0.07796264439821243, 
-0.015001391060650349, 0.0017938939854502678, -0.017887627705931664, -0.06041138991713524, 0.06969336420297623, 0.08506328612565994, 0.011221703141927719, 
-0.05165819078683853, 0.08262961357831955, -0.009055916219949722, 0.03969812020659447, -0.06329671293497086, 0.06005324050784111, -0.006978209596127272, 
0.08851037919521332, 0.05301865562796593, -0.05481627583503723, -0.059909187257289886, -0.046711526811122894, 0.016229791566729546, -0.05622496083378792, 
0.03408290818333626, 0.07599357515573502, 0.014409772120416164, 0.03955679386854172, -0.0611690953373909, -0.0870308130979538, -0.025131050497293472, 
-0.04945912957191467, 0.06023987755179405, -0.06059486046433449, 0.012701252475380898, 0.010614599101245403, -0.06684786081314087, -0.044735077768564224, 
0.02811216376721859, -0.04105805233120918, -0.04082346707582474, -0.06189468130469322, 0.02351556532084942, -0.05280521884560585, -0.012816169299185276, 
-0.05518345534801483, -0.02742726542055607, 0.08200236409902573, -0.02651982568204403, -0.017356563359498978, 0.0759134590625763, 0.0475161038339138, 
-0.01608869805932045, 0.03942616656422615, 0.040957704186439514, 0.03832954913377762, -0.00656164949759841, -0.05854305624961853, 0.006819215137511492, 
0.031297773122787476, -0.05699009820818901, -0.004509720951318741, -0.055561475455760956, -0.0815349668264389, -0.022061321884393692, 0.0063422373495996, 
0.020567402243614197, -0.057274430990219116, -0.00889055710285902, 0.07837671041488647, -0.04271390289068222, 0.04503030329942703, -0.06597192585468292, 
0.04811407998204231, 0.064735047519207, -0.006373418029397726, 0.08529706299304962, 0.039368562400341034, 0.08630334585905075, 0.035209860652685165, 
-0.002885145368054509, -0.08153222501277924, 0.02503611333668232, -0.0849938839673996, 0.08129139244556427, 0.03198765963315964, 0.04385294020175934, 
0.06075739488005638, 0.08628514409065247, 0.06175520271062851, -0.03849048539996147, -0.07736576348543167, 0.08234722167253494, -0.0768401026725769, 
-0.024669505655765533, -0.07006046921014786, 0.05832945182919502, 0.033021312206983566, 0.03535277023911476, -0.017004186287522316, 0.01115469541400671, 
-0.009146258234977722, 0.08250070363283157, -0.0562470369040966, -0.06112731248140335, 0.032158512622117996, 0.07476837188005447, -0.051140107214450836, 
-0.058457933366298676, -0.029506435617804527, -0.012072908692061901, -0.08249381929636002, 0.07158264517784119, -0.04545409604907036, -0.050718069076538086, 
0.04338409751653671, 0.05136620253324509, 0.023123977705836296, 0.004389970563352108, 0.018273189663887024, 0.08347312361001968, -0.06710916012525558, 
-0.011424679309129715, -0.053139399737119675, -0.05760125815868378, -0.03840715065598488, -0.03552011027932167, -0.08327265828847885, 0.0002328766422579065, 
0.00481670256704092, -0.02497386746108532, -0.05480077117681503, -0.01788279600441456, 0.039585985243320465, -0.04155944660305977, -0.0643019899725914, 
0.06909383833408356, -0.011302616447210312, 0.05908501148223877, -0.04907352477312088, 0.016567816957831383, 0.025938907638192177, 0.021436313167214394, 
0.04964738339185715, 0.05860522389411926, -0.04564886912703514, 0.07751795649528503, -0.06698709726333618, 0.025285610929131508, -0.056768085807561874, 
0.045753560960292816, -0.06614451110363007, -0.027186475694179535, -0.0361289419233799, -0.08036497235298157, -0.0025420321617275476, -0.05924783647060394, 
-0.04388333112001419, -0.031574856489896774, 0.0318424254655838, 0.05025772750377655, -0.041581861674785614, 0.0050507402047514915, -0.06252207607030869, 
0.06460105627775192, 0.05858072638511658, 0.015532678924500942, 0.004112452268600464, 0.06002603471279144, 0.00944594293832779, 0.03096473217010498, 
0.06718987226486206, 0.06836500018835068, 0.07663647085428238, 0.041204456239938736, 0.009740899316966534, -0.013295591808855534, -0.083955779671669, 
0.0149198267608881, -0.06457272917032242, -0.05873528867959976, 0.0783921480178833, -0.02202257141470909, -0.030134886503219604, 0.01613675244152546, 
0.0032223835587501526, 0.040468621999025345, 0.05340556427836418, -0.0021175227593630552, 0.08461634069681168, -0.07593529671430588, 0.038095369935035706, 
-0.023485153913497925, -0.024689633399248123, 0.06905215978622437, -0.003094172803685069, 0.08734025061130524, -0.04680885002017021, 0.039846014231443405, 
-0.011119670234620571, -0.005564445164054632, 0.018132589757442474, 0.02168021723628044, -0.06581781059503555, -0.020705286413431168, -0.06083698570728302, 
0.07620708644390106, 0.04040423780679703, -0.059323836117982864, 0.0714261382818222, 0.030531028285622597, -0.0387556254863739, 0.03858746215701103, 
-0.07878255099058151, 0.04242576286196709, 0.07301881164312363, -0.06642040610313416, 0.0442766509950161, 0.0137111721560359, 0.019987013190984726, 
-0.06907892972230911, 0.08016080409288406, 0.03345349803566933, -0.061030853539705276, -0.08596642315387726, -0.05376976728439331, 0.008256270550191402, 
0.07609054446220398, 0.05742115154862404, 0.031686484813690186, 0.031431179493665695, 0.024359168484807014, 0.002699195174500346, 0.05755949392914772, 
0.031793154776096344, 0.0105876624584198, -0.027868147939443588, 0.04075716435909271, -0.03160867467522621, -0.07365129888057709, -0.01639188826084137, 
0.07575348019599915, 0.04740433767437935, 0.025549091398715973, 0.06917911767959595, 0.060023870319128036, -0.08681012690067291, 0.03503580018877983, 
0.045823127031326294, -0.08752375841140747, 0.043541133403778076, 0.06911251693964005, -0.0683179646730423, 0.008827258832752705, 0.056677062064409256, 
0.04301871359348297, 0.006180466152727604, -0.006020524073392153, 0.016883155331015587, 0.06081973761320114, -0.06240858510136604, -0.05112557113170624, 
0.035608354955911636, 0.0870395079255104, 0.0715467780828476, -0.057115308940410614, 0.02549448050558567, -0.01191655732691288, 0.028064949437975883, 
0.07466718554496765, 0.053028300404548645, -0.007405471056699753, -0.007009625900536776, 0.06437313556671143, -0.016885221004486084, 0.022677190601825714, 
-0.08677338063716888, 0.07398246228694916, -0.07352001965045929, 0.0514817051589489, -0.008963738568127155, -0.032600048929452896, 0.05958437919616699, 
-0.08106900006532669, -0.03483714535832405, -0.06132335588335991, 0.08412375301122665, 0.0628080815076828, 0.007014180067926645, -0.021763619035482407, 
-0.0025947089307010174, -0.0367618203163147, -0.07836151123046875, 0.03771967068314552, 0.047957003116607666, 0.012567476369440556, -0.021885722875595093, 
-0.06568820774555206, 0.008009010925889015, 0.011062361299991608, 0.03554194048047066, 0.008902177214622498, 0.01564374566078186, 0.018542323261499405, 
0.02414417453110218, -0.043866656720638275, -0.014611349441111088, 0.06309474259614944, -0.08351200073957443, -0.015293560922145844, 0.08606348931789398, 
0.03728821501135826, 0.01265944354236126, -0.06983426213264465, -0.0796489268541336, -0.08266881108283997, 0.012784015387296677, -0.009191993623971939, 
-0.016865666955709457, 0.08177296817302704, 0.0783340260386467, -0.034321125596761703, -0.08229828625917435, 0.05356444790959358, 0.06972700357437134, 
-0.06486081331968307, -0.036365266889333725, 0.017330314964056015, 0.041030075401067734, 0.07502783089876175, 0.00564957782626152, 0.01548792514950037, 
-0.039080534130334854, -0.004862472880631685, -0.05736640840768814, -0.04143755882978439, -0.01394511479884386, 0.005165287759155035, 0.035092905163764954, 
0.07434125244617462, 0.040840476751327515, -0.0858173817396164, -0.057955317199230194, 0.010055266320705414, -0.05772846192121506, 0.03650730103254318, 
-0.05443332716822624, -0.03263456001877785, -0.07991556078195572, -0.059455446898937225, 0.023685092106461525, -0.0427536815404892, -0.046428292989730835, 
0.07248176634311676, 0.011060724034905434, 0.07640258967876434, -0.05338677018880844, 0.018572796136140823, 0.044080574065446854, 0.05810696631669998, 
0.07495315372943878, 0.05536213517189026, -0.0020621255971491337, 0.009895739145576954, -0.0011967153986915946, -0.03725101798772812, -0.035918958485126495, 
-0.010745984502136707, -0.042303651571273804, 0.0626392588019371, 0.003992288839071989, 0.007779935374855995, -0.05609789863228798, 0.08576706796884537, 
-0.029191091656684875, -0.0068102809600532055, 0.0005090783233754337, 0.08548516035079956, -0.019060669466853142, 0.06162998080253601, -0.08213472366333008, 
-0.010461952537298203, -0.033593740314245224, 0.007824425585567951, 0.007316870614886284, -0.044635649770498276, -0.0434962622821331, -0.03288457915186882, 
-0.029144287109375, -0.03088141791522503, -0.08119611442089081, -0.009545943699777126, -0.08003934472799301, 0.03848324343562126, -0.07112424820661545, 
0.02554328553378582, -0.021584393456578255, -0.006608248688280582, 0.07242707163095474, -0.06332777440547943, -0.04538732022047043, -0.03805385157465935, 
0.018077177926898003, 0.03493250533938408, -0.05879102274775505, -0.011994508095085621, 0.0770137682557106, -0.06459727883338928, 0.010952947661280632, 
0.03099612519145012, 0.07039669156074524, -0.06114935502409935, -0.06051236018538475, 0.06517679244279861, 0.04826076328754425, -0.08207327872514725, 
0.07023986428976059, 0.06912000477313995, -0.07709504663944244, 0.08194521814584732, 0.059951458126306534, 0.0495343878865242, -0.023391636088490486, 
-0.07115093618631363, 0.07566433399915695, -0.08688091486692429, -0.06435567885637283, 0.0720129981637001, 0.04477836564183235, 0.0195990689098835, 
-0.014082612469792366, -0.08664954453706741, 0.004666806198656559, -0.04741429537534714, 0.07310926914215088, 0.016750752925872803, 0.03394700586795807, 
0.087306447327137, -0.0436364971101284, 0.008411524817347527, 0.061021171510219574, -0.008538708090782166, 0.0077237337827682495, -0.0826801285147667, 
0.005240273661911488, 0.0679127424955368, 0.04767260700464249, 0.03858240693807602, -0.04062506929039955, 0.026594486087560654, -0.020264053717255592, 
0.0650082528591156, -0.020610369741916656, 0.08030920475721359, 0.002990872599184513, -0.01928730122745037, -0.05809648707509041, -0.06424396485090256, 
0.05918622389435768, -0.06863060593605042, 0.08064939826726913, 0.009833645075559616, -0.004409495275467634, 0.0026155600789934397, 0.06879931688308716, 
-0.02599101886153221, 0.04574652761220932, -0.039864592254161835, -0.07154110819101334, 0.07864697277545929, -0.02551773004233837, 0.05834531784057617, 
-0.010154207237064838, 0.007539649493992329, -0.0015404804144054651, -0.0062047080136835575, 0.0696140006184578, 0.007575398311018944, 0.0873393639922142, 
0.017906775698065758, -0.0102605689316988, 0.021977871656417847, 0.05989370122551918, 0.022656641900539398, 0.016763510182499886, 0.063555508852005, 
-0.07103648036718369, 0.07441062480211258, 0.0844191387295723, 0.07727298885583878, -0.04912742227315903, -0.030759891495108604, 0.014669538475573063, 
-0.011231852695345879, -0.018081605434417725, 0.049209121614694595, 0.02101787179708481, 0.027415942400693893, -0.04280237853527069, 0.07105261832475662, 
-0.08380673080682755, 0.032547906041145325, -0.007627609185874462, -0.07816428691148758, 0.0531596839427948, -0.03844531625509262, 0.04198324680328369, 
-0.0850941613316536, 0.03175080567598343, 0.005724051501601934, -0.058418456465005875, -0.03353206813335419, -0.03981255367398262, -0.002097264165058732, 
0.024539876729249954, 0.005897636990994215, 0.05668724328279495, 0.005420340225100517, -0.07462582737207413, 0.06841854751110077, 0.06707918643951416, 
0.0001926105614984408, 0.022625822573900223, 0.04351106286048889, 0.027300750836730003, 0.003917850088328123, -0.004256541840732098, -0.072616808116436, 
-0.028618644922971725, -0.024613510817289352, -0.005766510497778654, 0.01922507770359516, -0.021474888548254967, 0.006203057244420052, -0.0004408803943078965, 
-0.061058226972818375, 0.08772668242454529, 0.021580159664154053, -0.07344762980937958, 0.0536588616669178, 0.026946811005473137, -0.008011449128389359, 
-0.02814863622188568, -0.056187134236097336, -0.0837097242474556, -0.08106372505426407, -0.057359710335731506, -0.04233546927571297, 0.05933611840009689, 
0.055298980325460434, 0.07777699083089828, 0.03745242953300476, 0.07491234689950943, -0.050641387701034546, 0.02707335539162159, 0.07670347392559052, 
-0.03731486573815346, 0.07203497737646103, 0.043204523622989655, -0.00596477510407567, -0.015138393267989159, -0.08685347437858582, -0.06038735806941986, 
0.005314938258379698, -0.012203579768538475, -0.08453989028930664, 0.05552804470062256, 0.0813334733247757, -0.05688663199543953, 0.027127373963594437, 
0.05048017203807831, 0.043530434370040894, 0.085959792137146, -0.06740770488977432, 0.005439302884042263, 0.0167680811136961, -0.032225653529167175, 
0.0431775227189064, 0.0831739604473114, 0.00021331393509171903, 0.009001203812658787, 0.06375136226415634, 0.0229775533080101, 0.05050366744399071, 
-0.002560317050665617, -0.001403636997565627, -0.008151447400450706, 0.05092263221740723, 0.018190570175647736, -0.08361104875802994, 0.06266918778419495, 
0.025014067068696022, 0.03892100602388382, 0.02734541706740856, -0.04745520278811455, -0.011775510385632515, -0.025376951321959496, 0.02037300355732441, 
0.07716765999794006, -0.040995366871356964, 0.010351917706429958, -0.08178558945655823, -0.01741800084710121, -0.057095933705568314, 0.01826642081141472, 
-0.023955458775162697, 0.0853799507021904, 0.0461677648127079, 0.07457490265369415, -0.005114682484418154, -0.0037834022659808397, 0.03608155623078346, 
0.06452665477991104, 0.07723893970251083, -0.08291243016719818, -0.022403739392757416, 0.0366060771048069, 0.016246918588876724, 0.0010012235725298524, 
-0.005066328682005405, -0.08260662108659744, -0.0016025617951527238, 0.06301212310791016, 0.02788112685084343, -0.011508014053106308, -0.019468067213892937, 
-0.05187463015317917, -0.01979018934071064, -0.021014949306845665, -0.054860636591911316, -0.07330486178398132, -0.055948201566934586, -0.0018954715924337506, 
-0.028164414688944817, -0.08737032860517502, -0.08285170048475266, 0.05470899119973183, -0.05101592466235161, -0.0723562240600586, -0.01888089068233967, 
0.014392669312655926, -0.0060391491279006, 0.05103177949786186, 0.005111285950988531, 0.012244654819369316, -0.0086824307218194, 0.013743165880441666, 
-0.06799815595149994, 0.04039238393306732, 0.055549487471580505, -0.05273691192269325, 0.038959722965955734, 0.025417180731892586, 0.003124368842691183, 
0.032929129898548126, -0.06279592961072922, 0.07767128199338913, 0.005997557193040848, -0.07273128628730774, 0.07097610086202621, 0.015187948942184448, 
-0.052251994609832764, 0.04515968635678291, 0.029985951259732246, -0.039749689400196075, 0.029631871730089188, 0.038995660841464996, 0.07418584078550339, 
-0.04600414261221886, -0.004638404119759798, 0.08164330571889877, -0.0009289927547797561, 0.02971554547548294, 0.03587668389081955, -0.05646716058254242, 
-0.04709861800074577, 0.08246785402297974, -0.08534447103738785, 0.024737440049648285, 0.02409694530069828, 0.07091427594423294, -0.034481342881917953, 
0.04658931493759155, 0.06744057685136795, 0.03735591471195221, 0.009473714977502823, -0.06561459600925446, 0.05480065569281578, -0.044565021991729736, 
-0.0641694888472557, 0.025477658957242966, 0.03805072605609894, 0.037278033792972565, -0.014620521105825901, -0.04162139445543289, -0.06205694004893303, 
0.055060312151908875, 0.019658531993627548, -0.041099075227975845, 0.0278164092451334, -0.014150251634418964, -0.0709502324461937, -0.011909383349120617, 
0.032676976174116135, 0.0041008563712239265, 0.08094722032546997, -0.04269442334771156, -0.025125255808234215, 0.05186174064874649, -0.0527786910533905, 
0.07998163253068924, 0.011585070751607418, -0.019544022157788277, 0.06655354052782059, -0.019170481711626053, 0.03735607862472534, 0.0881904885172844, 
0.03392019867897034, 0.05621536448597908, 0.027871176600456238, 0.046851158142089844, 0.06322497129440308, -0.07511827349662781, -0.05383860319852829, 
0.002920333296060562, -0.0023370501585304737, 0.01946754939854145, 0.0416262187063694, -0.07144597917795181, -0.033771153539419174, 0.05199744552373886, 
-0.008385645225644112, 0.039108436554670334, 0.05420815572142601, 0.04681163653731346, 0.07428265362977982, 0.024466319009661674, -0.08479039371013641, 
0.05543100833892822, 0.06400948762893677, -0.04655005410313606, 0.017651623114943504, -0.07499067485332489, 0.08120042830705643, -0.07016173750162125, 
-0.06597410887479782, -0.023873018100857735, -0.04551159217953682, -0.07258716970682144, -0.08448675274848938, -0.013142721727490425, 0.012267393991351128, 
-0.08402634412050247, -0.07901052385568619, -0.014221925288438797, -0.05742389336228371, 0.03039086051285267, -0.04813968390226364, 0.057373326271772385, 
0.07729299366474152, -0.0719083845615387, -0.03812410309910774, 0.07770346105098724, 0.01745661161839962, -0.07946116477251053, -0.06528868526220322, 
0.028839433565735817, 0.0046437704004347324, -0.0786389410495758, 0.034396182745695114, -0.04692801088094711, 0.021473072469234467, 0.06952061504125595, 
0.011340344324707985, -0.048262547701597214, 0.03353540971875191, -0.04176400229334831, -0.0387081541121006, 0.012677198275923729, -0.04416182264685631, 
0.001459299586713314, -0.012417999096214771, -0.04195013642311096, 0.018785279244184494, -0.0026269974187016487, 0.010681665502488613, 0.025919871404767036, 
0.08688158541917801, -0.04171957075595856, -0.025064894929528236, 0.03250160440802574, 0.03967948257923126, 0.07807286083698273, 0.007770323194563389, 
-0.06223208084702492, 0.07011973112821579, -0.02594824507832527, 0.023491205647587776, -0.05329538881778717, -0.07736591249704361, 0.07154344022274017, 
-0.008023210801184177, 0.019755685701966286, -0.060432445257902145, -0.0323767326772213, 0.00335680041462183, 0.022515924647450447, -0.05306487902998924, 
-0.07705492526292801, 0.08757845312356949, 0.020116202533245087, 0.034987855702638626, 0.001935659209266305, 0.011370118707418442, 0.011123189702630043, 
0.0750269666314125, 0.056598253548145294, 0.010793931782245636, -0.08357605338096619, -0.012860504910349846, -0.06398139894008636, -0.020614121109247208, 
0.08399844169616699, 0.0799122080206871, 0.0037703088019043207, 0.0126379719004035, 0.033366505056619644, -0.022671889513731003, 0.027462895959615707, 
0.05209588259458542, 0.017398258671164513, -0.07741817086935043, 0.08675064891576767, 0.02967178449034691, -0.0813804417848587, 0.005173853598535061, 
-0.027657289057970047, -0.010979987680912018, 0.06751023977994919, -0.020708004012703896, 0.06438082456588745, -0.03430516645312309, -0.01735418103635311, 
-0.08612309396266937, 0.08379526436328888, 0.03212191164493561, -0.020271608605980873, 0.06566396355628967, 0.0879494845867157, 0.033386439085006714, 
-0.08597361296415329, -0.02332109957933426, -0.026232482865452766, -0.07471045851707458, -0.03589549660682678, 0.07502961903810501, 0.07063601911067963, 
0.05221934616565704, 0.0377262718975544, 0.053209949284791946, 0.055343229323625565, -0.07099690288305283, -0.07485854625701904, -0.07481522858142853, 
-0.05718803405761719, 0.01513499952852726, -0.018791409209370613, -0.008660074323415756, 0.07880119234323502, 0.04170295596122742, 0.08676335215568542, 
0.04849785566329956, 0.04357236251235008, -0.04700132831931114, -0.028396477922797203, -0.000911048729903996, 0.014333141036331654, 0.07852387428283691, 
-0.024653103202581406, 0.005903641693294048, -0.05908782035112381, 0.06258637458086014, -0.050986990332603455, 0.08623231947422028, -0.05924396216869354, 
0.005716976709663868, -0.05956718325614929, 0.047990698367357254, 0.07561542838811874, 0.017881382256746292, 0.07179372757673264, -0.001459130784496665, 
0.03653288260102272, 0.0064381565898656845, 0.003070810344070196, 0.08261704444885254, -0.07206467539072037, -0.055267371237277985, 0.07244060933589935, 
-0.024153903126716614, 0.007747911382466555, -0.0633310079574585, 0.06782371550798416, 0.04806099086999893, -0.0008911598124541342, 0.07096987217664719, 
-0.05384499207139015, 0.0030188551172614098, 0.05736605450510979, 0.04829210788011551, -0.018885821104049683, -0.03456607460975647, -0.03183480352163315, 
0.056251250207424164, 0.005282454192638397, 0.005574446637183428, -0.08626563102006912, 0.0433599017560482, -0.0478535071015358, 0.04032561182975769, 
-0.03384965658187866, -0.03627082705497742, 0.057872138917446136, -0.07894283533096313, 0.028136515989899635, -0.07159984856843948, 0.012340342625975609, 
0.0684400200843811, 0.08053591847419739, 0.06037554144859314, 0.0796305313706398, 0.020945584401488304, -0.06902320683002472, 0.049694888293743134, 
-0.0061185965314507484, 0.013892091810703278, -0.019106436520814896, 0.08071532100439072, 0.07067938894033432, -0.003412471851333976, -0.0047615705989301205, 
-0.07547389715909958, 0.06044812127947807, 0.060806311666965485, 0.01716640405356884, 0.052687808871269226, -0.010515781119465828, 0.08443565666675568, 
0.08591888099908829, 0.08691362291574478, -0.017476653680205345, -0.07392484694719315, -0.05188186466693878, -0.06476646661758423, 0.017474714666604996, 
-0.005185890477150679, -0.07557867467403412, -0.061621349304914474, 0.03786742687225342, 0.08835684508085251, -0.05369673669338226, 0.07333867996931076, 
-0.024953337386250496, -0.042751245200634, -0.021213393658399582, -0.036686185747385025, 0.018742406740784645, -0.046579740941524506, 0.04904604330658913, 
-0.03581827133893967, -0.049997322261333466, 0.08788282424211502, -0.08384312689304352, 0.05268597602844238, 0.012960041873157024, -0.06564206629991531, 
0.0682486966252327, -0.0719541683793068, -0.001841848948970437, -0.0016997508937492967, -0.014721378684043884, 0.015563172288239002, -0.05746776610612869, 
0.02328682877123356, 0.08151860535144806, -0.07278820872306824, 0.08567945659160614, 0.008305865339934826, -0.05251235142350197, 0.06122156232595444, 
0.0339462012052536, 0.06818826496601105, -0.04488971456885338, 0.08719389140605927, -0.045751579105854034, 0.0020469585433602333, 0.0775505006313324, 
-0.03518786281347275, -0.04237481206655502, -0.06842482835054398, -0.0268681813031435, 0.018131818622350693, 0.08208132535219193, -0.08479395508766174, 
0.0797383040189743, 0.07365231961011887, -0.07217045873403549, -0.07623174041509628, 0.06808674335479736, 0.022857025265693665, 0.008306223899126053, 
0.014097333885729313, 0.02744077332317829, 0.04587143287062645, -0.0022173093166202307, -0.07450685650110245, -0.05713420733809471, -0.0420997329056263, 
0.06368706375360489, 0.0776338130235672, -0.07767121493816376, 0.03762980177998543, 0.0297562163323164, 0.03853245824575424, 0.03861464560031891, 
0.08046655356884003, -0.05659615993499756, 0.08183660358190536, 0.05497534200549126, -0.06979665160179138, 0.0510096438229084, -0.049468010663986206, 
0.012726088054478168, 0.08035392314195633, 0.009057040326297283, 0.014677121303975582, 0.03670657053589821, -0.013517615385353565, -0.058693669736385345, 
0.06310880184173584, -0.05603979155421257, 0.024970412254333496, -0.02368709072470665, -0.053427524864673615, 0.05260308086872101, 0.03226512670516968, 
0.06232309341430664, -0.013496125116944313, 0.0759139209985733, 0.05037428066134453, -0.08309808373451233, -0.019504470750689507, 0.055656857788562775, 
-0.08242291957139969, 0.04137502983212471, 0.07459937781095505, -0.041814178228378296, 0.03100837767124176, -0.0648716539144516, 0.0008624463807791471, 
0.011659539304673672, 0.07281006127595901, 0.07870085537433624, 0.05004062503576279, -0.022848060354590416, 0.07523395866155624, -0.08725924789905548, 
0.04690812528133392, -0.04486890137195587, 0.0860077440738678, -0.05302821099758148, -0.011648006737232208, 0.0035974769853055477, 0.08845512568950653, 
-0.0786234512925148, -0.07950396835803986, -0.07765201479196548, 0.07269912958145142, 0.06798887997865677, 0.0778358206152916, -0.07971619069576263, 
-0.050944965332746506, -0.08562355488538742, 0.03246888518333435, -0.0012616511667147279, -0.052629344165325165, 0.004924689419567585, -0.077962227165699, 
0.0007694275118410587, -0.06286299228668213, -0.0001960885274456814, -0.08503765612840652, -0.0017153718508780003, -0.08565481752157211, -0.01917714625597, 
0.017881719395518303, -0.07307896018028259, 0.0785532295703888, -0.04826021194458008, -0.07127904891967773, 0.05150935426354408, -0.031070495024323463, 
-0.07233179360628128, 0.08045404404401779, -0.07368908822536469, -0.020780442282557487, 0.06818949431180954, -0.008487039245665073, 0.04698166251182556, 
0.08411604166030884, -0.08318807184696198, -0.018223095685243607, 0.03746570646762848, 0.046633362770080566, 0.0051573836244642735, -0.05696093663573265, 
-0.016733521595597267, -0.08486360311508179, 0.02410418912768364, 0.07129627466201782, -0.030595744028687477, 0.07396731525659561, -0.041895847767591476, 
-0.07226738333702087, 0.06373647600412369, 0.03189191222190857, 0.013295245356857777, 0.08754118531942368, 0.024447591975331306, -0.037507228553295135, 
-0.08316299319267273, -0.06191419064998627, -0.012933680787682533, -0.0048744031228125095, -0.005483729764819145, 0.01673685945570469, -0.020226657390594482, 
-0.023427946493029594, 0.05303425341844559, 0.023348020389676094, 0.05035887658596039, -0.06769128143787384, 0.015334724448621273, -0.06363114714622498, 
0.025050606578588486, 0.02014373056590557, -0.07922195643186569, 0.0814037173986435, -0.058927543461322784, -0.040779318660497665, -0.05248492583632469, 
0.021517978981137276, -0.08017982542514801, 0.055258430540561676, 0.02568790502846241, -0.05754026770591736, 0.06784938275814056, 0.026646332815289497, 
0.008097684010863304, 0.04259038716554642, 0.015010703355073929, 0.008023166097700596, -0.0817725881934166, -0.07193765044212341, 0.04879963397979736, 
0.007931556552648544, 0.01691393554210663, 0.016699645668268204, -0.08551149815320969, 0.08305753022432327, -0.010775496251881123, 0.08753544837236404, 
0.05837108567357063, 0.0881127268075943, 0.02913530357182026, -0.024038348346948624, -0.021620964631438255, 0.0748782828450203, 0.07128886133432388, 
-0.022598406299948692, 0.023096896708011627, 0.08570276945829391, 0.0843789130449295, -0.026684308424592018, 0.04576059430837631, 0.05380135029554367, 
0.03557154908776283, -0.03275144472718239, 0.04978102818131447, -0.05761362612247467, -0.043750833719968796, 0.020629409700632095, 0.03822349011898041, 
0.01584899239242077, -0.0421435683965683, 0.08156318217515945, -0.07108771055936813, 0.08372226357460022, -0.016809716820716858, -0.0716743990778923, 
0.0037647131830453873, 0.03932353854179382, -0.07733327150344849, 0.04039425775408745, -0.08334705978631973, -0.08637641370296478, 0.0153161296620965, 
-0.05060099810361862, 0.07069827616214752, 0.024049919098615646, 0.01788049004971981, 0.04125767946243286, -0.08538536727428436, -0.0757846087217331, 
-0.08274911344051361, -0.03278797119855881, 0.005007189232856035, 0.004086284898221493, -0.05542280897498131, -0.03227948397397995, -0.009342225268483162, 
0.05621896684169769, -0.006414220668375492, -0.004827052820473909, -0.01207070704549551, -0.023510457947850227, 0.004447754006832838, 0.0068219671957194805, 
0.006140823010355234, 0.05594504997134209, -0.0641135647892952, -0.04077956825494766, -0.06870745122432709, 0.07870368659496307, 0.060995206236839294, 
-0.06772137433290482, -0.05545150861144066, -0.0505320206284523, -0.035000305622816086, 0.031154578551650047, -0.026329288259148598, 0.07603789865970612, 
-0.006952415686100721, 0.018762953579425812, -0.0767894759774208, 0.033358823508024216, -0.03197266906499863, 0.062184009701013565, -0.059541743248701096, 
-0.05577659234404564, -0.06482914835214615, -0.06968439370393753, -0.0012209269916638732, 0.05378532409667969, -0.057144682854413986, 0.08709883689880371, 
0.021959608420729637, 0.04645231366157532, 0.07031139731407166, -0.061398010700941086, 0.08616011589765549, 0.047264665365219116, 0.06587086617946625, 
0.0308089442551136, 0.061476290225982666, -0.028294160962104797, 0.01099430676549673, 0.03145453333854675, -0.0008259507012553513, -0.045444000512361526, 
0.056176673620939255, -0.07863537967205048, -0.08625629544258118, 0.058143604546785355, 0.05927027761936188, -0.024783384054899216, -0.005378395318984985, 
0.06260786950588226, -0.04224347323179245, 0.07573641091585159, -0.0650225505232811, 0.08527964353561401, 0.03900257870554924, -0.07730354368686676, 
-0.0351172611117363, 0.03835207596421242, -0.02738025039434433, -0.044940028339624405, -0.017882591113448143, -0.005094461143016815, 0.023987384513020515, 
0.02671348676085472, 0.05124799534678459, -0.07534271478652954, 0.05537043884396553, -0.007410516496747732, -0.07044938951730728, -0.05693227797746658, 
-0.06755270063877106, -0.023583313450217247, 0.05729632452130318, 0.019586749374866486, 0.08036164939403534, 0.012667695060372353, 0.0717814639210701, 
0.06096164882183075, 0.03931834548711777, -0.018224254250526428, 0.038267433643341064, -0.013043060898780823, -0.08044899255037308, 0.06568935513496399, 
-0.03804405778646469, -0.07629741728305817, 0.031974490731954575, 0.030054304748773575, 0.045977625995874405, -0.06155535206198692, 0.025670437142252922, 
-0.017750736325979233, -0.014202659949660301, -0.0675414428114891, -0.009961782023310661, 0.06770086288452148, 0.06505521386861801, 0.007684618234634399, 
0.0017092967173084617, 0.07475042343139648, -0.04246148839592934, -0.032919809222221375, 0.03224886208772659, -0.08048122376203537, 0.04578600451350212, 
-0.014407483860850334, 0.026365764439105988, -0.04889737069606781, -0.03754741698503494, 0.03297454118728638, 0.08580423891544342, 0.037294577807188034, 
0.026827959343791008, -0.0776214674115181, 0.0710630789399147, 0.04074292257428169, -0.05780612677335739, 0.06441812217235565, 0.08825450390577316, 
-0.012403774075210094, 0.05310377851128578, 0.05760574713349342, -0.0027493371162563562, -0.019862506538629532, -0.08797220140695572, -0.04283588379621506, 
-0.0009202028741128743, -0.017696207389235497, -0.05440903827548027, -0.05843256413936615, -0.024971872568130493, -0.039264142513275146, -0.014412972144782543, 
-0.0006008348427712917, -0.045019738376140594, -0.03664180636405945, 0.03206949308514595, 0.007302385289222002, 0.07117137312889099, -0.02037953957915306, 
-0.0715770348906517, -0.06690243631601334, -0.021368596702814102, -0.048656437546014786, -0.03359737992286682, -0.058964330703020096, 0.017859650775790215, 
0.028004750609397888, -0.0021287016570568085, -0.06849174946546555, -0.01355504896491766, 0.04410571604967117, 0.036422207951545715, 0.015214900486171246, 
0.0695163756608963, -0.014550801366567612, 0.0025142210070043802, -0.0730658620595932, -0.08019622415304184, -0.005932728759944439, 0.08224883675575256, 
0.007432219572365284, 0.059185583144426346, 0.081069216132164, -0.06612004339694977, 0.04313214123249054, -0.08706636726856232, 0.059186823666095734, 
-0.07369506359100342, -0.04826638475060463, 0.016872616484761238, -0.014097950421273708, -0.04815971106290817, 0.04146193712949753, 0.06643638014793396, 
-0.07823381572961807, -0.048493679612874985, -0.03585253655910492, 0.06498527526855469, 0.0809570774435997, -0.010127360932528973, 0.045206841081380844, 
-0.08818616718053818, -0.05797179415822029, 0.06160487234592438, 0.06593494862318039, -0.054246969521045685, 0.062450166791677475, 0.08484067767858505, 
0.0012024352326989174, 0.052526362240314484, 0.006479721050709486, 0.07205161452293396, -0.08345949649810791, -0.06158904358744621, -0.07906126230955124, 
0.04586542397737503, 0.045248907059431076, -0.06004679575562477, 0.030351988971233368, 0.005550918634980917, 0.024188943207263947, 0.02243671379983425, 
-0.06366578489542007, 0.03750218078494072, -0.0450279600918293, 0.03223882615566254, 0.077140212059021, 0.02373400516808033, 0.030060624703764915, 
-0.05219712108373642, 0.0597187802195549, 0.04785444959998131, -0.03639059513807297, 0.02291402779519558, 0.04573454707860947, 0.004360915161669254, 
-0.0877433493733406, -0.07982715219259262, -0.014753318391740322, 0.003937850706279278, 0.024027545005083084, 0.005205041728913784, -0.062445268034935, 
0.055363915860652924, -0.054941192269325256, -0.07910828292369843, -0.007027322892099619, -0.026334116235375404, -0.033461470156908035, -0.06888926029205322, 
-0.025328990072011948, -0.05206889286637306, 0.07341528683900833, -0.05098290741443634, -0.07899115234613419, -0.06815070658922195, 0.019397463649511337, 
-0.02713479846715927, -0.06843312084674835, 0.08701132982969284, -0.07749249041080475, -0.0699547827243805, 0.006701271049678326, -0.021857548505067825, 
0.005655165296047926, -0.05190350487828255, 0.029629366472363472, -0.042805545032024384, 0.08157721906900406, -0.06126650422811508, -0.007435469888150692, 
0.038068488240242004, 0.03530263900756836, -0.04953266307711601, -0.082431860268116, -0.03119540959596634, 0.06929360330104828, 0.05481918528676033, 
0.04007590934634209, -0.005061711650341749, 0.036805037409067154, -0.016301164403557777, 0.016412844881415367, -0.007991651073098183, 0.018661366775631905, 
-0.010467714630067348, -0.07433248311281204, -0.04672325402498245, 0.012091265060007572, -0.08810929954051971, -0.08379442244768143, -0.03710353374481201, 
0.04932716116309166, -0.06333106756210327, 0.04112042859196663, -0.07616838812828064, 0.026544708758592606, 0.06480565667152405, -0.08090639859437943, 
-0.07930648326873779, -0.06542422622442245, -0.04503161087632179, 0.04335388168692589, 0.05680711194872856, 0.08196140080690384, 0.06219945847988129, 
0.005063807126134634, -0.029261138290166855, -0.0038892822340130806, -0.06345970928668976, 0.058100491762161255, -0.022074995562434196, 0.027138778939843178, 
-0.02399919368326664, 0.055468931794166565, -0.01867069862782955, -0.022865649312734604, 0.041719645261764526, 0.045003265142440796, -0.08155210316181183, 
-0.050615344196558, -0.0498662069439888, 0.05733189731836319, 0.08361072093248367, -0.06586361676454544, 0.0674554854631424, 0.08234268426895142, 
0.032263897359371185, 0.05375177413225174, 0.060150377452373505, -0.0657748132944107, 0.06027528643608093, -0.08219826221466064, 0.03510494530200958, 
0.06637425720691681, 0.07915499061346054, -0.006373478565365076, -0.06634972244501114, -0.038662560284137726, -0.06711781024932861, -0.08146293461322784, 
0.021297622472047806, 0.07636325806379318, -0.06137295812368393, 0.020619655027985573, 0.013113755732774734, -0.07114846259355545, -0.010913039557635784, 
-0.004057448823004961, 0.028898494318127632, 0.017333680763840675, 0.07093996554613113, 0.031169066205620766, 0.006728288251906633, -0.021308591589331627, 
-0.014617125503718853, 0.015143427066504955, -0.051175013184547424, -0.06162817031145096, -0.08001373708248138, 0.01604292169213295, -0.03872117027640343, 
-0.027813930064439774, -0.014472936280071735, -0.06441917270421982, 0.050442639738321304, -0.059247445315122604, -0.022789577022194862, -0.0013443707721307874, 
-0.07180070877075195, 0.07924041152000427, 0.0841008722782135, -0.011053540743887424, 0.058709368109703064, -0.019476797431707382, 0.04161814600229263, 
0.08677288889884949, 0.01736142486333847, 0.0776907280087471, 0.07095637172460556, -0.07821101695299149, 0.03303482383489609, 0.028195353224873543, 
0.022223176434636116, 0.010212697088718414, -0.07224036008119583, -0.06517094373703003, 0.021454159170389175, -0.07795757800340652, -0.06741855293512344, 
-0.034178782254457474, 0.04114077612757683, -0.0372442752122879, 0.07327258586883545, -0.07438280433416367, -0.06969594210386276, 0.04474567249417305, 
-0.07559901475906372, -0.005180909298360348, 0.03133121877908707, -0.058481816202402115, -0.024719618260860443, 0.045963454991579056, 0.04130370542407036, 
0.05573497712612152, 0.04072442278265953, 0.035991303622722626, 0.04845002666115761, -0.014675866812467575, 0.06560289859771729, -0.04404361918568611, 
0.072725810110569, 0.0688825324177742, 0.04741879925131798, 0.023418288677930832, -0.06651472300291061, -0.0013293870724737644, -0.050572995096445084, 
0.07276902347803116, -0.07233879715204239, 0.044395435601472855, -0.062284331768751144, 0.015895331278443336, 0.08110939711332321, -0.006930431816726923, 
-0.07002580910921097, 0.016808506101369858, -0.006330620497465134, -0.00676262192428112, -0.038772810250520706, 0.06954982131719589, 0.04681851342320442, 
-0.04913288354873657, 0.0178739782422781, -0.06114210560917854, 0.050417039543390274, 0.06722386926412582, 0.04861649498343468, 0.021980630233883858, 
0.08787469565868378, 0.01629079319536686, 0.0852748230099678, -0.03561169281601906, -0.055673956871032715, -0.0030022230930626392, 0.014671871438622475, 
-0.018429715186357498, -0.04841950163245201, -0.005665797274559736, -0.0647289901971817, -0.045019153505563736, -0.00974675640463829, -0.011674264445900917, 
0.03907354176044464, 0.07777059823274612, -0.022383136674761772, -0.08411721885204315, -0.0419190339744091, -0.01756802760064602, -0.042724426835775375, 
-0.04111388698220253, 0.0773940235376358, -0.018351491540670395, -0.06448107212781906, 0.06467127054929733, 0.035562723875045776, 0.029853112995624542, 
0.0023950301110744476, 0.045160964131355286, -0.08763968199491501, 0.004400891251862049, 0.04138889163732529, -0.05817389860749245, 0.008922498673200607, 
0.08430565893650055, 0.050619013607501984, -0.03117421828210354, 0.0671839565038681, -0.00754644675180316, -0.015891334041953087, 0.0089044701308012, 
-0.05974559113383293, -0.044724833220243454, -0.030666515231132507, -0.009346612729132175, -0.0376652367413044, 0.03402399644255638, 0.03357347473502159, 
-0.02026980370283127, 0.05928342044353485, -0.08034627884626389, -0.029798051342368126, -0.03557191044092178, -0.06979954242706299, 0.004442220088094473, 
-0.02149251289665699, -0.01481309812515974, 0.01940966211259365, 0.020667461678385735, 0.04446046054363251, -0.03281397745013237, 0.07027149200439453, 
-0.0035357936285436153, -0.04865686967968941, 0.042836498469114304, 0.02070765011012554, 0.04195723310112953, 0.05155466869473457, -0.0016814055852591991, 
-0.04362334683537483, 0.06022122502326965, 0.016770586371421814, -0.0028011046815663576, -0.08221203088760376, 0.08448201417922974, -0.04199083521962166, 
-0.07974499464035034, -0.005952183622866869, 0.02909664995968342, -0.0451817587018013, 0.06650452315807343, -0.018022799864411354, 0.06772732734680176, 
0.0067244055680930614, 0.01500664185732603, -0.009060083888471127, 0.029636863619089127, 0.08011581748723984, 0.04368085041642189, 0.03722800314426422, 
0.0016832262044772506, 0.049936458468437195, 0.05184883251786232, -0.03605043515563011, 0.06759624183177948, -0.03868687525391579, 0.08684110641479492, 
-0.011687667109072208, -0.0037932044360786676, 0.004126317799091339, -0.07661635428667068, 0.0670170933008194, 0.07073713093996048, 0.05979179963469505, 
0.0015406968304887414, 0.046092696487903595, -0.04624048247933388, 0.04057876765727997, 0.040564969182014465, 0.004736316855996847, -0.0725979432463646, 
-0.02086801640689373, -0.018906697630882263, 0.0065957303158938885, 0.07775616645812988, 0.011722707189619541, 0.03857837989926338, -0.02473105862736702, 
0.08372484892606735, 0.08311321586370468, -0.04301353543996811, 0.043102018535137177, -0.029555793851614, -0.04617400839924812, -0.03117157518863678, 
-0.02972477115690708, 0.014581349678337574, 0.027401898056268692, -0.080472432076931, 0.012166258879005909, 0.04492533951997757, 0.0870370864868164, 
-0.082480788230896, -0.055546022951602936, 0.08510393649339676, -0.08168725669384003, -0.01274850033223629, 0.07346499711275101, 0.04088845103979111, 
0.044071998447179794, 0.02875465527176857, -0.05309746041893959, 0.042157214134931564, -0.02104295790195465, 0.0785776674747467, -0.014596221037209034, 
-0.03630775958299637, -0.03187205642461777, -0.028495706617832184, -0.08435807377099991, -0.008282877504825592, -0.0076709105633199215, -0.06884347647428513, 
0.033897653222084045, 0.006088528316468, 0.005361026152968407, 0.0335460901260376, -0.030367260798811913, 0.037739187479019165, 0.005429466255009174, 
-0.0036627857480198145, 0.08791808038949966, -0.023748060688376427, 0.020343611016869545, -0.06886857002973557, 0.07239878922700882, -0.08846934884786606, 
0.025970252230763435, -0.08419789373874664, 0.025627873837947845, -0.032157983630895615, 0.04208139330148697, -0.003640392329543829, 0.08001921325922012, 
-0.029934627935290337, -0.02030649036169052, -0.07533881813287735, -0.07209664583206177, -0.07042540609836578, 0.05018666386604309, -0.000283912435406819, 
-0.060593269765377045, -0.004566127900034189, 0.08222703635692596, -0.03651805222034454, 0.010043115355074406, 0.07695519179105759, 0.08489640802145004, 
