5.164367848919937e-07, -4.567143332678825e-05, 0.00032137223752215505, 0.00011775382881751284, -9.027722262544557e-05, -0.0002216319553554058, -0.0003049521765206009, 8.167121995938942e-05, -9.563304774928838e-05, 0.0001335026026936248, -0.00015633665316272527, 0.0001982784306164831, 6.271214078878984e-05, 1.3124451470503118e-05, -0.00026271212846040726, 0.00028501093038357794, -0.0002483186835888773, 0.0001641857816139236, -7.87239259807393e-05, 0.00023531225451733917, -0.00026342857745476067, 0.00014531880151480436, 0.00014060216199140996, -4.533848550636321e-05, -0.00023101297847460955, 0.0001511435693828389, 0.00027541315648704767, 0.00017847734852693975, -0.0001408988464390859, 6.225178367458284e-05, -2.400791709078476e-05, -0.0003004012687597424, -3.933021071134135e-05, 0.00012317202345002443, 0.0001376683358103037, -0.00030434224754571915, 0.00015715413610450923, 9.024336031870916e-05, 8.61694134073332e-05, 0.00015288195572793484, -0.00010772994573926553, 0.0002602169697638601, 0.0002227400109404698, -0.0001001893324428238, 0.00011758074106182903, -5.759506530012004e-05, -0.0002809728030115366, 0.00022056566376704723, 0.00027550332015380263, -6.06677022005897e-05, -2.5154919057968073e-05, -0.00022220310347620398, 0.00023455970222130418, 0.000135427646455355, -6.858253618702292e-05, 6.203136581461877e-05, -0.00016503804363310337, -0.00023091195907909423, 3.124558861600235e-05, 3.866936458507553e-05, -0.00026071054162457585, -0.00023336087178904563, -0.0001793546398403123, 0.0002454171481076628, 0.00019639906531665474, -0.0001497296179877594, 0.00023715151473879814, 0.0003209299757145345, 0.0002736204187385738, -0.000127095147036016, -2.742170909186825e-05, -0.00030164673808030784, 6.212651351233944e-05, 0.00030270981369540095, 0.00012363951827865094, -0.0002808303397614509, -0.0001267552434001118, -5.873457484995015e-05, 0.00014811418077442795, 0.0001403866772307083, -7.753793033771217e-05, 0.00015124415222089738, -0.00026221523876301944, -0.0002747544494923204, 0.00022127421107143164, 0.00012152861017966643, -0.00014590883802156895, -0.00015997764421626925, 3.104548522969708e-05, -8.978039113571867e-05, 9.116863657254726e-05, -0.00019066741515416652, 4.727310442831367e-05, -0.000208183191716671, -0.00022822973551228642, -7.540696969954297e-05, 0.0001733575772959739, 0.00021939538419246674, -0.0001611607294762507, -5.161848457646556e-05, 0.0002001483808271587, 0.00015056213305797428, 1.434885780327022e-05, 0.00024287663109134883, -0.00010368624498369172, 0.00029030084260739386, -3.0525327019859105e-05, -5.761901775258593e-05, 0.00027435822994448245, 9.20585953281261e-05, 0.00016806175699457526, -0.00010997169010806829, 0.0002568658092059195, 8.399543003179133e-05, 0.00012119495659135282, -0.00030194257851690054, -5.994019011268392e-05, 3.3572114261914976e-06, 0.0001292965025641024, -0.00011369295680196956, 0.00015577036538161337, 0.00010061307693831623, 0.00018459053535480052, -3.615481546148658e-05, -0.00029324294882826507, 8.079269900918007e-05, 0.00020197310368530452, 0.0001406267547281459