// Numpy array shape [256]
// Min -0.0051711172171451086
// Max 0.005827824578490239
// Number of zeros 0

#ifndef TRANSFORMERS_0_LINEAR_3_BIAS_H_
#define TRANSFORMERS_0_LINEAR_3_BIAS_H_

#ifndef __SYNTHESIS__
model_default transformers_0_linear_3_bias[256];
#else
model_default transformers_0_linear_3_bias[256] = {-0.0008428567820279292, 0.0036194835761268348, -0.000505543059057499, -0.00015865974605704973, -0.002453973889782038, 0.00014474540779399575, 
-0.0014198539364582573, -0.0001400167652788987, 0.0006602047506234308, -0.0013743556735868843, 0.0009302864892052445, 0.0007245768115780281, -0.0008964742696896045, 
-0.0010342832550345878, 0.0029676627524823905, 0.002543046045255764, 0.0002606866471379629, 3.23349474423342e-05, 0.001903332416078047, -0.002665086256902444, 
0.0012703533006711315, 0.0002703069479445256, 0.001676010573439043, -0.002624040132995811, 0.003687509463055903, 0.00012278952872900618, -0.0013120678496618826, 
-0.0006909682593148345, -0.0011564538298188545, -0.0013044294680992037, 0.00021094790148889017, -0.0013460347993883202, 0.00228274734204334, 0.002262339098156335, 
-0.0011571453209706368, -0.0013463454765061135, 0.0003919730007834825, 0.0004970728149317448, -0.003819237085151827, 0.0006577923091287569, 0.000811589030618583, 
0.0014182285548947182, 0.0006175483407515069, 7.019898789385749e-05, -0.0001011020593615186, 0.0016975324547406983, 0.0004177152693153895, 0.002899184756360649, 
-0.0005450364329195057, -0.0014030430840567315, 0.000653813660627333, -0.0016414425151171697, 0.0015488968871795745, -0.003519709957888741, 0.004742546085076753, 
0.00017252564814229646, 0.0015700507479615828, 0.0001395063524950343, 3.953153811636476e-05, -0.001546896041297302, 0.00115874944169718, -0.0036731755843728807, 
0.0021558631869478028, -0.00020673556016651175, 0.0005120467400327918, -0.0023537219780941096, -0.00034683110737063774, 0.00122045604581621, 0.000226372742590236, 
0.0009902851515858654, -0.00013564727028864438, 0.0004858775633157318, 0.0018619925631577102, -0.0005337914093992256, -0.0016107018636305323, 0.0006570313287988594, 
-0.0031310129635849886, -0.0013164172955730026, 0.002868386867138152, 0.0017243041279186289, -0.00016013584573773023, 0.00219224983952804, 0.002749094002263736, 
-0.0005908765881282169, -0.0003626730308066514, -0.001968310128214441, 0.0023626842407721126, 0.0016564499408078324, 0.0006549919721826205, 0.00034796323697886477, 
0.000427667139259985, -0.0010137013761315147, 0.0005552949147733316, -5.412315725084929e-05, 0.0034877647956783834, 0.0005821049528305672, 0.0006295572409616797, 
-0.00041253190708049096, -0.0023719061771879163, -0.0005357309464138475, -0.0010323250292056884, 0.0011387535410393181, -0.004514313962198887, -0.0018801829936653566, 
-0.0006021912334408639, 0.001661281207434118, -0.0010033145164541363, -0.0009238590156886599, 5.148209850946481e-05, 0.000764070425643778, 0.0007411934023704768, 
-0.0006151011881847763, 0.0008107886599292989, -0.00020779252562811844, 2.0408124733524716e-05, 0.0009317418369695988, -0.00031281869458454605, -0.0009103066086891301, 
-0.00029622350269255655, -0.0008866402257552168, -0.0006794119447567599, -0.0009221379885845512, 5.3679210556316e-05, 0.0008502505799430562, 0.0006306662942139853, 
0.0005666625878638911, 0.0003352933211227338, -0.0012117937535735478, 0.0028945834674793387, 0.0024482660973860378, -0.0013530686871761827, 0.002173869439035455, 
0.003843454131392948, 0.0008993600031924357, -0.000460040169058208, 0.0015099506434700536, 0.0010990039517681028, 0.0010624096422736466, -0.00020819627514165768, 
0.0008726005084642319, -0.0014437028211021264, -0.0005050111883612319, 0.0016757543254145276, 0.0005044565911310064, 0.0006319635954665174, -0.0027087166361884334, 
0.003392708884636856, 0.0009633958657664748, 0.0005806356013203417, -0.0007056061577542033, 0.0015697119153948189, -0.00019185478889966674, 0.00213962082389091, 
-0.0020145115814590112, -0.00019564244994750503, 0.00012416675693609216, 0.0008658177874353051, 0.0013351049943311761, 0.0010081086893203978, -0.0002052586376221584, 
7.72684610393353e-05, 0.0026198535681406523, -0.00016087495389432345, -0.0004360006190262544, 0.003908200154934511, 0.00031557361583532125, -0.0018870914348672091, 
-0.000613632819885258, 0.0001904015625039419, -0.001986172104092539, -0.0007226639972643077, 0.0004763076176906018, -0.00036729734490491137, -0.00029667069197415405, 
-0.00024944144912464686, -0.001296569046662824, -0.0013788426898885165, 0.0004343199594832839, 0.0016678988687879638, 0.0009882228877529688, 0.0011950382622715346, 
-0.00019064790484205987, -0.0004882115086067632, 0.0004013973187252779, -0.0011335847825928683, -0.003497294363604946, -0.0005757435244877644, -0.0007199772454274015, 
-0.002115540358103367, 0.0002461951576295239, -0.0005681281298389264, 0.0005698210584409778, -8.619772020186451e-05, 0.00042271781607719125, 0.0011254649271540218, 
0.001701378051504977, 0.001673927594579342, 0.0024888080547195985, -0.0051711172171451086, -0.0014378337915892095, 0.005827824578490239, 0.001002483667091762, 
-0.0005843819094281735, 1.3905146141251637e-05, 0.000646876475229106, -0.0006184018595284636, 0.0008388642838257511, 0.002246334831111777, 4.658787799819998e-05, 
-0.0002731593591956396, 0.0005287578511722215, -0.0002626374038230711, 3.9911671327139534e-05, 0.0018479218969472248, 0.0005689727779285109, 0.0014786204500331658, 
0.00023991177468037314, -0.0011025220019968951, 0.0006791505528735404, 0.00045765115816815707, 0.0003964334910816325, 0.0022566363019739214, -0.0006215590507005977, 
-0.0009166927943536006, 0.0009684555714298841, 0.001064890416886365, 0.00022015318194319904, -0.0032443680540235583, 0.004317874251915568, -0.002265391108353945, 
-0.00030804799031999716, 0.00018826858682800476, -0.00019363113134389305, -0.004167979277842711, 0.0026739469188711423, 0.0007306747836348292, -0.000659751572720151, 
-1.817012998937405e-05, 0.0016610008224885425, -0.00047366173399648084, 0.0001683901093200877, -0.0004172728029706089, -0.0008621886942349844, -0.0016892273108855891, 
-0.00012211682204436812, -0.0008171448702765983, 0.0016065001264812103, -0.00012094998385864651, -0.0016404192285126603, -0.0022291352286513363, -0.0003104795113715546, 
0.0008801285317732977, 0.0012149722399609996, -0.00021370463270192202, -0.002645820547961234, -0.00026356312413812054};

#endif

#endif
