0.013131854124367237, 0.0471719354391098, -0.052566323429346085, 0.028186334297060966, -0.039882246404886246, -0.0008788892300799489, -0.016672153025865555, 0.004802249372005463, -0.04513455182313919, 0.0454888679087162, -0.03990855813026428, 0.04548277333378792, -0.04140554741024971, -0.015389393083751202, -0.05900514870882034, 0.006992107257246971, 0.033870622515678406, -0.031004928052425385, -0.061782434582710266, 0.04760600998997688, 0.030789421871304512, 0.05192260444164276, 0.04715709388256073, 0.05479942262172699, -0.028106218203902245, 0.00927391555160284, -0.03245522826910019, -0.022314777597784996, 0.02895566076040268, -0.027618207037448883, -0.042215410619974136, -0.035247258841991425, 0.03251706808805466, 0.04851016774773598, -0.05842440947890282, -0.007998415268957615, 0.05282450467348099, -0.05182850360870361, 0.05221301689743996, -0.058357805013656616, -0.04530264064669609, 0.01914181001484394, -0.05099468305706978, 0.026293981820344925, -0.01079814787954092, -0.0019231834448873997, 0.027992848306894302, 0.0043962327763438225, 0.007197197061032057, 0.060019537806510925, -0.05570517107844353, -0.05748196318745613, -0.004210379905998707, 0.03342633694410324, -0.040394481271505356, -0.043891336768865585, -0.027447406202554703, -0.002198262372985482, 0.04044484347105026, -0.0007741863955743611, 0.05047989264130592, 0.06008955463767052, -0.012705493718385696, -0.05221053585410118, -0.0077179777435958385, 0.047264497727155685, 0.053023871034383774, 0.031920067965984344, -0.029901474714279175, -0.03003249317407608, -0.04182695224881172, 0.0009351226617582142, -0.035655535757541656, -0.0431072860956192, 0.050914086401462555, -0.054011356085538864, -0.05173167586326599, 0.06074219569563866, 0.023196453228592873, -0.001083821291103959, -0.04299291968345642, -0.05189373344182968, 0.061097651720047, 0.025893231853842735, -0.056079618632793427, 0.0018526763888075948, -0.005088945850729942, -0.03588098660111427, 0.013064333237707615, 0.04340201988816261, -0.019528383389115334, -0.008822412230074406, -0.015166706405580044, 0.06058032065629959, -0.0313655324280262, -0.04400394856929779, -0.006870480254292488, 0.0101624159142375, 0.036399755626916885, 0.01612086407840252, -0.04048887640237808, -0.03404013812541962, -0.057278167456388474, -0.058364350348711014, 0.010169439017772675, 0.019854161888360977, 0.014956421218812466, -0.012680253945291042, -0.030118511989712715, 0.0465674102306366, 0.06227907910943031, 0.05476141721010208, -0.04526326805353165, -0.03839074820280075, 0.01864432357251644, -0.04183788225054741, 0.02094724215567112, 0.058795180171728134, 0.049504585564136505, 0.02027200162410736, -0.04080528765916824, -0.014074837788939476, 0.018098844215273857, -0.01978445053100586, -0.015107404440641403, 0.03468311205506325, 0.05930130556225777, -0.010546999983489513, -0.019583584740757942, 0.05494658276438713, 0.025072868913412094, -0.04795242100954056, 0.023693440482020378, 0.049155667424201965, 0.04009656235575676, -0.04230593144893646, -0.05705689638853073, -0.040891218930482864, 0.0016844152705743909, 0.04964033141732216, -0.059900857508182526, 0.0345938540995121, -0.00647992268204689, -0.03410150855779648, -0.006128778215497732, 0.028096647933125496, -0.02725648507475853, 0.060867030173540115, 0.01099866908043623, 0.013189475983381271, -0.009317154996097088, 0.062130462378263474, -0.011607815511524677, 0.04140330106019974, -0.013816023245453835, 0.036457717418670654, -0.03122904524207115, -0.04830725118517876, 0.036594584584236145, 0.018882805481553078, -0.05067402869462967, 0.05935361608862877, 0.031575411558151245, -0.007808182388544083, -0.0029547985177487135, -0.003781986190006137, -0.04052296280860901, 0.06082912161946297, 0.048503465950489044, -0.04618920013308525, 0.023196224123239517, -0.009935335256159306, 0.009454607963562012, 0.034474387764930725, 0.050207678228616714, 0.05278829112648964, 0.06208455190062523, -0.03022635728120804, -0.039803799241781235, 0.018153510987758636, -0.04584715887904167, -0.01107220258563757, -0.038530007004737854, 0.010058511979877949, 0.055656738579273224, -0.030179403722286224, -0.023166554048657417, 0.05048077180981636, -0.05857577174901962, -0.02996416948735714, 0.0024970686063170433, 0.007646735291928053, -0.0020898000802844763, -7.662709322175942e-06, 0.036354318261146545, -0.04970000684261322, -0.03151395544409752, -0.034102149307727814, -0.01505096722394228, -0.04219069331884384, 0.061161935329437256, 0.01876308023929596, -0.06150747090578079, -0.005328963976353407, 0.05440724641084671, -0.057188089936971664, 0.019196409732103348, -0.04731346666812897, -0.03864721953868866, -0.04371988773345947, -0.0531659796833992, 0.059204138815402985, -0.028620321303606033, 0.03906453028321266, 0.03166818991303444, -0.04595700278878212, 0.008227658458054066, -0.02357562445104122, -0.04576529189944267, 0.01501849852502346, -0.006128099747002125, 0.03216885030269623, -0.05457048863172531, -0.014369454234838486, -0.01976504921913147, -0.01780853047966957, -0.055809322744607925, -0.05473705381155014, -0.0337923988699913, 0.015434741973876953, -0.00997801311314106, -0.015218270011246204, 0.038763854652643204, 0.05977024883031845, -0.019297314807772636, -0.0307767391204834, 0.04736677557229996, 0.058373261243104935, 0.019275154918432236, 0.0513029508292675, -0.03581645339727402, 0.06005748361349106, -0.0063749696128070354, 0.04024273157119751, 0.0041403500363230705, 0.0004871607234235853, -0.04596911370754242, -0.011394192464649677, -0.03072236105799675, 0.02383946254849434, -0.013946677558124065, 0.011091258376836777, 0.00794290378689766, 0.008080859668552876, -0.04053329676389694, 0.005009688436985016, -0.03188592568039894, 0.02781490795314312, -0.00445346487686038, 0.03684423118829727, 0.044592972844839096, -0.02984657883644104, 0.01520671509206295, -0.05283929407596588, 0.0042490167543292046, 0.031138049438595772, -0.02974993735551834, -0.0228124912828207, -0.027668075636029243, 0.021446924656629562, 0.024010132998228073, -0.04752260446548462, -0.03962783142924309, -0.022253822535276413, 0.020621033385396004, -0.0026958815287798643, -0.033277180045843124, 0.038477785885334015, -0.06032092496752739, 0.00012248473649378866, 0.01951093040406704, -0.04569487273693085, 0.03600683808326721, -0.005438074469566345, 0.054511990398168564, -0.048772282898426056, -0.019811078906059265, -0.062210988253355026, -0.01514329481869936, 0.005617721471935511, -0.054116930812597275, -0.039063356816768646, 0.01714431680738926, -0.058721873909235, -0.055907730013132095, -0.04827835038304329, -0.04843243584036827, -0.05035474896430969, -0.012469686567783356, 0.002347653964534402, 0.008610078133642673, -0.0408201590180397, 0.06081007048487663, -0.01251966692507267, -0.05437513068318367, 0.0174875445663929, 0.04948132857680321, 0.03462301194667816, 0.027995433658361435, -0.008150242269039154, -0.018108181655406952, -0.0010147083085030317, 0.0472538135945797, 0.06036864593625069, -0.004333472345024347, 0.059864386916160583, -0.04431327059864998, 0.036924343556165695, 0.05951013043522835, -0.019859258085489273, -0.055110830813646317, -0.01658131740987301, -0.010669384151697159, 0.029999257996678352, 0.006431673187762499, 0.0431596077978611, 0.03667185828089714, 0.018055349588394165, -0.0355004221200943, -0.04996998608112335, -0.0008719148463569582, -0.042439043521881104, -0.04351898655295372, 0.051085300743579865, -0.059366460889577866, 0.022983210161328316, 0.021931838244199753, 0.0025481015909463167, -0.02620990201830864, 0.0050079855136573315, 0.012803240679204464, 0.0428912527859211, 0.014687823131680489, 0.05414868891239166, 0.02477656863629818, -0.029508059844374657, -0.0005077979876659811, -0.00900234468281269, -0.025349881500005722, 0.043053578585386276, 0.050927937030792236, 0.06246267259120941, -0.035591866821050644, -0.06046493351459503, 0.05518079176545143, -0.02986571006476879, -0.00990208052098751, 0.0069945077411830425, 0.029533812776207924, -0.014979470521211624, -0.029903100803494453, -0.01596955582499504, -0.00717014679685235, 0.04751186817884445, -0.0025972039438784122, 0.03587706387042999, 0.05702339485287666, -0.005999038927257061, 0.03766375780105591, -0.02476930059492588, -0.01827228255569935, -0.008678128942847252, -0.004557792562991381, 0.055351026356220245, -0.03347982093691826, -0.042399901896715164, 0.04649034142494202, -0.048349879682064056, 0.054181888699531555, 0.036516766995191574, 0.026833567768335342, -0.01626717858016491, -0.034915924072265625, -0.030734185129404068, 0.017145078629255295, -0.0156923346221447, 0.018606573343276978, 0.036906998604536057, -0.012852189131081104, -0.006116136908531189, -0.03676662594079971, -0.06055136397480965, -0.00029852247098460793, -0.02783847041428089, 0.011775732040405273, 0.023315012454986572, -0.03346332907676697, -0.006666861474514008, 0.05985355004668236, 0.046471189707517624, 0.046743664890527725, 0.036927081644535065, -0.05519735440611839, 0.04859538748860359, 0.05469784513115883, 0.02880636416375637, -0.0323457345366478, -0.0057112728245556355, 0.0579032301902771, 0.031122412532567978, 0.021204223856329918, -0.04018443450331688, 0.05536474660038948, -0.0059105409309268, -0.00429736590012908, 0.030039848759770393, -0.05128450319170952, 0.007827281020581722, -0.03318749740719795, 0.008696053177118301, 0.04016577824950218, -0.022725744172930717, -0.018429305404424667, 0.0180356502532959, -0.014372446574270725, 0.018188687041401863, -0.04102199152112007, -0.018024206161499023, -0.032014600932598114, 0.056719016283750534, 0.0430559404194355, -0.056164875626564026, 0.00937209464609623, 0.0028289402835071087, -0.049960147589445114, 0.04737875610589981, -0.0026276635471731424, 0.001869632164016366, -0.05475349351763725, 0.05625644698739052, 0.04106837511062622, 0.027467671781778336, 0.06131153181195259, -0.05269056558609009, 0.011432697996497154, -0.055639494210481644, -0.008757520467042923, 0.035969775170087814, 0.03689372539520264, 0.051286567002534866, 0.02407108247280121, 0.003061670111492276, -0.0020263069309294224, 0.024562103673815727, 0.011128531768918037, 0.04845330864191055, 0.008097115904092789, 0.003958998713642359, 0.029758069664239883, 0.04587991163134575, -0.046489741653203964, 0.014010037295520306, 0.05931809917092323, -0.005868151783943176, 0.011494103819131851, 0.02357431687414646, -0.021535683423280716, 0.05469352379441261, -0.028380630537867546, -0.005513431970030069, -0.05067160725593567, 0.023903479799628258, -0.062350835651159286, -0.05363607034087181, 0.01178460568189621, -0.03182609751820564, 0.004068146925419569, -0.023055575788021088, 0.06151295080780983, 0.024677986279129982, 0.026331337168812752, -0.007654998451471329, -0.0029735153075307608, -0.035624124109745026, 0.022800905629992485, 0.023369355127215385, -0.032701749354600906, 0.0039953929372131824, 0.02244001068174839, -0.021601371467113495, -0.023311913013458252, 0.035975243896245956, 0.023526500910520554, 0.024185527116060257, 0.024727197363972664, 0.013433768413960934, -0.02897237427532673, -0.016952086240053177, 0.008977187797427177, 0.05664593726396561, 0.022736214101314545, 0.021976998075842857, 0.06119323894381523, 0.014230623841285706, 0.0017624561442062259, -0.002297417726367712, -0.028358526527881622, -0.00098629598505795, 0.04944091662764549, -0.04365867003798485, -0.036719102412462234, 0.031290072947740555, -0.05579303950071335, 0.026593901216983795, 0.04270122945308685, -0.04341057315468788, -0.03992393612861633, -0.057516343891620636, -0.005850085988640785, -0.002161729149520397, 0.01945573464035988, 0.0610530711710453, -0.034112222492694855, -0.02746368572115898, -0.014643128030002117, 0.045590270310640335, 0.04436683654785156, 0.05887356773018837, 0.01398756168782711, -0.030781574547290802, 0.032656267285346985, -0.02426697500050068, -0.009740537032485008, -0.061660509556531906, -0.03991198167204857, 0.053819265216588974, -0.05220507085323334, -0.057513248175382614, 0.022647442296147346, 0.007064965553581715, -0.06184913590550423, 0.040191467851400375, 0.032927390187978745, 0.03671840578317642, 0.0420268177986145, -0.02929292432963848, 0.0556391216814518, -0.037145696580410004, -0.03885811194777489, 0.0376553051173687, 0.05437507852911949, -0.019095545634627342, -0.037785086780786514, 0.03603668138384819, -0.009057234041392803, 0.06080413609743118, -0.04732779040932655, 0.03297266364097595, -0.056757304817438126, 0.00257654651068151, 0.00475466251373291, 0.05709537863731384, 0.031810007989406586, 0.005689261946827173, -0.0300595723092556, -0.0006518900045193732, -0.025354554876685143, -0.0025385497137904167, 0.0018443677108734846, -0.05710725486278534, -0.02796321175992489, 0.017625750973820686, -0.008632668294012547, 0.04687540978193283, 0.003887616330757737, 0.05918639898300171, 0.018415244296193123, -0.023687604814767838, 0.043324779719114304, 0.03750816360116005, 0.012997293844819069, -0.022556597366929054, -0.024878626689314842, 0.021652035415172577, -0.0026254220865666866, -0.04236172139644623, 0.06174645572900772, 0.04305581375956535, -0.037273064255714417, 0.017489871010184288, 0.0032654518727213144, 0.012294803746044636, 0.020413517951965332, 0.006891324184834957, 0.008604897186160088, 0.008633815683424473, 0.05220800265669823, -0.03506603091955185, 0.002704211277887225, -0.04788663238286972, 0.01387049164623022, -0.0351104661822319, 0.01908610388636589, -0.021360980346798897, 4.786150748259388e-05, 0.059593044221401215, -0.044631294906139374, 0.04100661724805832, -0.018326636403799057, -0.03595863655209541, 0.019136447459459305, -0.02156294882297516, -0.04392222687602043, 0.03935379162430763, -0.04068632423877716, 0.03760033845901489, -0.019951753318309784, 0.061589453369379044, 0.03474929928779602, -0.017004208639264107, -0.03927464038133621, 0.011206589639186859, -0.058471087366342545, -0.05791190639138222, -0.0474085807800293, 0.03151853382587433, 0.007267999462783337, -0.014231082051992416, -0.025736847892403603, 0.017701346427202225, 0.02144729532301426, 0.02853616513311863, 0.005917571485042572, -0.0073159318417310715, -0.035799939185380936, -0.01876036822795868, -0.013020421378314495, 0.054272543638944626, 0.05299680307507515, 0.0008934588986448944, 0.0017232827376574278, 0.006155051756650209, -0.031074300408363342, 0.013013792224228382, -0.04454899951815605, -0.0019367891363799572, -0.05690322816371918, -0.05907270684838295, 0.04967896640300751, -0.02791634202003479, -0.009509285911917686, -0.05302821844816208, -0.04870083928108215, 0.05246144160628319, 0.04538939893245697, -0.014685569331049919, 0.025629298761487007, 0.03768346086144447, 0.0494738407433033, 0.0388178788125515, 0.020054765045642853, -0.01821911707520485, -0.05081332474946976, 0.0110337994992733, 0.030367238447070122, -0.019812455400824547, -0.024716414511203766, -0.0424223393201828, -0.04140915721654892, -0.03340119495987892, -0.05945516377687454, 0.006642361171543598, 0.022289937362074852, 0.00041185077861882746, -0.033114831894636154, 0.057755228132009506, 0.02997705712914467, 0.05096213147044182, 0.011208192445337772, 0.010243566706776619, -0.01443465705960989, -0.045855045318603516, 0.04745263233780861, -0.05988026782870293, 0.058466289192438126, -0.04956241324543953, -0.001549051026813686, -0.019234469160437584, 0.02496643178164959, 0.06216442584991455, -0.006428385153412819, 0.04454762116074562, 0.030143171548843384, -0.014345342293381691, -0.005376818589866161, 0.04106254130601883, -0.021184559911489487, 0.04212381690740585, 0.04598863050341606, -0.005488326773047447, -0.05768631398677826, 0.0391191691160202, -0.0025124249514192343, -0.008249119855463505, 0.015487669967114925, 0.014946087263524532, -0.04767826944589615, 0.0349612794816494, 0.053438566625118256, -0.01730921119451523, -0.012575309723615646, -0.05385037139058113, 0.01917378045618534, 0.04810898005962372, -0.003920366056263447, 0.013539024628698826, -0.027195066213607788, -0.012740567326545715, 0.04621504992246628, 0.04798218980431557, -0.025797829031944275, 0.05733831971883774, -0.04188696667551994, 0.0091744689270854, -0.03494621068239212, 0.029722686856985092, 0.03466670960187912, 0.04974827170372009, -0.05318046361207962, 0.04574787616729736, 0.02151263877749443, 0.014590410515666008, 0.047601524740457535, 0.04435187950730324, 0.06109750270843506, -0.04495726525783539, -0.05588584765791893, 0.03267498314380646, 0.05854548513889313, -0.04940250888466835, 0.04610256105661392, -0.04922660067677498, 0.01885312981903553, -0.04247187077999115, 0.007375063840299845, -0.014979547820985317, -0.03100120648741722, -0.040189746767282486, 0.05522318184375763, -0.043740130960941315, -0.04362709820270538, 0.02940060943365097, -0.007186717353761196, 0.030925678089261055, -0.005990081001073122, -0.04537956416606903, 0.04541323706507683, 0.049960438162088394, 0.036919087171554565, -0.04916810616850853, 0.0367836058139801, 0.011940183117985725, 0.03346671164035797, -0.023831438273191452, 0.04030274972319603, 0.024729734286665916, 0.038348011672496796, 0.06234705448150635, -0.04624908044934273, 0.03679918125271797, 0.023546919226646423, -0.04992398992180824, 0.04682238772511482, -0.014721449464559555, 0.042215410619974136, -0.044269878417253494, -0.0055735306814312935, -0.01624889113008976, 0.006676916964352131, -0.01511018443852663, -0.048931676894426346, 0.05918257310986519, -0.021480651572346687, -0.05728383734822273, 0.06186775490641594, -0.054917432367801666, -0.03808881714940071, 0.027966901659965515, 0.010100845247507095, -0.009422866627573967, 0.02046154998242855, 0.060086656361818314, -0.015085115097463131, 0.03501522168517113, -0.020677007734775543, -0.011725753545761108, 0.05159999802708626, 0.060827311128377914, -0.02546413615345955, 0.007015986833721399, -0.04035656899213791, -0.006770916748791933, -0.00289501273073256, -0.017180243507027626, -0.006107766181230545, 0.0009197127656079829, -0.02528868429362774, 0.0005939132533967495, -0.02369670197367668, -0.05103534087538719, -0.04703609645366669, -0.0540698803961277, 0.022942958399653435, -0.051858559250831604, -0.008746616542339325, 0.03604578226804733, 0.007705230265855789, 0.0013309201458469033, -0.03514491021633148, -0.008265091106295586, 0.04413966089487076, 0.05420917272567749, 0.04377826675772667, 0.01897350139915943, -0.017796186730265617, 0.0013863216154277325, -0.04235081002116203, 0.029641153290867805, 0.050041891634464264, -0.029479550197720528, 0.0014781862264499068, 0.041274454444646835, -0.019426563754677773, 0.02167656645178795, -0.025742700323462486, -0.03570939227938652, -0.021105298772454262, -0.017580820247530937, 0.021165788173675537, -0.002385741099715233, -0.002015394624322653, -0.05950872227549553, 0.04466975852847099, -0.00626336969435215, -0.04918893054127693, 0.018877005204558372, 0.061807211488485336, 0.014753945171833038, 0.018934473395347595, 0.05838710442185402, -0.045206643640995026, 0.044789183884859085, -0.039671145379543304, -0.06217483431100845, 0.004555611405521631, -0.03846949338912964, -0.016658250242471695, 0.060839809477329254, 0.05098772421479225, 0.011971107684075832, -0.006180258002132177, -0.048392098397016525, 0.023477699607610703, -0.059614621102809906, -0.06229741871356964, 0.04939477890729904, -0.01868274249136448, -0.007042149547487497, 0.03771049529314041, 0.048107974231243134, -0.01017725095152855, 0.008867516182363033, -0.055102311074733734, -0.02189791016280651, 0.05858747288584709, 0.04494081810116768, 0.024035336449742317, -0.02988562360405922, 0.04772669076919556, 0.013198615051805973, -0.0457586832344532, 0.037947990000247955, 0.0544997937977314, 0.05806070193648338, -0.0018009962514042854, -0.061210352927446365, 0.028900915756821632, -0.05369626358151436, 0.033200498670339584, 0.041373323649168015, 0.042325813323259354, -0.05987297371029854, -0.03827260062098503, 0.03674231097102165, -0.04665170982480049, 0.007301907520741224, 0.04140625521540642, 0.016682971268892288, 0.04632299765944481, -0.026095131412148476, 0.013134505599737167, -0.03261405974626541, -0.0013206141302362084, -0.037388719618320465, -0.05598768591880798, 0.017035700380802155, 0.04263155534863472, -0.029423339292407036, -0.020930113270878792, -0.06263289600610733, 0.022492028772830963, 0.049599628895521164, -0.05930940806865692, -0.045871492475271225, 0.003185470122843981, 0.03237740695476532, -0.021429074928164482, -0.04103647917509079, -0.03704968839883804, 0.027463208884000778, -0.06135764718055725, -0.04661296308040619, 0.027214860543608665, 0.023709429427981377, 0.027928601950407028, -0.055671121925115585, 0.0139505285769701, 0.0007337399874813855, -0.04006385803222656, -0.03696421906352043, -0.009823682717978954, -0.006794812623411417, 0.029100686311721802, 0.0024760679807513952, 0.05562126636505127, 0.0009461385780014098, -0.0546775758266449, 0.025911564007401466, 0.028569120913743973, 0.04115461930632591, 0.01754404604434967, -0.05694122612476349, 0.05999588966369629, -0.039192721247673035, 0.04647894203662872, -0.031470075249671936, 0.04171796888113022, 0.03807458654046059, -0.061119209975004196, -0.0380672886967659, 0.02290978468954563, -0.04727988317608833, -0.06171581149101257, 0.04359351843595505, 0.046019021421670914, -0.018670152872800827, 0.0371151939034462, -0.04734955355525017, -0.03883207589387894, 0.016766497865319252, 0.0619087740778923, -0.018875062465667725, -0.0009445108589716256, 0.03400585055351257, -0.0004442065837793052, 0.06206951662898064, -0.026913560926914215, -0.05110238865017891, 0.05852080509066582, 0.02854800969362259, 0.051871348172426224, -0.005467245355248451, 0.02925023064017296, 0.05406641587615013, -0.045102838426828384, -0.041579268872737885, -0.037967778742313385, 0.014420341700315475, 0.046106185764074326, 0.04098189249634743, -0.04890753701329231, 0.009806365706026554, -0.02330138348042965, -0.027638277038931847, -0.017892587929964066, 0.055888380855321884, -0.06115597486495972, -0.02780177816748619, -0.04713316634297371, 0.008320484310388565, 0.038101449608802795, 0.05772250145673752, 0.00990564189851284, 0.022808261215686798, -0.014941135421395302, 0.023081393912434578, -0.03316150978207588, -0.037430934607982635, -0.00882540363818407, -0.017610058188438416, 0.05248815193772316, -0.05591698735952377, -0.037131503224372864, -0.05211076885461807, 0.05100775510072708, 0.0141439875587821, -0.05154523625969887, 0.037497323006391525, -0.021480506286025047, 0.03616495430469513, 0.03650171309709549, -0.0005502562271431088, 0.005110085941851139, -0.01619439572095871, -0.022161811590194702, 0.04326551407575607, -0.0017730201361700892, 0.05246095731854439, -0.0022486017551273108, 0.020860575139522552, 0.031479109078645706, 0.018454162403941154, 0.0613357312977314, -0.05388916656374931, -0.024839449673891068, -0.04785144329071045, 0.04366111010313034, 0.05642992630600929, 0.02487623691558838, -0.029003826901316643, 0.016193795949220657, -0.04842853173613548, 0.052203863859176636, 0.05690896511077881, -0.01942717842757702, -0.04503289610147476, -0.027231821790337563, -0.037605226039886475, 0.031146898865699768, -0.0028422297909855843, -0.017916470766067505, -0.0400676466524601, -0.008653086610138416, 0.059176571667194366, 0.06005632504820824, -0.03094673343002796, 0.008585130795836449, 0.025622285902500153, -0.00938265398144722, -0.008236954919993877, 0.04641810059547424, 0.017876846715807915, -0.05240548402070999, -0.00046672415919601917, -0.013804522342979908, -0.014490064233541489, -0.04788260906934738, 0.0009138046880252659, 0.06205395609140396, 0.004723227582871914, -0.0013262894935905933, -0.033766284584999084, 0.021648762747645378, -0.04080251231789589, -0.02771673910319805, 0.036521151661872864, 0.021493999287486076, 0.024623386561870575, -0.037841796875, -0.00457430025562644, -0.0559980608522892, 0.043283190578222275, -0.02291557937860489, 0.037453554570674896, -0.043439317494630814, -0.01516455877572298, -0.0398930087685585, -0.04600320756435394, -0.0036304621025919914, -0.02724727988243103, 0.04643363505601883, 0.014128278009593487, -0.03460882231593132, -0.009781104512512684, 0.031909652054309845, -0.005281031597405672, 0.03598733991384506, 0.024473460391163826, 0.036933671683073044, 0.017382582649588585, 0.042484100908041, 0.027686862275004387, 0.003425280563533306, 0.03252954035997391, -0.038720209151506424, -0.04450167343020439, 0.009398448280990124, -0.05369878560304642, 0.022648479789495468, 0.053123246878385544, 0.024475324898958206, 0.05389649048447609, -0.018334316089749336, -0.0249704048037529, 0.038932543247938156, -0.016514882445335388, -0.03511614352464676, -0.03476376459002495, 0.04001065716147423, -0.05241641402244568, -0.02422283962368965, 0.029858140274882317, 0.0618576854467392, -0.05247243493795395, -0.021997127681970596, -0.026053931564092636, 0.042035382241010666, 0.03592239320278168, -0.04227602109313011, -0.03974706307053566, -0.03090694174170494, 0.030285721644759178, 0.05467021092772484, 0.055111370980739594, 0.05843448266386986, -0.05162309482693672, 0.05272255837917328, -0.06152118742465973, 0.015378959476947784, 0.036917444318532944, -0.001843521953560412, 0.027865398675203323, 0.022795120254158974, 0.056500885635614395, -0.02442711405456066, -0.050728559494018555, -0.05891192704439163, -0.0006210544961504638, -0.020273223519325256, -0.034478191286325455, 0.0062307314947247505, 0.018372396007180214, 0.005899257957935333, -0.048952192068099976, -0.04313884302973747, -0.058229606598615646, 0.03397359326481819, 0.028971610590815544, 0.018935589119791985, 0.008686862885951996, 0.0151296965777874, -0.004119242541491985, 0.06209927424788475, -0.048554979264736176, 0.038638800382614136, -0.0262660663574934, -0.06034509465098381, -0.03137677535414696, 0.05058428645133972, -0.060577668249607086, 0.03895571827888489, -0.05892018973827362, 0.021940022706985474, 0.000722970871720463, -0.0440409779548645, 0.06074066087603569, 0.004216703586280346, -0.04159172996878624, -0.03740619495511055, 0.02071651630103588, -0.00638197734951973, 0.02786131761968136, -0.003166977781802416, -0.03404049202799797, -0.03788324072957039, 0.03507969155907631, -0.006191751454025507, -0.055231690406799316, 0.057809680700302124, 0.06163717061281204, -0.0225414726883173, 0.01912110485136509, -0.061906278133392334, 0.003815727774053812, 0.019507957622408867, -0.00025659630773589015, -0.05231675133109093, 0.060217875987291336, -0.015518203377723694, -0.0036833565682172775, 0.052959561347961426, -0.01430646050721407, -0.03006269782781601, 0.005094424355775118, -0.0419972687959671, -0.02468235418200493, -0.0002885559806600213, -0.042832810431718826, 0.0536428838968277, -0.04746970161795616, -0.015560331754386425, 0.04662651941180229, -0.0013824012130498886, -0.011891434900462627, 0.03943925350904465, 0.03324684128165245, -0.04720458760857582, -0.028371034190058708, -0.033666517585515976, -0.031242020428180695, -0.05918264761567116, 0.04862761124968529, -0.03546375408768654, 0.0357271246612072, -0.029364395886659622, 0.05279609188437462, -0.03932572528719902, -0.019664807245135307, 0.003208905691280961, -0.04320542514324188, -0.059344056993722916, 0.05452221632003784, 0.012357085011899471, -0.020809948444366455, 0.03424020856618881, -0.015083923004567623, -0.013132073916494846, -0.032191190868616104, -0.04325457662343979, -0.038653019815683365, 0.02244739606976509, -0.00914858654141426, 0.052932582795619965, -0.04456597939133644, -0.012630007229745388, 0.011107477359473705, -0.03754929080605507, -0.06144608184695244, 0.02509612962603569, -0.017350181937217712, -0.03600674867630005, -0.008359579369425774, 0.012506834231317043, -0.03121662326157093, 0.019719164818525314, 0.022246835753321648, -0.018497765064239502, -0.025635844096541405, -0.019832849502563477, 0.014577076770365238, 0.016876891255378723, -0.033295050263404846, -0.022737326100468636, -0.002738912822678685, 0.043450817465782166, 0.024173911660909653, 0.04140053316950798, 0.003767558140680194, -0.02910972386598587, 0.004604330286383629, 0.010176916606724262, 0.024523578584194183, 0.013598719611763954, 0.01235270407050848, 0.057023581117391586, 0.00813749898225069, 0.04759702831506729, 0.010879717767238617, 0.0197739340364933, 0.044088155031204224, 0.04462307319045067, 0.042456723749637604, -0.016514046117663383, -0.033776771277189255, 0.05710015073418617, -0.05197327956557274, 0.052248287945985794, -0.003115454688668251, 0.026285430416464806, 0.006142584141343832, 0.04825045168399811, 0.029465163126587868, -0.0067490264773368835, 0.021167708560824394, -0.01963750272989273, -0.030710464343428612, 0.0269145667552948, 0.0019113941816613078, 0.04365259408950806, 0.059024397283792496, -0.03872625529766083, 0.040411196649074554, 0.034505922347307205, -0.03655795380473137, 0.019947359338402748, -0.022500677034258842, 0.021768290549516678, -0.028832867741584778, 0.009476973675191402, 0.03822999820113182, -0.03708081692457199, 0.03880131244659424, 0.054989513009786606, -0.06270992010831833, -0.031524449586868286, 0.0014103237772360444, -0.04001257196068764, 0.01127262506633997, 0.04549405351281166, 0.005647129379212856, -0.052886608988046646, -0.031472913920879364, 0.04727061092853546, 0.056129276752471924, 0.0019971115980297327, -0.039249032735824585, -0.005943496711552143, -0.01858658157289028, 0.0051449672318995, 0.0014962352579459548, -0.0204693004488945, -0.05013673007488251, -0.011440528556704521, -0.03570093959569931, -0.005666988901793957, 0.04921726882457733, 0.026304777711629868, 0.003926197066903114, 0.04114740341901779, -0.058188050985336304, 0.015930358320474625, -0.008640351705253124, -0.04109468683600426, -0.06017107516527176, 0.038491543382406235, -0.041319165378808975, 0.03357098996639252, -0.04805624485015869, 0.03093774802982807, -0.01553351990878582, -0.051371730864048004, -0.0073472303338348866, -0.05220339447259903, 0.027559032663702965, -0.04221067205071449, 0.0031008911319077015, 0.04636078327894211, 0.022018257528543472, 0.0010065517853945494, -0.0021996016148477793, 0.019809629768133163, 0.0198868066072464, -0.01617952063679695, -0.004011663142591715, 0.019206035882234573, -0.014802663587033749, -0.04443762078881264, -0.01749582216143608, 0.04766463860869408, -0.03790929540991783, 0.050602685660123825, -0.0071950345300138, -0.05969079211354256, 0.039140090346336365, 0.056498173624277115, -0.010595424100756645, -0.015896392986178398, -0.039794329553842545, 0.020251857116818428, -0.0021533709950745106, -0.0241511519998312, -0.009253665804862976, 0.0488085113465786, 0.03555530682206154, 0.03880767896771431, -0.0005715029546990991, -0.011596455238759518, 0.04170718416571617, 0.020411986857652664, -0.014037580229341984, 0.031002869829535484, 0.016483908519148827, 0.034245021641254425, 0.02781985141336918, 0.005474494770169258, 0.0013512888690456748, 0.04473646357655525, 0.012741929851472378, -0.026910126209259033, -0.04872903227806091, -0.02993491291999817, -0.05371926352381706, 0.052486203610897064, -0.05753055214881897, 0.014758888632059097, 0.009466920979321003, -0.027814650908112526, -0.012159197591245174, 0.020151173695921898, -0.057987041771411896, -0.052912387996912, -0.01709604449570179, 0.008870018646121025, 0.05601350590586662, -0.031315647065639496, -0.06064287945628166, 0.03995711728930473, -0.05318254232406616, -0.05569402873516083, -0.062118519097566605, 0.000454361317679286, -0.051925864070653915, -0.04595251753926277, -0.05812999606132507, -0.04649679362773895, -0.033339474350214005, -0.051057398319244385, -0.014766979031264782, -0.024605892598628998, 0.029210586100816727, -0.0026529652532190084, -0.009657834656536579, 0.01568404957652092, -0.0038578957319259644, -0.021683352068066597, -0.038281504064798355, -0.049516163766384125, -0.029887307435274124, 0.009014072827994823, 0.006645918358117342, -0.06218106299638748, -0.0328751839697361, -0.046527571976184845, -0.010159289464354515, -0.05291748046875, -0.05240931361913681, -0.05886949598789215, -0.014635642059147358, 0.041876211762428284, -0.06280313432216644, -0.021600326523184776, -0.02909206971526146, -0.03276593238115311, 0.05309757590293884, 0.04595734551548958, -0.004562336951494217, 0.0069921002723276615, -0.045262567698955536, 0.06000645086169243, 0.039039257913827896, 0.061034079641103745, -0.01987716369330883, -0.009173359721899033, 0.05425781011581421, -0.043737173080444336, -0.017356211319565773, -0.0510423369705677, 0.03128376975655556, 0.05327725037932396, -0.0026648303028196096, 0.026702992618083954, -0.022041529417037964, -0.03119240701198578, 0.01747630536556244, 0.04103431850671768, 0.031084144487977028, 0.03521626442670822, 0.01109446119517088, 0.006538098677992821, -0.05794283375144005, 0.004087598994374275, -0.027506975457072258, 0.0057182009331882, -0.028965672478079796, -0.012753382325172424, -0.0589718334376812, -0.031253937631845474, 0.015585048124194145, -0.005059354472905397, -0.049942392855882645, -0.06193197891116142, -0.05069674551486969, -0.004972416907548904, 0.022652683779597282, -0.012272095307707787, 0.016112199053168297, 0.012695086188614368, 0.028884707018733025, 0.05209334194660187, 0.0533917210996151, -0.038789473474025726, -0.027448924258351326, 0.01593582145869732, -0.01218432653695345, -0.04329787939786911, -0.04845115542411804, 0.05865628272294998, -0.018988879397511482, -0.03287041559815407, -0.0010992871830239892, -0.011873474344611168, 0.060505591332912445, -0.015114469453692436, 0.02881311997771263, 0.018051356077194214, -0.05646307021379471, -0.024203723296523094, 0.028244545683264732, 0.010702396742999554, -0.04116549715399742, 0.0005414439365267754, -0.006555027794092894, 0.04301632568240166, 0.033653900027275085, 0.051519159227609634, -0.04614171385765076, 0.023934662342071533, -0.011382116936147213, 0.007372490130364895, 0.02553139626979828, -0.028918718919157982, 0.03672197088599205, -0.019933711737394333, -0.05685228481888771, -0.044136255979537964, -0.02664569392800331, -0.03521927446126938, 0.051078714430332184, 0.03219344839453697, -0.05743717774748802, 0.006657003425061703, 0.054598476737737656, -0.05771945044398308, 0.01891043409705162, -0.05990707874298096, -0.03228854387998581, -0.05804270878434181, 0.041780535131692886, -0.05793609097599983, -0.0596240758895874, 0.006733558140695095, 0.049443937838077545, -0.04491710662841797, -0.04087663069367409, 0.039414867758750916, -0.04977775365114212, 0.06047238036990166, -0.014825125224888325, -0.059078291058540344, -0.0058775292709469795, -0.06111621484160423, -0.000549454998690635, -0.042671095579862595, 0.051126521080732346, -0.007630093488842249, 0.04283306002616882, -0.041048116981983185, 0.054459311068058014, 0.025427881628274918, 0.0482495091855526, -0.04447930306196213, 0.037134721875190735, 0.009957992471754551, -0.024343308061361313, -0.02600143291056156, -0.05434155836701393, -0.05722368508577347, 0.03759683296084404, 0.018062440678477287, 0.03657146170735359, -0.057422954589128494, 0.03383655846118927, -0.045891549438238144, -0.04856017231941223, 0.007331546861678362, -0.05322238802909851, -0.04088849574327469, -0.046087708324193954, -0.04637285694479942, 0.004573490470647812, 0.05503431707620621, 0.027502886950969696, -0.06227988749742508, 0.00032140687108039856, -0.006068122107535601, -0.01884903758764267, 0.04323536157608032, -0.0024722982197999954, 0.00395664107054472, 0.04306168481707573, -0.017724450677633286, -0.05592108145356178, 0.043956492096185684, 0.038236167281866074, 0.05535101890563965, 0.05640686675906181, -0.056820858269929886, -0.034220948815345764, -0.01111091859638691, 0.0448610894382, 0.008175571449100971, -0.010781876742839813, 0.011602752842009068, 0.05425279214978218, 0.030466997995972633, -0.03207479044795036, -0.06211438030004501, -0.017357757315039635, 0.05735442042350769, 0.05952645093202591, -0.03350410610437393, 0.02347753942012787, 0.03280690684914589, -0.03246833756566048, -0.02564522810280323, 0.014440813101828098, 0.0028796724509447813, -0.009641312062740326, -0.03610697761178017, 0.013478955253958702, 0.04319194331765175, 0.0245983749628067, -0.041750192642211914, -0.005558868404477835, -0.003682703711092472, -0.0025672020856291056, -0.04196489602327347, -0.01948014833033085, -0.03422747552394867, 0.06212545558810234, 0.018372736871242523, 0.004517361521720886, 0.06055266782641411, 0.044615238904953, -0.04592720419168472, 0.04792282357811928, 0.005033306311815977, 0.040805164724588394, -0.03225775063037872, -0.05137018859386444, 0.038986749947071075, 0.06159191206097603, -0.05700548365712166, 0.020685845986008644, 0.037320785224437714, -0.04140113666653633, -0.0075936084613204, 0.05213896557688713, -0.029408589005470276, 0.036763135343790054, -0.031927045434713364, -0.05863764137029648, -0.04472963139414787, -0.015251150354743004, 0.002148211468011141, 0.043160486966371536, -0.023938626050949097, 0.015008735470473766, -0.027299033477902412, 0.052117969840765, 0.05922987312078476, -0.01801176369190216, -0.0007078061462379992, -0.018623726442456245, -0.03184768185019493, 0.05493127927184105, 0.01540836226195097, -0.050386834889650345, 0.011612346395850182, -0.030615629628300667, -0.04583790525794029, 0.012862114235758781, -0.01647241786122322, 0.05306241661310196, 0.040373750030994415, -0.012279151007533073, -0.044454414397478104, -0.029039261862635612, -0.059000831097364426, -0.010269896127283573, -0.02331291325390339, -0.03579211235046387, 0.03685211017727852, 0.016681978479027748, -0.05658287554979324, 0.0580577589571476, -0.01855885051190853, -0.02315923012793064, -0.02987571805715561, -0.006316082552075386, 0.05514340102672577, 0.022928042337298393, -0.05534786731004715, -0.02767043188214302, -0.009369834326207638, -0.06054707244038582, 0.061204634606838226, -0.049732815474271774, 0.03117498569190502, -0.035534102469682693, 0.05977821350097656, 0.0059981318190693855, -0.008952082134783268, 0.057479679584503174, -0.0007299904245883226, -0.04099118337035179, 0.05877665802836418, 0.027405833825469017, -0.026787715032696724, 0.024347340688109398, 0.010967310518026352, -0.036550793796777725, 0.004052379634231329, -0.055622875690460205, 0.057573482394218445, 0.017241159453988075, -0.02947090193629265, 0.045384325087070465, -0.028133485466241837, -0.05720338225364685, 0.05566418915987015, -0.0342288538813591, -0.03162064403295517, -0.010778083465993404, -0.0366753488779068, -0.05739448219537735, -0.01439576968550682, -0.028370849788188934, -0.0013748721685260534, 0.06189451366662979, -0.054531797766685486, 0.006481806747615337, 0.04882288724184036, -0.016622722148895264, 0.00828314758837223, 0.012883136980235577, 0.04117342457175255, 0.04153142496943474, 0.03258826956152916, -0.0345054566860199, -0.010990088805556297, 0.0014616759726777673, 0.045051209628582, -0.061253052204847336, 0.059231147170066833, 0.02400115318596363, -0.005732215009629726, 0.0030812141485512257, -0.02498624101281166, 0.035119034349918365, -0.04710783809423447, 0.06015462428331375, -0.053300660103559494, -6.049763032933697e-05, -0.02808677963912487, -0.0552823469042778, 0.05669955536723137, -0.03272246569395065, 0.03395073488354683, 0.0008355514728464186, -0.02308923937380314, -0.054876405745744705, 0.052718982100486755, 0.023901868611574173, 0.029019135981798172, 0.03539268672466278, -0.018400531262159348, 0.0545155368745327, 0.045632217079401016, -0.013296092860400677, -0.024606209248304367, -0.021642083302140236, 0.04400147870182991, -0.03023318573832512, 0.004199745133519173, -0.04632541164755821, 0.0231840368360281, -0.00462312251329422, -0.012293536216020584, 0.017053578048944473, 0.002042211592197418, 0.018909525126218796, -0.051928579807281494, 0.0015002901200205088, -0.04744943603873253, 0.0032326888758689165, 0.025316555052995682, 0.03882652893662453, 0.03955695033073425, -0.05022148787975311, -0.011848906986415386, -0.016734803095459938, 0.0058065010234713554, 0.03554900735616684, -0.04189211502671242, -0.029366934671998024, -0.04470435157418251, 0.06216393783688545, 0.029500173404812813, -0.011484806425869465, 0.00821941439062357, -0.00697243632748723, 0.0064970036037266254, -0.06190253049135208, -0.00509736267849803, 0.03609210252761841, -0.017593901604413986, -0.036724016070365906, -0.056350063532590866, -0.012950116768479347, 0.04488449916243553, 0.026845445856451988, -0.04468787834048271, 8.735893061384559e-05, -0.017885996028780937, 0.0268081221729517, 0.0190063938498497, -0.020669586956501007, 0.013062550686299801, -0.007877231575548649, 0.019789963960647583, 0.01986945979297161, 0.05500350147485733, 0.060255009680986404, 0.0482587069272995, 0.04708992689847946, -0.009325888007879257, -0.044992975890636444, -0.008758781477808952, 0.014354389160871506, 0.05208141729235649, 0.015408012084662914, 0.06022363528609276, -0.048019006848335266, -0.00826327595859766, 0.050217919051647186, 0.034527476876974106, 0.019310710951685905, 0.028952166438102722, -0.05925976485013962, -0.004971569869667292, -0.03749953955411911, 0.046635210514068604, -0.01941531151533127, -0.05501159280538559, 0.011422349140048027, 0.0006988986860960722, 0.020123761147260666, 0.03944386914372444, 0.01835193857550621, -0.03142232447862625, 0.03938001021742821, 0.04212598875164986, -0.06142345815896988, -0.00802942831069231, -0.012578978203237057, 0.020698226988315582, 0.017788546159863472, 0.06051964685320854, -0.03661927208304405, 0.04174192622303963, 0.02883262000977993, 0.0419306717813015, 0.035786282271146774, -0.018150420859456062, -0.01724897138774395, 0.031641557812690735, -0.017542704939842224, -0.03708089143037796, 0.04968559741973877, -0.030385321006178856, 0.027652140706777573, -0.049224723130464554, 0.009987015277147293, -0.01316126063466072, 0.060964763164520264, -0.049355171620845795, 0.0584784559905529, -0.03154711425304413, -0.05691923946142197, 0.046908147633075714, 0.01174040138721466, 0.02109353244304657, -0.013257979415357113, -0.03823726624250412, 0.008013355545699596, -0.0005685245851054788, -0.048177290707826614, 0.05619918555021286, -0.025128239765763283, -0.037140827625989914, -0.02674291841685772, -0.043814416974782944, -0.03190002217888832, 0.00736272893846035, -0.04024532437324524, 0.008056423626840115, 0.028021475300192833, -0.025218194350600243, 0.029352381825447083, 0.05444953963160515, 0.024922668933868408, 0.0366450659930706, -0.044061001390218735, 0.037105318158864975, -0.012461843900382519, 0.028146101161837578, -0.03303441032767296, -0.05247291550040245, 0.004917153622955084, -0.05267966538667679, -0.029728494584560394, 0.004868241958320141, -0.02497153915464878, -0.05735297501087189, 0.054526813328266144, 0.03754214197397232, 0.027791082859039307, 0.05453121289610863, 0.0038074536714702845, 0.06114446371793747, -0.04166562482714653, -0.004798124078661203, -0.03710384666919708, 0.016330361366271973, 0.057882051914930344, -0.027715494856238365, -0.017582088708877563, 0.043529585003852844, 0.05626657232642174, 0.05983417108654976, -0.025719821453094482, 0.00958432350307703, -0.01766294613480568, 0.02869858406484127, -0.026674235239624977, -0.023984355852007866, 0.023376237601041794, -0.05843151733279228, 0.03023635409772396, 0.01560299750417471, -0.003871226916089654, 0.057271141558885574, -0.02871127612888813, -0.036998044699430466, 0.03215419501066208, -0.049533359706401825, 0.04441853612661362, -0.02224094420671463, 0.03018401563167572, -0.060319025069475174, 0.005454318597912788, 0.055964089930057526, -0.01738065481185913, 0.0036059492267668247, -0.013465785421431065, 0.004919570405036211, -0.04724901169538498, -0.007979672402143478, -0.02358183078467846, -0.035556621849536896, 0.040047891438007355, 0.005585306324064732, 0.05804452300071716, 0.06144701689481735, 0.047250788658857346, 0.01642986387014389, 0.043474141508340836, -0.011111459694802761, -0.010724428109824657, 0.034563083201646805, 0.04480486363172531, -0.018417654559016228, -0.002123555401340127, -0.05104706436395645, -0.020236074924468994, 0.03719242289662361, -0.008282197639346123, 0.058464325964450836, 0.017317043617367744, 0.04777047410607338, 0.04305778816342354, 0.019365079700946808, 0.02015346847474575, -0.014493853785097599, 0.06022496894001961, -0.058186598122119904, -0.008952390402555466, 0.014661185443401337, 0.026927834376692772, -0.002433523302897811, -0.026215655729174614, -0.01725844293832779, 0.043259743601083755, -0.004226574674248695, 0.05337284132838249, 0.014625605195760727, 0.011226934380829334, 0.03925104811787605, -0.01350212749093771, -0.04015006870031357, -0.02171749249100685, 0.022984180599451065, -0.05681752413511276, 0.011815333738923073, 0.022105025127530098, -0.022501857951283455, -0.018450701609253883, -0.0537554994225502, -0.032245270907878876, -0.03742595016956329, -0.0020595474634319544, 0.03997056931257248, 0.046355411410331726, -0.04380255192518234, -0.03262658789753914, 0.007263513281941414, 0.05158335715532303, -0.05602020025253296, -0.04589046910405159, -0.04715600982308388, -0.03963974490761757, 0.004682404920458794, -0.04335230961441994, -0.03503027930855751, -0.03712325543165207, -0.041635576635599136, -0.0038136010989546776, 0.061404693871736526, 0.03488137945532799, 0.03208830952644348, 0.04639618843793869, -0.031158355996012688, 0.00355898286215961, 0.012572896666824818, -0.05269237980246544, 0.012762362137436867, 0.013651187531650066, -0.0518772229552269, 0.06211215257644653, -0.012113826349377632, -0.037483323365449905, 0.030960923060774803, 0.0031488891690969467, -0.046261850744485855, 0.0022613252513110638, -0.03247920051217079, -0.03631384298205376, -0.05670472979545593, 0.007060977630317211, 0.027619926258921623, -0.02608581818640232, -0.022919807583093643, -0.018463872373104095, 0.03053174912929535, -0.05042783543467522, -0.0011407261481508613, 0.04270835965871811, -0.026277758181095123, -0.05408484488725662, -0.01598239876329899, -0.033177562057971954, -0.03441159799695015, 0.0013680298579856753, 0.03243833780288696, -0.03594168648123741, -0.04357638955116272, 0.05768221989274025, -0.04743725433945656, -0.038064274936914444, -0.028957296162843704, -0.052485786378383636, 0.053579509258270264, -0.04907476156949997, 0.0036557368002831936, -0.00874051172286272, 0.04254934936761856, -0.036943379789590836, 0.053019579499959946, -0.017712190747261047, -0.0436481237411499, 0.010489718057215214, -0.011160553433001041, -0.008869671262800694, -0.016553249210119247, -0.03689741715788841, -0.04530108720064163, -0.01727653294801712, 0.007239647675305605, -0.04588492959737778, 0.021304359659552574, -0.045805975794792175, 0.02196241356432438, -0.06155231595039368, 0.00422511575743556, -0.04208400845527649, -0.052241403609514236, 0.0520235076546669, -0.02408546768128872, 0.03291589021682739, -0.014568613842129707, 0.044761743396520615, -0.04692539945244789, -0.05849491432309151, -0.052126746624708176, -0.041546475142240524, 0.05560671165585518, -0.005283499602228403, 0.05400935187935829, -0.0557597391307354, -0.027428219094872475, -0.05598330497741699, 0.00833282433450222, 0.01689571887254715, 0.012188696302473545, 0.016436737030744553, -0.008705136366188526, 0.05639803037047386, -0.008568028919398785, -0.009175204671919346, 0.015681279823184013, 0.03962854668498039, 0.06088344007730484, -0.05255065858364105, 0.014449303038418293, -0.008244776166975498, -0.03502289578318596, -0.04845090210437775, 0.039617765694856644, -0.06130359321832657, 0.010891838930547237, -0.02660742960870266, -0.00918011274188757, -0.04129002243280411, -0.018591566011309624, 0.030804170295596123, 0.03251910209655762, 0.025512123480439186, -0.04918958246707916, -0.04443977773189545, -0.003240979742258787, 0.023746831342577934, 0.021798357367515564, 0.009642036631703377, 0.06027625873684883, 0.05588254705071449, 0.04589444398880005, 0.03046489879488945, 0.018084360286593437, -0.016722092404961586, -0.025687815621495247, 0.0013397358125075698, 0.03396596759557724, -0.0451754555106163, -0.038728486746549606, -0.035452622920274734, -0.03925173357129097, 0.00027361317188479006, 0.005409371107816696, -0.029352808371186256, -0.028784802183508873, -0.05921781063079834, 0.04321174696087837, -0.04369151592254639, -0.012425404042005539, 0.038963161408901215, 0.02054487355053425, -0.043148722499608994, -0.025967447087168694, -0.04359608516097069, -0.048333823680877686, -0.04466618597507477, -0.04872799292206764, -0.053722482174634933, 0.020705778151750565, -0.04675756022334099, -0.04896891489624977, 0.040587566792964935, 0.036820244044065475, 0.027913285419344902, -0.02157684415578842, -0.04814671725034714, -0.03673260658979416, -0.03399994224309921, 0.020476803183555603, -0.055692076683044434, 0.0006227004923857749, 0.02069888636469841, 0.035883355885744095, 0.015850907191634178, -0.02402966283261776, 0.04469893127679825, 0.03866212069988251, -0.04515242576599121, 0.01696319691836834, -0.021303460001945496, 0.027194088324904442, 0.033224061131477356, -0.056848812848329544, -0.04451713711023331, -0.04917480796575546, -0.003903925884515047, -0.03153971582651138, 0.05779307335615158, 0.02084541693329811, -0.0506831631064415, -0.010093530640006065, 0.052800700068473816, -0.0221346877515316, 0.01977083832025528, -0.03247374668717384, 0.04869217053055763, 0.058919478207826614, -0.01918659545481205, 0.06178036704659462, 0.062017351388931274, -0.007647492457181215, 0.019023068249225616, 0.05168952792882919, 0.02969609946012497, -0.01064083632081747, -0.03239738568663597, 0.05385171249508858, -0.008274693973362446, 0.05750351771712303, 0.030509650707244873, 0.036171142011880875, -0.05802454426884651, -0.002032287884503603, -0.04133123159408569, 0.038963157683610916, -0.05409831926226616, -0.031977761536836624, -0.03968517854809761, 0.031011784449219704, 0.051148075610399246, 0.047052789479494095, -0.054643597453832626, 0.019931377843022346, 0.026623273268342018, 0.009760144166648388, -0.027341432869434357, 0.019582506269216537, -0.03107341378927231, -0.05209457874298096, -0.027910420671105385, -0.04970429092645645, 0.061143048107624054, 0.05434759333729744, 0.022378673776984215, 0.025939447805285454, 0.015888098627328873, 0.06067190319299698, -0.027729693800210953, 0.04926828667521477, -0.04702860116958618, 0.012066288851201534, -0.048868946731090546, 0.016480611637234688, -0.0422237366437912, -0.007497371174395084, 0.02769886702299118, 0.026658283546566963, -0.018323710188269615, 0.034772224724292755, -0.042997363954782486, 0.013109074905514717, 0.047979481518268585, 0.019065674394369125, -0.020693279802799225, -0.020898794755339622, 0.0478680357336998, 0.02886800467967987, -0.05714716389775276, -0.007519114296883345, -0.012782127596437931, 0.05666296184062958, 0.049698058515787125, 0.018288642168045044, 0.05241265520453453, -0.03917676582932472, 0.018096458166837692, 0.03084147535264492, 0.004659656435251236, -0.043016787618398666, 0.027559304609894753, 0.009234363213181496, -0.04384167119860649, 0.01122773252427578, -0.02261779084801674, 0.042677849531173706, 0.058588165789842606, 0.032606661319732666, -0.0110037662088871, 0.045254968106746674, -0.01218330953270197, -0.026820847764611244, -0.05545881763100624, 0.030294319614768028, -0.01514879148453474, 0.025063373148441315, 0.024739598855376244, -0.002902364358305931, -0.0019128682324662805, -0.061682164669036865, -0.047860872000455856, -0.016083331778645515, -0.02783549763262272, -0.030979551374912262, 0.06131502613425255, 0.01968439295887947, 0.032190561294555664, 0.04515451565384865, 0.0036660199984908104, -0.012785461731255054, 0.06256276369094849, 0.04080468416213989, 0.03460554778575897, -0.06209580972790718, -0.043656256049871445, -0.039448995143175125, -0.028550779446959496, 0.03409164771437645, 0.04486607760190964, -0.04007374122738838, 0.05607989802956581, -0.019950779154896736, -0.020701751112937927, -0.02449137158691883, -0.059405915439128876, 0.060812778770923615, 0.031990714371204376, -0.039352964609861374, -0.021018201485276222, -0.0100857550278306, 0.003339123912155628, -0.03287610784173012, -0.0027499182615429163, 0.02874593809247017, -0.03718702122569084, 0.026745084673166275, -0.025772666558623314, 0.03019905276596546, -0.01613485813140869, 0.042608946561813354, 0.013841114938259125, 0.06027553230524063, 0.014880661852657795, 0.01580044813454151, -0.029536183923482895, 0.027463829144835472, 0.024404209107160568, -0.060474149882793427, 0.042801063507795334, -0.04079459235072136, -0.005762868095189333, 0.02444889210164547, -0.04516001045703888, -0.0603383332490921, 0.04211173206567764, -0.022105146199464798, -0.01439049281179905, -0.012106168083846569, -0.029563309624791145, -0.0365675687789917, -0.018576735630631447, -0.0018603364005684853, -0.04419432207942009, 0.04329678416252136, -0.014456981793045998, 0.03669923543930054, -0.04225844889879227, -0.004646566230803728, 0.024409685283899307, 0.04136016592383385, -0.005655803717672825, 0.017464488744735718, -0.06248354911804199, -0.041208986192941666, 0.05020109564065933, 0.02257113717496395, -0.015706950798630714, 0.0382041372358799, 0.06139228865504265, -0.012354139238595963, 0.041414059698581696, -0.058664534240961075, -0.039631057530641556, -0.0034145358949899673, 0.010886515490710735, -0.042042504996061325, 0.03391799330711365, -0.04785514250397682, -0.027866536751389503, -0.060896843671798706, -0.05721442028880119, -0.005803816020488739, -0.004889733623713255, 0.018748881295323372, 0.05375523865222931, -0.01569962315261364, -0.012180505320429802, -0.05860051512718201, -0.052598945796489716, 0.013771778903901577, 0.011812730692327023, -0.03721217066049576, 0.051431067287921906, 0.05253581702709198, 0.020615598186850548, -0.04017068073153496, -0.0513710081577301, 0.03404223918914795, -0.056473299860954285, 0.027252182364463806, 0.01819271594285965, -0.04399709776043892, 0.029465327039361, -0.01803724467754364, -0.06143837794661522, -0.030197085812687874, 0.05831767991185188, 0.05089990422129631, -0.03774910792708397, -0.013936527073383331, 0.04752683266997337, -0.01904468983411789, -0.05365534499287605, 0.05215442180633545, -0.014721430838108063, 0.030240431427955627, 0.00501978537067771, 0.005629654973745346, -0.04482942074537277, 0.01349998451769352, 0.02566903457045555, 0.027642130851745605, 0.04675183817744255, 0.033806029707193375, 0.05989246442914009, 0.002869281219318509, 0.039612073451280594, -0.03242550045251846, 0.060956042259931564, 0.034204043447971344, -0.01669325679540634, -0.061392273753881454, 0.04667235538363457, 0.03571616858243942, -0.046165045350790024, -0.04074723273515701, 0.002732659690082073, -0.054794881492853165, -0.010686028748750687, 0.019360333681106567, -0.012050147168338299, -0.03187353536486626, 0.055590998381376266, -0.03290918469429016, 0.011910571716725826, -0.058291465044021606, 0.04153169319033623, 0.06063853204250336, 0.013945695012807846, -0.026622237637639046, 0.04122643917798996, 0.054051488637924194, 0.03077957220375538, 0.018413914367556572, -0.037875182926654816, -0.05455121397972107, 0.008061760105192661, -0.0274763572961092, -0.03733660653233528, 0.02828299254179001, -0.045854732394218445, 0.023085415363311768, -0.02130213752388954, -0.044662896543741226, 0.06116350740194321, 0.03988049551844597, 0.054955460131168365, 0.00610679155215621, 0.030354084447026253, -0.03345826268196106, -0.024603918194770813, -0.01578955538570881, -0.042977165430784225, 0.05746088922023773, 0.0244316216558218, 0.014282507821917534, 0.006641491316258907, 0.021064454689621925, -0.005182837601751089, -0.03442944586277008, -0.030571499839425087, -0.034213315695524216, -0.046531643718481064, -0.04258096590638161, -0.03418146073818207, -0.029293105006217957, -0.020388560369610786, 0.04525468870997429, -0.04685278609395027, 0.05135009065270424, 0.049805354326963425, 0.02317037619650364, -0.01206779945641756, 0.060904644429683685, 0.008511768653988838, 0.05730482190847397, -0.03939228132367134, -0.035789769142866135, 0.008778546936810017, -0.023220786824822426, -0.009527892805635929, -0.03240776062011719, 0.04838346317410469, 0.02273893728852272, -0.02198258973658085, -0.008938224986195564, 0.034412868320941925, 0.03423107787966728, 0.011224595829844475, -0.021242108196020126, 0.055064160376787186, 0.049433380365371704, 0.05816217511892319, -0.02238565869629383, 0.05182453244924545, -0.0029904500115662813, 0.02538776956498623, -0.0437600314617157, -0.003728930838406086, -0.024739207699894905, 0.03134658560156822, 0.021667398512363434, 0.057756517082452774, 0.05523805692791939, 0.026961661875247955, 0.035830166190862656, 0.04830535128712654, -0.016724545508623123, 0.040409237146377563, 0.05851573869585991, 0.03867575153708458, 0.031180489808321, -0.038890957832336426, -0.045836396515369415, -0.017801979556679726, -0.06038248538970947, -0.0583130344748497, 0.02086346223950386, 0.029027441516518593, -0.041263893246650696, -0.013981826603412628, 0.028163041919469833, -0.05276184901595116, -0.049016889184713364, -0.03545938432216644, -0.041917603462934494, 0.013567849062383175, 0.0058312430046498775, -0.06115091219544411, 0.020344195887446404, 0.004158224910497665, 0.04524991288781166, -0.009633015841245651, -0.06209581345319748, 0.017689093947410583, -0.009036949835717678, -0.04054701700806618, -0.02059544436633587, -0.0005732348654419184, 0.0483245775103569, -0.03410831093788147, 0.060028452426195145, -0.04335838183760643, -0.0020544894505292177, -0.021781185641884804, -0.025928156450390816, -0.05076267942786217, 0.028793327510356903, -0.05230787396430969, 0.05880481004714966, 0.01750696823000908, -0.044542353600263596, 0.05967491865158081, 0.004578439984470606, 0.026125319302082062, -0.04312142729759216, -0.02607818692922592, -0.05207832157611847, 0.00024418026441708207, 0.04118045046925545, -0.032666318118572235, -0.01646009273827076, -0.037114083766937256, 0.05857807397842407, 0.002084500389173627, 0.04190001264214516, -0.03319454938173294, 0.012505405582487583, 0.02313455007970333, 0.051355574280023575, -0.051004573702812195, 0.025491952896118164, -0.023783862590789795, -0.04277106747031212, 0.02132103033363819, 0.015607858076691628, -0.010952407494187355, 0.04674623906612396, 0.053836505860090256, 0.043681688606739044, 0.02479127235710621, 0.03884550556540489, -0.009492005221545696, 0.014212076552212238, -0.012801854871213436, -0.0570361353456974, 0.060827191919088364, -0.06213918328285217, 0.03750002384185791, -0.023065660148859024, 0.051672231405973434, 0.04469311237335205, -0.060096826404333115, 0.03901578485965729, -0.032123319804668427, -0.002826501615345478, 0.057727113366127014, 0.04012586548924446, -0.05057099089026451, 0.016424691304564476, 0.012594141997396946, 0.061155807226896286, -0.04752697795629501, 0.060030248016119, 0.008692333474755287, -0.05548263341188431, 0.042853616178035736, -0.033213432878255844, 0.03638070449233055, 0.008368248119950294, -0.026730936020612717, 0.05382758378982544, -0.03806527704000473, -0.0173638928681612, 0.016357824206352234, 0.03135070949792862, 0.059883132576942444, -0.008996641263365746, -0.05355076119303703, 0.024343768134713173, 0.00723918667063117, 0.0035749066155403852, 0.04584258049726486, 0.050506290048360825, 0.03421243280172348, 0.02510691061615944, 0.004728766158223152, -0.032026953995227814, 0.056558117270469666, -0.04372500628232956, -0.03904390707612038, 0.040388625115156174, 0.03507198765873909, 0.004413771443068981, -0.03726295009255409, -0.021957213059067726, -0.04164525493979454, -0.0035801599733531475, 0.002813963918015361, -0.003294999012723565, 0.041513267904520035, -0.015710825100541115, -0.03179311007261276, -0.03491561859846115, 0.028071530163288116, 0.032932430505752563, -0.020714400336146355, -0.03820571303367615, 0.058299798518419266, -0.02157110720872879, 0.05476338043808937, -0.041718993335962296, -0.007824219763278961, 0.0293293260037899, -0.05758571997284889, -0.019648177549242973, -0.052781037986278534, -0.04851214960217476, 0.04395100846886635, -0.034676048904657364, -0.05867311358451843, 0.0027916082181036472, 0.055272553116083145, -0.06012288108468056, -0.01955081708729267, 0.05235894024372101, 0.0061758533120155334, 0.04719889909029007, -0.0063093435019254684, -0.049004510045051575, -0.026903061196208, 0.02679220587015152, -0.037659164518117905, 0.0570036917924881, -0.049747057259082794, -0.058841925114393234, 0.056720130145549774, 0.04739842936396599, 0.04654652997851372, -0.05725868418812752, 0.057446643710136414, 0.006410378962755203, -0.024343110620975494, 0.02731988951563835, -0.01681295596063137, -0.01718524657189846, -0.003840796183794737, 0.03725506365299225, -0.01309313252568245, -0.03618662431836128, -0.05566128343343735, -0.06063833087682724, 0.04865559935569763, 0.05851209908723831, -0.046798475086688995, 0.01926415041089058, 0.009952358901500702, -0.020852558314800262, -0.002633448224514723, 0.0616401843726635, -0.0033547256607562304, -0.02396494150161743, 0.008322698064148426, -0.04601924493908882, -0.004652317613363266, 0.05564633011817932, 0.05689051002264023, 0.02602975070476532, 0.04009370133280754, -0.017328009009361267, 0.022692887112498283, 0.04170345887541771, 0.04876261204481125, -0.00971309281885624, 0.0033878476824611425, 0.018193665891885757, -0.05668705329298973, 0.004672413691878319, 0.016167545691132545, -0.012066611088812351, 0.014644935727119446, 0.022933730855584145, -0.018073871731758118, -0.02973617985844612, 0.03755852207541466, 0.05339913070201874, 0.01564524509012699, -0.002070508198812604, -0.02451661042869091, -0.04476118087768555, 0.04965434595942497, -0.03990712761878967, 0.04705266281962395, -0.061867669224739075, 0.01836414635181427, 0.007850999012589455, -0.03431423008441925, -0.03286736458539963, -0.017626024782657623, 0.04595969244837761, 0.04439759999513626, 0.046396948397159576, -0.02729535847902298, -0.032029468566179276, -0.019795190542936325, -0.04136388376355171, 0.015275027602910995, 0.04520241543650627, 0.05586005374789238, 0.024353016167879105, -0.02882527932524681, -0.008729202672839165, -0.04694858565926552, -0.049157820641994476, 0.018913010135293007, -0.00046419299906119704, -0.001541899866424501, 0.00041053773020394146, 0.033022474497556686, 0.02256864309310913, -0.061483923345804214, -0.05410650372505188, 0.009005619212985039, 0.05096197873353958, 0.008417509496212006, 0.042247429490089417, 0.05852828174829483, 0.05310710147023201, 0.03025669790804386, -0.05584518611431122, -0.03747641295194626, -0.04209429398179054, -0.04120442643761635, -0.04696017503738403, -0.029524022713303566, -0.007683770265430212, -0.007210520561784506, 0.029543830081820488, 0.018110185861587524, 0.05887468159198761, -0.052934810519218445, -0.036828700453042984, -0.0367041677236557, 0.0019087393302470446, 0.044549889862537384, 0.03368305787444115, 0.0009325332357548177, -0.017190441489219666, 0.018517116084694862, 0.060459669679403305, 0.046283915638923645, 0.02171904779970646, 0.03497367724776268, 0.0013219419633969665, 0.0181726161390543, -0.035633619874715805, 0.05743684619665146, 0.03650794178247452, -0.03670373186469078, 0.046966999769210815, -0.05920274555683136, -0.06113940477371216, -0.02991677075624466, -0.036536820232868195, -0.0012721022358164191, -0.008549455553293228, 0.040300387889146805, 0.002003541449084878, -0.00951051153242588, -0.016015250235795975, 0.009501544758677483, 0.015918871387839317, 0.056183334439992905, -0.0024643954820930958, 0.022433428093791008, -0.023741580545902252, 0.057141292840242386, -0.024094972759485245, -0.03061727248132229, -0.061914630234241486, -0.013080369681119919, 0.02217019535601139, -0.030836185440421104, 0.020911825820803642, 0.060931093990802765, -0.015345141291618347, -0.03747306764125824, 0.031875766813755035, 0.05472981184720993, -0.029050815850496292, 0.029196424409747124, -0.01711674965918064, -0.059529367834329605, 0.018084513023495674, 0.06145791709423065, -0.016765844076871872, 0.04459614306688309, 0.04203907400369644, 0.049563053995370865, -0.05418809503316879, -0.05548785626888275, -0.011115934699773788, 0.04851670190691948, 0.05182771757245064, 0.06150919571518898, 0.048117004334926605, -0.023330776020884514, 0.0064554400742053986, 0.011667536571621895, 0.04144015535712242, -0.033396463841199875, -0.015132437460124493, -0.0024492342490702868, 0.0026551790069788694, 0.015628548339009285, -0.057086579501628876, -0.05366629734635353, -0.002793889958411455, 0.016869045794010162, -0.03765009716153145, 0.009753046557307243, 0.02439124323427677, -0.05328565090894699, -0.008519812487065792, 0.023285875096917152, 0.03298811987042427, -0.039037514477968216, 0.043563906103372574, -0.047047268599271774, 0.028218848630785942, 0.009830414317548275, -0.03290398046374321, 0.05653955787420273, 0.03016568161547184, 0.019861798733472824, 0.017752937972545624, -0.011304909363389015, 0.03527233749628067, 0.05942496657371521, -0.011646154336631298, -0.050536006689071655, 0.059650979936122894, -0.023178860545158386, 0.007553542032837868, -0.05134745314717293, -0.005961985792964697, 0.015895763412117958, 0.0048684789799153805, 0.03242264315485954, -0.04285009205341339, -0.051299095153808594, -0.03166920691728592, 0.001244032639078796, -0.062177300453186035, -0.055694255977869034, -0.001814348972402513, 0.05301307141780853, 0.05480385571718216, -0.03420163318514824, -0.012933773919939995, -0.0497257225215435, 0.035225432366132736, 0.05669407919049263, 0.06013907492160797, 0.0470217689871788, -0.004926735535264015, -0.05975016951560974, 0.030938487499952316, -0.06208742409944534, -0.059035781770944595, 0.039280395954847336, -0.020812710747122765, -0.010234743356704712, -0.031957194209098816, -0.05504155904054642, 0.01797320879995823, -0.017964154481887817, 0.008736195042729378, -0.009354407899081707, 0.0034633467439562082, 0.018518704921007156, 0.050051599740982056, 0.03685443848371506, -0.022292299196124077, -0.042240969836711884, -0.021627768874168396, 0.05307663977146149, -0.04055476188659668, 0.03134167566895485, 0.0354946069419384, -0.035830914974212646, -0.025232506915926933, 0.04878462851047516, -0.058767661452293396, 0.011781541630625725, -0.021739892661571503, 0.016578534618020058, -0.012165612541139126, -0.0547264963388443, 0.013736619614064693, 0.03830629587173462, -0.010028906166553497, 0.02416512928903103, -0.012347519397735596, 0.009984997101128101, -0.03169364109635353, -0.03805634379386902, -0.05596231669187546, 0.05398797243833542, -0.049254029989242554, 0.03522232174873352, -0.02184811793267727, -0.0536775067448616, 0.02057846449315548, -0.04995633661746979, 0.019393745809793472, 0.06129799783229828, -0.05842699483036995, -0.05165105685591698, 0.05933225899934769, -0.004136503674089909, -0.025957198813557625, 0.04149184003472328, -0.029971543699502945, -0.0025570341385900974, 0.05432721972465515, 0.0034455573186278343, -0.00034392045927233994, 0.04345954209566116, -0.023382484912872314, -0.01942373439669609, -0.004874049220234156, 0.043478358536958694, -0.017340682446956635, 0.012334081344306469, 0.035994865000247955, 0.025986606255173683, 0.05169186368584633, -0.007190666161477566, 0.05023571848869324, 0.060805320739746094, 0.015781376510858536, -0.032209362834692, -0.047103650867938995, 0.045058723539114, -0.006395762786269188, -0.045605290681123734, 0.005668165162205696, -0.00516795227304101, -0.03844282776117325, -0.0601818822324276, 0.051856521517038345, -0.022161154076457024, -0.03535498306155205, -0.013884439133107662, -0.041110020130872726, -0.020040543749928474, 0.008449099957942963, -0.014007207937538624, -0.050410907715559006, 0.040851254016160965, 0.024828314781188965, 0.018457001075148582, 0.02745050936937332, 0.00913398340344429, 0.0448979027569294, 0.04829047620296478, -0.001979321474209428, -0.009460723027586937, 0.02961929701268673, -0.0474313423037529, 0.045209940522909164, 0.015659168362617493, -0.03200627863407135, -0.01562553644180298, 0.02329922839999199, -0.03995558246970177, -0.04356794431805611, -0.05859862640500069, -0.050713274627923965, 0.054260917007923126, 0.005163665860891342, -0.03293616697192192, -0.031741127371788025, 0.03708363696932793, 0.0034267210867255926, -0.06092635169625282, 0.039637479931116104, 0.02329857088625431, 0.0052323900163173676, 0.02370028756558895, -0.01241521816700697, -0.04047412797808647, 0.002187315607443452, 0.0010525216348469257, 0.03760043531656265, 0.047164540737867355, -0.02310786582529545, 0.03937917575240135, 0.04601648822426796, -0.04264083877205849, 0.029343627393245697, 0.060578349977731705, 0.0038430672138929367, -0.05319710448384285, 0.007980274967849255, 0.04879240319132805, -0.049867261201143265, -0.06247631087899208, -0.05542711913585663, -0.02823628857731819, -0.01428916398435831, -0.01923052966594696, -0.045102525502443314, -0.021481351926922798, 0.05329201743006706, -0.032628774642944336, 0.042087338864803314, -0.012392133474349976, -0.02685796655714512, -0.01770673505961895, 0.025028295814990997, 0.019045453518629074, 0.03640873730182648, 0.059143174439668655, 0.04753374308347702, 0.049419909715652466, -0.006710266228765249, -0.03323444351553917, 0.04803802818059921, -0.055015984922647476, -0.04791242256760597, 0.019655901938676834, -0.053602419793605804, -0.04559572413563728, 0.053009048104286194, -0.025325650349259377, 0.051239755004644394, -0.06179229915142059, -0.04843645542860031, 0.0311520304530859, -0.057789117097854614, 0.038598787039518356, 0.03576207160949707, 0.0023144041188061237, 0.00919346697628498, -0.03622348606586456, -5.26409439771669e-06, -0.04325111582875252, -0.04280373826622963, 0.01621292345225811, 0.011026774533092976, 0.05986590310931206, -0.04894145950675011, -0.017974046990275383, 0.03537730500102043, 0.005202312953770161, -0.032594650983810425, -0.04012690484523773, -0.05900019034743309, -0.04845079407095909, 0.009421559982001781, 0.05048967897891998, 0.04273374378681183, -0.04096315801143646, 0.062267810106277466, 0.0509578101336956, -0.00800354778766632, -0.05344175547361374, 0.02907809242606163, 0.010755605064332485, 0.006336343474686146, -0.020022379234433174, 0.042015060782432556, 0.003913360182195902, 0.05130813270807266, -0.023876570165157318, 0.042407505214214325, 0.0564894899725914, -0.010969232767820358, -0.039893556386232376, -0.005291065201163292, -0.045896969735622406, 0.02330542355775833, -0.043648120015859604, -0.02663883939385414, 0.009034741669893265, 0.04588259384036064, -0.03201858699321747, 0.036925818771123886, -0.011262304149568081, 0.03569772467017174, 0.03625627979636192, 0.0581953227519989, -0.011701453477144241, 0.012138988822698593, 0.007483834400773048, 0.0269243735820055, 0.014701063744723797, 0.02967340499162674, -0.009203936904668808, 0.006097735371440649, 0.026828821748495102, -0.0012654837919399142, -0.060069501399993896, -0.02732987515628338, -0.04362021014094353, 0.03185553476214409, -0.03808489069342613, -0.02155083231627941, 0.010377179831266403, 0.059385962784290314, -0.03134503960609436, 0.008611592464148998, 0.02520318701863289, 0.0053725759498775005, -0.03697355464100838, -0.05117695778608322, 0.05297066643834114, -0.052162256091833115, -0.040055274963378906, 0.017235487699508667, 0.0525287501513958, -0.01968475803732872, -0.03217547759413719, -0.028625836595892906, 0.04366554319858551, 0.05117122828960419, -0.05822408199310303, 0.035506296902894974, -0.012739733792841434, 0.024538414552807808, 0.061206430196762085, -0.049368716776371, 0.04058219864964485, -0.009081492200493813, 0.024387560784816742, -0.019878529012203217, 0.05046399310231209, -0.019984938204288483, 0.019371397793293, -0.009003780782222748, 0.013090639375150204, -0.0027619563043117523, 0.008469030261039734, -0.013973760418593884, 0.05149034410715103, 0.021078316494822502, -0.013765445910394192, 0.010687868110835552, -0.014255565591156483, 0.026790473610162735, -0.04792998358607292, 0.014852738939225674, 0.0394667349755764, -0.033181726932525635, -0.041715361177921295, 0.004481733310967684, -0.0036973198875784874, 0.00839560478925705, -0.008278324268758297, -0.005398353561758995, -0.00564788980409503, -0.028700297698378563, 0.004519163630902767, -0.05628199875354767, 0.019241858273744583, -0.042195141315460205, -0.053733762353658676, 0.047966938465833664, -0.057915229350328445, 0.009090300649404526, -0.03506823256611824, -0.020348014310002327, 0.05620557814836502, 0.04369461163878441, -0.03241400048136711, 0.04885470122098923, 0.0034417074639350176, -0.02102135494351387, 0.03269021213054657, 0.005375490058213472, 0.006215689703822136, -0.032488446682691574, 0.038079891353845596, -0.04769996553659439, 0.05424555018544197, 0.0005656196735799313, 0.040999848395586014, -0.04262587055563927, 0.0178822074085474, -0.06039796397089958, 0.010592864826321602, -0.03665517643094063, -0.026701858267188072, 0.005791168659925461, 0.009354977868497372, -0.02871832065284252, 0.006103007588535547, -0.05069787800312042, -0.05844562500715256, -0.007891152985394001, -0.024697184562683105, -0.03021172806620598, -0.04689086228609085, 0.04780637100338936, 0.01699315384030342, -0.0362425222992897, -0.01171428244560957, 0.028465012088418007, -0.04803141579031944, 0.055866893380880356, 0.04597478732466698, -0.021511683240532875, -0.02551477961242199, 0.062430478632450104, -0.016765659675002098, 0.005800386890769005, 0.020483598113059998, -0.015427784062922001, -0.02658730186522007, -0.03091253526508808, -0.007209896109998226, 0.01157047413289547, 0.04226898401975632, -0.031121745705604553, 0.022324660792946815, -0.008278938010334969, 0.03899949789047241, -0.006388998590409756, 0.03621522709727287, -0.048557884991168976, 0.03478274121880531, 0.025498785078525543, 0.004567523021250963, 0.05983239412307739, 0.055589500814676285, -0.004741808865219355, -0.02275863103568554, 0.05083414167165756, 0.06101120635867119, -0.0325598269701004, -0.021162306889891624, 0.039094120264053345, -0.013326438143849373, 0.028076959773898125, 0.037386469542980194, 0.02577175386250019, -0.0007740345317870378, 0.04988521710038185, -0.025413665920495987, -0.03940384089946747, -0.0591326504945755, 0.06142658367753029, -0.006001186091452837, -0.011058404110372066, 0.014849862083792686, -0.050222765654325485, -0.054744768887758255, 0.05039306730031967, 0.011440589092671871, 0.002860262291505933, -0.04598969593644142, -0.06018989160656929, 0.001081904862076044, 0.03183392807841301, 0.03607442229986191, 0.054354727268218994, 0.004877778235822916, 0.024965669959783554, 0.01538673136383295, -0.012740242294967175, 0.049595948308706284, -0.012943005189299583, 0.0032543784473091364, 0.04568220302462578, 0.03770671784877777, -0.05191274359822273, -0.05275321006774902, 0.055657073855400085, 0.02383602224290371, -0.009947418235242367, -0.02537073753774166, -0.05684584006667137, 0.026451408863067627, -0.023100966587662697, -0.01202060654759407, -0.02221410907804966, 0.04561075195670128, 0.0009264881373383105, 0.05736781656742096, 0.04282392933964729, -0.04770604893565178, 0.011952759698033333, -0.01457014586776495, -0.02847553789615631, -0.05314695090055466, -0.024105163291096687, -0.040748439729213715, 0.004189148545265198, -0.00038240826688706875, -0.02004723995923996, -0.0605534166097641, 0.05023987218737602, 0.026735346764326096, 0.017556428909301758, 0.03896190971136093, -0.04807669669389725, -0.06090692803263664, -0.03563327714800835, -0.010108916088938713, -0.04382813721895218, -0.03746214136481285, -0.039771780371665955, -0.008388083428144455, 0.021899720653891563, 0.038464002311229706, 0.036302145570516586, -0.021032802760601044, 0.0013132079038769007, 0.013203009031713009, 0.06071655452251434, 0.007052265573292971, 0.04310169070959091, 0.04118579253554344, 0.010247016325592995, -0.061427947133779526, -0.026951521635055542, -0.0006363732973113656, -0.049994755536317825, -0.034588124603033066, -0.06089048087596893, 0.022613482549786568, -0.005527091212570667, 0.0024302531965076923, -0.04517282173037529, 0.03248382732272148, -0.03479427844285965, 0.010904999449849129, 0.04462325572967529, -0.05710337311029434, -0.003261016681790352, -0.036789681762456894, -0.04064555466175079, -0.017445994541049004, -0.002033048076555133, 0.01941279135644436, -0.023045770823955536, -0.030036037787795067, -0.03797413408756256, 0.0073105404153466225, -0.05921969190239906, -0.012405957095324993, 0.010455758310854435, 0.06211037188768387, -0.0169764943420887, 0.03516219183802605, 0.013318539597094059, -0.006775196176022291, -0.016011549159884453, 0.007075096946209669, 0.010887868702411652, 0.03740464150905609, 0.020421182736754417, -0.028841355815529823, 0.01810762658715248, 0.014831895008683205, 0.048313409090042114, -0.017680326476693153, -0.012112075462937355, 0.004609798081219196, -0.020713262259960175, -0.05050547048449516, -0.05977915972471237, -0.058034226298332214, 0.02151384763419628, -0.012085409834980965, 0.014599216170608997, -0.009685276076197624, -0.04356249049305916, -0.02488541416823864, -0.0008163718157447875, 0.051801543682813644, 0.005057783797383308, -0.06112226843833923, 0.03003985993564129, -0.0498887337744236, -0.004056674428284168, -0.022541997954249382, -0.011035222560167313, 0.057419758290052414, 0.0010564373806118965, -0.04955240339040756, 0.006203216500580311, 0.06184353306889534, 0.027109194546937943, -0.003210904775187373, 0.03274991363286972, -0.020378826186060905, 0.002289748750627041, 0.058145277202129364, -0.04611044377088547, -0.0140572814270854, 0.012483206577599049, -0.0568571574985981, 0.04866115376353264, 0.03428659960627556, 0.031741559505462646, -0.06184115260839462, 0.03641654923558235, -0.009092696942389011, 0.0021512333769351244, 0.053901590406894684, 0.05845390632748604, 0.030246639624238014, 0.02359742298722267, 0.04818911477923393, -0.001222877181135118, -0.05205841362476349, 0.0008563111769035459, -0.04668987914919853, 0.05505885183811188, 0.04118119180202484, -0.03621424362063408, -0.05539228767156601, -0.05237320810556412, 0.02283337153494358, -0.05863116309046745, -0.049310289323329926, 0.015490143559873104, 0.0365903377532959, -0.0506434366106987, -0.01850293017923832, 0.05554443970322609, -0.01128183864057064, 0.011536436155438423, -0.012535277754068375, -0.008836489170789719, 0.04767691344022751, 0.03139451518654823, -0.03594999387860298, -0.015570837073028088, -0.027017293497920036, -0.014823258854448795, 0.033804140985012054, -0.008871716447174549, 0.025093629956245422, 0.017010075971484184, 0.010942035354673862, -0.0493430569767952, -0.01983584091067314, -0.02679327502846718, 0.009657525457441807, 0.0067873504012823105, -0.014299851842224598, -0.05271114781498909, 0.05464882776141167, -0.004368445836007595, -0.0428212434053421, -0.04783276095986366, 0.006525262724608183, 0.027515271678566933, 0.03560595586895943, 0.03592942655086517, -0.023351771757006645, 0.0371718592941761, -0.05044489726424217, -0.03062913753092289, -0.02205554023385048, -0.043807514011859894, 0.02783062495291233, -0.006909795571118593, 0.04504988715052605, -0.05615552142262459, -0.019347304478287697, -0.03499836474657059, -0.03992919251322746, 0.00996945146471262, -0.011598405428230762, 0.03671463951468468, -0.0557984933257103, 0.059706103056669235, 0.0453944057226181, -0.005552617367357016, -0.034469835460186005, 0.04292144253849983, -0.04444873332977295, 0.03918856009840965, -0.019474854692816734, 0.06064300984144211, 0.04477396234869957, -0.014965885318815708, 0.045483339577913284, 0.012501833029091358, -0.026064841076731682, 0.04875877872109413, -0.00965555664151907, -0.01223717536777258, -0.05529014766216278, -0.06060570850968361, -0.04796556383371353, -0.018691493198275566, 0.04876665025949478, -0.010849150829017162, -0.040417976677417755, 0.05424632504582405, 0.020518528297543526, -0.010021695867180824, 0.027823295444250107, -0.004083924926817417, 0.055608153343200684, -0.04631476104259491, -0.011854967102408409, 0.03488880768418312, -0.05201185122132301, 0.05766575410962105, 0.05544402822852135, 0.0173296220600605, 0.01586819812655449, 0.04735495522618294, -0.003626414807513356, -0.017350442707538605, 0.060028426349163055, -0.05329897627234459, -0.043883346021175385, 0.014519721269607544, 0.037149086594581604, 0.026506658643484116, -0.025813568383455276, -0.03748144954442978, -0.015945550054311752, -0.009541641920804977, -0.01947065070271492, 0.01317045371979475, 0.01063215546309948, -0.01860801689326763, -0.03511134535074234, -0.01174931786954403, -0.05708542466163635, 0.037651415914297104, -0.0019249017350375652, 0.010203645564615726, -0.045531414449214935, -0.049993596971035004, -0.020131628960371017, -0.040564607828855515, -0.018745046108961105, 0.050392020493745804, -0.017853643745183945, -0.018493184819817543, 0.04189694672822952, 0.0053689004853367805, 0.009600433520972729, -0.03615092486143112, 0.035309795290231705, 0.056922443211078644, 0.05493967980146408, -0.011613345704972744, 0.027844196185469627, 0.03387608379125595, 0.021942464634776115, 0.001258434378542006, 0.04153432697057724, -0.01590031385421753, -0.0014181331498548388, 0.04714469239115715, 0.03377729281783104, -0.0381648913025856, -0.059483323246240616, -0.009995882399380207, -0.0017797737382352352, 0.054049357771873474, 0.03616601228713989, -0.022009367123246193, 0.04791947454214096, 0.05051945894956589, 0.057385336607694626, 0.06128750741481781, 0.047575708478689194, 0.05593214929103851, 0.0388847254216671, -0.052739936858415604, -0.018186267465353012, 0.04751606285572052, 0.012626724317669868, -0.009355831891298294, 0.016948536038398743, 0.007756567094475031, 0.03999800607562065, 3.657192428363487e-05, -0.008026222698390484, -0.006985582411289215, 0.00022269415785558522, 0.03342106193304062, -0.04176641255617142, 0.011690973304212093, 0.0011537582613527775, -0.03427095711231232, 0.05913318693637848, -0.022039366886019707, -0.04012602940201759, 0.021863339468836784, -0.017296146601438522, -0.016466040164232254, -0.041327375918626785, 0.05094585567712784, 0.03731983155012131, -0.010915635153651237, -0.0039035838562995195, -0.048463091254234314, -0.0030730979051440954, -0.041423194110393524, -0.03212844580411911, 0.019718142226338387, -0.014875517226755619, -0.0489572249352932, 0.0002826546551659703, -0.03115253522992134, 0.03140828758478165, 0.028152678161859512, -0.0598846897482872, 0.015156901441514492, -0.0016455205623060465, 0.032869819551706314, 0.03234906122088432, -0.02377791330218315, 0.039931584149599075, 0.05906398221850395, -0.02374483272433281, 0.0056674000807106495, 0.010239776223897934, 0.05188782885670662, 0.010315140709280968, 0.03245401009917259, -0.05223989114165306, -0.05517706274986267, 0.015718981623649597, 0.03328588232398033, -0.009579170495271683, -0.05256923660635948, 0.025115128606557846, 0.060691896826028824, -0.009771682322025299, -0.044939495623111725, -0.05251046270132065, 0.026060333475470543, 0.04544418677687645, 0.05427585169672966, -0.015266838483512402, 0.007247988600283861, 0.05060418322682381, -0.022169284522533417, -0.06013212725520134, -0.05723486840724945, 0.03568366914987564, 0.05697687342762947, -0.005065413191914558, 0.05408049002289772, -0.029431983828544617, -0.0344335176050663, -0.010819151066243649, 0.02914338745176792, -0.032971590757369995, -0.017798075452446938, 0.013855651021003723, 0.017627982422709465, 0.008573722094297409, -0.0027396702207624912, 0.010429718531668186, 0.028270570561289787, 0.0013471501879394054, -0.0569390133023262, -0.054028499871492386, -0.012704593129456043, -0.046608276665210724, -0.02772348001599312, 0.016804080456495285, 0.03149627149105072, 0.03539416193962097, 0.05440284684300423, 0.0564192533493042, 0.03395890071988106, 0.021380415186285973, 0.025105832144618034, 0.049741413444280624, 0.04984627291560173, 0.016076404601335526, 0.021943701431155205, 0.008648552000522614, 0.0258482675999403, 0.028471127152442932, 0.040935784578323364, 0.0161578468978405, 0.03884200006723404, 0.008767212741076946, 0.03681883215904236, -0.061098553240299225, -0.05811768025159836, 0.014883182942867279, -0.04069998487830162, -0.03219550475478172, 0.0036746326368302107, 0.02539832331240177, 0.04476095736026764, -0.05184037983417511, -0.019739089533686638, 0.04116707667708397, 0.013386189937591553, 0.05984919145703316, 0.05587464198470116, -0.03929644078016281, 0.015540753491222858, -0.03614067658782005, 0.060426369309425354, -0.04884526878595352, -0.0412173829972744, 0.047197338193655014, -0.02524842880666256, -0.014158761128783226, 0.03848501667380333, -0.0587499774992466, 0.011018883436918259, -0.06137070804834366, 0.014657171443104744, -0.006056345067918301, -0.0491650216281414, -0.04832248017191887, -0.06203186884522438, -0.01831759512424469, 0.01639535278081894, 0.049405887722969055, -0.04089301824569702, -0.06107418239116669, 0.004931325558573008, -0.007379467133432627, 0.01532482635229826, -0.03473574295639992, 0.0012907411437481642, 0.004736608359962702, 0.02747545763850212, -0.021183663979172707, 0.030133195221424103, 0.007792522665113211, 0.023250488564372063, -0.04706147313117981, 0.024531301110982895, -0.028267666697502136, -0.03985622152686119, -0.008157270029187202, -0.05105268582701683, 0.021589864045381546, 0.04032207280397415, -0.041313495486974716, -0.022870957851409912, 0.007839380763471127, 0.029675262048840523, 0.015507112257182598, 0.06162538379430771, -0.003282839898020029, 0.004848501645028591, 0.007900381460785866, 0.012094897218048573, -0.051234740763902664, -0.030695240944623947, 0.04588693007826805, 0.03229125216603279, -0.03828940540552139, 0.0625479593873024, 0.03972243517637253, -0.028119036927819252, 0.02316967397928238, 0.028910836204886436, -0.00013304056483320892, 0.00986066460609436, 0.024662690237164497, -0.0201901663094759, 0.0023409160785377026, -0.03430228680372238, -0.03067522868514061, -0.0324544794857502, -0.01320716179907322, -0.059220362454652786, -0.005808877758681774, 0.028537092730402946, -0.017122887074947357, 0.02032308280467987, 0.03322702646255493, 0.061448223888874054, -0.015760261565446854, -0.01314755342900753, 0.03915524482727051, 0.04308757558465004, -0.047698937356472015, -0.002938844496384263, 0.030701087787747383, 0.04704820364713669, 0.04453301429748535, -0.05450233444571495, -0.03688790276646614, -0.04284057766199112, -0.055911920964717865, -0.05648772418498993, -0.020267728716135025, 0.02594178356230259, 0.046429410576820374, 0.05096639320254326, 0.01551473792642355, 0.014923370443284512, -0.04085485264658928, -0.010363571345806122, 0.028082702308893204, 0.051454272121191025, -0.03110671602189541, -0.052345581352710724, -0.02140776440501213, -0.03849010169506073, 0.05681464821100235, -0.016142351552844048, -0.03208326920866966, 0.04573566094040871, 0.027631064876914024, -0.014814099296927452, 0.032776448875665665, -0.00833351630717516, -0.02219388633966446, 0.03473999351263046, -0.05781284719705582, -0.04942036047577858, 0.043325554579496384, -0.02377147227525711, 0.002510754857212305, -0.024284442886710167, 0.04984196648001671, -0.03364463150501251, 0.04101397842168808, -0.04026961699128151, 0.02586900070309639, -0.007695978041738272, 0.05197656899690628, 0.040574703365564346, 0.06088388338685036, 0.0576135478913784, -0.039784692227840424, -0.03840528801083565, -0.06026717647910118, 0.04794329032301903, -0.00013731604849454015, 0.05553671717643738, 0.01877138577401638, 0.02562645450234413, -0.010142019018530846, -0.011442147195339203, -0.05161503329873085, -0.020033305510878563, 0.019405899569392204, 0.062091514468193054, 0.06173880398273468, 0.03456277772784233, -0.038830578327178955, -0.008118386380374432, 0.04380115121603012, 0.03411596268415451, -0.01835349202156067, -0.02711273543536663, 0.05916023254394531, -0.06155788525938988, 0.020474212244153023, -0.06148775666952133, -0.06131455674767494, 0.04891544580459595, -0.0505131334066391, -0.007003698032349348, 0.02285880222916603, 0.05918623507022858, 0.05567653104662895, 0.008952551521360874, -0.018978267908096313, 0.038178861141204834, 0.03167225047945976, 0.03349814936518669, -0.0305255688726902, 0.047158755362033844, -0.034170228987932205, 0.04422764107584953, -0.043514434248209, 0.053420644253492355, -0.04737932235002518, -0.031315308064222336, -0.038800645619630814, 0.004507421515882015, 0.01319465134292841, -0.009377051144838333, 0.038466524332761765, -0.024108130484819412, -0.05056682229042053, 0.006933053955435753, 0.036838598549366, 0.020183956250548363, -0.019757181406021118, -0.0028225050773471594, 0.03290877491235733, -0.024772854521870613, 0.011347766034305096, -0.05973619595170021, 0.0408434197306633, -0.03608190640807152, -0.024823792278766632, -0.029995055869221687, -0.004533500410616398, -0.04852430522441864, 0.006129571236670017, -0.04401356726884842, 0.020990774035453796, -0.041509561240673065, 0.061172354966402054, 0.0061170198023319244, 0.017022471874952316, -0.0055618914775550365, 0.010695239529013634, 0.05248729884624481, 0.0020353328436613083, 0.019249608740210533, -0.059672221541404724, 0.016899215057492256, -0.008089579641819, 0.053086645901203156, 0.002627479610964656, -0.018124496564269066, -0.009203762747347355, 0.039149198681116104, -0.030746951699256897, -0.06189517304301262, -0.061433497816324234, 0.011729532852768898, -0.043463319540023804, 0.018359223380684853, 0.025168413296341896, 0.015596376731991768, 0.006055890582501888, -0.04097042605280876, 0.05717001482844353, -0.04646937549114227, -0.04483277350664139, 0.016191905364394188, -0.011241374537348747, 0.05254228040575981, -0.01178817544132471, -0.011903276666998863, 0.002188574057072401, 0.019722849130630493, 0.005247626919299364, -0.023342259228229523, 0.04186701402068138, 0.027661604806780815, 0.03511643782258034, 0.017631612718105316, -0.05730755999684334, -0.03340887278318405, -0.0005315634771250188, 0.04752326384186745, 0.032062843441963196, -0.04110860452055931, -0.023091575130820274, -0.04091978818178177, 0.004197837319225073, 0.04202041029930115, -0.06158344820141792, -0.010299020446836948, -0.054807644337415695, 0.01086374744772911, 0.0354536697268486, 0.007276192307472229, 0.02366054058074951, -0.041409414261579514, -0.016226070001721382, -0.0048150294460356236, -0.042921315878629684, -0.04058907926082611, -0.033395178616046906, 0.009337497875094414, 0.031942982226610184, 0.04504465311765671, -0.0452590174973011, 0.014428074471652508, -0.014760030433535576, -0.0009144281502813101, 0.020643604919314384, 0.05963951349258423, 0.05385240539908409, 0.025370702147483826, 0.06106134131550789, -0.0331210233271122, -0.024440128356218338, 0.003487133653834462, -0.03272714838385582, 0.031492460519075394, 0.0178179033100605, 0.042739350348711014, 0.04118802398443222, 0.044340554624795914, 0.006519118323922157, -0.0013343974715098739, -0.05141640082001686, -0.05883583053946495, -0.034541234374046326, -0.0015175993321463466, 0.031532127410173416, 0.05019201338291168, -0.006630562711507082, 0.033952996134757996, 0.033930134028196335, -0.041519638150930405, 0.04067716747522354, -0.05068744719028473, -0.018933285027742386, -0.00836264993995428, 0.03507230803370476, 0.02413153648376465, -0.004091200884431601, -0.05975502356886864, 0.00416792556643486, -0.0601947084069252, 0.005449645686894655, 0.03005993738770485, -0.026960568502545357, 0.033774711191654205, -0.06023881956934929, 0.015034551732242107, 0.0019844258204102516, 0.056865766644477844, 0.03128492087125778, -0.030044935643672943, 0.035114891827106476, -0.0513908788561821, 0.051195137202739716, 0.021530568599700928, -0.005296165123581886, -0.03005385585129261, -0.038034580647945404, -0.05815957859158516, 0.018295565620064735, 0.01587950438261032, -0.019364099949598312, -0.030712362378835678, 0.05319654196500778, 0.000496111751999706, -0.017565570771694183, -0.05517756566405296, -0.03653661161661148, 0.038177378475666046, 0.046752434223890305, -0.03005249612033367, 0.060213956981897354, 0.005678097251802683, 0.025738533586263657, 0.020004838705062866, 0.03036700375378132, -0.019047336652874947, -0.034018438309431076, 0.04122161492705345, 0.05309968441724777, 0.025476394221186638, 0.05568061023950577, -0.007208346854895353, 0.037432193756103516, 0.01741180382668972, 0.04083778336644173, -0.031008601188659668, -0.00845829863101244, -0.00433000922203064, 0.030452832579612732, 0.0026993490755558014, 0.027325307950377464, 0.01690160110592842, 0.054725293070077896, 0.010337155312299728, -0.010108859278261662, 0.04041831195354462, -0.024222254753112793, 0.011899279430508614, 0.037047576159238815, -0.005331568419933319, 0.031472232192754745, -0.054783809930086136, -0.01678195595741272, -0.021190311759710312, -0.011338443495333195, -0.05927786976099014, -0.05068232864141464, 0.01399364322423935, -0.06269187480211258, -0.06067190691828728, -0.04684979468584061, -0.053529042750597, -0.05989627540111542, -0.027158135548233986, 0.011038786731660366, 0.027301928028464317, 0.010755572468042374, -0.029407834634184837, 0.05696062371134758, -0.0448455736041069, 0.01986302249133587, 0.05230625346302986, 0.0004433114663697779, -0.048026442527770996, -0.04195793345570564, -0.036377593874931335, -0.059464167803525925, -0.027804112061858177, 0.044286150485277176, -0.05978624150156975, -0.05259126424789429, 0.027210107073187828, 0.05688650161027908, 0.023765327408909798, -0.02826618030667305, -0.011973733082413673, 0.0034543683286756277, -0.014906602911651134, -0.05029097571969032, 0.05551980435848236, 0.04264753311872482, -0.0451345220208168, -0.04392524063587189, 0.042105842381715775, 0.003486471716314554, 0.015827832743525505, 0.04993126168847084, 0.05248464643955231, -0.03567802906036377, -0.03333783522248268, 0.02968931384384632, 0.04124166816473007, 0.06112392246723175, 0.035055533051490784, 0.022974612191319466, 0.0029704165644943714, 0.016761360689997673, 0.05015216022729874, -0.046305302530527115, -0.011948170140385628, 0.0005193779361434281, -0.0009613069705665112, -0.047714218497276306, 0.011322926729917526, -0.01720946468412876, -0.025805559009313583, 0.049725908786058426, -0.028980635106563568, 0.05054047331213951, 0.03670348972082138, 0.009350525215268135, -0.058226414024829865, -0.01564447581768036, 0.014750268310308456, 0.02588719315826893, -0.05515854060649872, -0.03776686638593674, 0.012393261305987835, -0.03961975872516632, 0.0012852550717070699, -0.0005295010632835329, -0.04305386543273926, 0.009043830446898937, 0.027967680245637894, 0.008986064232885838, 0.03960304334759712, 0.01741512306034565, 0.012492960318922997, -0.038924068212509155, -0.006533946841955185, 0.01977389119565487, 0.0576261505484581, -0.015140353702008724, 0.014006456360220909, -0.030471131205558777, 0.0038603227585554123, -0.055361878126859665, 0.020638059824705124, 0.025508088991045952, 0.03794998303055763, 0.03853343799710274, -0.04961173236370087, -0.047290828078985214, -0.05409519746899605, 0.02684517577290535, 0.056734513491392136, -0.03408724069595337, 0.03069155290722847, -0.03576279059052467, -0.004322702065110207, 0.009773106314241886, -0.016909722238779068, 0.054352205246686935, -0.04375937581062317, 0.06237742304801941, 0.0018598752794787288, -0.05675330385565758, -0.03870941326022148, 0.0074216946959495544, -0.055244605988264084, -0.045855920761823654, 0.05776400491595268, -0.03135459125041962, -0.043960101902484894, -0.011211634613573551, -0.061315737664699554, 0.05797649174928665, -0.0038593080826103687, -0.003916787449270487, 0.027263125404715538, -0.008137280121445656, 0.008536321111023426, -0.004911647643893957, 0.024335170164704323, 0.035724952816963196, -0.05775948241353035, 0.012427925132215023, 0.04498453065752983, 0.024180300533771515, -0.02149847522377968, 0.02670585922896862, 0.0585610568523407, 0.05030876025557518, -0.010736275464296341, -0.010937117040157318, -0.012225484475493431, 0.025125913321971893, -0.0006706637796014547, 0.020041773095726967, -0.037637848407030106, 0.023948751389980316, -0.017526917159557343, 0.058869194239377975, -0.017293451353907585, 0.011876015923917294, 0.05951432138681412, -0.06129598245024681, 0.03137302026152611, -0.04523671045899391, -0.00028031005058437586, -0.06118817999958992, -0.05455134063959122, 0.00685748178511858, -0.0018264991231262684, 0.021812666207551956, 0.05493658035993576, 0.052584175020456314, -0.017690325155854225, 0.015162176452577114, -0.021868586540222168, -0.002860183361917734, 0.029988078400492668, 0.03237743675708771, -0.03908316791057587, 0.04152919352054596, 0.010841649025678635, -0.03487385809421539, -0.02968239225447178, -0.007564613129943609, -0.04759485647082329, 0.026199067011475563, 0.03580290079116821, 0.00203405087813735, 0.01329934410750866, 0.014544228091835976, -0.04707958549261093, -0.0468270368874073, 0.0415336973965168, 0.05869831144809723, -0.04151773452758789, -0.05950517952442169, -0.009259297512471676, 0.05921151861548424, 0.05244375020265579, 0.008941492065787315, -0.0017014910699799657, -0.019567832350730896, 0.05110454186797142, -0.041148796677589417, 0.032913826406002045, -0.0038656459655612707, -0.053237464278936386, -0.03430430218577385, -0.060425419360399246, -0.037075579166412354, 0.052543167024850845, 0.05204492807388306, 0.028991229832172394, -0.0174802765250206, -0.011798467487096786, -0.016049349680542946, 0.017063308507204056, -0.05065473914146423, -0.01751064695417881, -0.05572529137134552, -0.005543415900319815, 0.05098496004939079, -0.026866421103477478, -0.01193299051374197, 0.029994679614901543, -0.05576036497950554, 0.03153214231133461, -0.05462419614195824, -0.033103443682193756, -0.034561481326818466, 0.05262288078665733, 0.01269870437681675, 0.0294607225805521, 0.04068536311388016, -0.009517358615994453, 0.0026002388913184404, -0.02976416051387787, -0.003018871648237109, 0.01747843250632286, 0.03624165058135986, 0.06049588322639465, -0.03591357544064522, 0.008246727287769318, -0.05240756645798683, -0.04861922934651375, -0.02240058407187462, 0.014268871396780014, -0.02171957679092884, 0.05096568167209625, 0.013009068556129932, -0.007588484324514866, 0.021517939865589142, 0.03990046679973602, 0.003760191146284342, -0.03516137972474098, 0.0034325658343732357, 0.03794340416789055, 0.0020336750894784927, -0.009951557964086533, 0.036482542753219604, -0.06077272444963455, -0.024718856438994408, -0.03229078650474548, 0.026571588590741158, -0.014475340954959393, 0.02869393862783909, -0.05626320838928223, -0.05529177933931351, 0.041132643818855286, -0.0428374744951725, 0.030099108815193176, -0.05111221596598625, 0.05635392665863037, -0.025715721771121025, 0.03144736960530281, -0.06035526841878891, 0.004508562386035919, 0.04448816180229187, 0.006603680085390806, -0.02766086719930172, 0.04058718681335449, -0.023708058521151543, -0.01920221373438835, -0.024850836023688316, 0.02418079786002636, 0.05264537036418915, 0.050190269947052, -0.05472153052687645, -0.054999642074108124, 0.03383641690015793, -0.04742928221821785, -0.037991393357515335, 0.0318499431014061, 0.061097871512174606, -0.024711841717362404, -0.028377410024404526, -0.055762048810720444, 0.05327939987182617, 0.013706721365451813, 0.040609680116176605, -0.019686205312609673, 0.006926702335476875, -0.05661265179514885, 0.005904526449739933, 0.049170296639204025, 0.006383534520864487, -0.03086729161441326, -0.04325356334447861, 0.021103698760271072, -0.04882146045565605, 0.009438851848244667, -0.05700429901480675, -0.04974344000220299, -0.02439085580408573, 0.028166232630610466, 0.02418576180934906, 0.001554590300656855, -0.019325774163007736, 0.049928925931453705, -0.02354973554611206, -0.04210805147886276, -0.00974616501480341, 0.026983410120010376, -0.029830195009708405, -0.04811093211174011, 0.061398670077323914, 0.04027409106492996, -0.019517038017511368, 0.03177572786808014, 0.041827354580163956, 0.005075052846223116, -0.0003621813957579434, 0.013366815634071827, -0.05776681751012802, -0.06078314781188965, 0.0286263395100832, -0.006134113762527704, -0.0012011558283120394, 0.02376742847263813, -0.02350723370909691, -0.06146302819252014, -0.053451020270586014, -0.027568822726607323, 0.03595712035894394, -0.03815878555178642, 0.017453039065003395, 0.04134146496653557, -0.0018025444587692618, 0.02787363901734352, -0.06042257696390152, 0.01241786777973175, -0.0030050373170524836, 0.04274825006723404, -0.04806943237781525, -0.017766857519745827, -0.0015804958529770374, 0.013207584619522095, -0.0004761744348797947, 0.025565603747963905, 0.052911870181560516, -0.04634815827012062, 0.05016402155160904, -0.010847489349544048, 0.06060057505965233, -0.012900019995868206, -0.04346529021859169, -0.0017298613674938679, -0.05510390177369118, -0.026261186227202415, -0.021886372938752174, -0.018044356256723404, 0.0008542514406144619, -0.05900337174534798, 0.05319225415587425, 0.013321437872946262, 0.015264555811882019, -0.05766100436449051, -0.06223442032933235, -0.005802743136882782, -0.008004328235983849, 0.001619067625142634, -0.04459736496210098, 0.05978083610534668, 0.02124815434217453, 