// Numpy array shape [128]
// Min -0.004315727594142341
// Max 0.002901154181877627
// Number of zeros 0

#ifndef TRANSFORMERS_2_SELF_ATTENTION_NORM_BIAS_H_
#define TRANSFORMERS_2_SELF_ATTENTION_NORM_BIAS_H_

#ifndef __SYNTHESIS__
default_model_t transformers_2_self_attention_norm_bias[128];
#else
default_model_t transformers_2_self_attention_norm_bias[128] = {0.001656971625010765, 0.00019112332696162178, -0.0013246634652399286, -0.0003766618843533181, -0.004315727594142341, 0.00038165361265905335, 
-0.0027767864661625286, 0.0013700620428119233, 0.0012679535843271193, -0.0009017556898279099, -0.004109077695885195, 0.0003678034077682683, 0.0013233214592007787, 
-0.0007023764636115515, -0.0014645728953849816, -0.0013426294128843054, -0.00031614477944821623, 0.001488872900717643, 0.0010785397954734895, -0.0001052147342799614, 
0.001403255687074865, -0.0026928118267508716, 0.0018188819918972389, -0.003774655178096597, -0.0011483090175080102, -0.00028011209359176103, 0.0014670884818615165, 
-0.0024761388796914518, -0.00193071144970029, 0.0017210358365627979, -0.00025352402513221253, -0.0008244979185761303, 0.001029886174135132, 0.00016043265012875173, 
0.0018831394074031906, 0.00014764977518883667, -0.0018613898000826076, -0.002349568006705298, -0.0016880366186656033, 0.001030167100266883, -0.0019644812081188465, 
0.00015832864596645088, 0.002901154181877627, 0.001280809617423548, 5.165242795344434e-06, 0.0013445831318092724, -0.0008942466386618978, 0.0005765992463309268, 
-0.0006290600439086269, 0.0004603835677039646, 0.0006050429427336469, -0.0004882396688574913, 0.00023341453417321636, -0.0014485213053221264, -0.0012496083199092568, 
0.0017851232778814277, -0.0018784361523929288, -0.0015346465072380196, -0.0012373834208355436, -0.0017995831114952891, 0.0009749058513557055, -0.0017805993075085097, 
-0.0017567561651593226, 0.0015934970859482942, -7.371154925878909e-05, 0.00028223045213659115, -0.000910731661917978, 0.000834141927743535, -0.0031084780443697457, 
0.0014686884857128264, 0.0011928202127160677, 0.00016784101484638962, 0.0011192446105308706, -0.002143490018058136, -0.0011635424369719686, -0.00028548706146664705, 
0.0007519171980937475, -0.0007467579602907374, -0.0025253665803428877, 0.000752045948126177, 0.0009902592606637346, 0.0009109639002919595, -0.0005798750264128635, 
-0.001994425176532473, -0.000298053548503148, -0.000606516288797175, 0.001585078553677638, 0.0016400547491513308, 0.0014335156073306582, 0.0022127753023261447, 
0.0005993823429461316, -0.0007762556986135735, -0.0013124716531036304, 0.0012804801412454089, -0.001023497943035238, -0.0012334791084957135, 0.0011642773100526407, 
-0.001327105466425773, -0.001357389439300927, -0.0006210358887155624, -0.0015531996706363684, 0.0002683601771088561, -0.0009395375077241825, 0.0026681950886443435, 
0.001398969849312714, 0.0006239576624779741, 0.0010147512264508253, -0.0014935654362343016, 5.748211792607559e-05, 7.943140547317194e-06, 0.0014676016901755311, 
0.0005306911610672245, -0.0007978199724593104, -0.0010250643527347709, -0.0018574362832970127, 0.0010468519243980775, 0.00039632667989233537, -0.0010006656456006382, 
0.000577975356929371, 0.0013714439144164492, 0.0021925505125407344, 0.0003151215217192345, -9.1597661877604e-05, 0.002138606930931833, -0.0005152307605764702, 
-0.0016396879320741324, -0.002599530360287138, 0.0009491414248404662};

#endif

#endif
