// Numpy array shape [256]
// Min -0.0003145911
// Max 0.0003200722
// Number of zeros 0

#ifndef TRANSFORMERS_0_LINEAR_3_BIAS_H_
#define TRANSFORMERS_0_LINEAR_3_BIAS_H_

#ifndef __SYNTHESIS__
model_default_t transformers_0_linear_3_bias[256];
#else
model_default_t transformers_0_linear_3_bias[256] = {-0.0002605876652523875, 0.00016777105338405818, -0.000271548138698563, -0.000297674530884251, -0.0002538465487305075, -0.00010631483746692538, 
0.00015224145317915827, -0.0002233124105259776, 0.0002253418933833018, 7.439032924594358e-05, 2.290944757987745e-05, 0.00026760701439343393, -0.00024588301312178373, 
0.0002317834587302059, 0.00028166064294055104, -8.563448500353843e-05, 3.752019620151259e-05, 6.824012962169945e-05, 7.544158870587125e-05, -0.00016756723925936967, 
0.00016228563617914915, 2.9043958420515992e-05, 0.00017399976786691695, -0.0003020159783773124, 4.030028776469408e-06, 0.00022976363834459335, 0.0001045302051352337, 
5.738318577641621e-05, -0.0002828058786690235, -0.0002473949280101806, 0.00018767305300571024, 0.0002249307872261852, -0.00016256730305030942, 0.00022216589422896504, 
-0.0002266372466692701, -5.9307916671968997e-05, 0.00014902633847668767, -0.00029745386564172804, -0.00015625456580892205, -6.725234470650321e-06, 0.00023496156791225076, 
0.0002850430319085717, 0.0002937032259069383, 0.00016548024723306298, -0.00017894236952997744, 0.0002868636802304536, 1.8808317690854892e-05, 0.0002497250970918685, 
7.661283598281443e-05, -0.00028729188488796353, 8.462223195238039e-05, -0.0002504573203623295, 0.00023475123452953994, -0.00011694002023432404, 0.00010916798055404797, 
-1.7580810890649445e-05, 0.00023658768623135984, 2.8974343877052888e-05, 0.0001184110005851835, -0.0001126020506490022, -0.00030019599944353104, -7.584209379274398e-05, 
0.0003141174092888832, -0.000211221122299321, -4.9772952479543164e-05, -0.00011639902368187904, 4.155609349254519e-05, -0.00010525283141760156, 3.688933793455362e-05, 
5.06058095197659e-05, 0.0002528371987864375, 0.00023271904501598328, 0.0003178029728587717, -7.69064063206315e-05, 4.003322828793898e-06, 0.0001574744819663465, 
-0.0002737160539254546, -0.00021604853100143373, 0.0003163654182571918, 0.0003101896436419338, -3.0445386073552072e-05, -0.0001042363655869849, 0.00024083550670184195, 
-2.7473688533063978e-05, 0.00022461848857346922, -8.56261103763245e-05, 0.0003022741584572941, 0.000229060256970115, 2.8840682716690935e-05, 6.876554834889248e-05, 
0.00030884533771313727, -0.00023723299091216177, 0.00022713909856975079, -0.00015800556866452098, -0.00021650096459779888, 7.508401176892221e-05, 0.0001431770360795781, 
0.0002639787271618843, -2.708575084398035e-05, -0.0001415800506947562, -0.0002668262750376016, 3.509686212055385e-05, -0.0003063838230445981, -0.0002171229716623202, 
0.0002747330581769347, 0.00031051767291501164, -0.0001471110590500757, 9.973689884645864e-05, -0.00020187650807201862, 0.0002683795755729079, -0.00022550064022652805, 
-0.0001568068691994995, 0.0003084592754021287, 0.00022166807320900261, -8.30593635328114e-05, 3.4715820220299065e-05, -0.00015489151701331139, -0.00011857359640998766, 
0.0002614759432617575, -0.0002871653705369681, -0.00023569687618874013, 0.0002616930578369647, -0.000311462179524824, -0.00011637715942924842, -0.00014212082896847278, 
-5.951185812591575e-05, -0.0002323943772353232, 6.859248242108151e-05, 2.565318936831318e-06, 0.00016690655320417136, 5.450801472761668e-05, 0.0002445315185468644, 
0.0003200721985194832, 0.00011466060095699504, -0.00022059401089791209, -0.00024174762074835598, -1.0234429282718338e-05, 0.0002562846930231899, 0.0002873089106287807, 
-2.8786236725864e-05, -5.095504820928909e-05, -0.0001880250492831692, 0.0002188293292419985, 0.00012180391058791429, 9.875371324596927e-05, -0.00021824869327247143, 
-6.759107782272622e-05, 0.00025491626001894474, 5.248143497738056e-05, -0.00021812108752783388, 0.0002728824329096824, -0.00023498173686675727, 7.330091466428712e-05, 
-0.00017850578296929598, -8.011327736312523e-05, 9.744163980940357e-05, -0.0001084811519831419, 0.00018306549463886768, 6.661882707703626e-07, -0.0001751477102516219, 
0.0002833324542734772, 0.00017270819807890803, -0.00013269863848108798, 0.00015395882655866444, -9.254069300368428e-05, -0.00013944393140263855, -0.000314591103233397, 
-0.00011438038927735761, -0.0002613866818137467, -0.0002292839635629207, -2.9374426958383992e-05, 0.00020357266475912184, 4.2412011680426076e-05, -0.00030575369601137936, 
0.00014755406300537288, 0.0001736027334118262, -0.00014209034270606935, 0.00031210100860334933, 0.00015421972784679383, 0.0002527217147871852, 0.0002650906390044838, 
-0.00019448730745352805, 0.0002502728020772338, -0.00013233967183623463, 0.00011291725968476385, -0.00031439849408343434, -0.00027781198150478303, -0.00021778969676233828, 
-3.115660001640208e-05, -0.00024213225697167218, -0.00011096740490756929, -0.00022581842495128512, -0.0002811727172229439, 0.00022623833501711488, 0.00010679688421078026, 
0.0003009459178429097, -1.4144403394311666e-05, -0.0001487332774559036, -0.00030750679434277117, -0.00017830924480222166, 0.0002901793923228979, 0.00013379006122704595, 
-0.00012608607357833534, 7.76159722590819e-05, 3.666445263661444e-05, 7.523389649577439e-05, 0.00014187602209858596, 0.000294990575639531, 8.628147043054923e-05, 
6.277141073951498e-05, -0.0002256342995679006, 0.00015761023678351194, 0.0002548625925555825, 0.00020033156033605337, -0.0002188618527725339, 0.00026960737886838615, 
0.00012062965106451884, 9.506577043794096e-05, 4.295872713555582e-05, 0.00031547658727504313, 0.00015770016761962324, -3.616965841501951e-05, 0.00025133011513389647, 
-0.0003039078728761524, -0.00012893625535070896, -0.00011504514259286225, -5.5790583246562164e-06, -0.0001235129893757403, 0.00015642365906387568, -0.000167028876603581, 
-7.863704377086833e-05, 0.00020930950995534658, 4.405444997246377e-06, 0.0002031671319855377, 0.0001961898524314165, 0.00015478787827305496, -0.0002076727250823751, 
-0.00023294807760976255, 0.000218021115870215, -0.0001939290959853679, -0.00019455481378827244, 7.302993617486209e-05, 0.00019404121849220246, -0.00018543959595263004, 
0.0002399532968411222, 1.2896835869469214e-05, 0.0001329953665845096, -0.00018798255769070238, -8.238438749685884e-05, -0.00021226513490546495, -0.0002995265822391957, 
0.00019313373195473105, -0.0002798642963171005, 0.00020257105643395334, -0.00029160085250623524, -4.6706205466762185e-05};

#endif

#endif
