// Numpy array shape [128]
// Min -0.00031999405
// Max 0.00032135885
// Number of zeros 0

#ifndef TRANSFORMERS_1_LINEAR_0_BIAS_H_
#define TRANSFORMERS_1_LINEAR_0_BIAS_H_

#ifndef __SYNTHESIS__
model_default_t transformers_1_linear_0_bias[128];
#else
model_default_t transformers_1_linear_0_bias[128] = {-3.9737213228363544e-05, 0.00015055782569106668, -0.00029977885424159467, 1.1794771126005799e-05, -0.0002821269736159593, -0.00020509670139290392, 
8.340544809470885e-06, -7.465887028956786e-05, -0.0003183179651387036, 0.00013312969531398267, 8.439951488981023e-05, -0.00021852285135537386, 9.054116526385769e-05, 
0.00020084780408069491, 0.0002789162390399724, -0.0002801131340675056, 0.0001787218207027763, -0.0002204149786848575, -8.992533548735082e-05, -0.00014376459876075387, 
-0.00030167499789968133, 0.00018310098676010966, 0.0001882324431790039, -0.00029307155637070537, -0.00023451966990251094, 6.686028063995764e-05, 0.00032135884976014495, 
0.00021337164798751473, -0.00017783674411475658, 0.00019980897195637226, 0.00011868863657582551, -0.0001962412497960031, 0.0003117527812719345, 5.4062555136624724e-05, 
-7.506354450015351e-05, -0.00015473524399567395, 8.097790851024911e-05, -0.0003199940547347069, 2.489405778760556e-05, 0.0001619885879335925, -0.00017650093650445342, 
-0.0002371805312577635, 0.00029993135831318796, -0.00018283752433490008, 7.997939246706665e-05, 7.648806786164641e-05, 0.0002157663693651557, -1.5808705938979983e-05, 
0.0002709026157390326, 0.00017670936358626932, -4.5362674427451566e-05, 0.00026719659217633307, 4.964525214745663e-05, 0.0003165756643284112, -3.242802631575614e-05, 
-8.348005940206349e-05, 0.00031266562291420996, -0.00021605993970297277, -0.00011404445831431076, 0.0001408458047080785, -0.00020213435345795006, 0.00024803244741633534, 
-7.961323717609048e-05, 0.0001981577224796638, 0.0001234408700838685, 6.260852842387976e-06, 3.957591252401471e-05, 0.00011007599823642522, 0.00028108316473662853, 
-1.8778811863739975e-05, 4.2731891880976036e-05, 0.00019155566405970603, 0.00021479270071722567, -0.0001939469511853531, -0.00012696909834630787, 3.754188946913928e-05, 
0.0002571319055277854, -0.0001225812011398375, -0.0002898037200793624, 0.0002797929337248206, 3.904859840986319e-05, 2.6010642613982782e-05, -2.3390517526422627e-05, 
0.00029309134697541595, 0.00016921483620535582, 0.00019177215290255845, -7.523137901443988e-05, -8.400908882322256e-06, 3.610213752835989e-05, -0.0002161964657716453, 
0.00014091118646319956, 0.00023801882343832403, 2.4079025024548173e-05, -0.0001110728844651021, -0.0002772239095065743, 0.00031510950066149235, 3.6185352655593306e-05, 
0.00027815866633318365, 0.00027445796877145767, -0.00016201211838051677, -0.0001392882113577798, 0.00022106693359091878, 0.00015622192586306483, 4.3693115003407e-05, 
-0.0001013366345432587, -0.00024104362819343805, -0.00010799275332828984, -0.00020481733372434974, 0.00022904067009221762, 6.889326323289424e-05, -0.0001445089583285153, 
-9.652717562858015e-05, 0.00016882942873053253, -3.7373210943769664e-05, 6.484680488938466e-05, 0.0003123256901744753, 0.00021764628763776273, -6.390720500348834e-06, 
-0.00016029809194151312, -0.00022259615070652217, 0.0002123469894286245, -0.0002640833263285458, 0.00024403062707278877, 7.069479033816606e-05, 0.00015261652879416943, 
-0.00028718874091282487, 0.0003072718682233244, -5.864503691555001e-05};

#endif

#endif
