-0.04976644366979599, -0.06482633203268051, -0.05920082703232765, 0.0501173697412014, -0.0807182788848877, -0.03229827806353569, -0.06675252318382263, -0.029967043548822403, 0.06428606063127518, -0.026825256645679474, 0.014624914154410362, -0.07778165489435196, 0.08352959156036377, -0.015321390703320503, -0.0683819130063057, 0.06250781565904617, 0.01218560803681612, 0.03666431084275246, 0.02747432142496109, 0.010499663650989532, 0.07322299480438232, -0.08748536556959152, -0.06275194138288498, 0.04909268766641617, -0.027646828442811966, 0.0870361402630806, 0.06241491064429283, 0.00633722310885787, 0.06971906870603561, 0.07310768216848373, -0.08464013785123825, -0.02050608955323696, -0.04306192323565483, 0.04157437011599541, -0.05483377352356911, 0.08080627024173737, 0.03426407650113106, -0.06916368007659912, 0.060469213873147964, -0.06512362509965897, 0.017030803486704826, -0.06725488603115082, -0.030377816408872604, 0.003123170929029584, -0.06340720504522324, 0.0026349511463195086, -0.07888251543045044, 0.062157172709703445, 0.08236076682806015, -0.08519259095191956, -0.06517477333545685, -0.03023902140557766, -0.03605281189084053, -0.033973317593336105, 0.061740901321172714, -0.03076472133398056, -0.011450663208961487, -0.004064131528139114, 0.0608273483812809, 0.08228810876607895, 0.08016733080148697, -0.0709465816617012, -0.08044187724590302, 0.021451419219374657, 0.07719350606203079, -0.028263870626688004, -0.01601944863796234, -0.017926029860973358, -0.08284264802932739, -0.07293106615543365, -0.02789689227938652, 0.048619773238897324, -0.07855670899152756, -0.038931943476200104, -0.023590557277202606, -0.060154739767313004, 0.06898363679647446, -0.03448643535375595, 0.05470055341720581, -0.032458726316690445, -0.039924994111061096, 0.020359273999929428, 0.04138635843992233, -0.013301230035722256, -0.06583727896213531, 0.07001744210720062, 0.02001151069998741, -0.02150743454694748, -0.07340676337480545, -0.06381982564926147, -0.024904275313019753, -0.05121861770749092, 0.002758523216471076, -0.03302019089460373, 0.036132801324129105, 0.042684391140937805, 0.08067642897367477, 0.0006947902729734778, -0.08425038307905197, -0.020793931558728218, 0.030532104894518852, 0.02501632273197174, -0.05856294184923172, -0.025776537135243416, -0.06783486902713776, 0.04348287358880043, -0.007068334612995386, 0.03752773627638817, -0.0371624231338501, 0.036374643445014954, -0.003964237868785858, -0.045359767973423004, 0.044923339039087296, -0.02820865996181965, 0.01888713240623474, -0.010240022093057632, 0.07522984594106674, -0.03977477550506592, 0.08687303960323334, 0.029417987912893295, -0.03904878348112106, -0.06332731246948242, 0.006597538013011217, -0.050249792635440826, 0.04724916070699692, -0.06759967654943466, 0.0606047660112381, 0.004586684051901102