// Numpy array shape [128]
// Min -0.21794425
// Max 0.16048908
// Number of zeros 0

#ifndef TRANSFORMERS_0_SELF_ATTENTION_NORM_BIAS_H_
#define TRANSFORMERS_0_SELF_ATTENTION_NORM_BIAS_H_

#ifndef __SYNTHESIS__
model_default_t transformers_0_self_attention_norm_bias[128];
#else
model_default_t transformers_0_self_attention_norm_bias[128] = {0.03530427813529968, 0.09810973703861237, 0.07037356495857239, -0.03956370800733566, 0.05273716151714325, -0.050125349313020706, 
-0.04052191972732544, -0.08517548441886902, -0.02594839781522751, -0.18920017778873444, 0.04243640601634979, -0.08481375128030777, -0.0003610565036069602, 
-0.052985116839408875, 0.03812847286462784, -0.12004971504211426, -0.011421208269894123, -0.10091134905815125, 0.16048908233642578, 0.10802073776721954, 
0.09220167994499207, 0.05798833817243576, -0.01597536727786064, 0.04482186213135719, 0.03858461230993271, -0.06753414124250412, -0.10782582312822342, 
-0.02242443896830082, -0.07358226180076599, 0.05606395751237869, 0.03786242753267288, 0.06425067037343979, 0.03558069467544556, 0.02405676059424877, 
0.10220953077077866, 0.011653369292616844, 0.02924834005534649, 0.01870792731642723, -0.004802989773452282, -0.062440209090709686, 0.029635008424520493, 
0.0933128148317337, 0.07399085909128189, 0.047038495540618896, -0.03513629361987114, 0.14707280695438385, -0.009524806402623653, 0.08159035444259644, 
-0.13359443843364716, -0.08460385352373123, 0.051234159618616104, -0.08975242078304291, 0.1595180183649063, 0.03393933176994324, 0.06346733123064041, 
0.030569253489375114, -0.06148222088813782, -0.17256945371627808, -0.023619161918759346, 0.015352264046669006, -0.020578021183609962, -0.14230002462863922, 
-0.06457263976335526, -0.020722977817058563, 0.0045262593775987625, -0.06481010466814041, -0.049509696662425995, 0.02927788533270359, 0.062128983438014984, 
-0.03311910107731819, -0.026992060244083405, -0.08783143013715744, -0.0291440412402153, -0.04301205649971962, 0.10113082081079483, -0.09388276189565659, 
0.037406157702207565, -0.07848858088254929, -0.07487179338932037, -0.038673460483551025, -0.06884292513132095, 0.05750560760498047, 0.14064770936965942, 
-0.09321300685405731, 0.1440974920988083, 0.007491776719689369, 0.061483126133680344, -0.21794424951076508, -0.11000124365091324, 0.03480515256524086, 
-0.10549296438694, -0.06345104426145554, 0.07088761031627655, -0.14770369231700897, 0.08219684660434723, 0.09027986973524094, 0.020250240340828896, 
-0.1089257076382637, -0.04295624420046806, 0.08508472144603729, 0.13201290369033813, 0.09873907268047333, -0.11664217710494995, -0.1961226612329483, 
-0.06405384838581085, 0.008709941059350967, 0.0171602051705122, 0.017074882984161377, 0.010112900286912918, 0.058709289878606796, 0.029551852494478226, 
-0.00826889555901289, -0.10873864591121674, 0.08818883448839188, 0.0748351588845253, 0.03516904264688492, 0.11137930303812027, -0.05665674805641174, 
-0.04223895072937012, 0.07483051717281342, 0.009097167290747166, 0.009505882859230042, 0.01003867294639349, 0.03845752030611038, -0.1575329303741455, 
0.0005269856192171574, 0.06182461604475975, 0.0012627597898244858};

#endif

#endif
