// Numpy array shape [128]
// Min -0.000364419
// Max 0.00038987788
// Number of zeros 0

#ifndef TRANSFORMERS_2_LINEAR_0_BIAS_H_
#define TRANSFORMERS_2_LINEAR_0_BIAS_H_

#ifndef __SYNTHESIS__
model_default_t transformers_2_linear_0_bias[128];
#else
model_default_t transformers_2_linear_0_bias[128] = {-0.00020684330957010388, 0.00033234659349545836, -0.00035722108441405, 0.00014970035408623517, -0.00032690889202058315, -4.811117469216697e-05, 
-8.455166971543804e-05, 0.0002501478302292526, -0.0003016479022335261, 0.00031103708897717297, -0.00023263455659616739, -0.000280545064015314, 0.00010756241681519896, 
-0.000339376536430791, 0.00019590456213336438, 0.00014143447333481163, -0.00021662453946191818, -0.0003012426313944161, 0.00032382982317358255, -1.662635440879967e-05, 
-0.0003351768827997148, 0.0003442839370109141, 0.0003029111248906702, 0.00022381510643754154, -0.00019416715076658875, 9.416526154382154e-05, -6.069316077628173e-05, 
-4.2433177441125736e-05, 0.00017089888569898903, -0.00022955158783588558, -0.00011829182039946318, -0.00032724402262829244, -0.00023776711896061897, -0.00024776236386969686, 
-8.297321619465947e-05, -9.833686635829508e-05, -0.0003241333761252463, -0.00028141975053586066, 2.3621014406671748e-05, -0.0001923038944369182, 0.00025343921151943505, 
-0.00029256127891130745, 0.0003521571634337306, 0.00014511836343444884, -0.00036244047805666924, 0.0003787793102674186, -0.0002664229250513017, 0.00034545036032795906, 
-0.00036441898555494845, -3.83129772671964e-05, 0.00036303093656897545, 6.495421257568523e-05, -0.00018187740352004766, -0.0002470904146321118, -0.0002876401413232088, 
2.2829844965599477e-05, 0.0003848755732178688, 0.00032906836713664234, 0.00021166923397686332, 0.00026549355243332684, 0.0002581356675364077, -0.00019680720288306475, 
0.0002312092256033793, -2.6510742827667855e-06, 0.00026014226023107767, 0.00030330801382660866, -0.00024640385527163744, -0.00016469016554765403, -0.00030959962168708444, 
-6.986103835515678e-05, 0.00017942386330105364, -0.00021352380281314254, -0.00030970119405537844, 0.0001719141728244722, 8.3037608419545e-05, 0.0002172424428863451, 
-0.00022213338525034487, 0.00019277776300441474, 6.815591405029409e-06, 0.0003160536871291697, 5.0999860832234845e-06, 5.279778633848764e-05, 0.00023181863070931286, 
-0.0003171466232743114, 0.00027671773568727076, 0.00019424819038249552, 0.00014504803402815014, -2.9281818569870666e-05, 7.416674634441733e-05, -3.604760786402039e-05, 
0.00021289646974764764, -2.079612750094384e-05, 0.0003036961716134101, 8.843051546136849e-06, 5.265808431431651e-05, 0.00036583421751856804, -0.00021206594828981906, 
0.0003756936639547348, 0.000201000104425475, -0.0002738960029091686, 0.00021086943161208183, 6.379666592692956e-05, -3.04534551105462e-05, 0.0003080700698774308, 
-0.0003144103684462607, 8.797651389613748e-05, -0.00032736457069404423, 8.939074177760631e-05, 0.0001451080315746367, -2.9987675588927232e-05, -0.0001663180155446753, 
0.00015733993495814502, 1.7850263247964904e-05, -0.00012067554780514911, 0.0001608568272786215, 0.0003898778813891113, 0.00028996728360652924, 0.0003544147766660899, 
0.00037875393172726035, -0.00022547258413396776, 0.00016012051491998136, 0.0003400511050131172, -0.0003116208245046437, 9.482129826210439e-05, -0.00027948239585384727, 
1.1911499314010143e-05, 0.0003617535694502294, -0.0003145551891066134};

#endif

#endif
