0.00019999088544864208, -0.00029481828096322715, 5.502247222466394e-05, -0.00013753965322393924, 0.0002966065367218107, 4.096193515579216e-05, 0.0001392519479850307, -0.0005435870261862874, 0.0001415751758031547, -4.952895324095152e-06, -0.0001973265752894804, 0.00019091088324785233, 0.0004822215414606035, 0.0004227449535392225, 4.370687747723423e-05, 0.00017980905249714851, 0.00019362785678822547, -0.0003483219479676336, -0.00014143352746032178, -0.00011254129640292376, -0.000268803967628628, -0.00014341043424792588, 0.0003032563836313784, 7.315305265365168e-05, -0.0005118904518894851, -0.00028464809292927384, -6.479354487964883e-05, 0.0005167231429368258, 0.0004319905419833958, -0.0002156870177714154, -0.00029782974161207676, 9.857004624791443e-05, 8.342073124367744e-05, 2.60966298810672e-05, 0.00021169411775190383, 0.0005234519485384226, 0.000423517165472731, -0.0003257305652368814, -0.0002853846817743033, -0.00019735303067136556, 0.00023592979414388537, 0.0004292520461603999, 0.0001900138013297692, 9.382003190694377e-05, 0.0005395926418714225, 0.0004548737488221377, -0.00023034254263620824, 0.00045480989501811564, -0.0003667013661470264, -0.0005557239637710154, -0.00010067065159091726, 0.0001062142473529093, 0.0003550001129042357, -0.0005384878604672849, -0.00035361346090212464, -0.0004695649549830705, 0.0004313185636419803, 0.0001821807527448982, -1.4809818821959198e-05, 0.000347879744367674, -0.00036639097379520535, -5.544736632145941e-05, -0.0004484760283958167, 0.00019721733406186104, 0.00030358554795384407, 0.0002677998854778707, -0.00023696552671026438, -0.00036688934778794646, -0.00026786679518409073, -0.0002482698764652014, 0.0001240469719050452, -0.0003325549478176981, -4.080238431924954e-05, 3.145659138681367e-05, -0.00021285712136887014, -0.0002864990965463221, -9.210099960910156e-05, 5.1152810556232e-06, 9.451252117287368e-05, 0.00023235302069224417, 0.00041605651495046914, -0.00021478465350810438, 0.00021293443569447845, -0.0001894820888992399, 0.0001367241347907111, 0.00018521038873586804, -0.00028872006805613637, -0.00025201623793691397, 0.00034161293297074735, -0.00013384777412284166, -0.00020063930423930287, 0.00020511144248303026, 0.00046863898751325905, 0.00033838575473055243, 0.00014730416296515614, -0.00016119079373311251, -4.2626841604942456e-05, 0.00016114080790430307, -3.821257996605709e-05, 0.0003623842494562268, 9.195324673783034e-05, 0.0003038458526134491, 0.0001449499250156805, -0.00039244539220817387, -2.4945893528638408e-05, 0.00025417294818907976, -0.0002855050843209028, -0.00016986731498036534, -3.995756560470909e-05, 0.0004005358787253499, -0.00027741678059101105, -0.0005169399664737284, 0.0005069468752481043, -0.00033301435178145766, 0.0003747651062440127, 0.00041253294330090284, -0.00019686031737364829, 5.169923679204658e-05, -0.00047824400826357305, -0.00017830925935413688, 9.005893662106246e-05, 0.00046587560791522264, -0.0004376074648462236, -0.0004885259550064802, -0.0001971265155589208, -0.0002590292424429208, 0.0004214055952616036, 0.00021179633040446788