-0.6973627805709839, 1.1474311351776123, 0.7452473044395447, 0.024450622498989105, 1.5686514377593994, 0.566785454750061, -0.03602157160639763, 0.18146145343780518, -0.6491971611976624, -0.2130305916070938, 0.44825536012649536, 0.21609526872634888, -0.5567082762718201, -0.23197492957115173, -2.323486328125, -0.6271264553070068, 0.27963995933532715, -0.7329656481742859, 0.5988743901252747, 0.4070795178413391, 0.16475504636764526, 0.23195487260818481, -0.1251223385334015, -2.700573444366455, 0.22850032150745392, -3.298076868057251, -0.3174615502357483, -0.12415384501218796, 0.5146921277046204, 0.01707635447382927, 0.8538262248039246, 0.6484711170196533, -0.4551332890987396, -0.3110799491405487, -0.6138848662376404, 1.413967251777649, 0.5662249326705933, 0.288839727640152, 1.108314037322998, -1.7794324159622192, -0.7173401117324829, -0.33744072914123535, 0.33509600162506104, 0.4377991855144501, -0.2778785228729248, -0.36642518639564514, -0.655753493309021, 1.4724291563034058, 0.3744918704032898, -0.8319226503372192, 0.6016319990158081, 1.0819101333618164, -0.7556357979774475, -0.46100229024887085, 0.3806731700897217, 0.4656304121017456, 0.21858319640159607, -0.829750657081604, 0.550845205783844, -0.4953017234802246, -0.12315944582223892, 1.0352187156677246, -0.24611438810825348, 0.058936648070812225, 0.12057705223560333, 0.7818599343299866, 0.3364661931991577, 0.15718552470207214, -1.2111790180206299, 0.17946039140224457, 0.8302040100097656, 0.46400195360183716, 0.49298980832099915, -0.15096591413021088, -1.2659595012664795, 1.8884868621826172, 0.011125356890261173, -1.4803413152694702, -0.520135760307312, -0.2678520083427429, 0.9041788578033447, -0.05003982037305832, -0.8168236017227173, -0.501548171043396, -0.15547727048397064, 0.8400490283966064, 0.2705328166484833, 1.449069619178772, 0.24647194147109985, 1.4788388013839722, 0.3646237850189209, 0.3877384066581726, -1.6289021968841553, 0.42929714918136597, -0.5353502631187439, 1.3354556560516357, -0.37101298570632935, 1.1332701444625854, -0.6250468492507935, -2.9836270809173584, -0.142112135887146, 0.510668158531189, 2.278118371963501, 0.28609421849250793, -0.07011902332305908, -1.363315463066101, -0.02292221412062645, 0.05047833174467087, -1.1414841413497925, -0.2762407958507538, -0.7372674942016602, -0.48840928077697754, 0.20295728743076324, -0.19587990641593933, 0.23793154954910278, -0.1331486999988556, -0.3215637803077698, -0.1879829317331314, -0.04495754837989807, 0.5254101157188416, 0.3035198748111725, -0.053343649953603745, -0.1822180598974228, 0.20848752558231354, 0.43505963683128357, 0.42110851407051086, -0.46081069111824036, -0.30254387855529785