0.08621092140674591, 0.19502565264701843, 0.20042334496974945, -0.10079339891672134, -0.21727731823921204, 0.12064661830663681, -0.23292140662670135, -0.1936495155096054, -0.1750933825969696, 0.057094406336545944, 0.09579024463891983, 0.019417770206928253, 0.0728839859366417, 0.08056407421827316, 0.16343840956687927, -0.21066616475582123, 0.047678910195827484, -0.06345533579587936, -0.09172554314136505, 0.2197708636522293, 0.19843947887420654, -0.010876553133130074, -0.19563952088356018, 0.23565474152565002, 0.024952540174126625, 0.17973989248275757, 0.21465758979320526, 0.055112987756729126, 0.08203894644975662, 0.07672042399644852, -0.199910506606102, -0.023997260257601738, -0.22259414196014404, 0.160880446434021, -0.00010292080696672201, -0.07723946124315262, 0.03797195479273796, -0.2207803875207901, -0.04280299320816994, -0.20883077383041382, -0.07589944452047348, 0.18148913979530334, 0.21325063705444336, 0.21343956887722015, -0.039144665002822876, 0.19487202167510986, 0.2242945432662964, 0.16839170455932617, 0.07808364182710648, -0.165895015001297, 0.1499280482530594, -0.02345244772732258, -0.2229689508676529, -0.17205694317817688, -0.05037277936935425, 0.10179205238819122, -0.03969303146004677, -0.10661812126636505, 0.19776739180088043, -0.075638547539711, -0.055667560547590256, -0.20581956207752228, 0.22693350911140442, -0.16083045303821564, -0.028358040377497673, 0.12511557340621948, -0.015316864475607872, -0.24763993918895721, 0.027721209451556206, -0.04888608306646347, 0.15009112656116486, -0.12475089728832245, 0.0805380791425705, -0.05732421576976776, 0.1265922337770462, -0.22815264761447906, -0.04320088401436806, -0.1838696002960205, -0.01430574432015419, -0.122504323720932, -0.05939247086644173, -0.15914641320705414, -0.07729186117649078, 0.09227622300386429, 0.04042384773492813, 0.007135196588933468, -0.1525866836309433, -0.1646450161933899, 0.23730450868606567, -0.01831386610865593, 0.18117006123065948, 0.14152398705482483, 0.0009469927754253149, -0.036904122680425644, 0.11613862961530685, -0.11310872435569763, 0.018893307074904442, 0.23342718183994293, -0.2448672652244568, -0.019777745008468628, 0.1555483639240265, 0.011049226857721806, 0.0469280481338501, -0.18927602469921112, -0.17877604067325592, -0.15417271852493286, -0.21351079642772675, -0.20348556339740753, 0.03402974084019661, -0.13085752725601196, 0.029722588136792183, 0.18007761240005493, 0.2428251951932907, -0.1406354010105133, -0.044377077370882034, 0.1908663660287857, -0.05029255151748657, -0.06894086301326752, -0.012701449915766716, 0.10027773678302765, 0.21834318339824677, -0.11171245574951172, 0.19841088354587555, -0.19490168988704681, 0.22031345963478088, -0.11675247550010681, -0.11768374592065811, -0.17254380881786346, -0.0056004771031439304, 0.06334972381591797, -0.2342439889907837, 0.1104438304901123, -0.09528050571680069, -0.01798313297331333, 0.056426797062158585, -0.17577879130840302, 0.0065488554537296295, -0.044763147830963135, 0.19093836843967438, 0.21750997006893158, -0.10829949378967285, -0.13883650302886963, 0.1620982438325882, -0.16549573838710785, -0.18125583231449127, -0.0045122262090444565, 0.20643563568592072, 0.0908130556344986, -0.08690766990184784, -0.20820102095603943, -0.04497348144650459, -0.006828246172517538, -0.0411500483751297, -0.07670734077692032, -0.1079900786280632, 0.14539982378482819, -0.08645309507846832, -0.11855917423963547, -0.18184299767017365, -0.20641162991523743, 0.006949009373784065, -0.22192402184009552, 0.0025576408952474594, -0.197956845164299, -0.21491651237010956, 0.1075250431895256, -0.1996968537569046, 0.11859115958213806, 0.18466900289058685, 0.02857183665037155, 0.16004256904125214, 0.13234849274158478, 0.08350098878145218, 0.011673066765069962, 0.017795253545045853, -0.11589619517326355, -0.2065679430961609, 0.18737180531024933, 0.19583560526371002, 0.1656080037355423, 0.20046968758106232, 0.1974494755268097, 0.13316452503204346, -0.1704881638288498, -0.13991598784923553, 0.17896682024002075, -0.22890618443489075, 0.08044563978910446, 0.007480144500732422, 0.0541815347969532, 0.001960200723260641, -0.2232046276330948, 0.12493717670440674, -0.2055908590555191, 0.1454772800207138, -0.20127326250076294, 0.15255106985569, 0.0880734995007515, 0.0670083686709404, -0.10255435854196548, 0.19978582859039307, 0.07171141356229782, -0.03349175676703453, -0.15847982466220856, -0.009906232357025146, 0.20255184173583984, -0.0703965276479721, -0.20857542753219604, -0.18938753008842468, -0.04020474851131439, 0.24662107229232788, 0.05244183540344238, -0.2442212849855423, 0.16128329932689667, 0.01380816288292408, 0.11695045977830887, 0.18541747331619263, 0.09235040098428726, 0.2201717346906662, -0.09474021941423416, 0.17093758285045624, -0.04370855167508125, 0.2394057661294937, -0.22452451288700104, 0.17304618656635284, 0.08400634676218033, 0.012613760307431221, 0.050079625099897385, -0.040301449596881866, -0.10704196244478226, 0.0628238394856453, -0.027582544833421707, -0.14118722081184387, 0.026743419468402863, -0.023210173472762108, -0.0007843818166293204, -0.17279867827892303, -0.1280338615179062, -0.09855975210666656, 0.029744984582066536, -0.012529975734651089, 0.03071638196706772, 0.1524200588464737, 0.14092764258384705, -0.04957030341029167, 0.05475429445505142, 0.10955189168453217, -0.056580428034067154, -0.10301824659109116, -0.06209542974829674, 0.06175142526626587, 0.14359977841377258, 0.22967366874217987, 0.002371159614995122, -0.06093795225024223, -0.09430065751075745, -0.004854769445955753, 0.1930261105298996, -0.1277301162481308, 0.14055070281028748, 0.05120132490992546, 0.09891638904809952, -0.0297490693628788, -0.20502184331417084, 0.14674276113510132, -0.03558303415775299, 0.1518089473247528, 0.2328301966190338, 0.017579441890120506, 0.1571844518184662, -0.016055425629019737, -0.11634936183691025, 0.036077819764614105, 0.16891174018383026, -0.2368914633989334, 0.0030709579586982727, 0.15650765597820282, 0.06949995458126068, -0.23423540592193604, 0.07854901999235153, 0.19758634269237518, 0.23001380264759064, -0.1546516716480255, 0.1712232381105423, -0.04259646683931351, -0.08233089745044708, -0.021518683061003685, -0.05999412387609482, 0.0887167826294899, 0.011733648367226124, 0.19758011400699615, 0.02618725411593914, -0.23325054347515106, 0.09787818789482117, 0.24832825362682343, -0.13143669068813324, -0.12083126604557037, 0.15525545179843903, -0.18257060647010803, 0.030500808730721474, 0.09132934361696243, -0.21622325479984283, -0.23798474669456482, -0.1979830265045166, -0.1849697232246399, -0.01007059682160616, 0.2234009951353073, -0.07300539314746857, 0.10029081255197525, -0.15767422318458557, -0.143990620970726, 0.2213629186153412, 0.02064611203968525, 0.12636923789978027, 0.18938295543193817, -0.018121277913451195, -0.10796821862459183, -0.21157987415790558, -0.19060258567333221, 0.20703406631946564, 0.04713825136423111, 0.1936970055103302, -0.23469862341880798, 0.023802651092410088, 0.10507293790578842, -0.1704123318195343, -0.17522834241390228, -0.022396868094801903, -0.07045882195234299, -0.04544161260128021, -0.09511171281337738, 0.0797802209854126, -0.20107915997505188, -0.20948104560375214, -0.016804790124297142, -0.031104307621717453, 0.04806112125515938, -0.10715173184871674, 0.18116186559200287, 0.16399195790290833, 0.12592899799346924, 0.18069589138031006, 0.24756915867328644, -0.14455950260162354, -0.09885791689157486, 0.16185301542282104, 0.1433827430009842, -0.07053355872631073, -0.13211646676063538, -0.04604826122522354, 0.03888222947716713, 0.14470931887626648, -0.17215563356876373, -0.16649329662322998, 0.06862762570381165, 0.22410939633846283, -0.20896166563034058, 0.07033149152994156, -0.12623296678066254, 0.18664208054542542, 0.19911153614521027, -0.20561116933822632, 0.21146193146705627, -0.08628250658512115, -0.032568346709012985, 0.08916916698217392, 0.04629600793123245, -0.14167681336402893, -0.19946053624153137, 0.10190961509943008, -0.07458909600973129, 0.1760571449995041, 0.206836998462677, -0.029816366732120514, -0.21839840710163116, -0.08898523449897766, 0.17953811585903168, 0.16178900003433228, 0.22584132850170135, -0.1515687257051468, 0.17883610725402832, -0.09789770841598511, 0.11967314779758453, 0.09329093992710114, -0.02914322540163994, 0.09416664391756058, -0.04026095196604729, 0.20709443092346191, -0.021822771057486534, -0.05136682465672493, 0.16879406571388245, -0.15588262677192688, 0.12601926922798157, 0.07218165695667267, 0.24476169049739838, 0.07434014230966568, -0.20983284711837769, -0.07343239337205887, 0.15284638106822968, -0.18952295184135437, -0.07889004796743393, 0.19297510385513306, 0.15860897302627563, -0.23968741297721863, 0.04948372393846512, -0.08978015184402466, -0.2011387199163437, 0.1911916583776474, -0.1204087883234024, -0.1453539878129959, -0.09319684654474258, 0.03634083271026611, 0.07544340938329697, -0.22554944455623627, -0.16140028834342957, 0.23888762295246124, -0.05271398648619652, -0.026595531031489372, -0.11434333026409149, -0.1589168906211853, -0.10359463840723038, -0.001654307940043509, -0.19452358782291412, -0.06347252428531647, -0.03312578424811363, -0.17174923419952393, -0.14361220598220825, -0.24214038252830505, 0.139967143535614, -0.0974714532494545, -0.1294536143541336, 0.03009673021733761, 0.009086056612432003, 0.16762655973434448, -0.149041086435318, -0.21709579229354858, 0.0971117839217186, 0.11468707770109177, 0.1236424669623375, 0.0963381677865982, -0.18121975660324097, -0.19264152646064758, -0.23510956764221191, -0.21739384531974792, -0.20489877462387085, 0.025284720584750175, 0.11160200089216232, -0.022288549691438675, 0.21923401951789856, 0.098328597843647, 0.0037152275908738375, -0.1500154584646225, -0.11360827833414078, 0.23028822243213654, -0.18904553353786469, 0.14836888015270233, 0.21524131298065186, -0.20357443392276764, 0.153083935379982, 0.02152840606868267, -0.07872074097394943, 0.21338455379009247, 0.00024368311278522015, -0.1987437605857849, -0.070639967918396, 0.23764382302761078, -0.08422211557626724, 0.13481639325618744, -0.07398808002471924, 0.0646304115653038, 0.11758215725421906, 0.18175944685935974, -0.19645895063877106, 0.10064836591482162, -0.00848987977951765, 0.08751410245895386, -0.05782467871904373, 0.14409534633159637, 0.1104908138513565, -0.1744317263364792, 0.07036305963993073, -0.09536083042621613, 0.23041579127311707, 0.20202481746673584, 0.1214040070772171, -0.1410822868347168, -0.07362522184848785, 0.06151362508535385, -0.17763100564479828, -0.06448058784008026, 0.195026695728302, 0.2212837189435959, -0.15021295845508575, 0.21933846175670624, 0.06578822433948517, -0.05604149028658867, 0.022618677467107773, 0.20587055385112762, 0.13394296169281006, -0.12115010619163513, 0.04116523265838623, 0.11335140466690063, -0.15937186777591705, 0.1565939038991928, -0.1361244171857834, -0.22442501783370972, 0.22718238830566406, -0.1452706903219223, 0.16730305552482605, -0.23141860961914062, -0.1106681302189827, 0.19508706033229828, 0.10726779699325562, -0.06537927687168121, -0.24394826591014862, 0.23165731132030487, 0.10753721743822098, 0.11243803054094315, 0.2162369191646576, 0.10364799201488495, -0.1120687872171402, -0.009215405210852623, -0.1329396814107895, 0.029544444754719734, -0.1543741375207901, 0.23034387826919556, -0.02114967815577984, -0.051115185022354126, -0.12233622372150421, -0.026793580502271652, 0.10373388975858688, -0.19416089355945587, -0.04599680006504059, 0.049247730523347855, 0.21220749616622925, 0.12265996634960175, -0.06722606718540192, -0.23619377613067627, 0.22222106158733368, 0.18135589361190796, -0.2001853585243225, 0.10496333986520767, -0.24802328646183014, -0.10371802747249603, 0.08925826102495193, -0.21952736377716064, -0.1444765329360962, 0.005962823051959276, -0.22443887591362, -0.20069925487041473, -0.0742536187171936, -0.17535246908664703, 0.05228997766971588, -0.17414996027946472, -0.2435385137796402, -0.16853196918964386, 0.21314510703086853, -0.08544422686100006, 0.23564964532852173, 0.1487736999988556, 0.19225090742111206, -0.23720775544643402, 0.13956820964813232, 0.2281629592180252, 0.1693885326385498, -0.23138804733753204, -0.028267348185181618, 0.0042116595432162285, -0.16359689831733704, 0.08748295903205872, 0.24420085549354553, -0.01591366156935692, -0.09715548157691956, 0.21161191165447235, 0.09773623943328857, -0.14937244355678558, -0.009854672476649284, 0.06831397116184235, 0.1928834617137909, -0.043981634080410004, -0.21931159496307373, -0.09898170083761215, 0.11238188296556473, -0.2247447818517685, -0.15620119869709015, 0.04392242059111595, 0.12635228037834167, -0.045950982719659805, 0.05350775644183159, 0.16592678427696228, -0.16448412835597992, 0.15475767850875854, 0.2079363614320755, 0.18805792927742004, -0.23085974156856537, -0.14511869847774506, -0.0010316515108570457, -0.2423001378774643, -0.20013652741909027, -0.03275805339217186, 0.11979878693819046, 0.020727714523673058, -0.17186523973941803, 0.023368511348962784, 0.10066074877977371, -0.05604170635342598, 0.17962656915187836, -0.2372225821018219, -0.08143088966608047, 0.008532192558050156, 0.2306850403547287, 0.23551398515701294, -0.1774684190750122, -0.25021427869796753, -0.17275287210941315, -0.11186404526233673, -0.14305751025676727, 0.05048246309161186, -0.16640886664390564, 0.12060457468032837, -0.11786201596260071, 0.13224966824054718, -0.12187190353870392, -0.15277878940105438, -0.1025797426700592, -0.16347236931324005, -0.19077974557876587, 0.09340324997901917, -0.14988426864147186, -0.24513475596904755, -0.23426499962806702, -0.04076361656188965, -0.026724379509687424, 0.2206902652978897, 0.17793220281600952, 0.12816908955574036, 0.1896781027317047, -0.20492488145828247, 0.04526544734835625, 0.18882441520690918, -0.013089808635413647, -0.040617574006319046, -0.24283117055892944, -0.06380139291286469, -0.04129568859934807, 0.09424303472042084, 0.08214709907770157, 0.12491484731435776, 0.1335824728012085, -0.06802981346845627, -0.06067028269171715, -0.0143591845408082, -0.12737715244293213, -0.1441858559846878, 0.023182610049843788, 0.1116567924618721, 0.22109238803386688, 0.06565562635660172, 0.13429272174835205, -0.10724981129169464, -0.04875011369585991, 0.009328318759799004, 0.1688399761915207, 0.10276218503713608, 0.2273474931716919, -0.08967368304729462, -0.23498277366161346, 0.15823443233966827, -0.15011027455329895, -0.15158718824386597, -0.034619104117155075, 0.03814768046140671, 0.12314102053642273, -0.1057000383734703, 0.20747525990009308, -0.22325612604618073, 0.05063275620341301, -0.2018451988697052, -0.19678270816802979, -0.13744787871837616, 0.06558443605899811, 0.13830624520778656, 0.0055239032953977585, -0.18603205680847168, -0.03849291801452637, 0.13727404177188873, 0.20586039125919342, 0.1886267364025116, -0.00011617486597970128, -0.2297145575284958, 0.10611170530319214, 0.1850525140762329, -0.23858076333999634, -0.12362252175807953, -0.024112408980727196, -0.12609533965587616, -0.13318559527397156, -0.015545740723609924, -0.12905359268188477, 0.017264816910028458, -0.10220666974782944, 0.18952740728855133, 0.11905347555875778, 0.07081614434719086, -0.003541054669767618, -0.22349901497364044, 0.02432946115732193, 0.2078358381986618, -0.2035176306962967, 0.12028291821479797, -0.18163110315799713, -0.05779365077614784, -0.06175275519490242, 0.23283009231090546, 0.050666648894548416, 0.09002929925918579, 0.04605920985341072, 0.23316513001918793, 0.07174685597419739, -0.045991938561201096, 0.17309878766536713, -0.18620741367340088, 0.03950484097003937, -0.13623182475566864, -0.0912294089794159, -0.22339540719985962, -0.08496643602848053, -0.09031733125448227, 0.05850505456328392, 0.21455352008342743, -0.018449440598487854, -0.006846259348094463, 0.21904872357845306, 0.09805674850940704, 0.024068929255008698, -0.17512084543704987, 0.07121487706899643, -0.017686691135168076, -0.18131111562252045, 0.07953649014234543, 0.08594062179327011, -0.1714930385351181, 0.13486534357070923, -0.11048266291618347, -0.2060202956199646, -0.0922679677605629, 0.1696045696735382, 0.24959947168827057, 0.21415865421295166, -0.06117178499698639, -0.07135995477437973, -0.24363212287425995, 0.17926429212093353, 0.17181992530822754, 0.17719295620918274, 0.14266203343868256, 0.03816903382539749, 0.12424992769956589, 0.10896018892526627, 0.1901589334011078, 0.11440926790237427, 0.2460670918226242, 0.005425578448921442, -0.1889563351869583, -0.07897434383630753, 0.0027359621599316597, -0.08289613574743271, 0.09875551611185074, -0.11143263429403305, -0.050676435232162476, 0.1457262486219406, -0.04480674862861633, 0.04214238002896309, 0.13495925068855286, -0.24408774077892303, 0.06215239688754082, -0.049890682101249695, 0.08477351069450378, 0.13828454911708832, 0.15106278657913208, -0.12576164305210114, 0.17408888041973114, 0.09729712456464767, -0.23446854948997498, 0.22545333206653595, 0.20076288282871246, 0.20995555818080902, -0.13445138931274414, -0.2116401493549347, 0.02802940085530281, -0.0978364422917366, -0.21329548954963684, -0.04635907709598541, 0.1406554877758026, 0.08584996312856674, -0.03600187972187996, -0.16431821882724762, 0.2025361806154251, -0.2165800780057907, 0.054185353219509125, -0.018363628536462784, -0.004112765192985535, 0.16499413549900055, -0.24563829600811005, -0.23324695229530334, 0.18103830516338348, 0.18439045548439026, 0.015067282132804394, 0.0976637452840805, -0.24730542302131653, 0.08552978187799454, 0.2430383414030075, 0.18098120391368866, 0.13701166212558746, -0.07430577278137207, 0.21303071081638336, -0.14793038368225098, -0.13943326473236084, -0.10976649075746536, 0.1983138918876648, 0.14863213896751404, 0.058276597410440445, 0.2427094578742981, -0.19456897675991058, -0.1302139163017273, 0.18274326622486115, -0.23087172210216522, -0.1043298989534378, -0.023774301633238792, -0.12094378471374512, -0.06664127856492996, 0.018008770421147346, 0.12711480259895325, 0.17744234204292297, -0.19497889280319214, 0.23567716777324677, 0.1630096584558487, -0.22433185577392578, 0.10191237181425095, -0.007480197586119175, -0.010791197419166565, 0.11184823513031006, -0.027888033539056778, -0.015366788022220135, -0.1266787350177765, -0.09905782341957092, 0.11354564130306244, 0.09605804830789566, -0.17738093435764313, -0.06185147911310196, -0.17491117119789124, -0.034385137259960175, 0.17241895198822021, -0.1389205902814865, -0.09985951334238052, -0.02673669345676899, 0.15067797899246216, -0.22911135852336884, 0.22238501906394958, 0.1640380471944809, 0.24423356354236603, 0.04694492369890213, 0.023618115112185478, 0.23778392374515533, -0.10003963112831116, -0.18032482266426086, -0.14379815757274628, -0.21494446694850922, -0.2333255559206009, 0.015352685004472733, -0.19836318492889404, -0.20172715187072754, -0.23890331387519836, 0.17843946814537048, 0.10616191476583481, 0.014759659767150879, -0.18651701509952545, -0.19293014705181122, -0.11493485420942307, 0.15989819169044495, 0.24239271879196167, 0.1582113802433014, 0.19512256979942322, 0.00387095520272851, 0.045892685651779175, 0.10996339470148087, -0.12086169421672821, -0.09364612400531769, 0.07631218433380127, -0.06119123846292496, -0.03499465808272362, 0.18540343642234802, -0.17093993723392487, 0.18126946687698364, -0.17943395674228668, 0.11926047503948212, -0.09987516701221466, 0.044155970215797424, -0.11779365688562393, -0.02471734583377838, -0.040075697004795074, 0.18781568109989166, 0.021555909886956215, 0.1986766755580902, 0.009827115572988987, 0.04577043652534485, -0.03422437235713005, 0.1795225441455841, -0.14368486404418945, 0.2046605348587036, -0.06763739883899689, 0.16329273581504822, 0.1360868215560913, 0.05517691373825073, 0.18734215199947357, -0.09519125521183014, 0.23585057258605957, -0.11998248100280762, 0.22829481959342957, -0.15803319215774536, 0.15795841813087463, -0.030719714239239693, -0.2358718365430832, -0.03522608056664467, -0.23458363115787506, -0.1218033879995346, 0.011732409708201885, -0.2337852120399475, -0.06956645101308823, 0.17191573977470398, 0.10337892919778824, 0.1916169971227646, 0.05714515224099159, 0.233535036444664, -0.036456815898418427, -0.22889238595962524, -0.11399528384208679, 0.007196120917797089, -0.08776427060365677, -0.09810485690832138, 0.11447028070688248, -0.06032823771238327, 0.02433220110833645, 0.1777706742286682, 0.23489823937416077, 0.05487190559506416, 0.14180392026901245, -0.19829639792442322, -0.13287138938903809, -0.1944097876548767, -0.183524027466774, 0.0429057851433754, 0.06803528964519501, -0.1153307557106018, -0.13895589113235474, 0.005506404209882021, -0.048932064324617386, -0.06467431038618088, 0.07298276573419571, 0.2334231585264206, -0.07749757915735245, 0.1153632402420044, -0.03352080285549164, -0.14791135489940643, 0.06184344366192818, 0.1041548028588295, -0.22873222827911377, -0.01520662009716034, -0.0532938577234745, 0.061114683747291565, -0.05561653897166252, -0.18605540692806244, 0.2226414680480957, -0.15322068333625793, 0.24156825244426727, 0.233323335647583, 0.1821158528327942, 0.18500708043575287, 0.18741804361343384, 0.12076705694198608, 0.09475381672382355, -0.15537163615226746, 0.136134073138237, 0.064488485455513, -0.21940156817436218, -0.16923750936985016, -0.19448938965797424, -0.16578280925750732, -0.0349818654358387, -0.07605618983507156, 0.21004347503185272, -0.06305599957704544, 0.08501196652650833, 0.0737806186079979, 0.15439863502979279, -0.020730698481202126, -0.002925300970673561, 0.13892778754234314, -0.05850541591644287, -0.004476300906389952, -0.22331805527210236, -0.012032408267259598, -0.1936892569065094, 0.13670150935649872, -0.06910482794046402, 0.21744169294834137, -0.20350995659828186, 0.11529159545898438, 0.07474114000797272, 0.08075734227895737, -0.07637413591146469, -0.028362300246953964, -0.23903408646583557, -0.24934077262878418, 0.057022321969270706, 0.18609806895256042, 0.15118108689785004, -0.20779500901699066, -0.24551977217197418, -0.00036898397956974804, 0.10407441854476929, -0.07882675528526306, 0.01125547755509615, -0.16617266833782196, -0.1430257111787796, -0.10984392464160919, -0.19313472509384155, -0.19946669042110443, -0.15701454877853394, 0.1659751683473587, -0.2187388390302658, -0.11873453855514526, 0.17695918679237366, -0.22102293372154236, 0.08991770446300507, -0.019318832084536552, 0.213384747505188, 0.22442342340946198, -0.147279292345047, -0.2360195815563202, -0.23060360550880432, -0.056163351982831955, -0.07152057439088821, 0.10120433568954468, -0.07306043058633804, 0.0017055148491635919, -0.09546108543872833, 0.10657312721014023, -0.1123986542224884, -0.09573357552289963, -0.22392036020755768, -0.2325221747159958, 0.15967942774295807, -0.16544631123542786, 0.1021801009774208, 0.18467330932617188, -0.2100675404071808, -0.04670707508921623, 0.19291935861110687, 0.24113918840885162, -0.074531689286232, 0.001362934592179954, 0.21705076098442078, -0.21615928411483765, -0.0870741605758667, 0.06361952424049377, -0.08353222906589508, -0.029372040182352066, -0.1072528213262558, 0.054858189076185226, 0.16647352278232574, 0.19271263480186462, -0.020998401567339897, -0.12750224769115448, 0.24709439277648926, 0.19201447069644928, 0.22842475771903992, 0.16003254055976868, -0.14898847043514252, -0.08827359974384308, 0.17182858288288116, 0.24283991754055023, -0.13937512040138245, -0.1512625515460968, 0.223786860704422, -0.19464562833309174, -0.0203798059374094, -0.24839183688163757, 0.16449019312858582, -0.020720332860946655, -0.04267049953341484, -0.13436123728752136, 0.1832016110420227, -0.15507805347442627, 0.11006245762109756, -0.1716589629650116, 0.014423186890780926, -0.18606935441493988, -0.2103804498910904, -0.0031148111447691917, 0.08636234700679779, -0.18997694551944733, 0.16715911030769348, -0.06136886030435562, -0.01730170100927353, -0.18138709664344788, -0.10136998444795609, -0.164276584982872, 0.05253991112112999, -0.17644818127155304, 0.06294255703687668, -0.15367759764194489, -0.13557936251163483, 0.13070440292358398, -0.14515632390975952, -0.246355801820755, 0.15031488239765167, -0.11398667842149734, 0.0665915459394455, 0.022626198828220367, 0.21502774953842163, -0.14086346328258514, 0.15715371072292328, -0.12328465282917023, -0.06369729340076447, -0.20447424054145813, -0.028442157432436943, 0.08836787194013596, 0.010175307281315327, 0.12385436147451401, 0.20349590480327606, 0.002959504956379533, 0.10661586374044418, -0.017229625955224037, -0.15602517127990723, 0.18789111077785492, -0.12823614478111267, 0.06261510401964188, 0.24459484219551086, 0.11976359784603119, 0.006613780278712511, -0.10498574376106262, 0.013967699371278286, 0.11649299412965775, 0.1939679980278015, -0.22109954059123993, -0.005517368670552969, 0.06560025364160538, 0.2148730605840683, 0.12182153761386871, 0.13104920089244843, 0.03860704228281975, -0.12802226841449738, 0.24965062737464905, -0.21950560808181763, -0.1395646184682846, 0.018772102892398834, 0.044151995331048965, -0.08687936514616013, 0.04300214722752571, 0.09820554405450821, 0.031424473971128464, -0.05852052569389343, -0.13538715243339539, -0.11749327927827835, -0.15926456451416016, -0.19153103232383728, 0.18087641894817352, -0.12706008553504944, 0.014251774176955223, -0.22441191971302032, 0.11230617761611938, 0.005038997624069452, 0.13914833962917328, -0.015078721567988396, -0.021450163796544075, -0.18216922879219055, 0.10380658507347107, -0.0455697663128376, 0.10324026644229889, -0.20674973726272583, -0.1403328776359558, -0.12460467964410782, -0.05757104977965355, 0.05812618136405945, 0.10968375205993652, 0.16197143495082855, 0.1668146699666977, -0.0036961159203201532, -0.18886539340019226, 0.1132461279630661, 0.01485568005591631, 0.06748947501182556, 0.10748841613531113, 0.248251810669899, 0.17424248158931732, -0.038538191467523575, -0.022280126810073853, 0.016474749892950058, 0.07693374156951904, -0.21686309576034546, -0.2253059297800064, -0.10186244547367096, -0.24408461153507233, -0.19916698336601257, -0.09201639145612717, 0.08304198831319809, -0.1506345570087433, 0.04781520366668701, -0.1589018851518631, 0.1950272023677826, 0.00537500623613596, -0.0903775542974472, 0.21049848198890686, 0.05933775380253792, -0.08691221475601196, 0.0590667650103569, 0.24749720096588135, 0.10173480957746506, 0.030276719480752945, -0.23657125234603882, -0.17612096667289734, -0.06979039311408997, 0.11840691417455673, 0.10576912760734558, 0.22100406885147095, -0.08225220441818237, -0.15861740708351135, 0.23142734169960022, 0.00495630968362093, -0.019169216975569725, 0.04937918484210968, -0.0516035296022892, -0.24244201183319092, 0.24072372913360596, 0.01939796470105648, 0.2309521585702896, 0.08556313067674637, 0.008131277747452259, 0.19521167874336243, -0.005469280295073986, 0.07914320379495621, 0.14097771048545837, -0.06357808411121368, -0.10806261003017426, 0.20809954404830933, -0.026980074122548103, -0.10370924323797226, 0.010298013687133789, -0.24063464999198914, -0.1268616020679474, -0.06709248572587967, 0.16221019625663757, -0.2172517329454422, -0.23304225504398346, 0.22365085780620575, -0.24739325046539307, 0.2019340842962265, 0.07374384999275208, -0.012908147647976875, 0.2151412069797516, -0.0046513499692082405, -0.025895604863762856, 0.23993180692195892, 0.14599093794822693, -0.019574487581849098, 0.15306542813777924, -0.19496700167655945, -0.04987748712301254, -0.18869200348854065, 0.07368210703134537, -0.1970318853855133, -0.0519900843501091, -0.1705678254365921, -0.1546229124069214, -0.21300506591796875, 0.05122799053788185, -0.135115385055542, -0.17604179680347443, 0.21185138821601868, -0.005113458726555109, 0.1512327790260315, 0.10333340615034103, -0.05400063097476959, -0.07948540896177292, -0.15643517673015594, 0.006723704282194376, -0.21559137105941772, 0.17604264616966248, 0.13684363663196564, 0.13429677486419678, -0.01664040796458721, 0.22875531017780304, 0.017668506130576134, -0.06492751091718674, -0.24470409750938416, -0.07044360786676407, 0.04896204546093941, -0.17946019768714905, -0.010559633374214172, -0.17858022451400757, -0.22695370018482208, 0.11515697091817856, 0.1479017734527588, 0.149501770734787, 0.09834136813879013, -0.23743028938770294, 0.04581992328166962, -0.23841699957847595, 0.08249520510435104, -0.015268896706402302, 0.1378410905599594, 0.17891846597194672, 0.19922985136508942, 0.1087167039513588, -0.22123201191425323, 0.23906615376472473, -0.21784178912639618, 0.005232824943959713, -0.0788135752081871, -0.11952720582485199, -0.015217187814414501, 0.003426872193813324, -0.23014286160469055, -0.035487424582242966, 0.2317567765712738, 0.20183026790618896, -0.041734591126441956, 0.2402704954147339, 0.12312877923250198, 0.1985003501176834, -0.032187338918447495, -0.2196345031261444, -0.22779059410095215, -0.08286307007074356, 0.23841993510723114, 0.23247310519218445, 0.2500433921813965, 0.08192884922027588, 0.24606694281101227, -0.14804396033287048, 0.10123088210821152, -0.1784389317035675, -0.018978562206029892, 0.07649089395999908, 0.19683091342449188, 0.0381704680621624, 0.22361545264720917, -0.05481542646884918, -0.060557570308446884, -0.20399174094200134, -0.16139183938503265, 0.09212584048509598, 0.18928317725658417, 0.08094193786382675, 0.21092388033866882, 0.2171645611524582, -0.13422080874443054, -0.043811727315187454, 0.11540624499320984, -0.22748154401779175, 0.12665478885173798, -0.04768528416752815, -0.1661018431186676, -0.15434737503528595, 0.18191078305244446, 0.10715995728969574, 0.0716661736369133, -0.04229548200964928, 0.07100538909435272, 0.16894137859344482, -0.08371370285749435, 0.16256293654441833, 0.12237239629030228, -0.2404869943857193, -0.10592418164014816, 0.2083449810743332, -0.16307875514030457, -0.1229369044303894, -0.24506007134914398, -0.14947405457496643, -0.19188721477985382, -0.04315228760242462, -0.2296532839536667, -0.09363298118114471, -0.0961821898818016, -0.12868373095989227, -0.1599554419517517, 0.2428412139415741, -0.12411618232727051, -0.15429115295410156, -0.00850369781255722, 0.027403157204389572, 0.01690603606402874, -0.09884379804134369, 0.1096753403544426, 0.13264812529087067, 0.04939877986907959, 0.11358024924993515, 0.08607730269432068, -0.02415389008820057, 0.24002739787101746, 0.1393854022026062, 0.11512432247400284, 0.21444612741470337, -0.1397736668586731, -0.08390606194734573, -0.0508580356836319, 0.14623287320137024, 0.13903026282787323, -0.021328944712877274, 0.17527173459529877, 0.005266780033707619, 0.1911805123090744, 0.22953565418720245, 0.14791500568389893, 0.21825984120368958, -0.10412050038576126, 0.1553981602191925, 0.22229735553264618, -0.2234305441379547, -0.23987767100334167, 0.20109625160694122, -0.12063302099704742, 0.035526733845472336, -0.10044442862272263, 0.02983311377465725, 0.004581524059176445, 0.20120729506015778, 0.20273278653621674, 0.13519369065761566, 0.09458450227975845, -0.1393909901380539, 0.043879248201847076, 0.05247281864285469, 0.07199522852897644, -0.1693972796201706, -0.14632727205753326, 0.06306483596563339, 0.12533588707447052, 0.23586174845695496, 0.09923793375492096, 0.014370161108672619, -0.05871487781405449, 0.2137841433286667, -0.012485165148973465, -0.09793704748153687, 0.0716247409582138, -0.19255846738815308, 0.1389734447002411, 0.20439094305038452, -0.08793970942497253, -0.04397273063659668, -0.11763236671686172, -0.17217609286308289, -0.24994227290153503, 0.004938211757689714, 0.06781823933124542, 0.2074805200099945, -0.11255964636802673, 0.027528708800673485, 0.010622898116707802, -0.05106360837817192, 0.11996051669120789, -0.0031299435067921877, -0.18728068470954895, 0.22346436977386475, 0.002900089602917433, -0.06684461236000061, 0.12190583348274231, -0.24211826920509338, 0.11793287843465805, 0.18651463091373444, 0.1676921248435974, 0.18297839164733887, 0.1251595914363861, 0.061833541840314865, 0.208985835313797, 0.11712640523910522, 0.18131360411643982, 0.019866090267896652, -0.04205245152115822, 0.18139652907848358, -0.13156475126743317, -0.15410788357257843, 0.2435005158185959, 0.02696971595287323, 0.16499944031238556, -0.022941159084439278, -0.05294868350028992, 0.22220738232135773, -0.17645129561424255, 0.2128828763961792, -0.023543251678347588, 0.13433533906936646, -0.09209086745977402, -0.03221823647618294, 0.18639865517616272, 0.08605263382196426, 0.198653444647789, -0.02017274498939514, -0.11503323167562485, 0.1635095626115799, -0.05513574928045273, -0.21832036972045898, 0.10578286647796631, -0.10722795128822327, 0.08770088851451874, -0.2019365131855011, 0.08743835985660553, 0.07764701545238495, 0.1991383135318756, -0.1991090625524521, -0.06791802495718002, 0.17204703390598297, 0.06016780436038971, -0.1133328378200531, 0.027245286852121353, 0.20338229835033417, -0.0578424409031868, 0.05352484807372093, -0.09164195507764816, 0.06080048903822899, 0.012163219973444939, 0.13643015921115875, 0.007763497997075319, 0.15134914219379425, -0.011449148878455162, -0.12051809579133987, -0.19275885820388794, 0.1757047027349472, -0.18955348432064056, -0.13038551807403564, 0.249811053276062, 0.20425596833229065, -0.029969293624162674, 0.043820109218358994, 0.2246113121509552, -0.1075531467795372, -0.23350058495998383, -0.04717108607292175, -0.12250689417123795, -0.1493726223707199, 0.07483437657356262, -0.19341309368610382, 0.11889243870973587, 0.06999143213033676, 0.24052666127681732, -0.23053443431854248, 0.1647375375032425, 0.19903461635112762, -0.13427519798278809, -0.0516895093023777, -0.15261028707027435, 0.21032515168190002, -0.035610754042863846, 0.11264693737030029, 0.08743296563625336, -0.16002914309501648, 0.15172666311264038, 0.21221336722373962, -0.17027486860752106, 0.15023307502269745, 0.043603263795375824, 0.03020559623837471, 0.2031315267086029, -0.08255405724048615, 0.05375920608639717, 0.20781873166561127, 0.03657887503504753, 0.24570909142494202, 0.10263289511203766, 0.05331147089600563, -0.15651415288448334, -0.013525995425879955, -0.13300782442092896, 0.025247136130928993, -0.11816663295030594, -0.15199275314807892, 0.15010899305343628, 0.21481384336948395, 0.09002260863780975, 0.1260681003332138, 0.10085216909646988, 0.20500697195529938, 0.0668337270617485, -0.14857065677642822, 0.14568382501602173, -0.12439099699258804, -0.21885651350021362, 0.1409352868795395, -0.18238209187984467, -0.02947382442653179, 0.17211206257343292, -0.20405007898807526, -0.030348045751452446, -0.1457706093788147, 0.20425629615783691, 0.1990104764699936, -0.19647328555583954, 0.20730118453502655, -0.10809038579463959, 0.22246891260147095, 0.1462934911251068, -0.21761934459209442, -0.1967349499464035, -0.06697917729616165, -0.07779037207365036, 0.002907738322392106, 0.2189115732908249, -0.11410930752754211, -0.06240859627723694, -0.07350084185600281, 0.16725118458271027, -0.15582025051116943, 0.1361086070537567, 0.03679674118757248, -0.13547705113887787, -0.06597790867090225, 0.05281541869044304, 0.13489869236946106, 0.20278531312942505, -0.040230102837085724, 0.04665273427963257, -0.024682551622390747, 0.0257561095058918, 0.013970124535262585, 0.24948519468307495, -0.16844061017036438, 0.14250504970550537, 0.1055721640586853, -0.07334497570991516, -0.24908502399921417, -0.21432049572467804, -0.15353718400001526, -0.1397174894809723, -0.05794474482536316, -0.02849874086678028, 0.03845462575554848, 0.1262781023979187, -0.19753266870975494, -0.19901737570762634, 0.028725216165184975, -0.09633772820234299, -0.12945732474327087, 0.12848427891731262, -0.22780834138393402, -0.14042668044567108, -0.02504037879407406, -0.1394047737121582, -0.07468100637197495, 0.18566560745239258, 0.004089405294507742, -0.1979026347398758, -0.14866673946380615, -0.008719985373318195, -0.12285514175891876, 0.08075863122940063, 0.13590548932552338, 0.161429300904274, 0.0234164297580719, 0.0700485110282898, -0.1480274647474289, 0.0784953311085701, 0.07804564386606216, 0.08979954570531845, -0.052103135734796524, -0.10796203464269638, 0.08734958618879318, 0.09685347974300385, -0.05092470347881317, 0.14478294551372528, -0.14538118243217468, 0.13567028939723969, 0.1730160266160965, 0.12323091924190521, 0.045533280819654465, 0.17957371473312378, -0.21920324862003326, -0.07115112990140915, -0.013613130897283554, -0.08988992124795914, -0.1460496038198471, -0.20930235087871552, 0.07898271828889847, -0.1900189071893692, -0.12166643887758255, 0.04439958184957504, -0.22130662202835083, -0.14830033481121063, -0.05580655857920647, 0.07480400800704956, 0.1894564926624298, 0.14008735120296478, 0.11913473904132843, -0.1685667186975479, 0.14100675284862518, -0.1100703775882721, 0.14829976856708527, -0.028448885306715965, -0.0297398641705513, -0.24346773326396942, 0.11878470331430435, 0.04592414200305939, 0.08947766572237015, 0.20558182895183563, 0.21645264327526093, -0.1856575906276703, 0.20065315067768097, 0.008157853037118912, 0.02939659357070923, 0.07985937595367432, -0.1423223465681076, -0.043857745826244354, -0.09440190345048904, 0.24693334102630615, -0.1522400826215744, 0.15409249067306519, -0.2375943660736084, -0.15748952329158783, -0.10540254414081573, -0.09684152901172638, -0.2069101184606552, -0.05116325244307518, 0.23236960172653198, 0.10336990654468536, 0.18517105281352997, 0.14166393876075745, -0.21946173906326294, 0.0921204462647438, -0.2253059446811676, 0.2008267194032669, -0.013048261404037476, -0.22986221313476562, -0.0861765444278717, 0.18735778331756592, -0.07509152591228485, -0.08521401137113571, 0.16167289018630981, 0.08994989842176437, 0.23444904386997223, -0.150215744972229, -0.042648572474718094, -0.06710907071828842, -0.1683281511068344, -0.13074830174446106, -0.039458174258470535, -0.20537318289279938, 0.20412388443946838, -0.2073548138141632, -0.055254869163036346, -0.15934351086616516, 0.12423206865787506, -0.171095073223114, 0.05904969945549965, 0.248685821890831, 0.16677530109882355, 0.1540989875793457, -0.08504421263933182, 0.026863059028983116, -0.1531790941953659, 0.09595632553100586, 0.1865450143814087, -0.03433915600180626, -0.16390633583068848, 0.04530101642012596, -0.03079046867787838, 0.21199767291545868, -0.2349923849105835, 0.21341727674007416, -0.13043202459812164, -0.05720243975520134, 0.1690121740102768, 0.0601588599383831, 0.23283790051937103, -0.2406705766916275, -0.17606864869594574, -0.15741056203842163, -0.22067411243915558, -0.21932822465896606, 0.20671391487121582, 0.07191333919763565, 0.026319775730371475, 0.11929848790168762, -0.06542102247476578, 0.20035113394260406, -0.2424425482749939, 0.016343476250767708, 0.06293287873268127, -0.07831426709890366, 0.11991384625434875, -0.027939772233366966, -0.00892489030957222, -0.20023193955421448, -0.11206293106079102, -0.22008299827575684, 0.2101833075284958, 0.1786404699087143, -0.15544439852237701, -0.003430076176300645, 0.029824212193489075, 0.05046075955033302, 0.11934952437877655, 0.06878454238176346, 0.15948857367038727, -0.19050121307373047, -0.03675942122936249, 0.17266881465911865, 0.24690108001232147, 0.2229301631450653, 0.196662038564682, -0.12450189888477325, -0.030008677393198013, 0.15822754800319672, -0.04190404340624809, -0.2320747822523117, -0.21019966900348663, 0.09790240228176117, 0.03821513429284096, -0.19709448516368866, -0.06097716465592384, 0.008862089365720749, 0.16172625124454498, -0.10892467200756073, -0.21060296893119812, 0.031193476170301437, -0.1366386115550995, 0.12359602004289627, -0.11840400844812393, 0.133261576294899, -0.03979266807436943, -0.015384797938168049, 0.23046480119228363, -0.24323010444641113, -0.22422339022159576, -0.038485974073410034, -0.20570051670074463, -0.06565708667039871, 0.016574593260884285, 0.06091851741075516, 0.1263386756181717, -0.042358074337244034, 0.11950308829545975, 0.1546398103237152, -0.21922513842582703, -0.24034814536571503, 0.1186324954032898, 0.2086661458015442, 0.11514078080654144, 0.06749427318572998, 0.06726966053247452, -0.0588231235742569, 0.04699186608195305, -0.07659908384084702, 0.14344505965709686, 0.17318961024284363, 0.17473025619983673, -0.019831975921988487, 0.19369356334209442, 0.11281922459602356, -0.2302147001028061, -0.13233578205108643, 0.08296152204275131, -0.22089804708957672, 0.044035207480192184, 0.03280836343765259, -0.21695925295352936, -0.15074585378170013, 0.125810906291008, 0.05921192839741707, -0.16836237907409668, 0.02072858437895775, 0.007149338722229004, 0.14252623915672302, -0.08433599770069122, 0.049833349883556366, -0.1143036037683487, -0.06658831238746643, 0.14064794778823853, -0.05701398849487305, 0.18038076162338257, 0.14109882712364197, -0.04332227632403374, 0.17093424499034882, 0.20254924893379211, -0.21748237311840057, -0.022145427763462067, 0.1681465208530426, 0.143075630068779, 0.22915254533290863, -0.08304090797901154, -0.24905017018318176, 0.11237667500972748, -0.07729112356901169, -0.036139603704214096, -0.08745166659355164, -0.2112765908241272, 0.24230407178401947, 0.18446296453475952, 0.15223728120326996, -0.2040460705757141, -0.21035236120224, -0.0024523360189050436, 0.18457120656967163, 0.04531703516840935, 0.03293817862868309, -0.05619479715824127, -0.20312033593654633, 0.03227057680487633, 0.11952109634876251, 0.02021891623735428, -0.1501668095588684, -0.2498573213815689, -0.14657756686210632, 0.13804586231708527, -0.011196083389222622, -0.09841352701187134, 0.021071331575512886, 0.14812137186527252, -0.21839547157287598, 0.07235357910394669, -0.20474699139595032, -0.21748480200767517, 0.2261839509010315, 0.14807093143463135, -0.2421802580356598, 0.1476341336965561, -0.06750642508268356, -0.009817098267376423, 0.11703765392303467, -0.22216832637786865, -0.12244145572185516, -0.056419968605041504, 0.21172280609607697, -0.15890279412269592, -0.23497752845287323, 0.19653426110744476, -0.186272531747818, -0.12161710113286972, -0.11028066277503967, -0.2381041944026947, -0.0644451230764389, 0.09249080717563629, -0.05916215106844902, 0.006578628905117512, 0.13597126305103302, -0.20543286204338074, 0.0226348377764225, 0.1311989426612854, -0.1397627592086792, -0.172200545668602, -0.17174150049686432, -0.08909882605075836, -0.09461532533168793, -0.18448634445667267, 0.24669742584228516, 0.06502513587474823, 0.041042570024728775, 0.24559761583805084, 0.21355040371418, -0.06956733763217926, -0.07076281309127808, 0.043646521866321564, -0.1271769255399704, 0.15611663460731506, 0.0678362101316452, 0.18138715624809265, 0.13489390909671783, -0.18231646716594696, 0.11210181564092636, 0.21284198760986328, 0.23439791798591614, -0.004431153181940317, 0.15854772925376892, -0.0572342574596405, 0.09159333258867264, 0.05334175005555153, 0.013784592971205711, -0.19797417521476746, -0.05228268355131149, -0.14041782915592194, -0.19371871650218964, 0.15647071599960327, 0.06121677905321121, -0.15823672711849213, 0.2184920608997345, 0.23687133193016052, 0.13488753139972687, 0.08791407942771912, -0.0027621795888990164, 0.19777657091617584, 0.020969441160559654, -0.0568837895989418, -0.16341929137706757, -0.08485663682222366, 0.16922131180763245, -0.06305037438869476, 0.24398119747638702, -0.13909310102462769, 0.22484323382377625, 0.2092016637325287, 0.24055679142475128, -0.22652457654476166, -0.046094611287117004, -0.09688952565193176, -0.21300388872623444, 0.11219774186611176, -0.12329715490341187, -0.04450187832117081, 0.10513729602098465, 0.19991469383239746, -0.13920925557613373, -0.17830240726470947, -0.09274929016828537, -0.0580814927816391, 0.1743241250514984, -0.21727345883846283, 0.21396102011203766, 0.0791548490524292, 0.23544588685035706, 0.24862712621688843, -0.02779948152601719, -0.18737982213497162, 0.16805590689182281, 0.09224171936511993, -0.011093954555690289, -0.22531543672084808, 0.1705353558063507, -0.02539193443953991, 0.05356327444314957, -0.11385127156972885, -0.14996744692325592, -0.185108944773674, 0.08585263788700104, -0.12607872486114502, 0.06292495131492615, 0.17231956124305725, -0.22388768196105957, -0.005331403110176325, -0.22454124689102173, 0.13802982866764069, 0.23658762872219086, 0.09086773544549942, -0.12348545342683792, 0.13851524889469147, 0.22231191396713257, -0.1629660576581955, 0.056996118277311325