0.1093599945306778, -0.08485592156648636, -0.0056398664601147175, -0.1041300967335701, 0.037831295281648636, -0.02918965369462967, -0.07861551642417908, 0.03229789808392525, -0.06006546691060066, -0.004853368736803532, -0.03702098876237869, 0.05498034134507179, 0.05390278622508049, 0.08951012045145035, 0.07286365330219269, -0.026202702894806862, -0.052355337888002396, 0.0941324308514595, -0.016011293977499008, -0.016330182552337646, 0.05218174681067467, 0.0715239867568016, 0.10098084062337875, -0.049913953989744186, -0.08821417391300201, -0.017664164304733276, 0.0299796424806118, -0.026623258367180824, 0.020959142595529556, 0.027017464861273766, 0.02206817828118801, 0.010947611182928085, -0.030365318059921265, -0.039349839091300964, 0.06098657846450806, -0.06809073686599731, 0.04168048873543739, -0.02057354338467121, 0.0182757880538702, 0.01992660015821457, -0.06391660869121552, -0.056289009749889374, 0.0435563325881958, 0.044903457164764404, 0.0676528736948967, 0.0994112491607666, 0.08225210011005402, 0.04521171376109123, -0.12248694151639938, -0.0789274126291275, 0.005458404775708914, 0.0399705208837986, -0.018555648624897003, -0.0030432932544499636, 0.06566490232944489, -0.003876220900565386, -0.05411466583609581, -0.06535077840089798, 0.016074497252702713, 0.05428234115242958, 2.8537720027088653e-06, 0.019890155643224716, -0.04748845845460892, 0.04236529394984245, 0.058363549411296844, -0.03181011974811554, -0.03654853627085686, 0.10782311111688614, 0.0827198252081871, -0.011768515221774578, -0.06158909574151039, -0.057363931089639664, -0.0509847067296505, 0.1115105077624321, 0.04638537019491196, 0.03943667933344841, 0.0018328337464481592, 0.018740279600024223, 0.021464133635163307, -0.13013172149658203, 0.017554448917508125, -0.04291338846087456, -0.06309716403484344, -0.08596134930849075, -0.09158540517091751, -0.016428127884864807, 0.06285019218921661, -0.03486984223127365, 0.03455044701695442, -0.002837818581610918, 0.03470901399850845, 0.05948661267757416, 0.014097396284341812, 0.08712543547153473, -0.03862961009144783, -0.0028102307114750147, -0.006067454814910889, 0.004019435960799456, -0.04973138868808746, 0.1195436641573906, -0.03768922761082649, -0.062991663813591, -0.04818297550082207, -0.06016324460506439, 0.06228374317288399, -0.11330568790435791, -0.03278878703713417, -0.04055343568325043, 0.13372106850147247, 0.08330762386322021, -0.013283858075737953, 0.032777585089206696, 0.052754029631614685, -0.012573991902172565, -0.055877868086099625, -0.0410035140812397, 0.0803220272064209, -0.03243543207645416, 0.011670352891087532, -0.10896419733762741, 0.07832616567611694, 0.0022013273555785418, -0.057736922055482864, -0.05776048079133034, -0.09874295443296432, -0.08322585374116898, 0.01098279096186161, 0.0009458840359002352, 0.08656282722949982, 0.02394067496061325, 0.10616646707057953, 0.027116229757666588, 0.09132853150367737, 0.10754650086164474, -0.11232307553291321, 0.027850383892655373, -0.03360400348901749, 0.015268427319824696, 0.05891835317015648, -0.10136517882347107, -0.06555017083883286, -0.04505333676934242, 0.02509257383644581, -0.038072362542152405, -0.060726188123226166, 0.051048971712589264, -0.07056212425231934, 0.06279846280813217, 0.07757832854986191, -0.13424307107925415, -0.12156056612730026, -0.009585108608007431, 0.051051944494247437, 0.10268744826316833, -0.029025373980402946, 0.009823787957429886, 0.024483421817421913, -0.0010291297221556306, -0.006435314659029245, -0.0868142619729042, -0.05861309543251991, 0.019940149039030075, 0.048683103173971176, -0.0746205747127533, -0.042290329933166504, -0.09140041470527649, 0.08528202772140503, -0.05048488453030586, -0.041636545211076736, 0.15825273096561432, -0.018471242859959602, -0.01748056896030903, 0.05241738259792328, -0.13658513128757477, 0.012768660672008991, -0.0890938937664032, -0.06366322189569473, 0.028187820687890053, 0.0863579735159874, 0.08471771329641342, 0.028698652982711792, 0.027458839118480682, -0.04554610326886177, 0.13236919045448303, -0.011997462250292301, -0.12966923415660858, -0.010152141563594341, 0.11219272017478943, 0.05270573869347572, -0.024640601128339767, 0.07776438444852829, -0.0013696521054953337, 0.06332222372293472, 0.013815573416650295, -0.04279479384422302, 0.09049136936664581, 0.07190548628568649, -0.08684614300727844, 0.05295838415622711, -0.09820285439491272, 0.06762444227933884, 0.001616988331079483, -0.09088326245546341, 0.11532454937696457, -0.07931552827358246, -0.0049739135429263115, 0.05777249485254288, -0.011183151043951511, -0.06458890438079834, 0.0723135769367218, -0.059232234954833984, 0.01053629070520401, 0.028298169374465942, -0.004818988963961601, -0.01901833526790142, -0.052231788635253906, -0.04645175114274025, 0.00226034433580935, -0.11057044565677643, -0.07985633611679077, 0.08689821511507034, 0.07903439551591873, 0.05565224215388298, -0.04362563043832779, 0.10060607641935349, -0.05894447863101959, -0.06255534291267395, -0.04573800787329674, 0.037561506032943726, 0.006353065837174654, -0.03633742034435272, -0.006921357475221157, -0.01217645313590765, -0.005423673428595066, -0.07238095253705978, 0.02546139620244503, 0.030707066878676414, 0.04148275777697563, -0.10947488248348236, -0.09364907443523407, 0.014108488336205482, 0.007647307589650154, -0.04891195148229599, 0.007581716403365135, -0.07713409513235092, -0.04320872202515602, -0.05868486315011978, -0.040011581033468246, -0.083633191883564, -0.09992649406194687, 0.06922174990177155, 0.021153809502720833, -0.06295309960842133, -0.09866621345281601, 0.11151155084371567, -0.08706390112638474, -0.023981403559446335, -0.023105911910533905, 0.027057742699980736, 0.0822867602109909, 0.10991310328245163, 0.10111349821090698, -0.08456306904554367, -0.1047615110874176, -0.005889223888516426, -0.020686445757746696, 0.0032494382467120886, -0.08307360857725143, 0.06701337546110153, -0.08604579418897629, -0.057991478592157364, 0.05066223815083504, 0.027370428666472435, -0.11604633182287216, 0.011363101191818714, 0.052963677793741226, 0.03867591544985771, -0.02991308644413948, -0.07823486626148224, -0.08499635010957718, 0.006268103141337633, -0.0007699354900978506, -0.07876282930374146, -0.02648962289094925, 0.062146227806806564, 0.005550999194383621, -0.008784427307546139, -0.0029518133960664272, -0.1066841259598732, -0.0170475821942091, -0.08820563554763794, 0.07119568437337875, -0.11607073247432709, 0.08055887371301651, -0.004214905202388763, 0.031063668429851532, -0.0635649710893631, 0.050813328474760056, 0.09280548244714737, -0.050486233085393906, 0.05052664875984192, -0.05625295639038086, 0.00815174262970686, -0.026401923969388008, 0.0625816285610199, 0.07846222817897797, 0.033498119562864304, 0.03560841828584671, 0.005781997460871935, 0.0354657880961895, 0.14932405948638916, -0.021634884178638458, -0.06033134460449219, 0.00883964542299509, 0.005654590204358101, 0.0016965565737336874, 0.00933869555592537, -0.0009095051209442317, 0.05202046409249306, -0.024724315851926804, 0.023244179785251617, 0.07285408675670624, 0.0656314343214035, -0.032694194465875626, -0.035514164716005325, -0.05811566486954689, -0.011827671900391579, 0.08669084310531616, -0.08053506165742874, -0.025252562016248703, -0.04937973618507385, -0.05692143365740776, -0.05810300260782242, 0.08537469804286957, -0.12489137798547745, -0.08392729610204697, -0.048675891011953354, 0.023488724604249, -0.07480020076036453, 0.12643122673034668, 0.00806783139705658, 0.08058921992778778, 0.02144799381494522, -0.038484591990709305, -0.041876014322042465, 0.06063508987426758, -0.006030035670846701, 0.0821901485323906, -0.039230428636074066, 0.04346691071987152, -0.03303628787398338, -0.043220698833465576, -0.061644989997148514, -0.0294929388910532, -0.053976111114025116, 0.05483468994498253, 0.035863518714904785, 0.05668700113892555, -0.08494079858064651, -0.014827382750809193, 0.0013980015646666288, 0.007704347837716341, -0.056377798318862915, -0.078890360891819, 0.04530041292309761, -0.05467917025089264, -0.08855924755334854, -0.07615058869123459, 0.06937699764966965, -0.09909846633672714, 0.02420700155198574, 0.07182396203279495, -0.01619771681725979, -0.038578517735004425, 0.06846937537193298, 0.1050322949886322, 0.06876970827579498, 0.07230197638273239, 0.10740596055984497, -0.14045539498329163, 0.12544673681259155, 0.09136220067739487, -0.07702324539422989, -0.07837505638599396, 0.02485976740717888, 0.06208866834640503, 0.023789111524820328, 0.0750098004937172, 0.07970966398715973, -0.03942996263504028, -0.013313661329448223, -0.043058130890131, -0.025847043842077255, 0.01787663996219635, 0.06756586581468582, -0.035960301756858826, -0.010911311022937298, -0.010038979351520538, -0.0845378190279007, 0.15649403631687164, 0.0681641474366188, 0.02469140850007534, 0.0617767870426178, -0.03982705995440483, 0.04810582473874092, -0.0672989934682846, 0.007025533355772495, -0.013560948893427849, 0.016943812370300293, 0.013250216841697693, -0.034805212169885635, -0.00024403138377238065, -0.033838964998722076, 0.0019568579737097025, -0.06343664973974228, 0.03263748064637184, -0.04402460530400276, -0.01851380057632923, -0.0010177220683544874, 0.026142748072743416, 0.027900151908397675, -0.0025502988137304783, -0.004053794778883457, 0.0161465872079134, -0.06467161327600479, -0.09022848308086395, 0.01622742973268032, -0.09533066302537918, 0.13415271043777466, 0.047390494495630264, 0.09612320363521576, 0.024197718128561974, 0.00629017548635602, 0.019984548911452293, -0.06689741462469101, 0.0027961386367678642, -0.03652568534016609, -0.04662329703569412, 0.016349872574210167, 0.08263592422008514, 0.03215225413441658, -0.07448431849479675, -0.039207443594932556, 0.06971358507871628, 0.08163576573133469, -0.09057364612817764, 0.06758012622594833, 0.019414816051721573, 0.007133329287171364, 0.06827123463153839, -0.0021592378616333008, -0.015704145655035973, -0.053613778203725815, 0.03831145167350769, 0.013532928191125393, 0.02164856344461441, -0.0667707696557045, -0.06680451333522797, 0.07079974561929703, 0.04511389508843422, 0.017005544155836105, 0.05713685601949692, 0.05208548903465271, 0.10085156559944153, -0.10467316955327988, -0.052430905401706696, 0.04447754845023155, -0.11818625777959824, -0.08793025463819504, 0.11663417518138885, 0.07823936641216278, -0.0510781854391098, 0.06790191680192947, 0.00960586592555046, -0.015339004807174206, 0.012262408621609211, -0.055808261036872864, -0.06381126493215561, -0.00676141818985343, 0.056100551038980484, 0.05644964054226875, 0.08401723951101303, 0.0029865209944546223, -0.04988149553537369, -0.019254205748438835, 0.026473786681890488, 0.004837389104068279, 0.038200099021196365, -0.06449064612388611, -0.05287620425224304, 0.021012861281633377, -0.026387028396129608, 0.03950570896267891, 0.04048006981611252, -0.065543033182621, 0.043347813189029694, 0.04773029312491417, -0.06052006408572197, 0.10405445843935013, 0.05620232969522476, 0.017672812566161156, -0.005765859503298998, -0.016228994354605675, -0.07975795120000839, -0.06024163216352463, -0.07869622111320496, -0.01752794347703457, 0.0710085853934288, 0.06184455752372742, -0.005346283316612244, 0.007284756749868393, -0.05389963090419769, 0.0951526090502739, 0.07341448962688446, 0.04341525956988335, 0.003767343470826745, -0.05614859238266945, -0.047356799244880676, -0.010512921959161758, 0.02374747022986412, 0.04055160656571388, -0.04535029083490372, -0.01734650507569313, -0.016713371500372887, -0.10295384377241135, -0.008957304991781712, -0.016046255826950073, 0.06223991885781288, 0.10251099616289139, -0.15091800689697266, -0.01965426094830036, -0.04521862789988518, -0.0032177113462239504, 0.004466807935386896, -0.025969842448830605, -0.008796114474534988, 0.08584261685609818, -0.09071724116802216, -0.003136643208563328, 0.09596225619316101, 0.04173843562602997, 0.005678742192685604, -0.10990961641073227, -0.03512868285179138, -0.040418364107608795, -0.09275565296411514, -0.04616481810808182, -0.07845724374055862, 0.08442918956279755, 0.03729737922549248, -0.08063036948442459, 0.03756137937307358, -0.09478598833084106, 0.01983463764190674, 0.08948864787817001, 0.012190165929496288, -0.06528085470199585, -0.034372478723526, 0.0029579836409538984, -0.03969183191657066, -0.09128203243017197, -0.08926530182361603, -0.04837697371840477, 0.1182820051908493, -0.03698237985372543, -0.0016406439244747162, 0.03269846737384796, -0.08812739700078964, 0.026427529752254486, -0.06207788363099098, 0.034389693289995193, -0.06442902982234955, 0.013545798137784004, -0.0998251736164093, 0.0058469949290156364, 0.03637219965457916, 0.04462730139493942, 0.026343589648604393, 0.03372308984398842, -0.0333663672208786, 0.055602241307497025, 0.013379933312535286, 0.005650438833981752, 0.06511840224266052, -0.0582866333425045, -0.00928996317088604, -0.07011297345161438, 0.019227832555770874, 0.005666458513587713, 0.05553893372416496, -0.035971008241176605, -0.08526434004306793, -0.0398506298661232, 0.03922814503312111, 0.09501814842224121, -0.016123749315738678, 0.033071693032979965, 0.028180284425616264, 0.12798592448234558, -0.06425142288208008, 0.058446887880563736, 0.057201605290174484, -0.09356924146413803, -0.07467865198850632, -0.01707322522997856, 0.03944673016667366, -0.02281818352639675, 0.013333259150385857, -0.06936728209257126, 0.04300061613321304, 0.08655784279108047, -0.1236988976597786, 0.1060628667473793, -0.022712118923664093, -0.009416799061000347, -0.07239722460508347, -0.04397886246442795, 0.06055481731891632, 0.08951761573553085, 0.001114105572924018, -0.029786832630634308, 0.009240019135177135, -0.08125010132789612, -0.10333520174026489, -0.028965717181563377, -0.07547926902770996, -0.009801700711250305, -0.04609451815485954, 0.028633013367652893, 0.1059897318482399, -0.002607268514111638, 0.009028258733451366, -0.02192843332886696, -0.11171992123126984, 0.022271964699029922, 0.0656583160161972, 0.008083660155534744, -0.019452091306447983, -0.012449566274881363, -0.006639151368290186