-0.00010656710219336674, 0.00020022386161144823, 0.00016288395272567868, -0.00012549773964565247, -0.0001987673167604953, 0.00011281081242486835, -0.00010848828969756141, 9.698874055175111e-05, -4.5410146412905306e-05, -0.00022159071522764862, -0.00016898901958484203, -0.00022128745331428945, -0.00017258035950362682, 0.0001405276998411864, -4.3491054384503514e-05, -9.611462883185595e-05, 9.612826033844613e-06, -0.00013796388520859182, 0.00022913044085726142, 0.0001105159244616516, 0.00010264951561111957, -0.0001954812032636255, 0.00015759577217977494, -0.00010203463170910254, 0.0002049132890533656, -0.00020978221436962485, -0.00015318173973355442, -0.00019479346519801766, 6.228010170161724e-05, -5.74375044379849e-05, -0.0002284490765305236, 4.451326094567776e-05, 8.788050763541833e-05, 0.00020215712720528245, -1.0052531251858454e-06, 3.1003684853203595e-05, -0.00021255096362438053, -2.42102623815299e-06, 0.00023590419732499868, -4.750200969283469e-05, 4.275012543075718e-06, -0.00024050462525337934, -0.00013388470688369125, 0.00013515178579837084, -5.394134495873004e-05, 0.00025693626957945526, 0.0002213219995610416, 0.00015372112102340907, 0.000226001808186993, -8.05564341135323e-05, -0.0001977865758817643, -0.0001601655239937827, -0.00018386395822744817, -0.00010953129094559699, 9.029285865835845e-05, 0.00021027396724093705, 0.00023965127184055746, 8.771289139986038e-05, 0.00016250050975941122, -0.00022263273422140628, -0.0002158348506782204, -0.000236817286349833, 0.0001528578286524862, 0.000145350320963189, -0.00021725795522797853, 0.00011035870556952432, 0.00016137993952725083, 0.00020568484615068883, 0.00019127110135741532, -0.00013034685980528593, 2.9937558792880736e-05, -0.00019285347661934793, -0.00018667143012862653, 0.00010490834392840043, 2.765722683761851e-06, 6.264611147344112e-05, 6.569606921402737e-05, -6.301484245341271e-05, -0.0001386641088174656, -0.00012829586921725422, -0.00025669336901046336, -0.00024166263756342232, -0.00022985260875429958, 0.0002118476404575631, 0.00016795287956483662, -0.0002492171188350767, 6.993737042648718e-05, 3.778519749175757e-05, 0.00022886868100613356, -8.673210686538368e-05, -0.00024819563259370625, 0.00015066593186929822, -0.00010990285954903811, -8.589014032622799e-05, -0.0001550233137095347, 0.00021096676937304437, 0.0001547701976960525, 0.00014536363596562296, -8.207982318708673e-05, 0.00015364147839136422, 0.0002380847290623933, -0.0002586496411822736, 0.00012016027176287025, -3.5753266274696216e-05, 0.00012097239959985018, 0.00023358550970442593, -0.00022473678109236062, 0.00014501473924610764, 0.0002445058198645711, 0.00015373481437563896, 0.00015700870426371694, 0.00019676586089190096, 3.615101013565436e-05, 6.366951856762171e-05, -8.882584552338813e-07, 0.00018688096315599978, 0.00015889354108367115, -0.00015261489897966385, 0.00021309798466973007, 9.270664122595917e-06, 0.00022587146668229252, -1.6693225916242227e-05, 0.00021630982519127429, 8.108852489385754e-05, 0.00021453830413520336, 0.00021112182002980262, 0.00024421338457614183, 6.723953265463933e-05