// Numpy array shape [5, 128]
// Min -0.09156971118834803
// Max 0.09251243206503677
// Number of zeros 0

#ifndef OUT_LAYER_1_WEIGHT_H_
#define OUT_LAYER_1_WEIGHT_H_

#ifndef __SYNTHESIS__
model_default out_layer_1_weight[640];
#else
model_default out_layer_1_weight[640] = {-0.06681568627194898, -0.004473713031277815, -0.0695864176780675, -0.07337770795143025, -0.0005894259608576362, 0.047031003561519735, 
-0.027694508314730505, 0.014780355691254063, 0.025900811710678276, -0.020023477704073825, 0.03952416157489746, -0.02557450720221732, 0.03175743155017839, 
0.03587498877511539, 0.02043399252299283, -0.05419692966897836, -0.03512949501169039, 0.05503629721231942, 0.04455252378579109, 0.08973839282973935, 
0.07035039055459646, 0.061587027864856835, 0.023166216274025417, 0.025282117814711774, -0.040392676733454654, 0.028454427946663613, -0.04714152807775163, 
0.02498332811876997, 0.0635503334833939, 0.033611620596982764, -0.01938355059629646, -0.08584428735467546, 0.056234034602264206, -0.05431811347880395, 
0.04773577914015117, 0.06678189663330344, -0.007057838857857501, -0.08685481630987459, 0.048564696125057684, -0.0415151737971045, 0.06155390758202733, 
-0.08670809303805202, 0.02933723568959622, -0.05348428550570899, 0.051191921610410154, 0.07709894358376503, 0.08773388557822503, -0.06287711103317366, 
-0.015304814790392193, -0.032825645860070675, -0.01794582168376612, 0.03557551171577913, 0.064294506156698, -0.0403647355738371, -0.07299896367237968, 
0.07135731772865618, 0.050204635133181894, 0.02562306613026453, 0.024135964942322164, -0.02286578369063521, -0.008491876370572726, -0.0683716624422758, 
-0.004664163900712409, -0.08270785481092852, 0.0297218209748633, -0.03982100406217579, -0.028157296991367486, 0.03910279661131322, 0.010898390209454052, 
0.020323089189927517, -0.013100993339942128, -0.0057672509869863085, -0.020346046122777916, 0.01444874266086215, -0.006285313292335212, -0.07179534559021732, 
-0.0814136991320915, 0.064907096413857, 0.02872515046853549, -0.02968659767262057, -0.01158550141494676, 0.041177717447743865, -0.023291707384177542, 
-0.04037101068319969, 0.00811400259617367, -0.03901920016928962, -0.08622733597042567, -0.04502076624394482, 0.010428944078455139, 0.07259821321166637, 
-0.07069934045618735, 0.05816983073581657, -0.015851871141687193, -0.06110370613424944, 0.06105619481799403, -0.05088562406639363, 0.06640857453957971, 
0.014911936764048637, -0.050320958642030664, 0.025746080462641388, 0.05599853914148932, -0.03442205982172938, 0.023164104896629085, -0.00398880546523269, 
0.023060964156958564, -0.04209404227563283, -0.04939809736540786, 0.07652485823586781, 0.021363955563075014, 0.02453962146030256, -0.0438397421827348, 
0.08524716374016429, -0.04929177357334633, -0.006519647771590498, -0.019944556806676884, 0.023743948048231142, 0.0650573588156412, 0.0015566948708989553, 
0.021435764394470598, 0.044553302563009864, 0.05460282903999102, -0.06778325518427052, 0.022446407356820595, -0.014455593315426361, -0.014152631506627886, 
0.00846954674127706, 0.02301095752050088, 0.07427452520847215, 0.07038872427514394, -0.024722841057818412, 0.015172556300726996, 0.025281955102385765, 
-0.0023701292436868427, 0.06609489472538668, 0.06605331181429482, 0.029779670287492146, -0.062443137944181125, 0.045137049161398685, -0.04446168731460286, 
-0.02109509185272244, -0.02062461286787211, 0.05641011967245765, -0.07262095639817835, 0.03814390150098032, 0.06552347775749646, -0.04020002591281752, 
0.054416150975688776, 0.08237035128426039, 0.03496608290732015, -0.04586406448909078, 0.05835733010242801, -0.058371802809897275, -0.023522197605263147, 
-0.07725028568522374, -0.016084447692478007, 0.005285824493521383, 0.004429032167607615, -0.04792679408177152, -0.04394226050613565, 0.04577896577774982, 
0.07751755400258317, 0.022275892782464987, 0.05948103363619442, 0.057743096880394314, -0.009021938482975842, 0.04562792638926826, 0.013517527438653622, 
-0.06296960370351459, -0.07945007706646881, -0.014614670087524718, -0.07519048889519427, -0.06813826675053873, 0.06246843311330269, 0.023051727716698365, 
0.049478970420123086, -0.03580451690506894, 0.06081658747608874, -0.07582818175533297, -0.08844625458859098, -0.022042079360838632, 0.0441006605350628, 
-0.08101757675672346, -0.06846232986787316, -0.03223964259146752, -0.015211210419009328, -0.001211375081325494, -0.06709174701948623, -0.057594053754744384, 
-0.04127609904070576, -0.012109605038960991, 0.04111509014780978, -0.04147449351329196, -0.0516655668003898, 0.01949332465787525, 0.07109052974245242, 
-0.029516042438094664, -0.07347786649008213, -0.005982939921053491, 0.08644988394390878, -0.06973716649274904, 0.004704147097044199, -0.077829359420688, 
-0.0864172499096379, 0.034027016587660316, 0.050034587170884354, -0.05199485473599822, -0.08874809879053323, -0.08321241341383584, 0.01783440743989554, 
0.045270924890117935, -0.07737531329037496, 0.0662306887596291, 0.0500459422327245, -0.018826887517628354, 0.08118676600055696, 0.07327325980920595, 
0.00351898188840054, -0.028309421005052637, -0.002466114280747584, -0.021478712911451845, 0.05238056419542085, -0.07615695768394472, -0.015807207505032526, 
0.003059196711695795, 0.07889931594121162, -0.08352954265161498, -0.08628737414866243, 0.05224421658291898, -0.029642330890349823, -0.013429269442084061, 
0.07996921624006535, -0.04196253602739394, 0.08585003318264262, -0.006583433517231113, -0.06643704316633095, -0.0618084700547683, -0.04953893524451746, 
0.030723617831589747, 0.06757606685961276, 0.09250578100041541, -0.02182840142703797, 0.03439509023626379, -0.04716082972126971, -0.08099436202581549, 
-0.019828936175681516, -0.083303754216855, 0.03878566640442674, 0.04754654147070196, 0.04566509653120371, -0.0854351990934688, 0.06557342613146022, 
-0.08396093465392458, 0.022543356254152668, 0.014163248867697046, 0.02836664448839987, -0.0854487335517236, 0.05710053989964594, -0.07886203226661746, 
-0.03303963803454873, 0.0034636146077731684, 0.054158440707120954, -0.02700446232769148, 0.02976053462371037, -0.03500248405429325, 0.0028747669329189183, 
0.060154708303429255, 0.021983920782073386, 0.06194449514176404, 0.037734864692147846, -0.058140130876923386, -0.029579953016517162, 2.3025748001468372e-05, 
-0.028110074222548475, 0.08704874791800439, -0.0831450970081107, -0.06507189107966103, 0.025589498877521436, 0.06814459633966188, -0.04981110696926387, 
0.01849064572594969, -0.057587420597034346, 0.07268259734098717, -0.023733209269591316, 0.0565123731466029, 0.04020092047048864, 0.028307819483857605, 
0.0323000485985991, -0.060262166644264384, 0.031383307766481065, -0.08242953969199261, -0.0063286573012343314, -0.021559652687285047, 0.05791805568456737, 
-0.03656360856200792, -0.08536241446281594, 0.018224374026632552, -0.03038482707816034, 0.09251243206503677, 0.07744607744963958, -0.06654492955831506, 
0.040022549506036176, -0.08766791711321492, -0.05464753737023986, -0.059766082332238436, -0.06687701929354284, -0.027425062478228762, 0.02044657584497627, 
0.018868095173403144, 0.06649552638610347, 0.05043913338630434, -0.05462078332232999, -0.0764049252350095, -0.08112193583689609, 0.015981913171105876, 
-0.05969146820599644, 0.03456486931915273, 0.043485346758123995, 0.0011920637549531056, -0.08992401021817507, -0.08678238860296378, 0.08422667328411505, 
0.006969358652965711, -0.04574144607260835, -0.07172428343076219, -0.06692812291059606, 0.07929938146902961, 0.0034179464433058654, 0.044238302356983894, 
0.0602460936788557, -0.046886914470558, -0.056225919502898514, -0.057322292342449024, -0.017450748860018215, -0.015765257365446664, 0.0844413879586803, 
0.059301456265979144, 0.06799150060311344, 0.06997438534226863, 0.08072290276340392, -0.06435247301833688, -0.0034060538811323785, 0.07438653594516349, 
-4.816621398569492e-05, 0.005173083399624228, -0.06181473241406205, 0.07845683730516684, 0.07915768829798538, -0.0127036750330681, 0.04461232503240194, 
-0.02111447663198569, 0.07853692296799851, -0.04844895173226624, -0.05391016000587177, -0.06197318274032647, 0.0202336617792294, -0.08566565492933953, 
-0.05854315677910616, 0.06053334546655821, -0.023973689695292396, 0.02156015658149834, -0.021645156378257747, -0.06361071012474895, 0.06409868473555991, 
-0.0408740644197789, -0.08071388957490347, 0.011581824337780317, -0.06205198214270605, -0.07382837713620376, -0.015616639403062807, -0.028865479358678982, 
0.007177106163379668, -0.08727374007390386, -0.00939836950164143, -0.013981069123216295, -0.028144246161114564, -0.008782509664091352, -0.0889126560607732, 
0.0082014719378194, -0.08113140205236691, -0.03496176444340341, -0.07388733776906123, -0.050362091426023305, -0.044173267700626455, -0.015730516490134343, 
0.05416595236358277, 0.08620792812142308, 0.03933706867060287, -0.033174264414345074, -0.06783241121960734, -0.014840142990015332, -0.056403413546713486, 
-0.054932704931033326, 0.020883497510366517, -0.008064741973674069, -0.0870198508957863, -0.06798789205689186, 0.02351873495045106, -0.06196315904392303, 
-0.03131467438591628, -0.08346972539451251, -0.0758045942075658, 0.09069231587417154, 0.01181629869593242, -0.06963137422635007, 0.015271673006811969, 
-0.0029374707516956794, -0.019822036355032015, -0.012538474885009835, -0.06210983479716338, -0.028233901270072533, -0.054517589762206074, -0.048838211026068376, 
0.08339889015462801, 0.05258166446459856, -0.06126220187871759, -0.08790614561489542, 0.04264581320850597, -0.007589815086384681, -0.08386486436907488, 
-0.06723532462313778, -0.06065789831628155, -0.08349195065670456, 0.014306720975797913, 0.05987653801244001, -0.04386252474492637, -0.06506155450072439, 
0.0813386214394184, 0.031723398583009675, -0.008093667595689127, -0.020692031377633223, 0.02770928492618581, 0.06971174452948643, 0.045143319096102114, 
-0.05478916080136002, -0.07189756194008216, -0.03889658530463093, 0.046973869245052695, 0.03953351154072597, 0.015382455789309196, -0.06675959087280936, 
0.042288758376930996, 0.04482137659216481, -0.034861786039808655, 0.010425616275875429, -0.012957991133278926, -0.036822213531609985, -0.06642545609835859, 
-0.09156971118834803, -0.06938507006100868, 0.034955368530762775, 0.008676376619815128, 0.0825015964137888, -0.016083367358695668, 0.07657573813723326, 
-0.04560716985368412, -0.02713715222790473, 0.07395499382035906, 0.022052491477449084, -0.06773191666468244, -0.0800773070787875, -0.0006956803747198022, 
-0.042848701032850656, 0.05364439159102697, 0.03994854952422391, 0.01927813782173526, 0.03836179418998536, -0.07326042206042736, -0.002247175614114189, 
0.0021098784690087623, -0.015526038571952517, 0.05755850604026657, 0.01065038263491464, 0.0369018528200184, 0.07932082755167245, -0.006112585604388723, 
0.01158458417174205, 0.038168368387866414, -0.02620831136265667, 0.07306774947631783, -0.009197881913456702, -0.014559332916208638, 0.01414449242956192, 
0.047236922620611285, -0.07462641690725103, -0.028958858957796305, 0.014254103279814854, -0.034299758146373815, 0.07409964655455159, -0.006218903489455222, 
-0.03263820323444225, -0.004824364061813171, -0.007232970949270739, -0.013274698869220562, 0.0879172703537137, -0.0054225442643149446, -0.00927084416630738, 
-0.009321999124880747, -0.04872953261821506, 0.06413423723381771, 0.017739315542788202, 0.030335360525367776, -0.08535670680171349, 0.07202260559539334, 
-0.0564691290090393, -0.040595467013148104, 0.08103792580967208, 0.08791340030442503, 0.08174764437241172, 0.04724058665794521, 0.07243022056463198, 
-0.01164299590088159, 0.052390162235583605, 0.018249306424686713, -0.031100594567136913, 0.04187922998549819, -0.031100425559904818, 0.05120525808424439, 
-0.05876430252800025, -0.05768675486833641, 0.039744455475664846, -0.004101977845432175, 0.007894801784202684, 0.0476998750140973, 0.027132330703486866, 
-0.04034976229912593, 0.05311784353603601, -0.04610212942419238, 0.04710624423446073, -0.08159728462237834, -0.056326921338477734, -0.018483247072831045, 
-0.025188270163364824, 0.06315679892487133, 0.028531726886799808, -0.022413341661127854, 0.05579641785584017, 0.08411943794903783, -0.016791444946321968, 
-0.05869121259965329, 0.04966718634689219, 0.08061606604775089, -0.0012430689417957349, -0.08460288887186336, -0.05142229972641242, -0.032976830217453845, 
-0.0529175062694016, 0.07162010714627762, -0.07520810241637314, 0.02433789081050889, -0.04501239041060191, -0.05499328619141054, -0.00560928436065665, 
0.05640835043071032, 0.009670312780341597, -0.07357391518232427, 0.07420366495011761, 0.05489628626673673, 0.08808057486876124, -0.07052454555676686, 
0.06282899993356396, 0.07654135755919231, 0.08271747067801088, 0.04498939449608842, 0.05313866900169081, -0.058680167224273924, 0.07783989174524848, 
-0.039747422997040385, 0.02850966745157254, 0.006565862040144927, 0.02077647387225363, -0.08724299751845377, -0.07902800593444696, 0.014334660789288644, 
-0.07909307533147389, -0.025044568248580326, 0.010262612689153804, -0.03393011915962564, 0.06901776464713497, 0.011165663218694532, -0.057173605861194854, 
-0.051933969447981544, 0.03428183568095838, 0.06747868114664905, 0.05917264757306954, -0.07399853933273655, 0.036693847483914924, 0.028989900744055122, 
-0.02086874062892892, -0.046496667952663176, -0.039583574818175274, 0.01564399129847836, 0.04724236831569159, -0.06477673701055173, 0.02410963590087752, 
-0.067993239602881, 0.06695169797059329, 0.06734537003270206, -0.04208645802485865, -0.0897840274124332, -0.04849092915044863, 0.09055703758376524, 
0.08150424539260119, 0.029262108922097765, -0.06219294544573858, 0.01957398189258982, 0.023767885642524366, -0.05112428111665501, 0.03554753325598295, 
-0.04947680724288414, -0.055633936098691855, -0.020364434140192827, 0.02546734431141734, 0.06738957260787534, -0.0781111175970929, 0.06529887758259549, 
-0.07405489148658587, -0.016617681060327166, 0.04985790654112649, -0.012791944081351593, -0.00026828049426540733, 0.030124855028619446, -0.08645255840077086, 
-0.004244590806039236, -0.08129562152924215, 0.08591953532847967, 0.008792732486792612, -0.04673880730039302, 0.08346568750940479, 0.07559460096111985, 
0.07541387280564216, 0.00688364186783159, -0.030058683322737888, 0.02432880868949117, 7.527954016187304e-05, -0.06365326361792814, -0.04248490452133014, 
-0.05563925809631659, -0.04725999105706454, 0.05074473401875804, 0.0718466255579876};

#endif

#endif
