// Numpy array shape [5, 128]
// Min -0.087892026
// Max 0.08840085
// Number of zeros 0

#ifndef OUT_LAYER_1_WEIGHT_H_
#define OUT_LAYER_1_WEIGHT_H_

#ifndef __SYNTHESIS__
model_default_t out_layer_1_weight[640];
#else
model_default_t out_layer_1_weight[640] = {-0.06242405250668526, 0.06871906667947769, 0.05352909117937088, 0.050904277712106705, 0.0204362403601408, -0.000830499513540417, 
-0.026265814900398254, -0.08280757814645767, 0.08348599076271057, -0.02896478772163391, -0.0675625279545784, 0.013574640266597271, -0.0332348570227623, 
0.038248881697654724, 0.04244094341993332, -0.07074873149394989, 0.02357751876115799, 0.0005761751090176404, -0.03564503416419029, -0.02895633690059185, 
0.002135699614882469, -0.0027276636101305485, 0.05267386883497238, -0.06983812153339386, 0.05150487646460533, 0.04669121280312538, 0.06494761258363724, 
-0.02693646214902401, -0.014365903101861477, -0.057999998331069946, -0.028878865763545036, 0.0666612759232521, 0.029806798323988914, -0.056044768542051315, 
-0.05752543359994888, 0.011145914904773235, 0.029306264594197273, -0.032387763261795044, -0.05151085555553436, 0.03940558061003685, 0.02489863522350788, 
-0.06235504150390625, 0.003962566610425711, 0.021498028188943863, -0.004851344507187605, -0.017946481704711914, 0.04432454705238342, 0.059408336877822876, 
-0.00822510477155447, 0.00767566729336977, 0.03675537556409836, -0.04432986304163933, 0.024089746177196503, -0.08609923720359802, 0.04631121829152107, 
-0.024278365075588226, -0.021129174157977104, 0.06177648901939392, -0.06915763020515442, 0.02707020752131939, 0.029205715283751488, -0.02229641191661358, 
0.04055203124880791, 0.026767276227474213, -0.04274294152855873, 0.034091558307409286, 0.055958643555641174, -0.05672978609800339, -0.06039126217365265, 
0.052665047347545624, 0.020835883915424347, -0.07242525368928909, -0.029669038951396942, -0.031986743211746216, -0.045983679592609406, -0.05491827055811882, 
0.03817019984126091, 0.00032334504066966474, -0.08310370147228241, 0.04708627611398697, -0.03268812224268913, 0.06383012235164642, -0.02924085408449173, 
-0.07689133286476135, -0.08143530040979385, 0.0567685030400753, -0.037083178758621216, 0.08373494446277618, 0.08680643141269684, -0.05391443893313408, 
0.0451090931892395, 0.05397110804915428, -0.0833299458026886, 0.011724378913640976, -0.018771186470985413, 0.08830144256353378, 0.08226663619279861, 
-0.0643385797739029, -0.0687699243426323, -0.02517027221620083, 0.06864558905363083, 0.03553047403693199, 0.027139417827129364, 0.01623506285250187, 
0.06266790628433228, 0.05679035186767578, -0.04535263031721115, 0.07246293872594833, 0.0005338774644769728, 0.02662925235927105, 0.025503288954496384, 
0.05847962200641632, -0.05309637263417244, -0.022204766049981117, -0.02078414149582386, 0.028848791494965553, -0.05372079089283943, 0.014205820858478546, 
-0.01739400625228882, 0.05657719448208809, -0.03754545375704765, -0.021458756178617477, -0.059206653386354446, -0.06524935364723206, 0.08343306183815002, 
0.029802437871694565, -0.07653497904539108, 0.07152349501848221, -0.029819972813129425, -0.01607910543680191, -0.05036836862564087, -0.016734512522816658, 
-0.02184779942035675, -0.05281146615743637, -0.05903195962309837, 0.02443554438650608, 0.005645249970257282, 0.05661004036664963, -0.048959314823150635, 
0.049845851957798004, 0.06491702049970627, 0.0046846033073961735, 0.03983941674232483, 0.08248845487833023, 0.08035047352313995, 0.03411204740405083, 
-0.04668646305799484, 0.029146086424589157, 0.0524052195250988, -0.003205799963325262, -0.018443504348397255, -0.04568333178758621, 0.031702250242233276, 
-0.0623650923371315, -0.08292251080274582, -0.08726592361927032, 0.04569326713681221, -0.05925380438566208, -0.08725423365831375, -0.05188163369894028, 
0.05853724479675293, 0.07617685943841934, 0.029259495437145233, 0.04112785682082176, -0.03172173723578453, -0.05300985649228096, 0.02362421341240406, 
-0.08412563055753708, -0.009310601279139519, -0.05256393179297447, 0.04461532458662987, 0.057938069105148315, -0.0033985867630690336, -0.08038179576396942, 
0.07029939442873001, 0.06841786950826645, 0.0557551309466362, -0.022949671372771263, -0.06787393242120743, -0.07258372008800507, -0.005117842927575111, 
-0.008593941107392311, 0.05674755945801735, -0.06268449127674103, 0.024874890223145485, -0.08470720052719116, 0.043674856424331665, -0.038356807082891464, 
-0.08487921953201294, -0.04355096071958542, 0.04707116633653641, 0.01394798792898655, -0.08405569195747375, 0.015871567651629448, -0.05603990703821182, 
-0.0413869246840477, -0.0631415843963623, 0.017905980348587036, 0.06009761616587639, -0.005389899015426636, 0.05964314192533493, -0.07814878225326538, 
-0.028709929436445236, -0.042629264295101166, 0.05502684414386749, -0.08201506733894348, -0.014962413348257542, 0.08840084820985794, -0.06970841437578201, 
0.011765256524085999, 0.030874300748109818, -0.07440303266048431, 0.07571625709533691, 0.07905223965644836, -0.07250230759382248, -0.05283266305923462, 
-0.06800805032253265, -0.06735000014305115, 0.031468506902456284, 0.07445204257965088, 0.0496336854994297, 0.06318806856870651, 0.04066998139023781, 
-0.00781119242310524, 0.05470290035009384, 0.07273533940315247, 0.023219434544444084, -0.0837583988904953, -0.016383368521928787, 0.0864362046122551, 
0.08471611142158508, 0.04817759990692139, -0.05203215405344963, 0.031044160947203636, -0.07116002589464188, -0.05985361710190773, -0.03616694360971451, 
-0.061360303312540054, 0.06869856268167496, 0.06250831484794617, -0.013942117802798748, 0.060468222945928574, -0.06731609255075455, 0.04462432116270065, 
0.07657036185264587, -0.03596602752804756, -0.07292099297046661, -0.02520717680454254, -0.053315699100494385, 0.08168944716453552, -0.02279660850763321, 
-0.0866817831993103, 0.024796126410365105, -0.06741346418857574, 0.042338378727436066, 0.03345229849219322, -0.020304737612605095, 0.021174758672714233, 
-0.037642717361450195, 0.051757149398326874, 0.0639626681804657, 0.04470089077949524, 0.06657899916172028, 0.046625394374132156, -0.05857202038168907, 
-0.04144025593996048, -0.07840599119663239, 0.0504399798810482, 0.038147442042827606, 0.07831801474094391, -0.07151222229003906, -0.06843606382608414, 
-0.055709753185510635, 0.014884117990732193, -0.03935300558805466, 0.06733976304531097, -0.03161213919520378, -0.0735272467136383, -0.06470329314470291, 
0.026642179116606712, 0.0483425036072731, -0.014913561753928661, -0.08024867624044418, 0.0428638756275177, 0.0059713986702263355, 0.028478441759943962, 
-0.0013694666558876634, 0.013392088934779167, 0.04215281084179878, 0.02166672982275486, 0.023524267598986626, -0.06724168360233307, -0.05926463007926941, 
-0.03401591628789902, -0.08789202570915222, -0.017995186150074005, -0.0565766841173172, 0.03179828077554703, 0.007746852468699217, -0.07944978028535843, 
-0.008505619131028652, -0.041418980807065964, 0.04374028742313385, -0.012683277018368244, 0.0140001829713583, -0.06866902858018875, -0.012611300684511662, 
0.001970757730305195, -0.03662384673953056, -0.0794537216424942, -0.01017854642122984, 0.03961300104856491, -0.08748100697994232, -0.06369267404079437, 
-0.02336416020989418, -0.08652769774198532, -0.03931793197989464, -0.08355644345283508, -0.0873119980096817, 0.007395690307021141, 0.027850966900587082, 
-0.05319274961948395, 0.08551841229200363, -0.067371666431427, -0.03386072814464569, -0.03928864747285843, 0.022648047655820847, 0.0038264039903879166, 
0.03259025886654854, 0.06974230706691742, -0.025749078020453453, 0.0705009251832962, -0.04643073305487633, 0.00835034716874361, 0.010570311918854713, 
0.03997165709733963, -0.030537674203515053, -0.07232289016246796, 0.08329606801271439, -0.0573439858853817, 0.009642102755606174, -0.0726686343550682, 
-0.06670103222131729, -0.01593528501689434, -0.052072759717702866, 0.0220123790204525, -0.005944808479398489, 0.07796167582273483, 0.07512994110584259, 
0.03486594930291176, -0.012127876281738281, 0.0872076153755188, 0.0023124206345528364, -0.047104302793741226, 0.0680723786354065, -0.006299769971519709, 
-0.0691089853644371, 0.044558826833963394, -0.027544055134058, 0.059123337268829346, -0.013932706788182259, 0.006627462338656187, 0.05483444780111313, 
0.0669483169913292, -0.07412134110927582, 0.011639326810836792, -0.07765767723321915, -0.043852515518665314, 0.02578403428196907, 0.035141851752996445, 
-0.009274397045373917, -0.08492699265480042, -0.05480505898594856, -0.06744752824306488, 0.0279130507260561, -0.07157090306282043, 0.033818427473306656, 
-0.05792992189526558, -0.08007165789604187, -0.020147405564785004, -0.07610112428665161, 0.04921143129467964, -0.021399660035967827, -0.004156461916863918, 
-0.044720955193042755, 0.060748159885406494, -0.053383830934762955, -0.011457824148237705, -0.0385156087577343, -0.04061474651098251, 0.030826346948742867, 
-0.08658691495656967, 0.08297615498304367, 0.05116178095340729, 0.01533058937638998, -0.029517369344830513, -0.0818239375948906, 0.059049975126981735, 
0.039500851184129715, 0.04684341698884964, -0.007906599901616573, 0.017503812909126282, 0.06435874104499817, 0.015972476452589035, -0.06400853395462036, 
0.042492810636758804, 0.04437475651502609, 0.06916071474552155, 0.0379030779004097, 0.024941831827163696, -0.02109665237367153, -0.07739347219467163, 
0.07958903908729553, -0.07554752379655838, -0.06729917973279953, -0.04049607366323471, 0.06565304100513458, -0.06405436247587204, -0.0015386756276711822, 
0.06674452126026154, 0.0073517849668860435, 0.048163123428821564, -0.003975941799581051, 0.0021868718322366476, 0.0697622001171112, -0.03358207270503044, 
-0.01791619136929512, 0.07057114690542221, -0.01941726543009281, -0.04234360530972481, -0.0828535184264183, 0.07955323159694672, -0.00221613678149879, 
0.056901197880506516, -0.08749430626630783, -0.04513615369796753, 0.07054026424884796, 0.005096837878227234, 0.012128925882279873, -0.04677291959524155, 
0.007704049814492464, 0.004425478633493185, -0.05817794427275658, 0.040655020624399185, 0.08794313669204712, 0.071705661714077, -0.028572339564561844, 
0.07909166067838669, 0.08022338896989822, 0.0812494158744812, -0.06883447617292404, -0.00036972289672121406, 0.07868509739637375, -0.008928727358579636, 
0.02875819057226181, 0.05979733541607857, -0.02201523631811142, -0.013969792053103447, 0.01037209015339613, -0.061515048146247864, -0.013479129411280155, 
0.05388760566711426, 0.04253850877285004, 0.035975612699985504, 0.01990216039121151, -0.060409724712371826, -0.07546749711036682, -0.021341262385249138, 
-0.027201278135180473, 0.02373136579990387, 0.06341053545475006, -0.016359375789761543, 0.0773073211312294, 0.07253026962280273, -0.05031712353229523, 
-0.050754647701978683, 0.00380704365670681, -0.04867325723171234, -0.009991353377699852, 0.03577582165598869, 0.06846382468938828, 0.0781727060675621, 
-0.05479761213064194, -0.015251211822032928, -0.04987615719437599, 0.013974691741168499, -0.0824514701962471, -0.061505891382694244, 0.013914545066654682, 
-0.0561518631875515, -0.050493210554122925, -0.08383598178625107, 0.02029561437666416, 0.04612748697400093, -0.0207182839512825, 0.022151488810777664, 
0.05262242257595062, -0.08182135969400406, -0.0703933984041214, 0.023845825344324112, 0.05311167240142822, -0.03159686550498009, -0.05567682534456253, 
-0.025915957987308502, 0.06703044474124908, -0.03140540421009064, -0.014042066410183907, 0.05902644991874695, 0.013289661146700382, -0.07734867930412292, 
0.02335287071764469, 0.07948977500200272, -0.023794356733560562, -0.034118667244911194, 0.06492307037115097, -0.006577604915946722, -0.04176953434944153, 
0.023241328075528145, 0.07636578381061554, -0.07424680143594742, 0.021853182464838028, 0.08585385233163834, -0.021176163107156754, -0.004988116677850485, 
-0.01685955747961998, -0.044471170753240585, -0.0040868669748306274, -0.06206557899713516, -0.033606428653001785, 0.04897349700331688, -0.04608292505145073, 
-0.0669693723320961, 0.06337910145521164, -0.005750742275267839, -0.01374136283993721, 0.07513979077339172, -0.062016699463129044, -0.03979882970452309, 
-0.006127660162746906, -0.0007650602492503822, 0.020865948870778084, -0.04947805032134056, -0.08057140558958054, -0.013448178768157959, 0.030070802196860313, 
0.028620900586247444, 0.02941410057246685, 0.008857152424752712, 0.08598706126213074, -0.08427209407091141, -0.04436517879366875, 0.06602830439805984, 
-0.06148521974682808, -0.0028859463054686785, -0.005103438626974821, 0.07981523126363754, 0.08752933889627457, -0.07020623981952667, -0.003181666834279895, 
-0.08019829541444778, -0.04809371009469032, -0.023474404588341713, -0.016456883400678635, -0.008629565127193928, 0.08668262511491776, -0.009877278469502926, 
0.03351766988635063, -0.024566255509853363, -0.044879693537950516, 0.007154094520956278, -0.016958430409431458, -0.04816512390971184, 0.005364881828427315, 
0.0632404014468193, -0.04518957808613777, 0.023712091147899628, -0.08165009319782257, -0.08709695935249329, 0.017709124833345413, 0.08362137526273727, 
0.06330982595682144, -0.019755329936742783, -0.008344518020749092, 0.031707607209682465, 0.07519636303186417, -0.001517629367299378, -0.08187879621982574, 
-0.010566046461462975, -0.08307928591966629, 0.0724995881319046, 0.0184585303068161, 0.04182392358779907, -0.026618588715791702, 0.07272955030202866, 
0.006926864851266146, 0.045185238122940063, 0.04591217264533043, -0.008674279786646366, -0.05569657310843468, -0.029972830787301064, 0.052047137171030045, 
0.046228908002376556, -0.08730502426624298, -0.03848003223538399, 0.023616772145032883, -0.06743256747722626, -0.08272352069616318, 0.006288137286901474, 
0.07945134490728378, 0.0007703116862103343, 0.024949580430984497, 0.06438495963811874, -0.08249146491289139, 0.0879136472940445, -0.06419076770544052, 
-0.01511412113904953, -0.08310901373624802, -0.03564150258898735, 0.0816551074385643, -0.04165513813495636, -0.012107309885323048, 0.0205539520829916, 
-0.07653414458036423, 0.046098493039608, -0.05327620729804039, 0.012435388751327991, 0.01482324954122305, -0.05450916290283203, 0.06908901780843735, 
-0.04603821784257889, 0.02290172688663006, 0.026985693722963333, -0.04374797269701958, -0.0110141821205616, 0.0507543683052063, 0.07144644111394882, 
-0.08234328776597977, -0.013895909301936626, 0.05402365326881409, 0.07077815383672714};

#endif

#endif
