// Numpy array shape [128]
// Min -0.08748345
// Max 0.08705184
// Number of zeros 0

#ifndef TRANSFORMERS_2_SELF_ATTENTION_OUT_BIAS_H_
#define TRANSFORMERS_2_SELF_ATTENTION_OUT_BIAS_H_

#ifndef __SYNTHESIS__
model_default_t transformers_2_self_attention_out_bias[128];
#else
model_default_t transformers_2_self_attention_out_bias[128] = {-0.04972652718424797, -0.06484603881835938, -0.05920121446251869, 0.05015446990728378, -0.0807088240981102, -0.032308872789144516, 
-0.06672504544258118, -0.029990125447511673, 0.06431496888399124, -0.026805438101291656, 0.014624854549765587, -0.07776517421007156, 0.08356784284114838, 
-0.015318261459469795, -0.06839655339717865, 0.06252294778823853, 0.01220028568059206, 0.03669562563300133, 0.027450529858469963, 0.01047502364963293, 
0.07323630899190903, -0.08748345077037811, -0.06277293711900711, 0.049080584198236465, -0.027688417583703995, 0.08705183863639832, 0.062435418367385864, 
0.006369915325194597, 0.06969981640577316, 0.07312340289354324, -0.0846136212348938, -0.020504284650087357, -0.0430380217730999, 0.04157514497637749, 
-0.05483356490731239, 0.08080162107944489, 0.03427831456065178, -0.06915344297885895, 0.06043696776032448, -0.0650981068611145, 0.016975706443190575, 
-0.06722790747880936, -0.030360419303178787, 0.003102045739069581, -0.06340697407722473, 0.00258855102583766, -0.0788823813199997, 0.06214054673910141, 
0.08233664184808731, -0.08520127832889557, -0.06518619507551193, -0.03023783676326275, -0.036025457084178925, -0.03395978733897209, 0.061770811676979065, 
-0.030814707279205322, -0.011483056470751762, -0.004081923980265856, 0.06081166863441467, 0.082322858273983, 0.0801897794008255, -0.07089092582464218, 
-0.08046098798513412, 0.0214065033942461, 0.0772111713886261, -0.028298676013946533, -0.016014769673347473, -0.017932621762156487, -0.08287428319454193, 
-0.07290232926607132, -0.027906980365514755, 0.04862666875123978, -0.07850418239831924, -0.03896106034517288, -0.023618998005986214, -0.06016674265265465, 
0.06902258098125458, -0.034499138593673706, 0.054712243378162384, -0.03245963528752327, -0.03986862674355507, 0.020404981449246407, 0.04140825569629669, 
-0.013322664424777031, -0.06586772948503494, 0.07004596292972565, 0.0200286116451025, -0.02149040997028351, -0.07345349341630936, -0.06380412727594376, 
-0.024890432134270668, -0.05122411251068115, 0.0027406965382397175, -0.03302369266748428, 0.036175526678562164, 0.04264616593718529, 0.08066487312316895, 
0.0006615607417188585, -0.08423951268196106, -0.02080227993428707, 0.030492346733808517, 0.025064552202820778, -0.05858765169978142, -0.025790279731154442, 
-0.06781428307294846, 0.04343986138701439, -0.007034119218587875, 0.03751178830862045, -0.03720855712890625, 0.03638635203242302, -0.003966144751757383, 
-0.04537244141101837, 0.04489997401833534, -0.028224144130945206, 0.018920648843050003, -0.01027967780828476, 0.07517994940280914, -0.03979728743433952, 
0.08684639632701874, 0.029428895562887192, -0.03907059133052826, -0.06333690881729126, 0.00658825971186161, -0.050238318741321564, 0.047242142260074615, 
-0.06761304289102554, 0.06056378036737442, 0.004587290808558464};

#endif

#endif
