// Numpy array shape [128]
// Min -1.59094
// Max 1.2535142
// Number of zeros 0

#ifndef TRANSFORMERS_1_SELF_ATTENTION_OUT_BIAS_H_
#define TRANSFORMERS_1_SELF_ATTENTION_OUT_BIAS_H_

#ifndef __SYNTHESIS__
float transformers_1_self_attention_out_bias[128];
#else
float transformers_1_self_attention_out_bias[128] = {0.6509466171264648, 0.2807028889656067, 0.8267590999603271, -0.1771063506603241, 0.39958176016807556, 0.09900850057601929, 
0.11241860687732697, 1.0930428504943848, 0.2640961706638336, 0.6089482307434082, -0.47609883546829224, -0.43961620330810547, 0.6241469383239746, 
0.3003891408443451, -1.0380088090896606, 0.06378065794706345, -0.061792027205228806, -0.6675572395324707, 0.2194433957338333, 0.3893674910068512, 
-0.5512875318527222, 0.3612458407878876, 0.8051530122756958, -0.9914402365684509, 0.10425498336553574, 0.2120988667011261, -0.13165909051895142, 
0.041666533797979355, 0.07530223578214645, 0.6088430285453796, -0.02953125163912773, -0.8727059960365295, 0.5607332587242126, 0.30662623047828674, 
-0.35624581575393677, 0.16991306841373444, -0.020352434366941452, 0.22906969487667084, 0.3968614637851715, 1.1690267324447632, 0.52327960729599, 
-0.9211732745170593, -0.12006015330553055, 0.664326012134552, -1.1439452171325684, 0.23680643737316132, -0.29062971472740173, -0.6195207238197327, 
0.011727305129170418, 0.17138805985450745, -0.2817968428134918, -0.6713271737098694, -1.2261111736297607, -0.6785498261451721, 1.2535141706466675, 
-0.6237211227416992, 0.2735964357852936, 0.20352581143379211, 0.26575952768325806, 0.7340146899223328, 1.136033296585083, -0.5795081853866577, 
-0.5955608487129211, 0.8879411220550537, -0.697016179561615, -0.17788545787334442, 0.5329036116600037, 0.040838573127985, -0.2673599123954773, 
-0.1305016279220581, -0.12093187868595123, -0.07041021436452866, -0.14334356784820557, -0.006428562570363283, -0.3579429090023041, 0.02189522050321102, 
-0.18596190214157104, 0.5555309653282166, -0.5681343674659729, 0.17555217444896698, -0.10100314766168594, -1.2683404684066772, -0.06873930245637894, 
0.37774142622947693, 0.17237457633018494, 0.3826553225517273, 0.26698198914527893, 0.5322257280349731, -0.2154078483581543, 0.2859634757041931, 
0.17662115395069122, 0.005910088773816824, -1.590939998626709, -0.3489459753036499, 0.14066442847251892, -0.17267994582653046, 0.20853693783283234, 
0.18259941041469574, -0.363271564245224, 0.02555144764482975, -0.560768187046051, 0.6021159887313843, 0.2984054386615753, 0.5369559526443481, 
0.8092369437217712, -0.38740167021751404, -0.01239300798624754, -0.31615540385246277, -0.3872298300266266, 0.21263201534748077, -0.27387893199920654, 
-0.12479729950428009, 0.20489145815372467, -0.2346014827489853, 0.2631615400314331, -0.39201030135154724, -0.11091922968626022, -0.4352753460407257, 
-0.3880441188812256, -0.7356286644935608, 0.08853588998317719, 0.19995757937431335, 0.2568078339099884, 0.26386702060699463, 0.31540414690971375, 
0.20476362109184265, -0.49431607127189636, -0.0959225445985794};

#endif

#endif
