// Numpy array shape [256]
// Min -0.00038863078
// Max 0.00040655254
// Number of zeros 0

#ifndef TRANSFORMERS_1_LINEAR_3_BIAS_H_
#define TRANSFORMERS_1_LINEAR_3_BIAS_H_

#ifndef __SYNTHESIS__
model_default_t transformers_1_linear_3_bias[256];
#else
model_default_t transformers_1_linear_3_bias[256] = {0.0001313696411671117, -0.00014982633001636714, 0.00015128856466617435, 0.00032385418307967484, 0.0002338172635063529, 0.00019010226242244244, 
3.245951666031033e-05, -2.8154167011962272e-05, 0.0004065525426995009, -8.76777121447958e-05, 0.00017196776752825826, -5.3195653890725225e-05, 0.0003004040918312967, 
-4.940852886647917e-05, 0.0003308058367110789, -7.03452606103383e-05, -0.0002918652899097651, -0.00032158481189981103, -0.00017412102897651494, -0.00030678496113978326, 
-0.0002853463520295918, 0.0003160522028338164, 0.00010050811397377402, -0.0003503948973957449, 0.00011815497418865561, -0.0003091021499130875, 0.00010815897985594347, 
0.00012079464067937806, 0.00011476807412691414, -0.00017548665346112102, -0.00032515288330614567, -0.00025487501989118755, -1.1642987374216318e-05, 0.0002529963676352054, 
-5.6375494750682265e-05, 0.0002984925522468984, 3.946635843021795e-05, 0.00039363958057947457, -0.00014146203466225415, 0.00014786749670747668, 0.0002980185963679105, 
-7.615924550918862e-05, -0.00021424259466584772, -0.0003110712568741292, -0.00017550817574374378, 0.00038555447827093303, -0.00024608513922430575, -0.00030387419974431396, 
-0.00019654890638776124, 0.0002728447434492409, -3.4194243198726326e-05, 0.0002953764924313873, 0.00024187093367800117, -3.453571844147518e-05, -0.000127805134980008, 
-0.00011130747589049861, 0.00031352380756288767, -3.5692261008080095e-05, -0.00027215052978135645, -0.00014612196537200361, 0.00029425768298096955, -0.00020672957180067897, 
0.00010147129069082439, -7.074695167830214e-05, -3.836741598206572e-05, -8.901032560970634e-05, -0.0003122972266282886, -0.00013015198055654764, 2.1711946828872897e-05, 
4.858200190938078e-05, 0.00030655242153443396, -0.0003829897614195943, 0.00028599725919775665, -0.00012779720418620855, -0.0001673844235483557, -5.200290979701094e-05, 
-0.00033487327164039016, 0.00031531875720247626, 0.00011764099326683208, -0.00021199505135882646, -0.00015210242418106645, 0.00016813854745123535, 0.0002373377064941451, 
3.750642645172775e-05, -0.0001092075981432572, 2.1983190890750848e-05, -7.339121657423675e-05, -0.00038631688221357763, 0.00019398689619265497, -0.00031320221023634076, 
8.70599687914364e-05, 0.0002714514557737857, 0.00036168869701214135, -1.5794885257491842e-05, 0.0002018501254497096, 0.00032386137172579765, 0.0002473728090990335, 
8.086965863185469e-06, 9.693093306850642e-05, 0.00018193408322986215, 0.00012746156426146626, 0.0002736615133471787, 2.3453361791325733e-05, 0.00016172991308849305, 
-2.6511021133046597e-05, 0.00022010848624631763, -0.00038559784297831357, 0.00034127917024306953, -0.00013858958845958114, -0.0001276594412047416, 0.00014662614557892084, 
-8.453457849100232e-05, -0.00011770011042244732, 6.94821574143134e-05, 2.387727545283269e-05, -0.00028789989301003516, 0.0003469842195045203, -0.00024327436403837055, 
0.0003494447737466544, 0.00037713776691816747, 2.2524727683048695e-07, -0.0001232096692547202, -5.0870665290858597e-05, -9.307974687544629e-05, -0.00013540891814045608, 
-0.0002883330453187227, -0.0002720146731007844, 0.00037534802686423063, -0.00010470880079083145, 0.00039445768925361335, 9.392372885486111e-05, -0.00032572593772783875, 
-0.00018579556490294635, 0.00021767191356047988, -0.00017500206013210118, -0.0002060479309875518, 0.00020607007900252938, -0.00033824393176473677, -1.6746920664445497e-05, 
0.0001308956416323781, -0.00031180307269096375, -0.00022431819525081664, 8.136438555084169e-05, 0.00015701305528637022, -0.0003484754415694624, -0.00028504495276138186, 
0.0001643386494833976, -0.0003590511332731694, 0.00026823466760106385, 0.00021833505888935179, -0.00038863078225404024, -2.4288561689900234e-05, -0.0002637272118590772, 
-0.00015058908320497721, 4.338353028288111e-05, 0.00027732655871659517, -5.791959119960666e-05, -0.0002805794938467443, -0.00018062317394651473, 0.00013657589443027973, 
0.00022546248510479927, -0.0002669078530743718, 0.00030159958987496793, -1.0533887689234689e-05, 0.00031520024640485644, 8.488034654874355e-05, 8.910676115192473e-05, 
-0.00011406651174183935, -0.00034922888153232634, -0.00028874134295620024, 0.0001787596702342853, 0.0003457808925304562, 0.0001336997520411387, 4.32685119449161e-05, 
0.0001783292245818302, 0.0002860074455384165, 0.00012395711382851005, 9.189046249957755e-05, -8.62126616993919e-05, 0.0002062281855614856, -0.00017680294695310295, 
-0.00016175529162865132, 0.00029472337337210774, 0.00013190846948418766, -0.00013485703675542027, -0.0001989763113670051, -0.00033291359432041645, -0.00015764926502015442, 
0.00030647756648249924, 0.0002877875231206417, -0.00012455238902475685, 0.00023544066061731428, -0.00019237326341681182, 0.0001468757400289178, -0.00026798262842930853, 
8.540722774341702e-05, 0.0001856750895967707, -4.816080490854802e-06, -7.568891305709258e-05, -0.0001938305504154414, -0.00013137207133695483, -0.0002661990001797676, 
0.00037920274189673364, -6.199338531587273e-05, 0.00020143762230873108, -0.00038411468267440796, 0.00025802169693633914, -0.00010919898340944201, 0.000151792453834787, 
0.0001815012947190553, -0.00019308264018036425, 2.8054775611963123e-05, -0.00034027412766590714, -0.00019589776638895273, -0.00030663202051073313, 0.00013870713883079588, 
4.495751636568457e-05, 4.502901720115915e-05, 0.00021539187582675368, -0.00013713078806176782, -0.0003162840730510652, -1.9457024791336153e-06, -0.0003824671439360827, 
0.0003244192630518228, -0.00016815481649246067, 7.66292869229801e-05, -9.169707482215017e-05, 3.0181363399606198e-05, -0.00013005270739085972, 0.0002403714315732941, 
0.000327894784277305, 0.0001273827365366742, -6.756469520041719e-05, 0.00021640989871229976, -0.000225922602112405, 0.0003603606892284006, -0.0002360169164603576, 
0.0003880391886923462, 0.00021417028619907796, 0.0002525297168176621, 0.00011474220082163811, 0.00032248831121250987, 0.0003594695881474763, -4.306562914280221e-05, 
-0.0003470513329375535, -0.00021653553994838148, -0.0002650264650583267, -0.00023654782853554934, 0.0003613195149227977, 0.00010254504741169512, 0.0002514903317205608, 
-5.019276431994513e-05, -1.4502160411211662e-05, 0.00012016561959171668, 0.00013299251440912485, 0.00039536034455522895};

#endif

#endif
