// Numpy array shape [128]
// Min -0.005256816493065146
// Max 0.003350970766783333
// Number of zeros 0

#ifndef TRANSFORMERS_1_SELF_ATTENTION_NORM_BIAS_H_
#define TRANSFORMERS_1_SELF_ATTENTION_NORM_BIAS_H_

#ifndef __SYNTHESIS__
model_default_t transformers_1_self_attention_norm_bias[128];
#else
model_default_t transformers_1_self_attention_norm_bias[128] = {-0.0010499289589127954, -0.00026120558571955747, 0.0012827741453751706, -0.0009337004157265446, -0.000640535134644124, -7.833323102303929e-05, 
-0.0014943720893054653, -0.0005866695502450407, -0.0023481271850204636, 0.00022660620230812958, 0.0018072769888656068, -0.001040129023376431, 0.0019758655861459398, 
0.0010255798190728768, -0.00010296898998916585, -0.0002891625853534701, 0.00011552913337259027, 0.00029837103367525754, 0.0005484524116465655, -0.00045552662511780744, 
-0.0005530174013964262, 0.0019642217109330216, 0.0019596624102965273, 0.0012840196003890902, -0.0014853162003969067, 8.292653637224764e-05, 0.001622335928448157, 
0.0007681237266141262, -0.0009919027640264376, -0.0005261780578247625, -0.0006229969233082216, -0.0007018901974968715, 0.00135148379197122, -0.0003245437686599013, 
0.0006102984440098703, -0.0008424777666817258, 0.0009783083805941942, 0.003247006109067905, -0.0008342459388546166, 0.00033117669642892156, 0.00044957209854621294, 
0.0007485666614076015, 0.0008221580581153941, -0.0015509187790571492, -0.001347164321387474, -0.0010147296508354199, 0.0010911706740193636, 0.0010179513537863258, 
0.0020682092308035387, -0.0002697509716058327, 0.0017605265564333084, 0.00131732940748545, -0.0007383242415112646, 0.0003900955114402573, -0.0016370786057775478, 
0.00108355929074423, -0.00016412054203476548, -0.0014830153389786018, 0.0007359661584890061, 0.0011356583094712294, 0.0003576798176779233, 0.0003882587782035963, 
-0.0013922735036461526, 0.0004391552769995571, -0.0010885287096769492, 0.0009221484843880404, 0.0008484606566668192, 0.002100969107586288, 0.0011552771600408663, 
-9.46771796622175e-05, -0.00023297741970001995, -0.0018452774844042836, -0.00010324558964378035, 0.0011708575739405051, -0.0012918093211025136, -0.0005716959199659568, 
-0.0003629061441297776, 0.00020293866977886697, 0.00036599870256993086, -0.0005153417099783841, 5.7020683793487666e-05, 0.0013898845094331002, -0.0022209680052068448, 
-0.0021078728291819967, 0.0004988265283279216, -0.0006856988882707662, 0.0015468081042388545, 0.0010992815986942497, 0.000907021573684444, -7.755615505612103e-05, 
-0.000795323475047335, -0.0020099093834854195, 0.00019843738486002147, -0.0007956137934787567, -0.00028299596772702554, 0.0010691426282310637, -0.00038945133415790954, 
-0.00012428139447785404, -0.005256816493065146, 0.0006409661521645062, -0.0020120257442624735, -0.0001996296839846444, -0.0003172877894054098, 0.00042719539915952336, 
-0.0007933447722587091, 0.001737836221139606, 0.0009664196745951234, -0.0009898962905241632, 0.0028075611446636774, 0.0013395200612626185, -0.00019560424595933874, 
0.0009697561503772676, 9.757594215451205e-05, 0.000442678942964104, -0.0003552006270892602, -0.004215014409815542, 0.000978560459182124, -0.0008022410381696113, 
0.0009109850528661982, -0.0008964098873078121, 0.0013716662132841333, 0.00015295910064925373, -0.0017530681482996737, 0.00013813641597002334, -0.0017821493330534162, 
0.0007797211578692706, 0.003350970766783333, 0.001621210094958638};

#endif

#endif
