// Numpy array shape [256]
// Min -0.004271378987651676
// Max 0.008053114120884424
// Number of zeros 0

#ifndef TRANSFORMERS_2_LINEAR_3_BIAS_H_
#define TRANSFORMERS_2_LINEAR_3_BIAS_H_

#ifndef __SYNTHESIS__
model_default_t transformers_2_linear_3_bias[256];
#else
model_default_t transformers_2_linear_3_bias[256] = {-0.001469862245599325, 0.0014557049339972658, 0.0007695403864406506, 0.0006052421707534529, -0.001344972984775264, 0.0011225931189030038, 
-0.00021981027673166387, 0.003487748914996924, -0.00045692687339184113, -0.00018442860670853336, -0.002087472426848368, 0.002944562011018266, 0.0003776327228820006, 
0.0007498252663387687, 0.0017282993309162926, -0.0015340861555196996, 0.00041069722690645035, 0.0006423520017012607, 0.0009565773172203972, 0.002160838607715855, 
0.0014786572226261722, -0.0028955393820677823, -0.003237242581553767, -0.0011784520304118195, 0.00263051046319597, -0.0006620173862186016, 0.002100984145183279, 
0.0034757473010344716, -0.0010457074671885544, -0.004271378987651676, 0.0035937768658270545, -0.0010032339058378078, 0.00011363202370783943, 0.0007466001882486398, 
-0.0016857570560890685, 0.0021379905399382497, 0.0003116426710326817, 0.00039169411125261383, -0.0016633707187411336, 0.0027356338531195753, -0.0006224395024842168, 
0.0006609654680664477, -0.00016705665770659793, 0.0037432275688842618, -0.00137328635997595, 0.0005841113931218155, 0.002058480262448188, 0.00032824830564054635, 
0.000734430546894308, -0.0014156177406131664, 0.000673886482925523, 0.003070567855412875, -0.0017323605388558248, 0.00026225405388223734, 0.0008118287864924224, 
0.0013497822650853353, -0.0008291182203316404, 0.0015962458914650448, 0.0030362986775791276, -0.0003184162342207722, 0.0007671208112017734, -0.0006304404378456846, 
0.003707751838345972, -0.002953899276371126, 0.00144575444247212, 0.0005966750602990163, 0.0003679238091830066, 0.0018025164872680947, 0.002260510398365459, 
0.0028631790224220113, 0.0014193463332727264, 0.001509633884486575, 0.0015620191993022405, -5.4785494553063633e-05, -0.001826901019498169, 0.000185702301186103, 
0.0001458893311527641, -0.0012959938846133303, 0.0005989486470115173, 0.005332378118566679, -0.0006271520210247731, 0.003778551326363742, 0.002351247313991488, 
0.00033125521201180115, -0.002022260527134827, 0.0007899854060186535, -0.0006866993358667184, -0.001036069084225124, -0.0008965478458324362, 0.0004350954499775568, 
0.0013890688872245508, -0.002687366396958598, 0.0017595074751974049, -0.00026805421026298545, 0.0005787552244500418, -0.0011770480978926202, 0.0004107313349971448, 
-0.0001918477683779464, -0.0001670394045738298, 0.0009092981514306701, 0.006123984513067421, -3.684047732703903e-05, 0.00047787285732027603, 0.00012893565322743132, 
-0.0009978393409088196, -0.00296113558458684, 0.0015745753962501977, 0.001163711543946419, -0.0006472548556914482, 0.0026796629993771385, 0.0014055697486440417, 
-0.0008160271632478515, 0.0003568063299446159, -0.0014230630242834926, -0.0009371984614347309, -0.002209676145823737, -0.002042455210896873, -0.0018574141994135668, 
-0.0009763899239297625, 0.0006928430393494646, 0.0028405046625314405, -0.0014137007474327023, 0.0019688463425416142, -0.0007098239206695623, 0.0019925480590585417, 
-0.0003345533587415167, 0.0013803331724533542, -0.0008487844330204316, 0.0036350684319344803, 0.004138505919546335, 0.0006896203896144433, 0.0018207444379957716, 
0.003252208485145593, 0.0028925770203421953, -0.000917204984926242, -0.002130830774092769, 0.0016688894914717676, 0.008053114120884424, 0.00027257296445980646, 
0.0018864238761118473, -0.0004333284502277324, -0.0009513141243566488, 0.0028394888966683583, 0.00014563206925868598, 0.0010293609011468936, 0.00028757750755513086, 
-0.0009097235952418326, -0.00018518121636293186, -0.0019255808803319797, -0.0016673536495441412, 0.0026492853256140413, -0.003119230292030372, 0.001969391010735317, 
0.0008272796336764902, 0.00040757089642014564, 0.0005811462473508738, 0.0010830077246284256, 0.0001172266700225633, 0.0008258966881543378, -0.0028260912824707145, 
0.0036262646294090016, 0.0006700454007150085, -0.00017804971720152338, 0.0036680517841587955, -0.0012617334489182102, 0.0019594922703094018, 0.0005862355631305324, 
0.0013248494869719464, 0.0004538762545407464, 0.0016782949540027098, 0.0009989172460764426, 0.002955611245642549, -0.0013066940530894948, -0.00043658807365091904, 
-0.0005415211937772246, 0.0028282370975444256, 0.004567412388925361, -0.00021653096160229577, -0.0022242718019839037, -0.00016750819342195296, 0.0005509166635753834, 
-0.0006818414586455533, -0.0016194568587883798, 0.0005020115383591059, -0.002041311878407805, 0.0002657788945024642, -0.0011223053806687102, 0.0009460303444626057, 
-0.00017410583083635712, -4.078040639063542e-05, -0.0029404250625575173, -0.0010050096419771878, 0.00042595123654827385, 0.000641065533431047, 0.0008256878657704898, 
0.0010092447980951933, -0.001551860093680586, -4.217013634204877e-05, -0.0013440999367416266, 0.0004428727121087492, -0.000984694187573137, 0.0009396809440250954, 
-0.0006738214624430382, 0.001233272838525992, 0.0007095285366554874, 8.681908448807056e-05, -0.0020370906140507535, -0.002107430221749338, 0.0010499648102717223, 
-0.002126028902629225, 0.00041539073686832175, 0.0022478020946688124, -0.0012523028754318185, -8.911328262589308e-05, -0.0009204859439173355, 0.0002808452892503004, 
-0.0001447572399231528, 2.7282483254593854e-05, 0.0003098492847853413, -0.000400127586594803, 0.001816203066944584, -0.001333703230399403, -0.0007014262990770868, 
-0.00022837764355371443, 0.0013395963546967411, 0.0006266380135879451, -0.001038796911588015, 2.6370466586298162e-05, -0.002393089836681325, -0.0008855257423801674, 
0.0012380552503517158, -0.002782349829979824, 0.0011126878891193448, -0.0005409671635006922, -0.000894393174872881, 0.0021175246006887843, -0.00016280124569132085, 
-0.0032500571654051004, 0.00017801609864594604, 0.0019435906268069898, 0.000520908126514321, -0.0013625076930273068, 0.000845110735692458, 0.0022311102473584676, 
0.0011098568742839107, 0.002042621598203182, -0.0012209646173600886, -0.0004620428517312272, -0.0022737369088693315, -0.0013719255318261608, 2.394196181463028e-05, 
-0.00034962372976695744, -0.0008488363649702352, 0.0009950918392897443, 0.0036790603931761328, -0.0026485461539687283};

#endif

#endif
