// Numpy array shape [128]
// Min -0.00039170744
// Max 0.0003888698
// Number of zeros 0

#ifndef TRANSFORMERS_0_LINEAR_0_BIAS_H_
#define TRANSFORMERS_0_LINEAR_0_BIAS_H_

#ifndef __SYNTHESIS__
model_default_t transformers_0_linear_0_bias[128];
#else
model_default_t transformers_0_linear_0_bias[128] = {0.00024526246124878526, -0.00018954060215037316, 6.946356006665155e-05, -9.769293683348224e-05, 0.00027004486764781177, 7.178659870987758e-05, 
0.00017862499225884676, -0.00038011325523257256, 0.00011232128599658608, 8.404367690673098e-05, -0.00013052922440692782, 7.512594311265275e-05, 0.0003517786681186408, 
0.00034138679620809853, 2.789817335724365e-05, 9.032928210217506e-05, 0.00023037097707856447, -0.00025022675981745124, -4.784655538969673e-05, -0.00017155245586764067, 
-0.0002571200020611286, -9.553962445352226e-05, 0.00022085932141635567, 8.735492156120017e-05, -0.0003234265313949436, -0.00025684788124635816, 1.1444740266597364e-05, 
0.00037806242471560836, 0.0003528083616402, -0.0002288637333549559, -0.00019512904691509902, 5.610672815237194e-05, 0.000193782543647103, 2.5432123948121443e-05, 
0.0002062881540041417, 0.00037085197982378304, 0.00026077963411808014, -0.00030533428071066737, -0.0001688869233475998, -0.00013635680079460144, 0.0002449152525514364, 
0.000317357771564275, 9.548312664264813e-05, 1.1397018170100637e-05, 0.0003888698120135814, 0.0003540280449669808, -8.703110506758094e-05, 0.000351348688127473, 
-0.0003114244027528912, -0.00038966815918684006, 6.310997559921816e-05, 2.4979965019156225e-05, 0.00029840946081094444, -0.00038770402898080647, -0.00026265173801220953, 
-0.0003400402201805264, 0.000303184351650998, 0.00015666516264900565, -0.00012249451538082212, 0.0002849863958545029, -0.0003236402408219874, -0.00012502228491939604, 
-0.00029791786801069975, 0.00026633249945007265, 0.0001950987207237631, 0.00020943158597219735, -0.00020980359113309532, -0.00026037500356324017, -0.0001714089885354042, 
-0.00016458485333714634, 6.369751645252109e-05, -0.0002767579280771315, 4.772251486429013e-05, -4.304366302676499e-05, -0.0002818377979565412, -0.0002886239090003073, 
-7.498288323404267e-05, 4.0916198486229405e-05, 6.866440526209772e-05, 0.00022544758394360542, 0.0002691324334591627, -0.00021317892242223024, 0.0001543629914522171, 
-3.323369674035348e-05, 0.00016025692457333207, 0.00015976619033608586, -0.00024240986385848373, -0.00023039407096803188, 0.0002841960813384503, 6.435247632907704e-05, 
-0.00013517083425540477, 0.00013768728240393102, 0.0003278990334365517, 0.00029006553813815117, 0.00017095552175305784, -9.318502998212352e-05, 1.1246084795857314e-05, 
6.65186598780565e-05, 8.76221020007506e-05, 0.0002570339711382985, 2.704965663724579e-05, 0.0002647173241712153, 0.00016691169003024697, -0.0002497962850611657, 
8.760880518821068e-06, 0.00036120216827839613, -0.00021038152044638991, -0.0002058575046248734, 1.4252284927351866e-05, 0.0003511167597025633, -0.0002868016599677503, 
-0.00039170743548311293, 0.0003571457928046584, -0.00018357783847022802, 0.00032194607774727046, 0.00034586951369419694, -0.0001926786353578791, 3.7181209336267784e-05, 
-0.0003426662879064679, -0.00016116516781039536, 1.5563911802018993e-05, 0.00035551897599361837, -0.00034870640956796706, -0.0003629620769061148, -0.0001781217724783346, 
-0.00023874029284343123, 0.00027246359968557954, 0.00021485313482116908};

#endif

#endif
