0.0005073264474049211, 0.0002563973830547184, 0.00012398183753248304, -0.0003543407656252384, -0.00017626497719902545, 0.00026100908871740103, 9.936864807968959e-05, 0.0003143013746012002, 0.0002192743995692581, 3.550964902387932e-05, -0.00016123749082908034, -0.000190409118658863, 0.0004960012156516314, -0.00017275745631195605, 0.00012897924170829356, -0.00035977308289147913, -5.1284088840475306e-05, -0.00033979557338170707, -7.451704004779458e-05, 0.0005400811205618083, -0.00026234821416437626, 0.00014655306586064398, 0.0005139868007972836, -8.06893513072282e-06, 0.0005026992876082659, 0.00039099520654417574, 2.6735018764156848e-05, -7.02536417520605e-05, 0.00044951759628020227, 0.00018504229956306517, 0.00024163638590835035, 0.00017462145478930324, 0.0003644516982603818, 0.00016458363097626716, 0.00025181827368214726, -7.223761349450797e-05, 0.000309808790916577, -6.839614798082039e-06, 0.00017856813792604953, 0.00030841396073810756, 0.00017385854152962565, 0.00044294659164734185, -1.969003960766713e-06, -3.568288957467303e-05, -0.0005124451708979905, 0.00010325822222512215, -0.000323417509207502, 7.138191722333431e-05, -0.0005029527237638831, -0.00017529680917505175, -0.0002298548206454143, -3.7734880606876686e-06, 0.0005344470264390111, -0.0002484098949935287, -0.00022867429652251303, 3.8272057281574234e-05, 0.0005190632655285299, 0.0002010151802096516, -0.0001579960953677073, -0.0003204096865374595, -0.0002217591245425865, 0.00025346066104248166, 0.0002955451200250536, -0.0003326584119349718, 0.0001643227005843073, 2.2186173737281933e-05, 0.0005460791289806366, 0.000443988450570032, 0.0003208912385161966, 0.000100286393717397, 1.3477694665198214e-05, -8.616555714979768e-05, 0.0003855522081721574, -0.000533277983777225, -0.0003133860300295055, -0.00046751636546105146, 0.0003744986897800118, -0.00029453710885718465, 0.0002551497600506991, 0.0002870724711101502, 0.00012686860281974077, -0.00039509250200353563, 8.654167322674766e-05, -0.00021684491366613656, -0.00017063751874957234, 0.0005305829108692706, -0.0002925285662058741, -0.0002975331444758922, 0.0001101294910768047, 0.00016244366997852921, 2.7906651666853577e-05, 0.00026062096003443, -0.000164069322636351, 0.0002930132031906396, 0.0002514870138838887, -2.6991697268385906e-06, 6.915917037986219e-05, -0.00035234272945672274, -9.856323595158756e-05, 0.00010780727461678907, 8.332954166689888e-05, -0.00014731216651853174, -0.0002976817195303738, 0.00037488763337023556, 0.00043342052958905697, 0.00023707021318841726, 0.0004685857566073537, -0.000396067276597023, -6.947173096705228e-05, 0.0004294965183362365, 0.00012725809938274324, 0.0002327267429791391, -0.00020598135597538203, 0.000509540899656713, 0.00039298084448091686, 0.0002034968783846125, -0.00015873473603278399, 0.0004954493488185108, -0.0002718936884775758, 0.0003879109863191843, -0.0005180352018214762, -0.00027317513013258576, -0.0002947083266917616, 0.0002166297781514004, -0.00041466153925284743, -8.559030538890511e-05, 6.244686665013433e-05, 0.00042060832493007183