-0.01307152584195137, 0.08372420072555542, -0.0705610141158104, -0.0009437873959541321, 0.0339309498667717, -0.05610319599509239, 0.047832850366830826, 0.01594826951622963, 0.02707420103251934, -0.06372090429067612, -0.019643377512693405, -0.020762553438544273, 0.08571379631757736, 0.009811273775994778, 0.008569850586354733, -0.0037113327998667955, -0.07417692989110947, -0.07296011596918106, -0.059104662388563156, -0.06326308846473694, 0.010531776584684849, -0.016313739120960236, -0.043758053332567215, -0.047123417258262634, 0.07297590374946594, 0.048511896282434464, -0.021173670887947083, 0.07592030614614487, -0.06241621822118759, -0.022321108728647232, -0.04164166375994682, 0.014356217347085476, -0.022422589361667633, -0.003903614589944482, -0.0033071727957576513, -0.02064353972673416, -0.008429805748164654, 0.01958211325109005, -0.010266018100082874, 0.04390610754489899, -0.06686968356370926, 0.008266792632639408, 0.012128998525440693, 0.08379410952329636, -0.07219884544610977, -0.03371289372444153, 0.01690567284822464, -0.04369771108031273, -0.04576098546385765, 0.0029408240225166082, 0.050127871334552765, 0.031383074820041656, -0.06162935495376587, -0.02542082779109478, 0.03126306086778641, -0.06662522256374359, -0.029179159551858902, -0.050875112414360046, 0.08300996571779251, -9.910443623084575e-06, -0.002439765492454171, 0.05911560729146004, 0.004324384965002537, -0.08256684243679047, -0.01024685986340046, 0.012198282405734062, 0.0025443166960030794, 0.012953533791005611, 0.004514985717833042, 0.020266978070139885, -0.06498640775680542, 0.009738222695887089, 0.05769564211368561, -0.028475521132349968, -0.03644249960780144, 0.07806260883808136, -0.030413800850510597, 0.05875712260603905, -0.005327875725924969, 0.02667810581624508, -0.05973447859287262, 0.016315588727593422, 0.07867410778999329, -0.08508923649787903, -0.05085838958621025, -0.005759346764534712, 0.013523842208087444, -0.017975522205233574, -0.03231174498796463, 0.03175243362784386, 0.04528278112411499, -0.009449506178498268, -0.07914424687623978, 0.024487515911459923, -0.015511274337768555, 0.04386710375547409, -0.08709745854139328, 0.05831243097782135, 0.02311713807284832, -0.048910364508628845, 0.01132272370159626, 0.054092321544885635, -0.06876498460769653, -0.0077851032838225365, -0.07836631685495377, 0.010308202356100082, -0.016683226451277733, -0.026835527271032333, 0.08829545974731445, -0.02176147885620594, -0.007956596091389656, 0.03026070073246956, 0.058541566133499146, 0.06574718654155731, 0.07644720375537872, 0.036295805126428604, 0.06779540330171585, 0.004354075528681278, -0.04851505160331726, 0.013270942494273186, 0.012274029664695263, 0.06404328346252441, 0.05129241943359375, 0.03160436078906059, 0.05529654771089554, -0.07801417261362076, -0.06518074870109558, -0.027301151305437088