// Numpy array shape [128]
// Min -0.0003912518
// Max 0.00043767111
// Number of zeros 0

#ifndef TRANSFORMERS_2_SELF_ATTENTION_NORM_BIAS_H_
#define TRANSFORMERS_2_SELF_ATTENTION_NORM_BIAS_H_

#ifndef __SYNTHESIS__
model_default_t transformers_2_self_attention_norm_bias[128];
#else
model_default_t transformers_2_self_attention_norm_bias[128] = {0.0003160124470014125, -0.00010393742559244856, 0.0001009911866276525, 0.00016762767336331308, -0.0003912517859134823, -0.00019464583601802588, 
-0.00017028079309966415, 6.047998249414377e-05, -1.8959672161145136e-05, -0.0001028778642648831, -0.00036373993498273194, 5.591302033280954e-05, 0.0002804287360049784, 
-0.0002344067906960845, -0.00013974403555039316, -9.006726031657308e-05, 0.0002234385028714314, 0.00025509053375571966, 0.00029691457166336477, 3.18019010592252e-05, 
9.399935152032413e-06, -0.00038965645944699645, 0.0001514925534138456, 9.675146429799497e-06, 0.00016657558444421738, 7.51801417209208e-05, 0.00029533050837926567, 
-0.0002261631452711299, -0.00026757578598335385, 0.00013450431288219988, 0.0003452594974078238, 2.3965818400029093e-05, 1.6517686162842438e-05, 0.00017164346354547888, 
0.00017864933761302382, -1.930526013893541e-05, -0.0003659644862636924, -0.0003727952716872096, -0.00019205771968699992, 0.00029435654869303107, -0.00021409655164461583, 
-7.445607479894534e-05, -6.1231085055624135e-06, 0.0002883220440708101, -0.00028682267293334007, 0.00020244055485818535, -0.00010504199599381536, -0.00024291737645398825, 
3.331592961330898e-05, -0.00013755621330346912, -5.083025826024823e-05, -1.117686497309478e-05, 0.0002464918652549386, -0.00011150103819090873, 0.00025404233019798994, 
-3.8448917621281e-05, 0.00014810811262577772, -0.00012228738341946155, -0.00031535615562461317, 6.474220572272316e-05, -0.0001700674183666706, -0.0003140880726277828, 
-0.00026660843286663294, -0.00011332948633935302, -0.00017159635899588466, -0.00015100785822141916, -0.00036933892988599837, 6.396242679329589e-05, -0.000109548527689185, 
-0.00016279083502013236, 0.0003486949426587671, -0.00020941090770065784, 0.00017105510050896555, -6.571940321009606e-05, -0.00022465830261353403, -0.00020028998551424593, 
-0.00019998106290586293, -0.00018823915161192417, -0.0001463871158193797, 0.00010889121040236205, -4.896178324997891e-06, -0.00028361560543999076, -0.000295541511150077, 
-0.00011296532466076314, -2.8687431040452793e-05, 9.376211892231368e-06, 0.00022767951304558665, 3.2168085454031825e-05, 0.00019194070773664862, 0.00012509763473644853, 
0.00021325935085769743, 0.0002889655879698694, -5.2313094784040004e-05, 0.00036771048326045275, -4.574451668304391e-05, 0.00014143703447189182, 0.00018593802815303206, 
-0.00015787997108418494, -9.629518899600953e-05, -4.162797995377332e-05, -0.0001828034146456048, 0.00020615891844499856, 0.00020664259500335902, 0.0004302143061067909, 
0.00043767111492343247, -9.284592124458868e-06, 0.0002725606318563223, -0.000362103630322963, 0.00012151131522841752, -0.0002543554874137044, 0.00018625282973516732, 
0.00014011743769515306, 4.711481960839592e-05, 7.780976011417806e-05, -0.00017981107521336526, 0.0002078094257740304, 0.000385272316634655, -0.00011037999502150342, 
-0.00014662672765552998, -0.00016775263065937907, 0.00016063319344539195, 0.00029215056565590203, 0.00023670992231927812, 0.0002918597892858088, 7.080229261191562e-05, 
-0.00034893068368546665, 0.00025400175945833325, 0.00013245119771454483};

#endif

#endif
