// Numpy array shape [128]
// Min -0.00046434815
// Max 0.0005401994
// Number of zeros 0

#ifndef TRANSFORMERS_2_LINEAR_0_BIAS_H_
#define TRANSFORMERS_2_LINEAR_0_BIAS_H_

#ifndef __SYNTHESIS__
model_default_t transformers_2_linear_0_bias[128];
#else
model_default_t transformers_2_linear_0_bias[128] = {-0.00035517217474989593, 0.0004898518091067672, -0.00042366667184978724, 0.0001969966251635924, -0.00045198522275313735, -2.9732627808698453e-05, 
-0.0001547552237752825, 0.00025908532552421093, -0.00033620098838582635, 0.00029073734185658395, -0.000143926969030872, -4.630674084182829e-05, 9.79727556114085e-05, 
-0.000395115785067901, 0.00012670586875174195, 7.534685573773459e-05, -0.0003160425985697657, -0.00037147002876736224, 0.00042052994831465185, 8.237940346589312e-05, 
-0.0003823473525699228, 0.00042297146865166724, 0.0003255995979998261, 0.00017242725880350918, -0.0001221471029566601, 0.00013889440742786974, 5.3366766223916784e-05, 
-0.0001619074319023639, 0.00023133149079512805, -0.00014796445611864328, -0.00011300042388029397, -0.0004643481515813619, -0.00023301923647522926, -0.0003644337994046509, 
-0.0002105695748468861, -3.3372150937793776e-05, -0.00045341538498178124, -0.00021060879225842655, 0.00014006101991981268, -0.0002496799861546606, 0.00026651364169083536, 
-0.00024389155441895127, 0.0004758818540722132, 0.0002873215125873685, -0.0003353198990225792, 0.0005203320179134607, -0.0003062887699343264, 0.0005076319212093949, 
-0.00039279094198718667, -5.853557013324462e-05, 0.00047080207150429487, 4.665582309826277e-05, -0.00012546108337119222, -0.00035661752917803824, -0.00038123424747027457, 
0.00016624524141661823, 0.00045873751514591277, 0.0003905505291186273, 0.00025663836277090013, 0.00030119644361548126, 0.00027536877314560115, -0.00022269575856626034, 
0.00023219760623760521, -2.9992397685418837e-05, 0.0002837454667314887, 0.0004728513886220753, -0.00026961517869494855, -0.00019419938325881958, -0.0003358583780936897, 
-0.00014167788322083652, 7.938405906315893e-05, -0.00021030406060162932, -0.00035986260627396405, 0.00027097988640889525, -4.98329900437966e-05, 0.00023899909865576774, 
-0.00025701193953864276, 0.00013722591393161565, -0.00013758346904069185, 0.0003522313782013953, -9.390824561705813e-05, 3.0767914722673595e-05, 0.0001751873642206192, 
-0.00042282301001250744, 0.0003049933002330363, 0.00027804923593066633, 4.876809543929994e-05, -1.1738176908693276e-05, 0.00023648263595532626, 3.871943772537634e-05, 
0.00038380621117539704, -8.35560422274284e-05, 0.0004235431842971593, 8.992880611913279e-05, -6.880122236907482e-05, 0.000527522002812475, -0.00029925425769761205, 
0.0005304708611220121, 0.00029591398197226226, -0.00028774875681847334, 8.768554107518867e-05, -4.402219201438129e-05, 0.00016733446682337672, 0.00039633995038457215, 
-0.00038811747799627483, 0.00023938760568853468, -0.00040841466397978365, 8.426818385487422e-05, 0.00020262235193513334, 7.750141230644658e-05, -0.00023192547087091953, 
5.45595794392284e-05, 0.00010933649900835007, 4.9927861255127937e-05, 0.0001166918154922314, 0.0005401993985287845, 0.00037903417251072824, 0.0005149987409822643, 
0.0005053561180830002, -0.0002533808001317084, 0.00010702498548198491, 0.0004905809182673693, -0.00031851817038841546, -4.705536048277281e-05, -0.0003869944193866104, 
0.00018338594236411154, 0.0004601317341439426, -0.00043526620720513165};

#endif

#endif
