-0.0008910300675779581, -0.002571814227849245, -0.31776225566864014, 0.19792413711547852, -0.20650023221969604, -0.04438101500272751, 0.009050607681274414, -0.23880669474601746, -0.06745082885026932, -0.08903561532497406, 0.07250548154115677, -0.00710656400769949, -0.05345448479056358, 0.060446009039878845, 0.5127167105674744, 0.037735965102910995, 0.37512531876564026, -0.03525983914732933, 0.033316221088171005, -0.268588125705719, 0.03949334844946861, 0.23512165248394012, -0.059015873819589615, 0.4989030659198761, 0.015431160107254982, -0.011576930992305279, -0.09199392050504684, -0.07080953568220139, -0.0805029571056366, 0.05030881613492966, -0.10369067639112473, 0.00908578373491764, 0.002405838342383504, -0.04186762496829033, 0.1916383057832718, -0.0355474054813385, -0.004713911097496748, -0.22866235673427582, -0.046960752457380295, -0.24335098266601562, 0.15541335940361023, 0.4952709972858429, -0.008907739073038101, -0.12923820316791534, 0.4086722135543823, -0.0026466038543730974, 0.15745876729488373, 0.3574533760547638, 0.0003058337897527963, -0.08714040368795395, 0.005495104938745499, 0.10364358127117157, 0.2511095404624939, 0.20323748886585236, -0.31958433985710144, 0.1230614185333252, -0.12399399280548096, 0.01288583967834711, -0.1230946034193039, -0.08930149674415588, -0.3542948365211487, 0.0701787993311882, 0.20041154325008392, -0.1717817783355713, -0.0005235070711933076, -0.05706088989973068, 0.3929454982280731, 0.2517748177051544, 0.012187798507511616, -0.004384630359709263, 0.0474327951669693, 0.13989365100860596, 0.008320597000420094, 0.18316280841827393, 0.10218071937561035, 0.023558130487799644, 0.13022541999816895, -0.22666838765144348, -0.4599468410015106, -0.3449350893497467, -0.02420699968934059, -0.7492883205413818, 0.0034883888438344, 0.1463169902563095, -0.1816517561674118, -0.17799337208271027, -0.005965343676507473, -0.4864838719367981, -0.10969514399766922, 0.03661606088280678, -0.09248270839452744, -0.010334083810448647, 0.18754836916923523, 0.051980167627334595, -0.0930677279829979, -0.09388810396194458, -0.003761660773307085, -0.06173466145992279, 0.13812442123889923, -0.022962413728237152, 0.02060100995004177, -0.07593043893575668, 0.19953985512256622, 0.6459284424781799, -0.00010267803008900955, -0.09607735276222229, -0.023720398545265198, -0.10607098788022995, -0.1730431318283081, 0.021885601803660393, 0.2093588262796402, -0.008715496398508549, 0.00016672910714987665, -0.2497694492340088, -0.18122585117816925, -0.011624136939644814, 0.14677034318447113, 0.02387167327105999, -0.16751985251903534, -0.11772862821817398, -0.07878472656011581, 0.017701944336295128, 0.02563237026333809, -0.12369270622730255, 0.17173634469509125, -0.19706858694553375, -0.07925914227962494, -0.16090992093086243