// Numpy array shape [256, 128]
// Min -2.046407
// Max 1.9882494
// Number of zeros 0

#ifndef TRANSFORMERS_0_LINEAR_2_WEIGHT_H_
#define TRANSFORMERS_0_LINEAR_2_WEIGHT_H_

#ifndef __SYNTHESIS__
float transformers_0_linear_2_weight[32768];
#else
float transformers_0_linear_2_weight[32768] = {-0.8339738845825195, -0.13890153169631958, 0.03146614506840706, -0.020245671272277832, -0.22122927010059357, -0.26894789934158325, 
0.4570918381214142, 0.04439355805516243, -0.009858998470008373, -0.24123038351535797, -0.31474950909614563, -0.5272685289382935, 0.6168453693389893, 
-0.6922365427017212, -0.5895603895187378, 0.03262171521782875, 0.3101081848144531, 0.09065980464220047, 0.12467484176158905, -0.821133553981781, 
-0.16139625012874603, -0.09782388061285019, -0.047235894948244095, -0.31980466842651367, 0.7475804090499878, -0.023272771388292313, 0.09396584331989288, 
-0.5597378611564636, -0.1283154934644699, 0.5148040652275085, -0.44766291975975037, 0.41556668281555176, -0.5203944444656372, 0.19368162751197815, 
-1.042371392250061, -0.08252464979887009, -0.12076732516288757, -0.39306533336639404, -0.23831714689731598, -0.13127826154232025, -0.8875973224639893, 
-0.788873553276062, -0.09398317337036133, -0.8982526659965515, -0.7126206159591675, -0.5278666019439697, -0.7139286994934082, -0.32912757992744446, 
0.3063129782676697, -0.18410484492778778, 0.822891891002655, -0.22953003644943237, 0.520556628704071, -0.29749763011932373, 0.24170099198818207, 
0.4145965278148651, 0.591393768787384, 0.2134987711906433, -0.9659491777420044, 0.14287002384662628, -0.1270417869091034, -0.44286173582077026, 
-0.2325674146413803, -0.7745633125305176, -0.15151870250701904, -0.0923038199543953, -0.23940324783325195, -0.11895499378442764, -0.14217780530452728, 
0.25812026858329773, -0.15653066337108612, -0.07127028703689575, -0.6798433065414429, 0.3506758511066437, -0.2990855276584625, -0.10965543985366821, 
-0.3505364656448364, 0.30504104495048523, 0.18499702215194702, 0.3001977503299713, 0.4609527885913849, 0.7122608423233032, 0.15254570543766022, 
-0.05397516489028931, 0.04283330217003822, -0.13776694238185883, -0.2461511790752411, 0.10519419610500336, -0.22922980785369873, 0.1480712890625, 
0.0014374374877661467, -0.5430242419242859, -0.4115535318851471, -0.4288955628871918, -0.2831307649612427, 0.13454295694828033, 0.2657475769519806, 
0.07693389803171158, -0.1067187562584877, -0.28854066133499146, -0.2579437792301178, -0.46164706349372864, 0.13717910647392273, -0.15955081582069397, 
-0.42749980092048645, 0.09034037590026855, 0.08262040466070175, -0.00024855491938069463, 0.35902780294418335, -0.3025641441345215, 0.23903843760490417, 
0.2844606339931488, 0.18548119068145752, 0.08661385625600815, 0.07386864721775055, 0.5807650685310364, -0.8459969162940979, 0.364859402179718, 
0.34310781955718994, -0.08978026360273361, 0.50327467918396, -0.23037385940551758, 0.323285847902298, -0.11009766906499863, -0.4793168306350708, 
-0.1733633130788803, 0.13295258581638336, 0.19928443431854248, 0.4387586712837219, 0.007866066880524158, -0.42869576811790466, 0.008710458874702454, 
0.20726408064365387, -0.2857562005519867, 0.6930080652236938, 0.045001834630966187, -0.09244877845048904, 0.30986127257347107, 0.08724239468574524, 
0.16483867168426514, -0.4568716287612915, 0.10393816232681274, 0.09614226222038269, 0.582774817943573, -0.2951018214225769, -0.018600622192025185, 
-0.12650668621063232, -0.6504945755004883, 0.08892159909009933, -0.42900657653808594, -0.10756928473711014, -0.2653336226940155, -0.05715766176581383, 
0.12311575561761856, 0.4643515348434448, 0.23037022352218628, 0.36766424775123596, -0.38396599888801575, 0.01667867600917816, 0.19393721222877502, 
0.49769699573516846, 0.2404395341873169, 0.22066867351531982, -0.6048098206520081, 0.2951688766479492, -0.013034363277256489, -1.0288302898406982, 
-0.498801052570343, 0.3527149260044098, -0.09294819086790085, -0.01930857263505459, 0.004965072497725487, 0.26875993609428406, 0.42811065912246704, 
0.038683004677295685, -0.2078486680984497, -0.054214078933000565, 0.5038818120956421, -0.2831888198852539, -0.35566583275794983, -0.001837769988924265, 
0.21622292697429657, -0.1290554702281952, 0.15633898973464966, -0.32218462228775024, 0.3396777808666229, 0.12013750523328781, -0.10647302865982056, 
0.1258234828710556, 0.3499821722507477, -0.017900651320815086, -0.4511279761791229, 0.5069472789764404, 0.1271592080593109, 0.4238036572933197, 
-0.15922869741916656, -0.06754451245069504, -0.14607851207256317, 0.27522870898246765, -0.19390158355236053, 0.7215948700904846, -0.19602349400520325, 
-0.09718089550733566, 0.032532840967178345, 0.2001255601644516, 0.24972303211688995, 0.003184853820130229, 0.3422657251358032, 0.34976592659950256, 
0.23790955543518066, -0.31004488468170166, 0.724058985710144, 0.5813501477241516, -0.05989125370979309, -0.36987990140914917, 0.30677923560142517, 
0.09737083315849304, -0.2667264938354492, 0.1015363484621048, -0.17551010847091675, -0.2721516489982605, 0.385192334651947, -0.043294064700603485, 
0.011566510424017906, -0.39060404896736145, 0.2877330780029297, 0.19989994168281555, 0.4166809022426605, 0.4753279685974121, 0.19312386214733124, 
0.24886111915111542, 0.09057888388633728, 0.47206175327301025, -0.01438868697732687, -0.18797466158866882, 0.5103450417518616, -0.1142328679561615, 
0.25428465008735657, -1.5429373979568481, 0.39434999227523804, -0.1543731987476349, 0.11534382402896881, -0.11783082783222198, -0.268270879983902, 
0.004315242636948824, -0.41295120120048523, 0.12433096021413803, 0.30948925018310547, -0.08477387577295303, 0.11016131937503815, 0.32607272267341614, 
-0.20174048840999603, 0.7619102001190186, 0.7822945713996887, -0.27774256467819214, 0.34355515241622925, 0.19169661402702332, -0.2669411301612854, 
0.19237224757671356, 0.004963456187397242, 0.680622935295105, 0.19443491101264954, 0.1283801794052124, -0.4647284746170044, -0.12892358005046844, 
0.19053085148334503, 0.1311636120080948, 0.5842568278312683, 0.9074572920799255, 0.17299775779247284, -0.1637219339609146, 0.09652631729841232, 
-0.4594525098800659, -0.3181745707988739, 0.1907825618982315, 0.07364919036626816, 0.1108555793762207, 0.0036682297941297293, -0.413361519575119, 
0.3783123791217804, -0.200992614030838, -0.10129758715629578, -0.22651676833629608, 0.31909093260765076, 0.19230973720550537, 0.7226296067237854, 
0.2274320423603058, -0.21478378772735596, -0.15841227769851685, -0.167739138007164, 0.3176305294036865, 0.8926960229873657, -0.2782571613788605, 
-0.15387654304504395, 1.2253893613815308, -0.11082973331212997, 0.3187141418457031, 0.09798841178417206, 0.4130360186100006, -0.12781047821044922, 
0.11994664371013641, 0.17760209739208221, 0.017525864765048027, -0.2320098578929901, -0.4970642328262329, -0.055186159908771515, -0.11622495949268341, 
0.4087145924568176, -0.22025787830352783, 0.23255932331085205, -0.043468620628118515, -0.28506940603256226, -0.24900968372821808, 0.05548664927482605, 
0.41683295369148254, -0.3652871251106262, 0.03757540136575699, 0.05459234490990639, 0.18722303211688995, 0.3901635408401489, 0.13200385868549347, 
0.022337686270475388, 0.29971498250961304, -0.32507359981536865, -0.2555945813655853, -0.5423973202705383, 0.22931618988513947, -0.332909494638443, 
0.467416375875473, 0.11221259832382202, -0.2623974680900574, 0.12738852202892303, -0.1043516993522644, -0.2744719386100769, -0.27755206823349, 
-0.34398695826530457, -0.01963336206972599, -0.7716380953788757, -0.08906835317611694, 0.026191767305135727, -0.19875626266002655, 0.21633213758468628, 
0.26334139704704285, 0.04790569841861725, 0.2965424358844757, 0.198022723197937, 0.09177147597074509, 0.14939247071743011, -0.07767084985971451, 
-0.3224945664405823, -0.30744028091430664, 0.31307560205459595, -0.11147444695234299, -0.2341955155134201, -0.2554689049720764, 0.20959189534187317, 
-0.22672337293624878, 0.03963014483451843, -0.1801052689552307, -0.11543073505163193, 0.17624707520008087, -0.048037271946668625, -0.4926895201206207, 
-0.37018394470214844, -0.24657508730888367, 0.033995162695646286, -0.47235897183418274, 0.48967069387435913, 0.011443335562944412, -0.307532399892807, 
-0.23603488504886627, -0.3034457266330719, -0.04081781581044197, -0.29914581775665283, -0.44170647859573364, -0.34314191341400146, -0.04993549734354019, 
0.08253178745508194, 0.14604797959327698, 0.23654647171497345, 0.22474707663059235, -0.22346632182598114, -0.18795235455036163, -0.22588449716567993, 
-0.2051476091146469, 0.21151874959468842, 0.3063858449459076, -0.24553312361240387, 0.35411977767944336, 0.08048835396766663, 0.17639771103858948, 
-0.16930170357227325, 0.17307108640670776, 0.23451225459575653, 0.15000034868717194, 0.2759302854537964, 0.36203283071517944, 0.38312265276908875, 
-0.5822734236717224, 0.15485075116157532, -0.5542294979095459, -0.27146947383880615, -0.19999128580093384, 0.00531664676964283, -0.07876641303300858, 
-0.2022729516029358, 0.1480720341205597, 0.1634415090084076, 0.03638263791799545, 0.3062993586063385, 0.02285945974290371, 0.3377496600151062, 
0.18457481265068054, -0.198815256357193, 0.21386505663394928, -0.17549817264080048, -0.11052994430065155, -0.11665601283311844, 0.3519211709499359, 
-0.09265585243701935, -0.010255200788378716, 0.378488153219223, -0.10583268105983734, 0.007478357758373022, 0.21017485857009888, 0.0663897842168808, 
0.11929061263799667, 0.16866107285022736, -0.05325065553188324, 0.3373385965824127, 0.1085861548781395, 0.10514765977859497, 0.17641401290893555, 
0.08796236664056778, -0.2817801237106323, -0.0105373440310359, -0.18195907771587372, 0.14377538859844208, -0.08296629786491394, -0.20038585364818573, 
-0.48496246337890625, -0.13190579414367676, -0.055572714656591415, 0.1529185026884079, 0.19460047781467438, -0.2571823000907898, 0.22240005433559418, 
0.28883492946624756, -0.17144860327243805, 0.06183261424303055, -0.03618805482983589, 0.04348280280828476, 0.07095267623662949, -0.29995205998420715, 
0.11055216938257217, -0.14434359967708588, -0.45993199944496155, -0.28592923283576965, 0.15067124366760254, -0.14219091832637787, 0.18756788969039917, 
-0.05471377447247505, 0.06195666640996933, 0.06807892769575119, -0.4121871292591095, -0.3245193064212799, 0.052450716495513916, -0.3307860195636749, 
0.2364775687456131, -0.008366450667381287, -0.010221092030405998, 0.18713106215000153, 0.2883710563182831, -0.1905023455619812, -0.13054467737674713, 
0.2240576595067978, 0.15738433599472046, 0.03127140924334526, 0.028180193156003952, 0.1194479912519455, -0.03373117372393608, -0.19372116029262543, 
0.006173876114189625, 0.039735205471515656, -0.11061113327741623, -0.10447784513235092, -0.3074168562889099, 0.01803775131702423, 0.20392140746116638, 
0.31076303124427795, -0.21989019215106964, -0.35634762048721313, -0.02297215722501278, -0.18663230538368225, 0.37028056383132935, 0.14845028519630432, 
-0.34184762835502625, 0.045284539461135864, 0.15849654376506805, 0.10503843426704407, 0.37755778431892395, 0.02755070850253105, 0.009953681379556656, 
0.07838074117898941, -0.14658115804195404, 0.0579676516354084, -0.28520941734313965, 0.11715087294578552, 0.007373518776148558, -0.09100565314292908, 
-0.2599816620349884, -0.13346511125564575, 0.3281311094760895, 0.068016916513443, 0.20977479219436646, 0.017595075070858, 0.4082220494747162, 
0.009058003313839436, 0.04559886083006859, 0.11384833604097366, 0.12570570409297943, 0.14108966290950775, -0.16067658364772797, 0.046443160623311996, 
0.2643449902534485, 0.13091568648815155, -0.19173948466777802, 0.36918097734451294, -0.20371752977371216, 0.02228342927992344, -0.13256941735744476, 
0.17794914543628693, -0.11119604855775833, 0.06106676906347275, -0.06415416300296783, 0.35199952125549316, -0.07736290991306305, -0.0809650644659996, 
-0.05778403580188751, 0.11850199103355408, 0.2476084679365158, -0.30191677808761597, -0.007620073389261961, -0.034049712121486664, 0.2328321933746338, 
0.0953836590051651, 0.1931760460138321, 0.2362179011106491, 0.07393525540828705, 0.28977644443511963, -0.2566341757774353, -0.20493555068969727, 
0.2816264033317566, 0.36001625657081604, 0.0939793661236763, 0.266406774520874, 0.10318050533533096, 0.14683827757835388, -0.021110352128744125, 
0.10349024087190628, -0.005366658326238394, 0.0415460430085659, -0.2841634452342987, 0.05313209071755409, -0.3273831903934479, 0.2729916572570801, 
-0.044716496020555496, -0.17691725492477417, -0.2857351005077362, -0.05179377645254135, 0.2208808809518814, -0.12097327411174774, 0.15963704884052277, 
0.09572980552911758, 0.35038793087005615, 0.26095011830329895, 0.09665144234895706, 0.3296407163143158, 0.18231305480003357, 0.09590461850166321, 
0.18097715079784393, -0.28639301657676697, 0.053135160356760025, -0.05098486691713333, -0.30054646730422974, -0.14316833019256592, 0.2695172131061554, 
0.11833477765321732, 0.12533441185951233, 0.03609941154718399, 0.013606350868940353, 0.1935025304555893, -0.048873335123062134, -0.07602769136428833, 
0.31960928440093994, -0.10352165251970291, 0.07360929995775223, -0.08891293406486511, 0.19367949664592743, 0.2929028272628784, 0.14446569979190826, 
-0.08138525485992432, 0.05991193279623985, 0.10307615250349045, 0.03715295344591141, 0.13443484902381897, 0.07686770707368851, 0.12419065833091736, 
0.11146799474954605, -0.09883392602205276, 0.03190552070736885, 0.32356157898902893, 0.0601600743830204, -0.0841875672340393, -0.04709920287132263, 
0.20294462144374847, 0.07936640083789825, 0.1403515785932541, 0.20685137808322906, -0.05817297473549843, 0.15565787255764008, 0.06470001488924026, 
-0.266194611787796, -0.004053222946822643, -0.14549553394317627, -0.1617022603750229, 0.0899304524064064, -0.042482905089855194, 0.3192104697227478, 
-0.01818506233394146, 0.17474880814552307, 0.2564098536968231, -0.2237280309200287, -0.07096034288406372, -0.22184976935386658, 0.266920804977417, 
-0.020547138527035713, -0.05484946817159653, 0.039461422711610794, 0.172821044921875, 0.29341864585876465, 0.25828537344932556, -0.528523325920105, 
-0.3096603751182556, 0.310600221157074, 0.2965031564235687, -0.3195844292640686, 0.22631673514842987, 0.23178525269031525, 0.3454234004020691, 
0.37836936116218567, 0.6735601425170898, -0.09779530763626099, 0.48753225803375244, -0.6160569787025452, -0.3120203912258148, -0.5184958577156067, 
-0.1932869553565979, -0.15291832387447357, 0.3659054934978485, 0.8168255686759949, -0.15565957129001617, -0.27418053150177, -0.46641722321510315, 
-0.548715353012085, -0.2355950027704239, 0.003740388434380293, 0.8565983176231384, 0.08371833711862564, -0.5536732077598572, 0.28344687819480896, 
-0.2986333966255188, -0.03676409274339676, -0.18144665658473969, 0.1935368776321411, -0.4861278533935547, 0.3064781427383423, -0.027121014893054962, 
-0.7545391321182251, 0.21823376417160034, -0.09995350241661072, 0.49269193410873413, 0.14178796112537384, 0.49692320823669434, 0.2774674594402313, 
0.1500919908285141, 0.21400095522403717, 0.7358883619308472, -0.40023618936538696, 0.26599809527397156, -0.26020440459251404, 0.4502500295639038, 
-0.7298682332038879, 0.49517622590065, 0.09262207895517349, -0.8784402012825012, -0.38278821110725403, -0.3185528814792633, -0.33520328998565674, 
-0.040848784148693085, -0.2844887375831604, 0.5243808627128601, 0.5598401427268982, 0.6599146127700806, -0.1328161209821701, 0.3832698464393616, 
0.5228174924850464, 0.44929635524749756, 0.01298951730132103, -0.027769392356276512, 0.08911992609500885, 0.3074142336845398, 0.08487063646316528, 
-0.11721218377351761, -0.1234244704246521, 0.305457204580307, 0.7735698223114014, 0.07786551862955093, -0.3623197376728058, -0.31660979986190796, 
-0.1687512844800949, -0.2146584391593933, -0.12414991855621338, -0.5886974334716797, -0.062331005930900574, 0.38455283641815186, 0.49757686257362366, 
0.42710211873054504, 0.5348979830741882, -0.032930564135313034, 0.5584678649902344, 0.6889958381652832, -0.536855161190033, 0.5081144571304321, 
0.2707735002040863, -0.07387888431549072, -0.22333583235740662, -0.06502178311347961, 0.0779876708984375, -0.34819692373275757, -0.40172258019447327, 
0.3915117681026459, 0.42699354887008667, 0.28341010212898254, -0.5722062587738037, -0.43848738074302673, -0.04201255366206169, -0.07261957228183746, 
-0.38996580243110657, 0.08984293788671494, 0.0042504193261265755, 0.10409015417098999, -0.32078611850738525, 0.2758999466896057, 0.12335368990898132, 
-0.15300945937633514, 0.09455382823944092, -0.13001927733421326, -0.09369261562824249, -0.15478669106960297, -0.1360854208469391, 0.5580955147743225, 
-0.400240421295166, -0.10378695279359818, 0.22946663200855255, 0.13554397225379944, -0.0812823474407196, -0.12885446846485138, -0.5621134042739868, 
0.3207480013370514, -0.6321814656257629, 0.4975583553314209, 0.1474740207195282, 0.1866120994091034, -0.1251225620508194, -0.12640875577926636, 
0.07421223819255829, -0.10954470932483673, 0.18541760742664337, 0.2245595008134842, -0.2715359032154083, -0.6525121927261353, -0.02789686620235443, 
-0.4283711314201355, 0.21979022026062012, 0.07894298434257507, 0.3982304632663727, -0.2754858136177063, 0.047237809747457504, 0.2590552270412445, 
0.2932046949863434, -0.8722498416900635, -0.0003644215175881982, 0.13813205063343048, -0.2235954850912094, -0.01868535950779915, -0.40500661730766296, 
-0.2343081533908844, -0.019895877689123154, 0.40266576409339905, -0.6877274513244629, -0.06861820816993713, -0.5779205560684204, -1.2066855430603027, 
-0.3018127381801605, -0.17559529840946198, -0.7198105454444885, -0.04494281858205795, -0.750673770904541, -0.9155761003494263, -0.01951451785862446, 
-0.3081076145172119, -0.6266146302223206, -0.4656854569911957, -0.5215839147567749, -0.2679463028907776, 0.37457725405693054, 0.155003622174263, 
0.3502284586429596, 0.25724029541015625, -0.04937957972288132, -0.7019927501678467, 0.6211487650871277, 0.3542692959308624, 0.22425316274166107, 
0.12023767828941345, -0.26773178577423096, 0.21137475967407227, -0.12426648288965225, -0.10386519134044647, -0.2481437623500824, -0.8644461631774902, 
0.7759425640106201, 0.10492350161075592, 0.5716750621795654, -0.30964910984039307, -0.4296792447566986, 0.4262508153915405, 0.18652938306331635, 
0.3069118857383728, -0.4149909019470215, 0.09084828197956085, -0.40471896529197693, -0.049182455986738205, -0.40048468112945557, 0.10336409509181976, 
0.06071123108267784, 0.07238680869340897, 0.5557478666305542, 0.21447688341140747, 0.14057514071464539, 1.1348320245742798, -0.22352783381938934, 
0.4774961769580841, -0.2462829053401947, 0.5488641262054443, -0.7977451682090759, 0.6001589894294739, -0.15347172319889069, -0.34727177023887634, 
-1.1285399198532104, -0.06908490508794785, 0.1361682265996933, 0.41465452313423157, 0.3704858720302582, 0.12052959203720093, -0.26127296686172485, 
-0.18412864208221436, -0.03586096689105034, -0.07886859029531479, 0.6875696182250977, -0.2062191218137741, -0.4112968146800995, -1.0305408239364624, 
0.2579776644706726, 0.15559817850589752, -9.005132596939802e-05, -0.30773407220840454, -0.6146296858787537, -0.4705579876899719, 0.5366509556770325, 
0.2393464744091034, 0.46771353483200073, 0.2274971455335617, -0.7495841383934021, 0.11415378749370575, 0.09005416929721832, 0.12970660626888275, 
0.6014400124549866, -0.700308620929718, 0.9819242358207703, -0.4636971354484558, 0.2084590047597885, 0.11959412693977356, 0.42635250091552734, 
0.08851776272058487, -0.12494980543851852, -0.0591292679309845, 0.25664564967155457, 0.05388526991009712, 0.19578832387924194, -0.22256886959075928, 
-0.23685681819915771, 0.05539345741271973, 0.004144439473748207, -0.13839174807071686, -0.20637579262256622, -0.47494345903396606, -0.08679729700088501, 
-0.21745382249355316, 0.38887810707092285, -0.07859418541193008, 0.40139490365982056, 0.2814968228340149, 0.04449861869215965, -0.6690410375595093, 
-0.4743172228336334, -0.45070216059684753, 0.35067108273506165, -0.5209725499153137, 0.4240792393684387, 0.501246452331543, 0.009342936798930168, 
-0.22477366030216217, 0.35890159010887146, -0.06331827491521835, -0.197471484541893, 0.4623609781265259, -0.12757329642772675, 0.3295060396194458, 
-0.24042165279388428, -0.151723712682724, -0.10485024005174637, -0.09086775034666061, -0.6709107756614685, 0.1764906346797943, -0.3708978593349457, 
-0.547366738319397, -0.13521260023117065, -0.278306245803833, -0.7623125314712524, -0.09664515405893326, -0.45665666460990906, -0.7278198003768921, 
0.7534157037734985, 0.11765462160110474, 0.24896302819252014, -0.21069185435771942, 0.09402833133935928, -0.5141906142234802, 0.20420387387275696, 
0.028878239914774895, 0.4007398784160614, 0.2612694799900055, 0.1283193826675415, 0.5006892085075378, -0.05604422464966774, -0.3745868504047394, 
-0.4892559051513672, -0.5555099844932556, 0.11529121547937393, -0.30457037687301636, 0.08416756242513657, -0.422085702419281, -0.019697539508342743, 
0.16118009388446808, -0.08540111780166626, -0.17336390912532806, 0.132567897439003, 0.25750088691711426, -0.29440099000930786, -0.060766223818063736, 
-0.4342193901538849, 0.3192969262599945, 0.25804582238197327, 0.14226050674915314, 0.3874863386154175, 0.8335195183753967, 0.020655658096075058, 
0.24078437685966492, 0.23593497276306152, -0.1428496539592743, -0.6897166967391968, 0.26506507396698, 0.45189565420150757, 0.003358536632731557, 
-0.09987988322973251, -0.20082594454288483, -0.02045726217329502, -0.413615345954895, -0.5978413224220276, 0.05527966842055321, 0.2756786644458771, 
0.03176472708582878, -0.25393563508987427, 0.1458219587802887, 0.05790307745337486, -0.020437728613615036, 0.4473878741264343, -0.28228217363357544, 
-0.06794916093349457, -0.014067196287214756, -0.04847824573516846, 0.08116268366575241, 0.12526635825634003, -0.07104714959859848, -0.4389815926551819, 
0.0401027612388134, 0.16275328397750854, 0.11737599968910217, -0.05382794886827469, 0.016485555097460747, -0.0754280835390091, -0.002658116165548563, 
0.013157720677554607, 0.15065790712833405, 0.30205604434013367, -0.30563607811927795, 0.24862125515937805, -0.08648934215307236, 0.201788067817688, 
0.18779468536376953, 0.1493685096502304, 0.1647110879421234, -0.4436264932155609, -0.0008065688889473677, 0.12996375560760498, -0.39015185832977295, 
-0.011198751628398895, 0.3436686396598816, -1.091461181640625, 0.20677980780601501, 0.041733402758836746, 0.20125934481620789, 0.4067528545856476, 
0.5708493590354919, -1.3105615377426147, -0.09486325085163116, -0.5221930146217346, -0.9053159356117249, -0.5283190608024597, -0.2175159752368927, 
-0.18046130239963531, 0.38566869497299194, 0.35209596157073975, -0.12299320101737976, -0.5026247501373291, -0.020736942067742348, 0.1350415050983429, 
-0.1424640715122223, -0.414558470249176, 0.6015971899032593, -0.5810810923576355, -0.14624270796775818, 0.24898719787597656, -0.0929243341088295, 
-0.10457779467105865, -0.07506237924098969, 0.4277098476886749, -0.677233874797821, 0.09796146303415298, 0.10496753454208374, -0.6015255451202393, 
0.31696394085884094, -0.10628169775009155, 0.17373540997505188, -0.12636545300483704, 0.4352165162563324, 0.3109845817089081, 0.05871647968888283, 
0.26455584168434143, 0.8215146064758301, -0.5140734314918518, 0.6935692429542542, -0.9442847967147827, 0.4365989565849304, -0.8907110095024109, 
0.17842283844947815, 0.20886743068695068, -0.0787820890545845, -0.6716412305831909, -0.6603816151618958, -0.6662645936012268, -0.05973266065120697, 
0.21657919883728027, 0.34927260875701904, 0.38715511560440063, 0.6292088627815247, 0.37479692697525024, 0.7511609792709351, 0.5711785554885864, 
0.21327900886535645, -0.10025390237569809, -0.02735118754208088, 0.34754660725593567, 0.07069182395935059, -0.19445408880710602, -0.28653717041015625, 
-0.2736164927482605, 0.007294295821338892, 0.4912835359573364, 0.03918604552745819, -0.38820362091064453, -0.4885469973087311, -0.8112116456031799, 
-0.8844830393791199, -0.24105922877788544, -0.5008338689804077, 0.4796375334262848, 0.46456992626190186, 0.6521325707435608, 0.34587010741233826, 
-0.07844344526529312, 0.07079342007637024, 0.18645396828651428, 0.4524535834789276, -0.43617454171180725, 1.069433331489563, 0.22015905380249023, 
0.12495654821395874, -0.3096490204334259, -0.06077837198972702, 0.17871898412704468, -0.13527116179466248, -0.34727272391319275, 0.45879065990448, 
-0.04041983187198639, 0.20451705157756805, 0.16295243799686432, -0.2480379343032837, -0.08855099976062775, 0.10156036168336868, -0.4374038577079773, 
0.5708020925521851, 0.12825283408164978, -0.6249850392341614, -0.6976091265678406, -0.30731046199798584, 0.21068714559078217, -0.5445587635040283, 
0.1799224317073822, -0.292392373085022, -0.010229015722870827, 0.3836599886417389, -0.20206259191036224, 0.007960050366818905, -0.27784040570259094, 
0.17764773964881897, 0.5130146145820618, 0.22805136442184448, -0.4324665665626526, -0.5344094634056091, 0.4956884980201721, -0.12273245304822922, 
0.15334554016590118, 0.4295262396335602, -0.12677255272865295, 0.10376711934804916, -0.1588110476732254, -0.17617160081863403, 0.009711557999253273, 
0.05787881091237068, -0.42769044637680054, -0.43588873744010925, 1.0056123733520508, -0.14933302998542786, -0.18413203954696655, -0.18982282280921936, 
0.7345778942108154, 0.2477988600730896, -0.013591531664133072, -1.6025832891464233, -0.43896716833114624, 0.16946138441562653, 0.11066871881484985, 
-0.3963368833065033, 0.17339719831943512, -0.10515705496072769, 0.5408780574798584, -0.6602733135223389, 0.10626614093780518, 1.964452862739563, 
-0.47921326756477356, 0.2225285768508911, 0.3684600591659546, 0.22053763270378113, -0.5277640223503113, 1.372772455215454, 0.10729864239692688, 
-0.4990066885948181, 0.8643752336502075, -0.827269434928894, -0.10008574277162552, -0.31925299763679504, -0.04868267849087715, -0.8864583373069763, 
-0.5437191128730774, -0.15980827808380127, -0.6961581110954285, -0.9796141982078552, 1.1465964317321777, -0.5415823459625244, 0.4261808693408966, 
-0.702003002166748, 0.1329679638147354, -0.2561941146850586, -0.18393102288246155, 0.42315909266471863, 0.4337480962276459, -0.027638161554932594, 
-1.162601351737976, 0.14053188264369965, -0.770596444606781, 0.05470016598701477, -0.953681468963623, -0.33690550923347473, -0.21014559268951416, 
-0.33588504791259766, -0.21803858876228333, 0.26445239782333374, -0.004535458516329527, 0.19744789600372314, -0.20918147265911102, 0.49787041544914246, 
0.7714741230010986, -0.01271396316587925, -0.060473088175058365, 0.012705757282674313, -0.5793797373771667, 0.24709659814834595, 0.27763631939888, 
1.0707566738128662, 0.7423762679100037, 0.5571902990341187, -0.3233913779258728, -0.13078518211841583, -0.281466543674469, -0.2678816318511963, 
-0.02770053595304489, -0.565556526184082, -0.16571812331676483, 0.4742060601711273, 0.6887094378471375, 0.27005818486213684, 0.09982271492481232, 
-0.47164419293403625, -0.039611127227544785, -0.12600289285182953, 0.31681400537490845, 0.46943262219429016, 0.1274285912513733, -0.14568033814430237, 
-0.18430198729038239, 0.1112094521522522, -0.09958022832870483, 0.4989117681980133, -0.7524306774139404, 0.635388195514679, -0.03618135675787926, 
-0.1402519792318344, 0.27826082706451416, -0.15474696457386017, -0.1124519631266594, 1.10818350315094, -0.14793546497821808, 0.12118451297283173, 
0.1479036659002304, 0.4452178478240967, -0.22009924054145813, 0.33538874983787537, 0.24970020353794098, -0.48586228489875793, 0.33422762155532837, 
-0.016933873295783997, 0.35194090008735657, 0.12909924983978271, 0.48586130142211914, 0.007174353115260601, -0.08402302116155624, 0.17508310079574585, 
-0.25849878787994385, 0.4260604977607727, 0.30451712012290955, -0.21730181574821472, 0.2282661646604538, -0.02827618457376957, -0.03242552652955055, 
-0.060650650411844254, -0.03018638677895069, 0.29140764474868774, 0.15888972580432892, 0.1886163055896759, 0.2991192638874054, 0.36751776933670044, 
-0.5744922757148743, 0.21949069201946259, -0.17592531442642212, -0.250012069940567, -0.16306468844413757, -0.1284797340631485, -0.12075093388557434, 
-0.044451452791690826, 0.12107761949300766, 0.3504968285560608, 0.030796702951192856, 0.3068852126598358, -0.08230353891849518, 0.005170809105038643, 
0.19820474088191986, 0.07975392788648605, 0.2932487428188324, -0.25220057368278503, 0.1446588635444641, -0.19483642280101776, 0.27884137630462646, 
0.39466047286987305, 0.030929695814847946, 0.3726615607738495, 0.3840665817260742, 0.016805993393063545, 0.36684370040893555, 0.24212194979190826, 
0.16457118093967438, 0.25773659348487854, 0.024858813732862473, 0.09141071885824203, 0.23487873375415802, 0.02329431101679802, 0.13345766067504883, 
0.15670599043369293, -0.46558818221092224, -0.11803608387708664, -0.13416153192520142, 0.026156151667237282, -0.20944233238697052, -0.24234603345394135, 
-0.4858226478099823, -0.5239004492759705, 0.0526120662689209, 0.1785428673028946, 0.21567825973033905, -0.07671269029378891, 0.1892542690038681, 
0.11959409713745117, -0.1273578703403473, 0.010525532998144627, -0.07506632804870605, 0.03111753612756729, 0.05412532389163971, -0.2914430797100067, 
0.04348183050751686, -0.11006754636764526, -0.5241051912307739, -0.45243123173713684, 0.31947222352027893, -0.3791523873806, 0.2409151792526245, 
-0.09144239872694016, -0.025119584053754807, 0.12415481358766556, -0.40609151124954224, 0.0056795040145516396, -0.01128116250038147, -0.35235756635665894, 
0.0996331125497818, -0.026895754039287567, 0.08271169662475586, 0.1379936933517456, 0.12976619601249695, -0.22765019536018372, -0.19265638291835785, 
0.3465122878551483, 0.20369863510131836, 0.12851223349571228, 0.13388840854167938, 0.11317214369773865, -0.02898719161748886, -0.07518520206212997, 
-0.025074703618884087, -0.038527969270944595, -0.15189096331596375, -0.28054550290107727, -0.2642974853515625, -0.07545658946037292, 0.11300253123044968, 
0.11608626693487167, -0.031952377408742905, -0.4092772603034973, 0.2843913435935974, -0.2520084083080292, 0.33192312717437744, 0.12940403819084167, 
-0.3922082781791687, -0.13155147433280945, -0.0793679803609848, 0.11810628324747086, 0.36028268933296204, -0.05320418253540993, 0.04336441680788994, 
0.10394758731126785, -0.3312501609325409, -0.05311506986618042, -0.3615896999835968, 0.008878235705196857, -0.03488408401608467, -0.10281944274902344, 
-0.21603985130786896, -0.1914660632610321, 0.24429824948310852, -0.0030269715934991837, 0.2861124277114868, 0.03469648212194443, 0.5935885310173035, 
0.12862268090248108, 0.20633237063884735, 0.05626450106501579, 0.2571643590927124, 0.11006734520196915, -0.101381815969944, -0.01259780116379261, 
0.5647755861282349, -0.09836392104625702, -0.05711549147963524, 0.1593281626701355, 0.034842610359191895, 0.2528177499771118, 0.11531046032905579, 
-0.07616474479436874, -0.08750169724225998, 0.0026280637830495834, -0.12318931519985199, 0.14535552263259888, -0.09646826982498169, 0.40143948793411255, 
0.10160315781831741, -0.047084126621484756, 0.21331632137298584, 0.3126301169395447, 0.06402837485074997, -0.013770801946520805, -0.11193995177745819, 
-0.0955783799290657, 0.30017417669296265, 0.4206313490867615, -0.09572967141866684, -0.11410311609506607, 0.07540955394506454, -0.025006504729390144, 
0.15096445381641388, -0.02955525740981102, 0.15432293713092804, 0.12241578102111816, -0.18029704689979553, 0.20853203535079956, 0.03754039108753204, 
-0.2895730137825012, -0.05446646735072136, 0.07614216953516006, -0.24677574634552002, -0.002560717286542058, -0.0891159400343895, -0.04832015186548233, 
0.004053760785609484, -0.06017935276031494, -0.16721665859222412, -0.1810535490512848, 0.24461202323436737, -0.09914856404066086, 0.23185785114765167, 
-0.3962618112564087, -0.030282318592071533, 0.2922547459602356, 0.08558724820613861, 0.2613662779331207, 0.07647613435983658, -0.41294246912002563, 
0.17998665571212769, -0.5314334034919739, 0.17893345654010773, 0.03095528669655323, -0.19274410605430603, -0.24566376209259033, 0.07974115014076233, 
-0.1627272367477417, 0.11395231634378433, -0.11322823166847229, 0.27234014868736267, 0.28142866492271423, -0.016862813383340836, 0.20864461362361908, 
-0.1402544528245926, 0.15194518864154816, 0.013809394091367722, -0.14603345096111298, 0.2152608186006546, 0.0871288925409317, 0.07470917701721191, 
-0.018124833703041077, 0.07327565550804138, 0.3779746890068054, 0.02875818870961666, 0.20156171917915344, 0.31814509630203247, 0.40990811586380005, 
0.0943261981010437, -0.15597957372665405, -0.06927715986967087, 0.03084379807114601, 0.16646233201026917, -0.21398907899856567, 0.15012361109256744, 
-0.050709325820207596, 0.043024592101573944, 0.21876613795757294, -0.1160210520029068, -0.1533186137676239, 0.08521249890327454, 0.022133754566311836, 
-0.28502514958381653, -0.03852960839867592, 0.0409616120159626, -0.12026990950107574, -0.050859235227108, -0.07800343632698059, 0.43637585639953613, 
0.05451154336333275, 0.04427298158407211, 0.17483071982860565, -0.08405841141939163, -0.04390684515237808, -0.07112844288349152, 0.5548783540725708, 
0.18825259804725647, -0.2607879638671875, 0.048622939735651016, -0.030098093673586845, 0.33510226011276245, -0.16024816036224365, 0.39142799377441406, 
-0.18346144258975983, 0.13572393357753754, 0.006741387769579887, -0.261134535074234, -0.14630988240242004, -0.21213020384311676, 0.21063990890979767, 
0.08219369500875473, 0.1829705387353897, 0.09280058741569519, 0.025599120184779167, 0.22153735160827637, 0.33098897337913513, -0.15044096112251282, 
-0.1444588005542755, -0.08427015691995621, 0.14163300395011902, -0.012352744117379189, -0.19356036186218262, -0.03881063312292099, 0.25052130222320557, 
-0.16500629484653473, 0.02305423654615879, -0.08121315389871597, 0.39389705657958984, 0.353073388338089, 0.3772522509098053, -0.09111769497394562, 
-0.060022883117198944, 0.4043498933315277, 0.18423178791999817, 0.11824797093868256, 0.13952340185642242, 0.3111529052257538, 0.008553214371204376, 
0.3193948566913605, -0.24051129817962646, 0.4950377643108368, 0.17237518727779388, 0.19170917570590973, 0.12732163071632385, 0.25047585368156433, 
0.4405076503753662, 0.06708423048257828, 0.16287153959274292, -0.3252602219581604, 0.3535505533218384, -0.12117484211921692, -0.13232533633708954, 
-0.5131157636642456, 0.13224248588085175, 0.10069257020950317, 0.08611221611499786, -0.27691924571990967, 0.16001500189304352, -0.45641812682151794, 
0.1356649249792099, -0.15661194920539856, -0.24469934403896332, 0.12691202759742737, 0.29892224073410034, 0.14036020636558533, -0.2690596580505371, 
-0.06070031598210335, 0.6277099847793579, 0.0513264462351799, 0.015889013186097145, 0.06137768179178238, -0.1302017718553543, 0.24963320791721344, 
-0.11817337572574615, -0.004931688774377108, 0.13801605999469757, 0.06577488780021667, 0.10464593768119812, 0.0002090596390189603, -0.47036466002464294, 
-0.10002448409795761, -0.31822097301483154, -0.2969668507575989, -0.03993022069334984, 0.3012120723724365, 0.10689380764961243, 0.09920819103717804, 
-0.22575005888938904, 0.027465850114822388, -0.13948416709899902, 0.008719133213162422, 0.05443832650780678, 0.09284061193466187, 0.04630904644727707, 
0.022587165236473083, -0.10097204893827438, 0.11380058526992798, 0.14042237401008606, 0.03754836320877075, -0.1049996167421341, 0.08257071673870087, 
-0.003140985034406185, -0.211269348859787, 0.2290651500225067, -0.1174665167927742, 0.4296146631240845, 0.30997413396835327, 0.04420618712902069, 
0.035185594111680984, 0.21154366433620453, -0.4811036288738251, -0.41358649730682373, -0.21874260902404785, -0.13334940373897552, 0.1233569085597992, 
-0.30343833565711975, 0.010355332866311073, 0.1023082435131073, -0.08325838297605515, -0.09962697327136993, -0.22539371252059937, 0.03626326471567154, 
-0.0067230165004730225, 0.0038010096177458763, 0.1032174751162529, 0.16359838843345642, -0.05403340607881546, 0.2729775011539459, -0.2436550408601761, 
0.33014971017837524, 0.04385470226407051, -0.13246798515319824, -0.6988149881362915, 0.11176184564828873, -0.16037189960479736, -0.3193415105342865, 
0.0640440583229065, 7.303937763936119e-06, -0.04568631201982498, 0.0995984748005867, 0.44204553961753845, -0.3609320819377899, 0.6751205325126648, 
-0.06997918337583542, -0.03768492490053177, -0.25424253940582275, 0.3862052261829376, -0.10999085009098053, 0.13424302637577057, 0.30325567722320557, 
0.11021862924098969, -0.02404773235321045, 0.3558737635612488, 0.6731113195419312, -0.11110622435808182, -0.35986924171447754, 0.06972210109233856, 
0.424449622631073, 0.07415016740560532, 0.14965589344501495, 0.04948430508375168, -0.0024512186646461487, 0.17056430876255035, -0.5091975927352905, 
-0.003998934756964445, -0.39565974473953247, 0.43492212891578674, -0.34926289319992065, 0.3663763403892517, -0.19060996174812317, -0.07046912610530853, 
0.12311354279518127, 0.11864786595106125, 0.3207942843437195, 0.10463447868824005, -0.5259128212928772, 0.20735201239585876, -0.16888834536075592, 
-0.3087249994277954, -0.17313721776008606, -0.40335580706596375, -0.20508895814418793, 0.08175133913755417, 0.009019575081765652, -0.26347607374191284, 
0.0792287141084671, 0.31220242381095886, 0.3827374279499054, -0.12133417278528214, -0.23803895711898804, -0.0455644428730011, -0.21848613023757935, 
0.9370324611663818, -0.013885080814361572, 0.18136847019195557, 0.1239117980003357, -0.04607899487018585, -0.19149933755397797, -0.37886297702789307, 
-0.6291711926460266, 0.12593849003314972, -0.22241133451461792, -0.27014580368995667, -0.46396538615226746, -0.012477783486247063, -0.2937847077846527, 
0.11659765988588333, -0.10384446382522583, -0.2939729392528534, -0.6205627918243408, 0.1754169464111328, 1.2265892028808594, -0.4423041045665741, 
-0.12883929908275604, 0.3980482816696167, -0.19555266201496124, -0.5252134799957275, -0.2749326527118683, 0.13157005608081818, 0.06164892017841339, 
-0.5496349930763245, -0.29747864603996277, 0.046121664345264435, -0.2872101068496704, 0.3049115240573883, -0.03099645860493183, -0.44238731265068054, 
0.04776421934366226, -0.03766198828816414, 0.5555380582809448, -0.30205389857292175, 0.2551857531070709, -0.42715588212013245, -0.4820953607559204, 
-0.39830052852630615, -0.06725826114416122, 0.12087816745042801, -0.1600855439901352, -1.4342824220657349, 0.502418041229248, -0.207206130027771, 
0.01690497435629368, 0.1145235225558281, 0.1787557750940323, -0.33129000663757324, 0.23244455456733704, 0.06186056509613991, 0.05881025642156601, 
0.08295316994190216, 0.5772320628166199, 0.9649417996406555, -0.02474137768149376, 0.0024536459241062403, -0.1878376454114914, -0.6526702642440796, 
-0.15949730575084686, 0.5471081733703613, -0.07867368310689926, 0.30790838599205017, -0.21646437048912048, 0.5909546613693237, 0.2790469527244568, 
0.10193914920091629, -0.1462319791316986, 0.1423405110836029, 0.12959954142570496, 0.028488142415881157, 0.6010593771934509, 0.22600482404232025, 
0.37825071811676025, 0.07586853206157684, 0.20996415615081787, -0.5362042188644409, -0.20969417691230774, 0.09027253091335297, 0.18172486126422882, 
0.2357470989227295, 0.06300731003284454, -0.1675487607717514, 0.4883468747138977, -0.27120980620384216, -0.22733661532402039, 0.06763549894094467, 
0.42324134707450867, 0.31156453490257263, 0.5525749325752258, 0.011266293004155159, -0.4265331029891968, 0.24278683960437775, 0.021208632737398148, 
0.43614646792411804, 0.4767782986164093, -0.07332778722047806, 0.31727805733680725, 0.5156844854354858, -0.15358984470367432, 0.39286625385284424, 
0.1532772034406662, 0.46461784839630127, -0.25636062026023865, 0.16031290590763092, 0.3806617558002472, 0.3042743504047394, -0.07513900101184845, 
-0.04577198624610901, -0.036412257701158524, -0.14695608615875244, 0.42243877053260803, -0.6921655535697937, 0.4501878023147583, 0.020692769438028336, 
-0.35816991329193115, -0.4863148331642151, 0.05916082113981247, 0.3685082793235779, -0.14201736450195312, 0.17765581607818604, 0.33775123953819275, 
0.3588520586490631, 0.12217585742473602, 0.3120085597038269, 0.0062456582672894, 0.2503941059112549, 0.13894887268543243, -0.4832771420478821, 
-0.5001371502876282, 0.0981922447681427, -0.4832872748374939, 0.5601906776428223, -0.07106205075979233, -0.44603121280670166, 0.21423301100730896, 
-0.2738948166370392, -0.21364621818065643, -0.5685014724731445, -0.27805137634277344, 0.029398202896118164, -0.7342895865440369, -0.2820999026298523, 
0.32584089040756226, -0.10975024849176407, 0.3457695245742798, 0.28973591327667236, 0.21984197199344635, 0.42891550064086914, 0.5070773363113403, 
0.18472768366336823, 0.0771908238530159, -0.45282259583473206, -0.22925087809562683, -0.1677514761686325, 0.21968470513820648, -0.3679759204387665, 
-0.1960383653640747, -0.3685506284236908, 0.16311995685100555, -0.03516731411218643, 0.4127750098705292, 0.0783601850271225, 0.22996795177459717, 
-0.03863513842225075, -0.38864415884017944, -0.4614875316619873, -0.09662868082523346, -0.4045857787132263, 0.3071919083595276, -0.8719343543052673, 
0.4323228597640991, 0.0562400221824646, -0.1871301382780075, -0.06956176459789276, -0.08359379321336746, -0.06684256345033646, -0.3716541528701782, 
-0.5836541652679443, -0.2551715075969696, -0.06528749316930771, 0.18264183402061462, 0.287663072347641, 0.12499547004699707, 0.3477095663547516, 
0.0941949188709259, -0.2850289046764374, -0.2149740606546402, -0.5076754093170166, -0.36868542432785034, 0.2590511441230774, -0.12958583235740662, 
-0.1677638590335846, 0.22405168414115906, 0.528869092464447, 0.04277485981583595, 0.18083783984184265, 0.009938272647559643, -0.49906089901924133, 
-0.3125848174095154, -0.21426062285900116, 0.12872116267681122, -0.3305163085460663, 0.17286723852157593, 0.2987416982650757, 0.1765095293521881, 
0.1486368179321289, -0.5384185314178467, 0.359824001789093, -0.4238653779029846, 0.3692474961280823, -0.37020981311798096, 0.548137903213501, 
0.09288103878498077, 0.05962088704109192, -0.38335520029067993, 0.08495732396841049, 0.3880104720592499, -0.4077102243900299, -0.02029207907617092, 
-0.10197936743497849, -0.25201570987701416, -0.39729011058807373, -0.4662908613681793, -0.23904642462730408, 0.0554850809276104, -0.09650848060846329, 
-0.9679613709449768, 0.437023401260376, -0.5555755496025085, 0.03923199325799942, -0.3352852463722229, 0.056383080780506134, 0.2199760377407074, 
0.24296703934669495, 0.13592469692230225, 0.41399890184402466, 0.5133414268493652, 0.07710158079862595, 0.06975805014371872, 0.1093529611825943, 
0.01935410685837269, -0.02630428969860077, 0.2724161446094513, 0.10679066181182861, 0.8240529894828796, -0.6679685711860657, 0.07364270836114883, 
-0.6864688992500305, -0.4657994210720062, -0.36904627084732056, -0.7665278911590576, -0.1353754997253418, -0.1383465975522995, -0.13628733158111572, 
0.30250489711761475, -0.2781074345111847, 0.3446663022041321, 0.10658639669418335, 0.08163583278656006, -0.3513765335083008, 0.6197233200073242, 
-0.6106272339820862, -0.0701436847448349, 0.4747343063354492, -0.4235944151878357, 0.1768036186695099, -0.2077966332435608, 0.12602746486663818, 
1.090368628501892, 0.15824450552463531, 0.0016105067916214466, 0.4655832052230835, 0.08320941776037216, 0.004080311395227909, 0.40383902192115784, 
1.1848087310791016, -0.060073237866163254, -0.2278105467557907, 0.6248622536659241, -0.4190455675125122, 0.13595950603485107, -0.4131987690925598, 
0.08713012933731079, 0.03898606821894646, 0.02059239335358143, -0.5070351958274841, -0.1703701764345169, 0.6925801634788513, -0.24316094815731049, 
0.22254052758216858, 0.06539848446846008, -0.4523811638355255, -0.7518530488014221, -0.04054353013634682, 0.029734645038843155, -0.40160220861434937, 
-0.12646062672138214, -0.3495868444442749, 0.11356139183044434, 0.094294473528862, -0.8619222640991211, -0.23104920983314514, 0.34499040246009827, 
0.16455525159835815, 0.23241673409938812, -0.20984284579753876, 0.3322976529598236, 0.4262906610965729, -0.13342344760894775, -0.028485314920544624, 
0.18723918497562408, 0.22998400032520294, -0.3166750371456146, -0.4604436457157135, 0.22910839319229126, -0.11691681295633316, 0.29844385385513306, 
1.1056350469589233, 0.06410790234804153, 0.5497235655784607, -0.2887495756149292, 0.06809137016534805, 0.10853070765733719, 0.19839105010032654, 
-0.5244245529174805, -0.37501391768455505, -0.08931552618741989, 1.078391194343567, -0.5149414539337158, 0.8193187117576599, 0.2345374971628189, 
-0.09607507288455963, -0.2718791365623474, -0.0766742080450058, -0.5249483585357666, -0.834617018699646, 0.31897062063217163, 0.2032785564661026, 
-0.07365325838327408, 0.1607324481010437, -0.09194064140319824, -0.5697371959686279, -0.7712464332580566, 0.31617870926856995, 0.9532344937324524, 
0.24023033678531647, 0.3370893597602844, -0.016970867291092873, 0.3679884374141693, -0.12602253258228302, 1.3571010828018188, -0.4840465486049652, 
-0.8328238129615784, 0.49125128984451294, -0.6897264122962952, -0.24404074251651764, -0.2904999554157257, -0.34415048360824585, -1.8000602722167969, 
-0.25039374828338623, -0.40865346789360046, -0.8236436247825623, -0.5678601264953613, 0.9927603006362915, 0.2835388779640198, 0.08915475010871887, 
-0.04166080057621002, 0.06146476790308952, -0.8780249953269958, 0.026161497458815575, 0.15858851373195648, 0.886631429195404, 0.74612957239151, 
1.0298089981079102, 0.3005209267139435, -0.29309359192848206, -0.4331395924091339, -1.2794649600982666, 0.06922415643930435, 0.17929768562316895, 
-0.041504520922899246, -0.319500207901001, -0.16789467632770538, 0.39352500438690186, 0.1142670065164566, 0.11847715824842453, 0.47937947511672974, 
0.12637503445148468, -0.19396042823791504, 0.22599449753761292, 0.36201873421669006, 0.1727856993675232, -0.25256070494651794, 0.23515325784683228, 
-0.22940602898597717, 0.11291709542274475, -0.11792273074388504, -0.010182766243815422, 0.05635152384638786, -0.2679130434989929, 0.30022138357162476, 
-0.326951801776886, 0.11125114560127258, -0.23112761974334717, -0.16209521889686584, -0.19891144335269928, -0.19373898208141327, 0.07320597022771835, 
0.09037774056196213, -0.10418704152107239, 0.6074395775794983, 0.08076057583093643, 0.022538350895047188, 0.2738598585128784, -0.24796897172927856, 
-0.04119256138801575, -0.62968909740448, 0.03431076556444168, -0.2825286090373993, 0.43319210410118103, 0.7886713743209839, 0.28939637541770935, 
-0.02281319536268711, -0.13092565536499023, -0.29447418451309204, 0.049623191356658936, 0.349578320980072, 0.5269728899002075, -0.09796930849552155, 
0.02103043720126152, -0.15325713157653809, -0.4258597791194916, 0.0846685916185379, 0.2181064337491989, 0.12196626514196396, -0.22830258309841156, 
-0.24673496186733246, -0.5892425179481506, 0.25829118490219116, -0.3747054934501648, -0.44953328371047974, 0.624773383140564, -0.03030514530837536, 
-0.019768202677369118, -0.42426973581314087, 0.2170986831188202, 0.42443132400512695, -0.17207962274551392, -0.5343939065933228, -0.04871561750769615, 
-0.0890684723854065, 0.004866956267505884, -0.37032321095466614, -0.7054522037506104, -0.6587305665016174, -0.22930528223514557, -0.6372655630111694, 
-0.18830199539661407, -0.013499962165951729, 0.3212617039680481, 0.28143510222435, 0.028545014560222626, -0.24140910804271698, -0.932769238948822, 
0.19644363224506378, 0.14278633892536163, -0.060433536767959595, 0.1003112643957138, 0.08333708345890045, -0.1682172566652298, -0.6103639006614685, 
0.6221426725387573, -0.025510665029287338, -0.5780542492866516, 0.39404964447021484, -0.03700638562440872, 0.47103309631347656, -1.0545848608016968, 
-0.6752803921699524, -0.29287397861480713, -0.3206597864627838, -0.6036505699157715, -0.21878792345523834, -0.415962278842926, -0.47775188088417053, 
-0.36992570757865906, -0.363844633102417, -0.24479788541793823, -0.42186635732650757, -0.7627072930335999, -0.2726919651031494, 0.7472506761550903, 
-0.2542249858379364, 0.254168838262558, -0.5568875670433044, 0.6013140678405762, -0.16367527842521667, -0.2905638515949249, 0.8215413093566895, 
0.4489021897315979, 0.3870472311973572, 0.4015943706035614, 0.29325664043426514, -0.022705188021063805, -0.6273755431175232, -0.8811855912208557, 
-0.7420457601547241, -0.415665864944458, -0.23810547590255737, -0.5361906886100769, 0.41616150736808777, 0.0032155076041817665, 0.3488280475139618, 
-0.18569491803646088, 0.5703708529472351, -0.03378485143184662, 0.3369690775871277, -0.06422335654497147, 0.2870512306690216, -0.48050689697265625, 
-0.33245962858200073, 0.46141597628593445, 0.4797840416431427, 0.5935596227645874, 0.25932323932647705, -0.3035055696964264, -0.07546498626470566, 
-0.749167263507843, 0.009222378954291344, -0.36266395449638367, -0.10581103712320328, -0.3605445325374603, 0.31904345750808716, 0.3349231779575348, 
-0.6787259578704834, 0.17438679933547974, -0.07121580839157104, 0.08722251653671265, -0.031085031107068062, 0.07607106119394302, 0.013240396976470947, 
0.34493839740753174, 0.3244568407535553, 0.6837031841278076, -0.2705773115158081, 0.10161064565181732, 0.6730237603187561, 0.3580974042415619, 
0.4559350609779358, 0.37663891911506653, 0.3582666516304016, 0.11376389116048813, -0.028896883130073547, 0.5976887345314026, 0.24879612028598785, 
0.6291593313217163, 0.22988475859165192, 0.15953032672405243, 0.3335484266281128, -0.9044399261474609, 0.2310420721769333, 0.13529415428638458, 
-0.14724943041801453, 0.2781694233417511, -0.48030465841293335, 0.025681238621473312, -0.018972821533679962, -0.2801331579685211, -0.5655291080474854, 
0.4804767072200775, 0.11330585926771164, -0.30587443709373474, -0.10532023757696152, 0.3245965838432312, 0.07402820885181427, 0.19111038744449615, 
-0.029484977945685387, 0.7754564881324768, -0.5029292702674866, -0.16918081045150757, 0.027465716004371643, -0.518110990524292, -0.5340147018432617, 
0.8281674385070801, -0.3686806857585907, 0.3403276205062866, 0.14746703207492828, 0.13879333436489105, 0.1839906871318817, -0.2922702431678772, 
-0.33315160870552063, -0.3146620988845825, 0.6658680438995361, -0.08455553650856018, -0.1442854404449463, 0.42508068680763245, 0.3432173728942871, 
-0.34506553411483765, -0.396812379360199, -0.13433122634887695, 1.2088323831558228, 0.17791618406772614, 0.20632654428482056, -0.0708458349108696, 
0.08095055818557739, -0.32106825709342957, 1.3358675241470337, -0.23707826435565948, -0.735403835773468, 1.4857653379440308, -1.0346087217330933, 
-0.272472620010376, 0.199119433760643, -0.03510888293385506, -1.2376240491867065, -0.29246363043785095, 0.2521406412124634, -0.29403412342071533, 
-0.556537926197052, -0.09824323654174805, -0.11997581273317337, 0.018421638756990433, 0.1900826096534729, 0.14382459223270416, -0.4616309106349945, 
-0.2368391454219818, 0.2709684371948242, 0.18149986863136292, 0.3041030168533325, 0.9026829600334167, 0.5763484835624695, -0.31296828389167786, 
-0.14007550477981567, -1.153946876525879, 0.6661210656166077, 0.10132002830505371, 0.3077758848667145, -0.2629920542240143, -0.5818440914154053, 
0.05091400817036629, -0.47724810242652893, 0.36627981066703796, 0.29805782437324524, 0.20427042245864868, -0.40461164712905884, 0.1692517101764679, 
-0.38219842314720154, -0.12574324011802673, 0.19306452572345734, 0.10900946706533432, 0.09438455104827881, -0.2129702866077423, -0.38071945309638977, 
0.31020161509513855, 0.0975707545876503, 0.20519183576107025, -0.08932764083147049, -0.04600793495774269, -0.23493322730064392, -0.48800209164619446, 
0.17192675173282623, -0.4036187529563904, -0.5921603441238403, 0.044222649186849594, 0.1454952210187912, 0.31276702880859375, 0.6093634963035583, 
0.07421952486038208, 0.1319056749343872, 0.23524300754070282, -0.4919278621673584, -0.17363899946212769, -0.056326135993003845, -0.048772405833005905, 
-0.25687310099601746, 0.48568183183670044, 1.0058127641677856, 0.1746399849653244, 0.3903839886188507, 0.2762558162212372, -0.21095561981201172, 
-0.13194550573825836, 0.1836935132741928, 0.3878479599952698, 0.002437967574223876, 0.1638406366109848, -0.4687845706939697, -0.5577160120010376, 
0.13341468572616577, -0.006346370559185743, 0.3781689405441284, -0.30202651023864746, -0.028019877150654793, -0.3161734342575073, 0.7798389792442322, 
0.406856507062912, 0.13982638716697693, 0.2670997679233551, -0.3853641450405121, -0.008516849018633366, -0.438064306974411, -0.6362672448158264, 
-0.5345202088356018, -0.014422843232750893, -0.03645256534218788, -0.7195943593978882, 0.10062302649021149, 0.08108130842447281, 0.5023660659790039, 
0.03199030086398125, 0.5039452314376831, 0.9170259237289429, 0.12465934455394745, 0.002128883730620146, -0.6066733598709106, 0.1623249650001526, 
-0.5683480501174927, -0.07639612257480621, 0.38689959049224854, 0.10194700211286545, -0.1370382457971573, -0.3085792064666748, -0.17789950966835022, 
-0.028813788667321205, -0.27025601267814636, -0.8053339719772339, 0.6368823051452637, -0.1767190843820572, 0.5742987990379333, -0.06226770952343941, 
-0.13777519762516022, 0.045187804847955704, -0.038847487419843674, 0.19390860199928284, 0.7884563207626343, -0.2443619817495346, -0.37194544076919556, 
0.5469601154327393, -0.30311083793640137, -0.16638486087322235, 0.1819906234741211, -0.23573444783687592, -0.05619809031486511, 0.2839452624320984, 
0.12075501680374146, 0.46883076429367065, 0.3876793682575226, 0.22103741765022278, -0.03765450417995453, -0.018672138452529907, 0.11878605931997299, 
-0.8848804831504822, 0.1537928581237793, -0.18914543092250824, -0.5442324280738831, -0.2835000455379486, 0.21158310770988464, -0.6237667202949524, 
-0.26202237606048584, -0.5282893180847168, 0.1483115702867508, 0.2865208387374878, -0.330982506275177, 1.060836911201477, -0.560568630695343, 
0.9610090851783752, 0.2825826108455658, -0.5294058322906494, -0.05214541032910347, -0.15423321723937988, 0.6703796982765198, 0.10491776466369629, 
0.08767581731081009, -0.6414054036140442, 0.15486347675323486, 0.0008464964921586215, -0.45261454582214355, -0.11145859956741333, 0.29983028769493103, 
0.41638776659965515, -0.08486855775117874, -0.17801819741725922, 0.47724175453186035, -0.10210472345352173, -0.30428287386894226, 0.33845674991607666, 
0.11592413485050201, 0.6254419088363647, 0.854218602180481, 0.4135229289531708, -0.15943235158920288, -0.7194055318832397, 0.1532016396522522, 
0.9143496751785278, 0.0056948112323880196, 0.0004571452154777944, 0.37010663747787476, -0.542205810546875, -0.26587194204330444, -0.06839313358068466, 
-0.5848268270492554, 0.37352657318115234, 0.589731752872467, -0.5080761313438416, -1.2612991333007812, 0.11368893831968307, -0.0109559902921319, 
-0.11957617849111557, -0.20263324677944183, -0.9779983162879944, 0.742825448513031, -0.008840633556246758, -0.2834463119506836, 0.38800883293151855, 
0.09550943970680237, -0.4009307026863098, -0.20114469528198242, 0.1782032698392868, -0.7375275492668152, 0.051453232765197754, 0.20400018990039825, 
0.4886551797389984, -0.14037871360778809, 0.2688649296760559, -0.026199283078312874, 0.2647623121738434, 0.036768149584531784, -0.10811275988817215, 
0.059546053409576416, -0.3809625208377838, -0.43590840697288513, -0.031463392078876495, -0.13243894279003143, -0.13711301982402802, -0.3175782561302185, 
-0.1636163890361786, -0.17252719402313232, -0.05125097930431366, 0.32939139008522034, 0.08657192438840866, -0.2222578525543213, 0.028994346037507057, 
0.11278478056192398, -0.056340258568525314, -0.24634940922260284, 0.1431083381175995, -0.26924026012420654, 0.5341144800186157, -0.29501214623451233, 
-0.13392363488674164, 0.07904842495918274, 0.24400478601455688, -0.19667108356952667, 0.015749234706163406, -0.030491234734654427, 0.24272453784942627, 
0.0305316261947155, 0.038297586143016815, 0.20414404571056366, 0.09061970561742783, -0.09713723510503769, -0.052441466599702835, -0.7581892609596252, 
-0.3910173177719116, -0.6993757486343384, -0.25950300693511963, -0.10117141157388687, -0.3835464119911194, -0.05246036872267723, -0.24756142497062683, 
-0.00313772214576602, 0.05818389356136322, -0.04283782094717026, -0.12654012441635132, 0.17256300151348114, -0.03165142610669136, 0.40644508600234985, 
0.10053756833076477, -0.3820710778236389, -0.4439781904220581, -0.02460852637887001, -0.38219818472862244, -0.15275722742080688, 0.008623736910521984, 
-0.2107778787612915, -0.06293890625238419, -0.17594067752361298, -0.06827986985445023, -0.07811828702688217, -0.26540055871009827, -1.0362811088562012, 
0.6580798029899597, -0.4301588237285614, 0.6087040305137634, 0.19386346638202667, -0.36332467198371887, 0.08001180738210678, 0.33270588517189026, 
0.10980132967233658, 0.37591421604156494, -0.1893104612827301, -0.4700125455856323, 0.2666175067424774, 0.14601798355579376, -0.5210567712783813, 
-0.19156408309936523, -0.5093686580657959, 0.2731322646141052, -0.2953689396381378, 0.11158817261457443, 0.3692425489425659, 0.18094727396965027, 
0.11596931517124176, -0.013624215498566628, 0.2747634947299957, -0.02639091946184635, -0.1262914389371872, -0.3744193911552429, 0.059587087482213974, 
-0.4190813899040222, 0.48839062452316284, 0.42249947786331177, 0.0749206468462944, 0.13207700848579407, 0.4378717541694641, -0.5932182669639587, 
0.07534860074520111, 0.16741149127483368, -0.6436127424240112, 0.1811521351337433, -0.029682843014597893, -0.7008601427078247, -0.8382066488265991, 
-0.08897008746862411, 0.17731405794620514, -0.071534663438797, 0.4309522807598114, -1.5737268924713135, 0.8080548048019409, -0.30305376648902893, 
0.15118375420570374, 0.04691045731306076, 0.36480119824409485, -0.26532280445098877, 0.07103776186704636, -0.12308873981237411, -0.3914868235588074, 
0.13895395398139954, 0.2698124051094055, 0.34351617097854614, -0.35460737347602844, 0.38597455620765686, 0.3857021927833557, 0.02219681441783905, 
0.08212172985076904, -0.13400967419147491, -0.21776404976844788, 0.10813013464212418, 0.10394283384084702, -0.3753180503845215, 0.1276589035987854, 
-0.42587268352508545, -0.29120486974716187, -0.16912278532981873, -0.2575327455997467, -0.12406345456838608, -0.2872728407382965, -0.11542849242687225, 
-0.21994370222091675, -0.14880993962287903, -0.236820787191391, 0.40025579929351807, 0.1886945366859436, 0.1785290539264679, -0.1911630779504776, 
-0.23682937026023865, 0.047086313366889954, -0.0027550412341952324, 0.0692962110042572, -0.3216300308704376, 0.3205423057079315, -0.5406056046485901, 
-0.2025487720966339, -0.23505280911922455, -0.3645322620868683, -0.10441499203443527, 0.086160808801651, -0.12465103715658188, -0.2416061908006668, 
-0.1301010549068451, -0.21769417822360992, -0.151101753115654, 0.09264668077230453, 0.26779496669769287, 0.029133128002285957, 0.053240980952978134, 
0.05592159926891327, 0.10661179572343826, -0.2943434715270996, -0.5221649408340454, 0.2335643768310547, 0.26040488481521606, -0.29561319947242737, 
0.16803410649299622, -0.1016484797000885, -0.026758750900626183, 0.16233056783676147, 0.4973887503147125, -0.015884608030319214, 0.025249477475881577, 
0.43559882044792175, 0.12966051697731018, -0.17872801423072815, 0.34797438979148865, -0.18717291951179504, -0.10952059924602509, -0.12949563562870026, 
-0.10335320979356766, 0.05333111435174942, -0.6516999006271362, -0.651771068572998, -0.44032785296440125, -0.01982472836971283, -0.49369728565216064, 
-0.00021292647579684854, 0.0023943136911839247, 0.03931541368365288, -0.43267619609832764, 0.42931950092315674, -0.07643618434667587, -0.31072932481765747, 
-0.5444389581680298, -0.27670571208000183, 0.16817694902420044, 0.05534938722848892, 0.28980982303619385, 0.37728720903396606, 0.12341558188199997, 
-0.4571395516395569, -0.2236391305923462, -0.2658382058143616, -0.02982146665453911, -0.25898319482803345, 0.08128844946622849, 0.012535687536001205, 
-0.12398788332939148, -0.24219851195812225, 0.6446847319602966, -0.05576959624886513, 0.4227212071418762, -0.39399781823158264, 0.14897023141384125, 
-0.25909048318862915, -0.0022703877184540033, 0.00787370465695858, 0.6524112820625305, -0.09021410346031189, -0.0830347090959549, 0.07617093622684479, 
-0.09614430367946625, 0.16078193485736847, 0.2143481820821762, 0.18647640943527222, 0.08520518243312836, -0.017078043892979622, 1.151815414428711, 
0.05362729728221893, 0.07923376560211182, 0.09879428148269653, 0.16565491259098053, -0.03632516786456108, 0.1708471179008484, 0.21313686668872833, 
-0.1353813260793686, -0.22710442543029785, 0.17620253562927246, -0.21204780042171478, -0.2169409543275833, 0.12515926361083984, 0.02526196651160717, 
-0.19930405914783478, 0.050100523978471756, 0.134599506855011, -1.1074615716934204, 0.047029152512550354, -0.012196285650134087, -0.20709317922592163, 
0.027097245678305626, 0.4038583040237427, 0.2280527949333191, 0.006863834336400032, -0.10573649406433105, 0.3741903305053711, -0.15561926364898682, 
-0.44253209233283997, 0.38617807626724243, 0.058883678168058395, 0.45556139945983887, -0.6363258361816406, 0.16709408164024353, -0.06782262027263641, 
0.2202756404876709, -0.88724285364151, 0.09921474009752274, -0.3163612186908722, 0.5711116790771484, -0.23466810584068298, 0.28585314750671387, 
0.48250913619995117, -0.9050671458244324, -0.512957751750946, 0.03417510166764259, 1.3651695251464844, -0.3400552272796631, 0.35364046692848206, 
0.23071402311325073, -0.4609264135360718, -0.15204448997974396, 0.35237160325050354, 0.26352256536483765, -0.6307345628738403, 0.7124170660972595, 
-0.23969666659832, 0.5435608625411987, -0.14795619249343872, 0.45835381746292114, -0.27809038758277893, 0.1267823576927185, 0.11666770279407501, 
0.04505014419555664, 0.05390582233667374, -0.10010338574647903, -0.16192013025283813, 0.4307728707790375, 0.02663615345954895, 0.16149738430976868, 
-0.1692970246076584, 0.15280692279338837, -0.026233429089188576, 0.2247096449136734, 0.6006715297698975, -0.4627191722393036, 0.1313016265630722, 
-0.23036295175552368, -0.5789564251899719, -0.13879594206809998, -0.5726101994514465, 0.07297157496213913, 0.10295067727565765, -0.4222757816314697, 
0.021236980333924294, 0.37345245480537415, -0.13937154412269592, 0.019042054191231728, -0.12996746599674225, -0.8751437067985535, -0.03683636337518692, 
-0.13855141401290894, -0.2603386342525482, 0.5715011358261108, 0.33181434869766235, 1.3793517351150513, -0.005119940731674433, -0.06258407980203629, 
1.0505315065383911, 0.038607656955718994, 0.26816460490226746, 0.2492205649614334, -0.24363312125205994, -0.28462257981300354, 0.004728819243609905, 
0.48772257566452026, -0.8216094374656677, -0.5120311379432678, -0.3260915279388428, -0.12336087971925735, 0.054146163165569305, 0.03873026743531227, 
0.10853501409292221, 0.21802911162376404, 0.47004038095474243, -0.37292197346687317, -0.5520060658454895, -0.3034030795097351, -0.43231579661369324, 
-0.01808924786746502, -0.4673251211643219, -0.610507607460022, 0.09397394955158234, -0.34309491515159607, -0.3003019094467163, 0.2421191930770874, 
-0.6787549257278442, -0.38832569122314453, 0.19637058675289154, 0.10670574754476547, -0.006757171358913183, 0.041392575949430466, 0.0861084908246994, 
-0.4138542115688324, 0.3549690544605255, 0.37778034806251526, 0.09954652935266495, 0.031009171158075333, 0.14819881319999695, 0.45397287607192993, 
0.07604768127202988, -0.5717186331748962, -0.1905112862586975, -0.15838852524757385, 0.15952168405056, -0.21748527884483337, 0.008368916809558868, 
-0.08868418633937836, -0.35995984077453613, 0.09577296674251556, -0.18741977214813232, 0.10907603055238724, 0.23701606690883636, -0.01686367765069008, 
-0.04515775665640831, -0.03126190975308418, 0.18159693479537964, 0.04130907729268074, 0.11884916573762894, -0.2834690511226654, -0.08474238216876984, 
-0.2852371633052826, -0.1069912314414978, 0.033741287887096405, -0.32029780745506287, -0.11532719433307648, -0.24339184165000916, -0.06079530715942383, 
-0.37479913234710693, 0.14604514837265015, -0.1938309669494629, 0.1434810608625412, -0.006499618757516146, 0.4717770218849182, -0.6965880393981934, 
-0.07690805196762085, 0.04469528794288635, -0.23127086460590363, -0.15888406336307526, -0.15654194355010986, -0.3269466459751129, 0.08771771937608719, 
-0.12109924852848053, -0.5415552854537964, 0.27338171005249023, -0.22208981215953827, -0.24152232706546783, -0.20875363051891327, 0.0023899106308817863, 
-0.19119681417942047, -0.23215436935424805, -0.26766738295555115, 0.0641816258430481, 0.33242201805114746, 0.0635853260755539, -0.12214798480272293, 
-0.24024222791194916, -0.13770759105682373, -0.14182499051094055, -0.026606202125549316, -0.4587382376194, -0.247751846909523, 0.08795157819986343, 
-0.28187334537506104, -0.398737370967865, 0.16405482590198517, 0.011375139467418194, 0.17167037725448608, 0.1911184936761856, -0.1393815577030182, 
0.15100409090518951, 0.027203135192394257, 0.17932499945163727, 0.08892349898815155, 0.0007562111713923514, 0.08988295495510101, 0.39442750811576843, 
-0.17825645208358765, -0.35311436653137207, 0.05218870937824249, 0.5858974456787109, 0.1603495180606842, -0.09722110629081726, 0.08216732740402222, 
-0.29577624797821045, 0.14767518639564514, 0.1118905171751976, -0.08033876121044159, -0.3522368371486664, -0.31551432609558105, 0.09179140627384186, 
-0.00913325697183609, 0.20039328932762146, -0.11102612316608429, 0.06828144192695618, -0.03817611187696457, -0.2476431280374527, -0.47630012035369873, 
-0.1910211592912674, 0.11299397796392441, 0.08964721858501434, -0.06724846363067627, 0.026049170643091202, 0.0975811630487442, -0.05409784987568855, 
-0.2252921313047409, -0.00088897516252473, 0.11565667390823364, 0.08842601627111435, 0.2530023157596588, -0.11329387873411179, -0.2664221525192261, 
-0.07996854931116104, -0.20308852195739746, 0.24529549479484558, 0.38371577858924866, 0.46314966678619385, -0.03798092156648636, 0.15198031067848206, 
0.0040042041800916195, -0.16264207661151886, -0.11628413945436478, -0.06884913891553879, -0.031962089240550995, 0.34782737493515015, -0.08874639123678207, 
0.16194038093090057, 0.03889786824584007, -0.20299841463565826, -0.01600736938416958, -0.2510260045528412, -0.1400817185640335, 0.018352698534727097, 
0.203520268201828, 0.09694322943687439, -0.2066645324230194, 0.16243785619735718, 0.5756514072418213, 0.0284762941300869, -0.37376824021339417, 
0.128675177693367, 0.02656886726617813, -0.08637779951095581, 0.08417018502950668, 0.01710807904601097, -0.2831795811653137, -0.29835575819015503, 
0.13823342323303223, 0.042208895087242126, -0.6101017594337463, -0.23234333097934723, 0.12060271203517914, -0.11580608040094376, -0.20095831155776978, 
-0.4187825620174408, 0.18853624165058136, -0.09182380139827728, -0.2835463881492615, -0.008987942710518837, -0.24462781846523285, 0.20277640223503113, 
0.609553337097168, 0.0357150137424469, -0.12742017209529877, 0.25557437539100647, 0.2859876751899719, 0.2567802667617798, -0.051817432045936584, 
0.10467086732387543, 0.15863843262195587, -0.27872684597969055, -0.5252506732940674, 0.1215120255947113, -0.22910089790821075, 0.04550967365503311, 
0.0716710314154625, 0.028706176206469536, 0.27996760606765747, 0.08226668834686279, -0.13955043256282806, -0.2937909662723541, -0.14505627751350403, 
0.24277545511722565, 0.09538125991821289, -0.22939366102218628, -0.26824766397476196, -0.06435815244913101, -0.10294993966817856, -0.2790394723415375, 
-0.0733807161450386, 0.18037068843841553, 0.18711444735527039, -0.07010840624570847, 0.12511272728443146, 0.010482339188456535, -0.08148910105228424, 
-0.3082602322101593, 0.5455148220062256, -0.1501697599887848, 0.2512281835079193, -0.26607972383499146, 0.05525662377476692, -0.07562851160764694, 
0.03723449632525444, -0.31119903922080994, 0.440280944108963, -0.29588836431503296, 0.0828155130147934, 0.2524663507938385, -0.012457236647605896, 
0.033640775829553604, 0.2639216482639313, -0.06111113354563713, 0.1303911805152893, 0.18870419263839722, 0.08661144226789474, 0.4461166262626648, 
0.14838643372058868, 0.14079415798187256, -0.12662866711616516, 0.1174979954957962, 0.10631153732538223, -0.20265279710292816, -0.13032206892967224, 
-0.31643056869506836, -0.023179713636636734, 0.4137970507144928, 0.05524016171693802, 0.030478257685899734, 0.24793118238449097, 0.3333936929702759, 
0.020651359111070633, 0.06583667546510696, 0.08341056853532791, -0.3000510334968567, 0.17729420959949493, -0.17261932790279388, 0.0789531022310257, 
0.15092553198337555, -0.19260242581367493, 0.20312276482582092, 0.299642413854599, 0.29220640659332275, -1.0948501825332642, 0.00477299140766263, 
0.04891090467572212, 0.7047910094261169, 0.33467140793800354, -0.07872168719768524, -0.37581562995910645, 0.07174132764339447, 0.3892068862915039, 
-0.46385931968688965, 0.22308899462223053, 0.10849205404520035, 0.21831850707530975, 0.004215662833303213, 0.16820891201496124, 0.3413965404033661, 
0.24372942745685577, 0.8088555335998535, 0.3079433739185333, -0.05282813310623169, 0.07663247734308243, -0.21860644221305847, -0.419565349817276, 
0.09718579053878784, -0.3046407401561737, -0.3394450545310974, -0.24641291797161102, 0.06912942230701447, -0.03251538425683975, -0.02585214003920555, 
0.3158101737499237, 0.47851893305778503, -0.02739650197327137, 0.25476816296577454, -0.087540403008461, -0.2214096337556839, 0.04519294574856758, 
0.36056044697761536, 0.16221943497657776, -0.3116535246372223, -0.3200477361679077, 0.1792488694190979, -0.3658154308795929, -0.08831847459077835, 
0.27347034215927124, 0.13558264076709747, -0.03216142579913139, -0.8181734681129456, -0.3061288297176361, -0.30381515622138977, 0.11608339101076126, 
-0.09925118833780289, 0.2160312980413437, -0.18170160055160522, -0.04718535393476486, 1.0761356353759766, 0.27268216013908386, 0.36324140429496765, 
0.05023902282118797, 0.007920675911009312, 0.014293585903942585, 0.5481516122817993, -0.019442062824964523, 0.0942663922905922, 0.13927099108695984, 
-0.01880960911512375, -0.1508156657218933, 0.0699501782655716, -0.23086807131767273, 0.05704651027917862, -0.9359312057495117, 0.1616329848766327, 
-0.20696388185024261, -0.09147144854068756, -0.48083260655403137, 0.10743977129459381, 0.4340623617172241, -0.2445521205663681, 0.3561437427997589, 
-0.2453630119562149, -0.05762730911374092, 0.49835845828056335, 0.45909324288368225, -0.40485531091690063, 0.2787240743637085, 0.17337162792682648, 
-0.48192381858825684, -0.3132435977458954, 0.19566361606121063, -0.002635963261127472, 0.09767650812864304, 0.23191876709461212, -0.5086398124694824, 
0.37820878624916077, 0.05093773081898689, -0.06948542594909668, -0.18926416337490082, -0.2540259063243866, 0.05308493226766586, 0.8704125285148621, 
0.06821697950363159, 0.3116573095321655, 0.03609490394592285, 0.18974357843399048, 0.20058321952819824, 0.3494679033756256, 1.1932833194732666, 
0.20030023157596588, 0.3236951231956482, 0.051181916147470474, -0.49399885535240173, -0.08083852380514145, 0.0739658996462822, -0.11606220155954361, 
-0.23742787539958954, 0.1578349769115448, -0.11348593980073929, -0.109815314412117, 0.14591242372989655, -0.11352451890707016, -0.22637154161930084, 
0.14682930707931519, -0.22583599388599396, -0.3197576105594635, -0.1815108209848404, -0.058670807629823685, -0.30673545598983765, -0.07165998965501785, 
-0.6622921228408813, -0.30258288979530334, -0.14439301192760468, -0.17385482788085938, -0.10186649858951569, -0.09381987899541855, 0.0017704551573842764, 
-0.23406744003295898, 0.1327432543039322, -0.09396374970674515, -0.015253979712724686, -0.12018052488565445, 0.19120189547538757, -0.12621207535266876, 
0.029055483639240265, 0.1001509353518486, -0.468488872051239, -0.0024469478521496058, -0.2640322744846344, -0.10973672568798065, 0.09207874536514282, 
0.4878411889076233, 0.14199529588222504, -0.07531809061765671, -0.5477931499481201, -0.2519904375076294, -0.04612652212381363, -0.8056525588035583, 
-0.3400759994983673, -0.6084819436073303, -0.11800628155469894, -0.6977826356887817, 0.2843277156352997, -0.2884542942047119, 0.5009939074516296, 
0.2726723849773407, 0.30714285373687744, -0.342944860458374, -0.6555210947990417, 0.013371072709560394, 0.2728581428527832, -0.3662985861301422, 
0.1904686689376831, -0.1052122488617897, -0.5260153412818909, -0.6231843829154968, 0.7307576537132263, 0.2519170641899109, -0.5391635894775391, 
0.2685967981815338, -0.23333661258220673, 0.04531099274754524, -0.7301509976387024, -0.012117854319512844, -0.2348189800977707, -0.8341860175132751, 
-0.2469744086265564, 0.11657750606536865, -0.9550450444221497, -0.458844393491745, -0.05327708274126053, -0.3377303183078766, -0.8202946782112122, 
-0.3440124988555908, -0.7366994619369507, -0.5370182991027832, 0.2914961278438568, -0.4569879472255707, 0.23296651244163513, -0.1208953931927681, 
0.3158850371837616, -0.7533243894577026, -0.04094240069389343, 0.47873976826667786, 0.3691052794456482, 0.38831546902656555, 0.46180906891822815, 
0.3427956700325012, 0.17224478721618652, -0.13805638253688812, -0.6162826418876648, -1.0187922716140747, -0.2521856129169464, -0.1487768292427063, 
-0.43762925267219543, -0.27300816774368286, -0.08498284965753555, 0.5004398822784424, -0.17091411352157593, 0.14631371200084686, -0.4252412021160126, 
0.3978554606437683, 0.05056925117969513, 0.012862413190305233, -0.28020304441452026, 0.1580536961555481, 0.3330689072608948, 0.23758430778980255, 
0.50490403175354, 0.4806392192840576, 0.13719302415847778, 0.38878288865089417, -0.45478755235671997, 0.21687321364879608, -0.8720582127571106, 
0.31343069672584534, -0.729223906993866, 0.2393324375152588, -0.5964612364768982, -0.9466677904129028, 0.06261727958917618, -0.11461345106363297, 
-0.29944908618927, 0.14101819694042206, 0.2676616311073303, 0.07768742740154266, 0.007830489426851273, 0.14591990411281586, 0.10296446830034256, 
-0.3183237910270691, 0.30096569657325745, -0.5383383631706238, 0.3481086790561676, 0.2078147828578949, 0.37305477261543274, 0.07481862604618073, 
0.11802563816308975, -0.4499494433403015, 0.10939321666955948, 0.6667492389678955, 1.0154355764389038, 0.04831434041261673, 0.23356977105140686, 
0.1729753315448761, -0.8471630215644836, 0.3088390529155731, 0.17039547860622406, 0.2363647073507309, 0.5470803380012512, -0.35455694794654846, 
0.9468317031860352, 0.06524112075567245, -0.1685648113489151, -0.2385404109954834, 0.4095365107059479, 0.3123246729373932, 0.08054826408624649, 
0.30617329478263855, -0.25874093174934387, -0.15345807373523712, 0.02501709759235382, -0.34752219915390015, 0.216831773519516, 0.23603416979312897, 
0.1282699853181839, -0.20312900841236115, -0.1051798090338707, 0.142865851521492, 0.7314721345901489, 0.17688371241092682, -0.35345664620399475, 
0.37854066491127014, 0.011646812781691551, -0.052106376737356186, -0.28040313720703125, -0.10806947201490402, 0.33384010195732117, -0.33481845259666443, 
-0.27095741033554077, -0.6672150492668152, 0.4529803693294525, -0.3439776301383972, 0.5356554985046387, 0.05460822582244873, 0.49524277448654175, 
-0.4052422344684601, 0.07363445311784744, 0.05237231031060219, 0.014966217800974846, 0.21297326683998108, -0.16577519476413727, -0.8466655611991882, 
-0.14342136681079865, -0.40155982971191406, -0.6534097790718079, 0.06359954923391342, -0.12444064766168594, -0.2897239029407501, -0.3379635214805603, 
-0.14164520800113678, -0.45164093375205994, -0.2975090742111206, -0.3343571126461029, -0.29364365339279175, 0.8601300120353699, 0.2003178894519806, 
-0.03655490279197693, -0.22288519144058228, -0.39756742119789124, -0.08816525340080261, -0.029899468645453453, -0.6691712141036987, -0.036820147186517715, 
0.3019762933254242, -0.32679811120033264, 0.057742416858673096, -0.437786728143692, 0.25520068407058716, -0.4197050631046295, -0.30216631293296814, 
-0.23320312798023224, 0.026938864961266518, 0.2698730528354645, 0.1884295642375946, 0.22624221444129944, 0.15199631452560425, -0.002343728905543685, 
0.27379336953163147, 0.31832730770111084, 0.26660504937171936, -0.17463098466396332, 0.5330609679222107, 0.29818931221961975, -0.3052324652671814, 
-0.2066994458436966, 0.2558448016643524, 0.440658301115036, 0.6333468556404114, -0.09839743375778198, -0.28550368547439575, -0.3039803206920624, 
0.03279677405953407, -0.05740603432059288, 0.26917266845703125, 0.8984988927841187, 0.1269710212945938, 0.5244818925857544, 0.30260735750198364, 
-0.42270126938819885, 0.0840725526213646, -0.08361738920211792, -0.0690997987985611, -0.09310126304626465, -0.18488389253616333, -0.11082959175109863, 
0.12780433893203735, 0.03730325773358345, 0.16470880806446075, 0.5313933491706848, 0.265146940946579, -0.28602367639541626, -0.28989356756210327, 
-0.22274942696094513, -0.291749507188797, -0.18323977291584015, 0.08366284519433975, -0.05836916342377663, 0.6684403419494629, -0.10412238538265228, 
-0.2138446569442749, -0.16375209391117096, 0.03911568969488144, -0.020126326009631157, -0.11559716612100601, 0.08212834596633911, -0.11186828464269638, 
0.08382507413625717, 0.21796314418315887, -0.11007349193096161, -0.04007996618747711, 0.22800320386886597, -0.1525012105703354, -0.26541242003440857, 
0.28340744972229004, -0.10787627100944519, -0.3345155417919159, 0.270075261592865, 0.5935240983963013, -0.4050810933113098, -0.1480499505996704, 
0.23818933963775635, -0.006527374964207411, 0.058145321905612946, -0.6368682384490967, -0.06907045841217041, -0.4648813307285309, -0.654452383518219, 
-0.4161580801010132, -0.16788610816001892, -0.10897950083017349, 0.6447138786315918, 0.690922200679779, 0.2038152813911438, 0.05270879715681076, 
-0.3654954433441162, 0.5551615357398987, 0.3313428461551666, 0.03215319290757179, 0.18070736527442932, 0.3416023552417755, -0.06259430944919586, 
-0.5065464973449707, -0.05458814650774002, 0.2065274864435196, -0.13791997730731964, 0.4342128038406372, -0.11890874803066254, -0.08754231035709381, 
-0.4234796464443207, 0.14339174330234528, -0.4868631064891815, -0.37476807832717896, 0.5306373834609985, 0.21237103641033173, -0.3659365475177765, 
-0.17472787201404572, -0.08792202174663544, 0.19259105622768402, -0.6864175200462341, -0.11036556214094162, -0.11068253219127655, -0.37735021114349365, 
0.13856476545333862, -0.42785635590553284, 0.17518843710422516, -0.21957431733608246, 0.6752444505691528, -0.01259069237858057, 0.24933630228042603, 
0.6109681725502014, 0.30479684472084045, -0.15190483629703522, 0.149578258395195, -0.017456242814660072, 0.047840964049100876, -0.11222247779369354, 
-0.3188192844390869, -0.01637721247971058, -0.763988733291626, -0.3463364243507385, -0.729759156703949, -0.41119223833084106, -0.5449254512786865, 
0.06626299023628235, -0.08128919452428818, -0.06827374547719955, -0.1572621464729309, 0.2285718470811844, -0.31988683342933655, -0.13518960773944855, 
-0.8671782612800598, 0.006050447002053261, 0.36573171615600586, 0.10480117797851562, 0.24575701355934143, 0.2677852213382721, -0.0007486513932235539, 
-0.25125181674957275, -0.4836721122264862, -0.13863983750343323, -0.5026921629905701, -0.24528467655181885, -0.3754977583885193, 0.3418344259262085, 
-0.10320957005023956, -0.7922369837760925, 0.6081161499023438, -0.13998883962631226, -0.049703020602464676, -0.10349610447883606, 0.04312598705291748, 
-0.16736404597759247, 0.3331751227378845, 0.3354313373565674, 0.4222066402435303, -0.36501002311706543, -0.2515062987804413, -0.1983366161584854, 
0.045356862246990204, 0.28486356139183044, 0.24324503540992737, 0.4436797499656677, 0.062155041843652725, -0.10883254557847977, 0.6444696187973022, 
-0.49266737699508667, 0.4788948595523834, -0.03687109798192978, 0.3512553870677948, 0.034164875745773315, -0.24270188808441162, -0.04035118222236633, 
0.0028578622732311487, 0.16940152645111084, 0.27464568614959717, -0.29483506083488464, 0.1489812433719635, 0.15723440051078796, 0.04809795320034027, 
-0.2807562053203583, 0.25884878635406494, -0.09469117224216461, 0.3760872483253479, 0.3966321647167206, 0.42090606689453125, 0.0019007435766980052, 
-0.1385277807712555, -0.08467786759138107, 0.09014254063367844, -0.11248522251844406, -0.07130927592515945, -0.10002855956554413, -0.070926733314991, 
0.005555510520935059, 0.40571650862693787, 0.1965198963880539, -0.1406630277633667, 0.24972401559352875, -0.04033854231238365, -0.001828107051551342, 
-0.3677390217781067, -0.46402525901794434, 0.21106299757957458, -0.2662835121154785, 0.021852878853678703, 0.6445121765136719, -0.15833242237567902, 
0.18097072839736938, 0.12080807238817215, -0.0030851373448967934, 0.36637651920318604, 0.1438266783952713, 0.24696756899356842, -0.08972010016441345, 
0.31710830330848694, 0.16310429573059082, 0.508099377155304, -0.2239457070827484, -0.027642646804451942, -0.26694977283477783, -0.6105605363845825, 
0.13427001237869263, 0.25382760167121887, 0.2713787853717804, -0.08911232650279999, -0.18850144743919373, 0.029712103307247162, 0.2810187339782715, 
0.25894829630851746, -0.09518873691558838, 0.48628538846969604, 0.07865976542234421, -0.17532660067081451, -0.16759872436523438, 0.2941597104072571, 
0.07674272358417511, -0.09229883551597595, -0.1770605444908142, -0.2709881663322449, 0.17813338339328766, 0.3163785934448242, -0.02039250172674656, 
-0.051229607313871384, -0.10007203370332718, 0.16191339492797852, 0.3180622458457947, -0.5034816861152649, -0.14832888543605804, -0.6414461731910706, 
-0.027580104768276215, 0.30259567499160767, -0.28907376527786255, -0.07756484299898148, -0.09023433923721313, 0.035809893161058426, -0.23915934562683105, 
0.12787684798240662, 0.022827526554465294, 0.17411014437675476, 0.046184882521629333, 0.05685922130942345, -0.1299915760755539, -0.21934665739536285, 
-0.36975979804992676, -0.03767004981637001, -0.6326621174812317, 0.19736258685588837, -0.4142012298107147, 0.05951029807329178, -0.3149721920490265, 
-0.3131682574748993, -0.27553433179855347, -0.09017661213874817, -0.07207196205854416, 0.8545058369636536, -0.02044719271361828, 0.37787607312202454, 
-0.3445332944393158, -0.2079276740550995, -0.3913732171058655, -0.030658064410090446, 0.17644651234149933, 0.09706728160381317, -0.19840875267982483, 
-0.5971347689628601, 0.02277899906039238, -0.0011803754605352879, 0.6468700170516968, -0.06012502685189247, -0.007009502965956926, 0.07815277576446533, 
0.21818207204341888, 1.1107217073440552, 0.29896095395088196, -0.5055369734764099, 0.27219682931900024, -0.2169172763824463, -0.05150036886334419, 
0.19943593442440033, 0.1755993515253067, -0.13508917391300201, 0.011034072376787663, -0.43806424736976624, 0.31693893671035767, -0.38687482476234436, 
0.04738498106598854, -0.07964245975017548, -0.01852366141974926, -0.12109462916851044, 0.11135576665401459, 0.3551424741744995, -0.19670532643795013, 
0.42376652359962463, -0.2386987805366516, -0.08043357729911804, -0.07186614722013474, -0.5364311933517456, -0.48219677805900574, -0.3819253742694855, 
0.392347127199173, 0.03312500938773155, 0.25825056433677673, 0.43648889660835266, 0.09518713504076004, 0.11744379997253418, 0.15264828503131866, 
-0.033908661454916, -0.11292526870965958, -0.3219405710697174, 0.04161776602268219, 0.11243689060211182, -0.16352438926696777, -0.1761530488729477, 
0.06522873044013977, -0.10300895571708679, 0.016684656962752342, 0.0007334197289310396, 0.17490606009960175, 0.19257958233356476, 0.6623950600624084, 
0.1578529179096222, -0.1346268206834793, 0.4859934151172638, 0.0373922735452652, 0.015679938718676567, 0.5129298567771912, 0.16714516282081604, 
-0.11416062712669373, 0.5929819941520691, -0.43897953629493713, 0.5818108916282654, 0.39352521300315857, 0.004916087258607149, 0.32431432604789734, 
0.13920800387859344, 0.3520592749118805, 0.11241164803504944, -0.13576096296310425, -0.31800222396850586, 0.31697389483451843, -0.27333107590675354, 
-0.20484371483325958, -0.2821418046951294, 0.28589311242103577, -0.3286436200141907, 0.31402671337127686, 0.04773563891649246, -0.04428156837821007, 
-0.870083749294281, 0.1547282338142395, -0.36502838134765625, -0.11616480350494385, 0.029611261561512947, 0.38183969259262085, -0.005490331444889307, 
-0.24715793132781982, -0.15228688716888428, 0.6423863768577576, 0.09808958321809769, -0.0425126738846302, 0.09311682730913162, -0.26627862453460693, 
0.18817207217216492, -0.015782197937369347, 0.05708863586187363, 0.08832146972417831, 0.0970369204878807, 0.02900194190442562, -0.09931869059801102, 
-0.3910750150680542, -0.20596712827682495, -0.24354331195354462, -0.30120187997817993, -0.1563156545162201, 0.3577759563922882, -0.151688352227211, 
0.2450440675020218, -0.47439607977867126, 0.009705957025289536, -0.42349955439567566, 0.34755849838256836, 0.13868336379528046, 0.1028871163725853, 
0.11215443909168243, 0.16385751962661743, -0.13245874643325806, -0.044562045484781265, -0.08380458503961563, 0.20238135755062103, -0.1391923576593399, 
0.04160178452730179, -0.02797090820968151, -0.33743050694465637, 0.2686534821987152, 0.0764976516366005, 0.3932091295719147, 0.06201821565628052, 
-0.06142649054527283, 0.05106227844953537, 0.15786699950695038, -0.36687397956848145, -0.37904003262519836, -0.6496298313140869, -0.353818416595459, 
-0.11816100776195526, -0.11883776634931564, 0.02861529216170311, 0.19949615001678467, -0.348470002412796, 0.1486770510673523, -0.38047361373901367, 
0.18741312623023987, -0.042269811034202576, -0.06614330410957336, 0.021820195019245148, 0.1338229477405548, -0.18200555443763733, 0.2774949073791504, 
0.31268617510795593, -0.1928822249174118, -0.10894005000591278, -0.37042468786239624, 0.6928783059120178, 0.17685797810554504, 0.2932761013507843, 
0.06371098011732101, 0.11063068360090256, 0.2442626655101776, 0.31451576948165894, 0.2793882191181183, -0.2937738001346588, 0.17105789482593536, 
0.04038830101490021, -0.0696401298046112, -0.367329478263855, -0.1863652616739273, -0.22729647159576416, -0.5950219631195068, 0.06954839825630188, 
-0.19682499766349792, -0.2910993993282318, -0.23776189982891083, 0.08608263731002808, -0.34611231088638306, 0.011933091096580029, 0.574950098991394, 
-0.604393720626831, 0.45530039072036743, 0.11544808000326157, 0.4348461627960205, 0.14964209496974945, 0.25734177231788635, 0.14981843531131744, 
0.16884438693523407, 0.19721762835979462, -0.08795613050460815, -0.04271954670548439, -0.011827216483652592, 0.17817668616771698, 0.058953508734703064, 
0.43036675453186035, 0.004590168595314026, 0.5716316103935242, 0.18074946105480194, 0.2583691477775574, 0.2881384789943695, -0.6058990955352783, 
-0.043557554483413696, 0.6529911160469055, 0.14587686955928802, 0.07422288507223129, 0.06780987977981567, 0.19813823699951172, -0.024504434317350388, 
0.12431520968675613, 0.9128344058990479, -0.12493329495191574, -0.1629277616739273, 0.17222988605499268, 0.27263733744621277, 0.5227905511856079, 
0.21826638281345367, 0.3986831307411194, -0.08513032644987106, 0.24270452558994293, 0.028476042672991753, -0.34768301248550415, 0.1584244668483734, 
-0.13406844437122345, -0.9249059557914734, 0.8346849083900452, 0.11980940401554108, -0.42118939757347107, 0.06768018752336502, -0.38427677750587463, 
0.08210979402065277, -0.07070869207382202, -0.24398891627788544, 0.22230738401412964, -0.0977265015244484, -0.07014144212007523, 0.13896730542182922, 
0.2351096272468567, 0.14878875017166138, -0.3850320279598236, 0.23140671849250793, 0.6876324415206909, 0.12703385949134827, -0.09349771589040756, 
-0.20854154229164124, -0.40315666794776917, -0.25480684638023376, -0.7972474098205566, 0.0681353509426117, 0.047413963824510574, 0.33210137486457825, 
-0.01126425713300705, -0.14407435059547424, 0.1600750982761383, -0.16703154146671295, 0.32592809200286865, -0.3767061233520508, 0.3168364465236664, 
-0.3479560911655426, 0.04909764230251312, -0.20200830698013306, -0.10703643411397934, -0.3424243628978729, -0.9502156972885132, -0.057385288178920746, 
0.04875965788960457, -0.05893239751458168, 0.24160665273666382, 0.1480366289615631, 0.1363668441772461, -0.3050996959209442, 0.2571823298931122, 
-0.1694638878107071, 0.4382774233818054, 0.3503512144088745, 0.11691165715456009, -0.28707656264305115, 0.12032191455364227, 0.3145953416824341, 
0.24635522067546844, -0.2059253454208374, -0.15642708539962769, -0.28239694237709045, 0.5048147439956665, -0.25384578108787537, 0.37144583463668823, 
0.039529941976070404, 0.02828863263130188, 0.2605191171169281, 0.03907586634159088, 0.08460354059934616, -0.23526322841644287, -0.0595257468521595, 
-0.053471799939870834, 0.27673256397247314, 0.2759011685848236, -0.35632508993148804, -0.06493496894836426, 0.04589594528079033, -0.1395479142665863, 
0.12860994040966034, 0.19029399752616882, -0.19731925427913666, -0.3094683885574341, -0.16542436182498932, 0.11859642714262009, 0.07198449224233627, 
-0.10145682096481323, 0.00899574439972639, 0.09241525083780289, -0.5230467319488525, -0.06403521448373795, -0.05224372446537018, -0.005001097451895475, 
0.1452641636133194, 0.2715429365634918, -0.3272339701652527, -0.07840584218502045, 0.13664448261260986, -0.08560251444578171, -0.08712493628263474, 
0.18562990427017212, 0.1738482415676117, 0.010722722858190536, -0.051118768751621246, -0.12360357493162155, -0.020916791632771492, 0.3452545702457428, 
0.3913458287715912, 0.3959537744522095, -0.061543941497802734, -0.15027041733264923, -0.1184004619717598, -0.014321941882371902, -0.017615286633372307, 
-0.22667555510997772, 0.36964985728263855, -0.010517800226807594, -0.10236290097236633, -0.04795803502202034, -0.21504224836826324, 0.04789428785443306, 
0.05768831446766853, -0.24887272715568542, 0.26933178305625916, -0.12166822701692581, 0.17910364270210266, -0.01592227816581726, 0.181214839220047, 
-0.06490100175142288, -0.09260895848274231, -0.019814224913716316, 0.30824556946754456, 0.17135955393314362, -0.13799823820590973, -0.024784278124570847, 
0.004906068090349436, -0.06859792023897171, -0.5866659283638, -0.02930278331041336, 0.13771206140518188, -0.16240763664245605, -0.04486752673983574, 
-0.10904068499803543, 0.10450287908315659, 0.32549044489860535, -0.12234161794185638, 0.06614906340837479, 0.19195260107517242, 0.09223498404026031, 
0.1387576162815094, 0.08629769831895828, 0.01273456122726202, -0.04667741060256958, -0.19558019936084747, -0.5429919958114624, 0.16633938252925873, 
-0.16692756116390228, -0.08128173649311066, 0.3301750421524048, -0.06252700090408325, 0.3748781681060791, 0.05251111462712288, 0.026650136336684227, 
0.17848633229732513, 0.07812286913394928, 0.17197084426879883, -0.18186232447624207, -0.10059846937656403, -0.2928657829761505, -0.10071859508752823, 
-0.2201058715581894, 0.004443133249878883, 0.29953715205192566, -0.5467894077301025, -0.15808139741420746, 0.03249586001038551, 0.2745244801044464, 
-0.1873997300863266, 0.11757784336805344, 0.14460121095180511, -0.08215907961130142, -0.11625249683856964, -0.07990863174200058, -0.2632305920124054, 
0.4361021816730499, -0.16638979315757751, 0.18266873061656952, -0.22875219583511353, 0.37186723947525024, 0.4216712415218353, -0.5564376711845398, 
-0.3644302785396576, 0.19166754186153412, 0.09311344474554062, -0.20041099190711975, 0.006234835833311081, -0.16069406270980835, 0.02830626629292965, 
-0.0197288878262043, 0.2809278964996338, -0.0849810540676117, -0.44918093085289, -0.263485848903656, -0.0963229387998581, 0.05404486879706383, 
-0.5450857877731323, 0.08691200613975525, 0.26244479417800903, 0.04315391555428505, -0.025355886667966843, -0.19909019768238068, -0.24625816941261292, 
0.09833402186632156, -0.5121843218803406, -0.1975356936454773, 0.32266920804977417, -0.2760906517505646, 0.56221604347229, 0.20447686314582825, 
0.0033044626470655203, 0.10237980633974075, 0.019575461745262146, -0.5079583525657654, -0.16530361771583557, 0.1790095865726471, -0.9123061895370483, 
-0.024794576689600945, 0.39284831285476685, -0.8962698578834534, 0.08691898733377457, -0.21684575080871582, 0.13927604258060455, -0.030946528539061546, 
-0.3963772654533386, -0.5129101872444153, -0.015046931803226471, 0.1494380384683609, -0.186149463057518, 0.373917818069458, -0.06464793533086777, 
-0.051053550094366074, 0.2164270430803299, 0.1731758713722229, -0.31022965908050537, 0.044782303273677826, 0.0985526293516159, -0.23431500792503357, 
0.1216377541422844, 0.03392554074525833, -0.02372203767299652, -0.2756929397583008, -0.4102163314819336, 0.3503597378730774, 0.035142432898283005, 
0.6515846252441406, 0.36252668499946594, -0.1742228865623474, 0.13829927146434784, -0.3633098006248474, 0.5565944314002991, 0.3823799192905426, 
-0.16094602644443512, -0.14448080956935883, 0.0045798346400260925, -0.3702881932258606, -0.06652126461267471, 0.08748143911361694, 0.3365252912044525, 
0.5013483762741089, -0.4597581624984741, -0.28088176250457764, -0.10467982292175293, -0.06399955600500107, -0.17759020626544952, 0.37466251850128174, 
0.1819448322057724, -0.5559753775596619, 0.29037556052207947, 0.21538813412189484, -0.2193564474582672, -0.5110999345779419, -0.254133939743042, 
0.992729663848877, -0.11422405391931534, 0.2675406038761139, -0.05174374207854271, -0.4315316677093506, -0.13559304177761078, -0.2813440263271332, 
0.08843585103750229, -0.06608026474714279, 0.4856692850589752, -0.2373545616865158, -0.3068770170211792, 0.05251220613718033, -0.22086822986602783, 
0.22010768949985504, -0.2214801013469696, -0.7890843749046326, 0.6786216497421265, 0.021721435710787773, 0.29413583874702454, 0.15077710151672363, 
0.6206567883491516, -0.5912129282951355, 0.17756319046020508, 0.3825138211250305, -0.7870085835456848, 0.21244452893733978, 0.47692784667015076, 
0.12875506281852722, 0.40896838903427124, -0.5063477754592896, -0.37233346700668335, 0.3295527696609497, -0.570805013179779, 0.297920823097229, 
0.3702864944934845, 0.6233617067337036, -0.33727410435676575, 0.6261061429977417, 0.10002506524324417, -0.4170956015586853, 0.07850198447704315, 
-0.07386445254087448, -0.38495591282844543, -0.28178855776786804, 0.5845861434936523, -0.2825872600078583, -0.13615219295024872, 0.3696630895137787, 
0.1687561720609665, -0.19567373394966125, -0.3334498703479767, 0.3639601171016693, 0.3754645884037018, 0.009130346588790417, 0.12217801064252853, 
-0.2084679752588272, 0.6496528387069702, -0.11873283982276917, -0.3723275661468506, -0.21462394297122955, -0.27158603072166443, 0.34553807973861694, 
-0.5369945764541626, 0.3814544975757599, -0.3431593179702759, 0.06493441760540009, -0.18359780311584473, 0.35720035433769226, 0.36032041907310486, 
0.03303084149956703, 0.28803449869155884, -0.17447718977928162, -0.10737293213605881, 0.16300652921199799, 0.08553481847047806, -0.19123636186122894, 
-0.20054104924201965, 0.28756019473075867, -0.1640273779630661, 0.21447423100471497, -0.07886690646409988, 0.47314685583114624, 0.2338448315858841, 
-0.3413543403148651, 0.32419607043266296, -0.32855740189552307, 0.2697097957134247, -0.021223653107881546, -0.2493092566728592, -0.12765876948833466, 
-0.3003048598766327, 0.40658652782440186, -0.30630582571029663, 0.08718067407608032, 0.10340394079685211, 0.0014909998280927539, -0.07537734508514404, 
0.29597726464271545, 0.4358135163784027, 0.1328301876783371, 0.3019055426120758, -0.12887908518314362, -0.26741811633110046, 0.26434287428855896, 
0.052790384739637375, 0.271273136138916, -0.1759391576051712, 0.14794489741325378, 0.29535502195358276, -0.2963131070137024, -0.5592321753501892, 
-0.32312312722206116, -0.3787771761417389, 0.19560354948043823, -0.14234715700149536, 0.16725018620491028, 0.0119660384953022, -0.1674257218837738, 
0.2873864471912384, 0.5040232539176941, 0.5021909475326538, 0.10682849586009979, 0.34574025869369507, 0.42299047112464905, 0.3538382649421692, 
0.10037238150835037, -0.05623853951692581, -0.36177316308021545, 0.3861198425292969, -0.36572715640068054, -0.1921674758195877, -0.3469037413597107, 
-0.18816950917243958, -0.03406824171543121, 0.08402872085571289, 0.07171846181154251, 0.3009953200817108, 0.31784236431121826, -0.22320477664470673, 
-0.044338833540678024, -0.4548533856868744, -0.2085350602865219, 0.32994890213012695, -0.5847460627555847, 0.008241431787610054, -0.07482694834470749, 
-0.30877014994621277, -0.2989417016506195, -0.11451750993728638, 0.28516221046447754, -0.13354894518852234, -0.4012048840522766, 0.19943250715732574, 
-0.41516435146331787, 0.1591947227716446, 0.17232292890548706, -0.009907005354762077, -0.04532264173030853, -0.329347163438797, 0.05661976337432861, 
0.06264331191778183, 0.13323822617530823, -0.2686772346496582, 0.058039210736751556, -0.18260112404823303, -0.41907551884651184, -0.41858741641044617, 
-0.28449320793151855, -0.11248627305030823, -0.32009944319725037, 0.30290427803993225, -0.1492556631565094, 0.06543940305709839, 0.45547160506248474, 
0.44067373871803284, -0.1401532143354416, 0.2138814777135849, -0.009946189820766449, -0.32826119661331177, 0.04389242082834244, 0.24591343104839325, 
-0.02553759515285492, -0.3674384653568268, -0.3618841767311096, 0.04062511771917343, -0.14798833429813385, 0.11511178314685822, 0.20399123430252075, 
-0.008669167757034302, -0.13180899620056152, 0.19370847940444946, 0.2780565619468689, -0.20945002138614655, 0.07544805854558945, 0.022318163886666298, 
0.10716445744037628, 0.39162006974220276, -0.07111921906471252, 0.9762773513793945, 0.5050439238548279, 0.3715141713619232, -0.035294823348522186, 
-0.16370925307273865, -0.15535525977611542, 0.5660184621810913, -0.0944313332438469, -0.040040601044893265, 0.18995127081871033, -0.34270280599594116, 
-0.24298080801963806, 0.10722485929727554, -0.15907436609268188, -0.5521283745765686, -0.5072482824325562, 0.04144198074936867, -0.09607453644275665, 
-0.11458292603492737, -0.25223276019096375, 0.047212328761816025, 0.68600994348526, -0.17492350935935974, 0.2936091423034668, -0.14026540517807007, 
0.17814508080482483, 0.4246858060359955, 0.36769846081733704, -0.031245367601513863, 0.15612170100212097, -0.41077348589897156, -0.13245059549808502, 
-0.29957684874534607, 0.17010881006717682, 0.16148972511291504, -0.10427458584308624, 0.30239051580429077, -0.37150654196739197, -0.12494570761919022, 
-0.12405158579349518, 0.021272161975502968, 0.20305988192558289, -0.07857402414083481, 0.07234430313110352, 1.1349940299987793, -0.11842357367277145, 
0.31673184037208557, 0.13161601126194, -0.1786256581544876, 0.1611190289258957, 0.1245923861861229, 1.0332469940185547, -0.041926730424165726, 
0.17214539647102356, 0.15279962122440338, -0.24312439560890198, 0.014328482560813427, 0.2085363119840622, 0.09780088067054749, -0.2546975016593933, 
0.15975122153759003, -0.252878338098526, -0.013182318769395351, 0.10104920715093613, -0.2791140675544739, -0.2707914412021637, -0.033436860889196396, 
-0.3078136444091797, -0.3066713511943817, -0.0653022825717926, -0.07105755060911179, -0.14821317791938782, 0.1329679638147354, -0.4654514491558075, 
-0.35145145654678345, -0.10041891038417816, -0.22966192662715912, -0.3539288640022278, 0.012373777106404305, 0.04501188173890114, -0.22988994419574738, 
0.070949487388134, 0.03628917038440704, -0.23130889236927032, -0.3108523488044739, 0.07514869421720505, 0.1900750696659088, 0.026583407074213028, 
0.31026768684387207, -0.15637840330600739, -0.2889961302280426, 0.22204896807670593, 0.4826371371746063, -0.23466022312641144, 0.3221870958805084, 
0.29824092984199524, 0.20241986215114594, 0.4087827503681183, 0.23388122022151947, 0.09812838584184647, -0.11599238961935043, -0.07917742431163788, 
0.1425320953130722, 0.5621744394302368, 0.10513676702976227, -0.329183965921402, 0.4324106276035309, -0.4823518395423889, 0.03425334393978119, 
-0.1863856464624405, 0.5169427394866943, 0.3737400472164154, -0.34938305616378784, -0.02987818233668804, -0.5898721218109131, -0.11794218420982361, 
-0.2400796115398407, 0.07743371278047562, 0.3982197344303131, 0.5205658078193665, -0.9265425801277161, -0.234030619263649, 0.08081375062465668, 
-0.18283230066299438, 0.20650555193424225, -0.043335750699043274, -0.6083728075027466, -0.18226651847362518, -0.5010223984718323, -0.4860994815826416, 
0.07489337772130966, -0.3173857033252716, -0.07327467203140259, -0.14172929525375366, 0.06601481884717941, -0.14757570624351501, -0.21442385017871857, 
-0.4619538187980652, -0.2729104459285736, 0.38860827684402466, 0.1803458333015442, -0.006729526445269585, 0.20547926425933838, -0.370350182056427, 
-0.08149337023496628, -0.15879155695438385, -0.46797049045562744, -0.09918094426393509, 0.3113630712032318, -0.3747819662094116, 0.13790079951286316, 
0.03579021990299225, -0.05273978412151337, -0.1259278506040573, 0.3247801959514618, -0.014520959928631783, -0.040374428033828735, 0.3275741636753082, 
