-0.00020684329501818866, 0.0003323465643916279, -0.00035722111351788044, 0.0001497003249824047, -0.0003269089211244136, -4.8111105570569634e-05, -8.455162605969235e-05, 0.0002501478011254221, -0.00030164787312969565, 0.00031103711808100343, -0.00023263465845957398, -0.00028054520953446627, 0.0001075624386430718, -0.0003393765655346215, 0.00019590463489294052, 0.0001414345169905573, -0.00021662453946191818, -0.0003012426313944161, 0.00032382982317358255, -1.6626414435449988e-05, -0.00033517691190354526, 0.00034428396611474454, 0.0003029111830983311, 0.000223815135541372, -0.0001941672235261649, 9.416642569703981e-05, -6.06931971560698e-05, -4.24331592512317e-05, 0.0001708989148028195, -0.00022955155873205513, -0.00011829184222733602, -0.00032724408083595335, -0.0002377671335125342, -0.0002477623347658664, -8.29731798148714e-05, -9.833680815063417e-05, -0.0003241334343329072, -0.00028141969232819974, 2.3620987121830694e-05, -0.00019230390898883343, 0.00025343921151943505, -0.0002925613080151379, 0.0003521572216413915, 0.0001451183925382793, -0.00036244047805666924, 0.0003787793102674186, -0.0002664230123627931, 0.0003454503312241286, -0.00036441898555494845, -3.8312871765810996e-05, 0.00036303099477663636, 6.495432899100706e-05, -0.00018187743262387812, -0.00024708997807465494, -0.00028764011221937835, 2.2829783119959757e-05, 0.00038487554411403835, 0.0003290683962404728, 0.00021166923397686332, 0.0002654936397448182, 0.0002581355511210859, -0.00019680715922731906, 0.000231209269259125, -2.651069507919601e-06, 0.00026014234754256904, 0.00030330801382660866, -0.00024640391347929835, -0.00016469016554765403, -0.000309599592583254, -6.986105290707201e-05, 0.00017942390695679933, -0.00021352367184590548, -0.0003097012231592089, 0.0001719142310321331, 8.303758659167215e-05, 0.00021724241378251463, -0.00022213337069842964, 0.00019277773390058428, 6.815718279540306e-06, 0.0003160536871291697, 5.1000738494622055e-06, 5.279777542455122e-05, 0.0002318186598131433, -0.0003171466232743114, 0.0002767177647911012, 0.00019424819038249552, 0.00014504807768389583, -2.9281782190082595e-05, 7.41667317925021e-05, -3.604757512221113e-05, 0.00021289638243615627, -2.0796211174456403e-05, 0.00030369622982107103, 8.84303699422162e-06, 5.265806976240128e-05, 0.00036583421751856804, -0.00021206583187449723, 0.0003756936639547348, 0.00020099998801015317, -0.00027389603201299906, 0.0002108694752678275, 6.379667320288718e-05, -3.0453471481450833e-05, 0.00030807004077360034, -0.0003144104848615825, 8.797618647804484e-05, -0.0003273645124863833, 8.939071267377585e-05, 0.000145107987918891, -2.9987688321853057e-05, -0.00016631805920042098, 0.00015733993495814502, 1.7850270523922518e-05, -0.00012067562056472525, 0.00016085671086329967, 0.00038987782318145037, 0.00028996740002185106, 0.000354414718458429, 0.0003787539026234299, -0.00022547268599737436, 0.00016012055857572705, 0.00034005107590928674, -0.0003116208827123046, 9.482131281401962e-05, -0.00027948254137299955, 1.1911326510016806e-05, 0.00036175359855405986, -0.00031455516000278294