// Numpy array shape [128]
// Min -0.0881922
// Max 0.08672913
// Number of zeros 0

#ifndef TRANSFORMERS_1_SELF_ATTENTION_OUT_BIAS_H_
#define TRANSFORMERS_1_SELF_ATTENTION_OUT_BIAS_H_

#ifndef __SYNTHESIS__
model_default_t transformers_1_self_attention_out_bias[128];
#else
model_default_t transformers_1_self_attention_out_bias[128] = {-0.04405343532562256, 0.04499910771846771, 0.02076089195907116, 0.03013613261282444, -0.04165033996105194, 0.07065480202436447, 
0.022965753450989723, 0.061371203511953354, 0.029386499896645546, -0.019425738602876663, 0.019506633281707764, -0.05157460644841194, 0.05448529124259949, 
-0.06508171558380127, 0.07238347083330154, -0.01240413449704647, -0.04447338730096817, 0.03309612721204758, -0.051880113780498505, 0.016794638708233833, 
-0.077574722468853, -0.0791909247636795, 0.0413270927965641, 0.035472042858600616, -0.005485178902745247, -0.08819220215082169, 0.008496264927089214, 
0.07721775025129318, -0.014799464493989944, -0.06599705666303635, -0.03633375093340874, 0.005881715100258589, 0.010727868415415287, 0.055758845061063766, 
0.004918054211884737, 0.07312147319316864, 0.07885284721851349, 0.019020775333046913, -0.030002176761627197, 0.058401212096214294, 0.055451132357120514, 
0.04905017837882042, -0.03642302379012108, 0.05955196171998978, -0.025013716891407967, -0.0019438766175881028, -0.049021653831005096, 0.005691628437489271, 
0.04028964787721634, -0.026720769703388214, -0.038865651935338974, 0.05819055810570717, -0.08234891295433044, 0.08553282171487808, 0.00676166033372283, 
-0.07258806377649307, -0.08545541763305664, -0.008639962412416935, 0.07052983343601227, 0.008622333407402039, 0.084662064909935, 0.03854057565331459, 
-0.006932244170457125, 0.02751298062503338, 0.013285096734762192, 0.010491219349205494, -0.04984279349446297, 0.014795324765145779, 0.05442899838089943, 
-0.03621711581945419, -0.03299766778945923, 0.01248497050255537, -0.04017497971653938, 0.01389975193887949, 0.020954478532075882, 0.07358082383871078, 
0.04149191826581955, -0.07747668027877808, 0.0625254213809967, -0.05556855723261833, -0.07272189110517502, 0.06961201131343842, 0.0723726823925972, 
-0.06565377861261368, 0.0018314614426344633, 0.029734980314970016, 0.04701216518878937, -0.020336301997303963, 0.08162316679954529, 0.04793820530176163, 
-0.01216676365584135, -0.041597723960876465, -0.08101809769868851, -0.003621309297159314, -0.03885911405086517, -0.011195735074579716, -0.045985594391822815, 
0.024403957650065422, 0.05044204369187355, -0.01453673280775547, 0.011617232114076614, 0.0800599753856659, -0.01966620795428753, -0.040881991386413574, 
0.03964594006538391, 0.07474080473184586, 0.033594027161598206, -0.02535039559006691, 0.06133129447698593, 0.06103481724858284, -0.07207046449184418, 
-0.034977395087480545, -0.0069315871223807335, 0.07819771021604538, 0.010100254788994789, 0.08672913163900375, -0.002387585584074259, -0.06472817063331604, 
-0.04889361932873726, -0.08287012577056885, 0.06035802140831947, 0.054634179919958115, 0.037556204944849014, -0.06388317793607712, -0.05289889872074127, 
0.07441213726997375, -0.06811859458684921, -0.06801105290651321};

#endif

#endif
