// Numpy array shape [256]
// Min -0.00032647912
// Max 0.00031550456
// Number of zeros 0

#ifndef TRANSFORMERS_2_LINEAR_3_BIAS_H_
#define TRANSFORMERS_2_LINEAR_3_BIAS_H_

#ifndef __SYNTHESIS__
model_default_t transformers_2_linear_3_bias[256];
#else
model_default_t transformers_2_linear_3_bias[256] = {-0.0002656208525877446, -0.00016188379959203303, -0.00030384448473341763, -1.5447209079866298e-05, -4.4584376155398786e-05, -0.0002052999334409833, 
-0.00021854686201550066, 0.0002778106718324125, 4.9592134018894285e-05, 0.00016354337276425213, -0.0002631724055390805, 0.0001307123457081616, 0.0002934370713774115, 
0.00027336165658198297, 0.00020642514573410153, -0.00022882870689500123, -2.7724940082407556e-05, 4.539095243671909e-05, -0.0001290027576033026, 8.599001739639789e-05, 
0.00023746825172565877, -0.00015168941172305495, -0.00020367301476653665, -3.633430605987087e-05, 0.00028278634999878705, 0.0002837633073795587, 0.00011348318366799504, 
-0.00019649833848234266, -0.00011734013969544321, 0.0001075508480425924, 0.00011792292934842408, -0.00020149245392531157, -0.00020505084830801934, 0.00019069663539994508, 
-0.0001684499002294615, 5.619290823233314e-05, 0.00024623313220217824, 0.00021681305952370167, -0.00017173665401060134, 0.00023167097242549062, -0.00021711176668759435, 
0.0002289946423843503, 0.0001996526261791587, -1.4182101040205453e-05, 0.00017706197104416788, -0.00017051280883606523, -0.0002755994501058012, 0.00011436574277468026, 
-7.846314838388935e-05, -2.8239841412869282e-05, 0.000197346176719293, 0.00024280144134536386, -0.00010478252079337835, -0.00015982234617695212, 5.2154806326143444e-05, 
6.54524119454436e-05, -0.00022848957451060414, 0.00020116007362958044, 0.000313873722916469, 0.00011858807556563988, 0.0001998850202653557, 1.9227954908274114e-05, 
0.0001662418362684548, -0.00024093016691040248, -5.997311745886691e-05, -3.153173747705296e-05, 0.00018481494043953717, -0.00018309061124455184, 0.00021125163766555488, 
-0.00010474619193701074, -0.00012422094005160034, 6.220235081855208e-05, -0.0002710218250285834, 0.00025916393497027457, -0.0003003088932018727, -0.0002916330413427204, 
-0.00013138161739334464, 0.00018818546959664673, -0.0002731319982558489, 0.0003076964057981968, -0.00026345899095758796, -3.9372825995087624e-05, -6.069726623536553e-07, 
0.0002447016886435449, -0.00023851582955103368, -4.398824603413232e-05, -0.0002460871764924377, 0.00018561529577709734, 0.00010282309085596353, 0.00022575528419110924, 
3.7173351302044466e-05, 0.0001748082140693441, 0.0002184085315093398, 0.00018319858645554632, -0.00020640653383452445, -0.00017388066044077277, -5.0815364375011995e-05, 
-0.00010958343773381785, 0.0002032037009485066, 0.0002293257712153718, 0.0001750078663462773, -0.00015993398847058415, -0.00018902745796367526, 0.00021690902940463275, 
0.00019920559134334326, -0.00027322524692863226, 9.932605462381616e-05, -0.0001638422254472971, -0.0002275479637319222, 0.00014808931155130267, 0.0001568585867062211, 
0.00017261365428566933, 0.00010436126467538998, -0.00028411223320290446, -0.0003185516980011016, -0.0002824508410412818, -0.00021348462905734777, 0.0001269227941520512, 
-8.819585491437465e-05, 5.951031926088035e-05, -7.721845031483099e-05, -0.00011391155567253008, -1.641183189349249e-05, 0.0002465069410391152, 0.00016206481086555868, 
0.00014876038767397404, -0.000244964990997687, 1.7704829588183202e-05, -0.0001794718118617311, -6.0341437347233295e-05, 0.00021331447351258248, 0.00023128977045416832, 
0.0002335220924578607, 0.00010795822163345292, -0.0003165141970384866, -6.292440230026841e-05, 5.9122023230884224e-05, 0.00020562989811878651, -0.00011361223732819781, 
-0.00010333491081837565, -0.0001872800785349682, 6.594206934096292e-05, 0.00031550455605611205, -0.00022760625870432705, -4.6618561100331135e-06, 0.00017192434461321682, 
0.00019092956790700555, -2.5973708034143783e-05, -0.00021876311802770942, 6.72897876938805e-05, 0.0001876973401522264, 2.5413442926947027e-05, 2.1274903701851144e-05, 
-3.244916661060415e-05, -0.00022162331151776016, -0.00029603781877085567, 0.00019123156380373985, -0.0002071838389383629, 5.96321806369815e-05, -5.0154252676293254e-05, 
-5.875211627426324e-06, -2.248549208161421e-05, -0.00022982808877713978, 0.00026486633578315377, 0.0001527195709059015, 0.0001750083756633103, 0.00020920499810017645, 
-0.0002319045743206516, 0.00011177053966093808, 0.00030917549156583846, 0.00020606307953130454, -0.0002009810268646106, 0.0001933948224177584, -0.00019952660659328103, 
-8.965258166426793e-05, 0.00023047151626087725, 0.00020073456107638776, -6.438124546548352e-05, -0.0001697014959063381, 0.00022741610882803798, -0.0002212034451076761, 
0.00016280205454677343, 7.810853276168928e-05, -9.847541514318436e-05, -0.0003039489092770964, 4.523756433627568e-05, 0.00010374833073001355, 0.00019572403107304126, 
-0.00020212367235217243, -0.00020486391440499574, -0.00022866534709464759, -0.00019399283337406814, 9.455427061766386e-05, -0.0002147815393982455, -0.0001708411000436172, 
0.00020342771313153207, -0.00021182979980949312, -9.334786591352895e-05, 0.0002266184164909646, -9.887807209452149e-06, 0.0002087098837364465, 0.0002233299455838278, 
-9.038785719894804e-06, 0.0002088900946546346, 0.000303934357361868, -0.0002838907821569592, -0.00032647911575622857, 0.0001635018561501056, 0.0002057475649053231, 
-0.00012290167796891183, -0.0002219065499957651, 0.0002771754516288638, -0.00023684976622462273, -0.00019551788864191622, -6.123770435806364e-05, -4.774504304805305e-06, 
-0.00016489675908815116, 7.817309960955754e-05, -3.3010943297995254e-05, -7.27006554370746e-05, 0.0002759453491307795, -0.00024539936566725373, -0.00021905706671532243, 
0.00014009518781676888, 0.00023943179985508323, 6.893668796692509e-06, -5.702082489733584e-05, -6.6271451942157e-05, -0.00014055952487979084, 5.766398680862039e-05, 
-0.00013628791202791035, 4.17419032601174e-05, 0.0002399145596427843, -0.00020963777205906808, 0.00020433390454854816, 0.00014958907559048384, -0.00012308025907259434, 
0.0001635383378015831, 0.0002808277204167098, -7.162772817537189e-05, -3.856556577375159e-05, 0.00016622866678517312, 0.00010509216372156516, 0.00027821585536003113, 
-0.00016560924996156245, 0.00018856924725696445, 0.0002864608832169324, -8.289342804346234e-05, 0.00016884742944967002, 0.00020276737632229924, -0.0002027608425123617, 
3.9850805478636175e-05, 0.00021376779477577657, 0.00022462030756287277, -0.00024367733567487448, 0.00018101227760780603};

#endif

#endif
