// Numpy array shape [128]
// Min -0.00318729345572379
// Max 0.0034766975665796503
// Number of zeros 0

#ifndef TRANSFORMERS_0_SELF_ATTENTION_NORM_BIAS_H_
#define TRANSFORMERS_0_SELF_ATTENTION_NORM_BIAS_H_

#ifndef __SYNTHESIS__
model_default_t transformers_0_self_attention_norm_bias[128];
#else
model_default_t transformers_0_self_attention_norm_bias[128] = {0.0026351373616355705, 0.0009138445921950872, -0.0004812182380474535, -0.0007742829732737342, -3.4669521662225654e-05, -2.318045877304908e-05, 
0.0006818387360995745, 9.921938992233517e-05, 0.00045301828443534373, -0.0007260879679126114, -0.000462511104653367, -0.0017527009432853785, 0.00174288595230217, 
-0.0018227927633453166, 0.0016937689631602876, -0.0007141065356831785, 0.00020672819894506885, 0.0010991029603686702, -0.0012272415578799829, 0.001316688853806981, 
-0.0014527222715546536, -0.0006589680766754566, 0.00191351237674061, -9.419735901398188e-05, 0.0008361911292141908, 0.0014630142153616538, 0.00011548315491162101, 
0.0019061651336336996, 0.0016736012694835642, 0.00016820904072094861, 1.0968881942245375e-07, -0.00030916706215910057, 0.00035393030964595793, -4.8617757872662134e-05, 
0.0008309118690766152, -0.0005634993625326749, 0.0012357798388774376, -0.00027521390838555515, -0.0004404008569761619, -0.00074697791147333, -0.0008235633350037561, 
0.0003668774251232418, 0.0004497084991227761, -0.0008397892466745342, -0.0003750671056150832, 0.0005471802664482574, 0.00036348875232075276, 0.00035123928171852816, 
-0.0007236462314217862, 0.0012910236293026617, -0.0006662908720474701, 2.5430713441979582e-05, 0.003281959617256213, -0.0025638480733609476, -0.00099122341121171, 
0.00016648316893382885, 0.000434892225655817, -0.001172100967809101, -6.350677351629892e-05, -0.0013513472172875466, -0.0009687182107646472, 0.0018960947249473442, 
0.0014244414368164858, -0.00029316721348648304, 6.873250489849974e-05, 0.00012305817665870877, 0.000306611258259616, -8.389203921800974e-05, 0.0021380533313298668, 
-0.00026992242675498646, 0.0001785644825071084, 0.0007671117340928836, -0.0004376648063499088, -0.00318729345572379, -0.00126061659363526, -0.001202696532778711, 
0.0007784860389827707, 0.00010344555208980178, -0.000108398201903109, 0.0003334818794882849, 0.0007373458055971103, -0.0009762809617813075, 0.0005707092619085817, 
0.0009058337392618643, -0.000479005028057523, 0.002460935138438737, -0.0008226912891724056, -0.0007258213902472475, 0.00033411123868709776, -0.001687062348056361, 
0.0034766975665796503, -0.0022544405499947, 0.0007947566988458259, 0.0009392016721286082, 0.0001803953803118236, 1.8207709271974507e-05, 0.000787719843412621, 
-0.001924485805043282, 0.0008559151377083437, 0.0004485778477508851, -0.0005076375128019453, 0.0004980769095773928, -0.0005734481198177658, -0.0004047857634273486, 
0.0001765461201475811, 0.0007810426602298065, 0.0008503637057231149, -0.0003381040864976533, -0.0002794799553702149, 0.0005995780603452559, 0.0008832115031942512, 
-0.0005099772517014891, -1.7935303677761225e-05, 0.0006854204782795897, 0.0008395045501952802, 0.0002983620683629189, 0.0007143609295639429, 0.00037250151075891576, 
-8.510900915353304e-05, 0.0008505924661066524, 1.5767183538823347e-05, 0.00036953255380640655, -0.0007799176227616353, 0.0007253938231678908, -0.00045919793520857806, 
0.00046228345249788, -4.135758854726889e-05, 0.0008534271747623229};

#endif

#endif
