// Numpy array shape [128]
// Min -0.005638879653448962
// Max 0.005378041338348855
// Number of zeros 0

#ifndef TRANSFORMERS_2_LINEAR_0_BIAS_H_
#define TRANSFORMERS_2_LINEAR_0_BIAS_H_

#ifndef __SYNTHESIS__
model_default transformers_2_linear_0_bias[128];
#else
model_default transformers_2_linear_0_bias[128] = {0.0014680819344315146, 0.0026548807601508868, 0.002698834209457756, 0.005378041338348855, 0.0002643438086668273, 0.002412821521389038, 
-0.0033443276698633, -0.00038714428271322226, -0.001091020387713659, 0.00011311031511018804, 0.0007331938560682677, -1.219806004069634e-06, 0.0006303550832757713, 
-0.001318974690709024, 0.0012497523355778578, -0.002091504654686461, -0.002031621399112949, -0.0008300777154875775, 0.0002777041589993062, 0.0027695985362814067, 
-0.0006849810656481583, 0.0017881622576814721, 0.0015445324210960343, 0.0003093624270452702, 0.0021400143978784463, -0.0013092451297496376, 0.002278073601307875, 
-0.00296962012719713, 0.0005433303203613378, 0.0011596039754599712, 0.00025276234342033104, -0.0033158777383886407, -0.0003702311091597701, 3.390414084127148e-05, 
-0.005308568404709057, 0.003263544363611568, 0.0034379075867130926, -0.0002088429596903045, 0.001616167471043623, -0.003714806929430434, -0.0001834600899069553, 
-0.000992924162808571, 0.0030135583958386257, 0.0008329868291474448, 0.00013350864687992935, 0.004484275543473491, 0.00035940103631828635, 0.0008453689047166999, 
-0.00242477720668956, -0.001398069322393243, 0.002705142940561476, 0.0005022477999032537, 0.0005088340290718411, -0.0024928369899607796, -0.002595665074545587, 
0.001818248748799732, 0.005262496079594225, 0.0004761817984063651, 0.0014381692107150322, -0.0011327038975248948, -0.005638879653448962, -0.00028792326635198993, 
-0.0008153629062796436, 0.00012031002134650829, 0.0008878660656742751, 0.0017143648405915676, -0.00036996136089301255, 0.0009440080518233791, -0.0003947921387674413, 
-0.0014639114362929558, 0.0007724941643077199, -0.001319403485242506, -0.002309634563679856, -0.0018656393439751165, 0.0007945664556206104, -6.753028062050432e-05, 
0.00015192919476944905, -0.0003223991905849981, 0.0009472744687536531, -0.001771444758704453, 0.0010434533370442859, 0.0011683102256789253, 0.0011195059363363633, 
-0.0021881344860058653, -0.0010545653419038127, 0.00010299083095760359, -0.0014462732106737257, 0.0002858266389647315, 0.002749213768132291, -2.9436421052522293e-05, 
0.0009852418446515568, 0.0009097736535064223, -0.0012235669767692778, -0.0036305299784790608, -0.0014554408446640985, 0.0009668372159169006, -0.0019882353247707204, 
0.0017624343013321287, -0.00048133278338032757, 0.0005461282150885431, -0.0018093248639412518, -0.0006687050191388588, -0.00046314274310668073, 0.0014667174765832216, 
-0.0028002500014897075, 0.0027378259040124375, -0.0015017887882769884, -0.0005356031158368777, 0.0011412954615521902, 0.0015974508925621685, -0.0013091582223437826, 
0.0014159996085493884, 0.003036839496659124, 0.003591388880614543, 0.0007190365087947653, 0.0018754371223312681, 0.0007980826085083831, 0.0019816513337778765, 
-0.0008426064980043351, 0.0006213976975576002, -0.00047121449134082135, 0.0011682892170488345, 0.0018994159142395816, -0.0001311735630072996, -0.004113891448439465, 
0.0036025777079979754, 0.0014242753994123968, -0.0019951660442761748};

#endif

#endif
