-0.0063500311225652695, -0.038484811782836914, 0.04402191936969757, 0.0043300725519657135, -0.040899138897657394, 0.05007356405258179, 0.042911283671855927, -0.0032787167001515627, 0.007888845168054104, -0.21050500869750977, 0.022010279819369316, -0.04742750898003578, 0.05132441595196724, 0.04849684238433838, -0.11915681511163712, 0.40539953112602234, 0.05081499367952347, 0.06068508327007294, -0.02230728790163994, 0.011517491191625595, 0.00429457426071167, -0.05604499578475952, -0.035529859364032745, 0.19096820056438446, 0.0023639544378966093, 0.0017646786291152239, 0.13375796377658844, -0.06195878982543945, -0.10413827747106552, 0.03126924857497215, -0.005892399698495865, -0.026013784110546112, -0.03173231706023216, -0.06399980932474136, 0.010065590962767601, 0.1153261661529541, -0.004541775211691856, -0.12113796919584274, 0.013589907437562943, -0.12651890516281128, 0.027377570047974586, 0.10639972239732742, 0.02617211826145649, 0.00237142201513052, 0.20391765236854553, -0.007059289142489433, 0.0847436711192131, 0.11251834034919739, -0.1388942301273346, -0.04068189859390259, 0.0018356292275711894, -0.043859489262104034, 0.1920909434556961, 0.024756725877523422, -0.21870626509189606, 0.031386908143758774, -0.0006445253384299576, -0.07957012206315994, -0.0851038470864296, -0.04683687165379524, -0.14578258991241455, 0.023140937089920044, 0.07513418793678284, -0.008274069055914879, 0.2537335753440857, -0.03214171528816223, -0.13856439292430878, 0.0003332176129333675, 0.11324921250343323, 0.07885415852069855, 0.012900595553219318, 0.06454925239086151, 0.20786429941654205, -0.08520233631134033, 0.22323797643184662, -0.06733520328998566, 0.02153681218624115, -0.12851473689079285, 0.2502388060092926, 0.008821417577564716, 0.03781959041953087, 0.24923640489578247, 0.04290350526571274, -0.05499615520238876, -0.03228752315044403, -0.1485978215932846, -0.04784711077809334, 0.0275875274091959, 0.36494672298431396, -0.12809374928474426, 0.09224527329206467, -0.02810320258140564, 0.6758232116699219, 0.15852558612823486, 0.10712724179029465, -0.11545728147029877, 0.022608071565628052, 0.05633757263422012, 0.2714008688926697, 0.020565202459692955, 0.06627019494771957, -0.02980152890086174, -0.19882211089134216, 0.026170361787080765, -0.5244631767272949, 0.10745957493782043, -0.012930217199027538, 0.010168519802391529, -0.023852374404668808, 1.1742224160116166e-05, 0.18559740483760834, 0.057528942823410034, -0.10382498055696487, 0.015719754621386528, -0.1244037076830864, 0.14401644468307495, 0.19902153313159943, 0.11356854438781738, -0.03744380921125412, 0.062462203204631805, -0.06839233636856079, -0.03704473748803139, -0.022923579439520836, -0.021145910024642944, -0.034078776836395264, -0.02182464860379696, 0.05873454734683037, -0.0014633012469857931