0.0003035384579561651, 0.00022898230236023664, 0.0001416254963260144, -0.00022846524370834231, -0.00013510044664144516, 0.00022632046602666378, 6.86325947754085e-05, 0.0002507555182091892, 8.601745503256097e-05, 5.6102460803231224e-05, -0.0002515758969821036, -7.249928603414446e-05, 0.00025395184638909996, -3.8917696656426415e-05, -5.403538671089336e-05, -0.00026269914815202355, -0.00011097908281954005, -0.00023340285406447947, 6.40652360743843e-05, 0.00031356309773400426, -0.00013231229968369007, 0.00018200617341790348, 0.0002842353715095669, 7.41748881409876e-05, 0.0003095152787864208, 0.0002531494537834078, -1.464090746594593e-05, -0.00018057051056530327, 0.00030543061438947916, 8.381912266486324e-06, 0.00022022567281965166, 0.0002073040814138949, 0.0002532755315769464, 0.00013198054512031376, 0.00013794894039165229, 5.0842059863498434e-05, 0.00019833611440844834, 6.5681074374879245e-06, 0.00018281115626450628, 0.0001649783516768366, 5.738737672800198e-05, 0.00027235085144639015, 7.295086834346876e-05, -6.008259151712991e-05, -0.0003035861300304532, -2.229982419521548e-05, -0.0002766657271422446, -3.6523986636893824e-05, -0.0003168126568198204, -0.00021867472969461232, -0.00016316214168909937, 0.00011938386887777597, 0.00030980416340753436, -3.4930244510178454e-06, -0.00017538525571580976, 8.760750642977655e-05, 0.0003055273846257478, 6.514453707495704e-05, -7.741402441752143e-06, -0.0002454054483678192, -6.021756416885182e-05, 0.0002196884888689965, 0.00016627197328489274, -0.00026195411919616163, 6.240413495106623e-05, 7.488681876566261e-05, 0.00032139054383151233, 0.00029876569169573486, 0.00010131421004189178, 0.00015245511895045638, 9.182101348415017e-05, -0.00011140575224999338, 0.00018980047025252134, -0.0003068063233513385, -0.000104660248325672, -0.00025360254221595824, 0.00021311435557436198, -0.00015530163364019245, 0.00024370249593630433, 0.00018652139988262206, 0.0001800525060389191, -0.0002662105252966285, 7.054369780234993e-05, -0.0002094883966492489, -0.00016532602603547275, 0.0002776665787678212, -0.0001552188186906278, -8.838572102831677e-05, 0.00017672026297077537, 8.67242124513723e-05, -4.05811624659691e-05, 0.00027087650960311294, -0.00020843103993684053, 0.00023249196237884462, 0.00014411774463951588, -5.832612077938393e-05, 6.548943929374218e-05, -0.0002199618611484766, -7.058437404339202e-06, 1.7422973542124964e-05, 0.00013810345262754709, -0.00012789323227480054, -0.0001891704014269635, 0.0002825296833179891, 0.00027110331575386226, 0.0001977318897843361, 0.00021900306455790997, -0.00023464859987143427, -3.923935582861304e-05, 0.00029158772667869925, 4.758853719977196e-06, 0.00013918132754042745, -0.00019464953220449388, 0.0002936393429990858, 0.0001880096097011119, 0.0002008945884881541, -0.0002118953416356817, 0.00027829414466395974, -0.0001139560408773832, 0.00018005217134486884, -0.00030904333107173443, -0.0002466229780111462, -0.00012722569226752967, 0.00019279414846096188, -0.0002788602723740041, -0.00014711824769619852, 1.1163854651385918e-05, 0.00017227551143150777