//Numpy array shape [32, 5]
//Min -1.161306619644
//Max 1.032101631165
//Number of zeros 0

#ifndef W11_H_
#define W11_H_

#ifndef __SYNTHESIS__
model_default_t w11[160];
#else
model_default_t w11[160] = {-0.0578572638, -0.0483448803, 0.2936154604, -0.0855570585, -0.4515433013, -0.3082236648, -0.1611638218, 0.4415597320, 0.0962517187, 0.0375165045, -0.4563427866, -0.2868357599, -0.1512807608, 1.0321016312, -0.6055945158, 0.2867830396, -0.2658426166, -0.1996041834, -0.3106864393, -0.1435812116, 0.2445542961, 0.3875003159, 0.1362068504, -0.2057125717, -0.2044699192, -0.2577333748, -0.0929900929, 0.4418564439, 0.5878252983, -0.2298131138, -0.2835994065, -0.0239757802, -0.3766439259, 0.2148165107, -0.1259860843, 0.5256020427, -0.1937671304, -0.3616477251, -0.2339981049, -0.0055031027, 0.1338633448, 0.3646353781, -0.3757609427, -0.0740903020, 0.2103025615, 0.0053137573, 0.0791584253, 0.2176181078, -0.6548506021, 0.3365118802, 0.3829369247, -0.2453423440, -0.0682970732, 0.4718366265, -0.1982530206, 0.0002514288, 0.2661615610, -0.5473963022, -0.0523138978, 0.0314423256, -0.4715407491, -0.4826133847, -0.4942876101, -0.1501006335, 0.6435209513, 0.5010089278, -0.1060388461, -0.2226993740, -0.2578823566, -0.2840451300, 0.0779023319, 0.1833348721, -0.8754442334, 0.4613306820, 0.2795568109, -0.0016294015, -0.0979127362, -0.3111305833, 0.8473958373, -0.3592200875, 0.2501597703, 0.1147821471, -0.0913805142, -0.2315929532, -0.3578451872, 0.0160856918, -0.3537968397, 0.5162215829, -0.0010774895, -0.1531245857, 0.0187329687, 0.3335449994, 0.1772118211, -0.1956201047, -0.1555434465, -0.5997567177, 0.3575923145, -0.0160359796, -0.1150732413, -0.0178951509, 0.0966126323, -0.0007186783, -0.6779928207, -1.1613066196, 0.9727388620, -0.0005118379, -0.2118013203, 0.0645426959, 0.9151230454, -0.5383410454, 0.7455508113, -0.3669438660, 0.5566521287, -0.4044945538, -0.5484485030, 0.0000356911, 0.0000972173, -0.0000321285, -0.0001067891, -0.0000314475, -0.5077165365, -0.3344289660, 0.1093166396, 0.4861851037, 0.5985296369, -0.5453606844, 0.0180545617, -0.4042682946, 0.4845148027, 0.1284344941, -0.4328986406, -0.4871239960, -0.1801102310, 0.3980183005, 0.4854867160, -0.4460359514, -0.5607494712, 0.0925199836, 0.1737793088, -0.0211165566, 0.0222036652, -0.2810899019, 0.0578444935, -0.3996519148, -0.0509241335, -0.4127074778, -0.3933524191, 0.4257210493, 0.0005419998, 0.2931748927, 0.1630516052, -0.0017165018, -0.2072276473, -1.0785688162, 0.7607659698, -0.4679495692, -0.2822593749, 0.3647226989, -0.2653858364, 0.5803422332};
#endif

#endif
