//Numpy array shape [16, 64]
//Min -1.229153871536
//Max 1.013171792030
//Number of zeros 0

#ifndef W2_H_
#define W2_H_

#ifndef __SYNTHESIS__
model_default_t w2[1024];
#else
model_default_t w2[1024] = {0.0075975540, -0.2765801251, 0.0106938025, 0.0160325859, 0.0008111128, 0.3242102563, 0.1651513577, 0.4255711436, 0.1236022934, -0.2915177941, 0.2643699050, 0.1219031140, -0.0117258960, 0.0002214345, 0.0021525370, 0.1772487909, 0.2075162977, 0.1981274784, 0.5323819518, -0.4320904613, -0.1968351305, -0.3306375146, 0.0570840500, 0.1567375064, 0.0184367634, -0.0878929868, 0.0625301227, -0.3618083000, -0.4703461230, 0.0986899957, -0.3648075759, -0.0748640075, -0.1096652597, -0.3253479302, -0.2754693627, -0.0276034772, -0.0060713463, 0.1736625433, 0.3364222646, -0.1491551697, -0.2498531193, 0.0873106644, -0.2030986696, -0.0407758057, 0.2947506011, -0.0949212462, -0.5161430836, -0.0248427223, -0.0042346693, 0.1217246801, 0.1005811617, -0.3528749943, 0.2430925816, -0.1785123199, 0.1415581554, -0.0988921076, -0.3259960115, -0.0696673244, -0.3680990636, -0.3829573989, 0.2813014984, 0.4047547281, 0.0050927005, 0.0005953642, -0.0004902992, 0.2818485200, 0.2591193914, -0.0146447504, -0.1638709754, 0.1944108456, 0.0233581569, 0.0936963409, 0.1802260578, 0.2513077855, -0.3571613133, -0.1921386570, -0.0901917815, -0.2706477940, 0.2926944196, -0.2312490791, 0.0476562493, 0.4156157672, 0.4290880859, 0.2535510361, -0.0312086865, -0.2790329456, 0.1045614406, -0.1737001836, 0.0825846046, -0.2776277363, 0.2514255941, -0.0000065011, -0.2891088724, 0.0751173273, 0.2507037818, 0.0605431721, 0.0858561024, -0.0017163175, 0.0005539502, -0.2552747130, 0.2105975896, 0.2056836039, -0.4002634287, 0.5178074837, -0.0339895412, 0.0026893383, -0.2315352559, 0.2874216735, 0.2560163438, 0.0011215827, -0.3722889721, -0.0000322679, -0.0038079920, -0.0018349835, 0.0003603535, -0.2362301201, 0.3623088896, -0.1084231436, 0.0155890044, 0.4667535424, -0.1654874980, -0.0373793058, -0.0499754287, 0.2910658419, -0.1374843866, 0.3554449677, 0.1244823262, 0.1583784670, 0.1245942041, -0.0314699784, -0.1423797011, 0.6432747245, 0.1916508675, 0.0165006332, 0.0746493638, -0.2380674034, 0.0637586266, 0.0000211329, -0.1248608530, 0.0000162928, -0.0000300804, 0.0001174957, 0.5862890482, -0.3337424994, -0.0466029271, -0.2457075715, -0.1864342988, -0.3184547126, -0.1082074568, 0.0075404770, -0.1061940193, -0.0028218343, -0.2283580601, -0.2224468142, -0.1174968556, 0.3905369639, -0.7403774261, -0.2231092304, -0.0003137830, 0.1815724224, 0.0066036279, -0.3139169812, -0.3150492609, -0.1469487399, 0.1067591533, 0.4295102060, 0.1073063836, 0.0416162089, 0.4182222784, 0.0448179469, 0.1565390080, 0.0007082824, 0.0148841059, 0.0240580197, -0.3798055053, 0.2172060609, -0.0565589443, 0.3865782917, 0.1023476049, 0.3003702760, -0.0000948250, 0.2743061781, -0.6026890278, 0.0589679442, 0.1103196964, 0.1745154262, 0.0714842379, 0.2660742700, 0.2008975297, -0.3143258989, 0.5955927968, 0.1742123216, -0.2207596451, -0.1425182372, -0.0108479448, 0.0271364544, 0.4372710288, 0.1081473976, -0.5408987999, -0.1974212080, 0.0111626191, -0.1908095777, -0.0002121635, -0.6227861643, -0.3453825712, 0.0167777799, -0.2845487595, -0.0003630210, -0.0366620086, -0.6778657436, -0.4104880393, -0.0147821996, -0.4876551032, -0.1515865326, 0.0005278656, -0.4131964743, 0.3933027089, -0.1068178117, -0.0253429916, 0.5398258567, -0.3183614612, 0.4895730615, -0.6100556850, -0.0001001448, 0.3556920290, -0.6407363415, 0.1599988937, -0.7329311371, 0.2610197961, 0.3796907365, 0.1861702651, -0.0952138826, 0.2085645348, 0.3394531906, -0.0689386651, 0.0002004076, -0.5027264953, 0.4523361921, -0.1243112758, -0.0000885599, -0.2120527625, 0.3785201013, 0.3437179923, -0.0936102793, 0.1248202398, -0.2490096390, -0.0577017330, 0.1244414225, 0.0091867195, 0.6822512150, -0.4389342070, 0.2912919521, 0.3457102478, -0.1087623835, 0.1871763915, -0.0648243353, 0.4433604777, 0.1165157408, 0.2649964690, 0.5836004615, 0.2826953530, -0.1090075895, -0.3481708169, 0.0006823210, 0.0500465631, 0.3096293509, -0.1759528667, 0.1743021905, -0.2288120538, 0.0004643863, 0.3832516074, -0.1104705185, -0.0837150365, -0.3140939176, -0.3433903456, 0.0386094823, 0.0526801236, 0.2005055249, 0.1029724628, 0.4888106287, -0.0679325461, -0.1273530573, -0.4352642894, -0.1282781214, -0.5696930289, -0.3551177084, -0.1897291690, -0.0989954919, 0.1134316251, -0.3033493161, -0.0278152060, -0.3055542707, 0.0236963499, 0.1691651344, 0.1957090050, 0.2794413567, 0.0192953795, -0.1557000726, 0.4571595788, 0.0268422887, 0.1492340118, 0.3967337906, -0.4430350661, -0.3244120777, -0.2426811904, 0.0081166327, 0.1778968275, 0.0373161659, 0.0876166672, 0.1459870338, -0.5034026504, 0.3350796700, 0.0001889423, -0.0126501899, -0.2682805955, 0.2167704403, 0.5323422551, -0.0841670036, 0.3369077742, 0.4929328859, -0.2520700097, -0.4559382796, 0.0091414358, 0.3558057547, 0.0002591743, -0.1845514625, -0.3223262131, 0.0231598672, -0.2962619066, -0.0234810039, -0.2832134068, -0.3135463595, -0.3173940480, 0.0000739255, 0.1289079785, 0.0704771578, 0.1223215014, 0.0021584756, 0.1106012762, 0.0935187861, -0.1863665134, 0.0701868534, -0.1304463446, 0.2161743790, 0.1474677473, -0.3858931065, -0.1780117154, 0.2222733051, 0.0003332821, 0.1018189043, -0.1779111028, -0.0043979762, -0.1017176807, -0.0614903159, -0.3237424195, -0.0524744615, 0.0003110210, 0.3966483176, -0.1222555190, 0.1611920297, -0.0130384509, -0.0837071538, 0.2444238216, 0.1839746684, -0.0928222165, -0.0018144224, 0.2687149644, -0.1473824531, -0.2788891196, 0.1281427592, 0.1671942621, 0.3128582537, -0.0388744287, -0.2903263271, -0.1812799126, -0.1929319799, 0.2244509310, -0.1443067789, -0.3792712688, 0.2517484725, 0.1266113520, -0.2605609000, 0.0500477999, -0.3646018207, 0.3520856798, -0.0145567041, -0.3538439274, -0.0322702080, 0.2894563675, 0.1610964835, -0.3342348635, 0.0931147933, -0.0868746191, -0.2691681981, 0.0004811694, 0.1197706386, -0.0102273896, -0.0005328536, 0.1830297559, -0.1474347264, 0.2470104396, 0.0231583100, 0.2283025831, 0.3155952990, -0.1825419068, -0.2704308927, -0.1782833636, 0.2135236710, 0.1154850796, 0.2524752319, -0.3633661866, -0.2719790041, -0.3468300998, -0.0246110186, -0.0647457987, 0.3556136489, 0.0308920238, -0.2223766893, 0.0522091500, -0.0576759763, 0.1567197889, 0.1013964266, -0.0575824715, 0.0008154670, 0.0180563629, 0.0464456007, -0.2345540226, -0.0468692258, -0.1403643638, -0.0850300416, 0.2400618643, 0.1948459148, -0.0567851961, 0.0004183500, 0.0031584273, -0.1554907411, -0.1871770769, 0.2665442526, -0.0610228814, -0.3730670214, 0.0010772627, -0.1163763255, 0.0064246957, 0.2071212083, 0.1012902707, 0.0125334458, -0.1511554867, 0.2260622382, -0.1391279995, 0.1612299979, 0.0858227685, -0.0611575246, -0.0271931868, -0.3574985862, 0.3611976504, 0.1021231264, 0.0022158804, -0.1696638316, 0.0001246314, -0.2347719967, -0.1567918062, 0.1065287143, -0.3465495408, 0.3479702771, 0.0000913972, 0.0856300890, -0.2298196107, 0.1539934427, 0.0010865171, -0.1860887557, 0.3953729272, -0.2146696448, 0.2790763676, -0.2790426612, -0.2984260917, 0.1625918895, 0.0621276684, 0.1305089295, 0.3169129491, 0.0000399622, 0.0797579810, 0.0278829820, -0.0066851126, 0.2642018497, -0.0164457764, -0.3381294906, -0.0793269798, -0.1163852662, 0.2595490217, -0.0910073966, 0.2776817679, -0.2051615715, -0.2870751321, -0.1435553581, 0.1231447980, 0.1345706433, -0.3115086854, -0.2013126463, 0.2091203630, -0.2267586589, -0.3972825706, 0.0744831041, -0.0001475622, 0.2000190765, 0.0580109246, -0.2461065054, -0.0306194145, -0.0004415944, -0.0985462517, -0.0042142766, -0.0046187523, -0.3486872613, 0.3492484391, 0.0210614000, -0.4249182940, -0.1532213688, 0.1861062348, -0.1011806279, 0.4133941531, 0.1648039073, -0.1460926980, 0.0734016225, -0.2050051242, -0.0122575127, 0.2346374094, 0.2955581248, 0.0924247950, -0.0005628113, 0.0086497515, -0.1992099136, -0.0194257032, -0.3169015944, 0.0190100782, 0.3781863451, 0.1502554566, -0.3260506392, -0.2767850757, -0.0030527622, 0.1868597120, -0.2120610476, -0.0624078363, 0.2063036114, 0.2010532767, -0.1439797580, -0.1564266533, 0.0678612664, 0.0758360475, 0.0031744731, -0.0425218418, -0.1536355019, 0.0146693736, -0.3064461052, -0.1958238930, 0.3904294968, -0.2906964719, 0.0808173195, 0.1925545186, -0.0006874715, 0.0093168095, 0.1302156746, -0.1750240177, 0.0002513759, 0.1818629950, -0.0811041817, -0.2611502111, -0.1471281499, 0.0884104520, 0.1797503531, 0.0011899667, 0.3000302017, -0.1753691435, 0.2090208381, -0.2418735623, -0.1956571490, 0.0286388732, -0.1938655823, 0.1885216534, 0.1681697369, -0.2166128010, 0.1364576519, -0.0178306065, 0.3194468319, -0.1518782675, 0.3287225962, -0.0917301327, -0.0720787421, 0.0000579778, -0.1953832656, 0.4254820645, -0.2611121833, -0.1902396083, -0.0762728825, 0.0308087561, 0.2007037997, 0.0766223297, 0.2786512673, 0.0600584745, 0.3293412924, -0.3451057374, 0.2390052527, -0.1305155307, -0.1732163429, 0.0311047696, -0.3989401460, 0.2736618817, -0.2008199394, -0.2322302163, -0.2205775976, -0.3818438351, -0.1439565271, 0.0001988725, -0.2930809855, 0.1442479640, 0.1032269672, 0.1208994165, 0.1886791587, 0.2063585073, -0.0015490697, 0.2858181298, -0.0003003433, 0.1801571250, -0.2700776160, 0.3314965963, 0.4217763841, 0.1347050071, 0.0358498804, 0.1827217042, -0.3116170466, -0.3602806032, -0.0018250900, -0.0456623696, 0.0483210720, -0.3192603588, 0.3861782849, -0.2369940728, -0.0284480117, -0.3431788087, 0.3010914028, -0.3044745922, 0.0882796869, -0.2721484900, -0.1493023038, 0.2789064348, -0.1570804119, -0.2687936127, 0.0561312959, 0.4527146816, -0.0629193708, -0.1776906550, -0.0238877311, 0.1057229266, -0.2388318926, 0.3898136914, -0.0361610837, -0.0224159472, -0.2570282519, -0.0021335406, -0.0265613217, -0.0189919174, 0.1090453789, 0.3767791390, -0.3746513426, -0.3856211603, 0.2643876970, -0.0693515092, 0.0703071803, -0.1881657988, -0.3239560723, -0.2261349708, 0.3431446254, -0.1524263620, -0.0313550979, 0.1627725661, -0.0228708275, 0.2384368628, -0.1031349078, 0.0998461768, -0.2264683247, 0.3759712875, 0.0001070118, -0.2750189304, -0.2831416726, -0.0464513227, -0.3291254342, -0.2486462742, 0.0004094347, -0.2622692585, 0.0772098228, 0.0151508497, -0.2142525464, 0.2181658000, -0.0005282423, 0.2006937563, 0.1440694332, -0.0156819653, 0.0538823307, -0.1274377108, 0.0512076840, -0.2468763590, 0.2753231227, -0.3136495352, 0.0735316277, -0.2476367503, 0.2181024253, -0.2677134871, 0.1215523109, 0.0498152710, -0.0954212993, 0.2634257674, -0.0978569463, -0.3186776340, -0.0445287041, 0.0281022619, -0.3099996150, 0.0978479162, -0.1732634306, 0.2602975368, 0.0157299638, -0.0001870062, 0.0007179580, 0.2369427085, -0.2600159645, 0.1010629013, 0.0013259044, -0.0648113117, -0.0078830775, -0.2383739054, -0.2103942782, -0.2984806299, 0.3563603759, -0.2983809114, -0.3387033045, 0.0309061650, -0.3312711418, -0.0002412523, -0.0000873488, -0.3558444679, -0.5409671664, -0.0927401185, 0.2982160449, -0.0796943903, -0.2937483490, -0.2924884856, -0.2497517467, 0.1052194834, -0.1654921174, 0.0003382308, -0.3342543542, -0.0909629539, 0.0125890216, 0.1971608102, -0.0054893638, -0.2447819114, 0.1155671403, -0.0001139285, -0.1386205554, -0.3923892081, -0.0087104132, -0.1006797999, -0.0486804023, 0.1318337619, -0.2428681105, -0.1250658482, 0.0098952008, 0.0000100988, 0.1071370766, 0.0237264447, 0.3331265152, 0.3196438849, -0.1801774800, 0.1466985345, 0.0538083427, 0.1109882072, 0.0482199080, -0.2475678176, 0.2627876103, -0.3232592344, -0.1765102446, 0.1015941873, -0.2292280942, 0.4036904275, 0.0665731430, -0.0319365188, -0.0150783844, 0.2119678408, -0.2012019157, 0.1987161487, -0.1188807636, -0.0798718035, 0.1094876677, -0.3377894163, -0.2118994147, -0.0885395929, -0.1298521459, -0.2744578421, -0.0068850736, -0.2042387128, -0.0711524189, 0.0002533187, 0.0055848081, -0.1992630213, -0.2441165000, 0.2321490347, 0.1581064612, -0.0162403118, 0.1512777507, -0.1135546565, 0.0071522789, -0.2993901074, -0.0003828240, 0.1234051958, -0.0460038222, 0.2453933805, -0.1495412439, -0.0015958868, 0.2049073130, -0.3386036754, -0.0044075917, 0.0000768871, -0.2615885139, -0.2780400217, -0.2570731640, 0.2072343975, 0.1308008432, -0.1751877218, -0.4380611479, 0.3237713277, -0.0004761349, -0.2170501053, 0.0108101424, 0.0727050006, -0.3972615898, -0.0930601731, -0.0092646508, -0.1546533108, -0.0391827375, 0.0573708750, 0.0865641683, -0.0442683622, -0.2326027155, -0.0347461142, 0.1560996771, 0.0083558718, 0.1883644760, 0.0005440491, 0.0000056464, -0.1335611492, -0.1161993220, -0.0004794071, 0.0004701847, -0.0598267131, 0.2411474437, -0.2336298227, 0.2449350059, 0.0096843187, 0.0942216292, 0.1370797306, -0.0841610730, 0.0227598622, 0.1132858843, 0.0582200028, -0.1612147689, 0.0233638342, 0.1529830098, 0.0578303523, -0.3421447873, 0.1654604673, -0.3119253516, -0.0124104572, 0.1566223055, 0.3856500089, 0.0404926166, -0.0107186632, -0.0007359288, -0.1743599623, -0.0002068624, 0.0568896160, -0.2823795378, -0.1405111849, 0.0003978070, 0.0864231735, -0.0002863525, -0.0228607915, 0.3529787660, 0.1251782328, 0.0491543375, -0.2133898437, -0.0065291477, -0.3238941729, 0.3527210951, 0.2615427077, 0.2663338482, -0.1258880794, -0.0001051478, 0.0002188475, 0.0762175098, 0.3901774585, 0.8315277100, 0.6561040282, -0.6469365954, -0.3768150508, -0.9688960314, -0.7634436488, -0.4119562507, -0.8686938286, 0.4199127555, 0.0016160816, 0.4290232658, 0.2435129881, 0.0067648008, 0.1009084955, 0.0209499039, 0.7188788056, 0.6170614362, 0.4262714386, 0.3514243066, -0.5787637830, -0.2820285261, -0.5826483369, 0.5672552586, 1.0131717920, -0.3199517727, 0.1586671025, -0.0001386869, -0.2428635806, 0.2602039576, -0.0621398389, -0.2970456183, -0.8746136427, -0.1548570096, 0.1719901711, -0.2183570415, -0.4688996077, 0.6995264888, -0.2570404708, -0.3641249537, -0.6071262956, 0.0001016127, 0.2138771564, 0.0004243522, -0.7099357843, -0.0346113294, 0.2315818816, 0.0003525976, 0.7620192766, 0.4917601645, -0.0008525603, 0.1759221554, -0.3336298168, -1.2291538715, 0.0637824908, -0.5641934872, 0.1320817024, 0.8948575854, -0.1101723835, -0.5123401880, -0.6074841022, -0.0279661976, -0.0256844629, 0.0571900494, -0.1263964325, -0.0002772312, 0.0189145170, -0.1611953080, 0.0123476889, 0.0103536639, 0.3322473764, -0.2155874223, -0.3756614029, -0.3134847283, -0.0888206363, -0.3034873903, 0.1071325764, 0.0012285166, -0.1168425009, -0.2870441675, 0.0026853068, 0.2156046927, 0.0462189950, 0.2487162948, -0.1359304041, -0.0312783383, 0.4575010538, 0.0574769564, 0.2001882643, -0.0007175558, 0.2378960103, 0.3555795550, 0.1803858578, 0.3007171750, -0.3721593022, 0.0000016043, 0.0338936262, -0.0265487377, -0.4661483467, -0.1458428204, 0.2672845423, 0.3287408352, 0.5950593352, 0.0013920654, 0.5296979547, -0.0584450960, -0.0475754216, 0.1157515272, 0.0717336684, 0.2070157230, 0.3219658434, -0.2103737593, -0.2050529420, -0.3139299452, -0.4151072502, 0.3069262207, 0.1099180281, -0.2357550114, 0.3678486943, 0.0404253714, -0.2136261165, -0.0452373661, 0.1392015219, 0.2314450741, 0.0023766379, -0.3661381602, 0.0120576788, 0.0308049880};
#endif

#endif
